#ifndef VOICE_CNN_WEIGHTS_H
#define VOICE_CNN_WEIGHTS_H

#include "voice_typedefs.h"

// PyTorch Layer: conv1.weight (Shape: (20, 40, 3))
static const data_t conv1_w[2400] = {
0.094733, 0.054339, -0.043274, -0.121046, 0.009158, 0.261972, 0.187720, 0.118562, -0.110769, 0.194674, 
    0.249140, 0.043102, 0.013163, -0.018645, -0.015472, -0.131754, -0.075878, -0.142669, -0.092910, -0.066035, 
    -0.136827, -0.115587, -0.029552, 0.071721, 0.026048, 0.010346, 0.142721, -0.111889, 0.046845, 0.099471, 
    0.066908, -0.017158, 0.172575, 0.047435, -0.011494, -0.009519, 0.045629, 0.046746, -0.033338, 0.068764, 
    0.000779, -0.017804, -0.157608, -0.041112, -0.081332, -0.016583, -0.017231, -0.035176, 0.002340, 0.032721, 
    0.039013, -0.083027, 0.011028, 0.062245, -0.068132, -0.025189, -0.038301, 0.034849, 0.044891, -0.005162, 
    0.097862, 0.007637, -0.044271, -0.011107, -0.034842, -0.092194, 0.025613, 0.001662, -0.030835, 0.004101, 
    0.018150, -0.020610, 0.033753, -0.033108, 0.008910, 0.073784, -0.020067, -0.070741, 0.031204, 0.004556, 
    -0.006156, -0.060717, 0.004561, -0.021515, -0.024045, 0.016119, 0.035808, 0.009252, 0.027417, 0.006486, 
    -0.043100, -0.020349, 0.042724, -0.042232, -0.055081, -0.013929, 0.079242, -0.033018, -0.043839, -0.017749, 
    -0.063201, -0.082235, 0.027330, -0.023593, -0.026879, 0.055251, -0.001208, -0.038359, -0.011015, -0.056141, 
    -0.062484, -0.009202, -0.050671, -0.094629, 0.042202, -0.079808, -0.068441, 0.052163, -0.037841, -0.046518, 
    0.171050, 0.180660, 0.063531, -0.276395, -0.288903, -0.230373, -0.078192, -0.178041, -0.022706, -0.044400, 
    0.068256, 0.133805, -0.022050, 0.091596, 0.041552, 0.193491, -0.021685, -0.201262, 0.007556, -0.071549, 
    0.006996, -0.055641, 0.029877, 0.076807, 0.096707, 0.101379, 0.040675, 0.102060, -0.000329, 0.045831, 
    -0.056085, -0.033563, -0.127648, -0.060515, 0.037534, 0.022924, -0.062746, -0.031654, 0.068356, -0.008495, 
    0.017757, -0.021735, 0.040572, -0.070866, -0.001952, 0.066058, -0.110296, 0.017248, 0.099071, -0.015028, 
    0.051025, -0.070254, 0.016786, -0.005680, -0.047648, 0.002006, -0.024004, 0.022708, 0.040023, -0.048339, 
    -0.029166, 0.020595, -0.056438, -0.007490, 0.057940, 0.065339, -0.000711, 0.009329, 0.014656, 0.034230, 
    -0.025454, -0.045772, -0.024266, 0.007757, -0.012505, 0.056900, 0.047329, 0.042484, -0.071884, 0.016621, 
    0.025183, -0.014227, 0.024502, -0.023655, -0.025378, 0.052409, 0.012293, 0.010470, -0.010718, -0.015721, 
    -0.023029, 0.037918, -0.006356, 0.022339, 0.034993, 0.007249, 0.013677, 0.038433, 0.015956, 0.021438, 
    -0.018668, 0.005427, -0.002148, -0.028443, 0.048873, -0.002880, -0.057554, -0.011234, -0.061464, -0.023251, 
    0.014683, -0.015318, 0.041048, 0.029122, -0.026652, -0.026053, 0.051651, 0.021305, -0.053096, -0.016736, 
    0.226093, 0.095421, 0.153090, -0.113919, 0.035938, 0.217132, 0.180724, 0.013823, -0.195750, 0.293505, 
    0.005078, -0.067623, -0.209285, -0.210480, -0.081345, -0.055395, -0.025725, -0.188904, -0.034048, -0.039032, 
    0.078318, -0.173426, 0.047190, 0.121835, 0.066767, 0.154830, 0.114378, -0.044510, -0.021942, 0.050740, 
    0.031743, -0.051896, -0.000474, 0.142562, 0.062161, -0.082290, 0.024612, 0.029749, 0.044101, -0.033778, 
    -0.022414, 0.041884, -0.018854, -0.018704, -0.043161, 0.080739, -0.068158, -0.024478, -0.026675, 0.003698, 
    0.016494, -0.155603, -0.069879, 0.001906, -0.013453, -0.050884, -0.058200, 0.039457, 0.052577, -0.010481, 
    0.005648, 0.030821, -0.015205, -0.073741, -0.096495, 0.026989, -0.043497, -0.001239, 0.024496, 0.056230, 
    0.050870, 0.021656, 0.032134, -0.024633, -0.078357, 0.032325, -0.041633, -0.102323, -0.088892, 0.040380, 
    0.047810, -0.029473, -0.042440, -0.056872, 0.014307, 0.034518, 0.040215, 0.049019, 0.026776, -0.038516, 
    -0.023123, -0.048161, -0.029946, -0.040294, -0.017570, 0.012331, -0.067040, -0.010391, 0.049889, -0.007264, 
    -0.030102, -0.022261, 0.060927, 0.001885, -0.017441, -0.017003, -0.002624, -0.029682, 0.021774, -0.017596, 
    -0.008858, -0.052794, -0.015201, 0.019670, 0.032429, -0.001591, -0.011802, -0.043102, -0.037877, -0.060146, 
    -0.071830, -0.018850, -0.164271, 0.017941, 0.110414, 0.248752, -0.142626, -0.209335, -0.233595, -0.126532, 
    -0.050003, 0.088255, -0.040578, -0.075194, -0.022884, 0.082111, 0.031369, -0.230860, 0.205257, -0.136792, 
    -0.058312, -0.198978, -0.034283, 0.142218, 0.272613, 0.185564, -0.202109, 0.013734, 0.018586, -0.213642, 
    -0.063997, -0.014055, 0.100915, -0.016371, 0.062019, 0.072366, -0.091331, -0.007168, 0.048473, -0.050903, 
    -0.027300, 0.056729, 0.153320, 0.119847, 0.012526, -0.024365, -0.035434, 0.058997, -0.026366, -0.046681, 
    -0.120647, 0.084402, 0.148916, 0.071770, 0.017687, -0.001278, -0.054163, 0.073288, 0.020479, -0.165990, 
    -0.004212, 0.152904, 0.189902, 0.096181, 0.028038, 0.022770, 0.005567, -0.034555, -0.013286, -0.036816, 
    0.020038, 0.035101, 0.007043, -0.009425, -0.083637, 0.141442, 0.052395, -0.037888, 0.013034, 0.057503, 
    0.055868, 0.050999, -0.011455, -0.017355, 0.028948, -0.032256, -0.024322, -0.029843, -0.014141, 0.000192, 
    -0.024597, -0.057349, 0.001655, 0.122557, 0.020862, -0.051481, 0.055041, 0.040707, 0.032450, -0.073393, 
    0.027185, 0.061124, 0.004945, -0.057251, 0.006469, 0.003105, 0.019552, -0.023090, 0.025710, 0.021428, 
    0.030621, 0.045592, -0.017928, -0.008916, -0.018332, 0.011026, 0.014950, 0.024391, -0.002871, -0.080919, 
    0.179259, 0.021457, 0.006477, 0.268922, -0.020743, -0.141360, 0.035381, 0.044357, 0.240681, -0.071904, 
    0.076318, 0.238999, 0.087956, 0.066376, 0.041972, -0.202129, 0.031854, 0.256741, -0.377700, -0.127174, 
    0.146459, -0.275916, -0.164459, 0.076081, 0.028668, 0.173348, -0.098461, 0.065436, -0.001108, -0.107991, 
    0.179659, -0.105538, 0.047018, 0.130741, 0.090662, 0.040944, 0.199731, -0.034808, 0.124517, 0.095271, 
    -0.042065, 0.130197, -0.148420, 0.015384, 0.121922, -0.115482, 0.070466, -0.061945, -0.067466, -0.084107, 
    -0.005537, -0.014857, -0.089331, -0.007649, 0.016766, 0.039903, -0.145424, 0.048266, -0.043584, 0.015915, 
    -0.097441, 0.057038, -0.081572, -0.045180, 0.155731, -0.028175, -0.077327, -0.003184, 0.090218, -0.083967, 
    -0.008882, 0.053195, -0.087046, 0.035657, 0.003107, -0.030999, -0.002133, -0.091051, -0.019405, -0.019566, 
    -0.032800, 0.173795, -0.080769, -0.118699, 0.056358, -0.085967, -0.050321, 0.140761, -0.009992, -0.004771, 
    0.214654, -0.135061, 0.029685, 0.035492, -0.024879, -0.067062, -0.049811, 0.058483, 0.041740, 0.039384, 
    -0.029497, -0.011594, -0.080253, 0.009740, 0.035059, -0.235786, 0.051037, 0.085686, -0.093386, -0.078439, 
    0.130804, -0.004243, -0.115750, 0.057847, -0.030362, 0.003478, -0.062896, -0.073757, -0.010058, 0.035260, 
    0.025401, 0.157161, 0.131280, -0.051924, -0.042240, -0.082992, 0.072338, 0.022177, -0.024125, 0.065520, 
    0.053220, -0.034055, 0.006433, 0.095140, 0.014799, 0.048821, -0.022866, -0.130079, 0.051757, 0.009904, 
    -0.160902, -0.118368, -0.093555, -0.108537, -0.084767, -0.128735, -0.153573, -0.057876, -0.163902, -0.096874, 
    -0.197575, -0.095124, 0.051535, 0.037926, 0.071027, 0.199491, -0.109331, -0.000577, 0.072801, 0.030904, 
    0.080151, -0.018473, 0.217923, 0.090135, -0.054899, 0.034084, -0.009477, -0.086724, -0.062810, -0.112674, 
    -0.074807, -0.022794, -0.002396, 0.008412, 0.086157, 0.010466, -0.027489, -0.053921, -0.076469, -0.036129, 
    -0.063786, -0.031297, 0.087769, -0.068695, 0.030114, 0.085998, -0.011564, 0.034117, 0.096325, -0.181222, 
    0.013858, 0.137629, -0.050880, 0.059081, 0.011435, -0.018332, -0.017986, 0.034958, -0.079262, 0.071247, 
    0.011036, 0.024638, -0.036492, 0.027648, -0.028886, 0.012170, -0.059065, 0.004547, -0.044715, 0.061829, 
    -0.020881, 0.047769, 0.045199, -0.006721, 0.052812, 0.036853, 0.021990, 0.037135, 0.043679, 0.079406, 
    0.043492, 0.027281, -0.062303, -0.055307, 0.053361, -0.027852, 0.070072, 0.020812, 0.066928, 0.056648, 
    0.034690, 0.097108, 0.042822, -0.057563, 0.038302, 0.085876, 0.030634, -0.056748, 0.009227, -0.034113, 
    -0.121262, -0.033039, 0.027930, 0.325276, 0.171883, 0.331251, 0.170443, 0.015158, -0.049039, -0.207019, 
    -0.015709, -0.000769, -0.324312, -0.146080, -0.055825, 0.018112, -0.079923, -0.116481, 0.102367, 0.056428, 
    -0.042774, -0.145073, 0.015723, 0.137830, 0.040365, 0.016489, 0.091614, 0.052331, -0.047445, -0.028170, 
    -0.014356, 0.046881, -0.035010, 0.034302, 0.117271, 0.011765, 0.055989, 0.049239, 0.025473, 0.067558, 
    -0.010820, 0.034902, -0.043444, -0.038294, -0.086394, -0.043062, -0.022600, -0.084603, -0.042419, 0.019583, 
    0.009630, 0.018451, -0.015247, 0.062067, 0.021630, 0.021162, -0.004855, 0.024840, 0.028144, -0.028528, 
    -0.005278, -0.005017, -0.015636, 0.047797, -0.017836, 0.029815, 0.050877, -0.050598, -0.056439, 0.073782, 
    -0.099071, -0.014267, 0.013712, -0.070435, 0.136999, 0.007626, 0.011079, -0.008322, -0.032975, 0.045138, 
    -0.060964, -0.000500, -0.048451, 0.034401, 0.034664, -0.034531, 0.038705, 0.053976, 0.061895, 0.030738, 
    -0.010657, -0.040105, 0.073728, -0.023409, -0.016712, -0.047627, 0.003230, 0.027613, 0.006511, 0.015723, 
    -0.016532, -0.046538, 0.039016, -0.003819, 0.000308, -0.024398, -0.017270, -0.108346, -0.036165, -0.016469, 
    -0.109525, 0.047093, 0.013135, 0.008647, -0.027392, 0.011088, 0.006755, -0.011475, -0.014371, -0.047572, 
    -0.224362, -0.183871, 0.038469, 0.256322, 0.108716, -0.145165, -0.004908, -0.070083, 0.052500, -0.017455, 
    -0.206066, -0.343242, 0.024208, 0.014556, -0.032028, 0.001599, 0.130266, 0.193770, -0.070148, 0.059827, 
    0.187758, -0.126019, 0.020271, 0.119839, 0.123053, 0.093473, 0.093508, 0.062659, 0.090320, 0.081963, 
    -0.056018, 0.146578, 0.002322, 0.033509, 0.028485, -0.013308, -0.026412, 0.025546, -0.008648, -0.013706, 
    0.075191, 0.006321, 0.029103, 0.083490, -0.071746, -0.060194, -0.007920, -0.024930, -0.026267, -0.001903, 
    -0.131394, 0.094807, 0.027031, -0.098978, 0.087507, -0.047168, -0.039487, -0.048934, -0.055525, -0.060649, 
    0.004523, 0.024589, 0.019441, -0.001179, 0.007555, -0.059964, 0.018933, 0.039503, -0.062150, -0.015580, 
    -0.054800, -0.008973, 0.012700, -0.018688, 0.045170, 0.043251, 0.022821, 0.053144, -0.030990, -0.012993, 
    0.012059, 0.046130, 0.002675, 0.052649, -0.050023, 0.006383, -0.000387, 0.009206, 0.004780, 0.077569, 
    0.019025, -0.118095, 0.059178, -0.044842, 0.001133, -0.009402, 0.038728, -0.023195, 0.027000, -0.010015, 
    -0.020709, -0.034754, -0.006370, 0.051788, 0.019619, 0.000641, -0.057959, -0.013485, 0.004922, 0.000355, 
    -0.009813, 0.004209, -0.010309, -0.004494, 0.033929, -0.037572, -0.037062, -0.058390, 0.031338, -0.025100, 
    0.082183, -0.064701, -0.337216, -0.016376, 0.158857, 0.366427, 0.013340, 0.135179, 0.098503, 0.148847, 
    0.068326, 0.001623, -0.206500, -0.180444, 0.222953, -0.292355, -0.160472, 0.292999, -0.027878, 0.010658, 
    -0.040157, 0.004173, -0.074349, 0.020266, 0.113965, -0.077818, -0.180837, -0.160593, -0.019906, -0.089928, 
    -0.158306, -0.041343, 0.065773, -0.067710, 0.089156, 0.016246, -0.027984, 0.066432, -0.081150, -0.045785, 
    0.017063, 0.102026, -0.196390, -0.002376, 0.131606, -0.108795, -0.052378, 0.079044, 0.024775, -0.123473, 
    -0.016682, -0.040262, -0.018900, 0.080560, -0.144498, 0.162936, 0.018897, 0.121136, 0.025096, -0.123278, 
    -0.063500, 0.070380, -0.092018, -0.029851, 0.096595, -0.027840, 0.074447, -0.045774, 0.017601, -0.141549, 
    0.053446, -0.001045, 0.060739, -0.045656, 0.026841, 0.110064, -0.020770, -0.000760, 0.034979, -0.048125, 
    0.027277, 0.033583, -0.040012, 0.034756, 0.113436, 0.020738, -0.003579, 0.076134, -0.061243, 0.016772, 
    0.064921, -0.099605, 0.111644, 0.013282, 0.034683, -0.061417, 0.042650, -0.014309, -0.036831, -0.060566, 
    0.025197, 0.026653, -0.023595, 0.039402, -0.020156, 0.105572, -0.035843, -0.031174, 0.017703, -0.055509, 
    -0.060408, 0.015293, 0.038774, -0.074946, 0.121187, 0.037036, -0.083531, -0.009073, -0.002317, -0.042350, 
    0.038172, 0.040178, -0.087664, -0.103014, -0.034145, 0.065089, 0.042061, 0.012184, -0.047232, -0.070295, 
    -0.073761, -0.109028, -0.036290, 0.053941, 0.118560, 0.057173, 0.067229, 0.237556, 0.096515, 0.072334, 
    0.008309, 0.083090, 0.013561, 0.147553, -0.144744, 0.006268, -0.002059, 0.063895, 0.008328, 0.066115, 
    0.003720, -0.088881, -0.136628, 0.061984, -0.002621, -0.022411, -0.045977, 0.016113, 0.020159, -0.043832, 
    -0.034776, -0.124499, -0.091097, -0.087773, -0.012249, 0.056653, 0.030879, -0.028597, -0.036750, -0.073533, 
    -0.101335, 0.056838, -0.027348, -0.022307, 0.050140, -0.030632, 0.007125, -0.134080, -0.075684, -0.084413, 
    0.028291, -0.027425, 0.017693, 0.020672, 0.030801, -0.045869, -0.038432, -0.086288, -0.028917, -0.023778, 
    -0.002237, 0.027911, -0.045831, 0.002559, 0.012596, 0.096612, 0.054598, 0.134931, -0.028981, 0.010396, 
    -0.003622, 0.033071, 0.007897, 0.084879, 0.100169, 0.066133, 0.039935, 0.115866, 0.005513, -0.013538, 
    0.029657, 0.036607, 0.052792, 0.012225, 0.026267, -0.024513, 0.035355, 0.044814, 0.069893, 0.045561, 
    -0.001395, -0.024055, 0.003307, -0.018430, 0.031979, 0.028269, -0.065300, -0.010261, -0.094907, -0.062327, 
    -0.068054, -0.072622, -0.041285, -0.080890, -0.065808, -0.052429, -0.049452, -0.012171, 0.022855, -0.011548, 
    0.009907, 0.017326, -0.019379, -0.092947, -0.082200, -0.034969, 0.141648, 0.061659, 0.002317, -0.012151, 
    -0.067135, -0.214786, 0.086535, 0.154540, 0.197855, 0.130254, 0.048570, -0.009753, -0.047624, -0.135242, 
    -0.138099, 0.149833, 0.070843, 0.021649, 0.092618, 0.015070, 0.140169, 0.082319, -0.003164, -0.012604, 
    0.062766, 0.023453, -0.013046, 0.034824, 0.060308, 0.033562, 0.015832, 0.021844, 0.057431, 0.154379, 
    -0.042120, -0.050357, 0.051881, -0.028879, -0.002658, 0.006071, -0.058439, -0.021817, -0.063389, -0.021192, 
    -0.189155, 0.009674, 0.054030, -0.043137, 0.027427, 0.071439, 0.062281, 0.079091, -0.057131, -0.116541, 
    -0.000659, -0.013980, 0.051961, -0.064226, -0.013921, 0.009984, -0.082936, 0.115134, -0.010441, -0.091166, 
    -0.043101, -0.092930, -0.051334, -0.007457, -0.102552, 0.042379, 0.002877, 0.090107, 0.040584, -0.005886, 
    -0.009801, 0.037420, 0.007940, 0.050774, -0.074635, 0.092464, 0.046401, -0.050439, -0.015907, -0.027741, 
    -0.051076, -0.022471, -0.096761, 0.000573, 0.030910, 0.005841, -0.047539, -0.035404, 0.041043, -0.025672, 
    -0.053914, 0.034837, -0.004796, 0.031403, 0.066939, -0.005170, -0.043165, 0.003112, 0.047106, -0.026453, 
    0.033933, 0.057949, 0.060738, 0.018945, -0.070498, 0.004156, 0.025458, -0.001585, -0.085988, 0.029298, 
    -0.136935, 0.145946, 0.051025, -0.079788, -0.307338, -0.221047, 0.169980, 0.190428, 0.125777, -0.002285, 
    -0.077067, 0.158822, -0.024689, 0.085652, -0.013433, 0.171147, 0.082445, -0.118829, 0.252932, -0.080632, 
    -0.103930, 0.094220, 0.024451, -0.106835, 0.107122, -0.161571, -0.128629, 0.023806, 0.046518, 0.157834, 
    0.061403, -0.018993, -0.037943, -0.202157, -0.037285, -0.015633, -0.161382, 0.116839, -0.015336, -0.139028, 
    -0.004930, 0.045004, 0.008282, 0.031335, -0.010699, -0.005338, 0.095184, 0.020551, 0.007132, 0.004330, 
    -0.149093, 0.068805, -0.121090, -0.060718, 0.138811, 0.038865, -0.018023, 0.050705, 0.074528, 0.010859, 
    0.084758, 0.000623, -0.010346, -0.076653, 0.087853, -0.038127, -0.089295, 0.093417, 0.060375, -0.047136, 
    0.077774, 0.058853, 0.098566, -0.029629, 0.125662, -0.035233, -0.022497, 0.169554, -0.058395, -0.026907, 
    -0.013487, -0.018838, -0.026730, 0.033399, 0.081641, 0.017522, 0.055247, -0.093608, -0.027838, 0.043659, 
    -0.036582, 0.067182, -0.003887, -0.033369, 0.095151, 0.018747, -0.140637, 0.062278, 0.030545, 0.012494, 
    0.023797, 0.087117, 0.034604, -0.042110, -0.029641, 0.001038, -0.034545, -0.113825, 0.091011, -0.107440, 
    0.006389, 0.069626, -0.064403, -0.139019, 0.066887, 0.001548, -0.122046, 0.047135, 0.062911, -0.065858, 
    0.194171, 0.036522, -0.249062, -0.138418, -0.141766, -0.185591, 0.046883, 0.054458, 0.081309, 0.029266, 
    -0.008348, -0.133939, 0.048359, 0.117139, 0.196276, -0.014815, 0.089101, 0.099795, -0.096602, -0.121819, 
    -0.062888, -0.060822, -0.131799, -0.144760, 0.061245, 0.057980, 0.033067, 0.065949, 0.040883, 0.102813, 
    0.049632, 0.040188, 0.091866, -0.018540, -0.135067, -0.101790, 0.063147, 0.074343, 0.011223, -0.020381, 
    0.033243, 0.013588, 0.021194, 0.009983, 0.037572, -0.025741, -0.018081, 0.012501, -0.155227, 0.008945, 
    -0.038095, -0.032163, -0.026558, -0.002307, -0.049264, 0.011155, 0.090541, 0.038113, -0.025993, -0.032645, 
    0.039283, 0.004299, 0.012038, 0.035178, 0.019645, -0.051482, 0.078272, 0.025147, -0.052029, 0.076134, 
    0.080844, 0.065649, 0.123379, 0.052172, -0.011051, 0.004699, 0.037300, 0.039071, -0.016935, 0.005824, 
    0.053816, -0.041510, -0.074161, -0.030059, 0.015732, 0.043985, 0.017794, 0.071811, 0.055900, -0.095124, 
    -0.030820, -0.023424, -0.031706, -0.001266, 0.012823, -0.030536, -0.070070, -0.061544, -0.005763, -0.111596, 
    -0.044299, 0.049083, 0.021948, -0.016460, 0.065420, 0.025738, -0.039730, -0.056121, -0.037266, -0.048045, 
    0.066539, 0.011337, -0.049925, 0.004913, -0.120568, -0.011795, 0.008451, -0.002904, 0.006194, -0.019149, 
    0.269822, 0.343569, 0.124748, -0.144451, 0.380560, 0.361465, -0.163048, 0.045471, 0.042773, -0.104498, 
    -0.005296, 0.088688, 0.150818, -0.145837, -0.105042, 0.056445, -0.149376, 0.104373, 0.067440, -0.087259, 
    -0.000312, 0.144123, -0.138927, -0.018931, 0.019303, -0.175789, 0.095856, -0.169534, -0.053365, 0.198127, 
    -0.259021, -0.090586, 0.066657, -0.248507, -0.081294, 0.050148, 0.019673, -0.072985, -0.061749, 0.071842, 
    -0.070472, -0.065176, 0.038871, -0.079326, 0.022792, 0.114157, -0.110240, 0.003291, 0.207952, -0.110304, 
    -0.071645, 0.134576, 0.044050, -0.104988, 0.097785, -0.027691, -0.125152, 0.153866, -0.022348, -0.069529, 
    0.181358, -0.055684, -0.002105, 0.106635, -0.018049, -0.054732, 0.077192, 0.014650, -0.058387, 0.035027, 
    0.122203, -0.091251, 0.023890, 0.112229, -0.078296, 0.017899, 0.076206, -0.103377, 0.004156, 0.066780, 
    -0.054552, 0.029779, 0.071463, -0.054916, -0.000060, 0.070807, -0.023477, -0.075808, 0.101649, 0.025286, 
    -0.103132, 0.072895, 0.002261, -0.022463, 0.088227, -0.002377, 0.025891, 0.030647, -0.021725, -0.015442, 
    -0.006305, 0.010828, -0.042096, -0.033881, 0.025358, 0.103035, -0.127026, 0.070279, 0.036075, -0.031945, 
    0.005094, -0.001035, -0.068461, 0.016990, 0.034594, -0.096316, 0.079303, -0.013592, 0.029250, -0.027342, 
    0.011409, -0.059797, -0.059568, 0.242598, 0.135475, 0.034535, -0.063635, -0.020090, -0.185575, -0.096203, 
    -0.196486, -0.180769, 0.068997, 0.102812, 0.066169, -0.029961, -0.090986, -0.035080, -0.140755, -0.104247, 
    0.028246, -0.104620, 0.073400, 0.135769, 0.049840, 0.122600, 0.136336, 0.201733, 0.025418, 0.019943, 
    -0.064953, 0.050970, -0.117800, -0.008755, -0.026284, -0.125685, -0.027671, -0.088270, -0.006757, -0.060983, 
    -0.027625, 0.046597, -0.082632, -0.069472, 0.074328, 0.132747, 0.087212, -0.091642, -0.091183, -0.094337, 
    0.058578, -0.009143, 0.059091, 0.126453, 0.078796, 0.087820, 0.014984, 0.004570, 0.015907, 0.000663, 
    0.043682, 0.029084, -0.062456, 0.006743, -0.002118, -0.025089, -0.010981, 0.050562, -0.052779, -0.004264, 
    0.021001, 0.040667, -0.037543, 0.038192, 0.018289, -0.008500, 0.003686, -0.049145, 0.054739, 0.028479, 
    -0.047528, -0.018362, 0.013290, 0.069525, -0.036257, -0.019849, 0.002445, 0.064210, 0.025698, 0.031597, 
    -0.002722, 0.069631, 0.061678, 0.004967, 0.014185, -0.017267, -0.043974, -0.037738, -0.073676, -0.146039, 
    -0.057159, -0.024185, -0.053394, 0.015371, -0.000964, 0.060522, 0.029340, -0.006548, -0.091252, -0.035401, 
    -0.044685, 0.019386, -0.047232, -0.011553, 0.063815, -0.006823, 0.013823, -0.010933, -0.002600, -0.008786, 
    -0.294073, -0.372413, 0.098800, -0.087029, -0.036394, -0.259995, -0.167707, -0.108163, -0.142319, 0.032884, 
    0.230001, -0.109138, 0.006397, 0.224729, 0.101114, -0.102910, -0.081054, -0.033977, 0.040931, 0.012302, 
    -0.065765, 0.175489, 0.203244, 0.139511, 0.097795, 0.092682, 0.122223, -0.039827, -0.060761, 0.071023, 
    -0.059882, -0.064777, -0.030767, 0.031001, -0.017159, 0.039133, -0.099392, -0.038146, 0.047935, -0.109346, 
    -0.040024, 0.139649, 0.030057, -0.054490, 0.051621, 0.053946, -0.050252, 0.041175, 0.124001, -0.077982, 
    -0.024625, 0.038422, -0.037189, 0.003141, 0.044320, -0.061358, 0.074042, 0.061331, -0.131281, 0.117151, 
    0.035851, -0.096079, 0.009893, 0.063456, -0.132739, 0.031375, -0.012469, -0.100122, 0.120295, -0.028219, 
    -0.033617, 0.009771, -0.024013, -0.029074, -0.054814, 0.086563, -0.011611, -0.018822, -0.024897, -0.013206, 
    -0.029815, -0.005029, 0.038510, -0.050406, 0.061865, 0.043162, -0.067811, -0.064047, 0.083685, -0.134404, 
    -0.088477, 0.176255, -0.088392, -0.011588, 0.100614, -0.105079, -0.001114, 0.161240, -0.129242, -0.018920, 
    0.124226, -0.131743, 0.018959, 0.005612, 0.006793, -0.011274, 0.123487, -0.025627, 0.014561, 0.029031, 
    0.004290, -0.021188, 0.059379, 0.040970, -0.018671, 0.089356, -0.062521, -0.020313, 0.017313, 0.027537, 
    -0.179005, -0.169839, 0.082800, 0.045067, 0.053467, -0.158556, 0.059115, 0.062787, 0.363185, -0.191243, 
    -0.186423, 0.131498, 0.055206, 0.054020, -0.086381, 0.078476, 0.142020, 0.013069, 0.040497, 0.042697, 
    -0.018979, -0.010804, 0.032369, -0.095222, -0.039098, 0.032859, -0.096777, -0.088600, 0.005672, -0.144932, 
    0.082583, 0.061849, 0.049279, 0.029585, -0.069783, 0.001757, 0.037214, -0.042427, 0.013608, 0.074083, 
    -0.001068, 0.028163, -0.036265, -0.040231, -0.045066, -0.079787, -0.082751, 0.092609, 0.012555, 0.022312, 
    -0.000601, 0.057134, 0.000774, -0.056057, 0.079067, 0.010209, 0.111447, 0.061709, 0.087806, 0.143255, 
    0.034114, 0.023382, 0.053809, 0.112770, 0.014276, 0.100178, 0.086113, 0.023523, -0.010316, 0.008248, 
    -0.010177, -0.095549, 0.037958, -0.022106, 0.000824, 0.039615, -0.011971, 0.007305, -0.026145, 0.013198, 
    0.007043, 0.070338, 0.079374, 0.014778, -0.007623, -0.046309, -0.011956, 0.007953, -0.035409, 0.002256, 
    0.017239, -0.023835, -0.056770, -0.026461, -0.040598, -0.008380, 0.024604, 0.046659, 0.000268, 0.025347, 
    -0.001812, -0.072190, 0.019504, -0.053598, -0.065588, 0.037804, -0.026300, 0.006769, -0.058772, 0.027065, 
    -0.029490, 0.032033, 0.046845, 0.010152, 0.052794, 0.009402, -0.012142, 0.021719, 0.057058, 0.055852, 
    -0.085879, -0.016933, 0.007184, 0.044723, -0.207089, -0.365574, -0.124599, 0.067813, 0.240836, 0.180975, 
    0.128617, 0.039134, 0.125165, -0.063012, -0.083605, -0.200321, -0.064395, 0.058655, -0.216939, -0.111364, 
    0.002209, -0.098771, 0.108513, 0.057752, 0.052181, -0.078107, 0.018340, -0.178863, -0.033105, -0.049100, 
    -0.054896, -0.022258, -0.079406, 0.012609, 0.018026, 0.017082, 0.075721, 0.051424, 0.063682, 0.046361, 
    -0.045658, 0.156602, -0.002252, -0.077647, -0.018547, -0.059880, -0.016176, -0.070129, 0.014536, -0.018069, 
    0.080072, -0.091119, -0.019023, 0.071851, 0.054956, -0.003643, -0.079236, -0.002371, -0.065312, -0.005118, 
    0.019395, -0.003379, 0.022744, -0.008269, 0.002477, 0.031850, -0.018106, 0.049625, -0.036209, -0.043922, 
    -0.025258, 0.040109, 0.014047, -0.038544, -0.059646, 0.005880, -0.000934, -0.042583, -0.013058, 0.049786, 
    -0.040743, -0.073754, 0.051687, 0.033800, -0.086266, -0.009581, -0.038949, -0.058739, 0.013406, 0.013843, 
    0.009214, 0.024708, 0.006543, -0.016334, 0.023323, -0.014503, 0.009989, 0.007744, -0.029812, 0.024116, 
    -0.008011, -0.032615, 0.029215, 0.015496, -0.061918, 0.038602, 0.031962, -0.035036, -0.022992, 0.009749, 
    -0.005378, -0.059794, 0.020740, 0.084752, 0.025213, 0.020928, 0.001600, -0.020345, 0.025204, -0.009721, 
    -0.195327, -0.033178, 0.127592, 0.327672, 0.201313, -0.009273, -0.058071, 0.014452, 0.263883, -0.037423, 
    0.031034, 0.195919, 0.162082, 0.110813, 0.000035, -0.121833, -0.014869, 0.034841, -0.026498, -0.045175, 
    0.023355, 0.069479, 0.130655, 0.091406, -0.018479, -0.005136, -0.137597, -0.054587, -0.100363, -0.088173, 
    -0.044037, -0.013803, -0.021919, -0.098041, -0.031796, 0.002370, -0.045701, -0.046884, -0.026071, 0.135330, 
    0.001683, -0.028738, -0.091334, -0.009559, -0.078914, -0.077282, -0.089675, 0.018774, 0.133818, 0.118583, 
    0.002805, -0.000686, -0.017324, 0.040343, -0.084099, -0.033931, -0.059759, 0.074426, 0.036065, 0.005590, 
    0.057277, 0.035898, 0.050288, -0.074975, -0.056832, -0.028946, 0.050401, 0.014708, 0.040868, 0.018295, 
    0.010259, -0.009551, 0.076496, 0.029101, -0.037648, -0.106565, -0.051173, -0.058979, 0.050909, -0.074139, 
    -0.042772, -0.077374, 0.021538, -0.092385, 0.061390, -0.070573, -0.008061, -0.052638, 0.036202, 0.015353, 
    0.005348, -0.002963, -0.005735, -0.109527, -0.117473, 0.003909, 0.028800, 0.011017, 0.060789, -0.039920, 
    0.002286, 0.022661, 0.022122, 0.060984, 0.042314, 0.018357, 0.105621, 0.051761, 0.022679, -0.043884, 
    -0.114372, -0.002055, -0.071647, -0.004906, 0.046900, -0.015965, -0.011518, -0.003197, 0.019925, 0.053347, 
    0.059970, 0.070199, 0.131157, 0.116420, 0.017756, -0.199689, -0.095042, -0.089444, -0.108746, 0.133871, 
    0.074675, 0.027960, -0.094790, 0.035432, 0.114871, -0.117142, 0.008063, -0.042518, 0.095190, 0.003385, 
    -0.067659, 0.027083, -0.036687, -0.155597, 0.059269, 0.057890, 0.102308, -0.136501, 0.039710, 0.245294, 
    -0.042616, -0.074849, -0.058835, 0.043989, -0.062367, -0.164477, -0.067629, -0.035540, 0.055307, -0.117646, 
    -0.027227, 0.101633, 0.053273, 0.075157, 0.095111, 0.087775, 0.095376, 0.149283, -0.046907, -0.104242, 
    -0.148166, -0.016573, 0.010088, 0.039300, 0.127626, -0.077362, 0.005817, 0.025130, 0.009435, -0.040117, 
    -0.003491, 0.059469, 0.018774, 0.003506, 0.134655, 0.053928, -0.065793, -0.064846, -0.004565, -0.051934, 
    -0.042396, -0.053329, 0.085884, 0.063005, -0.011033, -0.066810, -0.039734, 0.033242, -0.045807, 0.023517, 
    0.022422, -0.028131, 0.021783, 0.142494, -0.036485, -0.000142, -0.009624, 0.087797, -0.000417, 0.028439, 
    0.159982, 0.176196, -0.066240, 0.002053, 0.055991, 0.009963, 0.005375, -0.091169, -0.050355, -0.033724, 
    -0.009639, 0.019128, -0.004589, -0.073436, -0.128843, -0.040821, 0.068356, -0.036244, -0.020343, -0.027313, 
    -0.013177, -0.044317, -0.056360, -0.154208, 0.047896, 0.014335, -0.033684, 0.040187, -0.032606, -0.089512
    
};

// PyTorch Layer: conv1.bias (Shape: (20,))
static const data_t conv1_b[20] = {
-0.569508, -0.162325, -0.293797, -0.233609, -0.458203, -0.460993, -0.355596, -0.264922, -0.477216, -0.439233, 
    -0.525009, -0.464513, -0.372357, -0.525032, -0.424791, -0.289857, -0.388026, -0.616660, -0.357382, -0.506398
    
};

// PyTorch Layer: conv2.weight (Shape: (40, 20, 3))
static const data_t conv2_w[2400] = {
-0.116169, -0.116145, -0.361611, 0.388284, -0.020241, 0.312343, 0.060115, -0.072157, -0.180262, -0.103279, 
    -0.127781, -0.154451, -0.535886, -0.190595, -0.171684, -0.139667, -0.195509, -0.152177, 0.388159, 0.100947, 
    0.213021, 0.316330, 0.044294, 0.157008, 0.316814, 0.281892, 0.164280, -0.302895, -0.383101, 0.019393, 
    0.605551, 0.553869, 0.630026, -0.527448, -0.577471, -0.480681, 0.457899, 0.239518, 0.670571, -0.109724, 
    0.113029, 0.176719, -0.681926, -0.616555, -0.688587, 0.187068, 0.121147, 0.128871, 0.245778, -0.390628, 
    -0.502030, 0.217445, -0.008966, 0.070948, -0.169073, -0.047050, -0.093367, 0.638843, 0.578274, 0.709955, 
    0.025425, -0.061436, -0.098777, 0.200959, 0.272409, 0.374147, 0.878955, 0.673858, 0.984854, -0.629073, 
    -0.357361, -0.409501, -0.431792, -0.466120, -0.585440, 0.457444, 0.397740, 0.661833, 0.378734, 0.306287, 
    0.437743, -0.227689, -0.134384, -0.312893, 0.075971, -0.015952, -0.222694, 0.042305, 0.248410, 0.168859, 
    -0.163379, 0.225215, -0.000772, -0.627841, -0.564409, -0.570372, 0.153171, 0.234838, 0.293813, -0.727058, 
    -0.620489, -0.591039, -0.126816, 0.554927, 0.094570, -0.216288, -0.011108, -0.038736, 0.317958, 0.540619, 
    0.438567, -0.735047, -0.676115, -0.741907, 0.626819, 0.609926, 0.413327, 0.213380, 0.219748, 0.300721, 
    -0.481042, -0.544246, -0.378866, -0.289567, 0.315506, 0.345367, 0.091789, 0.261422, 0.155022, 0.782133, 
    0.663418, 0.392597, 0.441019, 0.221575, 0.487050, -0.352117, -0.365497, -0.292246, -0.240835, -0.255601, 
    -0.154216, -0.664578, -0.558264, -0.800458, 0.486385, 0.046405, -0.048240, 0.401467, 0.240585, 0.054484, 
    0.294909, 0.702757, 0.673963, -0.316607, 0.115610, 0.295285, -0.306909, -0.048883, 0.069451, -0.247837, 
    -0.518511, -0.614301, 0.397064, 0.180058, -0.269477, -0.893835, -0.538345, -0.485059, -0.115256, -0.103263, 
    -0.092789, -0.012138, 0.319356, 0.398279, 0.802808, 0.008193, 0.841029, 0.221710, 0.000212, -0.015596, 
    -0.629248, 0.014101, -0.027553, 0.162144, 0.062575, 0.174045, -0.512682, 0.246838, -0.207770, 0.258759, 
    0.559274, 0.428197, 0.850318, 0.711483, 0.674131, -0.761964, -0.494890, -0.745556, -0.618776, -0.399958, 
    -0.043379, 0.305012, -0.148651, 0.096543, 0.478554, 0.804792, 0.382691, -0.198820, -0.138270, -0.329273, 
    1.034121, 0.641532, 0.496178, -0.245036, -0.197058, -0.158649, -0.432970, -0.418133, -0.705182, 0.135389, 
    0.524364, 1.117450, -0.067576, -0.118092, 0.018375, 0.184092, -0.496000, -0.985055, -0.539174, -0.437145, 
    -0.206159, -0.122505, 0.515215, 0.213759, 0.092139, -0.151420, 0.120368, -0.086881, -0.008046, 0.020032, 
    -0.969529, -0.484137, -0.388395, 0.456871, 0.282714, 0.319117, -0.492920, 0.365981, 0.245829, 0.356716, 
    0.305782, 0.394094, 0.274875, 0.228544, 0.166002, -0.670764, -0.657463, -0.815891, 0.153108, 0.048874, 
    0.332861, -0.097885, -0.069506, -0.196315, 0.448910, 0.474980, 0.098030, -0.200483, -0.192924, 0.140936, 
    1.490748, 0.813362, 0.602827, -0.236016, -0.454990, -0.531792, 0.206237, -0.285844, -0.317283, -0.287215, 
    0.179420, 0.024589, -0.359376, -0.234558, -0.333273, -0.112231, -0.363239, -0.648256, -0.465449, -0.491591, 
    -0.463716, -0.043633, -0.162975, -0.044393, 0.326461, 0.171812, 0.435275, 0.494565, 0.151011, 0.817206, 
    0.749630, 0.513211, 0.546649, -0.546543, -0.555429, -0.511528, 0.292458, -0.043913, 0.280873, -0.437387, 
    -0.245746, -0.266569, -0.208839, -0.254655, -0.378635, 0.485148, 0.665773, 0.479175, 0.835339, 0.492663, 
    0.852766, -0.463479, -0.582039, -0.245409, -0.667352, -0.350212, -0.636919, 0.178950, -0.103864, 0.274060, 
    -0.332077, -0.213931, -0.092540, -0.367613, -0.306501, -0.629384, 0.566006, 0.346001, 0.502661, 0.413287, 
    0.321197, 0.541430, -0.225440, -0.137078, -0.279108, 0.162550, 0.536743, 1.100722, 0.462583, 0.700732, 
    0.502928, 0.033716, -0.127927, -0.118087, -0.316152, -0.200700, -0.357382, 0.052229, 0.021465, -0.273456, 
    0.611044, -0.004544, 0.297459, -0.174122, -0.244374, -0.722109, 0.398195, 0.574182, 0.548203, 0.373516, 
    0.619792, 0.695913, 0.316802, -0.079722, -0.036313, 0.068666, 0.076222, 0.020928, -0.048409, -0.201314, 
    -0.173102, -0.789308, -0.260858, -0.405618, -0.868230, -0.741573, -0.544702, -0.109023, 0.818238, 0.945468, 
    -0.092577, -0.315416, -0.499354, 0.385020, 0.298417, -0.213176, 0.220390, 0.103964, -0.002758, -0.864611, 
    -0.786550, -0.945198, 0.467475, 1.021084, 0.611382, 0.005520, 0.143643, 0.027878, 0.397729, 0.480720, 
    0.402200, 0.802361, 0.054288, -0.039548, -0.203704, -0.077777, 0.162427, -0.157334, -0.231917, -0.371872, 
    -0.554114, -0.221727, -0.124364, 0.508672, 0.322389, 0.517311, 0.017880, 0.238327, 0.229888, -0.208846, 
    -0.281660, -0.050334, -0.216288, -0.213075, -0.207835, -0.446713, -0.083261, -0.316668, -0.088487, 0.469281, 
    0.146471, 0.075638, 0.066522, -0.048573, 0.243829, 0.453991, 0.310245, -0.324696, -0.097818, -0.082133, 
    1.090574, 0.662016, 0.725700, -0.507890, -0.616663, -0.573609, 0.125245, -0.079423, 0.047082, -0.259072, 
    -0.260957, -0.306264, -0.393809, -0.365177, -0.281144, -0.060235, -0.319513, -0.423302, -0.154101, -0.200885, 
    -0.517422, -0.471788, -0.505157, -0.387799, 0.430866, 0.689259, 0.604733, 0.471545, 0.649598, 0.970040, 
    1.026324, 0.976278, 0.799273, -0.099401, 0.071520, 0.171100, 0.098570, 0.180614, -0.059398, -0.240339, 
    -0.239207, -0.430216, -0.045995, -0.042881, -0.174717, 0.029670, 0.057562, 0.446281, -0.385119, -0.574252, 
    -0.638732, 0.976148, 0.687018, 1.117015, -0.306196, 0.100691, 0.219018, -0.235650, -0.288658, -0.107669, 
    -0.655118, -0.474075, -0.611756, 0.224961, 0.279232, 0.178053, -0.649749, -0.613653, -0.583295, 0.160752, 
    -0.154972, -0.320037, -0.132016, -0.181082, -0.138041, 0.042155, 0.181593, 0.245151, 0.016248, 0.258271, 
    0.267917, -0.053245, 0.377521, 0.231038, -0.217942, -0.056781, -0.293335, -0.332060, -0.217607, -0.462977, 
    -0.359282, -0.052318, -0.233602, 0.376247, -0.119133, -0.024649, -0.501745, -0.260360, -0.150017, -0.012298, 
    -0.049816, -0.064099, 0.212411, 0.392951, 0.154195, -0.740461, -0.321439, -0.681781, 0.241486, 0.418120, 
    0.349049, 0.365776, -0.078292, 0.207271, 0.598997, 0.776934, 0.211893, -0.767261, -0.451738, -0.306092, 
    0.624280, 0.463919, 0.605362, -0.391377, -0.320535, -0.345706, 0.234160, 0.385847, 0.213629, 0.093713, 
    0.724750, 1.327218, -0.511071, -0.564033, -0.266234, 0.642603, -0.076581, 0.082533, -0.481361, -0.632929, 
    -0.839589, 0.075208, -0.119082, -0.418324, -0.219966, -0.232064, -0.593341, 0.073393, 0.276969, 0.239907, 
    -0.688241, -0.378571, -0.344091, -0.231947, 0.155094, 0.152097, -0.277433, 0.462649, -0.198571, 0.622545, 
    0.803893, 0.435619, 1.026163, 0.507274, 1.045115, -0.839711, -0.711913, -0.849831, -0.644122, -0.266578, 
    -0.148663, -0.265082, -0.455491, -0.561417, 0.416189, 0.396411, 0.259672, 0.048843, -0.027333, -0.191627, 
    0.574700, 0.633830, 0.708594, 0.203190, 0.225320, 0.412056, -0.628834, -0.508306, -0.384453, 0.136198, 
    0.475331, 0.630639, -0.073506, 0.119923, 0.001297, -0.130112, -0.449329, -0.861667, -0.598780, -0.451785, 
    -0.239864, 0.107524, -0.101059, 0.341817, 0.287290, -0.343430, 0.216628, -0.290909, -0.188185, -0.077979, 
    -0.291365, -0.527658, -0.281062, -0.495013, -0.205195, -0.032167, 0.078982, 0.124955, 0.318174, 0.421143, 
    0.348669, 0.322696, -0.016619, -0.140779, 0.042710, 0.128228, -0.113400, 0.241441, 0.002449, 0.009450, 
    -0.109591, -0.950324, -0.767132, -0.869178, -0.295152, -0.488061, -0.568485, 0.742543, 0.478221, 0.560927, 
    -0.017956, 0.267817, 0.292418, -0.411335, -0.111234, 0.128542, 0.044051, 0.491540, 0.305913, -0.392877, 
    -0.612804, -0.652272, 0.488690, 0.449281, 0.316785, -0.604457, -0.312156, -0.233218, 0.419293, 0.249578, 
    0.230770, 0.415694, 0.363884, 0.510297, 0.944271, 0.431690, 0.921911, 0.668518, 0.316357, 0.202912, 
    -0.228773, -0.089030, -0.159020, -0.297660, -0.344296, -0.290406, -0.177620, -0.104705, -0.092333, -0.241894, 
    -0.151961, -0.191823, -0.518323, -0.442510, -0.524637, 0.398746, 0.182518, 0.273079, 0.887725, 0.747336, 
    0.653935, -0.077921, -0.360425, -0.128731, -0.320938, 0.113713, -0.059459, -0.180729, 0.216638, 0.115172, 
    0.520635, 0.004186, -0.062674, -0.661506, -0.482006, -0.294225, 1.264683, 0.435073, 0.987220, 0.246121, 
    0.136954, 0.023593, -0.739482, -0.742949, -0.978074, 0.622461, 0.725540, 0.945085, 0.172205, -0.127137, 
    -0.348436, 0.514106, -0.041141, 0.504648, -0.391236, 0.151852, 0.105813, -0.070686, 0.516084, 0.101854, 
    0.202812, 0.027539, 0.125760, 0.430284, 0.215993, 0.069206, 0.621331, 0.478489, 0.571364, 0.001961, 
    0.407950, 0.122262, 0.352485, 0.317726, 0.417127, -0.213365, -0.185287, -0.348341, -0.595238, -0.502405, 
    -0.461338, -0.355660, -0.011333, -0.260338, 0.134256, -0.116022, 0.336155, -0.090121, 0.138861, 0.506674, 
    -0.110997, -0.169916, -0.430906, 0.634480, 0.595390, 0.781080, -0.482370, -0.386296, -0.932118, -0.684519, 
    -0.584200, -0.770028, 0.678534, 1.157223, 1.075884, -0.163261, -0.064500, -0.131394, 0.196381, -0.156292, 
    -0.224856, -0.004822, -0.099097, -0.594986, -0.265895, -0.256991, 0.042536, -0.822377, -0.559834, -0.624319, 
    0.506059, 0.192745, 0.981024, 0.208252, 0.485286, 0.160435, 0.421493, 0.275656, 0.194580, -0.121029, 
    -0.078871, 0.016683, 0.341993, 0.579748, 0.213702, -0.315158, -0.024776, 0.019455, -0.541405, -0.540800, 
    -0.678199, 0.545104, 0.712857, 0.381550, -0.108913, 0.103549, 0.267678, -0.614535, -0.125634, -0.108733, 
    -0.145824, -0.490901, -0.897317, 0.827139, 0.672751, 1.011105, -0.841042, -0.695366, -0.886585, 0.171522, 
    -0.155976, -0.409709, 0.903042, 0.595100, 0.714178, 0.004571, -0.042031, -0.061601, 0.108054, 0.020369, 
    -0.225014, -0.295797, -0.062817, -0.399369, -0.457717, -0.310129, -0.200489, -0.893135, -0.585734, -0.593899, 
    0.601125, 0.573610, 0.395365, 0.385668, 0.432449, 0.393009, 0.505832, 0.105566, 0.486435, -0.614701, 
    -0.518660, -0.583374, -0.594033, -0.721589, -0.644398, 0.660784, 0.649503, 0.806249, -0.334486, -0.081503, 
    -0.240645, 0.777270, 0.601411, 0.223364, -0.320865, -0.130163, -0.214973, 0.035285, 0.109464, 0.162202, 
    -0.171829, -0.148906, -0.192973, -0.410173, -0.271529, -0.179001, -0.285899, -0.142573, -0.025610, -0.317551, 
    -0.377289, -0.436989, 0.206322, 0.198103, -0.013624, -0.019908, -0.023321, -0.022013, 0.503817, 0.750006, 
    0.677471, -0.476540, -0.425694, -0.359659, -0.064633, 0.172558, 0.135882, 0.366281, 0.197625, 0.035030, 
    -0.658629, -0.474293, -0.545597, 0.648524, 0.328906, 0.668415, 0.233446, 0.536276, -0.116710, 0.042332, 
    0.286189, 0.028495, 0.373038, 0.451186, 0.184173, -0.410808, -0.147098, -0.520412, -0.466577, -0.058446, 
    -0.179064, -0.043982, -0.100005, -0.264902, 1.368142, 0.855777, 1.180778, -0.488487, -0.374106, -0.241331, 
    0.445009, 0.931643, 0.299103, -0.187649, 0.029652, -0.153679, -0.378241, -0.461999, -0.572167, -0.240062, 
    0.425054, -0.235107, 0.006554, 0.057971, 0.264160, -0.401011, -0.456999, -0.431708, -0.297447, -0.321719, 
    -0.119711, -0.842462, -0.420028, -0.677322, 0.404091, -0.124946, 0.273804, -0.531449, -0.349976, -0.049068, 
    -0.308435, -0.008372, 0.043457, 0.634204, 0.305782, 0.809546, 0.013158, -0.053538, -0.062245, -0.225885, 
    -0.123558, -0.187467, 0.020371, 0.145891, -0.139061, 0.665605, 0.411716, -0.125479, 0.014702, 0.126996, 
    -0.210078, 0.216976, -0.285992, 0.283846, 1.397417, 1.290074, 1.181819, -0.210213, -0.262384, -0.476146, 
    0.189409, -0.152958, -0.003885, -0.075987, 0.147615, 0.186044, 0.035443, 0.106925, -0.073907, 0.146432, 
    0.268070, -0.642819, 0.118999, -0.422546, 0.027531, -0.036796, -0.317455, 0.172564, -0.058876, 0.080874, 
    0.062918, -1.330815, -1.058398, -1.204864, -0.378369, -0.032010, -0.078949, -0.297303, -0.332964, -0.099315, 
    -0.426265, 0.159925, 0.173934, -0.058963, -0.139961, -0.318664, -0.403741, -0.124241, 0.061375, 0.481824, 
    0.084255, 0.557024, 0.510701, 1.008118, 0.893297, -0.698071, -0.435984, -0.388492, -0.316996, -0.173217, 
    -0.211687, -0.039373, -0.277103, -0.388989, -0.340095, -0.130501, -0.146851, -0.327185, -0.187912, -0.015734, 
    -0.246156, 0.025974, -0.098347, 1.072652, 0.812011, 0.575228, -0.684096, -0.730538, -0.670910, -0.024708, 
    0.679651, 1.007028, 0.139398, 0.228722, 0.404973, 0.157824, 0.310229, -0.040862, -0.574314, -0.459846, 
    -0.196298, 0.021551, -0.021007, 0.010829, -0.183841, -0.412870, -0.366718, -0.768432, -0.501168, -0.309475, 
    1.025436, 0.607027, 1.105715, 0.222161, -0.324962, 0.050325, 0.359250, 0.190077, 0.379626, -0.210752, 
    -0.146329, -0.179301, 0.128611, -0.149043, -0.012948, 0.080966, -0.253159, 0.058850, -0.184767, -0.297844, 
    -0.333416, -0.237668, 0.499776, 0.326608, -0.089183, -0.118120, -0.534739, -0.254026, -0.023087, -0.256253, 
    -0.477012, -0.632999, -0.827576, 0.309598, 0.156486, 0.421304, -0.196450, 0.007343, -0.399269, -0.039066, 
    -0.016713, -0.350002, 0.498343, 0.462373, 0.540318, 0.060533, 0.631543, 0.434142, 0.192678, 0.699557, 
    0.257578, -0.360785, -0.401032, -0.109564, -0.793121, -0.269700, -0.360829, -0.627778, -0.563227, -0.398853, 
    -0.434719, -0.193937, 0.287250, 0.256476, 0.314910, 0.199890, -0.122300, -0.123773, -0.087618, 0.153718, 
    0.129805, -0.163810, 0.166077, 0.253386, 0.433212, 0.078417, 0.036533, -0.004676, 0.303171, 0.142981, 
    0.529634, -0.454431, -0.555521, -0.610061, 0.535009, 0.319907, 0.278810, -0.355509, -0.233402, -0.343375, 
    -0.199912, -0.444340, -0.457010, 1.105091, 0.920231, 1.321464, -0.130302, -0.206105, -0.213888, 0.089168, 
    0.682830, 0.155386, -0.066475, 0.291203, -0.213717, 0.445749, 0.017987, 0.330539, -0.370373, -0.298976, 
    -0.209933, -0.636793, -0.367420, -0.407471, -0.099382, -0.403438, -0.290591, -0.590399, -0.436229, -0.555613, 
    -0.051424, 0.161966, 0.036028, 0.466023, 0.242843, 0.523075, 0.365527, 0.488799, 0.279197, -0.481772, 
    -0.418633, -0.476317, -0.704671, -0.634556, -0.535080, 0.617649, 0.282323, 0.699199, -0.605297, -0.316831, 
    -0.175457, 0.594345, 0.324712, 0.022355, 0.179687, -0.010714, 0.216677, 0.121529, 0.161970, 0.130212, 
    0.279955, 0.496964, 0.247347, -0.465506, -0.405061, -0.478801, -0.155487, -0.140792, -0.017638, -0.499980, 
    -0.507477, -0.599482, 0.155786, 0.152051, -0.092842, -0.181637, -0.313048, -0.304317, 0.091489, 0.510510, 
    0.397325, -0.485649, -0.405997, -0.213114, 0.313023, 0.584264, 0.374732, 0.566316, 0.478514, 0.300160, 
    -0.331689, -0.629859, -0.427231, -0.339761, -0.172589, -0.216897, 0.859902, 0.817070, 0.944647, -0.349539, 
    -0.129487, -0.085146, -0.342270, -0.437518, -0.621474, 0.432547, 0.051818, 0.191343, 0.689892, 0.508513, 
    0.345403, -0.764660, -0.633558, -0.692754, -0.056627, -0.201846, -0.045099, 0.089964, 0.715735, 0.181803, 
    -0.374272, 0.025128, -0.254569, -0.333412, -0.209274, 0.012197, 0.762791, 0.485623, 0.461263, -0.871548, 
    -0.781192, -0.764904, 0.521204, 0.538743, 0.646790, 0.226878, 0.212761, 0.351435, 0.223896, -0.092343, 
    -0.086096, -0.154835, -0.033398, -0.280737, 0.627844, 0.511025, 0.770847, 0.079382, 0.045188, 0.079708, 
    0.228373, 0.019495, 0.171391, -0.556833, 0.358946, -0.204178, -0.261228, 0.079002, 0.299320, 0.413468, 
    0.179615, 0.236423, -0.057730, -0.102568, -0.034446, 0.127400, -0.034193, 0.223825, -0.361104, -0.341818, 
    -0.620841, 0.031607, 0.297485, 0.488373, -0.361689, -0.281516, -0.225658, 1.004332, 0.320478, 0.617109, 
    -0.062296, -0.205741, -0.193606, -0.447454, -0.218429, -0.244209, -0.339032, -0.298759, -0.278170, -0.191522, 
    -0.425774, -0.388375, 0.185553, -0.468225, -0.580913, -0.531598, -0.568752, -0.681381, 0.166402, -0.071739, 
    0.014431, 0.978031, 0.746534, 1.134778, 0.649949, 0.462968, 0.506691, 0.238809, 0.249054, 0.144971, 
    0.597791, 0.563663, 0.645441, 0.273024, 0.375766, 0.424656, 0.412058, 0.497067, 0.025354, -0.462731, 
    -0.487592, -0.705358, -0.359172, -0.388995, -0.648719, 0.613711, 0.295754, 0.804865, -0.440794, -0.544529, 
    -0.369352, 0.857945, 0.911061, 0.754162, -0.490004, -0.268233, -0.105197, 0.258364, 0.279935, 0.347765, 
    -0.357670, -0.493420, -0.587436, -0.074559, 0.087500, -0.060876, -0.656552, -0.531421, -0.483926, -0.459757, 
    -0.370232, -0.548643, 0.025247, -0.166213, -0.018174, -0.068835, 0.048450, -0.155071, 0.461396, 0.789611, 
    0.465784, -0.135648, 0.068420, 0.080968, -0.048821, -0.114289, 0.271163, 0.180889, 0.158577, 0.080317, 
    0.411871, 0.354978, 0.387825, 0.018134, 0.011125, -0.160184, 0.085637, -0.063989, -0.133340, -0.433499, 
    -0.394274, -0.415209, -0.769258, -0.646549, -0.591806, 0.500562, 0.326768, 0.325195, 0.031342, 0.035327, 
    0.094506, 0.508510, 0.259152, 0.274899, -0.603209, -0.470590, -0.619451, 0.797726, 0.180399, 0.395159, 
    -0.305395, -0.308665, -0.265991, -0.782377, -0.604815, -0.743706, 0.317874, 0.210638, 0.281947, 0.228433, 
    0.094756, 0.106184, -0.599137, -0.437808, -0.399692, 0.041134, 0.203338, 0.243238, 0.477034, 0.744991, 
    0.769295, 0.442578, 0.255943, 0.378822, -0.325913, 0.106025, -0.006464, 0.312151, 0.200477, 0.226426, 
    0.786330, -0.054388, 0.462781, -0.717896, -0.760998, -0.823469, 0.142806, -0.163653, -0.171426, -0.158059, 
    -0.003750, -0.072693, -0.076662, -0.300192, -0.155149, 0.369974, 0.396328, 0.368845, 0.797645, 0.390321, 
    0.942064, -0.735744, -0.484592, -0.446727, -1.018177, -0.944172, -0.981220, 0.484644, 0.446976, 0.428836, 
    -0.477003, -0.184680, -0.421333, -0.291858, -0.321947, -0.436980, 0.764180, 0.117594, 0.496929, 0.704547, 
    0.383365, 0.544287, -0.406167, -0.187106, -0.221225, 0.258590, 0.547641, 0.435927, 0.333329, 0.694411, 
    0.436970, 0.783042, 0.586581, 0.576357, -0.304237, -0.047695, 0.126316, 0.152751, 0.186947, -0.096668, 
    0.491358, 0.181524, 0.202374, 0.262555, 0.065228, -0.593065, 0.615300, 0.584233, 0.510968, 0.171305, 
    0.119925, 0.091125, -0.158875, -0.407277, -0.388421, 0.254398, 0.074154, 0.236311, -0.232451, -0.301973, 
    -0.267697, -0.385971, 0.111813, -0.033027, -0.769598, -0.719799, -0.584320, 0.738304, 0.965316, 1.078961, 
    -0.257824, -0.241518, -0.559807, -0.071689, -0.174604, -0.693704, -0.035058, 0.020797, 0.050675, -0.888899, 
    -0.872736, -0.935093, 0.444914, 0.620761, 0.647820, -0.309474, -0.267749, -0.539673, 0.484901, 0.733230, 
    0.579593, 0.949258, 0.166534, 0.299587, 0.338668, 0.407267, 0.660317, 0.519420, 0.128382, -0.063720, 
    0.052445, 0.365095, -0.433835, -0.053803, -0.409906, -0.822257, -0.768747, -0.591603, -0.683832, 0.233562, 
    -0.143698, 0.278241, 0.508284, 0.640154, 0.276657, -0.833290, -0.583800, -0.865524, -0.080759, -0.010862, 
    0.534383, 0.377116, -0.160177, 0.183500, 0.055760, 0.077049, -0.126718, -0.172549, -0.199337, 0.145729, 
    0.610992, -0.014785, 0.026964, -0.300763, -0.038148, 0.015098, 0.290737, 0.152907, 0.232151, 0.562013, 
    1.048423, 1.256969, -0.650605, -0.624212, -0.236135, 0.170062, -0.091608, -0.249066, -0.749734, -0.502927, 
    -0.536317, 1.218986, 0.422242, 0.180290, -0.194150, -0.127976, -0.361258, 0.036516, 0.195308, 0.053267, 
    -0.754542, -0.451982, -0.443183, 0.484229, 0.443087, 0.631477, 0.504307, 0.351849, 0.522076, -0.377663, 
    -0.136572, -0.135315, -0.280847, -0.193535, -0.220378, -0.220321, -0.048047, -0.117664, -0.341264, 0.242180, 
    -0.101684, -0.006323, -0.139776, -0.252508, 0.745851, 0.706139, 0.918020, -0.388373, -0.222497, -0.221905, 
    1.339735, 0.763945, 0.743676, -0.564044, -0.615348, -0.564061, -0.053682, -0.017697, -0.184096, -0.386393, 
    -0.408964, -0.550289, -0.058087, -0.149288, -0.319793, -0.141322, -0.430052, -0.403351, -0.212999, -0.148988, 
    -0.255640, -0.692642, -0.538860, -0.405728, 0.694816, 0.544820, 0.699887, 0.349928, 0.545236, 0.660685, 
    0.765376, 0.643929, 1.040690, -0.663973, -0.941559, -0.935823, -0.370646, -0.282484, 0.023413, -0.528355, 
    -0.081112, -0.046936, 0.448188, 0.345460, 0.062959, 0.122197, 0.332063, 0.297123, 0.234359, -0.238887, 
    0.066468, -0.175401, -0.419840, 0.101053, 0.015506, 0.186452, 0.027275, -0.297784, 0.196266, -0.118279, 
    0.005510, -0.083433, -0.159399, 0.481246, 0.360918, 0.310699, 0.018137, 0.053679, -0.203927, 1.023530, 
    0.686985, 1.190391, -0.292742, -0.124432, -0.223432, 0.820008, 0.104200, 1.193523, -0.358003, 0.068568, 
    -0.140384, -0.140007, -0.115081, -0.335086, -0.311211, -0.291185, -0.382583, -0.287823, -0.247723, -0.524319, 
    -0.876934, -0.720474, -0.628239, 0.264447, 0.482477, 0.472257, 0.579514, 0.749165, 0.537329, -0.142928, 
    -0.062761, -0.161549, -0.129066, -0.231340, -0.241010, -0.292825, -0.239887, -0.029260, -0.010039, 0.022816, 
    0.209374, -0.395897, -0.340325, -0.466106, 0.829406, 0.529602, 0.643462, -0.215896, 0.092237, -0.219795, 
    0.695515, 0.518988, 0.357764, -0.478170, -0.426300, -0.255842, -0.053194, 0.155915, -0.172628, -0.451745, 
    -0.415555, -0.588133, 0.132588, 0.227142, -0.184518, -0.258824, -0.284992, -0.378033, -0.054410, -0.101616, 
    -0.104794, -0.463450, -0.522486, -0.273019, 0.887965, 0.496761, 0.781687, 0.051941, -0.027387, 0.396186, 
    0.341394, 0.604687, 0.287879, 0.162593, 0.229779, 0.790167, 0.216553, 0.540923, 0.098824, -0.491074, 
    -0.574109, -0.596398, -0.356776, -0.490798, -0.662536, 0.442066, 0.615656, 0.750397, -0.699101, -0.493000, 
    -0.590713, 0.923342, 0.354293, 1.038244, 0.291701, 0.238902, 0.233201, -0.129493, -0.172300, -0.147606, 
    0.082053, 0.217400, -0.040189, -0.298044, -0.124648, -0.017879, -0.391642, -0.494493, -0.361939, -0.197970, 
    -0.150042, -0.311283, 0.006898, 0.209872, 0.100925, -0.083644, -0.018868, -0.031550, 0.093760, 0.821878, 
    0.552843, -0.425917, -0.294201, -0.454587, -0.248005, -0.025258, -0.097850, 0.607464, 0.191522, 0.186377, 
    0.394479, 0.641904, 0.587900, -0.617365, -0.752063, -1.041676, -0.460146, -0.247139, -0.362407, 0.082613, 
    -0.201112, 0.155210, 0.669537, 0.611350, 0.472852, -0.507504, 0.067975, -0.119328, -0.296740, -0.139149, 
    -0.214981, 0.076476, -0.124852, 0.163825, -0.071132, 0.111873, -0.000690, -0.035953, -0.024445, 0.096676, 
    -0.040722, 0.329876, -0.326798, 0.588786, 0.299656, 0.347466, -0.220666, -0.266539, -0.138025, 1.102875, 
    0.400143, 1.629830, -0.210093, -0.266297, -0.046361, 0.377817, 0.369921, 0.022147, -0.639890, -0.356439, 
    -0.399790, 0.508852, 0.047179, 0.208873, -0.208403, -0.224735, -0.357365, -0.474249, -0.340642, -0.544932, 
    0.180745, 0.349062, 0.264564, -0.367843, -0.633072, -0.396824, -0.325060, -0.086548, 0.077200, -0.283241, 
    -0.100661, -0.069910, 0.387899, 0.343253, 0.303322, -0.189099, 0.241230, -0.047991, 0.096687, 0.401346, 
    0.181004, -0.145128, -0.235080, -0.268361, 0.545293, 0.661730, 0.294851, -0.429118, -0.388203, -0.534367, 
    0.121322, -0.027722, -0.121431, 0.487396, 0.547848, 0.489776, 0.047504, -0.158220, 0.450028, 0.628888, 
    0.284329, 1.109565, -0.279535, -0.286529, -0.184686, 1.175532, 0.284348, 0.915953, -0.603428, -0.386706, 
    -0.633811, -0.632597, -0.531778, -0.506373, -0.225147, -0.284360, -0.565410, -0.286471, -0.153234, -0.219012, 
    0.034426, 0.239380, 0.383442, 0.524320, 0.671824, 0.235876, 0.414136, 0.336342, 0.228881, -0.115579, 
    0.251374, -0.000953, 0.264644, 0.669089, 0.430714, -0.107011, 0.014954, -0.257937, -0.449054, -0.385864, 
    -0.497637, 0.449269, 0.271858, -0.118501, 0.393550, 0.192704, 0.573994, -0.590463, -0.126362, -0.130638, 
    -0.046584, -0.304301, -0.387488, 0.652973, 0.602689, 1.196587, -0.680874, -0.714972, -1.003884, -0.068697, 
    -0.035428, -0.262325, 0.866555, 0.478213, 0.886772, -0.347882, -0.211221, -0.079299, 0.047235, -0.308891, 
    -0.167767, -0.500553, -0.319769, -0.727201, -0.367939, -0.505000, -0.186963, -0.954281, -0.688187, -0.597181, 
    0.301927, -0.113382, -0.180904, -0.161236, 0.045456, -0.651475, 0.417450, 0.544056, 0.778578, 0.347038, 
    0.663305, 0.686811, 0.338702, -0.008618, -0.007200, -0.023176, -0.093129, -0.209310, -0.144529, -0.207469, 
    -0.195394, -0.940774, -0.429332, -0.434683, -0.602489, -0.618521, -0.325798, -0.101137, 0.637442, 0.758538, 
    0.090732, -0.127477, -0.233536, 0.357787, 0.594115, 0.154579, 0.144946, 0.033840, 0.048141, -1.023026, 
    -0.902436, -1.037378, 0.578295, 1.084230, 0.771332, -0.125053, 0.027323, 0.027432, 0.147726, 0.264256, 
    0.099939, 0.640657, 0.165063, -0.113160, 0.100638, -0.090044, 0.217679, -0.176647, -0.275087, -0.424740, 
    0.014174, -0.129762, 0.291856, -0.701389, -0.426295, -0.442987, -0.139951, -0.033936, -0.136615, 0.395240, 
    0.119868, 0.003270, 0.162848, 0.080133, 0.145208, 0.059758, 0.078870, -0.092610, 0.365459, 1.021579, 
    0.802830, -0.655620, -0.478483, -0.611512, -0.783469, -0.676964, -0.402695, 0.157207, 0.168713, 0.184598, 
    -0.073175, 0.100110, 0.219259, -0.114385, 0.097814, 0.239561, 0.723241, 0.266627, 0.427859, -0.011935, 
    -0.434608, -0.647855, 0.045560, -0.012082, -0.042110, -0.048954, 0.331020, 0.344316, -0.413710, -0.083238, 
    -0.191486, 0.536453, 0.480167, 0.792260, 0.054174, 0.184170, 0.371160, 0.321372, 0.142305, -0.117099, 
    0.396638, 0.569973, 0.591922, -0.135682, -0.467469, -0.262629, -0.471955, -0.103674, 0.005153, -0.513916, 
    -0.364682, -0.208415, 0.084598, 0.238117, -0.101245, 0.188274, 0.600583, 0.201379, 0.248521, 0.623409, 
    0.247586, 0.411240, -0.444344, 0.106118, 0.404297, 0.946734, 0.488599, -0.428963, -0.313347, -0.624101, 
    0.005579, 0.129714, -0.066735, -0.007640, 0.034429, 0.254555, 0.310357, -0.003876, 0.516202, 0.250037, 
    0.991252, 0.355725, -0.286282, -0.467884, -0.545728, 0.861115, 0.226384, 1.332988, -0.523578, -0.113436, 
    -0.519255, -0.809061, -0.739244, -0.777169, -0.271304, -0.349697, -0.703615, -0.207691, -0.100756, -0.287852, 
    0.198709, -0.013765, 0.096766, 0.698024, 0.859317, 0.513179, 0.694987, 0.419351, 0.456342, -0.195509, 
    -0.102670, -0.289944, 0.099022, 0.164408, -0.020374, 0.364280, 0.290881, -0.036334, -0.744196, -0.485068, 
    -0.409948, 0.206358, 0.462846, -0.042265, 0.806615, 0.430522, 0.720957, -0.322393, 0.300686, 0.052452, 
    -0.003397, -0.075105, -0.242596, -0.054428, 0.199840, 0.534300, -0.510435, -0.423708, -0.460282, -0.473952, 
    -0.505372, -0.746574, 0.457585, 0.855919, 0.606008, -0.308143, -0.320739, -0.311108, -0.092574, 0.584318, 
    0.270294, -0.708751, -1.006334, -1.092139, 0.084311, 0.056973, 0.428706, -0.298953, -0.315663, -0.262832
    
};

// PyTorch Layer: conv2.bias (Shape: (40,))
static const data_t conv2_b[40] = {
-0.124415, 0.012696, 0.126676, -0.030651, 0.314863, -0.142627, -0.083393, 0.247556, 0.318597, 0.254188, 
    0.415317, 0.063979, -0.106657, 0.227370, -0.117212, -0.163928, 0.366054, -0.154579, 0.489144, 0.042674, 
    -0.201390, -0.012483, -0.120791, 0.311680, 0.189214, 0.263956, -0.005173, 0.041122, 0.695505, 0.288538, 
    -0.161381, 0.215771, -0.240243, 0.203408, -0.155955, -0.117655, 0.007575, -0.045943, -0.124315, -0.344355
    
};

// PyTorch Layer: fc.weight (Shape: (6, 40))
static const data_t fc_w[240] = {
0.132425, 0.057338, 0.174082, 0.141512, 0.339556, -0.006948, 0.032318, 0.145406, -0.951053, 0.283893, 
    0.225190, 0.259868, 0.290080, -0.249447, -0.615052, -0.746693, 0.260564, 0.222103, 0.063258, -0.459987, 
    0.334480, -0.400019, 0.340879, -0.481539, -1.046630, -0.443127, 0.003465, -0.278597, 0.207862, 0.078473, 
    0.011396, 0.256504, -0.692000, -0.016613, 0.329941, -0.251636, 0.113127, 0.365206, 0.247152, -0.382765, 
    -0.247146, -0.649749, 0.286047, 0.231587, 0.067031, -0.112905, 0.407385, -0.347792, 0.060059, -0.094710, 
    0.327652, 0.416281, 0.024333, 0.080561, -0.036184, -0.534797, -0.391700, -0.848230, 0.353033, -0.149182, 
    -0.096264, -0.645165, -0.163326, 0.474683, -0.055042, -0.027383, 0.323839, 0.309337, 0.372966, -0.601515, 
    0.110432, -0.488441, -0.454766, 0.424764, -0.168521, -0.092136, 0.331150, 0.431930, -0.358470, -0.444931, 
    -0.351902, 0.291692, 0.384197, 0.200172, 0.191601, -0.619702, 0.187273, 0.107241, -0.055496, -0.587073, 
    0.155619, 0.252194, -0.765564, 0.373954, 0.120980, 0.142349, 0.425360, 0.049555, -0.092205, -0.144379, 
    -0.114356, 0.229552, 0.093758, 0.240178, 0.167893, -0.287498, -0.835695, 0.349536, -0.443618, 0.225881, 
    -0.963558, 0.504241, 0.164947, -0.593229, -0.838142, 0.329436, 0.242122, -0.466662, -0.886557, 0.368939, 
    -0.318954, 0.304587, -0.553426, -0.798890, -0.861564, 0.427890, 0.403369, -0.491948, 0.249226, -0.574330, 
    -0.733836, 0.029141, 0.177431, 0.281858, 0.224039, 0.301206, -0.572526, 0.130805, -0.236634, 0.363617, 
    0.280666, -0.021756, 0.211325, -0.142498, 0.269786, 0.194414, 0.288439, 0.349726, -0.562092, -0.465086, 
    0.184552, -0.275720, 0.138635, -0.137142, -0.144581, 0.221631, 0.270505, -0.122734, 0.083173, 0.178805, 
    0.418922, 0.293528, -0.403174, -0.142653, 0.206226, 0.304812, -0.237536, 0.327578, 0.092982, 0.165437, 
    -0.472766, -0.034203, 0.327220, -0.580560, -0.519107, 0.367065, -0.290199, 0.101166, -0.704986, -0.177443, 
    -0.627198, 0.382418, -0.043815, 0.243421, 0.227068, 0.398367, 0.222473, 0.117302, 0.160701, 0.143979, 
    -0.011624, 0.060776, 0.361463, -0.191034, -0.167551, -0.634940, -0.524937, -0.002461, 0.108623, -0.203754, 
    -0.097707, -0.314935, -0.451333, 0.368095, -0.024874, -0.029322, -0.437834, -0.182579, 0.310187, 0.250857, 
    0.107414, -0.810936, -0.114065, 0.016679, 0.219116, 0.001232, 0.278440, 0.397130, 0.317451, 0.001192, 
    0.221037, -0.201850, -0.672484, -0.388558, 0.022869, -0.242750, -0.325248, -0.535960, 0.277437, -0.200514, 
    0.342965, -0.333788, 0.245914, 0.382078, 0.201454, 0.356608, -0.521825, -0.315638, 0.315054, 0.077962
    
};

// PyTorch Layer: fc.bias (Shape: (6,))
static const data_t fc_b[6] = {
-0.066281, 0.109742, -0.059264, 0.014345, 0.100069, 0.127649
};

#endif // VOICE_CNN_WEIGHTS_H
