#ifndef VOICE_CNN_WEIGHTS_H
#define VOICE_CNN_WEIGHTS_H

#include "voice_typedefs.h"

// PyTorch Layer: conv1.weight (Shape: (20, 40, 3))
static const data_t conv1_w[2400] = {
0.129358, 0.132317, -0.017703, 0.208778, 0.086076, 0.153996, 0.070461, 0.146784, 0.225488, -0.128528, 
    -0.016501, -0.144187, 0.181980, 0.045764, 0.042664, 0.034147, 0.089186, 0.027574, -0.073839, -0.054117, 
    -0.005936, -0.189993, -0.173702, -0.088518, -0.098599, -0.061669, -0.084775, -0.071978, -0.024499, -0.139641, 
    0.129209, -0.074517, 0.025198, -0.021300, 0.002630, 0.141218, -0.026357, 0.030226, -0.015649, -0.018219, 
    0.019529, -0.073476, 0.102119, 0.055143, 0.048951, 0.006892, 0.078083, 0.068922, -0.002377, -0.055897, 
    0.007267, 0.036264, -0.008602, 0.136496, 0.035811, -0.006256, 0.037817, -0.014845, 0.021732, -0.064296, 
    -0.007148, -0.084611, 0.056457, 0.105364, 0.109457, 0.057761, 0.052590, -0.064161, -0.036380, -0.063122, 
    0.000884, -0.033592, 0.035331, -0.064236, -0.051756, -0.088374, -0.030366, 0.008239, 0.027415, 0.041754, 
    -0.009852, 0.003930, 0.079089, -0.029135, -0.002495, -0.043241, 0.033109, -0.019093, -0.002372, 0.047798, 
    -0.002278, -0.031518, 0.012706, 0.125028, 0.052033, 0.077294, 0.033819, -0.037495, -0.077891, -0.005383, 
    -0.016939, 0.086646, 0.091789, 0.026863, 0.002537, 0.008564, -0.027082, -0.030777, -0.017038, -0.042910, 
    0.043758, 0.062733, 0.078796, -0.007607, -0.021208, -0.010949, 0.002865, -0.020389, 0.052285, -0.030001, 
    0.090693, 0.054716, 0.049561, -0.280898, -0.277158, -0.153356, -0.114416, -0.094974, 0.053585, -0.232703, 
    -0.036073, -0.008182, -0.139287, 0.105111, 0.027704, -0.187426, -0.171002, -0.080539, 0.191225, 0.022180, 
    -0.103415, -0.022755, 0.115654, -0.104399, -0.055499, -0.036710, 0.012592, -0.063927, 0.014641, -0.069659, 
    -0.043235, -0.109748, -0.073079, -0.061081, 0.089273, -0.156626, 0.003316, -0.036610, -0.031552, -0.176716, 
    -0.009179, 0.023682, 0.065726, -0.169114, 0.060033, 0.061449, -0.063726, -0.072222, 0.151537, -0.053940, 
    -0.124931, -0.006857, 0.048418, -0.055878, -0.010609, -0.036821, -0.005857, 0.126485, 0.143524, -0.002527, 
    0.041401, 0.163626, 0.126368, -0.105977, -0.035031, 0.039650, 0.062497, -0.038804, -0.030841, 0.127477, 
    0.034481, -0.024229, 0.033896, 0.148311, 0.031671, -0.028459, -0.024475, 0.044376, -0.002632, 0.008940, 
    -0.032441, -0.007863, 0.059801, 0.032923, 0.046462, 0.049811, 0.084197, -0.036993, -0.037888, 0.017460, 
    0.041603, 0.068801, -0.059728, -0.002400, 0.024832, 0.096618, 0.132071, 0.002080, 0.075484, 0.045262, 
    -0.026318, 0.119290, -0.061302, 0.004026, 0.031526, 0.080874, -0.017858, 0.022768, 0.097779, -0.155778, 
    0.004360, 0.052439, 0.042152, 0.080516, -0.136886, -0.021899, 0.090343, 0.015631, 0.031862, -0.042032, 
    0.071420, 0.067839, 0.153795, -0.064884, -0.035701, -0.101460, 0.059264, 0.049756, -0.099990, 0.271271, 
    0.165729, 0.152915, -0.055239, -0.120030, -0.058008, -0.090857, 0.001827, -0.123728, 0.000364, -0.036870, 
    -0.053553, -0.033232, 0.071097, 0.044190, 0.000174, 0.099904, 0.048366, -0.088677, -0.104403, -0.068513, 
    0.066911, -0.073886, -0.040494, 0.052768, 0.058102, -0.033462, -0.031792, 0.037529, 0.079718, -0.067163, 
    -0.015923, -0.017100, -0.024538, -0.072509, -0.136779, 0.074448, -0.009275, 0.016091, 0.047424, 0.062847, 
    0.007918, 0.003818, -0.005736, -0.027991, -0.019456, -0.072044, -0.001925, -0.021640, -0.030041, -0.066162, 
    -0.022633, 0.032816, 0.022043, 0.015290, 0.015922, 0.133227, -0.104247, -0.046795, -0.004184, -0.085622, 
    0.013804, 0.016319, -0.023492, 0.012897, 0.009485, -0.011765, 0.001832, 0.012329, -0.098369, -0.042225, 
    -0.021950, 0.008527, 0.061605, 0.027120, -0.006313, 0.010908, -0.005763, -0.057591, -0.051960, -0.014680, 
    -0.069243, -0.070878, -0.006818, -0.027287, -0.034871, -0.070618, 0.033044, -0.003182, -0.070507, -0.025663, 
    -0.039527, -0.044893, 0.006908, -0.036706, -0.097083, -0.089297, -0.029436, -0.064472, -0.032578, -0.027368, 
    0.034328, 0.066041, -0.006160, 0.032471, -0.026837, 0.015407, 0.012969, -0.009166, -0.069895, -0.005667, 
    0.086508, 0.049658, 0.089174, -0.067011, 0.105200, 0.227663, -0.084034, -0.195382, -0.285848, -0.057139, 
    0.023040, 0.047495, -0.148767, -0.078987, -0.091441, 0.024576, 0.009101, -0.063842, 0.347895, -0.035158, 
    0.030487, 0.049820, 0.029444, 0.007515, 0.111310, 0.182258, -0.144495, 0.037785, 0.173802, -0.000774, 
    0.038066, -0.041791, 0.060051, -0.069455, 0.035335, -0.101490, -0.115827, 0.017317, 0.014129, -0.104055, 
    -0.105388, -0.050259, 0.096828, 0.122728, 0.054995, 0.044563, 0.103500, 0.105995, 0.003516, 0.035662, 
    -0.159687, 0.002071, 0.147063, 0.015075, 0.039750, -0.073041, -0.060627, 0.067340, -0.001992, -0.010870, 
    -0.051158, 0.059518, 0.000913, -0.004972, 0.055905, -0.059321, 0.083516, -0.083540, -0.006472, 0.043137, 
    0.003774, 0.019111, -0.042723, 0.069329, -0.081085, 0.081412, -0.019811, 0.048138, -0.035434, -0.004819, 
    -0.056497, 0.075477, -0.039883, 0.028600, 0.145253, -0.046648, -0.027206, 0.045225, 0.017224, -0.010535, 
    -0.028910, -0.095885, -0.000930, 0.118595, 0.022814, 0.051260, -0.021358, 0.029554, -0.075539, -0.028217, 
    0.019271, 0.019610, 0.108011, -0.014215, 0.062998, 0.051423, 0.014398, -0.091399, -0.021356, 0.013216, 
    -0.029725, 0.005928, -0.062501, 0.052548, -0.055288, 0.099910, 0.027397, -0.069550, 0.006080, -0.077624, 
    -0.080817, -0.191874, -0.164897, -0.114560, -0.170993, -0.165217, 0.011159, -0.037759, 0.138471, 0.252189, 
    0.143237, 0.209231, 0.088888, 0.077261, -0.073783, -0.205700, -0.064820, -0.015778, -0.095599, -0.123387, 
    -0.128623, -0.165151, 0.054569, 0.196382, -0.010148, 0.003899, -0.045053, 0.001429, -0.008202, -0.003900, 
    -0.054533, -0.033980, 0.140271, 0.022815, 0.046446, -0.026084, 0.200462, -0.063067, -0.003273, 0.125846, 
    0.094586, 0.106414, -0.022475, 0.013198, -0.021154, -0.070979, 0.020363, 0.086568, 0.015379, -0.003482, 
    -0.028970, -0.073184, -0.058929, 0.144106, 0.093267, -0.001466, -0.064138, 0.026706, -0.041141, 0.168639, 
    -0.031929, -0.008048, -0.034542, -0.040470, -0.016458, -0.064315, 0.063435, 0.033243, -0.022907, -0.054371, 
    -0.049085, 0.050718, -0.071050, 0.016515, 0.021969, -0.036027, 0.005443, 0.006440, -0.065630, 0.014772, 
    -0.029244, -0.005425, -0.010342, -0.149642, -0.084106, 0.048768, -0.061228, -0.043568, -0.004746, -0.078725, 
    0.042166, 0.010433, -0.043184, -0.048079, -0.021002, -0.140405, -0.015191, 0.017825, -0.043804, -0.027512, 
    0.076872, -0.026228, -0.056626, 0.051097, -0.021505, -0.087964, -0.014700, 0.027309, 0.021697, 0.004146, 
    0.048756, 0.001095, -0.074392, -0.006169, -0.040760, -0.050112, 0.109737, -0.056562, 0.036073, -0.016148, 
    0.082940, 0.235723, 0.119111, 0.002319, 0.023368, 0.006179, -0.063314, -0.031600, 0.047762, 0.241148, 
    0.123103, -0.108537, 0.033864, 0.079766, -0.102218, -0.090610, -0.075793, -0.149390, -0.024461, 0.123702, 
    -0.022381, -0.038616, -0.023045, -0.009849, -0.040764, -0.096119, -0.098292, 0.048129, -0.032323, 0.072115, 
    -0.072201, -0.040953, 0.061218, -0.031756, -0.016457, 0.018866, -0.003459, 0.061669, -0.038115, -0.027780, 
    0.065970, -0.043469, 0.115871, 0.110847, 0.033754, -0.101079, -0.015355, 0.012801, -0.119499, -0.160815, 
    -0.108263, -0.037204, 0.047045, -0.038267, 0.044993, 0.047174, 0.003507, -0.072849, -0.093088, 0.003633, 
    -0.185947, -0.047966, 0.014319, -0.007573, 0.092727, 0.049775, -0.098888, -0.079958, 0.005932, -0.070820, 
    -0.074015, 0.022763, 0.099201, 0.077871, -0.029331, 0.071176, -0.030047, 0.013297, -0.134464, -0.053891, 
    0.016503, -0.077587, -0.085491, 0.045645, 0.012423, 0.101721, -0.041721, 0.000974, -0.128647, -0.046962, 
    0.035528, 0.132886, 0.131449, -0.026763, 0.038668, 0.073690, -0.009655, 0.031762, -0.010627, 0.057019, 
    0.064997, 0.004613, -0.077966, -0.032105, 0.014046, 0.013939, 0.056101, 0.034906, 0.053466, 0.060537, 
    -0.045672, 0.060679, 0.002067, -0.038936, 0.050162, -0.010109, -0.005448, -0.081485, -0.057479, -0.055004, 
    0.003591, 0.080190, 0.082355, 0.275629, 0.103329, 0.118508, 0.106157, -0.073592, -0.142940, -0.084565, 
    0.043295, -0.092730, -0.299720, -0.114930, -0.178976, -0.010482, -0.049109, -0.091908, 0.094402, 0.098395, 
    0.068338, 0.029696, 0.107968, 0.212270, -0.107726, -0.016299, 0.141055, -0.141396, -0.109976, 0.040213, 
    -0.155424, -0.073720, -0.121959, 0.055076, 0.103572, -0.030306, 0.121499, 0.063878, 0.045215, 0.160680, 
    -0.030638, 0.018741, -0.097676, -0.087164, -0.051766, -0.072543, -0.043915, -0.138262, -0.038621, 0.092155, 
    0.054732, 0.013171, -0.056219, 0.049908, -0.057516, -0.005069, 0.003846, -0.006806, 0.010746, 0.005961, 
    0.049357, -0.039064, 0.000455, 0.160597, -0.037546, -0.065448, -0.008976, -0.055462, -0.123452, 0.070148, 
    -0.150688, 0.088848, -0.036275, -0.039279, 0.093449, -0.121367, 0.024247, 0.116453, -0.058300, 0.127030, 
    -0.068124, 0.058359, 0.006603, 0.054825, -0.005124, -0.073283, 0.000903, 0.037857, 0.072607, -0.053801, 
    -0.047591, -0.008628, 0.058284, 0.060058, 0.033923, -0.103398, -0.043217, 0.075202, -0.032125, 0.012480, 
    -0.047706, 0.058737, 0.014869, 0.040850, 0.009710, 0.037277, 0.111784, -0.039523, 0.001455, 0.049969, 
    -0.067611, 0.041524, 0.028162, -0.024435, 0.018189, 0.049354, -0.045756, -0.008631, 0.027126, -0.048930, 
    -0.104834, -0.224825, -0.203723, -0.018517, 0.019797, -0.077179, -0.136226, -0.087227, 0.052662, -0.061475, 
    -0.047742, 0.029886, -0.005043, 0.090374, 0.073136, 0.185055, 0.139596, 0.100591, -0.009104, 0.060786, 
    0.065949, -0.081634, 0.033140, -0.060551, 0.106769, 0.196822, 0.144415, 0.052426, 0.041066, 0.002225, 
    0.002108, 0.163685, 0.087649, -0.005313, -0.043776, -0.100682, -0.011566, -0.050120, 0.025418, 0.052820, 
    0.035253, 0.028349, 0.010452, -0.000811, 0.029669, -0.053590, -0.029608, -0.105232, -0.040419, 0.060287, 
    -0.001777, 0.016452, -0.040498, -0.030826, 0.037427, -0.001235, -0.021050, -0.081400, -0.014284, -0.024008, 
    -0.033925, -0.024613, 0.021721, -0.053134, -0.045445, -0.035559, -0.042217, -0.006053, -0.080436, 0.013270, 
    -0.030395, 0.089804, -0.012058, -0.072910, 0.049512, 0.068317, -0.002533, 0.064420, 0.015889, -0.012832, 
    0.021547, 0.018415, -0.076424, -0.047005, 0.022577, -0.059114, -0.006953, 0.020864, -0.050568, -0.059962, 
    0.111577, -0.064210, -0.011496, 0.007780, 0.049690, 0.021698, -0.038550, 0.046656, -0.004088, -0.007055, 
    0.006301, -0.048134, 0.050191, 0.052161, 0.031349, 0.040399, 0.000892, -0.001975, -0.060887, 0.002921, 
    -0.058153, -0.016457, 0.023453, 0.037335, 0.044907, -0.021438, -0.072633, -0.032902, -0.025551, -0.043009, 
    0.016733, -0.012921, -0.140705, 0.187569, 0.237682, 0.326228, 0.060387, 0.051558, 0.013119, 0.096485, 
    0.120517, 0.136035, -0.121284, -0.206302, -0.047841, -0.147244, -0.038125, 0.149338, -0.122865, -0.032289, 
    0.021434, -0.206089, -0.064114, 0.116210, -0.043983, -0.111133, -0.074788, -0.096292, -0.019257, -0.060703, 
    -0.165156, 0.026131, -0.041457, -0.113882, 0.148585, 0.061504, -0.098948, 0.089142, 0.031801, -0.153964, 
    0.158050, 0.004657, -0.169233, 0.114069, 0.007862, -0.142632, 0.073903, 0.139713, -0.028550, -0.131623, 
    0.013546, -0.089735, -0.009585, 0.029906, -0.018698, 0.096723, 0.019713, 0.022420, -0.015217, 0.042773, 
    -0.119501, -0.016417, -0.157945, 0.036598, 0.102860, -0.009793, 0.054528, -0.131807, 0.022448, -0.050969, 
    0.048428, -0.027684, 0.016816, -0.150751, -0.064450, 0.103250, -0.013454, 0.002118, 0.103078, -0.033896, 
    -0.082299, 0.003784, -0.026779, -0.042213, 0.149973, -0.162729, 0.000360, 0.133721, -0.070247, -0.052229, 
    0.143617, -0.014231, -0.056682, 0.059009, 0.020807, -0.041131, 0.164243, -0.066582, -0.077370, -0.013367, 
    -0.034435, 0.005699, 0.006495, 0.025386, -0.043770, 0.011546, -0.116113, 0.040819, 0.051165, -0.078544, 
    0.119578, 0.031942, -0.066558, 0.023929, 0.035021, 0.011379, 0.031252, -0.002622, -0.099833, -0.022363, 
    0.032698, 0.035470, -0.078104, -0.056864, -0.015607, 0.050599, 0.106749, 0.079043, -0.012599, -0.221423, 
    -0.119265, -0.040359, -0.150846, 0.016679, 0.066212, 0.124340, 0.118162, 0.260051, 0.029484, 0.105692, 
    -0.060846, 0.112229, -0.026674, 0.032249, -0.112912, -0.012887, -0.084939, -0.070263, -0.102095, -0.037898, 
    -0.143492, -0.157396, -0.095080, 0.138089, 0.007975, -0.047628, -0.182173, -0.000733, 0.008234, 0.014605, 
    0.035267, -0.054900, -0.020914, -0.131791, -0.038330, -0.095604, 0.026629, 0.069371, -0.027939, 0.020126, 
    -0.078626, 0.025707, -0.045372, -0.072991, 0.124212, 0.102742, 0.098518, 0.070831, -0.085467, -0.070325, 
    -0.011465, -0.070906, -0.012847, -0.038112, 0.062656, -0.100610, -0.059922, -0.052272, -0.018329, 0.000812, 
    -0.036558, 0.147164, 0.015511, -0.038765, 0.003071, 0.056241, 0.053448, 0.089774, -0.073268, 0.022642, 
    0.046587, 0.085811, 0.023530, 0.097227, -0.001306, 0.151381, 0.001079, 0.056740, 0.006548, 0.040623, 
    0.109233, 0.048603, 0.060014, -0.074834, 0.025652, -0.037097, 0.154543, 0.053257, 0.080070, -0.026224, 
    -0.001853, 0.003436, 0.008864, -0.032744, -0.015039, -0.064677, 0.016723, 0.039448, -0.048776, 0.025084, 
    -0.005959, 0.047217, 0.035955, -0.065259, -0.044839, -0.029715, -0.046432, 0.016075, 0.010462, -0.042463, 
    -0.041676, -0.059461, -0.138829, -0.083161, -0.153505, -0.122809, 0.117298, 0.067738, 0.125029, 0.084187, 
    0.039112, -0.182602, 0.136115, 0.139076, 0.100120, 0.071506, 0.106508, 0.077359, -0.029983, -0.091427, 
    -0.155462, 0.031891, 0.052275, -0.028876, 0.071595, -0.050586, 0.096529, 0.128249, 0.011234, -0.036696, 
    0.087505, -0.018241, 0.031731, 0.058794, 0.048599, 0.017588, -0.010854, -0.011266, -0.005445, 0.103600, 
    -0.021887, 0.079370, 0.001176, -0.038328, 0.021026, 0.005722, -0.040333, -0.009346, -0.058407, -0.016595, 
    -0.041059, -0.073085, -0.031260, -0.016899, 0.011691, 0.091737, 0.035499, 0.028337, 0.011983, -0.040444, 
    -0.019083, 0.029363, -0.109557, -0.091717, -0.005501, -0.022637, -0.049695, 0.019567, -0.071128, -0.011198, 
    0.015814, -0.085106, 0.047750, 0.054525, 0.003263, -0.023972, 0.003868, 0.048301, 0.009804, 0.034442, 
    0.007000, -0.068435, -0.028720, -0.090100, -0.099963, 0.036904, -0.032269, -0.042354, 0.017983, -0.008177, 
    0.032414, 0.019383, 0.010978, 0.071030, 0.049850, 0.082064, -0.055052, 0.029232, 0.010723, -0.030418, 
    -0.083957, -0.089657, 0.096307, -0.019991, -0.001420, 0.037076, -0.031592, -0.006361, -0.080547, -0.087626, 
    -0.026566, 0.065130, 0.089453, 0.056181, -0.069290, -0.105904, -0.058191, -0.016791, -0.013878, 0.064793, 
    -0.061760, 0.009491, -0.008240, -0.140920, -0.281683, -0.208987, 0.203997, 0.262394, 0.041556, 0.119629, 
    0.038892, 0.072160, 0.062206, 0.072462, -0.119489, -0.002606, -0.004071, -0.070145, 0.143272, -0.037954, 
    0.047757, -0.041626, -0.063462, 0.020999, 0.143147, -0.052941, -0.061618, -0.005404, -0.106698, -0.053279, 
    0.055422, 0.043861, 0.207933, -0.001574, -0.012773, -0.010246, -0.059840, 0.019038, -0.043233, -0.025598, 
    -0.051273, -0.039323, -0.075941, 0.016740, -0.058940, -0.020790, 0.061187, -0.009417, -0.058256, 0.059211, 
    -0.067755, 0.067662, -0.111333, -0.142431, 0.106083, 0.050980, 0.120468, 0.012578, 0.036007, 0.037707, 
    0.059765, -0.122325, -0.006551, -0.085937, 0.159182, 0.041219, 0.051674, -0.005230, 0.014748, 0.012889, 
    -0.009707, -0.010133, 0.088830, -0.059125, 0.049593, -0.001469, 0.029039, 0.090980, -0.004548, 0.063080, 
    -0.023798, 0.011934, -0.007822, 0.112284, 0.051694, 0.018190, 0.099878, -0.028492, -0.053780, -0.034080, 
    0.076564, 0.077209, 0.026964, 0.047802, 0.161265, 0.039832, -0.010262, 0.058052, -0.087121, -0.024206, 
    -0.004666, 0.054336, 0.033879, -0.119564, 0.116326, -0.062348, -0.031760, -0.033762, 0.001828, -0.032147, 
    0.021637, -0.005394, -0.036639, 0.004761, -0.037865, -0.029257, -0.081177, 0.119397, -0.090338, -0.013870, 
    -0.041020, 0.052884, 0.074738, 0.007400, -0.062059, -0.094806, -0.055551, -0.064637, -0.199274, 0.162399, 
    0.093360, -0.172877, -0.025777, 0.074650, 0.060032, -0.209840, 0.002145, 0.120376, 0.044420, -0.132206, 
    -0.192847, 0.103871, 0.004379, -0.060778, 0.140789, 0.074229, 0.075559, -0.095602, 0.019104, 0.090859, 
    -0.115249, -0.039881, -0.001072, 0.042047, -0.228749, -0.136241, 0.084070, 0.119319, 0.012200, -0.079176, 
    -0.008198, 0.076272, -0.071150, -0.010499, 0.117797, 0.022552, 0.031030, 0.027161, 0.092771, 0.032859, 
    -0.224060, 0.045661, 0.071160, 0.045332, -0.046799, -0.037979, -0.053050, 0.004776, -0.065208, 0.002417, 
    0.080023, -0.036642, -0.105044, -0.043259, 0.064605, -0.063106, 0.019139, 0.001807, 0.065829, -0.094524, 
    -0.077491, 0.089798, -0.059700, -0.000318, 0.025463, -0.042827, -0.025833, 0.009688, 0.066513, 0.046244, 
    0.122109, 0.003305, 0.026899, 0.079342, 0.016802, 0.014342, 0.095912, 0.040017, -0.027802, 0.030673, 
    -0.009457, 0.033792, -0.043024, -0.035056, 0.055028, -0.052027, -0.037584, -0.055868, -0.083331, -0.083334, 
    -0.062221, 0.031412, 0.060625, 0.157015, 0.098783, -0.024035, -0.007965, -0.055876, -0.070472, -0.025946, 
    -0.008389, -0.119439, -0.029251, -0.019932, 0.047014, -0.001424, 0.095246, -0.047021, 0.023929, 0.048862, 
    0.181978, 0.235973, 0.188354, 0.091310, 0.171724, -0.039221, -0.027723, 0.050137, 0.047023, -0.014594, 
    0.051079, 0.094550, 0.071839, 0.009258, 0.208120, -0.084963, 0.001081, 0.304885, -0.197618, -0.007899, 
    0.164228, -0.112374, -0.173150, 0.133980, -0.193699, 0.019583, 0.142317, -0.064202, -0.081212, 0.084653, 
    -0.096156, 0.118222, 0.102301, -0.176268, 0.088172, -0.109447, -0.079734, -0.066476, -0.011848, 0.089934, 
    -0.155167, 0.018306, 0.058757, -0.021512, 0.054754, 0.145035, -0.123507, -0.071231, 0.202418, 0.011977, 
    0.013742, 0.187464, -0.121941, -0.151685, 0.205265, -0.190104, -0.095708, -0.046345, 0.015551, -0.118871, 
    -0.018779, 0.032423, -0.044681, 0.006140, 0.107153, -0.177231, 0.248985, -0.120988, -0.033855, 0.256125, 
    0.006644, -0.220649, -0.011580, 0.080468, -0.119309, -0.103033, 0.117189, -0.024848, -0.033132, 0.045175, 
    0.023125, 0.104399, -0.083657, 0.007947, 0.054455, -0.043713, 0.105187, -0.105868, 0.176443, 0.126406, 
    -0.036351, 0.020639, 0.048846, -0.212978, 0.124643, -0.070731, 0.017315, 0.018757, 0.171153, -0.145830, 
    0.116331, 0.110614, -0.093747, 0.044783, -0.009609, -0.033308, 0.014998, 0.118679, 0.009161, -0.024430, 
    -0.016527, 0.050682, -0.158252, 0.142451, 0.059081, -0.091691, 0.038179, -0.036904, 0.042348, -0.025773, 
    -0.082947, -0.045082, 0.071974, 0.234643, 0.132345, 0.094570, -0.176203, -0.058299, -0.161311, -0.168152, 
    -0.259525, -0.210387, 0.102030, 0.110723, -0.025236, -0.041396, 0.023668, 0.149971, -0.121969, -0.022651, 
    0.021673, -0.090054, 0.105234, 0.030099, 0.106632, 0.142560, 0.259164, -0.021618, 0.024624, 0.087191, 
    -0.011248, 0.017569, -0.096728, -0.005852, 0.018865, -0.177921, 0.016452, -0.028068, 0.059703, 0.013766, 
    0.005848, 0.065325, -0.080428, -0.040500, -0.057923, 0.021152, 0.018688, -0.075763, -0.025036, -0.047824, 
    0.043131, -0.046968, -0.020882, 0.012892, 0.023255, -0.037611, -0.009668, -0.022969, -0.078951, -0.004480, 
    -0.001233, 0.071724, 0.046127, 0.017366, 0.012354, -0.038681, 0.006262, 0.033053, -0.062667, -0.011178, 
    -0.034130, -0.027239, 0.029647, 0.048642, 0.069121, -0.041564, 0.058843, -0.057117, 0.066528, 0.079091, 
    -0.005472, 0.024961, -0.063628, 0.099131, -0.025391, 0.027742, -0.065395, 0.009681, 0.022421, 0.054831, 
    -0.005511, -0.035309, -0.010427, -0.094774, -0.014680, 0.002706, 0.077873, -0.076239, -0.013983, -0.058902, 
    -0.002472, -0.052447, -0.023210, 0.078320, -0.001021, 0.006053, 0.020074, 0.069160, -0.019369, -0.033504, 
    -0.028706, -0.009358, -0.003181, 0.039686, 0.047110, 0.017908, 0.052389, -0.090917, 0.079858, -0.058805, 
    -0.120707, -0.117740, 0.013000, -0.033466, 0.008575, -0.128443, -0.036614, -0.009108, 0.085397, -0.028509, 
    0.094394, 0.030367, -0.130461, 0.050558, 0.019721, 0.107349, -0.045533, -0.036590, -0.023592, 0.046533, 
    -0.090362, 0.091662, 0.024168, 0.080912, 0.151490, 0.078363, 0.180137, -0.171756, -0.122238, -0.071020, 
    0.015047, -0.033302, -0.035452, -0.006994, 0.024688, -0.081346, 0.071278, 0.037232, 0.104736, -0.019788, 
    -0.006994, 0.011801, -0.075771, -0.077610, -0.134941, -0.041096, 0.002768, -0.042646, 0.135505, -0.014394, 
    0.020008, -0.030464, 0.045108, 0.058276, 0.041522, 0.098146, 0.051161, -0.050404, -0.146648, 0.047904, 
    0.153919, 0.023319, 0.071899, 0.108034, -0.016376, 0.109329, 0.173092, 0.028737, 0.085239, 0.155197, 
    0.072359, 0.068196, -0.037977, -0.027048, -0.132208, 0.007990, -0.081750, -0.045740, 0.015295, -0.025160, 
    -0.086510, 0.000636, 0.048535, -0.002583, 0.022695, -0.007294, -0.004673, 0.058087, 0.113888, 0.003544, 
    -0.000106, 0.044449, 0.010395, 0.002550, 0.059528, -0.042332, 0.046605, 0.086931, 0.011441, -0.040104, 
    0.071423, -0.076178, -0.064205, -0.009202, 0.049785, -0.004598, -0.017320, -0.014222, -0.022286, 0.055470, 
    0.014220, 0.020315, 0.112349, -0.013642, -0.054878, -0.022262, 0.053245, 0.025740, 0.052762, 0.056095, 
    -0.081796, -0.108551, 0.035663, -0.065084, 0.059900, -0.077333, 0.014421, -0.083022, 0.179428, 0.180154, 
    -0.118535, 0.099940, -0.159449, 0.028395, -0.153097, -0.095794, 0.086518, -0.083365, 0.140474, -0.026419, 
    0.152119, 0.019538, -0.018514, -0.059536, 0.043572, 0.108063, -0.178044, -0.284699, 0.024925, -0.034485, 
    0.002989, 0.070155, 0.056398, 0.163386, 0.062579, 0.155045, 0.015927, 0.062654, 0.113407, 0.170028, 
    -0.003131, 0.069279, 0.035273, 0.088502, -0.011171, -0.148186, -0.197073, 0.025570, 0.089006, 0.181421, 
    0.172498, 0.130531, 0.019784, -0.220709, -0.163316, 0.031395, -0.093386, 0.000081, 0.068749, 0.159051, 
    0.045842, -0.056785, 0.043327, 0.032040, -0.172873, -0.105831, 0.020093, 0.028514, 0.146198, 0.035050, 
    0.095500, 0.057834, 0.079041, -0.030160, -0.269235, -0.093864, -0.088032, 0.036274, -0.050854, 0.035839, 
    0.145595, -0.067006, 0.090723, -0.098828, -0.044277, -0.132659, 0.054566, 0.027785, 0.125670, -0.002773, 
    -0.036492, 0.000908, -0.033558, 0.029761, 0.049420, -0.040637, 0.000210, -0.034687, 0.118774, 0.000350, 
    0.149385, 0.037657, 0.070558, 0.034635, 0.062743, 0.103791, 0.072525, -0.015646, 0.053035, -0.015987, 
    0.009604, 0.046328, -0.021220, -0.007410, 0.076461, 0.004641, -0.045457, -0.057172, 0.025261, -0.000019, 
    0.117134, -0.025225, -0.096217, 0.024399, -0.006256, -0.098495, -0.204868, -0.011100, 0.105847, -0.001265, 
    0.016373, 0.179523, 0.253718, 0.032148, 0.050584, -0.019727, 0.002322, 0.025901, -0.228538, -0.105576, 
    -0.006958, -0.173453, -0.039776, -0.056236, 0.268128, 0.087493, 0.188401, -0.131493, -0.059236, -0.256760, 
    -0.082516, 0.066554, -0.092533, 0.096062, 0.017352, 0.063509, 0.109715, 0.071086, 0.077423, 0.131669, 
    -0.003231, 0.120569, 0.092135, -0.038324, 0.008925, 0.075759, -0.024284, -0.048928, -0.024028, -0.098625, 
    -0.036867, 0.030810, 0.076271, 0.151319, -0.003494, 0.015691, 0.045882, 0.022345, 0.025773, -0.179896, 
    0.076805, -0.028981, 0.030287, -0.069145, 0.060963, 0.158696, -0.002529, 0.079134, -0.097993, -0.108263, 
    -0.019414, -0.069054, 0.005665, -0.000319, 0.093682, -0.032434, 0.016524, -0.054706, -0.012589, 0.072931, 
    0.008825, -0.033374, 0.048138, 0.038107, 0.182735, -0.041572, -0.004490, -0.066772, 0.031425, -0.062695, 
    0.138651, 0.008938, 0.009605, 0.015200, -0.063606, -0.045424, 0.078991, -0.054161, 0.044090, -0.106011, 
    0.131466, -0.109800, 0.070915, 0.020807, 0.049854, 0.052343, -0.043594, -0.093227, 0.033142, 0.042441, 
    -0.078322, -0.012451, 0.052075, -0.005582, 0.042319, -0.064840, 0.081433, 0.069878, -0.019287, -0.002312, 
    -0.045396, -0.081987, -0.025011, 0.035618, 0.041324, -0.113707, -0.074644, -0.019229, 0.073448, 0.091943, 
    0.027836, 0.008631, 0.020317, 0.034914, 0.202684, 0.110639, 0.163339, 0.088263, -0.120217, -0.155335, 
    -0.169513, -0.006674, 0.008375, 0.078511, 0.121041, 0.069015, -0.051490, 0.120547, -0.014306, -0.103106, 
    -0.084249, -0.047315, 0.020617, -0.177323, -0.042094, -0.103388, -0.087199, -0.086457, 0.072098, 0.124984, 
    0.005396, -0.134808, -0.020084, -0.000677, -0.024743, 0.012538, 0.006533, 0.140725, -0.043959, -0.016894, 
    -0.030387, 0.022539, 0.055733, 0.094121, -0.083005, 0.041953, -0.118941, -0.035410, -0.003907, 0.056736, 
    0.015537, -0.076912, -0.063408, 0.067444, 0.003428, -0.037603, -0.025657, 0.012452, 0.021474, -0.039287, 
    0.027903, -0.114833, 0.003769, -0.107282, -0.052525, -0.053145, -0.008823, -0.028358, -0.013449, -0.120575, 
    -0.061227, -0.145212, -0.021955, -0.107752, 0.054225, -0.030074, 0.009700, -0.046761, 0.075348, -0.014230, 
    0.045519, 0.029999, -0.039604, -0.062004, -0.063145, 0.027311, 0.032158, 0.040507, 0.110572, -0.120550, 
    -0.040157, 0.027884, 0.016696, 0.002217, 0.083251, -0.013933, 0.024455, -0.011142, 0.089675, 0.077928, 
    -0.006090, -0.037796, -0.028886, -0.021742, 0.005242, -0.067733, -0.088525, 0.029946, 0.098733, 0.054264, 
    0.002975, 0.038364, 0.000683, 0.132764, 0.217754, 0.177823, -0.012514, -0.072572, -0.066744, -0.135861, 
    -0.066460, -0.037687, 0.021413, -0.013193, 0.011231, 0.099764, 0.080798, -0.041953, -0.020711, 0.014536, 
    0.078529, -0.077048, -0.091801, -0.087255, -0.009740, -0.116118, -0.086485, 0.056254, 0.017996, 0.020976, 
    0.099216, 0.059015, 0.050103, 0.071622, 0.050056, 0.070420, -0.144953, -0.144614, -0.127170, -0.017618, 
    0.010678, -0.034233, 0.029855, 0.015564, -0.046664, 0.031049, 0.019054, 0.103665, -0.011212, -0.009573, 
    0.126897, -0.075486, -0.123506, -0.050224, 0.026013, -0.077680, -0.019363, 0.000785, 0.030677, 0.040240, 
    0.038018, 0.006425, 0.047399, -0.124278, 0.003600, -0.064302, -0.033338, -0.006082, -0.050445, 0.007635, 
    -0.025867, -0.026857, 0.044110, 0.092358, -0.096580, -0.001956, 0.051162, 0.030112, -0.058476, -0.016103, 
    -0.000305, 0.012866, 0.031338, -0.003139, 0.056035, 0.037038, -0.070354, 0.042776, -0.029529, 0.060077, 
    0.030178, 0.025050, -0.128722, -0.048987, -0.005144, -0.031238, -0.081438, 0.007663, -0.016662, 0.038478, 
    0.053717, 0.022790, 0.004944, 0.011167, 0.028291, 0.000273, 0.121279, -0.019048, 0.063215, 0.049587, 
    -0.038932, -0.041796, -0.022871, -0.116736, 0.036849, -0.018589, 0.065559, 0.042973, 0.004338, -0.024022
    
};

// PyTorch Layer: conv1.bias (Shape: (20,))
static const data_t conv1_b[20] = {
-0.391932, -0.219642, -0.258513, -0.012940, -0.431977, -0.232659, -0.398869, -0.282973, -0.256861, -0.365905, 
    -0.329826, -0.138521, -0.406542, -0.343112, -0.184506, -0.453752, -0.140868, -0.214908, -0.311769, -0.226260
    
};

// PyTorch Layer: conv2.weight (Shape: (40, 20, 3))
static const data_t conv2_w[2400] = {
-0.228286, -0.097603, -0.070442, 0.328283, 0.156557, 0.411024, 0.271745, 0.242783, 0.241978, -0.499224, 
    -0.336370, -0.432046, -0.457166, -0.183338, -0.565431, 0.323838, 0.111358, 0.177852, -0.075544, -0.197129, 
    -0.176396, 0.247770, 0.223288, 0.074573, 0.306177, 0.210117, 0.331584, -0.268411, -0.310387, -0.237177, 
    0.284898, 0.407027, 0.429133, -0.332835, -0.372902, -0.437082, 0.782893, 0.412271, 0.659049, -0.168359, 
    -0.008029, -0.163879, -0.270233, -0.279506, -0.291217, 0.112206, 0.395939, 0.005485, 0.033024, -0.154971, 
    0.020385, -0.115763, -0.189576, -0.077562, -0.002995, -0.320620, 0.139612, 0.376397, 0.403350, 0.401746, 
    0.166114, -0.021144, 0.254649, -0.044348, -0.179036, -0.194883, 0.292071, 0.576529, 0.618143, -0.239196, 
    -0.195346, -0.144950, -0.582697, -0.689897, -0.658260, 0.408870, 0.537817, 0.478071, -0.118019, -0.235591, 
    -0.107422, -0.015470, -0.071995, 0.087170, -0.191806, -0.195136, -0.403689, 0.113444, 0.149481, 0.093148, 
    -0.348083, 0.083500, -0.140287, 0.075648, 0.111174, -0.080418, 0.203903, 0.302336, 0.496187, -0.314876, 
    -0.238622, -0.468653, -0.025347, 0.390561, -0.013911, -0.024627, -0.168945, -0.210505, 0.527604, 0.455628, 
    0.426349, -0.380379, -0.286735, -0.406882, 0.844596, 0.595223, 0.771429, -0.033489, -0.155115, -0.411962, 
    -0.189754, -0.355451, -0.571193, -0.285202, -0.150424, -0.075997, -0.200736, -0.068228, -0.382664, 0.322122, 
    0.530387, 0.247363, 0.030717, -0.442693, -0.086704, -0.216223, -0.060977, 0.007071, 0.081210, 0.038613, 
    -0.090288, -0.666979, -0.432812, -0.478570, -0.205116, -0.142845, -0.239310, -0.030707, -0.132588, 0.009113, 
    0.121425, 0.291957, 0.266900, 0.519822, 0.464520, 0.195852, -0.603569, -0.513727, -0.424721, 0.080320, 
    0.179645, 0.141707, 0.057595, -0.135116, -0.051673, -0.578826, -0.303733, -0.234417, 0.244689, -0.057998, 
    0.090587, 0.506340, 0.815432, 0.742333, 0.165794, 0.024251, 0.264785, 0.053520, 0.245576, 0.115542, 
    -0.464224, -0.268912, -0.095596, 0.579663, 0.206444, 0.824371, -0.039561, 0.018104, -0.107667, -0.014793, 
    0.226481, -0.146619, -0.077588, -0.346116, -0.252875, -0.310214, -0.175990, -0.345955, -0.428511, -0.603416, 
    -0.213295, -0.225852, -0.432600, -0.113761, 0.210030, 1.026905, 0.655239, -0.325749, -0.084716, -0.246837, 
    0.111737, -0.056921, 0.274821, 0.323970, 0.049023, 0.102932, -0.350535, -0.322133, -0.233262, 0.471382, 
    0.159534, 0.283236, 0.643386, 0.371018, 0.082244, -0.309805, -0.468956, -0.386073, 0.226946, 0.025163, 
    -0.148701, 0.118753, 0.462604, 0.321518, -0.261597, -0.372108, -0.043745, -0.473381, -0.131095, -0.036906, 
    -0.464229, -0.543265, -0.688736, -0.089772, 0.179172, -0.080275, -0.251472, 0.190547, -0.209389, 0.197071, 
    0.327585, 0.391456, -0.398569, -0.400948, -0.432128, -0.033827, -0.043751, -0.257331, 0.335216, -0.031060, 
    0.385373, -0.563378, -0.434409, -0.359578, 0.123630, 0.469690, -0.082821, -0.335899, -0.473825, -0.334296, 
    0.610247, 0.433954, 0.247434, -0.088299, 0.389711, 0.135851, -0.095120, -0.332001, -0.255313, -0.122152, 
    0.367897, 0.157461, -0.397467, -0.106060, -0.485430, -0.222646, -0.074970, -0.417779, 0.251663, 0.013132, 
    0.198625, 0.305280, 0.523911, 0.842340, 0.523454, 0.150046, 0.357234, 0.401814, 0.093996, 0.218284, 
    0.586325, 0.587541, 0.699160, -0.166309, -0.083357, -0.223229, 0.209556, -0.162006, 0.120647, -0.466988, 
    -0.335253, -0.255420, -0.076892, 0.251339, 0.115649, 0.188066, 0.527692, 0.348513, 0.503679, 0.330824, 
    0.537321, 0.307649, 0.232987, 0.673626, -0.268145, -0.223766, -0.437769, 0.203915, -0.213222, 0.161023, 
    -0.189953, -0.272812, -0.139719, -0.300817, -0.196634, -0.435543, 0.554720, 0.424591, 0.614208, 0.185313, 
    0.115424, 0.081388, -0.539764, -0.133673, -0.512295, 0.162971, 0.191372, 0.583358, -0.233524, -0.171475, 
    -0.315373, -0.294216, -0.437544, -0.415671, -0.076761, 0.020157, -0.204734, 0.060587, -0.133989, -0.002512, 
    0.479545, 0.107815, 0.477179, -0.394408, -0.372766, -0.552770, 0.070542, 0.420361, 0.049243, 0.135951, 
    0.164073, -0.040692, 0.211951, 0.044232, 0.390256, 0.180640, 0.297038, 0.033408, -0.098510, -0.195406, 
    -0.235154, -0.382613, -0.073955, -0.400207, -0.670335, -0.679187, -0.634743, 0.554703, 0.767731, 0.548063, 
    -0.581016, -0.663655, -0.659943, 0.414501, 0.075054, 0.096080, 0.021324, -0.097551, -0.219507, -0.254637, 
    -0.290681, -0.493581, 0.248055, 0.675288, 0.136806, -0.084385, -0.073717, -0.220692, 0.486885, 0.070699, 
    0.510301, 0.080727, -0.073286, 0.245851, 0.121179, 0.339874, 0.332131, -0.353044, -0.231993, -0.173103, 
    -0.283733, -0.406389, -0.204923, 0.564048, 0.481596, 0.402349, 0.530835, 0.372881, 0.209256, -0.097337, 
    -0.451703, -0.312348, -0.653321, -0.580995, -0.524814, 0.147297, 0.058604, -0.132609, -0.441655, -0.183024, 
    -0.421616, -0.224706, 0.169847, 0.023941, 0.199439, 0.597954, 0.513320, -0.393017, -0.105128, -0.264320, 
    0.395704, 0.410976, 0.413130, -0.302686, -0.321670, -0.325784, 0.528971, 0.307691, 0.410602, -0.233859, 
    -0.271007, -0.213922, -0.168123, -0.339194, -0.214722, 0.194146, -0.087740, -0.346566, -0.007384, 0.266644, 
    0.056063, 0.052297, -0.072420, -0.006018, 0.250849, -0.059478, 0.291030, 0.289037, 0.439699, 0.346471, 
    0.377571, 0.423652, -0.085263, 0.064273, -0.021683, -0.125436, -0.002076, 0.466929, 0.496659, 0.086869, 
    -0.225070, -0.056974, 0.340116, 0.324067, 0.437419, 0.131970, -0.270877, 0.089322, -0.364176, -0.349269, 
    -0.190640, 0.611571, 0.450836, 0.346557, -0.316291, -0.387033, -0.256045, 0.229139, 0.176217, 0.302547, 
    -0.624767, -0.509808, -0.719611, 0.234488, -0.023002, 0.089991, 0.091941, 0.024502, -0.067537, -0.168330, 
    -0.115351, 0.171828, 0.123205, 0.670650, 0.537671, -0.035394, -0.207073, -0.039865, 0.138229, 0.188334, 
    0.013681, -0.467578, -0.054728, -0.067660, -0.330258, -0.164888, -0.549389, -0.311782, -0.330611, -0.512234, 
    -0.431490, -0.344083, -0.205674, 0.724255, 0.283907, 0.371494, -0.392240, -0.366991, -0.394664, -0.085531, 
    0.098518, -0.158493, 0.009478, -0.016972, -0.138021, -0.260280, -0.252065, -0.379989, 0.434433, 0.332027, 
    0.479453, 0.083272, -0.040452, 0.022684, 0.391315, 0.772052, 0.773479, -0.729462, -0.572493, -0.694877, 
    0.155524, 0.367288, 0.315075, 0.108546, 0.288361, 0.027050, -0.227082, 0.114580, -0.158570, 0.573474, 
    0.664483, 0.706932, 0.045431, -0.202937, -0.030620, -0.208174, -0.220339, -0.075753, -0.347070, -0.243590, 
    -0.366046, 0.212804, 0.019597, 0.219402, -0.010155, -0.362205, -0.206515, -0.024246, -0.010648, -0.096828, 
    -0.533992, -0.510330, -0.310850, 0.004445, 0.229890, 0.095149, -0.205217, -0.227423, -0.603820, 0.317145, 
    0.564448, 0.320065, 0.234225, -0.130286, 0.282918, -0.203120, -0.274731, -0.434904, 0.130185, 0.085482, 
    0.189445, -0.410430, -0.557329, -0.336207, 0.081053, 0.432882, 0.438305, -0.339113, -0.340807, -0.460447, 
    0.229626, 0.334801, 0.383550, 0.253088, 0.267897, 0.459873, -0.495476, -0.475410, -0.506645, 0.446347, 
    0.429471, 0.601455, -0.125995, 0.084957, -0.088273, -0.376246, -0.041461, -0.382341, -0.067109, -0.094234, 
    -0.310755, 0.579377, 0.323140, 0.585578, -0.146999, -0.373227, -0.172752, -0.019398, -0.107632, -0.160236, 
    -0.351970, -0.353807, -0.284601, -0.397769, -0.176158, -0.238496, 0.021906, 0.249851, 0.091173, 0.290622, 
    0.442962, 0.096075, -0.376404, -0.215808, -0.004602, 0.179636, -0.149362, 0.443717, -0.060830, 0.336428, 
    0.162115, -0.205563, -0.404822, -0.398897, 0.054361, -0.009380, -0.234773, 0.189667, 0.044944, 0.086298, 
    -0.117867, 0.147111, 0.174976, -0.181355, -0.410249, -0.223396, -0.360581, 0.062582, -0.261339, -0.359651, 
    -0.164416, -0.039518, -0.265913, -0.338841, -0.250605, 0.187635, 0.177787, 0.093428, 0.182751, 0.299328, 
    0.190122, 0.455086, 0.357943, 0.093283, 0.081407, -0.058507, 0.056438, -0.008974, 0.258768, 0.310051, 
    0.236787, 0.204330, 0.086319, -0.164925, 0.024426, 0.008295, 0.413596, -0.166032, 0.125893, -0.487272, 
    -0.231954, -0.146350, -0.162169, 0.333674, -0.069641, 0.523234, 0.105931, 0.465873, 0.464777, 0.169451, 
    0.261435, 0.702705, -0.085891, 0.617350, -0.523875, -0.015638, -0.451423, -0.110445, 0.144630, -0.109684, 
    0.285826, 0.187069, 0.257903, -0.754883, -0.445866, -0.483681, 0.759344, 0.212192, 0.746996, 0.175943, 
    0.050263, 0.012102, -0.430845, -0.600792, -0.483128, 0.570937, 0.616146, 0.575441, -0.309844, -0.338452, 
    -0.354808, -0.064797, -0.439606, -0.178869, -0.353126, -0.269482, -0.315777, 0.101964, 0.600693, 0.475212, 
    -0.034123, 0.116645, 0.006510, -0.079534, -0.401292, -0.079485, 0.139626, 0.318665, 0.167207, -0.122512, 
    0.291845, 0.093111, -0.243765, -0.117063, 0.133696, 0.076314, -0.028612, -0.163348, -0.592982, -0.522266, 
    -0.641826, -0.122412, -0.066677, -0.351983, -0.219830, -0.355123, -0.319344, 0.624298, 0.106002, 0.475141, 
    -0.499009, -0.446699, -0.522140, 0.491088, 0.188691, 0.407880, -0.107623, 0.062297, -0.403738, -0.199821, 
    -0.174138, -0.319942, 0.417588, 0.596327, 0.840141, -0.231908, -0.392464, -0.521400, 0.630512, 0.284022, 
    0.464318, 0.037671, 0.103418, 0.110159, 0.023678, 0.377838, 0.283114, -0.387644, -0.314824, -0.402917, 
    0.648066, 0.145047, 0.624475, -0.297436, -0.114859, -0.256293, 0.240335, 0.154373, 0.077228, 0.162665, 
    -0.108920, 0.159719, 0.055032, 0.297392, 0.056596, -0.167339, -0.224153, 0.134161, -0.325588, -0.221849, 
    -0.445254, 0.119117, 0.165721, 0.256706, -0.402009, -0.265189, -0.371781, 0.378253, 0.267656, 0.238786, 
    -0.702109, -0.743198, -0.713704, 0.542607, 0.254890, 0.434818, -0.147370, 0.213858, -0.127750, -0.207645, 
    0.029714, -0.170860, 0.831948, 0.422354, 0.492434, -0.107083, -0.337716, -0.317046, 0.180713, 0.215908, 
    0.333099, -0.271090, -0.055407, -0.334373, 0.031942, 0.049619, 0.146467, -0.431226, -0.390222, -0.716910, 
    0.495787, 0.375529, 0.169696, 0.017065, -0.089838, -0.208179, 0.424462, 0.277992, 0.824856, -0.478784, 
    -0.139217, -0.378316, -0.296548, -0.190854, -0.290753, 0.643802, 0.645812, 0.239791, -0.260573, -0.057129, 
    -0.119162, 0.316081, 0.461812, 0.379897, -0.353711, -0.316528, -0.413134, 0.191833, 0.115678, 0.212335, 
    -0.129236, -0.194090, -0.124307, -0.116642, -0.233716, -0.033350, 0.533512, 0.463787, 0.871985, -0.235855, 
    -0.199601, -0.363735, -0.078615, 0.048064, -0.238719, 0.222791, 0.114683, 0.077242, 0.335513, 0.097106, 
    0.218800, -0.605164, -0.509556, -0.571563, 0.236102, 0.243357, 0.002014, -0.011683, -0.065349, -0.048334, 
    -0.187751, -0.378142, -0.254690, 0.664229, 0.108023, 0.423330, -0.217762, -0.091028, -0.402604, -0.058841, 
    0.149845, 0.019087, -0.199914, -0.277863, -0.377660, -0.191059, -0.210481, -0.391007, -0.296823, -0.132328, 
    -0.244503, -0.286085, -0.111231, -0.410223, 0.526369, 0.423787, 0.575059, -0.343971, -0.159748, -0.161281, 
    -0.318998, 0.353841, -0.337626, 0.209425, 0.421675, 0.481567, -0.347979, -0.418370, -0.306300, 0.129295, 
    0.516912, 0.384699, 0.553487, 0.150038, 0.609825, -0.686345, -0.263583, -0.565810, 0.543913, -0.153700, 
    0.275073, -0.102580, 0.409803, 0.272445, 0.462794, -0.313724, 0.359651, -0.453444, -0.416985, -0.341673, 
    0.037417, -0.020939, -0.039517, 0.485084, 0.291419, 0.620184, 0.047971, -0.004134, -0.155785, -0.392068, 
    -0.027974, -0.505770, -0.347818, -0.311203, -0.163499, 0.039669, -0.053092, 0.054147, 0.187292, 0.196909, 
    0.039698, 0.187536, 0.195989, 0.499277, 0.984139, 0.501397, 0.635339, -0.528322, -0.578544, -0.452366, 
    0.272678, 0.127688, 0.017604, -0.336337, -0.024153, -0.086339, 0.305804, 0.419672, 0.084667, 0.302449, 
    0.541331, 0.252535, 0.221083, -0.459030, 0.067130, 0.049169, 0.013522, -0.039231, -0.176136, -0.240168, 
    -0.316596, -0.490360, -0.022428, -0.360250, 0.108439, -0.367157, 0.108462, -0.066582, -0.081463, 0.178260, 
    -0.363673, -0.012820, -0.197183, 0.239283, -0.036970, 0.207696, 0.007346, -0.334812, -0.071251, 0.570148, 
    0.002300, 0.364815, 0.471198, 0.650973, 0.549723, -0.402843, -0.335620, -0.448440, -0.210356, -0.145785, 
    -0.258214, 0.086929, -0.406475, -0.578510, 0.015259, 0.060974, 0.432775, -0.109699, -0.103755, -0.117497, 
    -0.341158, -0.130453, 0.128036, 0.271214, 0.244768, 0.053117, -0.554919, -0.519407, -0.147649, 0.088054, 
    0.463233, 0.389917, 0.640980, 0.357628, 0.352135, -0.425780, -0.028559, -0.260580, -0.164537, -0.160109, 
    -0.163214, 0.306569, 0.242308, 0.214931, -0.591461, -0.307665, -0.474827, -0.188650, -0.290820, -0.271967, 
    0.927249, 0.669181, 0.859804, -0.090701, -0.426246, -0.275828, -0.139634, 0.235435, 0.130262, -0.057601, 
    -0.205357, -0.067554, 0.804147, 0.379948, 0.353662, 0.207102, -0.028613, 0.077149, 0.172343, 0.189021, 
    0.156694, 0.103701, 0.597230, 0.605677, -0.461004, -0.298813, -0.359633, 0.061244, 0.146646, 0.241908, 
    -0.553701, -0.751428, -0.802254, 0.111202, 0.011084, -0.082837, -0.071346, 0.457232, -0.069572, 0.123193, 
    0.308140, 0.002690, 0.423363, 0.053179, 0.138231, -0.162558, 0.121389, -0.017787, -0.204420, -0.186963, 
    -0.237334, -0.583243, -0.374809, -0.409964, -0.221651, 0.053317, -0.164568, -0.391692, -0.463920, -0.346558, 
    0.147686, 0.244372, 0.536916, -0.202137, -0.096486, -0.204426, -0.432806, -0.512271, -0.649303, 0.059755, 
    -0.080181, -0.299240, 0.190239, -0.036384, 0.334148, -0.129844, 0.098193, 0.078283, 0.931393, 0.724662, 
    0.858352, 0.040143, -0.107113, -0.060810, 0.010174, -0.045071, -0.078994, 0.123633, 0.002309, 0.100354, 
    -0.118343, -0.201245, -0.072921, 0.120631, 0.345944, 0.189566, 0.003755, -0.122664, 0.139403, 0.326211, 
    0.427229, 0.180767, -0.409247, -0.065807, -0.292781, 0.005582, 0.058103, -0.048017, -0.185874, -0.137580, 
    -0.153648, -0.281828, 0.207958, -0.156009, 0.017839, 0.029352, 0.065952, -0.349690, -0.332387, -0.345577, 
    -0.227548, -0.219098, -0.120001, 0.268091, -0.002233, 0.167920, 0.581364, 0.639256, 0.231909, -0.380774, 
    -0.234664, -0.321390, -0.668457, -0.661156, -0.589232, 0.675594, 0.078536, 0.301644, -0.374486, -0.288099, 
    -0.311305, 0.281458, 0.117623, -0.032289, 0.103262, -0.060329, 0.096486, -0.060011, 0.001772, 0.046693, 
    0.140280, 0.329911, 0.196779, -0.316085, -0.133552, -0.339278, 0.611779, 0.407310, 0.512308, -0.311489, 
    -0.297418, -0.386822, -0.112343, -0.182509, -0.119358, 0.320597, -0.029991, 0.269268, 0.053132, 0.369709, 
    0.265548, -0.220788, -0.207762, -0.164812, 0.115463, 0.212864, 0.391181, 0.097709, 0.316114, 0.233052, 
    0.232598, -0.088556, 0.309767, -0.343092, -0.148413, -0.266289, -0.318240, -0.103472, -0.217075, 0.027947, 
    0.075956, -0.215590, -0.119826, -0.073938, -0.232915, 0.183920, 0.009191, 0.017759, 0.691906, 0.757297, 
    0.560708, -0.265622, -0.067222, -0.079946, 0.125181, -0.108606, 0.044034, 0.026095, 0.523604, 0.123325, 
    -0.112625, 0.158820, -0.188449, 0.172102, -0.214478, 0.060822, 0.102705, -0.057175, -0.034264, -0.255234, 
    -0.077186, 0.063089, -0.187960, -0.324701, -0.220444, 0.157893, 0.083422, 0.049504, 0.132660, 0.013347, 
    0.221006, -0.033402, 0.074375, -0.018006, -0.066675, -0.065971, 0.213018, -0.466523, -0.249896, -0.122403, 
    -0.071253, -0.474172, -0.436821, -0.370731, 0.003006, -0.261926, 0.052575, 0.222273, 0.834140, 0.387968, 
    0.221013, 0.144182, -0.425954, -0.283953, -0.242367, 0.318352, 0.237051, 0.271319, -0.605591, -0.451849, 
    -0.687586, -0.489931, -0.413326, -0.410187, -0.244681, -0.046744, -0.366425, 0.325756, 0.417193, 0.406114, 
    -0.075610, -0.022352, 0.085885, -0.339507, -0.016650, -0.160029, -0.244768, 0.033317, -0.025955, -0.235410, 
    -0.473549, -0.455059, 0.298304, -0.006091, 0.060935, 0.051066, -0.218837, 0.012930, 0.256928, 0.157032, 
    0.498240, 0.665712, 0.361850, 0.589916, -0.039629, 0.174354, -0.088686, 0.117570, 0.281200, 0.360791, 
    0.369454, 0.235003, 0.424284, -0.048525, -0.272981, -0.352447, 0.270805, 0.558018, 0.275243, -0.153313, 
    -0.062200, -0.220308, -0.346080, 0.162844, -0.318318, 0.440308, 0.332140, 0.557489, -0.337647, -0.507091, 
    -0.093550, -0.059123, 0.293297, 0.513724, -0.419297, -0.653123, -0.672740, 0.383896, 0.515832, 0.289511, 
    -0.485881, -0.683672, -0.515233, 0.237332, 0.246262, -0.022543, -0.035401, 0.381030, 0.227539, -0.288483, 
    -0.173258, -0.458035, 0.449196, 0.182153, 0.090413, -0.175375, -0.094590, -0.255049, 0.442705, 0.388187, 
    0.459059, -0.277608, -0.365965, -0.426829, 0.488553, 0.121284, 0.525284, -0.334056, -0.336976, -0.280875, 
    -0.212694, 0.016953, 0.173405, 0.033053, 0.122193, -0.101646, 0.140374, 0.158573, 0.023870, -0.377474, 
    -0.349523, -0.158351, -0.242021, -0.053079, -0.062337, 0.536219, 0.370355, 0.281000, 0.055792, 0.008374, 
    -0.059592, 0.580020, 0.428193, 0.240650, -0.185901, -0.207312, -0.197572, 0.028045, -0.196860, -0.078790, 
    0.258477, -0.006226, 0.212791, -0.643577, -0.303077, -0.414061, 0.639183, 0.415437, 0.599716, -0.037083, 
    -0.051895, -0.188368, -0.430220, -0.416766, -0.370243, 0.684044, 0.356259, 0.728455, -0.217153, -0.150649, 
    -0.023893, -0.110599, -0.289941, -0.269535, -0.304771, -0.136970, -0.095684, 0.263731, 0.364110, 0.481514, 
    0.021282, -0.272859, -0.098693, -0.167910, -0.390079, -0.246364, 0.235612, -0.231739, 0.006178, 0.196710, 
    0.160040, 0.408333, 0.741992, 0.064207, 0.668197, 0.232842, 0.327096, 0.133313, 0.208320, -0.002739, 
    0.134030, 0.160381, -0.123986, 0.330437, -0.663121, -0.424925, -0.374229, 0.220216, 0.428062, 0.169748, 
    -0.015257, 0.154809, 0.052127, -0.465419, -0.271432, -0.206782, 0.324550, -0.405558, 0.121801, -0.228522, 
    -0.141245, -0.041379, -0.757734, -0.306026, -0.674288, 0.848406, 0.494058, 0.631812, -0.202024, -0.213584, 
    -0.350698, -0.067435, -0.016349, -0.306985, -0.318890, -0.258766, -0.229362, 0.288986, 0.637883, 0.374087, 
    0.075769, -0.015864, -0.088207, -0.286293, -0.328166, -0.498628, 0.293040, 0.706480, 0.348903, 0.241018, 
    0.197427, 0.048724, -0.271476, 0.116746, 0.109249, 0.211971, 0.120217, -0.170386, -0.559444, -0.503588, 
    -0.570587, -0.250787, -0.210218, -0.196372, -0.480924, -0.614837, -0.343409, 0.504443, 0.497792, 0.506866, 
    -0.562070, -0.346741, -0.518372, 0.178215, 0.178202, 0.150357, -0.026514, -0.193613, -0.182584, -0.377412, 
    -0.362931, -0.545478, 0.357354, 0.420234, 0.494325, -0.212988, -0.090473, -0.411169, 0.420547, 0.435166, 
    0.335705, 0.407192, 0.082708, 0.385122, -0.028318, 0.288773, 0.008383, -0.194305, -0.158494, -0.113425, 
    -0.614444, -0.116558, -0.697848, 0.593629, 0.308306, 0.111947, -0.316670, -0.390131, -0.064807, 0.139050, 
    -0.128874, 0.343450, -0.056329, 0.163051, 0.108562, -0.138710, -0.236927, -0.235562, 0.186483, -0.013864, 
    0.247886, -0.112294, -0.327001, 0.026295, 0.423899, 0.384901, 0.657277, -0.545930, -0.396982, -0.566587, 
    0.518407, 0.382283, 0.759410, 0.172799, -0.381994, -0.286577, -0.201782, -0.016587, 0.070670, 0.314826, 
    0.694365, 0.413892, 0.036553, -0.309856, -0.478648, -0.026606, 0.182627, 0.205739, -0.538320, -0.391549, 
    -0.299728, 0.419154, 0.131262, 0.379766, -0.318605, -0.371265, -0.508901, 0.253512, 0.464236, 0.539409, 
    -0.281174, -0.354295, -0.384943, 0.454383, 0.570074, 0.625295, 0.539389, 0.139889, 0.266156, -0.272117, 
    -0.278510, -0.459947, -0.701469, -0.605916, -0.856563, 0.147680, -0.085104, -0.093862, -0.213959, -0.000344, 
    -0.363784, 0.051674, 0.010436, -0.172521, 0.296860, 0.755525, 0.770703, -0.404310, -0.299465, -0.438917, 
    0.396371, 0.300462, 0.469371, -0.124259, -0.165731, -0.135806, 0.355045, 0.341604, 0.270359, -0.221220, 
    -0.184222, -0.086923, -0.159374, -0.322645, -0.096155, -0.029181, -0.465307, -0.111278, 0.051040, 0.381697, 
    -0.089552, -0.049513, 0.087720, 0.113923, 0.479075, 0.082760, 0.451237, 0.100647, 0.404704, 0.341462, 
    0.191659, 0.342793, 0.705956, -0.047867, -0.258548, -0.120627, 0.156389, 0.074003, 0.203138, -0.262187, 
    0.142380, -0.232422, 0.704617, 0.657301, 0.758917, 0.179461, -0.040070, -0.025466, 0.280098, -0.162473, 
    0.199982, 0.099405, 0.048747, 0.356651, 0.005063, -0.134374, 0.205958, -0.171288, 0.248448, -0.249926, 
    -0.116877, -0.268212, -0.451864, -0.036842, -0.013193, -0.163303, -0.087336, 0.107913, 0.050088, 0.637718, 
    0.415292, 0.309335, 0.251380, 0.477396, 0.138631, 0.354908, -0.095644, 0.341251, -0.299078, -0.196697, 
    -0.334235, -0.037174, -0.137289, -0.278276, -0.462014, -0.499300, -0.214949, -0.215906, -0.123656, 0.058905, 
    0.025634, -0.408106, -0.239717, -0.167308, 0.100188, -0.023955, 0.225917, 0.390499, -0.003839, 0.154113, 
    -0.004283, 0.057697, -0.595268, -0.715954, -0.713055, 0.204699, 0.316907, 0.290035, -0.140341, -0.030663, 
    0.197027, -0.288232, -0.273992, -0.223417, -0.046613, 0.227049, -0.081996, -0.103837, 0.110034, -0.252270, 
    0.110094, 0.200871, 0.065520, 0.104592, -0.226131, -0.040435, -0.060210, 0.232989, 0.096492, -0.343949, 
    -0.137495, -0.177577, 0.146694, 0.128314, -0.212814, -0.136106, -0.245342, -0.212302, 0.512577, 0.677399, 
    0.496815, -0.093333, -0.070754, 0.104549, 0.728312, 0.620682, 0.537499, -0.159798, -0.271619, -0.182931, 
    0.007213, 0.239325, 0.026989, 0.359156, 0.402171, 0.541438, 0.353284, 0.779109, 0.171855, -0.416286, 
    -0.582696, -0.436501, -0.395846, -0.316516, -0.548129, -0.008891, 0.260560, 0.175901, -0.492677, -0.385876, 
    -0.508803, 0.245313, 0.186022, 0.439950, 0.347199, 0.329980, 0.422785, -0.152584, -0.209761, -0.036330, 
    -0.087654, -0.022329, -0.149774, -0.130471, -0.280412, -0.046217, 0.765592, 0.179367, 0.437056, -0.191765, 
    -0.113853, -0.307591, -0.174873, 0.103592, 0.050828, -0.235030, -0.057518, -0.095902, 0.062724, 0.381554, 
    0.034107, -0.391987, -0.147106, -0.600690, 0.055005, 0.134463, 0.222353, 0.227846, 0.075356, 0.246723, 
    -0.341021, 0.041030, 0.033193, -0.190418, -0.387044, -0.192567, 0.011369, 0.049378, -0.037776, 0.683232, 
    -0.014920, 0.297202, 0.827633, 0.748825, 0.834289, -0.325108, -0.050936, -0.326594, -0.187700, 0.003248, 
    -0.173940, -0.188978, -0.297628, -0.062498, -0.096015, -0.103694, -0.043615, -0.066632, -0.101996, -0.066620, 
    -0.356428, 0.167239, -0.285486, 0.151485, -0.118691, 0.123996, -0.273429, -0.405231, -0.088230, 0.233200, 
    -0.046515, 0.276829, 0.168789, 0.098839, 0.341014, -0.078628, 0.243926, 0.047384, -0.198969, -0.175178, 
    -0.339929, 0.225150, -0.034610, -0.033830, -0.444571, -0.426200, -0.509133, -0.003741, -0.036427, 0.094453, 
    -0.459821, -0.267295, -0.197604, 0.333684, 0.098385, 0.254433, -0.551637, -0.391654, -0.463978, 0.143905, 
    0.246368, -0.052522, 0.211125, 0.047337, 0.119547, -0.257754, -0.245247, -0.412662, 0.562497, 0.594186, 
    0.511478, -0.182637, 0.063735, -0.057219, 0.300316, 0.405461, 0.541137, -0.506400, -0.488925, -0.302148, 
    0.214665, 0.339638, 0.083971, 0.246786, 0.334700, 0.174272, -0.207230, -0.208190, -0.125154, 0.848131, 
    0.508104, 0.799856, 0.062736, -0.162392, -0.110574, -0.110241, -0.173667, -0.097319, -0.435870, -0.253178, 
    -0.432010, 0.048001, 0.122247, 0.215737, -0.231755, -0.266676, -0.235198, -0.287471, -0.269152, -0.116469, 
    -0.027150, 0.105891, -0.121725, 0.014268, 0.294725, 0.065740, -0.035596, 0.082639, -0.097043, -0.003519, 
    -0.010441, 0.098771, -0.353099, 0.226243, 0.105623, -0.139036, -0.067715, -0.352674, -0.514805, -0.340351, 
    -0.391042, 0.198502, -0.020930, -0.146413, 0.115741, -0.089456, 0.185366, 0.025701, -0.010038, 0.202810, 
    -0.415692, -0.659431, -0.519603, 0.451684, 0.315887, 0.514098, -0.167816, -0.149102, -0.252559, 0.017838, 
    0.151682, 0.303054, 0.924145, 0.348377, 1.021862, -0.319761, -0.194007, -0.429267, 0.500258, -0.050362, 
    0.317506, -0.236121, 0.089611, -0.203348, 0.194012, -0.222666, 0.042458, -0.447448, -0.473203, -0.559950, 
    -0.140835, -0.183632, 0.080563, -0.566556, -0.230350, -0.558353, -0.150915, -0.118136, -0.146943, 0.400719, 
    0.616284, 0.323851, 0.161388, 0.090342, 0.068109, -0.299609, -0.114676, 0.070358, 0.050691, -0.125291, 
    -0.162999, -0.660035, -0.329715, -0.174744, -0.402881, -0.379194, -0.630428, -0.003023, 0.215698, 0.026084, 
    -0.014445, -0.235063, -0.119288, 0.588123, 0.451765, 0.164497, -0.374767, -0.338194, -0.347185, -0.095299, 
    0.059828, -0.239024, -0.100065, 0.053125, -0.162081, -0.108650, -0.051404, -0.254880, 0.053616, 0.018150, 
    0.065047, 0.705188, 0.362013, 0.368345, -0.378645, 0.195012, 0.117744, 0.148740, -0.158903, 0.178419, 
    -0.500368, -0.343959, -0.301948, -0.302964, -0.122096, -0.184177, -0.247267, -0.125372, -0.280588, 0.613778, 
    0.432852, 0.387000, 0.299879, 0.244601, 0.253021, -0.024976, -0.107289, -0.260557, 0.000154, 0.323046, 
    0.285470, -0.339942, -0.322761, -0.237596, -0.003451, -0.297896, -0.094310, -0.155971, -0.162293, -0.096751, 
    0.300599, 0.503060, 0.549229, 0.178396, -0.029573, 0.168181, -0.088097, -0.203864, -0.358244, 0.265274, 
    0.115777, 0.259563, -0.644232, -0.380354, -0.408382, 0.000374, 0.147163, 0.140862, -0.262105, -0.205277, 
    -0.352285, 0.282579, 0.203383, 0.138318, -0.204291, -0.361915, -0.096105, 0.211223, 0.427984, 0.468466, 
    0.238926, 0.200796, 0.324106, 0.294829, 0.360417, 0.177750, -0.311345, -0.039531, -0.476275, -0.372404, 
    -0.077141, -0.018407, -0.244834, 0.257930, -0.119257, -0.129587, 0.087708, -0.136610, 0.299929, 0.551803, 
    0.576595, 0.490714, -0.003758, 0.333130, 0.384367, 0.803560, 0.480632, -0.481171, -0.274329, -0.591844, 
    -0.138391, 0.461259, 0.044676, 0.115588, -0.160458, -0.067431, 0.252581, -0.102024, 0.141056, 0.513033, 
    0.843966, 0.430634, 0.028790, -0.178411, -0.070073, -0.140391, -0.121243, 0.088562, -0.488270, -0.211600, 
    -0.452285, 0.067550, -0.136424, -0.223008, 0.013915, -0.297691, -0.238793, -0.108433, -0.096459, -0.075327, 
    0.166299, -0.212595, 0.066257, -0.305579, -0.014814, -0.303869, 0.408631, 0.198046, 0.213821, -0.006087, 
    -0.056420, -0.216413, -0.746687, -0.380200, -0.446291, 0.191365, 0.367604, 0.301870, -0.402796, -0.295839, 
    -0.343455, -0.079414, -0.084711, -0.235967, -0.275354, -0.318282, -0.300079, 0.193389, 0.545236, 0.191593, 
    -0.414902, -0.380040, -0.319607, 0.430084, 0.166241, 0.200232, -0.002771, 0.031728, -0.060191, -0.232308, 
    -0.302968, -0.338312, 0.194124, 0.477848, 0.350947, -0.429458, -0.353909, -0.237846, 0.491453, 0.757499, 
    0.328782, 0.126053, -0.108338, -0.131295, 0.677095, 0.579766, 0.898663, -0.262775, -0.294093, -0.176854
    
};

// PyTorch Layer: conv2.bias (Shape: (40,))
static const data_t conv2_b[40] = {
0.136482, 0.040749, 0.060800, -0.062125, -0.091031, 0.486425, 0.241591, 0.173039, 0.267504, -0.038508, 
    0.110693, 0.251082, 0.399874, 0.257346, 0.193118, 0.161332, -0.035503, -0.081332, 0.287807, 0.463584, 
    0.308455, 0.087806, 0.260372, 0.089390, 0.293610, 0.331874, 0.398932, 0.344299, -0.022921, -0.005041, 
    -0.609102, -0.185611, 0.165898, 0.374704, 0.073771, 0.029110, 0.592163, 0.297337, -0.367712, 0.098610
    
};

// PyTorch Layer: fc.weight (Shape: (6, 40))
static const data_t fc_w[240] = {
-0.158154, -0.149164, 0.177048, 0.034146, 0.337559, -0.024503, -0.099290, -0.109062, -0.513221, 0.324855, 
    0.268534, 0.284238, -0.014605, -0.320093, -0.393087, -0.427328, 0.084303, 0.124201, -0.004833, -0.274312, 
    0.272256, -0.312270, 0.277754, -0.314332, -0.434391, -0.190769, 0.013065, -0.255673, 0.244776, -0.070001, 
    -0.159306, 0.105736, -0.310742, -0.026605, 0.326479, -0.208535, 0.144901, 0.289425, 0.229352, -0.236123, 
    -0.263938, -0.355101, 0.162905, 0.090454, 0.165555, -0.205788, 0.191794, -0.197671, 0.020986, -0.120491, 
    0.215075, 0.255700, 0.044246, 0.046876, -0.102616, -0.374090, -0.116337, -0.360016, 0.296361, -0.164874, 
    -0.063100, -0.348294, -0.108844, 0.361887, -0.145828, -0.115542, 0.294455, 0.241543, 0.214379, -0.323230, 
    0.147409, -0.286744, -0.331340, 0.358835, -0.056461, -0.041661, 0.269264, 0.360319, -0.319747, -0.202031, 
    -0.200304, 0.354270, 0.092218, 0.129542, 0.107743, -0.241546, 0.302051, -0.030216, 0.072339, -0.324375, 
    -0.126207, 0.050148, -0.347681, 0.365498, 0.121666, 0.087274, 0.259612, -0.109324, -0.134903, -0.142367, 
    -0.116282, 0.037796, -0.045904, 0.311342, 0.245167, -0.298415, -0.412877, 0.351502, -0.299126, -0.058648, 
    -0.339490, 0.339209, 0.111434, -0.284401, -0.406456, 0.261721, 0.104243, -0.288139, -0.438689, 0.343679, 
    -0.156147, 0.123976, -0.371640, -0.409944, -0.492944, 0.368742, 0.319778, -0.383663, 0.293274, -0.385879, 
    -0.441175, -0.055025, 0.177018, 0.167293, 0.207605, 0.282790, -0.335848, -0.014400, -0.111119, 0.274530, 
    0.285549, -0.132597, 0.186392, -0.155350, 0.277453, 0.063709, 0.112117, 0.240560, -0.316720, -0.431300, 
    0.270557, -0.218165, 0.028848, 0.121293, -0.245621, 0.111009, 0.026152, -0.160697, 0.021520, 0.067595, 
    0.367065, 0.217046, -0.338580, -0.092018, 0.029547, 0.229839, -0.124464, 0.279539, -0.065766, -0.055369, 
    -0.401957, 0.098115, 0.343240, -0.273903, -0.316772, 0.300664, -0.351260, 0.259419, -0.527505, -0.149024, 
    -0.227772, 0.355065, -0.150270, 0.106899, 0.051052, 0.353457, 0.127773, -0.035886, 0.155020, 0.144882, 
    -0.083938, 0.132541, 0.291129, -0.270229, -0.331800, -0.395078, -0.337316, -0.110273, 0.014979, -0.079275, 
    0.014175, -0.100037, -0.180052, 0.355656, -0.072543, -0.019204, -0.137641, 0.038921, 0.138827, 0.194468, 
    0.081885, -0.303409, -0.036267, 0.025209, -0.017654, -0.099503, 0.271600, 0.310628, 0.247227, -0.013138, 
    -0.062552, -0.100758, -0.261415, -0.241815, -0.110857, -0.132559, -0.280847, -0.039584, 0.167299, 0.002160, 
    0.157942, -0.226019, 0.237788, 0.110446, 0.101976, 0.300760, -0.145255, -0.129964, 0.274113, -0.162957
    
};

// PyTorch Layer: fc.bias (Shape: (6,))
static const data_t fc_b[6] = {
-0.085326, 0.065884, -0.027696, 0.071647, 0.095427, 0.106171
};

#endif // VOICE_CNN_WEIGHTS_H
