#ifndef WEIGHTS_H
#define WEIGHTS_H

#include "gesture_typedefs.h"

// PyTorch Layer: conv1.weight (Shape: (16, 6, 3))
static const data_t conv1_w[288] = {
0.776301, 0.204258, 0.871497, -1.259498, -0.050473, 0.252974, 0.367861, 0.006945, 1.086992, 2.791298, 
    2.989871, 0.623798, -1.794684, -0.388765, 1.849371, -7.648310, 6.939412, 7.959222, -2.301661, -1.650718, 
    -1.225993, -1.486231, -1.779133, -0.570559, 2.011466, 2.313665, 0.087210, -0.404811, -2.230738, -2.544602, 
    -1.040743, 0.505592, -1.814710, 2.154080, -1.713710, 0.725429, 0.010971, -0.314167, 0.465371, -1.917264, 
    -0.990178, -2.375047, -2.975868, -2.294180, -1.990787, -0.013478, -0.680621, 2.804428, -0.141870, -0.077986, 
    0.063994, 0.839824, -0.059970, -1.306124, 0.124485, -0.475563, 0.371998, -0.637518, 0.277358, -1.343449, 
    0.195968, 0.917081, 1.041346, 3.443334, 4.226609, 3.360709, 3.461402, -2.337939, -4.089644, 0.652330, 
    -0.508715, -0.442119, -2.271604, -1.141613, 1.007119, -0.951638, 0.350025, 0.105565, -0.934022, -1.535015, 
    1.543255, -0.557074, -1.379841, 3.001644, -5.012179, -0.824864, 3.231404, -2.490866, -5.055050, 8.261785, 
    -0.197129, -1.136525, 0.960395, 1.726373, 0.202357, -0.787725, -2.734817, -0.934275, 3.525940, -2.151400, 
    1.970171, 1.597044, -6.127312, -3.030557, 0.404427, -7.759265, -2.366768, -3.856370, 1.533972, 1.567903, 
    1.086967, -0.587287, 0.991050, 1.249489, 1.226197, 2.992949, 1.701899, -3.007855, -1.939770, -0.529972, 
    1.578890, 1.045462, 1.431521, -1.347669, 1.165812, -3.022862, -1.178736, -1.067745, -1.007079, 1.668319, 
    0.999902, -0.358792, 0.996037, 0.034227, -2.378464, -0.595467, 3.311169, 1.455280, -1.334617, -2.357136, 
    -1.000296, -4.403277, -3.200162, -0.804387, -0.810097, 0.532467, -1.205675, 2.006967, 1.553405, 1.553686, 
    -0.010930, -1.140141, 0.205823, 2.479437, 3.204667, -1.489906, 7.643339, 0.623390, -3.580775, 4.537728, 
    2.313757, -3.552548, 1.595082, 0.341946, -1.279620, 0.317858, 0.016311, -2.197176, 1.767220, 1.648899, 
    -2.661011, 2.726974, -2.129785, 4.221992, 1.758860, 1.999837, 0.228171, -2.173303, -3.038148, 2.868987, 
    -1.346570, 1.146380, 1.564943, -0.914200, 1.185230, 0.846401, -3.365756, -2.487290, -1.030472, 4.371656, 
    3.944082, -2.911223, -1.633943, -1.808027, -1.420361, -1.665791, -1.316190, 0.038288, -0.454111, -0.772867, 
    0.660859, 2.480110, 1.582714, 0.191015, 0.791276, 2.500898, 0.662199, 3.093625, -3.240785, -2.946968, 
    -0.981205, -3.046753, -2.894884, 0.430636, -3.366873, -0.656303, 0.318024, 0.187087, -0.025499, -1.592967, 
    -1.546243, -0.563069, 2.338665, 1.880500, 1.950250, 3.647099, 1.311063, -1.955668, -0.184786, -0.996971, 
    -1.603575, -1.986883, -2.241406, -2.661236, -0.691025, 1.066777, 0.368241, -1.290060, 0.560492, -0.037976, 
    -1.912761, -2.036572, -0.010011, -0.697618, -4.169303, -2.362308, -4.760568, 0.997292, -4.381037, 1.123866, 
    0.961791, 0.848168, 0.611182, 0.389376, -0.767145, 0.618681, 2.822684, 1.317109, 0.126441, -1.243635, 
    -0.061717, -0.585612, -1.093651, -6.154584, -1.454867, -2.222418, 2.800200, 2.764479, -2.491459, -5.808550, 
    2.645194, 2.945102, 2.193519, 0.459818, -0.013644, 0.116435, 0.000089, -0.443560, -1.390213, -0.287209, 
    0.343109, 0.654355, -1.992792, -1.089176, 3.079466, -2.815888, -1.160409, 0.899171
};

// PyTorch Layer: conv1.bias (Shape: (16,))
static const data_t conv1_b[16] = {
0.097106, 0.094411, -0.040983, -0.404931, 0.007166, 0.095549, 0.036127, -0.383135, 0.122098, 0.001419, 
    -0.285253, -0.291788, -0.024508, -0.014432, 0.016060, 0.143720
};

// PyTorch Layer: conv2.weight (Shape: (32, 16, 3))
static const data_t conv2_w[1536] = {
-0.633312, 0.244063, 0.148070, -0.266122, -0.026307, 0.306458, 0.209903, -0.436753, -0.772342, -0.857924, 
    0.344085, -0.316792, 0.525039, -0.394852, 0.066339, 0.377618, 0.131871, 0.049590, -0.170141, 0.230123, 
    0.156107, -0.329644, 0.023349, -0.357676, -0.453600, 0.017618, -0.166587, 0.060891, -0.001109, -0.388781, 
    0.497494, -0.145153, -0.321088, -0.159771, -0.245843, 0.556993, -0.081055, -0.057409, -0.018032, 0.677569, 
    -0.142097, -0.241042, -0.062822, -0.414966, -0.087573, -0.306057, 0.082479, 0.343409, -0.443969, -0.426969, 
    -0.398484, 0.268436, 0.099091, 0.330140, 0.173351, 0.438895, 0.380744, 0.310117, 0.374934, 0.186277, 
    0.065720, -0.638319, -0.087752, -0.046031, -0.347980, -0.239301, 0.116984, -0.169859, 0.042151, 0.092548, 
    0.128605, -0.146013, -0.106811, -0.057215, -0.206228, -0.163368, -0.293342, 0.440518, -0.044274, -0.108620, 
    0.521001, 0.201298, 0.109661, 0.608105, -0.045929, 0.019296, 0.328770, 0.202177, 0.028551, 0.021318, 
    -0.011494, 0.170090, -0.038879, 0.174594, -0.032169, -0.231221, -0.600697, -0.255215, -0.356276, -0.571375, 
    -0.137954, -0.468304, 0.213057, 0.273175, 0.252753, -0.081972, -0.151656, 0.554069, 0.160459, 0.059882, 
    -0.056906, 0.451053, -0.545708, -0.569390, -0.000661, 0.249233, 0.270005, 0.504497, -0.297782, 0.060218, 
    -0.361336, 0.273203, 0.462689, -0.438973, -0.217680, -0.090995, 0.260787, 0.082738, 0.126892, 0.183955, 
    0.242842, 0.067525, 0.059673, -0.368464, -0.975284, -0.147634, -0.225051, -0.226427, 0.191367, 0.328672, 
    -0.041407, 0.085320, -0.286480, -0.193272, 0.078237, -0.039338, 0.022638, -0.096685, -0.036097, 0.199575, 
    0.300556, 0.112886, -0.183697, -0.443251, -0.217570, -0.917146, -0.085642, -0.487423, -0.711605, 0.057582, 
    -0.081930, -0.413650, -0.086895, 0.150951, -0.132261, -0.211670, -0.053779, -0.449103, -0.450503, -0.321578, 
    0.256018, -0.228114, -0.122551, -0.457264, -0.320222, 0.277422, 0.046668, 0.393531, -0.104495, 0.031359, 
    0.104496, 0.133570, 0.079746, 0.108028, 0.223199, -0.101558, -0.008567, -0.023586, -0.352651, 0.481016, 
    0.213361, 0.192393, 0.067756, -0.341094, -0.326657, 0.077599, 0.066573, 0.213072, 0.194317, -0.055934, 
    0.251180, 0.392750, -0.434269, -0.104201, -0.056862, -0.759203, -0.133372, -0.467211, -0.766695, -0.068082, 
    -0.040264, 0.242097, 0.508845, 0.100073, -0.712842, 0.038541, 0.058181, -0.144430, 0.264980, 0.024556, 
    -0.907462, -0.449428, 0.245929, -0.614025, -0.203367, -0.382143, 0.183793, 0.283109, 0.013539, 0.035933, 
    -0.229640, 0.111551, 0.230117, 0.410096, -0.239236, 0.124960, 0.341115, -0.102540, -0.226975, 0.089114, 
    -0.684372, 0.087772, 0.451935, 0.223459, 0.098868, -0.217634, 0.155584, -0.032718, -0.260398, -0.172633, 
    0.342320, -0.478802, -0.013400, 0.271010, 0.489810, -0.108907, 0.345408, -0.306414, 0.019541, -0.007808, 
    -0.689662, 0.027854, 0.472121, 0.450305, -0.173022, 0.016335, -0.152810, -0.371628, -0.100810, 0.223160, 
    -0.409895, -0.054537, 0.439193, 0.011350, 0.116208, -0.136283, -0.400038, -0.039674, -0.470311, 0.260274, 
    -0.012717, 0.160170, -0.003847, -0.353618, -0.379379, 0.103606, -0.001360, -0.047469, 0.200863, 0.056816, 
    -0.155535, -0.005380, -0.381817, 0.204543, 0.158979, 0.178441, -0.062205, -0.370069, 0.221792, 0.221454, 
    -0.113738, -0.013264, -0.029595, -0.769167, -0.174500, 0.275263, 0.067034, -0.334989, -0.138916, -0.052300, 
    -0.087279, -0.042551, -0.238433, 0.615737, 0.079865, 0.182356, -0.138969, -0.430422, -0.603936, 0.525145, 
    0.172900, -1.274706, 0.118080, 0.421762, 0.181315, -0.235094, -0.006459, -0.609343, -0.324131, 0.400050, 
    -0.689633, 0.254467, 0.258125, 0.262036, -0.230520, -0.596193, 0.342164, -0.246673, 0.008068, -0.038035, 
    -0.050165, 0.028580, 0.206895, -0.080809, 0.073865, -0.035922, 0.126185, -0.692010, -0.171762, -0.018265, 
    0.503483, -0.802338, 0.083453, 0.050593, 0.076480, -0.100468, 0.048764, -0.290865, -0.258389, -0.582069, 
    -0.256246, -0.014152, -0.093999, 0.059100, -0.472940, -0.208556, -0.200802, -0.305478, 0.052536, -0.356052, 
    0.004057, 0.105693, 0.357659, -0.147375, 0.096134, 0.056779, -0.106430, 0.074772, -0.306996, -0.046531, 
    0.139839, 0.061736, -0.503331, -0.080857, 0.498684, 0.187214, -0.141509, 0.113320, 0.348397, 0.244073, 
    -0.195546, -0.435715, -0.261500, 0.408447, 0.149562, -0.459884, 0.248666, -0.148209, -0.367501, -0.335498, 
    -0.082638, -0.160481, 0.149584, -0.268329, 0.310985, 0.698805, -0.183526, -0.355931, 0.098931, -0.159614, 
    0.138165, 0.497893, 0.262403, 0.063890, 0.244844, 0.330596, -0.220443, 0.092158, -0.426975, 0.036042, 
    0.103139, 0.261947, -0.281363, -0.549351, -0.453860, -0.199345, -0.345031, -0.475568, 0.060899, -0.111874, 
    -0.194228, -0.241988, -0.473761, -0.787305, 0.188604, 0.183099, 0.254932, -0.081601, -0.144525, 0.028999, 
    0.068604, -0.940839, -0.599127, -0.189285, -0.421821, -0.263134, 0.349454, -0.407146, -0.254574, 0.443662, 
    0.002556, 0.012931, 0.118875, -0.185048, 0.496002, 0.243891, -0.082605, 0.126927, -0.044027, 0.117594, 
    -0.548668, 0.154520, -0.921265, -0.488664, 0.365063, -0.287332, 0.137308, -0.002464, -0.468416, -0.195169, 
    -0.083004, -0.043189, 0.201054, 0.343806, 0.064506, 0.137750, 0.475852, -0.324420, -0.050810, 0.016528, 
    -0.226394, 0.439471, 0.184324, -0.293031, -0.372447, -0.347609, -0.169669, -0.821956, -0.347979, 0.094915, 
    -0.024687, 0.314418, -0.132930, -0.010182, 0.426835, 0.162339, 0.106218, -0.111740, 0.625737, 0.164809, 
    0.074752, -0.003365, 0.090027, 0.343237, 0.134332, 0.031211, -0.044409, -0.186981, -0.252095, -0.102821, 
    0.125081, 0.065121, -0.151055, 0.277190, 0.158049, 0.037886, 0.065711, 0.178911, 0.166796, -0.413585, 
    0.277449, -0.078809, 0.029276, -0.172462, -0.549223, -0.083895, -0.101385, -0.150753, -0.405466, 0.290028, 
    0.389361, 0.113635, 0.044799, 0.221276, 0.383751, -0.267867, 0.258304, -0.074354, 0.221418, 0.313850, 
    -0.194818, 0.219455, 0.079691, -0.473030, -0.096938, -0.584349, 0.089671, -0.005862, 0.396390, -0.331924, 
    0.153718, 0.108657, -0.301983, -0.723044, -0.287960, 0.036240, -0.287280, -0.064337, -0.322687, 0.199609, 
    -0.464387, -0.045838, -0.181699, -0.160903, 0.478378, 0.479560, -0.137832, -0.009461, 0.107952, -0.033697, 
    0.102729, 0.048400, -0.226365, 0.031854, 0.253106, -0.366661, 0.024211, -0.082940, -0.163374, -0.272178, 
    0.128404, 0.248044, 0.284023, 0.403378, 0.105034, 0.016124, 0.403022, 0.492842, -0.233992, -0.579114, 
    -0.883134, -0.162844, -0.676549, 0.025719, 0.239861, 0.297812, 0.165101, -0.260643, -0.025050, 0.172012, 
    0.342702, 0.161130, -0.249310, -0.245259, 0.071810, -1.096756, 0.000656, -0.221761, -0.176407, -0.080143, 
    0.437639, -0.016090, -0.126587, 0.366936, 0.645566, -0.060831, -0.295381, -0.055698, -0.069797, -1.104045, 
    -0.358969, -0.033890, -0.273773, -0.348427, -0.144142, -0.011805, 0.477030, -0.137574, -0.720138, -0.509692, 
    -0.592157, -0.350188, -0.965729, 0.138218, 0.178570, -0.105559, -0.051318, -0.385026, -0.839106, 0.217887, 
    -0.107066, -0.496096, -0.074901, 0.144721, 0.086616, -0.112938, 0.102400, -0.069180, -0.154686, -0.341236, 
    -0.399002, -0.432402, -0.311167, -0.406411, -0.148718, 0.225867, -0.229214, 0.005697, 0.254766, 0.177490, 
    -0.007764, 0.136433, -0.249058, -0.008367, -0.060367, 0.120171, -0.345180, -0.595479, -0.232723, 0.184034, 
    0.661175, 0.660941, -0.031619, 0.349893, 0.131441, -0.255325, -0.150153, -0.268090, -0.176587, -0.001152, 
    -0.075313, 0.062876, -0.469200, -0.208967, 0.131787, -0.187638, -0.182328, 0.228635, -0.036834, 0.422927, 
    -0.409072, -0.056771, 0.356471, -0.000801, -0.017292, -0.002261, 0.063489, -0.100550, 0.475902, -0.068412, 
    0.070247, -0.298262, 0.120399, -0.187319, -0.126227, -0.406885, -0.238319, 0.192476, -0.052389, -0.345379, 
    0.128266, -0.084616, 0.026927, -0.066445, 0.046684, 0.051126, -0.039322, -0.233123, 0.162961, -0.008026, 
    0.098220, -0.156776, 0.098279, 0.083957, 0.218229, -0.155682, -0.498103, 0.161435, 0.265375, -0.671889, 
    -0.210995, 0.035556, -0.679092, -0.198045, -0.032767, -0.620184, -1.458924, -0.596876, 0.012603, -0.457622, 
    -0.217815, 0.244801, 0.281679, -0.226312, 0.339008, 0.290432, 0.104855, 0.313595, -0.018824, -0.730134, 
    -0.825302, 0.289482, 0.486037, 0.450872, 0.268922, 0.273175, -0.273672, -0.350378, -0.094270, -0.102327, 
    -0.224964, 0.216625, -0.032533, -0.495333, 0.026816, 0.377901, -0.006459, 0.095230, -0.359922, -0.177817, 
    0.024172, 0.093552, -0.143163, -0.424603, -0.171613, -0.054770, 0.306932, 0.719128, 0.360944, 0.372605, 
    -0.147326, -0.145870, -0.391085, -0.064161, -0.352386, -0.295160, 0.040768, -0.271806, -0.060446, 0.368307, 
    0.027329, 0.025579, -0.012856, 0.205456, -0.178254, -0.213506, -0.299236, 0.081829, -0.256324, 0.418027, 
    0.350573, -0.000911, -0.075357, -0.216094, 0.304280, -0.111365, -0.285699, -0.183355, 0.127600, 0.142116, 
    -0.038420, 0.288150, 0.230363, 0.016976, 0.332429, 0.562986, 0.006411, 0.305243, 0.464288, -0.290214, 
    0.078191, 0.027254, 0.238803, -0.071177, -0.239321, -0.467423, 0.169353, 0.032822, 0.288998, 0.249618, 
    0.113454, 0.238619, 0.312326, -0.176134, -0.268550, -0.276273, 0.123381, 0.477123, 0.146755, -0.023668, 
    0.050466, -0.166391, -0.541378, -0.195484, -0.325115, 0.122728, 0.262824, 0.112314, -0.210798, 0.089183, 
    -0.307127, -0.138623, -0.575003, 0.060131, 0.108978, 0.250941, -0.176019, -0.864561, 0.263904, -0.949138, 
    -0.333887, -0.048900, -0.322075, -0.015492, 0.152019, -0.197102, -0.958663, 0.191143, -0.191893, -0.134630, 
    0.076839, 0.501887, 0.396623, 0.212090, -0.594103, -0.027965, 0.317495, 0.204169, 0.063541, -0.086477, 
    0.086704, -0.099171, -0.504961, -0.462597, -0.383591, 0.551924, 0.190841, 0.019093, -0.311362, 0.122996, 
    0.556303, -0.263173, -0.070542, -0.487674, -0.324185, 0.314880, 0.142085, 0.144291, -0.431519, 0.132700, 
    -0.070574, -0.568792, -0.292658, 0.180254, 0.183148, -0.097920, 0.067175, 0.087873, -0.220821, -0.514514, 
    -1.175175, -0.288267, -0.550570, 0.068511, -0.201822, -0.441500, 0.384934, 0.349203, 0.119267, -0.011431, 
    0.248919, 0.043806, -0.003283, 0.357970, -0.203994, -0.160369, -0.052048, -0.067110, 0.323144, -0.140200, 
    0.092269, -0.589345, -0.379207, -0.315415, 0.138951, 0.473614, 0.330832, -0.173170, 0.134541, -0.447813, 
    0.124131, 0.183288, -0.194742, 0.481013, 0.213001, -1.000105, -0.295772, -0.034793, -0.305777, 0.133975, 
    0.176183, -0.199272, -0.153270, -0.100087, 0.148442, -0.138702, -0.086147, 0.205052, 0.219268, 0.173120, 
    -0.131934, -0.106057, 0.023943, -0.118946, 0.044100, 0.226437, 0.100760, 0.047755, -0.208921, -0.488153, 
    -0.070696, -0.254362, -0.132684, -0.414435, 0.153132, -0.037720, 0.403179, 0.159273, -0.200224, -0.047527, 
    0.438793, 0.304150, -0.261922, 0.054766, 0.175619, 0.328938, -0.071376, 0.074153, 0.243507, 0.146814, 
    -0.361190, 0.392674, 0.234346, -0.146831, 0.138237, -0.581477, -0.221765, 0.178402, 0.092255, -0.164088, 
    0.043029, 0.060615, 0.035959, 0.221197, -0.243723, -0.686088, -0.496982, -0.568137, 0.111573, 0.251656, 
    0.471076, 0.122135, -0.223319, -0.444823, -0.311716, -0.130111, 0.072409, 0.001981, 0.286522, -0.146696, 
    0.168194, -0.083831, -0.730789, 0.048148, -0.002429, -0.139585, 0.211382, 0.305762, -0.061325, -0.115258, 
    0.097038, -0.094621, -0.904355, -0.126273, 0.291778, -0.461129, -0.171739, 0.335456, -0.377633, 0.020271, 
    -0.285980, 0.423032, -0.125427, -0.003473, 0.046538, 0.157567, 0.001705, 0.323347, -0.391320, -0.478736, 
    -0.150842, 0.031305, 0.073223, -0.198239, 0.424555, 0.238757, 0.104100, -0.227907, -0.305933, 0.171040, 
    -0.213699, 0.143750, 0.373480, -0.069655, -0.094939, -0.284220, 0.029661, 0.493366, -0.771900, -0.154075, 
    0.334627, -0.264372, -0.019483, 0.558494, 0.400667, 0.291795, -0.425516, 0.101704, 0.046773, 0.318390, 
    -0.042108, 0.490743, -0.049692, -0.219162, -0.073612, -0.085276, -0.787024, 0.022450, 0.048585, 0.146197, 
    -0.273115, 0.253218, -0.573270, -0.126981, 0.306668, 0.377710, -0.094976, -0.311268, 0.043910, -0.009927, 
    -0.300349, 0.199599, 0.054503, -0.177402, -0.165197, 0.077090, -0.455164, -0.701918, -0.038373, 0.675729, 
    0.501543, -0.499533, -0.575376, -0.296197, -0.244435, -0.706249, 0.584225, -0.138583, -0.413182, 0.402066, 
    -0.038924, -0.213790, -0.390343, -0.147668, -0.017239, -0.213923, -0.278102, 0.008761, -0.402060, 0.237775, 
    0.103820, -0.650581, -0.634731, -0.251094, 0.059567, -0.283346, 0.056043, -0.220889, 0.019433, 0.135771, 
    -0.055891, 0.344432, 0.416009, 0.087982, -0.580285, -0.423282, 0.082503, -0.730477, 0.183504, 0.322784, 
    -0.149621, -0.024979, -0.277225, -0.210982, -0.535768, -0.114110, 0.085661, 0.346952, 0.046232, -0.226223, 
    -0.087862, 0.306206, 0.139462, 0.053620, -0.492027, -0.221855, 0.376995, -0.216948, -0.059816, 0.046452, 
    0.133144, -0.943302, -0.716302, 0.010249, 0.491867, 0.438795, 0.382989, 0.281822, 0.172390, -0.251413, 
    -0.030071, -0.402509, -0.393675, -0.092617, -0.004986, -0.456883, -0.127535, 0.059018, 0.091189, 0.251676, 
    0.064182, -0.118490, -0.653288, -0.279401, -1.030930, -0.904176, -0.136089, 0.146675, -1.019006, -0.285068, 
    -0.409258, -0.602076, -0.227393, -0.206090, 0.106773, 0.086542, 0.120793, 0.167521, 0.350372, 0.332436, 
    0.371854, 0.118313, -0.605728, 0.143127, 0.158902, -0.185205, 0.006003, -0.473859, 0.052366, -0.104617, 
    -0.399023, -0.104581, -0.036544, 0.056623, -0.014125, -0.123152, 0.160155, -0.210404, -0.224167, -0.433398, 
    -0.005328, 0.540145, 0.086711, -0.591690, -0.279549, -0.370584, -0.096330, 0.319615, 0.030902, 0.352549, 
    0.043944, 0.261539, 0.407808, 0.516111, -0.324867, 0.268482, -0.170433, -0.357834, 0.373248, 0.073072, 
    -0.257046, -0.569675, -0.117898, 0.384377, -0.185923, 0.118458, -0.266421, 0.004974, 0.029199, -0.450794, 
    0.228163, -0.376919, -0.948192, 0.318793, -0.032196, -0.188574, 0.569897, -0.021418, -0.150071, 0.627710, 
    0.172144, -0.025403, 0.126744, 0.312150, -0.472481, 0.377325, 0.328429, -0.017635, 0.557856, 0.203715, 
    -0.310828, -0.139878, 0.076231, -0.015171, -0.112826, -0.408482, 0.055735, -0.054408, -0.238454, 0.184263, 
    -0.222857, 0.001023, -0.730118, 0.160678, -0.170389, -0.662562, 0.388999, -0.399729, 0.112877, -0.187780, 
    -0.225249, -0.080593, -0.097398, 0.000183, -0.036190, 0.023893, -0.120495, -0.151160, 0.657027, 0.080005, 
    0.330896, 0.084675, 0.061462, 0.367929, -0.205483, -0.065683, 0.041940, -0.163802, -0.266142, -0.008844, 
    0.034179, 0.198309, -0.437269, 0.429034, 0.214596, 0.093018, -0.292565, -0.012244, -0.404447, 0.163319, 
    0.230379, -0.193478, -0.224084, 0.014241, -0.107715, -0.045959, 0.067500, -0.042635, 0.031102, 0.112899, 
    -0.181560, 0.012877, -0.035117, -0.024785, -0.919642, -0.315281, -0.110080, 0.632392, -0.083077, -0.001792, 
    -0.447017, -0.154819, -0.416277, 0.239229, -0.123693, 0.265349, 0.162849, -0.007194, -0.406966, 0.090119, 
    0.382913, 0.147166, -0.401285, 0.026740, 0.200441, 0.115888, -0.165682, -0.419977, 0.325844, -0.234132, 
    -0.936264, -0.534197, -0.756321, -0.085507, 0.207067, 0.219992, 0.391590, 0.028214, -0.328583, -0.348575, 
    -0.626433, -0.094804, 0.020788, -0.209572, 0.028438, 0.009564, 0.046337, -0.081543, -0.444753, -0.710073, 
    0.186002, 0.525009, -0.153656, 0.057404, -0.510485, -0.104890, -0.893274, -0.104642, -0.299200, -0.059599, 
    0.168008, -0.161569, 0.564823, 0.361311, -0.145670, 0.050239, 0.036380, -0.181559, -0.155555, 0.192513, 
    -0.340263, -0.181027, -0.166466, -0.144381, 0.171085, 0.224623, -0.570508, 0.424157, 0.250828, 0.050707, 
    -0.420529, -0.072889, 0.277177, 0.129372, 0.243620, -1.043768, -0.117920, 0.630047, -0.092087, 0.227227, 
    0.193698, -0.668404, -0.895423, -0.150789, 0.201539, -0.151158, 0.370475, -0.079341, 0.067159, -0.164772, 
    0.349047, 0.161500, 0.025336, -0.130232, 0.284275, 0.052637, 0.092807, 0.193993, 0.289632, 0.302148, 
    0.452028, -0.399169, -0.102414, -0.693093, -0.046373, -0.055316, -0.198269, -0.032578, -0.070521, 0.371252, 
    0.104308, -0.686341, -0.046912, 0.102604, 0.079671, -0.243981, -0.306315, -0.414047, -0.338998, -0.253883, 
    -0.311391, 0.017282, 0.044951, 0.304809, 0.741603, -0.115723, 0.243744, 0.185105, -0.070420, -0.322211, 
    -0.297698, 0.362815, -0.176716, -0.150508, 0.091978, -0.195066, -0.158307, 0.034996, 0.058296, -0.561152, 
    -0.465866, -0.040949, 0.066869, 0.356733, -0.422798, 0.159728, 0.048589, -0.224891, -0.130318, -0.425445, 
    0.252073, -0.306868, 0.160997, 0.191658, -0.551184, -0.038428, 0.225150, -0.201498, -0.468488, -0.273632, 
    0.465148, -0.014657, -0.225850, 0.272280, 0.123233, 0.338128, 0.607017, 0.141811, 0.011428, 0.002479, 
    0.286269, 0.235429, 0.248317, -0.129762, 0.170512, -0.026402, -0.123686, -0.083144, -0.467803, 0.252417, 
    0.318200, -0.085308, -0.500597, 0.359341, 0.172630, -0.007291
};

// PyTorch Layer: conv2.bias (Shape: (32,))
static const data_t conv2_b[32] = {
-0.345529, -0.699342, -0.301220, 0.383981, 0.086629, -0.510154, 0.181965, 0.542163, -0.471533, -0.411182, 
    0.147960, -0.210376, 0.210840, 0.092783, 0.309876, 0.119131, -0.537031, -0.359948, 0.025306, -0.384367, 
    0.403054, -0.478987, -0.563530, 0.167713, 0.335862, 0.212493, -0.190546, -0.025706, 0.164004, -0.439534, 
    0.054036, -0.502706
};

// PyTorch Layer: fc1.weight (Shape: (32, 480))
static const data_t fc1_w[15360] = {
-0.660129, 0.058689, -0.292940, 0.087771, -0.580386, -0.139776, -0.353013, -0.097825, -0.228708, -0.013409, 
    -0.312921, -0.349582, 0.251328, -0.317193, 0.551066, -0.444475, 0.057188, 0.313487, -0.001846, -0.300446, 
    0.404459, 0.456886, 0.106788, -0.084146, 0.140461, -0.270952, -0.273743, -0.118116, 0.132939, 0.480877, 
    0.221589, 0.445785, 0.560874, 0.560271, -0.117658, 0.300408, 0.179507, 0.532063, 0.145569, 0.240823, 
    0.052485, 0.038608, -0.032657, 0.811182, 0.180713, 0.120018, 0.179195, 0.170876, 0.369557, 0.309696, 
    0.292324, 0.032695, -0.120866, -0.093807, -0.202011, -0.267132, -0.124491, 0.157882, 0.229465, 0.447263, 
    -0.139423, -0.576874, -0.407808, -0.246250, -0.756662, 0.291640, -0.597838, -0.073432, -0.148525, 0.065542, 
    -0.034284, -0.019212, -0.319668, -0.383691, 0.246274, 0.218560, -0.073938, 0.443534, -0.261082, -0.000733, 
    -0.006449, 0.132257, -0.411619, -0.415828, -0.306326, -0.466636, -0.069107, -0.426288, -0.053883, -0.279814, 
    -0.026753, -0.114085, 0.085271, 0.218805, 0.001325, -0.118320, -0.271822, -0.351923, -0.708265, -0.186737, 
    -0.391419, 0.027344, -0.437917, -0.444046, -0.193002, 0.004565, -0.056115, -0.111822, -0.138428, 0.169202, 
    -0.064864, 0.191976, 0.192600, -0.108116, 0.229872, 0.134142, 0.292676, 0.332545, 0.255938, 0.414220, 
    0.613828, -0.009325, -0.275184, -0.956023, 0.010949, -0.157151, -0.424667, -0.096253, 0.086828, 0.100025, 
    0.225471, 0.158067, 0.005727, 0.369442, -0.159981, -0.113040, 0.257033, 0.014947, 0.119647, -0.856381, 
    0.325093, -0.214732, -0.156749, 0.215588, -0.336783, 0.267756, -0.099747, -0.095611, 0.208776, -0.503221, 
    -0.186889, -0.350692, -0.342828, -0.072433, 0.207428, -0.143058, 0.175454, 0.266600, -0.032748, 0.375852, 
    0.308381, -0.027553, 0.384063, 0.041816, 0.110771, -0.201173, -0.933405, -0.084588, 0.002989, -0.460058, 
    -0.223033, 0.011342, -0.362055, 0.093508, 0.203658, -0.010712, -0.535321, -0.063428, 0.257441, -0.175642, 
    0.101960, 0.528524, -0.097898, 0.587441, 0.477895, 0.439439, 0.156360, 0.352094, 0.247430, 0.666164, 
    0.710761, 0.321992, 0.189863, -0.038265, 0.271837, 0.548119, 0.128850, 0.013422, 0.099945, -0.187716, 
    -0.783486, -0.101118, -0.237329, 0.024231, 0.017591, -0.504958, 0.305898, -0.572291, -0.340077, -0.780313, 
    -0.028075, 0.129993, 0.155789, 0.104228, -0.073806, 0.228300, 0.228040, -0.164105, 0.143748, 0.138751, 
    0.029215, 0.098110, -0.225810, -0.122187, 0.040292, 0.181289, 0.364729, 0.175837, -0.022016, 0.077130, 
    -0.216218, -0.122489, 0.137947, 0.550525, 0.114694, -0.110963, 0.292519, 0.074320, 0.039651, 0.006364, 
    0.153374, 0.370831, 0.298948, 0.327110, 0.197443, -0.172779, -0.218865, -0.185223, -0.075952, -0.335189, 
    -0.590065, 0.257303, -0.190034, -0.164056, -0.089498, -0.029532, -0.494774, -0.288104, -0.529268, -0.347837, 
    0.531993, -0.275068, -0.578972, 0.031737, -0.020852, 0.678146, -0.119005, 0.064200, -0.157700, -0.231309, 
    0.810698, 0.837112, 0.263323, 0.313285, 0.038367, 0.351511, 0.045905, 0.064658, 0.161622, 0.263858, 
    -0.431835, 0.128979, -0.159738, -0.150419, -0.098046, -0.198952, 0.641349, -0.488400, 0.115718, 0.256778, 
    -0.048014, -0.145681, 0.171907, -0.615760, -0.122193, -0.062411, 0.084452, 0.194603, 0.149025, -0.033365, 
    0.095935, 0.051814, 0.145842, 0.076820, 0.229761, -0.054479, -0.089288, 0.182591, -0.132934, -0.161725, 
    -0.342271, 0.162186, -0.150916, -0.443383, -0.286127, -0.155522, -0.963518, -0.949748, 0.219452, -0.305200, 
    -0.249958, -0.018519, 0.106157, -0.505272, -0.257038, 0.070271, -0.338594, -0.524281, -0.004296, -0.188871, 
    -0.362541, -0.092582, -0.195672, 0.116228, -0.609296, 0.784000, -0.384969, 0.447803, 0.237481, -0.306326, 
    0.187920, -0.267115, -0.267276, 0.284737, -0.323789, 0.098345, 0.726927, 0.502377, 0.205990, 0.365014, 
    0.118858, 0.566522, 0.758394, 0.342688, 0.287595, 0.592566, 0.714508, 0.929045, 0.087120, 0.201170, 
    -0.078727, -0.190144, 0.276844, 0.365498, -0.157561, 0.336228, 0.041635, -0.237890, 0.070152, -0.253750, 
    -0.026084, 0.216205, 0.074364, 0.029685, -0.371689, 0.076244, 0.503442, -0.091306, -0.273083, 0.155697, 
    0.366229, 0.231921, -0.161690, 0.171144, 0.191789, -0.176066, -0.023357, -0.055910, -0.208206, -0.074627, 
    0.542108, 0.180203, -0.254284, 0.387749, 0.129263, -0.200487, -0.448028, -0.383682, -0.427533, -0.286153, 
    -0.058460, 0.585761, -0.062428, 0.314835, -0.408796, 0.000232, -0.294285, 0.034111, -0.376893, 0.146323, 
    -0.259650, -0.010697, 0.272708, -0.168503, -0.624804, -0.325779, 0.153708, -0.147002, -0.172728, 0.105502, 
    0.251203, -0.652514, -0.181900, -0.254480, -0.456511, -0.639492, 0.101141, -0.286944, -0.128724, -0.283387, 
    -0.266098, -0.393263, -0.392035, -0.259889, -0.292416, -0.017246, 0.613005, 0.230487, 0.239794, -0.022366, 
    0.216476, 0.223877, 0.212728, 0.296394, -0.450867, -0.331562, 0.162507, 0.658343, -0.140107, 0.315463, 
    0.068899, 0.037452, -0.013123, -0.011009, 0.107165, 0.196293, 0.189520, 0.119578, 0.326977, 0.236956, 
    0.278666, 0.443701, 0.398317, 0.108042, 0.480759, -0.110353, -0.177496, -0.912349, 0.010192, 0.037080, 
    0.161702, 0.089214, -0.385508, 0.075849, 0.156405, -0.272709, 0.015928, 0.068005, 0.082699, -0.099665, 
    -0.282123, 0.078985, -0.487167, -0.156142, -0.331379, 0.105190, -0.223587, 0.053791, -0.000953, 0.263167, 
    -0.457503, -0.352542, -0.133732, -0.141396, -0.753825, 0.391668, -0.253954, -0.351436, 0.314180, 0.645054, 
    0.066559, 0.272222, 0.041816, -0.183031, -0.544610, -0.233194, -0.246300, -0.102554, 0.197243, -0.813898, 
    -0.453411, 0.004799, 0.103113, -0.102648, -0.436134, -0.288495, -0.133561, -0.018493, -0.237695, 0.289398, 
    -0.226957, 0.424074, 0.060969, -0.179127, -0.037405, -0.215374, 0.323151, -0.050202, -0.114836, -0.472725, 
    -0.259054, 0.069169, -0.031859, -0.092514, -0.029581, -0.092570, 0.328647, -0.214888, -0.271607, -0.116031, 
    0.114192, 0.142329, -0.132836, 0.027654, -0.097082, -0.298502, 0.108303, 0.218162, 0.115866, 0.201624, 
    -0.329334, 0.018705, 0.186919, -0.299048, 0.307100, 0.218957, 0.250494, 0.053269, -0.317144, -0.477054, 
    0.172331, -0.000388, 0.019250, -0.497773, -0.016057, 0.012998, -0.818166, 0.037200, 0.135806, 0.100901, 
    -0.277741, -0.124148, -0.028439, -0.056759, 0.171585, 0.302149, -0.138683, -0.151031, -0.046915, -0.473467, 
    -0.161631, -0.605584, 0.105235, -0.133130, -0.485468, -0.073885, 0.085592, 0.261388, 0.443230, 0.310091, 
    -0.058575, 0.144890, -0.109652, -0.214041, 0.070580, 0.277965, 0.176370, 0.182253, 0.046852, 0.334325, 
    -0.181217, -0.014812, 0.358990, -0.125744, 0.205358, -0.126767, -0.154636, -0.097445, 0.268489, 0.082018, 
    -0.063422, 0.227931, 0.028082, 0.072086, 0.388452, 0.109037, 0.112109, 0.000971, -0.132034, 0.487090, 
    -0.064765, 0.104115, -0.060461, 0.520330, 0.076498, 0.062395, 0.084266, -0.022885, 0.300632, -0.352587, 
    -0.192051, 0.369786, -0.017158, -0.187364, 0.081211, 0.169822, 0.206099, 0.280460, 0.045538, 0.355706, 
    0.102208, -0.140308, 0.181133, -0.018212, -0.146139, -0.558916, -0.228697, -0.521377, -0.280205, 0.063554, 
    0.285626, -0.040779, -0.077508, 0.345997, 0.125529, 0.381823, 0.006193, 0.005343, 0.018349, -0.184028, 
    0.055471, -0.126853, 0.027702, -0.311400, -0.811570, 0.247955, -0.005540, 0.028885, 0.144970, 0.165178, 
    -0.181950, -0.211528, -0.022024, -0.351619, -0.412257, 0.458127, -0.368476, 0.001607, -0.089732, 0.193458, 
    0.165990, 0.332262, 0.563034, 0.216128, 0.000051, 0.465839, 0.815055, 0.036140, 0.037040, 0.255636, 
    0.039198, 0.055429, 0.109690, 0.294250, -0.237426, -0.049574, 0.054567, -0.283017, 0.025739, -0.138967, 
    0.051674, -0.155625, 0.212183, -0.085037, 0.043268, -0.422559, -0.153987, 0.309239, -0.321617, -0.042698, 
    -0.339253, 0.618706, 0.048990, -0.197539, 0.265908, -0.031520, 0.121531, -0.370400, 0.023579, 0.084089, 
    -0.424048, 0.035425, 0.006976, -0.709161, 0.388640, 0.050539, 0.586698, 0.286897, 0.523233, -0.138309, 
    -0.111303, 0.104711, 0.010706, -0.078777, 0.145051, -0.060781, -0.433608, -0.106281, 0.111462, -0.483228, 
    -0.070036, 0.145200, -0.164117, -0.096909, -0.367225, -0.201823, 0.158579, -0.558410, -0.076976, -0.382770, 
    -1.263404, 0.084723, 0.173509, 0.290730, 0.478395, -0.078900, 0.218033, -0.282556, -0.653454, -1.001881, 
    0.416685, -0.379971, -0.063758, 0.228799, 0.574722, -0.317017, -0.225805, -0.052680, 0.187038, 0.167585, 
    0.289630, -0.170881, 0.453360, -0.087981, -0.398377, 0.240142, 0.214281, -0.461503, 0.174416, 0.128504, 
    -0.197691, -0.032106, 0.171354, 0.244977, 0.235187, 0.478986, 0.146262, 0.241281, -0.141400, -0.079273, 
    -0.156089, 0.185912, -0.050642, 0.067888, 0.209618, -0.096957, -0.055451, -0.257319, 0.123285, -0.158356, 
    0.061760, 0.183107, -0.094012, 0.277096, 0.169940, 0.200952, 0.377045, -0.089804, 0.008515, -0.306763, 
    -0.087356, -0.379440, 0.242335, 0.567843, 0.047485, 0.422276, 0.222115, -0.084390, 0.279521, 0.098494, 
    -0.037564, 0.145546, -0.880964, 0.102532, -0.115546, 0.231980, 0.197561, 0.143934, 0.273826, 0.198050, 
    0.109665, -0.011719, 0.108788, 0.686644, 0.052185, -0.222482, -0.570159, 0.169591, 0.151073, -0.316618, 
    -0.117490, 0.120832, 0.160933, 0.005058, 0.285849, 0.791467, 0.700084, 0.404893, 0.047412, -0.156971, 
    0.175923, -0.441626, -0.231959, 0.114798, -0.046981, -0.696461, -0.235550, -0.154273, -0.464569, 0.107423, 
    -0.269845, -0.052988, -0.074143, -0.412464, -0.043483, -0.277529, 0.179484, -0.112194, 0.157313, -0.473126, 
    -0.070806, -0.495419, 0.077333, 0.491444, 0.286092, -0.114639, 0.365171, -0.052009, -0.094889, 0.187515, 
    -0.308313, -0.037975, -0.109933, 0.093278, 0.021222, -0.366913, -0.003338, 0.120050, -0.050909, -0.192534, 
    -0.235336, -0.003439, -0.070047, 0.223760, 0.191778, -0.023800, 0.086729, 0.105905, -0.138340, 0.040769, 
    0.170405, 0.438437, 0.144999, -0.019213, 0.398379, 0.408490, 0.534590, 0.583446, 0.151212, 0.564572, 
    0.605058, 0.244734, -0.173498, 0.282422, -0.189372, 0.115452, -0.567869, -0.783174, 0.055893, 0.387342, 
    0.319744, 0.084821, -0.028765, -0.544724, 0.011466, 0.026603, -0.018439, -0.983217, -0.621127, 0.009411, 
    0.009524, -0.083231, 0.048830, 0.409050, 0.168990, 0.013179, 0.283924, 0.136186, -0.241982, -0.084817, 
    -0.293357, -0.223005, -0.124382, 0.386291, -0.531327, -0.313969, 0.304014, -0.306884, -0.069196, 0.306858, 
    -0.231282, 0.012025, 0.608320, -0.031924, -0.187799, 0.000019, -0.366819, 0.070139, -0.350900, 0.121859, 
    -0.037835, -0.045165, -0.036432, -0.024753, -0.073424, -0.028262, 0.005857, -0.017103, -0.030058, 0.013873, 
    -0.028464, -0.032144, -0.004586, 0.009930, -0.010319, 0.001085, -0.044013, -0.076581, -0.033086, -0.053381, 
    -0.040016, 0.002439, 0.016894, -0.048369, -0.053086, -0.034542, -0.059736, -0.050163, -0.011718, 0.012523, 
    -0.017237, -0.023223, -0.027926, -0.064279, -0.064080, -0.076915, -0.044887, -0.016671, -0.021003, -0.071889, 
    0.020719, -0.057428, -0.062901, 0.002617, -0.009694, -0.011001, -0.055719, -0.097519, -0.066428, -0.058471, 
    -0.086436, -0.054869, -0.046609, -0.046330, -0.074912, 0.036234, -0.026278, -0.049486, -0.044931, -0.000160, 
    -0.020036, -0.028796, -0.066821, -0.074800, -0.006325, 0.021853, 0.002414, -0.048369, -0.040729, -0.002313, 
    0.002175, 0.013644, -0.038798, -0.015582, -0.057177, -0.004301, -0.034638, 0.003367, -0.050147, -0.061796, 
    -0.031031, -0.054193, -0.030351, -0.055033, -0.024107, -0.021010, -0.079117, -0.051400, -0.021570, -0.017482, 
    -0.018396, 0.012343, -0.032792, -0.040120, 0.036600, -0.023895, -0.063847, -0.096372, -0.061071, 0.035836, 
    -0.034792, -0.037952, 0.000057, -0.036212, 0.019091, 0.024930, -0.044997, 0.011988, -0.041069, -0.047625, 
    -0.042545, -0.067256, -0.012810, -0.025424, -0.053009, -0.074165, -0.032997, 0.009239, -0.033597, -0.058692, 
    0.006808, -0.032072, -0.030262, -0.027025, -0.058615, -0.021393, -0.075293, -0.085558, -0.008549, -0.039086, 
    0.008749, 0.052875, -0.048269, 0.008023, -0.021161, 0.038984, 0.039571, -0.042034, 0.023381, 0.016141, 
    -0.004657, -0.010483, -0.040036, -0.045448, 0.041785, -0.061373, 0.029953, 0.045641, 0.005204, -0.007835, 
    -0.042251, -0.025087, -0.007185, -0.049398, -0.004632, -0.021768, -0.062526, -0.051675, -0.047481, -0.008375, 
    0.001917, -0.010232, 0.026199, 0.025519, -0.047138, -0.029924, -0.074277, -0.011979, -0.004090, 0.043126, 
    0.023756, 0.043762, 0.017592, -0.036585, -0.005157, 0.008479, 0.004446, -0.056887, -0.014205, 0.018734, 
    -0.018973, 0.054725, 0.006481, -0.017760, 0.030540, -0.015212, -0.016945, -0.063591, 0.000271, 0.034004, 
    -0.041381, 0.041384, 0.004911, -0.043057, -0.039933, -0.045330, -0.014721, -0.037009, -0.011128, -0.036539, 
    0.005739, -0.056427, 0.031153, -0.048669, -0.017279, 0.044944, -0.061725, -0.091866, -0.071612, -0.089703, 
    -0.070476, -0.043484, -0.066008, -0.037542, 0.019320, -0.043705, -0.035833, 0.000202, -0.056113, -0.047329, 
    -0.037870, -0.032799, -0.044671, -0.083065, -0.066860, -0.026692, 0.008839, -0.000786, 0.018375, -0.010356, 
    -0.003379, -0.006851, 0.002880, -0.023903, 0.025425, -0.001276, -0.078160, -0.000363, -0.042318, 0.054237, 
    -0.052199, -0.040324, 0.016834, -0.023853, 0.010401, 0.026544, 0.015676, 0.019619, 0.024591, 0.006458, 
    0.033109, 0.001011, -0.067327, 0.013466, 0.013157, -0.016804, -0.023597, 0.061092, 0.014618, 0.007036, 
    -0.006638, 0.042369, -0.017996, 0.005866, -0.009600, 0.053723, -0.050846, -0.023580, 0.004782, 0.002243, 
    -0.034279, 0.048953, 0.018622, -0.001304, -0.030415, -0.027040, -0.068158, -0.015331, 0.027547, 0.003218, 
    -0.064162, -0.014120, -0.030546, -0.049033, -0.005913, -0.045776, -0.029034, 0.008143, -0.081201, -0.038435, 
    -0.038438, 0.001829, -0.048600, -0.018260, 0.029667, -0.085540, -0.059557, 0.032372, 0.010406, -0.020236, 
    -0.032748, -0.037995, -0.022181, -0.013109, 0.010901, 0.006409, 0.015837, -0.020158, -0.056053, 0.003880, 
    -0.033992, -0.059282, -0.019086, 0.027627, -0.019599, -0.069465, -0.034826, 0.039488, -0.056769, -0.080485, 
    -0.091559, -0.023598, -0.014872, -0.072464, -0.015147, -0.049710, -0.057908, -0.049726, -0.038063, 0.004780, 
    -0.029446, -0.032712, 0.011591, -0.059076, -0.059210, -0.013867, -0.018075, -0.027211, -0.035289, -0.046226, 
    -0.089439, 0.051124, 0.007744, -0.014934, -0.048826, -0.088876, -0.084659, -0.015930, 0.009820, -0.029138, 
    -0.049234, -0.061252, -0.014758, -0.017086, -0.042691, -0.022949, -0.020138, -0.011643, -0.030842, -0.017241, 
    0.014662, -0.061277, -0.021185, 0.006452, -0.008176, 0.015295, 0.061773, -0.041967, 0.019121, -0.018670, 
    -0.016264, -0.066618, 0.021888, 0.019188, -0.025507, -0.011003, -0.000646, -0.006466, -0.005891, -0.026860, 
    -0.026214, -0.051116, -0.077644, -0.034452, -0.049576, 0.006492, -0.057987, -0.018737, -0.039812, 0.007325, 
    0.035659, 0.017828, -0.026253, -0.068547, -0.088102, -0.060729, -0.107246, -0.089059, -0.094376, -0.014022, 
    -0.011087, -0.073139, -0.070880, -0.009659, -0.022236, -0.001144, -0.057927, -0.082462, -0.037467, -0.001278, 
    -0.016021, -0.067885, -0.038497, -0.078018, -0.015022, -0.030556, -0.075070, -0.007117, -0.037169, -0.056289, 
    -0.056243, -0.009219, -0.056106, -0.005669, -0.043029, -0.024252, 0.067121, 0.026312, -0.035776, 0.012401, 
    0.055311, -0.053162, -0.064067, 0.023545, 0.007043, -0.000177, -0.040892, -0.025339, -0.035027, -0.015277, 
    0.020994, 0.027204, -0.017150, -0.017120, 0.031001, -0.010957, -0.019868, 0.100641, -0.002310, -0.006644, 
    -0.018447, 0.011433, -0.016896, -0.028826, -0.035523, -0.055510, -0.043744, 0.018674, 0.006722, -0.059454, 
    0.052002, -0.060750, -0.008887, 0.049588, -0.020544, -0.046307, 0.010099, -0.020691, -0.006069, -0.046523, 
    -0.032555, 0.012620, -0.046033, 0.014475, -0.053509, -0.038924, -0.100746, -0.041863, -0.042556, 0.010261, 
    0.387166, -0.576137, -0.016528, -0.069122, 0.105863, 0.148762, 0.172683, -0.059792, 0.020587, -0.483903, 
    0.092253, -0.106433, 0.064270, -0.285937, 0.581656, 0.051019, -0.161975, 0.000158, 0.292692, 0.195735, 
    0.271160, -0.227315, 0.063678, 0.015917, -0.199764, 0.066363, -0.214629, 0.291574, -0.245191, -0.228630, 
    -0.148300, 0.575056, -0.060178, -0.098416, -0.228144, 0.070000, -0.098519, -0.096596, -0.201968, 0.129405, 
    -0.298348, -0.158567, 0.064844, -0.051983, -0.088259, -0.420593, -0.567775, -0.476068, -0.126603, -0.994559, 
    -0.214644, -0.432025, -0.183700, -0.252803, -0.411059, -0.145798, -0.349893, -0.592255, -0.610275, -0.342527, 
    -0.120744, -0.203895, -0.134997, 0.336343, -0.336596, 0.567507, -0.015987, -0.676051, -0.152544, -0.239515, 
    -0.848277, -0.629917, 0.222660, -0.549571, 0.103156, 0.294256, -0.185814, -0.039835, -0.044301, 0.054932, 
    0.050213, -0.305801, 0.048123, -0.323430, 0.193325, 0.025578, 0.008384, 0.313905, 0.251332, 0.375130, 
    0.339543, 0.025340, -0.186976, -0.450168, 0.195743, -0.100773, 0.126271, -0.001207, 0.106899, 0.592077, 
    0.203014, 0.129474, 0.484505, -0.082368, 0.223266, -0.444573, 0.215311, 0.135775, 0.298633, -0.204105, 
    0.019817, 0.277615, 0.174390, 0.155127, 0.188528, -0.057101, 0.318089, -0.294902, -0.360045, 0.146760, 
    -0.116909, 0.213326, -0.045789, -0.149447, -0.084784, -0.113426, -0.521206, -0.163417, 0.103678, 0.055205, 
    -0.383518, -0.118995, 0.127777, 0.278748, -0.221104, 0.067327, 0.278889, 0.184526, -0.242868, 0.645370, 
    -0.127529, 0.528632, -0.248718, -0.325304, 0.219160, -0.259525, 0.084095, -0.524370, 0.109062, 0.126892, 
    -0.230504, 0.218722, -0.199965, 0.214335, -0.041893, -0.249936, 0.039823, -0.302373, -0.139622, -0.396587, 
    -0.069385, -0.279236, -0.336235, 0.273145, -0.284675, -0.243981, -0.248365, 0.080205, -0.022182, -0.510176, 
    -0.144178, -0.094892, 0.469521, 0.026812, -0.039809, -0.228089, 0.175321, 0.242876, 0.217233, -0.032179, 
    -0.351559, 0.494522, 0.383703, -0.421979, -0.205694, 0.183668, 0.154341, -0.106742, 0.035629, 0.330530, 
    0.033790, 0.201726, -0.701007, -0.115868, -0.559911, -0.127814, 0.070558, -0.259153, 0.201825, -0.036345, 
    -0.491424, 0.531929, 0.002446, -0.053660, 0.239122, -0.080648, -0.069507, -0.050526, 0.089357, -0.320417, 
    0.067696, -0.119404, 0.038888, -0.330580, -0.267967, -0.630180, -0.249144, -0.255147, -0.334937, 0.144294, 
    0.012143, -0.143037, -0.081438, -0.074008, -0.134961, 0.381611, 0.031293, 0.457827, 0.265075, 0.090129, 
    0.020520, 0.698702, 0.030386, -0.326734, 0.160899, -0.078329, 0.282847, 0.018967, 0.709661, -0.144469, 
    -0.124504, 0.114005, 0.084286, -0.314433, -0.327796, -0.172517, 0.032812, -0.159397, -0.138415, -0.368779, 
    -0.045526, 0.003502, -0.292014, -0.015941, 0.139541, -0.124441, 0.253019, 0.204045, -0.175522, -0.048264, 
    0.017404, 0.291657, -0.039663, -0.258256, -0.296979, 0.159484, 0.249171, 0.138895, 0.369349, 0.272586, 
    0.015080, -0.017993, -0.283777, 0.218701, 0.033654, -0.456046, -0.071125, 0.008352, 0.098099, 0.064037, 
    -0.236632, 0.161173, 0.208521, 0.037332, -0.278045, -0.017205, 0.283485, 0.054163, 0.242209, -0.049125, 
    -0.179361, 0.145927, -0.166034, -0.296662, -0.198235, 0.255263, -0.013910, -0.212963, -0.043490, 0.106896, 
    -0.017847, 0.156812, 0.045898, 0.218727, 0.187630, 0.171602, -0.117935, -0.124275, -0.152134, 0.192115, 
    0.152190, 0.154621, 0.080131, -0.255913, 0.075698, -0.201286, -0.047920, -0.092184, -0.291399, -0.231358, 
    0.198367, -0.063491, 0.474725, 0.027709, -0.583936, 0.332347, -0.142663, -0.253813, -0.264716, -0.150164, 
    -0.075396, 0.406438, 0.367558, 0.159175, -0.253007, -0.125181, -0.045235, -0.431826, -0.037624, -0.106605, 
    -0.308325, 0.196331, 0.117390, -0.329611, 0.000195, 0.539986, 0.005587, 0.350494, 0.385026, 0.333080, 
    0.486494, -0.061784, 0.148630, 0.666110, 0.222633, 0.132628, 0.016624, 0.834400, -0.000997, 0.231576, 
    -0.221517, 0.102161, -0.043977, -0.087813, -0.415295, 0.557394, 0.175636, 0.192524, -0.159616, 0.333765, 
    -0.044941, 0.135168, 0.015410, -0.207605, 0.263080, -0.083021, 0.220182, 0.019388, 0.128087, 0.516846, 
    -0.302471, -0.330883, -0.374062, 0.087254, -0.183667, -0.207606, -0.317868, -0.081516, 0.160114, 0.060963, 
    0.602421, 0.017238, 0.278500, 0.435460, 0.339983, -0.265841, -0.109624, 0.028067, 0.217955, 0.271363, 
    0.436902, 0.035854, 0.654319, 0.117975, 0.191331, -0.204249, 0.073859, 0.118538, 0.228315, -0.319660, 
    0.059236, -0.202821, 0.013056, -0.022797, -0.069233, 0.111746, 0.013938, -0.355889, 0.077730, 0.329386, 
    0.633344, 0.072120, 0.141226, 0.077879, 0.136526, 0.548881, 0.222160, 1.022377, -0.257503, 0.880299, 
    0.384870, 0.080816, 0.806279, 0.371046, 0.351479, 0.321608, -0.136416, -0.355036, -0.184999, 0.034918, 
    -0.062274, 0.079906, -0.001965, -0.007995, 0.345152, 0.550101, 0.105635, -0.255086, 0.281963, 0.163577, 
    0.272792, 0.042512, 0.165442, 0.105777, 0.173353, -0.145626, 0.423109, 0.324944, -0.396601, 0.261688, 
    0.073217, -0.401957, 0.096354, 0.104046, -0.201938, 0.128418, -0.010750, 0.093709, -0.209465, 0.437105, 
    0.024943, 0.371883, 0.058848, 0.586857, 0.094534, 0.276726, -0.111254, 0.195652, 0.211142, -0.150077, 
    0.355579, -0.035607, 0.172143, 0.001574, -0.153748, -0.246539, 0.410376, 0.360895, -0.149557, 0.215905, 
    0.288837, -0.067848, -0.171315, 0.002860, -0.266442, 0.119458, -0.086790, 0.124445, -0.168686, 0.155766, 
    -0.141609, -0.207979, 0.033159, 0.061748, -0.198621, 0.176561, 0.098471, -0.140786, -0.098405, -0.086833, 
    -0.953285, -0.131279, 0.001083, 0.019828, -0.096975, -0.371094, -0.179457, -0.221297, -0.253273, 0.303076, 
    -0.201224, -0.274467, -0.161301, 0.179315, 0.080743, -0.106505, -0.089399, -0.180242, 0.253231, 0.203307, 
    -0.346722, -0.045546, 0.137086, -0.845541, -0.100379, -0.117089, -0.562337, 0.140070, 0.148516, 0.195970, 
    0.143344, 0.116778, 0.162857, 0.065628, 0.048438, 0.038916, -0.013055, -0.178783, 0.115845, -0.151278, 
    -0.310537, -0.273554, 0.441152, 0.439407, -0.057813, 0.274851, 0.005218, 0.117015, 0.490901, 0.212149, 
    -0.113089, 0.499774, 0.455947, 0.128082, 0.395969, 0.037761, 0.144700, 0.364362, -0.073058, 0.198459, 
    -0.000590, -0.078040, -0.550113, -0.075382, -0.040487, -0.256774, -0.523688, -0.045045, -0.157591, -0.221929, 
    -0.471086, -0.252046, -0.091243, -0.384550, 0.090437, -0.509669, -0.129173, 0.087869, -0.170075, -0.138499, 
    0.645122, 0.077299, -0.177987, -0.278237, -0.599317, -0.434931, -0.093837, -0.625070, -0.319515, -0.614387, 
    -0.030559, 0.100165, -0.122033, -0.046665, 0.210350, 0.416171, 0.274367, 0.208267, -0.210947, 0.008780, 
    0.184705, 0.100086, -0.226984, -0.149062, 0.218320, 0.189513, 0.330410, 0.257225, -0.093418, -0.118768, 
    -0.057180, -0.160669, 0.015011, 0.234028, 0.112522, -0.260100, 0.431419, 0.338620, 0.187818, -0.278645, 
    -0.093017, -0.095257, -0.353065, 0.023098, 0.046120, -0.136171, -0.122172, 0.115203, -0.012358, 0.263031, 
    -0.049200, -0.350513, 0.000940, -0.064237, -0.071850, -0.079504, -0.111654, -0.202138, -0.342502, 0.350288, 
    0.252291, 0.011145, -0.213811, -0.122813, 0.185560, 0.211084, -0.109094, -0.052431, 0.256357, 0.012862, 
    -0.451983, -0.231663, -0.318591, -0.076428, 0.063394, -0.058409, -0.149239, 0.059694, -0.170233, -0.967238, 
    -0.424404, -0.291144, 0.145773, -0.100872, 0.316675, 0.162727, -0.231584, -0.052731, 0.130440, 0.067760, 
    -0.235948, 0.151603, 0.043690, -0.115384, 0.135406, -0.199877, -0.246555, 0.202451, -0.160174, 0.043605, 
    -0.046519, -0.210961, 0.211596, 0.212937, -0.064849, -0.550458, 0.366137, -0.108155, 0.151542, 0.029471, 
    -0.115128, -0.321170, -0.226218, 0.025882, -0.232884, -0.118331, -0.355973, 0.004791, 0.119094, 0.329040, 
    0.212188, -0.991037, -0.040449, 0.481588, -0.016418, 0.628384, -0.106044, 0.301671, -0.160668, 0.029411, 
    0.186016, -0.315944, 0.147189, -0.195544, 0.270029, 0.072834, -0.230819, -0.148545, -0.116281, 0.004810, 
    0.186239, 0.241923, -0.146720, 0.111099, 0.147036, -0.027462, -0.380814, -0.245767, 0.131886, 0.223643, 
    0.195485, 0.263600, 0.301837, 0.323725, 0.009642, 0.217056, 0.233979, 0.099660, 0.396999, 0.117824, 
    -0.149423, 0.228431, 0.071549, -0.073799, 0.088249, -0.285900, -0.214346, -0.450589, -0.113520, -0.140224, 
    0.061145, -0.163975, -0.098437, -0.083965, 0.006654, 0.100364, -0.174494, -0.129237, 0.308243, -0.112334, 
    0.256581, -0.058514, 0.204087, 0.166113, 0.058422, -0.054158, 0.262067, 0.079223, -0.033367, 0.185442, 
    0.294035, 0.061452, -0.068861, -0.028479, -0.239336, -0.109896, -0.620449, -0.099489, 0.343728, -0.039780, 
    -0.297175, 0.183925, -0.207162, -0.018859, 0.028205, 0.020644, 0.117494, -0.209717, 0.064377, 0.210679, 
    -0.035662, 0.003405, 0.408699, 0.197553, 0.139888, 0.143168, 0.110403, 0.451867, 0.457005, -0.207615, 
    -0.056370, -0.006483, 0.068336, 0.261782, -0.148842, -0.069037, 0.092642, 0.394661, 0.032861, 0.060688, 
    -0.389344, 0.229496, -0.200193, 0.224034, 0.288209, -0.209499, 0.208510, 0.577564, -0.438309, 0.249358, 
    0.138772, -0.325597, 0.270239, 0.008517, 0.096001, 0.556417, -0.024873, 0.344040, 0.136300, -0.532464, 
    -0.324753, -0.228763, -0.412796, -0.845758, 0.140227, 0.119254, -0.130015, -0.214845, -0.085422, 0.048823, 
    -0.204399, -0.329352, -0.883200, -0.561578, 0.032778, -0.221034, -0.001429, 0.107503, -0.285755, 0.416057, 
    0.218520, -0.373437, -0.555526, 0.046709, -0.244633, 0.056475, 0.040417, -0.178595, -0.215037, -0.239808, 
    -0.027457, 0.794574, -0.195543, 0.809377, -0.023048, 0.614604, -0.071968, 0.329767, 0.180601, 0.118546, 
    0.690859, 0.180346, 0.254793, 0.051271, 0.168898, 0.004347, 0.038276, -0.117093, 0.021431, -0.087458, 
    -0.105575, -0.044513, 0.251931, 0.270771, 0.079361, -0.206519, 0.066346, -0.253610, -0.003349, 0.042258, 
    0.591430, 0.099883, 0.091666, 0.120714, -0.277534, 0.161623, -0.082789, 0.002118, 0.056432, -0.222920, 
    0.452006, -0.072115, -0.010964, -0.254704, 0.079666, 0.031618, 0.017346, -0.225714, -0.013874, -0.240376, 
    -0.238515, 0.169787, -0.216378, 0.395406, -0.054492, -0.256581, -0.057060, -0.295260, -0.044916, 0.037602, 
    -0.012508, 0.115470, 0.202156, -0.150386, -0.265040, 0.004827, -0.279423, -0.210168, -0.212068, -0.538099, 
    0.103824, -0.174021, -0.281069, -0.173481, 0.269466, -0.030415, 0.069059, 0.280208, -0.020141, -0.157060, 
    -0.069230, -0.359061, -0.121150, 0.152406, 0.500096, 0.109287, -0.147365, -0.240174, 0.212868, -0.097467, 
    -0.056016, 0.184993, 0.177124, 0.183712, -0.007906, 0.193395, 0.001141, -0.038462, -0.261031, 0.105826, 
    -0.168083, -0.112269, -0.056710, -0.266330, -0.047948, -0.226360, 0.152386, 0.221496, 0.327001, 0.104430, 
    0.285528, 0.113813, 0.155328, 0.029400, 0.115236, 0.215503, 0.126322, 0.137064, -0.059606, 0.245569, 
    0.153689, 0.468397, 0.483820, -0.293652, -0.353641, -0.381906, 0.052816, -0.048010, -0.180142, 0.211080, 
    -0.222126, -0.123822, -0.110738, -0.097886, -0.211382, 0.171338, 0.302285, 0.047019, -0.008672, 0.311575, 
    0.269996, 0.350082, 0.039146, -0.076503, 0.241313, 0.085652, 0.345593, 0.258973, 0.141132, 0.224094, 
    0.167925, 0.066573, 0.092743, -0.029373, 0.063141, 0.150838, 0.154856, 0.047071, -0.059840, 0.280395, 
    -0.239910, -0.020838, 0.075417, -0.203874, -0.184389, 0.070726, -0.000957, 0.114693, 0.032837, -0.204496, 
    0.029989, -0.042867, -0.138358, 0.302555, 0.120750, -0.163341, 0.084542, -0.243959, 0.033659, -0.241814, 
    0.093471, -0.402724, -0.006933, 0.009623, -0.276611, -0.613648, -0.194584, -0.007500, -0.658171, -0.233985, 
    -0.088548, -0.760017, -0.062461, -0.329981, -0.380224, 0.211255, -0.303160, 0.408990, 0.112579, 0.252082, 
    -0.109183, -0.034550, -0.000211, -0.097453, -0.104417, 0.094517, -0.270079, -0.090252, 0.150472, 0.051577, 
    0.445183, -0.020231, -0.017529, 0.069913, 0.214925, -0.166383, -0.372522, 0.015223, 0.117848, -0.084306, 
    -0.290028, -0.067934, -0.160610, -0.433543, 0.066715, 0.223508, 0.189923, 0.227663, -0.326591, 0.070365, 
    -0.041590, -0.016746, 0.223276, -0.121337, 0.288490, -0.083631, -0.080802, 0.049580, -0.237113, 0.247335, 
    0.212969, 0.268831, 0.120837, 0.080840, 0.028893, 0.056071, 0.207506, 0.364577, 0.109630, 0.102892, 
    -0.133101, 0.043302, 0.162249, 0.016127, -0.126270, 0.212300, -0.146952, 0.294676, 0.187946, 0.441462, 
    -0.092812, 0.205595, 0.345146, 0.249762, -0.101979, -0.458654, 0.035328, -0.073424, -0.089030, -0.078235, 
    -0.016612, 0.072569, 0.311877, 0.103634, -0.008514, 0.091671, 0.269857, 0.310161, 0.310817, 0.163943, 
    -0.200994, -0.106379, -0.102631, 0.128730, 0.221533, 0.167004, 0.130172, -0.199356, 0.131468, 0.411720, 
    0.177046, 0.349741, -0.048425, 0.345562, 0.126282, -0.098569, 0.029731, 0.053526, 0.096532, 0.039846, 
    0.309591, 0.022165, 0.046166, -0.248607, -0.083209, 0.134403, 0.179935, 0.056329, 0.059102, 0.150188, 
    0.135458, -0.176276, 0.127318, 0.172882, 0.374841, 0.223673, 0.390131, 0.202708, -0.068767, -0.009300, 
    -0.141847, 0.567529, 0.135206, 0.234866, -0.082937, 0.107550, 0.177698, 0.005326, -0.011907, -0.063812, 
    0.337508, 0.318644, -0.048530, -0.014251, -0.021892, -0.028638, -0.091398, -0.004285, 0.019811, -0.046298, 
    -0.122720, -0.105912, -0.067227, -0.115722, -0.183190, -0.142610, -0.446059, -0.538435, -0.099378, -0.598218, 
    0.140519, -0.126225, 0.026374, 0.028838, -0.617401, -0.293633, -0.224012, -0.077469, -0.410259, -0.043820, 
    0.160622, 0.063058, 0.112523, 0.353776, 0.169914, 0.141973, 0.131022, 0.088030, 0.349494, 0.375914, 
    0.076670, 0.150452, -0.019215, 0.053132, 0.030471, 0.138252, 0.079572, -0.343580, 0.177319, -0.280579, 
    -0.047318, -0.075684, 0.181385, 0.166021, -0.054621, -0.217506, -0.120230, 0.020821, -0.079334, -0.101767, 
    0.288465, -0.060094, -0.014673, 0.418251, 0.205103, 0.092892, 0.022423, -0.098818, -0.160853, 0.286846, 
    0.171667, 0.095876, 0.154335, -0.023524, 0.044342, 0.209780, -0.130823, -0.322391, 0.089781, 0.143330, 
    -0.249956, 0.001924, -0.285591, -0.123677, 0.032010, -0.024081, -0.070685, -0.420910, -0.337890, -0.598075, 
    -0.079513, -0.399326, 0.138656, -0.358350, 0.003597, -0.386476, -0.229950, 0.177468, -0.143160, -0.117598, 
    -0.126031, -0.300126, -0.221833, -0.427075, 0.044739, -0.008225, -0.080837, 0.169419, -0.554259, -0.219044, 
    -0.262513, -0.300544, -0.148254, 0.314786, -0.496827, -0.016134, -0.146803, 0.104147, 0.120194, 0.108002, 
    0.159720, 0.404590, -0.036929, -0.053049, -0.001138, 0.131553, 0.116406, 0.439556, 0.037093, 0.321320, 
    0.357102, 0.165891, 0.365361, 0.381755, 0.181960, 0.273899, 0.261433, 0.090873, -0.116486, -0.124347, 
    -0.052105, 0.284408, 0.213068, 0.011893, 0.217636, 0.047317, 0.048861, 0.131844, 0.262979, -0.083857, 
    0.305937, -0.300722, -0.251096, -0.301707, -0.686523, -0.205913, -0.475817, -0.567849, -0.208748, -0.447235, 
    -0.491787, -0.218438, -0.487307, -0.649166, -0.213494, 0.162353, -0.056991, 0.088147, 0.008602, -0.191512, 
    -0.029591, 0.042485, -0.054585, -0.176268, 0.091571, 0.166759, -0.116383, -0.186616, -0.075221, 0.339255, 
    0.098071, -0.526731, -0.166904, 0.077735, 0.270658, -0.175506, 0.044866, -0.271992, -0.084737, -0.016362, 
    -0.151210, -0.058016, 0.037891, -0.114362, 0.080823, 0.198419, -0.348034, -0.112380, -0.119402, 0.181955, 
    -0.088613, 0.001878, -0.112541, -0.415198, -0.128635, -0.015603, -0.323745, 0.551874, -0.289179, 0.442249, 
    0.302112, 0.035564, 0.176656, 0.214011, 0.041638, 0.072467, -0.097349, 0.080604, 0.111214, 0.246068, 
    -0.369579, 0.048792, -0.071150, -0.142685, 0.072806, 0.079523, 0.033415, -0.292733, -0.276137, -0.005058, 
    0.070809, -0.210421, -0.132855, 0.230217, -0.179721, -0.106405, -0.074431, -0.224836, -0.103108, -0.198242, 
    -0.018157, 0.727297, 0.329516, 0.071398, 0.403839, 0.388640, -0.097544, 0.422318, 0.046937, 0.562443, 
    -0.163902, 0.222609, -0.315235, 0.465507, 0.112979, 0.038365, 0.182733, 0.270659, 0.091488, 0.203574, 
    -0.039771, -0.240108, 0.189519, 0.411078, 0.278766, 0.145236, 0.118168, 0.001011, 0.211989, 0.273347, 
    -0.548388, 0.415529, -0.034430, -0.120429, 0.533368, -0.178162, -0.017651, 0.076886, -0.048579, -0.047078, 
    -0.037006, -0.055144, 0.135680, -0.112254, -0.403571, 0.128205, -0.352543, 0.024742, 0.106477, -0.246412, 
    0.179135, -0.384097, 0.099461, -0.099387, -0.074178, 0.051693, -0.197862, 0.090256, 0.007262, 0.061689, 
    -0.229457, 0.097830, 0.042406, -0.084798, -0.046269, -0.011450, -0.322420, -0.720751, -0.580554, 0.064239, 
    -0.501482, -1.004162, -0.238077, -0.264845, -0.072504, 0.114575, 0.249945, -0.330554, -0.072320, -0.197346, 
    -0.210298, -0.120421, 0.169668, -0.054130, 0.275758, 0.129329, -0.207402, 0.264175, 0.162704, -0.136531, 
    0.082589, 0.319599, 0.318681, 0.358602, 0.504539, 0.447976, 0.296983, 0.638394, 0.490295, 0.256031, 
    0.373855, 0.080051, 0.028522, 0.364595, 0.383994, 0.222855, -0.185321, 0.624331, -0.046782, -0.077413, 
    0.183030, -0.008051, 0.499688, -0.533461, 0.115641, -0.184694, -0.560769, -0.506722, 0.220601, -0.309728, 
    -0.138767, -0.037801, 0.068442, -0.262938, -0.202704, -0.098423, -0.208717, -0.162588, 0.030669, 0.248440, 
    -0.494292, -0.237088, -0.546209, 0.003896, -0.184932, -0.153462, -0.199987, 0.144225, -0.488845, -0.496435, 
    -0.139635, -0.270904, -0.142026, -0.453163, -0.176212, 0.171314, -0.046511, 0.035486, -0.101638, -0.396020, 
    -0.238333, 0.208383, 0.239274, -0.401208, -0.133611, -0.309740, -0.311785, -0.207327, -0.242996, -0.306295, 
    -0.263487, 0.075081, 0.084757, -0.168621, 0.200903, 0.135966, 0.107657, -0.063972, 0.076073, -0.330637, 
    -0.153750, 0.348543, -0.214735, -0.196915, -0.193563, -0.386215, 0.159861, -0.062298, -0.193476, 0.125287, 
    -0.125924, -0.137110, -0.264244, -0.042034, -0.468853, 0.459957, 0.120862, -0.371221, -0.314731, -0.444069, 
    -0.043919, -0.131204, -0.809037, 0.115955, -0.338078, -0.039840, 0.051822, -0.143038, -0.193345, 0.253714, 
    0.031198, 0.381939, 0.293583, 0.223777, 0.293734, -0.090774, 0.076747, 0.011202, -0.136383, 0.073553, 
    -0.127860, -0.011519, 0.071417, 0.205003, -0.042656, -0.281561, 0.092558, 0.099287, -0.191620, 0.084098, 
    0.324397, 0.073563, 0.096997, -0.024960, -0.159284, -0.087287, -0.026093, 0.213258, 0.383544, -0.274718, 
    0.225239, 0.740302, 0.035958, 0.083256, 0.133998, 0.383435, 0.173038, 0.399414, 0.088367, 0.122916, 
    0.300022, -0.004842, 0.151675, -0.164204, -0.059968, 0.277628, 0.001598, -0.099464, -0.095374, -0.041715, 
    0.250641, -0.107795, -0.085466, 0.051969, -0.062671, 0.072270, 0.249890, -0.255009, 0.151268, 0.371689, 
    0.112380, -0.478917, -0.101660, -0.526520, -0.671021, -0.004484, 0.026582, 0.211114, 0.109407, -0.131640, 
    -0.216501, -0.029925, -0.248733, -0.023257, -0.030714, -0.381737, -0.340821, 0.107977, -0.065423, -0.267148, 
    0.181276, 0.178450, -0.448653, -0.071947, -0.167807, 0.265925, -0.476364, 0.015124, 0.010879, 0.044816, 
    0.069360, -0.301244, -0.084420, 0.075079, -0.020693, -0.267204, 0.179348, 0.058319, -0.266677, -0.065645, 
    -0.134043, -0.024949, -0.251709, -0.006143, 0.027717, -0.027140, -0.263577, 0.003466, -0.342557, -0.440988, 
    -0.471607, -0.257677, -0.230103, 0.058599, 0.045553, 0.105340, 0.162810, -0.000706, 0.206608, 0.096314, 
    0.171603, 0.496558, 0.111849, 0.257632, 0.082303, 0.396122, 0.560665, 0.067979, 0.287550, 0.193003, 
    -0.113180, 0.238984, -0.095739, -0.186435, 0.374599, 0.088400, -0.404452, -0.138275, -0.120107, -0.418905, 
    -0.006354, 0.008480, -0.142604, -0.267892, 0.222502, -0.443467, 0.344487, 0.575967, 0.669058, 0.019847, 
    0.280850, 0.480592, 0.422989, 0.330888, 0.498541, 0.442376, 0.083678, 0.532008, 0.076922, 0.630084, 
    -0.162817, -0.233743, -0.888149, -0.129322, 0.106163, -0.306390, -0.054466, -0.164430, 0.220338, -0.009228, 
    -0.268450, 0.077146, -0.028360, 0.048633, -0.386552, -0.268111, 0.378531, 0.058709, -0.275121, -0.276041, 
    0.060390, 0.104025, 0.233409, -0.332104, -0.264743, -0.364270, -0.196803, -0.108084, 0.280522, -0.413817, 
    0.048913, -0.118379, -0.149653, -0.202500, 0.158673, 0.028833, 0.102014, -0.113338, -0.117685, 0.582341, 
    0.058195, 0.377532, 0.007624, -0.054790, 0.145305, -0.357863, 0.010211, 0.344918, 0.067666, -0.073040, 
    0.114426, -0.050252, -0.259529, -0.185930, -0.189094, 0.049636, 0.066382, -0.197063, 0.073572, 0.234735, 
    0.326350, 0.239562, 0.088501, 0.693545, 0.712583, 0.581335, 0.522246, -0.280913, 0.907495, 0.072476, 
    0.740429, 0.113212, 0.103067, 0.399874, 0.540780, -0.213627, 0.260081, 0.582578, 0.022487, 0.157504, 
    -0.093050, 0.199770, 0.354750, 0.143280, 0.003383, -0.012938, -0.206930, 0.155490, 0.308433, 0.051210, 
    0.195157, -0.094691, 0.300364, 0.163848, -0.126228, -0.077701, 0.072827, 0.227523, 0.218491, -0.306222, 
    -0.143080, 0.279662, -0.058609, -0.096291, -0.465972, 0.773883, 0.361330, 0.029488, -0.106329, 0.245279, 
    0.354233, 0.335506, 0.319835, 0.572168, 0.177402, 0.040796, 0.642334, 0.682647, 0.528470, 0.308566, 
    0.233876, 0.094900, 0.289199, 0.571221, -0.214290, 0.427668, -0.012023, 0.126835, 0.157254, -0.094029, 
    -0.051282, 0.111642, 0.180604, -0.120821, 0.118180, -0.123121, -0.094537, 0.090109, 0.089576, -0.047115, 
    0.104057, -0.265609, -0.181327, -0.016290, 0.074532, 0.048402, 0.222218, 0.032841, 0.242495, -0.033819, 
    -0.138780, -0.144824, -0.310994, -0.256215, 0.088612, -0.343398, -0.028173, 0.040980, -0.016036, 0.050694, 
    -0.047824, -0.182008, -0.519829, 0.119275, 0.314674, -0.056067, -0.124131, -0.116011, 0.190833, 0.149957, 
    -0.017642, 0.401145, 0.170377, -0.121564, 0.093945, 0.020687, -0.228987, -0.176841, 0.182060, -0.096446, 
    -0.474699, -0.332576, -0.097975, -0.329374, -0.242386, -0.564527, -0.315632, -0.384702, -0.418013, -0.358265, 
    -0.358267, -0.554951, -0.291250, -0.016245, -0.877371, -0.021658, 0.037198, 0.260090, -0.009918, 0.106289, 
    -0.012864, -0.111023, -0.119635, -0.046166, -0.296934, -0.219712, -0.126553, -0.019855, 0.082889, 0.152406, 
    -0.165333, 0.188649, 0.400820, 0.253725, 0.062123, 0.222112, 0.394721, 0.369434, 0.057556, 0.551736, 
    0.268887, 0.182800, 0.182339, 0.480152, 0.260201, 0.053830, -0.070815, 0.021283, -0.101927, 0.145455, 
    -0.027792, 0.156171, -0.075537, -0.203903, -0.011372, -0.118048, -0.207352, 0.098961, 0.065910, 0.147207, 
    0.160210, 0.086224, 0.167147, -0.108411, 0.027879, -0.135788, -0.261292, -0.243918, -0.254705, -0.176097, 
    -0.157126, -0.050881, -0.032439, -0.242685, 0.043212, -0.071337, 0.195300, 0.587215, -0.203719, 0.188101, 
    0.005593, -0.135308, -0.117408, -0.175588, 0.106601, -0.036089, -0.154905, 0.053821, -0.076678, -0.176715, 
    0.125626, -0.029762, -0.071417, -0.176495, 0.102092, 0.153662, 0.140767, -0.179306, -0.126514, -0.282209, 
    -0.218812, -0.091347, 0.030949, -0.071176, 0.080311, 0.141867, -0.044185, 0.131701, 0.252578, 0.363467, 
    0.119500, 0.259850, 0.111939, 0.288946, -0.249298, -0.018318, 0.264940, 0.173588, 0.006531, 0.042790, 
    -0.098894, 0.297669, -0.041825, 0.232549, -0.091269, 0.059057, -0.261129, -0.154288, 0.108319, 0.302117, 
    0.250320, 0.100303, 0.141132, 0.165087, -0.033594, 0.019170, -0.313200, -0.462149, 0.212941, -0.115003, 
    0.095375, 0.238242, 0.216159, 0.165710, 0.142548, 0.147569, -0.052478, 0.013317, -0.031815, 0.077178, 
    -0.008408, -0.204904, -0.010303, -0.166996, -0.042357, -0.127555, -0.256315, -0.108767, -0.198960, -0.302703, 
    -0.054280, -0.087550, 0.022034, -0.135162, 0.078941, 0.000376, -0.007164, -0.112747, 0.147936, -0.047558, 
    0.229737, 0.117638, 0.523936, 0.330361, 0.201424, 0.009188, 0.445057, 0.175424, 0.399659, 0.007597, 
    0.146305, -0.022959, -0.078188, 0.109110, -0.290887, 0.048903, 0.135731, 0.304621, 0.044106, 0.073258, 
    0.068480, -0.236210, -0.043886, -0.227497, -0.179732, 0.204561, 0.119383, -0.313955, 0.095885, -0.206778, 
    0.191565, -0.129648, 0.221277, 0.057642, -0.035774, 0.090687, 0.005199, 0.162058, 0.229526, 0.456769, 
    0.121360, -0.187789, -0.121695, -0.062080, -0.238720, -0.052521, -0.427796, -0.099359, -0.229462, -0.159509, 
    0.295713, -0.663248, -0.007583, 0.142766, 0.163573, -0.045272, 0.319745, -0.040399, -0.050628, -0.309919, 
    -0.247404, -0.394600, 0.146957, -0.043815, -0.242294, -0.098211, -0.525348, -0.358123, -0.015086, -0.029370, 
    0.248973, 0.018147, -0.047988, 0.091853, -0.379674, -0.274677, 0.069760, 0.111137, -0.190280, 0.232417, 
    -0.007386, 0.473683, -0.115773, -0.095387, -0.436013, -0.057065, -0.019967, 0.135594, 0.052383, 0.284699, 
    0.220024, 0.002291, 0.128819, 0.039105, 0.049629, 0.155504, 0.033845, 0.153776, -0.151093, 0.012708, 
    -0.026793, -0.010594, -0.092992, -0.417584, -0.060743, -0.110488, 0.151530, -0.056679, -0.306020, -0.247908, 
    -0.484354, -0.028130, -0.297462, -0.407086, -0.365419, 0.149456, 0.248577, 0.168786, -0.001341, 0.133761, 
    0.365649, 0.133393, 0.457844, 0.562310, 0.327153, 0.319073, 0.452609, 0.367612, 0.576170, 0.296391, 
    0.196501, -0.015355, -0.087087, -0.211947, -0.115634, -0.025566, 0.176180, -0.129763, -0.069548, 0.114259, 
    -0.159583, -0.234294, 0.049392, -0.089355, -0.271247, 0.241159, -0.194926, -0.174872, -0.368027, -0.322727, 
    -0.484652, 0.012792, -0.231403, -0.285024, -0.093731, -0.196215, -0.115426, -0.561003, -0.381998, -0.175849, 
    -0.082541, -0.137785, 0.182928, 0.070835, -0.172469, -0.074286, 0.019174, 0.071343, 0.157528, 0.046152, 
    0.032780, 0.180111, 0.119661, 0.068961, -0.009653, 0.173764, -0.025727, 0.189573, -0.036467, -0.078516, 
    0.008077, 0.033298, 0.072860, -0.181571, 0.093479, 0.095396, 0.503508, 0.424143, -0.012952, -0.031565, 
    0.195660, -0.252036, 0.244604, 0.601583, 0.336647, 0.203008, 0.274045, 0.282894, 0.235176, 0.105550, 
    0.549376, 0.405844, 0.467984, 0.200495, 0.089279, 0.073196, 0.121878, -0.028058, -0.383493, 0.146676, 
    0.035864, 0.054056, -0.008046, 0.407647, 0.070538, -0.035051, -0.249161, 0.152551, 0.059212, 0.137815, 
    0.016024, 0.375379, 0.129222, -0.105782, -0.299607, 0.166805, 0.186837, -0.019731, -0.019602, 0.331035, 
    -0.064328, 0.052002, 0.258060, 0.032062, 0.136481, 0.055893, 0.011099, 0.278414, -0.013381, -0.056854, 
    -0.139347, 0.081099, 0.352341, 0.265950, 0.088500, 0.023451, 0.079784, 0.278496, 0.384259, -0.126333, 
    0.400515, -0.345339, 0.053344, -0.483739, 0.461984, -0.366098, -0.059576, 0.561311, 0.207232, -0.294846, 
    0.297236, 0.525502, 0.010610, 0.541249, -0.668873, 0.017475, -0.363969, -0.539974, -0.352957, -0.373338, 
    -0.242306, 0.303763, 0.407792, 0.096121, 0.180037, -0.407658, 0.237917, -0.225146, 0.172635, -0.259996, 
    -0.165521, -0.402824, -0.844695, 0.645422, 0.535175, -0.348512, -0.540154, -0.151780, 0.257197, -0.024868, 
    0.202356, 0.285848, 0.101102, 0.368048, 0.065417, -0.144079, 0.211881, 0.125283, -0.035710, 0.064952, 
    -0.322803, 0.131965, 0.044771, -0.030465, -0.322635, -0.203408, -0.262812, 0.029316, 0.112100, -0.039589, 
    0.177487, 0.344703, -0.064801, 0.011516, -0.079546, -0.077686, 0.000430, 0.009534, 0.022172, -0.134628, 
    -0.004395, -0.123502, -0.196567, 0.289490, 0.207426, -0.238417, -0.177896, -0.083171, -0.123715, 0.176037, 
    -0.000253, -0.133003, 0.087858, 0.051197, -0.114485, 0.105643, 0.064750, 0.178744, 0.009134, 0.376810, 
    0.084249, -0.243824, -0.288049, -0.264905, -0.282929, 0.100838, 0.086759, 0.053611, -0.405934, -0.096377, 
    0.139060, 0.437559, -0.201828, -0.051012, 0.000195, 0.079656, 0.369096, -0.217963, 0.098387, -0.004942, 
    0.333758, 0.289769, 0.150823, 0.222409, 0.334151, 0.249669, 0.199479, -0.012846, 0.244184, 0.113229, 
    -0.385977, 0.510956, -0.525096, -0.055286, -0.045897, -0.096734, 0.250991, 0.288981, -0.186880, -0.063518, 
    0.242001, 0.056663, 0.176854, -0.004587, -0.153962, -0.101873, 0.032744, -0.091616, 0.211664, 0.217551, 
    0.054408, 0.070358, 0.330318, 0.462347, 0.111752, 0.308159, 0.359977, 0.106807, 0.269420, -0.031009, 
    0.324405, 0.061796, 0.059850, 0.189103, 0.371013, 0.064772, -0.154254, -0.213147, 0.041004, -0.119171, 
    -0.165419, -0.001569, -0.325820, -0.163244, 0.123732, 0.029646, -0.039106, -0.208464, -0.156461, 0.080800, 
    0.225504, -0.009837, -0.290827, -0.057345, 0.120072, 0.276148, -0.102740, -0.088019, -0.221762, 0.142239, 
    -0.853938, -0.061824, 0.110161, -0.584784, -0.214591, -0.138226, -0.275468, -0.303659, -0.497828, -0.451612, 
    0.020733, -0.104727, -0.291445, -0.362533, -0.261496, -0.073289, -0.482241, 0.316625, -0.016206, 0.150343, 
    0.074242, -0.247304, 0.171370, 0.129531, 0.126255, -0.135424, 0.048537, 0.159389, -0.252270, 0.192743, 
    0.135684, 0.113128, 0.051536, 0.201738, -0.056183, 0.001519, -0.053528, 0.226185, 0.005605, -0.015371, 
    0.334358, 0.144905, 0.041097, 0.179986, -0.065064, -0.597691, -0.436626, -0.104721, 0.016783, -0.120042, 
    0.191182, -0.396364, -0.014706, -0.294092, -0.377257, -0.218645, -0.604788, -0.076644, -0.007844, 0.356776, 
    -0.362290, -0.603115, 0.009019, -0.407007, -0.116700, -0.467577, 0.233811, -0.016951, -0.255039, 0.060998, 
    0.036145, 0.211680, -0.085470, -0.251978, 0.156752, 0.054441, 0.435478, 0.101940, -0.161807, -0.077977, 
    0.275558, -0.031920, 0.032193, 0.315222, 0.551191, 0.082426, 0.411806, 0.047995, 0.359558, -0.071185, 
    -0.233551, 0.170742, 0.072310, -0.189409, 0.131938, -0.053900, 0.067628, 0.237368, -0.009535, -0.180591, 
    0.141258, 0.204609, 0.135299, -0.136308, -0.362411, -0.323499, 0.273228, 0.100769, -0.015045, -0.503055, 
    -0.030169, 0.038426, -0.005374, -0.447173, 0.106876, -0.002817, 0.451265, 0.217570, -0.089942, 0.328011, 
    -0.110907, 0.051276, 0.275164, -0.182967, 0.103876, 0.269320, 0.171512, 0.271680, 0.289352, -0.116414, 
    -0.070944, 0.212069, 0.160072, -0.031287, 0.039019, 0.286323, -0.340289, 0.392952, 0.352607, -0.178736, 
    0.216744, -0.236071, 0.045969, 0.098607, -0.399718, -0.327111, -0.092418, 0.111437, 0.287320, 0.360240, 
    0.008720, 0.312149, -0.223061, 0.184035, -0.194873, -0.352848, 0.190458, 0.208073, 0.129210, -0.220893, 
    0.232241, -0.038657, 0.073045, -0.232389, 0.062961, 0.010734, 0.011696, -0.236351, -0.374446, -0.321072, 
    -0.653075, -0.142812, 0.287980, -0.350136, -0.067673, -0.387731, -0.119033, -0.081243, -0.241565, -0.339039, 
    -0.198406, -0.736123, -0.143786, -0.504885, 0.192358, -0.003083, -0.300232, 0.317991, 0.444523, -0.476230, 
    -0.003669, 0.272468, -0.106919, -0.016683, -0.302544, -0.205226, -0.174347, 0.021832, 0.052947, 0.213560, 
    0.313749, -0.021977, 0.070106, 0.423364, -0.114770, -0.197858, 0.031910, -0.237835, -0.346475, 0.021502, 
    -0.618249, 0.108281, 0.052774, 0.269701, 0.725780, 0.181120, 0.407698, 0.958838, 0.393411, 0.021153, 
    0.070574, 0.028994, 0.452493, -0.185447, -0.203509, 0.174705, 0.070478, -0.004386, 0.013956, 0.310920, 
    -0.044066, 0.056772, 0.014963, 0.210836, 0.062578, -0.117765, 0.114163, 0.089998, 0.186619, -0.063042, 
    0.042396, 0.437987, 0.761830, -0.254113, -0.871309, 0.045754, -0.423343, -0.076494, 0.336022, 0.203003, 
    -0.042204, 0.162266, 0.113454, -0.068492, 0.142935, -0.296226, -0.165868, -0.341363, 0.201590, -0.446906, 
    -0.061100, 0.087997, -0.284362, 0.449990, -0.073367, -0.276733, 0.099438, -0.169600, 0.646991, -0.454755, 
    0.013518, -0.092512, -0.022339, -0.146609, -0.087928, -0.280374, 0.045803, 0.123668, 0.194004, -0.041161, 
    0.376173, -0.026193, 0.023580, 0.127736, -0.157213, -0.411927, -0.154897, 0.140444, -0.621232, -0.094943, 
    -0.153565, 0.247127, -0.041975, -0.323935, 0.337006, -0.330961, -0.551544, 0.221088, 0.001590, 0.059384, 
    0.153532, -0.243955, 0.102163, 0.162574, -0.573918, 0.203519, -0.008442, 0.013544, 0.124822, 0.125578, 
    0.048799, -0.028335, 0.471143, 0.171108, 0.029250, -0.416504, 0.160858, -0.175414, -0.165905, -0.092687, 
    0.019553, -0.210553, 0.101200, -0.027871, -0.247037, 0.018043, 0.001231, 0.029265, 0.345225, 0.136934, 
    0.184490, -0.243976, 0.233532, -0.116322, 0.220975, -0.183664, 0.216294, 0.443260, -0.190201, 0.265388, 
    -0.194330, -0.379902, -0.283023, -0.268365, -0.298325, 0.085767, 0.055007, -0.514005, -0.243976, 0.392773, 
    -0.103363, 0.151253, 0.015433, -0.182051, 0.244207, -0.089254, -0.084058, -0.230573, 0.343151, -0.119243, 
    -0.809558, -0.608328, -0.112255, -0.696439, 0.076928, -0.690621, -0.493664, 0.452409, -1.069225, -0.216370, 
    -0.530263, -0.430024, 0.235892, -0.024554, -0.584211, 0.076762, -0.042922, 0.045504, -0.081712, -0.029471, 
    -0.368455, 0.261819, -0.018218, -0.027678, 0.028129, 0.283291, -0.083077, 0.075932, -0.048501, 0.345690, 
    -0.163426, 0.428876, 0.244055, 0.043980, 0.418710, 0.154370, 0.220021, 0.369483, 0.082169, 0.286784, 
    0.143998, 0.353558, 0.381235, 0.390072, 0.132757, -0.165105, -0.005982, 0.183409, 0.072281, 0.176016, 
    0.058165, 0.044404, -0.029343, 0.085308, -0.022232, -0.055539, 0.468927, 0.422766, 0.243146, 0.295568, 
    0.332425, 0.011093, -0.120109, -0.304060, -0.219330, -0.328859, -0.482999, -0.605435, -0.813753, -0.295195, 
    0.119958, -0.102232, -0.242545, -0.501028, 0.139613, 0.086284, 0.319966, 0.271822, 0.392762, -0.187150, 
    0.171522, -0.437067, 0.183653, -0.522980, 0.121818, -0.021780, -0.068923, 0.476523, -0.176381, 0.571383, 
    0.014476, -0.276182, 0.227031, -0.007235, -0.049914, 0.073161, -0.173362, -0.359307, -0.344076, -0.346473, 
    -0.224540, -0.282344, 0.176387, -0.183565, 0.001924, 0.147215, -0.467012, -0.223177, 0.451346, 0.175682, 
    -0.186527, 0.000807, 0.290024, 0.056793, 0.455170, -0.164584, -0.349531, -0.213313, 0.068437, -0.236110, 
    0.372499, 0.232698, 0.096852, 0.261750, 0.257408, 0.065952, -0.074371, 0.235476, -0.535312, -0.176806, 
    -0.282634, -0.094850, 0.348422, -0.343065, -0.277579, 0.058488, -0.382111, -0.152129, 0.285563, 0.496330, 
    -0.278571, 0.036874, 0.201325, 0.140321, 0.162157, 0.101273, 0.241064, 0.067385, 0.128113, -0.123564, 
    -0.133554, 0.211051, -0.013947, 0.049607, 0.021957, 0.084127, 0.043304, -0.116000, 0.136197, -0.119211, 
    -0.107424, 0.033867, 0.100509, 0.423577, 0.064643, 0.355979, 0.440616, 0.003650, -0.023076, -0.207680, 
    -0.141771, 0.361739, 0.244930, 0.364806, 0.043858, 0.153111, 0.128617, 0.090273, 0.053431, 0.189314, 
    -0.078580, 0.105727, -0.275106, 0.190103, -0.100808, 0.100020, 0.206421, 0.030851, 0.142647, -0.035866, 
    0.320991, -0.022205, 0.373817, -0.090987, -0.189315, 0.130636, 0.034787, -0.165841, 0.196752, 0.444986, 
    0.130496, -0.037987, 0.523909, 0.004511, 0.004445, 0.276357, -0.359979, 0.369517, -0.107614, 0.124250, 
    0.336561, 0.001433, 0.091245, 0.184171, -0.091374, 0.022159, -0.186559, -0.076011, -0.081365, -0.090881, 
    -0.115934, -0.612042, -0.103717, 0.402921, 0.185612, 0.146959, 0.078530, 0.128205, 0.023618, 0.272427, 
    -0.115915, -0.009833, 0.098559, 0.081897, 0.169076, -0.130165, -0.183705, -0.426327, 0.029733, 0.332480, 
    -0.107076, 0.194087, -0.481205, -0.335629, -0.397166, -0.328451, -0.307499, 0.092821, -0.263964, -0.051016, 
    0.224584, 0.185175, -0.279770, 0.151948, -0.099448, -0.069624, 0.050495, -0.153690, 0.233312, 0.275169, 
    -0.149339, -0.322578, 0.248988, -0.074213, 0.068646, -0.020105, -0.159250, -0.115229, -0.291970, -0.088985, 
    0.097202, 0.152852, -0.250308, 0.101433, -0.104764, -0.066558, 0.198613, -0.179538, -0.085935, -0.048777, 
    -0.397122, 0.177342, -0.090192, 0.133732, 0.405919, 0.302290, 0.432188, 0.309399, -0.040903, 0.557798, 
    0.636186, 0.404318, 0.531251, 0.581997, 0.246338, 1.104973, 0.633683, 0.860140, 0.651957, 0.209348, 
    -0.002646, 0.174449, -0.175278, -0.054359, -0.076041, -0.147011, -0.055803, 0.071135, 0.153887, 0.009531, 
    -0.304628, -0.287309, -0.045791, -0.402192, -0.256936, 0.171424, 0.294037, -0.344306, -0.098018, -0.101069, 
    -0.353985, -0.068143, -0.277030, -0.369087, -0.378525, 0.094783, -0.878997, -0.310961, -0.104346, -0.093828, 
    0.327768, 0.531434, 0.340054, 0.077321, 0.427966, 0.135598, -0.081327, 0.196649, -0.217104, -0.047648, 
    0.415955, 0.227703, 0.039826, 0.254372, 0.149490, -0.101651, 0.193094, -0.048085, 0.343953, -0.028226, 
    0.064960, 0.195824, 0.133910, 0.132546, 0.354078, -0.014125, 0.124450, -0.044029, 0.053734, -0.061972, 
    0.087467, 0.034719, 0.291878, 0.349003, 0.650042, -0.215280, 0.060705, 0.316842, 0.494817, 0.133110, 
    0.349815, 0.134572, 0.303667, 0.779060, 0.018410, 0.519485, -0.058281, -0.119245, 0.252901, -0.110516, 
    0.137179, -0.030933, 0.257897, -0.002023, 0.055724, 0.095300, 0.287835, -0.068420, -0.152261, 0.234971, 
    0.016127, -0.156126, 0.294723, -0.118386, -0.036481, 0.279242, -0.116697, 0.106043, -0.202367, -0.120565, 
    -0.417432, 0.119198, 0.153966, -0.140527, -0.142746, 0.205988, 0.517219, 0.327186, 0.271333, 0.596631, 
    0.346497, 0.109787, 0.184367, 0.247406, 0.088845, 0.388595, 0.382055, 0.280628, 0.283481, 0.685896, 
    0.189142, -0.189657, 0.022240, 0.077932, -0.362333, 0.166444, 0.301129, 0.426037, 0.205116, -0.400576, 
    0.093353, 0.177717, -0.076935, 0.016211, -0.134626, -0.091372, -0.284374, 0.228168, 0.351345, 0.229569, 
    0.170222, -0.289345, 0.119799, 0.049225, -0.146029, -0.103809, 0.030523, 0.196483, 0.307362, 0.054765, 
    0.206069, 0.311502, -0.220132, -0.227692, 0.484539, -0.200014, -0.014282, 0.162116, -0.143139, 0.488348, 
    -0.106048, 0.213121, -0.615885, 0.326569, 0.428129, -0.062832, -0.557602, -0.204157, -0.227894, -0.225733, 
    0.230390, -0.129994, -0.234723, -0.514232, -0.536977, -0.460947, 0.237453, -0.239581, -0.272627, -0.261137, 
    -0.328901, -0.000016, 0.059025, 0.153794, 0.012220, 0.301868, 0.217761, 0.145303, -0.100696, 0.003150, 
    0.077851, 0.436728, 0.180767, 0.116726, 0.089311, -0.139532, 0.200487, -0.154944, 0.277853, 0.016791, 
    0.230534, 0.301082, -0.143851, 0.448869, 0.341220, 0.386923, 0.062044, 0.320577, 0.406379, 0.388450, 
    -0.081566, -0.093482, 0.054872, 0.295203, -0.036906, -0.048225, -0.302911, -0.356777, -0.166123, 0.109598, 
    -0.058699, -0.565457, 0.658425, 0.073540, -0.104940, 0.226061, -0.238004, 0.125580, -0.001929, -0.228134, 
    0.071498, -0.153277, 0.132954, 0.158043, -0.089461, 0.109611, 0.163864, -0.102975, -0.201599, 0.126513, 
    0.124679, 0.497811, 0.522728, 0.137535, 0.713530, 0.339079, -0.053780, 0.018897, 0.210513, -0.071332, 
    0.163818, 0.100981, 0.233069, 0.169012, 0.074963, 0.039927, 0.483609, -0.106726, 0.022600, -0.006904, 
    0.098976, 0.043961, 0.059025, -0.080084, 0.466664, 0.184987, 0.244450, 0.194222, 0.120830, -0.215467, 
    -0.146960, -0.178560, 0.226309, -0.660594, -0.545043, -0.527905, -0.191203, 0.036434, 0.125049, 0.054640, 
    -0.121488, -0.015406, 0.010799, -0.180688, -0.037832, -0.354452, 0.156168, 0.227065, -0.090515, 0.179911, 
    0.227102, 0.083589, -0.163200, -0.124771, -0.059170, 0.104472, -0.021378, 0.186188, -0.224376, 0.071151, 
    0.100158, -0.061211, -0.095874, 0.094557, -0.196864, -0.438896, 0.146461, -0.094329, -0.111296, -0.532244, 
    -0.556144, -0.195879, -0.146349, 0.147299, -0.556123, -0.317515, -0.158205, -0.334189, -0.393878, -0.236042, 
    -0.049913, 0.065204, -0.205629, -0.009629, -0.070652, -0.466498, -0.142448, -0.097475, -0.103605, -0.520653, 
    -0.544856, -0.514098, -0.165530, -0.055014, 0.268953, -0.477817, 0.069568, -0.217922, -0.094755, -0.208672, 
    -0.256136, -0.118329, 0.281315, -0.005688, -0.325424, 0.480163, 0.181258, 0.207313, 0.479121, -0.153574, 
    -0.032462, 0.275659, -0.084049, 0.342072, -0.187748, -0.087956, -0.189107, 0.411994, -0.686882, 0.076468, 
    -0.222184, 0.074423, 0.456503, -0.092332, 0.000741, 0.098634, 0.073580, -0.116957, -0.596143, -0.241764, 
    0.105379, -0.066425, 0.138391, -0.078088, 0.068489, -0.447655, -0.234199, 0.387693, 0.351482, 0.132270, 
    0.195443, 0.200659, 0.401093, -0.187980, -0.167037, 0.467317, 0.265848, -0.339987, -0.210555, 0.097238, 
    -0.137182, 0.114777, -0.030031, 0.177191, 0.186409, 0.029615, 0.513394, -0.054192, -0.112145, -0.225275, 
    0.061435, -0.222664, 0.093140, -0.076095, -0.051770, 0.110431, 0.214265, 0.367237, 0.255562, 0.037759, 
    0.040496, 0.172158, -0.095644, -0.275020, -0.094357, 0.344275, -0.240264, -0.127623, 0.095782, 0.136604, 
    0.016084, -0.034624, 0.006701, -0.027338, -0.014566, -0.035290, -0.099274, -0.059214, 0.142831, 0.081124, 
    0.085591, 0.070465, -0.313596, -0.427302, 0.024732, -0.173413, 0.262295, -0.516978, 0.477921, -0.040636, 
    0.206677, -0.165100, 0.011248, -0.226898, -0.546709, -0.123118, 0.066078, -0.016307, -0.293859, 0.065428, 
    0.052593, -0.302656, 0.448849, 0.234517, -0.189986, -0.178041, 0.023721, -0.130821, 0.407529, -0.120272, 
    -0.352672, 0.111064, -0.198776, 0.235559, 0.172193, 0.340011, -0.442257, 0.037318, -0.807756, 0.112503, 
    0.669201, 0.184885, 0.575662, 0.692970, 0.218625, -0.519929, -0.256836, 0.813500, 0.312546, -0.217525, 
    -0.081314, -0.105299, 0.132876, -0.624474, 0.208850, -0.338374, 0.002079, -0.059655, 0.115791, -0.863031, 
    -0.011146, -0.505653, -0.054762, -0.545003, -0.248820, 0.132084, 0.067066, 0.154153, 0.124528, 0.387243, 
    0.118992, -0.341308, 0.045730, -0.152236, -0.280119, 0.027000, -0.179602, 0.088699, -0.100410, -0.313836, 
    -0.361704, 0.318893, 0.766012, 0.538812, 0.533244, -0.540265, 0.122706, 0.588394, 0.377494, -0.122107, 
    0.393893, 0.157863, 0.389756, 0.602024, 0.344480, -0.042417, 0.112481, 0.069337, -0.133802, 0.062329, 
    -0.496561, -0.277951, -0.546673, -0.284906, -0.125175, -0.214486, 0.259229, -0.251982, -0.495553, -0.028499, 
    0.008043, 0.123292, -0.430897, -0.006154, 0.064120, 0.136472, -0.285745, 0.466187, -0.241302, -0.139261, 
    0.138139, -0.003382, -0.334996, 0.073148, 0.120565, 0.059939, 0.009399, 0.364028, 0.066331, 0.325604, 
    0.369297, 0.077096, 0.054686, 0.144010, 0.249320, 0.433606, 0.083335, -0.058796, 0.078912, 0.084722, 
    -0.157082, -0.095419, 0.136778, 0.048135, -0.340121, 0.025199, 0.354521, 0.324544, 0.183742, -0.038701, 
    -0.030977, 0.256284, -0.287254, 0.028752, -0.029131, 0.244988, -0.050309, 0.251406, 0.357275, 0.229086, 
    -0.344672, -0.220018, -0.060275, -0.358473, -0.131150, 0.096944, 0.031933, 0.088332, 0.645881, -0.311808, 
    0.016019, -0.510896, -0.433500, -0.330362, -0.277539, -0.087507, 0.081996, 0.507791, -0.157234, -0.396176, 
    -0.033092, -0.085419, 0.417619, -0.367087, -0.209854, 0.248382, 0.092982, 0.268825, 0.039196, 0.049391, 
    -0.032463, 0.378696, 0.169160, -0.054891, 0.177673, -0.140521, 0.001794, 0.015849, -0.025055, 0.264431, 
    -0.162597, 0.207573, -0.320321, 0.352910, 0.149646, -0.035113, -0.090758, 0.094443, -0.075016, 0.144588, 
    0.024366, 0.282168, -0.142913, 0.258878, 0.033501, -0.290348, 0.245119, -0.205512, -0.274332, -0.014921, 
    -0.109954, 0.041480, 0.177345, -0.179327, 0.411539, 0.074135, 0.235350, 0.043401, 0.123591, -0.177525, 
    0.041899, 0.082891, 0.427859, -0.007216, 0.264739, 0.185774, 0.215825, 0.252806, -0.007790, 0.506494, 
    0.414964, 0.198152, 0.271239, 0.224431, -0.000917, 0.098707, 0.023125, -0.459261, 0.153640, 0.085335, 
    -0.134079, -0.068226, 0.234766, 0.055317, 0.017830, 0.275438, 0.038971, -0.245958, 0.408147, -0.147025, 
    0.043119, 0.044380, 0.048846, -0.482329, -0.291677, -0.018204, -0.610330, -0.191532, -0.436036, -0.159708, 
    -0.548745, -0.173720, -0.486344, 0.098417, -0.746409, -0.308800, 0.356020, 0.215989, -0.239335, 0.221689, 
    -0.030727, -0.522832, 0.532116, -0.044021, -0.294788, -0.033795, -0.052710, 0.113391, 0.147490, 0.013715, 
    0.019658, 0.221867, 0.101590, -0.002699, 0.209670, 0.152267, 0.157708, -0.299938, 0.343879, 0.232759, 
    0.428281, 0.280718, 0.322720, 0.369290, 0.157138, -0.042810, -0.058494, 0.128456, 0.214968, -0.054420, 
    0.182223, 0.232134, 0.004869, -0.000074, -0.143793, 0.117105, -0.032384, 0.566420, -0.279034, 0.017908, 
    0.153791, 0.046958, -0.027891, 0.205118, -0.245034, 0.044071, 0.258038, 0.379909, 0.169565, -0.003602, 
    -0.115933, 0.325544, -0.086229, -0.115143, -0.134943, 0.149891, -0.025875, -0.217556, 0.212571, -0.076052, 
    0.021999, -0.286624, -0.010625, -0.165577, -0.020684, 0.231666, 0.031043, 0.088060, 0.312782, -0.015110, 
    0.390154, -0.053281, 0.217920, 0.110426, 0.501860, 0.212420, 0.171705, 0.043299, 0.178220, 0.366173, 
    0.286195, 0.177575, -0.245026, 0.192498, 0.325070, 0.042285, -0.267337, 0.388300, 0.409638, 0.410869, 
    -0.030609, 0.345181, 0.524763, 0.158671, 0.583984, 0.373134, 0.525711, 0.066835, 0.362506, -0.113419, 
    -0.127183, -0.133218, -0.183036, -0.432390, -0.137062, -0.136325, -0.359841, 0.104496, 0.253667, -0.023875, 
    -0.206134, -0.072856, -0.041465, 0.508923, -0.381230, 0.487311, -0.030081, 0.051908, -0.339136, -0.076201, 
    -0.334086, -0.380222, -0.175604, 0.374977, -0.406278, -0.241662, -0.553480, -0.308543, -0.413532, 0.176696, 
    -0.220486, 0.053609, 0.114371, 0.279805, -0.054413, 0.193082, 0.360479, 0.240271, 0.519524, 0.320835, 
    0.074179, 0.161566, 0.429606, 0.148807, 0.229655, -0.256842, 0.251459, -0.051191, -0.033588, 0.041972, 
    -0.012212, -0.178111, 0.389725, -0.217429, -0.044174, 0.095768, 0.073588, -0.562345, -0.141096, 0.008927, 
    -0.170916, 0.153861, -0.209951, -0.177088, -0.175296, 0.121816, 0.298391, -0.199012, 0.236265, 0.080425, 
    -0.056565, 0.019005, -0.065041, 0.011215, 0.154382, 0.223671, 0.018841, 0.270355, 0.245396, -0.079713, 
    -0.055401, 0.173808, -0.169505, 0.255776, -0.113202, 0.058964, 0.228217, -0.171551, -0.041303, 0.295638, 
    -0.338575, 0.213310, 0.277444, -0.415604, -0.195252, -0.113547, -0.178856, -0.016425, -0.150714, -0.351894, 
    0.400107, -0.047003, -0.185605, -0.136674, 0.451308, 0.072151, 0.197382, -0.250439, 0.047937, -0.262159, 
    -0.417884, 0.254123, 0.509066, -0.120909, -0.105032, -0.025649, 0.109274, -0.148003, -0.032302, -0.134085, 
    -0.128335, 0.249196, -0.032725, -0.081794, 0.250521, -0.001709, 0.214906, 0.475723, -0.195220, 0.132924, 
    -0.082618, -0.053583, -0.136093, 0.208996, 0.326517, -0.045550, -0.025233, 0.143211, -0.057969, 0.047633, 
    0.131302, 0.639121, -0.165660, -0.179616, -0.379044, 0.209911, -0.040578, 0.412906, 0.132158, 0.150019, 
    0.373548, 0.354034, 0.269123, 0.421585, 0.118392, 0.190961, -0.055191, 0.674182, 0.468694, 0.074158, 
    -0.027858, -0.003816, 0.266052, 0.114491, 0.145783, -0.048776, 0.100079, 0.082059, 0.176218, 0.092139, 
    0.081774, 0.428417, 0.095747, 0.398368, 0.162149, -0.007999, -0.047531, -0.144958, -0.042718, -0.007680, 
    -0.100939, 0.360542, 0.537663, -0.000522, 0.156605, 0.054118, 0.218870, -0.236869, 0.284597, 0.201279, 
    -0.120964, 0.003496, 0.022231, 0.440380, 0.002117, 0.167878, -0.534618, -0.542507, -0.043701, -0.346266, 
    -0.174323, -0.221887, -0.383559, -0.202503, -0.750753, -0.089341, -0.651389, -0.265006, -0.201142, -0.279999, 
    -0.339967, -0.385493, 0.134775, 0.172888, -0.370433, -0.757411, -0.356182, 0.452383, -0.197794, -0.487797, 
    -0.621985, -0.519341, -0.698879, 0.047665, 0.142784, -0.094409, -0.076853, -0.366471, 0.353071, -0.077162, 
    0.104138, -0.056152, -0.287849, -0.084720, -0.013408, -0.205508, 0.045082, 0.230638, -0.108309, -0.033867, 
    0.100987, -0.230458, 0.242592, 0.010756, 0.213039, 0.009399, -0.049041, -0.006486, 0.312579, 0.146912, 
    0.213114, -0.064557, -0.035092, -0.180280, 0.204857, -0.413848, 0.539298, -0.078768, 0.074811, 0.086810, 
    -0.284187, -0.126264, 0.051295, -0.318428, -0.081360, -0.222046, -0.265174, 0.178016, 0.279573, -0.266506, 
    -0.247898, 0.106084, 0.210550, 0.262126, -0.552188, -0.261947, -0.231524, -0.601430, -0.380298, 0.251642, 
    -0.489656, -0.703645, -0.179368, -0.231626, 0.460618, -0.317601, 0.197527, 0.407942, 0.025009, 0.047625, 
    0.071918, -0.094072, -0.429264, 0.038503, -0.010599, 0.107552, -0.299516, 0.203326, -0.186437, 0.116771, 
    0.090498, 0.009462, 0.836916, -0.226293, -0.398797, 0.019517, 0.374363, 0.281158, 0.548359, -0.017712, 
    -0.147587, -0.022828, -0.015541, -0.636650, -0.215643, -0.021475, -0.318240, -0.041668, 0.290189, 0.056568, 
    0.066108, 0.010510, -0.094226, -0.131228, 0.339616, 0.356439, 0.218753, 0.169598, 0.011270, 0.318324, 
    0.227358, 0.126317, 0.095399, 0.336526, -0.040353, 0.046578, 0.401711, -0.190818, 0.197639, 0.217521, 
    0.360599, 0.435898, 0.367067, 0.210802, 0.206033, 0.378216, 0.085348, 0.417845, 0.196114, 0.068694, 
    0.087909, 0.446949, -0.113542, 0.267358, 0.241951, -0.017167, 0.174269, 0.020139, 0.495241, 0.298974, 
    -0.318634, -0.360179, -0.780093, -1.089576, -0.817638, -0.898918, -0.120261, -0.311784, -0.302406, -0.256524, 
    -0.273414, -0.937192, -0.548537, -0.581067, -0.220738, 0.144389, -0.376735, -0.109427, -0.032027, -0.116418, 
    -0.163931, 0.038777, -0.235378, 0.207381, 0.239250, 0.326394, -0.076135, 0.215686, 0.044560, 0.352159, 
    0.201112, 0.194924, 0.477327, -0.073920, 0.184649, 0.291440, 0.120578, -0.081919, 0.467247, 0.030634, 
    0.156030, 0.318602, 0.194331, 0.299275, 0.175663, -0.206239, 0.271608, 0.225530, -0.085669, -0.265987, 
    0.230401, 0.153455, -0.114554, 0.172578, 0.241933, 0.227928, -0.291067, 0.007999, 0.550773, 0.348838, 
    0.023805, 0.026654, -0.145568, 0.082013, 0.006333, -0.212448, 0.186888, 0.033470, 0.068399, 0.295306, 
    -0.261227, -0.340500, -0.193629, 0.210698, 0.134282, 0.298345, -0.418447, 0.060304, 0.139188, -0.137900, 
    0.152921, 0.074300, -0.074981, 0.082594, -0.067701, -0.253110, -0.188977, -0.092080, -0.152335, 0.275091, 
    0.176679, 0.285175, -0.024688, 0.004675, 0.340888, 0.290734, 0.087940, 0.103498, 0.198730, 0.535321, 
    -0.021669, -0.030477, -0.023100, 0.099288, 0.300565, -0.087545, 0.077045, -0.188240, 0.522600, 0.025429, 
    -0.225389, 0.024587, -0.177092, 0.152054, 0.046783, -0.033184, -0.181162, 0.164010, 0.544762, -0.022361, 
    -0.021680, 0.118830, 0.309944, -0.359218, 0.055489, -0.110320, 0.236678, 0.133904, 0.254239, -0.145639, 
    0.001532, 0.003486, 0.027963, -0.214804, 0.030044, 0.287902, 0.112433, -0.052736, -0.414050, 0.328573, 
    -0.109002, -0.047225, 0.515788, -0.563923, 0.489786, -0.140071, -0.089703, -0.398101, -0.282902, -0.486584, 
    0.470017, 0.120115, -0.030377, 0.147068, 0.061451, 0.346370, 0.092981, 0.207688, 0.057617, 0.098728, 
    0.097832, 0.118184, 0.367222, -0.313165, -0.064496, -0.041726, 0.382854, -0.210613, 0.066949, -0.038994, 
    0.290854, 0.021402, -0.133163, -0.176525, 0.095580, 0.389754, 0.072399, 0.411137, 0.321478, 0.380960, 
    0.181344, 0.562426, 0.146526, 0.202096, -0.091537, 0.008304, -0.188843, 0.163038, 0.037447, 0.035309, 
    -0.250127, 0.135359, -0.011543, -0.026656, -0.086106, -0.161939, 0.042114, 0.215837, 0.350979, -0.338447, 
    0.229844, 0.139738, 0.261057, 0.503712, 0.057380, 0.337164, -0.154408, 0.170525, 0.207172, -0.141295, 
    0.138194, 0.073912, 0.210354, 0.190972, -0.008680, -0.520176, -0.006102, -0.343689, -0.212487, 0.190144, 
    -0.274839, -0.267704, 0.112556, -0.158844, -0.141385, -0.045148, -0.246936, -0.210737, -0.027366, 0.425819, 
    -0.043652, -0.017623, -0.117109, -0.125843, 0.257015, 0.377012, 0.130098, -0.085959, -0.029047, -0.055356, 
    0.358031, 0.124952, -0.194616, -0.093434, 0.121410, 0.116091, -0.393965, -0.177529, 0.091796, -0.116327, 
    0.298854, -0.017300, 0.039969, 0.398657, -0.176873, 0.205723, 0.728899, 0.226650, 0.475649, 0.122233, 
    -0.256154, -0.031973, -0.268798, 0.401934, 0.013973, -0.199370, 0.247049, -0.027977, 0.363232, -0.006250, 
    -0.425183, -0.095492, -0.326634, 0.299170, -0.226140, -0.261874, 0.040839, -0.664484, -0.109461, 0.213223, 
    0.412491, 0.359987, 0.088545, 0.326601, 0.057120, 0.468375, 0.047857, 0.300874, -0.095047, -0.227840, 
    -0.157303, 0.150175, 0.154693, -0.138574, -0.181366, -0.142638, 0.160656, -0.056927, -0.246305, -0.009554, 
    0.529676, 0.051325, 0.069405, 0.076086, -0.386580, -0.374013, 0.434447, -0.219416, 0.087944, 0.270210, 
    0.287894, 0.335376, 0.550553, 0.158539, -0.241918, -0.074280, -0.019078, 0.056823, -0.135876, 0.071946, 
    0.213706, 0.077343, -0.294233, -0.176308, 0.114189, 0.159352, -0.250402, 0.128049, -0.151951, 0.083739, 
    0.361985, 0.116752, -0.187154, 0.199599, 0.206254, -0.315413, 0.359272, -0.026095, 0.673195, -0.198938, 
    0.405091, 0.554930, 0.347187, 0.171571, -0.519941, -0.035250, -0.867117, -0.181200, -0.293715, 0.317701, 
    -0.343953, 0.010868, -0.135710, -0.722332, -0.506208, 0.406224, 0.250782, -0.406099, -0.618155, 0.541748, 
    0.014577, 0.096043, -0.178945, 0.068665, -0.178290, 0.279109, -0.075775, -0.199511, -0.193129, 0.308329, 
    -0.085452, -0.106335, -0.220808, 0.042084, 0.007779, 0.004124, 0.001603, -0.387995, 0.261044, 0.192532, 
    0.028116, -0.539557, 0.207453, 0.195258, -0.026038, 0.106780, 0.246052, 0.015722, -0.118125, 0.046575, 
    -0.055980, 0.023667, -0.013514, 0.005487, -0.017456, -0.079921, -0.029766, -0.004225, -0.000211, 0.043310, 
    0.038337, -0.027095, -0.018630, -0.018934, -0.071495, -0.058580, -0.054124, -0.050609, -0.026557, -0.031399, 
    0.003276, -0.035504, -0.000981, -0.063518, -0.020053, -0.023341, -0.000863, 0.005687, 0.008810, 0.024308, 
    0.020505, 0.039144, 0.043525, 0.020571, -0.030984, 0.020260, 0.001039, 0.028104, 0.022024, 0.023054, 
    0.012179, 0.034830, 0.032669, 0.037992, -0.042676, -0.028921, -0.021710, -0.090449, -0.098186, -0.021300, 
    -0.011970, -0.008305, -0.032084, -0.027343, -0.101836, -0.084617, -0.110205, -0.068051, -0.033338, -0.081095, 
    0.048504, -0.032874, 0.019534, -0.095631, -0.051197, -0.008605, 0.052913, -0.042645, 0.035765, 0.001363, 
    0.001260, 0.012605, 0.067738, -0.003854, 0.059486, 0.018010, -0.083236, -0.056854, -0.078284, -0.084058, 
    -0.059436, -0.010618, -0.095991, -0.007886, -0.015729, -0.019877, 0.011043, -0.017233, 0.002781, -0.000870, 
    -0.080886, -0.039327, 0.020589, -0.015422, 0.018330, -0.024492, 0.017652, -0.008760, 0.012435, 0.006164, 
    -0.000816, -0.036978, -0.011508, -0.072810, -0.007968, -0.077985, -0.075960, -0.026610, -0.095354, -0.049924, 
    -0.106754, -0.051653, -0.028578, -0.033065, -0.077005, -0.059409, -0.123320, -0.086315, -0.066296, -0.065300, 
    -0.033249, -0.020346, -0.012128, -0.000360, -0.010901, -0.034891, 0.015576, 0.039386, -0.006726, 0.004658, 
    -0.007864, -0.008825, -0.013324, -0.048116, -0.067270, 0.055286, -0.067915, -0.025982, -0.025011, 0.058082, 
    -0.014598, 0.000089, 0.016983, -0.036418, 0.052512, 0.120566, 0.013397, 0.000778, -0.018664, 0.015238, 
    -0.019951, -0.034772, -0.017565, -0.016939, -0.002094, -0.019823, -0.074712, 0.010652, -0.021283, -0.027849, 
    -0.034338, -0.028834, -0.077450, -0.010329, 0.023195, -0.083320, -0.079764, -0.042951, -0.013229, -0.036967, 
    -0.037553, 0.007215, 0.027633, -0.009328, -0.052891, -0.018630, -0.051937, -0.052036, -0.031834, 0.030467, 
    -0.057850, -0.081066, -0.057791, -0.012681, -0.061413, 0.015279, -0.001242, 0.004763, -0.013899, 0.003471, 
    0.006052, -0.014917, -0.032334, -0.003568, -0.023645, 0.005927, -0.004605, 0.008360, -0.025233, 0.020716, 
    0.031228, -0.043431, -0.008144, -0.054312, -0.070741, -0.010134, -0.075395, 0.002492, 0.005053, -0.030408, 
    -0.056009, -0.052666, -0.064272, -0.028278, -0.074009, -0.023482, -0.040579, -0.034384, -0.097972, -0.048216, 
    -0.032397, -0.030533, -0.031607, -0.049089, -0.084315, -0.030605, -0.046970, -0.066405, -0.012772, 0.026649, 
    0.002149, -0.045444, -0.036337, -0.001849, -0.049149, -0.008254, -0.009665, -0.059011, -0.042687, 0.018905, 
    -0.024944, 0.035096, 0.036714, 0.023398, 0.053909, 0.016832, 0.027460, -0.038851, -0.009754, -0.000751, 
    0.018231, 0.027395, 0.052187, 0.046861, -0.029396, -0.012030, -0.028497, 0.023176, 0.001448, -0.012484, 
    -0.004563, 0.027971, -0.021559, -0.018907, 0.037115, 0.030532, -0.032025, 0.033711, 0.024095, 0.013297, 
    -0.050169, -0.034208, -0.075601, -0.016245, -0.055596, -0.043842, -0.040024, -0.051678, 0.015861, 0.005246, 
    0.001015, -0.046530, 0.036711, 0.013935, -0.021310, -0.060683, -0.002335, 0.010593, -0.016691, -0.080591, 
    -0.073035, 0.025929, -0.039759, -0.007271, -0.011105, -0.043881, -0.069754, -0.079251, 0.007872, 0.017202, 
    -0.002238, -0.065299, -0.067183, -0.020866, -0.069642, -0.010805, -0.023485, -0.015106, -0.060081, -0.063282, 
    -0.072362, -0.007862, -0.039290, -0.052689, -0.098138, 0.023485, 0.003970, -0.053240, -0.036074, -0.044960, 
    -0.066021, -0.063585, -0.023621, 0.008579, -0.051501, -0.003488, -0.057191, -0.064138, -0.074479, 0.037926, 
    -0.016088, -0.003786, 0.017191, 0.027360, -0.062557, -0.031444, 0.029868, 0.000127, -0.019850, -0.006353, 
    0.002568, -0.023688, -0.048379, -0.001653, 0.016948, -0.062282, -0.038304, -0.015892, -0.035104, -0.023393, 
    0.045746, -0.019422, 0.003178, -0.063396, 0.031871, -0.044598, 0.013151, -0.005194, -0.043378, -0.067069, 
    0.014171, 0.004502, 0.012595, 0.006039, -0.054669, -0.046347, -0.047860, -0.008919, -0.015567, 0.020878, 
    0.041945, 0.018014, 0.011530, 0.022097, 0.052531, 0.008077, -0.029012, 0.007344, -0.067650, -0.010295, 
    -0.005499, -0.084879, -0.067158, -0.034982, -0.002657, 0.011133, -0.064458, 0.007647, -0.039674, -0.045823, 
    -0.057600, 0.007629, -0.009353, -0.023600, -0.059038, -0.027954, -0.050429, -0.047792, 0.007040, -0.053945, 
    -0.056582, -0.036205, 0.029633, 0.000232, -0.050912, -0.063104, -0.024112, -0.075895, -0.068277, -0.090113, 
    -0.049368, -0.115483, -0.123133, -0.052722, -0.020849, -0.041300, -0.089546, -0.092191, -0.107078, -0.087838, 
    -0.011088, 0.011688, -0.034662, -0.034002, 0.001598, -0.000969, -0.038386, -0.058516, 0.009614, -0.038585, 
    0.010545, -0.034466, 0.034546, -0.019063, 0.000346, -0.007230, 0.026797, 0.012346, -0.029812, 0.000376, 
    0.031274, -0.031592, 0.019465, 0.018181, 0.042252, -0.032001, -0.043265, 0.001254, -0.011436, -0.029898, 
    -0.037395, -0.012957, -0.042940, -0.021540, -0.077445, -0.032200, -0.041040, 0.035104, 0.022123, -0.026569, 
    -0.048008, 0.004453, -0.050372, -0.063774, -0.053125, -0.045803, -0.036500, 0.032441, -0.004525, -0.030486, 
    -0.024288, 0.034605, 0.035339, -0.030761, 0.051529, -0.005305, -0.003285, 0.011337, -0.053243, -0.051698, 
    0.144228, 0.094026, 0.407718, -0.789324, -0.084608, -0.062086, 0.103544, -0.351575, -0.061785, -0.186173, 
    0.007945, 0.582919, 0.352511, -0.096990, 0.094335, 0.002247, -0.271796, -0.167951, -0.038593, -0.149139, 
    -0.176652, 0.076725, 0.058612, 0.190418, 0.330607, -0.020904, 0.535659, -0.223877, -0.138017, -0.162731, 
    -0.183710, 0.320664, -0.007246, 0.138663, 0.363907, -0.517341, -0.226845, 0.434997, 0.439901, 0.352131, 
    0.124620, 0.194508, 0.451510, -0.112418, -0.027208, 0.064702, 0.111177, 0.347123, 0.002968, 0.007914, 
    -0.167976, 0.322068, -0.010978, 0.238381, 0.088391, -0.050158, 0.030462, 0.183150, 0.380401, -0.036412, 
    0.050525, 0.118751, -0.006433, -0.460641, -0.129846, -0.057938, -0.095704, -0.097508, -0.094680, -0.193230, 
    -0.025346, -0.432847, 0.017207, -0.036218, 0.062828, -0.184985, -0.462576, -0.174666, -0.162537, 0.149172, 
    0.062745, 0.277892, -0.100785, -0.124219, 0.263892, 0.095451, 0.259644, -0.289690, 0.734122, 0.282006, 
    0.151925, 0.285887, 0.126517, -0.092380, 0.081644, 0.229570, -0.205440, 0.317771, 0.144444, 0.280146, 
    0.253696, 0.118265, -0.181759, 0.251414, -0.098780, -0.346354, -0.014336, 0.180392, 0.040801, 0.070348, 
    -0.030652, 0.098764, -0.091494, -0.064302, -0.287318, -0.005243, 0.284273, -0.090829, 0.334780, 0.098010, 
    -0.350394, 0.012131, -0.247149, 0.279087, 0.174893, 0.064388, 0.156774, -0.518636, 0.090270, 0.187873, 
    0.306095, -0.082481, 0.011768, 0.223783, -0.024754, 0.100487, -0.065033, -0.158601, 0.373988, 0.165482, 
    -0.027204, 0.339017, 0.361787, 0.326510, 0.473681, 0.067523, 0.778411, 0.068253, 0.625968, -0.122289, 
    -0.670472, -0.300210, -0.619924, -0.037144, -0.386633, -0.116816, -0.046463, -0.055118, -0.006229, -0.108490, 
    -0.549913, -0.231278, -0.446547, -0.268908, -0.494659, -0.482202, 0.207600, -0.208003, 0.489004, 0.175601, 
    -0.203100, -0.099257, 0.210226, -0.133933, 0.037833, 0.463858, -0.081193, -0.245049, 0.335129, 0.145024, 
    0.093446, 0.268017, 0.207104, 0.176348, 0.178312, 0.243320, 0.492916, -0.214442, 0.355867, -0.231301, 
    -0.106367, 0.052011, 0.001323, -0.326111, 0.083045, 0.612698, 0.291051, 0.345231, -0.042218, 0.521700, 
    0.252396, 0.149498, 0.411248, 0.613721, -0.105084, 0.466093, 0.528438, 0.692356, 0.478811, 0.965160, 
    0.080817, -0.122590, 0.242602, 0.059865, -0.325503, 0.022978, -0.313430, 0.032755, -0.008630, -0.142282, 
    -0.198725, -0.019130, -0.359242, -0.022313, 0.090694, 0.204753, 0.360427, 0.359370, 0.243521, 0.676006, 
    0.084010, -0.648319, -0.302683, -0.407499, 0.701237, -0.188663, 0.131486, -0.110586, 0.093120, 0.080292, 
    0.420059, 0.360130, -0.078722, -0.274320, 0.329110, -0.387615, 0.253980, 0.312571, 0.393353, 0.036493, 
    -0.098501, 0.027145, 0.023698, -0.003169, 0.096529, -0.231008, 0.170138, 0.466405, 0.421568, -0.021666, 
    0.514593, -0.281483, 0.354834, 0.743861, 0.284855, -0.007459, 0.124887, -0.311382, 0.197123, 0.226530, 
    -0.307248, -0.002874, -0.042671, 0.227381, 0.218670, 0.020684, -0.018591, -0.108303, -0.085286, -0.179794, 
    0.361584, 0.158911, 0.233184, 0.330223, -0.025570, 0.203171, 0.041095, -0.051632, -0.002587, -0.154798, 
    0.286966, -0.415802, 0.409255, 0.155492, 0.053683, -0.397543, 0.177612, 0.119140, -0.446205, -0.052583, 
    -0.067489, 0.030083, 0.087455, -0.411651, -0.210119, 0.091855, 0.073750, 0.155395, 0.288515, 0.047788, 
    0.331677, -0.067699, -0.186821, 0.051561, 0.047463, 0.491792, 0.431065, 0.164717, 0.091479, 0.155947, 
    0.076902, 0.155420, -0.041805, 0.052681, -0.038039, -0.324721, 0.273757, 0.928730, 0.350588, 0.716339, 
    0.285474, -0.303998, 0.000113, 0.147980, -0.433971, 0.149934, 0.579503, 0.044664, 0.042386, 0.659018, 
    0.006780, -0.686197, 0.001038, 0.673726, 0.214084, -0.361824, 0.754509, 0.156594, -0.200949, 0.132749, 
    -0.277709, 0.500341, 0.279792, -0.130862, 0.018402, -0.106101, -0.038300, 0.264143, 0.200077, 0.685003, 
    -0.431697, -0.067355, 0.557604, 0.146206, 0.325435, -0.130992, 0.317426, -0.319195, 0.776858, -0.205727, 
    -0.360983, 0.228354, 0.268566, 0.414160, 0.088677, 0.297204, 0.172933, 0.233739, 0.164998, 0.226763, 
    0.199663, -0.039331, -0.169972, 0.223809, 0.242869, -0.416655, -0.220849, 0.277429, 0.314037, -0.245946, 
    -0.149943, 0.250531, 0.787993, 0.143029, 0.035020, 0.534024, 0.262580, -0.004614, 0.136962, 0.115299, 
    0.444651, 0.023994, 0.504072, -0.244746, -0.262702, 0.010739, -0.085140, -0.115301, -0.163360, -0.123957, 
    -0.133662, -0.369398, -0.233646, 0.135398, -0.153431, -0.039943, -0.247269, -0.057740, -0.187559, -0.102829, 
    0.240446, 0.654362, 1.012604, 0.938958, 0.083026, 0.784633, -0.144957, 0.118059, 0.513240, 0.557976, 
    0.594590, 0.478954, 0.748382, 0.267048, 0.065015, 0.221862, 0.553179, -0.471743, 0.185716, 0.242092, 
