#ifndef WEIGHTS_H
#define WEIGHTS_H

#include "gesture_typedefs.h"

// PyTorch Layer: conv1.weight (Shape: (16, 6, 3))
static const data_t conv1_w[288] = {
0.002321, 0.002475, 0.000010, 0.011462, -0.007810, -0.000599, -0.002950, 0.008797, 0.011843, -0.662296, 
    1.229994, 0.447344, 0.724074, 0.196284, 0.505555, -0.329831, 1.491693, 0.333240, -0.001310, 0.000371, 
    -0.001252, -0.005491, -0.010067, 0.007615, -0.012866, -0.009312, -0.007425, -0.979490, -0.219938, -1.508683, 
    0.763665, -0.644665, 0.689464, 0.916313, -0.089056, 1.648505, 0.000409, 0.001918, 0.000350, -0.010507, 
    -0.001056, -0.009180, 0.008925, 0.014020, 0.010663, -0.165153, 1.016917, 0.565100, 0.094704, -0.851893, 
    -1.164556, -0.331992, -1.082927, 1.847700, 0.001280, 0.001575, 0.001334, -0.005258, 0.008673, -0.015875, 
    0.004494, -0.003190, 0.007339, -0.000719, 0.764801, 0.210850, 0.682843, -0.447100, -0.451924, -1.222583, 
    1.518006, 0.422862, 0.002141, -0.001992, -0.002425, -0.017895, -0.015845, 0.001915, 0.005619, 0.010833, 
    -0.003502, -0.939647, 0.472093, -0.662003, 0.770606, 0.087948, 0.740764, -1.752437, -1.223973, 0.294041, 
    0.000020, -0.001089, 0.000865, 0.008143, -0.014773, -0.011769, 0.012056, -0.002015, -0.002807, -0.949614, 
    -0.468010, 0.513071, -0.315792, -0.787689, -0.184067, -1.971393, -2.286720, -1.709984, -0.002421, -0.001884, 
    0.001905, -0.002896, -0.000779, -0.020867, -0.011565, -0.008315, -0.003327, -1.432449, -0.902617, -1.105826, 
    0.027274, -0.272182, 0.008311, -1.463491, -1.575762, -1.332914, -0.000441, -0.001475, 0.002194, 0.001734, 
    0.018749, 0.009666, -0.010039, 0.006037, -0.004121, -0.898436, -1.401535, -1.580975, 0.257315, -0.126591, 
    0.384187, -1.555197, 1.279564, -1.270077, -0.000190, 0.000702, 0.001456, 0.017187, 0.019259, -0.009058, 
    0.002329, -0.004499, -0.000881, -1.247114, 0.630548, -1.249055, 0.779838, 0.626596, 0.590050, -0.838880, 
    1.963220, 0.659768, 0.000269, -0.002058, 0.000912, -0.000300, -0.004771, 0.015386, 0.005042, -0.003449, 
    -0.002798, -0.083312, 0.577576, -0.305627, -0.826383, -0.651756, -0.972434, 0.517842, 1.136092, -2.030737, 
    0.000940, 0.001607, 0.000839, -0.006394, 0.007943, 0.007560, 0.005224, -0.000743, -0.001528, -0.205544, 
    -0.546786, -0.709923, 0.893575, 1.065248, 0.317517, -0.228586, 0.177276, 0.081831, 0.001232, 0.001311, 
    -0.001401, -0.001272, 0.018505, 0.010817, -0.002692, -0.008814, -0.009189, -1.350414, -0.713084, 0.044391, 
    0.436277, 0.291857, -0.776829, -1.078344, -0.247798, 1.844971, 0.000456, -0.000471, 0.001092, -0.011436, 
    -0.015938, 0.006538, -0.000849, 0.001936, -0.006473, 1.119933, 1.239818, 0.797534, -0.926810, -1.151351, 
    -0.995855, 1.741972, 1.246868, 1.900278, 0.001326, 0.000703, 0.000100, -0.017541, -0.018949, -0.020536, 
    0.003230, -0.006038, -0.002441, -0.970031, -0.482335, -1.102331, -0.433227, 0.349863, -0.189529, 1.270001, 
    -0.517720, -1.309749, -0.000318, -0.001055, -0.000599, -0.022690, 0.002036, -0.018549, 0.010806, 0.010567, 
    0.013333, -0.954628, 0.873338, -0.552472, 0.664971, 1.104753, 0.246083, -0.092810, -0.425018, -1.576680, 
    0.001143, -0.002256, 0.001444, 0.017944, 0.021253, 0.001831, -0.009012, 0.002139, 0.005774, -1.569264, 
    -0.688976, -1.118783, -0.165554, -0.492187, -0.406449, -0.110204, -1.220553, 2.014331
};

// PyTorch Layer: conv1.bias (Shape: (16,))
static const data_t conv1_b[16] = {
-0.463742, -1.691698, -0.691113, -0.564516, 0.242127, 2.442829, 1.603824, 0.694048, -0.806505, 0.511177, 
    -0.145956, 0.111357, -2.310722, -1.357168, -0.217276, -0.212523
};

// PyTorch Layer: conv2.weight (Shape: (32, 16, 3))
static const data_t conv2_w[1536] = {
-0.045139, 0.199244, 0.008782, 0.067325, -0.008642, 0.058553, 0.206297, 0.136958, -0.061330, 0.108386, 
    0.186902, 0.068610, 0.188967, 0.235112, 0.052635, 0.124151, -0.004645, 0.050588, 0.197597, 0.167772, 
    -0.012849, -0.118197, -0.101884, -0.172077, -0.107413, -0.048512, 0.062464, 0.062499, -0.085916, -0.084382, 
    0.124346, -0.055454, -0.002285, 0.059025, -0.051013, 0.016457, -0.067177, -0.075501, -0.100322, -0.075480, 
    -0.065469, -0.052566, 0.232030, 0.019556, -0.019468, 0.001813, -0.009065, 0.024907, 0.098924, 0.070247, 
    -0.145539, 0.131290, 0.205153, 0.106167, -0.167900, 0.052892, -0.139957, -0.089090, -0.138782, -0.000768, 
    0.139798, 0.113389, 0.117968, -0.144997, -0.167843, -0.028832, 0.192774, 0.151153, -0.018383, 0.020126, 
    -0.062633, -0.019737, 0.102732, 0.153805, 0.198059, -0.097132, 0.126403, -0.099973, 0.125481, 0.195175, 
    0.080866, 0.215863, -0.048104, 0.020417, 0.111951, -0.008298, -0.019278, 0.021257, 0.182751, 0.152320, 
    0.081686, -0.039049, -0.062429, 0.046905, 0.060002, -0.062612, 0.036361, 0.178616, 0.094549, 0.043327, 
    0.002515, -0.101456, -0.096589, -0.021652, -0.027027, 0.097560, 0.016917, 0.010424, 0.237345, 0.153975, 
    0.198335, -0.023650, -0.021166, 0.065125, -0.071121, -0.075976, -0.001388, -0.047204, -0.099499, 0.089979, 
    0.174351, 0.091683, 0.030787, -0.208825, -0.126568, -0.038030, 0.141725, 0.064320, 0.020079, 0.051086, 
    -0.143767, 0.089276, -0.118162, -0.059951, -0.083087, 0.078515, 0.016438, 0.163974, 0.095997, 0.214383, 
    0.239413, -0.104103, -0.144044, 0.084951, 0.138355, -0.079327, 0.024145, -0.116477, -0.077279, 0.073204, 
    0.054923, 0.044197, -0.024359, 0.127273, 0.018764, -0.082371, 0.044131, 0.099838, 0.125194, -0.052223, 
    0.112940, -0.015080, -0.051470, -0.003042, 0.208859, 0.200606, 0.213355, 0.162507, 0.157590, 0.041496, 
    -0.017335, 0.074407, -0.073649, -0.092512, 0.011337, 0.098363, 0.145480, 0.004066, -0.015686, 0.071985, 
    -0.128541, -0.139332, 0.030156, 0.025894, 0.187119, 0.193598, 0.096829, 0.119162, 0.107897, 0.047686, 
    0.028019, 0.028313, 0.050569, 0.131825, -0.037887, -0.155103, -0.133235, -0.169354, 0.101064, 0.187307, 
    0.192025, 0.091669, -0.080234, -0.055171, -0.021684, -0.041783, -0.014061, -0.090302, 0.076824, -0.064437, 
    -0.139000, -0.184440, 0.052386, -0.189623, 0.078054, -0.063519, -0.095830, 0.008722, -0.098117, 0.163538, 
    0.183781, -0.040259, -0.036209, -0.064750, -0.062076, -0.047883, -0.046605, -0.163950, 0.057700, 0.218601, 
    0.177454, 0.011503, -0.124977, 0.006490, -0.052485, 0.150839, -0.057503, -0.022516, -0.056101, -0.005822, 
    0.190074, 0.066546, 0.137229, 0.075717, 0.059201, -0.124843, 0.016091, 0.125092, 0.024107, 0.125508, 
    0.027684, -0.028731, 0.094235, 0.056353, 0.096417, 0.167937, 0.125011, 0.166219, -0.008289, -0.145472, 
    -0.126536, -0.127783, -0.174204, -0.119802, -0.129119, -0.153252, -0.123166, -0.219059, -0.166959, -0.025426, 
    0.153882, -0.013794, -0.021550, 0.052258, -0.092672, -0.069546, 0.070270, -0.140670, 0.015008, 0.163133, 
    0.056453, 0.061223, -0.047849, 0.034934, 0.032229, -0.021538, -0.004755, 0.072738, -0.085329, 0.005898, 
    -0.066625, -0.174433, -0.056584, -0.143547, 0.174151, 0.077088, -0.044808, 0.095342, -0.135322, -0.106275, 
    0.003412, -0.084189, -0.039228, 0.072810, 0.207651, 0.234001, 0.152819, -0.023843, -0.034743, 0.172700, 
    0.087719, 0.032181, 0.018265, -0.145005, -0.064646, 0.205670, 0.034826, 0.053345, -0.104111, -0.061366, 
    0.014218, -0.086048, -0.008835, 0.093534, -0.089509, 0.098302, -0.055194, -0.033371, 0.098264, 0.142244, 
    0.009018, -0.014774, -0.080680, -0.036464, -0.096105, -0.017783, 0.052801, -0.103958, 0.171963, 0.106875, 
    -0.138052, -0.080426, 0.047997, -0.036820, -0.014789, -0.033969, 0.146088, -0.048421, 0.116206, 0.023760, 
    0.057489, 0.143665, -0.005058, -0.080459, 0.030536, 0.158724, -0.090171, 0.089876, -0.093299, 0.119732, 
    0.093298, 0.053642, 0.110469, 0.104416, 0.162458, -0.071286, 0.014850, 0.103708, 0.190820, 0.156848, 
    -0.035450, 0.164406, -0.003341, -0.036411, -0.173431, 0.010622, 0.132536, 0.040729, -0.079169, 0.069345, 
    0.000052, 0.207090, -0.057308, 0.013751, -0.142050, -0.056286, 0.052833, 0.177890, 0.070077, 0.192892, 
    0.054127, 0.109525, 0.130423, 0.119281, -0.091865, 0.119404, 0.088011, -0.044375, -0.008757, -0.123487, 
    0.044055, -0.109335, 0.088850, 0.073130, -0.096459, 0.110483, 0.055574, 0.139059, 0.142690, -0.076843, 
    0.192645, 0.178743, 0.116853, -0.076478, -0.007372, 0.007817, 0.018790, 0.132415, 0.098459, 0.157093, 
    0.005261, 0.110824, 0.108180, -0.155140, -0.171824, -0.092863, 0.078133, -0.146358, -0.117465, 0.154238, 
    0.148592, 0.186083, -0.103972, -0.108750, 0.071118, 0.203106, 0.167194, 0.107150, 0.026221, 0.110842, 
    -0.150730, -0.062736, 0.099254, -0.081333, -0.023331, 0.151856, 0.091924, 0.082518, -0.031143, 0.008609, 
    0.219906, 0.003891, 0.083508, 0.143979, -0.026327, 0.209373, -0.012192, 0.024394, 0.021335, -0.041216, 
    -0.083456, 0.137075, 0.094720, -0.087087, -0.042001, 0.209192, 0.128348, 0.128162, -0.072966, -0.048639, 
    -0.001219, -0.014452, -0.089753, 0.015434, 0.038828, 0.003532, 0.044777, 0.003403, 0.101070, 0.111596, 
    -0.083738, -0.156787, 0.068210, 0.038245, -0.064769, 0.155675, -0.035427, 0.117323, 0.101233, -0.116622, 
    0.082086, -0.137484, -0.070785, -0.018650, -0.085368, 0.234827, 0.061274, 0.141948, -0.068158, 0.136741, 
    0.010843, -0.124394, 0.000195, 0.046724, 0.102729, -0.119891, -0.102087, 0.085718, 0.096343, 0.119126, 
    0.091958, -0.031997, 0.078889, 0.106081, -0.041281, 0.106401, 0.133092, 0.189133, -0.010981, -0.019052, 
    0.012537, 0.057237, 0.098794, -0.076297, 0.073222, -0.068753, 0.066978, -0.030001, -0.103186, -0.045749, 
    -0.065201, 0.078026, -0.091750, -0.010024, 0.059537, -0.056417, 0.030198, -0.116287, -0.092692, -0.127470, 
    -0.068131, -0.057537, 0.034375, 0.036032, 0.128770, 0.182142, 0.106625, -0.000339, -0.090518, 0.133189, 
    0.006863, 0.145137, 0.163721, 0.127328, 0.197214, 0.239620, 0.124650, -0.023927, 0.188923, -0.008834, 
    -0.010792, 0.197163, 0.178733, 0.110167, 0.079232, -0.068914, 0.029073, 0.159354, 0.057593, 0.021075, 
    -0.059009, -0.059615, 0.100667, 0.104139, 0.190811, 0.070230, 0.075410, 0.071834, 0.025575, 0.198521, 
    0.196346, 0.238862, 0.055408, -0.093639, -0.187364, 0.033650, 0.024517, -0.022376, 0.032322, 0.069571, 
    0.158930, -0.016072, -0.111725, -0.112735, -0.006158, -0.015624, 0.171925, 0.151191, 0.208616, 0.079994, 
    0.120223, 0.145095, -0.041186, 0.035297, 0.024261, -0.041675, -0.026125, 0.214932, 0.199396, 0.143431, 
    0.213591, 0.015730, -0.003637, 0.078559, 0.001731, 0.029059, -0.052029, 0.113508, -0.082152, 0.001935, 
    0.119336, 0.024987, 0.032860, 0.167196, 0.017559, 0.059383, 0.204965, -0.091471, -0.181531, -0.184626, 
    0.018262, 0.005848, 0.011002, 0.120400, 0.084135, 0.024022, -0.039593, 0.008289, -0.043434, -0.083492, 
    -0.174425, 0.008753, -0.121820, -0.177661, -0.211839, 0.068534, -0.127596, -0.130094, 0.135245, 0.062669, 
    0.030666, -0.137616, -0.113008, -0.050170, 0.133602, 0.000839, -0.146465, -0.027303, -0.170134, -0.102771, 
    -0.006419, 0.159871, 0.092613, 0.029474, 0.070077, 0.000068, 0.159757, 0.157148, 0.133590, -0.070801, 
    0.096299, -0.060327, 0.019006, 0.170444, 0.199345, 0.149407, 0.035572, -0.065659, 0.176666, 0.233427, 
    -0.026028, 0.076641, -0.002582, 0.122839, 0.114248, 0.011358, 0.009749, 0.147469, 0.059772, -0.028617, 
    0.177854, -0.017402, 0.035292, 0.032024, 0.017987, -0.114810, 0.037049, -0.101749, -0.132866, 0.009859, 
    -0.094032, -0.076105, -0.036354, -0.052142, -0.065693, -0.080719, -0.005664, -0.135413, -0.089716, 0.010528, 
    0.044078, 0.121231, -0.075322, 0.059939, 0.153795, 0.144630, -0.075072, -0.141523, -0.195656, -0.144115, 
    0.103025, 0.012551, 0.102974, -0.046764, 0.057492, -0.064989, 0.069748, -0.063936, -0.025995, -0.096273, 
    0.023519, 0.165073, 0.113292, -0.021836, 0.058712, -0.046528, -0.148071, 0.079285, -0.010758, 0.022098, 
    -0.068716, 0.010627, 0.103653, 0.135660, 0.124910, 0.025645, 0.228112, 0.012848, -0.069915, -0.072783, 
    0.212368, 0.077932, 0.058008, -0.008598, 0.010162, -0.065368, -0.094928, 0.094664, 0.122435, 0.138295, 
    -0.099389, 0.078648, -0.064427, 0.115016, 0.140094, 0.183577, 0.176489, 0.158760, 0.040858, 0.102464, 
    -0.009160, 0.105461, -0.006530, 0.035286, -0.088429, -0.030824, -0.063270, -0.042065, -0.081485, -0.114800, 
    0.012950, 0.090340, 0.144016, 0.103771, -0.058636, -0.140645, 0.095643, 0.116627, -0.089286, 0.125879, 
    0.194130, 0.079845, -0.009216, 0.194944, 0.139153, 0.164894, -0.021780, 0.157646, -0.023117, 0.215792, 
    0.008777, 0.163034, 0.104106, 0.109506, 0.024496, 0.105857, -0.015681, -0.166607, -0.077274, 0.084286, 
    -0.038230, 0.056313, -0.028467, 0.189183, 0.168550, 0.133721, -0.028430, -0.076369, 0.039737, -0.177935, 
    0.016107, -0.248518, 0.147205, 0.229271, 0.160771, 0.088180, -0.097143, 0.168176, 0.001054, -0.110637, 
    0.180902, -0.015849, 0.085601, 0.258953, -0.149679, -0.098535, 0.049757, -0.032028, 0.047542, -0.072609, 
    -0.032142, -0.125281, -0.124921, -0.080995, 0.142013, 0.089896, -0.127173, 0.104608, 0.024516, -0.050405, 
    -0.177883, -0.061174, 0.192765, 0.155526, -0.061690, 0.166095, 0.056284, 0.112130, 0.188257, 0.204523, 
    -0.023571, 0.101034, -0.144334, -0.030710, -0.063585, 0.008798, 0.036492, -0.024386, -0.049052, -0.027422, 
    0.211853, 0.160488, 0.156589, 0.121695, 0.174324, 0.067399, 0.047799, 0.069075, -0.089120, -0.081644, 
    0.044789, -0.037291, 0.013087, -0.016966, 0.026437, 0.099409, -0.048364, 0.111539, 0.113060, -0.134543, 
    -0.147270, -0.081062, -0.056121, -0.029086, -0.017531, -0.050315, -0.084479, -0.078999, -0.094312, 0.107108, 
    -0.002891, -0.049432, 0.115187, 0.044043, 0.165270, 0.130663, 0.171425, -0.055268, 0.137297, 0.137421, 
    -0.068661, 0.120338, 0.144875, 0.040103, 0.109991, -0.011733, -0.098899, 0.057660, 0.095943, -0.024371, 
    0.139134, -0.065217, 0.185907, 0.202782, 0.101674, -0.032902, 0.121267, 0.117031, 0.136656, 0.133900, 
    0.192915, 0.015552, 0.036102, 0.062619, 0.026169, 0.114025, -0.072615, -0.017024, 0.006098, 0.026372, 
    0.171076, 0.087369, -0.110009, -0.003827, -0.063742, 0.022277, -0.021609, -0.157844, 0.009070, 0.027364, 
    -0.001839, 0.218323, 0.048671, 0.166186, 0.092762, -0.068506, 0.087050, 0.126830, -0.098028, -0.104097, 
    0.177074, 0.149773, -0.054384, 0.106720, -0.017285, -0.147831, -0.016294, 0.032382, -0.049063, 0.042974, 
    -0.121798, 0.107571, 0.185648, 0.121922, 0.035432, 0.019481, -0.138409, -0.077044, -0.027849, -0.093361, 
    -0.130000, 0.164727, 0.152708, -0.082702, 0.136845, 0.141984, 0.208155, 0.169474, 0.217186, 0.036922, 
    0.182181, 0.186512, -0.088514, -0.038946, 0.090546, 0.133699, -0.057179, 0.029130, 0.016156, 0.000829, 
    -0.107389, 0.056402, 0.148817, -0.056458, 0.017410, 0.084279, 0.129280, 0.214867, 0.079345, 0.010052, 
    0.177531, -0.015141, -0.006063, 0.041658, -0.130111, -0.014453, -0.129261, 0.034221, 0.024968, 0.035382, 
    -0.114558, -0.117498, 0.086483, 0.088902, -0.166126, 0.003338, -0.083368, 0.027249, 0.145328, 0.185717, 
    -0.034355, 0.155712, 0.150756, 0.077930, 0.212484, -0.000234, 0.015682, -0.020643, 0.087711, 0.105091, 
    0.079495, -0.019000, -0.004724, 0.098681, -0.126273, -0.010811, 0.001991, -0.065500, 0.044388, 0.007408, 
    0.110404, 0.001429, -0.062872, 0.176276, 0.096896, 0.032208, -0.099635, 0.050665, -0.110005, 0.000014, 
    0.043518, -0.142141, -0.101289, -0.136228, 0.085176, 0.054911, -0.056092, 0.075898, -0.031488, -0.084634, 
    0.118935, 0.128073, 0.220622, 0.074730, 0.166935, 0.147456, 0.160183, -0.106356, 0.150072, -0.100370, 
    0.099877, -0.015249, -0.151051, 0.066289, -0.018508, -0.120886, -0.050650, 0.024228, 0.112801, -0.046304, 
    0.098191, 0.037422, -0.018463, -0.003150, -0.110804, -0.112526, -0.037341, -0.139844, -0.054606, 0.043700, 
    -0.054939, -0.070823, -0.038943, -0.038440, -0.078001, -0.017546, -0.053875, -0.004000, -0.049907, -0.131556, 
    -0.002300, 0.048739, -0.047328, 0.012589, -0.029747, 0.000219, 0.005709, 0.061841, -0.048377, -0.042277, 
    0.134986, -0.036675, 0.014162, -0.014603, -0.038253, -0.062251, 0.105241, 0.054413, 0.013461, 0.092236, 
    -0.169362, 0.105149, 0.182842, 0.178812, -0.155760, 0.014336, -0.128315, 0.000313, -0.025894, -0.143837, 
    -0.088979, -0.046579, 0.105800, 0.079726, -0.111254, -0.049473, -0.011612, -0.158832, 0.064521, 0.182788, 
    0.073270, -0.087165, 0.134074, 0.158687, 0.220280, -0.070073, -0.122353, 0.063333, 0.057412, 0.004599, 
    0.006410, -0.026995, 0.176156, 0.039348, 0.211806, 0.234992, 0.126181, 0.078569, 0.035253, 0.144033, 
    -0.147671, 0.031921, -0.051889, 0.071267, -0.004677, -0.068909, 0.055375, 0.154711, -0.025502, -0.132872, 
    -0.091806, -0.128476, 0.153546, 0.197499, 0.087022, 0.116699, -0.099698, -0.105153, -0.143151, -0.198644, 
    -0.184982, -0.053125, -0.059936, 0.109017, 0.202098, 0.248168, 0.235753, -0.051864, -0.030299, -0.154360, 
    0.051167, -0.144052, 0.064989, 0.099604, 0.119400, 0.129320, -0.031452, 0.158653, 0.110214, 0.128641, 
    0.056199, 0.121234, 0.117694, 0.086220, 0.120896, 0.028942, 0.151758, 0.094520, 0.161854, 0.214069, 
    0.108144, -0.053080, -0.008769, 0.048254, -0.012415, -0.066879, 0.087685, 0.144626, -0.033520, 0.041447, 
    -0.044588, -0.111748, -0.002738, -0.027903, -0.056504, -0.034287, 0.025800, 0.217252, 0.134847, 0.213100, 
    0.109134, 0.107266, 0.061485, 0.021338, -0.121951, -0.100032, -0.048017, -0.018835, 0.095994, 0.100283, 
    0.153264, 0.015657, -0.074055, -0.162262, -0.037525, -0.013001, 0.114310, 0.141210, 0.183444, 0.010134, 
    -0.008293, -0.059332, -0.031686, 0.002142, -0.042734, -0.020953, -0.013153, 0.022502, -0.092222, -0.108831, 
    0.026113, -0.026625, -0.096139, 0.027899, -0.030178, -0.042316, -0.089985, -0.038260, -0.161140, -0.004159, 
    -0.033825, 0.034873, -0.047723, -0.047957, 0.094050, 0.168277, -0.006062, 0.131377, 0.061702, -0.089693, 
    0.078420, -0.069357, -0.031008, -0.127809, -0.161649, 0.058051, -0.117265, 0.065746, -0.147376, 0.057879, 
    0.084940, 0.174984, -0.055179, 0.047420, 0.022646, 0.085011, 0.026935, 0.059388, -0.059571, -0.109882, 
    0.110457, -0.047688, 0.023308, 0.013651, 0.232913, 0.051533, -0.044574, -0.000116, 0.094394, 0.056963, 
    0.131906, -0.013445, 0.077687, -0.119795, 0.119449, 0.139871, 0.106649, -0.088363, -0.051100, 0.112376, 
    -0.029338, -0.061463, -0.118489, 0.062631, 0.151761, 0.100724, 0.073265, 0.109675, -0.108215, -0.029355, 
    -0.100150, -0.017049, 0.183840, -0.047078, 0.070642, -0.073053, 0.055629, -0.117492, -0.001630, -0.121465, 
    0.127806, -0.117914, 0.060983, -0.118585, 0.055879, -0.082290, 0.005802, 0.003088, 0.151201, 0.111778, 
    -0.063921, 0.071952, -0.092117, 0.123088, 0.054704, -0.053625, -0.082595, 0.051611, -0.086102, 0.085998, 
    0.092974, 0.099884, 0.028664, -0.152046, 0.146569, 0.003057, 0.012056, -0.023248, 0.106172, 0.122048, 
    0.014995, 0.033709, -0.190806, -0.005927, -0.127165, 0.049413, -0.077540, 0.001321, 0.166264, 0.126033, 
    -0.116228, -0.109586, 0.057027, 0.097518, 0.020586, -0.056663, -0.105588, 0.054656, 0.225539, 0.025940, 
    0.169841, 0.118121, 0.171497, 0.046870, 0.036655, 0.140465, 0.108233, 0.204303, 0.033719, 0.132275, 
    0.145103, -0.044379, 0.078687, -0.049399, 0.076004, -0.094772, -0.033566, 0.030599, -0.196992, -0.127337, 
    -0.081026, 0.113502, 0.071847, -0.127596, -0.010296, -0.122687, -0.103730, 0.101524, 0.070605, -0.036093, 
    0.045970, 0.080370, 0.078154, -0.017813, -0.034172, 0.147540, 0.057929, 0.001200, -0.111304, 0.026073, 
    0.155406, 0.136649, 0.085086, 0.187318, 0.041977, 0.070465, 0.191946, 0.203710, 0.002554, 0.195320, 
    0.120715, 0.047999, 0.190548, -0.024441, 0.152392, 0.182218, -0.049671, -0.017089, -0.082977, 0.026486, 
    -0.073116, -0.071739, 0.017590, 0.068960, 0.067687, 0.062452, 0.028285, -0.127754, -0.134793, -0.022572, 
    0.149821, 0.019574, -0.004921, -0.109436, -0.086383, -0.127116, 0.129829, 0.003602, -0.099728, 0.073072, 
    0.061721, 0.028057, 0.112502, 0.134925, -0.084498, -0.190196, -0.085947, -0.223733, -0.155256, 0.102212, 
    -0.032998, -0.121965, -0.098360, -0.152304, 0.164350, 0.022839, -0.036105, -0.113656, 0.073060, -0.032796, 
    -0.025859, -0.060442, -0.090560, 0.095329, 0.180174, -0.022414, 0.037689, -0.084076, -0.048028, 0.161979, 
    0.031442, 0.163608, -0.040324, -0.094369, -0.091601, 0.194878, -0.036077, 0.151915, -0.008326, 0.001709, 
    0.039742, -0.030483, 0.089070, -0.107556, 0.002465, 0.169341, 0.110271, -0.041151, -0.055713, -0.110027, 
    0.100675, -0.001275, -0.000914, 0.082991, 0.150859, -0.031891
};

// PyTorch Layer: conv2.bias (Shape: (32,))
static const data_t conv2_b[32] = {
0.058873, 0.136759, 0.145008, -0.037093, -0.115077, 0.069261, 0.134095, 0.081786, 0.118565, -0.077166, 
    0.099071, -0.057892, 0.097180, 0.174729, 0.136351, 0.119161, -0.085847, -0.079310, -0.095415, 0.161431, 
    0.037618, -0.103663, 0.102187, 0.184041, -0.063910, 0.164460, 0.072364, 0.061100, 0.156113, 0.200532, 
    0.132246, 0.129044
};

// PyTorch Layer: fc1.weight (Shape: (32, 480))
static const data_t fc1_w[15360] = {
0.018989, 0.007437, -0.040121, 0.008525, -0.032473, 0.014052, 0.008053, 0.001025, -0.031208, -0.027669, 
    0.033737, 0.022229, 0.024065, -0.013601, -0.007860, -0.018007, 0.025079, -0.026013, 0.022440, 0.025163, 
    -0.048052, -0.006031, -0.015002, -0.031542, 0.013395, -0.011855, 0.033652, -0.034878, 0.014898, -0.045280, 
    -0.022878, 0.003113, 0.036063, 0.024041, -0.037477, 0.005056, -0.026906, 0.001978, -0.044325, -0.019691, 
    0.025001, -0.048178, -0.043518, 0.008314, 0.006257, -0.014657, 0.033548, -0.027481, -0.027709, -0.034117, 
    -0.008495, -0.011648, 0.028242, -0.008871, 0.008267, -0.025277, 0.030716, 0.032169, -0.047187, -0.018040, 
    -0.038728, 0.019391, -0.039878, -0.027877, 0.039297, -0.049895, 0.027368, 0.003856, 0.036498, -0.023164, 
    0.029980, 0.005507, 0.003511, 0.031153, -0.043385, -0.036764, 0.044081, -0.027409, -0.032900, -0.002232, 
    -0.014611, -0.006245, -0.030581, 0.016469, -0.039275, 0.003697, 0.026635, 0.008770, 0.006065, 0.006676, 
    -0.019680, -0.015004, -0.025557, -0.037143, -0.030476, 0.038812, -0.013948, 0.009680, 0.025256, -0.009843, 
    -0.024555, -0.030925, -0.016815, 0.016292, -0.038439, -0.011880, 0.011053, 0.030930, 0.007428, 0.009027, 
    0.024940, 0.014783, 0.009133, -0.020461, -0.042911, -0.016169, -0.014588, -0.002958, -0.011330, 0.012143, 
    0.024023, -0.024815, -0.049619, -0.029728, -0.028149, 0.019563, -0.035752, -0.010603, -0.015983, -0.034012, 
    0.014380, -0.025323, -0.008671, -0.038401, -0.010913, 0.000176, -0.008167, -0.023364, 0.013560, -0.011826, 
    -0.025305, -0.033659, -0.009669, -0.049410, 0.031576, -0.028115, -0.025225, -0.002091, 0.005523, -0.010614, 
    0.025003, -0.032918, 0.010048, -0.006413, -0.043439, -0.023987, 0.005306, 0.002410, 0.026879, 0.024226, 
    -0.031205, -0.025801, -0.015988, -0.039010, -0.018633, -0.043660, 0.011050, 0.025986, -0.002696, -0.038984, 
    -0.040871, -0.017769, 0.013276, -0.005194, 0.001990, 0.036709, 0.014889, 0.003505, -0.015544, 0.015282, 
    0.010388, -0.047394, -0.033272, -0.004778, 0.011010, 0.015897, -0.033480, -0.051593, -0.008687, -0.011528, 
    0.006935, -0.018862, 0.028586, -0.003264, 0.027021, -0.031782, 0.018259, 0.005439, -0.022829, 0.022628, 
    -0.044914, 0.036901, 0.003678, 0.004407, 0.021108, 0.003789, 0.019565, 0.029039, -0.035623, 0.030196, 
    -0.006835, -0.010614, 0.009187, 0.035700, -0.024813, -0.030761, 0.028327, -0.021437, 0.014695, -0.006724, 
    0.012564, 0.034831, -0.023132, -0.022149, 0.016419, -0.003810, -0.011333, -0.046402, 0.032363, -0.008038, 
    -0.014716, -0.025045, -0.015316, 0.015875, -0.007359, 0.032725, -0.008945, -0.012858, 0.019454, -0.007491, 
    -0.015420, 0.008946, 0.029686, 0.005081, 0.025473, 0.023269, 0.006598, 0.009561, 0.008419, -0.001575, 
    0.032521, 0.035826, 0.009939, -0.008589, 0.034614, -0.035525, 0.033538, 0.024183, 0.023001, -0.009816, 
    -0.040363, 0.032559, -0.019958, 0.012009, 0.025859, -0.042655, 0.003029, -0.016214, 0.032396, -0.029061, 
    0.021405, 0.028462, 0.025182, 0.043818, 0.006913, -0.041370, 0.032583, 0.004179, 0.000906, -0.043480, 
    -0.016557, -0.028463, 0.038394, 0.026190, 0.027740, 0.024949, -0.034603, -0.025912, -0.024172, -0.024607, 
    0.029221, 0.009199, 0.030267, -0.008445, -0.046997, -0.019552, 0.025769, 0.021479, 0.007820, -0.019698, 
    -0.048912, -0.030835, 0.017488, -0.024720, 0.015524, 0.006153, -0.023841, 0.021491, -0.020976, -0.007826, 
    -0.023696, -0.049606, 0.001050, 0.006880, -0.029290, 0.021690, -0.040945, -0.043999, -0.028192, -0.015775, 
    -0.005069, -0.008821, 0.020831, -0.046366, 0.000411, -0.005519, 0.005746, 0.039064, 0.021781, -0.031583, 
    -0.043712, -0.017360, -0.029206, 0.009634, -0.005891, 0.030403, 0.011620, -0.014702, -0.004741, 0.004621, 
    -0.011973, 0.030522, -0.041998, 0.015937, -0.035405, -0.039987, -0.015680, 0.015933, 0.025940, 0.005144, 
    -0.010254, -0.008868, -0.024812, -0.010405, -0.009460, 0.038841, 0.026713, -0.036525, 0.000189, -0.034384, 
    -0.007245, -0.036276, 0.011866, -0.032913, 0.045060, 0.034470, -0.031419, -0.042972, 0.001781, -0.012741, 
    0.013399, -0.030897, 0.018684, -0.039425, -0.024089, -0.030305, 0.015777, -0.007505, -0.050175, -0.032378, 
    -0.027433, -0.048659, -0.000465, 0.009955, -0.014684, -0.024473, -0.006587, -0.042564, -0.034102, -0.007351, 
    0.040549, -0.014036, 0.022624, -0.024272, -0.018459, -0.049759, 0.031506, 0.038136, -0.000959, 0.029001, 
    0.037334, 0.022672, 0.023507, -0.043452, -0.042890, -0.035033, 0.014277, -0.039481, -0.034842, -0.022124, 
    -0.042069, 0.000062, 0.006585, -0.026711, 0.029886, -0.017328, -0.012850, 0.034775, 0.039187, -0.011546, 
    -0.039076, -0.029207, -0.000496, 0.020447, 0.016414, -0.026465, -0.049459, -0.046254, -0.020831, -0.005737, 
    -0.026812, -0.042400, -0.001499, -0.042539, -0.041360, -0.043414, -0.018677, 0.034006, 0.011533, -0.011721, 
    0.003084, 0.011866, -0.006043, -0.043124, -0.034420, -0.031008, -0.001159, -0.041782, -0.008299, -0.016691, 
    0.044793, 0.037100, 0.026512, 0.002560, -0.014778, 0.011642, -0.031536, -0.019467, -0.009169, -0.010724, 
    -0.043238, 0.018145, 0.037587, -0.025176, 0.012304, -0.011602, -0.007974, -0.003649, 0.033244, -0.000194, 
    -0.035187, -0.022728, 0.015988, 0.007934, -0.005422, -0.012333, -0.024068, -0.022508, -0.030374, 0.001169, 
    0.012819, 0.034951, -0.010311, 0.003268, 0.023987, 0.019855, -0.000136, 0.008021, -0.003636, -0.045155, 
    -0.004692, -0.009977, 0.041189, 0.041199, 0.003050, 0.034770, -0.029643, 0.033667, 0.033293, -0.007834, 
    -0.042696, -0.020734, -0.018354, -0.005381, -0.047388, 0.002405, -0.025055, -0.017833, -0.029674, -0.016000, 
    -0.048396, -0.030204, -0.001800, 0.023904, 0.035473, -0.040536, 0.013161, -0.031734, -0.041295, -0.008180, 
    -0.032188, -0.045315, -0.048660, -0.036557, 0.031502, 0.019450, -0.024073, -0.036691, -0.041306, -0.032959, 
    -0.024788, 0.021030, 0.008932, -0.023595, 0.023885, -0.034359, -0.043188, 0.009962, -0.031172, 0.006980, 
    0.033116, -0.027140, -0.031851, 0.017180, -0.041223, 0.040722, -0.021555, 0.022067, -0.042290, -0.036900, 
    -0.000978, 0.010217, 0.029386, 0.032168, -0.008630, -0.005868, 0.007545, -0.010603, -0.004001, -0.048782, 
    -0.043474, 0.025273, -0.032956, 0.029894, -0.000996, 0.003454, 0.035466, -0.031392, -0.013210, 0.002083, 
    0.015594, -0.044421, 0.010676, -0.032472, 0.000442, 0.025330, -0.010102, -0.006998, -0.008952, 0.032535, 
    0.020386, 0.002130, -0.027469, -0.030747, 0.030353, 0.026832, 0.020423, -0.041594, 0.029434, -0.010908, 
    0.027623, 0.033639, -0.001541, -0.026007, 0.036930, -0.030730, 0.024269, -0.043767, -0.014355, -0.045996, 
    -0.026709, 0.013227, -0.038710, -0.045491, 0.026516, 0.018319, -0.006505, -0.038353, -0.018248, -0.020784, 
    0.022034, -0.021125, -0.019530, -0.038978, -0.027982, 0.018709, 0.023402, 0.000626, -0.023131, 0.037776, 
    0.003004, -0.023635, -0.022143, -0.006388, 0.021639, 0.011139, 0.029580, -0.002057, 0.037751, -0.018540, 
    -0.027190, -0.023168, -0.049410, -0.036773, -0.047533, -0.009222, -0.006018, -0.017990, -0.037471, 0.035242, 
    -0.021255, 0.015547, 0.025512, -0.036283, -0.011936, 0.026380, 0.038240, -0.011905, 0.026746, -0.042086, 
    -0.035662, 0.031402, -0.010445, 0.039090, -0.002237, -0.024483, 0.043348, 0.039915, -0.001293, -0.033221, 
    -0.008011, -0.027974, 0.027199, -0.003933, 0.003581, 0.021615, 0.009035, -0.034545, 0.031636, 0.021390, 
    -0.034220, 0.028403, 0.006737, -0.015543, -0.039002, -0.007573, -0.044751, 0.026052, 0.033057, -0.013141, 
    0.036310, -0.022907, 0.001811, -0.037814, -0.007935, 0.012445, 0.013655, -0.007536, -0.029022, 0.025899, 
    0.030219, 0.007325, -0.020990, 0.009678, -0.005432, 0.035695, 0.000759, -0.002617, -0.002966, 0.018277, 
    -0.006719, 0.032982, 0.017775, -0.040495, -0.006006, -0.044907, -0.041128, 0.002713, 0.004081, -0.010080, 
    0.037247, -0.030634, -0.025165, -0.013418, -0.005874, -0.009907, 0.034941, -0.025283, -0.029880, -0.002145, 
    0.028153, 0.004804, 0.018584, 0.002751, 0.032790, 0.021393, 0.026575, -0.012347, -0.044060, -0.021652, 
    0.009992, 0.026465, -0.023376, 0.032213, -0.001859, 0.000181, -0.003771, -0.013613, 0.042731, 0.001983, 
    0.027957, -0.038524, -0.029519, -0.000875, 0.030269, 0.015725, 0.002688, -0.051100, -0.005147, -0.036134, 
    -0.038974, 0.006241, -0.034884, 0.035422, -0.030815, 0.008704, 0.020786, -0.041480, 0.017354, -0.012117, 
    0.017646, 0.038166, -0.025448, -0.025772, 0.030263, -0.001199, -0.010733, 0.028360, -0.028517, -0.008859, 
    0.025062, 0.011623, -0.035763, 0.005573, -0.041065, -0.031141, 0.023015, -0.018201, -0.029254, -0.003015, 
    0.004726, -0.034474, -0.036786, -0.050210, 0.005705, -0.035456, -0.002527, -0.016268, -0.035872, -0.020570, 
    -0.041267, -0.030248, -0.007428, -0.045081, -0.046230, 0.034190, 0.004295, -0.020186, -0.007025, 0.033848, 
    -0.038079, -0.029424, -0.033007, -0.003318, -0.001571, -0.035570, 0.031680, -0.035051, 0.042614, -0.031420, 
    -0.012498, 0.002082, -0.025845, 0.036418, -0.037026, -0.008086, -0.041178, 0.005276, 0.032091, 0.034877, 
    -0.000140, -0.028408, 0.038805, -0.002150, 0.024345, -0.029904, -0.027188, -0.043896, 0.035992, 0.001481, 
    -0.038829, -0.002085, -0.025696, -0.003791, 0.009145, -0.029037, 0.001342, -0.034834, 0.002790, -0.050133, 
    0.001268, 0.039342, 0.036037, 0.010644, 0.027580, 0.038372, 0.006929, 0.009218, -0.000070, 0.034404, 
    0.033205, -0.027462, -0.001876, -0.029002, 0.010374, -0.050351, 0.010039, -0.018681, 0.010335, 0.008059, 
    -0.028829, 0.017366, 0.013064, -0.044989, 0.039169, 0.032864, 0.022197, -0.010886, 0.009848, -0.030978, 
    -0.021058, 0.015988, 0.020319, 0.012525, -0.049073, 0.032278, -0.024613, 0.033949, 0.032058, 0.010889, 
    0.039153, 0.020131, 0.020628, -0.021880, 0.036069, 0.005891, 0.020963, -0.016326, 0.027051, 0.034485, 
    -0.034974, 0.031414, -0.030165, -0.037428, -0.038144, 0.007187, -0.034270, -0.017182, -0.022944, 0.012199, 
    -0.050859, -0.027184, -0.006037, -0.001948, -0.027059, 0.007938, -0.038590, -0.044660, -0.012960, -0.030936, 
    0.022765, -0.037428, -0.010030, 0.012691, -0.046209, 0.029229, -0.026862, -0.018601, -0.034230, -0.023207, 
    -0.023739, -0.046884, 0.009217, -0.006404, 0.038381, 0.024490, 0.033528, 0.007312, 0.017834, 0.036612, 
    0.031470, -0.041078, -0.016240, -0.050027, -0.004279, -0.022126, 0.033609, 0.001211, -0.005503, -0.039022, 
    -0.041823, 0.001180, -0.028685, -0.026967, 0.026011, -0.031605, -0.026801, 0.028904, 0.011583, -0.032806, 
    0.007545, 0.016865, -0.046860, 0.002345, 0.004423, -0.007947, 0.037554, -0.036247, 0.018650, -0.030396, 
    -0.058205, -0.003130, -0.074519, -0.041631, -0.006912, -0.084153, -0.105716, -0.038881, 0.023266, -0.011184, 
    0.068744, 0.072651, 0.078395, 0.040772, 0.108375, -0.006036, -0.017576, 0.031026, 0.001153, 0.052688, 
    -0.004635, -0.019488, -0.019390, -0.040601, -0.055262, -0.105386, -0.100636, -0.059531, -0.060202, -0.054724, 
    -0.003931, -0.039174, -0.065222, 0.005324, 0.030613, -0.009414, 0.034569, -0.014435, 0.030685, 0.070479, 
    0.055789, 0.068018, 0.073022, 0.099388, 0.111165, -0.007137, -0.003812, 0.032706, 0.002350, -0.019285, 
    -0.045712, -0.032140, -0.019756, 0.074490, 0.053205, 0.002461, 0.032284, 0.078888, 0.059355, 0.066588, 
    0.028402, 0.025716, 0.033564, -0.007269, -0.002781, 0.019653, 0.051690, 0.043581, 0.013354, 0.021966, 
    -0.009424, 0.042102, 0.005478, -0.006958, -0.028662, -0.030798, -0.045962, -0.050043, -0.094686, -0.031933, 
    -0.018545, -0.037746, -0.015998, 0.043949, 0.013824, 0.085222, 0.068157, 0.072110, 0.092591, 0.074102, 
    0.084956, 0.082186, 0.046935, 0.027916, -0.007496, -0.024524, -0.011629, 0.026935, 0.028081, 0.008705, 
    0.023444, 0.118711, 0.016830, -0.005018, 0.034512, -0.013099, -0.032316, -0.020454, 0.002116, 0.083165, 
    -0.025381, 0.021923, 0.023192, 0.001502, -0.012347, 0.034885, 0.053580, 0.090461, 0.089005, 0.001446, 
    0.104245, 0.071614, 0.042333, 0.075494, 0.015975, -0.030433, -0.016202, -0.034369, -0.057754, -0.081774, 
    -0.024204, -0.002707, -0.064039, -0.079698, -0.050208, 0.031126, 0.008923, 0.049878, 0.075471, -0.036903, 
    -0.045737, -0.092439, -0.125742, -0.086407, -0.071764, -0.068152, -0.041706, -0.053339, -0.033002, -0.034081, 
    0.015508, 0.044323, 0.010297, 0.031160, -0.002664, -0.064142, -0.033549, -0.044113, -0.035390, -0.010107, 
    0.006111, -0.001875, 0.008819, -0.046645, -0.036386, 0.074648, 0.015688, 0.084437, 0.105058, 0.085667, 
    0.021009, -0.040180, -0.026874, -0.044711, -0.042749, 0.004011, -0.033031, -0.059169, -0.063365, 0.003739, 
    -0.014814, 0.040420, 0.034156, 0.007865, 0.044621, 0.046031, 0.009110, -0.032059, -0.094657, -0.084306, 
    -0.028611, -0.086168, -0.028393, -0.037088, -0.008296, -0.000484, -0.094804, -0.095963, -0.027095, 0.000336, 
    0.107657, 0.065628, 0.110069, 0.058864, 0.054130, 0.080967, 0.050319, 0.049348, 0.057757, 0.045605, 
    -0.075148, -0.062020, -0.134952, -0.051589, 0.000780, -0.022363, -0.039707, -0.036105, 0.038933, 0.072688, 
    0.069700, 0.030708, 0.047127, 0.078349, 0.040011, -0.031862, -0.051936, 0.031083, 0.035041, 0.060973, 
    0.005400, 0.047345, -0.000860, -0.006465, 0.036609, -0.020622, 0.053809, 0.051595, 0.007693, 0.054232, 
    0.021607, 0.038763, 0.067509, 0.042396, 0.064584, 0.046146, -0.007143, -0.053116, -0.063324, -0.072424, 
    -0.085306, -0.083706, -0.057957, -0.036956, -0.008996, 0.025064, -0.011743, -0.020054, -0.041888, -0.087420, 
    -0.066035, 0.023572, 0.085940, 0.078374, 0.032698, 0.097975, 0.040058, 0.093930, 0.069462, 0.070269, 
    -0.075264, -0.028852, -0.005551, 0.004484, -0.033707, 0.049380, 0.006363, -0.002435, 0.025228, 0.060990, 
    0.056837, 0.083409, 0.039727, 0.054335, 0.022936, 0.013187, -0.024572, -0.040899, -0.004115, -0.007370, 
    0.002817, -0.002951, 0.041254, -0.002201, 0.010485, 0.029708, 0.050292, 0.066393, 0.027659, 0.054542, 
    0.040837, -0.050191, -0.006568, 0.006514, 0.068129, 0.029213, 0.029511, 0.020409, -0.029881, -0.043357, 
    -0.044761, -0.016237, 0.050450, 0.057010, 0.082141, -0.033835, 0.024090, 0.007205, 0.056718, 0.062808, 
    -0.014014, 0.062703, -0.021425, 0.025243, -0.025788, -0.002474, 0.036064, -0.011053, 0.001105, 0.037077, 
    -0.025976, 0.036921, -0.000546, 0.050188, -0.033167, -0.056836, 0.009600, -0.036955, 0.029379, 0.039069, 
    0.060607, -0.053183, -0.025482, -0.052373, -0.031550, 0.036411, 0.077372, 0.063620, 0.068175, 0.059012, 
    0.099008, 0.045820, 0.094858, 0.003336, 0.001988, 0.008072, 0.021265, -0.011782, -0.012934, 0.025731, 
    -0.073220, -0.021874, -0.052038, 0.020953, 0.044973, -0.041776, 0.015479, 0.002262, -0.024077, 0.034044, 
    0.072780, 0.130352, 0.067250, 0.155081, 0.148856, 0.022176, 0.010848, -0.008337, 0.039925, 0.034279, 
    -0.042580, -0.022764, 0.030220, 0.021790, 0.015994, 0.022825, -0.039344, -0.029791, -0.037446, 0.009330, 
    0.038507, -0.043357, -0.045389, -0.087518, -0.052159, 0.077253, 0.026175, 0.062321, 0.027692, 0.020064, 
    0.028548, 0.057036, 0.004712, 0.042585, -0.003408, 0.064727, 0.011725, 0.053200, 0.044334, 0.037383, 
    0.013636, 0.029942, -0.002957, -0.066136, -0.118274, -0.055680, -0.033860, -0.065788, -0.053570, -0.084035, 
    -0.030981, 0.007976, -0.019359, 0.010183, -0.008183, -0.083710, -0.079768, -0.042644, 0.032120, -0.017227, 
    0.051606, 0.018103, 0.040529, 0.017460, 0.026811, -0.019887, -0.046054, 0.004054, -0.072496, -0.019524, 
    -0.052352, -0.024125, -0.033742, -0.013427, -0.009483, 0.065745, 0.031092, 0.070050, 0.015736, 0.037000, 
    -0.036928, -0.010455, -0.060546, -0.012157, -0.012698, 0.019491, 0.019066, 0.030200, 0.003336, -0.001881, 
    0.037272, 0.060074, 0.043396, 0.070461, 0.014382, 0.108818, 0.046128, 0.023223, 0.010204, -0.017492, 
    -0.005565, -0.039732, 0.008900, 0.023245, -0.012227, 0.036398, 0.041151, 0.048729, 0.055670, 0.006240, 
    -0.016186, -0.022250, -0.032465, -0.030747, -0.007479, -0.006142, -0.049077, -0.074718, 0.003229, 0.003541, 
    -0.035638, 0.016875, -0.031185, -0.047279, -0.056493, -0.040614, 0.044701, -0.059926, -0.000722, -0.090234, 
    -0.075431, -0.076356, -0.064061, -0.002315, 0.022162, -0.041426, -0.050401, -0.004474, -0.032674, 0.012667, 
    0.004875, -0.012479, -0.032899, -0.030306, -0.077137, -0.077099, -0.078662, -0.080748, 0.029988, 0.054937, 
    0.026066, -0.003444, -0.011206, 0.042626, 0.005854, -0.026542, 0.041433, -0.011271, -0.009516, -0.079044, 
    -0.006486, 0.005715, -0.042133, 0.064459, 0.070944, 0.010355, 0.027780, 0.006733, -0.001328, -0.035614, 
    0.023600, 0.003911, 0.051849, 0.080698, 0.032597, 0.080309, 0.073232, 0.041691, 0.064089, -0.006560, 
    0.040723, 0.068037, -0.031227, -0.017916, 0.008087, -0.032394, -0.056479, -0.044813, -0.016983, -0.030736, 
    -0.012416, -0.027164, -0.022722, -0.032740, -0.017595, -0.015496, -0.001576, 0.017064, -0.042681, -0.059198, 
    0.025914, -0.015058, 0.081555, 0.078756, 0.058138, 0.021631, 0.053430, 0.043086, 0.040199, 0.093915, 
    0.044521, 0.048530, 0.029546, -0.002407, -0.000997, -0.025048, 0.011201, -0.005761, 0.031831, 0.039974, 
    -0.000018, -0.028480, 0.036385, 0.013194, 0.062591, 0.006983, 0.075659, -0.029223, 0.002237, -0.035748, 
    0.072817, 0.025106, 0.081772, 0.021163, 0.084681, 0.016894, 0.022732, 0.063380, 0.026287, -0.002337, 
    0.005788, 0.027536, 0.040985, 0.077312, 0.072303, 0.007816, -0.035496, -0.040140, 0.033126, -0.057443, 
    -0.034313, -0.044882, -0.018249, 0.035045, 0.044730, 0.053824, 0.022278, 0.005036, -0.002716, 0.003483, 
    0.027955, 0.037306, 0.064880, 0.008342, 0.013274, 0.032414, 0.044717, 0.085235, 0.093413, 0.036357, 
    0.010355, 0.054207, 0.073023, 0.054639, 0.002528, 0.038239, -0.006582, 0.033231, 0.072326, 0.018298, 
    0.065333, 0.009925, 0.090232, 0.088106, 0.107348, 0.094250, 0.060120, 0.008142, -0.002046, -0.001954, 
    0.048948, -0.005348, -0.009347, -0.070814, -0.015102, -0.035340, -0.050321, 0.003800, -0.021328, 0.029784, 
    -0.023984, 0.029705, -0.029744, 0.015696, 0.035245, 0.004055, 0.060258, 0.054349, -0.020964, 0.018881, 
    0.058354, 0.060438, 0.013833, -0.030106, -0.009616, -0.015858, -0.017009, 0.002937, -0.008745, 0.035084, 
    -0.064744, -0.069140, -0.058273, -0.047832, 0.021662, -0.019998, -0.042382, -0.033829, -0.060993, -0.030117, 
    0.019891, 0.036827, 0.007427, -0.036425, -0.067010, -0.000069, 0.062968, -0.015718, 0.018759, -0.003360, 
    0.048811, 0.039941, -0.002005, -0.009043, 0.053291, 0.005284, 0.001919, 0.017751, 0.024097, -0.005431, 
    0.017548, 0.003292, -0.014520, 0.035446, -0.000768, 0.026544, 0.010066, 0.005930, 0.085821, 0.088596, 
    0.099776, 0.089432, 0.009297, 0.015182, 0.002420, 0.020408, 0.028928, 0.054849, 0.001500, 0.004894, 
    0.058581, 0.000339, 0.037738, 0.060481, -0.011810, 0.023586, 0.057749, 0.037222, -0.017407, -0.045613, 
    -0.029264, 0.023368, -0.015818, 0.010670, -0.044518, -0.026755, 0.012632, -0.005114, -0.016533, -0.059105, 
    -0.032913, -0.030864, -0.069764, -0.075500, -0.089457, 0.022340, -0.046863, -0.032330, 0.039527, -0.028248, 
    0.018679, -0.025244, 0.007585, -0.017420, 0.050528, 0.057137, 0.020405, -0.018335, -0.060112, -0.062620, 
    0.018206, 0.037052, 0.027875, 0.063014, 0.041502, 0.037181, -0.009484, 0.042176, -0.009015, 0.066463, 
    0.082983, 0.053463, 0.072362, 0.047611, 0.008762, 0.000491, -0.004210, 0.053351, 0.025089, -0.041038, 
    0.016228, 0.010623, 0.061796, 0.043705, 0.115062, 0.079975, 0.048672, 0.039606, 0.022234, 0.030689, 
    -0.060672, -0.006119, 0.019012, 0.030271, -0.021049, 0.021885, 0.054994, 0.042858, 0.060054, 0.054152, 
    0.083896, 0.017760, 0.033304, -0.021384, 0.001281, 0.000735, 0.068428, 0.044332, 0.113880, 0.060741, 
    0.038102, 0.067904, 0.042258, 0.035585, 0.013720, 0.039328, 0.095202, 0.068823, -0.002587, -0.010507, 
    0.012990, -0.031424, -0.006506, -0.064623, -0.046932, -0.071893, -0.052577, -0.063730, -0.000968, 0.040991, 
    0.066529, 0.070799, 0.058065, 0.039742, 0.083321, 0.012488, -0.028303, -0.038920, 0.009325, 0.001742, 
    -0.056625, -0.046016, 0.004201, 0.031180, -0.048550, -0.015753, -0.019933, -0.070239, -0.057025, 0.014644, 
    0.060931, -0.019160, 0.004848, -0.016806, 0.044084, -0.007931, -0.004379, -0.009548, 0.005943, 0.017530, 
    -0.027164, -0.005153, 0.019989, -0.027610, -0.020707, 0.028355, -0.010706, 0.072194, 0.089080, 0.004653, 
    0.050073, 0.052046, -0.014987, -0.014228, -0.009194, 0.068510, -0.032980, 0.029079, 0.029706, -0.040169, 
    -0.048984, 0.001171, -0.031428, -0.001663, 0.042488, 0.010336, 0.041647, 0.045359, 0.075303, 0.022399, 
    0.041069, 0.013028, 0.054294, 0.023608, 0.022102, -0.016165, -0.003379, 0.039941, 0.048485, -0.032937, 
    -0.032928, -0.017990, -0.027351, 0.015819, -0.018233, -0.004750, 0.036068, 0.030187, -0.034215, -0.069797, 
    -0.006625, 0.011989, 0.015013, -0.027533, -0.005159, -0.080044, -0.004108, -0.071592, -0.057242, 0.021340, 
    -0.013462, 0.026702, -0.042552, 0.011849, 0.022281, 0.067368, 0.062601, 0.023940, 0.070505, 0.095366, 
    0.094481, 0.042990, 0.106556, 0.055701, 0.015776, 0.076574, 0.039093, 0.018561, 0.060284, 0.058934, 
    0.023803, 0.020098, -0.016409, -0.015389, 0.018605, -0.055740, 0.053227, 0.052847, 0.039140, -0.025733, 
    -0.050156, -0.094983, -0.040766, -0.118735, -0.110022, -0.022928, 0.068165, 0.060355, 0.034291, 0.042594, 
    0.014152, 0.029442, 0.004354, 0.065477, 0.074355, 0.062898, 0.021745, 0.048308, 0.012249, 0.004526, 
    0.043595, 0.053875, 0.007401, 0.083685, -0.006147, 0.002567, 0.033406, 0.047619, 0.058109, 0.031613, 
    0.023317, -0.027965, -0.038160, -0.094479, -0.102207, 0.035079, 0.027652, 0.024399, -0.000635, 0.067011, 
    0.069397, 0.015653, 0.018429, -0.000589, -0.080699, -0.042425, -0.054864, -0.072929, -0.025216, -0.017910, 
    -0.043335, -0.001339, -0.039280, 0.039860, 0.046871, 0.024250, 0.037332, -0.010720, 0.027477, 0.093531, 
    0.091722, 0.103337, 0.074092, 0.074786, 0.057881, 0.049601, 0.029819, 0.072561, 0.012891, -0.026786, 
    -0.051425, 0.025798, -0.025185, -0.005193, -0.011281, 0.015619, 0.000464, -0.065711, 0.002960, -0.074918, 
    0.001407, 0.022219, 0.021759, -0.009753, 0.013918, 0.103985, 0.120069, 0.022192, -0.012514, -0.043931, 
    -0.047169, -0.069430, -0.001418, 0.021872, 0.028993, 0.004324, -0.012477, 0.006370, 0.017680, -0.058244, 
    0.013402, -0.006806, -0.017897, -0.053128, -0.043070, -0.064455, -0.049672, -0.027605, -0.019635, -0.007131, 
    -0.069366, -0.036191, -0.021529, -0.069154, 0.010703, -0.028371, -0.036195, -0.002205, -0.013291, 0.021170, 
    0.062433, 0.050255, 0.072664, 0.000518, -0.015414, -0.066647, -0.032636, -0.065559, -0.025861, 0.080379, 
    0.019530, 0.046038, 0.013139, -0.005229, -0.048679, -0.058355, 0.019351, -0.012180, -0.025155, 0.035217, 
    0.017815, -0.050368, 0.020829, 0.018199, 0.064764, 0.121020, 0.070626, 0.049194, 0.090843, 0.062305, 
    0.048462, 0.026154, 0.090633, 0.067693, 0.038606, -0.050386, -0.019258, -0.044435, 0.001592, -0.013857, 
    0.053130, 0.019350, -0.017704, 0.018708, -0.016579, -0.000906, -0.036489, 0.000322, 0.012764, 0.035205, 
    -0.007375, 0.010476, -0.018952, 0.023959, 0.044482, 0.044552, 0.035085, 0.033197, 0.057084, 0.034233, 
    0.051372, 0.042232, -0.017994, 0.011063, 0.008407, -0.029820, 0.030424, 0.037273, 0.016363, 0.009714, 
    -0.055773, -0.090589, -0.030320, -0.048856, -0.027077, -0.048773, -0.060890, -0.058497, 0.010001, -0.008756, 
    0.004255, 0.068909, 0.020717, 0.049404, 0.020213, -0.006068, 0.023190, -0.047454, -0.001150, 0.035763, 
    -0.023782, -0.012154, 0.039004, 0.014290, 0.014631, -0.036304, 0.059303, 0.013058, 0.031580, 0.059231, 
    -0.037449, 0.006444, -0.045825, 0.039250, 0.016389, 0.000505, -0.030647, -0.005645, -0.046619, -0.017848, 
    -0.010815, -0.048095, -0.039885, -0.025046, 0.024885, 0.031241, 0.040637, -0.029595, 0.004934, 0.022930, 
    -0.021651, 0.018879, 0.012342, 0.000577, -0.039636, 0.050068, -0.020460, 0.058344, 0.078772, 0.098629, 
    0.029965, 0.056910, -0.019932, 0.017568, 0.025466, -0.043294, -0.016028, 0.014729, 0.024611, 0.064338, 
    0.023003, 0.028248, 0.061585, 0.000123, 0.064735, 0.014063, 0.038648, 0.015210, -0.014727, 0.006939, 
    -0.050113, -0.000872, -0.001120, -0.041139, -0.020674, -0.026279, -0.007242, 0.037460, 0.047517, -0.011144, 
    0.056896, 0.040384, 0.074972, -0.011717, 0.000943, -0.033761, -0.033409, 0.001855, -0.032151, 0.054076, 
    -0.051212, 0.043849, -0.008881, -0.004546, -0.050031, 0.030462, 0.043042, 0.013587, -0.019490, 0.038612, 
    -0.048146, -0.001454, -0.052095, -0.095885, -0.091709, -0.053741, 0.009371, -0.017413, -0.020924, 0.078048, 
    0.020824, 0.008756, -0.038701, -0.016403, -0.024081, 0.003961, -0.023090, -0.051413, -0.003167, -0.050291, 
    -0.017440, 0.003555, -0.029469, -0.023047, 0.035621, 0.021328, -0.017522, -0.028388, -0.063088, -0.099430, 
    -0.076221, 0.004181, -0.044434, -0.017028, -0.027188, -0.055311, -0.043911, -0.087972, -0.053563, -0.109989, 
    0.022911, 0.003865, -0.009331, 0.022714, 0.032572, -0.014290, -0.105515, -0.050315, -0.011810, -0.038484, 
    0.007824, 0.038760, 0.048064, 0.023571, -0.014111, 0.006700, 0.068177, 0.067737, 0.067915, -0.002658, 
    -0.015167, -0.104211, -0.066700, -0.052344, -0.071569, -0.001854, 0.053352, -0.029359, 0.025649, 0.035340, 
    0.016388, 0.029923, 0.020831, 0.081671, 0.061045, 0.081734, 0.052150, 0.101090, 0.064194, 0.085395, 
    0.018726, -0.033707, -0.005307, 0.065162, 0.033999, -0.085304, -0.043239, -0.045027, 0.035723, 0.054242, 
    0.054578, 0.055029, 0.034299, 0.083397, 0.043195, -0.029697, -0.021304, -0.067381, -0.057660, 0.038311, 
    0.070986, 0.025704, 0.051401, 0.092015, 0.008341, 0.021469, 0.020702, 0.081360, 0.047663, 0.030315, 
    0.027858, 0.052088, 0.043919, 0.022248, 0.025632, -0.027421, 0.043068, 0.011392, -0.117440, -0.083684, 
    -0.026817, -0.075082, -0.114334, -0.107891, 0.001500, 0.034623, 0.031356, -0.010183, 0.077901, 0.010958, 
    0.058312, 0.029330, 0.022999, 0.041084, -0.002351, -0.022400, 0.026474, -0.046067, 0.018003, -0.029125, 
    0.016736, 0.078098, 0.054865, -0.011864, 0.054472, -0.028811, 0.045811, -0.016850, 0.052497, 0.037696, 
    0.009571, 0.010380, -0.022710, -0.049366, 0.005923, -0.027224, -0.029962, 0.006577, -0.007184, -0.015837, 
    0.027255, 0.078925, 0.006505, 0.069327, 0.011456, 0.021565, -0.032920, 0.029015, 0.056833, 0.020491, 
    -0.015693, -0.042819, -0.021626, -0.026921, 0.043586, -0.024541, 0.023922, 0.044765, 0.022014, -0.043443, 
    0.000373, -0.013547, 0.023403, -0.010287, -0.008205, 0.034954, 0.004253, 0.019813, -0.021410, 0.022329, 
    0.000561, -0.013600, 0.006335, -0.037070, -0.001299, 0.020780, -0.044493, -0.028633, 0.022448, -0.001294, 
    -0.004845, -0.001993, -0.025831, 0.031513, -0.011209, -0.022659, 0.017148, -0.044271, -0.014425, -0.001422, 
    -0.020171, 0.018836, -0.044985, -0.019164, -0.025203, 0.039121, 0.011452, -0.040298, 0.012180, -0.007017, 
    0.036037, 0.018133, -0.034776, 0.032660, -0.016755, -0.017378, 0.007290, 0.038884, 0.006996, -0.051356, 
    -0.023621, 0.033820, -0.014467, -0.028767, -0.037264, -0.026930, -0.026528, 0.007673, 0.014633, 0.036566, 
    0.023240, -0.005830, 0.017548, 0.021032, -0.043914, 0.027061, -0.025874, 0.040994, -0.017960, 0.006173, 
    -0.004158, 0.016151, 0.002359, -0.037769, 0.012962, 0.021253, -0.031032, -0.036165, -0.037046, -0.023763, 
    -0.013758, -0.005223, -0.008507, -0.020627, 0.020010, -0.006243, -0.035806, -0.016852, -0.034320, -0.019502, 
    -0.051801, 0.000748, -0.040593, 0.012428, 0.023028, -0.033725, -0.021212, -0.040329, 0.006084, 0.002482, 
    -0.029750, 0.021298, 0.013151, -0.047284, -0.006609, -0.025150, -0.014255, 0.018774, -0.011000, -0.033013, 
    0.025390, -0.040867, -0.017894, 0.010294, 0.032046, 0.036623, -0.017488, 0.013593, -0.041546, -0.009269, 
    -0.013607, 0.012957, -0.030506, 0.010267, 0.023237, 0.029567, -0.013826, 0.035549, -0.049341, -0.019088, 
    0.011208, 0.011552, 0.026102, -0.026503, 0.022101, -0.050595, -0.039248, -0.009107, -0.044343, -0.049391, 
    -0.048341, 0.034177, 0.002778, -0.021344, -0.003450, -0.041801, -0.045336, -0.034081, -0.044856, 0.029300, 
    -0.015967, -0.011998, -0.039631, 0.006819, -0.007906, -0.037513, 0.023072, 0.030530, -0.040968, 0.018400, 
    -0.014370, -0.005995, 0.018606, -0.016158, 0.030849, 0.020208, -0.034850, -0.032999, -0.050429, 0.020266, 
    -0.041660, -0.044966, -0.036388, -0.052736, -0.044567, 0.034984, 0.021403, 0.041829, -0.022922, -0.018330, 
    -0.018637, 0.001145, -0.036651, 0.005975, -0.033647, -0.001202, 0.033756, 0.000061, 0.032398, -0.027243, 
    -0.007866, -0.039866, -0.016471, -0.027765, -0.031229, -0.052554, -0.025090, -0.002418, -0.016342, -0.050353, 
    0.031040, 0.042540, -0.020229, 0.002288, 0.027357, -0.047395, -0.041917, 0.020634, -0.000527, 0.008498, 
    -0.026025, 0.000385, 0.022339, -0.018490, -0.022250, -0.049802, -0.011558, 0.028346, -0.044651, -0.005670, 
    0.030115, -0.019880, -0.023813, -0.021201, -0.025873, -0.002311, -0.053253, 0.008263, -0.020410, -0.014730, 
    -0.008985, 0.019937, -0.033874, -0.047557, -0.040493, -0.040497, -0.029755, 0.026030, -0.044924, -0.035349, 
    -0.045738, -0.030602, -0.011466, -0.035221, -0.000051, 0.009028, -0.013899, 0.020410, 0.010705, 0.047754, 
    -0.004088, 0.036706, 0.026854, 0.015043, 0.019568, -0.036492, -0.037093, 0.013260, 0.009472, 0.039158, 
    0.000062, -0.014006, 0.024885, -0.004867, 0.036450, -0.030105, -0.020866, -0.003091, 0.018739, -0.046960, 
    -0.019662, 0.024984, 0.001688, 0.024111, -0.023681, -0.030660, -0.030404, -0.025894, -0.034449, 0.020640, 
    0.009896, -0.035384, 0.036167, 0.006191, 0.010376, -0.025958, 0.023851, -0.039797, 0.026463, -0.030945, 
    0.013767, -0.020940, 0.032492, -0.042042, -0.014999, -0.019995, -0.033689, -0.028703, -0.019111, -0.002846, 
    0.024904, -0.014212, 0.036582, -0.029822, -0.031134, -0.002811, -0.009199, 0.013156, 0.038916, 0.010281, 
    -0.043668, -0.020941, -0.009068, -0.041563, 0.008890, 0.034671, 0.022669, -0.000904, -0.003475, -0.021375, 
    -0.001229, 0.043213, -0.034894, -0.000423, -0.042842, -0.021673, -0.003834, -0.040000, 0.005370, -0.050053, 
    -0.029847, 0.027755, 0.036205, -0.009808, -0.026678, -0.048228, -0.016437, -0.028911, 0.029216, -0.041301, 
    0.022882, -0.000128, -0.023107, 0.028220, 0.019085, -0.009339, -0.039561, -0.020024, 0.008518, 0.033193, 
    -0.020174, -0.022597, -0.048529, 0.022385, 0.038859, 0.026444, -0.028893, 0.028062, -0.019542, 0.017858, 
    0.020683, -0.043218, 0.005290, 0.012216, -0.033445, 0.036256, 0.030259, 0.031084, -0.006985, -0.031234, 
    -0.030385, 0.013235, -0.011396, 0.031741, 0.033658, 0.001731, -0.041859, 0.013414, 0.035937, -0.016746, 
    -0.030945, -0.011945, 0.004043, -0.036040, 0.023420, 0.016387, -0.023049, -0.020420, -0.024806, 0.033422, 
    0.025353, 0.011684, -0.004418, 0.009099, 0.043438, 0.006890, -0.029856, 0.014274, -0.025974, -0.006928, 
    -0.030423, -0.007497, 0.000353, -0.022986, 0.035349, 0.048161, -0.045297, 0.017418, -0.025526, -0.014300, 
    0.015388, -0.008038, 0.004245, -0.022297, 0.039329, -0.027319, 0.001246, -0.004491, 0.021050, -0.005470, 
    0.017566, 0.002476, 0.020825, -0.008155, 0.009602, 0.039171, -0.021704, -0.021462, 0.029898, 0.011861, 
    -0.049891, 0.010578, -0.050597, -0.030812, 0.010535, 0.016331, -0.018289, 0.030243, 0.037794, 0.026702, 
    -0.043583, -0.017446, 0.004618, 0.035529, -0.008425, 0.004373, 0.020260, -0.029059, -0.032759, 0.038631, 
    -0.007642, 0.026059, -0.051569, -0.024496, 0.025037, -0.013404, 0.007745, -0.039598, 0.039245, -0.024463, 
    -0.007565, -0.039968, -0.027505, -0.043139, -0.047411, -0.017698, -0.029010, 0.024742, -0.008702, 0.027039, 
    -0.015803, -0.004748, 0.051642, -0.050041, -0.031789, 0.031577, -0.018281, -0.011097, 0.031355, -0.005601, 
    0.006482, -0.012828, 0.001832, -0.034767, -0.053891, -0.020567, 0.016700, 0.029154, -0.037021, -0.009080, 
    -0.002155, 0.066558, 0.038962, -0.077693, -0.036048, -0.053189, -0.090587, -0.043910, -0.011499, 0.026596, 
    0.033687, 0.010396, -0.013855, -0.025606, 0.008154, 0.032684, 0.072664, -0.020230, 0.015748, -0.015674, 
    -0.048613, -0.022200, -0.042387, -0.050170, -0.054742, -0.077227, -0.042457, 0.037535, -0.014504, 0.043010, 
    0.016314, 0.044567, 0.046095, 0.015000, 0.025350, 0.014556, -0.063004, -0.018277, -0.088679, -0.007433, 
    -0.017366, -0.018804, 0.014800, 0.030256, 0.055462, -0.035496, -0.016064, 0.080743, 0.018503, 0.085297, 
    0.110276, 0.105176, 0.046621, 0.060120, 0.014921, -0.042336, -0.023214, -0.050639, -0.025164, -0.033789, 
    -0.056898, -0.030553, 0.031564, -0.016095, 0.023289, 0.020760, -0.044930, -0.069215, 0.016983, -0.043580, 
    0.017574, -0.042874, 0.022269, 0.052405, 0.030112, 0.063913, 0.013840, 0.067576, 0.076437, 0.102851, 
    0.111876, 0.127621, 0.083551, 0.056926, 0.029027, -0.030467, -0.015224, 0.002659, -0.022029, 0.033937, 
    0.026323, 0.021630, 0.045125, 0.008827, -0.007634, -0.068798, -0.075397, -0.024877, -0.052125, -0.015670, 
    -0.012688, -0.036051, -0.045782, -0.023999, 0.021648, 0.026778, -0.017541, -0.027062, -0.009108, -0.049467, 
    0.018682, -0.020859, -0.042420, -0.020225, -0.011622, -0.024845, 0.000611, -0.013424, 0.014724, 0.034274, 
    -0.009559, -0.023042, -0.007653, -0.061718, -0.011562, 0.027059, 0.000935, -0.064858, -0.094970, -0.102170, 
    -0.028894, -0.002091, 0.026486, 0.024969, 0.068689, 0.002378, 0.044061, 0.028964, 0.059124, 0.077118, 
    0.069768, 0.064695, 0.025921, -0.002602, 0.005635, -0.110607, -0.006457, -0.019754, 0.019102, 0.001244, 
    0.026718, 0.071632, 0.013618, -0.019917, 0.023958, 0.052242, 0.049885, -0.073601, -0.062504, -0.095233, 
    -0.036914, 0.038826, -0.028671, -0.009202, 0.058965, 0.081393, -0.043216, -0.059870, -0.057427, -0.010175, 
    -0.032150, -0.019755, -0.011165, -0.051445, 0.007294, 0.035051, 0.022036, -0.022555, -0.027652, -0.024170, 
    -0.017232, 0.025624, -0.035771, 0.017515, 0.062394, 0.030629, -0.022407, -0.003356, 0.034231, 0.033941, 
    0.017305, 0.003361, -0.009571, -0.068631, -0.086217, 0.010599, -0.020643, -0.003180, -0.004593, 0.074486, 
    0.045395, -0.000593, -0.020081, 0.051081, 0.013565, -0.006237, -0.038569, 0.033092, -0.024171, 0.033815, 
    -0.027968, -0.032363, -0.052578, 0.029376, 0.034056, -0.051970, 0.010073, -0.046163, -0.060089, 0.002970, 
    -0.018104, 0.000400, -0.001173, 0.059745, 0.007931, 0.054873, -0.010774, -0.032506, -0.013950, -0.082335, 
    -0.013093, -0.038593, -0.010347, -0.049796, -0.023008, 0.039302, -0.027746, -0.040005, 0.057364, -0.036349, 
    -0.020149, 0.039724, 0.035691, 0.075063, 0.073345, 0.047542, 0.072495, 0.039648, 0.072994, 0.071010, 
    -0.094690, -0.029108, 0.031845, 0.040818, 0.000114, 0.009148, -0.008028, 0.005942, -0.023845, 0.052258, 
    0.056063, -0.023155, -0.048668, 0.027674, -0.059909, -0.000870, -0.073847, -0.035272, -0.020599, 0.046650, 
    -0.001158, 0.059990, 0.044177, 0.068272, 0.053699, 0.060735, 0.062172, -0.015458, -0.029050, -0.000465, 
    0.024573, -0.029949, -0.039408, -0.039405, -0.017775, 0.030459, 0.013772, -0.008803, -0.043734, -0.014479, 
    -0.059392, 0.013327, -0.036028, -0.016785, -0.020727, -0.038924, 0.034311, 0.000244, 0.016682, -0.011960, 
    0.051842, 0.033795, -0.017809, -0.042057, 0.001831, -0.013551, -0.036463, -0.077835, -0.056387, -0.097072, 
    -0.057754, 0.002654, 0.034225, -0.004379, -0.023924, 0.039030, 0.055944, 0.012905, 0.081243, 0.027717, 
    0.097821, 0.077344, -0.004140, 0.013352, -0.045925, -0.037997, -0.020620, -0.052803, -0.009978, 0.025881, 
    0.000148, 0.056166, 0.087739, 0.047749, 0.014274, 0.055818, 0.069020, 0.036710, 0.024086, -0.009686, 
    0.035759, 0.005552, 0.016678, -0.013191, 0.025916, 0.076062, 0.016601, 0.034304, -0.001473, -0.062211, 
    -0.105405, -0.077912, -0.018665, -0.084239, -0.037286, 0.002211, -0.051502, 0.022977, 0.025534, -0.025014, 
    0.018464, -0.011556, 0.077041, 0.049869, 0.049195, 0.076475, 0.070209, 0.054549, 0.024692, -0.031820, 
    0.053196, 0.007836, -0.039251, -0.041405, 0.002104, -0.031556, -0.002328, -0.018067, 0.044325, -0.017415, 
    0.032462, 0.035288, 0.028768, 0.070880, 0.045273, -0.016903, -0.009905, 0.019664, 0.052594, 0.006051, 
    0.044552, 0.032685, 0.063318, 0.015230, -0.063813, 0.026993, 0.067344, -0.023341, 0.026617, 0.005230, 
    0.002133, -0.005916, 0.036999, 0.019415, 0.076395, 0.022356, 0.002546, -0.029342, 0.045498, 0.018830, 
    -0.003151, -0.004371, -0.003048, -0.064683, -0.019784, 0.000744, -0.002838, 0.019904, -0.001326, -0.005293, 
    -0.005768, 0.032996, -0.015326, 0.031463, 0.054361, 0.065269, 0.010276, 0.054381, -0.024852, 0.018673, 
    0.035806, -0.004119, -0.000748, -0.070991, -0.038240, -0.032216, -0.057202, -0.020325, 0.024766, -0.008651, 
    0.035290, -0.046058, 0.015343, 0.035666, 0.046106, -0.027678, -0.071692, -0.031634, 0.052337, 0.027636, 
    0.051022, -0.019392, 0.013545, 0.071104, 0.058458, 0.037067, 0.117924, 0.048693, 0.018080, 0.042094, 
    -0.014822, -0.025494, 0.013251, 0.031591, 0.066063, 0.069491, -0.005738, 0.016420, 0.086817, 0.015457, 
    0.011539, 0.029257, -0.026341, -0.037837, 0.019098, 0.034191, 0.034574, 0.028620, 0.026175, 0.040750, 
    0.060272, 0.043952, 0.021407, -0.008836, -0.046843, -0.040560, -0.072774, -0.054514, 0.035108, -0.022184, 
    0.010845, -0.001171, -0.013873, -0.017242, 0.026957, 0.012102, 0.049418, -0.043880, 0.029561, 0.061870, 
    -0.064709, -0.088472, 0.032464, -0.018754, -0.000439, -0.052671, 0.050037, 0.047036, -0.014036, 0.025204, 
    0.066428, 0.039813, -0.044780, 0.000364, 0.076564, 0.033588, -0.066829, -0.018652, -0.075807, -0.037273, 
    0.053262, -0.001129, -0.053389, 0.042799, 0.047740, 0.022585, 0.002280, 0.052478, 0.033204, 0.008331, 
    0.037121, 0.040586, 0.036213, 0.030926, -0.002217, 0.024245, 0.011082, 0.029741, 0.000881, -0.048176, 
    -0.017912, -0.012570, 0.011914, -0.018666, -0.005223, -0.045850, -0.054266, -0.002243, 0.021501, -0.062788, 
    -0.014631, 0.052655, 0.021900, 0.091477, 0.053423, -0.011733, 0.063841, 0.058474, 0.092101, 0.026442, 
    0.132405, 0.073584, 0.085345, -0.031952, -0.042853, 0.024721, 0.038268, -0.015079, -0.043290, 0.029163, 
    -0.019953, -0.001388, 0.020116, 0.060195, 0.029631, -0.049833, 0.058559, 0.021313, -0.050503, -0.067597, 
    -0.040056, -0.004919, 0.036808, 0.051399, 0.005259, -0.067475, -0.068165, -0.038831, -0.046656, -0.043847, 
    0.026222, -0.022262, 0.013007, 0.037327, -0.037266, -0.066242, -0.057538, 0.005393, 0.046972, -0.008825, 
    -0.006777, 0.002322, 0.004103, -0.089900, -0.056938, 0.004106, 0.004318, -0.042539, -0.017629, -0.015084, 
    -0.012400, -0.020108, 0.025735, 0.048606, 0.065093, 0.033921, 0.050627, 0.069765, 0.077380, 0.051487, 
    0.047803, 0.027346, 0.067255, 0.024155, 0.000017, -0.049005, 0.014265, -0.009173, 0.017134, 0.037396, 
    0.020673, -0.011512, -0.040036, -0.021485, -0.006764, 0.033652, -0.003239, 0.012521, -0.046634, -0.074187, 
    0.043196, 0.020464, 0.053840, -0.009326, 0.019808, -0.032714, -0.059611, -0.032511, 0.012063, -0.058776, 
    -0.038722, -0.060268, -0.046093, -0.024017, -0.032551, 0.004875, 0.011244, -0.001792, -0.004215, 0.008618, 
    0.048427, 0.010691, -0.039102, -0.010440, 0.069674, 0.035845, -0.082500, -0.026274, -0.011454, 0.019626, 
    0.026647, -0.038113, 0.035253, 0.006708, 0.000810, -0.016771, 0.060148, 0.097526, 0.055241, 0.028528, 
    0.059022, 0.063220, 0.017200, 0.048387, -0.044682, 0.024992, 0.058819, -0.008757, -0.004838, -0.015049, 
    -0.013017, 0.036950, 0.000706, -0.062289, -0.033215, -0.021561, -0.055379, -0.042461, -0.064345, 0.010973, 
    0.017207, 0.004521, -0.024533, -0.045030, -0.004744, -0.008809, -0.039439, 0.000771, -0.031723, -0.046142, 
    0.001046, 0.013004, -0.049555, -0.011650, -0.061270, -0.001058, -0.007440, 0.058748, -0.002929, 0.040163, 
    -0.052668, 0.056240, 0.076994, 0.031278, 0.053382, 0.098441, 0.085085, -0.044337, -0.042738, 0.043594, 
    -0.065106, -0.010965, 0.042273, 0.012792, -0.032995, -0.010103, 0.039494, -0.014970, -0.029253, 0.022254, 
    0.009975, 0.019523, -0.016294, -0.046619, -0.085443, 0.010417, 0.038379, 0.037404, 0.049365, 0.006876, 
    -0.021106, 0.021594, 0.053999, 0.081648, 0.057240, 0.046983, 0.042082, -0.000493, -0.051044, -0.042300, 
    0.028740, 0.041752, 0.049164, 0.012680, -0.042015, 0.040649, 0.037966, -0.031495, -0.039921, 0.008232, 
    -0.034950, -0.010435, -0.016217, 0.015018, -0.007450, 0.054651, 0.056728, -0.031862, 0.012236, -0.026510, 
    -0.035772, -0.013156, -0.051389, -0.077321, -0.061903, -0.058505, -0.049722, -0.029609, -0.027153, -0.045736, 
    0.038606, -0.006054, 0.020392, 0.059683, -0.008628, 0.076664, 0.056766, 0.033615, 0.098287, 0.090485, 
    0.108453, 0.098800, 0.024648, 0.035507, 0.013874, 0.012355, -0.016483, -0.040917, 0.016593, 0.083023, 
    -0.024265, 0.046008, 0.082803, -0.016389, -0.003004, 0.057509, 0.113569, 0.024344, 0.061901, -0.084324, 
    0.051531, 0.055604, -0.008140, -0.056493, -0.024225, 0.058982, 0.061092, -0.028396, 0.045119, 0.004791, 
    -0.056878, -0.029506, 0.008962, 0.028043, 0.022441, -0.032101, 0.002068, 0.067129, 0.008744, 0.036316, 
    0.061286, 0.049797, 0.041292, 0.045712, -0.003478, 0.087672, 0.081651, -0.000830, -0.008352, 0.003306, 
    0.063730, -0.020903, -0.016462, -0.062654, 0.006108, 0.028493, 0.007052, -0.002567, 0.015515, 0.049180, 
    0.023416, -0.011045, -0.026527, 0.041575, 0.011414, 0.028795, -0.056926, 0.036405, 0.036338, 0.021099, 
    0.023603, 0.007939, 0.032546, -0.003144, 0.024079, 0.096513, 0.027945, 0.007221, -0.061565, -0.018385, 
    0.042826, 0.091158, 0.022024, 0.062418, 0.078793, 0.081303, -0.002801, -0.002871, 0.029673, -0.000373, 
    0.009575, 0.020179, 0.034480, 0.026174, 0.068095, -0.015343, 0.047048, 0.029580, 0.023945, 0.023908, 
    0.005273, 0.048229, 0.041113, 0.020787, 0.077527, 0.038296, 0.017331, 0.044269, -0.001976, -0.034470, 
    -0.015823, -0.001009, -0.038136, 0.001068, -0.012489, 0.032235, 0.026951, 0.002762, -0.007670, -0.027047, 
    -0.009020, -0.056727, -0.031151, 0.028919, -0.012987, 0.042744, 0.009024, -0.003384, 0.001536, 0.073104, 
    0.010160, 0.058576, 0.009982, 0.056542, -0.018325, 0.052269, 0.030738, 0.011165, 0.033676, 0.053503, 
    0.003497, -0.004229, 0.042546, 0.004178, -0.025486, 0.029024, 0.038542, 0.033573, 0.041896, 0.048417, 
    -0.016928, 0.006563, -0.016655, -0.006076, 0.042089, -0.042070, 0.018937, -0.032377, -0.005755, -0.011440, 
    -0.026565, -0.002113, -0.029127, 0.035336, -0.022529, 0.022885, -0.016878, -0.041942, 0.029427, -0.018609, 
    -0.024914, -0.002583, 0.005540, 0.018885, -0.005069, -0.019174, 0.030978, 0.026925, 0.034339, -0.000968, 
    -0.017854, -0.015730, -0.015307, -0.020430, -0.021583, -0.006860, 0.019769, 0.012055, 0.028736, -0.050422, 
    0.029390, -0.015201, -0.050606, 0.023834, -0.031883, -0.014571, 0.009146, 0.001478, 0.037109, -0.025849, 
    0.018791, 0.017785, 0.022247, -0.021194, 0.013754, 0.019438, 0.043036, -0.027736, -0.047915, -0.047285, 
    0.000040, -0.040695, -0.014454, -0.027342, 0.002263, -0.038349, 0.022142, -0.050845, -0.031012, 0.015423, 
    -0.038890, 0.005246, -0.023077, -0.017047, 0.038723, -0.020743, 0.004785, -0.023629, 0.027356, 0.047571, 
    0.043815, -0.027610, -0.051374, -0.037922, 0.012858, 0.024326, 0.017969, 0.019820, 0.044403, -0.034613, 
    -0.035784, -0.014293, 0.035427, -0.035048, 0.040222, 0.001592, 0.034239, 0.051226, 0.038421, 0.037813, 
    -0.017205, -0.025482, 0.013372, 0.032919, -0.004869, -0.016810, -0.013387, -0.022296, 0.027920, -0.051401, 
    0.032834, -0.007682, -0.033675, -0.022287, -0.034024, -0.045666, -0.001413, -0.016372, -0.026494, -0.013779, 
    -0.012299, 0.014103, -0.042927, -0.007076, -0.006628, -0.031309, 0.048079, -0.027636, 0.030207, 0.028980, 
    -0.004769, 0.027980, -0.040352, -0.011023, -0.043656, -0.033791, 0.008416, 0.028006, -0.033092, -0.024448, 
    -0.031598, -0.009971, -0.043918, -0.042133, -0.015936, 0.037849, 0.001857, -0.025005, 0.024508, 0.027682, 
    0.025189, -0.005581, -0.010950, 0.023641, 0.018530, 0.034609, 0.026868, -0.018961, 0.032654, 0.002925, 
    0.039436, 0.039402, 0.032275, 0.024378, 0.029833, -0.021453, -0.017769, -0.016642, -0.029367, 0.027529, 
    -0.001739, -0.017566, -0.026455, -0.046643, -0.002731, 0.034117, 0.024006, 0.030171, 0.025180, 0.013201, 
    -0.007320, -0.039771, 0.027554, -0.038124, -0.033453, 0.012310, 0.019062, -0.029758, 0.022881, -0.036712, 
    0.016873, 0.026154, 0.014482, -0.019680, -0.024824, 0.030475, 0.004050, -0.025614, 0.049967, -0.003524, 
    -0.014446, 0.005743, 0.031995, -0.014313, -0.005775, -0.014487, -0.014669, -0.012227, 0.005958, 0.018470, 
    -0.040098, 0.020482, 0.029656, -0.011209, -0.010094, 0.005250, -0.047793, 0.027580, -0.013990, -0.004170, 
    0.015634, 0.013000, -0.027125, -0.039531, -0.050038, -0.044119, -0.015600, -0.041439, -0.010614, -0.030118, 
    0.019858, 0.025215, 0.032609, -0.035936, -0.038217, 0.009828, -0.016429, 0.028610, -0.047879, 0.036321, 
    -0.037665, -0.042608, -0.010846, -0.026226, -0.034779, 0.020053, 0.029247, 0.025412, 0.005571, -0.000563, 
    -0.018899, 0.049509, -0.018860, -0.046024, 0.032720, 0.002321, 0.036670, -0.009148, 0.041553, -0.038192, 
    0.027468, 0.035525, -0.000638, 0.024265, -0.004386, -0.047796, 0.013991, -0.041488, 0.007435, -0.035055, 
    -0.015729, -0.007599, -0.011790, -0.038965, -0.016681, -0.048298, -0.044164, -0.051543, -0.032299, -0.016233, 
    0.035114, -0.038116, -0.040714, -0.043162, 0.036696, -0.011842, -0.018149, 0.019021, -0.032973, -0.018063, 
    0.035830, 0.018305, -0.041413, -0.018550, -0.001523, 0.010486, -0.027005, 0.025954, -0.005292, -0.045470, 
    0.006225, -0.050314, -0.002828, -0.051148, -0.019025, -0.004604, -0.041000, -0.012910, 0.001533, -0.031721, 
    0.000472, 0.018097, -0.000618, -0.050807, -0.006149, -0.027391, 0.013010, -0.036623, -0.031573, -0.001515, 
    0.020315, -0.018199, -0.008412, -0.010526, -0.041719, -0.009617, -0.007290, 0.001550, 0.014424, 0.007588, 
    0.019449, -0.014707, -0.025723, 0.032758, 0.030387, 0.018880, 0.027245, 0.016350, 0.034342, 0.033700, 
    -0.043116, -0.049018, -0.029686, 0.028893, 0.035207, -0.003028, -0.039753, -0.027457, 0.015693, 0.036511, 
    0.002835, -0.036024, 0.049312, 0.046085, -0.014018, -0.018658, 0.032246, -0.038981, 0.032095, -0.015219, 
    -0.006627, -0.030390, -0.051129, 0.004322, -0.010262, -0.032768, 0.030378, 0.002458, -0.018244, -0.048097, 
    -0.031700, -0.020905, 0.013182, -0.047606, 0.020355, 0.035513, 0.008119, -0.051324, -0.000051, -0.024425, 
    0.008433, -0.007712, 0.016327, -0.009719, 0.002228, 0.018185, -0.039790, 0.001607, 0.034669, 0.025866, 
    -0.003164, -0.014032, 0.012868, -0.046142, -0.019753, 0.033584, 0.005874, -0.000590, -0.035927, -0.035588, 
    0.000307, -0.040315, -0.019204, -0.028491, 0.008062, 0.006973, -0.050075, 0.021051, 0.001887, -0.016108, 
    0.027619, -0.036054, -0.047638, -0.001029, -0.030779, -0.024541, -0.045923, -0.017349, 0.030258, -0.047418, 
    -0.036870, -0.015994, -0.042128, 0.002538, -0.015076, 0.028523, -0.051368, -0.004477, 0.014122, -0.000080, 
    -0.018436, 0.036800, -0.041435, 0.036507, 0.006421, 0.015729, 0.026172, -0.001463, -0.001166, -0.015260, 
    -0.047411, 0.013222, 0.028132, 0.013079, -0.001117, -0.034853, -0.006760, 0.005865, -0.041731, 0.032807, 
    -0.007207, 0.006461, 0.034261, 0.013809, -0.030738, 0.010827, 0.020832, 0.016767, -0.027450, -0.001369, 
    -0.038801, -0.011133, -0.037678, 0.020087, 0.038653, -0.050211, -0.027331, -0.025312, -0.037966, 0.035528, 
    -0.054441, -0.013051, -0.002636, 0.032879, -0.017728, -0.029945, -0.007603, -0.045337, -0.006308, 0.046513, 
    0.013377, 0.019649, -0.061331, -0.035946, -0.091306, -0.014263, -0.025342, -0.055521, -0.099900, -0.107471, 
    -0.100643, -0.089131, -0.055285, -0.040835, 0.076387, 0.050663, -0.032046, -0.034743, -0.003508, 0.043959, 
    0.071182, 0.046828, 0.055965, -0.078742, -0.085544, -0.047991, -0.100122, -0.069635, 0.050594, 0.116580, 
    0.014962, -0.002404, 0.052390, 0.042552, 0.044404, -0.036522, 0.054222, -0.023937, -0.052195, -0.036478, 
    -0.048747, -0.028202, -0.045602, 0.094730, 0.094419, 0.085578, 0.015575, -0.032545, -0.016490, 0.024016, 
    0.015249, 0.009627, 0.062551, 0.056216, 0.085667, 0.037981, 0.074343, 0.049972, -0.053891, -0.079268, 
    0.006747, -0.026666, -0.044022, -0.076679, -0.091107, -0.034746, -0.003670, 0.061793, 0.062760, -0.007574, 
    -0.037347, 0.011197, 0.006738, 0.017962, -0.001960, 0.002800, -0.022957, -0.036224, -0.067118, -0.040490, 
    0.047125, 0.071060, 0.082212, 0.105567, 0.111559, 0.062913, 0.108936, 0.097090, 0.069369, 0.048096, 
    0.065880, 0.057821, 0.051748, 0.011762, -0.074458, 0.029469, 0.015309, -0.015157, -0.032007, 0.032883, 
    -0.006273, -0.044874, 0.035372, 0.073675, 0.074359, 0.099808, 0.063146, 0.094832, -0.009461, 0.070676, 
    0.035700, 0.027406, 0.017019, 0.031986, 0.002615, -0.014665, 0.072797, 0.086661, 0.033000, -0.006229, 
    0.047523, 0.039024, -0.019873, -0.007061, 0.054242, -0.040165, -0.056497, -0.074737, -0.025802, -0.084300, 
    -0.058367, 0.010454, 0.054432, 0.061176, 0.063742, 0.053746, 0.054466, 0.038564, 0.028790, 0.012969, 
    0.011021, 0.005837, 0.061516, 0.065055, 0.016397, 0.012660, 0.014390, 0.056547, 0.058843, 0.014785, 
    0.022868, 0.041751, 0.069062, 0.036784, 0.026381, 0.044970, 0.034779, 0.028304, 0.024259, 0.025123, 
    -0.012975, 0.006922, 0.049996, 0.100991, 0.134323, 0.093504, 0.119016, 0.080850, 0.014642, 0.036305, 
    0.008917, -0.022257, -0.011931, -0.055002, -0.083107, -0.039034, -0.059298, 0.054417, 0.071180, 0.039238, 
    0.074969, 0.005018, 0.075672, 0.018456, 0.040851, 0.057626, 0.067506, 0.060241, 0.030436, 0.046398, 
    0.119578, 0.031559, -0.041558, 0.027954, 0.012962, -0.023732, -0.045197, 0.028193, 0.008599, -0.044064, 
    -0.010194, -0.022277, 0.022534, 0.014351, 0.035513, -0.010677, -0.041134, -0.041203, -0.040731, -0.050436, 
    0.004295, -0.054529, -0.044526, -0.107524, -0.078340, 0.032498, 0.026602, 0.060445, -0.029217, -0.004106, 
    -0.009494, -0.014738, 0.045287, 0.072561, 0.074427, 0.040656, 0.022929, -0.015167, -0.040095, 0.045300, 
    0.038628, 0.066591, 0.023496, 0.042228, 0.050999, -0.011490, 0.031067, 0.004949, 0.097299, 0.121708, 
    0.061108, 0.076429, 0.054160, 0.047128, 0.091673, -0.028784, 0.023907, 0.064925, 0.041062, 0.086560, 
    0.065125, 0.018111, 0.087219, 0.012387, 0.042790, -0.007955, 0.060401, -0.080627, -0.045032, -0.083223, 
    -0.066687, 0.010230, 0.084490, 0.071916, 0.024319, -0.004314, -0.025517, -0.022088, -0.001447, 0.030128, 
    -0.031261, -0.031065, -0.072127, -0.102015, -0.067508, -0.019786, 0.001556, -0.016908, 0.015728, 0.054600, 
    0.023950, -0.032562, 0.020072, 0.050715, 0.011407, 0.029306, 0.050778, 0.013161, -0.011814, -0.075955, 
    0.009911, 0.095775, 0.058767, 0.082269, 0.053016, 0.011240, 0.038238, 0.033710, 0.024265, 0.113831, 
    0.082440, 0.041797, 0.001805, 0.075628, -0.030961, 0.076417, 0.031345, 0.008811, -0.032627, 0.019493, 
    -0.014845, 0.005021, 0.067245, 0.045568, 0.069733, 0.100625, 0.030879, 0.059891, 0.013741, 0.069656, 
    0.017078, 0.013737, 0.022073, 0.055465, 0.036071, 0.027115, 0.085914, 0.048139, 0.075293, 0.048802, 
    0.054765, 0.049914, 0.016277, 0.009362, 0.061168, 0.055373, 0.020324, 0.094253, 0.112124, 0.092022, 
    0.064194, 0.039029, 0.038240, 0.010285, -0.031505, 0.067866, 0.021167, -0.027122, -0.017815, 0.026699, 
    0.081137, 0.021998, 0.007892, -0.046223, -0.077768, -0.075853, -0.051634, -0.107843, 0.076935, 0.123548, 
    0.132349, 0.022601, 0.110524, 0.064000, 0.102504, 0.016791, -0.032864, -0.010986, -0.004499, 0.020826, 
    -0.044275, 0.030501, 0.028263, 0.040298, 0.050167, 0.073410, -0.017796, -0.047990, -0.058260, 0.010350, 
    0.012339, 0.017689, 0.014347, 0.031327, 0.059190, 0.013653, 0.044961, -0.046478, -0.061524, -0.020017, 
    0.005840, -0.068662, -0.003914, -0.071341, -0.051433, -0.013256, -0.040817, -0.025414, 0.090640, -0.030824, 
    -0.047927, 0.012950, -0.012942, 0.010597, -0.035250, 0.033859, 0.010305, 0.034836, 0.011144, 0.010883, 
    0.008701, 0.062057, 0.033394, 0.041073, 0.061096, 0.074040, 0.051653, 0.071190, 0.044338, 0.081917, 
    -0.007031, 0.075635, 0.056802, 0.059524, 0.002150, -0.051504, 0.030525, 0.067130, 0.031730, 0.037763, 
    0.049002, 0.014854, -0.007005, 0.031766, 0.057083, 0.017256, 0.028410, -0.026385, -0.067721, -0.063713, 
    -0.033731, 0.047480, -0.010297, -0.053842, -0.022536, -0.035800, -0.063518, -0.053715, -0.033811, 0.006900, 
    -0.009858, -0.034887, -0.030217, -0.082060, -0.012706, 0.056839, 0.064019, 0.023197, 0.116510, 0.087006, 
    0.027276, 0.116993, 0.075631, 0.068535, 0.062695, 0.091233, 0.105731, -0.009325, 0.045199, 0.011142, 
    0.000593, -0.040484, -0.029617, 0.044312, 0.028828, 0.030489, -0.003836, -0.025425, 0.010658, -0.026843, 
    -0.029711, 0.009634, 0.030708, -0.040110, -0.045452, 0.001057, -0.021193, -0.029517, -0.014421, -0.007746, 
    -0.017743, 0.028697, 0.020190, 0.014356, -0.019742, -0.009118, 0.024495, -0.001306, -0.049138, -0.000774, 
    0.018787, -0.016822, -0.013635, -0.011305, 0.028050, 0.032575, -0.040933, 0.030072, 0.013577, 0.010864, 
    -0.031040, -0.026058, 0.040209, 0.006566, -0.015272, -0.014345, 0.025483, -0.016457, 0.025764, -0.012941, 
    0.005685, 0.006926, -0.023380, -0.003932, 0.004017, -0.044640, -0.008989, -0.000746, 0.032496, 0.005003, 
    -0.038795, -0.013378, 0.045190, -0.011042, 0.034434, 0.005237, 0.024842, -0.024727, 0.044840, 0.009633, 
    -0.014448, 0.029998, 0.022508, -0.030680, -0.003282, 0.032714, 0.006264, -0.019545, -0.034826, -0.037047, 
    0.020273, 0.015554, -0.040446, -0.014474, 0.006451, -0.040384, 0.039336, -0.009972, -0.023628, 0.005082, 
    0.016490, 0.010143, 0.043285, 0.025695, -0.009517, 0.007770, 0.011060, -0.023208, -0.039111, -0.004855, 
    -0.017386, -0.048224, 0.016278, -0.019151, 0.043700, 0.011228, 0.014343, 0.008314, 0.017801, 0.024112, 
    0.028429, -0.002494, -0.012939, 0.007260, -0.025681, -0.002319, 0.008215, 0.015285, -0.049238, 0.012568, 
    -0.022783, -0.037256, -0.024543, -0.006099, 0.017364, -0.040651, 0.007286, 0.036010, -0.025787, 0.005876, 
    -0.023456, 0.006108, 0.019764, -0.028117, 0.005814, 0.040008, -0.001877, -0.032399, 0.000571, 0.010066, 
    0.014054, -0.003290, -0.009782, -0.022695, 0.029495, -0.025784, -0.015536, 0.030284, -0.021450, -0.005957, 
    -0.023308, -0.045529, 0.016896, -0.025381, -0.026177, -0.015163, 0.007393, 0.034963, 0.035260, -0.004479, 
    -0.044260, -0.001746, -0.004052, 0.033445, -0.014540, -0.042888, 0.016582, -0.010010, 0.015926, 0.008629, 
    0.016270, 0.025248, -0.031999, -0.042258, 0.042735, 0.041719, -0.023110, 0.038608, 0.009011, -0.011994, 
    -0.029834, -0.029405, 0.031510, -0.033161, -0.023835, 0.040325, -0.027354, 0.039798, 0.015271, 0.017532, 
    0.005296, -0.013282, 0.015237, 0.008484, -0.030014, -0.037601, -0.042200, -0.010631, 0.013054, -0.028930, 
    0.003298, 0.021188, 0.026846, -0.022167, 0.005352, -0.045571, 0.032838, -0.041589, -0.002577, -0.019447, 
    -0.042954, -0.044675, -0.034433, -0.033136, 0.029727, -0.012118, -0.035580, -0.004946, -0.025706, -0.011718, 
    0.039253, -0.045387, -0.044758, 0.006080, 0.026705, -0.048477, 0.009228, 0.040109, -0.012445, -0.032046, 
    0.017280, 0.020669, -0.009845, -0.042338, -0.003342, -0.034669, -0.044074, 0.023377, 0.026236, 0.013214, 
    -0.042353, 0.033599, 0.033438, 0.039228, -0.008131, -0.013522, -0.040936, 0.033682, -0.002393, -0.045639, 
    0.044629, -0.010862, 0.022352, -0.006737, -0.007181, 0.040151, 0.037897, -0.021303, -0.003687, 0.025901, 
    0.002194, -0.013337, 0.035666, 0.035569, -0.012235, 0.029445, -0.009630, 0.001356, 0.036614, -0.003541, 
    -0.004540, -0.009918, -0.043051, 0.030232, -0.040782, -0.035034, 0.001074, -0.004807, 0.001789, 0.003591, 
    0.045238, -0.044317, -0.027443, 0.008420, -0.040634, -0.041168, 0.029867, 0.012567, -0.019265, 0.006931, 
    0.002874, -0.009606, 0.032793, -0.005121, 0.027273, -0.040639, -0.023658, 0.002609, 0.019274, -0.023678, 
    0.027819, -0.042980, -0.022524, 0.029202, -0.039216, -0.047919, -0.016633, -0.043140, 0.008474, -0.013137, 
    -0.018545, 0.020131, -0.002453, -0.046261, -0.048361, 0.028666, 0.019684, 0.025082, -0.038765, -0.008820, 
    0.038997, 0.036868, 0.031030, 0.042373, -0.014303, -0.035335, 0.025659, 0.029102, -0.013784, -0.004261, 
    -0.002198, -0.040489, -0.018905, -0.014463, 0.017039, -0.013318, 0.020600, 0.041100, -0.009730, -0.011126, 
    -0.028669, -0.008593, -0.046868, 0.030852, 0.034359, 0.007065, 0.038060, 0.017885, 0.030256, 0.037045, 
    -0.036487, -0.008689, 0.012042, -0.017322, -0.037486, -0.019441, -0.027733, -0.021118, -0.039881, -0.018877, 
    0.021040, -0.025147, 0.014329, -0.042633, -0.028762, -0.000383, 0.037157, -0.042153, 0.014755, 0.002869, 
    -0.042386, -0.033140, 0.017884, -0.027919, 0.026875, -0.036678, 0.029368, -0.028398, 0.013375, 0.008543, 
    -0.040928, -0.029051, -0.016171, -0.004965, 0.017430, -0.023876, 0.001601, -0.029870, -0.026807, 0.024673, 
    -0.012501, -0.039994, -0.003134, -0.006507, 0.012976, -0.023284, 0.001966, -0.022518, -0.027585, 0.005380, 
    0.014108, 0.008444, 0.042161, 0.004231, -0.001108, -0.005967, -0.044128, 0.017852, 0.035582, 0.004523, 
    -0.035597, 0.040983, 0.010225, 0.033014, 0.019824, 0.007200, -0.013448, 0.009371, 0.014686, -0.002767, 
    -0.034267, -0.029090, -0.046931, -0.017852, -0.012473, 0.032218, -0.024415, -0.050025, 0.019904, 0.034248, 
    -0.040693, -0.005570, 0.009398, 0.024317, -0.013303, 0.015676, 0.029957, 0.021598, 0.017125, 0.022644, 
    -0.046015, 0.004592, 0.030088, -0.041277, -0.045122, -0.042805, 0.008902, 0.037246, -0.009252, -0.023257, 
    -0.002410, -0.042748, 0.002788, -0.030008, -0.035804, -0.038407, -0.018034, 0.024635, 0.004160, 0.026653, 
    -0.049140, -0.037172, 0.022858, 0.030844, 0.033651, -0.042390, 0.015352, -0.050115, -0.018608, -0.004190, 
    0.016234, -0.019055, -0.044580, -0.049466, -0.023414, 0.029673, 0.014691, 0.017465, -0.042024, -0.046121, 
    0.040890, 0.036267, 0.008686, 0.015589, 0.037301, 0.044536, -0.080081, -0.065895, 0.005152, 0.037577, 
    0.011219, 0.016330, -0.001651, 0.018429, -0.071648, 0.024629, -0.025121, -0.013216, -0.072022, -0.000724, 
    -0.043714, -0.001512, -0.020734, 0.014783, -0.011645, -0.027305, -0.049116, -0.001128, -0.016279, -0.002518, 
    0.064921, 0.052579, 0.005726, -0.025599, -0.046824, -0.021963, -0.019819, -0.012751, -0.030807, 0.002471, 
    0.027740, -0.031642, 0.008297, 0.018927, -0.014613, 0.020295, 0.002760, 0.014939, -0.045307, 0.000658, 
    -0.021088, 0.071162, 0.043178, 0.058891, 0.067613, 0.059853, 0.045906, 0.012185, 0.028212, -0.037722, 
    0.001702, -0.021665, -0.007046, 0.069558, 0.037963, 0.016964, -0.004079, -0.002403, 0.000533, -0.033339, 
    0.047199, 0.014011, 0.046464, 0.021937, -0.026883, -0.043457, -0.047475, 0.026496, -0.046998, -0.056022, 
    -0.039519, -0.021230, -0.050520, -0.011587, -0.005531, -0.032556, -0.001869, -0.066972, -0.059171, -0.037136, 
    -0.040664, 0.005990, 0.058546, 0.009074, 0.060595, 0.032921, 0.080311, 0.102465, 0.067644, 0.046489, 
    0.058816, 0.103599, 0.087277, -0.001387, -0.002536, 0.018701, 0.014566, -0.022755, -0.053731, 0.004875, 
    0.050056, 0.051666, 0.019148, 0.106646, 0.092915, -0.005305, 0.001147, -0.010867, -0.024694, 0.015393, 
    0.014767, 0.008427, -0.010156, 0.073460, 0.056835, 0.012431, 0.012930, 0.064358, 0.078486, -0.002450, 
    0.042040, -0.009044, 0.050009, 0.043788, 0.021147, 0.005213, -0.014751, 0.017024, -0.007336, -0.011442, 
    0.037191, 0.045302, 0.007206, 0.036163, 0.092350, 0.032466, 0.053703, -0.008368, 0.055503, -0.019653, 
    0.010024, -0.037245, 0.043912, 0.060727, 0.056319, 0.034144, 0.056384, 0.029556, 0.022640, 0.029710, 
    0.011756, 0.059263, 0.054844, -0.014680, 0.016772, -0.011539, -0.043164, 0.045218, 0.027162, 0.002301, 
    0.035875, 0.072153, 0.099392, 0.060819, 0.115664, 0.056817, 0.019971, 0.024468, 0.000289, 0.048986, 
    0.043582, -0.029902, -0.043352, 0.010913, 0.005813, 0.070280, 0.074381, 0.004094, 0.068171, -0.003787, 
    0.033328, -0.020111, 0.013620, 0.063260, 0.028605, 0.025135, 0.072359, 0.022900, 0.032360, -0.046980, 
    0.010800, -0.039306, -0.064166, -0.018896, -0.006583, -0.016987, -0.022107, -0.013217, -0.018601, 0.018481, 
    -0.033482, 0.016427, 0.017156, 0.018820, -0.020345, -0.042704, -0.046300, -0.043011, 0.008853, 0.016792, 
    0.034362, -0.006124, -0.051107, -0.021968, 0.000103, 0.026238, 0.059789, 0.052204, 0.027759, 0.001909, 
    0.015332, 0.033137, 0.031854, 0.032749, 0.004492, 0.002957, -0.012132, 0.045295, 0.026160, -0.026266, 
    -0.008787, -0.011804, 0.053283, 0.040629, 0.082714, 0.018589, 0.098915, 0.091078, 0.065651, 0.042199, 
    0.081520, 0.023597, 0.026380, 0.062420, 0.009066, -0.007600, -0.002541, 0.015066, 0.024944, 0.011708, 
    -0.061188, 0.021827, 0.003796, 0.056873, -0.007328, 0.093024, 0.061006, 0.015945, -0.000563, 0.005554, 
    -0.089647, -0.073441, 0.036855, 0.032882, -0.025564, 0.004668, 0.014750, 0.005167, 0.050809, 0.005559, 
    -0.015224, -0.011053, -0.041801, -0.048784, -0.037224, -0.038967, 0.000215, 0.012378, 0.031056, 0.023147, 
    0.000350, 0.003868, 0.022474, -0.019033, 0.025837, 0.020561, 0.007906, 0.011808, -0.021784, -0.015384, 
    0.073918, 0.003523, 0.044107, 0.022880, 0.059067, 0.081441, 0.036294, 0.081625, 0.048782, 0.043800, 
    0.088268, 0.074727, 0.022053, 0.062747, 0.011255, 0.029811, 0.000743, 0.001066, 0.016098, 0.016412, 
    0.047611, 0.076019, 0.039302, 0.094158, 0.120188, 0.090550, 0.070041, 0.009288, 0.026202, 0.019138, 
    -0.060932, -0.017360, 0.045421, -0.034104, -0.024683, 0.035643, 0.066363, 0.036062, 0.044429, 0.063593, 
    0.101518, 0.083769, -0.007194, -0.001132, -0.028421, -0.040074, -0.030626, -0.023459, 0.024672, 0.091488, 
    0.069656, 0.054766, 0.043684, 0.011878, 0.037466, 0.042017, 0.067294, 0.035945, 0.043050, 0.037287, 
    0.018673, 0.059231, 0.025823, -0.022101, -0.072304, 0.032031, 0.009167, -0.010978, 0.050950, 0.040705, 
    -0.005749, -0.007200, -0.018619, 0.047085, 0.031300, -0.031708, -0.070007, -0.045399, 0.020268, -0.055288, 
    -0.017791, 0.031057, -0.030724, 0.027399, -0.031079, 0.011673, 0.035644, 0.003129, 0.011242, 0.012704, 
    -0.031995, 0.004577, -0.054276, 0.015755, -0.003172, 0.005099, -0.024908, -0.004183, -0.025451, -0.056565, 
    -0.036851, -0.013486, -0.057898, 0.017018, -0.045623, -0.061289, -0.013856, -0.022721, 0.029486, 0.029497, 
    0.032267, 0.027387, 0.051686, -0.055210, 0.001014, -0.005080, -0.038990, -0.022739, -0.017517, -0.048626, 
    0.026249, 0.014110, 0.036873, 0.003361, 0.028799, 0.042186, -0.023106, 0.068525, 0.120569, 0.093519, 
    -0.018011, 0.037315, 0.030343, 0.020619, -0.001675, -0.063865, -0.030758, 0.047613, 0.020163, -0.048826, 
    -0.040310, -0.050925, -0.011912, -0.003378, -0.020489, -0.005547, 0.009215, -0.001838, 0.001850, -0.019050, 
    -0.009246, -0.026365, 0.007575, -0.023205, 0.005415, -0.056538, -0.039954, -0.068349, -0.048758, -0.041273, 
    -0.017147, -0.008449, 0.031416, 0.020041, 0.016226, 0.013727, -0.008747, 0.068427, 0.021738, 0.012068, 
    0.015486, 0.074107, 0.103918, 0.038408, 0.004782, 0.026987, 0.095733, 0.038771, 0.073124, 0.013019, 
    0.041758, 0.029427, 0.030067, 0.024278, -0.036678, 0.006263, -0.027231, -0.014026, 0.028271, -0.029199, 
    0.028784, 0.002355, -0.027647, -0.028170, -0.050376, 0.009651, -0.004252, 0.034633, 0.010446, 0.008170, 
    -0.008430, 0.015326, -0.012777, 0.012295, -0.026761, 0.022857, 0.006511, 0.018106, -0.002923, 0.015658, 
    0.035245, 0.001019, 0.025730, -0.047796, -0.009617, -0.045675, -0.002742, 0.002566, 0.006883, -0.025434, 
    0.015360, -0.025211, -0.017617, 0.028225, -0.048011, 0.003258, -0.045276, 0.013609, -0.044120, -0.048852, 
    -0.018720, 0.030499, 0.017056, 0.023330, -0.016639, 0.034314, -0.026817, -0.009200, -0.047919, -0.003706, 
    0.010464, -0.043808, 0.038371, 0.008587, 0.043529, -0.019649, 0.002128, -0.014649, 0.038592, -0.025515, 
    0.026270, -0.032052, 0.034300, -0.042498, -0.022691, -0.020600, -0.007750, -0.000566, 0.008746, 0.034927, 
    0.020883, -0.028014, 0.036884, -0.012727, -0.031457, 0.011056, -0.013959, 0.037555, -0.000913, 0.024207, 
    0.011752, -0.029829, 0.009606, -0.026414, -0.012222, -0.014704, -0.036166, 0.017664, 0.032298, -0.044980, 
    0.024845, -0.036038, -0.044670, 0.015741, -0.001012, -0.027982, 0.034863, -0.002281, -0.034634, 0.014933, 
    -0.002775, -0.013311, -0.038498, -0.009316, 0.020409, -0.028304, 0.015018, -0.050861, -0.023275, -0.020365, 
    -0.046159, 0.010308, -0.041741, 0.020413, 0.009345, 0.000606, -0.024333, -0.015533, 0.011081, 0.043882, 
    -0.021863, -0.031056, -0.020247, -0.032787, -0.012013, -0.038539, 0.027089, 0.026392, -0.035048, 0.034250, 
    0.009463, -0.029039, 0.015161, -0.041425, -0.030275, -0.032946, -0.025385, -0.015881, 0.010394, 0.002705, 
    -0.050620, -0.049693, -0.006925, 0.038957, 0.016909, 0.040743, -0.021626, 0.006729, -0.039737, 0.023754, 
    -0.001125, -0.003462, -0.024647, -0.039880, -0.016805, -0.010318, -0.030241, 0.013073, -0.013920, -0.001511, 
    -0.048510, 0.006850, -0.028317, -0.034489, -0.018318, -0.041512, -0.034839, 0.034031, 0.037361, -0.031704, 
    0.003893, -0.029516, 0.036706, 0.021860, 0.012143, -0.043219, -0.028456, -0.015598, -0.046813, -0.032680, 
    0.006012, -0.043163, 0.006139, -0.007048, -0.009764, -0.013333, -0.024530, -0.042674, -0.031060, 0.034471, 
    -0.003383, 0.038441, -0.003599, -0.011382, 0.027372, -0.042972, -0.028291, 0.026183, -0.011904, 0.036111, 
    -0.004168, 0.032551, -0.003788, -0.001265, -0.044557, -0.021779, -0.003717, 0.014850, 0.002852, -0.015915, 
    -0.005697, 0.033232, 0.024442, 0.009569, -0.038900, -0.021353, 0.023136, 0.035082, -0.027583, 0.013389, 
    -0.016693, 0.022949, -0.012864, -0.042288, -0.051186, -0.007716, 0.007451, -0.032912, 0.029906, 0.015645, 
    0.021519, 0.015024, -0.050028, -0.014374, 0.017704, 0.022595, -0.041530, -0.025872, 0.033269, -0.043787, 
    0.034593, -0.008806, -0.002656, 0.016257, 0.006282, -0.029259, 0.014867, -0.039188, -0.023034, -0.014023, 
    -0.015135, 0.027221, -0.030921, 0.032295, 0.015255, 0.008848, 0.026501, -0.037177, -0.045333, -0.004302, 
    0.022501, 0.017035, -0.004107, 0.037649, 0.010211, 0.013717, -0.028128, 0.007918, -0.023090, -0.042877, 
    -0.035698, -0.033562, -0.012888, -0.025122, 0.035928, 0.012867, -0.043952, -0.004084, 0.033355, -0.007845, 
    0.001402, 0.006456, -0.021066, -0.035557, -0.023111, -0.017914, 0.029911, -0.043108, 0.000131, -0.023453, 
    -0.010861, -0.010060, -0.023711, 0.004527, 0.004782, -0.032216, 0.022039, 0.035169, -0.024910, 0.003298, 
    -0.022906, 0.025283, -0.009544, -0.046702, 0.004616, 0.031824, 0.000178, -0.011689, -0.001252, 0.025845, 
    0.039146, -0.011423, 0.024315, 0.025432, 0.040779, 0.032700, -0.037698, -0.037709, -0.037878, 0.028681, 
    -0.023178, 0.025212, -0.006796, -0.018808, 0.034346, -0.008816, -0.024633, -0.006995, -0.029030, -0.043949, 
    -0.007997, -0.002570, -0.026016, 0.040454, -0.010197, -0.017599, 0.030167, -0.000926, -0.016742, 0.004490, 
    -0.047244, 0.038868, 0.006035, 0.010048, -0.039669, 0.028892, -0.043518, -0.021866, -0.035272, -0.029057, 
    0.003735, -0.051271, -0.050689, 0.004422, 0.009038, -0.005351, -0.023346, -0.018773, -0.012309, -0.015260, 
    -0.034243, 0.028351, 0.003233, -0.036542, -0.015282, -0.039033, -0.032674, 0.028663, 0.007928, 0.013990, 
    -0.011927, -0.017395, -0.000106, -0.038432, -0.051422, 0.026083, -0.005075, 0.021680, 0.028338, 0.013958, 
    -0.015601, -0.008370, -0.002382, 0.002730, 0.001775, -0.035685, -0.025091, 0.033262, 0.001461, -0.020694, 
    0.030859, -0.013547, -0.018565, 0.031900, -0.042015, -0.027864, 0.028539, -0.010468, -0.024826, 0.037874, 
    0.006946, -0.042885, -0.033752, -0.011571, -0.002505, -0.034366, -0.017200, 0.015430, -0.042566, -0.042774, 
    0.005861, 0.002709, -0.050082, -0.042469, 0.037925, 0.039548, -0.025954, 0.039462, 0.025519, 0.034568, 
    -0.025646, -0.017175, 0.020905, 0.010925, -0.042434, 0.021311, 0.038505, -0.034992, -0.048383, -0.049484, 
    -0.034883, -0.026105, -0.031800, -0.045982, 0.022502, 0.038636, 0.032208, 0.022577, 0.014260, -0.024000, 
    -0.042838, -0.032963, 0.014661, 0.003981, -0.000178, -0.033707, -0.027479, -0.025255, -0.011799, -0.014618, 
    -0.001178, -0.021205, -0.011177, -0.035035, 0.016550, -0.037932, 0.008331, -0.043424, -0.026030, 0.044133, 
    -0.008541, -0.014384, 0.017543, -0.039376, -0.016518, -0.001469, 0.005137, -0.007559, -0.032197, -0.047838, 
    0.020842, 0.050850, 0.021825, 0.027661, 0.058334, -0.009321, 0.095006, 0.085060, 0.023120, 0.067537, 
    0.027166, 0.036869, 0.017736, -0.026544, -0.018632, 0.000779, 0.036487, 0.064617, -0.007298, 0.036256, 
    0.027401, 0.078607, 0.042525, 0.032424, -0.009804, -0.002752, 0.002306, -0.007424, -0.053211, 0.036594, 
    0.017866, 0.068515, -0.003537, 0.021397, 0.013101, 0.004076, 0.069319, 0.008051, -0.014507, -0.022126, 
    -0.022483, -0.038282, -0.034250, -0.026614, -0.024112, 0.011280, 0.050652, 0.048682, -0.005409, 0.021517, 
    0.062317, 0.068886, -0.028006, -0.026570, -0.027358, 0.012911, -0.005529, -0.073307, -0.066080, -0.055036, 
    -0.012011, -0.036845, -0.048873, 0.000429, 0.020177, -0.000158, 0.013760, -0.001422, 0.089392, 0.029416, 
    0.058719, 0.119067, 0.067831, 0.027305, 0.082476, -0.001460, 0.073779, 0.020712, -0.041455, -0.067976, 
    -0.025134, -0.018867, 0.028946, -0.007024, -0.043224, -0.020928, -0.071147, -0.024379, -0.020599, -0.069136, 
    -0.052507, -0.030932, 0.001274, 0.033545, 0.069557, 0.016021, 0.093028, 0.061136, 0.132234, 0.048815, 
    0.054164, 0.128276, 0.100326, 0.005861, 0.087507, 0.010638, 0.021722, -0.013456, -0.019441, -0.002001, 
    -0.021981, 0.052575, 0.037282, 0.045257, -0.079295, -0.005672, 0.000674, -0.036430, -0.085762, -0.010218, 
    -0.016632, -0.006910, -0.067390, 0.005546, 0.007375, -0.067796, 0.022299, 0.019091, -0.060166, -0.062338, 
    0.012608, 0.060813, 0.018050, 0.015425, 0.001317, -0.093206, -0.005669, 0.020506, -0.024941, 0.013202, 
    0.055792, -0.018575, -0.038751, -0.001848, -0.005534, 0.042319, -0.009608, -0.011365, -0.020668, -0.000536, 
    0.013195, -0.000284, 0.000009, 0.026670, 0.022644, 0.065132, 0.090047, 0.042436, 0.028611, 0.083046, 
    0.068209, 0.043615, 0.077673, 0.003520, 0.020675, -0.084614, -0.049350, -0.012426, 0.016295, 0.002191, 
    0.017165, -0.007825, -0.024438, 0.002736, 0.036212, 0.058868, -0.014990, -0.010094, -0.062383, -0.045404, 
    0.006596, 0.054172, 0.047935, -0.031281, 0.044953, 0.065679, 0.020447, -0.013790, -0.038907, -0.056248, 
    -0.078693, -0.024008, -0.036040, -0.008006, -0.028677, 0.078115, 0.006516, 0.063445, -0.030511, -0.025865, 
    -0.045091, -0.018510, -0.007717, 0.030532, -0.028906, 0.013427, 0.002630, -0.037284, 0.028527, 0.030226, 
    0.067861, 0.064666, 0.046246, -0.007501, -0.032505, 0.001701, 0.004667, -0.000056, 0.042686, 0.065396, 
    0.025936, 0.059113, 0.005931, 0.053071, 0.011140, 0.000073, 0.034436, 0.031847, -0.011111, 0.003398, 
    0.032916, -0.039063, 0.004797, -0.003440, -0.039656, -0.021156, -0.012878, 0.013004, 0.014802, -0.049337, 
    -0.070981, -0.010398, 0.012268, 0.020927, 0.033432, 0.053049, -0.028863, -0.029203, -0.071501, -0.064454, 
    -0.055209, -0.062384, -0.015915, -0.025445, -0.018833, 0.033413, -0.036937, 0.015053, 0.076556, -0.015627, 
    0.036144, 0.035643, 0.002705, 0.038281, 0.030563, 0.053883, 0.033961, 0.035564, 0.040492, 0.053551, 
    -0.054129, -0.057719, 0.072677, 0.034347, 0.035102, 0.010616, 0.003394, 0.033174, 0.026403, -0.001000, 
    0.015351, -0.013999, 0.004034, -0.003869, -0.042410, 0.037647, 0.037354, 0.043566, 0.025122, 0.025544, 
    0.002630, 0.069137, 0.009892, -0.003935, 0.046751, -0.010044, 0.042576, -0.016782, -0.011497, -0.024988, 
    0.028619, -0.031583, 0.008502, -0.011149, -0.055363, 0.036724, 0.014334, -0.046758, -0.074297, -0.009173, 
    0.010128, -0.045015, -0.048498, -0.069889, -0.007781, -0.023748, -0.019484, 0.009732, 0.038926, 0.036414, 
    0.034427, 0.038333, -0.027132, -0.035694, -0.036617, -0.065167, -0.047831, -0.083997, -0.031410, -0.090483, 
    -0.047897, 0.012055, 0.068287, 0.000155, 0.022187, 0.038595, 0.033450, 0.076731, 0.098931, 0.087896, 
    0.053396, 0.025337, -0.009952, -0.012963, -0.012126, -0.058951, -0.047348, -0.060392, 0.010576, -0.024943, 
    -0.013076, -0.001248, 0.073117, -0.003933, -0.000541, 0.065036, 0.060719, 0.031531, 0.049294, -0.035938, 
    0.044019, 0.051522, -0.006130, -0.019180, 0.049529, 0.064952, 0.099240, 0.024051, 0.035653, -0.000945, 
    -0.079707, -0.100241, -0.053603, -0.102938, -0.087822, 0.013865, 0.007030, 0.040073, 0.013939, 0.076426, 
    0.020144, 0.028713, 0.087854, 0.042577, 0.063214, 0.049003, 0.021986, 0.033643, 0.050985, 0.055282, 
    0.042508, 0.000593, 0.024561, 0.007008, -0.027026, -0.039867, -0.043721, -0.011948, -0.001090, 0.046546, 
    0.012585, -0.001680, 0.045439, 0.007926, 0.078823, 0.021909, -0.020655, 0.012918, 0.047478, 0.069951, 
    0.021517, 0.055421, 0.038687, -0.013154, -0.002899, 0.044976, 0.090959, 0.071461, 0.016991, -0.027579, 
    0.077005, 0.052492, 0.039757, 0.024264, 0.035134, 0.015464, 0.026033, -0.029813, -0.003521, 0.023599, 
    -0.041611, 0.026905, 0.023327, -0.062579, -0.012524, -0.025816, -0.024911, 0.024064, 0.064510, 0.021399, 
    0.045160, 0.002901, 0.030401, -0.006732, 0.029203, 0.047917, 0.010688, 0.058935, 0.017347, 0.015570, 
    0.071756, 0.043920, 0.009347, 0.018581, 0.042865, -0.046039, -0.007190, 0.018312, -0.013783, -0.037244, 
    -0.035200, -0.032514, 0.012143, 0.022734, -0.005871, -0.061126, -0.034829, -0.014169, -0.004274, 0.035751, 
    -0.006531, 0.032079, 0.075032, 0.074069, 0.042308, 0.107936, 0.067275, 0.020510, 0.083764, 0.060820, 
    0.071577, 0.069481, 0.087045, 0.071824, 0.107131, 0.051742, 0.107627, 0.088741, 0.101453, 0.021169, 
    0.041096, 0.061272, 0.021710, 0.017650, 0.000528, 0.078281, 0.015060, 0.040744, 0.047619, 0.077944, 
    0.042225, 0.080701, 0.004679, -0.014195, -0.047571, -0.052274, -0.000334, 0.032670, 0.073406, 0.077542, 
    0.098061, 0.069854, 0.067885, 0.056441, 0.035245, 0.123555, 0.095070, 0.027096, -0.003290, 0.034301, 
    -0.021293, -0.066545, -0.030008, -0.018067, 0.024767, 0.006187, 0.023708, 0.017207, 0.056028, 0.083522, 
    0.065030, 0.029638, -0.062130, -0.073044, -0.056921, -0.062958, -0.074455, -0.077119, -0.058091, -0.080975, 
    0.014533, -0.012943, -0.030043, 0.007995, -0.051282, -0.046530, 0.022303, 0.009788, 0.048262, -0.018570, 
    0.075510, 0.095321, 0.039506, 0.005335, 0.057470, 0.030357, 0.059459, 0.093969, 0.093130, 0.054834, 
    0.060796, 0.063729, 0.006958, 0.056597, 0.005700, 0.023125, -0.014450, 0.040202, -0.003276, 0.050622, 
    0.015745, 0.031784, 0.009087, 0.096445, 0.054540, -0.004203, 0.062999, 0.105848, 0.072292, 0.107421, 
    0.109669, 0.086456, 0.101957, 0.046520, 0.026231, 0.042099, 0.043662, 0.008771, 0.064686, 0.008605, 
    0.016841, 0.035227, -0.041404, -0.026541, -0.058313, -0.010626, 0.002172, -0.040770, 0.007142, -0.025903, 
    -0.005364, 0.010331, -0.027354, -0.001621, -0.040596, -0.051667, -0.047369, 0.010807, -0.054574, -0.062652, 
    0.013624, 0.030356, 0.006124, 0.009839, 0.055487, -0.023778, -0.040027, -0.009898, 0.049776, 0.038253, 
    0.003047, -0.042592, -0.055219, -0.067887, -0.009472, 0.001457, -0.010913, -0.047492, 0.009026, -0.014562, 
    0.078332, -0.006447, -0.002221, 0.053499, 0.068660, 0.059389, 0.088500, 0.085650, 0.065970, 0.005576, 
    0.099800, 0.034674, 0.066249, 0.051270, 0.017015, -0.022311, -0.010538, 0.037266, 0.043707, 0.009484, 
    -0.060044, -0.025303, 0.000333, -0.064118, -0.000346, -0.010475, 0.016030, -0.010798, -0.010092, -0.071754, 
    0.060407, 0.000307, 0.034609, 0.066631, 0.005105, -0.008356, -0.024632, -0.015064, -0.025966, -0.061724, 
    -0.020355, -0.017558, -0.013339, 0.009634, 0.028738, 0.036352, -0.008754, 0.048876, 0.017296, -0.006011, 
    0.072545, 0.024932, 0.007024, 0.054501, 0.016423, 0.007605, -0.043614, 0.034782, 0.025518, 0.039234, 
    0.096020, 0.022402, 0.107936, 0.079347, 0.104995, 0.069447, 0.077441, 0.120004, 0.054423, 0.074341, 
    0.090740, 0.013170, 0.054131, 0.058705, 0.075905, 0.021304, -0.017004, -0.009468, 0.029187, -0.020351, 
    -0.035232, -0.015143, -0.016335, -0.058069, -0.044848, -0.004092, -0.058126, -0.044465, -0.019140, 0.028818, 
    -0.013572, -0.036949, -0.046146, -0.029236, 0.004840, -0.019249, -0.051726, -0.078552, -0.073948, -0.038247, 
    -0.000117, -0.000422, -0.024235, -0.000691, -0.018504, 0.043425, 0.054047, 0.031503, 0.069300, 0.054782, 
    0.049977, 0.035590, 0.075876, -0.019267, 0.044257, -0.002527, 0.005442, -0.031108, -0.017944, 0.004028, 
    -0.018415, 0.074810, 0.079418, 0.091719, -0.019630, -0.031969, 0.024550, 0.044232, 0.006126, 0.005217, 
    0.021698, 0.005122, -0.061464, -0.088434, -0.085269, 0.027095, 0.060325, 0.099600, 0.092860, 0.035145, 
    0.073962, 0.103918, 0.064197, 0.042915, 0.030350, 0.056343, 0.096221, 0.029867, 0.015422, 0.046233, 
    -0.000220, -0.005151, 0.012163, 0.018402, -0.024220, -0.029071, -0.056690, 0.000916, -0.038286, -0.062018, 
    -0.077488, -0.058378, -0.057569, -0.006092, 0.018967, 0.006624, 0.038306, -0.023120, -0.040178, -0.068951, 
    -0.062227, -0.011839, -0.018462, -0.013044, -0.057452, -0.031433, -0.052983, 0.004179, -0.075405, -0.055980, 
    -0.004580, 0.061859, 0.030830, 0.031383, 0.074112, 0.111416, 0.106713, 0.085986, 0.044389, 0.071213, 
    0.032894, 0.105116, 0.064829, 0.065537, -0.018774, 0.005414, -0.042893, -0.031726, -0.000022, 0.010871, 
    -0.017525, -0.001686, 0.025560, 0.052199, 0.071405, 0.068000, 0.062636, 0.012361, 0.059946, -0.035646, 
    0.011363, 0.064658, 0.030967, 0.003148, 0.034414, 0.099170, 0.083720, 0.016213, -0.049021, -0.006298, 
    -0.045956, -0.038585, -0.023869, -0.013068, 0.005724, 0.057143, 0.082767, 0.081846, 0.022263, 0.099381, 
    0.067161, 0.044262, 0.106434, 0.021231, 0.077891, 0.030988, 0.056574, 0.014581, 0.084574, 0.063819, 
    0.059065, 0.029876, -0.020131, 0.011835, 0.039575, -0.019433, -0.000687, 0.024107, 0.007918, 0.028380, 
    0.065634, 0.048596, 0.000401, 0.016369, 0.099066, 0.032531, 0.000907, 0.056111, 0.052668, 0.036100, 
    0.004797, 0.069294, 0.078988, 0.042626, 0.050958, 0.075911, 0.033216, 0.062931, 0.010489, -0.018484, 
    0.015911, 0.049169, 0.012556, 0.059050, 0.095677, 0.089167, -0.021809, 0.057390, 0.047774, 0.056535, 
    0.027428, 0.051594, 0.028245, 0.049131, -0.001402, 0.078798, 0.092640, 0.065091, 0.036102, 0.023548, 
    0.060063, 0.105553, 0.064869, 0.045682, 0.033530, 0.063050, 0.078320, 0.050282, 0.039903, -0.006506, 
    0.075169, 0.044255, -0.017729, 0.060032, 0.075684, 0.067405, 0.062663, 0.100402, 0.083035, 0.019309, 
    0.030171, 0.006677, 0.025718, 0.013793, 0.019354, 0.030392, -0.034054, -0.039236, 0.039782, -0.007218, 
    0.009662, -0.014143, 0.003032, 0.030272, 0.010369, 0.052664, 0.022235, 0.003117, 0.029396, 0.046586, 
