#ifndef WEIGHTS_H
#define WEIGHTS_H

#include "gesture_typedefs.h"

// PyTorch Layer: conv1.weight (Shape: (16, 6, 3))
static const data_t conv1_w[288] = {
0.002084, 0.002242, -0.000296, 0.011847, -0.006774, 0.000242, -0.004228, 0.011477, 0.015779, -0.718825, 
    1.298869, 0.439859, 0.770872, 0.172879, 0.516742, -0.064908, 1.684009, 0.513066, -0.000981, 0.000752, 
    -0.000961, 0.000027, -0.004772, 0.012768, -0.013669, -0.008830, -0.006210, -0.941749, -0.073787, -1.421264, 
    0.879881, -0.816265, 0.802764, 0.539149, -0.393498, 1.385722, 0.000570, 0.002137, 0.000477, -0.006792, 
    0.002587, -0.006553, 0.008080, 0.014905, 0.010346, -0.315655, 0.947925, 0.443959, 0.303300, -0.794232, 
    -1.166908, -0.846375, -1.591893, 1.497103, 0.000854, 0.001158, 0.000922, -0.002837, 0.010139, -0.014212, 
    0.002779, -0.008141, 0.006266, -0.202879, 0.606198, -0.035763, 0.645918, -0.736605, -0.736272, -1.107200, 
    1.716760, 0.644171, 0.001964, -0.002325, -0.002721, -0.015473, -0.013665, 0.003994, 0.007326, 0.014222, 
    -0.005447, -1.040742, 0.474073, -0.696770, 0.766314, -0.058347, 0.736932, -1.429138, -0.872791, 0.713277, 
    0.000251, -0.000837, 0.001187, 0.009902, -0.012975, -0.008766, 0.014165, -0.004082, -0.004420, -1.185509, 
    -0.694059, 0.349126, -0.205389, -0.794846, -0.068554, -1.523442, -1.863720, -1.318855, -0.001918, -0.001355, 
    0.002528, 0.002365, 0.004216, -0.016464, -0.011383, -0.006835, 0.000052, -1.234680, -0.696189, -0.902470, 
    -0.025390, -0.379988, -0.097842, -1.575008, -1.584944, -1.387637, -0.000867, -0.001931, 0.001927, -0.001617, 
    0.015619, 0.006531, -0.013919, 0.008553, -0.005689, -0.672843, -1.228295, -1.429512, 0.440850, -0.070608, 
    0.537116, -1.652026, 1.327144, -1.479411, -0.000232, 0.000695, 0.001430, 0.014604, 0.016387, -0.011802, 
    0.004665, -0.005116, -0.000182, -1.068232, 1.050376, -1.029555, 0.697385, 0.529224, 0.516873, -0.781401, 
    1.972052, 0.616380, 0.000300, -0.002118, 0.000962, 0.000281, -0.004692, 0.016834, 0.000581, -0.010596, 
    -0.009824, -0.162092, 0.586760, -0.469900, -0.643888, -0.395741, -0.775632, 0.744533, 1.439771, -1.869892, 
    0.000654, 0.001345, 0.000563, -0.003793, 0.010542, 0.010442, 0.006394, -0.001675, -0.002959, 0.058516, 
    -0.272907, -0.447421, 0.761867, 0.972893, 0.056903, -0.300200, 0.208968, 0.144666, 0.000727, 0.000848, 
    -0.001976, -0.003709, 0.016096, 0.008683, -0.003020, -0.011102, -0.011332, -1.196469, -0.460554, 0.400880, 
    0.570924, 0.409835, -0.898305, -1.189767, -0.320447, 1.827657, 0.000725, -0.000241, 0.001369, -0.008870, 
    -0.013364, 0.009089, -0.004759, -0.001053, -0.012662, 1.072774, 1.179799, 0.683644, -0.805772, -1.087370, 
    -0.900661, 1.580221, 1.046790, 1.756608, 0.001199, 0.000555, -0.000053, -0.015299, -0.016849, -0.018130, 
    0.004465, -0.008465, -0.004077, -0.877190, -0.390274, -1.038189, -0.738480, 0.231284, -0.392089, 1.386216, 
    -0.433753, -1.217379, -0.000557, -0.001282, -0.000859, -0.018242, 0.006589, -0.013891, 0.009938, 0.009291, 
    0.013122, -1.067742, 0.852444, -0.644936, 0.557053, 1.099687, 0.034949, 0.151496, -0.310634, -1.487138, 
    0.001389, -0.002130, 0.001735, 0.015032, 0.018315, -0.001048, -0.012132, 0.003153, 0.007950, -1.289503, 
    -0.333518, -0.806950, -0.167770, -0.560196, -0.467759, -0.358995, -1.572912, 1.726970
};

// PyTorch Layer: conv1.bias (Shape: (16,))
static const data_t conv1_b[16] = {
-0.299623, -1.118884, 0.455035, -0.841951, 0.255635, 1.633322, 1.639663, 0.602274, -0.706291, -0.291865, 
    0.302607, -0.209436, -2.275963, -1.218958, 0.581333, -0.082509
};

// PyTorch Layer: conv2.weight (Shape: (32, 16, 3))
static const data_t conv2_w[1536] = {
-0.098795, 0.133509, -0.058695, 0.030312, -0.058429, 0.009034, 0.161386, 0.095364, -0.110669, 0.065882, 
    0.140575, 0.034909, 0.125842, 0.174267, -0.013428, 0.064790, -0.062461, 0.004302, 0.145692, 0.112323, 
    -0.058694, -0.082117, -0.069781, -0.133844, -0.120529, -0.055695, 0.073400, 0.029955, -0.078068, -0.082617, 
    0.083251, -0.098947, -0.020140, 0.084611, -0.044526, 0.012649, 0.015993, -0.001263, -0.042254, -0.096810, 
    -0.083379, -0.059811, 0.170247, -0.047049, -0.098387, 0.045497, 0.034162, 0.080709, 0.098759, 0.072569, 
    -0.144645, 0.058210, 0.133414, 0.031719, -0.119382, 0.102207, -0.089395, -0.062330, -0.118164, 0.028834, 
    0.103347, 0.072853, 0.070676, -0.085565, -0.111946, 0.023444, 0.166237, 0.117911, -0.050530, 0.013061, 
    -0.075676, -0.043307, 0.062548, 0.118795, 0.159578, -0.115006, 0.115713, -0.088264, 0.079533, 0.151495, 
    0.038341, 0.166951, -0.090139, -0.027298, 0.101290, -0.017138, -0.018301, -0.015251, 0.144037, 0.116551, 
    0.083445, -0.039591, -0.075089, 0.014572, 0.034526, -0.083628, -0.007306, 0.133235, 0.045767, 0.048495, 
    0.006304, -0.086182, -0.098675, -0.027997, -0.034619, 0.053913, -0.027796, -0.043876, 0.183410, 0.093182, 
    0.145865, -0.073203, -0.067663, 0.046845, -0.066447, -0.070370, 0.011792, -0.020944, -0.078409, 0.109307, 
    0.141530, 0.049906, -0.000283, -0.159746, -0.081815, 0.013844, 0.093956, 0.009417, -0.030734, 0.059792, 
    -0.135408, 0.075911, -0.064530, -0.003218, -0.032344, 0.050685, -0.016776, 0.129762, 0.043167, 0.158176, 
    0.183380, -0.097066, -0.131997, 0.085253, 0.115062, -0.111334, -0.013054, -0.102177, -0.079962, 0.064222, 
    0.023957, 0.017853, -0.045486, 0.118997, 0.012059, -0.087648, 0.032681, 0.078965, 0.094458, -0.075584, 
    0.085086, -0.039842, -0.084207, -0.037987, 0.179820, 0.153923, 0.158886, 0.115916, 0.126904, -0.002505, 
    -0.063063, 0.081733, -0.056661, -0.083178, -0.030541, 0.049016, 0.096004, -0.050170, -0.085336, 0.030477, 
    -0.076497, -0.074977, 0.096235, 0.010821, 0.171307, 0.177438, 0.081947, 0.091890, 0.075531, -0.025802, 
    -0.037551, -0.016289, 0.063216, 0.145346, -0.023367, -0.098699, -0.068336, -0.094252, 0.062027, 0.147478, 
    0.150879, 0.090828, -0.082425, -0.053434, -0.058585, -0.047613, -0.011353, -0.099246, 0.076193, -0.089461, 
    -0.062484, -0.099319, 0.123759, -0.158434, 0.090608, -0.006578, -0.051353, 0.055539, -0.045943, 0.119091, 
    0.128774, -0.105460, 0.021004, -0.006109, 0.000375, -0.001800, 0.011305, -0.087693, 0.016605, 0.172655, 
    0.132481, 0.019218, -0.120684, 0.011536, -0.117571, 0.100950, -0.108107, 0.005220, -0.012276, 0.052113, 
    0.175853, 0.053282, 0.120893, 0.083541, 0.086959, -0.080073, 0.011032, 0.112702, 0.003812, 0.092161, 
    -0.007345, -0.070302, 0.047414, 0.004922, 0.046337, 0.138336, 0.094173, 0.129152, -0.011808, -0.145700, 
    -0.125639, -0.103477, -0.149112, -0.089868, -0.136262, -0.141245, -0.108539, -0.146243, -0.093683, 0.043689, 
    0.122181, -0.043446, -0.053589, 0.049152, -0.102187, -0.101985, 0.111871, -0.103181, 0.042075, 0.113314, 
    0.011482, 0.021971, -0.081211, -0.003415, 0.003587, 0.043196, 0.061674, 0.131611, -0.070562, 0.042651, 
    -0.049597, -0.123794, -0.018222, -0.127758, 0.146265, 0.062132, -0.042670, 0.100725, -0.121921, -0.061776, 
    0.006422, -0.087416, -0.058457, 0.016346, 0.148875, 0.175036, 0.128992, -0.050163, -0.059576, 0.156283, 
    0.079043, 0.027013, -0.001074, -0.117735, -0.051253, 0.170918, 0.000235, 0.027505, -0.111286, -0.063607, 
    0.007215, -0.068495, 0.002203, 0.080485, -0.100602, 0.084718, -0.064726, -0.042203, 0.082485, 0.133487, 
    0.000542, -0.022132, -0.091966, -0.049867, -0.099476, -0.007573, 0.054282, -0.103258, 0.162581, 0.105711, 
    -0.121471, -0.062926, 0.065149, -0.008178, 0.010653, -0.060024, 0.126803, -0.073741, 0.134410, 0.037132, 
    0.042863, 0.144241, 0.013182, -0.056742, 0.006758, 0.146150, -0.088621, 0.059623, -0.119290, 0.096794, 
    0.072151, 0.036343, 0.094102, 0.024914, 0.096086, -0.110667, 0.000135, 0.087826, 0.168648, 0.097815, 
    -0.076546, 0.120447, -0.020937, -0.025115, -0.123050, -0.007733, 0.113027, 0.009519, -0.057652, 0.073537, 
    -0.010360, 0.158659, -0.096805, -0.031119, -0.114993, -0.029761, 0.073020, 0.152842, 0.039818, 0.159142, 
    0.058601, 0.115491, 0.146648, 0.132197, -0.069056, 0.142716, 0.068777, -0.080392, -0.081923, -0.109925, 
    0.036637, -0.125874, 0.069270, 0.048935, -0.122149, 0.066435, 0.015774, 0.094124, 0.104212, -0.119318, 
    0.154932, 0.130567, 0.064728, -0.125491, -0.036428, -0.022467, -0.014455, 0.101656, 0.072974, 0.134217, 
    -0.047387, 0.054437, 0.054488, -0.142894, -0.167047, -0.103467, 0.086144, -0.144441, -0.133777, 0.107646, 
    0.102426, 0.141682, -0.090793, -0.085371, 0.096542, 0.155166, 0.117459, 0.053717, 0.043950, 0.129844, 
    -0.105676, -0.045104, 0.123279, -0.081532, -0.063103, 0.118701, 0.046815, 0.083088, -0.030678, 0.010524, 
    0.171056, -0.046745, 0.027968, 0.103711, -0.066622, 0.169145, -0.039362, -0.002688, -0.008479, -0.065600, 
    -0.110934, 0.121515, 0.059944, -0.114269, -0.073107, 0.175126, 0.089364, 0.091939, -0.074335, -0.038946, 
    0.016370, -0.006031, -0.079153, 0.022086, 0.025606, -0.013400, 0.013766, -0.028711, 0.068989, 0.081904, 
    -0.093067, -0.162895, 0.057953, 0.066085, -0.041977, 0.170051, -0.098315, 0.065328, 0.042203, -0.095376, 
    0.112935, -0.109462, -0.102876, -0.036819, -0.094541, 0.160539, -0.002468, 0.097073, -0.090221, 0.121976, 
    -0.003265, -0.099349, 0.036172, 0.088224, 0.141574, -0.077007, -0.066642, 0.067849, 0.080177, 0.095642, 
    0.096830, -0.023325, 0.088225, 0.141653, -0.006248, 0.135495, 0.101977, 0.156610, -0.051604, -0.038504, 
    -0.001026, 0.051770, 0.067288, -0.087114, 0.077865, -0.028999, 0.107868, 0.017242, -0.111547, -0.064171, 
    -0.092489, 0.102292, -0.066212, 0.013217, 0.024959, -0.083882, 0.044712, -0.119066, -0.081399, -0.121991, 
    -0.067308, -0.065589, 0.016035, -0.012465, 0.094477, 0.159977, 0.081159, -0.022695, -0.102950, 0.081007, 
    -0.040675, 0.104771, 0.122724, 0.082935, 0.160989, 0.173564, 0.066391, -0.076975, 0.155311, -0.042311, 
    -0.042703, 0.154880, 0.145392, 0.075306, 0.044469, -0.088709, 0.005923, 0.142574, 0.046091, 0.006773, 
    -0.045263, -0.057268, 0.080667, 0.040254, 0.125754, 0.005392, 0.083501, 0.077493, 0.036383, 0.127770, 
    0.131033, 0.175232, 0.091422, -0.057200, -0.145580, 0.059280, 0.023644, -0.007129, -0.046908, -0.010268, 
    0.081332, 0.012140, -0.081590, -0.094251, -0.022174, -0.043905, 0.138678, 0.113128, 0.168600, 0.035424, 
    0.069089, 0.089357, -0.096315, 0.033765, 0.011390, -0.057643, -0.080721, 0.160045, 0.147884, 0.104634, 
    0.176933, -0.018368, -0.009923, 0.066264, -0.013578, -0.011501, -0.098640, 0.061476, -0.107490, -0.014162, 
    0.119599, -0.009927, -0.010243, 0.119947, -0.024954, 0.017573, 0.166165, -0.088921, -0.132082, -0.106114, 
    0.003479, -0.025333, -0.032323, 0.077474, 0.034798, -0.035098, -0.093203, -0.021266, -0.036459, -0.020670, 
    -0.118724, 0.043808, -0.101144, -0.122765, -0.124564, 0.044884, -0.103569, -0.075592, 0.112832, 0.077970, 
    0.085374, -0.130337, -0.114501, -0.071082, 0.125390, 0.021530, -0.099950, -0.021234, -0.137204, -0.057057, 
    -0.019510, 0.143068, 0.066970, -0.026632, 0.010655, -0.057735, 0.087993, 0.089775, 0.071516, -0.065854, 
    0.109890, -0.038618, -0.012483, 0.136512, 0.164152, 0.148454, 0.050036, -0.046714, 0.111692, 0.165087, 
    -0.104342, -0.016338, -0.094337, 0.031447, 0.110441, 0.019419, 0.031927, 0.105365, 0.007919, -0.096243, 
    0.152252, -0.037862, 0.006433, 0.058158, 0.032266, -0.105538, 0.104361, -0.023279, -0.031236, -0.006799, 
    -0.111046, -0.082147, -0.004994, -0.009343, -0.015390, -0.056478, 0.033642, -0.121035, -0.074826, 0.014988, 
    0.038659, 0.088825, -0.102808, 0.036913, 0.132368, 0.129610, -0.087208, -0.074529, -0.135931, -0.099552, 
    0.114340, 0.011401, 0.097791, -0.097655, 0.007335, -0.107273, 0.115030, -0.020212, 0.006853, -0.095231, 
    0.018364, 0.159720, 0.038618, -0.108757, -0.029714, -0.030558, -0.135522, 0.093148, -0.019890, 0.004964, 
    -0.084641, -0.049272, 0.045214, 0.072926, 0.058878, -0.045020, 0.163176, -0.017052, -0.094317, -0.080907, 
    0.160885, 0.018314, -0.004542, -0.049787, -0.033376, -0.115087, -0.097320, 0.094027, 0.124238, 0.111338, 
    -0.136725, 0.044161, -0.108358, 0.067141, 0.083952, 0.150496, 0.139628, 0.127636, 0.029428, 0.092043, 
    -0.026287, 0.091131, -0.022219, 0.018882, -0.112391, -0.022339, -0.057335, -0.037866, -0.077866, -0.117054, 
    0.002207, 0.083618, 0.119897, 0.104454, -0.052234, -0.130894, 0.078072, 0.101789, -0.111202, 0.086601, 
    0.154615, 0.038916, -0.053454, 0.151692, 0.093960, 0.123287, -0.073638, 0.107940, -0.064708, 0.175783, 
    -0.029003, 0.118764, 0.061512, 0.069901, -0.005594, 0.076191, -0.042784, -0.157409, -0.081208, 0.087299, 
    -0.040341, 0.039450, -0.063018, 0.139723, 0.117410, 0.080911, -0.053069, -0.095890, 0.027477, -0.052748, 
    0.151690, -0.126384, 0.100180, 0.179917, 0.108332, 0.083674, -0.107617, 0.168500, -0.046406, -0.151621, 
    0.137939, -0.038064, 0.009925, 0.150248, -0.073137, -0.074029, 0.048655, -0.008470, 0.035299, -0.117007, 
    -0.021360, -0.094169, -0.104282, -0.093426, 0.114975, 0.060427, -0.140306, 0.086027, 0.017347, 0.043858, 
    -0.061172, 0.019813, 0.186270, 0.145666, -0.067031, 0.162226, 0.042907, 0.097732, 0.108126, 0.114031, 
    -0.117755, 0.151965, -0.076099, 0.031375, -0.077132, -0.007459, 0.016629, -0.005801, -0.011022, 0.015754, 
    0.176212, 0.119985, 0.116188, 0.084002, 0.141629, 0.020198, 0.021636, 0.049920, -0.110546, -0.103980, 
    0.031961, -0.037984, 0.011193, -0.019824, 0.034531, 0.100289, -0.041939, 0.119530, 0.098656, -0.132477, 
    -0.136285, -0.099390, -0.054747, -0.033329, -0.028288, -0.054627, -0.095890, -0.062424, -0.066751, 0.125748, 
    -0.015644, -0.063522, 0.098162, 0.012453, 0.135429, 0.115787, 0.144641, -0.088007, 0.108464, 0.128604, 
    -0.061053, 0.143777, 0.106803, 0.002482, 0.077693, -0.048260, -0.127551, 0.038394, 0.074650, -0.062770, 
    0.103606, -0.093543, 0.153665, 0.170353, 0.063624, -0.064490, 0.096582, 0.064677, 0.080377, 0.087465, 
    0.142932, -0.032267, -0.005147, 0.053533, 0.025092, 0.117652, -0.102829, -0.030789, -0.000979, -0.023616, 
    0.116609, 0.039428, -0.158745, -0.039351, -0.088295, 0.011525, -0.023829, -0.151320, 0.004111, 0.020052, 
    -0.006118, 0.170288, 0.007540, 0.129977, 0.058567, -0.097743, 0.058659, 0.133952, -0.084555, -0.082259, 
    0.170891, 0.146461, -0.058053, 0.075215, -0.029847, -0.139031, 0.045950, 0.084478, -0.005547, 0.057756, 
    -0.109583, 0.112102, 0.091301, 0.053674, 0.001574, 0.029779, -0.113622, -0.034635, -0.033505, -0.096676, 
    -0.113620, 0.098204, 0.100713, -0.119304, 0.062081, 0.072812, 0.146936, 0.099109, 0.148318, -0.027411, 
    0.109002, 0.125029, -0.124785, -0.109404, 0.037063, 0.094843, -0.063733, 0.027690, 0.010311, 0.011493, 
    -0.103968, 0.064390, 0.080014, -0.112673, -0.007543, 0.022361, 0.069902, 0.160785, 0.065211, -0.007984, 
    0.155710, -0.029101, -0.017975, 0.032158, -0.088242, 0.040417, -0.069632, 0.033861, 0.027690, 0.032770, 
    -0.129397, -0.141695, 0.073369, 0.126190, -0.130812, 0.055842, -0.084711, 0.032210, 0.154409, 0.134762, 
    -0.080276, 0.113469, 0.099621, 0.023904, 0.163761, -0.021939, -0.000126, -0.044159, 0.044721, 0.061750, 
    0.035483, -0.053179, -0.037741, 0.072404, -0.107859, -0.009268, 0.003740, -0.059807, 0.045711, 0.008323, 
    0.120472, 0.009508, -0.066720, 0.128445, 0.047064, -0.015873, -0.072890, 0.052744, -0.133914, 0.046754, 
    0.080960, -0.110315, -0.088824, -0.101230, 0.125234, 0.098895, -0.001216, 0.108294, -0.020159, -0.103900, 
    0.084545, 0.090004, 0.182723, 0.037633, 0.148122, 0.127162, 0.143189, -0.103486, 0.158802, -0.086531, 
    0.149260, 0.022483, -0.107611, 0.063668, -0.008954, -0.101148, -0.025849, 0.043768, 0.135408, -0.005622, 
    0.129148, 0.058815, 0.000908, 0.022636, -0.078610, -0.117829, -0.044713, -0.134537, -0.030975, 0.042563, 
    -0.062094, -0.024131, 0.011268, 0.012137, -0.074793, 0.021769, -0.022176, 0.062418, 0.025086, -0.062712, 
    -0.047700, 0.017381, -0.069376, 0.002353, -0.011256, 0.031894, 0.069568, 0.147733, 0.036914, -0.091858, 
    0.074515, -0.089539, 0.001460, -0.022722, -0.043529, -0.034586, 0.148343, 0.088567, 0.059144, 0.152550, 
    -0.126465, 0.058390, 0.115907, 0.107747, -0.105552, 0.065012, -0.085086, 0.006508, -0.019279, -0.134658, 
    -0.114914, -0.097477, 0.054512, 0.092579, -0.115311, -0.045092, 0.035760, -0.091506, 0.116108, 0.149794, 
    0.049194, -0.107824, 0.075383, 0.093753, 0.155684, -0.048248, -0.103143, 0.088799, 0.032862, -0.022078, 
    -0.036511, -0.052292, 0.135820, -0.002476, 0.135000, 0.161694, 0.051452, 0.042016, 0.016867, 0.125124, 
    -0.111837, 0.085020, 0.006788, 0.086273, 0.020161, -0.033866, 0.023646, 0.120558, -0.062775, -0.077598, 
    -0.030505, -0.069700, 0.090559, 0.129419, 0.018362, 0.127743, -0.066741, -0.093783, -0.074100, -0.107366, 
    -0.095696, -0.101751, -0.096174, 0.067981, 0.125105, 0.174859, 0.161919, -0.021808, 0.014059, -0.111590, 
    0.051115, -0.141014, 0.067916, 0.048659, 0.069435, 0.080287, -0.046873, 0.141587, 0.086583, 0.116420, 
    0.038958, 0.117471, 0.118070, 0.086820, 0.133577, 0.009628, 0.124977, 0.065759, 0.113432, 0.167654, 
    0.067265, -0.046564, -0.004520, 0.054714, 0.009665, -0.054788, 0.104450, 0.099502, -0.077367, -0.000048, 
    -0.032742, -0.103432, 0.013188, -0.037216, -0.064146, -0.037319, -0.014256, 0.173443, 0.091691, 0.173373, 
    0.071858, 0.065013, 0.064605, 0.032638, -0.104089, -0.091809, -0.040464, -0.005225, 0.068425, 0.067881, 
    0.125658, 0.040275, -0.038107, -0.100790, -0.080773, -0.061765, 0.067440, 0.095776, 0.144385, -0.031477, 
    -0.033007, -0.052600, -0.013822, 0.031730, -0.003126, 0.005061, 0.010204, 0.048835, -0.046308, -0.094357, 
    0.031177, -0.014656, -0.071765, 0.050266, -0.007147, -0.015548, -0.070040, -0.015784, -0.134586, 0.021576, 
    -0.007023, 0.075037, -0.006903, -0.001839, 0.068140, 0.136681, -0.042902, 0.104076, 0.052848, -0.087253, 
    0.031823, -0.099612, -0.059135, -0.082325, -0.113254, 0.103351, -0.113177, 0.089890, -0.109122, 0.026353, 
    0.050682, 0.144230, -0.062930, 0.037296, 0.015265, 0.118574, 0.039803, 0.082201, -0.100227, -0.116481, 
    0.118172, -0.092065, -0.012066, -0.001876, 0.172691, -0.002354, -0.079786, 0.003325, 0.115405, 0.097225, 
    0.163326, 0.014487, 0.112688, -0.102853, 0.089003, 0.097403, 0.132470, -0.043668, 0.004761, 0.080231, 
    -0.060176, -0.071880, -0.110350, 0.037253, 0.117827, 0.068660, 0.040817, 0.081482, -0.102705, 0.010798, 
    -0.032675, -0.026855, 0.168933, -0.067182, 0.044252, -0.106954, 0.016344, -0.049629, 0.069137, -0.050952, 
    0.072858, -0.144648, 0.062774, -0.132536, 0.050670, -0.082583, 0.023280, 0.000131, 0.120466, 0.056669, 
    -0.098283, 0.040039, -0.085334, 0.136661, 0.056480, -0.002180, -0.037765, 0.085096, -0.052154, 0.105805, 
    0.114949, 0.087675, 0.037857, -0.129664, 0.141020, -0.007056, -0.002477, 0.012028, 0.140545, 0.145666, 
    0.009730, 0.050958, -0.156360, -0.015967, -0.119728, 0.063362, -0.068750, -0.019382, 0.132448, 0.152937, 
    -0.072952, -0.063303, 0.024721, 0.063747, -0.012184, -0.050234, -0.105691, 0.045803, 0.177317, -0.030679, 
    0.107956, 0.085266, 0.125467, -0.006128, 0.023238, 0.136395, 0.119744, 0.151990, -0.019258, 0.078747, 
    0.114671, -0.082418, 0.044086, -0.044899, 0.081564, -0.082785, -0.023476, 0.050565, -0.168478, -0.128746, 
    -0.084591, 0.083677, 0.062848, -0.134121, -0.007756, -0.110049, -0.099918, 0.094501, 0.105514, -0.005633, 
    0.058710, 0.054147, 0.064096, -0.025028, -0.070931, 0.114192, 0.038537, 0.036024, -0.077589, 0.047929, 
    0.139647, 0.121755, 0.075255, 0.177504, 0.034548, 0.062438, 0.180734, 0.183104, -0.017450, 0.149865, 
    0.068832, -0.000073, 0.172357, -0.028815, 0.140432, 0.134534, -0.114233, -0.101774, -0.119090, -0.001140, 
    -0.111940, -0.039708, 0.052251, 0.110029, 0.086405, 0.085154, 0.067146, -0.104731, -0.131116, -0.028531, 
    0.136582, 0.009609, -0.008476, -0.125851, -0.103527, -0.145645, 0.144558, 0.005531, -0.103716, 0.050453, 
    0.046145, 0.012660, 0.098014, 0.124860, -0.088526, -0.138911, -0.037878, -0.167973, -0.128024, 0.131866, 
    -0.001516, -0.078810, -0.052877, -0.106346, 0.144105, -0.001544, -0.048802, -0.102624, 0.085687, -0.012696, 
    -0.002176, -0.044773, -0.088869, 0.049856, 0.127679, -0.075273, 0.017806, -0.104343, -0.064305, 0.137062, 
    0.011273, 0.153507, -0.052311, -0.104328, -0.108986, 0.140616, -0.091113, 0.095879, 0.010092, 0.019313, 
    0.059908, -0.024576, 0.096436, -0.093602, -0.017471, 0.139925, 0.078014, -0.037805, -0.061735, -0.120480, 
    0.081718, -0.021620, -0.025721, 0.041003, 0.108259, -0.063347
};

// PyTorch Layer: conv2.bias (Shape: (32,))
static const data_t conv2_b[32] = {
-0.011322, 0.115145, 0.121483, -0.037622, -0.119697, 0.050659, 0.121126, 0.071842, 0.124343, -0.079936, 
    0.092323, -0.057723, 0.086916, 0.139398, 0.093133, 0.122237, -0.070092, -0.090702, -0.105668, 0.116116, 
    0.071952, -0.077465, 0.101404, 0.155139, -0.104353, 0.133230, 0.041299, 0.048870, 0.155073, 0.160626, 
    0.102842, 0.135332
};

// PyTorch Layer: fc1.weight (Shape: (32, 480))
static const data_t fc1_w[15360] = {
0.018989, 0.007437, -0.040121, 0.008525, -0.032473, 0.014052, 0.008053, 0.001025, -0.031208, -0.027669, 
    0.033737, 0.022229, 0.024065, -0.013601, -0.007860, -0.011697, 0.031389, -0.019704, 0.028749, 0.031471, 
    -0.041744, 0.000279, -0.008693, -0.025233, 0.019705, -0.005545, 0.039961, -0.028568, 0.021207, -0.038970, 
    -0.022878, 0.003113, 0.036063, 0.024041, -0.037477, 0.005056, -0.026906, 0.001978, -0.038024, -0.013391, 
    0.031305, -0.041880, -0.043518, 0.008314, 0.006257, -0.008348, 0.039856, -0.027481, -0.027709, -0.034117, 
    -0.008495, -0.011648, 0.028242, -0.002563, 0.014576, -0.018967, 0.037026, 0.038478, -0.040877, -0.011730, 
    -0.038728, 0.019391, -0.039878, -0.021581, 0.045606, -0.043586, 0.033676, 0.003856, 0.036498, -0.023164, 
    0.029980, 0.005507, 0.003511, 0.031153, -0.043385, -0.036764, 0.044081, -0.027409, -0.032900, -0.002232, 
    -0.014611, -0.006245, -0.030581, 0.016469, -0.039275, 0.003697, 0.026635, 0.008770, 0.006065, 0.006676, 
    -0.013371, -0.008695, -0.019248, -0.030834, -0.024166, 0.045121, -0.007639, 0.015989, 0.031565, -0.003566, 
    -0.024555, -0.030925, -0.016815, 0.016292, -0.038439, -0.005573, 0.017362, 0.037239, 0.013736, 0.009027, 
    0.031247, 0.021091, 0.015442, -0.014152, -0.036602, -0.009859, -0.008278, 0.003352, -0.005020, 0.018453, 
    0.030332, -0.018505, -0.043309, -0.023418, -0.021839, 0.025873, -0.029442, -0.004293, -0.009674, -0.027703, 
    0.020690, -0.019013, -0.002361, -0.032091, -0.004604, 0.006485, -0.001857, -0.017055, 0.013560, -0.011826, 
    -0.025305, -0.033659, -0.009669, -0.043118, 0.037885, -0.021805, -0.018916, 0.004219, 0.011832, -0.004304, 
    0.031313, -0.026608, 0.016358, -0.000103, -0.037130, -0.017678, 0.011616, 0.008720, 0.033189, 0.030535, 
    -0.024895, -0.019491, -0.009678, -0.032700, -0.012323, -0.037351, 0.017360, 0.032296, 0.003614, -0.032675, 
    -0.034566, -0.017769, 0.013276, 0.001113, 0.008299, 0.043018, 0.021199, 0.009814, -0.009235, 0.021592, 
    0.016698, -0.041084, -0.026962, 0.001532, 0.017319, 0.022206, -0.027171, -0.045284, -0.002378, -0.005218, 
    0.013245, -0.012552, 0.034896, 0.003046, 0.033331, -0.031782, 0.018259, 0.005439, -0.022829, 0.022628, 
    -0.044914, 0.036901, 0.003678, 0.004407, 0.021108, 0.003789, 0.019565, 0.029039, -0.035623, 0.030196, 
    -0.006835, -0.010614, 0.009187, 0.035700, -0.024813, -0.030761, 0.028327, -0.021437, 0.014695, -0.006724, 
    0.012564, 0.034831, -0.023132, -0.022149, 0.022394, 0.002499, -0.005023, -0.040093, 0.038672, -0.001729, 
    -0.008407, -0.018736, -0.009007, 0.022184, -0.001049, 0.039035, -0.002635, -0.006548, 0.025764, -0.001181, 
    -0.009110, 0.015255, 0.035996, 0.011390, 0.031782, 0.029579, 0.012908, 0.015870, 0.014728, 0.004734, 
    0.038831, 0.042135, 0.016249, -0.002279, 0.040924, -0.035525, 0.033538, 0.024183, 0.029309, -0.003507, 
    -0.034055, 0.032559, -0.019958, 0.012009, 0.025859, -0.042655, 0.003029, -0.016214, 0.032396, -0.029061, 
    0.027713, 0.028462, 0.025182, 0.043818, 0.006913, -0.041370, 0.032583, 0.004179, 0.000906, -0.043480, 
    -0.010259, -0.022154, 0.044704, 0.032500, 0.034050, 0.031258, -0.028293, -0.019603, -0.017863, -0.018298, 
    0.035530, 0.015508, 0.036577, -0.002135, -0.040688, -0.013242, 0.032078, 0.027788, 0.014130, -0.013389, 
    -0.042602, -0.024525, 0.023798, -0.018411, 0.021833, 0.012463, -0.017531, 0.027800, -0.014667, -0.001516, 
    -0.017386, -0.043296, 0.007359, 0.013190, -0.022981, 0.028000, -0.040945, -0.043999, -0.028192, -0.015775, 
    -0.005069, -0.008821, 0.020831, -0.040058, 0.006721, 0.000790, 0.012056, 0.045373, 0.028091, -0.025273, 
    -0.037403, -0.011050, -0.022896, 0.015944, 0.000418, 0.036712, 0.017929, -0.008392, 0.001569, 0.010931, 
    -0.005664, 0.036831, -0.035689, 0.022247, -0.029095, -0.039987, -0.009370, 0.022242, 0.032250, 0.011454, 
    -0.003945, -0.002559, -0.018503, -0.004096, -0.003154, 0.038841, 0.026713, -0.036525, 0.000189, -0.028074, 
    -0.007245, -0.036276, 0.011866, -0.032913, 0.045060, 0.034470, -0.031419, -0.042972, 0.001781, -0.012741, 
    0.013399, -0.030897, 0.018684, -0.039425, -0.024089, -0.023995, 0.022087, -0.001195, -0.043865, -0.026068, 
    -0.021123, -0.042349, 0.005845, 0.016265, -0.008375, -0.018164, -0.000277, -0.036254, -0.027792, -0.001041, 
    0.040549, -0.014036, 0.022624, -0.017963, -0.012150, -0.043450, 0.037815, 0.044444, -0.000959, 0.029001, 
    0.037334, 0.022672, 0.023507, -0.043452, -0.042890, -0.035033, 0.014277, -0.039481, -0.034842, -0.022124, 
    -0.042069, 0.000062, 0.006585, -0.026711, 0.029886, -0.017328, -0.012850, 0.034775, 0.039187, -0.005236, 
    -0.032767, -0.022898, 0.005812, 0.026756, 0.022723, -0.020155, -0.043150, -0.039945, -0.014522, 0.000573, 
    -0.020502, -0.036091, 0.004810, -0.036229, -0.035051, -0.037106, -0.012368, 0.040315, 0.017843, -0.005412, 
    0.009394, 0.018176, 0.000266, -0.036815, -0.028122, -0.031008, -0.001159, -0.041782, -0.008299, -0.016691, 
    0.044793, 0.037100, 0.026512, 0.002560, -0.014778, 0.011642, -0.031536, -0.019467, -0.009169, -0.010724, 
    -0.043238, 0.018145, 0.037587, -0.025176, 0.012304, -0.005293, -0.001665, 0.002661, 0.039554, 0.006116, 
    -0.028878, -0.016419, 0.022298, 0.014243, 0.000887, -0.006024, -0.017759, -0.016200, -0.024076, 0.007479, 
    0.012819, 0.029872, -0.015390, -0.005004, 0.022624, 0.012990, 0.005865, 0.008078, 0.002369, -0.044651, 
    -0.003739, -0.016714, 0.035691, 0.035701, 0.003557, 0.034136, -0.030136, 0.032784, 0.032570, -0.010573, 
    -0.044975, -0.023247, -0.020193, -0.006972, -0.050319, 0.000393, -0.026934, -0.020319, -0.030292, -0.018427, 
    -0.051152, -0.033689, -0.004284, 0.021903, 0.033002, -0.041860, 0.013218, -0.033358, -0.043683, -0.007960, 
    -0.032133, -0.044809, -0.048154, -0.036050, 0.032008, 0.016904, -0.027247, -0.039753, -0.042437, -0.034489, 
    -0.025428, 0.020655, 0.009439, -0.023088, 0.025473, -0.035309, -0.042684, 0.004463, -0.030666, 0.007486, 
    0.038671, -0.021585, -0.031851, 0.017180, -0.041223, 0.035643, -0.021555, 0.016988, -0.036294, -0.030895, 
    -0.000470, 0.016222, 0.025068, 0.029823, -0.010900, -0.014266, -0.000929, -0.018315, -0.006933, -0.051531, 
    -0.045251, 0.022222, -0.034297, 0.026840, -0.003333, 0.002829, 0.034827, -0.033363, -0.007205, 0.003008, 
    0.008451, -0.049908, 0.016223, -0.032481, -0.001561, 0.025388, -0.010026, -0.008094, -0.009350, 0.032743, 
    0.020450, 0.002186, -0.027469, -0.024786, 0.036358, 0.024312, 0.018221, -0.043979, 0.026499, -0.011327, 
    0.025623, 0.031833, -0.001819, -0.025955, 0.037436, -0.030404, 0.023219, -0.049266, -0.019854, -0.048396, 
    -0.025973, 0.013883, -0.038203, -0.046288, 0.024337, 0.017077, -0.008301, -0.041082, -0.020620, -0.022857, 
    0.021278, -0.023747, -0.021870, -0.040953, -0.030693, 0.019215, 0.022015, -0.001355, -0.024899, 0.035934, 
    0.001226, -0.023117, -0.021319, -0.011886, 0.016147, 0.011196, 0.026556, -0.002057, 0.032254, -0.018540, 
    -0.030156, -0.024456, -0.049874, -0.038523, -0.050455, -0.010987, -0.007878, -0.020342, -0.039583, 0.032432, 
    -0.023570, 0.013379, 0.023163, -0.038716, -0.014298, 0.019384, 0.038747, -0.013190, 0.025258, -0.041323, 
    -0.035155, 0.029607, -0.009820, 0.039594, -0.002549, -0.026614, 0.043348, 0.034836, 0.004236, -0.032748, 
    -0.010764, -0.030489, 0.024179, -0.006968, 0.003082, 0.018550, 0.006746, -0.037396, 0.028795, 0.019304, 
    -0.037301, 0.025457, 0.003929, -0.017755, -0.041561, -0.013519, -0.050693, 0.026052, 0.027113, -0.019088, 
    0.036369, -0.016901, 0.007816, -0.037755, -0.007870, 0.018450, 0.019660, -0.007468, -0.028941, 0.031904, 
    0.021834, -0.001221, -0.028724, 0.002107, -0.008203, 0.034814, 0.000489, -0.002429, -0.002827, 0.018784, 
    -0.007112, 0.032339, 0.017066, -0.039988, -0.005499, -0.047242, -0.044414, 0.000550, 0.001815, -0.010641, 
    0.034643, -0.031999, -0.028273, -0.015037, -0.009019, -0.010504, 0.032132, -0.025922, -0.032711, -0.002664, 
    0.028784, 0.003848, 0.018491, 0.003337, 0.033403, 0.021916, 0.026831, -0.011646, -0.043717, -0.027621, 
    0.010056, 0.026003, -0.022911, 0.030708, 0.000822, -0.004898, -0.004165, -0.016422, 0.037652, -0.003097, 
    0.020234, -0.046318, -0.028595, 0.000053, 0.028677, 0.013971, 0.003195, -0.050174, 0.000858, -0.038170, 
    -0.044472, -0.000233, -0.036778, 0.034153, -0.032157, 0.006746, 0.020023, -0.040974, 0.017866, -0.006111, 
    0.018152, 0.044171, -0.019452, -0.019768, 0.036266, -0.003485, -0.013484, 0.026075, -0.030683, -0.011008, 
    0.022470, 0.009073, -0.038429, 0.004423, -0.043702, -0.033225, 0.020219, -0.021007, -0.031832, -0.003384, 
    0.002787, -0.036461, -0.039115, -0.053105, 0.003694, -0.037553, -0.004589, -0.019134, -0.038984, -0.023679, 
    -0.042083, -0.032670, -0.008520, -0.047733, -0.049167, 0.034190, 0.004295, -0.020186, -0.001518, 0.033848, 
    -0.043709, -0.024199, -0.033007, -0.003318, -0.007505, -0.035570, 0.031680, -0.035051, 0.042614, -0.031420, 
    -0.013297, 0.001582, -0.027229, 0.036478, -0.038411, -0.009149, -0.042153, 0.005845, 0.032319, 0.035836, 
    -0.002824, -0.029577, 0.036072, -0.002092, 0.021793, -0.031217, -0.027755, -0.037890, 0.034583, 0.001633, 
    -0.038273, -0.001571, -0.026333, -0.004427, 0.015150, -0.028140, 0.000824, -0.035431, 0.003297, -0.049569, 
    0.002194, 0.037634, 0.033826, 0.009710, 0.026561, 0.035487, 0.005069, 0.009781, 0.000439, 0.033541, 
    0.032468, -0.026963, -0.007375, -0.028496, 0.010880, -0.052889, 0.007368, -0.021611, 0.008020, 0.005774, 
    -0.031768, 0.014464, 0.010182, -0.047860, 0.036399, 0.030044, 0.019262, -0.013498, 0.007510, -0.033695, 
    -0.024049, 0.016463, 0.012608, 0.011151, -0.050596, 0.030942, -0.027356, 0.031751, 0.029875, 0.008839, 
    0.036957, 0.017355, 0.018524, -0.024087, 0.033751, 0.005425, 0.021469, -0.015819, 0.026500, 0.040490, 
    -0.040442, 0.031930, -0.035244, -0.037356, -0.045137, 0.013189, -0.042451, -0.025120, -0.028023, 0.007123, 
    -0.053966, -0.030232, -0.007720, -0.004030, -0.026561, 0.008113, -0.038791, -0.047442, -0.014458, -0.034223, 
    0.020473, -0.036696, -0.012662, 0.012228, -0.049335, 0.026778, -0.029296, -0.020917, -0.036182, -0.025313, 
    -0.026482, -0.049800, 0.006379, -0.009227, 0.035503, 0.022500, 0.030615, 0.004710, 0.014989, 0.034004, 
    0.031529, -0.041018, -0.016180, -0.051727, -0.005967, -0.023799, 0.034536, 0.001271, -0.005439, -0.038515, 
    -0.041317, 0.001687, -0.028178, -0.026460, 0.023447, -0.031759, -0.026911, 0.027298, 0.011757, -0.034220, 
    0.005683, 0.017516, -0.049195, 0.001855, 0.003605, -0.007276, 0.034440, -0.037816, 0.015812, -0.030963, 
    -0.036982, 0.023777, -0.023883, 0.027894, 0.017061, -0.047144, -0.043741, 0.024676, 0.053636, -0.010465, 
    0.058508, 0.045492, 0.033512, -0.025613, 0.076618, 0.011745, 0.002937, 0.021844, -0.052207, -0.006920, 
    -0.046846, -0.030912, -0.006997, 0.004958, -0.001393, -0.045214, -0.039811, -0.015098, -0.023646, -0.035890, 
    0.019839, -0.028843, -0.061083, -0.008704, -0.017464, -0.059394, -0.009994, -0.053145, 0.003250, 0.044414, 
    0.022647, 0.013167, -0.020141, -0.002415, 0.001850, -0.018996, -0.024365, -0.005139, -0.033754, -0.046323, 
    -0.061825, -0.059242, -0.050458, 0.025608, 0.011023, -0.047706, -0.039359, -0.006994, -0.033837, -0.025729, 
    0.016248, 0.017446, 0.029897, 0.038944, 0.067140, 0.050951, 0.063145, 0.034184, 0.014286, 0.034337, 
    0.005485, 0.055931, 0.033813, 0.024832, 0.001679, 0.030281, 0.032174, 0.044812, -0.007160, 0.022897, 
    0.026850, -0.006187, 0.002655, 0.044704, 0.001963, 0.068214, 0.055338, 0.052386, 0.061821, 0.044649, 
    0.005565, 0.021191, -0.017042, -0.022317, -0.009039, 0.038609, 0.039272, 0.045309, 0.002146, 0.005734, 
    -0.007281, 0.053191, -0.017425, -0.018249, 0.070541, 0.009763, -0.031725, -0.047089, -0.046639, 0.019765, 
    -0.056529, 0.031807, 0.037831, 0.028266, 0.007099, 0.050953, 0.044463, 0.055980, 0.049573, -0.036268, 
    0.058442, 0.031256, -0.005090, 0.063974, 0.013170, 0.005650, 0.033658, 0.023786, 0.016632, -0.006303, 
    0.045308, 0.059830, 0.002473, -0.018561, 0.005466, -0.053327, -0.053706, -0.029925, 0.013327, -0.049323, 
    -0.018000, -0.034124, -0.054954, -0.027050, -0.016016, -0.010738, 0.016111, -0.006112, 0.004985, -0.005562, 
    0.009791, 0.026870, -0.022446, 0.030606, 0.042282, -0.005703, 0.010919, -0.035662, -0.044964, -0.013239, 
    -0.007315, -0.024047, 0.000352, -0.047428, -0.038278, 0.029471, -0.044634, 0.000734, 0.026120, 0.037193, 
    0.038622, -0.023184, 0.008304, -0.008619, 0.016111, 0.041313, -0.022573, -0.046060, -0.042260, 0.010889, 
    0.001749, 0.046448, -0.002779, -0.054863, -0.003832, 0.029339, 0.018013, 0.006211, -0.027573, -0.011865, 
    0.036125, -0.036817, 0.003022, -0.009671, 0.017590, 0.038422, -0.001685, 0.004434, 0.054710, 0.005182, 
    0.017171, -0.013948, 0.062275, 0.024458, 0.021705, 0.047549, 0.019582, 0.018529, 0.029402, 0.030706, 
    -0.013585, 0.000900, -0.060968, 0.013741, 0.026541, -0.011809, -0.019897, -0.034090, 0.035075, 0.061461, 
    0.078831, 0.045368, 0.051075, 0.075350, 0.020372, -0.000215, -0.027362, 0.029351, 0.025324, 0.052949, 
    -0.012288, 0.038894, 0.010038, 0.017068, 0.059075, -0.003829, 0.070147, 0.058512, 0.006542, 0.055203, 
    -0.029634, -0.015491, -0.032769, -0.061547, -0.028130, 0.008865, -0.004355, -0.023805, 0.020844, 0.031078, 
    0.009257, -0.031941, -0.022933, -0.003645, 0.020659, 0.033966, 0.005290, 0.022763, 0.027014, -0.014213, 
    -0.000733, 0.045886, 0.055528, 0.021554, -0.029807, 0.029388, -0.027191, 0.032728, 0.022355, 0.018015, 
    -0.065194, -0.029820, 0.031771, 0.041337, -0.007047, 0.057206, 0.009106, -0.008658, -0.004129, 0.013291, 
    0.025694, 0.050021, 0.006761, 0.013367, -0.031246, 0.042266, -0.005603, -0.033941, 0.002038, 0.007696, 
    0.023568, 0.013423, 0.040851, -0.009102, -0.006930, 0.000644, 0.028678, 0.053872, 0.009820, 0.044169, 
    0.065036, -0.002730, 0.016682, -0.000849, 0.017702, -0.019878, 0.012198, 0.012330, -0.003611, 0.002466, 
    -0.006516, 0.013217, 0.050631, 0.038806, 0.065409, -0.032908, 0.011744, -0.035186, -0.016075, 0.010658, 
    -0.041287, 0.046868, -0.004245, 0.069624, 0.026882, 0.052377, 0.067392, -0.002272, 0.003526, 0.038524, 
    -0.046502, 0.021260, -0.031239, 0.043000, -0.025732, 0.005201, 0.050492, -0.021863, 0.045661, 0.064621, 
    0.068243, -0.037197, -0.010868, -0.027820, -0.003567, -0.008872, -0.000479, -0.031881, -0.044599, -0.065415, 
    -0.006089, -0.041233, 0.011713, -0.013695, -0.008495, -0.027498, -0.027508, -0.036868, -0.061416, 0.025663, 
    -0.052724, 0.009420, -0.038038, 0.005528, 0.011285, -0.062310, 0.007836, -0.015588, -0.028460, 0.043343, 
    0.055621, 0.063341, -0.023575, 0.057715, 0.054239, 0.034968, 0.016743, -0.022200, 0.029014, 0.034536, 
    -0.023357, -0.012074, 0.026882, 0.024154, 0.020256, 0.026179, -0.035416, -0.021271, -0.033138, 0.010391, 
    0.036678, -0.015632, 0.019367, -0.012728, -0.018666, 0.051749, 0.002529, 0.036823, 0.008137, 0.008269, 
    0.018121, 0.054864, 0.010212, 0.054027, 0.017471, 0.035898, -0.044461, -0.016084, -0.029195, 0.000023, 
    0.001696, 0.011309, 0.029573, -0.000042, -0.064619, -0.059610, 0.004624, -0.022189, -0.011907, -0.038847, 
    -0.030171, -0.002039, -0.044149, 0.016355, 0.019224, -0.029313, -0.012392, -0.003979, 0.041215, 0.001254, 
    0.040144, -0.046539, -0.028779, -0.027068, 0.017344, 0.005893, -0.012091, 0.040100, -0.038628, 0.014284, 
    -0.021667, -0.005782, -0.027846, -0.021273, -0.021555, 0.044453, 0.009693, 0.052553, -0.000254, 0.013807, 
    0.019270, 0.055455, -0.007342, 0.022183, -0.001122, 0.011567, 0.019783, 0.034789, 0.017477, 0.017527, 
    0.052866, 0.062421, 0.034976, 0.058994, 0.003005, 0.060454, 0.017092, -0.003812, 0.013196, -0.013963, 
    0.030920, 0.004421, 0.022606, 0.033086, 0.000188, 0.038943, 0.035838, 0.055709, 0.072796, 0.006871, 
    0.024955, -0.000967, -0.030862, -0.020700, 0.016896, 0.009504, -0.001474, -0.022723, 0.023018, 0.006772, 
    -0.044372, -0.008066, -0.012384, -0.019477, -0.025087, -0.044817, 0.038560, -0.047186, 0.037897, -0.039681, 
    -0.015792, -0.023404, -0.031224, 0.009030, 0.019724, -0.037042, -0.026972, 0.017216, -0.012159, 0.006993, 
    0.018066, -0.022151, -0.032512, 0.011918, -0.021055, -0.032909, -0.027266, -0.031693, 0.034861, -0.001534, 
    0.008847, -0.004814, -0.041828, 0.021760, -0.016582, -0.020738, 0.027919, -0.031350, 0.003787, -0.046460, 
    0.019106, 0.015172, -0.038289, 0.020836, -0.001802, -0.030184, 0.031203, 0.011506, 0.009520, -0.025299, 
    -0.021646, -0.026676, 0.015963, 0.018084, -0.033638, 0.038399, 0.023503, -0.018703, 0.023744, -0.018921, 
    0.014686, 0.039079, -0.039526, -0.021998, -0.002079, -0.003258, -0.045503, -0.038321, -0.008719, -0.012027, 
    0.003831, 0.001417, 0.005849, -0.003189, -0.001111, -0.007969, 0.011072, 0.026091, -0.027724, -0.029102, 
    0.013917, -0.039207, 0.022335, 0.012312, 0.001103, -0.019816, 0.001369, -0.036088, -0.041065, 0.042983, 
    -0.040939, -0.037873, -0.017730, 0.002563, 0.010454, -0.029065, -0.010690, -0.018576, 0.030425, 0.035085, 
    0.014170, -0.005707, 0.026607, -0.044192, 0.011807, -0.034310, 0.027302, -0.049120, 0.010372, -0.047043, 
    0.022874, 0.003095, 0.038378, -0.034329, 0.036600, -0.027471, -0.018329, 0.020685, -0.003546, -0.032340, 
    -0.035791, -0.011899, 0.010801, 0.038723, 0.032442, -0.004532, -0.033278, -0.040694, 0.040778, -0.025448, 
    -0.008027, -0.036830, -0.031549, 0.008856, -0.011284, 0.005227, -0.000349, 0.002325, -0.009044, -0.001765, 
    0.014617, 0.027121, 0.034879, -0.036875, -0.030829, -0.013103, -0.011544, 0.024438, 0.041123, 0.010832, 
    -0.036033, -0.008959, 0.026150, 0.013661, -0.041559, -0.002610, -0.049351, -0.024342, 0.031923, -0.019799, 
    0.027868, -0.037230, 0.040354, 0.027050, 0.034857, 0.017742, 0.003234, -0.022479, -0.025186, -0.031344, 
    0.035948, -0.018157, -0.004618, -0.046995, 0.008696, -0.018669, -0.040910, -0.002667, -0.046565, -0.007179, 
    -0.040925, 0.023937, -0.042094, 0.001386, 0.018272, -0.034146, 0.030436, 0.039473, -0.029517, 0.001569, 
    0.011607, 0.035229, 0.026796, -0.047968, -0.042258, -0.044257, -0.025253, -0.015846, -0.021759, 0.024908, 
    -0.029499, -0.042991, -0.043074, -0.037926, 0.033978, -0.001888, -0.015968, -0.020977, -0.040867, -0.019379, 
    0.020590, 0.026793, 0.028895, -0.000274, -0.028468, -0.031172, 0.037957, -0.044560, 0.004377, -0.010063, 
    0.038586, 0.022360, -0.015563, -0.043720, 0.001291, -0.036742, -0.010115, 0.005785, 0.017071, -0.016042, 
    -0.036194, -0.046052, -0.043233, 0.005725, -0.033060, 0.006935, -0.016344, -0.025608, 0.036057, 0.031111, 
    0.037328, 0.049064, -0.027745, -0.019017, -0.030885, 0.021820, 0.019469, 0.027046, -0.037667, -0.030296, 
    0.038998, -0.030972, -0.027286, 0.017377, -0.040750, -0.013951, 0.016204, 0.034555, -0.012840, -0.049198, 
    0.016997, 0.038322, -0.040025, -0.007296, -0.039694, -0.031080, 0.018019, 0.025404, 0.021483, -0.045998, 
    -0.013972, 0.013954, -0.009736, -0.019609, -0.029310, 0.037040, -0.044100, -0.043392, 0.025962, -0.034312, 
    0.022189, -0.029643, -0.010668, -0.027914, 0.032236, 0.026150, -0.003386, -0.003926, -0.021972, -0.029247, 
    -0.023262, 0.009078, -0.012707, 0.027000, 0.002682, -0.002135, -0.030739, 0.015423, -0.045895, 0.006925, 
    0.013023, 0.003988, 0.027432, 0.006284, -0.016092, -0.037199, -0.042362, 0.017773, 0.018507, -0.036003, 
    0.013039, -0.015245, 0.038711, -0.014459, 0.039320, 0.033436, 0.018215, 0.020791, 0.003825, 0.009544, 
    -0.046343, -0.017992, -0.015201, 0.016583, -0.017687, 0.020914, 0.030991, 0.019680, 0.023492, -0.006084, 
    0.021864, -0.015652, 0.039539, -0.001171, -0.007967, -0.034904, 0.032044, -0.016736, 0.023782, -0.039980, 
    -0.047425, -0.013854, -0.043840, -0.000690, 0.002892, -0.013661, 0.019920, 0.019558, -0.046249, -0.033259, 
    0.019166, -0.035296, 0.001907, -0.018207, 0.002378, -0.030086, -0.005223, -0.024975, -0.029668, -0.031394, 
    0.001178, 0.020546, -0.010151, -0.009559, 0.027884, 0.030880, -0.013444, -0.043195, 0.004651, 0.007511, 
    -0.041807, -0.046805, -0.000283, 0.039273, -0.046406, -0.028519, -0.021934, -0.047052, -0.034372, 0.029053, 
    0.033397, -0.037379, -0.002600, -0.039892, 0.014327, -0.035089, -0.028344, -0.029199, -0.001138, 0.024457, 
    -0.024822, 0.003255, 0.031479, -0.007390, -0.001895, -0.002485, -0.009415, 0.027403, 0.018127, -0.029944, 
    0.039212, 0.022198, -0.010553, 0.033927, -0.003044, 0.021047, -0.045591, 0.033123, 0.035578, -0.040313, 
    -0.049773, -0.022221, -0.037870, 0.003426, 0.012685, -0.005980, 0.026502, -0.000837, -0.010521, -0.035516, 
    0.018842, -0.039760, 0.000487, 0.002698, -0.027420, 0.007607, 0.001915, 0.023425, 0.023226, -0.043796, 
    -0.039243, -0.020137, -0.036342, 0.010625, -0.033834, -0.039395, 0.008887, 0.023011, -0.017924, -0.050634, 
    0.003851, 0.017687, 0.030462, 0.001715, 0.027105, -0.045102, 0.040058, -0.035447, -0.036207, 0.028604, 
    -0.014652, 0.023743, -0.036943, 0.029811, 0.038211, 0.014490, 0.032162, -0.031768, -0.010739, 0.002454, 
    0.018253, -0.028591, 0.028422, -0.016580, -0.023926, 0.009678, -0.037403, -0.042441, 0.014565, 0.010868, 
    0.020142, -0.009338, -0.041001, -0.060525, 0.030178, -0.047220, 0.013720, 0.020850, 0.014307, -0.019116, 
    -0.030800, -0.057264, 0.019025, -0.038154, -0.047084, -0.012690, 0.060145, 0.059777, 0.056524, 0.060447, 
    0.007002, 0.000693, -0.010748, 0.025875, 0.025811, 0.017249, -0.022195, 0.018862, -0.009693, -0.005363, 
    0.016697, 0.029952, -0.008045, 0.068839, 0.013563, 0.041949, 0.049106, 0.008730, 0.009160, -0.004153, 
    0.009538, -0.011765, 0.008367, -0.040177, -0.043118, 0.045446, 0.032505, 0.030176, -0.003029, 0.053150, 
    0.060758, 0.014965, 0.020915, 0.016780, -0.065368, -0.022154, -0.017473, -0.025102, 0.029156, 0.036789, 
    -0.006924, 0.017201, -0.039833, -0.007207, -0.023914, -0.035377, 0.013987, 0.019346, 0.015696, 0.039382, 
    0.038178, 0.050030, 0.004754, 0.002647, -0.005622, 0.005646, -0.027942, -0.004680, -0.041568, -0.037190, 
    -0.051608, 0.026074, -0.037863, -0.008655, 0.000130, 0.034733, 0.013218, -0.036495, 0.041429, -0.034723, 
    0.019150, 0.049333, 0.056071, 0.001354, -0.011907, 0.035962, 0.055155, -0.004786, 0.013229, -0.018760, 
    0.019352, 0.008789, 0.031809, 0.003724, -0.012359, -0.017288, -0.022419, 0.014642, 0.034133, -0.020820, 
    0.008201, -0.043995, -0.045223, -0.051029, -0.035904, -0.043733, -0.013989, 0.009499, 0.015992, 0.019423, 
    -0.022622, -0.016265, 0.012851, -0.052496, 0.004295, -0.065657, -0.052095, -0.004326, -0.034167, -0.003415, 
    0.029635, 0.011744, 0.036663, -0.026417, -0.031448, 0.000277, 0.007080, -0.001961, 0.007449, 0.044482, 
    -0.033335, 0.013932, 0.007487, 0.006748, -0.013897, -0.048778, -0.001092, -0.030235, -0.035463, 0.033564, 
    0.037202, -0.030754, 0.038230, 0.009585, 0.007324, 0.040077, -0.003181, -0.005316, 0.050201, 0.013448, 
    0.012097, -0.000331, 0.059921, 0.035382, 0.008037, -0.020447, -0.001169, -0.018598, 0.021491, -0.044011, 
    -0.023255, -0.030437, -0.032911, 0.024245, -0.010289, 0.005626, -0.038350, 0.002215, 0.005781, 0.024674, 
    -0.010363, 0.001212, -0.020127, 0.042365, 0.042784, 0.026469, 0.020635, 0.016206, 0.025468, -0.003606, 
    0.007107, 0.011854, -0.026811, 0.008305, 0.011459, -0.043800, -0.019902, -0.035650, -0.039123, 0.016866, 
    0.021047, -0.029407, -0.010666, -0.034876, -0.013787, -0.031087, -0.046033, -0.041686, 0.023398, -0.012273, 
    -0.019283, 0.019341, -0.037593, 0.003994, 0.043048, 0.022421, 0.020300, -0.040846, -0.011944, 0.019354, 
    -0.048558, -0.036176, 0.025276, 0.011022, 0.027721, -0.041987, 0.035197, -0.004568, 0.011464, 0.038911, 
    -0.043309, 0.006941, -0.050632, 0.024776, 0.001783, -0.009016, -0.035357, 0.001669, -0.038243, -0.005659, 
    0.018371, -0.046203, -0.016213, -0.002116, 0.007925, -0.000077, 0.025866, -0.026416, -0.012953, -0.003135, 
    -0.037888, 0.006123, 0.011357, 0.001859, -0.029923, 0.055700, -0.011730, 0.030816, 0.018302, 0.042148, 
    -0.021518, 0.029527, 0.005569, 0.064706, 0.058812, 0.008526, 0.041673, 0.056353, 0.061981, 0.080271, 
    0.031402, 0.027865, 0.035332, -0.032574, 0.043362, 0.004650, 0.035967, 0.029042, 0.009524, 0.040307, 
    -0.012018, 0.035294, 0.043962, 0.001714, 0.024663, -0.037575, -0.013274, 0.036043, 0.036915, -0.026952, 
    0.029341, 0.018947, 0.061074, -0.021822, 0.010107, -0.007488, -0.011928, 0.011381, -0.023966, 0.052323, 
    -0.028395, 0.012874, -0.033146, -0.010269, -0.039087, 0.036487, 0.038289, 0.027157, -0.031860, 0.010666, 
    -0.056785, -0.000574, -0.025462, -0.056919, -0.053505, -0.038258, 0.028156, 0.010883, 0.006371, 0.059021, 
    -0.014153, 0.002887, -0.026330, 0.004328, -0.012349, 0.004305, -0.011585, -0.027841, 0.023212, -0.019450, 
    -0.035539, 0.003534, -0.013302, -0.032483, 0.011557, -0.008756, -0.024676, -0.024625, -0.033155, -0.051809, 
    -0.026051, 0.028566, -0.031503, -0.026764, -0.026427, -0.022870, -0.021387, -0.050355, 0.014076, -0.041238, 
    0.039254, -0.001347, -0.017705, -0.035980, -0.002994, 0.008681, -0.050339, -0.024137, 0.022362, -0.024197, 
    -0.023157, -0.010453, 0.012185, 0.010551, -0.004815, -0.005709, 0.022742, 0.017702, 0.015846, -0.035033, 
    -0.012943, -0.065486, -0.002825, 0.016719, -0.001885, -0.001201, 0.054823, -0.026107, 0.014929, 0.014122, 
    -0.017818, 0.002243, 0.002301, 0.048016, 0.028803, 0.049203, 0.019277, 0.069070, 0.037201, 0.066252, 
    0.041062, -0.027511, -0.024424, 0.030358, 0.033293, -0.045803, -0.010274, -0.020930, 0.049732, 0.052037, 
    0.044763, 0.034284, 0.005155, 0.050688, 0.004215, 0.016797, 0.011409, -0.005943, 0.013019, 0.037781, 
    0.016157, -0.010823, 0.021814, 0.037246, -0.004981, 0.055300, -0.006683, 0.033858, -0.003834, -0.018913, 
    0.012467, 0.042402, 0.050978, 0.022811, 0.039475, -0.026857, 0.016502, 0.008562, -0.077842, -0.066144, 
    0.004659, -0.008362, -0.044550, -0.053124, 0.028710, 0.014272, 0.008727, -0.037167, 0.046132, -0.020486, 
    0.031255, 0.005253, 0.007832, 0.033543, -0.003744, -0.007030, 0.043022, -0.027809, 0.028101, -0.005929, 
    -0.013479, 0.030540, 0.011245, -0.038773, 0.046129, -0.014658, 0.045218, -0.022686, 0.030778, 0.001605, 
    -0.016508, 0.002043, -0.014771, -0.032841, 0.022001, 0.015081, -0.015612, 0.029480, -0.014720, -0.043146, 
    -0.038142, 0.019922, -0.026798, 0.028743, -0.035369, -0.000102, -0.048519, 0.000028, 0.023248, 0.011194, 
    -0.008959, -0.031626, -0.010476, -0.033246, 0.051916, -0.019778, 0.022150, 0.019819, 0.007248, -0.029707, 
    -0.031799, -0.034924, 0.015981, -0.009532, -0.029900, 0.070098, 0.039486, 0.051318, 0.016100, 0.064043, 
    0.046905, 0.031937, 0.047553, 0.005571, 0.038722, 0.057853, -0.006653, 0.011773, 0.064901, 0.028908, 
    0.027479, 0.039546, 0.010354, 0.067614, 0.036629, 0.022567, 0.056402, -0.018958, -0.008508, -0.007352, 
    -0.013972, 0.023412, -0.040484, -0.015159, -0.017838, 0.077361, 0.050649, -0.002818, 0.042749, 0.030500, 
    0.079641, 0.059710, 0.006219, 0.064582, -0.012680, -0.009575, 0.028019, 0.062188, 0.030602, -0.036576, 
    -0.033072, 0.035833, -0.016652, -0.046696, -0.064458, -0.040492, -0.047879, -0.019963, -0.006892, 0.022677, 
    0.007590, -0.027112, -0.008158, -0.006917, -0.074090, 0.042673, -0.011595, 0.050670, -0.011826, 0.009482, 
    -0.022972, -0.001141, -0.022676, -0.054469, -0.006268, -0.004387, -0.059250, -0.063577, -0.063396, -0.041186, 
    0.013265, 0.023259, 0.020631, 0.008327, 0.045692, 0.005600, -0.012991, 0.007234, -0.006349, -0.000838, 
    -0.045324, 0.008890, -0.022954, 0.034108, 0.012863, -0.006443, 0.008939, -0.000188, 0.045805, 0.037214, 
    0.007065, 0.052278, 0.036523, -0.043797, -0.004262, -0.025041, -0.019082, 0.021920, -0.011974, 0.004099, 
    0.020315, -0.028919, -0.010555, 0.003682, 0.029497, 0.044318, -0.003367, 0.025431, -0.032065, 0.001506, 
    -0.001787, 0.029421, -0.011269, 0.030872, 0.049315, 0.062151, 0.017891, 0.068341, -0.014247, 0.011927, 
    0.054287, 0.051337, 0.057793, 0.005922, 0.050474, -0.029972, -0.009450, 0.025595, -0.010707, -0.009977, 
    -0.024112, 0.054280, 0.025682, -0.002289, 0.005014, -0.026309, -0.022014, -0.005717, -0.008594, 0.068072, 
    0.022907, 0.026369, -0.002262, 0.044106, 0.027232, -0.023713, 0.050739, 0.061556, -0.009062, 0.046395, 
    0.006564, 0.022692, 0.039106, 0.014321, 0.063186, 0.060803, -0.001597, 0.001057, -0.017204, 0.052898, 
    -0.010310, -0.009921, -0.002182, -0.011435, -0.000522, 0.079240, 0.063283, 0.075316, 0.010307, 0.009399, 
    0.013499, 0.030649, -0.002668, 0.035728, -0.003014, -0.019560, 0.022170, -0.013305, 0.016870, -0.041620, 
    -0.017747, -0.056039, -0.040434, -0.057166, -0.064381, -0.083958, -0.056391, -0.033049, -0.046691, -0.080749, 
    0.050926, 0.058105, -0.000617, 0.030774, 0.047771, -0.021041, -0.025367, 0.022740, -0.015180, -0.007438, 
    -0.053951, -0.028409, -0.001151, -0.039370, -0.020340, -0.035221, 0.009189, 0.045802, -0.027538, 0.010178, 
    0.045747, -0.011145, -0.021393, -0.021579, -0.032469, -0.019981, -0.072492, -0.012365, -0.037810, -0.031384, 
    0.018427, 0.052605, -0.000307, -0.007576, 0.011427, 0.011344, 0.022792, 0.070291, 0.004995, 0.008242, 
    -0.005168, 0.001436, 0.024494, 0.002432, 0.027106, 0.033087, 0.007577, 0.030566, 0.015309, 0.041539, 
    -0.009274, 0.031813, 0.023568, 0.026249, 0.040090, -0.010229, -0.014358, 0.031632, 0.021648, 0.056702, 
    0.022592, 0.013060, 0.034625, 0.004276, 0.044893, -0.028959, -0.020250, 0.000815, 0.022774, -0.044205, 
    -0.037485, 0.009069, -0.017143, 0.005478, -0.032083, -0.005782, -0.008180, -0.003901, -0.014766, 0.036195, 
    0.021106, -0.026976, 0.053068, 0.031186, 0.038271, -0.001482, 0.044156, -0.021580, 0.046153, -0.006437, 
    0.022154, -0.003395, 0.043367, -0.029176, 0.003272, 0.006013, -0.010257, -0.012324, -0.016220, -0.009193, 
    0.007259, -0.037688, 0.014826, -0.049913, -0.041310, 0.011641, 0.004293, 0.031453, 0.070093, 0.043878, 
    -0.008346, 0.012689, 0.017934, -0.031983, -0.010063, 0.028864, 0.012170, -0.001788, -0.003326, -0.014560, 
    0.010841, 0.053802, -0.007814, 0.026065, -0.011996, 0.010436, 0.029276, -0.010753, 0.023576, -0.041605, 
    -0.021192, 0.040272, 0.058613, 0.018874, 0.001807, -0.057266, 0.006391, -0.001100, 0.064309, -0.003085, 
    0.055591, 0.033287, 0.006058, 0.054707, 0.041292, 0.011773, -0.014357, 0.009031, 0.044485, 0.074894, 
    0.009946, 0.005872, -0.019843, 0.050229, 0.076051, 0.072480, 0.007735, 0.050129, -0.015303, 0.005774, 
    0.006895, -0.056661, -0.007676, -0.000342, -0.039483, 0.068156, 0.061380, 0.061129, 0.020061, -0.004821, 
    -0.002160, 0.039850, 0.018285, 0.066397, 0.069577, 0.034733, -0.005255, 0.051035, 0.074210, 0.020727, 
    -0.027554, -0.009075, 0.002406, -0.041649, 0.006957, 0.008991, -0.042965, -0.029649, -0.022595, 0.047771, 
    0.037538, 0.020654, 0.003784, 0.014531, 0.076377, 0.025901, -0.009401, 0.022486, -0.010587, 0.010932, 
    -0.011392, 0.025049, 0.037485, 0.014547, 0.078613, 0.089185, 0.003190, 0.052258, 0.008783, 0.029612, 
    0.052975, 0.027157, 0.040862, 0.014856, 0.077225, 0.009602, 0.032976, 0.017075, 0.013732, -0.006349, 
    0.040147, 0.031561, 0.047259, 0.016874, 0.039995, 0.069606, 0.009204, 0.000988, 0.048458, 0.032263, 
    -0.030057, 0.025534, -0.044154, -0.019713, 0.020285, 0.021148, -0.017635, 0.026594, 0.034192, 0.021127, 
    -0.031527, -0.001865, 0.018478, 0.057870, 0.011297, 0.028205, 0.031620, -0.041350, -0.055997, 0.016974, 
    -0.034082, -0.002135, -0.078141, -0.050556, 0.008929, -0.024937, 0.011482, -0.040334, 0.028460, -0.027763, 
    -0.010041, -0.052578, -0.042953, -0.059257, -0.045315, -0.025470, -0.050842, 0.000055, -0.032159, 0.018093, 
    -0.025820, 0.007818, 0.064642, -0.022067, -0.020357, 0.052316, 0.009923, 0.006233, 0.027690, -0.005604, 
    0.042942, 0.017028, 0.043238, 0.001008, -0.014223, -0.013085, 0.024236, 0.039555, -0.027537, -0.024536, 
    -0.047145, 0.004154, 0.014512, -0.065927, -0.015441, -0.012050, -0.043043, -0.014515, 0.010722, 0.035554, 
    0.032791, 0.012126, -0.006509, -0.016694, -0.005854, -0.020525, 0.006572, -0.070905, -0.021927, -0.037571, 
    -0.026205, 0.006548, -0.037780, -0.046718, -0.054229, -0.049209, -0.023673, 0.041295, -0.010929, 0.036132, 
    -0.004160, 0.015304, 0.020229, -0.000857, 0.033089, 0.043326, -0.045414, -0.003037, -0.076712, 0.004066, 
    -0.013937, -0.006381, 0.016718, -0.002013, 0.041800, -0.008868, -0.005789, 0.066124, -0.000645, 0.056892, 
    0.069241, 0.058115, 0.011056, 0.026531, -0.017330, -0.036875, -0.021338, -0.045171, 0.016507, 0.020000, 
    -0.009823, -0.000153, 0.050628, 0.001126, 0.048620, 0.056262, -0.002171, -0.030693, 0.054899, -0.010059, 
    0.038677, -0.040273, 0.007470, 0.018102, 0.008457, 0.066273, -0.000149, 0.019988, 0.029553, 0.075740, 
    0.064151, 0.069325, 0.053516, 0.061512, 0.030013, -0.013252, 0.001077, 0.022789, -0.022475, -0.001645, 
    -0.010093, -0.008599, 0.020843, -0.015699, 0.006123, -0.031733, -0.065277, -0.003335, -0.015027, 0.015480, 
    0.001489, -0.022983, -0.054908, -0.058630, 0.004023, 0.036315, -0.002407, -0.008876, 0.029850, -0.014474, 
    0.028180, -0.020827, -0.027504, -0.010703, -0.000146, -0.002296, 0.014649, -0.026426, -0.003915, 0.013891, 
    -0.026905, -0.018505, 0.011683, -0.043315, -0.005119, 0.033893, -0.002215, -0.042610, -0.061041, -0.062096, 
    -0.012548, 0.012204, 0.025669, 0.005040, 0.057683, 0.010311, 0.036075, 0.000956, 0.038392, 0.060418, 
    0.024345, 0.012800, -0.003562, -0.019511, -0.008050, -0.060177, 0.007806, -0.035864, -0.012090, -0.051370, 
    -0.017715, 0.033482, -0.009374, -0.027908, 0.014398, 0.023167, 0.006298, -0.066834, -0.028032, -0.066147, 
    -0.024216, 0.046316, -0.027809, -0.020095, 0.013350, 0.025628, -0.068955, -0.059514, -0.044705, 0.014682, 
    0.004271, 0.005137, 0.008246, -0.030979, 0.027208, 0.024454, 0.024843, 0.007635, 0.027552, 0.008653, 
    -0.027383, 0.016537, -0.031155, -0.002229, 0.028448, 0.008297, -0.035311, -0.037778, -0.004601, -0.009037, 
    0.006138, 0.025225, 0.013503, -0.029342, -0.050217, 0.025101, -0.013785, -0.018727, -0.032517, 0.049872, 
    0.042013, -0.012866, -0.034514, 0.041241, 0.018515, 0.002485, -0.034585, 0.030098, -0.031221, 0.021948, 
    -0.045931, -0.042804, -0.044288, 0.039874, 0.039583, -0.041331, 0.032388, -0.031542, -0.047256, 0.017828, 
    -0.008038, 0.003489, -0.012578, 0.030431, -0.061177, -0.004479, -0.040516, -0.023481, 0.004125, -0.060454, 
    -0.001943, -0.034413, -0.002763, -0.032362, -0.006111, 0.032422, -0.026445, -0.053051, 0.042953, -0.005838, 
    0.037890, 0.057321, 0.024349, 0.069390, 0.065637, 0.025381, 0.050015, 0.042407, 0.085176, 0.071756, 
    -0.065818, -0.023705, 0.016097, 0.037567, 0.025564, 0.035421, 0.007846, 0.014681, -0.016781, 0.058650, 
    0.066126, 0.004770, -0.007010, 0.066519, -0.025664, 0.025929, -0.049520, -0.023368, -0.013505, 0.054029, 
    0.008340, 0.059173, 0.033739, 0.062535, 0.051053, 0.056087, 0.060940, 0.001590, -0.001874, 0.023236, 
    0.032348, -0.024673, -0.040128, -0.039488, -0.028983, -0.003126, -0.018902, -0.026165, -0.034228, -0.002535, 
    -0.050201, 0.034999, -0.018977, -0.004458, 0.003198, -0.010757, 0.052334, 0.014387, 0.003735, -0.058196, 
    -0.018059, -0.013147, -0.022147, -0.032345, 0.005592, 0.000545, -0.007276, -0.046899, -0.030133, -0.065507, 
    -0.042774, -0.003577, 0.011065, -0.010994, -0.022912, 0.045872, 0.046526, -0.009557, 0.049734, 0.000784, 
    0.070938, 0.047133, -0.018600, 0.027877, -0.032393, -0.003742, 0.013403, -0.039960, -0.037418, -0.015708, 
    -0.036862, 0.009279, 0.017125, -0.005892, -0.018704, -0.011389, -0.017066, -0.016391, -0.021238, 0.005741, 
    0.017065, 0.003387, 0.019164, -0.010873, -0.002055, 0.013337, -0.059754, -0.023693, -0.037395, -0.071073, 
    -0.072376, -0.038315, -0.004840, -0.068316, -0.023049, 0.023419, -0.030794, 0.030459, 0.024265, -0.022653, 
    0.022804, -0.017049, 0.063693, 0.045612, 0.045577, 0.062235, 0.056815, 0.063678, 0.037013, -0.018965, 
    0.050939, 0.020169, -0.013370, -0.012085, 0.045040, 0.005325, 0.033906, 0.005214, 0.046453, -0.029722, 
    0.015041, 0.015939, 0.006645, 0.047172, 0.026303, 0.006072, 0.030104, 0.005250, 0.014411, -0.015443, 
    0.019789, -0.010725, 0.031736, 0.021693, -0.077351, -0.053324, 0.048965, -0.022563, 0.030763, 0.025227, 
    0.007466, -0.018171, 0.028218, 0.015275, 0.034942, 0.008022, 0.017602, -0.050351, 0.019902, 0.030406, 
    0.026103, -0.046006, -0.019471, -0.045473, -0.014990, 0.017152, 0.007181, 0.023721, 0.007064, 0.008731, 
    0.011392, 0.040886, -0.013562, 0.029060, 0.047898, 0.051346, -0.001163, 0.053212, -0.015367, 0.034670, 
    0.033956, -0.001099, 0.009317, -0.056636, -0.038199, -0.038778, -0.060838, -0.021557, 0.027774, -0.006017, 
    0.044706, -0.040347, 0.017230, 0.036904, 0.045036, -0.001887, -0.034436, -0.014360, 0.043520, 0.018488, 
    0.060096, -0.009420, -0.000737, 0.051684, 0.039123, 0.000119, 0.074391, 0.012522, -0.007961, 0.033625, 
    -0.033309, -0.011723, 0.001203, 0.043356, 0.033771, 0.053088, 0.002099, 0.017201, 0.067010, -0.004587, 
    0.022916, 0.028787, -0.014452, -0.031239, 0.020314, 0.004389, 0.019520, 0.034951, 0.046257, 0.045588, 
    0.032345, 0.008258, 0.023943, 0.021386, -0.025193, 0.000235, -0.017771, -0.041384, 0.032044, -0.031941, 
    0.002062, -0.008956, 0.000557, 0.030776, 0.045227, -0.021902, 0.006529, -0.028860, 0.028159, 0.049234, 
    -0.008641, -0.031593, 0.009390, -0.052241, -0.030410, -0.027344, 0.062450, 0.050456, 0.004095, 0.046418, 
    0.063385, 0.031412, -0.032748, 0.013934, 0.072107, 0.060535, -0.018682, 0.000338, -0.067669, -0.025962, 
    0.046750, 0.003426, -0.054848, 0.000877, 0.023069, 0.024781, -0.040515, 0.000807, 0.013802, -0.007393, 
    -0.017577, -0.006002, 0.036910, 0.041932, 0.009074, 0.022401, -0.015452, -0.003830, 0.003917, -0.022261, 
    -0.002152, 0.003165, 0.030909, -0.017834, -0.006456, -0.027838, -0.008289, 0.017717, 0.036787, -0.045962, 
    -0.006900, 0.040113, -0.008597, 0.056170, 0.029145, -0.008529, 0.050334, 0.012075, 0.044441, -0.000559, 
    0.085686, 0.019931, 0.058403, -0.014055, -0.008900, 0.034406, 0.048295, 0.021072, -0.017740, -0.009623, 
    -0.037013, 0.021249, 0.015743, 0.035539, 0.052592, 0.000995, 0.045677, 0.017703, -0.020251, -0.055848, 
    -0.046230, -0.002796, 0.006541, 0.003977, -0.014932, -0.053678, -0.063880, -0.042936, -0.020267, -0.021786, 
    0.017103, -0.038175, 0.021191, 0.042447, -0.039160, -0.047640, -0.031442, 0.009493, 0.048057, 0.002434, 
    0.004748, 0.016998, 0.019116, -0.070452, -0.049518, 0.007459, -0.003963, -0.030407, 0.007791, 0.010158, 
    -0.003222, -0.019012, 0.004250, 0.005503, 0.044988, 0.038262, 0.026245, 0.016250, 0.045622, 0.038939, 
    -0.013425, -0.029925, 0.045187, 0.016310, -0.007845, -0.022018, 0.009921, -0.034792, -0.007813, -0.002778, 
    0.018898, -0.009260, -0.057224, -0.042110, -0.017259, -0.008153, -0.061903, 0.007051, -0.020504, -0.062236, 
    0.028908, 0.013828, 0.047817, -0.004128, -0.009753, -0.063462, -0.065833, -0.027467, 0.019805, -0.042292, 
    -0.017405, -0.060249, -0.056895, -0.029682, -0.032871, -0.013419, 0.005732, 0.019390, 0.053229, 0.036359, 
    -0.003858, -0.012107, -0.007083, -0.031190, 0.028350, 0.028210, -0.058468, -0.048871, -0.045890, -0.004771, 
    0.009168, -0.009639, 0.056528, 0.034959, -0.006783, -0.030902, 0.060309, 0.071046, 0.021347, 0.000110, 
    0.064990, 0.058391, 0.006448, 0.041617, -0.045064, 0.011468, 0.048645, -0.022591, -0.008973, -0.014664, 
    -0.021166, 0.037594, 0.033327, -0.034335, -0.021939, 0.002203, -0.012230, -0.026495, -0.050753, 0.026471, 
    -0.006257, -0.005945, -0.031734, -0.058661, -0.029283, -0.016240, -0.042601, 0.010316, -0.018790, -0.030169, 
    0.004568, 0.005545, -0.064094, -0.017171, -0.064732, -0.007034, -0.015910, 0.028158, -0.060482, 0.022398, 
    -0.018286, 0.037221, 0.029404, 0.005779, 0.042282, 0.057201, 0.044962, -0.019717, 0.014116, 0.074304, 
    -0.027402, -0.025835, -0.007466, -0.028281, -0.027737, -0.003591, 0.027273, -0.025152, -0.026457, 0.004083, 
    -0.000468, 0.051119, 0.041197, 0.004838, -0.041228, 0.026511, 0.049180, 0.029563, 0.039676, -0.004393, 
    -0.020289, 0.013167, 0.033866, 0.069861, 0.042776, 0.026114, 0.019486, 0.009262, -0.023309, -0.020751, 
    0.000505, 0.026894, 0.034961, 0.016247, -0.040018, 0.029187, 0.025214, -0.027897, -0.008870, 0.021891, 
    -0.030366, 0.016871, -0.002402, 0.012027, 0.000763, 0.042505, 0.047892, -0.028152, 0.022549, -0.034279, 
    -0.054907, -0.021570, -0.032286, -0.052707, -0.051963, -0.049511, -0.026959, -0.008224, -0.004599, -0.012981, 
    0.056266, -0.018830, 0.000749, 0.051047, -0.014256, 0.074369, 0.038597, 0.006708, 0.061927, 0.056804, 
    0.078176, 0.065290, 0.007561, 0.040891, 0.018588, 0.030728, 0.013199, -0.057694, -0.025896, 0.034492, 
    -0.056964, 0.019243, 0.032204, -0.048072, -0.034876, -0.003210, 0.039260, -0.025462, 0.026803, -0.065767, 
    0.033768, 0.057838, 0.011953, -0.000712, -0.015167, 0.015446, 0.009701, -0.023750, 0.046999, 0.011198, 
    0.005704, 0.030090, -0.012179, -0.005173, -0.002209, -0.025055, 0.010512, 0.061177, -0.005608, 0.027510, 
    0.060929, 0.033402, 0.013365, 0.040828, -0.005246, 0.069880, 0.061626, 0.005668, -0.002351, 0.003160, 
    0.049913, -0.020046, 0.007791, -0.032361, 0.024384, 0.025759, 0.023642, 0.012561, 0.010857, 0.035511, 
    0.018986, -0.006502, -0.026417, 0.041628, 0.008770, 0.030489, -0.040078, -0.020976, -0.036150, -0.016816, 
    -0.019328, -0.068402, -0.027430, 0.000667, -0.005023, 0.009257, -0.001245, -0.002060, -0.051875, -0.003676, 
    0.038146, 0.072707, 0.016260, 0.054787, 0.034547, 0.060408, 0.008620, -0.034648, -0.007432, -0.012852, 
    0.022385, -0.040984, -0.013111, 0.025012, 0.063066, 0.004156, 0.048986, 0.018156, 0.013659, 0.016429, 
    0.002839, 0.037502, 0.026893, 0.006497, 0.061269, 0.012995, -0.003010, 0.038702, 0.013659, -0.015310, 
    -0.048188, -0.014731, -0.035254, 0.015277, -0.021514, 0.004887, 0.000559, -0.012981, -0.013608, -0.031337, 
    0.005895, -0.042611, -0.029425, 0.022442, -0.014255, 0.057202, 0.038732, -0.004865, -0.017858, 0.057252, 
    0.021926, 0.064879, -0.010825, 0.035854, -0.024864, 0.024206, -0.005506, -0.008605, 0.034703, 0.067344, 
    0.003497, -0.004229, 0.036595, -0.001773, -0.025486, 0.029024, 0.032569, 0.033626, 0.029944, 0.036479, 
    -0.016928, 0.000612, -0.016655, -0.006076, 0.036086, -0.040982, 0.019571, -0.029473, -0.004358, -0.010543, 
    -0.024960, 0.000390, -0.028194, 0.036166, -0.021718, 0.024313, -0.015536, -0.040743, 0.030737, -0.017832, 
    -0.024563, -0.002529, -0.006416, 0.009378, -0.015664, -0.018810, 0.019083, 0.014969, 0.034393, -0.000914, 
    -0.017800, -0.015675, -0.015252, -0.020375, -0.015577, -0.018770, 0.007861, 0.012616, 0.032248, -0.041278, 
    0.030737, -0.014856, -0.050553, 0.029839, -0.031829, -0.026520, 0.015148, 0.001593, 0.031114, -0.031848, 
    0.019997, 0.024061, 0.030120, -0.011417, 0.001802, 0.007484, 0.043036, -0.027736, -0.043902, -0.044498, 
    0.011701, -0.027252, -0.014205, -0.027288, 0.003123, -0.037840, 0.024284, -0.047892, -0.029334, 0.004101, 
    -0.050443, 0.005630, -0.022891, -0.028688, 0.027033, -0.020461, 0.005240, -0.021924, 0.016657, 0.039595, 
    0.037873, -0.027610, -0.045372, -0.037868, 0.006913, 0.018324, 0.018022, 0.013871, 0.038452, -0.040562, 
    -0.041730, -0.014293, 0.035427, -0.035048, 0.034221, 0.002092, 0.023043, 0.041988, 0.039411, 0.041999, 
    -0.014563, -0.024575, 0.013426, 0.032973, -0.004815, -0.016756, -0.013333, -0.021864, 0.021916, -0.049989, 
    0.033857, -0.005419, -0.032918, -0.021856, -0.033726, -0.045271, -0.000797, -0.015759, -0.025880, -0.013104, 
    -0.011451, 0.014867, -0.042188, -0.006227, -0.005871, -0.032033, 0.047354, -0.027588, 0.030262, 0.029034, 
    -0.004659, 0.028080, -0.040239, -0.010969, -0.043602, -0.033737, 0.008470, 0.028060, -0.033037, -0.024394, 
    -0.030860, -0.008621, -0.042680, -0.041314, -0.015421, 0.038018, 0.002257, -0.024253, 0.025520, 0.029234, 
    0.026752, -0.004051, -0.009893, 0.024413, 0.019553, 0.034609, 0.026922, -0.018907, 0.032708, 0.002979, 
    0.039491, 0.039456, 0.032329, 0.024432, 0.029887, -0.027405, -0.023720, -0.016588, -0.029313, 0.027583, 
    -0.001102, -0.016884, -0.024697, -0.045339, -0.001610, 0.034935, 0.024610, 0.030750, 0.025548, 0.013523, 
    -0.006721, -0.038805, 0.028452, -0.037322, -0.032702, 0.013264, 0.022605, -0.029703, 0.023317, -0.048668, 
    0.004926, 0.014199, 0.008478, -0.031145, -0.036360, 0.030531, 0.004104, -0.025560, 0.038012, -0.009527, 
    -0.014038, 0.014002, 0.032049, -0.025712, -0.004881, -0.023184, -0.026059, -0.012016, -0.005980, 0.018523, 
    -0.040044, 0.020536, 0.029709, -0.011154, -0.008826, 0.006084, -0.046189, 0.028784, -0.012641, -0.002957, 
    0.016674, 0.014222, -0.026020, -0.037998, -0.049277, -0.043315, -0.015515, -0.041204, -0.009880, -0.029879, 
    0.020447, 0.025269, 0.032663, -0.035796, -0.037691, 0.010543, -0.015848, 0.028837, -0.047825, 0.036376, 
    -0.037611, -0.042554, -0.010791, -0.026123, -0.034725, 0.020711, 0.031520, 0.024617, 0.000128, -0.006568, 
    -0.030855, 0.037553, -0.019581, -0.034739, 0.034868, -0.008060, 0.038453, -0.008332, 0.037590, -0.033982, 
    0.032747, 0.039118, -0.000638, 0.024319, -0.003999, -0.045583, 0.015807, -0.041434, -0.004517, -0.047009, 
    -0.021732, -0.019550, -0.017738, -0.044961, -0.022671, -0.047401, -0.042343, -0.049563, -0.031073, -0.014776, 
    0.036422, -0.037397, -0.040256, -0.042464, 0.037015, -0.011483, -0.018082, 0.019142, -0.032391, -0.017421, 
    0.037179, 0.020360, -0.039817, -0.017528, -0.000520, 0.012075, -0.025176, 0.026627, -0.004746, -0.044951, 
    0.006815, -0.049979, -0.002352, -0.050122, -0.018124, -0.016559, -0.046950, -0.012910, 0.001533, -0.030053, 
    0.001292, 0.018551, -0.000564, -0.050752, -0.006094, -0.021391, 0.013010, -0.036623, -0.031573, -0.001515, 
    0.026320, -0.018145, -0.008357, -0.010023, -0.040148, -0.000499, -0.006962, 0.001925, 0.014478, 0.007643, 
    0.019503, -0.014653, -0.025666, 0.032812, 0.031358, 0.019723, 0.027376, 0.016404, 0.034396, 0.034081, 
    -0.042872, -0.047934, -0.028823, 0.030155, 0.035359, -0.002974, -0.039699, -0.027403, 0.015747, 0.036566, 
    0.002889, -0.035970, 0.037355, 0.035900, -0.024314, -0.030304, 0.020290, -0.038935, 0.032148, -0.015165, 
    -0.006572, -0.030335, -0.045124, 0.010327, -0.016262, -0.031718, 0.031778, 0.003503, -0.017404, -0.046747, 
    -0.030374, -0.020198, 0.013955, -0.046125, 0.021854, 0.036431, 0.009168, -0.049827, 0.001521, -0.022922, 
    0.010353, 0.000412, 0.023996, -0.008356, 0.002746, 0.012234, -0.039451, 0.002796, 0.036511, 0.029254, 
    -0.001021, -0.010845, 0.014643, -0.042912, -0.017800, 0.034679, 0.011960, -0.000590, -0.041876, -0.035534, 
    0.000776, -0.034898, -0.016654, -0.025737, 0.008577, 0.002620, -0.048445, 0.011261, -0.008003, -0.022360, 
    0.028632, -0.036000, -0.045824, -0.000153, -0.030139, -0.024270, -0.045698, -0.017180, 0.030312, -0.047197, 
    -0.036630, -0.015257, -0.041474, 0.002958, -0.014328, 0.029400, -0.049657, -0.003038, 0.014986, 0.001142, 
    -0.017369, 0.037510, -0.040878, 0.037223, 0.007171, 0.016306, 0.026665, -0.000698, -0.000238, -0.013698, 
    -0.046124, 0.015335, 0.032498, 0.014670, -0.011257, -0.044892, -0.005962, 0.005919, -0.041677, 0.032861, 
    -0.007153, 0.006693, 0.034724, 0.014262, -0.027275, 0.011853, 0.024063, 0.017558, -0.026765, -0.000718, 
    -0.038255, -0.010330, -0.037268, 0.021207, 0.040248, -0.047173, -0.027225, -0.025258, -0.037731, 0.036517, 
    -0.038099, -0.023547, -0.017766, 0.029593, -0.023127, -0.012583, 0.063489, 0.036862, 0.033182, 0.034557, 
    0.044312, 0.037334, -0.018329, -0.007182, -0.067160, -0.014605, -0.037483, -0.037179, -0.038766, -0.033545, 
    -0.041326, -0.027739, -0.009514, -0.030429, 0.044504, 0.031991, -0.031128, -0.043913, -0.024575, 0.035665, 
    0.037175, -0.006605, 0.019377, -0.049259, -0.034957, -0.031274, -0.069794, -0.025015, -0.004616, 0.023254, 
    -0.047620, -0.040877, -0.030191, -0.028497, -0.025391, -0.049029, 0.034050, -0.038502, -0.024912, 0.010290, 
    -0.011789, -0.019745, -0.058023, 0.029619, 0.022613, 0.031271, -0.012659, -0.064967, -0.048338, -0.004726, 
    0.005786, 0.008824, 0.054871, 0.010800, 0.039252, -0.019285, 0.002184, -0.002458, -0.033976, -0.030457, 
    0.019449, -0.003736, 0.034838, 0.005990, -0.009550, 0.008387, -0.011075, 0.030299, 0.052585, 0.003338, 
    -0.036278, 0.017098, 0.019260, 0.008694, -0.017623, 0.000103, -0.016383, -0.048814, -0.073707, -0.032153, 
    0.024443, 0.046712, 0.044388, 0.055822, 0.057841, 0.027736, 0.072703, 0.036267, 0.015566, 0.020079, 
    0.015451, 0.003914, 0.037650, 0.051031, 0.027436, 0.003785, -0.019743, -0.018338, -0.016754, 0.005126, 
    0.004079, -0.004878, 0.021814, 0.007630, 0.012827, 0.054591, -0.009752, 0.033472, -0.042327, 0.045327, 
    0.047613, 0.049243, 0.025912, 0.025798, 0.006952, -0.003551, 0.070307, 0.080582, 0.048404, 0.014960, 
    0.046461, 0.035800, -0.002009, 0.002112, 0.053862, -0.018859, -0.025562, -0.037753, 0.020525, -0.019267, 
    0.000492, 0.050945, 0.074563, 0.067627, 0.047001, 0.036869, 0.055189, 0.051329, 0.038139, 0.028652, 
    0.027823, 0.024459, 0.058975, 0.045096, 0.001301, 0.015824, 0.001568, 0.026680, 0.044043, 0.021438, 
    0.000139, 0.012967, 0.061728, 0.038257, 0.032993, 0.030292, 0.008520, 0.001320, 0.007442, 0.013011, 
    -0.002893, 0.000387, 0.020547, 0.056850, 0.090459, 0.040415, 0.070041, 0.044713, -0.003524, 0.015500, 
    -0.001193, -0.034325, 0.000921, 0.005283, -0.032035, 0.002322, -0.022330, 0.069762, 0.056344, 0.014859, 
    0.060975, -0.011845, 0.059763, 0.007746, 0.042416, 0.061143, 0.045640, 0.027175, 0.006340, -0.003065, 
    0.021155, -0.028089, -0.019095, 0.016117, -0.016840, -0.020342, -0.010899, 0.024929, 0.005180, -0.026923, 
    0.034639, -0.015064, 0.018689, 0.008138, 0.017789, -0.038801, -0.033199, -0.015870, -0.015449, -0.045508, 
    0.040037, -0.020688, -0.016247, -0.068697, -0.036385, 0.015171, 0.005830, 0.043958, -0.027036, 0.019356, 
    0.007708, -0.011487, 0.053530, 0.047937, 0.032293, 0.012887, 0.036088, -0.013490, -0.035648, 0.052515, 
    -0.015352, 0.019213, 0.004483, 0.051361, 0.057273, -0.007393, 0.032276, -0.002978, 0.066099, 0.081748, 
    0.024458, 0.047250, 0.024419, 0.024697, 0.071465, -0.048168, 0.000263, 0.015685, -0.035270, 0.023132, 
    0.044625, -0.026812, 0.024420, 0.011643, 0.062457, -0.034004, 0.042696, -0.004682, 0.051495, -0.002821, 
    -0.025071, -0.019534, 0.014137, 0.008395, 0.010316, -0.013466, -0.035579, -0.013164, 0.030639, 0.032304, 
    -0.035876, 0.014485, 0.000033, -0.024619, -0.000516, 0.008650, 0.015395, -0.014708, 0.009550, 0.055937, 
    0.039467, -0.023401, 0.008403, 0.036784, -0.008845, 0.009491, 0.033673, 0.028396, 0.018556, -0.049690, 
    -0.020200, 0.057997, 0.022285, 0.063031, 0.037179, -0.018183, 0.016751, 0.023408, 0.000781, 0.060167, 
    0.024923, 0.007490, -0.023316, 0.050326, -0.035379, 0.036449, -0.008774, -0.008142, -0.003128, 0.045986, 
    -0.018527, -0.011662, 0.052766, 0.009035, 0.010822, 0.038872, -0.014256, 0.028602, -0.011495, 0.055156, 
    0.071552, 0.036179, 0.020255, 0.064344, 0.050818, 0.042300, 0.084187, 0.037231, 0.055543, 0.029910, 
    0.035882, 0.038814, 0.033144, 0.047596, 0.071711, 0.047587, -0.015768, 0.030359, 0.030723, 0.011267, 
    -0.011976, -0.033655, -0.022319, -0.001471, -0.039608, 0.018554, -0.040985, -0.047517, -0.024791, 0.051217, 
    0.028499, -0.026816, -0.029079, -0.006892, -0.029214, -0.060892, -0.010654, -0.055960, -0.002890, 0.023533, 
    0.043016, -0.052399, 0.005459, -0.027511, 0.014061, 0.036720, -0.008679, 0.002768, -0.004867, 0.037451, 
    -0.012939, 0.041878, 0.023437, 0.045558, 0.050860, 0.059249, -0.024495, -0.022799, -0.036002, 0.021598, 
    0.021002, 0.025985, 0.026791, 0.019856, 0.029430, -0.035888, 0.018791, -0.045151, -0.042433, 0.011735, 
    0.048025, -0.014821, 0.040804, -0.024820, -0.016118, -0.009730, 0.000660, -0.049305, 0.029830, -0.017086, 
    -0.011679, 0.004920, -0.003940, 0.069960, -0.000208, -0.002333, 0.014381, 0.060918, 0.036029, 0.043417, 
    -0.003251, 0.041069, 0.021230, 0.047892, 0.030390, 0.062706, 0.062921, 0.039721, -0.006997, 0.044173, 
    -0.012720, 0.029337, 0.015868, 0.058780, 0.003193, -0.030418, 0.036603, 0.050009, 0.007916, 0.022392, 
    0.044694, 0.011794, -0.006439, 0.028354, 0.059675, 0.013670, 0.040921, 0.001402, -0.024471, -0.025832, 
    -0.046799, 0.022956, -0.026326, -0.051951, -0.031685, -0.050495, -0.062454, -0.040997, -0.032139, -0.016721, 
    -0.019748, -0.032725, -0.023024, -0.064570, 0.010179, 0.054786, 0.060751, -0.003142, 0.072905, 0.047343, 
    -0.006407, 0.077832, 0.032733, 0.039250, 0.060879, 0.067555, 0.079556, -0.004142, 0.081101, 0.043255, 
    0.019943, -0.016061, 0.004743, 0.074811, 0.056039, 0.059181, 0.011169, -0.030680, -0.003244, -0.026600, 
    -0.049800, -0.002872, 0.014951, -0.056001, -0.063182, 0.003047, -0.026682, -0.037605, -0.023738, -0.014736, 
    -0.014375, 0.049185, 0.050856, 0.044238, 0.021655, 0.032920, 0.069683, 0.042681, -0.010405, 0.040241, 
    0.006599, -0.041174, -0.035077, -0.033042, -0.003633, 0.007245, -0.061274, 0.010624, 0.010414, 0.017728, 
    -0.023040, -0.029044, 0.040308, 0.007799, -0.016853, -0.015098, 0.012574, -0.032255, 0.012848, -0.024355, 
    -0.002097, 0.002437, -0.038658, -0.011868, 0.000902, -0.052418, -0.018576, -0.004045, 0.031539, 0.003752, 
    -0.006619, 0.020173, 0.079289, 0.020789, 0.047368, 0.004417, 0.017330, -0.041450, 0.024242, -0.006990, 
    -0.024187, 0.015420, -0.002228, -0.055292, -0.023356, 0.063442, 0.038039, 0.008665, -0.010207, -0.017730, 
    0.032133, 0.022765, -0.052293, -0.019051, -0.005112, -0.060010, 0.023039, -0.023142, -0.036805, -0.013881, 
    0.040559, 0.040010, 0.078276, 0.059739, 0.023948, 0.016427, 0.011992, -0.027783, -0.052054, -0.015703, 
    -0.038002, -0.054400, 0.011647, -0.018972, 0.016129, 0.011046, 0.017403, 0.020266, 0.034488, 0.050009, 
    0.059764, 0.019967, 0.013016, 0.038645, 0.007334, 0.021782, 0.037094, 0.045431, -0.017326, 0.049178, 
    0.022230, 0.010425, 0.023963, 0.041380, 0.063411, -0.000181, 0.051787, 0.078623, 0.008628, 0.044229, 
    0.016620, 0.047088, 0.056034, 0.008728, 0.049821, 0.059547, -0.000926, -0.038316, -0.001651, 0.023867, 
    0.045107, 0.031485, 0.027195, 0.014344, 0.067744, 0.011042, 0.020679, 0.069299, 0.018169, 0.031501, 
    0.018202, -0.000928, 0.062030, 0.015932, 0.012277, 0.025654, 0.049562, 0.078546, 0.080340, 0.042164, 
    0.003766, 0.046670, 0.045090, 0.082169, 0.033639, -0.006398, 0.055549, 0.027199, 0.052608, 0.051908, 
    0.056972, 0.067948, 0.012185, 0.006657, 0.086143, 0.085765, 0.025913, 0.087506, 0.054999, 0.034528, 
    -0.009101, -0.022452, 0.042232, -0.017486, 0.002334, 0.074772, 0.012310, 0.081675, 0.060655, 0.064868, 
    0.052500, 0.034331, 0.062738, 0.056646, 0.014656, -0.035416, -0.034079, -0.011229, 0.014305, -0.025279, 
    0.007812, 0.033930, 0.044494, 0.005990, 0.032591, -0.021437, 0.046527, -0.027663, 0.009997, -0.012611, 
    -0.035517, -0.042568, -0.042858, -0.049123, 0.024247, -0.022080, -0.048172, -0.021154, -0.042898, -0.026266, 
    0.019785, -0.061255, -0.061856, -0.009841, 0.016623, -0.017983, 0.039640, 0.070836, 0.018109, -0.002472, 
    0.047040, 0.048870, 0.018565, -0.011624, 0.026590, -0.012801, -0.024211, 0.043670, 0.046712, 0.038278, 
    -0.007224, 0.068114, 0.056029, 0.059257, 0.020891, 0.023059, -0.003849, 0.072570, 0.038024, -0.002968, 
    0.088020, 0.037817, 0.071268, 0.037095, 0.035986, 0.064862, 0.069259, 0.008795, 0.018510, 0.030630, 
    -0.005858, -0.021320, 0.022648, 0.022864, -0.024488, 0.025703, -0.018501, -0.015370, 0.017993, -0.013102, 
    0.020636, 0.005674, -0.030278, 0.041122, -0.025073, -0.028645, 0.012481, -0.006165, -0.005379, -0.008127, 
    0.016386, -0.079025, -0.060011, -0.019829, -0.067220, -0.017274, 0.058003, 0.039680, 0.002505, 0.021017, 
    0.011680, -0.012424, 0.027348, -0.009246, 0.020098, -0.049323, -0.035040, -0.008530, 0.010932, -0.025772, 
    0.069934, -0.001185, 0.016361, 0.062170, -0.008261, -0.019603, 0.014673, -0.010529, 0.043292, 0.028420, 
    0.022650, 0.058814, 0.034414, -0.008309, -0.012296, 0.033404, 0.020516, 0.024114, -0.034079, 0.011762, 
    0.068504, 0.073297, 0.070949, 0.084156, 0.023777, 0.002987, 0.062250, 0.065566, 0.021630, 0.032455, 
    0.035980, -0.000913, 0.017826, 0.025502, 0.058443, 0.025884, 0.061714, 0.082648, 0.029954, 0.027749, 
    0.008293, 0.033080, -0.002241, 0.073723, 0.083924, 0.028392, 0.065662, 0.042434, 0.051564, 0.057524, 
    -0.023348, -0.004523, 0.023241, 0.005102, -0.013944, -0.000624, -0.019320, -0.014696, -0.031032, 0.020459, 
    0.027554, -0.015662, 0.019993, -0.040360, -0.047930, -0.020399, 0.022130, -0.052623, 0.023750, 0.031097, 
    -0.015194, -0.016585, 0.035825, -0.009109, 0.056218, -0.015558, 0.051961, -0.013935, 0.020771, 0.010012, 
    -0.043013, -0.034412, -0.019901, -0.002208, 0.027825, -0.008468, 0.016737, -0.017433, -0.016128, 0.042265, 
    0.003715, -0.026189, 0.016772, 0.004443, 0.021713, -0.015588, 0.001230, -0.020614, -0.017230, 0.025965, 
    0.032154, 0.022810, 0.048855, 0.003435, 0.024259, 0.014064, -0.034547, 0.016614, 0.031470, 0.009497, 
    -0.016550, 0.073906, 0.050490, 0.079797, 0.066454, 0.049670, 0.029261, 0.049693, 0.059472, 0.038830, 
    -0.036662, -0.019526, -0.018275, 0.010576, 0.019620, 0.068794, 0.011920, -0.004668, 0.062962, 0.071825, 
    -0.003113, 0.037781, 0.053634, 0.070556, 0.031646, 0.041177, 0.058038, 0.046989, 0.037443, 0.038185, 
    -0.037274, 0.004467, 0.024271, -0.048809, -0.051656, -0.052147, -0.003846, 0.023242, -0.022836, -0.040767, 
    0.009117, -0.033206, 0.014120, -0.026591, -0.028323, -0.044534, -0.026433, 0.013481, -0.009433, 0.017244, 
    -0.057916, -0.053224, 0.007585, 0.017104, 0.023903, -0.012572, 0.055571, -0.005519, 0.025210, 0.037137, 
    0.054237, 0.001556, -0.037954, -0.045131, -0.014561, 0.040089, 0.028824, 0.028742, -0.031003, -0.024611, 
    0.034870, 0.021199, -0.017273, 0.025930, 0.033105, 0.035705, -0.046781, -0.013494, 0.009996, 0.025053, 
    0.034106, 0.014604, 0.008419, 0.033121, -0.046268, 0.013825, -0.037906, -0.010015, -0.052709, 0.025585, 
    -0.025170, 0.009021, -0.014766, 0.018878, -0.011276, -0.013878, -0.023916, 0.017757, -0.002629, 0.003079, 
    0.023783, 0.001149, -0.029568, -0.026818, -0.049907, -0.049501, -0.047867, -0.019815, -0.065940, -0.051016, 
    0.004271, -0.041147, -0.032444, -0.016099, -0.052779, 0.015043, -0.027673, -0.002459, -0.045237, 0.002833, 
    -0.034631, 0.025607, -0.017337, -0.026333, -0.004339, 0.011162, 0.020541, -0.015848, 0.001036, -0.066788, 
    0.015042, -0.001100, -0.010361, 0.033807, 0.008796, 0.011851, -0.022790, -0.032085, -0.005230, -0.028491, 
    0.031178, -0.003515, 0.062909, 0.042677, -0.003449, -0.004936, -0.036858, 0.030492, -0.026569, -0.022494, 
    -0.015728, 0.001144, -0.026412, 0.004415, 0.011380, -0.010811, 0.031284, -0.046965, -0.035605, -0.023265, 
    -0.018671, 0.006518, 0.036780, -0.031986, 0.026328, 0.021243, 0.052510, 0.035398, -0.000411, 0.007987, 
    -0.008007, 0.030142, 0.048013, 0.013309, 0.043546, 0.005928, -0.008933, -0.024333, -0.042322, -0.016527, 
    0.034472, 0.038517, -0.009476, 0.052105, 0.044314, -0.030988, -0.035049, -0.029158, -0.009216, 0.017668, 
    0.052586, 0.055744, 0.009554, 0.068094, 0.050601, 0.007661, 0.006835, 0.055925, 0.082439, 0.008621, 
    0.044782, -0.004853, 0.067283, 0.052217, 0.026922, 0.034473, 0.022116, 0.032461, 0.019393, 0.014303, 
    0.053038, 0.052460, -0.000629, 0.018403, 0.061419, 0.012508, 0.060451, 0.009029, 0.064843, -0.004376, 
    0.047965, -0.002662, 0.053374, 0.050233, 0.055307, 0.051869, 0.067406, 0.013833, 0.019860, 0.043911, 
    -0.002553, 0.033782, 0.051097, -0.008880, 0.027318, 0.021749, -0.024364, 0.046216, 0.012775, -0.017275, 
    0.023987, 0.053196, 0.070556, 0.023836, 0.083457, 0.021290, -0.002390, 0.012597, -0.001067, 0.045491, 
    0.050232, -0.026327, -0.028027, 0.036262, 0.010110, 0.066820, 0.069181, 0.000267, 0.061826, -0.009716, 
    0.044723, -0.006405, 0.020179, 0.067804, 0.032773, 0.008756, 0.049447, 0.010968, 0.054012, -0.037401, 
    -0.025275, -0.053794, -0.033996, -0.012154, -0.022637, -0.030505, -0.013672, -0.026619, -0.033175, 0.001242, 
    -0.023879, 0.022244, 0.019106, 0.032831, -0.007883, -0.040004, -0.039559, -0.041904, 0.006193, 0.004862, 
    0.032944, -0.012879, -0.056966, -0.013677, 0.017984, 0.016996, 0.053493, 0.043128, 0.022302, -0.002274, 
    -0.005597, 0.002244, 0.009886, 0.003435, -0.031870, -0.021591, -0.003595, 0.044567, 0.026253, -0.027716, 
    -0.002308, -0.003025, 0.061742, 0.041136, 0.066782, -0.002677, 0.080186, 0.074215, 0.044936, 0.020139, 
    0.061184, 0.013490, 0.015660, 0.053221, -0.001308, 0.002506, 0.001115, 0.006432, -0.001593, 0.001930, 
    -0.034967, 0.011478, -0.049532, 0.005680, -0.051491, 0.027875, -0.003494, 0.006357, 0.006713, -0.000616, 
    -0.036441, -0.067616, 0.007240, 0.017131, -0.008308, 0.010216, 0.009339, -0.003460, 0.039466, -0.023002, 
    -0.037914, -0.010243, -0.028934, -0.025939, -0.018294, -0.003243, 0.028344, 0.025347, 0.030144, 0.023195, 
    0.000003, -0.011927, -0.016032, -0.054583, -0.010833, -0.017602, -0.017608, 0.019059, -0.002194, 0.013700, 
    0.061439, -0.001757, 0.040377, 0.019867, 0.028676, 0.037957, -0.004147, 0.048116, 0.024934, 0.016381, 
    0.054183, 0.057305, 0.007186, 0.044529, 0.007842, 0.008388, -0.023933, -0.012600, 0.011432, 0.011710, 
    0.023662, 0.043403, 0.004842, 0.055101, 0.068717, 0.040155, 0.043321, -0.011505, 0.004913, -0.002668, 
    -0.020023, -0.005397, 0.038908, -0.023967, -0.001126, 0.061429, 0.067971, 0.022328, 0.018965, 0.034375, 
    0.071625, 0.058085, -0.009168, 0.021921, -0.017400, -0.000532, 0.019157, -0.002553, -0.011116, 0.042609, 
    0.026400, 0.004793, -0.000564, 0.014311, 0.058560, 0.009699, 0.020876, 0.028449, 0.045022, 0.057979, 
    -0.035241, 0.009836, -0.004863, -0.011459, -0.065829, 0.010850, -0.011093, -0.023785, -0.004972, -0.023685, 
    -0.051454, -0.036941, -0.071945, 0.007328, 0.008408, 0.006196, -0.033565, -0.030507, 0.019670, -0.047931, 
    0.000821, 0.034425, -0.046789, 0.019205, -0.041869, -0.008875, 0.023068, 0.019793, 0.026818, 0.027660, 
    -0.023976, 0.021107, -0.026785, 0.036164, 0.020232, 0.025975, 0.003010, 0.019061, -0.012407, -0.048897, 
    -0.029981, 0.002373, -0.048916, 0.023380, -0.036384, -0.021252, 0.032939, -0.048994, -0.030002, 0.009950, 
    0.043891, 0.021917, 0.056106, -0.000377, 0.033944, -0.024508, -0.034726, 0.010927, 0.025102, -0.002486, 
    0.017492, -0.004170, 0.035852, 0.014100, 0.014716, 0.038139, -0.008186, 0.056867, 0.078819, 0.071228, 
    -0.006406, 0.004937, 0.005810, 0.031928, 0.002640, -0.033958, -0.014243, 0.046184, 0.013758, -0.049594, 
    -0.035054, -0.050141, -0.014986, -0.011622, -0.036055, -0.031908, -0.009276, -0.001563, 0.021577, -0.000591, 
    -0.018739, -0.031662, 0.010132, -0.014094, 0.007480, -0.060665, -0.032996, -0.060795, -0.044525, -0.047920, 
    -0.023724, -0.017524, 0.023149, 0.019260, 0.019020, 0.043592, 0.028999, 0.076203, 0.005010, -0.010153, 
    0.000600, 0.051723, 0.069082, 0.003050, -0.011454, -0.010484, 0.058333, 0.016703, 0.064262, 0.013923, 
    0.041758, 0.029427, 0.030067, 0.018327, -0.036678, 0.006263, -0.027231, -0.019977, 0.028271, -0.023194, 
    0.028784, -0.003596, -0.021642, -0.022166, -0.050320, 0.009705, -0.004198, 0.034687, 0.010500, 0.008224, 
    -0.008376, 0.015380, -0.012723, 0.012349, -0.026707, 0.022911, 0.006565, 0.018160, -0.002869, 0.015712, 
    0.035299, 0.001073, 0.025784, -0.047742, -0.009563, -0.045621, -0.002688, 0.002620, 0.006937, -0.025380, 
    0.015414, -0.025157, -0.017563, 0.028280, -0.047957, 0.003312, -0.045222, 0.013663, -0.044066, -0.048798, 
    -0.018666, 0.030553, 0.017110, 0.023384, -0.016585, 0.034368, -0.026763, -0.009146, -0.047865, -0.003651, 
    0.010464, -0.043808, 0.038371, 0.008587, 0.043529, -0.019649, 0.002128, -0.014649, 0.038592, -0.025515, 
    0.026270, -0.032052, 0.028349, -0.048449, -0.028640, -0.026551, -0.013702, -0.006517, 0.008799, 0.034981, 
    0.020937, -0.027960, 0.036938, -0.012673, -0.031403, 0.011110, -0.013905, 0.037609, -0.000859, 0.024258, 
    0.005807, -0.029829, 0.009606, -0.032349, -0.018170, -0.014704, -0.036166, 0.011714, 0.026347, -0.044980, 
    0.024845, -0.036038, -0.044670, 0.015741, -0.001012, -0.033933, 0.034917, -0.002227, -0.034580, 0.014988, 
    -0.002720, -0.013257, -0.038445, -0.009262, 0.020464, -0.028250, 0.015072, -0.050806, -0.023220, -0.020310, 
    -0.046105, 0.010364, -0.041686, 0.020465, 0.003394, 0.000606, -0.024333, -0.021484, 0.005130, 0.043882, 
    -0.021863, -0.037007, -0.026198, -0.038738, -0.011960, -0.038484, 0.027144, 0.026446, -0.034994, 0.034304, 
    0.003512, -0.034990, 0.009210, -0.047376, -0.030225, -0.038897, -0.031336, -0.015831, 0.004443, 0.002759, 
    -0.050566, -0.049639, -0.012834, 0.033006, 0.010957, 0.034792, -0.027577, 0.006773, -0.045688, 0.017803, 
    -0.007076, -0.009413, -0.030598, -0.045832, -0.022756, -0.004313, -0.024239, 0.019078, -0.007920, 0.004494, 
    -0.042507, 0.012854, -0.022315, -0.034489, -0.024266, -0.047460, -0.034839, 0.034031, 0.037361, -0.031704, 
    0.003947, -0.029462, 0.036760, 0.021914, 0.012197, -0.043165, -0.028402, -0.015544, -0.046759, -0.032626, 
    0.006066, -0.043109, 0.006193, -0.006994, -0.009710, -0.019284, -0.030481, -0.042674, -0.037011, 0.028520, 
    -0.009334, 0.044445, 0.002406, -0.011331, 0.021421, -0.042972, -0.028291, 0.020232, -0.017854, 0.036111, 
    -0.010119, 0.026600, -0.003735, -0.001211, -0.044503, -0.021725, -0.003663, 0.014904, 0.002905, -0.015861, 
    -0.005643, 0.033285, 0.024496, 0.009623, -0.038846, -0.021299, 0.023189, 0.035136, -0.027529, 0.013443, 
    -0.016639, 0.023003, -0.012810, -0.042234, -0.051131, -0.007661, 0.007505, -0.032858, 0.029960, 0.015699, 
    0.027524, 0.021029, -0.044023, -0.008369, 0.023709, 0.022595, -0.041530, -0.025872, 0.033269, -0.043739, 
    0.028643, -0.014756, -0.002602, 0.016311, 0.006337, -0.029259, 0.008916, -0.045139, -0.023034, -0.008018, 
    -0.015081, 0.027275, -0.024916, 0.038300, 0.015309, 0.008902, 0.032506, -0.031171, -0.039328, -0.004246, 
    0.022501, 0.017104, 0.001898, 0.043654, 0.010268, 0.013772, -0.028073, 0.007973, -0.023036, -0.042823, 
    -0.035643, -0.033508, -0.012833, -0.025068, 0.035982, 0.012920, -0.043899, -0.004030, 0.033409, -0.007791, 
    0.001456, 0.006510, -0.021012, -0.035503, -0.023057, -0.017860, 0.029965, -0.043054, 0.000185, -0.023399, 
    -0.010807, -0.010006, -0.023657, 0.004581, 0.004836, -0.032162, 0.022093, 0.035223, -0.024856, 0.003352, 
    -0.022852, 0.025337, -0.009490, -0.046648, 0.004670, 0.037824, 0.000178, -0.011689, -0.001252, 0.025845, 
    0.033208, -0.011423, 0.024315, 0.025432, 0.034829, 0.032700, -0.037698, -0.037709, -0.037878, 0.028681, 
    -0.023178, 0.025212, -0.006796, -0.018808, 0.028395, -0.014764, -0.030584, -0.012946, -0.034981, -0.049898, 
    -0.013948, -0.008521, -0.031965, 0.040454, -0.016148, -0.017545, 0.030221, -0.000872, -0.016688, 0.004544, 
    -0.047191, 0.038922, 0.006089, 0.010101, -0.039616, 0.028946, -0.043465, -0.021812, -0.035218, -0.029003, 
    0.009740, -0.051217, -0.050635, 0.010427, 0.015043, -0.005296, -0.023292, -0.018718, -0.012254, -0.015206, 
    -0.034188, 0.028405, 0.003287, -0.036488, -0.015227, -0.038979, -0.032620, 0.028717, 0.007983, 0.014045, 
    -0.011873, -0.017341, -0.000051, -0.038378, -0.051368, 0.026137, -0.005021, 0.021734, 0.028392, 0.014012, 
    -0.021551, -0.008370, -0.008333, -0.003221, -0.004176, -0.035685, -0.031041, 0.027311, -0.004490, -0.020694, 
    0.024908, -0.019498, -0.024516, 0.025949, -0.041962, -0.027810, 0.028592, -0.010414, -0.024773, 0.031923, 
    0.000996, -0.048835, -0.039703, -0.017522, -0.008455, -0.040316, -0.023150, 0.009479, -0.042566, -0.042774, 
    0.005916, 0.002760, -0.050030, -0.048420, 0.031973, 0.039601, -0.025900, 0.039516, 0.025573, 0.034621, 
    -0.025592, -0.017120, 0.020959, 0.010979, -0.042380, 0.021365, 0.038559, -0.034938, -0.048329, -0.049430, 
    -0.034829, -0.026051, -0.031746, -0.045928, 0.022556, 0.038690, 0.032262, 0.022631, 0.014314, -0.023946, 
    -0.042784, -0.032909, 0.014715, 0.004035, -0.000124, -0.033653, -0.027425, -0.025201, -0.011745, -0.014564, 
    -0.001124, -0.021151, -0.011123, -0.034981, 0.016604, -0.043883, 0.002385, -0.049374, -0.031981, 0.038182, 
    -0.014491, -0.008385, 0.017596, -0.045327, -0.010515, -0.001469, -0.000814, -0.013510, -0.038148, -0.047784, 
    -0.013957, 0.050457, 0.000963, 0.017467, 0.041474, -0.023195, 0.068179, 0.059653, 0.003114, 0.066380, 
    0.071082, 0.073060, 0.068035, 0.027315, 0.020137, -0.013555, 0.028261, 0.071211, 0.010274, 0.033650, 
    -0.004562, 0.025902, 0.016324, 0.029961, -0.014551, 0.013389, 0.024729, -0.001301, -0.053123, 0.028058, 
    0.003004, 0.058914, 0.004545, 0.048112, 0.024064, -0.014589, 0.035217, -0.006847, -0.023972, -0.022380, 
    0.015563, 0.001222, -0.015531, -0.010372, -0.003136, 0.040174, 0.072681, 0.061366, 0.008735, 0.022112, 
    0.050305, 0.057859, -0.022733, -0.000546, 0.005096, 0.062969, 0.038152, -0.044481, -0.039908, -0.031370, 
    -0.007317, -0.025739, -0.048440, -0.037299, -0.011289, 0.005200, 0.012069, -0.022084, 0.061893, -0.009497, 
    0.005632, 0.063189, 0.023768, -0.014461, 0.042814, -0.031341, 0.031301, -0.026929, -0.043909, -0.040723, 
    -0.002784, -0.005357, 0.037679, 0.004427, -0.021163, 0.014393, -0.025537, 0.015231, 0.020465, -0.030398, 
    -0.028952, -0.028048, -0.010678, 0.002800, 0.039829, -0.004408, 0.068158, 0.011638, 0.080829, 0.017761, 
    0.009322, 0.073675, 0.073404, 0.013723, 0.081183, 0.015355, 0.034792, 0.014893, -0.004177, -0.017304, 
    -0.047299, 0.026816, 0.015258, 0.024586, -0.060559, 0.035997, 0.013172, -0.013042, -0.048422, 0.017415, 
    0.001854, 0.008309, -0.068500, -0.021403, -0.008544, -0.067163, 0.025482, 0.018104, -0.044711, -0.046825, 
    -0.002366, 0.036460, 0.011203, 0.007587, -0.006989, -0.059456, 0.026309, 0.040129, -0.019633, -0.005428, 
    0.031564, -0.026760, -0.041977, 0.007106, 0.002142, 0.042082, -0.026940, -0.012481, -0.009686, 0.016177, 
    0.024726, 0.007805, -0.011596, -0.006853, -0.012208, 0.041648, 0.060627, -0.000743, -0.003392, 0.059415, 
    0.014665, -0.013050, 0.040844, -0.015599, 0.005618, -0.041655, -0.029452, -0.009950, 0.008592, -0.037036, 
    -0.021574, -0.037599, -0.047932, -0.005670, 0.030439, 0.031699, -0.057619, -0.001830, -0.037903, -0.021379, 
    0.008390, 0.054869, 0.052025, -0.027851, 0.011408, 0.017364, -0.009026, -0.025024, -0.043055, -0.053063, 
    -0.064397, -0.024019, -0.038384, -0.008654, -0.027261, 0.054158, -0.019783, 0.059113, -0.005025, 0.005407, 
    -0.030282, 0.000171, 0.015821, 0.024125, -0.049958, 0.011229, 0.009004, -0.056360, 0.002079, -0.002289, 
    0.031682, 0.055137, 0.020505, 0.001665, -0.007052, 0.013960, 0.005493, -0.019098, 0.012487, 0.035962, 
    0.022181, 0.046892, -0.009208, 0.039241, 0.014650, -0.007963, 0.023893, 0.023661, -0.019913, -0.008795, 
    0.019739, -0.044803, 0.013652, 0.004859, -0.037582, -0.013588, 0.004177, 0.021239, 0.021917, -0.040623, 
    -0.054969, 0.001178, 0.026216, 0.023954, 0.003157, 0.025007, -0.041304, -0.021966, -0.061201, -0.054225, 
    -0.051686, -0.065272, -0.016946, -0.017599, -0.007685, 0.028997, -0.040885, -0.020581, 0.031188, -0.025227, 
    0.058221, 0.041347, -0.005696, 0.046567, 0.039752, 0.044412, 0.027168, 0.061427, 0.077970, 0.072982, 
    -0.031509, -0.061667, 0.037067, 0.013617, 0.047141, 0.029144, 0.014190, 0.038001, 0.040089, 0.015084, 
    0.036326, 0.028351, 0.062146, 0.045359, 0.004455, 0.045049, 0.044882, 0.043256, 0.019694, 0.017263, 
    -0.005626, 0.055693, -0.008090, -0.015505, 0.041542, -0.013872, 0.040333, -0.003260, 0.012691, -0.007031, 
    0.023744, -0.042469, 0.003345, -0.003947, -0.049047, 0.028723, -0.002409, -0.050207, -0.059398, 0.001986, 
    0.020172, -0.025632, -0.030054, -0.056488, 0.014962, -0.007921, -0.009590, 0.027721, 0.041094, 0.010950, 
    -0.008755, 0.016141, -0.022184, -0.019446, -0.030286, -0.062574, -0.028543, -0.060761, -0.008141, -0.063381, 
    -0.039879, -0.003318, 0.041888, -0.016198, 0.002744, 0.022861, 0.011013, 0.047141, 0.064605, 0.059152, 
    0.028549, -0.008607, -0.028836, -0.015775, -0.016074, -0.013386, 0.002231, -0.035084, 0.008643, -0.028853, 
    -0.016087, -0.015671, 0.022910, -0.053923, -0.035302, 0.006022, -0.002978, -0.001170, 0.022978, -0.015860, 
    0.026080, 0.041524, 0.004099, 0.006393, 0.047475, 0.022920, 0.031502, -0.017248, 0.025054, 0.005548, 
    -0.035445, -0.052225, -0.027495, -0.077014, -0.059032, 0.021427, 0.016507, 0.039287, 0.003817, 0.064217, 
    0.004843, 0.008256, 0.061368, 0.023509, 0.047493, 0.025498, -0.001845, 0.026843, 0.048353, 0.055538, 
    0.037101, 0.000611, 0.031282, 0.015201, 0.000090, -0.006833, -0.008831, 0.012289, -0.003428, 0.028795, 
    -0.006958, -0.023431, 0.019614, -0.018510, 0.053865, 0.045152, 0.007619, -0.003319, 0.013641, 0.042923, 
    -0.019074, -0.000517, -0.016211, -0.042442, -0.042115, -0.032585, 0.055096, 0.040296, -0.016045, -0.048492, 
    0.070239, 0.040397, 0.040953, 0.013046, -0.009003, -0.007996, 0.027228, -0.051085, -0.022292, 0.035958, 
    -0.003267, -0.004394, 0.018410, -0.036177, -0.008918, -0.022099, -0.032214, 0.009046, 0.052648, 0.012874, 
    0.042137, -0.003129, 0.025299, -0.012154, 0.021433, 0.036395, 0.002499, 0.060250, 0.027926, 0.033442, 
    0.042182, 0.020453, -0.001189, 0.018733, 0.039305, -0.049906, -0.016490, 0.014246, -0.015216, -0.043104, 
    -0.031918, -0.027501, 0.014302, 0.022822, -0.007411, -0.028827, 0.008819, 0.008184, -0.015054, 0.023224, 
    -0.010928, 0.031230, 0.055660, 0.046250, 0.014881, 0.070176, 0.024060, -0.015338, 0.057023, 0.055793, 
    0.032913, 0.068276, 0.059331, 0.034023, 0.045868, 0.000450, 0.039146, 0.024093, 0.052144, -0.006894, 
    0.044310, 0.058109, 0.016665, 0.010827, 0.003511, 0.034554, -0.008709, 0.027344, 0.037583, 0.043517, 
    -0.011613, 0.027356, -0.007601, -0.001406, -0.031015, -0.026291, 0.022165, 0.023221, 0.053350, 0.052396, 
    0.077621, 0.064054, 0.078236, 0.066603, 0.005029, 0.081287, 0.052436, 0.035782, 0.025797, 0.075218, 
    0.067702, 0.030602, 0.018637, 0.015144, 0.066114, 0.010745, 0.012961, 0.018836, 0.057442, 0.072067, 
    0.042378, 0.046126, -0.006482, 0.001140, 0.009322, 0.007006, 0.014091, -0.003278, 0.007276, -0.003356, 
    0.003807, -0.013348, -0.016747, 0.002888, -0.049077, -0.016071, 0.014325, -0.013220, 0.039131, -0.036043, 
    0.022824, 0.047656, 0.024596, -0.005999, 0.047406, -0.034241, 0.001814, 0.030098, 0.048478, 0.012456, 
    0.020530, 0.031243, -0.004838, 0.043626, -0.001881, 0.036801, 0.024145, 0.068255, 0.020539, 0.072642, 
    0.022991, 0.020186, -0.010688, 0.066782, 0.033651, -0.006937, 0.042743, 0.059234, 0.027315, 0.076832, 
    0.062679, 0.030489, 0.076638, 0.053032, 0.024988, 0.037115, 0.057652, 0.024392, 0.064270, -0.014312, 
    -0.002746, 0.039309, -0.032549, -0.011268, -0.010427, 0.048069, 0.017676, -0.020900, 0.040751, -0.014655, 
    -0.018491, -0.002358, -0.051684, -0.025903, -0.038458, -0.036457, -0.040458, 0.007345, -0.044090, -0.052996, 
    -0.000641, -0.001573, -0.016072, -0.010734, 0.030840, -0.023716, -0.034405, -0.023976, 0.032920, 0.022949, 
    -0.016913, -0.058257, -0.052208, -0.052848, 0.012274, 0.012084, -0.023315, -0.063610, 0.006517, -0.019545, 
    0.062040, -0.032593, -0.040732, 0.000053, 0.023767, 0.021594, 0.032825, 0.017995, 0.016366, -0.032343, 
    0.033497, -0.029498, 0.023696, 0.015131, -0.021082, -0.019588, -0.016810, 0.033528, 0.033968, -0.009884, 
    -0.050399, -0.011256, 0.008816, -0.051875, 0.016846, -0.012820, -0.003415, -0.016367, -0.003868, -0.065781, 
    0.030755, -0.019528, 0.017225, 0.050864, -0.029552, -0.037048, -0.031312, -0.012519, -0.019083, -0.046912, 
    -0.003975, -0.020196, -0.028320, -0.004219, 0.012940, 0.007882, -0.027068, 0.055972, 0.042261, 0.012307, 
    0.071879, 0.039607, 0.047306, 0.045925, 0.005836, 0.043156, 0.009983, 0.055430, 0.026721, 0.036819, 
    0.039620, 0.010500, 0.081294, 0.044342, 0.061709, 0.014846, 0.030545, 0.076798, 0.016919, 0.053153, 
    0.086656, 0.003106, 0.045905, 0.054152, 0.071445, -0.003375, -0.037295, -0.018101, 0.023802, -0.024799, 
    -0.034482, 0.001765, 0.015113, -0.025201, -0.014640, 0.028718, -0.027028, -0.036011, -0.012547, 0.033130, 
    -0.019864, -0.036852, -0.037525, -0.014197, 0.023957, -0.000646, -0.037472, -0.064197, -0.054055, -0.017000, 
    0.013693, -0.000499, -0.033638, -0.003524, -0.023814, 0.034463, 0.031366, -0.015105, 0.007936, 0.023914, 
    0.047943, 0.018422, 0.064185, -0.003512, 0.064810, -0.014059, -0.002167, 0.001671, 0.027511, 0.029696, 
    -0.030469, 0.046290, 0.043041, 0.073189, -0.018496, -0.031081, 0.012339, 0.040941, 0.033832, 0.035956, 
    0.034012, 0.049050, 0.007215, -0.026837, -0.028929, -0.002789, 0.035189, 0.068844, 0.061527, 0.004605, 
    0.047787, 0.078888, 0.041968, 0.033008, 0.017003, 0.038337, 0.074684, 0.025865, 0.029922, 0.048453, 
    -0.022690, -0.025677, 0.005786, 0.035266, 0.011633, 0.006561, -0.032951, 0.026134, -0.001817, -0.028869, 
    -0.048008, -0.026536, -0.037664, 0.004674, 0.031839, -0.003873, 0.044475, 0.006419, -0.010372, -0.044333, 
    -0.044239, 0.015946, 0.011528, 0.021087, -0.020832, -0.000753, -0.026394, 0.022407, -0.055254, -0.032386, 
    -0.025009, 0.026965, -0.008902, -0.006669, 0.027026, 0.058563, 0.049044, 0.035936, -0.008581, 0.025898, 
    -0.009434, 0.047933, 0.015562, 0.034176, -0.049295, 0.015641, -0.002182, -0.011045, 0.004744, 0.042846, 
    0.057235, 0.045601, 0.002351, 0.033883, 0.057589, 0.025968, 0.013740, -0.012625, 0.050376, -0.024288, 
    0.005033, 0.072092, 0.055219, 0.026162, 0.001249, 0.053448, 0.033554, 0.036750, 0.025235, 0.074988, 
    0.062941, 0.074829, 0.053528, 0.048929, 0.054867, 0.025520, 0.050479, 0.046194, -0.011528, 0.064795, 
    0.029705, 0.004445, 0.066789, -0.001544, 0.057276, -0.002674, 0.019267, -0.010002, 0.065025, 0.041200, 
    0.040258, 0.014827, -0.025145, 0.013270, 0.041675, -0.018952, -0.007489, 0.013773, -0.014984, -0.002647, 
    0.046026, 0.033380, -0.019627, -0.002803, 0.062147, 0.013529, -0.011672, 0.026238, 0.015590, 0.026358, 
    -0.002192, 0.007864, 0.015691, 0.001658, 0.000976, -0.013773, -0.030522, -0.004630, -0.042515, -0.054089, 
    -0.002314, 0.030961, 0.001549, 0.032415, 0.041106, 0.043638, -0.040706, 0.036660, 0.028114, 0.062677, 
    0.039925, 0.012833, -0.003616, 0.041875, -0.023371, 0.060197, 0.062315, 0.032730, 0.009267, -0.005585, 
    0.029772, 0.072568, 0.037603, 0.024005, 0.012459, 0.038582, 0.058899, 0.041556, 0.040729, -0.000813, 
    0.029546, 0.018946, -0.025252, 0.062062, 0.057964, 0.035316, 0.028342, 0.077586, 0.080954, 0.040372, 
    0.073972, 0.052350, 0.057270, 0.035127, 0.027061, 0.031108, -0.021932, -0.042541, 0.022867, -0.006113, 
