#ifndef WEIGHTS_H
#define WEIGHTS_H

#include "gesture_typedefs.h"

// PyTorch Layer: conv1.weight (Shape: (16, 6, 3))
static const data_t conv1_w[288] = {
0.226363, 0.253341, 0.009850, 0.271709, 0.011309, 0.114680, -0.177313, 0.092205, 0.165056, -0.208181, 
    0.190872, 0.035555, 0.278091, 0.122227, 0.172604, 0.056790, 0.272350, 0.127402, -0.214313, -0.036915, 
    -0.196024, -0.081814, -0.140596, 0.132133, -0.195634, -0.116466, -0.058634, -0.232898, -0.075189, -0.340775, 
    0.307588, -0.105611, 0.278435, 0.132359, 0.004200, 0.218402, -0.036094, 0.094610, -0.090166, -0.024730, 
    0.118277, -0.003155, 0.180381, 0.292186, 0.221631, -0.125152, 0.112056, 0.015343, 0.032030, -0.237700, 
    -0.331503, -0.161926, -0.251909, 0.120308, 0.142620, 0.175204, 0.155464, 0.064842, 0.249059, -0.107740, 
    -0.049733, -0.218857, 0.030128, -0.091511, 0.082280, -0.031335, 0.236931, -0.123073, -0.156336, -0.078929, 
    0.278254, 0.141432, 0.185580, -0.209233, -0.224407, -0.163961, -0.124232, 0.144661, 0.139133, 0.255875, 
    -0.066462, -0.224041, 0.062687, -0.168809, 0.242176, 0.034061, 0.218487, -0.252072, -0.196610, -0.010802, 
    0.038951, -0.111923, 0.049646, 0.174134, -0.149286, -0.095283, 0.279315, -0.020628, -0.023900, -0.242695, 
    -0.149636, 0.045626, -0.121282, -0.268904, -0.090511, -0.280335, -0.321124, -0.252017, -0.222778, -0.149339, 
    0.247072, -0.017533, 0.013819, -0.272942, -0.195071, -0.116789, 0.006780, -0.207315, -0.099849, -0.148626, 
    0.047861, -0.037797, 0.023090, -0.248051, -0.249456, -0.229062, -0.136706, -0.231031, 0.168235, 0.001780, 
    0.256403, 0.132616, -0.117570, 0.249515, 0.019610, -0.148302, -0.257761, -0.296699, 0.132063, 0.018690, 
    0.160077, -0.219950, 0.144208, -0.205760, -0.024802, 0.088852, 0.178148, 0.256613, 0.282699, -0.116154, 
    0.089036, -0.071377, 0.011498, -0.250937, 0.146661, -0.245015, 0.243471, 0.199421, 0.177468, -0.051005, 
    0.285776, 0.119236, -0.093060, -0.336182, -0.033371, -0.033049, -0.102465, 0.199356, 0.129994, -0.055425, 
    -0.048788, -0.043903, 0.101751, -0.081548, -0.243079, -0.180396, -0.263444, 0.120106, 0.235772, -0.141784, 
    0.078808, 0.175189, 0.115563, -0.039333, 0.176345, 0.184035, 0.084161, -0.034867, -0.056214, -0.033475, 
    -0.104286, -0.132811, 0.268679, 0.316897, 0.079921, 0.001887, 0.045518, 0.028243, -0.039149, -0.030841, 
    -0.309935, -0.045740, 0.251485, 0.151095, 0.069688, -0.060094, -0.068052, -0.264121, -0.128940, 0.034918, 
    0.217431, 0.149618, -0.167657, -0.141477, -0.028076, 0.253261, 0.094283, -0.000383, 0.157602, -0.124728, 
    -0.196562, 0.118873, -0.182751, -0.122152, -0.309737, 0.235026, 0.256765, 0.164112, -0.205954, -0.292932, 
    -0.277314, 0.257215, 0.190958, 0.271293, 0.174607, 0.096470, 0.016060, -0.227551, -0.250137, -0.268019, 
    0.072085, -0.141186, -0.074546, -0.174160, -0.089748, -0.221090, -0.240357, -0.018688, -0.174042, 0.122472, 
    -0.100229, -0.202195, -0.133713, -0.189819, -0.119662, -0.172452, 0.184288, -0.105561, 0.214878, 0.206335, 
    0.271710, -0.183008, 0.170135, -0.115144, 0.202006, 0.336190, 0.075930, -0.005271, -0.083021, -0.243737, 
    0.116033, -0.249093, 0.120807, 0.237443, 0.290876, 0.016618, -0.109140, 0.136596, 0.212403, -0.303098, 
    -0.117819, -0.201948, -0.092561, -0.196840, -0.176386, -0.087176, -0.219376, 0.222456
};

// PyTorch Layer: conv1.bias (Shape: (16,))
static const data_t conv1_b[16] = {
0.304214, 0.032475, 0.020321, -0.001571, -0.166388, -0.146021, 0.120098, -0.082949, -0.062763, 0.051371, 
    0.003705, 0.003060, 0.067727, -0.024805, -0.021434, -0.041544
};

// PyTorch Layer: conv2.weight (Shape: (32, 16, 3))
static const data_t conv2_w[1536] = {
-0.055377, 0.198201, 0.017088, 0.079367, -0.041904, 0.013371, 0.195660, 0.129843, -0.052376, 0.087085, 
    0.181533, 0.098322, 0.152993, 0.197825, 0.018167, 0.082470, -0.054812, 0.018571, 0.174834, 0.138551, 
    -0.041719, -0.082629, -0.070546, -0.120562, -0.086261, 0.002049, 0.145553, 0.008889, -0.134773, -0.115072, 
    0.116063, -0.060993, 0.033463, 0.110815, -0.037974, 0.005279, 0.025389, 0.029044, 0.002850, -0.152708, 
    -0.158153, -0.113334, 0.207249, 0.003230, -0.031052, 0.061260, 0.070255, 0.116273, 0.165981, 0.141895, 
    -0.081261, 0.092043, 0.139182, 0.028006, -0.112156, 0.137419, -0.029711, -0.035558, -0.066840, 0.075110, 
    0.118713, 0.059255, 0.058922, -0.105755, -0.124963, 0.031970, 0.176319, 0.125292, -0.043867, 0.063237, 
    -0.027514, -0.002937, 0.098854, 0.157705, 0.193252, -0.230721, 0.007535, -0.166784, 0.123591, 0.193250, 
    0.067809, 0.205626, -0.057588, -0.012946, 0.104113, -0.008536, 0.002102, -0.019474, 0.140390, 0.120086, 
    0.088339, -0.072776, -0.130848, 0.045938, 0.096369, -0.004866, -0.001661, 0.138996, 0.045306, 0.013708, 
    -0.044572, -0.172744, -0.101225, -0.029937, -0.019686, 0.079051, 0.013950, 0.001548, 0.263099, 0.190289, 
    0.239441, 0.002189, 0.009482, 0.121100, 0.004781, 0.020096, 0.110753, 0.043476, -0.032962, 0.137367, 
    0.171282, 0.075902, 0.006409, -0.166357, -0.127054, -0.039936, 0.112400, 0.037561, -0.024227, 0.113355, 
    -0.075673, 0.092614, 0.005738, 0.071678, 0.037008, 0.028909, -0.017254, 0.155856, 0.129429, 0.243674, 
    0.255134, -0.058376, -0.113767, 0.104249, 0.163655, -0.059863, 0.033081, -0.150319, -0.146415, -0.007857, 
    0.103707, 0.101601, 0.035121, 0.166795, 0.064992, -0.047497, 0.021625, 0.068169, 0.078268, -0.029828, 
    0.122616, 0.000885, -0.100840, -0.055807, 0.162116, 0.178427, 0.177205, 0.123251, 0.153927, 0.025965, 
    -0.059879, 0.077683, -0.088667, -0.080256, 0.014382, 0.091513, 0.113348, -0.031322, -0.059181, 0.036225, 
    -0.123409, -0.130721, 0.045155, -0.064493, 0.092942, 0.107850, 0.104136, 0.108882, 0.083873, 0.051107, 
    0.042309, 0.057548, 0.106423, 0.186489, 0.010722, -0.069894, -0.070702, -0.123363, 0.045010, 0.127242, 
    0.141323, 0.136904, -0.035123, -0.006057, -0.062884, -0.065622, -0.042851, -0.164842, -0.009225, -0.149822, 
    -0.138393, -0.178538, 0.077045, -0.083694, 0.138048, 0.007087, 0.045696, 0.154717, 0.042658, 0.153990, 
    0.169458, -0.061970, 0.112300, 0.084555, 0.077226, 0.076081, 0.083595, -0.071013, 0.063275, 0.220383, 
    0.181012, -0.030777, -0.158255, -0.002733, -0.146760, 0.060133, -0.159979, 0.050760, 0.026838, 0.075287, 
    0.188614, 0.047527, 0.072422, 0.145079, 0.146068, -0.017735, 0.028164, 0.144917, 0.044541, 0.134094, 
    0.019276, -0.075317, 0.056134, 0.019026, 0.070265, 0.196320, 0.185960, 0.231846, 0.051176, -0.077342, 
    -0.053931, -0.126397, -0.154055, -0.074818, -0.110642, -0.161074, -0.136784, -0.121655, -0.037606, 0.117436, 
    0.125825, -0.081817, -0.084994, 0.051926, -0.089286, -0.029689, 0.131436, -0.089964, 0.043107, 0.220673, 
    0.117906, 0.130126, -0.159809, -0.078045, -0.066601, 0.071046, 0.116336, 0.207017, -0.050239, 0.039063, 
    -0.061782, -0.188977, -0.061195, -0.171533, 0.202526, 0.119028, 0.024604, 0.131000, -0.107087, -0.059406, 
    -0.041446, -0.126442, -0.077238, 0.068027, 0.199825, 0.227269, 0.144070, -0.038803, -0.054562, 0.137619, 
    0.059198, 0.017015, 0.037386, -0.144036, -0.092811, 0.257188, 0.090224, 0.129239, -0.098697, -0.091940, 
    -0.042343, -0.066363, 0.045212, 0.142808, -0.150127, 0.044878, -0.086517, -0.020974, 0.108218, 0.151732, 
    -0.018318, -0.034245, -0.096530, 0.008813, -0.044823, 0.054824, 0.095596, -0.063371, 0.200247, 0.099642, 
    -0.143066, -0.087050, 0.058921, -0.012652, 0.034298, -0.014219, 0.171925, -0.023235, 0.135208, 0.009595, 
    0.049979, 0.142326, -0.028642, -0.070547, -0.009898, 0.137733, -0.090350, 0.092675, -0.077154, 0.131859, 
    0.120512, 0.080345, 0.136318, 0.014352, 0.015110, -0.189499, 0.057814, 0.150675, 0.234093, 0.113085, 
    -0.064088, 0.148280, -0.088379, -0.082271, -0.153138, -0.083371, 0.037574, -0.030943, -0.062068, 0.087087, 
    -0.013966, 0.178606, -0.084789, -0.004634, -0.094690, 0.000553, 0.120988, 0.245049, 0.130401, 0.236820, 
    0.091742, 0.145101, 0.178711, 0.137877, -0.056914, 0.167197, 0.068861, -0.076258, -0.064899, -0.083400, 
    0.060021, -0.114206, 0.050177, 0.029525, -0.146366, 0.088899, 0.043443, 0.133963, 0.122522, -0.089629, 
    0.204235, 0.224233, 0.154144, -0.042811, -0.021103, 0.010102, 0.032460, 0.168892, 0.143870, 0.212855, 
    -0.019415, 0.084238, 0.094704, -0.129115, -0.172635, -0.142127, 0.135022, -0.088583, -0.072025, 0.151582, 
    0.148017, 0.195460, -0.097491, -0.082786, 0.109215, 0.249670, 0.202463, 0.119461, 0.087842, 0.171408, 
    -0.062428, -0.107666, 0.080759, -0.100783, 0.023466, 0.213453, 0.141932, 0.111470, 0.000290, 0.053970, 
    0.173805, -0.048886, 0.030536, 0.137399, -0.025844, 0.216903, -0.030340, 0.016234, 0.020944, -0.042082, 
    -0.105852, 0.095005, 0.091605, -0.074538, -0.029819, 0.218261, 0.130616, 0.136863, -0.028392, -0.010908, 
    0.034927, -0.028127, -0.116675, -0.023049, 0.116563, 0.091897, 0.125154, -0.027892, 0.072115, 0.092371, 
    -0.033526, -0.112009, 0.106016, 0.034054, -0.067803, 0.150033, 0.019483, 0.180087, 0.151817, -0.126350, 
    0.092473, -0.138200, -0.070844, -0.002045, -0.068080, 0.203683, 0.038890, 0.125656, -0.125835, 0.084481, 
    -0.044221, -0.082871, 0.049289, 0.103890, 0.143409, -0.057861, -0.045668, 0.087452, 0.095214, 0.122509, 
    0.111226, 0.002962, 0.131850, 0.117284, -0.028214, 0.115732, 0.082043, 0.140661, -0.065498, -0.134203, 
    -0.097985, -0.049855, 0.155336, -0.008658, 0.142235, 0.000280, 0.140012, 0.044018, -0.098760, -0.038120, 
    -0.044051, 0.122881, -0.039731, 0.046573, 0.105187, -0.012518, 0.097200, -0.144742, -0.104828, -0.123535, 
    -0.002930, -0.002288, 0.079685, 0.052008, 0.141586, 0.189956, 0.063621, -0.050077, -0.126447, 0.096874, 
    -0.009635, 0.150794, 0.132020, 0.110249, 0.213584, 0.250470, 0.133750, -0.017818, 0.175154, -0.020488, 
    -0.004732, 0.189709, 0.186117, 0.121705, 0.018450, -0.114455, -0.034852, 0.125529, 0.006775, -0.039458, 
    0.045460, 0.037727, 0.187628, 0.065435, 0.154478, 0.035848, 0.081851, 0.083298, 0.051887, 0.211039, 
    0.205296, 0.237503, 0.060078, -0.083400, -0.158105, 0.053042, 0.024495, -0.001502, 0.022383, 0.068294, 
    0.170046, 0.047519, -0.049509, -0.051994, -0.050250, -0.052086, 0.137700, 0.124832, 0.191825, 0.067808, 
    0.086558, 0.118229, -0.072092, 0.061808, -0.023424, -0.132651, -0.084337, 0.174546, 0.173372, 0.139369, 
    0.206836, 0.010218, 0.018523, 0.093680, 0.018436, -0.033570, -0.138360, 0.002115, -0.047429, 0.068515, 
    0.198872, -0.036801, -0.042787, 0.100830, -0.000039, 0.042098, 0.188256, -0.071608, -0.150674, -0.157109, 
    -0.009874, -0.039728, -0.029916, 0.137844, 0.100767, 0.031857, -0.141643, -0.097581, -0.134815, -0.007538, 
    -0.164735, -0.016532, -0.141124, -0.179666, -0.184614, 0.128075, -0.030918, -0.048019, 0.172962, 0.139836, 
    0.141045, -0.075283, -0.039352, 0.012741, 0.174926, 0.073078, -0.060671, 0.055484, -0.057262, 0.007482, 
    0.043785, 0.210309, 0.132978, -0.024031, 0.034611, -0.012928, -0.015484, -0.022164, -0.050781, 0.013254, 
    0.191815, 0.042899, -0.054605, 0.106034, 0.129746, 0.198798, 0.091061, -0.006276, 0.077537, 0.137434, 
    -0.134084, -0.040455, -0.078214, 0.069547, 0.183788, 0.095601, 0.107199, 0.129090, 0.054702, -0.038538, 
    0.216723, 0.031455, 0.083032, 0.110449, 0.080679, -0.077702, 0.073317, -0.037395, -0.054266, -0.031574, 
    -0.143614, -0.145699, -0.029111, -0.022770, -0.038827, 0.008569, 0.087682, -0.080385, -0.077418, 0.028314, 
    0.057673, 0.158216, -0.022951, 0.126808, 0.191087, 0.189571, -0.047853, -0.063462, -0.129741, -0.124286, 
    0.134677, 0.033967, 0.107789, -0.095219, -0.005862, -0.119543, 0.062611, -0.064066, -0.034573, -0.044622, 
    0.089563, 0.222096, 0.064643, -0.082981, -0.014418, -0.002317, -0.108402, 0.116013, 0.003975, 0.034309, 
    -0.053494, -0.014193, 0.069688, 0.087265, 0.090761, -0.005750, 0.188614, -0.018989, -0.064730, -0.031948, 
    0.199245, 0.055335, 0.030437, -0.024000, 0.002645, -0.100184, -0.035252, 0.166628, 0.205569, 0.166217, 
    -0.060988, 0.136198, -0.108487, 0.054879, 0.061970, 0.159416, 0.151764, 0.135326, 0.041769, 0.120648, 
    0.011237, 0.155250, 0.042651, 0.070602, -0.109155, -0.038811, -0.074367, -0.010392, -0.037484, -0.060732, 
    0.036952, 0.121421, 0.155114, 0.122450, -0.057473, -0.134449, 0.059037, 0.088774, -0.128745, 0.126553, 
    0.197134, 0.078350, -0.018839, 0.195751, 0.142000, 0.184812, -0.028582, 0.118934, -0.033647, 0.219651, 
    0.017060, 0.173770, 0.117667, 0.120057, -0.003043, 0.092464, -0.000101, -0.158193, -0.092735, 0.064834, 
    -0.003167, 0.090866, -0.020498, 0.168717, 0.141697, 0.101389, -0.022491, -0.089439, -0.019502, -0.102292, 
    0.124244, -0.118361, 0.034231, 0.124209, 0.058641, 0.118927, -0.085625, 0.182532, -0.000970, -0.123432, 
    0.159407, -0.028470, 0.050713, 0.206470, -0.064481, -0.052562, 0.079297, -0.009808, 0.034701, -0.114941, 
    0.076541, -0.034551, -0.103016, -0.090495, 0.127551, 0.085938, -0.036716, 0.147846, 0.032005, -0.017545, 
    -0.143707, -0.007417, 0.224673, 0.184655, -0.021564, 0.222674, 0.108732, 0.176008, 0.072678, 0.078211, 
    -0.158472, 0.111500, -0.112910, 0.004963, -0.091933, -0.017096, 0.019337, -0.028068, -0.039052, -0.013950, 
    0.204351, 0.148139, 0.150022, 0.045525, 0.104941, 0.010067, 0.046681, 0.055402, -0.114088, -0.047084, 
    0.089091, 0.009921, 0.016836, -0.018345, 0.028007, 0.140537, 0.000060, 0.166491, 0.115421, -0.105780, 
    -0.091337, -0.114033, -0.058562, -0.024522, 0.017089, -0.003203, -0.038725, -0.034675, -0.021391, 0.185327, 
    -0.101594, -0.139362, 0.051400, -0.029869, 0.090458, 0.064938, 0.195192, -0.050305, 0.140149, 0.161740, 
    -0.022688, 0.190601, 0.126672, 0.024356, 0.094182, -0.081725, -0.154137, 0.020467, 0.124484, -0.012362, 
    0.149587, -0.122486, 0.125736, 0.145567, 0.051723, -0.074102, 0.089289, 0.116818, 0.127544, 0.131157, 
    0.166452, -0.016763, 0.006294, 0.058783, 0.044021, 0.152828, -0.078902, -0.009034, 0.038457, 0.030208, 
    0.171469, 0.098148, -0.104224, 0.012429, -0.024345, 0.004094, -0.010500, -0.113794, -0.066645, -0.052190, 
    -0.075733, 0.133460, -0.039446, 0.073668, 0.076874, -0.081054, 0.079409, 0.168652, -0.038205, -0.033422, 
    0.231592, 0.210107, 0.013397, 0.186825, 0.055519, -0.090102, -0.004110, 0.049959, -0.020789, 0.134740, 
    -0.036742, 0.184306, 0.120742, 0.035114, -0.049425, -0.000005, -0.161391, -0.096694, -0.006180, -0.102908, 
    -0.145516, 0.160061, 0.155244, -0.085531, 0.133449, 0.148161, 0.224150, 0.144640, 0.211510, 0.039147, 
    0.191123, 0.209830, -0.040002, -0.031717, 0.107115, 0.146521, -0.000140, 0.091982, 0.079847, -0.044283, 
    -0.146643, 0.052356, 0.129736, -0.112116, -0.045319, 0.065023, 0.118525, 0.208882, 0.118577, 0.054510, 
    0.220556, 0.033639, 0.031625, 0.047337, -0.121009, 0.017349, -0.067607, 0.071438, 0.090711, 0.108005, 
    -0.070153, -0.089019, 0.091531, 0.159540, -0.115965, 0.073115, -0.074817, 0.045361, 0.158433, 0.181115, 
    -0.035825, 0.148790, 0.165820, 0.097160, 0.233001, -0.029153, -0.077616, -0.101390, 0.112231, 0.138658, 
    0.110373, -0.019626, -0.000428, 0.109002, -0.108571, 0.001824, 0.044707, -0.096832, 0.005174, -0.025862, 
    0.166899, 0.050563, -0.063764, 0.146377, 0.063917, 0.013718, -0.146919, 0.007007, -0.163107, -0.018689, 
    0.036224, -0.197457, -0.050846, -0.052754, 0.194544, 0.102443, -0.013071, 0.111922, 0.018335, -0.067645, 
    0.123366, 0.123601, 0.209608, 0.080615, 0.179429, 0.159041, 0.177893, -0.107972, 0.145491, -0.097033, 
    0.077102, -0.040341, -0.170167, 0.040720, -0.041514, -0.123600, -0.054144, 0.025387, 0.119629, -0.062461, 
    0.063692, 0.014518, 0.034000, 0.065143, -0.128379, -0.118988, -0.047222, -0.129942, -0.015414, 0.071820, 
    -0.024388, -0.045804, -0.022112, 0.008307, -0.010468, 0.068172, 0.028783, 0.091952, 0.049082, -0.023283, 
    0.031615, 0.071407, -0.041674, 0.060759, 0.035516, 0.086264, 0.009028, 0.073362, -0.051396, -0.095572, 
    0.045754, -0.175114, -0.029180, -0.071020, -0.093650, -0.015927, 0.157679, 0.102596, 0.082932, 0.179746, 
    -0.092345, 0.142156, 0.211665, 0.211420, -0.073075, 0.070443, -0.071826, 0.090413, 0.058378, -0.040643, 
    -0.134693, -0.068831, 0.097134, 0.053196, -0.154376, -0.105028, 0.047666, -0.097202, 0.118044, 0.212778, 
    0.104448, -0.037105, 0.094265, 0.115953, 0.179107, -0.019354, -0.085092, 0.081227, 0.060764, 0.009050, 
    0.010615, -0.071465, 0.131875, 0.010294, 0.183239, 0.210591, 0.085820, 0.099358, 0.054643, 0.169054, 
    -0.084650, 0.109174, 0.020586, 0.130854, 0.066162, 0.007210, 0.050672, 0.143993, -0.038595, -0.080001, 
    -0.071707, -0.068268, 0.124253, 0.170962, 0.058588, 0.181519, -0.022681, -0.043826, -0.029514, -0.091943, 
    -0.092582, -0.154137, -0.152883, 0.021556, 0.186424, 0.233081, 0.206165, 0.027977, 0.062419, -0.042307, 
    0.004972, -0.177805, 0.027973, 0.070694, 0.091328, 0.101239, -0.130234, 0.070257, 0.030065, 0.079020, 
    0.009550, 0.087832, 0.166470, 0.132752, 0.177981, -0.024349, 0.102998, 0.060022, 0.139535, 0.196052, 
    0.090151, -0.009998, 0.030914, 0.084561, 0.013650, -0.038316, 0.099548, 0.067101, -0.111950, -0.027929, 
    -0.011976, -0.076646, 0.025624, -0.031754, -0.046640, -0.017028, -0.004680, 0.183799, 0.100783, 0.225691, 
    0.123206, 0.116973, 0.072218, 0.040119, -0.103778, -0.125385, -0.064972, -0.011013, 0.083270, 0.085011, 
    0.141983, 0.060674, -0.033348, -0.126047, -0.131204, -0.098131, 0.053552, 0.133227, 0.186652, 0.023541, 
    0.020653, -0.018076, 0.011399, 0.050335, -0.001360, 0.021246, 0.054301, 0.086835, -0.014598, -0.032008, 
    0.076943, 0.008341, -0.011273, 0.110004, 0.040662, -0.011659, -0.052553, 0.007593, -0.075654, 0.079155, 
    0.037132, 0.127268, 0.030951, 0.012529, 0.104989, 0.174905, -0.001952, 0.123060, 0.078517, -0.045493, 
    0.075034, -0.085640, -0.065529, -0.037889, -0.067197, 0.147134, -0.112088, 0.078537, -0.139939, 0.012428, 
    0.040247, 0.138956, -0.066834, 0.039691, 0.009344, 0.140627, 0.063193, 0.102504, -0.023097, -0.042037, 
    0.170794, -0.054359, 0.027756, 0.033124, 0.178832, 0.003135, -0.073291, 0.013768, 0.105270, 0.082770, 
    0.153177, -0.023585, 0.043831, -0.159741, 0.049043, 0.074326, 0.109540, -0.085571, -0.074485, 0.079374, 
    -0.070806, -0.081675, -0.077596, 0.067839, 0.144172, 0.123799, 0.096501, 0.139912, -0.062295, 0.026355, 
    -0.039405, -0.051065, 0.140446, -0.108685, 0.000495, -0.137469, 0.002323, -0.019563, 0.129631, 0.017441, 
    0.155329, -0.064800, 0.130786, -0.181351, -0.000597, -0.136820, 0.015093, -0.003593, 0.137045, 0.073326, 
    -0.129316, -0.007785, -0.077755, 0.128476, 0.051159, -0.049778, -0.084878, 0.063262, -0.121047, 0.051803, 
    0.081607, 0.181446, 0.129060, -0.051415, 0.065599, -0.078122, -0.053968, 0.058488, 0.179538, 0.189754, 
    -0.013895, 0.033786, -0.176610, -0.003756, -0.151951, 0.011683, -0.048070, 0.021088, 0.192011, 0.171889, 
    -0.068165, -0.082247, 0.084526, 0.115092, 0.002836, -0.121763, -0.173256, -0.010221, 0.205343, -0.006336, 
    0.132626, 0.132344, 0.175523, 0.012212, -0.016788, 0.071790, 0.056556, 0.159228, -0.027681, 0.092524, 
    0.098929, -0.110800, 0.012659, -0.013885, 0.073721, -0.098321, 0.052429, 0.095783, -0.181510, -0.075004, 
    -0.034304, 0.146170, 0.141160, -0.088991, -0.001898, -0.081411, -0.118485, 0.058932, 0.130181, 0.035944, 
    0.101596, -0.050443, -0.038195, -0.103132, -0.061624, 0.110725, 0.019842, 0.102884, -0.026469, 0.085657, 
    0.188233, 0.172443, 0.122759, 0.208495, 0.051897, 0.051212, 0.188080, 0.197572, 0.001201, 0.193954, 
    0.112359, 0.030450, 0.114457, -0.102786, 0.063617, 0.140461, -0.101210, -0.077441, -0.156919, -0.032131, 
    -0.125682, -0.008861, 0.086280, 0.137440, 0.153177, 0.151255, 0.124329, -0.102456, -0.122845, 0.018046, 
    0.210745, 0.080596, 0.064320, -0.044647, -0.029060, -0.088874, 0.124614, -0.025862, -0.140346, -0.067629, 
    -0.058293, -0.072804, 0.114959, 0.135699, -0.091136, -0.067677, 0.042405, -0.078573, -0.157850, 0.100518, 
    -0.049818, -0.135167, -0.088543, -0.121147, 0.155332, -0.007738, -0.084149, -0.101625, 0.098438, -0.010203, 
    0.018053, 0.020807, -0.003874, 0.108258, 0.184963, -0.040459, 0.018318, -0.101307, -0.065893, 0.162911, 
    0.053658, 0.200515, -0.035451, -0.081379, -0.092196, 0.206413, -0.031397, 0.150930, 0.024373, 0.040464, 
    0.086978, -0.027407, 0.118969, -0.079676, 0.008873, 0.169705, 0.105885, -0.052339, -0.080478, -0.130023, 
    0.102990, 0.038109, 0.042471, 0.097526, 0.167205, -0.019409
};

// PyTorch Layer: conv2.bias (Shape: (32,))
static const data_t conv2_b[32] = {
0.034677, 0.117036, 0.145425, -0.059647, -0.080354, 0.060810, 0.156815, 0.047637, 0.175048, -0.102113, 
    0.118335, -0.057926, 0.068640, 0.166457, 0.078356, 0.129152, -0.083927, -0.085762, -0.125158, 0.118653, 
    0.125370, -0.072744, 0.095642, 0.206049, -0.102490, 0.093244, 0.055538, 0.019005, 0.200422, 0.191427, 
    0.130486, 0.145685
};

// PyTorch Layer: fc1.weight (Shape: (32, 480))
static const data_t fc1_w[15360] = {
0.018989, 0.007437, -0.040121, 0.008525, -0.032473, 0.014052, 0.008053, 0.001025, -0.031208, -0.027669, 
    0.033737, 0.022229, 0.024065, -0.013601, -0.007860, -0.011697, 0.031389, -0.019704, 0.028749, 0.031471, 
    -0.041744, 0.000279, -0.008693, -0.025233, 0.019705, -0.005545, 0.039961, -0.028568, 0.021207, -0.038970, 
    -0.022878, 0.003113, 0.036063, 0.024041, -0.037477, 0.005056, -0.026906, 0.001978, -0.038024, -0.013391, 
    0.031305, -0.041880, -0.043518, 0.008314, 0.006257, -0.008348, 0.039856, -0.027481, -0.027709, -0.034117, 
    -0.008495, -0.011648, 0.028242, -0.002563, 0.014576, -0.018967, 0.037026, 0.038478, -0.040877, -0.011730, 
    -0.038728, 0.019391, -0.039878, -0.021581, 0.045606, -0.043586, 0.033676, 0.003856, 0.036498, -0.023164, 
    0.029980, 0.005507, 0.003511, 0.031153, -0.043385, -0.036764, 0.044081, -0.027409, -0.032900, -0.002232, 
    -0.014611, -0.006245, -0.030581, 0.016469, -0.039275, 0.003697, 0.026635, 0.008770, 0.006065, 0.006676, 
    -0.013371, -0.008695, -0.019248, -0.030834, -0.024166, 0.045121, -0.007639, 0.015989, 0.031565, -0.003566, 
    -0.024555, -0.030925, -0.016815, 0.016292, -0.038439, -0.005573, 0.017362, 0.037239, 0.013736, 0.009027, 
    0.031247, 0.021091, 0.015442, -0.014152, -0.036602, -0.009859, -0.008278, 0.003352, -0.005020, 0.018453, 
    0.030332, -0.018505, -0.043309, -0.023418, -0.021839, 0.025873, -0.029442, -0.004293, -0.009674, -0.027703, 
    0.020690, -0.019013, -0.002361, -0.032091, -0.004604, 0.006485, -0.001857, -0.017055, 0.013560, -0.011826, 
    -0.025305, -0.033659, -0.009669, -0.043118, 0.037885, -0.021805, -0.018916, 0.004219, 0.011832, -0.004304, 
    0.031313, -0.026608, 0.016358, -0.000103, -0.037130, -0.017678, 0.011616, 0.008720, 0.033189, 0.030535, 
    -0.024895, -0.019491, -0.009678, -0.032700, -0.012323, -0.037351, 0.017360, 0.032296, 0.003614, -0.032675, 
    -0.034566, -0.017769, 0.013276, 0.001113, 0.008299, 0.043018, 0.021199, 0.009814, -0.009235, 0.021592, 
    0.016698, -0.041084, -0.026962, 0.001532, 0.017319, 0.022206, -0.027171, -0.045284, -0.002378, -0.005218, 
    0.013245, -0.012552, 0.034896, 0.003046, 0.033331, -0.031782, 0.018259, 0.005439, -0.022829, 0.022628, 
    -0.044914, 0.036901, 0.003678, 0.004407, 0.021108, 0.003789, 0.019565, 0.029039, -0.035623, 0.030196, 
    -0.006835, -0.010614, 0.009187, 0.035700, -0.024813, -0.030761, 0.028327, -0.021437, 0.014695, -0.006724, 
    0.012564, 0.034831, -0.023132, -0.022149, 0.022394, 0.002499, -0.005023, -0.040093, 0.038672, -0.001729, 
    -0.008407, -0.018736, -0.009007, 0.022184, -0.001049, 0.039035, -0.002635, -0.006548, 0.025764, -0.001181, 
    -0.009110, 0.015255, 0.035996, 0.011390, 0.031782, 0.029579, 0.012908, 0.015870, 0.014728, 0.004734, 
    0.038831, 0.042135, 0.016249, -0.002279, 0.040924, -0.035525, 0.033538, 0.024183, 0.029309, -0.003507, 
    -0.034055, 0.032559, -0.019958, 0.012009, 0.025859, -0.042655, 0.003029, -0.016214, 0.032396, -0.029061, 
    0.027713, 0.028462, 0.025182, 0.043818, 0.006913, -0.041370, 0.032583, 0.004179, 0.000906, -0.043480, 
    -0.010259, -0.022154, 0.044704, 0.032500, 0.034050, 0.031258, -0.028293, -0.019603, -0.017863, -0.018298, 
    0.035530, 0.015508, 0.036577, -0.002135, -0.040688, -0.013242, 0.032078, 0.027788, 0.014130, -0.013389, 
    -0.042602, -0.024525, 0.023798, -0.018411, 0.021833, 0.012463, -0.017531, 0.027800, -0.014667, -0.001516, 
    -0.017386, -0.043296, 0.007359, 0.013190, -0.022981, 0.028000, -0.040945, -0.043999, -0.028192, -0.015775, 
    -0.005069, -0.008821, 0.020831, -0.040058, 0.006721, 0.000790, 0.012056, 0.045373, 0.028091, -0.025273, 
    -0.037403, -0.011050, -0.022896, 0.015944, 0.000418, 0.036712, 0.017929, -0.008392, 0.001569, 0.010931, 
    -0.005664, 0.036831, -0.035689, 0.022247, -0.029095, -0.039987, -0.009370, 0.022242, 0.032250, 0.011454, 
    -0.003945, -0.002559, -0.018503, -0.004096, -0.003154, 0.038841, 0.026713, -0.036525, 0.000189, -0.028074, 
    -0.007245, -0.036276, 0.011866, -0.032913, 0.045060, 0.034470, -0.031419, -0.042972, 0.001781, -0.012741, 
    0.013399, -0.030897, 0.018684, -0.039425, -0.024089, -0.023995, 0.022087, -0.001195, -0.043865, -0.026068, 
    -0.021123, -0.042349, 0.005845, 0.016265, -0.008375, -0.018164, -0.000277, -0.036254, -0.027792, -0.001041, 
    0.040549, -0.014036, 0.022624, -0.017963, -0.012150, -0.043450, 0.037815, 0.044444, -0.000959, 0.029001, 
    0.037334, 0.022672, 0.023507, -0.043452, -0.042890, -0.035033, 0.014277, -0.039481, -0.034842, -0.022124, 
    -0.042069, 0.000062, 0.006585, -0.026711, 0.029886, -0.017328, -0.012850, 0.034775, 0.039187, -0.005236, 
    -0.032767, -0.022898, 0.005812, 0.026756, 0.022723, -0.020155, -0.043150, -0.039945, -0.014522, 0.000573, 
    -0.020502, -0.036091, 0.004810, -0.036229, -0.035051, -0.037106, -0.012368, 0.040315, 0.017843, -0.005412, 
    0.009394, 0.018176, 0.000266, -0.036815, -0.028122, -0.031008, -0.001159, -0.041782, -0.008299, -0.016691, 
    0.044793, 0.037100, 0.026512, 0.002560, -0.014778, 0.011642, -0.031536, -0.019467, -0.009169, -0.010724, 
    -0.043238, 0.018145, 0.037587, -0.025176, 0.012304, -0.005293, -0.001665, 0.002661, 0.039554, 0.006116, 
    -0.028878, -0.016419, 0.022298, 0.014243, 0.000887, -0.006024, -0.017759, -0.016200, -0.024076, 0.007479, 
    0.012819, 0.034951, -0.010311, 0.003268, 0.029499, 0.019855, 0.005865, 0.014025, -0.003609, -0.039153, 
    0.001760, -0.009977, 0.035203, 0.041199, 0.003055, 0.034796, -0.023507, 0.033672, 0.033296, -0.007746, 
    -0.042593, -0.020731, -0.018209, -0.005248, -0.047382, 0.002468, -0.024984, -0.017689, -0.029575, -0.015640, 
    -0.048391, -0.024199, 0.004205, 0.023914, 0.035483, -0.034527, 0.019167, -0.031729, -0.041277, -0.007991, 
    -0.026183, -0.039310, -0.048649, -0.030551, 0.031519, 0.019454, -0.018068, -0.030550, -0.035111, -0.026953, 
    -0.018782, 0.027413, 0.014937, -0.017590, 0.031422, -0.028355, -0.037185, 0.009962, -0.025168, 0.012985, 
    0.038671, -0.021585, -0.031851, 0.017180, -0.041223, 0.040722, -0.021555, 0.022067, -0.036294, -0.030895, 
    0.005028, 0.016222, 0.035392, 0.038173, -0.002625, -0.011856, 0.001576, -0.010603, 0.001554, -0.043227, 
    -0.037469, 0.031278, -0.026672, 0.035944, 0.005009, 0.011118, 0.041484, -0.025386, -0.007205, 0.008087, 
    0.015594, -0.044421, 0.016223, -0.026917, 0.005995, 0.030880, -0.004547, -0.001444, -0.003410, 0.038089, 
    0.025941, 0.007676, -0.027469, -0.024786, 0.036358, 0.032837, 0.026428, -0.041591, 0.029555, -0.010338, 
    0.033628, 0.033641, -0.000995, -0.024886, 0.042935, -0.023786, 0.023822, -0.049160, -0.020311, -0.045526, 
    -0.026473, 0.013377, -0.038709, -0.045476, 0.026633, 0.018361, -0.006503, -0.038180, -0.018096, -0.020781, 
    0.022185, -0.020934, -0.019150, -0.038358, -0.027501, 0.024714, 0.023406, 0.000630, -0.023126, 0.037839, 
    0.003007, -0.023608, -0.021818, -0.012388, 0.015638, 0.010694, 0.027095, -0.008060, 0.031749, -0.024542, 
    -0.027018, -0.022859, -0.048827, -0.035962, -0.047303, -0.008700, -0.005573, -0.017848, -0.037193, 0.035411, 
    -0.021127, 0.015748, 0.025785, -0.036002, -0.011702, 0.026380, 0.038250, -0.011762, 0.033074, -0.035824, 
    -0.029656, 0.031533, -0.004322, 0.045092, 0.003319, -0.024918, 0.037346, 0.034190, 0.004236, -0.027669, 
    -0.007980, -0.027955, 0.027255, -0.003890, 0.003606, 0.021678, 0.009115, -0.034498, 0.031914, 0.022037, 
    -0.034181, 0.028507, 0.006945, -0.014989, -0.038647, -0.007573, -0.044751, 0.026052, 0.033057, -0.013141, 
    0.042314, -0.016901, 0.007816, -0.031809, -0.001930, 0.018450, 0.019660, -0.001531, -0.023016, 0.031904, 
    0.030219, 0.007325, -0.020990, 0.003677, -0.005872, 0.041700, 0.006764, -0.002480, -0.002877, 0.018324, 
    -0.000564, 0.039123, 0.017781, -0.040484, -0.006001, -0.044742, -0.041033, 0.002885, 0.010257, -0.009965, 
    0.043382, -0.030517, -0.025103, -0.013247, 0.000277, -0.003866, 0.035101, -0.019277, -0.023875, -0.002076, 
    0.028286, 0.004832, 0.018586, 0.002834, 0.032906, 0.021414, 0.026658, -0.012151, -0.043778, -0.027649, 
    0.009546, 0.026017, -0.023830, 0.031767, 0.000557, 0.000181, 0.001779, -0.008064, 0.042731, 0.001983, 
    0.027957, -0.038524, -0.023517, 0.005132, 0.036446, 0.021730, 0.008693, -0.045095, 0.000858, -0.030129, 
    -0.044974, 0.000252, -0.028879, 0.041428, -0.024809, 0.009979, 0.026791, -0.035476, 0.023359, -0.006111, 
    0.023651, 0.044171, -0.025404, -0.019768, 0.030286, -0.000925, -0.004552, 0.028629, -0.022052, -0.002254, 
    0.031351, 0.011839, -0.029523, 0.005874, -0.040784, -0.030784, 0.023351, -0.012165, -0.029235, 0.003235, 
    0.005153, -0.034370, -0.036731, -0.050205, 0.005805, -0.035445, 0.003478, -0.016210, -0.035831, -0.014565, 
    -0.041036, -0.030151, -0.007424, -0.039021, -0.046031, 0.028196, 0.004295, -0.020186, -0.001518, 0.033848, 
    -0.038079, -0.024199, -0.033007, -0.003318, -0.001571, -0.035570, 0.031680, -0.035051, 0.042614, -0.031420, 
    -0.012244, 0.002543, -0.026288, 0.035975, -0.037469, -0.008526, -0.039516, 0.006669, 0.032914, 0.036337, 
    -0.000581, -0.028853, 0.038357, -0.002595, 0.024879, -0.029707, -0.027173, -0.043891, 0.036010, 0.001591, 
    -0.038775, -0.002080, -0.025567, -0.003709, 0.009158, -0.028650, 0.001965, -0.034801, 0.002804, -0.050070, 
    0.007273, 0.045348, 0.042043, 0.010669, 0.033586, 0.044377, 0.012934, 0.009229, 0.005935, 0.040410, 
    0.039210, -0.021464, -0.007866, -0.022997, 0.016378, -0.050231, 0.010148, -0.018530, 0.010549, 0.008243, 
    -0.028716, 0.017677, 0.013379, -0.044802, 0.039538, 0.033284, 0.022395, -0.010636, 0.010167, -0.030697, 
    -0.021501, 0.021542, 0.020319, 0.018074, -0.043532, 0.037824, -0.019065, 0.039501, 0.037608, 0.016918, 
    0.045474, 0.026209, 0.026769, -0.015499, 0.036394, 0.005980, 0.020980, -0.010320, 0.033056, 0.040490, 
    -0.040961, 0.037419, -0.030165, -0.037101, -0.038144, 0.007195, -0.034270, -0.023088, -0.028863, 0.006203, 
    -0.050810, -0.026925, -0.005670, -0.001896, -0.026613, 0.010356, -0.036117, -0.044655, -0.012490, -0.030677, 
    0.022770, -0.037202, -0.009832, 0.012958, -0.045971, 0.029330, -0.026742, -0.018419, -0.033922, -0.023010, 
    -0.023602, -0.046615, 0.009594, -0.006146, 0.038647, 0.024792, 0.033704, 0.007430, 0.017983, 0.036738, 
    0.031476, -0.035072, -0.010235, -0.050020, -0.004168, -0.016121, 0.039615, 0.001216, -0.005396, -0.033016, 
    -0.035818, 0.007185, -0.028678, -0.020962, 0.032016, -0.029782, -0.020316, 0.029055, 0.011865, -0.025935, 
    0.013823, 0.017012, -0.046488, 0.008527, 0.010428, -0.007773, 0.043763, -0.030169, 0.024744, -0.030241, 
    -0.037537, 0.042500, -0.038314, -0.017552, -0.004934, -0.064930, -0.080450, -0.038870, -0.024049, 0.005290, 
    -0.006132, 0.005909, 0.074959, 0.010494, 0.058207, 0.022174, 0.017333, 0.039795, -0.016986, 0.060075, 
    0.059138, 0.077715, 0.053353, 0.023712, 0.016680, -0.051140, -0.032803, 0.031911, 0.008851, -0.028130, 
    0.075781, 0.030694, -0.015817, 0.052736, 0.065587, 0.036871, 0.086092, -0.035569, -0.034874, -0.003863, 
    0.017687, 0.078368, 0.076888, 0.075195, 0.065844, 0.060058, 0.056948, 0.027201, -0.029115, -0.026302, 
    -0.039705, -0.026084, 0.004031, 0.068500, 0.001201, -0.034354, 0.039247, 0.065137, 0.014549, 0.014571, 
    0.019769, 0.008644, 0.008264, 0.008978, 0.072706, 0.077687, 0.071904, 0.005275, -0.039687, 0.017509, 
    0.017850, 0.055859, 0.011424, -0.006598, -0.028783, -0.005394, 0.008689, 0.022719, -0.049810, -0.042771, 
    -0.029785, 0.001238, 0.043214, 0.080435, 0.040794, 0.103465, 0.038196, -0.005061, 0.035498, 0.031658, 
    0.072548, 0.010934, -0.030608, -0.087085, -0.096371, -0.068700, -0.023148, 0.059401, 0.031916, 0.055070, 
    0.042763, 0.061701, -0.062300, -0.031222, 0.019890, 0.010068, -0.011829, -0.018907, 0.000206, 0.074105, 
    -0.006524, 0.051471, 0.031280, 0.014969, -0.033940, 0.006815, 0.056021, 0.070376, 0.032251, -0.042775, 
    0.049651, 0.057821, -0.014084, 0.030771, -0.035528, -0.054818, -0.043819, -0.058150, -0.045310, -0.024139, 
    0.008326, 0.010918, -0.053183, -0.080618, -0.031173, 0.025683, 0.016812, 0.026243, 0.040364, -0.048136, 
    -0.026940, -0.062351, -0.076329, -0.004838, 0.014663, 0.007333, 0.082596, 0.085828, 0.082885, 0.062650, 
    0.033723, 0.062435, -0.041226, -0.010437, -0.017218, -0.062563, -0.046552, -0.075548, -0.067123, -0.004305, 
    0.030514, 0.023244, 0.028911, -0.024904, -0.002547, 0.098549, 0.025486, 0.048744, 0.039915, 0.011625, 
    -0.009002, -0.072320, -0.012521, -0.037350, 0.007806, 0.078438, 0.045026, 0.017975, 0.006127, 0.062926, 
    0.019402, 0.072841, 0.045164, -0.008275, 0.053257, 0.091944, 0.044006, 0.011797, -0.057556, -0.062628, 
    0.032182, 0.020300, 0.055727, 0.019375, 0.040705, 0.019773, -0.017653, -0.003491, 0.073320, 0.063239, 
    0.082099, 0.032781, 0.056835, -0.028077, -0.009307, 0.036709, 0.012630, 0.009258, 0.015577, 0.014532, 
    -0.022133, 0.026802, -0.013150, 0.066991, 0.071881, 0.063301, 0.041565, -0.041955, 0.028789, 0.027602, 
    0.023708, 0.035453, 0.084545, 0.097917, 0.047544, 0.007986, -0.008046, 0.044247, 0.042255, 0.076778, 
    0.026043, 0.065855, 0.008038, -0.015618, 0.043262, -0.008157, 0.064310, 0.037067, -0.017381, 0.023062, 
    0.025253, 0.063346, 0.038106, -0.001989, 0.032116, 0.048561, -0.012805, -0.052352, -0.003329, -0.003909, 
    -0.006427, 0.009073, 0.025991, 0.008416, 0.037596, 0.086068, 0.063903, 0.063653, 0.036027, -0.010563, 
    0.022509, 0.101348, 0.095540, 0.065012, -0.004564, 0.094826, 0.024530, 0.076155, 0.066827, 0.074935, 
    0.010469, 0.031434, 0.016380, 0.007613, -0.045734, 0.012169, -0.029709, -0.048671, -0.008722, 0.017588, 
    -0.004132, 0.030808, -0.002542, 0.000906, -0.027886, 0.050085, 0.020640, -0.048405, -0.031032, -0.032959, 
    -0.014536, -0.014950, 0.044786, -0.006567, 0.017591, 0.029032, 0.035982, 0.037793, 0.003834, 0.035672, 
    0.055065, -0.003223, 0.009864, -0.007746, 0.043751, 0.009535, 0.022600, -0.018127, -0.070402, -0.060196, 
    -0.082774, -0.058549, -0.013208, -0.058229, -0.014694, -0.035240, 0.025634, -0.020760, 0.024033, 0.057895, 
    0.016083, 0.083329, -0.008402, 0.036683, -0.046609, -0.010329, 0.049489, 0.013142, -0.014268, 0.004136, 
    -0.035555, -0.033075, -0.080679, -0.002363, -0.060397, -0.038167, 0.051275, 0.046289, 0.111437, 0.079152, 
    0.102091, 0.036388, 0.085953, 0.072090, 0.085690, 0.009390, 0.079339, 0.047212, 0.018121, -0.049131, 
    -0.022872, -0.071409, -0.011814, -0.052453, -0.029396, -0.026778, -0.014268, -0.066561, -0.099138, -0.030096, 
    -0.023055, 0.046325, -0.009796, 0.032069, 0.045756, -0.009536, 0.042761, -0.015525, -0.067927, -0.019187, 
    0.009989, 0.102021, 0.034378, 0.093663, 0.074933, 0.059157, 0.057546, 0.024447, 0.073668, 0.081394, 
    0.036313, 0.052041, 0.086998, 0.084158, 0.071015, 0.076722, 0.033676, 0.056676, 0.047204, 0.088928, 
    0.022374, -0.038599, -0.005441, -0.003788, 0.006794, 0.112949, 0.053901, 0.059541, 0.011684, 0.011043, 
    0.025562, 0.055587, 0.026052, 0.069702, 0.070727, 0.052722, 0.015437, 0.033127, 0.018057, 0.048282, 
    0.058391, 0.095258, 0.112605, 0.073205, 0.024232, 0.023401, 0.067700, 0.057535, 0.080963, 0.030492, 
    0.007472, 0.055285, -0.033931, 0.013997, -0.000148, -0.075182, -0.095175, -0.053533, -0.014114, -0.038451, 
    0.061631, 0.012671, -0.003410, -0.035288, 0.046867, 0.019540, 0.027953, 0.044524, -0.061158, -0.013941, 
    -0.058262, -0.020784, -0.032253, -0.017813, -0.013147, 0.072243, 0.026514, 0.051769, -0.003067, 0.010756, 
    0.007029, 0.039425, -0.022848, 0.007767, 0.021871, 0.063655, 0.054999, 0.002373, -0.076304, -0.080062, 
    -0.039972, -0.010202, -0.041426, -0.042994, -0.062875, 0.066464, 0.060328, 0.012024, 0.003825, -0.036744, 
    -0.012526, -0.064860, -0.039257, -0.006435, -0.012512, 0.028625, 0.042569, 0.047913, 0.058348, -0.005140, 
    0.024955, -0.000967, -0.026088, -0.020700, 0.005614, 0.007377, -0.007479, -0.028729, 0.017013, 0.006772, 
    -0.044372, -0.008066, -0.012384, -0.025481, -0.031324, -0.043034, 0.038949, -0.047697, 0.036424, -0.041886, 
    -0.017078, -0.018699, -0.030435, 0.010225, 0.020449, -0.035989, -0.027264, 0.017292, -0.011522, 0.005111, 
    0.017860, -0.022877, -0.031336, 0.010796, -0.016714, -0.030382, -0.023023, -0.027228, 0.039443, 0.002773, 
    0.013652, 0.000126, -0.036771, 0.032938, -0.007095, -0.017824, 0.037198, -0.029256, 0.003263, -0.044833, 
    0.017390, 0.018130, -0.043537, 0.019471, -0.000982, -0.029574, 0.038917, 0.019603, 0.010036, -0.016953, 
    -0.025027, -0.030565, 0.011143, 0.006290, -0.033323, 0.035528, 0.020613, -0.017427, 0.023615, -0.019348, 
    0.014324, 0.031986, -0.046378, -0.028700, -0.008585, 0.006807, -0.037536, -0.036034, -0.010377, -0.012586, 
    0.003840, -0.000206, 0.003358, -0.002979, -0.000759, -0.002634, 0.010386, 0.025146, -0.028784, -0.029651, 
    0.020034, -0.033006, 0.029662, 0.021086, 0.006602, -0.025819, -0.004624, -0.036088, -0.041065, 0.042983, 
    -0.040939, -0.037873, -0.017730, 0.002563, 0.004450, -0.028498, -0.010435, -0.016198, 0.032186, 0.033612, 
    0.012756, -0.006286, 0.028224, -0.042857, 0.013066, -0.032536, 0.029591, -0.046353, 0.010954, -0.043532, 
    0.020634, 0.002341, 0.033159, -0.040430, 0.023371, -0.036466, -0.030643, 0.011356, -0.013684, -0.036037, 
    -0.044844, -0.017856, 0.006632, 0.034086, 0.027564, 0.000748, -0.027997, -0.040694, 0.040778, -0.025448, 
    -0.008027, -0.042827, -0.037554, 0.008856, -0.011284, 0.005227, -0.000349, 0.002325, -0.009044, -0.001765, 
    0.013834, 0.033343, 0.038579, -0.037239, -0.044588, -0.012827, -0.009487, 0.019187, 0.036964, 0.005718, 
    -0.038424, -0.011171, 0.023514, 0.010836, -0.038284, 0.002664, -0.044072, -0.018392, 0.031923, -0.019799, 
    0.027868, -0.037230, 0.040354, 0.021772, 0.029577, 0.012465, 0.003234, -0.022479, -0.025186, -0.031344, 
    0.031716, -0.021847, -0.004893, -0.048915, 0.006245, -0.021564, -0.042512, -0.000356, -0.048053, -0.010502, 
    -0.043280, 0.022851, -0.042254, 0.001449, 0.016595, -0.042475, 0.023543, 0.031167, -0.033985, -0.002183, 
    0.013841, 0.037802, 0.029655, -0.044292, -0.043208, -0.046364, -0.026305, -0.015219, -0.022382, 0.024071, 
    -0.031456, -0.036429, -0.035680, -0.026941, 0.044706, 0.005764, -0.013996, -0.019419, -0.040965, -0.021491, 
    0.018041, 0.024843, 0.026917, -0.002756, -0.030890, -0.032952, 0.038353, -0.047203, 0.004800, -0.010315, 
    0.036373, 0.020731, -0.017537, -0.043879, -0.000010, -0.037930, -0.010819, 0.005423, 0.016284, -0.018350, 
    -0.036816, -0.044879, -0.043233, 0.005725, -0.027780, 0.001655, -0.021624, -0.030888, 0.030777, 0.019826, 
    0.026044, 0.037780, -0.033025, -0.024297, -0.034362, 0.030649, 0.026893, 0.037000, -0.031937, -0.030483, 
    0.038492, -0.042250, -0.036404, 0.016804, -0.039899, -0.012905, 0.019394, 0.037393, -0.005179, -0.040392, 
    0.025838, 0.045504, -0.033885, -0.008022, -0.039023, -0.029312, 0.009355, 0.015319, 0.018874, -0.042991, 
    -0.011065, 0.019453, -0.010241, -0.020116, -0.029582, 0.037273, -0.042541, -0.041959, 0.027256, -0.033729, 
    0.021576, -0.031166, -0.012180, -0.028059, 0.031706, 0.031643, -0.003812, -0.004911, -0.023231, -0.030403, 
    -0.023270, 0.008941, -0.014215, 0.024976, 0.000566, -0.005502, -0.034369, 0.012408, -0.048226, 0.004659, 
    0.010372, 0.002255, 0.026117, 0.004949, -0.018611, -0.037945, -0.048367, 0.017030, 0.018840, -0.034816, 
    0.012220, -0.016784, 0.038443, -0.015733, 0.031777, 0.026279, 0.019240, 0.031193, 0.014235, 0.015472, 
    -0.038804, -0.010420, -0.005174, 0.022147, -0.017687, 0.020914, 0.030991, 0.019680, 0.023492, -0.006084, 
    0.021864, -0.015652, 0.039539, -0.001171, -0.002662, -0.046187, 0.042215, -0.006386, 0.033996, -0.029860, 
    -0.038187, -0.013310, -0.042502, 0.002766, -0.005390, -0.016738, 0.028579, 0.029571, -0.040301, -0.042571, 
    0.026703, -0.033727, 0.002802, -0.018161, 0.002157, -0.025188, 0.000146, -0.022164, -0.026567, -0.028446, 
    0.004190, 0.023530, -0.007124, -0.006450, 0.037659, 0.030788, -0.012631, -0.043381, 0.004706, 0.007623, 
    -0.042123, -0.046951, -0.001218, 0.038565, -0.046831, -0.028370, -0.021746, -0.046323, -0.034109, 0.029822, 
    0.028904, -0.039585, -0.005027, -0.043180, 0.012953, -0.031175, -0.023261, -0.021156, 0.000723, 0.024495, 
    -0.025108, 0.002414, 0.030337, -0.008771, -0.001292, 0.003389, -0.000583, 0.027403, 0.024697, -0.024445, 
    0.043583, 0.026264, -0.007142, 0.039739, 0.002455, 0.028843, -0.038756, 0.040971, 0.043028, -0.034105, 
    -0.046858, -0.013284, -0.028062, 0.012195, 0.014313, -0.011821, 0.026023, -0.004276, -0.019420, -0.044963, 
    0.014506, -0.049010, -0.006161, 0.000667, -0.031568, 0.007707, 0.002867, 0.024540, 0.022542, -0.042944, 
    -0.039872, -0.022758, -0.038841, 0.008306, -0.035911, -0.040853, 0.007289, 0.021541, -0.019275, -0.051487, 
    0.000445, 0.017385, 0.029650, -0.001675, 0.025682, -0.046817, 0.037661, -0.035479, -0.037160, 0.026752, 
    -0.016148, 0.022163, -0.037975, 0.028527, 0.037283, 0.007815, 0.030815, -0.032595, -0.016083, 0.007888, 
    0.019788, -0.030377, 0.023039, -0.021027, -0.030367, 0.002923, -0.042361, -0.047897, 0.009171, 0.009541, 
    0.019555, -0.000994, -0.012997, -0.016562, 0.064114, -0.018411, 0.055436, 0.075618, 0.043402, -0.048428, 
    -0.013095, -0.068866, -0.051869, -0.112556, -0.103271, -0.016019, 0.042238, 0.033294, 0.024878, 0.013920, 
    -0.068914, -0.078819, -0.043228, 0.015090, 0.024879, 0.025738, -0.027850, -0.018870, -0.037665, -0.009764, 
    0.010953, 0.022715, -0.022249, 0.032235, -0.057584, -0.048087, -0.006916, 0.046358, 0.082691, 0.059047, 
    0.012513, -0.064493, -0.060156, -0.100377, -0.103893, 0.023634, 0.002613, 0.014740, -0.001687, 0.038119, 
    0.029064, -0.041458, -0.057642, -0.038401, -0.072030, -0.047477, -0.098278, -0.098363, -0.033848, -0.018896, 
    -0.017400, 0.018389, -0.038497, 0.000124, -0.022669, -0.027682, 0.055863, 0.091665, 0.073636, 0.066782, 
    0.035423, 0.062835, 0.044051, 0.050251, 0.044842, 0.050255, 0.003405, 0.023217, -0.006599, 0.009986, 
    -0.006198, 0.036656, -0.065346, -0.035076, -0.045933, -0.000498, 0.024042, 0.010249, 0.069459, -0.023574, 
    -0.032624, 0.056062, 0.070349, 0.064547, 0.057116, 0.097601, 0.083901, -0.027536, -0.040899, -0.095367, 
    -0.048858, 0.004434, 0.070496, 0.034644, 0.002306, -0.008450, -0.032714, -0.004772, 0.015856, -0.039538, 
    0.007636, -0.039418, -0.051192, -0.067355, -0.003702, -0.030609, -0.047438, -0.023678, 0.002894, -0.010789, 
    -0.011379, -0.029619, 0.027399, -0.007143, 0.093949, 0.033353, 0.039949, 0.064304, 0.009694, 0.031268, 
    0.078743, 0.075602, 0.102246, 0.042075, 0.018721, -0.031044, -0.019807, -0.013458, 0.017726, 0.084097, 
    0.010985, 0.067242, 0.034287, 0.026843, 0.019688, -0.022375, -0.024982, -0.084411, -0.086472, -0.013885, 
    0.034776, -0.039513, 0.073275, 0.069673, 0.078462, 0.106249, 0.050517, 0.033418, 0.078435, 0.025441, 
    0.007978, -0.012000, 0.065959, 0.049096, 0.017435, -0.035193, -0.021729, -0.035020, 0.036087, 0.021843, 
    0.053192, 0.037951, 0.001758, 0.062459, 0.009838, -0.014206, -0.088625, -0.046765, -0.033863, -0.016107, 
    -0.002642, -0.004518, -0.035563, 0.032839, 0.027061, 0.024889, 0.054018, 0.052734, 0.073684, 0.048735, 
    0.017135, -0.032931, -0.074093, -0.021939, -0.010307, -0.042169, -0.021417, -0.039218, -0.051712, 0.004469, 
    0.036828, 0.026442, 0.072811, 0.053207, 0.044059, 0.004560, -0.010698, 0.000940, 0.071274, 0.027725, 
    0.001224, 0.031545, -0.026587, 0.005870, 0.025615, -0.043886, -0.029518, -0.048689, -0.026709, 0.038358, 
    -0.046051, -0.069787, -0.045239, -0.057465, -0.043219, -0.045853, 0.022042, -0.006931, 0.014732, 0.040345, 
    -0.035561, 0.021671, -0.022756, 0.059947, 0.025926, 0.003919, -0.016739, 0.033870, -0.001232, 0.031295, 
    0.015512, -0.050645, -0.020621, 0.010022, 0.025569, 0.030203, 0.079739, 0.016448, 0.008763, 0.045534, 
    -0.006718, -0.008370, -0.017996, -0.002277, -0.047797, 0.012275, -0.073963, -0.011301, 0.010516, 0.036928, 
    -0.045280, -0.008925, -0.017027, 0.066262, 0.066329, -0.002489, 0.037657, 0.051772, 0.049437, 0.065065, 
    -0.008068, -0.000673, 0.053409, 0.002603, 0.079888, 0.032734, 0.035156, -0.004417, -0.038459, 0.009923, 
    -0.047349, -0.016142, -0.029272, -0.056143, -0.032815, -0.031048, -0.023178, 0.057031, 0.072621, 0.015926, 
    0.061057, 0.011364, 0.007097, -0.084370, -0.062498, -0.080722, -0.071327, -0.025860, -0.063683, 0.021719, 
    -0.021454, 0.010572, -0.026756, 0.005002, -0.016318, 0.073364, 0.084876, 0.088758, 0.021512, 0.061864, 
    -0.004907, 0.049745, 0.025043, 0.018223, 0.001447, -0.037679, -0.000928, -0.010577, -0.014320, 0.051582, 
    -0.015053, -0.001218, -0.024083, 0.017508, 0.040732, 0.044050, -0.022633, -0.070297, 0.002909, -0.034904, 
    -0.030415, 0.085230, 0.069767, 0.048712, 0.063162, 0.031760, -0.032742, -0.072004, -0.077645, -0.055050, 
    -0.050082, -0.020777, -0.103165, -0.097252, -0.085790, -0.013563, -0.017048, -0.050709, 0.004091, -0.013095, 
    0.112534, 0.084241, 0.036739, 0.025349, 0.071961, 0.066806, -0.011030, 0.048415, 0.104509, 0.047340, 
    -0.022043, 0.001005, 0.024010, 0.004636, -0.033263, -0.058462, -0.014785, 0.017254, 0.044552, 0.014161, 
    0.000427, -0.116886, -0.065241, -0.036349, -0.053054, -0.000823, 0.048373, -0.033535, 0.007506, -0.008548, 
    -0.061295, -0.050700, -0.046693, 0.014361, 0.001923, 0.017697, -0.028380, 0.002190, -0.034325, -0.001777, 
    0.036430, -0.031891, -0.029869, 0.016745, 0.028658, -0.051448, -0.017757, 0.013516, 0.078725, 0.061004, 
    0.037729, 0.027060, -0.009065, 0.037178, -0.041434, 0.011077, -0.017352, -0.027677, -0.029514, -0.001158, 
    -0.014818, -0.034749, -0.016325, 0.022023, -0.035190, 0.035988, 0.003208, 0.015669, -0.059065, -0.040520, 
    0.015882, 0.064848, 0.088098, 0.053904, 0.063482, 0.033508, 0.080623, 0.051843, -0.034293, -0.028100, 
    0.006179, -0.041567, -0.045331, -0.028598, 0.054307, 0.002914, -0.009832, -0.026681, 0.066341, 0.010058, 
    0.072335, 0.037720, 0.019780, 0.033177, -0.022460, -0.045390, 0.011893, -0.040870, 0.021331, -0.012986, 
    -0.004384, 0.039217, 0.017595, -0.032538, 0.041570, -0.039327, 0.024706, -0.006298, 0.086279, 0.053969, 
    0.011613, -0.014327, -0.032014, -0.022823, 0.004946, 0.011162, -0.033001, 0.040617, 0.016944, 0.021889, 
    0.037254, 0.097821, 0.036211, 0.076523, 0.004013, 0.029891, -0.024084, 0.036358, 0.065521, 0.041277, 
    0.037418, -0.017442, -0.019433, -0.045364, 0.040823, -0.015098, 0.038015, 0.078700, 0.103743, 0.034422, 
    0.064921, 0.018568, -0.018097, -0.052241, -0.047696, 0.088636, 0.045164, 0.046755, -0.016041, 0.004695, 
    -0.040788, -0.044348, 0.046411, 0.050146, 0.097351, 0.112668, 0.035660, 0.034639, 0.092731, 0.053831, 
    0.027172, 0.055091, 0.021795, 0.045004, -0.008113, -0.040934, -0.013959, -0.025203, 0.041943, 0.053841, 
    0.022996, 0.014153, -0.100627, -0.077447, -0.077302, 0.012662, -0.006341, -0.037102, 0.033924, 0.007939, 
    0.045855, 0.016508, -0.051264, 0.041585, 0.023036, 0.008782, -0.015145, 0.015403, -0.006298, -0.068538, 
    0.050679, 0.097095, 0.015121, -0.041767, -0.090253, -0.090944, -0.080048, -0.028341, 0.006195, 0.066473, 
    0.081542, 0.067263, 0.096403, 0.092202, 0.027466, 0.088117, 0.042581, 0.107922, 0.052578, 0.099336, 
    0.093686, 0.089956, 0.036496, 0.000762, 0.043396, 0.066154, 0.041186, 0.042523, 0.041426, 0.050873, 
    0.005947, 0.092484, 0.087214, 0.094257, 0.139474, 0.112227, 0.058461, -0.028520, -0.098550, -0.098298, 
    -0.117358, -0.021622, -0.007041, 0.042024, 0.046515, -0.007674, -0.020485, -0.065804, -0.033083, -0.028132, 
    -0.051022, 0.021924, 0.044811, 0.013439, 0.086372, 0.055172, 0.017271, 0.033236, 0.021578, 0.005019, 
    0.045363, -0.065918, -0.062539, -0.031005, 0.019153, 0.057578, 0.038582, 0.097404, 0.068404, 0.100887, 
    0.083797, 0.104863, 0.061710, 0.103719, 0.101045, -0.027849, -0.080821, -0.012190, -0.058256, 0.007661, 
    0.052630, 0.066233, 0.112378, 0.081432, 0.120448, 0.019099, -0.033628, -0.065071, -0.098128, -0.089882, 
    -0.053838, -0.005144, 0.015156, 0.010784, 0.027523, -0.008822, -0.004554, 0.024557, 0.018962, 0.081269, 
    0.018361, 0.011771, -0.005810, 0.039577, 0.014004, -0.092166, -0.046930, -0.015407, -0.015835, 0.068343, 
    0.037652, 0.052738, 0.095770, 0.089466, 0.115061, 0.042176, -0.054551, -0.048234, -0.053130, 0.031382, 
    -0.020986, -0.035786, -0.045653, -0.092886, -0.094866, -0.000024, 0.053251, 0.125895, 0.075801, 0.078943, 
    0.076088, 0.058860, 0.010443, 0.063870, 0.026428, 0.066511, 0.090627, 0.028574, 0.004349, -0.087476, 
    -0.072233, -0.093213, -0.049888, -0.009895, 0.032185, 0.040160, 0.071966, 0.089829, 0.070391, 0.042925, 
    0.112291, 0.105031, 0.002131, 0.025779, 0.079654, -0.009967, -0.009874, 0.089369, 0.089102, 0.097725, 
    0.040118, 0.007331, -0.036574, -0.065621, -0.051757, 0.001069, 0.028479, 0.042731, -0.044940, -0.012060, 
    0.023081, -0.019150, -0.018879, 0.009319, 0.024203, 0.068811, 0.022470, 0.088943, 0.061414, 0.070508, 
    -0.006764, -0.021244, -0.087620, -0.101667, -0.079715, -0.050203, 0.004543, 0.108120, 0.072944, 0.086671, 
    0.054393, 0.026193, 0.013275, 0.018231, 0.026720, 0.056019, 0.087125, 0.099393, 0.084553, 0.123660, 
    0.059150, 0.059392, 0.020719, -0.028112, -0.016027, -0.071236, -0.035175, 0.049206, 0.058031, 0.064425, 
    -0.051067, -0.051420, 0.029795, 0.031664, 0.085605, 0.011909, 0.014259, 0.037891, 0.069561, -0.004609, 
    0.018301, 0.048881, 0.012670, 0.038498, -0.019645, 0.008004, -0.014298, -0.002983, 0.015622, 0.077599, 
    0.067935, 0.011954, 0.064170, 0.014680, -0.010665, -0.044142, 0.019080, -0.026505, 0.037778, -0.018420, 
    0.060148, 0.004774, 0.033686, -0.060937, -0.049572, -0.054908, -0.035578, 0.007343, 0.072096, 0.106263, 
    0.136585, 0.101012, 0.151173, 0.092363, 0.074564, 0.031965, 0.003708, -0.015601, -0.002264, -0.040411, 
    -0.101672, -0.059482, 0.005380, 0.047096, 0.125582, 0.145891, 0.107348, 0.062993, 0.077364, 0.064377, 
    0.024070, 0.118703, 0.066110, 0.081363, 0.028907, 0.017426, -0.022453, -0.101637, -0.059495, -0.075894, 
    -0.085514, -0.058983, -0.068571, -0.113388, -0.081744, -0.000365, -0.044797, -0.093510, -0.019721, -0.035097, 
    0.069303, 0.062793, 0.050322, 0.133175, 0.117197, 0.076806, 0.034830, 0.066139, 0.096296, 0.109645, 
    0.021874, -0.016688, -0.062532, 0.002938, 0.027079, 0.013206, -0.030967, 0.063312, 0.062777, 0.090314, 
    0.069595, -0.071462, -0.063714, -0.046780, -0.082037, 0.090795, 0.102661, 0.097151, 0.055044, 0.030785, 
    0.025488, 0.059790, 0.034246, 0.077766, 0.067114, 0.011610, -0.049646, -0.001449, 0.035432, -0.015520, 
    0.020220, 0.039578, 0.044741, -0.042343, -0.006096, -0.024192, -0.062870, -0.030427, 0.008304, 0.112642, 
    0.114111, 0.097848, 0.073376, 0.081706, 0.107465, 0.096249, 0.052196, 0.067099, 0.001296, 0.045405, 
    0.027960, 0.045815, 0.066492, 0.044736, 0.101551, 0.103952, 0.021762, 0.066136, 0.033697, 0.036256, 
    0.027819, 0.006447, 0.041332, 0.015683, 0.073654, 0.013628, 0.083699, 0.084994, 0.090025, 0.032162, 
    0.000187, -0.043668, -0.000641, -0.019300, 0.002657, 0.101355, 0.040738, 0.025526, 0.064460, 0.049267, 
    -0.011025, 0.034057, -0.052251, -0.060051, -0.005480, 0.022092, 0.019283, 0.077006, 0.082395, 0.062109, 
    -0.011951, 0.010518, 0.028263, 0.029954, -0.046173, -0.046770, -0.016860, -0.001775, 0.068233, 0.148497, 
    0.105882, 0.141065, 0.059120, 0.086379, 0.125149, 0.031628, -0.004178, -0.092628, 0.004887, -0.038044, 
    0.005230, -0.006733, -0.012569, -0.060604, -0.052349, 0.000757, -0.006256, 0.060249, 0.028402, 0.055178, 
    -0.004459, 0.027476, 0.045756, -0.044494, -0.000375, 0.095534, -0.009333, -0.050825, -0.037078, -0.005618, 
    -0.073398, -0.056816, 0.056629, 0.022128, -0.040808, -0.029270, 0.003084, 0.004699, -0.063218, -0.035951, 
    -0.004752, 0.053698, 0.012387, -0.079940, 0.005202, -0.028334, -0.038212, 0.043454, 0.040689, 0.036120, 
    0.032844, 0.004213, -0.029453, -0.022370, 0.014929, 0.027888, 0.055042, -0.059493, -0.009689, -0.050011, 
    -0.047329, 0.025544, 0.021355, -0.015889, -0.038713, -0.033231, -0.022241, 0.037413, -0.021090, 0.036134, 
    -0.008506, 0.013748, 0.040315, 0.028400, 0.023832, 0.047293, 0.024473, 0.067615, -0.019906, 0.048068, 
    -0.059346, -0.035007, -0.009486, -0.024870, 0.030027, 0.003307, 0.024414, 0.100715, 0.032735, 0.084749, 
    0.086148, 0.069629, 0.021932, 0.041838, 0.003972, -0.031474, -0.003036, -0.043888, -0.003368, -0.025552, 
    -0.060432, -0.004900, 0.066884, -0.015078, 0.084430, 0.090735, -0.028199, -0.084883, 0.011728, -0.062077, 
    0.051566, -0.073789, 0.027376, 0.030945, -0.067392, -0.005697, -0.003067, 0.043753, -0.000814, 0.097765, 
    0.106060, 0.044880, -0.031084, 0.040653, -0.016924, -0.017950, -0.013702, 0.012220, 0.011173, 0.054562, 
    0.056766, 0.036724, 0.040707, 0.031260, 0.020160, -0.011344, 0.018313, 0.085913, 0.050313, 0.042832, 
    -0.006210, -0.020234, -0.042564, -0.026720, 0.047450, 0.073336, 0.004159, -0.043214, -0.035550, -0.046584, 
    0.019496, -0.006451, -0.003017, 0.003702, -0.001195, 0.026563, 0.049503, 0.008769, 0.035222, 0.055216, 
    0.016108, -0.018881, -0.020191, -0.071020, -0.012182, 0.034155, 0.042290, 0.032779, -0.005089, -0.027943, 
    -0.009838, 0.028331, 0.056437, 0.034470, 0.062249, -0.004855, 0.018420, -0.007284, 0.032415, 0.064826, 
    0.058168, 0.048345, 0.009549, -0.011884, -0.005330, -0.031281, 0.038718, 0.004507, 0.022720, -0.024037, 
    -0.006150, 0.020854, 0.003155, -0.041531, 0.037481, 0.084653, 0.093352, 0.004613, 0.032198, -0.032584, 
    -0.033324, 0.033253, -0.036346, 0.015395, 0.075266, 0.096767, -0.038491, -0.050461, -0.042914, -0.025210, 
    -0.003742, 0.077263, 0.071973, -0.002113, 0.040372, -0.038979, -0.030854, -0.048590, -0.007759, 0.017661, 
    0.025472, 0.097020, 0.051095, 0.069802, 0.086478, 0.046016, 0.005435, 0.010788, 0.046875, 0.029391, 
    -0.005817, 0.038300, 0.050189, -0.003325, -0.016448, 0.083040, -0.017429, -0.078944, -0.104092, -0.014122, 
    -0.052800, -0.067565, -0.033125, 0.009969, -0.017552, -0.029133, -0.059726, 0.013535, -0.040435, 0.029183, 
    -0.016323, -0.004926, -0.002104, 0.081995, 0.077789, -0.009010, 0.062684, -0.006256, -0.023451, 0.034098, 
    0.006365, 0.012684, 0.001884, 0.072578, 0.006513, 0.064225, -0.006674, -0.025537, 0.029774, -0.049088, 
    0.033117, 0.051724, 0.090962, 0.039588, 0.050791, 0.022197, -0.065955, -0.072951, 0.006557, -0.070159, 
    -0.025555, 0.046053, 0.047428, 0.107714, 0.106656, 0.071614, 0.063406, 0.039204, 0.067455, 0.058969, 
    -0.029383, 0.027321, 0.044007, 0.042771, 0.017799, 0.022594, -0.007063, -0.024200, -0.040371, 0.064818, 
    0.053848, -0.024848, -0.021341, 0.044852, -0.047244, 0.026573, -0.042181, -0.019688, -0.020518, 0.028120, 
    -0.028273, 0.014796, 0.006678, 0.034394, 0.035298, 0.046582, 0.049879, -0.043830, -0.030669, -0.010619, 
    0.015913, -0.034924, -0.050507, -0.042105, -0.000897, 0.052800, 0.041587, 0.016042, -0.007865, 0.039808, 
    -0.012076, 0.075177, 0.045402, 0.054357, 0.035600, -0.037549, 0.017823, -0.009339, 0.012312, -0.005839, 
    0.058056, 0.054096, 0.007577, 0.014976, 0.039665, 0.047040, 0.087375, 0.057788, 0.049463, -0.002884, 
    0.000666, 0.009192, 0.022128, 0.013186, 0.010327, 0.076095, 0.070283, -0.005650, 0.072588, -0.035325, 
    0.009284, 0.027898, 0.012753, 0.052964, -0.012698, -0.032500, 0.026337, -0.016452, 0.006229, 0.033684, 
    0.004452, 0.021228, 0.032208, -0.038636, -0.056665, -0.000221, 0.045650, 0.007956, 0.000566, 0.034017, 
    0.047062, 0.022543, 0.033944, 0.024655, 0.052261, 0.086310, -0.007894, 0.002386, 0.000531, -0.037860, 
    -0.061746, 0.038872, 0.088234, 0.008646, 0.032366, 0.019473, -0.037778, 0.028867, 0.009679, -0.043828, 
    -0.004801, -0.048049, 0.031699, 0.026607, 0.023881, 0.040563, 0.046352, 0.059448, 0.014463, -0.044918, 
    0.022214, -0.012714, -0.050917, -0.036568, 0.050981, 0.043106, 0.079248, 0.058859, 0.097602, -0.005244, 
    0.010470, 0.008892, 0.023778, 0.060644, -0.000740, -0.032719, 0.011960, -0.026238, -0.020006, -0.044914, 
    -0.003905, -0.004667, 0.019408, 0.025560, -0.046976, -0.015442, 0.037472, -0.034185, 0.011256, 0.025814, 
    0.018798, 0.015517, 0.057913, 0.074761, 0.089237, -0.007147, -0.041085, -0.072215, -0.005982, -0.041099, 
    0.011368, 0.021015, 0.002668, -0.050415, -0.018459, 0.006392, 0.001968, 0.017736, -0.009873, -0.004773, 
    0.002489, 0.052619, 0.003801, 0.050962, 0.062504, 0.056055, -0.012882, 0.036820, -0.025933, 0.033684, 
    0.026961, -0.002562, 0.002009, -0.055031, -0.016153, 0.023831, -0.004889, -0.008302, 0.001740, -0.023173, 
    0.004948, -0.046277, 0.044045, 0.053820, 0.019024, -0.045308, -0.063358, 0.000069, 0.066871, 0.034528, 
    0.071062, -0.010096, 0.018746, 0.076453, 0.062688, 0.014144, 0.091046, 0.017356, -0.002323, 0.042533, 
    -0.013716, 0.005804, -0.046450, -0.014823, 0.022474, 0.083049, -0.031380, -0.058668, 0.009004, 0.017189, 
    -0.076953, -0.006306, 0.039053, 0.034025, 0.065179, 0.007035, 0.013935, -0.004984, -0.015232, 0.023312, 
    0.086170, 0.067999, 0.018885, 0.013175, 0.003553, -0.026379, -0.025326, 0.016549, 0.065895, -0.031773, 
    -0.017727, -0.032244, -0.057700, -0.022459, 0.019213, -0.001693, 0.037859, -0.043340, 0.019906, 0.009168, 
    -0.043742, 0.020079, 0.109636, 0.028296, 0.027416, -0.035351, 0.053989, 0.026135, -0.038886, 0.027212, 
    0.042600, 0.024724, 0.003775, 0.040840, 0.073966, 0.079609, 0.055729, 0.095661, 0.024089, 0.060143, 
    0.019991, -0.016029, -0.079296, -0.037512, -0.003133, 0.051837, 0.018451, 0.033323, 0.018265, 0.005358, 
    -0.000960, -0.006203, 0.015525, 0.027536, 0.006962, 0.020824, 0.019947, 0.011520, -0.023615, -0.086616, 
    -0.070907, -0.006527, 0.052196, -0.031393, 0.052169, 0.020195, -0.013799, -0.029847, 0.006940, -0.088141, 
    -0.004535, -0.001601, 0.011429, 0.044906, -0.080607, -0.100324, 0.045286, 0.046190, 0.029048, 0.042545, 
    0.137276, 0.013676, -0.020920, -0.017891, -0.026400, 0.029914, 0.031380, -0.009150, -0.008814, 0.028884, 
    0.024900, 0.048675, 0.029655, 0.070421, 0.053150, 0.006380, 0.103225, 0.100747, 0.058493, -0.006179, 
    -0.046608, -0.001380, 0.021786, 0.049691, 0.045333, 0.004955, -0.046631, -0.063952, -0.063121, -0.014655, 
    0.046049, 0.002315, 0.059963, 0.062923, -0.027044, -0.007921, -0.000977, 0.030457, 0.063921, 0.025994, 
    0.045962, 0.016097, -0.002943, -0.077968, -0.029898, 0.027224, 0.058897, 0.068576, 0.090020, 0.077781, 
    -0.005851, 0.004193, 0.032676, 0.030635, 0.041175, 0.023500, 0.023753, 0.032980, 0.056268, 0.057753, 
    0.048746, 0.026662, 0.067937, 0.029481, -0.002465, 0.005013, 0.027771, 0.000162, 0.018513, 0.011264, 
    0.025504, -0.023990, -0.020966, -0.025981, 0.023127, 0.072174, 0.042532, 0.100334, 0.066719, 0.007398, 
    0.032584, 0.006835, 0.033423, 0.032829, 0.048114, 0.016376, -0.034697, -0.010961, 0.030333, -0.084299, 
    -0.001218, 0.029168, 0.018741, 0.010135, -0.010474, -0.061215, -0.041977, -0.050889, -0.019327, 0.015573, 
    0.032787, 0.046617, 0.039606, -0.015084, 0.031986, 0.017595, -0.048485, -0.044538, -0.037630, -0.011774, 
    -0.012468, -0.036766, 0.029746, -0.009735, -0.035076, -0.020430, 0.023032, -0.014884, -0.048832, -0.059370, 
    -0.037388, 0.020618, 0.054645, 0.055578, -0.027110, -0.015794, 0.021993, -0.048760, -0.039918, -0.026649, 
    0.001331, 0.079308, 0.071607, -0.002008, 0.006686, 0.033261, 0.017865, -0.002408, -0.025935, 0.045220, 
    0.019543, 0.003202, -0.025080, -0.013282, 0.043813, 0.071170, -0.005997, 0.014118, 0.024888, -0.003636, 
    0.052122, 0.094539, 0.033828, 0.065559, 0.003586, -0.020124, -0.038171, 0.024316, -0.087081, -0.047110, 
    -0.098893, 0.020823, 0.048999, 0.052131, 0.087758, 0.129395, 0.064296, -0.036904, -0.026499, 0.033805, 
    0.001328, 0.029052, 0.017615, -0.029777, -0.039605, -0.009212, 0.032059, -0.027472, 0.004313, 0.053634, 
    0.022890, 0.074729, 0.078785, 0.039004, -0.002026, 0.014153, 0.029145, 0.006729, 0.009023, -0.058915, 
    -0.078080, -0.037448, 0.022236, 0.068172, 0.052052, 0.043186, 0.035926, 0.002746, -0.001411, -0.004099, 
    0.000919, 0.027734, 0.024250, 0.004443, -0.004382, 0.095519, 0.100122, 0.007518, 0.006217, 0.064199, 
    0.003707, 0.054603, 0.057310, 0.063100, 0.039748, 0.037254, 0.023591, -0.054610, 0.025123, 0.032164, 
    0.049216, 0.061507, 0.008547, 0.002366, -0.029219, -0.008425, 0.066515, 0.097351, 0.075014, 0.050830, 
    0.080436, -0.043714, -0.042469, 0.034056, -0.009809, 0.078839, 0.055310, 0.024960, 0.099638, 0.059925, 
    0.057502, 0.084041, 0.051912, 0.089846, 0.043108, -0.000774, 0.010347, -0.025700, 0.013535, 0.081017, 
    -0.022107, 0.010677, 0.032996, -0.089200, -0.083935, 0.010869, 0.092331, 0.006033, 0.056565, -0.014805, 
    0.045719, 0.058428, -0.020834, -0.017863, -0.001683, 0.063873, 0.045539, -0.002724, 0.068683, 0.019974, 
    0.008872, 0.110956, 0.085017, 0.093369, 0.085101, -0.035299, -0.016788, 0.036936, -0.048956, -0.019014, 
    0.014013, -0.009379, -0.022928, 0.028781, -0.021058, 0.054277, 0.062316, 0.020479, -0.006709, -0.010616, 
    0.041472, -0.036848, -0.034797, -0.085654, 0.012994, 0.064367, 0.071500, 0.032857, 0.044618, 0.048702, 
    0.005288, -0.029295, -0.016291, 0.042290, -0.039950, -0.011028, -0.022378, -0.030413, -0.082154, -0.065833, 
    -0.040939, -0.061501, -0.035246, -0.003645, 0.025651, 0.042063, -0.035048, -0.023643, -0.074546, -0.014159, 
    0.029179, 0.060698, 0.005866, 0.086628, 0.071722, 0.037491, -0.069650, -0.040418, -0.022488, -0.094287, 
    0.027252, 0.028228, 0.028617, 0.031242, 0.058964, -0.014720, 0.041165, -0.001081, -0.023717, -0.025708, 
    -0.041292, 0.027599, 0.032933, 0.022411, 0.075738, 0.018222, -0.009151, 0.026258, 0.009245, -0.006171, 
    -0.034995, -0.002235, -0.054072, -0.004031, -0.005947, 0.081697, 0.072399, 0.011302, -0.029522, -0.030664, 
    -0.016259, -0.021385, 0.018467, 0.063795, -0.014147, 0.014008, -0.008419, -0.000669, -0.003058, 0.055884, 
    0.011159, 0.040192, -0.003462, 0.057815, 0.002560, 0.041489, 0.016702, -0.002990, 0.038989, 0.078745, 
    0.001432, -0.011492, 0.077076, 0.051002, 0.001584, 0.000974, 0.019805, 0.060098, 0.046375, -0.004858, 
    0.014531, 0.024233, -0.037333, -0.015332, 0.098122, -0.013970, 0.051959, 0.012652, 0.051035, 0.040196, 
    -0.019985, -0.010625, -0.023879, 0.021861, -0.063528, 0.002250, -0.033371, -0.071213, 0.026861, 0.002727, 
    -0.001013, -0.012707, 0.009560, 0.041007, -0.017616, -0.042217, 0.029205, 0.069798, 0.082149, 0.050397, 
    0.028535, -0.000460, -0.004439, 0.024189, 0.032577, 0.030654, 0.038623, 0.055882, 0.083312, -0.024668, 
    0.036470, -0.000136, -0.047470, 0.008085, -0.034381, -0.034284, -0.023577, -0.023431, 0.021042, -0.028219, 
    0.015188, 0.023202, 0.068659, 0.051670, 0.075732, 0.082126, 0.104570, 0.023605, -0.035128, -0.109841, 
    -0.081294, -0.120704, -0.091089, -0.103105, -0.076751, -0.035186, -0.003870, -0.078754, -0.028311, 0.022676, 
    -0.039644, -0.022617, -0.068329, -0.040176, -0.018379, -0.073992, -0.020036, -0.015758, 0.006358, 0.038688, 
    -0.005943, -0.049439, -0.090814, -0.073765, 0.016371, 0.024870, 0.003831, 0.004197, 0.092486, -0.027236, 
    -0.060123, 0.025928, 0.111838, 0.011927, 0.093581, 0.045270, 0.069331, 0.101190, 0.099475, 0.059812, 
    -0.012286, -0.000707, 0.015867, -0.001975, -0.033134, -0.044021, -0.069606, -0.059172, 0.009523, -0.029170, 
    0.084621, 0.051427, 0.037197, 0.048880, 0.035907, 0.015756, 0.046527, -0.013444, -0.068152, -0.082741, 
    -0.074799, -0.036706, -0.086104, -0.039292, -0.000780, -0.005576, 0.090955, 0.010646, 0.018721, 0.007353, 
    -0.028967, 0.023317, -0.063116, -0.060845, -0.088342, -0.054824, -0.010791, 0.010658, -0.030626, 0.001256, 
    0.013552, 0.040879, -0.000069, -0.003393, 0.037781, 0.092165, 0.051070, -0.007913, 0.028638, 0.015461, 
    -0.003373, -0.029862, -0.015949, 0.022890, 0.018697, 0.058094, 0.084871, 0.028562, 0.037175, -0.002653, 
    0.047285, 0.049527, 0.011241, -0.011544, -0.024724, -0.084122, -0.077861, -0.045394, -0.047644, 0.023779, 
    0.042586, 0.026721, 0.023157, 0.010053, 0.025083, 0.049615, 0.044275, 0.016574, -0.016067, -0.018425, 
    -0.051280, -0.102315, -0.015956, -0.055634, -0.042912, 0.021969, 0.042185, 0.022206, 0.091552, 0.018666, 
    0.071647, 0.067387, 0.055629, -0.012484, -0.081065, -0.042958, -0.074876, -0.104386, -0.039668, -0.090449, 
    -0.049786, -0.049856, 0.001039, -0.049489, -0.053186, -0.091070, -0.058751, 0.012505, -0.003942, 0.027910, 
    0.011602, 0.074047, 0.073910, 0.058442, 0.062562, 0.030176, -0.017772, 0.076297, 0.043610, 0.048778, 
    0.050985, 0.035531, 0.001763, -0.024898, -0.063760, -0.081152, -0.056522, -0.072825, -0.034956, -0.051666, 
    0.065364, 0.080437, 0.097809, 0.029879, -0.021650, 0.012069, 0.000176, 0.024459, -0.104551, -0.034160, 
    -0.107759, -0.122499, -0.073820, -0.064795, -0.059716, 0.022805, -0.023783, -0.032642, -0.040160, -0.036189, 
    -0.044755, 0.011115, -0.061287, -0.017364, 0.052172, -0.035634, 0.013667, -0.036545, -0.004166, -0.074289, 
    0.061404, 0.071530, 0.039694, 0.070120, 0.034089, -0.031625, 0.010774, -0.045087, -0.012466, -0.074262, 
    -0.038753, -0.012132, -0.026532, -0.041418, -0.006989, -0.022017, -0.023534, -0.006436, 0.001314, 0.009510, 
    0.052612, -0.015109, -0.026020, -0.008479, 0.076046, 0.020557, 0.020355, 0.083348, 0.024278, 0.043572, 
    0.067520, 0.061237, 0.010563, 0.043092, 0.066234, 0.069523, 0.001986, 0.041371, -0.030942, -0.114791, 
    -0.078706, -0.135426, -0.088327, -0.126799, -0.055318, 0.024728, -0.000015, 0.043953, 0.065943, 0.022526, 
    0.009746, 0.030888, 0.002280, -0.100487, -0.065707, -0.096890, -0.072957, -0.121154, -0.095905, -0.051970, 
    -0.001459, -0.013177, -0.026567, -0.020099, -0.058846, -0.007931, 0.021801, 0.058474, 0.044284, 0.070142, 
    0.107284, 0.063986, 0.037232, 0.112317, 0.062795, 0.027275, 0.075216, 0.091937, 0.100323, 0.083166, 
    0.008130, 0.011549, -0.007026, 0.042383, 0.055905, -0.018197, -0.065317, -0.014124, 0.044623, 0.067366, 
    0.015936, -0.002696, 0.089905, 0.093608, -0.023248, -0.062676, 0.007296, -0.036089, 0.001911, -0.032877, 
    -0.001821, -0.067519, -0.088655, -0.007451, -0.010823, -0.014341, 0.011416, -0.033749, -0.039139, -0.066578, 
    -0.059059, -0.048956, 0.003940, -0.048282, 0.036462, 0.074770, 0.047683, -0.023827, 0.029819, 0.009789, 
    0.044122, 0.024293, 0.066285, 0.051080, 0.062035, 0.053462, -0.027408, 0.028460, 0.021841, -0.015609, 
    -0.049365, -0.063330, -0.035095, -0.082594, -0.057723, 0.029170, -0.040652, -0.019691, -0.026123, -0.056657, 
    -0.049546, -0.102621, -0.061938, -0.059007, -0.028635, -0.025957, -0.052359, -0.001633, -0.027372, -0.015986, 
    0.048351, -0.095157, -0.087799, -0.031167, -0.057364, 0.006762, 0.017286, 0.006159, 0.042857, 0.018505, 
    0.022996, 0.002515, 0.013941, 0.076894, 0.033657, 0.050616, -0.073964, 0.011064, 0.064237, 0.053960, 
    0.036874, 0.069501, -0.010777, 0.088461, 0.041910, 0.020951, 0.029457, 0.008073, 0.012162, 0.003243, 
    -0.003040, 0.052492, 0.071966, 0.073424, 0.050160, -0.006212, 0.011979, 0.022473, -0.045128, -0.020105, 
    -0.073584, -0.063594, -0.033943, -0.030908, -0.057210, 0.040331, 0.055764, 0.076394, 0.028831, 0.056582, 
    0.026856, 0.053571, 0.004376, 0.058845, 0.076120, -0.043881, -0.047317, -0.030396, -0.039594, 0.054314, 
    -0.001352, 0.024183, -0.062660, -0.047964, -0.099972, -0.075057, -0.014351, -0.044728, -0.020850, 0.077704, 
    -0.002295, 0.036299, 0.025672, 0.052329, -0.047685, 0.019827, 0.006901, -0.022278, -0.062147, -0.025316, 
    0.011132, 0.024697, 0.007122, -0.022112, 0.089035, 0.057045, -0.007522, -0.000428, -0.000005, 0.023319, 
    0.051365, 0.030931, 0.031792, -0.059823, -0.049035, -0.033215, -0.041442, -0.003976, 0.038418, 0.048060, 
    -0.000685, 0.036296, 0.058510, 0.016405, -0.004345, -0.036725, 0.075194, -0.032076, -0.058936, -0.014318, 
    -0.053034, -0.057612, -0.032616, 0.072365, 0.029621, 0.080040, 0.083649, 0.030035, 0.030577, 0.067998, 
    0.035405, 0.023777, 0.018008, -0.085259, -0.049280, -0.073060, -0.026372, -0.070458, -0.127020, -0.080986, 
    0.059779, 0.047265, 0.081265, 0.051918, 0.032057, -0.027255, 0.027646, 0.071930, 0.045261, -0.036821, 
    -0.043292, 0.063975, 0.081525, 0.043005, 0.064269, 0.078094, 0.062603, 0.015506, 0.007922, 0.034841, 
    0.086705, 0.101765, 0.091581, 0.064907, 0.029747, 0.030566, 0.077947, 0.038134, -0.044346, 0.013336, 
    0.045461, 0.000307, 0.000893, 0.077921, 0.027765, 0.022412, -0.010190, -0.059043, -0.019953, 0.013110, 
    0.006163, -0.045679, 0.004873, 0.033194, 0.023966, 0.074949, 0.048558, 0.094704, 0.001279, 0.056927, 
    0.027004, -0.005712, -0.063441, -0.033777, -0.044140, -0.056416, 0.000162, 0.028550, 0.053398, 0.050798, 
    0.080287, 0.065461, 0.014559, 0.005496, 0.046847, -0.034374, -0.047155, -0.044954, -0.000016, -0.053388, 
    -0.038882, -0.000657, 0.055587, 0.128169, 0.113770, 0.089129, 0.122278, 0.114881, 0.081710, 0.063279, 
    0.012809, -0.006528, 0.009492, -0.015197, -0.070385, -0.056613, -0.061450, -0.007768, 0.033917, 0.015147, 
    0.017012, 0.031867, 0.062789, 0.033896, 0.028928, 0.005718, -0.035278, -0.023097, -0.013547, -0.041930, 
    -0.049189, -0.045245, 0.031251, 0.081531, 0.134304, 0.093503, 0.128231, 0.098286, 0.043244, 0.048816, 
    -0.014352, -0.039093, -0.025616, -0.018235, -0.047928, 0.002004, -0.022796, 0.103962, 0.087397, 0.045556, 
    0.110045, 0.042219, 0.089158, 0.009757, 0.036038, 0.070676, 0.061027, 0.000875, -0.046951, -0.027819, 
    -0.003457, -0.044445, -0.088550, -0.071868, -0.024097, 0.025032, 0.059090, 0.079849, 0.048284, -0.004795, 
    0.063361, 0.025409, 0.019383, -0.013084, -0.001873, -0.001787, -0.020297, -0.026041, 0.054511, 0.038540, 
    0.058018, 0.004878, 0.044877, -0.031853, -0.014685, 0.027057, 0.012700, 0.013875, -0.076566, -0.029633, 
    -0.022005, -0.030669, 0.018436, 0.012347, 0.027980, 0.041561, 0.069697, 0.013727, -0.010404, 0.063815, 
    -0.000692, -0.005618, -0.049778, 0.026293, 0.057722, -0.011026, -0.013813, -0.030703, 0.089511, 0.129659, 
    0.074427, 0.101966, 0.065099, 0.046941, 0.083584, 0.022755, 0.093513, 0.063669, -0.039581, 0.004304, 
    0.019056, -0.014416, 0.031053, -0.033025, 0.010228, -0.007385, 0.050621, 0.004143, 0.069294, 0.016185, 
    0.020566, 0.031279, 0.021075, -0.014392, -0.021299, -0.052710, -0.070013, -0.031584, 0.071029, 0.093919, 
    0.027333, 0.077797, 0.073818, 0.036172, 0.063845, 0.025867, 0.030819, -0.038025, -0.015946, 0.017905, 
    0.010497, -0.046584, 0.007952, 0.029096, -0.000649, 0.036115, 0.072133, 0.064972, 0.077697, -0.001361, 
    -0.014464, 0.057713, -0.013883, -0.002429, -0.001141, -0.024017, -0.000183, -0.012576, -0.027817, 0.091345, 
    0.069772, 0.055654, 0.019380, 0.074231, -0.028228, 0.055677, 0.000196, -0.052541, -0.060656, 0.024397, 
    -0.025515, -0.037246, 0.025078, 0.023566, 0.036974, 0.083218, 0.042832, 0.082416, 0.007148, 0.046885, 
    0.080487, -0.006308, -0.024787, 0.024148, 0.016505, -0.008166, 0.026377, 0.016809, 0.067988, 0.009444, 
    -0.002746, 0.021216, 0.044167, 0.043831, 0.065451, 0.053816, -0.011682, 0.008399, 0.058699, 0.030012, 
    0.005834, -0.037420, -0.004315, -0.009807, -0.026275, 0.069917, 0.036559, -0.009580, -0.001339, 0.047903, 
    0.061496, -0.019784, -0.073154, -0.052059, -0.054714, -0.066106, -0.018902, -0.042626, 0.056051, 0.076350, 
    0.090557, 0.039448, 0.100731, 0.050302, 0.061205, 0.072060, 0.023740, 0.034619, -0.001495, 0.033970, 
    -0.009707, 0.057936, 0.059714, 0.097267, 0.066244, 0.067282, -0.006863, 0.013139, -0.001611, 0.046786, 
    0.039362, 0.042315, 0.005717, -0.011525, 0.013466, -0.011886, 0.053160, -0.067918, -0.036478, 0.050433, 
    0.091031, 0.032077, 0.090286, 0.016708, -0.001898, 0.021094, 0.098670, 0.039561, 0.067186, 0.005182, 
    0.016437, 0.051170, 0.029668, 0.100688, 0.041991, 0.036165, 0.031825, 0.082375, 0.067276, 0.039357, 
    -0.021052, 0.053427, 0.012896, 0.060141, 0.030202, 0.037821, 0.032497, 0.062875, -0.000989, 0.001961, 
    -0.020858, 0.068760, 0.028526, 0.037290, -0.010225, -0.029972, 0.074326, 0.044833, -0.039292, -0.029535, 
    -0.014667, -0.028695, -0.039326, -0.006883, 0.034537, 0.014213, 0.060685, 0.026749, 0.010767, 0.008751, 
    -0.037170, 0.043945, -0.034283, -0.101419, -0.081333, -0.055529, -0.054002, -0.040189, -0.017443, 0.046321, 
    0.034067, 0.031218, 0.029157, -0.039146, 0.024585, 0.045910, 0.036983, -0.074510, 0.024095, -0.026892, 
    -0.084029, -0.008939, -0.023636, -0.016897, 0.032182, 0.054723, 0.096716, -0.001922, 0.082492, 0.039844, 
    -0.005247, -0.035863, -0.024545, 0.044312, 0.033937, 0.035580, -0.003836, -0.025425, 0.010658, -0.021749, 
    -0.029711, 0.014741, 0.035801, -0.035015, -0.040345, 0.000321, -0.021928, -0.030253, -0.015188, -0.008485, 
    -0.018469, 0.033801, 0.025293, 0.014356, -0.014637, -0.004068, 0.029592, 0.003784, -0.044034, -0.001509, 
    0.018055, -0.017554, -0.014367, -0.012038, 0.022204, 0.037689, -0.035819, 0.030072, 0.018691, 0.015978, 
    -0.025928, -0.026058, 0.045323, 0.011680, -0.010158, -0.009245, 0.024714, -0.011370, 0.030838, -0.012941, 
    0.010789, 0.012024, -0.023380, 0.001128, 0.009117, -0.044640, -0.008989, 0.004346, 0.037594, 0.010107, 
    -0.044641, -0.019224, 0.039344, -0.011786, 0.028588, -0.000609, 0.024104, -0.025461, 0.038994, 0.003787, 
    -0.015191, 0.029250, 0.016662, -0.036526, -0.009128, 0.026868, 0.005526, -0.020280, -0.035563, -0.037808, 
    0.019527, 0.014808, -0.046292, -0.015217, 0.005707, -0.046229, 0.033490, -0.010713, -0.024387, -0.000763, 
    0.016490, 0.010143, 0.043285, 0.025695, -0.004421, 0.007770, 0.011060, -0.018103, -0.039111, -0.004855, 
    -0.017386, -0.043116, 0.016278, -0.019151, 0.043700, 0.010478, 0.013592, 0.007458, 0.017801, 0.029225, 
    0.033531, -0.002494, -0.012939, 0.012366, -0.020595, -0.002319, 0.013327, 0.020395, -0.044150, 0.017674, 
    -0.023518, -0.037995, -0.025284, -0.006830, 0.016632, -0.046497, 0.006552, 0.035278, -0.031633, 0.005061, 
    -0.024195, 0.005376, 0.013919, -0.033963, 0.005076, 0.045114, 0.003203, -0.032399, 0.000571, 0.010066, 
    0.014054, -0.003290, -0.009782, -0.022695, 0.029495, -0.025784, -0.015536, 0.030284, -0.021450, -0.005957, 
    -0.024043, -0.046302, 0.022003, -0.026113, -0.026909, -0.015903, 0.006660, 0.034231, 0.034526, -0.005222, 
    -0.044993, -0.002478, -0.004791, 0.032702, -0.015280, -0.042888, 0.016582, -0.010010, 0.015926, 0.013734, 
    0.016270, 0.025248, -0.031999, -0.037178, 0.042735, 0.041719, -0.018018, 0.043703, 0.009011, -0.011994, 
    -0.030566, -0.030136, 0.030778, -0.033901, -0.024568, 0.039592, -0.028143, 0.039064, 0.014539, 0.016798, 
    0.004549, -0.014016, 0.014504, 0.007749, -0.030748, -0.043447, -0.042942, -0.011370, 0.007208, -0.034776, 
    0.002563, 0.020447, 0.021000, -0.022902, 0.004617, -0.046315, 0.026992, -0.042324, -0.003313, -0.020185, 
    -0.043691, -0.045409, -0.035168, -0.038982, 0.034832, -0.007011, -0.030473, 0.000165, -0.020605, -0.006610, 
    0.039253, -0.040283, -0.039651, 0.011186, 0.031814, -0.049211, 0.008494, 0.039376, -0.013179, -0.032779, 
    0.016546, 0.019935, -0.010584, -0.043072, -0.004076, -0.035405, -0.044812, 0.022643, 0.025502, 0.012479, 
    -0.043089, 0.032866, 0.033438, 0.039228, -0.003034, -0.008453, -0.040936, 0.033682, -0.002393, -0.045639, 
    0.044629, -0.005901, 0.027452, -0.006737, -0.013024, 0.040151, 0.037897, -0.021303, -0.004420, 0.025157, 
    -0.003652, -0.014071, 0.034933, 0.034798, -0.018081, 0.028712, -0.010367, -0.004490, 0.030768, -0.009387, 
    -0.004540, -0.009918, -0.038109, 0.035342, -0.035809, -0.035034, 0.006178, -0.004807, 0.001789, 0.003591, 
    0.045238, -0.044317, -0.027443, 0.008420, -0.040634, -0.041905, 0.029128, 0.011828, -0.014158, 0.012045, 
    0.007983, -0.004497, 0.037903, -0.000012, 0.032382, -0.035528, -0.018545, 0.007720, 0.024382, -0.018571, 
    0.027082, -0.043713, -0.023257, 0.028468, -0.039950, -0.048653, -0.017367, -0.043873, 0.007732, -0.013871, 
    -0.019281, 0.019396, -0.003190, -0.046996, -0.049098, 0.022820, 0.013838, 0.019236, -0.044611, -0.008820, 
    0.038997, 0.036868, 0.031030, 0.042373, -0.014303, -0.035335, 0.025659, 0.029102, -0.013784, -0.004261, 
    -0.002198, -0.040489, -0.018905, -0.014463, 0.017039, -0.013318, 0.020600, 0.041100, -0.009730, -0.011126, 
    -0.028669, -0.003483, -0.041770, 0.030852, 0.033527, 0.006328, 0.037323, 0.017145, 0.024410, 0.042158, 
    -0.031381, -0.003581, 0.017148, -0.012217, -0.032378, -0.014332, -0.022626, -0.016009, -0.034771, -0.013768, 
    0.020307, -0.025879, 0.013597, -0.037536, -0.028762, 0.004731, 0.042269, -0.042153, 0.019868, 0.007983, 
    -0.037296, -0.033140, 0.022996, -0.022807, 0.031987, -0.037410, 0.028635, -0.029132, 0.012644, 0.007811, 
    -0.041662, -0.029783, -0.016902, -0.005701, 0.016696, -0.024608, 0.000870, -0.030605, -0.027542, 0.023940, 
    -0.018347, -0.045840, -0.003929, -0.012353, 0.007130, -0.029130, -0.003880, -0.028364, -0.033431, 0.004588, 
    0.008262, 0.002598, 0.036316, -0.001615, -0.001965, -0.005967, -0.044128, 0.012006, 0.029736, -0.001323, 
    -0.041442, 0.035139, 0.004381, 0.027170, 0.013979, 0.001354, -0.019293, 0.003525, 0.008841, -0.008613, 
    -0.035000, -0.029756, -0.041835, -0.017852, -0.007358, 0.037331, -0.024415, -0.044912, 0.025018, 0.039354, 
    -0.035601, -0.000456, 0.014511, 0.029426, -0.014040, 0.014943, 0.029224, 0.020864, 0.016393, 0.021912, 
    -0.046747, 0.003859, 0.029353, -0.042010, -0.045856, -0.043538, 0.008168, 0.036514, -0.009986, -0.023990, 
    -0.003145, -0.043481, 0.002055, -0.035854, -0.030721, -0.033295, -0.012922, 0.029746, 0.009271, 0.031765, 
    -0.044035, -0.037172, 0.027966, 0.035954, 0.032916, -0.048236, 0.014599, -0.050854, -0.019345, -0.004921, 
    0.015498, -0.019789, -0.045312, -0.050200, -0.024150, 0.028938, 0.013958, 0.016731, -0.042761, -0.046858, 
    0.055123, 0.056432, -0.057431, -0.041030, 0.001391, 0.037645, -0.073273, -0.079169, -0.031653, 0.075357, 
    -0.026767, -0.014344, 0.063529, 0.084232, -0.056018, 0.023640, -0.020978, -0.008538, -0.070090, 0.052345, 
    0.043768, 0.071589, -0.005345, 0.017330, 0.015638, -0.011143, 0.004752, 0.077944, 0.031030, -0.004056, 
    0.063323, 0.046423, 0.001325, -0.000017, 0.008276, 0.025690, 0.025918, -0.004677, -0.067579, -0.071569, 
    0.019036, 0.032584, 0.065319, 0.043796, -0.018079, 0.048086, 0.025790, 0.005220, -0.058369, 0.003179, 
    -0.051008, 0.014251, 0.016586, 0.019148, -0.005649, 0.049639, 0.112020, 0.065434, 0.061923, -0.016619, 
    0.021643, -0.008238, -0.065263, -0.055891, -0.054564, 0.002314, -0.004003, -0.049944, -0.053660, -0.015877, 
    0.082231, 0.038832, 0.097989, 0.077273, 0.030504, -0.027035, -0.012447, 0.058265, -0.029746, -0.061312, 
    -0.023589, 0.062435, 0.056020, 0.064003, 0.096502, 0.062895, 0.067561, -0.045705, -0.002196, 0.010088, 
    0.054240, 0.026054, 0.065238, -0.041920, -0.043491, -0.056781, 0.041345, 0.058482, -0.029150, 0.039965, 
    0.040756, 0.022416, -0.020317, 0.003914, 0.017186, 0.011854, -0.000015, -0.043765, -0.035537, 0.019264, 
    0.073311, 0.046433, -0.015604, 0.072408, 0.049084, -0.012247, 0.018440, 0.028993, 0.017721, 0.020842, 
    0.005866, -0.001230, -0.067459, 0.004655, -0.002575, -0.050158, -0.073699, -0.024195, 0.048155, 0.019265, 
    0.045533, -0.011836, 0.053693, 0.023818, -0.007558, 0.029715, 0.020394, 0.049358, 0.017198, -0.004960, 
    0.013405, -0.014175, -0.054311, 0.020265, 0.078706, 0.019133, 0.093384, 0.053346, 0.089046, 0.003576, 
    0.033031, -0.024207, 0.018019, 0.000690, -0.013398, -0.027237, -0.008436, -0.034442, -0.009045, 0.029823, 
    0.015045, 0.052547, 0.046523, -0.022724, 0.021353, 0.018473, -0.034327, 0.043824, 0.011427, -0.054627, 
    -0.034392, -0.021190, 0.043488, 0.000991, 0.094987, 0.050236, 0.035238, 0.044463, 0.019424, 0.052962, 
    0.028479, -0.039200, -0.043871, 0.035082, 0.022655, 0.085223, 0.057171, -0.004557, 0.053809, -0.036731, 
    0.063924, 0.045744, 0.055105, 0.076961, 0.035406, -0.008357, 0.029486, -0.040246, -0.003353, -0.038848, 
    0.013708, -0.000645, -0.023863, -0.029720, 0.002841, 0.034412, 0.055828, 0.038239, 0.032893, 0.057683, 
    -0.005972, 0.068293, 0.066409, 0.085661, 0.048804, 0.063500, 0.032907, -0.043753, 0.047248, 0.035670, 
    -0.004776, -0.004412, 0.010960, 0.025487, 0.030660, 0.013170, 0.053151, 0.021342, -0.008994, -0.017422, 
    0.007107, 0.020039, 0.007412, -0.006527, -0.013136, 0.019865, 0.035082, 0.070970, 0.047929, -0.020641, 
    -0.024993, -0.034465, 0.018222, 0.022661, 0.069203, -0.005898, 0.034047, 0.016974, 0.037730, 0.023793, 
    0.080809, 0.053316, 0.049385, 0.059451, 0.000485, 0.063187, 0.072039, 0.056670, 0.016439, 0.001880, 
    -0.020782, 0.077235, 0.016190, 0.058388, -0.010952, 0.116369, 0.059090, 0.053960, 0.065871, 0.062169, 
    0.001870, -0.026915, 0.016240, -0.000609, -0.043782, -0.028224, -0.025072, -0.035694, 0.046760, 0.010143, 
    -0.015511, 0.012598, 0.003994, -0.006314, 0.000719, 0.010665, 0.047138, 0.009799, 0.018171, 0.007384, 
    -0.008722, -0.012960, 0.009189, -0.038103, 0.021221, 0.019900, 0.014678, 0.035397, 0.025301, 0.023001, 
    0.038736, -0.025705, -0.009303, -0.044163, 0.002874, 0.043630, -0.001894, 0.017653, -0.008695, 0.031492, 
    0.073642, 0.086403, 0.043839, 0.052751, -0.004000, -0.003699, -0.036081, -0.055350, -0.021336, 0.012276, 
    0.045163, 0.045054, -0.016194, 0.054480, 0.067792, 0.076285, 0.103191, 0.044158, 0.031525, -0.002140, 
    0.003486, -0.024910, 0.014408, -0.047901, -0.010923, 0.031100, 0.033599, 0.021650, 0.042384, 0.002429, 
    0.023813, 0.056010, 0.023302, 0.035872, -0.000442, -0.002911, 0.001567, -0.043142, -0.013318, 0.033970, 
    -0.002671, -0.037853, -0.029095, -0.035090, 0.015589, 0.016100, 0.050764, 0.008012, 0.004416, 0.005584, 
    -0.005849, 0.035491, -0.012258, -0.015808, -0.041495, 0.058924, 0.015894, -0.004461, 0.039364, 0.006819, 
    -0.016735, 0.057226, 0.030435, 0.087194, 0.043223, 0.031912, 0.009010, 0.022623, 0.063689, -0.000103, 
    0.058497, 0.090526, 0.007136, 0.080630, -0.007779, 0.014856, 0.065959, 0.079398, 0.082751, 0.074097, 
    -0.037908, 0.002790, -0.071846, 0.004464, 0.030859, 0.084276, 0.077193, 0.060039, 0.029834, -0.000948, 
    0.018325, 0.049470, 0.019357, 0.089132, 0.023404, -0.011273, 0.111955, 0.021076, 0.008716, 0.048737, 
    0.083695, 0.076217, 0.094822, 0.024062, 0.070466, 0.008369, -0.003745, 0.063103, 0.075598, 0.007179, 
    0.026394, 0.046859, 0.051180, 0.033358, 0.013795, -0.018219, -0.108850, 0.021219, 0.049306, -0.007765, 
    -0.031149, 0.031228, -0.010657, -0.023604, -0.017282, -0.021149, 0.032218, 0.049694, -0.021983, -0.082865, 
    -0.065433, -0.053490, -0.007874, -0.005572, -0.014731, 0.007549, 0.029437, 0.027400, 0.054613, 0.034354, 
    -0.034093, -0.042953, -0.015208, -0.058533, -0.011709, -0.014393, 0.012620, -0.053366, -0.066900, -0.036747, 
    -0.015188, 0.028743, 0.068689, 0.034585, 0.020442, 0.029596, 0.022813, 0.039612, -0.029522, -0.064397, 
    -0.059003, -0.011876, 0.024840, -0.021728, -0.014781, -0.007927, 0.070125, 0.015908, 0.063594, 0.005892, 
    0.068483, 0.025225, -0.000717, -0.009824, -0.064952, -0.040587, -0.081318, -0.055037, -0.013175, -0.045223, 
    0.031834, -0.028986, -0.098982, -0.089649, -0.102632, 0.037662, 0.015417, 0.050142, 0.038462, 0.066463, 
    0.038350, 0.055699, 0.030458, 0.032385, 0.003497, 0.062214, 0.016260, -0.003923, -0.011629, 0.030817, 
    0.084737, 0.058584, 0.071265, -0.015431, 0.018631, -0.049136, -0.002976, 0.010413, -0.012348, -0.033768, 
    0.029832, -0.045403, -0.058346, -0.014754, -0.093259, 0.046021, -0.011977, 0.026117, -0.034733, -0.039088, 
    -0.023233, 0.012767, -0.008370, -0.020853, -0.045798, 0.010983, -0.073458, -0.049903, -0.085721, -0.045104, 
    0.057527, -0.002483, 0.056457, -0.014477, 0.046872, 0.002978, 0.031380, 0.003890, 0.044901, 0.021818, 
    0.085252, 0.028640, 0.096216, 0.017758, 0.033731, 0.011397, 0.022698, 0.035368, 0.037026, 0.080726, 
    0.095450, 0.032401, 0.078526, 0.028884, -0.043997, 0.003971, 0.024184, 0.092284, 0.054117, 0.081771, 
    0.027392, 0.018462, -0.000791, -0.058145, 0.027774, 0.009957, -0.098582, -0.109721, -0.083872, -0.162616, 
    -0.083541, -0.092530, -0.061048, -0.003788, -0.021272, -0.028173, 0.025925, -0.028640, -0.028712, 0.027438, 
    0.005273, -0.018076, -0.062407, -0.044238, 0.009104, -0.059542, -0.045200, -0.120184, -0.088757, -0.080844, 
    -0.032460, -0.007499, -0.072165, 0.017306, 0.017430, 0.006760, -0.015359, 0.008713, 0.089382, 0.122796, 
    0.042212, 0.008808, 0.004900, 0.003394, 0.024499, -0.061566, 0.031083, 0.055446, -0.011978, 0.044621, 
    0.000216, -0.029970, 0.044359, 0.034409, 0.048428, 0.002728, -0.019373, -0.018140, 0.017541, 0.016095, 
    -0.044338, -0.063888, -0.017864, 0.022136, -0.002317, 0.012196, -0.044646, 0.000247, -0.018465, 0.047403, 
    0.013374, 0.002566, -0.001395, -0.016280, 0.019374, -0.015596, -0.019115, 0.023307, -0.002938, 0.011540, 
    -0.035354, 0.012032, -0.022078, -0.004642, -0.003196, -0.072368, -0.072279, 0.010321, 0.029383, -0.034486, 
    0.025834, -0.011343, 0.064260, 0.043036, 0.020767, -0.030553, 0.020086, 0.050170, 0.009412, 0.044994, 
    0.054559, -0.048940, -0.001222, 0.004906, 0.015912, 0.030244, 0.009435, -0.029914, -0.041395, 0.054212, 
    0.029206, 0.075725, 0.015908, 0.003481, 0.071230, 0.018148, 0.028448, 0.081633, 0.041423, 0.082077, 
    0.040382, 0.081832, 0.044251, 0.064602, 0.019121, 0.014893, 0.031652, 0.055640, 0.055467, 0.039904, 
    0.050107, 0.028466, -0.019030, -0.000375, -0.050562, 0.030750, 0.073648, 0.066123, -0.001504, 0.054925, 
    0.031519, 0.061758, -0.005307, -0.056836, -0.038090, 0.020946, 0.039091, 0.000581, 0.062851, 0.046874, 
    0.031604, 0.005590, -0.052684, 0.010605, 0.044159, 0.038401, -0.028963, -0.006482, 0.051646, 0.022784, 
    0.055665, -0.041634, -0.034594, -0.003461, -0.019010, 0.015544, 0.091161, 0.034370, 0.033900, 0.053562, 
    0.059769, 0.095677, 0.023249, 0.072184, 0.007336, 0.022953, 0.092129, 0.044516, 0.037987, 0.068998, 
    0.036749, 0.023528, -0.007122, 0.039474, 0.017361, 0.012801, -0.042754, -0.010646, -0.026964, -0.060610, 
    -0.044796, -0.046712, -0.024110, -0.028646, 0.035229, 0.053650, -0.001451, 0.004340, 0.039304, 0.010228, 
    0.019674, 0.013903, -0.052849, -0.092338, -0.075508, -0.068773, -0.007561, -0.067383, -0.020843, -0.044234, 
    0.024545, 0.007370, -0.024572, -0.004043, 0.026407, -0.014219, 0.029358, 0.040108, -0.031446, 0.020454, 
    0.012086, 0.038625, -0.024418, -0.060469, -0.014573, 0.060657, 0.013723, -0.031488, 0.005502, 0.048309, 
    0.054859, -0.007907, 0.014863, 0.003943, 0.045311, 0.024157, -0.092261, -0.106075, -0.106723, -0.041923, 
    -0.058295, 0.001147, 0.016921, -0.021516, 0.016132, -0.039000, -0.077293, -0.038698, -0.068131, -0.065739, 
    -0.028450, -0.041843, -0.067354, 0.006467, 0.032454, 0.040699, 0.057612, -0.033811, -0.051446, -0.006639, 
    -0.030025, 0.058279, 0.008674, 0.022196, 0.020560, 0.041021, -0.064735, -0.038046, -0.052001, -0.062967, 
    0.023213, -0.044454, -0.053566, 0.009023, 0.005720, -0.024354, -0.044259, -0.034225, -0.033277, -0.014108, 
    -0.043993, -0.024275, -0.055160, -0.089155, -0.067027, 0.008478, 0.038644, 0.111299, 0.088553, 0.090845, 
    0.058784, 0.055413, 0.069556, 0.024463, -0.003326, 0.072246, 0.035386, 0.065086, 0.084753, 0.072217, 
    0.013241, 0.017555, 0.020802, 0.030189, 0.042990, 0.012090, 0.020691, 0.068147, 0.019713, 0.015370, 
    0.080870, 0.033553, 0.017129, 0.069526, 0.013461, 0.038490, 0.104843, 0.071236, 0.045521, 0.115976, 
    0.099388, 0.049861, 0.050123, 0.058698, 0.054691, 0.022823, 0.041768, 0.082023, 0.029998, 0.019236, 
    0.014561, 0.040471, -0.007518, -0.052515, -0.010840, 0.006665, -0.021730, 0.050693, 0.031719, 0.057271, 
    -0.056261, -0.059507, -0.001153, -0.000031, 0.011082, 0.078338, 0.111367, 0.007118, -0.051945, -0.053034, 
    -0.021908, -0.021376, -0.042357, -0.082887, -0.018608, 0.041529, 0.065348, 0.064080, 0.051823, -0.001468, 
    -0.026193, -0.028451, 0.010338, -0.024722, -0.019596, -0.053335, -0.046341, -0.041606, -0.038289, -0.027825, 
    -0.008652, -0.061468, -0.078223, -0.106467, -0.018564, 0.008740, 0.067001, -0.012437, -0.020905, 0.044167, 
    -0.003690, -0.007658, 0.003950, -0.053509, 0.018175, 0.035371, 0.042947, 0.044619, 0.023851, -0.001165, 
    0.011017, 0.050157, -0.023237, -0.002217, 0.064646, 0.035448, 0.105124, 0.057603, -0.029431, 0.061501, 
    -0.022277, 0.001637, 0.076974, 0.041583, 0.001217, -0.029480, -0.002064, 0.019643, -0.046376, -0.007578, 
    -0.003950, 0.029506, -0.009275, 0.013951, -0.001553, -0.004035, 0.019800, 0.036261, -0.035309, 0.029458, 
    -0.019125, 0.034913, -0.041309, -0.002970, -0.002110, -0.013643, 0.034259, -0.022706, -0.008311, -0.028321, 
    -0.014719, 0.002704, 0.022354, 0.005302, -0.001734, 0.015037, 0.039216, 0.035793, -0.013778, 0.009053, 
    0.036415, 0.042010, -0.032581, -0.001668, -0.009281, 0.047776, 0.074558, 0.004951, 0.002310, 0.007033, 
    -0.039891, -0.044489, -0.067097, -0.057517, -0.032023, 0.009807, 0.057520, 0.025566, 0.111029, 0.032405, 
    0.025820, 0.073513, 0.036560, 0.007363, 0.072710, -0.009149, 0.065348, -0.012354, -0.052524, -0.070680, 
    -0.033621, -0.007299, 0.045987, -0.008001, 0.014248, 0.050243, -0.039138, -0.019191, -0.008953, -0.072038, 
    -0.033484, -0.061201, 0.012849, 0.044095, 0.024645, -0.028466, 0.077204, 0.025302, 0.034479, 0.031488, 
    0.047023, 0.038915, -0.006557, -0.018443, 0.039565, 0.003682, 0.003275, -0.021631, 0.002455, 0.020836, 
    0.005804, 0.066520, 0.037212, 0.065250, -0.044027, 0.053046, 0.084537, 0.070881, 0.020548, 0.047753, 
    0.002123, 0.006944, -0.058466, 0.018752, 0.062630, 0.005125, 0.071366, 0.025362, -0.073877, -0.057693, 
    0.011748, 0.072490, 0.059292, 0.047927, 0.013556, -0.053047, 0.025065, 0.055335, 0.016533, 0.044518, 
    0.086199, -0.016293, -0.062882, -0.020552, -0.012092, 0.034131, -0.002418, 0.041323, 0.025225, 0.033113, 
    0.013180, 0.010615, 0.034514, 0.045304, 0.024890, 0.060921, 0.073739, 0.007384, -0.001896, 0.067708, 
    0.049327, 0.022900, 0.059719, -0.006263, 0.007352, -0.024436, -0.023100, 0.019600, 0.055844, 0.019770, 
    0.018686, -0.025548, -0.027763, -0.015440, 0.036763, 0.082674, 0.014345, 0.051992, 0.005512, -0.006548, 
    -0.005606, 0.029900, 0.025437, -0.003574, 0.061138, 0.076040, 0.017301, -0.015558, -0.032323, -0.072631, 
    -0.067168, 0.037960, 0.018538, 0.020971, -0.012049, 0.008309, -0.066222, 0.002337, -0.055011, -0.016480, 
    0.007187, 0.077739, 0.104872, 0.108183, 0.016684, 0.042612, 0.041948, -0.017437, 0.047491, 0.030794, 
    0.027072, 0.054963, 0.025714, -0.007752, -0.009544, 0.028394, -0.022743, -0.083697, -0.055985, -0.020797, 
    -0.063334, -0.008509, -0.019505, 0.004268, -0.024281, -0.038177, -0.003221, 0.003781, -0.035680, -0.006793, 
    0.049405, -0.002402, 0.065820, 0.059184, 0.009960, 0.025024, 0.040962, 0.057128, 0.058258, -0.008630, 
    -0.059996, -0.011634, 0.016212, 0.057091, 0.064383, 0.090090, -0.003769, -0.015069, -0.036224, -0.045197, 
    -0.025157, 0.010705, 0.068440, 0.052396, 0.047813, 0.009097, -0.086275, -0.035547, 0.010432, -0.077373, 
    -0.000330, 0.021421, 0.009622, 0.083446, 0.082610, 0.090011, 0.039410, 0.063732, 0.059105, 0.051097, 
    -0.025201, -0.035004, 0.063281, 0.029717, 0.059670, 0.037394, 0.017457, 0.018444, 0.020975, 0.022907, 
    0.023895, -0.002147, 0.043750, 0.026319, -0.017546, 0.037212, 0.033537, 0.040966, 0.016045, 0.000193, 
    -0.032356, 0.015674, -0.036353, -0.044441, 0.017220, -0.033168, 0.021033, -0.050039, -0.017431, -0.040842, 
    0.015728, -0.056213, -0.013928, -0.016488, -0.028544, 0.084333, 0.064628, 0.003251, -0.015866, 0.054244, 
    0.071889, 0.024405, 0.040353, 0.015082, 0.065405, -0.034862, -0.049057, -0.007783, 0.036004, 0.057531, 
    0.066334, 0.079833, 0.009918, 0.028154, 0.009566, -0.014719, 0.059972, 0.037721, 0.074248, 0.009623, 
    0.001311, 0.028684, 0.065021, 0.019206, 0.039643, 0.054819, 0.029994, 0.026428, 0.066241, 0.016995, 
    -0.039012, -0.044729, -0.027383, -0.017699, -0.015866, -0.048764, -0.010172, -0.039709, 0.027491, 0.008424, 
    0.031495, 0.003884, 0.038099, -0.076177, -0.074225, 0.004605, 0.031836, 0.022702, 0.058972, 0.029305, 
    0.028215, 0.031293, -0.019569, 0.001993, 0.065769, 0.061746, 0.065078, -0.000169, 0.060424, 0.040802, 
    -0.025909, 0.014255, 0.057236, 0.000193, 0.000920, 0.006207, -0.003672, 0.025497, -0.020882, 0.032777, 
    -0.035349, -0.035427, 0.015616, -0.011133, 0.017669, -0.005230, -0.027674, 0.002641, 0.007839, 0.011409, 
    0.017084, -0.023774, -0.000480, -0.017249, -0.008907, 0.015169, 0.032022, 0.066694, 0.058617, 0.052661, 
    -0.009245, -0.029669, 0.026796, -0.014104, 0.011629, 0.014374, -0.010896, -0.032780, -0.027969, -0.000499, 
    -0.050007, -0.010698, -0.040287, -0.049137, -0.034126, -0.016828, 0.034971, 0.017676, -0.058931, -0.053832, 
    0.067687, 0.049340, 0.056011, 0.065166, 0.040701, -0.022084, -0.024235, -0.065690, -0.043970, -0.032596, 
    -0.028039, 0.046653, 0.032358, -0.043511, -0.016807, -0.034620, -0.044010, 0.000951, 0.039079, 0.004069, 
    0.044164, 0.014525, 0.044109, 0.009303, 0.035884, 0.035941, -0.012092, 0.043807, 0.018108, 0.033638, 
    0.038859, 0.015031, -0.018881, 0.005664, 0.037630, -0.004060, 0.033592, 0.034789, -0.009745, -0.026914, 
    -0.039420, -0.022011, 0.052581, 0.062507, -0.015107, -0.069672, -0.027867, 0.021361, 0.018198, 0.056224, 
    0.025693, 0.061579, 0.089707, 0.082951, 0.048678, 0.094971, 0.045461, -0.000628, 0.073379, 0.076343, 
    0.031470, 0.052670, 0.047503, 0.053377, 0.092417, 0.044026, 0.074565, 0.039106, 0.068688, 0.008795, 
    0.007151, 0.034282, 0.056106, 0.060780, 0.027412, 0.026625, -0.025988, -0.004498, -0.009296, -0.011838, 
    -0.053517, -0.007137, -0.037982, 0.003042, -0.030022, -0.047518, 0.014090, 0.049167, 0.069672, 0.064440, 
    0.037035, 0.013451, 0.017550, 0.006452, -0.041822, 0.055205, 0.017900, -0.001452, 0.031841, 0.066433, 
    0.021388, 0.004260, 0.026950, 0.020140, 0.069073, -0.043257, -0.040310, -0.006997, 0.049391, 0.069490, 
    0.049916, 0.054856, 0.001463, 0.019897, 0.020947, 0.000083, 0.023871, 0.018349, 0.034471, 0.020803, 
    -0.018737, -0.015217, -0.001557, 0.029656, -0.065300, -0.034346, 0.010210, 0.021420, 0.097136, -0.038122, 
    -0.003406, 0.014684, -0.018406, -0.046371, 0.014844, -0.012451, 0.027177, 0.036717, 0.050165, -0.007178, 
    -0.025010, -0.013363, -0.053540, -0.000909, 0.009031, 0.045493, -0.016077, 0.007761, -0.043698, 0.004803, 
    -0.023123, -0.041972, -0.000507, 0.115427, 0.047357, 0.009221, 0.087636, 0.137030, 0.053843, 0.143523, 
    0.119085, 0.045914, 0.062818, 0.065434, 0.034893, 0.025550, 0.040832, 0.024045, 0.064715, -0.002597, 
    0.015295, 0.059616, -0.002635, 0.032657, 0.004263, 0.057962, 0.068224, 0.047890, 0.116191, 0.048661, 
    -0.000655, 0.026709, 0.021830, 0.054271, 0.052572, 0.053515, 0.031067, 0.049840, -0.054878, -0.063478, 
    0.012825, 0.047117, 0.049661, 0.044225, 0.076444, -0.021608, -0.045758, -0.028073, 0.041366, 0.060226, 
    0.045172, -0.013385, -0.046000, -0.079807, -0.016674, -0.001763, -0.014031, -0.018176, 0.038666, 0.004217, 
    0.061376, 0.003314, 0.025146, 0.075999, 0.100159, 0.097048, 0.106167, 0.086674, 0.055776, 0.002713, 
    0.080552, 0.022044, 0.058842, 0.045472, -0.010868, -0.024064, -0.031486, 0.056227, 0.069107, 0.046720, 
    0.005550, 0.038471, 0.056942, -0.037794, 0.028544, 0.045130, 0.068243, 0.044787, 0.047076, -0.032409, 
    0.042645, -0.022484, 0.003363, 0.078881, 0.016512, 0.004818, -0.025395, -0.016318, -0.014502, -0.070777, 
    -0.014974, 0.023947, 0.020455, 0.022691, 0.029266, -0.007752, -0.044224, 0.022327, -0.001066, -0.043624, 
    0.024452, 0.012996, 0.076319, 0.087579, -0.004224, 0.006982, -0.025408, 0.015802, -0.009230, 0.009368, 
    0.018552, -0.035782, 0.026531, -0.018652, 0.008093, -0.031170, -0.026974, 0.007806, -0.061886, -0.021115, 
    0.003276, -0.044042, 0.042964, 0.021325, 0.053306, -0.027936, -0.060108, -0.023672, 0.024418, -0.027876, 
    -0.036443, 0.019102, 0.064332, 0.038463, 0.021398, 0.040203, -0.016136, -0.020660, 0.006863, 0.060613, 
    -0.015338, -0.033123, -0.036611, 0.013563, 0.068223, 0.049318, 0.006246, -0.036301, -0.018711, -0.022398, 
    0.032757, 0.068951, 0.049617, 0.071458, 0.052099, -0.022939, -0.038221, -0.049170, -0.008832, -0.028856, 
    -0.024834, -0.033489, 0.032847, 0.019823, 0.114332, 0.038726, -0.023644, -0.053186, -0.043329, -0.039056, 
    -0.072867, 0.040663, 0.051294, 0.087600, 0.008305, 0.007375, 0.055013, 0.074562, 0.048351, 0.056227, 
    0.036183, 0.046034, 0.009994, -0.022276, -0.020570, -0.024972, -0.005980, 0.068947, 0.066177, -0.004661, 
    0.031663, 0.056711, 0.044224, 0.052451, 0.029857, 0.047729, 0.079680, 0.016129, 0.023771, 0.052428, 
    -0.018663, -0.013031, 0.030173, 0.070539, 0.041427, 0.047866, 0.015975, 0.071471, 0.049249, 0.013585, 
    -0.020062, 0.003294, 0.023618, 0.070565, 0.089865, 0.001631, 0.029413, 0.020901, 0.006447, -0.015789, 
    -0.006664, 0.057863, 0.053495, 0.079354, 0.017033, 0.034295, 0.049950, 0.115774, 0.039765, 0.065956, 
    0.007104, 0.064838, -0.008532, 0.028559, 0.073931, 0.109627, 0.104947, 0.055531, 0.031676, 0.033584, 
    -0.026607, 0.068340, 0.054209, 0.065521, -0.057198, -0.031954, -0.048756, 0.000034, 0.025506, 0.070592, 
    0.084666, 0.065514, 0.018433, 0.041875, 0.022488, 0.021931, 0.034510, 0.018774, 0.093754, 0.051280, 
    -0.008745, 0.053603, 0.045787, 0.021436, 0.001119, 0.055925, 0.030330, 0.024881, 0.028103, 0.065908, 
    0.033719, 0.086696, 0.081665, 0.081377, 0.110228, -0.002317, 0.002347, -0.012689, -0.070772, 0.007142, 
    -0.032877, -0.062889, -0.000546, -0.058205, 0.019409, -0.039099, -0.014734, -0.049412, 0.011200, -0.013955, 
    0.044149, 0.019459, -0.027568, -0.012630, 0.006607, -0.064876, -0.055471, 0.005553, 0.014311, -0.007891, 
    0.022098, 0.005665, -0.041849, -0.029648, 0.012908, -0.028080, -0.057432, -0.036933, -0.050842, -0.035829, 
    -0.064065, -0.039308, -0.031782, -0.025473, -0.011127, -0.031069, -0.065118, -0.042166, -0.080526, -0.072829, 
    -0.008973, -0.018386, -0.026099, 0.056174, 0.085177, 0.080742, -0.033283, 0.056791, 0.037579, 0.032066, 
    0.057802, 0.065612, 0.035739, 0.073423, -0.031782, 0.038286, 0.021106, 0.020576, 0.024030, 0.012956, 
    0.047666, 0.096203, 0.061560, 0.068435, 0.049744, 0.042430, 0.037509, 0.015557, 0.020592, -0.005370, 
    0.045571, 0.031043, -0.019834, 0.090643, 0.086742, 0.062929, 0.046564, 0.083796, 0.089922, 0.046924, 
    0.059592, 0.051080, 0.088191, 0.075388, 0.041014, 0.005927, -0.063971, -0.022816, 0.078430, 0.047099, 
    0.090053, 0.052574, 0.040486, 0.073970, 0.046612, 0.047739, -0.005590, -0.023636, 0.013547, 0.065873, 
    -0.038734, -0.034609, 0.015946, 0.074470, 0.121814, 0.095451, 0.093379, 0.037969, 0.063591, 0.005419, 
    -0.018476, -0.073085, 0.069075, 0.022817, 0.071035, 0.019028, -0.012424, -0.022998, 0.074166, 0.106390, 
    0.084142, 0.029134, -0.013834, -0.048950, -0.072808, -0.091422, -0.038131, -0.032396, 0.037548, -0.010070, 
