#ifndef WEIGHTS_H
#define WEIGHTS_H

#include "typedefs.h"

// PyTorch Layer: conv1.weight (Shape: (16, 6, 3))
static const data_t conv1_w[288] = {
0.000502, 0.000968, -0.002389, -0.004306, 0.001771, -0.004059, -0.001519, -0.002830, 0.004137, 0.526273, 
    -0.063221, 0.223071, -0.353816, -0.738171, -0.752099, -0.681375, 0.566403, 0.548115, -0.002100, -0.000093, 
    0.001486, -0.006353, -0.004967, -0.005891, 0.000750, 0.004379, 0.001438, 0.081984, 0.241164, 0.925215, 
    0.091855, 0.610946, -0.308562, 0.490887, 0.229320, 0.657212, 0.002672, 0.000940, 0.001524, -0.001501, 
    -0.004764, -0.003923, -0.002607, 0.004673, 0.006193, -0.461930, -0.777456, 0.080109, 0.055626, 0.424111, 
    -0.094016, -0.138890, -0.779744, 0.578179, -0.001155, -0.001433, -0.002034, 0.002450, 0.005144, 0.004662, 
    0.003147, 0.002250, 0.005564, -0.602180, -1.005079, -0.305832, -0.180211, 0.067405, 0.052058, 0.127276, 
    0.552782, -0.245961, -0.002659, -0.002244, -0.001792, 0.001262, -0.003934, -0.004694, -0.004250, -0.003743, 
    -0.002250, 0.307327, 0.015329, 0.816975, 0.328528, 0.706651, 0.091688, -0.155026, 0.006189, -0.578631, 
    0.001469, -0.001301, -0.002611, 0.005067, 0.001235, -0.003881, 0.004488, 0.004084, -0.002150, -1.006361, 
    -0.360413, -1.111969, -0.198487, 0.207449, 0.204140, -0.277159, 0.004118, 0.509058, 0.001857, -0.000304, 
    0.000738, -0.005627, -0.004984, -0.001755, -0.002314, 0.003649, 0.002294, 0.864234, 0.676762, 0.494590, 
    0.305029, -0.040892, 0.549722, 0.099220, -0.022965, -0.785941, -0.000604, -0.001144, -0.000787, -0.002661, 
    0.001204, 0.003932, -0.002001, 0.006090, -0.002207, -0.629853, 0.098801, 0.549895, -0.677799, -0.481489, 
    -0.499465, 0.078424, 0.248906, 0.507161, 0.002535, -0.000410, -0.001741, 0.003259, 0.004574, 0.001539, 
    -0.004067, -0.003869, -0.000426, -0.169634, -0.052855, -0.427590, -0.287101, -0.413237, -0.401333, -0.870299, 
    -0.942427, -0.889973, -0.002229, -0.002044, -0.000269, 0.003530, 0.003226, 0.002783, 0.003243, -0.002626, 
    -0.003311, 0.439436, 0.545840, 0.583954, 0.370556, 0.391667, -0.448338, -0.284126, -0.525519, 0.547459, 
    -0.001561, -0.001891, 0.001031, -0.006622, -0.006356, -0.003980, 0.003522, 0.005301, 0.006930, -0.178077, 
    0.441603, -0.076746, 0.053507, -0.448436, 0.139657, -0.262033, 0.817613, 0.730258, -0.001577, -0.000906, 
    0.000572, -0.003379, -0.003959, -0.004402, -0.004069, -0.006770, -0.000457, -0.335241, -0.246494, -0.959231, 
    0.152993, 0.507815, 0.485496, -0.569109, -0.879279, -0.248216, 0.001989, 0.001181, -0.001920, -0.003823, 
    -0.000849, -0.004440, -0.006096, -0.001659, -0.006906, -0.074470, -0.251086, -0.301916, -0.221939, 0.638166, 
    0.209926, -0.012798, -0.753856, -0.641088, 0.002465, 0.000249, 0.001937, 0.004326, 0.005075, 0.002960, 
    -0.001992, -0.004404, -0.001556, -0.664223, 0.232583, 0.509521, 0.594626, 0.070527, 0.485142, -0.821163, 
    0.139228, -0.672131, 0.001453, 0.000740, -0.001405, -0.004996, -0.001597, -0.003905, -0.001389, -0.000422, 
    0.000052, 0.002105, -0.404370, -0.457888, 0.535398, 0.166163, 0.505648, 0.328349, -0.512698, -0.710379, 
    0.000489, 0.001144, -0.002465, -0.001784, 0.000824, -0.003875, -0.003254, 0.002444, 0.000100, 0.394381, 
    0.835802, 0.357226, -0.773389, -0.176654, -0.505260, -0.178794, 0.189740, 0.573105
};

// PyTorch Layer: conv1.bias (Shape: (16,))
static const data_t conv1_b[16] = {
-0.466081, -1.273432, -0.182523, -0.450934, 0.533040, -0.233053, 0.128261, -0.315552, 2.500460, 0.381538, 
    -1.626381, 1.346121, 1.353595, 1.384970, 0.696797, -0.479230
};

// PyTorch Layer: conv2.weight (Shape: (32, 16, 3))
static const data_t conv2_w[1536] = {
-0.139806, 0.100468, 0.010460, 0.139983, -0.058477, 0.133027, -0.211958, -0.052001, -0.176993, -0.034897, 
    0.029839, 0.161371, 0.040418, -0.005204, 0.002351, -0.163794, -0.028635, 0.091065, 0.249304, 0.196992, 
    0.105758, 0.014126, -0.069138, -0.061868, -0.130499, -0.033926, 0.047056, 0.205297, 0.197770, 0.070004, 
    0.037663, -0.071559, 0.089223, -0.106241, 0.008091, -0.037817, 0.019742, 0.130720, 0.062808, 0.161284, 
    0.251021, 0.221610, -0.101401, -0.062051, -0.141177, 0.195450, -0.031909, 0.070539, 0.088364, -0.070844, 
    0.058683, 0.076043, 0.066832, 0.032726, -0.014330, -0.110908, -0.172912, -0.020848, -0.017180, 0.150382, 
    0.086009, -0.095253, 0.143856, -0.204463, -0.200676, 0.014469, -0.001732, 0.084951, 0.202289, 0.031337, 
    0.035608, -0.004154, 0.094577, 0.097327, 0.048652, 0.162336, 0.145489, 0.180111, 0.100399, 0.041943, 
    -0.062482, -0.071755, -0.163593, -0.205838, -0.124370, -0.061275, 0.055769, -0.005583, 0.103251, 0.037235, 
    0.037233, -0.117607, -0.073272, 0.177081, 0.197519, 0.008644, 0.098227, -0.054812, 0.036595, -0.091758, 
    0.041360, -0.008244, -0.004928, -0.012321, -0.061885, 0.265932, 0.037406, 0.266346, 0.128489, -0.044541, 
    0.106593, 0.256405, 0.188764, 0.095048, 0.181686, 0.196890, 0.002400, 0.033805, 0.168802, 0.121864, 
    0.096576, -0.101161, -0.070697, -0.017264, 0.125054, 0.130500, 0.033533, 0.065361, 0.131078, -0.125192, 
    -0.127193, -0.142262, 0.029020, 0.004890, -0.004947, 0.074790, 0.051504, -0.002352, -0.084666, -0.055729, 
    -0.174428, 0.164032, 0.051594, 0.086950, -0.137792, 0.129928, -0.071438, -0.058183, 0.143478, -0.026828, 
    0.185785, -0.017610, 0.096378, -0.149036, -0.168178, 0.114824, -0.041210, 0.136691, -0.052751, 0.130476, 
    0.014172, -0.058230, -0.030859, 0.031608, 0.068679, -0.132570, -0.072556, 0.079605, -0.034232, 0.041311, 
    -0.054979, 0.119723, -0.093747, -0.028706, 0.017791, 0.218324, 0.212686, 0.167075, 0.196505, 0.169832, 
    0.143851, 0.110315, 0.136188, 0.116016, 0.116119, 0.198804, 0.057548, 0.256376, 0.138667, 0.046315, 
    0.031544, 0.104285, -0.096264, -0.045361, -0.034412, 0.140540, -0.113921, -0.108073, 0.219401, 0.180517, 
    0.171824, -0.161908, -0.169681, 0.117448, 0.141184, 0.115758, 0.084152, -0.002824, -0.055405, 0.064010, 
    -0.037850, -0.078421, -0.053631, -0.082554, 0.118293, -0.036781, -0.040552, -0.081009, 0.007623, -0.046034, 
    -0.045649, -0.065110, 0.175754, -0.049374, -0.192651, 0.086757, 0.096891, 0.148065, 0.085285, 0.193746, 
    0.249103, 0.000085, 0.097838, -0.055995, 0.139258, 0.215842, 0.266599, 0.115663, 0.012759, 0.053771, 
    0.044014, -0.050288, -0.161753, -0.026308, -0.157901, 0.068861, -0.026233, 0.136477, 0.012929, 0.061262, 
    -0.167501, -0.040336, 0.077670, 0.192928, -0.029101, -0.100822, -0.128589, -0.235298, -0.155468, -0.022493, 
    0.098419, 0.134332, -0.066644, -0.000947, 0.007876, 0.207831, 0.053148, -0.046900, 0.206936, 0.084434, 
    -0.024037, -0.061248, 0.177836, 0.194625, 0.269147, 0.044149, 0.096124, 0.088497, 0.072962, 0.224282, 
    0.124715, -0.029320, 0.000656, 0.125884, -0.091318, -0.201627, -0.134694, 0.009849, 0.236901, 0.182305, 
    0.215289, -0.085563, 0.054671, 0.096890, 0.133398, 0.093291, -0.108502, -0.069378, -0.151467, -0.021905, 
    -0.012893, 0.095449, 0.191883, -0.172283, -0.019391, -0.136369, 0.065710, -0.071252, -0.062709, 0.043760, 
    0.168012, -0.066836, 0.210266, 0.047598, 0.110117, 0.021044, 0.023681, 0.178402, 0.160786, 0.114238, 
    -0.005786, 0.038021, 0.067361, -0.019976, 0.090096, 0.011011, 0.125067, 0.124913, -0.039591, -0.077049, 
    0.029441, 0.082179, -0.143521, 0.186935, 0.194269, 0.161422, -0.074301, -0.020678, -0.070847, -0.103135, 
    0.161096, 0.062500, 0.032177, 0.166364, 0.148224, 0.212310, 0.194767, 0.273939, -0.114232, -0.046825, 
    -0.133296, 0.297021, 0.103792, 0.161257, -0.156930, 0.059773, -0.078126, -0.056191, 0.142684, 0.078862, 
    0.208308, 0.064474, -0.070269, -0.068921, 0.029235, -0.122934, 0.114342, 0.119297, 0.111341, 0.058706, 
    0.061774, -0.078051, -0.024087, -0.023663, 0.006992, -0.022867, 0.179327, 0.066855, -0.039313, -0.005842, 
    -0.016168, -0.027611, 0.032925, -0.024844, -0.022941, 0.122144, 0.099802, -0.011960, -0.118354, -0.137372, 
    0.069638, 0.124947, 0.023842, -0.010032, 0.273601, 0.259913, -0.039107, -0.126605, 0.035019, 0.091847, 
    0.269600, 0.170497, -0.159321, -0.100311, -0.076257, 0.208830, 0.133157, 0.152096, -0.020693, 0.116235, 
    0.041918, -0.000694, 0.161875, -0.027419, 0.022445, -0.020263, 0.020674, -0.017601, 0.117641, -0.118572, 
    0.011639, -0.078383, -0.252231, 0.099603, 0.149393, -0.168377, -0.018763, 0.166531, -0.139198, -0.005250, 
    0.031480, 0.091022, 0.113900, 0.200572, -0.017761, 0.022485, 0.135531, -0.036553, -0.130544, -0.082910, 
    -0.069784, -0.106054, 0.161440, 0.134857, 0.076860, 0.084413, -0.036550, -0.104415, -0.140966, -0.068493, 
    0.180616, 0.091552, 0.058083, 0.020544, 0.085229, 0.013600, -0.043442, 0.096093, 0.088035, 0.092033, 
    0.226205, 0.087558, -0.137758, -0.183486, -0.059314, 0.055892, -0.183572, -0.007221, -0.135748, -0.103457, 
    -0.141881, 0.236677, 0.093567, 0.022798, -0.034884, -0.025809, -0.092505, 0.100032, 0.111135, 0.082919, 
    -0.072202, 0.014078, 0.004681, 0.136060, -0.000795, 0.210337, -0.068875, -0.137258, -0.066722, 0.025079, 
    -0.108129, -0.042537, 0.192235, 0.226387, 0.043884, -0.208782, -0.169898, -0.044971, 0.184374, 0.252235, 
    0.019437, -0.067248, 0.069902, -0.070607, -0.140711, -0.094529, -0.100897, 0.106246, 0.091785, -0.049409, 
    0.157375, 0.115915, 0.168758, -0.150794, 0.029392, -0.078811, -0.089619, 0.161167, 0.036481, 0.008463, 
    0.054316, -0.135822, 0.145900, 0.104373, -0.086161, -0.039585, 0.163377, 0.057761, -0.120169, -0.139829, 
    -0.110050, 0.073961, 0.126870, -0.131031, -0.030937, 0.090201, 0.022466, 0.172681, 0.249157, 0.282891, 
    -0.040524, 0.060347, 0.114547, 0.228298, 0.123651, 0.189001, -0.011549, -0.032084, -0.085185, 0.081620, 
    -0.055747, 0.107981, -0.095406, 0.100946, -0.075126, 0.203949, 0.083582, 0.216957, 0.087808, -0.091827, 
    -0.066837, -0.058252, -0.127883, -0.025811, -0.185123, -0.200556, 0.037624, 0.217752, -0.005680, 0.113247, 
    0.105230, -0.090491, 0.024565, 0.098916, 0.015969, -0.028198, -0.084241, 0.012631, 0.095036, -0.019585, 
    0.094678, 0.147741, 0.130848, 0.239333, 0.123191, 0.198749, 0.170420, 0.107511, 0.115536, 0.072212, 
    0.003034, 0.149917, 0.253502, 0.167425, -0.114656, -0.061119, 0.008017, -0.079243, 0.033350, 0.165018, 
    -0.070753, -0.043818, 0.029294, -0.076962, 0.094775, -0.070165, 0.058498, 0.088879, 0.128262, 0.189613, 
    -0.004298, 0.211061, 0.083673, 0.095573, 0.132377, 0.071637, 0.044819, 0.136349, 0.063991, 0.090394, 
    0.215191, -0.078220, -0.178352, -0.128991, 0.075100, 0.008362, -0.105994, 0.176545, 0.186778, 0.153471, 
    0.316263, 0.185798, 0.264284, -0.086071, -0.138375, -0.142588, -0.064313, -0.070731, -0.029169, -0.048150, 
    -0.090733, -0.209668, 0.103985, -0.049132, -0.081088, 0.179013, 0.027632, 0.101816, 0.022031, -0.099241, 
    -0.102796, -0.155150, 0.012575, 0.010029, 0.258368, 0.191647, 0.077923, -0.046840, 0.122760, -0.024577, 
    0.157513, 0.158712, -0.113941, 0.144281, -0.099307, 0.111596, 0.123220, -0.001843, 0.041354, -0.059967, 
    -0.056605, -0.079914, 0.270241, 0.234816, 0.159460, 0.089139, -0.033989, -0.041886, -0.002026, 0.200709, 
    0.102211, -0.071181, 0.074061, 0.011952, -0.109863, -0.027246, -0.100557, -0.035687, 0.260816, 0.247889, 
    -0.040304, -0.176795, -0.179953, 0.029925, -0.028957, 0.091386, 0.191277, 0.135539, 0.107762, -0.124454, 
    0.016706, -0.009451, 0.187182, 0.089962, 0.261510, 0.045700, -0.008918, 0.148301, 0.044880, 0.036973, 
    0.169499, 0.166287, 0.206838, -0.031315, 0.035758, 0.222391, 0.030970, 0.024308, 0.117144, 0.020360, 
    0.239243, 0.210129, 0.239832, -0.078450, 0.075159, 0.082399, -0.063402, 0.116575, 0.018766, 0.070646, 
    0.139026, 0.097039, -0.128986, -0.183478, -0.209045, 0.131743, -0.041460, -0.208315, 0.091265, -0.104831, 
    0.000489, 0.114639, 0.177683, 0.198541, 0.016913, 0.110211, 0.087424, 0.076765, -0.028493, -0.061579, 
    0.167785, 0.147807, 0.039205, 0.076452, -0.102129, 0.157213, -0.045161, -0.142414, 0.042437, 0.107994, 
    0.038397, 0.187308, 0.132124, -0.124252, -0.095913, -0.001986, 0.254166, 0.147295, 0.186710, -0.074870, 
    -0.049091, 0.013105, 0.161327, 0.113477, -0.044743, -0.033860, 0.096107, -0.117706, -0.055913, 0.070464, 
    -0.036689, -0.090096, -0.026165, 0.087161, -0.015399, 0.041849, 0.090500, -0.009883, -0.025930, -0.018842, 
    0.081344, -0.038706, 0.196278, 0.067127, 0.039026, -0.138320, -0.026320, -0.126288, 0.231447, 0.190920, 
    0.025332, 0.148399, 0.216188, 0.249164, 0.252985, 0.072956, 0.224657, 0.077894, -0.010696, 0.280456, 
    0.247417, -0.005780, 0.050929, 0.080490, 0.107816, 0.014495, 0.068934, -0.066223, -0.146220, 0.112935, 
    0.177943, 0.257401, 0.200251, 0.217295, 0.004799, -0.097806, -0.143668, 0.080309, 0.219244, 0.207123, 
    0.037514, 0.152965, -0.139038, -0.211629, -0.023164, 0.272163, 0.056608, -0.027820, 0.026882, 0.104809, 
    -0.145090, -0.123802, -0.089022, 0.157695, 0.054132, 0.002341, 0.047726, 0.233376, 0.010494, 0.061455, 
    0.085919, -0.057501, -0.016895, 0.254449, -0.046157, 0.160575, 0.178427, 0.182946, 0.198251, 0.230167, 
    0.108505, -0.103097, -0.003215, 0.117063, 0.091965, -0.137920, -0.024463, -0.003539, -0.008715, -0.146348, 
    0.165344, 0.132149, -0.011557, 0.085134, 0.262338, 0.045322, 0.091665, 0.087745, 0.110836, 0.196370, 
    0.191508, 0.204018, 0.020961, 0.133346, 0.104895, 0.134280, -0.101907, -0.042717, 0.103227, 0.003347, 
    0.069546, 0.017805, 0.185575, 0.059844, -0.011541, -0.106244, -0.024509, -0.126345, -0.189846, -0.032293, 
    -0.068679, -0.115845, 0.056726, 0.144208, 0.140502, -0.061712, -0.150898, -0.094645, -0.099701, -0.119623, 
    0.047083, 0.031730, 0.160105, 0.014645, -0.071252, 0.153373, 0.235557, 0.028745, -0.000319, 0.008753, 
    -0.136992, 0.038892, 0.052775, -0.154321, 0.179648, 0.152573, 0.188003, 0.049076, -0.008248, -0.247069, 
    0.146766, 0.116856, 0.171398, 0.099936, -0.075450, 0.163333, -0.097527, 0.007986, 0.088882, 0.119855, 
    0.210129, -0.044819, 0.139052, 0.197010, -0.028436, -0.119361, -0.142303, 0.112423, 0.040834, -0.164344, 
    -0.145491, 0.195225, 0.162470, -0.035434, 0.035804, 0.083727, -0.086031, 0.078243, 0.090467, 0.056404, 
    0.045022, 0.143568, 0.018624, 0.128850, 0.166357, -0.032348, 0.066961, 0.301263, 0.059100, -0.129080, 
    0.047491, 0.118529, 0.092511, 0.245050, 0.215798, 0.137738, 0.132987, 0.094829, -0.023437, -0.021462, 
    -0.084121, -0.044656, 0.036159, -0.070583, 0.039658, 0.045077, -0.129736, 0.168744, 0.038349, 0.145549, 
    0.057933, 0.007878, 0.168469, 0.160863, 0.177135, 0.227308, 0.268813, 0.112885, 0.101116, 0.197998, 
    -0.033375, -0.088241, 0.103355, 0.277029, 0.007935, -0.051283, -0.021971, 0.115087, 0.178247, 0.289338, 
    0.253562, 0.064022, 0.106523, 0.090234, 0.142969, 0.013650, 0.126685, 0.115165, -0.128795, -0.005538, 
    -0.035617, -0.076549, -0.075701, -0.002387, -0.033810, 0.050888, -0.094038, -0.064114, -0.066284, 0.196412, 
    0.240669, 0.129233, 0.099931, -0.017811, 0.021623, -0.005747, 0.095913, -0.005338, 0.258559, 0.145310, 
    0.196202, -0.050628, -0.096302, 0.121530, 0.131740, -0.094401, 0.107318, -0.204541, -0.059484, -0.008956, 
    0.190879, -0.049530, 0.028595, -0.030618, 0.173728, 0.119067, 0.032616, 0.162686, 0.020541, 0.101185, 
    -0.031104, -0.084453, -0.091534, 0.179719, -0.035710, 0.114911, 0.048003, 0.102400, -0.129616, 0.048712, 
    -0.063548, -0.006209, 0.007579, 0.114111, -0.114046, -0.127943, 0.026847, 0.141832, 0.102013, 0.171632, 
    0.081330, 0.007329, 0.236181, 0.052459, -0.019502, -0.008481, -0.135311, -0.160179, 0.063652, -0.161557, 
    -0.066477, -0.143340, -0.151003, -0.031475, 0.003364, 0.077504, 0.177213, -0.124236, -0.022896, 0.053241, 
    -0.071640, 0.099227, 0.124946, -0.049961, 0.052223, 0.089545, -0.113766, 0.001604, 0.105355, -0.010136, 
    0.248066, 0.270089, 0.258506, 0.044290, 0.113485, 0.037386, -0.008310, -0.088189, 0.035980, 0.047700, 
    0.193442, 0.042384, -0.105283, -0.010944, -0.000388, -0.085291, -0.002476, 0.009719, 0.083023, -0.048463, 
    0.180482, -0.079905, -0.079207, 0.000968, 0.233560, 0.201740, 0.174872, 0.002061, 0.073998, 0.101672, 
    0.073387, 0.047185, 0.075206, 0.055676, -0.056874, 0.072714, 0.208377, 0.003053, 0.179097, 0.081076, 
    0.040278, -0.116333, -0.022344, -0.079589, 0.108667, 0.203036, 0.108692, 0.193297, -0.022994, -0.108941, 
    -0.170006, 0.050574, -0.167699, -0.027258, 0.066331, 0.062291, 0.260535, -0.177911, -0.035262, 0.027759, 
    0.161858, 0.168346, 0.026864, 0.088299, -0.050120, 0.026088, -0.140492, -0.004161, -0.057293, 0.120797, 
    0.103569, -0.033202, 0.077392, 0.191324, -0.041581, -0.030423, 0.025868, -0.120617, 0.237640, 0.159416, 
    -0.019628, 0.105647, 0.036236, 0.100146, 0.077292, -0.055721, -0.101440, 0.157006, 0.242867, 0.074671, 
    0.187812, 0.171765, 0.223039, 0.054834, 0.076057, 0.119140, 0.029010, 0.154135, 0.105576, -0.147320, 
    0.089198, -0.061685, 0.049314, -0.121124, -0.032376, 0.054858, -0.202837, -0.230017, -0.047817, 0.048511, 
    -0.010095, 0.192593, 0.208848, 0.205574, 0.082101, -0.030606, 0.036817, 0.167434, 0.161217, 0.139029, 
    0.132075, 0.102297, 0.179388, 0.076975, -0.122952, -0.122310, -0.092785, -0.137536, 0.004094, 0.133385, 
    0.147162, 0.013227, 0.007734, -0.036678, 0.038209, 0.103920, 0.008294, 0.267782, -0.167395, 0.100219, 
    -0.146732, 0.157515, 0.000925, -0.080519, 0.257757, 0.196874, 0.063925, 0.072217, 0.163732, 0.056371, 
    0.150125, 0.029464, 0.150700, 0.249219, 0.209493, 0.118261, 0.183744, 0.096393, 0.123597, -0.133624, 
    -0.097717, -0.091470, 0.093265, 0.020124, 0.112380, 0.165599, -0.010887, -0.049441, 0.046873, 0.121606, 
    0.079447, 0.181887, 0.037495, 0.226022, 0.203508, 0.047456, 0.118244, 0.030966, 0.162207, 0.154993, 
    0.194853, 0.173149, 0.074953, -0.016128, -0.132205, -0.054932, -0.103746, 0.054606, -0.075438, -0.018959, 
    -0.011268, 0.200243, 0.193660, 0.219049, 0.222765, -0.082954, -0.069640, -0.128912, 0.073916, 0.154241, 
    0.061132, 0.124596, -0.001565, -0.016212, 0.187924, 0.034425, 0.204600, -0.065342, -0.092096, 0.091727, 
    -0.038378, 0.096817, 0.097689, -0.052593, 0.167212, -0.095437, 0.068217, 0.192611, 0.237406, 0.101982, 
    0.017630, 0.226224, 0.264653, 0.204246, 0.207880, 0.171527, 0.135002, 0.154168, -0.001694, 0.225761, 
    -0.013802, -0.200572, -0.019917, -0.091958, 0.077233, -0.058329, -0.132839, 0.133215, 0.048212, -0.012041, 
    0.164368, 0.040030, 0.039934, -0.046215, -0.118627, -0.121653, -0.006320, 0.273075, 0.213452, 0.082948, 
    -0.148850, -0.025116, 0.138458, 0.143806, 0.100280, 0.056806, -0.005695, 0.143082, -0.162057, -0.054624, 
    -0.130133, 0.005178, -0.028857, 0.171600, 0.226225, 0.228082, 0.106181, -0.066580, 0.145220, 0.108033, 
    0.123261, 0.151282, 0.227042, 0.052689, -0.047481, 0.008921, -0.086903, -0.082565, 0.023589, 0.125446, 
    0.041546, -0.065639, 0.005765, 0.023693, 0.011570, 0.064262, -0.091063, 0.127465, 0.057193, 0.163681, 
    0.056055, 0.100386, 0.262420, 0.141009, 0.087435, -0.029839, -0.010731, 0.209748, 0.027080, 0.260111, 
    -0.149397, 0.036394, 0.052726, 0.147853, -0.003682, 0.046105, 0.145805, 0.145303, 0.126784, 0.136552, 
    -0.091123, -0.027319, -0.019164, 0.064490, -0.067879, 0.220974, 0.157498, 0.087596, 0.228832, 0.032641, 
    0.073788, -0.073135, 0.152115, 0.162439, 0.057026, 0.003718, 0.130143, -0.172264, -0.073364, -0.189085, 
    0.136487, 0.115111, 0.030419, -0.053127, -0.106388, -0.097189, -0.246170, -0.214885, -0.099808, -0.002928, 
    -0.036354, -0.006193, -0.068052, -0.172270, -0.125642, -0.166813, -0.023945, -0.176865, 0.001919, -0.030783, 
    -0.076736, 0.141517, 0.192551, 0.026474, 0.020676, 0.194632, -0.010214, -0.024831, 0.066165, 0.060965, 
    0.089229, 0.020773, 0.150071, -0.021157, 0.014122, 0.088154, -0.091326, 0.145416, -0.077349, 0.137717, 
    0.195545, 0.191386, -0.159975, -0.103926, 0.031075, 0.131807, 0.047034, 0.015441, 0.042694, -0.139781, 
    -0.076433, 0.188592, 0.100428, 0.226878, 0.270643, 0.075686, 0.276000, -0.008917, 0.143719, 0.125312, 
    0.027704, 0.096652, 0.182305, 0.149565, 0.082017, 0.129328, 0.095354, 0.252016, 0.157349, -0.023464, 
    -0.157225, -0.175065, -0.022383, -0.223634, -0.134001, 0.153225, 0.039429, 0.190390, -0.078606, 0.172901, 
    0.018256, 0.180980, -0.030324, -0.152292, 0.003355, 0.179085, 0.111583, 0.275699, 0.074128, 0.114105, 
    -0.014511, 0.060035, 0.138124, -0.032360, 0.042168, 0.018556
};

// PyTorch Layer: conv2.bias (Shape: (32,))
static const data_t conv2_b[32] = {
0.082371, 0.119863, 0.078387, 0.061733, -0.015287, -0.015676, -0.086189, 0.055946, 0.153889, 0.102957, 
    -0.008052, 0.007166, 0.183249, -0.031128, 0.180704, 0.154976, 0.146545, 0.114842, 0.184629, -0.027019, 
    -0.014174, 0.011781, 0.170855, -0.084432, 0.207004, 0.024861, 0.202950, 0.033486, 0.041258, 0.152515, 
    0.189328, 0.095100
};

// PyTorch Layer: fc1.weight (Shape: (32, 480))
static const data_t fc1_w[15360] = {
-0.040856, -0.044279, -0.008716, 0.005298, -0.023157, -0.042932, -0.029345, -0.029177, 0.011996, -0.022801, 
    -0.011036, -0.034714, 0.017269, -0.001469, 0.014806, 0.027666, -0.025343, -0.003176, -0.020718, 0.011499, 
    0.014575, -0.009653, -0.020188, -0.044579, -0.035376, -0.037358, -0.027028, -0.014680, -0.003186, 0.013716, 
    -0.042276, -0.002747, -0.012165, -0.022841, -0.012464, -0.017571, -0.005934, -0.044129, 0.011043, -0.026022, 
    -0.005666, 0.019220, -0.041024, -0.030668, -0.013968, 0.030919, 0.006794, 0.023320, -0.018714, 0.026518, 
    0.017531, 0.038001, 0.038694, -0.022967, 0.002833, -0.037617, 0.035172, -0.044180, -0.015235, 0.015819, 
    0.034028, 0.037353, 0.010291, -0.047739, -0.036242, 0.033364, 0.015036, 0.000722, -0.021328, 0.000088, 
    0.034607, 0.030459, -0.001341, -0.001977, -0.023676, -0.044021, 0.018759, 0.034263, 0.037906, 0.043883, 
    -0.032258, 0.021977, -0.036870, 0.015662, 0.013554, -0.036570, -0.001427, -0.029927, -0.041496, 0.021459, 
    -0.006854, -0.024419, 0.000778, 0.011736, -0.029638, -0.025643, -0.013396, -0.014038, 0.036007, -0.047063, 
    -0.046330, -0.047495, 0.010864, -0.047422, -0.009928, 0.004868, 0.041810, 0.033800, 0.024008, 0.028986, 
    0.007053, 0.032661, -0.020414, 0.011668, -0.009959, 0.015765, -0.008369, 0.014823, -0.017800, -0.034173, 
    -0.034661, -0.039634, 0.022382, -0.021967, -0.031689, -0.011241, 0.037190, 0.005628, -0.041170, 0.035397, 
    -0.035942, 0.030416, -0.026076, -0.039896, 0.036727, 0.037643, 0.008916, -0.037996, -0.009268, -0.035043, 
    0.038562, -0.005910, 0.028031, 0.007792, 0.027709, 0.011180, -0.015599, -0.014906, 0.042462, 0.037518, 
    0.039715, 0.034790, 0.014591, 0.010802, 0.017582, -0.045358, -0.020565, -0.031450, -0.045892, -0.048023, 
    -0.002066, -0.009693, -0.015241, -0.027163, 0.022078, 0.031101, 0.006260, -0.027097, -0.000208, -0.019285, 
    -0.001568, -0.036389, -0.038407, -0.000860, -0.029916, -0.013126, 0.041345, 0.010254, 0.005362, -0.000292, 
    -0.023171, -0.026150, 0.005154, -0.023760, -0.003452, -0.042063, 0.008294, -0.046213, 0.012462, 0.001341, 
    0.035844, -0.002110, 0.033071, 0.029944, -0.044536, 0.041640, 0.019128, 0.019532, 0.036012, -0.027720, 
    -0.001719, 0.029924, 0.025623, -0.046663, 0.001582, 0.019256, 0.021175, -0.001362, -0.031478, 0.034549, 
    0.034214, -0.005294, -0.038282, 0.004890, -0.013158, -0.010902, -0.027896, -0.042850, -0.036868, -0.023556, 
    -0.043254, -0.002684, -0.038144, 0.024424, 0.040090, -0.018785, 0.015396, 0.005130, -0.011097, -0.014545, 
    -0.011555, -0.002211, 0.011637, -0.045453, 0.007877, -0.033015, -0.024219, 0.010808, -0.022626, 0.022619, 
    -0.006097, 0.019593, -0.046442, 0.031795, -0.024343, -0.007351, -0.005271, -0.034361, -0.006716, 0.038020, 
    0.010187, -0.027596, -0.015473, -0.002147, -0.002616, 0.004428, 0.013505, 0.037643, 0.020427, 0.005642, 
    -0.005720, -0.011588, 0.037794, 0.012018, 0.021811, -0.009588, -0.024452, -0.042384, -0.003596, 0.016490, 
    -0.002570, 0.001012, -0.029783, -0.044002, -0.009546, -0.029523, 0.018013, -0.022080, -0.037532, -0.002187, 
    0.009338, 0.022363, 0.034280, -0.011249, 0.042895, -0.037343, 0.031616, -0.036675, 0.023791, 0.005886, 
    0.028874, -0.019834, -0.014330, -0.035067, -0.037396, 0.038673, -0.006572, 0.026243, -0.048587, 0.030271, 
    0.006543, 0.021489, 0.020377, 0.017322, 0.014205, -0.050163, -0.026745, 0.026027, -0.035659, 0.014084, 
    -0.033065, -0.030322, -0.006855, 0.035525, -0.011840, -0.015093, -0.044241, -0.009459, -0.031716, -0.036329, 
    -0.040945, -0.017354, 0.000239, -0.010069, 0.037352, -0.041414, -0.016649, -0.003969, -0.030627, 0.024645, 
    -0.028701, -0.008840, -0.030176, -0.015314, 0.041107, -0.041095, -0.002441, 0.002417, -0.002379, 0.037172, 
    0.002907, 0.027018, -0.031189, -0.038301, 0.030153, 0.030947, 0.034621, 0.002133, 0.003735, -0.022090, 
    -0.017066, -0.004159, -0.033021, 0.027238, -0.023710, 0.004265, 0.011261, -0.034730, -0.028742, -0.002221, 
    0.038591, -0.022685, 0.029969, -0.016816, 0.022286, 0.003209, 0.024922, 0.030714, -0.005217, 0.008134, 
    -0.008779, 0.020231, -0.016257, 0.025409, 0.040089, -0.022357, 0.033823, -0.029910, -0.038650, 0.033310, 
    -0.029881, 0.012161, 0.032408, 0.015428, -0.015776, 0.034399, 0.028235, -0.024216, 0.038932, 0.023532, 
    0.028091, -0.025019, -0.049397, -0.026301, -0.009223, -0.033283, -0.035822, 0.032565, 0.004461, -0.013277, 
    0.043492, -0.024278, -0.004705, -0.024810, -0.020414, 0.022305, 0.001032, -0.009187, -0.050518, -0.047735, 
    0.000231, -0.005038, 0.013565, 0.002249, -0.022734, 0.007871, 0.023441, -0.037605, -0.012306, -0.025256, 
    0.009094, 0.023666, 0.043112, -0.010645, -0.009923, -0.016077, 0.016122, -0.038979, 0.038198, -0.036568, 
    -0.019574, 0.031040, 0.037080, -0.023660, 0.020479, -0.016021, 0.011560, -0.006289, 0.007904, -0.024306, 
    0.034571, -0.045141, 0.013075, -0.007305, -0.037951, -0.045560, 0.018245, -0.022366, -0.008137, -0.043007, 
    0.038424, -0.030936, -0.001150, -0.017323, -0.032092, -0.027749, -0.026871, 0.021286, 0.020571, 0.027194, 
    -0.022433, 0.012673, 0.032303, 0.015106, -0.006131, -0.007888, 0.007087, -0.018614, -0.026521, 0.017618, 
    0.020186, -0.033862, -0.041407, -0.047581, 0.000271, -0.014991, -0.005879, -0.044139, 0.018220, -0.049055, 
    0.051142, 0.005404, 0.013408, 0.059820, 0.085193, 0.067607, 0.093009, 0.005873, 0.009824, -0.014232, 
    -0.022325, -0.042318, 0.023994, 0.074763, 0.081966, -0.020622, 0.042718, 0.053336, 0.047123, 0.060297, 
    0.068045, 0.034209, 0.016676, -0.039047, 0.006837, 0.032991, 0.065025, 0.031633, 0.041709, 0.126502, 
    0.096461, 0.088259, 0.129183, 0.135202, 0.114275, 0.021206, 0.035868, 0.028464, 0.058937, -0.009211, 
    -0.037641, 0.014276, 0.050585, 0.004503, 0.027503, 0.043415, 0.020738, 0.058681, 0.050555, 0.023915, 
    0.001922, -0.082702, -0.028567, 0.041792, -0.005619, 0.015462, -0.025800, -0.067948, -0.005917, -0.044665, 
    -0.000302, -0.014476, -0.057184, -0.076573, -0.065360, -0.080038, -0.043393, 0.030415, 0.010504, 0.014440, 
    -0.001994, 0.016317, -0.028839, -0.055110, -0.164636, 0.002805, -0.080301, 0.025965, 0.027131, 0.054035, 
    0.042895, 0.006222, 0.008196, 0.006156, 0.049564, 0.065109, 0.019541, 0.004347, 0.011153, -0.038974, 
    -0.000190, 0.021690, 0.013465, 0.006718, 0.046098, 0.040298, 0.070475, 0.010742, 0.010671, 0.012509, 
    0.036241, 0.025461, 0.046493, 0.045421, 0.000172, 0.092584, 0.114563, 0.111379, 0.106264, -0.001221, 
    -0.041072, -0.030692, -0.070038, -0.013121, 0.109151, 0.073616, -0.045455, -0.071977, 0.002757, -0.024485, 
    0.018677, 0.046858, 0.062752, 0.057738, -0.034348, -0.073491, -0.037296, 0.031674, 0.039876, 0.115410, 
    0.086118, 0.009143, -0.035305, 0.006762, -0.082763, 0.014043, 0.030181, 0.034476, 0.009385, 0.063461, 
    0.086135, 0.057432, 0.088635, 0.024531, 0.023662, 0.016918, -0.012642, 0.081018, 0.098615, 0.125478, 
    -0.003836, 0.070619, 0.039691, 0.075679, 0.050939, 0.065857, 0.054699, -0.076030, -0.069555, -0.063208, 
    0.027954, 0.025654, 0.126272, 0.048260, 0.019119, 0.041806, 0.040867, 0.127984, 0.080928, 0.034650, 
    0.055832, 0.030220, -0.056655, 0.030934, 0.075887, -0.034454, -0.066157, 0.034055, 0.003597, 0.081245, 
    0.011636, 0.011521, 0.109009, 0.035110, -0.016016, -0.014266, -0.084444, -0.033307, -0.065252, 0.024886, 
    -0.054472, -0.055751, -0.018069, -0.074272, -0.117455, -0.037850, -0.063820, -0.084595, -0.026435, 0.003914, 
    0.079338, 0.027842, -0.065520, -0.055245, -0.120639, -0.095724, -0.047676, 0.015856, -0.010659, -0.130556, 
    0.086455, 0.078490, 0.055883, -0.033032, -0.054153, -0.059387, 0.037900, -0.009611, 0.030533, 0.006914, 
    0.042174, 0.037195, -0.000537, 0.000503, -0.041359, -0.015514, -0.002167, 0.086483, 0.089970, 0.060706, 
    0.064540, 0.048757, 0.021318, 0.032442, 0.065306, 0.054236, 0.020555, -0.038992, -0.045112, -0.003839, 
    0.023273, 0.018774, 0.031925, -0.014468, 0.010089, 0.000781, -0.002756, -0.008420, 0.050886, 0.007704, 
    0.043751, 0.058451, 0.041213, -0.009271, -0.005259, -0.018158, 0.007422, 0.022986, 0.023927, 0.078382, 
    0.025548, 0.005955, -0.034426, -0.097066, -0.079374, -0.052636, -0.000496, 0.016559, 0.022362, -0.062382, 
    0.051385, 0.002059, 0.089566, 0.085188, 0.021001, -0.007390, 0.006066, 0.066223, 0.056541, 0.072237, 
    0.058597, -0.010338, 0.045439, 0.084928, 0.047880, 0.018638, 0.000592, 0.027489, 0.027304, 0.097679, 
    0.047140, 0.032662, -0.011206, 0.024489, 0.032675, -0.018072, -0.006603, 0.002724, 0.037388, 0.100304, 
    0.045189, 0.058290, 0.021118, 0.034180, -0.016473, -0.014661, 0.006964, -0.001670, -0.017323, 0.058484, 
    0.073158, -0.017001, 0.008680, -0.052126, -0.060955, -0.030134, 0.017579, 0.059138, 0.022847, 0.061838, 
    0.037984, -0.054566, -0.054767, 0.033041, -0.014070, 0.048087, 0.013894, -0.040913, -0.066709, -0.040639, 
    -0.024563, -0.007273, 0.027630, -0.024550, 0.001585, 0.045267, 0.018916, 0.074257, 0.101346, 0.102666, 
    0.112831, 0.003467, -0.012351, 0.048492, -0.013835, 0.020093, 0.001439, 0.049550, -0.045346, -0.048140, 
    -0.050511, -0.042081, -0.054882, -0.015986, 0.026490, -0.027793, 0.047592, -0.007997, -0.058011, -0.083432, 
    -0.051027, 0.007507, 0.037809, 0.095098, 0.068916, 0.110629, 0.050666, -0.060450, -0.072415, -0.045044, 
    -0.019368, 0.001647, 0.073806, 0.080237, 0.011583, -0.048777, 0.025304, 0.003696, 0.051012, 0.097781, 
    0.096482, 0.035853, 0.011114, -0.035798, -0.026616, 0.036935, 0.042460, 0.062371, 0.036776, 0.040223, 
    0.040868, 0.004657, 0.075953, 0.019872, -0.062199, -0.029894, 0.003354, -0.029318, -0.024703, 0.066450, 
    0.004215, -0.044812, 0.002791, -0.015196, -0.020387, 0.005077, 0.012398, 0.027461, -0.009830, -0.007627, 
    -0.008183, 0.020654, 0.002234, 0.003100, 0.030876, -0.000031, 0.017248, -0.059130, 0.013996, -0.071333, 
    0.025815, 0.036141, 0.012526, 0.019381, 0.025977, 0.092341, 0.028118, -0.038474, -0.023926, -0.041392, 
    -0.067481, -0.039597, 0.029542, 0.025557, -0.069166, 0.090248, 0.089049, 0.017319, 0.023677, -0.025025, 
    -0.040362, -0.009550, 0.019849, 0.046503, 0.058633, 0.094775, 0.068113, -0.040485, -0.003672, 0.009290, 
    -0.020424, -0.093583, -0.038177, -0.044239, 0.097979, 0.133178, 0.092079, 0.126309, 0.063763, 0.072268, 
    0.022913, 0.080230, 0.042982, 0.016142, 0.064888, 0.083956, 0.041109, 0.118531, 0.094369, 0.053917, 
    0.056124, 0.014008, -0.052727, -0.079446, -0.048090, -0.066698, 0.052490, 0.068667, 0.083456, -0.053321, 
    -0.007949, 0.058431, 0.054063, 0.030612, 0.000773, 0.065107, 0.041108, 0.020849, 0.014932, -0.040631, 
    -0.062733, -0.056335, -0.055606, -0.054042, 0.007664, -0.033543, 0.008988, 0.000974, -0.050490, -0.004857, 
    0.083529, 0.014340, -0.004059, -0.005160, -0.036411, -0.004969, -0.044635, -0.068817, -0.023386, -0.047370, 
    -0.003987, -0.024327, 0.004422, -0.022258, 0.024161, -0.002215, -0.009215, -0.030754, 0.002306, 0.042633, 
    -0.009298, -0.059368, -0.027442, -0.022935, 0.039253, 0.032450, 0.019856, -0.020928, 0.042297, 0.020455, 
    0.023325, 0.022970, 0.034321, 0.017831, 0.029217, 0.057292, 0.058905, 0.035636, 0.025179, 0.068566, 
    0.092904, 0.073757, 0.031094, 0.008072, 0.061258, 0.020522, 0.047873, 0.052497, -0.101330, -0.031031, 
    -0.014206, 0.033066, 0.054445, 0.011336, 0.010685, 0.004735, -0.002573, 0.048897, 0.061760, 0.003822, 
    0.014636, 0.113488, 0.097439, 0.015258, -0.000797, 0.018671, 0.033215, 0.074356, 0.108905, 0.021769, 
    -0.048490, 0.047957, 0.089176, 0.050813, 0.066179, 0.038668, 0.068189, 0.067006, -0.033628, 0.030486, 
    0.098626, 0.087566, 0.067500, 0.051108, 0.126398, -0.057691, -0.127163, -0.091498, -0.063974, 0.010922, 
    -0.099083, -0.132259, -0.095646, -0.065777, 0.128168, 0.156845, 0.114061, 0.031427, 0.004883, -0.036335, 
    -0.070041, -0.030139, -0.073522, -0.035744, 0.012887, -0.058259, -0.087787, -0.113165, -0.073614, -0.073206, 
    0.017787, 0.028178, 0.034522, -0.044390, -0.072361, -0.039606, -0.000772, 0.017425, 0.013092, -0.087941, 
    0.033246, 0.039031, 0.056207, 0.059538, -0.036727, -0.075027, -0.079024, -0.107981, -0.065449, -0.022964, 
    0.138587, 0.047961, 0.029314, 0.041522, 0.034818, 0.054428, 0.045939, 0.064093, 0.021742, 0.029144, 
    0.008639, 0.052674, -0.052859, 0.046090, 0.016244, -0.083252, -0.055101, -0.093628, -0.080262, -0.126272, 
    -0.075664, -0.077284, -0.107579, -0.072312, -0.046190, -0.008798, 0.001699, -0.075303, -0.147834, -0.058920, 
    -0.031381, -0.034284, -0.030794, 0.033946, 0.020995, -0.047450, -0.044831, -0.058661, -0.028581, 0.006885, 
    0.040957, 0.032089, -0.000687, 0.048872, -0.003247, 0.068766, 0.120582, 0.070633, 0.097752, 0.029902, 
    0.018781, -0.000155, 0.001106, -0.026544, 0.052867, 0.142372, 0.044751, 0.032913, 0.039078, 0.064946, 
    -0.076368, -0.079148, -0.040515, 0.071288, 0.066318, 0.017934, 0.044831, 0.003378, -0.001787, 0.085226, 
    0.113121, 0.096449, 0.108340, 0.042187, -0.027457, 0.010350, -0.035754, -0.011051, 0.026241, 0.085506, 
    0.060773, 0.028354, 0.006326, -0.030908, 0.024960, 0.049758, 0.028490, 0.020146, 0.032645, -0.015983, 
    -0.025357, 0.006507, -0.010178, -0.002661, 0.061607, -0.008994, -0.017714, -0.006687, -0.021368, 0.058893, 
    0.012743, 0.004236, 0.077772, 0.057335, 0.052343, 0.055042, 0.058826, 0.040021, 0.005527, 0.071767, 
    0.014618, -0.020753, 0.033834, -0.010407, -0.006774, 0.053275, 0.019966, 0.033103, -0.012984, 0.020290, 
    -0.031008, -0.076223, -0.051821, -0.082221, -0.076706, -0.057898, -0.104735, -0.090306, -0.024758, -0.043520, 
    -0.046722, -0.043072, -0.024118, -0.006023, -0.015786, 0.025181, -0.004812, -0.003717, 0.022567, 0.092521, 
    0.064919, 0.017474, 0.048200, -0.016353, -0.003793, 0.059336, 0.006628, 0.015063, 0.000385, -0.009627, 
    0.034482, -0.034227, -0.031280, 0.044471, 0.046832, 0.012286, 0.036588, 0.024779, -0.050420, -0.041887, 
    -0.013290, 0.083758, 0.005477, 0.056894, 0.029260, 0.090352, 0.117033, 0.083068, 0.108331, 0.072907, 
    0.054781, 0.018389, -0.044784, -0.032631, 0.048622, 0.085617, 0.065270, 0.035972, 0.092217, 0.014359, 
    -0.080981, -0.052563, -0.069591, 0.036616, 0.033887, -0.051108, -0.050366, -0.041512, -0.017936, -0.102326, 
    -0.074454, 0.052897, 0.130745, 0.114548, 0.029633, 0.025520, -0.017762, -0.008587, -0.002374, 0.039632, 
    0.022630, -0.038671, -0.045120, 0.007825, 0.126653, 0.132719, 0.146317, 0.054609, 0.013425, 0.016915, 
    0.019164, 0.052501, 0.051216, 0.063508, 0.064798, 0.072930, 0.081396, 0.048428, -0.034241, 0.003128, 
    -0.018220, 0.001646, -0.022211, 0.025785, 0.069793, 0.027940, 0.050740, 0.005963, 0.090715, 0.101164, 
    0.080207, 0.006082, -0.009662, -0.012310, 0.038518, 0.045293, 0.093494, 0.024318, 0.046981, 0.010928, 
    -0.013088, -0.027497, 0.030794, -0.064715, -0.022077, -0.061408, -0.052527, 0.030047, -0.027285, 0.019906, 
    0.024849, 0.070507, 0.073554, 0.021965, 0.016606, 0.059930, 0.071601, 0.057533, 0.004676, 0.000361, 
    -0.029324, -0.019083, -0.017842, 0.066326, 0.075340, 0.078357, 0.068159, 0.074402, 0.061508, 0.085922, 
    0.098457, 0.119688, 0.066485, -0.006731, 0.109500, 0.051951, 0.067872, -0.005436, 0.019681, 0.037057, 
    0.002682, 0.077506, 0.036217, 0.113589, 0.138313, -0.030422, -0.014748, -0.004037, -0.050306, -0.056767, 
    -0.032888, -0.119341, -0.100676, -0.068858, 0.022709, 0.029901, 0.054862, 0.011956, 0.021743, 0.025125, 
    -0.073656, -0.151136, -0.070207, 0.071628, 0.114582, 0.091033, 0.111689, 0.039445, 0.023419, 0.043438, 
    0.021639, 0.027110, -0.028787, 0.036797, -0.099027, 0.074921, 0.043250, -0.019500, -0.060398, -0.041509, 
    0.009934, 0.014100, 0.014693, 0.014826, 0.038589, -0.016903, -0.013139, -0.051555, -0.041206, 0.056565, 
    0.111176, 0.089164, 0.059553, 0.007292, -0.018608, -0.037786, -0.028469, 0.034088, -0.006891, 0.057867, 
    0.061869, 0.019658, -0.071480, -0.098565, -0.093007, 0.016704, 0.048015, 0.017872, -0.011305, -0.048741, 
    -0.023834, 0.019564, 0.009773, 0.046358, 0.018976, 0.025535, 0.007725, 0.053519, -0.013748, -0.018536, 
    0.091981, 0.048529, 0.020123, -0.008337, -0.000513, -0.034747, 0.001268, 0.001437, -0.012411, -0.050283, 
    0.012764, -0.009285, 0.034191, -0.031612, 0.032623, 0.051197, -0.022406, -0.051455, 0.003251, -0.032668, 
    0.049509, 0.108290, 0.052419, 0.020854, -0.062216, -0.098542, -0.099142, -0.076539, 0.009464, -0.002723, 
    0.038181, 0.066699, 0.003856, 0.020621, 0.205921, 0.114950, 0.125510, 0.013565, 0.006019, -0.059697, 
    -0.136044, -0.110837, -0.026300, 0.098323, 0.161854, 0.038913, 0.092402, 0.042853, 0.010704, 0.042311, 
    -0.088529, 0.086217, 0.011786, 0.005889, -0.083810, -0.165605, -0.191290, -0.129748, -0.127683, 0.042509, 
    0.028767, 0.022672, 0.051184, 0.027050, 0.029180, 0.061816, 0.086884, 0.024652, 0.028898, 0.006570, 
    -0.060737, -0.049573, 0.035552, 0.049530, 0.077109, 0.039439, 0.004146, -0.016841, 0.019607, -0.013311, 
    0.000010, 0.001266, -0.000952, 0.008319, -0.016310, 0.004409, -0.012658, 0.094282, 0.160812, 0.089685, 
    0.013742, 0.078038, 0.026474, 0.008052, 0.013969, 0.025045, 0.002903, 0.047889, 0.009858, 0.002467, 
    0.044962, 0.058006, 0.176112, 0.154630, 0.134632, 0.072393, -0.001935, 0.048030, 0.080305, -0.015061, 
    0.023445, 0.019583, 0.040396, 0.015527, 0.014785, 0.101862, 0.034399, 0.013999, -0.060156, -0.030327, 
    -0.007384, -0.030716, -0.061740, -0.086342, -0.118580, -0.041137, 0.023606, 0.034991, 0.058111, 0.025590, 
    0.024032, -0.023422, -0.091457, -0.143365, -0.093663, 0.041249, 0.003238, -0.015320, 0.016530, -0.053941, 
    -0.022770, -0.011492, -0.033026, 0.018852, 0.034373, -0.023343, 0.061781, 0.025833, -0.021984, -0.002348, 
    0.062794, 0.011894, 0.023626, 0.003045, 0.046874, 0.026261, 0.028160, 0.019698, 0.038165, 0.000069, 
    -0.022048, -0.080211, -0.025019, 0.065668, 0.074121, -0.006660, 0.008390, 0.064005, -0.022521, -0.074223, 
    -0.016626, 0.010849, 0.061407, 0.112594, 0.070410, 0.027542, -0.083013, -0.011639, 0.017556, 0.065913, 
    0.074916, 0.074696, 0.015766, 0.037169, 0.078914, 0.030056, 0.109159, 0.029130, -0.018330, -0.003228, 
    -0.051219, -0.030074, 0.071735, 0.167746, 0.137070, 0.032095, 0.046794, 0.066231, -0.015720, -0.036802, 
    0.003111, 0.047606, 0.057284, 0.055240, 0.033198, -0.022186, 0.104458, 0.137502, 0.120333, 0.095718, 
    0.047123, 0.066617, 0.026725, 0.053882, -0.007231, 0.064839, 0.045628, 0.041154, -0.003643, -0.032586, 
    -0.062406, -0.088054, -0.015349, 0.048208, 0.117692, 0.102298, 0.077284, 0.022932, -0.067746, -0.048895, 
    0.061998, 0.035776, 0.115405, 0.070725, 0.056711, 0.003046, -0.059277, -0.119825, -0.128824, -0.041206, 
    -0.000071, 0.036771, 0.012596, 0.049533, -0.008709, -0.064138, -0.093864, -0.072101, -0.035014, -0.015581, 
    0.004022, 0.050004, 0.010705, -0.043884, -0.040487, 0.033429, -0.007003, -0.003882, -0.008389, -0.034316, 
    0.020654, 0.048941, 0.053820, 0.078147, 0.032387, -0.008234, -0.017533, -0.017972, -0.002525, -0.077611, 
    -0.030620, 0.025543, -0.026028, -0.098711, 0.029795, 0.043627, 0.126682, 0.096524, -0.011561, 0.009468, 
    -0.033212, -0.091454, -0.057521, -0.055544, -0.024247, 0.064625, 0.015602, -0.005665, -0.094747, -0.031660, 
    0.052936, 0.083016, 0.033331, 0.010239, 0.019477, -0.021885, 0.000863, 0.114214, 0.173831, 0.244523, 
    0.090094, 0.078283, 0.106793, 0.088790, 0.000104, 0.019119, 0.043228, -0.022081, -0.013750, 0.008768, 
    0.055256, 0.060405, 0.099300, 0.191003, 0.192342, 0.018619, 0.044636, 0.000935, 0.000741, -0.059801, 
    0.005616, 0.094386, 0.071962, 0.010246, 0.000108, -0.070101, -0.096603, 0.034004, 0.042490, 0.112764, 
    0.023315, 0.084767, 0.015185, -0.005542, -0.089229, 0.023735, 0.081461, 0.038308, 0.035571, 0.023667, 
    0.055644, 0.025371, -0.049330, -0.033466, -0.035165, 0.041777, 0.056375, 0.008414, 0.014367, -0.032859, 
    0.045784, 0.091278, 0.033686, 0.052950, 0.015983, 0.079002, 0.083927, 0.060520, 0.061803, 0.052644, 
    0.055182, 0.046795, 0.057613, 0.023821, 0.045051, 0.018019, 0.029994, 0.000132, 0.037109, -0.069142, 
    -0.078912, -0.068950, -0.089089, -0.015218, -0.021998, -0.013618, 0.082356, 0.066821, -0.028467, 0.005005, 
    0.052907, 0.060991, 0.060221, -0.014753, -0.054896, -0.092559, -0.142390, -0.090426, -0.069302, -0.082025, 
    -0.045391, 0.039719, -0.073947, -0.051398, -0.121240, 0.008143, 0.007549, 0.102486, 0.031701, 0.074779, 
    -0.002686, -0.053136, -0.069230, -0.084711, -0.066240, 0.033400, 0.045240, 0.019277, 0.006255, 0.035673, 
    -0.012071, -0.034372, 0.029894, -0.003727, -0.055512, -0.022499, -0.087044, 0.030818, 0.093368, 0.107879, 
    -0.000081, 0.116928, 0.114203, 0.069997, 0.030793, 0.055250, 0.029485, 0.007960, 0.063360, 0.080614, 
    0.065756, 0.048363, 0.134286, 0.158024, 0.147640, 0.089858, -0.004644, -0.030593, -0.081582, -0.095403, 
    -0.024877, 0.083776, 0.045138, 0.079994, -0.016613, 0.012980, -0.071012, -0.117451, -0.143650, -0.139675, 
    0.014180, -0.011948, -0.044108, 0.018145, -0.019069, -0.015825, 0.002552, -0.000008, -0.046446, -0.011489, 
    0.004147, 0.015194, 0.031950, 0.043218, -0.022929, -0.039025, 0.029893, 0.033032, 0.029234, -0.040512, 
    -0.036613, 0.029147, -0.041395, -0.011768, -0.002662, 0.029011, -0.003012, -0.043673, -0.021075, 0.030328, 
    -0.029689, -0.016515, 0.000775, 0.003561, 0.027965, 0.019560, -0.015932, 0.029535, -0.047224, 0.031338, 
    0.010874, 0.001736, -0.027838, 0.031300, 0.036835, -0.049481, 0.028279, -0.037340, -0.022432, -0.032953, 
    -0.046494, 0.022067, -0.029299, -0.045158, -0.003609, -0.002797, -0.042677, 0.015855, 0.009943, -0.021799, 
    0.032616, -0.016804, 0.034748, 0.029213, 0.033519, 0.019289, 0.023450, -0.028119, 0.033601, -0.002543, 
    0.000369, -0.036384, 0.003490, 0.023212, -0.034048, 0.041037, 0.013067, -0.016230, -0.040285, 0.002438, 
    -0.028562, 0.041316, 0.027516, 0.027021, -0.028603, -0.038949, -0.021669, 0.012684, -0.002627, -0.040206, 
    -0.012729, -0.013962, -0.045059, 0.027698, -0.045792, -0.007835, 0.009808, -0.005248, -0.031607, 0.046763, 
    0.004314, -0.017798, 0.003949, 0.036967, -0.013702, 0.014328, -0.000158, 0.023161, 0.035401, 0.047887, 
    0.033155, 0.010227, -0.031171, -0.000187, -0.048421, 0.001198, -0.021367, 0.018268, 0.002927, -0.003618, 
    -0.006434, -0.012709, -0.020152, -0.040442, -0.035690, 0.017036, -0.034208, -0.001150, -0.006917, -0.031110, 
    0.015987, 0.027741, -0.044412, -0.008463, -0.018879, -0.027263, -0.039494, -0.001221, 0.016838, 0.015148, 
    -0.013630, -0.035373, -0.033442, -0.032973, 0.005561, 0.014223, 0.025322, 0.017471, 0.000953, 0.001688, 
    -0.043100, -0.018432, -0.011953, -0.049361, -0.006185, 0.015413, -0.000083, 0.021654, 0.018078, 0.006935, 
    -0.035712, -0.034039, -0.024471, -0.029886, -0.003458, -0.005632, 0.016166, -0.029617, 0.014587, 0.032178, 
    -0.028231, -0.036507, 0.006785, 0.039732, -0.020365, -0.016706, 0.042118, 0.040084, 0.038733, 0.044145, 
    -0.013369, -0.007622, 0.021084, 0.029785, 0.018238, -0.025344, -0.017932, 0.012614, 0.022295, -0.023925, 
    -0.044761, 0.022414, 0.036209, -0.031189, -0.011229, -0.039657, 0.037428, -0.023773, -0.026072, 0.031641, 
    -0.008957, 0.018883, 0.027109, -0.040736, -0.046147, 0.010579, -0.009246, -0.002560, 0.006789, -0.029997, 
    -0.046200, 0.020827, 0.040220, 0.028681, 0.018641, -0.003319, -0.019149, 0.033685, -0.024310, -0.021391, 
    -0.032074, 0.002503, 0.021864, 0.034681, -0.010041, 0.014169, 0.021779, 0.006315, -0.005266, -0.049058, 
    -0.003732, -0.044545, -0.049275, -0.000405, 0.035253, -0.031702, -0.027666, 0.021536, -0.006724, 0.024670, 
    0.033589, -0.031141, 0.030251, 0.011541, -0.023983, -0.047301, -0.032863, -0.043859, -0.014452, 0.018864, 
    0.012578, -0.028842, -0.038702, -0.027329, -0.029773, 0.038165, -0.031988, -0.030986, -0.005415, -0.048735, 
    -0.015885, -0.032137, 0.014909, -0.048485, -0.007322, -0.002476, -0.023151, 0.017432, 0.030297, -0.011389, 
    -0.033974, 0.036383, -0.036273, -0.007851, 0.037339, -0.049415, -0.036670, -0.017782, 0.040017, -0.039746, 
    0.039338, -0.024935, -0.002340, 0.019994, -0.026637, 0.043658, -0.035464, -0.022367, -0.008999, -0.011433, 
    0.000262, -0.041428, -0.033062, -0.045836, -0.035032, -0.034264, 0.032369, -0.021259, 0.005340, -0.033880, 
    -0.027053, 0.005778, 0.038051, 0.010446, -0.013481, -0.032107, -0.021696, -0.005424, -0.030498, 0.050643, 
    -0.026610, -0.006583, -0.035250, -0.012105, -0.009049, 0.030802, 0.005527, 0.024860, -0.027792, 0.023652, 
    -0.028511, -0.035761, 0.031664, -0.045159, 0.037507, 0.035597, -0.041709, 0.023841, -0.018549, 0.017560, 
    -0.046965, -0.028868, -0.029268, -0.040498, 0.030061, -0.025698, -0.025338, -0.025153, -0.041935, -0.002070, 
    0.006921, -0.048580, 0.028988, -0.006469, 0.016126, -0.035824, 0.021306, 0.028923, 0.001706, 0.025501, 
    -0.009254, -0.013860, -0.010296, -0.015026, 0.024136, 0.031034, -0.034460, -0.048974, 0.035151, 0.017235, 
    0.037238, 0.039885, 0.005484, 0.008740, 0.021803, 0.041997, 0.009287, -0.008140, 0.007057, 0.028095, 
    -0.015445, -0.027334, 0.002911, -0.043159, -0.022406, 0.018055, 0.035060, 0.022692, -0.002422, 0.007941, 
    -0.003657, -0.034850, 0.031914, 0.036562, 0.031925, 0.021125, -0.052448, -0.039931, 0.039956, 0.029645, 
    0.000492, -0.001573, -0.023345, 0.025765, -0.045782, -0.031326, -0.010274, 0.015283, -0.013797, 0.035136, 
    0.009860, -0.027950, -0.048402, -0.015072, 0.034583, -0.011149, 0.031997, -0.047854, -0.015715, 0.011817, 
    -0.001876, 0.020545, 0.013531, 0.018528, 0.036167, 0.014589, -0.035737, 0.011543, -0.024069, 0.002526, 
    -0.022084, 0.030261, 0.009325, -0.033360, -0.036280, -0.001612, 0.022525, -0.016744, 0.014848, -0.042657, 
    0.003082, 0.014954, 0.034579, -0.006658, 0.040247, 0.029974, -0.010474, -0.048674, 0.027274, 0.000768, 
    0.023430, -0.002151, -0.036972, 0.012724, 0.028250, -0.048299, -0.024407, 0.010483, 0.021401, -0.026844, 
    0.024727, 0.013354, 0.027893, -0.045995, 0.018590, -0.020460, 0.000868, -0.030716, -0.008926, 0.001689, 
    -0.002553, 0.011586, 0.029053, -0.020581, -0.016582, -0.028259, -0.023819, -0.012574, -0.033027, 0.042075, 
    -0.006494, -0.030571, 0.012506, 0.009980, 0.033079, 0.033887, -0.039685, 0.025780, -0.013265, -0.014562, 
    -0.029572, 0.020163, 0.044881, 0.031320, 0.002984, -0.059605, 0.011865, -0.018378, 0.043089, 0.056804, 
    0.002011, -0.029682, -0.057975, -0.042184, -0.105735, -0.031503, -0.030701, -0.007046, -0.057654, -0.043629, 
    -0.061920, -0.002258, 0.060503, 0.015585, 0.012323, -0.041309, -0.058105, -0.029677, -0.114399, -0.105509, 
    -0.007261, -0.113276, -0.075535, -0.106859, -0.052107, -0.000922, -0.042282, -0.020276, -0.055332, -0.043697, 
    -0.055371, 0.002336, -0.010098, -0.033573, -0.089733, 0.084563, 0.065456, 0.044259, 0.108852, 0.119089, 
    0.155742, 0.076856, 0.036658, 0.036970, -0.007000, 0.016480, -0.013248, -0.011447, 0.112917, 0.129269, 
    0.067071, 0.054012, 0.150058, 0.156418, 0.113199, 0.129574, 0.195691, 0.138062, -0.062207, -0.051370, 
    -0.049728, 0.004357, 0.000537, 0.125648, 0.207821, -0.014666, 0.050121, 0.095479, 0.085481, 0.029577, 
    -0.022796, 0.170286, 0.082197, 0.081969, -0.109551, -0.097055, -0.024482, 0.004716, 0.067114, 0.145554, 
    -0.013364, 0.006397, 0.084659, 0.030909, 0.024480, -0.003869, 0.082835, 0.009786, 0.042332, -0.029626, 
    -0.017389, 0.036375, 0.040280, 0.047299, 0.038239, 0.010815, -0.095669, -0.089885, -0.068467, 0.036284, 
    0.063610, -0.043855, -0.005845, -0.014361, -0.073979, -0.026866, 0.077233, 0.209787, 0.109991, 0.157780, 
    -0.102495, -0.087780, -0.106929, -0.107273, 0.023466, -0.003939, 0.013556, -0.060792, -0.054048, -0.059274, 
    -0.042767, 0.106809, 0.095726, 0.046899, 0.167048, -0.057212, -0.099281, -0.007732, -0.066750, -0.065306, 
    -0.107649, -0.024086, -0.046353, 0.003715, 0.059575, 0.019575, -0.044206, -0.103626, -0.084902, -0.079111, 
    0.088124, 0.065275, -0.008040, 0.052338, 0.072728, 0.101859, -0.000759, 0.060575, 0.043904, 0.031422, 
    -0.000616, -0.064597, -0.059156, -0.117356, -0.086010, -0.038911, -0.117501, -0.122880, -0.141307, -0.100726, 
    0.000809, -0.012085, -0.028306, -0.090435, -0.014660, -0.002456, 0.015691, 0.045752, -0.004540, -0.028293, 
    -0.001242, 0.004731, -0.029805, -0.003723, 0.001508, 0.113157, 0.100051, 0.007570, 0.023648, -0.038483, 
    -0.020276, 0.023132, 0.088781, 0.118266, 0.178942, 0.081179, 0.133115, 0.172323, 0.027158, 0.024680, 
    0.096988, 0.029722, 0.102843, 0.032284, 0.116776, 0.054537, 0.004636, -0.035706, 0.088138, 0.128875, 
    -0.048735, -0.022846, 0.041837, 0.083123, 0.130543, 0.131008, 0.032293, -0.009344, -0.065823, 0.010411, 
    -0.002357, 0.117155, 0.128579, 0.186839, 0.140856, 0.078999, 0.038567, -0.032167, 0.008179, 0.011563, 
    0.001792, 0.006968, 0.016656, -0.062038, -0.009427, -0.043900, 0.033484, 0.082934, 0.103621, 0.063656, 
    -0.000154, 0.028933, 0.000144, 0.090059, 0.064270, 0.123683, 0.048844, 0.018361, -0.027255, 0.006431, 
    0.001398, -0.060959, -0.008586, 0.076972, 0.076129, 0.074167, 0.057067, 0.062704, 0.022513, 0.010213, 
    0.016660, 0.108384, 0.057390, 0.068847, 0.036566, -0.022305, -0.074440, -0.064401, -0.094907, 0.019346, 
    0.000018, -0.101521, -0.138488, -0.104012, -0.060430, 0.026264, -0.041116, 0.012841, 0.023156, 0.078754, 
    0.020521, -0.003552, -0.006528, -0.005604, -0.071144, -0.011400, 0.025769, -0.038010, -0.008399, 0.023751, 
    0.034077, 0.049448, 0.050640, 0.032302, 0.005688, -0.011361, -0.020567, -0.029649, -0.109200, -0.066346, 
    -0.062433, -0.003718, 0.034245, 0.045745, 0.098135, 0.150539, 0.112698, 0.080750, -0.031728, -0.067020, 
    -0.021761, -0.015773, -0.033448, 0.089240, 0.149598, 0.036129, 0.048943, 0.057725, 0.050322, 0.060546, 
    0.069372, -0.010660, -0.041946, 0.005086, -0.058049, -0.028949, -0.061422, 0.145784, 0.099155, 0.061073, 
    0.023858, -0.028078, -0.102937, -0.036115, -0.038289, -0.018023, -0.049740, -0.080957, -0.075781, -0.086888, 
    -0.016698, 0.081789, 0.127696, 0.084471, -0.004103, -0.023866, 0.049167, -0.003982, 0.029914, 0.070830, 
    0.167385, 0.202890, 0.115831, -0.019667, -0.005657, 0.066356, 0.035660, 0.067419, 0.172999, 0.214817, 
    0.006693, 0.041174, -0.007168, -0.024843, 0.038625, -0.016721, 0.044164, 0.005632, 0.004322, 0.039318, 
    0.018499, -0.041557, -0.129396, -0.115419, -0.107079, 0.048504, 0.005368, 0.051574, -0.009855, 0.019130, 
    -0.018620, 0.009639, 0.046463, 0.027539, -0.035513, -0.028935, -0.017298, 0.034498, -0.063227, -0.101552, 
    -0.024208, 0.035811, 0.031050, -0.017831, 0.075681, 0.115245, 0.160409, 0.089276, 0.031467, 0.059138, 
    0.028818, 0.055809, 0.030923, 0.067386, 0.094577, 0.093500, 0.102980, 0.108082, 0.040817, 0.076278, 
    0.112471, 0.179166, 0.063646, 0.083110, 0.083886, 0.065915, 0.015191, -0.041212, 0.071251, 0.087206, 
    0.053068, 0.105836, 0.004446, 0.037498, 0.086378, 0.054625, 0.069744, -0.016538, 0.018962, 0.032997, 
    -0.042354, -0.055495, -0.094486, -0.033655, 0.058866, -0.049041, -0.012620, -0.006533, -0.024168, 0.046920, 
    -0.000950, -0.001961, 0.012114, 0.000651, -0.015681, -0.062609, 0.024712, 0.033487, 0.142466, 0.149459, 
    -0.008378, 0.136478, 0.151773, 0.082611, -0.082642, -0.069915, -0.110488, -0.094971, -0.111614, -0.056207, 
    -0.032882, -0.020944, 0.121348, 0.086302, -0.029231, 0.004892, -0.024114, -0.032508, 0.021787, 0.020638, 
    0.071366, 0.091766, 0.039675, 0.094301, 0.041060, 0.011179, -0.094972, -0.119620, -0.076671, -0.047711, 
    0.042974, -0.033358, 0.024370, -0.002467, 0.000949, -0.036978, 0.028622, -0.012360, -0.045858, 0.032056, 
    -0.003475, 0.002983, -0.031683, -0.019534, -0.016322, -0.027696, -0.004723, 0.031265, 0.005926, 0.041850, 
    -0.019340, 0.017501, 0.001049, -0.037951, -0.021772, 0.027157, 0.012773, -0.027512, -0.017390, 0.019770, 
    -0.044600, -0.026837, -0.000739, 0.027582, -0.002897, -0.014932, 0.013476, -0.014654, -0.037333, -0.051910, 
    -0.044187, 0.002335, -0.026388, 0.015521, 0.010696, -0.047421, 0.028127, -0.019936, 0.039498, -0.001002, 
    0.012541, -0.041812, 0.017932, -0.052523, 0.010068, 0.013983, 0.002440, 0.035084, 0.022049, -0.035234, 
    -0.028379, -0.007422, -0.003687, -0.006203, 0.025666, 0.030471, 0.032643, 0.014901, -0.017443, 0.001977, 
    -0.040109, -0.010822, -0.025369, -0.043730, 0.017529, -0.034224, 0.032223, -0.007599, 0.006664, 0.004958, 
    0.041647, -0.042213, -0.024643, 0.008808, -0.030717, 0.040991, -0.042279, -0.022203, 0.011875, -0.031671, 
    -0.012062, -0.026137, 0.001130, 0.021113, -0.019523, -0.026117, -0.025641, 0.038470, -0.041839, -0.012147, 
    0.021824, -0.016738, -0.011680, 0.007308, -0.008189, 0.043446, -0.000854, 0.023822, 0.029586, 0.019729, 
    -0.001530, -0.012129, 0.005613, 0.043196, 0.038913, -0.019182, -0.003161, 0.042309, -0.043584, 0.013759, 
    -0.024387, 0.038052, -0.033324, -0.011087, -0.047831, 0.017534, -0.031553, -0.009438, -0.052319, -0.026788, 
    0.002959, -0.030849, 0.036874, -0.019845, 0.004306, -0.007756, -0.005518, -0.004282, -0.042713, -0.041457, 
    -0.031755, -0.016074, 0.027443, 0.005178, 0.022830, 0.020219, 0.012217, -0.025813, -0.034944, 0.003553, 
    0.020712, 0.030030, 0.026055, 0.001566, 0.002073, 0.044449, -0.022154, 0.004468, -0.023246, -0.032930, 
    -0.016507, 0.020431, 0.005638, -0.004238, -0.005804, -0.024815, -0.001499, -0.011010, 0.002334, -0.006337, 
    0.016903, 0.015485, 0.015055, -0.005673, -0.003521, -0.010398, -0.045676, 0.024007, -0.040788, -0.030442, 
    -0.003799, -0.045069, -0.046872, -0.023223, 0.038594, -0.050558, -0.017793, -0.023356, 0.034962, 0.019069, 
    -0.020571, 0.007611, -0.044139, 0.019678, 0.024953, 0.012975, -0.007543, 0.034464, -0.013058, -0.018390, 
    0.029768, -0.014041, -0.005886, -0.013864, -0.029352, -0.037895, -0.003712, 0.004141, 0.013894, -0.025649, 
    -0.042610, -0.042935, -0.042650, 0.034889, 0.004822, 0.006599, 0.016382, 0.001270, 0.015300, -0.032863, 
    -0.038844, -0.046415, -0.007044, 0.006188, -0.016906, -0.008785, 0.004183, 0.015456, -0.037062, 0.005346, 
    -0.021801, -0.018143, 0.014649, -0.011796, 0.025462, -0.030314, 0.013511, -0.046237, 0.023936, -0.042272, 
    -0.019070, -0.029061, 0.032929, 0.007939, -0.002133, 0.004679, -0.016212, -0.028666, 0.018625, -0.044943, 
    -0.047320, 0.005811, 0.029191, 0.026084, -0.027298, 0.004533, -0.029493, 0.022134, -0.044121, 0.008579, 
    -0.049219, -0.027337, -0.008023, -0.048452, -0.006067, -0.033938, -0.023698, -0.028184, 0.026753, 0.006385, 
    -0.030581, -0.014645, -0.011661, 0.021531, -0.030787, 0.012986, -0.016715, -0.001565, 0.023773, 0.006367, 
    0.026716, 0.007814, -0.006478, -0.044352, -0.011442, 0.032509, 0.015813, -0.001485, -0.042951, -0.030050, 
    0.025209, -0.042878, 0.019110, -0.010951, -0.000215, -0.046664, 0.034131, -0.025159, -0.033876, -0.033633, 
    0.004033, 0.011314, -0.043529, -0.018542, 0.016234, -0.031075, -0.028898, -0.016492, -0.039756, -0.019044, 
    -0.013955, 0.026043, 0.008403, -0.044900, -0.017274, -0.004836, 0.012067, 0.006786, 0.006214, -0.037379, 
    0.000140, 0.016031, 0.004348, -0.030101, -0.019063, -0.050434, -0.002957, -0.023451, -0.029035, 0.034326, 
    -0.009099, -0.021069, -0.008345, -0.049495, 0.023190, -0.013180, 0.024112, 0.028466, -0.012734, -0.025795, 
    -0.028472, -0.020486, -0.031415, -0.022105, -0.001709, -0.011660, -0.020293, -0.048702, -0.017721, -0.029171, 
    0.034192, 0.026869, -0.039764, -0.034716, -0.027709, 0.013001, -0.004328, -0.014872, 0.042012, -0.016489, 
    -0.010719, -0.045494, -0.041889, 0.012572, -0.017747, 0.013045, -0.035168, 0.014347, -0.023454, 0.039420, 
    0.005936, 0.012928, 0.007911, 0.008766, 0.002311, 0.004761, -0.032465, 0.008954, -0.002587, -0.033914, 
    -0.033212, -0.027597, 0.034858, -0.006610, 0.001927, 0.001703, 0.003208, 0.012412, 0.029482, 0.007386, 
    0.035286, 0.009236, -0.043837, -0.034796, -0.018058, -0.031494, -0.006975, -0.007923, -0.034526, -0.023055, 
    -0.000874, 0.009857, -0.001300, -0.019679, -0.009450, -0.038533, -0.025251, -0.034043, -0.018992, -0.028729, 
    0.043605, -0.026284, 0.011858, -0.007457, -0.013250, 0.011369, 0.023049, -0.016439, 0.031566, 0.011846, 
    0.021581, -0.013526, -0.007962, -0.035187, -0.036771, -0.028482, -0.002413, 0.014163, -0.019890, -0.043618, 
    -0.053441, 0.041213, 0.027219, -0.031043, -0.039151, -0.008227, 0.025390, 0.037452, 0.002885, 0.038696, 
    0.004222, 0.022493, -0.003322, -0.026516, -0.013522, -0.025938, -0.028230, -0.005190, -0.050888, 0.023120, 
    -0.037131, -0.001203, 0.002119, -0.002751, 0.026030, -0.051321, -0.021279, -0.021625, 0.020984, 0.026223, 
    0.007172, 0.039418, -0.016081, 0.012393, 0.016156, -0.001115, -0.032999, 0.024636, -0.010624, 0.030459, 
    -0.007825, 0.016916, 0.018251, -0.041794, 0.014558, 0.030864, 0.010765, -0.014518, -0.038196, 0.015484, 
    0.061800, 0.173231, 0.119977, -0.047255, 0.004072, -0.075821, -0.101438, -0.055713, -0.038818, -0.009661, 
    0.034575, 0.005001, -0.040587, -0.031069, -0.045628, 0.035418, 0.052607, 0.100574, 0.100112, 0.039642, 
    0.036799, -0.001901, 0.026363, 0.014893, -0.000924, 0.049758, 0.002437, 0.040927, -0.016370, 0.006124, 
    0.013359, 0.070466, 0.086028, 0.033490, -0.000765, -0.033957, 0.047891, 0.015701, 0.038286, -0.061369, 
    -0.078317, -0.044181, -0.037806, -0.036100, -0.062813, 0.122756, 0.033995, 0.028225, -0.073154, 0.001591, 
    -0.039062, 0.025102, 0.001022, -0.002237, -0.013443, -0.001398, -0.040059, 0.019237, -0.041791, -0.001348, 
    0.074303, 0.053242, -0.031534, -0.067569, 0.038914, 0.028027, -0.010067, -0.005272, 0.105046, 0.078013, 
    0.022043, -0.014721, 0.013198, -0.004314, -0.004563, 0.136693, 0.041753, 0.070226, -0.042981, -0.090417, 
    -0.134168, -0.115691, -0.065552, -0.013419, 0.008790, 0.057802, -0.063773, -0.101502, -0.012539, 0.037351, 
    0.086987, 0.058601, 0.057529, 0.022844, -0.031500, 0.018104, 0.020163, -0.028602, -0.031594, -0.069453, 
    -0.044264, -0.012961, -0.074318, -0.023195, -0.015392, 0.009755, 0.019490, 0.011846, 0.060161, -0.046426, 
    0.050039, 0.049405, 0.104936, 0.102861, -0.025092, -0.079928, -0.123225, -0.021850, 0.068595, 0.163573, 
    0.006906, 0.051189, 0.046861, 0.045088, -0.018890, 0.027990, 0.077300, 0.065206, 0.036340, -0.054952, 
    -0.060249, 0.024524, 0.031909, 0.071029, 0.135935, -0.001282, 0.105261, 0.119198, 0.063929, 0.046637, 
    -0.051343, -0.065265, -0.076283, -0.081377, -0.026777, 0.053305, 0.003909, -0.066215, -0.043092, -0.073198, 
    -0.123811, -0.056469, 0.080389, 0.058600, -0.019212, -0.014465, 0.002671, -0.012691, 0.025601, 0.018560, 
    -0.011513, -0.024935, -0.105051, -0.146421, -0.133484, 0.061613, 0.095754, 0.127237, 0.053282, 0.106281, 
    0.019179, 0.089538, 0.086201, 0.078365, 0.027523, -0.050411, -0.058159, -0.060236, -0.013519, -0.039486, 
    0.005546, 0.089354, -0.024941, -0.041939, 0.034047, -0.008136, 0.036104, 0.028319, 0.099583, 0.078610, 
    0.001205, -0.013314, -0.045264, 0.058005, 0.036012, -0.015531, -0.060245, -0.071365, -0.144299, -0.011875, 
    -0.024844, 0.056940, 0.046551, 0.035769, 0.039304, -0.046897, -0.033267, -0.017636, 0.006147, -0.046623, 
    0.059996, 0.040978, 0.046707, -0.036164, 0.053419, 0.014572, 0.099250, 0.095662, -0.011477, -0.080443, 
    -0.047060, -0.007007, 0.094496, 0.097198, 0.158579, 0.044211, 0.043532, -0.008012, -0.017485, -0.055233, 
    -0.034815, 0.029943, -0.005490, 0.002132, -0.020565, -0.036515, -0.052419, 0.044058, 0.016571, 0.071869, 
    0.078361, 0.053476, 0.004959, -0.022502, -0.077444, -0.027665, -0.036853, -0.011638, 0.047346, 0.009350, 
    -0.007200, 0.020054, 0.031290, -0.000292, 0.016146, 0.117589, 0.080609, 0.013100, -0.078885, -0.006399, 
    -0.025550, -0.024524, -0.003050, -0.000695, 0.046421, 0.011755, -0.058728, -0.008923, 0.011179, -0.071714, 
    0.050737, 0.092704, 0.091860, 0.106100, 0.045737, 0.050599, 0.095038, 0.048818, 0.067107, 0.021883, 
    0.010250, 0.039659, -0.005618, -0.021170, 0.005186, 0.024435, 0.053374, 0.030572, 0.088742, -0.051546, 
    -0.015676, 0.018757, 0.017464, 0.020619, 0.024213, 0.039558, -0.068940, -0.090040, -0.085876, -0.055783, 
    0.021479, 0.094095, 0.041042, 0.000537, 0.038333, 0.095560, 0.078595, 0.019111, -0.014468, -0.028236, 
    0.019167, -0.061441, -0.041724, -0.072853, -0.051765, -0.025413, -0.042308, -0.059179, -0.025712, -0.006763, 
    0.007495, 0.045708, 0.065562, -0.012959, -0.054186, -0.109059, -0.071794, 0.005072, -0.037014, 0.023310, 
    0.043292, 0.081266, 0.045373, 0.038614, -0.001051, 0.060807, 0.018538, 0.072120, 0.021644, -0.010801, 
    0.003557, 0.041242, 0.037852, 0.037481, 0.058688, 0.063182, 0.075679, 0.040352, 0.004328, 0.038297, 
    0.075785, 0.051417, 0.089542, -0.007272, -0.008428, -0.109087, -0.047864, -0.018643, -0.029535, 0.013543, 
    0.095191, 0.075744, 0.065925, 0.086672, -0.019650, -0.080655, -0.054963, 0.016635, -0.021077, -0.022535, 
    0.054441, -0.025698, -0.044060, -0.079683, -0.061838, 0.118780, 0.104942, 0.082100, 0.015294, -0.075467, 
    0.007987, -0.032938, 0.026628, 0.040321, -0.076407, -0.004775, -0.000835, -0.005930, -0.064250, -0.041709, 
    0.028690, 0.027742, 0.020474, -0.005381, 0.045154, 0.053501, 0.068994, 0.091270, -0.004624, 0.077758, 
    0.055588, -0.039754, 0.011808, 0.004065, 0.039225, 0.109489, 0.063496, 0.023385, -0.039987, -0.057049, 
    0.005497, 0.002108, 0.017319, -0.017201, 0.044997, 0.065543, -0.001452, -0.012360, 0.022767, 0.015430, 
    0.046855, -0.074230, -0.055218, 0.065200, -0.054441, -0.070654, -0.024889, 0.036272, 0.016450, 0.054496, 
    0.029959, -0.053852, -0.027691, -0.151273, -0.106179, 0.026435, 0.066379, -0.001675, 0.031602, -0.009584, 
    0.074514, 0.095259, 0.051265, 0.066441, -0.008970, 0.006632, -0.017061, 0.039370, 0.091274, 0.069024, 
    0.139247, 0.183651, 0.056022, 0.015039, -0.011747, -0.120579, -0.078873, 0.032107, -0.027800, -0.081192, 
    -0.114695, 0.008068, 0.148488, 0.161330, 0.106077, 0.112962, 0.066100, 0.066865, 0.026457, -0.010484, 
    -0.005399, 0.027834, -0.011362, 0.008700, 0.054592, 0.003773, 0.001202, -0.031136, -0.098468, -0.078129, 
    -0.019779, -0.046058, -0.025412, -0.010289, -0.019423, -0.045435, -0.059099, -0.059222, 0.000371, 0.079645, 
    0.048627, 0.094741, 0.112678, 0.121826, 0.120127, 0.073237, -0.004889, 0.006183, 0.034188, -0.019798, 
    -0.013879, -0.073080, -0.029598, -0.002380, -0.004170, 0.020379, 0.034836, -0.011910, -0.016348, -0.007949, 
    -0.018063, -0.015287, -0.014433, 0.027358, 0.028601, 0.045873, 0.117141, 0.085157, 0.082273, 0.078666, 
    0.047929, 0.033548, 0.024851, 0.005134, 0.033863, -0.025042, -0.002647, -0.033295, -0.003302, -0.069522, 
    -0.011386, 0.013669, 0.001217, 0.054587, 0.041125, 0.038479, 0.090053, 0.056211, 0.102515, 0.071538, 
    0.032562, -0.028422, 0.032784, 0.014364, 0.078096, 0.011932, -0.060353, 0.027655, 0.035737, 0.046975, 
    0.057726, 0.054114, 0.072302, 0.014723, 0.040302, 0.054200, 0.012063, -0.004518, -0.056704, -0.027135, 
    -0.015332, -0.081856, -0.057101, -0.046004, -0.059694, -0.020803, 0.027560, 0.010830, -0.027025, -0.007925, 
    0.030770, 0.039482, 0.019755, -0.026976, -0.101395, -0.071691, -0.072119, -0.028593, -0.016203, 0.037535, 
    -0.016785, -0.034043, -0.056665, -0.007289, -0.069873, -0.083720, -0.006361, -0.014403, 0.016782, 0.034481, 
    0.087349, 0.139396, 0.084322, 0.096213, 0.011138, -0.006021, -0.106124, -0.133714, -0.050387, -0.065910, 
    0.048590, -0.021066, 0.063433, 0.103582, 0.112684, 0.125706, 0.072534, 0.070212, 0.092938, 0.070744, 
    -0.028314, -0.071626, -0.114062, -0.063619, 0.010303, -0.003880, 0.080872, 0.090402, 0.075340, 0.029031, 
    0.030988, -0.060286, -0.070347, -0.020189, 0.021137, 0.090675, 0.100368, 0.111292, 0.087974, 0.015254, 
    -0.033192, 0.008577, 0.021689, 0.012714, -0.070247, -0.095428, 0.012128, 0.071727, 0.048710, 0.107292, 
    0.093681, 0.121380, 0.143812, 0.148478, 0.096772, -0.009706, 0.031741, 0.018345, 0.130294, 0.133269, 
    0.102521, 0.081268, 0.108945, 0.143421, 0.037577, 0.033454, 0.108517, 0.023867, 0.104226, 0.093860, 
    0.025075, 0.026228, -0.011363, -0.023933, 0.027875, 0.100088, 0.126309, 0.045970, 0.091850, 0.079388, 
    0.081798, 0.081623, 0.037016, 0.085398, 0.114131, -0.037751, -0.079049, -0.080583, 0.013877, -0.062710, 
    -0.005698, 0.044385, 0.109311, 0.093387, 0.061386, -0.020609, 0.023805, 0.013908, -0.000176, -0.025907, 
    0.116987, 0.037774, 0.042268, 0.065603, -0.009587, 0.021048, 0.016217, 0.066219, 0.043821, -0.056655, 
    -0.071663, -0.032837, -0.016936, -0.007888, -0.011254, -0.029762, 0.010402, -0.013569, -0.044017, -0.057249, 
    0.004404, 0.057732, 0.090590, 0.106135, 0.089547, 0.036654, -0.070983, -0.059964, -0.042227, -0.027828, 
    0.083585, 0.003926, 0.031478, -0.000632, -0.031959, 0.014707, -0.030044, 0.032785, 0.037918, 0.043736, 
    0.016409, 0.050249, 0.039032, 0.082587, 0.020688, -0.019715, -0.031521, -0.035000, 0.017379, -0.035759, 
    -0.018947, 0.001911, 0.094729, 0.034128, 0.108763, 0.048348, 0.136018, 0.078432, 0.073890, 0.097236, 
    0.034219, 0.054670, 0.037790, 0.085535, 0.114698, 0.122410, 0.069622, 0.051288, 0.015039, 0.031676, 
    -0.018735, 0.008247, 0.060953, -0.003214, 0.025533, 0.002404, 0.009097, -0.020713, -0.003430, -0.088680, 
    -0.075559, -0.038351, 0.043680, 0.036434, 0.035744, 0.074777, 0.081243, 0.071389, 0.035868, 0.057443, 
    0.052051, 0.043116, 0.032089, 0.016687, 0.015028, 0.012459, 0.008071, 0.042512, 0.048030, 0.016633, 
    0.066906, 0.060398, 0.019314, 0.041007, 0.073611, 0.012582, -0.008816, -0.011308, -0.079203, -0.016038, 
    -0.026231, 0.025336, 0.056313, 0.068675, 0.045818, -0.002547, -0.043704, -0.121871, -0.125016, -0.143774, 
    0.031171, 0.051313, 0.102941, 0.093572, 0.043098, 0.064558, 0.022651, 0.063369, 0.030806, 0.046607, 
    -0.007133, -0.057025, -0.066078, -0.112970, -0.059655, 0.000382, 0.016636, 0.027369, 0.077530, 0.074097, 
    0.018129, 0.013450, 0.072766, -0.004072, -0.033318, -0.067047, 0.020183, -0.032828, -0.044710, -0.010217, 
    0.012601, 0.010046, -0.050100, -0.041759, -0.065570, -0.096538, -0.065414, 0.038981, 0.092519, 0.082896, 
    0.061553, 0.061802, 0.061976, 0.038817, 0.036908, 0.024592, 0.021255, -0.008583, -0.029564, -0.051294, 
    -0.040060, 0.053465, 0.002232, 0.043252, -0.009331, -0.035131, -0.031496, -0.025560, -0.008201, -0.026116, 
    -0.018523, 0.004951, -0.000518, 0.007603, 0.066414, 0.038697, 0.033046, -0.018503, 0.028950, 0.029789, 
    0.016667, 0.057235, 0.066271, 0.092038, 0.049363, -0.003770, 0.038067, -0.068069, -0.071693, 0.015069, 
    -0.014337, 0.028636, 0.020804, -0.004601, -0.011695, 0.028308, 0.045307, 0.109588, 0.023741, 0.044614, 
    -0.007020, -0.066841, 0.007521, -0.071714, -0.014511, -0.045930, -0.032804, 0.082101, 0.055174, 0.094540, 
    0.113692, 0.072380, 0.068698, 0.016299, 0.051705, 0.029629, 0.028306, 0.055317, 0.081438, 0.053277, 
    0.063002, 0.114220, 0.009533, 0.063783, -0.003463, -0.005370, 0.008922, 0.045747, 0.004297, -0.007213, 
    0.025633, 0.063850, -0.015682, -0.059340, -0.080416, -0.060135, -0.095636, -0.016270, 0.018158, 0.017445, 
    0.024966, -0.035553, -0.011508, -0.061716, 0.015074, -0.058558, -0.008127, 0.036709, 0.047763, 0.017519, 
    0.004303, 0.056791, 0.030322, 0.042338, 0.088700, 0.072664, 0.113415, 0.173590, 0.126228, 0.079438, 
    -0.082844, -0.036235, 0.012874, 0.057733, 0.012472, 0.065162, 0.084701, 0.058539, 0.038050, -0.020746, 
    -0.026643, -0.007784, -0.030446, 0.047254, 0.083074, -0.027593, 0.009414, 0.017313, -0.015694, 0.038485, 
    0.091313, 0.079433, 0.008768, -0.016832, -0.028860, -0.035755, -0.064912, -0.041588, -0.021311, 0.020010, 
    -0.003618, 0.008073, -0.039555, 0.025874, 0.074617, 0.027411, -0.041225, 0.005410, -0.025926, -0.026386, 
    0.015984, 0.001243, -0.005810, 0.036865, 0.030045, -0.051558, -0.045451, -0.051274, 0.023457, 0.035849, 
    -0.065793, -0.051324, -0.042060, 0.027474, 0.015032, 0.110985, 0.084997, 0.081065, 0.047197, 0.000841, 
    -0.006320, 0.039146, -0.021858, 0.011167, 0.011287, -0.012607, 0.050310, 0.062515, -0.043593, 0.000101, 
    0.088181, 0.081599, 0.003783, -0.008155, 0.031681, -0.045113, -0.016842, 0.045173, 0.041892, 0.046830, 
    0.055544, 0.065138, 0.121911, 0.084824, 0.025773, -0.013286, 0.065704, 0.113154, 0.080661, -0.019113, 
    -0.043592, -0.003501, 0.048426, 0.060290, 0.066222, 0.037153, 0.031179, 0.004897, -0.027854, 0.044404, 
    0.065521, 0.082971, 0.103085, 0.083148, 0.085453, -0.011553, -0.098543, -0.095684, 0.012969, -0.017498, 
    -0.052578, -0.086381, -0.045305, -0.010707, 0.119501, 0.167173, 0.093245, 0.065935, 0.006426, -0.126172, 
    -0.080214, -0.087238, -0.024089, -0.059129, -0.061952, -0.096485, -0.117022, -0.075973, -0.112243, -0.030963, 
    -0.024993, -0.063048, -0.067522, -0.109230, -0.061730, -0.016140, 0.025733, -0.021750, 0.002020, 0.025107, 
    0.049914, 0.123423, 0.034845, 0.005403, -0.055958, -0.138086, -0.117740, -0.082474, -0.055144, 0.055147, 
    0.155254, 0.131049, 0.020962, 0.052686, 0.061909, 0.055293, 0.058723, 0.007970, -0.005848, 0.070216, 
    0.077676, 0.069966, 0.099424, 0.096723, 0.132811, -0.051205, -0.035416, -0.049206, -0.125053, -0.140496, 
    -0.101023, -0.114849, -0.150159, -0.063273, -0.100446, -0.087625, -0.063148, -0.103256, -0.109419, -0.113464, 
    -0.038289, 0.021167, -0.026876, -0.005515, 0.017098, -0.083577, -0.094587, -0.038312, -0.002272, 0.065270, 
    0.071416, 0.018871, 0.061283, -0.028041, -0.019947, 0.007511, 0.035971, 0.065346, 0.062773, 0.082656, 
    -0.026652, -0.058539, 0.005311, 0.029862, 0.088212, 0.149782, 0.138500, 0.083978, 0.045212, 0.068542, 
    -0.096946, -0.047075, -0.017149, -0.017701, -0.016845, -0.004283, -0.007463, -0.020261, 0.067798, 0.119217, 
    0.087536, 0.055936, 0.066202, 0.020699, -0.033720, -0.084598, -0.056255, -0.005361, 0.004865, 0.074075, 
    -0.014189, -0.057112, -0.022204, 0.017950, 0.059037, 0.082154, 0.081240, 0.075011, 0.035814, 0.005790, 
    -0.074351, -0.022936, -0.044352, 0.029407, 0.058316, 0.021902, -0.036807, -0.010763, 0.010551, 0.074883, 
    0.065148, 0.086561, 0.080704, 0.061287, -0.026891, 0.081544, 0.031998, -0.013548, 0.054660, 0.067442, 
    -0.019864, -0.038144, -0.031354, 0.004692, -0.014124, 0.025158, 0.039626, 0.046623, 0.033130, 0.020534, 
    0.017203, 0.017760, -0.028797, -0.074330, -0.119387, -0.146563, -0.139859, -0.078807, -0.089829, -0.017728, 
    -0.082193, -0.049093, -0.085639, -0.018807, 0.034931, 0.057530, 0.070621, -0.005058, 0.038409, 0.037067, 
    0.012333, 0.013345, -0.050558, -0.014019, 0.040783, 0.042823, 0.028350, 0.019272, 0.003301, 0.075458, 
    0.035534, -0.017115, 0.041219, 0.062154, 0.019876, 0.004658, -0.038802, -0.015546, 0.012786, -0.025124, 
    0.007674, 0.026332, 0.035787, 0.035300, 0.066011, 0.097094, 0.056845, 0.085599, 0.110748, 0.057052, 
    -0.006730, -0.042315, 0.020402, 0.041838, 0.106520, 0.124552, 0.071951, 0.056740, 0.022784, 0.064092, 
    -0.065964, -0.072369, -0.064560, -0.037692, -0.020730, -0.032230, -0.005461, -0.047995, -0.065868, -0.122041, 
    -0.118053, -0.046222, -0.066368, -0.020560, -0.103535, -0.006687, 0.003640, -0.043793, -0.012828, -0.034954, 
    -0.048665, -0.012987, -0.024178, 0.011632, 0.121001, 0.122024, 0.132393, 0.083517, -0.004368, -0.050643, 
    0.058985, 0.081713, 0.031210, 0.048041, 0.086402, 0.079063, 0.042166, 0.028621, -0.021631, -0.009513, 
    -0.013583, 0.025781, 0.027290, 0.077692, 0.091494, 0.030668, -0.008192, 0.040890, 0.059747, 0.104481, 
    0.044408, 0.017583, -0.007375, 0.046565, 0.002901, 0.050008, 0.065401, 0.037701, 0.028619, 0.067656, 
    -0.004021, -0.015852, 0.017345, -0.066588, -0.070099, -0.142930, -0.081921, -0.023550, -0.005248, 0.040644, 
    0.040324, 0.068075, 0.057326, 0.054133, -0.029295, -0.002582, -0.013060, 0.054196, 0.046339, 0.022174, 
    -0.073301, -0.035156, -0.025572, -0.003242, 0.096632, 0.033928, 0.023538, 0.109176, 0.082122, -0.007464, 
    0.090471, 0.121382, 0.150619, 0.098033, 0.040380, 0.039947, -0.010621, 0.004824, -0.060464, -0.005880, 
    0.071135, 0.045560, 0.100834, 0.077437, 0.096963, -0.083504, -0.025911, -0.019745, -0.027276, -0.054544, 
    -0.074482, -0.047805, -0.046166, 0.026803, 0.027597, -0.002435, 0.071012, 0.076520, 0.025653, -0.038287, 
    -0.123088, -0.235207, -0.129388, -0.020142, 0.127868, 0.142317, 0.067977, 0.070271, -0.009549, -0.023935, 
    -0.044640, -0.049474, -0.092003, -0.082897, -0.107949, 0.085519, -0.021010, -0.035416, 0.031988, -0.058112, 
    -0.070907, -0.003252, -0.025001, 0.023104, 0.029019, 0.002344, 0.029507, 0.007544, 0.031538, 0.044422, 
    0.004443, 0.029612, -0.008563, 0.039929, 0.016343, 0.019943, 0.044313, 0.005337, -0.044528, -0.011620, 
    0.019936, -0.040176, -0.006083, -0.034104, -0.022043, -0.025800, -0.017397, -0.000441, 0.033533, 0.009491, 
    -0.036378, -0.016735, -0.049106, -0.025781, 0.030418, 0.019317, 0.027193, -0.032814, -0.012929, 0.022601, 
    0.042997, -0.018115, 0.013074, 0.047045, 0.027721, 0.007007, -0.048711, -0.035037, 0.030893, 0.020244, 
    0.003706, 0.030498, 0.028103, -0.049018, 0.015771, -0.024074, 0.011838, -0.040393, -0.011459, -0.029121, 
    0.011534, -0.000758, 0.009783, 0.004853, 0.029618, -0.016195, 0.014307, 0.030329, -0.044493, -0.008925, 
    -0.006110, 0.035359, -0.023440, 0.019698, -0.006809, -0.002329, 0.006075, 0.030410, -0.035978, 0.013585, 
    0.026805, -0.035309, 0.030160, -0.002573, 0.015101, -0.033726, -0.011280, 0.010247, -0.037505, 0.019923, 
    -0.028983, 0.038310, -0.026820, -0.040802, -0.039230, 0.013658, 0.024597, 0.016488, 0.034246, 0.035583, 
    0.027410, 0.001356, -0.047307, -0.025348, -0.033948, -0.007288, -0.042667, 0.023881, -0.023340, 0.000247, 
    -0.007510, -0.038943, 0.027909, -0.052857, 0.030042, -0.028076, -0.024649, 0.023497, 0.037893, -0.021960, 
    -0.046450, -0.028177, 0.040654, -0.034114, 0.013758, -0.037938, -0.044601, -0.022279, -0.028609, -0.033556, 
    -0.024724, 0.016635, -0.023626, -0.002436, 0.031671, -0.018391, -0.014905, -0.012345, -0.012441, -0.034353, 
    0.034187, 0.012924, -0.025905, -0.036918, -0.027633, 0.014549, -0.030482, -0.026020, 0.010183, 0.006579, 
    0.037724, 0.038521, -0.024617, -0.027305, 0.008556, 0.032681, -0.013992, 0.033750, -0.005013, 0.030620, 
    -0.026974, -0.037384, -0.038636, 0.036537, -0.012861, -0.034561, -0.032777, 0.019354, -0.029113, -0.048860, 
    0.016654, 0.034369, 0.030808, -0.040532, -0.021050, -0.010867, 0.031630, -0.018638, 0.014347, 0.014039, 
    0.040308, -0.004913, -0.022054, 0.026915, 0.009997, -0.033949, 0.015581, 0.021532, 0.014670, -0.034802, 
    0.037055, -0.001921, -0.027560, -0.035871, -0.004613, 0.003226, 0.033173, 0.016819, -0.006448, 0.010567, 
    0.011842, 0.015385, 0.022204, 0.012215, 0.032971, 0.040339, 0.031618, 0.013939, -0.048362, 0.035538, 
    -0.039745, -0.053465, -0.042612, -0.026678, 0.031625, 0.004947, 0.010956, -0.044834, 0.012154, 0.028688, 
    -0.030086, -0.037352, -0.012194, -0.012744, 0.014716, 0.009576, -0.000578, 0.038314, 0.015536, 0.028297, 
    0.034335, 0.008001, -0.028690, 0.018697, 0.008881, 0.028231, 0.017585, -0.029522, -0.012034, 0.020523, 
    -0.023300, -0.010850, -0.003746, 0.021975, -0.024282, -0.044701, 0.034344, -0.041684, -0.006729, -0.012855, 
    0.008188, 0.034727, -0.017515, -0.041677, -0.029052, -0.030933, -0.042158, 0.010146, -0.005985, 0.012123, 
    -0.043128, -0.042678, -0.020172, -0.030920, 0.003240, -0.003664, 0.001771, -0.025298, -0.012824, -0.041576, 
    0.031846, 0.018562, 0.000846, -0.050212, -0.026787, -0.024555, -0.024008, 0.011967, -0.045233, -0.024683, 
    0.038074, 0.016205, -0.020192, 0.018924, -0.032613, -0.003154, -0.020796, 0.031344, -0.023001, 0.012784, 
    -0.015092, 0.037189, 0.038073, -0.026438, -0.022018, 0.029188, -0.035353, 0.006357, 0.012756, 0.034127, 
    0.038359, 0.035398, 0.015712, -0.043513, -0.008280, -0.019376, 0.031403, -0.008676, 0.034281, 0.023798, 
    0.005336, 0.030230, -0.014207, 0.041982, -0.005115, -0.030248, -0.040324, -0.032523, 0.030107, -0.011426, 
    -0.037963, 0.021410, -0.007647, 0.006507, -0.052656, -0.033900, -0.046788, -0.015681, -0.026166, -0.009368, 
    0.032076, -0.047577, -0.002139, 0.014532, -0.043182, 0.041417, -0.030834, 0.009655, 0.025214, 0.001161, 
    -0.035819, -0.024428, -0.053106, -0.018963, 0.028061, -0.017828, -0.030791, -0.004560, -0.026835, 0.027905, 
    0.004552, -0.011901, 0.014253, 0.006404, 0.000877, 0.013128, -0.029336, -0.021929, -0.018415, -0.034159, 
    0.006480, 0.004769, 0.016639, -0.048871, 0.013647, 0.007450, -0.008931, -0.039127, -0.015062, -0.019526, 
    0.001109, -0.015525, -0.034912, -0.025850, -0.039367, -0.015769, -0.050924, -0.051591, 0.001932, -0.009755, 
    0.031141, -0.042224, -0.021309, -0.006414, 0.010715, -0.015801, -0.031796, 0.007522, -0.026173, -0.014739, 
    0.007612, -0.021019, 0.031880, 0.005286, 0.030843, -0.041505, -0.036632, -0.033683, -0.029941, -0.030247, 
    -0.032340, -0.030367, -0.007445, 0.007492, -0.017078, 0.031181, -0.027219, -0.013572, 0.002213, 0.002066, 
    0.003091, -0.049476, 0.016224, 0.025633, -0.011995, -0.021779, 0.007545, -0.001592, -0.024223, -0.002612, 
    0.030803, -0.005077, 0.019869, 0.034464, -0.015222, 0.027873, 0.011005, -0.004755, 0.036321, -0.027866, 
    -0.034212, -0.037801, -0.035572, -0.009236, -0.012803, 0.025390, 0.032331, -0.038900, 0.039689, 0.022939, 
    -0.018005, 0.008564, -0.002600, 0.020770, 0.002647, -0.046804, -0.047484, 0.011052, 0.006612, 0.019197, 
    0.016292, 0.036395, 0.015961, 0.034228, -0.048082, -0.027864, -0.024331, 0.019680, -0.016281, -0.036513, 
    -0.006986, -0.006977, 0.033669, 0.007623, 0.038846, 0.015978, -0.020832, 0.004652, 0.006155, 0.028878, 
    -0.040282, -0.042092, 0.032584, 0.020085, 0.047667, 0.035353, -0.041174, -0.049178, -0.016610, 0.029449, 
    0.035061, 0.039194, -0.019335, 0.032846, 0.004289, -0.038907, -0.004055, 0.038926, -0.023346, -0.034883, 
    -0.022128, 0.075666, 0.004603, 0.008492, 0.054896, -0.028122, -0.025367, -0.073250, -0.019128, 0.031434, 
    0.054132, 0.011370, -0.039016, -0.030808, -0.015703, -0.010874, -0.038504, -0.055943, -0.001935, -0.032744, 
    0.004067, 0.016820, 0.013623, -0.028645, 0.045251, 0.003778, -0.032230, -0.020016, -0.102061, -0.114316, 
    -0.081443, -0.091130, -0.064377, 0.007727, -0.014463, 0.048253, -0.004275, 0.044122, -0.022098, -0.025918, 
    -0.042295, 0.012145, -0.065700, -0.117733, -0.104993, 0.117844, 0.087316, 0.065883, 0.080469, 0.110982, 
    0.060955, 0.052987, -0.004240, -0.036473, -0.005695, 0.112934, 0.089149, 0.045434, 0.107429, 0.109361, 
    0.062095, 0.063681, 0.092891, 0.067220, 0.130539, 0.104536, 0.173673, 0.134650, 0.093235, 0.110437, 
    0.111157, 0.059778, 0.060830, 0.141113, 0.137116, 0.058103, 0.081149, 0.116990, 0.050323, -0.042876, 
    -0.093960, 0.050867, 0.022994, 0.022075, 0.005241, 0.075269, 0.056374, 0.056198, 0.143797, 0.212771, 
    0.053881, 0.024237, 0.037442, 0.036842, 0.011384, 0.034800, 0.008776, 0.005672, -0.006317, -0.063769, 
    0.043224, 0.047452, 0.026466, -0.035748, 0.062715, -0.079223, -0.013380, -0.063632, 0.015193, 0.007239, 
    0.113692, 0.077439, 0.105907, 0.015018, 0.057995, 0.008214, 0.033840, 0.153589, 0.109329, 0.147193, 
    -0.060318, -0.059970, -0.029787, -0.065899, -0.032335, 0.050005, 0.006779, 0.025413, 0.007467, -0.100491, 
    -0.088835, -0.007403, -0.038727, -0.039710, 0.099231, -0.077682, 0.000813, -0.013508, -0.060839, -0.070403, 
    -0.130673, -0.079727, -0.067178, -0.008711, -0.023742, -0.005648, -0.049076, -0.065909, -0.098900, -0.040735, 
    0.066424, 0.032817, 0.041398, 0.027574, 0.061216, 0.057323, -0.029556, -0.043134, -0.011004, 0.005434, 
    -0.012251, -0.031296, -0.040403, -0.053952, -0.085027, -0.081921, -0.098636, -0.042739, -0.025048, -0.037948, 
    0.015449, -0.014932, 0.045023, -0.017489, -0.010105, -0.049471, -0.022217, 0.015994, -0.072134, -0.062146, 
    0.013960, -0.009852, -0.014181, 0.055000, 0.041837, 0.091835, 0.078869, 0.021710, 0.064973, 0.035401, 
    0.076544, 0.079935, 0.104764, 0.181042, 0.151918, 0.113602, 0.108119, 0.070989, 0.045404, 0.028961, 
    0.066285, 0.113338, 0.055493, 0.059073, 0.050755, 0.070277, 0.025622, 0.067634, 0.112272, 0.097560, 
    -0.042213, -0.023911, 0.032922, 0.053648, 0.126077, 0.107469, 0.086092, -0.028113, -0.026924, -0.059737, 
    -0.020785, 0.110243, 0.094431, 0.150765, 0.089405, 0.002783, -0.029065, -0.045129, -0.003819, 0.041114, 
    -0.033498, -0.016058, 0.001289, 0.007669, -0.047746, -0.037000, -0.029178, 0.006741, -0.005925, -0.032157, 
    0.037095, 0.010985, 0.038706, 0.076497, 0.101781, 0.107055, 0.056670, 0.071117, -0.012840, 0.052124, 
    0.039117, 0.072290, 0.049525, 0.131273, 0.102058, 0.129039, 0.112983, 0.112198, 0.095777, 0.048081, 
    0.059879, -0.001445, 0.024290, 0.028781, 0.008132, 0.002663, -0.056376, -0.068012, 0.066501, 0.102091, 
    0.008111, -0.074730, -0.036763, -0.021376, -0.046509, 0.087358, 0.079095, 0.073494, 0.055441, 0.025351, 
    0.062203, 0.043807, -0.006877, -0.004196, -0.028511, -0.008637, 0.074526, 0.051624, -0.021132, 0.046782, 
    0.005265, 0.037682, 0.011385, -0.007113, 0.052382, -0.011178, -0.017786, -0.039641, -0.059877, -0.098861, 
    -0.016330, -0.003847, 0.081345, 0.081544, 0.036815, 0.051486, 0.034768, 0.049564, 0.010420, 0.023241, 
    0.039195, 0.079844, 0.081486, 0.058373, 0.124903, 0.015892, 0.008794, -0.024416, 0.051836, 0.068793, 
    0.025687, 0.015029, 0.028535, 0.003588, -0.069426, -0.046203, -0.026187, -0.034998, -0.050365, -0.079187, 
    -0.023984, -0.027895, -0.025348, -0.059187, 0.011362, -0.004211, -0.039843, -0.058807, -0.061930, -0.023795, 
    -0.050406, -0.040014, -0.046149, -0.038603, -0.095904, -0.003400, 0.068712, 0.030161, 0.064337, 0.155139, 
    0.178367, 0.183149, 0.057207, 0.084719, 0.093214, 0.057052, 0.025430, 0.135718, 0.168504, 0.176515, 
    0.004137, 0.084414, 0.040315, 0.001012, 0.036763, 0.007451, 0.019752, -0.057924, 0.016621, 0.012776, 
    -0.013978, -0.002152, -0.057056, -0.088608, -0.051619, 0.023247, 0.008907, -0.000128, 0.057731, -0.014805, 
    -0.000347, -0.030570, 0.031505, 0.012288, -0.029662, -0.065979, -0.025860, -0.028404, -0.111874, -0.071665, 
    0.001046, 0.047618, 0.022575, 0.079394, 0.058304, 0.188702, 0.175404, 0.105452, 0.155546, 0.144448, 
    0.110860, 0.041680, 0.019855, 0.045680, 0.112821, 0.099944, 0.087713, 0.127067, 0.088135, 0.072818, 
    0.110767, 0.127236, 0.095446, 0.108205, 0.109475, 0.125933, 0.066638, 0.043573, 0.091488, 0.129144, 
    0.081936, 0.094368, 0.043646, 0.030511, 0.093010, 0.043111, 0.027684, 0.021410, 0.026241, 0.079815, 
    0.056403, -0.073454, -0.049436, 0.024025, -0.038294, -0.041122, 0.014280, -0.041974, 0.029610, 0.078785, 
    0.047730, 0.131269, 0.132316, 0.073144, 0.079601, 0.097891, 0.095647, 0.081134, 0.149760, 0.126426, 
    0.027511, 0.084443, 0.082660, -0.020141, -0.119880, -0.074653, -0.112512, -0.064820, -0.122832, -0.129332, 
    -0.122739, -0.037722, 0.081180, 0.042357, -0.054569, 0.031278, 0.017672, 0.060739, 0.014416, 0.069753, 
    0.038062, 0.052880, 0.052109, 0.104177, 0.115968, 0.042228, -0.007012, -0.063285, 0.008188, 0.050708, 
    -0.003925, -0.004425, -0.022502, -0.026832, 0.045373, 0.030467, -0.035938, 0.013766, -0.040196, 0.026409, 
    0.027073, -0.042800, -0.044947, 0.026693, 0.018676, 0.022241, -0.011669, 0.037113, 0.037428, 0.008972, 
    -0.048213, -0.002393, 0.000663, 0.005813, 0.025031, 0.037516, 0.024667, -0.038186, 0.025102, -0.036956, 
    -0.050605, -0.010577, -0.023670, 0.025360, -0.033825, -0.035969, 0.006950, 0.022968, -0.036001, 0.019004, 
    -0.013832, 0.005203, -0.044564, -0.027159, 0.040312, -0.001308, -0.014231, -0.005815, -0.001146, 0.011617, 
    0.017618, 0.006388, 0.024959, -0.023718, -0.033544, 0.032480, -0.036449, -0.049770, -0.002004, -0.013616, 
    -0.030630, -0.011579, -0.039507, 0.005133, -0.045526, -0.000748, -0.045930, -0.040708, -0.037890, -0.043515, 
    0.019383, -0.003349, -0.008528, 0.043527, 0.015167, -0.029810, 0.043137, 0.036412, -0.031990, -0.014694, 
    0.025010, 0.024192, 0.025559, -0.016531, 0.000091, -0.026129, 0.042904, 0.043414, -0.029235, -0.048009, 
    -0.020838, 0.026706, 0.009462, 0.023736, -0.004290, -0.032493, -0.010463, -0.020736, -0.013134, -0.044948, 
    -0.028324, 0.012349, -0.033987, 0.001265, -0.035089, -0.013493, -0.017490, -0.039299, -0.051189, -0.009521, 
    -0.012269, 0.047957, 0.021255, -0.001492, -0.000547, -0.004658, 0.023952, -0.002366, 0.001628, 0.036830, 
    0.001761, -0.013372, 0.029609, 0.019462, -0.019692, -0.002874, -0.028183, -0.022507, 0.001083, -0.021376, 
    -0.026778, -0.035925, -0.039049, -0.019165, -0.008070, 0.034875, -0.045714, 0.016655, 0.027237, -0.016954, 
    -0.020826, -0.033388, 0.039389, -0.039132, -0.046560, 0.000234, -0.014991, -0.039640, -0.021597, -0.026336, 
    -0.018173, -0.033378, -0.034871, 0.013827, 0.013904, 0.015145, -0.006862, 0.030545, -0.045167, 0.000117, 
    -0.048219, -0.007069, -0.032869, 0.016651, -0.039443, 0.023035, 0.011416, 0.027279, 0.037440, 0.022382, 
    -0.038777, 0.032934, 0.009104, 0.030738, -0.032332, -0.023044, -0.006626, -0.020143, 0.033114, 0.028703, 
    0.020427, -0.040321, 0.018813, -0.015293, 0.033058, -0.025723, -0.025079, -0.003768, 0.038922, 0.029385, 
    0.004425, 0.002072, -0.010184, 0.032023, -0.035886, -0.038854, -0.029312, -0.012275, 0.033972, -0.017103, 
    0.042430, 0.026827, -0.023729, 0.032346, 0.022031, -0.035099, -0.041205, -0.034976, 0.029092, 0.006329, 
    -0.021833, 0.011238, -0.028834, -0.041430, -0.005097, 0.034402, -0.040571, -0.045226, 0.029932, -0.018000, 
    -0.013909, -0.004237, -0.022002, -0.003019, -0.026992, -0.046081, 0.027896, 0.017416, 0.010439, -0.026260, 
    0.016446, 0.020555, -0.032818, 0.001431, -0.036812, -0.023988, -0.000570, 0.005557, -0.026681, -0.001674, 
    -0.028434, -0.002618, -0.033617, -0.017528, 0.006826, 0.006919, -0.030156, 0.002836, 0.036296, -0.042731, 
    -0.011412, -0.019346, 0.012883, 0.009302, -0.043197, 0.023201, 0.003911, -0.042726, -0.028797, -0.005637, 
    0.016882, -0.032464, 0.005228, 0.006020, -0.030306, -0.019250, 0.028503, 0.020903, -0.041216, 0.005667, 
    0.022629, -0.000715, 0.013335, 0.035189, -0.025142, -0.024820, 0.043275, -0.010563, -0.046510, -0.004359, 
    0.012702, -0.014113, 0.004427, -0.003058, -0.011090, -0.022276, -0.044998, -0.004186, -0.033243, -0.025443, 
    -0.019957, -0.007241, -0.005476, -0.005414, 0.007452, -0.017899, -0.030438, 0.020294, 0.018686, -0.023236, 
    -0.004216, -0.045988, -0.025515, 0.042165, -0.010436, 0.028715, 0.006462, -0.035148, 0.030358, -0.002621, 
    -0.031856, 0.005240, -0.046989, 0.032504, -0.029024, 0.012622, 0.026560, -0.018969, -0.022426, -0.006551, 
    -0.026848, -0.018061, 0.014995, -0.001463, -0.030653, 0.030345, 0.040403, -0.036561, 0.033437, -0.037689, 
    -0.010711, -0.021560, -0.028471, -0.022940, -0.027065, 0.035275, 0.028704, 0.031136, -0.032913, 0.032275, 
    0.033763, -0.033423, 0.026830, -0.012668, -0.044466, 0.015944, -0.035939, -0.011431, -0.048218, 0.003646, 
    -0.032986, 0.012841, -0.018213, 0.004818, -0.007872, 0.006261, -0.035706, 0.038706, -0.014396, -0.007653, 
    -0.009197, -0.018031, -0.039087, 0.001186, 0.030425, -0.002731, -0.033769, -0.013378, -0.027218, 0.026299, 
    -0.049096, -0.006905, -0.044599, -0.045201, -0.051034, -0.009630, 0.024471, 0.013879, -0.008352, -0.003857, 
    0.034345, -0.004857, -0.030350, 0.037216, 0.007913, 0.016291, -0.046705, 0.028435, -0.013335, 0.024422, 
    0.020858, 0.014465, -0.027167, 0.010132, 0.026942, 0.035380, -0.044381, 0.039315, 0.034429, -0.022736, 
    0.005438, 0.022642, -0.044519, -0.017189, -0.031833, 0.025078, 0.015543, -0.002087, -0.012493, 0.048294, 
    0.002611, 0.006664, -0.013049, -0.018722, 0.024471, 0.024537, -0.003868, -0.012668, -0.002610, 0.020079, 
    0.041499, -0.021297, -0.034231, 0.027511, 0.015122, 0.023283, -0.012261, -0.028645, -0.022734, 0.013001, 
    0.035448, 0.051712, -0.020086, -0.025679, 0.043061, 0.009380, -0.020314, -0.047786, -0.046992, -0.014196, 
    -0.044116, 0.003899, -0.007869, -0.047082, 0.037140, -0.039114, 0.007092, -0.035648, 0.004412, -0.045458, 
    -0.050927, 0.032697, -0.006595, 0.007257, -0.018552, -0.025484, 0.021126, 0.037188, -0.021184, 0.006414, 
    -0.038585, -0.019021, -0.007332, 0.034109, 0.029897, 0.030117, -0.036829, -0.042632, -0.045193, -0.022887, 
    -0.005580, -0.032824, -0.008598, 0.015150, -0.041108, -0.021234, -0.002220, -0.029473, -0.029987, -0.042631, 
    -0.039432, -0.064354, -0.042649, -0.054731, -0.087243, 0.026722, 0.113918, 0.114725, 0.109387, 0.055714, 
    -0.019132, 0.054621, 0.083976, 0.016046, -0.011591, 0.033838, -0.059569, -0.044201, -0.016180, -0.088460, 
    -0.047619, 0.073656, 0.077351, 0.044399, 0.078746, 0.070885, 0.052977, 0.095555, 0.042817, 0.051230, 
    0.020284, 0.058028, -0.022592, -0.025455, -0.075543, 0.020859, -0.000295, -0.013954, -0.019536, 0.062092, 
    0.110832, 0.037296, 0.081942, 0.066576, 0.078201, -0.039259, -0.041041, 0.040485, 0.064689, 0.102689, 
    0.090113, 0.068585, 0.070583, 0.072911, -0.039638, -0.101796, -0.033811, 0.000197, -0.030340, -0.016400, 
    -0.045967, -0.017387, 0.026972, 0.171954, 0.151985, 0.101823, 0.069191, -0.047795, -0.031915, -0.137194, 
    -0.093950, -0.055278, -0.051463, 0.054785, 0.113112, -0.105843, -0.046249, -0.005560, 0.048959, 0.038939, 
    0.043643, 0.112451, 0.044221, 0.051346, -0.059546, -0.153103, -0.051947, -0.044611, -0.114988, -0.048880, 
    -0.036529, -0.086151, -0.068721, -0.077330, -0.035800, 0.002549, 0.076481, 0.083825, 0.073839, 0.106438, 
    0.025795, -0.022226, 0.072626, 0.044836, 0.083407, 0.075710, 0.010843, 0.043202, 0.020981, 0.016172, 
    0.024106, -0.014597, -0.045972, -0.013399, -0.054146, -0.003893, -0.009972, 0.110652, 0.098025, 0.057738, 
    0.014376, -0.019339, 0.023833, 0.041105, -0.016381, -0.024270, -0.025004, -0.042207, 0.005251, 0.051258, 
    0.147104, 0.110625, 0.107288, 0.142757, 0.032618, 0.087111, -0.033601, -0.095960, -0.068704, -0.077391, 
    -0.010743, 0.057239, 0.140590, 0.135014, 0.071136, 0.134573, 0.112330, 0.061853, 0.035703, 0.065236, 
    -0.059150, -0.045968, -0.018834, -0.104329, -0.052018, -0.038404, 0.091114, 0.116501, 0.114144, 0.017732, 
    -0.052543, 0.031005, 0.115695, 0.068171, 0.021247, 0.022767, -0.010323, 0.014272, 0.001650, -0.073008, 
    -0.025855, -0.024242, 0.036784, -0.031992, 0.061713, 0.058736, 0.132344, 0.105587, 0.052585, 0.123458, 
    0.011164, -0.009047, 0.045760, 0.027757, 0.006871, 0.045697, 0.043848, -0.008389, -0.044804, -0.073119, 
    -0.090712, -0.041818, -0.078848, -0.061764, 0.070469, -0.015692, -0.009095, 0.063415, 0.004980, 0.014879, 
    -0.039807, -0.003613, 0.037496, 0.061969, -0.001023, -0.068054, -0.053718, -0.001853, -0.014062, 0.117147, 
    0.055330, 0.006297, 0.057244, 0.078620, 0.079941, 0.061884, 0.013022, 0.062129, 0.018727, 0.041310, 
    -0.034300, -0.042933, -0.007065, -0.010984, 0.041539, 0.063180, 0.041614, 0.011016, 0.071469, 0.009028, 
    0.033832, 0.080409, 0.013778, 0.055448, 0.090236, 0.109656, 0.065738, 0.054311, 0.045221, 0.061558, 
    0.019043, 0.015279, 0.061561, 0.120157, 0.105415, 0.066701, 0.004356, 0.049137, 0.010546, 0.023322, 
    -0.026414, -0.028612, 0.001920, 0.010709, 0.068325, -0.102460, -0.086921, -0.042362, -0.019950, -0.036429, 
    0.084227, 0.094970, 0.105210, 0.045879, -0.060261, -0.059592, 0.039930, 0.013674, 0.016816, 0.082704, 
    0.001048, -0.006146, -0.073600, -0.030997, -0.058151, -0.030265, -0.062433, -0.050621, -0.091411, -0.003004, 
    0.001505, 0.107255, 0.062235, 0.048351, -0.008629, -0.055921, -0.039056, -0.089017, -0.075645, -0.029011, 
    -0.001758, 0.060310, 0.120783, 0.056125, 0.058264, -0.015778, 0.078879, 0.103979, 0.096080, 0.075235, 
    -0.035770, -0.040076, -0.029842, 0.004831, 0.001327, 0.080609, 0.061339, 0.063593, 0.051250, 0.031713, 
    -0.089215, -0.037604, 0.001750, 0.067995, 0.095497, 0.067374, 0.041212, 0.058814, -0.019458, 0.009102, 
    0.074556, 0.068508, 0.029621, 0.020637, 0.066798, 0.067926, 0.058752, 0.111057, 0.155388, 0.191644, 
    0.097630, 0.035326, 0.027588, -0.016756, 0.008979, -0.013148, -0.016463, 0.002803, 0.008719, 0.070622, 
    0.104929, 0.159429, 0.063764, 0.090376, 0.088548, 0.020818, -0.009875, -0.022691, 0.049093, 0.045874, 
    0.044197, -0.025504, 0.005851, -0.033858, -0.020538, -0.080617, 0.000698, 0.048226, 0.015131, 0.038279, 
    -0.037365, -0.117494, -0.090285, -0.103274, -0.051340, 0.052369, 0.073372, 0.091190, 0.027263, 0.009361, 
    0.042557, -0.003924, 0.007246, 0.044097, 0.036505, -0.031807, -0.040728, -0.020651, -0.067282, 0.007502, 
    0.021445, 0.044592, 0.080248, 0.042371, 0.096733, 0.065563, 0.080435, 0.066564, 0.081495, 0.056342, 
    -0.047356, -0.041009, 0.049853, 0.037908, 0.043407, -0.044214, -0.072527, -0.015363, -0.018258, -0.112399, 
    -0.085352, -0.019739, -0.031020, 0.005264, -0.038246, -0.047476, -0.016431, 0.044615, 0.003923, 0.057589, 
    0.079463, 0.021783, 0.024913, -0.043055, -0.112939, -0.125715, -0.042857, -0.051202, -0.046287, -0.057831, 
    -0.152588, -0.035326, 0.007826, -0.106967, -0.017175, 0.006177, 0.028354, 0.053378, 0.011992, 0.033702, 
    -0.012923, -0.018668, 0.066094, 0.078679, 0.090525, -0.024142, -0.000790, 0.049033, 0.037579, 0.038400, 
    -0.037392, -0.021178, -0.052825, -0.091089, -0.070911, -0.073215, -0.080270, -0.085154, -0.046407, -0.025135, 
    -0.026229, 0.083819, 0.124995, 0.095654, 0.081743, 0.122984, 0.090137, 0.014119, 0.102143, 0.130247, 
    0.161580, 0.137470, 0.025320, 0.035560, 0.039000, -0.039095, -0.094561, -0.103703, -0.015147, -0.044185, 
    -0.004735, 0.100743, 0.091484, 0.050734, -0.014407, -0.014097, 0.002740, 0.054308, 0.002962, 0.044199, 
    -0.035893, 0.030386, -0.039889, 0.045610, -0.032831, -0.023983, 0.029409, -0.031226, 0.015924, 0.041169, 
    0.000846, 0.006945, 0.032407, 0.023913, 0.037067, -0.031512, -0.010033, -0.028079, -0.029068, 0.012477, 
    0.012369, -0.011416, 0.006676, 0.027609, -0.022419, -0.025116, 0.024062, -0.023445, 0.006801, -0.022680, 
    0.033224, -0.044498, -0.026992, -0.000829, 0.020749, 0.006247, -0.019633, -0.035855, 0.007010, 0.012613, 
    -0.041015, -0.025934, 0.033905, -0.018866, -0.050715, 0.006692, -0.001890, -0.040493, 0.017054, 0.013321, 
    -0.024599, 0.021442, 0.020708, -0.043111, -0.015914, -0.044759, 0.004292, -0.033350, 0.040319, -0.018059, 
    -0.036000, -0.030516, -0.005949, 0.029392, -0.021422, 0.010744, 0.043934, 0.008295, 0.011566, -0.027937, 
    0.005309, 0.022877, -0.023284, -0.039032, -0.036214, 0.019002, -0.043166, -0.009011, -0.009862, -0.012508, 
    -0.011625, -0.022659, -0.005513, 0.044864, 0.028167, 0.017846, 0.041440, 0.041183, 0.037468, 0.046072, 
    -0.011045, -0.016906, -0.025966, 0.025723, -0.007173, 0.024381, 0.016005, 0.024573, 0.003970, -0.041991, 
    -0.022493, 0.017167, -0.050927, -0.011073, -0.006403, 0.045482, 0.018638, 0.023193, 0.015229, 0.006118, 
    0.010933, 0.016805, 0.033746, -0.045984, 0.033097, -0.042507, -0.039396, 0.023481, -0.020646, 0.039362, 
    -0.007073, -0.027735, -0.002910, 0.016250, 0.000011, -0.019577, 0.022045, 0.011741, -0.028073, 0.037144, 
    0.030065, 0.004544, 0.028803, 0.037213, 0.001803, -0.045474, -0.027121, 0.038363, -0.007801, -0.038790, 
    0.006223, -0.000374, -0.010811, -0.022859, 0.030648, -0.024685, 0.038286, -0.000682, -0.014767, -0.045904, 
    -0.003404, 0.037221, 0.040664, -0.008212, -0.019565, 0.042737, 0.038952, -0.006858, 0.015279, 0.032573, 
    -0.002750, 0.042371, 0.015312, -0.029973, -0.019120, -0.000925, 0.044799, -0.033962, 0.023842, -0.038274, 
    -0.014212, 0.014572, -0.021232, 0.013317, 0.023532, -0.010512, -0.025342, 0.010909, 0.044259, 0.032011, 
    -0.034470, 0.014525, -0.018534, 0.014134, 0.007841, -0.018920, -0.003362, 0.034030, -0.017320, -0.033543, 
    -0.021798, 0.033954, -0.044941, -0.033326, 0.037786, 0.015974, 0.040252, -0.019491, 0.019277, 0.010688, 
    0.012633, -0.020961, -0.004278, -0.023393, -0.016640, -0.014496, 0.007991, -0.031993, -0.031297, 0.005635, 
    -0.034512, -0.031315, -0.017706, 0.033258, -0.036924, -0.028558, -0.008552, 0.034680, -0.011026, 0.015068, 
    -0.017738, 0.040863, 0.002208, 0.003188, -0.012588, 0.021746, 0.020044, -0.009681, 0.038208, -0.010796, 
    -0.004683, -0.029540, -0.044647, 0.004079, 0.037282, -0.014262, 0.008124, -0.029628, -0.031946, -0.038453, 
    -0.019039, -0.029242, -0.013522, -0.038071, 0.014844, -0.019562, 0.030755, -0.029268, -0.013868, 0.045424, 
    -0.026451, 0.001000, -0.039208, 0.044569, 0.021455, -0.044841, -0.005052, 0.039960, 0.006291, -0.005305, 
    0.023664, 0.036658, -0.020389, -0.028762, -0.029973, -0.002562, 0.004327, -0.002660, 0.020746, 0.002014, 
    0.012086, -0.048508, 0.030052, 0.030182, -0.030807, -0.049648, 0.026026, 0.030685, -0.013181, -0.022918, 
    -0.007378, -0.048032, -0.029973, -0.011222, -0.005083, 0.035889, 0.013392, -0.007591, 0.021360, -0.003860, 
    0.005045, 0.035884, 0.038105, 0.011064, -0.035144, -0.007958, -0.033064, -0.029560, -0.031986, 0.019807, 
    -0.016856, 0.015804, -0.015170, -0.037101, 0.004652, 0.000151, -0.046066, -0.006397, -0.025176, -0.044535, 
    -0.017824, -0.038410, 0.007021, 0.011992, -0.023797, 0.023971, -0.044630, 0.019915, 0.015010, -0.044644, 
    0.031781, -0.001915, 0.015656, 0.037923, -0.028969, -0.012450, -0.024967, 0.041635, -0.035491, -0.018671, 
    -0.051160, -0.038733, 0.005112, 0.015568, 0.002197, -0.035080, -0.046692, -0.012516, 0.029857, 0.008166, 
    0.034120, -0.034820, -0.029174, 0.008439, -0.035655, 0.002473, 0.017197, 0.022792, -0.001531, 0.024413, 
    -0.010677, 0.024078, 0.017040, -0.002717, 0.043923, -0.031933, -0.023586, -0.042727, 0.041527, -0.041983, 
    0.025556, -0.020107, 0.012056, -0.010794, -0.029909, -0.020910, -0.035878, -0.042819, 0.015784, -0.024020, 
    -0.040832, -0.032974, 0.017636, -0.017275, 0.018520, 0.019069, -0.039175, 0.039279, -0.006170, -0.036968, 
    -0.009918, -0.039296, 0.011006, 0.026964, 0.004887, -0.008842, 0.031980, -0.019869, -0.046330, -0.033230, 
    -0.010756, 0.036344, 0.027824, -0.050789, -0.001615, 0.021366, -0.011862, -0.036267, -0.034879, 0.026874, 
    0.014338, -0.030395, -0.002562, -0.037603, -0.025202, 0.043383, 0.002360, 0.018155, -0.011271, 0.010637, 
    0.008851, 0.047704, 0.028403, -0.037581, 0.015827, -0.016451, 0.019643, -0.050181, 0.029879, 0.030295, 
    0.030144, 0.034650, -0.012879, 0.031554, -0.034725, -0.044735, -0.018882, 0.034257, -0.008263, -0.000594, 
    -0.037165, -0.022182, -0.015538, 0.041248, 0.009617, 0.016228, 0.021940, -0.015732, -0.039934, -0.039846, 
    0.010840, 0.017322, 0.009801, -0.031533, 0.012481, 0.005376, -0.042113, -0.007797, -0.009374, 0.021256, 
    -0.037819, 0.001345, 0.028370, -0.016318, 0.002437, 0.011497, -0.037891, -0.019281, 0.045491, -0.004355, 
    -0.051112, -0.029681, 0.020262, -0.032764, -0.045885, -0.031886, -0.012814, 0.039479, -0.046511, 0.036748, 
    0.021575, -0.049692, -0.000206, -0.019164, 0.032942, 0.040992, -0.002788, -0.044948, -0.010520, -0.020848, 
    0.054109, 0.102042, 0.062514, 0.042606, 0.037537, 0.099176, 0.110544, 0.082965, 0.026585, 0.015835, 
