#ifndef VOICE_CNN_WEIGHTS_H
#define VOICE_CNN_WEIGHTS_H

#include "voice_typedefs.h"

// PyTorch Layer: conv1.weight (Shape: (16, 40, 3))
static const data_t conv1_w[1920] = {
0.254411, 0.171399, 0.042196, -0.296604, -0.084939, 0.011830, -0.679246, -0.261648, -0.101787, -0.635769, 
    -0.319706, 0.007649, 0.126207, 0.043864, -0.311938, 0.775859, 0.353551, -0.419221, 0.095238, -0.378044, 
    -0.298396, -0.147211, -0.203340, -0.119820, 0.287876, 0.149813, -0.082134, 0.225179, -0.010538, 0.200949, 
    0.371409, -0.227760, 0.294045, -0.168978, 0.445762, 0.424865, 0.225824, 0.562163, 0.248048, -0.254352, 
    0.246264, 0.004120, 0.080588, 0.105200, 0.079387, 0.022634, 0.222923, -0.277960, -0.304574, -0.064987, 
    -0.235095, -0.202411, -0.364159, -0.188380, 0.024764, 0.095375, -0.173789, -0.362515, 0.094899, 0.047029, 
    -0.214281, 0.036851, 0.042165, -0.066895, 0.153134, 0.334446, 0.301785, -0.124322, 0.025537, 0.193238, 
    -0.000815, -0.062388, -0.207291, -0.172012, 0.103289, -0.008208, -0.056163, -0.317578, -0.099993, -0.121079, 
    -0.343504, 0.256528, -0.138149, -0.113815, -0.331670, -0.240862, 0.247955, -0.133884, 0.043212, 0.015065, 
    0.031051, 0.116990, 0.010058, -0.242726, 0.042712, 0.060454, -0.129155, -0.035667, -0.073864, 0.108633, 
    0.091633, -0.199553, -0.186147, -0.127157, 0.038063, -0.190759, -0.106144, 0.023265, -0.046800, 0.206550, 
    0.078386, -0.278810, 0.201860, -0.132256, 0.108771, -0.267001, -0.080548, 0.082533, 0.255635, -0.043920, 
    -0.024303, 0.402725, 0.281417, -0.496539, -0.621204, -0.285218, -0.251505, -0.452539, -0.681602, -0.386896, 
    -0.101978, 0.195253, 0.177659, 0.136265, 0.211925, 0.145168, 0.061003, -0.003062, 0.030456, -0.473663, 
    -0.286608, 0.179554, 0.181386, -0.129951, 0.152085, 0.103100, 0.156220, 0.168849, -0.039397, -0.340765, 
    -0.415592, -0.036191, -0.056903, -0.008519, -0.528803, -0.029193, 0.162788, 0.063166, 0.187081, 0.074122, 
    0.058011, 0.127678, 0.100944, 0.150469, -0.023215, 0.071445, -0.266643, 0.328799, 0.302678, -0.002379, 
    -0.421276, 0.024427, 0.177095, 0.027785, 0.349828, 0.011507, -0.197014, -0.083474, -0.107840, 0.269606, 
    -0.226253, 0.031643, 0.054191, -0.110106, 0.132404, 0.188309, -0.354117, 0.198661, 0.060774, -0.029627, 
    0.355894, 0.017767, 0.250908, -0.093104, 0.014806, 0.166158, 0.053575, 0.102758, 0.148777, 0.375846, 
    -0.191990, -0.345712, 0.004604, 0.189728, 0.339876, 0.269631, -0.311761, 0.668774, 0.088072, -0.086120, 
    -0.005443, -0.002963, -0.235735, 0.105421, -0.059141, -0.105914, -0.069555, 0.048525, 0.297114, -0.034346, 
    -0.037672, 0.353849, 0.201758, -0.075290, -0.036581, 0.054001, 0.097605, -0.215936, 0.133373, -0.214485, 
    -0.112833, 0.192895, 0.032190, 0.069426, 0.045966, -0.080368, 0.341231, 0.318049, -0.308480, -0.211839, 
    -0.104971, 0.243090, 0.416377, -0.124383, -0.166445, -0.026153, 0.646826, 0.319231, -0.087384, 0.420045, 
    0.606098, 0.611773, -0.348318, -0.460305, -0.273197, 0.032190, -0.275721, -0.571476, 0.253153, -0.036472, 
    0.089539, -0.461223, -0.276941, -0.070986, -0.336717, -0.500461, -0.309648, 0.031496, -0.007023, 0.100370, 
    0.116079, -0.024632, 0.274022, 0.107815, -0.071702, 0.256874, 0.038178, 0.228685, -0.104847, 0.073077, 
    -0.107938, -0.096179, -0.253626, -0.089849, 0.020397, 0.039002, 0.124620, -0.039615, -0.034803, -0.134982, 
    0.000731, -0.189097, -0.012246, 0.205741, -0.252047, 0.205377, -0.018008, -0.295658, -0.116205, -0.077891, 
    -0.175981, -0.276168, -0.221969, 0.337425, 0.049485, 0.061676, -0.018800, 0.144376, -0.003726, -0.013132, 
    0.193505, -0.235080, -0.179915, 0.024540, -0.019870, -0.285717, -0.091649, 0.088370, 0.243020, 0.145465, 
    0.163088, -0.035412, 0.168554, 0.248166, -0.119153, 0.111903, 0.085031, -0.020366, -0.257806, -0.058395, 
    -0.209274, 0.161590, 0.170501, 0.150346, 0.245175, -0.042101, 0.303725, 0.117727, -0.154305, -0.068464, 
    -0.203950, -0.040568, 0.171061, -0.029305, 0.045892, -0.194964, 0.025539, 0.182481, 0.037108, -0.103884, 
    -0.051331, -0.035326, -0.174595, 0.045038, 0.079781, -0.080541, 0.159034, 0.145667, -0.038566, -0.040886, 
    0.634820, 0.551033, 0.299331, 0.484978, 0.458634, 0.440037, -0.548844, -0.336245, -0.307998, -0.136784, 
    -0.148575, -0.152784, 0.032587, 0.013095, -0.249824, -0.178974, -0.454288, -0.401670, -0.497891, -0.400544, 
    -0.348139, -0.311607, -0.007682, -0.042609, -0.057349, 0.112686, 0.097995, -0.334024, -0.062009, -0.015689, 
    -0.043850, 0.153871, -0.165613, 0.028242, 0.096739, -0.280895, -0.155419, 0.051198, -0.457838, 0.246222, 
    0.070718, -0.145691, -0.276494, 0.037485, -0.218714, 0.217021, -0.030882, -0.301336, 0.221274, -0.152385, 
    0.107246, 0.503554, -0.023658, 0.131239, 0.059444, 0.054021, 0.005988, 0.177266, 0.003478, -0.414463, 
    0.175285, 0.095104, -0.723362, 0.280448, 0.467911, -0.295803, 0.368192, -0.041621, -0.073621, 0.095899, 
    -0.271219, -0.199343, 0.243981, 0.163153, -0.278354, -0.113934, 0.434424, 0.143357, -0.049034, -0.042662, 
    0.106835, 0.181890, 0.054061, -0.537249, 0.192911, 0.291964, -0.151277, -0.175683, 0.118080, -0.007569, 
    -0.195997, 0.019221, -0.267936, -0.131752, 0.072505, 0.170250, 0.240948, 0.155678, -0.158421, 0.426910, 
    0.097247, -0.211868, -0.152999, -0.063743, -0.016315, -0.051221, -0.168277, 0.147405, -0.236769, 0.083982, 
    -0.020996, 0.014617, 0.162606, 0.073875, -0.114385, 0.061815, 0.348725, 0.003697, -0.230374, 0.175556, 
    0.363027, 0.136228, -0.173044, -0.359450, -0.245687, -0.142334, -0.027282, 0.293564, 0.139492, 0.146784, 
    0.417682, -0.033268, -0.170327, -0.107353, -0.042310, -0.272063, -0.235395, -0.449095, -0.109316, -0.257104, 
    -0.018789, -0.190653, -0.030188, 0.316727, -0.091113, -0.129801, -0.117150, 0.021783, 0.239572, 0.268610, 
    -0.050130, 0.190372, 0.618801, 0.077593, 0.511075, 0.461923, 0.113164, 0.173245, 0.351761, 0.577030, 
    -0.041783, -0.050024, 0.168445, -0.012590, -0.043914, 0.204933, 0.093412, -0.455197, 0.232355, -0.255666, 
    -0.359035, -0.183341, -0.110517, -0.117072, -0.084679, 0.022947, -0.026839, 0.111461, -0.039558, 0.009238, 
    0.145099, 0.157153, 0.264398, -0.026943, 0.025286, -0.015318, -0.046665, -0.023421, -0.062664, -0.048764, 
    0.144119, -0.174125, -0.129193, 0.039246, -0.137486, 0.003075, -0.286210, -0.353920, 0.087003, -0.100978, 
    -0.232099, 0.018816, -0.281140, -0.309844, 0.125512, -0.244842, -0.197665, -0.141365, -0.120306, 0.076475, 
    0.142974, -0.120685, -0.081411, -0.124768, 0.015320, -0.185489, 0.007412, 0.009232, -0.112964, -0.145838, 
    -0.052365, 0.119469, -0.094051, 0.121628, -0.147600, -0.405261, 0.179954, 0.138421, -0.069495, -0.080307, 
    0.077301, 0.092478, 0.011228, -0.086176, -0.049929, -0.243428, 0.066874, 0.085993, -0.036247, -0.007593, 
    -0.451925, -0.119735, -0.016472, 0.306560, 0.298645, 0.715999, 0.294571, 0.112013, 0.318403, 0.135403, 
    -0.156744, -0.137252, -0.006303, 0.558970, 0.478828, 0.290595, -0.133176, 0.224630, -0.259247, -0.138624, 
    -0.207163, 0.085904, 0.071472, -0.101105, -0.170610, -0.486982, -0.561249, 0.009985, -0.046926, -0.035116, 
    0.565015, 0.322423, 0.250932, 0.184165, -0.056575, -0.060499, 0.083674, -0.186272, -0.152353, 0.122352, 
    0.373266, 0.143033, 0.217043, 0.117786, 0.134487, -0.171315, 0.139596, -0.286147, 0.196815, -0.106812, 
    0.180121, -0.191575, 0.142368, 0.141500, -0.030658, 0.006772, 0.010018, 0.030672, -0.106717, 0.123127, 
    0.114414, 0.241113, 0.323914, -0.067254, 0.095345, 0.039158, -0.119249, 0.191362, -0.067007, -0.322692, 
    -0.065988, -0.058092, -0.168954, 0.006728, 0.400705, 0.358747, -0.275011, 0.085250, 0.167214, 0.015030, 
    0.125530, -0.204925, -0.419642, -0.358173, -0.139430, 0.158680, -0.086572, 0.067195, 0.325061, -0.121572, 
    0.050422, -0.248415, 0.192033, -0.015672, -0.200475, -0.068640, 0.136138, -0.130666, -0.166077, -0.196661, 
    0.216606, -0.348973, 0.267091, -0.050636, 0.107351, -0.243010, 0.006700, -0.214309, -0.196201, 0.075886, 
    0.179530, 0.113035, -0.284222, 0.006007, 0.270672, -0.145326, -0.082107, -0.041487, 0.211700, -0.185164, 
    0.427861, -0.112450, -0.106752, 0.270431, 0.194524, -0.272465, -0.172784, 0.069243, 0.362489, -0.493499, 
    -0.207523, -0.118761, -0.413146, 0.073654, -0.517497, -0.343748, -0.123422, 0.607702, -0.000837, 0.211743, 
    -0.418351, -0.280389, 0.054276, -0.320177, 0.009495, -0.275500, -0.047891, 0.039904, -0.077232, 0.017438, 
    0.275528, 0.042068, -0.186259, 0.492746, 0.214608, 0.093502, 0.040626, 0.269024, -0.154610, -0.391887, 
    -0.157525, -0.056837, 0.165756, -0.174302, 0.262723, 0.222099, -0.093733, 0.203891, -0.227634, -0.027371, 
    0.040038, -0.355702, 0.147559, -0.114859, -0.567604, -0.343049, -0.258231, -0.129232, -0.211624, 0.418474, 
    0.000923, 0.048977, -0.127860, -0.206137, 0.083286, 0.001940, -0.168770, 0.165669, -0.298418, -0.019997, 
    -0.120533, 0.195996, -0.025560, 0.080489, -0.556183, -0.375343, 0.008859, -0.112855, 0.033355, -0.264392, 
    0.229711, -0.019211, 0.033458, -0.073870, 0.144993, -0.231380, 0.206291, -0.173767, 0.141393, 0.197172, 
    0.006651, 0.039321, 0.255773, 0.071517, -0.013451, 0.174446, 0.236876, 0.281583, -0.134441, 0.115029, 
    -0.001161, -0.024541, -0.212912, 0.400626, 0.129430, 0.065879, -0.008218, -0.086957, 0.023496, 0.226463, 
    -0.039095, -0.158141, -0.208548, 0.082493, 0.103584, -0.013973, 0.120338, -0.073939, 0.016096, -0.114753, 
    -0.118061, 0.198131, 0.508880, 0.233484, -0.019727, -0.026849, 0.171392, -0.111618, -0.123294, 0.357143, 
    0.324186, 0.403836, 0.305169, -0.070211, -0.333131, -0.263170, -0.279693, -0.395466, 0.375000, -0.261913, 
    -0.045104, -0.237823, -0.187149, -0.074167, 0.013055, 0.022867, 0.361995, -0.158359, 0.081441, -0.212031, 
    -0.316189, 0.123968, -0.349470, 0.256790, -0.047953, -0.475974, -0.195663, 0.643782, 0.220179, -0.136805, 
    -0.254722, 0.032109, 0.339727, -0.096358, -0.430269, 0.369329, 0.193319, 0.003922, -0.408968, -0.154439, 
    0.079730, -0.320464, -0.214792, -0.125694, -0.098703, 0.132008, -0.209680, 0.236230, -0.308666, 0.181825, 
    0.045654, -0.043465, -0.266068, -0.419828, -0.002455, -0.105638, 0.274503, 0.317006, -0.048060, 0.242563, 
    0.199281, -0.269200, -0.282302, -0.133035, -0.026606, -0.023905, -0.242820, -0.239759, -0.111095, 0.093916, 
    0.092948, 0.128653, 0.115799, 0.062068, -0.140230, 0.007704, -0.099664, 0.097446, 0.128204, -0.112358, 
    -0.136894, 0.169228, 0.251012, -0.470726, -0.172481, 0.116390, 0.053108, -0.010766, 0.470822, 0.217617, 
    -0.082752, 0.094679, 0.034720, -0.097205, 0.199300, -0.327750, 0.025459, -0.183538, -0.026406, 0.262445, 
    -0.056190, -0.203744, -0.017927, -0.066717, 0.170450, 0.071074, 0.149719, -0.053490, -0.220954, 0.216229, 
    0.052139, -0.323150, 0.045146, 0.857255, 0.276523, -0.062054, -0.040833, 0.308644, 0.331713, -0.241152, 
    0.015804, 0.018666, 0.248157, 0.480104, 0.386437, -0.115400, 0.460685, 0.405608, 0.085146, 0.086357, 
    0.160340, -0.127760, 0.269449, 0.079974, -0.185076, 0.280658, -0.215533, -0.252096, 0.337169, -0.397947, 
    -0.298387, 0.042538, -0.494962, -0.375341, 0.028211, 0.129257, -0.314499, 0.058817, 0.013921, -0.274295, 
    -0.222798, -0.009529, 0.232532, 0.260133, -0.001067, -0.095990, -0.068137, 0.369507, 0.153572, 0.207245, 
    0.050239, 0.248062, 0.001722, -0.095031, 0.203317, 0.114201, 0.134035, 0.073383, -0.317916, -0.010371, 
    0.038626, 0.030468, -0.164505, -0.128671, -0.075673, -0.033849, -0.081636, 0.190973, -0.080461, -0.065168, 
    0.043057, -0.066269, 0.025604, 0.138001, -0.061867, 0.067706, 0.189910, -0.165410, 0.002076, 0.256631, 
    -0.143164, -0.358196, 0.154340, -0.076295, 0.118819, -0.145555, 0.214351, -0.082980, -0.065356, -0.106777, 
    -0.026372, -0.077195, 0.299193, -0.124057, 0.015077, -0.210272, 0.121813, -0.357562, 0.123687, -0.258732, 
    -0.050001, -0.143135, 0.230746, -0.051521, -0.090381, 0.235752, -0.243358, 0.203627, 0.357045, -0.038495, 
    0.098317, -0.262419, -0.002890, 0.035610, 0.210670, 0.013902, -0.050989, 0.177384, -0.099050, 0.078798, 
    -0.051918, -0.176323, -0.221342, -0.543439, -0.460505, -0.204079, -0.106355, -0.007041, 0.147827, 0.064473, 
    0.039133, 0.083569, -0.434876, -0.268535, -0.309792, -0.363735, 0.236342, -0.381215, 0.065957, -0.057606, 
    0.014184, 0.457458, 0.117203, 0.306909, -0.065580, -0.193293, 0.368357, 0.241363, 0.072408, -0.065437, 
    0.129103, 0.177301, 0.382771, 0.142728, -0.025077, 0.305645, 0.415602, 0.560085, 0.257797, -0.019423, 
    0.579183, 0.272800, 0.407102, -0.253212, 0.017978, -0.211232, -0.279233, -0.156976, -0.049095, -0.205381, 
    0.167035, 0.170511, -0.271478, 0.040130, -0.052797, 0.299013, 0.065352, 0.286549, 0.259281, -0.161008, 
    -0.068327, 0.268778, -0.043964, 0.042686, 0.105330, 0.194598, 0.152685, -0.095887, 0.599436, 0.011387, 
    0.058231, 0.047347, -0.091886, -0.153547, 0.212814, 0.002343, 0.041120, 0.358853, 0.087627, 0.147672, 
    0.131333, 0.237688, -0.027727, 0.119813, 0.307276, -0.090524, 0.241238, 0.064082, 0.029469, -0.107850, 
    0.499436, -0.243521, 0.162071, 0.131005, 0.126915, -0.034651, 0.032553, -0.108046, 0.328043, -0.184170, 
    0.268948, -0.235915, 0.021251, -0.070249, 0.333808, 0.406143, -0.000755, -0.094288, -0.068133, -0.081970, 
    -0.085412, -0.432944, -0.170674, -0.042267, 0.101073, -0.386913, 0.289038, 0.556284, -0.442679, 0.039137, 
    -0.356945, -0.937919, 0.088027, 0.432047, -0.260892, -0.331975, 0.417118, 0.386370, -0.287372, 0.306978, 
    0.127015, -0.036590, 0.024995, -0.259703, 0.396921, 0.038428, 0.139228, 0.741916, 0.131217, 0.449429, 
    0.188470, -0.107503, 0.304772, -0.211642, -0.018208, -0.147619, 0.059649, 0.271630, 0.117375, -0.013683, 
    -0.272368, -0.189753, -0.054469, -0.220572, -0.066804, -0.072825, -0.302237, -0.121287, 0.004942, -0.174446, 
    -0.220117, 0.033404, -0.105420, 0.056835, 0.093306, -0.009125, 0.282892, 0.245322, -0.016788, 0.221406, 
    0.036167, -0.362557, -0.057647, -0.216844, -0.128754, -0.249865, 0.323792, 0.180350, -0.508726, -0.165612, 
    -0.037850, -0.048751, -0.206485, 0.108709, -0.152004, -0.170461, 0.120435, -0.087411, 0.006970, 0.106146, 
    -0.134463, 0.001847, -0.157758, 0.024138, 0.013318, 0.168112, -0.014077, 0.062152, -0.043742, 0.415822, 
    -0.026359, 0.108289, -0.013563, 0.220509, -0.128317, 0.036835, 0.086534, -0.266095, 0.376093, 0.042031, 
    0.066861, -0.170941, -0.150842, -0.080380, 0.045223, -0.048840, -0.034052, 0.148077, 0.327921, -0.014923, 
    -0.089156, 0.179923, -0.035109, -0.053399, -0.068722, -0.448516, -0.053595, 0.018452, -0.173372, -0.041632, 
    -0.398643, 0.282212, -0.037502, 0.263755, -0.053713, 0.090494, -0.049987, 0.134037, -0.007011, -0.045412, 
    -0.266181, 0.005987, 0.137820, -0.196870, -0.046003, 0.095092, 0.136159, -0.099391, -0.524262, 0.390539, 
    0.621025, 0.365610, 0.224531, 0.125109, -0.045815, -0.227289, -0.000116, 0.174233, 0.097639, 0.126497, 
    -0.042636, 0.324314, 0.252598, -0.086796, -0.000536, 0.003299, 0.236536, 0.042869, 0.131135, 0.310852, 
    -0.070361, -0.211446, -0.293661, -0.024294, -0.229066, -0.215935, -0.169361, 0.176347, 0.152208, 0.158658, 
    0.248048, 0.149507, -0.279735, 0.333465, 0.167742, 0.170254, -0.169258, 0.035403, -0.247531, 0.019233, 
    -0.088208, 0.461797, -0.007097, -0.481000, 0.139526, 0.531832, 0.100385, -0.089325, 0.179205, -0.330535, 
    0.343121, -0.411179, 0.049246, 0.121374, -0.238451, 0.170792, 0.269603, 0.379562, 0.093102, 0.202272, 
    -0.027987, 0.247770, -0.247051, 0.210501, -0.159931, -0.146495, -0.256566, -0.076620, 0.003209, 0.055342, 
    -0.284980, -0.169994, 0.157124, 0.101238, 0.176943, -0.237800, 0.129542, -0.296638, -0.011717, 0.006512, 
    0.447412, -0.080205, 0.155960, 0.138921, 0.143838, 0.108726, 0.146536, -0.235562, -0.047064, 0.080533, 
    -0.183203, 0.148088, 0.160341, -0.164196, -0.157551, 0.044079, 0.376239, -0.086562, -0.099757, 0.108769, 
    -0.223797, -0.035622, 0.049504, 0.097755, 0.106473, -0.113453, -0.274553, 0.028323, -0.100009, 0.146933, 
    -0.224193, -0.158753, -0.150633, 0.042535, -0.107923, -0.181128, -0.175462, 0.004536, 0.563865, -0.238180, 
    -0.081801, 0.167831, -0.127432, -0.193097, -0.378687, 0.196818, 0.507134, 0.298259, 0.094944, -0.108540, 
    -0.281836, 0.023092, -0.231563, -0.489274, 0.263779, -0.098008, -0.161226, 0.212618, 0.241512, 0.054535, 
    0.004121, 0.397753, -0.236194, -0.474606, -0.069804, -0.222149, 0.181281, -0.205489, 0.078215, -0.273698, 
    0.206209, 0.161562, -0.445350, 0.258032, -0.594859, -0.197265, -0.077477, -0.309784, -0.080022, -0.050155, 
    0.255233, 0.186512, 0.026104, 0.344296, 0.169966, 0.231988, -0.056339, -0.029154, -0.206177, 0.066646, 
    0.149254, -0.049318, 0.395795, 0.167823, 0.065330, 0.199326, 0.005486, -0.160070, 0.020657, -0.084066, 
    0.028344, 0.071230, 0.056023, 0.351194, 0.095893, 0.143195, -0.069106, -0.088813, 0.113339, -0.301359, 
    0.235252, 0.084143, -0.196642, 0.192230, 0.217517, 0.047434, -0.101154, -0.067556, 0.305269, 0.051147, 
    -0.046292, 0.267256, -0.024275, -0.182284, 0.040353, 0.057501, -0.188976, -0.229991, -0.027862, -0.013320, 
    0.076303, 0.342990, -0.017064, 0.348356, -0.045295, 0.110752, -0.091270, -0.099369, -0.085968, 0.216879, 
    -0.068758, -0.134026, -0.003821, -0.375653, 0.109180, 0.185205, 0.162400, -0.162147, -0.166638, 0.405398, 
    -0.087966, -0.120052, 0.017172, 0.157986, 0.225926, 0.195345, 0.523249, 0.336644, -0.202101, 0.030296, 
    -0.160676, -0.087948, 0.166348, 0.462784, 0.193536, -0.045240, 0.040957, -0.018125, -0.122419, -0.363514, 
    -0.120025, 0.238177, 0.091445, 0.165357, -0.120222, 0.004325, 0.102457, -0.096716, 0.060766, -0.160923, 
    -0.049045, 0.006561, -0.362733, -0.198934, -0.261918, -0.318560, 0.163857, -0.046416, 0.380434, 0.182995, 
    0.145843, -0.050429, -0.387951, 0.020405, -0.386912, -0.206332, -0.105617, 0.312981, -0.092056, 0.077837, 
    0.156085, 0.051701, 0.116881, -0.038447, -0.112021, 0.064671, 0.549659, 0.193540, -0.226204, -0.328608, 
    -0.106013, -0.009716, -0.374848, 0.021938, -0.051121, 0.182298, 0.202559, -0.035603, 0.150310, 0.053361, 
    0.043077, 0.138760, 0.127711, -0.274367, 0.050452, -0.061196, -0.064221, -0.323361, 0.034565, -0.005663, 
    0.256605, 0.424247, 0.075868, -0.010785, 0.528774, -0.159532, -0.332092, -0.229345, -0.241775, -0.130630, 
    0.253946, -0.149732, 0.212677, 0.119920, 0.082979, -0.297889, -0.068396, -0.031798, 0.370799, -0.215786, 
    0.096328, -0.024943, -0.361164, -0.070060, 0.161172, -0.462755, 0.265036, 0.004647, 0.022340, 0.210319, 
    -0.144185, 0.030495, -0.022797, -0.016923, 0.176106, 0.012292, 0.214146, 0.292136, 0.278816, -0.127596, 
    0.360575, -0.129731, -0.071074, 0.332086, 0.317369, 0.249713, -0.342550, -0.303461, -0.037006, -0.135243, 
    -0.361214, 0.066686, 0.482823, 0.448408, 0.409700, -0.126906, 0.060942, 0.000055, -0.350359, 0.461010, 
    0.184304, 0.395453, 0.134736, 0.228688, 0.398659, 0.013468, -0.098369, -0.239751, 0.091917, -0.217633, 
    0.232454, -0.090471, -0.017757, -0.225489, -0.331147, -0.168761, 0.114165, -0.162909, 0.331415, -0.276862, 
    0.111558, 0.013230, -0.441109, 0.036060, -0.026592, -0.036081, 0.064359, -0.218632, 0.083763, 0.201517, 
    -0.614189, 0.164329, 0.192475, -0.278109, 0.166948, 0.112774, -0.046328, -0.109426, -0.011957, 0.271390, 
    0.175111, 0.279399, -0.100960, 0.290625, -0.011257, -0.358367, 0.186360, 0.133014, 0.016407, -0.087196, 
    -0.181066, -0.088340, 0.123698, -0.038730, -0.089912, 0.061371, -0.053879, -0.239633, 0.162075, -0.077875, 
    -0.028362, 0.129186, -0.015107, -0.096005, -0.183465, 0.020254, -0.078320, 0.336267, 0.130319, -0.064577, 
    0.153199, -0.068375, 0.150506, 0.006538, -0.360390, 0.156003, -0.026538, 0.040476, 0.182845, -0.003120, 
    0.196146, -0.049010, -0.141671, -0.029006, 0.115318, -0.087716, -0.055508, -0.063115, -0.068368, -0.053326, 
    0.249119, 0.053734, -0.358525, 0.051769, -0.295395, 0.080339, 0.184017, -0.130851, -0.248675, 0.190528, 
    0.500451, 0.256297, 0.157508, 0.172080, -0.152206, 0.108463, -0.204513, -0.287290, 0.134664, 0.109541, 
    -0.734333, -0.271281, -0.102605, -0.501466, -0.016760, -0.042999, 0.227896, 0.250124, 0.200641, 0.266467, 
    0.150023, -0.200852, -0.262888, -0.103977, 0.096305, -0.054527, 0.127316, -0.037522, 0.252454, 0.305183, 
    -0.037001, 0.277163, 0.273882, -0.047984, -0.394421, 0.060909, -0.014218, -0.061705, 0.042340, 0.332974, 
    -0.015583, 0.093788, 0.275078, -0.076836, 0.098549, 0.112070, -0.271889, -0.246774, -0.257550, -0.038953, 
    0.339627, -0.077420, -0.117479, -0.077396, -0.139089, -0.191752, 0.290464, 0.029856, 0.352434, -0.422038, 
    -0.382773, -0.112341, 0.155491, -0.221058, -0.120552, 0.061701, 0.159938, -0.315105, -0.256963, -0.234475, 
    -0.418701, 0.177821, -0.164661, -0.126649, 0.002639, -0.029021, -0.136571, -0.379357, -0.159902, -0.020282, 
    -0.184417, -0.211090, -0.240128, -0.049724, 0.059316, -0.184991, -0.080585, 0.085213, 0.039878, 0.212577, 
    0.069400, -0.318218, 0.249977, 0.038959, 0.009870, -0.012429, -0.232317, -0.151343, 0.290687, -0.009172, 
    0.042915, 0.239662, 0.019132, -0.157403, 0.093611, -0.103578, 0.178504, -0.379270, -0.028200, 0.176873, 
    -0.253312, 0.143909, 0.005385, -0.048452, 0.006822, 0.093716, 0.006327, -0.228220, -0.012451, 0.212037
    
};

// PyTorch Layer: conv1.bias (Shape: (16,))
static const data_t conv1_b[16] = {
-0.624447, -0.137462, -0.352000, -0.384345, -0.557565, 0.231261, 0.122094, -0.094542, -0.069553, 0.212998, 
    0.056140, 0.151584, 0.111183, 0.116941, 0.137989, -0.276336
};

// PyTorch Layer: conv2.weight (Shape: (32, 16, 3))
static const data_t conv2_w[1536] = {
0.269238, 0.186096, 0.075873, -0.026718, -0.067093, 0.047355, -0.542471, -0.240550, 0.061804, 0.348365, 
    0.189428, -0.119875, 0.271652, -0.060775, 0.204105, -0.025087, 0.150090, 0.085729, 0.296143, 0.195346, 
    0.333973, -0.177485, -0.060605, 0.104000, 0.028232, 0.248663, 0.134294, 0.101913, -0.078505, -0.266412, 
    -0.291195, -0.218432, 0.111385, -0.360447, -0.361447, -0.099215, 0.107194, 0.274820, 0.145506, -0.108029, 
    -0.082717, -0.202577, 0.307091, 0.313836, 0.253370, -0.111172, -0.148335, -0.185189, -0.621722, -0.536588, 
    -0.142618, -0.386928, -0.752898, -0.678218, 0.329474, 0.543671, 0.349994, -0.679057, -0.249919, 0.053679, 
    -0.200682, 0.325826, 0.640736, 0.218526, -0.021798, -0.342575, -0.125842, -0.390899, -0.669961, 0.451575, 
    0.387914, 0.224463, 0.321326, 0.172030, -0.413916, -0.063396, -0.743207, -0.216788, -0.156424, -0.093871, 
    -0.492082, 0.076418, -0.219373, 0.036729, 0.455755, 0.498889, 0.015608, -0.131305, -0.484390, -0.632162, 
    -0.050356, -0.690516, -0.095531, -0.453002, -0.388530, -0.419587, -0.410144, -0.100712, 0.085964, 0.308021, 
    0.443865, 0.575060, 0.041210, 0.145966, -0.091216, -0.220081, -0.012497, 0.354775, 0.124859, 0.022213, 
    0.159736, -0.304870, -0.101276, 0.040000, -0.376308, -0.190723, -0.410696, -0.129599, -0.034902, -0.251922, 
    -0.158837, -0.113613, -0.093353, 0.028332, -0.089148, 0.101137, 0.217994, 0.210455, 0.369236, 0.191501, 
    0.156965, 0.134557, -0.229166, 0.019275, 0.117555, 0.360695, 0.351157, 0.299933, -0.260479, -0.138370, 
    -0.251417, -0.145118, -0.021107, 0.198854, -1.161504, -0.663978, -0.256774, -0.279267, -0.672554, -0.435205, 
    0.352392, 0.625121, 0.336739, -0.391657, -0.006771, 0.247957, 0.053837, 0.275790, 0.599632, 0.221426, 
    -0.344099, -0.234926, -0.286022, -0.628866, -0.633210, 0.366757, 0.314452, 0.058081, 0.333847, 0.068577, 
    -0.399736, -0.424741, -0.318716, 0.042911, -0.214667, -0.143086, -1.062438, 0.227568, -0.057401, -0.110922, 
    0.359409, 0.178509, -0.193972, -0.210646, -0.455966, -0.766561, -0.043825, -0.297616, 0.183354, -0.622181, 
    -0.596426, -0.275736, -0.063880, 0.141084, 0.068383, 0.323417, 0.321796, 0.084220, 0.214312, 0.173330, 
    0.210827, -0.058159, 0.104063, 0.019217, 0.042984, 0.129417, -0.033831, 0.072214, -0.006743, 0.212411, 
    -0.090659, -0.175449, -0.254670, -0.190373, -0.048074, -0.175690, -0.245982, -0.080189, 0.014677, 0.228212, 
    0.017557, 0.045945, 0.082596, 0.229811, -0.015245, 0.383841, 0.273483, 0.347299, -0.232393, -0.370495, 
    -0.130763, 0.116078, 0.235536, 0.223970, -0.334661, -0.114073, -0.274857, 0.131099, 0.318418, 0.337191, 
    -0.288441, -0.101266, 0.215706, 0.237784, 0.034159, 0.060213, 0.024820, 0.318291, 0.056914, -0.155569, 
    -0.262624, -0.265992, -0.193507, -0.035037, 0.051964, 0.115342, 0.430874, 0.175870, -0.310150, 0.255190, 
    0.308556, 0.127904, 0.143842, 0.034173, -0.079597, -0.396169, -0.666772, -0.162334, 0.063889, 0.262204, 
    -0.203827, -0.737567, -0.999839, 0.409416, 0.144436, -0.083044, 0.361579, 0.202628, -0.122585, 0.141095, 
    -0.034834, 0.065694, 0.067121, -0.059511, -0.063602, -0.407120, -0.447716, -0.094579, 0.101123, -0.022872, 
    -0.013590, -0.170639, -0.288379, 0.080331, -0.430255, -0.135540, -0.165216, 0.156005, 0.152700, -0.203053, 
    -0.000770, -0.007064, 0.110346, 0.089289, 0.182647, -0.108358, 0.222868, 0.273985, 0.039363, 0.046141, 
    -0.048407, 0.060805, 0.205821, 0.286357, 0.270593, -0.071450, -0.217209, -0.065866, 0.023837, -0.013318, 
    0.118556, -0.506272, -0.335154, -0.172589, 0.304777, 0.238523, 0.240922, -0.143890, 0.123998, 0.044191, 
    -0.019109, 0.252189, 0.177764, -0.167935, -0.238405, -0.095985, 0.109997, 0.160322, 0.187424, 0.125967, 
    0.198947, -0.050977, 0.501643, 0.388868, 0.293778, -0.822200, -0.724242, -0.708774, 0.356813, 0.230723, 
    0.275776, -0.093949, -0.059104, 0.107745, -0.217162, -0.258435, -0.337656, -0.493173, -0.451775, -0.599741, 
    0.028861, 0.056471, -0.048934, 0.381084, 0.199531, 0.109504, 0.189353, 0.263578, 0.308417, -0.002170, 
    0.216240, 0.277091, -0.153308, 0.011775, -0.102519, -0.052421, -0.022355, 0.057852, 0.045734, 0.159523, 
    0.074337, 0.167283, 0.292677, -0.051267, 0.090614, 0.131809, 0.284771, -0.087572, -0.141470, -0.329587, 
    0.335794, 0.239582, 0.400514, -0.165110, -0.143315, -0.403885, 0.366718, 0.305625, 0.289265, -0.016852, 
    -0.032021, -0.068267, 0.007655, 0.149668, -0.088588, -0.096055, -0.275738, -0.473164, -0.028349, -0.087660, 
    -0.155985, 0.211795, 0.193624, 0.161093, 0.207254, 0.171756, 0.209878, 0.144836, 0.199375, 0.130411, 
    -0.438067, -0.474202, -0.347170, -0.081785, -0.198601, -0.174444, -0.085384, -0.180117, -0.042019, 0.660107, 
    0.613819, 0.485029, -0.809137, -0.692286, -0.103708, -0.083997, -0.589181, -0.363135, 0.185622, 0.629399, 
    0.383273, -0.554851, -0.002389, 0.108059, 0.012778, 0.245845, 0.489476, 0.303656, 0.007232, -0.060379, 
    -0.160197, -0.450104, -0.631859, 0.296338, 0.246455, 0.005350, 0.320798, 0.145758, -0.407147, 0.022690, 
    -0.340058, 0.067998, -0.198614, -0.180223, -1.036662, 0.007285, -0.347871, -0.272669, 0.248894, 0.184496, 
    -0.036165, -0.190749, -0.396411, -0.577608, 0.104324, -0.817392, 0.186596, -0.427469, -0.460789, -0.371803, 
    0.137415, -0.312721, -0.178925, -0.134554, -0.477351, 0.026617, 0.084845, 0.083231, -0.095365, 0.132894, 
    0.127103, -0.074827, 0.007185, -0.367563, 0.234039, 0.257362, 0.140360, -0.496422, 0.407533, -0.089393, 
    -0.406254, 0.155253, 0.018057, 0.081989, 0.301027, 0.365977, -0.004852, -0.275802, -0.521521, -0.068026, 
    0.034269, -0.147987, 0.004296, -0.049296, -0.349521, 0.297069, 0.258180, 0.202424, -0.097069, -0.007799, 
    -0.151046, -0.203202, 0.436694, 0.392255, 0.185620, 0.296696, -0.259876, -0.352529, 0.070860, 0.058071, 
    0.124906, -0.071582, -0.311423, -0.182664, -0.084761, 0.009678, -0.001887, 0.059652, 0.154673, 0.084441, 
    0.377396, 0.104139, 0.072020, -0.239959, 0.033409, -0.066585, 0.145141, -0.007317, 0.103595, 0.222056, 
    0.221877, 0.228904, 0.107835, 0.072484, 0.307806, -0.393103, -0.229777, -0.592711, -0.013436, -0.009892, 
    0.218699, -0.553254, -0.412607, -0.168185, 0.282386, 0.465736, 0.505131, -0.310445, -0.227686, -0.058930, 
    0.259447, 0.208639, 0.122930, -0.111321, -0.200462, -0.236453, 0.104355, 0.036832, 0.291845, -0.235244, 
    0.156383, 0.216954, -0.353193, -0.237753, 0.232097, -0.350021, -0.150578, -0.135066, 0.239316, 0.037117, 
    0.407453, 0.125901, -0.030490, 0.027812, -0.080047, 0.177286, -0.135707, 0.297252, 0.069950, 0.377349, 
    0.115225, 0.165272, 0.093250, -0.334159, -0.207820, -0.112225, 0.212774, 0.155124, 0.183098, -0.382952, 
    -0.122973, -0.339946, 0.178408, 0.211117, 0.340913, 0.261079, 0.141653, -0.075024, 0.096590, -0.068688, 
    -0.053835, 0.011228, -0.067892, -0.146835, 0.222760, -0.010889, -0.021645, -0.115597, -0.101508, 0.106312, 
    -0.368056, -0.244220, -0.216801, 0.167535, 0.028417, -0.206419, 0.080418, 0.050826, 0.030537, 0.146714, 
    0.036280, 0.032191, 0.301858, 0.429353, 0.385518, -0.216411, 0.130881, 0.196543, 0.354034, 0.322347, 
    0.034669, -0.083422, -0.088006, 0.079416, -0.174219, -0.079763, -0.035416, -0.392019, -0.162574, -0.139847, 
    0.150750, 0.292261, 0.362542, -0.009267, -0.107775, -0.075116, 0.178368, 0.225378, 0.165174, 0.126147, 
    -0.169687, -0.227363, -0.179713, -0.392870, -0.957027, 0.337376, -0.007648, -0.839533, 0.090900, 0.094121, 
    0.053308, 0.277437, 0.401474, 0.374898, 0.379957, 0.390951, 0.234852, -0.509969, -0.210100, -0.353640, 
    0.083418, -0.220273, -0.026486, 0.077322, 0.349689, 0.290620, 0.144834, 0.080710, 0.288690, -0.154785, 
    -0.935566, -1.009223, 0.013466, -0.135758, 0.207544, -0.232250, -0.154909, -0.301904, 0.012214, -0.296329, 
    -0.137880, 0.004915, -0.279613, 0.037151, 0.538721, 0.196911, 0.177164, -0.342600, -0.733154, -0.446501, 
    -1.022430, -0.574648, -0.546306, -0.913086, -0.826070, 0.244932, 0.026997, 0.346327, 0.125467, -0.374684, 
    -0.167430, 0.132689, -0.328749, -0.158122, 0.130189, 0.369824, 0.379439, -0.191870, -0.498832, 0.097883, 
    -0.257274, 0.220079, 0.505325, 0.400647, -0.105696, -0.288408, -0.821948, -0.250475, -0.487782, -0.001777, 
    0.167705, -0.533398, -1.120455, -0.081208, 0.134565, 0.687519, 0.063709, 0.105132, -0.338644, 0.312532, 
    -0.122809, -0.056803, -0.403350, -0.185442, -0.102166, 0.087465, 0.046397, 0.209152, 0.358766, 0.183327, 
    -0.049985, -0.083680, -0.206110, -0.278862, -0.129900, -0.633152, -0.461249, 0.523531, 0.134705, -0.031420, 
    0.160902, 0.040071, -0.225126, -0.024299, 0.074062, 0.056951, 0.510480, 0.261644, 0.261273, -0.088075, 
    -0.317294, -0.102078, 0.316302, 0.270239, 0.069706, 0.175172, -0.059449, 0.138693, -0.053915, -0.029747, 
    -0.154737, 0.068671, -0.142259, -0.156810, 0.168114, 0.240808, 0.283009, -0.208009, -0.126147, -0.136694, 
    0.363414, 0.446827, 0.451379, 0.170807, -0.139978, 0.026861, 0.031543, -0.058131, -0.097895, -0.318294, 
    -0.240701, -0.001433, -0.070754, 0.069400, -0.082027, 0.330399, -0.003366, -0.014807, -0.092733, 0.164504, 
    0.109177, 0.216824, 0.203857, 0.020983, 0.245991, 0.194012, 0.225325, -0.088261, 0.124848, 0.063731, 
    0.244003, 0.412526, 0.116793, -0.284101, -0.329674, 0.045511, -0.071674, -0.155732, 0.030942, -0.163772, 
    -0.190807, -0.080083, -0.150530, 0.008974, 0.188390, -0.001426, -0.184583, -0.246256, 0.336795, 0.316256, 
    0.367314, -0.076516, -0.212049, -0.201992, 0.112866, 0.154700, 0.121761, 0.205737, 0.183045, 0.242134, 
    0.234969, 0.203003, 0.196218, -0.155451, 0.245936, 0.087513, -0.050557, 0.041461, -0.091621, -0.073269, 
    0.123156, 0.209169, -0.107054, -0.009279, -0.091350, -0.229403, -0.152478, -0.154009, -0.187246, -0.162680, 
    -0.079928, 0.229864, 0.034638, 0.007031, -0.002953, 0.228195, 0.263950, 0.274495, 0.370645, 0.306930, 
    -0.270724, -0.363739, -0.346306, 0.209705, 0.108996, 0.244531, -0.325805, -0.201454, -0.297292, 0.202971, 
    0.438398, 0.301110, 0.585908, 0.448767, -0.490149, 0.139908, 0.420205, -0.644852, -0.003697, 0.025147, 
    0.069074, 0.042549, 0.318008, 0.420909, 0.262674, 0.098936, 0.367918, 0.170738, -0.306994, -0.301294, 
    -0.185799, -0.350525, -0.199094, -0.070934, 0.121258, 0.301447, 0.198718, 0.379569, -0.095504, -0.486672, 
    -0.492271, -0.787426, 0.257200, 0.293353, 0.139265, 0.033369, -0.150446, -0.153857, 0.330822, 0.050385, 
    -0.039711, -0.029705, -0.404509, -0.674430, -0.029587, -0.167338, -0.509385, -0.320330, 0.051104, -0.213177, 
    0.322880, -0.274088, -0.315371, -0.097607, -0.286413, 0.252037, 0.145830, -0.067474, -0.563123, 0.440096, 
    0.225967, 0.203414, 0.624762, -0.221708, 0.020322, -0.400610, -0.410035, -0.211018, 0.379907, -0.066853, 
    -0.540520, 0.310954, -0.347087, -0.005832, 0.047918, 0.243438, -0.055221, 0.177099, -0.060009, 0.174203, 
    -0.506520, -0.071319, -0.223577, -0.323920, -0.728949, -0.089352, 0.310893, 0.359086, -0.002325, -0.266555, 
    -0.024803, 0.038305, -0.015092, -0.033950, 0.284723, 0.110448, -0.090874, -0.193309, -0.619094, -0.618527, 
    -0.731211, -0.630036, -0.568263, 0.390403, 0.043744, 0.179255, 0.142944, -0.303636, -0.106585, 0.167686, 
    -0.401413, -0.303979, -0.392131, 0.300300, 0.513574, 0.170594, -0.251457, 0.142197, -0.322166, 0.192298, 
    0.376797, 0.224050, -0.242068, -0.334354, -1.055693, -0.452150, -0.382882, -0.392886, 0.196381, -0.329797, 
    -1.178404, -0.020884, 0.153551, 0.553376, 0.168927, -0.125581, -0.463532, 0.295689, 0.145676, 0.163584, 
    -0.350867, -0.212564, -0.059147, -0.219883, 0.211535, 0.236655, 0.063800, 0.092949, 0.088905, 0.132489, 
    0.117881, -0.043656, 0.133835, 0.191411, 0.218434, -0.030958, 0.220665, 0.179157, -0.093175, 0.088636, 
    0.024450, 0.060887, 0.142491, 0.166446, -0.108603, -0.063733, -0.235508, -0.133520, -0.024418, -0.154242, 
    -0.225739, -0.333747, -0.070196, 0.225405, 0.219424, 0.134807, 0.012093, -0.042025, 0.241162, 0.321182, 
    0.451253, 0.374109, -0.291134, -0.373562, -0.382789, 0.116635, 0.141984, 0.323445, -0.385392, -0.320345, 
    -0.422708, 0.167604, 0.417426, 0.302610, -0.215306, -0.108552, -0.219800, 0.198138, 0.323212, 0.397275, 
    0.284351, 0.248898, 0.203470, 0.005794, 0.215404, 0.160066, -0.033604, 0.151261, 0.075389, 0.026166, 
    -0.052161, 0.031422, -0.187138, -0.173794, -0.179016, -0.006018, 0.099837, 0.055119, -0.132294, -0.089886, 
    -0.218203, 0.100056, -0.158249, -0.054533, 0.129749, 0.333588, 0.131734, 0.020053, 0.247588, 0.217765, 
    -0.236781, -0.161870, -0.210679, 0.058400, 0.233549, 0.265800, -0.238597, -0.215999, -0.354286, -0.208503, 
    0.160617, 0.249243, -0.426587, -0.848964, -0.226704, -0.425273, 0.033401, 0.219906, 0.191264, -0.005485, 
    0.019925, -0.379002, 0.014996, 0.019547, -0.652215, -0.552980, -0.924075, 0.759068, 0.560214, 0.091055, 
    0.015977, 0.194225, 0.103776, 0.224619, 0.215881, 0.155584, -0.300319, -0.836184, -0.793585, -0.789532, 
    -0.341020, -0.609747, 0.152777, -0.488607, -1.232837, -0.095785, 0.229311, 0.345743, -0.129375, -0.334263, 
    -0.871811, 0.517740, 0.197013, 0.378318, -0.322755, -0.222083, -0.162556, -0.223048, 0.200592, 0.289848, 
    -0.189405, 0.097342, 0.176536, 0.373072, 0.263631, 0.449819, 0.015754, 0.155175, 0.039281, -0.419818, 
    -0.104484, 0.411927, 0.100738, 0.074798, 0.079917, -0.085494, -0.037215, -0.075626, -0.396461, -0.437112, 
    -0.386276, -0.441920, -0.085750, -0.191061, -0.153469, -0.074403, 0.030604, 0.252296, 0.131927, 0.119653, 
    0.080245, 0.190767, 0.308886, 0.338765, 0.299553, 0.347649, -0.035336, -0.016605, 0.023382, 0.197043, 
    0.153269, 0.432159, -0.270239, -0.008905, -0.156538, -0.130357, 0.137107, 0.172101, -0.511736, -0.911600, 
    -0.537208, -0.695301, -0.226620, 0.259769, 0.153712, 0.000320, -0.080575, -0.226257, -0.064422, 0.121067, 
    -0.499841, -0.641339, -0.731985, 0.723682, 0.527180, 0.432102, -0.092889, 0.110514, 0.124522, 0.164493, 
    0.315510, 0.328960, -0.210102, -0.659987, -1.061515, -0.645042, -0.363838, -0.548271, 0.127982, -0.261639, 
    -1.111663, 0.096803, 0.101264, 0.479734, 0.053361, -0.358193, -0.575717, 0.260671, 0.170571, 0.310504, 
    -0.387079, -0.136477, -0.140582, -0.412190, 0.092322, 0.270614, 0.096586, -0.096190, -0.021775, -0.144138, 
    -0.122351, -0.183881, -0.000367, 0.022498, 0.071808, -0.015399, 0.144129, 0.041034, 0.171992, 0.220754, 
    -0.001004, 0.039316, 0.049188, -0.193361, 0.297774, 0.289353, 0.098829, 0.163180, -0.017409, 0.039531, 
    0.001025, 0.149826, 0.170745, -0.293961, -0.124572, -0.293835, 0.120565, 0.079538, 0.125564, -0.441761, 
    -0.534393, -0.310603, 0.311263, 0.463057, 0.308385, 0.040066, -0.326707, -0.049524, 0.043108, 0.232340, 
    0.282602, -0.096143, -0.223625, -0.390653, -0.154360, 0.197105, -0.161382, 0.146278, 0.367893, 0.359279, 
    0.035171, 0.040025, -0.098103, 0.296475, 0.431044, 0.479581, -0.106105, -0.172465, -0.117638, 0.095760, 
    0.040758, 0.006700, -0.345777, -0.053632, 0.106979, -0.346907, -0.183984, 0.296629, -0.241317, -0.575316, 
    -0.622581, -0.283496, -0.168065, -0.513839, 0.304542, -0.021275, -0.590925, 0.282255, 0.388916, 0.310326, 
    0.049771, -0.147459, -0.297927, 0.277865, 0.183810, 0.217329, -0.271887, -0.338099, -0.850577, 0.311637, 
    0.405489, 0.223421, -0.839429, -0.450434, -0.081587, -0.114776, -0.716895, -0.663077, 0.363654, 0.569211, 
    0.341591, -0.401563, -0.153635, 0.304751, 0.039504, 0.348429, 0.590151, 0.279679, -0.187440, -0.428311, 
    -0.128944, -0.340146, -0.462614, 0.252677, 0.120113, -0.150873, 0.235378, 0.080231, -0.581618, -0.347638, 
    -0.367028, -0.243135, -0.229023, 0.012982, -1.102069, 0.050132, -0.453360, -0.382524, 0.456539, 0.353335, 
    -0.193124, -0.126332, -0.395894, -0.820543, 0.066542, -0.770824, 0.415187, -0.632743, -0.465155, -0.221175, 
    -0.341928, -0.710222, -0.662439, -0.616072, -0.427687, 0.291647, 0.034384, 0.235678, 0.220576, -0.483011, 
    -0.072920, -0.006288, -0.313113, -0.313477, -0.369137, 0.404148, 0.366535, 0.171030, -0.396648, 0.262992, 
    -0.070651, 0.205709, 0.369375, 0.414895, -0.173547, -0.247113, -1.005968, -0.250734, -0.554804, -0.659140, 
    0.134266, -0.479124, -1.160498, 0.050570, -0.040988, 0.538112, 0.174726, -0.001611, -0.406828, 0.224056, 
    0.194951, 0.094955, -0.250173, -0.169599, -0.156147, -0.457727, 0.123469, 0.416557, 0.028498, 0.144956, 
    0.161544, -0.070586, 0.162956, 0.059648, 0.026783, -0.047118, 0.239083, -0.026387, 0.063556, 0.240103, 
    0.261873, 0.161765, 0.209763, 0.007966, -0.157393, -0.121026, -0.217532, 0.023076, 0.091364, 0.264582, 
    0.087827, 0.270302, -0.080387, 0.128007, 0.157928, -0.308680, -0.421514, -0.585510, 0.147911, 0.200127, 
    0.108536, -0.403740, -0.161717, -0.368376, 0.401384, 0.256902, 0.460752, 0.095935, 0.053557, 0.008483, 
    0.114281, 0.022441, -0.114481, 0.139816, -0.166032, -0.217052
};

// PyTorch Layer: conv2.bias (Shape: (32,))
static const data_t conv2_b[32] = {
0.047703, -0.148662, 0.095233, -0.109370, 0.009799, 0.188195, -0.079664, 0.105416, 0.046716, 0.061491, 
    0.083309, 0.062430, 0.166174, -0.054509, -0.234225, 0.426336, -0.010777, -0.007198, 0.106927, -0.377181, 
    -0.099624, 0.399630, 0.036428, -0.160359, 0.456705, 0.040239, 0.236354, -0.002660, -0.143514, -0.020752, 
    0.434157, -0.020662
};

// PyTorch Layer: fc.weight (Shape: (3, 32))
static const data_t fc_w[96] = {
-0.304039, -1.360039, 0.314896, -1.221369, 0.284922, -0.947102, -0.215408, 0.151810, 0.278109, -1.227975, 
    -0.675988, -0.112877, 0.161265, -0.446639, 0.524521, -1.602106, -0.487697, -0.416441, 0.257378, 1.095810, 
    -0.902956, -1.301678, 0.157648, 0.384359, -1.443079, 0.432529, -1.302441, -0.263559, 0.748735, -1.030726, 
    -1.460950, 0.146254, 0.009301, -0.853035, -0.115130, -0.677573, 0.179799, 0.746711, -0.140379, 0.138926, 
    0.549495, -0.581906, -0.002157, -0.358047, -0.528911, -0.186137, -1.192237, 0.868415, 0.232160, -0.095188, 
    0.202129, -1.278301, -0.073952, 0.893186, 0.098924, 0.016054, 1.450463, 0.008353, 1.432076, -0.366725, 
    0.129305, -1.072027, 0.721869, -0.586186, 0.372694, 1.512599, -0.510068, 1.211159, -0.347872, 0.271976, 
    0.340715, -0.688469, -0.857382, 1.309581, 0.690351, 0.548798, 0.402745, 0.474742, 0.823865, 0.375793, 
    0.449154, 0.255336, -0.447117, 0.301637, 1.006923, -0.007442, -0.414880, -0.192713, -0.647441, -0.517530, 
    -0.692370, 0.417593, -1.047129, 1.535749, 0.085784, 0.281783
};

// PyTorch Layer: fc.bias (Shape: (3,))
static const data_t fc_b[3] = {
-0.042583, -0.012443, -0.018758
};

#endif // VOICE_CNN_WEIGHTS_H
