#ifndef VOICE_CNN_WEIGHTS_H
#define VOICE_CNN_WEIGHTS_H

#include "voice_typedefs.h"

// PyTorch Layer: conv1.weight (Shape: (12, 40, 3))
static const data_t conv1_w[1440] = {
-0.480360, -0.042395, 0.343948, 0.218442, 0.123760, 0.334627, 0.719635, 0.086553, -0.389602, 0.445808, 
    0.263437, 0.261942, 0.132782, 0.050190, -0.319131, -0.140507, -0.127282, -0.650134, -0.005910, 0.471388, 
    0.178463, -0.166411, -0.234233, -0.074839, -0.223968, -0.210260, -0.475364, -0.234795, -0.095373, 0.142847, 
    0.167461, -0.129965, -0.352542, 0.128066, -0.290931, -0.330977, -0.123079, -0.321973, 0.199010, -0.037925, 
    -0.195391, -0.006134, 0.019252, -0.299826, -0.398647, 0.203013, 0.232620, -0.132642, -0.321531, 0.161465, 
    0.098851, -0.163751, 0.097206, -0.105459, 0.030621, 0.472371, 0.035065, -0.065259, -0.201563, -0.054202, 
    -0.252029, -0.293237, 0.255561, -0.104310, -0.066554, -0.232759, 0.076605, 0.095658, 0.204363, 0.169205, 
    0.099309, 0.157961, -0.241437, 0.025932, 0.185540, -0.365934, 0.008769, -0.081146, 0.038837, 0.015559, 
    0.377583, 0.259989, -0.296034, 0.119257, -0.014817, 0.088951, -0.094993, 0.065507, -0.063937, 0.100458, 
    0.008969, 0.042024, 0.133416, -0.077180, -0.315343, 0.337046, -0.303040, -0.313915, 0.073962, -0.021513, 
    0.344285, -0.016436, -0.024643, 0.321258, -0.005288, -0.015720, -0.448752, -0.140070, -0.205439, -0.126374, 
    0.037288, -0.184957, -0.128922, 0.262966, 0.358437, -0.065441, -0.242065, -0.061889, 0.087219, 0.111196, 
    0.253309, 0.305677, 0.160479, 0.297905, 0.372930, 0.139568, -0.180625, -0.171393, -0.355417, -0.191172, 
    -0.473447, -0.687540, 0.255245, -0.116004, -0.390518, 0.121043, 0.234857, 0.353228, -0.098337, 0.101507, 
    0.006384, -0.399188, -0.438014, -0.586186, 0.080291, 0.442361, -0.069550, 0.649685, 0.165147, 0.260918, 
    -0.238007, 0.390128, 0.383037, -0.385810, -0.005200, 0.294241, 0.157994, -0.085694, -0.049549, 0.197403, 
    -0.003171, -0.249898, 0.344699, 0.189564, 0.094892, -0.146630, 0.077278, 0.154348, -0.003021, 0.039637, 
    -0.177605, 0.029210, -0.330320, -0.298608, 0.286342, 0.060675, 0.046763, -0.163262, 0.247730, -0.120864, 
    -0.532071, -0.130294, -0.115943, -0.180380, 0.194277, -0.293617, 0.168074, 0.050038, -0.439493, 0.449549, 
    0.019967, -0.160669, -0.310532, 0.016659, -0.013234, -0.326321, -0.347179, -0.078364, -0.065131, 0.084775, 
    -0.237495, 0.096464, -0.280025, -0.301194, -0.335111, -0.203219, 0.384003, -0.251072, 0.191422, 0.261902, 
    -0.157287, -0.130656, 0.015719, -0.307938, -0.158847, -0.312458, 0.097311, 0.099888, 0.112122, 0.085115, 
    0.368657, 0.068449, -0.169749, -0.045224, -0.073988, -0.130317, -0.142762, -0.317872, -0.079804, -0.149629, 
    0.084206, -0.115730, -0.060247, -0.006387, 0.032417, 0.034141, 0.030972, -0.227758, 0.083844, -0.257254, 
    0.315777, -0.080300, -0.487160, -0.202382, 0.147788, -0.383394, 0.085290, -0.051963, 0.024564, -0.231461, 
    -0.127154, -0.188719, 0.017461, 0.549584, -0.254969, -0.070796, 0.256901, 0.112674, -0.166832, -0.244351, 
    0.342340, 0.144452, 0.042408, 0.125979, 0.459784, -0.049715, -0.114104, 0.435134, 0.120032, -0.049554, 
    0.509446, 0.516509, 0.298276, 0.270685, 0.385398, 0.146915, -0.132298, 0.021678, -0.083536, -0.103044, 
    0.164008, -0.091813, -0.128515, -0.174055, -0.242807, 0.004833, -0.176425, -0.085628, -0.283016, 0.383712, 
    0.213550, 0.091917, -0.203187, 0.049108, 0.185381, -0.644850, 0.244639, -0.099385, -0.035232, -0.312459, 
    -0.078199, 0.092509, 0.153072, 0.254967, 0.009247, -0.113740, 0.121779, -0.077113, -0.007679, -0.022678, 
    -0.228514, 0.117584, 0.021686, 0.209300, -0.072890, 0.008847, 0.093287, -0.184752, 0.302491, -0.303785, 
    0.094007, 0.015142, 0.005442, 0.005243, 0.540184, 0.212395, -0.073495, 0.247888, 0.270841, -0.076160, 
    -0.027511, 0.150591, -0.347112, 0.543208, -0.339581, 0.029518, 0.210997, -0.099886, 0.012001, 0.314157, 
    0.006399, 0.266151, 0.039856, -0.271889, 0.024979, -0.380181, -0.197345, -0.084988, 0.291338, 0.001129, 
    0.091606, 0.445418, 0.115051, 0.022177, -0.299015, 0.047051, -0.270398, 0.175847, 0.049372, -0.256234, 
    -0.266689, -0.261458, -0.106795, 0.762904, 0.179347, -0.774566, 0.401898, 0.213069, -0.069874, 0.033136, 
    -0.015669, -0.315097, -0.266895, 0.006894, 0.138468, -0.322812, 0.592566, 0.942047, 0.209906, 0.383306, 
    0.174031, -0.065386, 0.137307, 0.072530, -0.374233, 0.258993, -0.115577, 0.069275, -0.047122, 0.117744, 
    -0.373040, -0.285202, -0.036221, -0.739894, -0.519085, -0.022508, -0.545583, -0.306004, 0.269011, -0.404514, 
    -0.035917, -0.021973, -0.147172, -0.013106, -0.216490, -0.176787, 0.089373, 0.127361, 0.341802, 0.103359, 
    -0.088254, 0.461153, -0.054851, -0.024206, 0.150817, -0.358622, 0.186681, -0.209104, -0.155339, 0.072628, 
    -0.262919, 0.153336, 0.000721, -0.134648, 0.088044, -0.079531, -0.107726, -0.015226, 0.197764, -0.132618, 
    0.100846, 0.058107, 0.046723, -0.052513, -0.122166, 0.060173, 0.285827, -0.283174, 0.171709, 0.316967, 
    -0.160105, 0.042579, 0.229465, 0.300585, -0.451137, -0.079131, 0.061867, -0.066040, 0.520822, -0.059783, 
    0.016294, -0.013376, 0.255408, 0.079653, -0.037078, 0.225080, -0.091694, -0.069108, -0.205335, 0.054744, 
    -0.107295, -0.065588, 0.192208, 0.138064, 0.124394, 0.017936, 0.128478, -0.321745, 0.075822, 0.026323, 
    -0.106334, 0.063013, -0.088627, -0.175958, 0.397921, -0.065571, -0.324061, 0.050673, -0.096955, -0.034448, 
    0.104031, -0.119032, -0.195207, -0.237770, -0.427556, -0.841240, -0.451346, -0.283718, 0.312574, -0.019384, 
    0.190165, -0.394565, -0.528107, -0.599841, -0.262552, 0.118122, -0.020488, 0.275520, -0.163816, -0.032078, 
    0.345952, -0.387979, 0.001280, 0.270491, 0.019815, 0.114360, 0.339010, 0.245094, 0.118924, -0.246742, 
    -0.105409, -0.308296, 0.102898, 0.233801, 0.169972, 0.403215, 0.447066, 0.029569, 0.020383, 0.146940, 
    0.319060, -0.066802, 0.057813, 0.114235, 0.018623, -0.078413, 0.021652, -0.252260, -0.216970, 0.127256, 
    -0.193283, 0.140950, 0.123845, -0.246744, 0.093328, -0.330239, -0.006473, -0.442275, 0.652293, 0.079043, 
    0.154435, 0.248138, -0.054217, -0.293858, -0.045030, 0.144301, -0.066876, -0.244265, -0.125791, -0.260133, 
    0.085163, -0.350553, -0.069070, -0.121524, 0.406814, 0.007440, -0.117825, 0.055573, -0.199292, -0.230355, 
    -0.005419, -0.286996, 0.037665, 0.080051, -0.276119, 0.058311, 0.015500, -0.031925, -0.281529, -0.204224, 
    0.087930, 0.085607, -0.297636, -0.256562, 0.273503, 0.130522, -0.150641, -0.124330, -0.262678, 0.319737, 
    -0.274605, -0.312927, -0.012355, -0.177355, 0.204640, 0.157759, -0.248708, 0.271649, 0.131449, -0.175798, 
    0.065167, -0.060996, -0.075107, -0.033645, -0.315228, 0.263928, -0.136464, 0.316619, -0.043619, 0.129484, 
    -0.069913, -0.177671, -0.326667, 0.310976, 0.208092, -0.079540, -0.026392, 0.501186, 0.769396, -0.003783, 
    -0.356366, -0.003512, -0.301879, -0.238363, 0.000316, -0.316722, 0.100213, 0.182230, 0.493918, 0.168786, 
    0.542487, 0.198416, -0.082675, 0.371563, 0.006178, -0.125409, -0.249237, 0.073396, 0.034604, 0.082557, 
    0.335238, 0.267346, 0.073469, 0.319738, 0.152759, 0.056784, -0.195927, 0.035306, -0.084660, -0.206672, 
    0.003395, -0.424877, -0.387103, 0.287337, -0.098236, 0.048011, -0.097320, 0.023024, 0.009171, -0.318497, 
    0.338419, -0.186928, -0.159339, -0.142098, -0.355733, 0.168695, 0.481936, -0.067199, -0.092136, -0.147843, 
    -0.318808, 0.176144, 0.244388, -0.164086, -0.229236, -0.084297, 0.018034, -0.153314, -0.206622, -0.313767, 
    -0.196558, 0.104221, -0.060259, -0.311906, 0.304573, -0.174592, -0.225695, 0.061831, 0.017977, -0.338514, 
    0.403676, -0.196371, -0.068512, -0.076981, -0.046066, -0.139153, 0.077251, -0.046300, -0.178350, 0.271173, 
    -0.132896, 0.263486, -0.104804, -0.235484, 0.295900, 0.087719, 0.248504, -0.117623, -0.244235, -0.160271, 
    0.191211, -0.059620, 0.258895, -0.048010, -0.135272, 0.405794, -0.013976, -0.285698, -0.174989, -0.253789, 
    0.463995, -0.199521, 0.080620, 0.271307, -0.086464, -0.002494, -0.042086, 0.154603, 0.205607, 0.114445, 
    -0.153347, -0.156271, 0.231054, 0.726171, 0.299691, -0.090639, 0.192789, 0.028033, -0.226628, -0.079740, 
    -0.231792, 0.079830, 0.384532, 0.323324, 0.256804, 0.140565, 0.007586, -0.001058, 0.533682, -0.007436, 
    0.132887, -0.084368, 0.234252, -0.142546, 0.168691, -0.053780, -0.154011, -0.334615, 0.112370, -0.184323, 
    -0.253444, -0.261524, 0.198453, -0.458844, -0.212253, 0.352943, -0.101861, -0.171774, 0.220468, -0.111145, 
    -0.356265, -0.125288, -0.253031, 0.515696, 0.478005, 0.024539, 0.147379, 0.276365, 0.196947, -0.050243, 
    0.197776, 0.006508, 0.155588, -0.445485, 0.335754, 0.283986, -0.272623, -0.080244, 0.038774, -0.186172, 
    -0.244750, -0.135862, -0.293569, -0.063187, -0.035558, -0.264893, 0.157358, 0.146010, 0.109290, -0.126526, 
    0.216488, -0.405889, 0.133315, 0.085887, 0.054317, 0.363911, -0.022564, -0.138833, 0.103242, -0.042549, 
    0.287749, -0.007860, -0.171807, -0.168075, 0.416795, 0.060564, 0.071703, 0.100030, 0.012617, -0.280501, 
    0.126575, 0.217389, -0.357770, 0.001435, -0.077327, -0.387155, 0.135068, -0.018441, 0.243581, -0.118448, 
    -0.004464, 0.071007, 0.065197, 0.132054, -0.149096, -0.101727, 0.133230, -0.203507, -0.153985, -0.075172, 
    0.177446, -0.037433, -0.198362, 0.224569, 0.242910, -0.144133, 0.000096, -0.242056, -0.051698, 0.285572, 
    0.518498, 0.763635, 0.582283, -0.565607, 0.041364, 0.813095, -0.408375, -0.099887, -0.217811, -0.192490, 
    0.173952, -0.336893, -0.710743, -0.509195, -0.605471, -0.430416, -0.514403, -0.000085, 0.114832, -0.191316, 
    0.212660, -0.204691, -0.306209, -0.144640, -0.205122, -0.428405, -0.196982, 0.387492, 0.376389, 0.282758, 
    0.009164, 0.543803, 0.548820, 0.501307, 0.145755, -0.024293, -0.246317, 0.130196, -0.608142, 0.380598, 
    -0.235382, 0.035413, 0.047378, 0.032104, 0.136243, -0.443440, -0.273104, -0.320232, -0.097261, -0.211249, 
    0.313409, -0.107924, -0.005435, 0.160654, -0.243189, -0.286678, 0.041042, 0.228124, 0.026904, 0.230615, 
    -0.092113, 0.287559, -0.273045, -0.352492, 0.325687, -0.391494, -0.207726, -0.307001, -0.251077, 0.008143, 
    -0.223981, -0.222306, 0.228641, -0.373220, -0.183959, -0.188403, 0.227680, -0.172032, -0.020363, 0.093323, 
    0.185192, -0.419095, 0.092137, -0.054389, -0.596298, -0.258855, -0.134734, 0.084231, 0.015060, -0.135346, 
    -0.273382, -0.106278, -0.302885, -0.082525, 0.088901, -0.021162, -0.646214, -0.022012, -0.087184, -0.083361, 
    0.244735, -0.065902, -0.082936, -0.245914, -0.185192, -0.091760, -0.185041, -0.096861, 0.101513, -0.094222, 
    -0.148175, -0.173482, -0.171945, 0.339249, -0.162214, 0.071206, -0.267867, -0.298076, -0.182066, -0.028808, 
    -0.371531, -0.324221, -0.487232, 0.458630, 0.519587, 0.700914, 0.457652, 0.512087, 0.346938, 0.186637, 
    -0.307258, -0.183222, -0.168473, 0.655758, 0.885419, 0.146341, 0.139502, 0.353538, -0.229478, -0.233454, 
    -0.164232, 0.024025, 0.112534, -0.163910, -0.148215, -0.376522, -0.466577, -0.375279, -0.147401, -0.232591, 
    0.258776, 0.562669, 0.002630, 0.249186, -0.123273, -0.586675, 0.059410, -0.209773, -0.030769, 0.081969, 
    0.061554, 0.026418, 0.135238, 0.128860, 0.210487, -0.191229, -0.153058, -0.031250, 0.096777, 0.069238, 
    0.312991, 0.043104, -0.304401, -0.029126, -0.157586, 0.028493, -0.028425, 0.047579, 0.137296, -0.180503, 
    -0.064269, 0.102484, -0.127011, 0.057797, -0.177292, 0.018940, 0.388429, -0.145571, -0.206447, -0.189244, 
    -0.531632, 0.171987, -0.049586, 0.033890, 0.099108, -0.231302, -0.224364, 0.118619, -0.002170, 0.078444, 
    0.329930, -0.113975, -0.047318, 0.094403, 0.196730, -0.173245, -0.155972, 0.005863, -0.372214, 0.351400, 
    0.134014, -0.277951, 0.335671, -0.141033, 0.073592, -0.267647, 0.396244, 0.188982, -0.097055, 0.132889, 
    -0.169093, -0.046858, -0.098401, 0.315634, -0.302858, -0.325644, 0.308930, -0.282918, -0.137826, 0.099637, 
    0.194122, -0.038787, 0.224749, -0.147197, -0.116169, 0.148043, -0.284861, 0.176784, -0.043811, -0.131354, 
    0.421117, -0.178836, 0.002632, 0.182949, 0.164265, 0.520926, -1.110717, -0.488548, 0.162455, -0.147991, 
    -0.324381, -0.074197, -0.004491, 0.149168, 0.384383, -0.469960, -0.173284, 0.101693, -0.380290, -0.243862, 
    -0.109687, 0.239557, -0.439515, 0.074360, 0.427520, -0.270109, 0.094728, 0.251176, -0.346278, 0.005205, 
    -0.204141, 0.540874, -0.254356, -0.489725, 0.377071, 0.162692, 0.087552, 0.090794, 0.076373, 0.247745, 
    0.031496, -0.428095, 0.005055, 0.126536, -0.267318, -0.024955, 0.197906, -0.132093, -0.113840, 0.254683, 
    -0.305383, 0.013524, -0.129161, -0.024810, -0.112296, 0.301081, -0.056347, -0.023372, -0.110764, 0.069530, 
    -0.012162, -0.037951, -0.043625, -0.086232, 0.225840, 0.061676, -0.048481, -0.047176, -0.058655, 0.264456, 
    -0.132159, 0.058774, -0.126276, -0.193354, -0.194745, -0.368631, -0.045493, -0.260087, -0.126768, 0.107769, 
    -0.121822, -0.267647, 0.088928, -0.208808, 0.019291, -0.444671, -0.024257, 0.061836, 0.160990, -0.402648, 
    -0.236791, -0.150963, 0.060827, -0.154303, -0.529536, -0.245561, 0.003995, -0.114740, -0.006580, 0.216451, 
    -0.018495, -0.452938, -0.311500, 0.274971, -0.139204, 0.010774, -0.172141, -0.304570, -0.046272, 0.075257, 
    -0.180822, -0.033060, -0.330132, 0.185680, 0.051024, -0.223344, 0.059402, 0.086074, -0.099212, 0.023164, 
    -0.401374, -0.159987, 0.182488, -0.139634, -0.213562, -0.242073, 0.615259, 0.482197, 0.723883, 0.301545, 
    0.527999, 1.071666, -0.198793, -0.040287, -0.283496, 0.166611, -0.173667, -0.584832, -0.015357, -0.084251, 
    0.120459, -0.165276, -0.548265, -0.245082, -0.180204, -0.263929, -0.678961, -0.193601, 0.015655, 0.059365, 
    -0.191119, 0.144883, 0.736527, -0.088866, 0.173368, 0.490231, 0.064117, -0.177737, 0.254043, -0.044291, 
    -0.095688, 0.082360, 0.175253, 0.036549, -0.078779, -0.033725, -0.002684, -0.180582, 0.070737, 0.100673, 
    -0.138785, -0.252044, -0.021488, -0.296757, -0.109367, 0.158557, -0.181205, -0.221860, 0.038365, 0.082274, 
    0.113434, 0.035933, 0.061409, 0.185717, -0.343508, 0.096317, 0.203710, -0.143909, -0.160337, -0.096184, 
    -0.132197, -0.274933, -0.185967, -0.104414, -0.146051, -0.179581, -0.172621, -0.148124, 0.084148, 0.212984, 
    -0.197961, 0.212464, 0.067104, 0.064632, -0.121299, -0.090642, -0.095574, 0.269736, -0.131004, 0.096753, 
    -0.032404, -0.451995, 0.074333, 0.182489, -0.195444, -0.365549, 0.076169, 0.214847, 0.418520, -0.221231, 
    0.257008, -0.122711, 0.052484, -0.068964, 0.028764, -0.267944, 0.082901, 0.008905, -0.156443, -0.055815, 
    0.183804, -0.069528, 0.182076, 0.100585, 0.060662, -0.416503, 0.254881, -0.071888, -0.085153, -0.019585, 
    -0.448230, -0.474734, -0.329417, -0.175553, -0.266238, -0.166694, 0.448838, -0.120958, -0.306515, 0.544579, 
    0.190328, 0.019037, -0.298712, -0.061376, -0.087853, 0.019236, 0.150517, 0.440949, 0.427503, 0.126931, 
    0.032149, 0.110257, 0.444298, 0.333333, 0.224788, 0.020002, 0.307162, 0.253690, 0.031167, 0.114462, 
    -0.168126, -0.247629, 0.197605, 0.117146, -0.072881, -0.035022, -0.078599, 0.021742, 0.242652, -0.028400, 
    0.095209, 0.327934, -0.067004, 0.319773, -0.082126, -0.116122, 0.232604, 0.130279, 0.128655, -0.078723, 
    0.230826, -0.118790, 0.009645, 0.218151, 0.471658, -0.258024, 0.061849, -0.062578, -0.001957, 0.195134, 
    0.190349, 0.012031, 0.050493, 0.003554, -0.064310, -0.183292, -0.075704, 0.157507, -0.002511, 0.113543, 
    -0.016367, 0.172759, 0.113783, 0.108678, 0.168454, -0.014328, 0.145460, -0.166154, 0.269377, -0.139076, 
    0.177145, -0.037751, -0.098232, 0.012999, -0.103838, -0.027082, 0.148123, 0.191106, -0.144807, -0.234811, 
    0.037317, 0.396792, 0.043553, 0.118643, 0.026685, -0.005898, -0.043003, -0.103282, -0.030605, 0.016700, 
    0.008829, 0.379337, -0.106703, -0.323398, 0.062950, -0.332637, 0.069840, 0.076722, -0.023771, -0.158366, 
    -0.065682, -0.059506, -0.011591, 0.141257, -0.212592, -0.061890, -0.041248, -0.150530, 0.016493, -0.187368
    
};

// PyTorch Layer: conv1.bias (Shape: (12,))
static const data_t conv1_b[12] = {
-0.384852, -0.228078, -0.182310, 0.109039, -0.025883, 0.067715, -0.143793, -0.493323, 0.465364, 0.103127, 
    -0.293127, 0.271118
};

// PyTorch Layer: conv2.weight (Shape: (16, 12, 3))
static const data_t conv2_w[576] = {
-0.051426, -0.015257, -0.084584, 0.276327, 0.207560, 0.104767, -0.082869, 0.030326, -0.028831, 0.132079, 
    0.137015, 0.249188, -0.423519, -0.168543, 0.202743, 0.177737, -0.209644, 0.113783, 0.268755, 0.361073, 
    0.273434, -0.239283, -0.391616, -0.332801, 0.240391, -0.073278, -0.408322, -0.039791, 0.027575, -0.134401, 
    -0.111673, 0.375808, 0.484520, -0.325432, -0.080227, 0.120072, -0.062875, -0.157154, 0.322320, 0.280879, 
    0.314280, 0.292521, 0.110645, 0.251865, -0.376779, 0.089262, 0.382934, -0.113624, 0.081387, 0.213069, 
    -0.050840, 0.045644, -0.081408, -0.244934, 0.210280, -0.126690, -0.142864, -0.628742, -0.329774, 0.053090, 
    0.084253, -0.120743, -0.551735, -0.054957, 0.024291, 0.053863, -0.057923, 0.002850, -0.034089, 0.287111, 
    -0.021769, -0.446877, -0.013336, -0.514634, -0.424774, 0.194870, -0.026300, -0.169467, 0.305230, 0.360965, 
    0.262756, 0.065824, -0.021171, 0.189719, 0.161590, 0.225312, 0.437509, -0.300799, -0.268720, -0.067673, 
    0.093828, 0.186996, 0.237250, 0.376902, 0.104010, -0.238260, 0.196755, 0.301735, 0.314841, 0.627612, 
    0.200967, 0.287351, -0.164181, -0.377374, -0.151606, -0.495196, -0.299306, -0.155695, -0.198033, 0.034817, 
    0.144134, -0.104235, -0.291751, -0.530418, -0.131379, -0.812021, -0.482812, 0.333003, 0.072842, 0.238028, 
    -0.410288, -0.614527, -1.056726, 0.285913, -0.263462, -0.337947, 0.202934, 0.376635, 0.468991, 0.343475, 
    0.193731, 0.192925, -0.332120, -0.374427, -0.570105, 0.434719, 0.184314, 0.109063, 0.331538, 0.516032, 
    0.743435, -0.189904, -0.732997, -0.248336, 0.504490, 0.452484, 0.441153, -0.370137, -0.151768, 0.048050, 
    0.271987, 0.380658, 0.332684, -0.702875, -0.574766, -0.892082, 0.279701, 0.332110, 0.169332, -0.437214, 
    -0.399190, -0.128615, -0.145648, -0.226576, -0.789791, -0.164954, 0.325778, 0.204989, 0.337696, 0.205179, 
    0.455755, -0.743201, -0.258132, 0.051825, 0.181616, 0.135342, 0.043717, -0.022502, 0.032376, -0.125182, 
    -0.089485, 0.174194, -0.196806, -0.662342, -0.657363, -0.358371, 0.118432, -0.279202, -0.527775, 0.048470, 
    0.250363, -0.167108, -0.084786, -0.899094, -0.492038, -0.254002, -0.927990, -0.095727, 0.537600, 0.682274, 
    0.237031, 0.280101, -0.003727, 0.463670, -0.287304, -1.016785, -0.917831, 0.339138, 0.143491, 0.217802, 
    0.503692, 0.671645, 0.392260, -0.188594, -0.078754, -0.655670, -0.098695, -0.251462, -0.329134, 0.392569, 
    0.442724, 0.198859, 0.160500, 0.425404, 0.392814, -0.379601, -0.160761, -0.276821, 0.266286, 0.275800, 
    0.038882, 0.343848, 0.329717, 0.507897, -0.217913, -0.283623, -0.245686, 0.168967, 0.422404, 0.356650, 
    -0.195013, -0.254658, -0.049757, -0.134104, -0.082834, -0.331415, -0.222015, -0.038328, 0.398544, 0.213813, 
    0.001687, 0.045609, 0.146839, -0.191043, -0.262209, -0.436550, -0.125564, -0.039545, -0.261750, -0.465473, 
    -0.211979, 0.082275, 0.274707, 0.270287, -0.325725, -0.383204, 0.040847, 0.059197, 0.106269, -0.071997, 
    0.097582, 0.402509, 0.300806, -0.094050, -0.457919, -0.426902, 0.256476, 0.271682, -0.101983, -0.148184, 
    -0.310808, 0.063515, 0.178525, 0.064476, 0.190826, -0.056213, 0.200443, 0.193408, -0.137225, -0.555585, 
    -0.259813, 0.309640, -0.047768, -0.247031, 0.275835, 0.251074, 0.479717, 0.304650, 0.120250, 0.222920, 
    0.087270, 0.138655, 0.429004, -0.240005, -0.171484, -0.235256, 0.096016, 0.065423, 0.145707, 0.533319, 
    -0.205917, -0.174144, 0.114970, 0.257610, 0.227971, 0.740159, 0.289795, 0.171707, -0.412823, -0.166618, 
    0.122443, -0.489611, -0.320561, -0.181573, 0.604953, 0.504766, 0.316135, -0.836329, -0.404722, 0.162139, 
    -0.610118, -0.392717, -0.512503, -0.969864, -1.354280, -1.685711, -0.230155, 0.046327, 0.071335, 0.147484, 
    -0.272333, -0.673195, -0.028066, -0.038185, -0.490278, -0.432006, 0.077506, 0.265033, 0.405893, 0.181450, 
    -0.463057, -0.982879, -0.461612, 0.117413, 0.769793, 0.470420, -0.045721, -0.583060, -0.788038, -0.326139, 
    0.613231, 0.414441, 0.111811, -0.160236, -0.190455, 0.143006, 0.056238, 0.365286, 0.194836, -0.438089, 
    -0.632426, -0.783980, 0.231484, 0.459131, 0.315307, -0.399848, -0.069621, -0.446007, -0.258676, -0.491987, 
    -0.474817, -0.362774, 0.040297, 0.005760, 0.377491, 0.259613, -0.040821, -0.206306, -0.363645, 0.112376, 
    0.116370, 0.062604, -0.197078, -0.018626, -0.150224, -0.292409, 0.046360, 0.106499, 0.073670, 0.188985, 
    0.535541, 0.550499, 0.143686, -0.126175, -0.061956, 0.041333, 0.085085, -0.021519, 0.101682, -0.061565, 
    -0.257204, 0.451690, 0.376987, 0.396169, -0.188046, -0.027658, -0.145705, 0.069736, 0.329993, 0.379812, 
    -0.048107, 0.345592, 0.335947, -0.356366, -0.245980, 0.004917, 0.188307, -0.079729, -0.014299, 0.547630, 
    0.559692, 0.486168, -0.089468, -0.157493, 0.027385, 0.354927, -0.046094, -0.054375, -0.377050, 0.152165, 
    -0.172629, -0.192227, 0.205790, 0.229739, -0.389101, -0.420763, 0.234326, -0.060496, -0.169773, -0.140982, 
    0.114025, 0.465782, 0.240731, 0.573407, -0.336147, -0.419372, 0.171761, 0.163994, 0.289018, 0.248763, 
    -0.024647, 0.084528, -0.509296, -0.052147, 0.054688, -0.356110, 0.188504, 0.046307, -0.565800, 0.075888, 
    0.265169, 0.196686, 0.076765, -0.371915, 0.063089, 0.060063, 0.108963, 0.049559, 0.186324, 0.323196, 
    -0.075507, 0.097881, 0.395326, -0.224747, -0.113633, -0.217467, -0.003800, 0.151117, 0.248945, 0.267020, 
    -0.339372, -0.344049, 0.048382, 0.117060, -0.335545, 0.413158, 0.111001, -0.076638, -0.502880, 0.233336, 
    0.624923, -0.594686, -0.275218, -0.193168, -0.102196, -0.222336, -0.006180, 0.074375, 0.096011, -0.143420, 
    -0.411473, -0.302741, -0.091330, 0.034274, 0.230948, 0.071581, -0.300464, -0.299725, -0.011385, 0.047058, 
    -0.034234, 0.231598, 0.383264, 0.445126, 0.013328, -0.204736, -0.473983, -0.065323, 0.333814, 0.002320, 
    -0.086841, 0.183422, 0.243753, 0.185955, 0.146366, 0.048179, 0.335957, 0.127903, 0.246157, 0.190368, 
    0.104932, -0.096731, -0.056779, -0.020774, 0.462088, 0.353593, -0.367531, -0.314920, -0.125174, -0.090652, 
    0.284388, 0.204258, -0.239570, 0.039802, -0.204416, 0.401265, 0.462518, 0.347809, -0.269952, -0.006721, 
    0.104968, -0.116616, 0.276731, 0.148153, 0.154918, 0.256132, 0.212440, -0.405031, -0.358692, -0.189885, 
    0.079704, -0.059557, -0.007100, 0.333083, 0.493330, 0.368197
};

// PyTorch Layer: conv2.bias (Shape: (16,))
static const data_t conv2_b[16] = {
0.038052, 0.290007, -0.034127, -0.321876, 0.057292, -0.066335, -0.140753, 0.025874, -0.062025, 0.195825, 
    -0.056168, 0.145452, 0.106991, 0.023701, 0.046933, 0.172096
};

// PyTorch Layer: fc.weight (Shape: (3, 16))
static const data_t fc_w[48] = {
0.235724, 0.575022, -0.743120, 0.085726, -0.710878, 0.059966, -0.005369, 0.558159, -0.686696, -1.937227, 
    -0.997651, 0.227354, -0.125335, -0.702519, 0.322597, 0.468360, -0.727107, -0.856924, 0.232869, -1.278961, 
    1.018365, -1.840979, 0.427323, -0.296231, 0.192786, 0.655875, 0.979430, -0.064082, -0.393735, -0.409258, 
    -0.544700, -0.039426, 0.560085, 0.530373, 0.432625, 0.961216, -0.482358, 1.680033, -0.704528, 0.078677, 
    0.421764, 1.061621, 0.003548, -0.614718, 0.669022, 0.739100, 0.127197, -0.453379
};

// PyTorch Layer: fc.bias (Shape: (3,))
static const data_t fc_b[3] = {
0.195758, -0.029784, -0.074806
};

#endif // VOICE_CNN_WEIGHTS_H
