#ifndef VOICE_CNN_WEIGHTS_H
#define VOICE_CNN_WEIGHTS_H

#include "voice_typedefs.h"

// PyTorch Layer: conv1.weight (Shape: (16, 40, 3))
static const data_t conv1_w[1920] = {
0.143449, 0.024152, -0.062217, 0.297096, 0.217556, 0.098110, -0.329868, 0.027828, 0.027265, -0.321460, 
    0.135922, -0.225064, -0.302995, -0.174368, -0.010398, -0.072699, 0.061605, 0.176372, -0.019671, 0.270756, 
    0.319265, 0.310264, -0.079670, 0.071765, -0.108897, 0.038084, 0.227792, -0.440324, -0.277502, -0.424669, 
    -0.121067, -0.087280, 0.048432, -0.124346, -0.003077, 0.425707, -0.053322, 0.007836, 0.302005, -0.235059, 
    0.068496, -0.129704, -0.039036, -0.078460, 0.061485, -0.292527, -0.299742, 0.025373, 0.030408, 0.059316, 
    -0.276477, -0.054561, -0.190128, 0.172570, -0.122946, -0.077340, 0.086292, 0.014667, 0.116570, 0.201300, 
    -0.026682, 0.048543, 0.060374, 0.191070, -0.012750, 0.138576, 0.168196, 0.050711, -0.111708, -0.029390, 
    -0.076131, 0.051027, 0.157772, -0.043965, -0.357051, 0.189893, 0.292371, 0.158473, -0.225447, -0.186195, 
    -0.219747, 0.151026, 0.144600, -0.159462, -0.065639, -0.076606, 0.288849, 0.192712, -0.080523, 0.109229, 
    -0.018353, 0.055767, 0.282427, 0.345174, -0.244484, 0.109599, 0.210291, -0.015161, 0.070680, -0.269075, 
    -0.061048, -0.296797, 0.214305, 0.328507, -0.038376, -0.265868, 0.068473, 0.207218, 0.092110, -0.001330, 
    -0.037012, 0.045779, -0.116519, -0.007525, 0.419588, 0.065579, -0.159446, -0.054514, 0.057319, -0.340271, 
    0.132864, 0.103802, 0.238522, -0.381884, -0.340742, -0.515380, -0.223379, -0.168068, 0.316371, 0.260443, 
    0.230765, 0.654947, -0.287621, -0.268662, 0.008775, -0.063845, -0.272981, -0.368759, 0.286660, 0.270689, 
    -0.280768, -0.133258, 0.035768, -0.146227, 0.080719, -0.206818, -0.227750, 0.183945, -0.101570, -0.205741, 
    -0.274601, 0.039658, -0.067286, 0.056546, 0.268727, 0.054489, 0.023767, -0.082343, 0.085050, -0.155921, 
    0.180799, 0.096847, 0.024806, -0.304535, -0.077297, -0.001746, -0.228086, 0.035140, -0.008073, 0.097791, 
    0.196678, 0.130858, 0.189858, 0.007090, -0.074356, 0.201286, -0.522119, -0.135649, 0.240171, 0.031511, 
    0.242577, -0.191969, 0.143440, -0.125447, -0.079361, -0.010031, 0.034973, -0.105594, -0.136809, -0.152443, 
    -0.058458, 0.158387, -0.224013, -0.042052, 0.072561, 0.031450, -0.066230, 0.194850, -0.384665, 0.326134, 
    -0.213175, -0.005090, 0.169445, 0.057645, 0.105368, 0.065451, -0.136054, -0.098188, -0.094812, 0.130684, 
    0.208717, -0.254939, 0.073594, -0.077777, -0.156163, 0.198650, 0.222061, 0.232502, -0.130219, 0.151747, 
    -0.271682, 0.164434, -0.046934, 0.128079, -0.188461, 0.174948, 0.099371, -0.017649, -0.084759, -0.006868, 
    0.078820, -0.046989, -0.289290, 0.064995, 0.110455, -0.024515, -0.238023, 0.146668, 0.249864, -0.126634, 
    -0.067203, -0.121813, -0.154194, 0.826939, 0.538550, 0.075567, -0.278675, -0.121776, 0.096933, 0.535414, 
    0.229063, -0.145352, 0.088819, 0.164972, 0.195546, -0.588624, 0.090434, 0.442643, -0.283411, 0.091688, 
    0.228259, -0.344949, -0.047151, 0.262804, 0.449231, 0.078393, 0.019805, -0.002367, 0.081159, -0.117353, 
    0.225915, 0.224856, 0.388838, 0.200625, 0.211414, 0.013364, -0.003288, 0.088207, 0.517047, 0.110590, 
    0.132865, 0.299363, -0.085845, -0.015527, -0.020371, -0.242432, -0.240551, 0.261955, 0.214625, 0.077691, 
    -0.000087, 0.146024, -0.079526, -0.011136, 0.064468, -0.056831, 0.181788, -0.168964, -0.252524, -0.283522, 
    -0.095345, 0.042412, 0.021154, 0.061549, -0.341768, 0.182662, -0.323784, 0.163977, -0.253328, 0.240637, 
    0.052005, 0.162420, -0.002384, -0.230706, -0.356572, -0.460846, 0.063935, 0.064950, 0.003987, 0.242979, 
    -0.161920, -0.181124, 0.193144, -0.024863, -0.267485, -0.142579, 0.207127, -0.354899, -0.132184, 0.058469, 
    0.069492, 0.283142, 0.049748, -0.101154, -0.119389, 0.005335, -0.332693, 0.111996, 0.014704, 0.278223, 
    -0.030028, -0.339780, 0.101940, 0.150683, -0.145162, -0.236701, 0.228791, 0.036900, -0.210829, -0.141137, 
    0.081257, 0.074535, 0.016901, 0.308059, -0.272939, -0.079978, 0.220926, -0.095372, -0.018423, 0.263916, 
    -0.061556, -0.031691, -0.049221, -0.357008, 0.007876, -0.100589, 0.159516, 0.199766, 0.226373, 0.036480, 
    0.513212, 0.409113, 0.003676, 0.258049, -0.473257, 0.097789, 0.581987, -0.258582, 0.116007, -0.251389, 
    0.225052, -0.055400, 0.367193, 0.124996, 0.275832, -0.061184, -0.104067, 0.034834, 0.015013, -0.102854, 
    0.059604, -0.040748, -0.133371, 0.080699, 0.105999, -0.164341, -0.065164, 0.037399, 0.133908, 0.161713, 
    0.102803, 0.246710, 0.455604, -0.092921, -0.377557, 0.184762, -0.056470, 0.112795, -0.004394, 0.041222, 
    0.002379, 0.166668, -0.083039, 0.200068, -0.014476, -0.229783, 0.135012, 0.188930, -0.311908, 0.081512, 
    -0.056000, 0.054867, -0.052034, -0.068995, 0.028541, -0.084270, -0.081929, 0.014794, -0.202412, -0.146624, 
    -0.154181, -0.028362, 0.170325, -0.165278, -0.223525, -0.108443, 0.083391, -0.315715, -0.170000, 0.149508, 
    -0.045752, 0.277360, -0.231902, 0.113238, -0.107762, -0.190844, 0.146576, -0.034894, 0.211030, -0.088226, 
    0.349716, -0.038843, 0.059758, -0.078765, 0.192571, 0.312058, -0.317015, 0.181741, -0.118482, 0.155195, 
    -0.443513, 0.120725, 0.335883, -0.149554, 0.078641, -0.124721, 0.187216, -0.076719, 0.149300, 0.145772, 
    0.025116, -0.065410, -0.062149, 0.174136, -0.128247, -0.111657, -0.008644, 0.119100, -0.434145, 0.219114, 
    -0.131666, -0.355888, -0.163140, 0.048085, 0.031075, -0.044164, -0.196580, -0.252971, -0.472687, -0.157527, 
    -0.151809, -0.028933, -0.031400, -0.082097, 0.166450, 0.128459, 0.270134, 0.206743, -0.030007, 0.281645, 
    0.155788, -0.037811, 0.240990, 0.448424, 0.426555, 0.336507, -0.149284, 0.316814, 0.047274, 0.229892, 
    -0.023154, -0.180149, -0.013911, -0.246819, -0.400617, 0.020480, 0.306578, -0.234809, 0.225693, 0.052311, 
    0.081112, -0.051986, -0.526787, 0.305379, 0.327299, -0.289676, 0.148523, 0.199993, -0.051990, -0.214059, 
    -0.124447, 0.261725, -0.132229, 0.120562, -0.025036, 0.155041, -0.097841, -0.106971, -0.078022, -0.251787, 
    0.166856, 0.093877, -0.052984, 0.318514, 0.080872, 0.139920, -0.027336, 0.066329, 0.023954, -0.148322, 
    -0.056268, 0.157503, 0.043106, -0.008255, 0.158343, 0.002621, -0.042408, -0.043607, -0.303284, 0.211377, 
    -0.241134, 0.085426, 0.135372, 0.192024, 0.032355, -0.004623, -0.199127, 0.264154, -0.047432, 0.229843, 
    0.236944, -0.196021, -0.272337, -0.127470, 0.130736, -0.148168, 0.086758, 0.384558, -0.646439, 0.050054, 
    -0.031091, -0.151018, 0.096175, 0.115417, -0.071993, 0.116591, -0.135781, -0.003755, 0.051930, -0.232597, 
    0.079452, 0.291418, -0.328987, -0.108103, -0.366517, -0.046883, -0.043266, -0.179264, 0.171114, -0.187711, 
    -0.242976, -0.153138, -0.193222, -0.208724, -0.219734, -0.153009, -0.073715, -0.080334, 0.277962, 0.189619, 
    0.420370, 0.097190, 0.115910, 0.059369, 0.154074, 0.050684, -0.012997, -0.345742, -0.292185, 0.354599, 
    -0.258627, -0.195465, 0.038056, -0.107082, 0.135761, -0.168020, 0.132763, 0.097391, -0.041854, -0.133556, 
    0.077258, 0.157218, 0.312189, 0.184665, -0.143793, 0.231585, -0.010034, -0.045711, -0.132437, 0.008183, 
    0.114443, -0.199911, 0.316611, -0.145117, -0.179603, -0.261262, 0.120623, -0.297887, 0.218288, -0.232755, 
    0.299325, -0.090662, 0.034815, 0.162306, -0.137373, -0.026622, -0.166435, -0.169939, 0.244473, 0.354755, 
    -0.047276, 0.072111, 0.068001, -0.003360, 0.078569, -0.192719, 0.210744, 0.128044, 0.298429, 0.012758, 
    -0.064325, 0.140510, 0.252697, 0.266335, -0.170126, 0.242498, -0.082933, 0.261066, 0.164464, 0.035160, 
    0.159485, 0.157523, 0.263139, -0.073852, 0.184308, 0.285348, 0.105838, 0.059317, -0.142575, -0.129286, 
    0.073917, 0.029821, 0.292077, -0.144995, 0.054505, 0.091938, 0.131747, 0.074532, 0.521970, 0.114569, 
    0.226064, -0.095965, 0.046532, -0.131677, 0.038181, 0.285102, -0.245214, 0.176803, -0.102904, 0.201199, 
    -0.140128, 0.079008, 0.266196, -0.336452, 0.189100, -0.297381, 0.146812, -0.387344, -0.323260, 0.128410, 
    0.015026, 0.105049, 0.129354, 0.488710, 0.296542, 0.223587, 0.097559, -0.012873, -0.542016, 0.121423, 
    0.065561, -0.313479, -0.117574, -0.115377, -0.364208, 0.621876, 0.184132, 0.117665, 0.146895, 0.221057, 
    0.287193, 0.038132, 0.102851, 0.219367, -0.175799, -0.172585, 0.064128, -0.209537, -0.344859, -0.105404, 
    0.085054, 0.022587, -0.009945, 0.142688, -0.132279, -0.067001, -0.174466, 0.106681, -0.275637, -0.068504, 
    -0.085647, -0.117825, 0.068624, -0.109834, 0.166959, -0.153429, -0.140521, -0.196710, -0.333296, 0.333759, 
    0.300693, 0.024459, 0.244681, 0.073890, -0.131369, -0.410043, -0.264501, 0.130624, 0.168940, -0.078849, 
    0.022990, -0.040931, -0.052581, -0.110993, -0.421024, 0.144069, 0.070978, 0.188858, -0.022263, 0.086812, 
    -0.145612, 0.077956, 0.189294, -0.083445, 0.161090, 0.153014, -0.014450, -0.027177, -0.210557, 0.168523, 
    -0.054401, -0.035418, -0.184475, 0.116609, -0.177548, 0.127679, 0.002535, 0.027809, 0.106234, -0.160189, 
    -0.022548, -0.117329, 0.248223, -0.319823, -0.087370, 0.117535, -0.118181, 0.289769, -0.332803, 0.141493, 
    -0.083010, -0.007271, -0.415382, -0.107791, -0.115360, -0.174480, 0.005924, -0.233467, 0.147381, -0.180321, 
    -0.073338, -0.198408, 0.031223, 0.184257, -0.027666, -0.027478, -0.223832, 0.087398, -0.287010, -0.454354, 
    0.041980, -0.204980, -0.217783, 0.322629, 0.291220, -0.139925, 0.356971, 0.318875, 0.117046, -0.118191, 
    0.300971, -0.089491, -0.115521, 0.211955, 0.126868, 0.102724, 0.378900, 0.041697, 0.344197, 0.372395, 
    0.108756, -0.052976, 0.222266, -0.028445, 0.224285, 0.620363, 0.234387, -0.095402, 0.171578, -0.421702, 
    -0.131442, 0.023972, -0.281163, -0.255613, -0.108672, 0.106710, -0.196958, -0.156635, 0.102117, -0.243936, 
    0.001910, 0.049581, 0.107825, 0.170693, 0.410496, -0.024561, 0.281704, -0.222391, -0.025783, 0.212319, 
    0.000106, -0.003649, 0.010868, 0.002008, -0.077211, -0.250788, -0.268961, 0.053677, 0.253009, 0.190875, 
    0.030345, -0.037882, 0.041111, 0.068081, -0.314088, -0.143723, -0.159690, -0.092304, 0.167080, -0.168903, 
    -0.304807, -0.194885, 0.030327, 0.106390, 0.074713, -0.425842, 0.314027, -0.234114, -0.044752, -0.156221, 
    -0.128399, 0.075746, -0.158214, 0.015196, 0.326859, -0.024359, -0.092888, -0.047830, -0.172351, -0.035251, 
    0.024412, -0.027777, 0.080254, -0.083488, -0.132678, -0.103553, -0.087143, -0.152861, 0.067380, 0.053624, 
    0.018467, 0.426954, -0.070991, -0.111189, -0.070677, 0.120722, -0.135152, 0.017287, -0.115327, -0.178134, 
    0.123286, -0.074775, 0.113596, 0.169985, 0.132046, 0.151916, 0.177679, -0.183234, -0.053464, -0.138941, 
    -0.180940, -0.117185, -0.272137, -0.073929, 0.285761, 0.378858, -0.356561, 0.137210, 0.387327, -0.263274, 
    -0.191174, -0.015389, -0.219592, -0.192300, -0.196486, 0.078309, 0.154035, -0.034315, 0.000578, 0.040166, 
    0.373219, 0.100001, 0.287670, 0.479747, -0.097060, -0.248158, 0.291058, 0.001417, -0.214042, -0.023546, 
    0.122597, 0.023573, 0.391499, 0.267003, 0.115680, -0.100877, -0.136340, -0.183531, -0.250703, -0.144186, 
    -0.019527, -0.466850, -0.352073, -0.058976, -0.213832, -0.085555, 0.188468, -0.092299, 0.088750, 0.068403, 
    -0.309538, -0.289095, -0.033137, 0.185599, 0.015553, 0.253367, 0.134149, -0.022686, 0.363956, 0.220770, 
    0.131712, 0.094270, -0.034604, -0.027141, 0.038474, -0.221312, 0.110395, 0.179729, -0.054219, -0.041765, 
    0.069691, 0.041769, -0.060516, -0.173889, 0.312666, 0.127855, -0.286764, 0.304291, 0.149993, 0.187897, 
    -0.135612, 0.268896, 0.100002, -0.159639, -0.074547, -0.037375, -0.040757, 0.152626, 0.064688, 0.159343, 
    0.323912, -0.016203, 0.041459, -0.192383, 0.029283, -0.092634, -0.342254, -0.081207, 0.149950, -0.020989, 
    -0.162430, 0.072018, 0.135453, 0.011096, -0.339792, -0.032983, 0.025393, -0.054837, 0.162978, -0.127340, 
    0.123423, -0.182733, -0.265248, -0.101401, -0.184790, -0.103714, 0.180092, 0.104651, 0.016075, -0.111872, 
    -0.162754, -0.165374, -0.204375, -0.321459, -0.109217, 0.158222, 0.047397, -0.272850, 0.000787, -0.389878, 
    -0.346734, 0.107408, -0.044865, -0.120717, -0.149384, 0.208742, 0.167580, -0.191292, 0.131021, 0.530906, 
    -0.084230, 0.069126, -0.005356, -0.100404, -0.425262, 0.114893, 0.026882, 0.104344, -0.348210, -0.155547, 
    -0.212597, 0.025027, -0.121256, 0.113512, 0.052701, -0.082590, -0.179475, -0.225863, 0.178599, 0.189231, 
    -0.013792, -0.174043, -0.131306, -0.295164, 0.230698, 0.078554, 0.411346, 0.203611, 0.140849, 0.428489, 
    0.022806, 0.149310, 0.172691, -0.073462, 0.156971, -0.085114, 0.133291, 0.259924, -0.044011, 0.031786, 
    0.096507, 0.035416, 0.054624, 0.035598, 0.010122, 0.079129, 0.108544, 0.086879, 0.069551, -0.006374, 
    0.014181, -0.158083, 0.187100, 0.028046, 0.262435, 0.170050, 0.000818, 0.376037, 0.261427, 0.238694, 
    0.033328, -0.126233, 0.202259, 0.037830, -0.112164, 0.342334, -0.241045, -0.143245, 0.242684, 0.052366, 
    -0.123046, 0.218980, 0.326168, 0.286980, 0.268743, 0.220114, 0.172525, 0.215037, 0.383170, 0.089287, 
    -0.089867, 0.162725, -0.042180, -0.234845, 0.044968, 0.178072, -0.003286, 0.214614, 0.240149, -0.032500, 
    -0.292141, 0.005678, 0.242594, -0.199638, -0.065688, 0.055839, -0.014320, 0.021988, -0.039456, -0.227178, 
    -0.057665, -0.119062, -0.138492, 0.662559, 0.371294, 0.420369, -0.118488, -0.048514, -0.185785, -0.300422, 
    0.053004, -0.309959, 0.154829, 0.008246, -0.157563, -0.080233, 0.724243, 0.036010, -0.281670, -0.059970, 
    0.167631, -0.132316, -0.202339, -0.307167, 0.653040, -0.008757, -0.055561, 0.155320, 0.138688, 0.289863, 
    -0.020885, -0.013243, 0.324553, 0.000284, 0.236532, -0.174516, -0.126445, 0.130064, -0.028499, 0.439495, 
    -0.307882, 0.231054, 0.112468, -0.042030, 0.209147, 0.052976, -0.348993, 0.241789, -0.236672, 0.224458, 
    -0.016957, -0.264333, 0.236612, 0.015797, -0.202467, -0.214989, -0.104706, -0.253750, -0.061757, 0.115401, 
    -0.205871, 0.254027, -0.254104, 0.042043, -0.031285, -0.262410, 0.051388, 0.109330, -0.206201, 0.144678, 
    -0.210858, -0.053149, -0.184415, 0.257732, -0.258506, -0.229352, 0.390389, -0.118716, 0.250254, 0.183088, 
    -0.003853, 0.000514, -0.190891, -0.131381, -0.410168, 0.339494, 0.341803, -0.151663, -0.172479, -0.050381, 
    -0.325195, 0.077195, -0.038977, -0.017033, -0.090333, -0.085888, 0.014098, -0.265425, 0.189988, 0.249652, 
    -0.281422, -0.139073, -0.186289, -0.222105, 0.328895, 0.228698, -0.136777, 0.117708, -0.393637, -0.080679, 
    -0.124087, 0.155928, -0.329951, 0.019485, -0.126070, -0.075795, -0.007749, 0.164104, -0.252060, 0.334734, 
    -0.089675, -0.022627, -0.010840, -0.742241, -1.040191, -0.847675, -0.503120, -0.371726, -0.272812, -0.166353, 
    -0.043095, -0.019097, -0.199610, -0.190278, -0.219223, 0.324696, 0.139180, 0.067974, 0.567434, 0.237608, 
    0.409245, 0.396051, 0.499698, 0.435182, 0.395178, 0.297458, 0.108850, 0.366278, 0.190810, 0.032402, 
    0.226135, -0.173401, -0.097441, 0.331618, 0.289146, 0.071082, 0.067517, 0.145203, -0.035999, 0.630313, 
    0.024222, -0.113699, -0.012642, 0.288617, -0.260401, -0.104451, 0.029779, -0.079325, 0.149171, 0.020253, 
    0.054591, 0.317081, -0.044489, 0.020608, 0.173539, -0.215241, -0.071352, 0.172335, -0.352993, -0.068222, 
    0.047408, -0.048165, -0.229489, -0.100148, -0.119690, -0.055165, -0.008333, 0.091333, 0.041013, -0.250693, 
    -0.064553, 0.188727, -0.166211, -0.095608, 0.019965, -0.322913, 0.175320, 0.008746, 0.006972, 0.210068, 
    -0.233667, -0.256912, 0.243426, -0.236903, -0.096825, 0.203675, -0.050466, 0.279541, 0.134576, -0.302779, 
    0.030879, 0.116639, -0.106297, -0.177417, -0.329956, -0.240718, 0.284113, 0.014788, 0.067868, -0.437814, 
    -0.000800, 0.135445, -0.060033, -0.032118, 0.208731, 0.093005, 0.084182, -0.012833, 0.162378, -0.035886, 
    0.083472, -0.285885, 0.024118, 0.265112, 0.094168, -0.042008, -0.020317, 0.241348, -0.030055, -0.099026, 
    -0.060098, 0.077399, 0.162031, -0.124591, 0.053136, -0.145907, 0.096824, 0.265599, -0.167237, -0.016099, 
    -0.050018, 0.078960, 0.024244, -0.023442, -0.238877, 0.353188, 0.325951, 0.169826, 0.200536, -0.059895, 
    0.057348, 0.060612, 0.114046, 0.002374, 0.401137, 0.329007, 0.095709, 0.154832, 0.179195, -0.016595, 
    0.187589, 0.212717, -0.280124, 0.295545, 0.204335, 0.458181, 0.013322, -0.029781, 0.318398, 0.014029, 
    -0.170863, 0.318395, 0.129896, -0.172387, 0.212267, 0.338829, -0.026212, 0.244562, -0.160999, 0.330127, 
    -0.283222, -0.152056, 0.222385, -0.203382, 0.016887, 0.188613, 0.057408, 0.247578, 0.184707, 0.110875, 
    0.069944, -0.000084, -0.165981, -0.213719, 0.314900, -0.066352, -0.128304, 0.051588, 0.245481, 0.344698, 
    -0.118408, -0.147296, -0.042232, 0.090673, -0.133748, 0.181142, -0.008345, 0.201664, -0.037057, 0.183585, 
    -0.024439, -0.221864, 0.158730, 0.429780, 0.103370, -0.405737, 0.569134, -0.085212, 0.114703, -0.186032, 
    0.017592, 0.121149, 0.011598, 0.165985, -0.083436, 0.292688, -0.122191, 0.194804, 0.176222, 0.256437, 
    -0.284611, 0.231076, -0.038851, 0.069439, 0.165470, 0.100284, -0.117691, -0.246483, 0.029858, -0.165106, 
    -0.120155, 0.232627, 0.164002, 0.211000, 0.274799, 0.044696, -0.272115, -0.473871, -0.111653, 0.086331, 
    0.117079, 0.131972, 0.154256, -0.474441, -0.545710, -1.042825, 0.192819, 0.411198, 0.288324, 0.472785, 
    0.007079, -0.004641, 0.125103, -0.068108, 0.197967, -0.132206, -0.015185, 0.116741, 0.008026, 0.117275, 
    -0.161103, 0.074675, 0.249436, 0.224503, 0.344817, -0.110279, -0.157305, -0.020056, -0.082935, 0.192672, 
    -0.441351, -0.150573, -0.006566, 0.021390, 0.297343, -0.032898, 0.151745, -0.022044, -0.097314, 0.261993, 
    -0.194374, -0.008534, -0.278616, -0.312336, -0.116990, 0.128934, 0.015565, 0.130649, 0.093721, 0.077365, 
    0.309483, 0.088279, -0.206358, 0.006719, -0.190495, 0.013754, -0.222319, -0.237561, 0.266424, -0.039806, 
    -0.110150, 0.337605, 0.051597, -0.197948, -0.018735, 0.046337, 0.147897, 0.314739, 0.158406, 0.087009, 
    0.067437, 0.031536, 0.377656, 0.105687, 0.024043, -0.308587, 0.293962, 0.039907, 0.057286, -0.198656, 
    0.123428, 0.063724, -0.107732, -0.160462, 0.090567, 0.159111, 0.054359, -0.016327, -0.102719, 0.049273, 
    0.150890, -0.168466, -0.029784, -0.288613, -0.062844, -0.112145, 0.206116, 0.057187, 0.281780, -0.156850, 
    0.090482, 0.020708, 0.020488, 0.203561, -0.030612, -0.122901, -0.468073, -0.009278, -0.185271, 0.127212, 
    0.060289, -0.089220, -0.337540, 0.017035, 0.146067, 0.126480, -0.057027, -0.194366, -0.157579, -0.013865, 
    0.078959, 0.125023, 0.128121, 0.235193, 0.118614, 0.079561, -0.087489, -0.380387, -0.337207, -0.195619, 
    -0.420910, -0.043671, -0.105174, 0.089059, 0.099260, -0.178839, 0.161652, 0.605532, 0.360793, 0.151412, 
    -0.139731, -0.312538, 0.033027, -0.434185, 0.260144, 0.109708, 0.495123, -0.090197, 0.068514, 0.231957, 
    -0.052461, 0.191875, -0.108109, -0.293316, 0.377280, -0.216932, -0.143732, -0.080908, 0.041073, 0.023178, 
    -0.145880, 0.269780, -0.040085, 0.132115, -0.222221, 0.220758, 0.276920, 0.114909, -0.083143, -0.380097, 
    -0.113638, -0.005672, 0.039146, -0.191984, -0.119438, 0.168763, 0.059678, -0.007689, 0.047271, 0.228240, 
    -0.173434, 0.326562, 0.016146, -0.097696, -0.106235, 0.019404, 0.145415, 0.002919, 0.003478, -0.093107, 
    0.064999, -0.251786, 0.075012, 0.038020, 0.226803, 0.104336, 0.180812, 0.182602, -0.275009, 0.073499, 
    0.199719, 0.162365, -0.147382, 0.004792, -0.111145, 0.014338, 0.011215, 0.182710, -0.334308, 0.207118, 
    -0.409661, 0.135714, 0.016817, -0.212825, 0.016460, -0.057025, -0.012852, -0.003664, -0.221942, -0.247089, 
    0.011207, -0.091460, 0.038372, -0.063699, 0.171464, 0.022047, 0.052410, 0.242691, 0.076663, 0.029788, 
    -0.174106, 0.000248, -0.186113, 0.326461, 0.037247, -0.357325, -0.103420, 0.049901, 0.107451, 0.108762, 
    0.138508, 0.075229, 0.070520, -0.178387, -0.396826, -0.473286, -0.169667, -0.153554, -0.149377, -0.307212, 
    -0.367953, 0.022220, -0.461341, -0.253457, 0.025534, -0.393812, -0.300453, 0.296048, 0.105605, 0.231924, 
    0.496624, 0.341801, 0.100837, 0.046416, 0.049531, 0.227919, 0.259318, 0.049225, 0.303877, 0.251701, 
    -0.158954, -0.067213, -0.093858, -0.136660, 0.075818, -0.037000, -0.039637, 0.046844, 0.160403, -0.388378, 
    -0.048648, -0.270219, 0.106246, 0.210028, -0.182686, 0.057201, 0.204621, 0.358508, -0.283770, -0.051432, 
    -0.057806, 0.094073, -0.023043, 0.118778, 0.117926, 0.267845, -0.033362, -0.287479, 0.167177, -0.055424, 
    0.198431, -0.266505, 0.168631, 0.167327, -0.264344, 0.122551, 0.241953, -0.229731, 0.213258, 0.097804, 
    0.074983, 0.057591, 0.084541, 0.019051, -0.255178, -0.016745, -0.014453, 0.003815, -0.237282, 0.049996, 
    -0.021244, -0.115277, 0.368645, 0.064758, 0.179173, -0.056940, -0.272235, -0.050803, 0.260934, 0.059821, 
    0.094798, 0.080130, -0.093813, 0.134783, -0.163866, 0.046564, 0.322022, 0.057536, -0.266043, -0.113337, 
    0.040119, 0.127270, -0.107776, 0.020609, -0.109979, 0.241163, -0.185861, 0.053917, -0.006670, 0.131667, 
    -0.287351, -0.288549, 0.061855, 0.004837, -0.079637, -0.117364, 0.238890, -0.010635, 0.376476, -0.037902
    
};

// PyTorch Layer: conv1.bias (Shape: (16,))
static const data_t conv1_b[16] = {
-0.119383, -0.024602, 0.295152, -0.146977, -0.061078, -0.118654, -0.092872, -0.168360, 0.004321, 0.063555, 
    -0.040773, -0.092708, -0.352060, -0.166731, -0.026946, 0.115262
};

// PyTorch Layer: conv2.weight (Shape: (32, 16, 3))
static const data_t conv2_w[1536] = {
0.136033, -0.099899, -0.015651, -0.224355, -0.126349, -0.331414, -0.096305, 0.010418, 0.199370, 0.187481, 
    -0.215055, -0.338196, 0.291126, -0.057899, -0.176619, 0.030442, -0.071234, -0.053566, -0.232302, -0.097563, 
    -0.247486, 0.107782, 0.130426, 0.015859, 0.153437, 0.028084, -0.114259, 0.086730, 0.019593, -0.171512, 
    -0.104438, 0.147586, 0.144145, 0.520102, 0.389051, 0.034877, 0.041283, -0.249584, -0.392489, -0.005026, 
    -0.379642, -0.264884, -0.229872, -0.122439, -0.065687, 0.092057, 0.151023, 0.005986, 0.413033, 0.302806, 
    0.081637, 0.084135, -0.017025, 0.209045, 0.319580, 0.314952, 0.204826, -0.089576, -0.111459, 0.171945, 
    -0.420107, -0.338665, -0.474657, -0.200181, -0.272764, -0.228347, 0.268853, 0.101603, -0.072145, 0.047698, 
    -0.090969, -0.304040, 0.024194, 0.002932, -0.006015, 0.024450, -0.068663, -0.206315, 0.087578, -0.238058, 
    -0.407142, -0.342277, -0.261917, 0.073072, -0.353414, -0.280249, 0.070201, 0.380136, 0.434763, 0.590254, 
    0.281225, 0.160882, 0.073040, 0.244728, 0.166488, 0.267120, 0.052310, -0.061421, -0.065218, 0.079757, 
    -0.054024, -0.338738, 0.306231, 0.265007, 0.092281, -0.086884, 0.000528, -0.031616, 0.023723, 0.035379, 
    0.116713, 0.154831, 0.121556, 0.160691, 0.211426, 0.214396, 0.190704, -0.134560, -0.061847, 0.101478, 
    -0.004193, 0.036033, -0.054069, -0.158379, 0.008477, 0.046598, 0.200937, 0.111750, 0.327710, -0.369211, 
    -0.193766, -0.225621, 0.082914, 0.244407, 0.277266, -0.257054, -0.389761, -0.364955, 0.211700, 0.163429, 
    0.257263, -0.004660, 0.071200, 0.265490, -0.090161, 0.189143, 0.019082, -0.273261, -0.368115, -0.337860, 
    -0.186520, -0.151238, 0.194306, -0.149024, -0.104532, -0.303690, 0.043287, 0.169881, -0.048076, -0.170241, 
    -0.021624, -0.031304, -0.235047, -0.276330, 0.004259, -0.084528, 0.005628, 0.040457, 0.016963, 0.166355, 
    0.074324, 0.154510, 0.151669, 0.094884, -0.151663, -0.174522, 0.010875, 0.441909, 0.454066, 0.215581, 
    0.049806, -0.104719, -0.332137, 0.151667, -0.219392, -0.221695, -0.048019, -0.121904, -0.278747, 0.061449, 
    0.252510, -0.035569, 0.086207, 0.220254, 0.291856, -0.077562, -0.462738, -0.460455, -0.243947, -0.046178, 
    0.180361, -0.077226, -0.019224, -0.179353, 0.106590, -0.059641, 0.114023, 0.097599, 0.078342, 0.147904, 
    -0.084374, -0.101149, 0.168368, -0.063771, 0.015261, -0.017160, 0.105280, 0.083375, 0.292541, 0.183587, 
    0.258556, 0.229486, -0.315037, -0.203187, -0.039997, 0.446021, 0.426834, 0.133512, 0.091714, -0.252198, 
    -0.597362, 0.297130, -0.009976, -0.102126, -0.226138, -0.256126, -0.212010, 0.126064, 0.220822, 0.025732, 
    0.026595, 0.073979, -0.101337, 0.021149, -0.079289, -0.086261, 0.051383, -0.039286, 0.095435, 0.266565, 
    0.212979, 0.353781, -0.202640, -0.215921, -0.110899, 0.208650, 0.268816, 0.232249, 0.279975, 0.141842, 
    0.189919, -0.137948, -0.162282, 0.031943, -0.051212, -0.247567, -0.251990, -0.151763, -0.217198, -0.134634, 
    0.013899, 0.042307, 0.039937, 0.021290, 0.075831, 0.092894, -0.015041, 0.146072, 0.007802, -0.149526, 
    -0.247397, -0.307061, 0.186082, 0.283496, 0.323663, 0.283533, 0.269664, 0.211250, -0.472126, -0.261402, 
    -0.292291, 0.094043, 0.369247, 0.207735, -0.652086, -0.691030, -0.617900, 0.079466, 0.248727, 0.079112, 
    0.443491, 0.096801, -0.286114, -0.004604, 0.055009, -0.157126, 0.059899, -0.078095, 0.083478, 0.334746, 
    -0.166125, -0.571282, 0.375041, -0.081863, -0.527345, 0.249734, -0.323011, -0.593037, 0.335681, 0.009148, 
    -0.712368, 0.319797, 0.313936, 0.202260, 0.337486, 0.272254, 0.316713, -0.133313, 0.168543, 0.131827, 
    -0.138276, -0.202574, -0.149083, 0.085188, 0.046644, 0.029034, 0.340525, 0.191674, 0.106880, 0.205684, 
    0.134039, 0.232454, 0.211631, 0.141744, 0.048713, -0.052594, 0.029430, 0.246436, -0.177551, -0.171858, 
    -0.023380, -0.059229, -0.064645, 0.014325, 0.128126, -0.121585, -0.246423, 0.103171, 0.179190, -0.030392, 
    0.286223, 0.278675, 0.148197, 0.041146, -0.016762, -0.041775, 0.057994, 0.049939, -0.162780, -0.499959, 
    -0.422429, -0.091188, -0.156522, 0.008390, 0.152547, 0.329005, 0.362179, 0.487943, -0.108438, -0.242376, 
    -0.218341, -0.126946, -0.252814, -0.231144, -0.065186, -0.037429, 0.066934, -0.002690, 0.028929, -0.076006, 
    -0.001512, 0.084026, 0.003099, 0.120078, 0.217211, 0.171659, -0.138329, -0.016810, 0.066196, 0.181255, 
    0.319473, 0.241033, 0.196427, 0.257767, 0.290864, -0.098549, -0.272713, -0.221868, -0.049081, -0.180918, 
    -0.238765, -0.128544, -0.233210, -0.293801, 0.017064, 0.011911, 0.030624, 0.072963, -0.004743, 0.014279, 
    0.139799, 0.132717, 0.105883, -0.255462, -0.184658, -0.317966, 0.171492, 0.160658, 0.292197, 0.299248, 
    0.249529, 0.292430, 0.001663, 0.300074, 0.223501, -0.030828, -0.157801, -0.155024, 0.173603, 0.177338, 
    -0.007460, 0.146781, 0.067644, 0.058451, -0.287516, -0.360713, -0.418059, 0.331946, 0.378203, 0.370784, 
    0.369921, 0.284591, 0.295191, -0.182196, -0.272552, -0.142675, -0.111438, -0.303343, -0.316751, 0.012501, 
    0.178662, 0.111396, -0.430823, -0.458717, -0.484377, -0.034796, -0.001491, 0.154975, -0.153863, -0.152458, 
    0.038369, -0.039073, -0.098824, 0.023168, 0.086857, 0.267341, 0.340885, 0.172068, 0.238499, 0.310290, 
    -0.137082, 0.130066, -0.072582, -0.123570, -0.337463, -0.309472, 0.095605, 0.140641, 0.226059, 0.322420, 
    0.238832, 0.207054, -0.057198, -0.173066, -0.049397, 0.102585, 0.169911, 0.363015, 0.123353, 0.345485, 
    0.173666, -0.131066, -0.157526, -0.200641, -0.071540, -0.140273, -0.090441, -0.262246, -0.150374, -0.256892, 
    -0.068852, -0.063469, -0.074088, 0.080647, 0.056033, 0.142993, -0.049790, -0.060678, -0.108143, -0.241520, 
    -0.111248, -0.125884, 0.224866, 0.097927, 0.294744, 0.219107, 0.353494, 0.303380, 0.042307, 0.113045, 
    0.300984, -0.233791, 0.005117, -0.303228, -0.338904, -0.329223, -0.074668, -0.009809, -0.192030, -0.296891, 
    0.155950, 0.178674, 0.050817, -0.127459, -0.052270, -0.049647, -0.090387, -0.165767, -0.185132, -0.073097, 
    0.095337, 0.289970, 0.260366, 0.213158, 0.106402, 0.299156, 0.234856, 0.069027, -0.166860, -0.070267, 
    0.160181, 0.429339, 0.418728, 0.209165, 0.111432, -0.227191, -0.441828, -0.096453, -0.354648, -0.235708, 
    -0.227353, -0.125746, -0.260378, -0.003373, 0.008508, 0.157329, 0.087223, 0.135065, 0.112098, 0.209618, 
    0.258152, 0.326288, 0.186995, 0.078752, 0.189181, -0.315162, -0.208838, 0.018096, -0.097992, 0.232962, 
    0.139054, -0.171826, -0.007695, -0.048361, 0.003644, -0.172332, -0.184710, -0.064910, 0.389112, 0.247798, 
    0.186796, 0.348065, 0.283543, 0.007624, 0.254996, 0.207487, -0.035581, 0.231617, 0.159963, -0.424319, 
    -0.361667, -0.223203, -0.237165, 0.050586, 0.072120, 0.032031, 0.196420, 0.082862, -0.192602, -0.255482, 
    -0.180548, -0.322656, -0.221129, -0.251395, -0.162832, -0.069490, -0.006017, -0.038342, 0.043625, 0.160357, 
    0.023406, 0.079291, -0.114791, -0.151598, -0.087465, 0.025256, 0.070779, 0.193152, 0.167082, -0.159159, 
    -0.029786, -0.148559, -0.097074, -0.039229, -0.001199, 0.090037, 0.220044, -0.007360, -0.058499, -0.006268, 
    0.005540, 0.040182, 0.157379, -0.000442, 0.126314, 0.211639, 0.260299, -0.135539, -0.001084, 0.101466, 
    0.325841, 0.341519, 0.382346, -0.294651, -0.208365, -0.141345, 0.025470, 0.061835, -0.089867, -0.041920, 
    -0.022811, 0.108904, 0.187429, 0.166007, 0.255154, 0.147658, 0.253067, 0.095045, -0.145257, 0.085156, 
    0.178584, -0.273397, -0.339998, -0.343342, 0.071893, 0.050040, -0.032760, -0.160842, -0.254335, -0.136198, 
    -0.159419, -0.125145, -0.161566, -0.044835, 0.370282, 0.242985, 0.264198, 0.443159, 0.192923, 0.167935, 
    0.356354, 0.191610, 0.114569, 0.307030, 0.039743, -0.042369, 0.058888, 0.065903, -0.154670, 0.003518, 
    -0.149218, -0.116084, 0.031204, -0.033952, -0.147653, -0.105156, -0.209555, -0.239349, -0.190464, -0.225067, 
    0.159298, 0.060569, 0.103777, -0.315276, -0.553690, -0.610534, -0.269112, -0.169051, -0.017131, -0.063280, 
    -0.138133, -0.112143, 0.074018, 0.043551, 0.065400, 0.078924, -0.088842, -0.031531, -0.145215, -0.092968, 
    -0.177670, -0.111712, 0.192734, 0.027419, 0.302980, 0.085933, 0.133450, 0.143050, 0.115052, 0.240277, 
    -0.240022, -0.083890, -0.045856, 0.486453, 0.514454, 0.307208, 0.017323, -0.214719, -0.288859, -0.068360, 
    -0.146634, -0.455980, -0.144856, -0.339735, -0.180720, 0.153633, 0.100029, -0.003462, -0.124515, 0.051010, 
    0.003082, -0.256696, -0.153064, -0.286721, 0.104352, 0.016548, 0.167873, 0.328486, 0.373853, 0.296617, 
    -0.027134, 0.003626, -0.051244, 0.277508, 0.285455, 0.374335, 0.324004, 0.233059, 0.215916, -0.196608, 
    -0.148450, -0.228320, -0.090489, -0.245575, -0.160880, -0.147012, -0.293804, -0.199105, -0.002382, -0.154948, 
    0.078699, 0.120123, 0.102858, 0.015504, 0.002236, -0.089079, 0.007305, -0.281795, -0.194264, -0.208873, 
    -0.014613, 0.304739, 0.127826, 0.317974, 0.349622, 0.230452, 0.266098, 0.297924, 0.147181, 0.006751, 
    0.060956, 0.060321, 0.250520, 0.139167, 0.158621, 0.230395, 0.067546, 0.310647, -0.546277, -0.577988, 
    -0.476393, 0.291182, 0.011750, -0.098984, 0.260010, 0.444296, 0.083446, -0.094011, -0.125177, -0.057479, 
    -0.128952, -0.190323, -0.375467, -0.285405, -0.204096, -0.302640, -0.252187, -0.360558, -0.360578, 0.046739, 
    -0.111149, 0.185844, -0.380212, -0.337849, -0.198658, 0.044384, -0.069480, -0.078047, 0.302441, 0.306528, 
    0.450190, 0.405475, 0.416396, 0.363361, 0.131942, 0.291487, 0.251194, -0.161161, -0.142553, -0.126775, 
    0.204599, 0.144801, 0.170478, 0.170649, 0.190735, 0.172899, -0.401254, -0.327900, -0.408383, 0.280732, 
    0.292292, 0.078073, 0.172430, 0.427248, 0.279864, -0.136932, -0.106028, -0.007581, -0.142195, -0.141122, 
    -0.158402, -0.072071, 0.052593, -0.177849, -0.307891, -0.412836, -0.476958, 0.034416, -0.088396, 0.054757, 
    -0.290983, -0.358747, -0.282705, 0.066941, 0.046116, -0.011693, 0.246314, 0.290657, 0.301068, 0.121905, 
    0.393019, 0.309543, 0.176825, 0.171754, -0.002713, 0.365679, 0.248941, 0.308509, 0.231770, 0.234334, 
    0.182504, -0.417238, -0.222029, -0.045909, 0.124200, 0.153486, 0.410090, -0.073522, -0.123287, 0.023896, 
    0.079426, -0.143159, -0.024107, 0.086628, 0.403169, 0.427679, 0.268612, 0.331562, 0.224129, 0.189141, 
    0.313969, 0.289823, 0.259844, 0.367581, 0.287295, -0.656802, -0.478666, -0.278449, -0.139600, 0.234543, 
    0.136964, -0.152324, -0.164258, -0.093496, -0.084245, -0.109330, -0.124735, -0.311374, -0.212490, -0.019769, 
    0.195098, 0.241047, 0.289838, -0.112991, -0.113950, -0.214064, -0.280248, 0.063284, 0.148971, -0.222527, 
    -0.352319, -0.188357, 0.125171, 0.174777, -0.053375, -0.059089, -0.104868, -0.237966, -0.226279, -0.072306, 
    -0.257456, 0.091029, 0.199073, 0.174949, 0.255420, 0.292172, 0.184954, 0.245821, 0.126085, -0.010068, 
    0.004090, 0.153482, 0.134105, 0.306112, 0.146835, 0.131832, -0.139775, -0.121521, -0.336599, -0.143196, 
    -0.074856, -0.049911, -0.087263, -0.218809, -0.381977, 0.007987, -0.119024, 0.079677, 0.271080, 0.011643, 
    -0.060247, 0.332434, 0.298209, 0.389834, 0.193372, -0.057531, -0.018985, 0.084606, -0.084943, 0.029124, 
    -0.027144, -0.195796, -0.131290, -0.130201, -0.201196, -0.321209, 0.079003, -0.069077, -0.305515, 0.306071, 
    0.056693, -0.397817, 0.281105, 0.192562, 0.204930, 0.091352, -0.012831, -0.175284, -0.081139, -0.099994, 
    0.068676, -0.015793, 0.035336, 0.112240, 0.258635, 0.187374, 0.200786, 0.273139, 0.128493, 0.361488, 
    -0.037886, -0.144311, -0.017725, -0.387707, -0.417742, -0.266803, 0.019681, 0.118295, 0.205445, -0.286797, 
    -0.365619, -0.298616, -0.073984, 0.149940, 0.251694, 0.405059, 0.329495, 0.031907, -0.087175, -0.201554, 
    -0.153056, 0.328962, 0.155671, 0.038183, 0.095520, 0.340154, 0.282669, 0.151930, 0.011761, -0.113275, 
    0.098858, 0.102326, 0.082515, -0.014259, -0.154278, -0.121807, -0.189399, -0.289625, -0.139399, 0.245482, 
    0.076329, -0.122172, -0.184407, -0.325375, -0.223188, 0.048755, -0.123028, -0.266495, 0.150816, 0.095543, 
    0.178016, 0.285756, 0.099792, 0.056132, -0.410151, -0.131902, -0.123474, -0.125994, -0.242579, -0.046009, 
    0.207598, 0.158933, 0.137909, 0.133920, 0.330780, 0.382982, 0.103141, -0.002946, 0.063334, 0.416210, 
    0.321710, 0.305978, -0.229262, 0.180816, 0.244385, 0.038710, -0.190109, 0.003691, -0.114522, -0.132993, 
    0.051929, -0.221774, -0.053040, -0.075598, 0.001656, 0.062507, -0.062830, 0.080983, 0.023084, -0.107388, 
    0.044640, 0.123630, 0.004175, -0.181443, -0.086405, -0.126030, -0.005012, -0.132388, -0.234852, 0.217781, 
    0.266804, 0.244069, -0.335573, -0.219803, -0.146164, -0.164466, 0.245544, 0.324717, -0.464903, -0.584814, 
    -0.668291, 0.138620, 0.076430, 0.172819, 0.301597, 0.063746, -0.168201, 0.015240, 0.076683, -0.079914, 
    0.021025, 0.168359, 0.039842, 0.221408, -0.255418, -0.410977, 0.120515, -0.060191, -0.405620, 0.235085, 
    -0.330824, -0.266592, 0.372040, -0.014276, -0.607079, 0.250853, 0.219001, 0.200430, 0.478806, 0.160369, 
    0.050792, -0.220840, -0.019164, 0.182326, 0.035238, 0.154836, -0.094615, 0.039541, 0.104484, 0.027143, 
    0.239988, 0.110026, 0.189024, 0.181836, 0.065821, 0.199589, -0.144634, 0.021786, 0.118102, -0.374737, 
    -0.283452, -0.350690, 0.130652, 0.130790, 0.170725, -0.168772, -0.300873, -0.166985, -0.062676, 0.003543, 
    -0.169371, 0.232610, 0.462042, 0.234349, 0.235891, 0.439493, 0.161328, 0.334400, 0.216254, 0.305969, 
    0.077624, 0.226893, 0.256063, -0.165407, 0.055763, 0.114248, -0.024187, -0.237869, -0.070716, -0.158511, 
    -0.090998, -0.127956, -0.032281, -0.160957, -0.291759, -0.283201, -0.075524, -0.040128, 0.206875, 0.030167, 
    0.105934, 0.240807, 0.248619, 0.302426, 0.060427, 0.219128, 0.010891, -0.257435, -0.205486, 0.042923, 
    0.191439, 0.103385, 0.323126, -0.069555, -0.124691, 0.040800, 0.064770, 0.006317, -0.202608, 0.224052, 
    0.375458, 0.342536, 0.188203, 0.135676, 0.280107, 0.250520, 0.178435, 0.206880, 0.342517, 0.381153, 
    0.336287, -0.489482, -0.399159, -0.151180, -0.157299, 0.169835, 0.196633, -0.188882, -0.151941, -0.204527, 
    -0.201079, -0.000964, -0.188590, -0.261627, -0.253793, -0.019276, -0.409768, -0.186890, -0.280781, 0.057999, 
    0.387536, 0.436951, -0.680689, -0.635478, -0.694827, 0.128616, 0.138291, 0.144687, 0.405871, 0.103160, 
    -0.260848, 0.041248, 0.168091, -0.023132, 0.031801, -0.053110, 0.064435, 0.425418, -0.218226, -0.500375, 
    0.326490, -0.166538, -0.457072, 0.242975, -0.215969, -0.453891, 0.453122, -0.032602, -0.808233, 0.248668, 
    0.289584, 0.268344, 0.409958, 0.396402, 0.020497, -0.119626, -0.058423, 0.076462, -0.205205, -0.087056, 
    -0.291367, 0.032527, -0.023199, 0.060276, -0.489784, -0.382007, -0.137336, -0.114036, -0.427408, -0.328926, 
    0.134066, 0.252356, 0.385488, 0.278470, 0.227137, 0.235633, 0.082874, 0.121098, 0.171904, 0.378082, 
    0.291629, 0.420834, -0.324994, -0.196632, -0.028638, -0.154471, -0.080246, -0.022520, -0.084863, -0.041309, 
    0.026146, -0.065681, -0.094925, 0.035164, 0.139333, -0.056009, 0.089618, 0.131062, -0.051212, -0.035930, 
    0.091616, 0.033315, 0.037138, -0.166453, -0.010968, -0.083746, 0.129682, 0.043013, -0.140002, 0.289020, 
    0.162370, 0.074681, 0.366435, 0.029492, 0.019287, 0.124903, -0.021956, 0.202331, 0.398365, 0.250381, 
    -0.065545, -0.148372, -0.032099, 0.335496, -0.724646, -0.290790, -0.202423, -0.254984, -0.357301, -0.093080, 
    0.063666, 0.007156, -0.326989, -0.127008, -0.229730, -0.419271, -0.300712, -0.005692, -0.272938, -0.174260, 
    -0.280199, -0.133702, 0.382026, -0.077510, -0.621089, -0.646753, 0.001946, 0.244088, -0.617850, -0.127501, 
    0.200197, 0.278313, 0.455820, 0.611526, 0.624561, 0.421498, 0.148238, -0.081911, 0.020064, 0.211203, 
    -0.073764, 0.240498, 0.088464, -0.083913, -0.035149, -0.173256, 0.145768, 0.233457, -0.037201, 0.240589, 
    0.291086, 0.252287, -0.251508, -0.338974, -0.167340, 0.291363, 0.290848, 0.175320, 0.229149, 0.318869, 
    0.198455, -0.090605, -0.049850, 0.009243, -0.153974, -0.281583, -0.154512, -0.102795, 0.022227, -0.063151, 
    -0.305607, -0.331842, -0.242490, 0.016132, -0.021662, 0.229214, -0.226398, -0.186737, -0.085150, -0.029275, 
    -0.122135, -0.247985, 0.037033, 0.126265, 0.305243, 0.386693, 0.343405, 0.251142, -0.408584, -0.460155, 
    -0.289622, -0.150634, 0.312206, 0.083564, -0.186762, -0.053692, 0.083443, 0.129546, 0.329808, 0.170124, 
    0.089608, -0.084067, -0.110652, 0.534126, 0.366632, 0.187176, -0.197106, -0.057994, 0.003719, 0.114852, 
    -0.037575, -0.041234, -0.013397, -0.227677, -0.086102, -0.007853, -0.331833, -0.480135, -0.044890, -0.146383, 
    -0.288360, 0.131574, 0.178835, 0.131957, 0.186942, 0.166100, 0.290087, -0.152656, 0.100714, -0.128949, 
    -0.239341, 0.016754, -0.177594, 0.084899, 0.302233, 0.015787
};

// PyTorch Layer: conv2.bias (Shape: (32,))
static const data_t conv2_b[32] = {
-0.091337, -0.020288, 0.166452, 0.185540, 0.059581, 0.057579, -0.276384, 0.199469, 0.112734, 0.025978, 
    0.108926, -0.045346, 0.292102, 0.011161, 0.183680, 0.179759, 0.025316, -0.085996, -0.072705, 0.114968, 
    0.196220, 0.091001, -0.006247, -0.101019, -0.162734, 0.008837, 0.061493, -0.148071, -0.041195, -0.086109, 
    -0.070699, 0.054782
};

// PyTorch Layer: fc.weight (Shape: (3, 32))
static const data_t fc_w[96] = {
-0.385637, 0.114084, 0.181464, -0.376050, 0.085935, 0.461832, -0.511036, -0.559057, 0.251731, 0.712647, 
    0.495872, -0.557454, -0.611318, -0.234118, -0.544998, -0.251391, 0.274878, 0.731907, 0.371847, -0.689843, 
    -0.506889, -0.532658, 0.583114, 0.333911, -0.256244, -0.509041, -0.526744, -0.381072, 0.536773, 0.293210, 
    0.587334, 0.240343, -0.427122, -0.759822, 0.301904, -0.402444, -0.344923, -0.107122, 0.858033, 0.090407, 
    -0.032054, -0.687202, -0.104211, -0.222583, 0.141383, 0.149289, 0.167555, -0.411255, -0.203698, -0.887041, 
    -0.707619, 0.343249, -0.111916, 0.187594, -0.482441, -0.181559, 0.721958, 0.191189, 0.364949, 0.889050, 
    -0.209090, -1.187507, -0.509053, 0.327381, 0.582713, 0.542236, -0.351611, 0.305467, 0.529356, -0.400063, 
    -0.531497, 0.530405, -0.372748, -0.252285, -0.186695, 0.479529, 0.040494, -0.205513, 0.245028, 0.595136, 
    -0.402923, -0.137729, -0.216049, -0.124897, 0.266767, 0.280411, 0.024849, -0.348521, -0.474270, 0.213691, 
    -0.076873, -0.578679, -0.290376, 0.677425, -0.303244, -0.598421
};

// PyTorch Layer: fc.bias (Shape: (3,))
static const data_t fc_b[3] = {
0.108329, -0.089261, 0.104454
};

#endif // VOICE_CNN_WEIGHTS_H
