#ifndef VOICE_CNN_WEIGHTS_H
#define VOICE_CNN_WEIGHTS_H

#include "voice_typedefs.h"

// PyTorch Layer: conv1.weight (Shape: (16, 40, 3))
static const data_t conv1_w[1920] = {
0.133169, 0.040046, -0.049135, 0.284768, 0.220707, 0.117347, -0.355062, -0.001184, 0.009263, -0.316016, 
    0.148116, -0.244357, -0.255710, -0.193797, -0.011756, -0.049585, 0.050594, 0.164302, -0.005791, 0.250066, 
    0.325888, 0.301487, -0.103594, 0.104661, -0.154128, 0.053890, 0.233419, -0.418837, -0.225889, -0.454138, 
    -0.143085, -0.109255, 0.056729, -0.135256, -0.013438, 0.401949, -0.061335, 0.019528, 0.299323, -0.233517, 
    0.115939, -0.118065, -0.068888, -0.052280, 0.058258, -0.257677, -0.321936, 0.004073, 0.032429, 0.049330, 
    -0.294485, -0.033558, -0.177596, 0.172550, -0.132597, -0.074846, 0.106614, 0.024294, 0.100667, 0.210810, 
    -0.046607, 0.006223, 0.044612, 0.211773, -0.021154, 0.138207, 0.134034, 0.073853, -0.127877, -0.046240, 
    -0.091036, 0.053149, 0.186179, -0.016957, -0.348725, 0.174219, 0.291563, 0.155667, -0.213099, -0.176768, 
    -0.237759, 0.137891, 0.156006, -0.203816, -0.074266, -0.089104, 0.287969, 0.191763, -0.063954, 0.090704, 
    -0.048137, 0.055237, 0.267284, 0.338052, -0.275376, 0.110853, 0.206954, -0.018309, 0.068228, -0.289854, 
    -0.084263, -0.314366, 0.200866, 0.332698, -0.016120, -0.219222, 0.038279, 0.187219, 0.088282, 0.009298, 
    -0.015949, 0.038825, -0.134574, 0.001486, 0.383959, 0.081247, -0.147053, -0.090508, 0.045118, -0.348576, 
    0.131754, 0.103510, 0.237983, -0.403637, -0.343142, -0.499620, -0.245955, -0.163454, 0.316688, 0.242630, 
    0.198791, 0.696471, -0.293445, -0.287715, 0.025939, -0.115272, -0.266063, -0.342581, 0.318521, 0.266578, 
    -0.262842, -0.117915, 0.026866, -0.143608, 0.091467, -0.203655, -0.213552, 0.138101, -0.061565, -0.179315, 
    -0.276419, 0.046586, -0.034760, 0.041831, 0.307556, 0.015878, 0.009672, -0.102741, 0.089652, -0.123537, 
    0.182521, 0.108920, 0.001570, -0.278237, -0.083611, -0.009912, -0.235469, -0.025331, -0.069346, 0.122235, 
    0.196550, 0.151631, 0.194109, 0.034613, -0.071466, 0.195479, -0.511342, -0.130152, 0.227335, 0.050419, 
    0.259405, -0.224308, 0.189953, -0.146559, -0.022478, -0.000494, -0.005853, -0.076580, -0.189966, -0.167076, 
    -0.031798, 0.136373, -0.208480, -0.052818, 0.085154, 0.038823, -0.044555, 0.185957, -0.343506, 0.347827, 
    -0.221800, 0.039093, 0.132734, 0.071956, 0.058778, 0.053675, -0.135939, -0.045272, -0.098125, 0.106689, 
    0.212946, -0.268488, 0.044498, -0.109558, -0.183692, 0.209401, 0.243396, 0.195547, -0.119785, 0.162018, 
    -0.252779, 0.149217, -0.098733, 0.119916, -0.164139, 0.205475, 0.080167, -0.069389, -0.079716, 0.007221, 
    0.116028, -0.067745, -0.326207, 0.060181, 0.151738, -0.011479, -0.257174, 0.123636, 0.239309, -0.122300, 
    -0.060850, -0.112194, -0.148320, 0.839259, 0.544886, 0.075363, -0.297281, -0.123307, 0.100034, 0.512262, 
    0.245216, -0.196064, 0.142082, 0.138167, 0.189783, -0.579958, 0.074903, 0.415170, -0.335805, 0.082191, 
    0.251202, -0.400129, -0.051784, 0.270789, 0.468193, 0.102744, 0.038196, -0.009047, 0.059970, -0.082411, 
    0.197107, 0.225207, 0.466847, 0.227759, 0.189798, 0.048050, -0.009856, 0.077715, 0.469822, 0.115584, 
    0.181921, 0.301668, -0.094648, -0.015295, 0.015109, -0.227780, -0.262076, 0.259411, 0.201786, 0.086752, 
    0.028407, 0.113993, -0.026654, 0.036078, 0.079259, -0.036504, 0.178789, -0.181043, -0.288588, -0.222049, 
    -0.051549, 0.020659, 0.037807, 0.100774, -0.309462, 0.121834, -0.294726, 0.133365, -0.292539, 0.234448, 
    0.006280, 0.158996, -0.058225, -0.236538, -0.340490, -0.483652, 0.047875, 0.096467, -0.001677, 0.231743, 
    -0.066377, -0.123956, 0.199142, -0.014106, -0.290587, -0.179572, 0.216275, -0.317729, -0.117351, -0.047777, 
    0.029705, 0.283212, 0.077020, -0.118985, -0.180184, 0.033110, -0.350271, 0.125849, -0.008335, 0.285277, 
    0.040005, -0.373694, 0.139289, 0.078430, -0.123841, -0.264672, 0.177717, 0.087347, -0.227222, -0.131157, 
    0.036361, 0.076645, -0.000412, 0.350292, -0.261042, -0.079897, 0.235911, -0.121256, -0.030779, 0.264441, 
    -0.049918, -0.022790, -0.059582, -0.363123, 0.030914, -0.118249, 0.162680, 0.181995, 0.259446, 0.065153, 
    0.533585, 0.422684, 0.023450, 0.265154, -0.457844, 0.088348, 0.579547, -0.234386, 0.112720, -0.260801, 
    0.216185, -0.056068, 0.419080, 0.142404, 0.276267, -0.089832, -0.082975, 0.057330, 0.035059, -0.106530, 
    0.063722, -0.020995, -0.093840, 0.046874, 0.139861, -0.152495, -0.103281, 0.008546, 0.194975, 0.147522, 
    0.096493, 0.286099, 0.469266, -0.091690, -0.363194, 0.158173, -0.050921, 0.104586, -0.027065, 0.033689, 
    0.004811, 0.165770, -0.117732, 0.148445, -0.022301, -0.196340, 0.202302, 0.163052, -0.312162, 0.076517, 
    -0.054861, 0.022307, -0.009455, -0.092464, 0.055416, -0.107648, -0.089807, 0.007994, -0.154206, -0.122549, 
    -0.124165, -0.010557, 0.152035, -0.140015, -0.239393, -0.099147, 0.083770, -0.279077, -0.129113, 0.124670, 
    -0.049475, 0.314170, -0.211640, 0.108091, -0.095954, -0.198092, 0.131973, -0.022651, 0.209377, -0.059513, 
    0.323449, -0.042963, 0.056459, -0.049284, 0.217402, 0.277915, -0.290869, 0.185591, -0.078292, 0.147364, 
    -0.452387, 0.142924, 0.337458, -0.148574, 0.090779, -0.116202, 0.165468, -0.030088, 0.161877, 0.188268, 
    0.038532, -0.031216, -0.039385, 0.106408, -0.112703, -0.061913, -0.049702, 0.085547, -0.432988, 0.263779, 
    -0.132841, -0.338720, -0.138900, 0.037088, 0.044664, -0.057686, -0.206779, -0.236361, -0.477752, -0.106576, 
    -0.175141, -0.081351, -0.002721, -0.044662, 0.111195, 0.168408, 0.308401, 0.202611, 0.006975, 0.276843, 
    0.150214, -0.015843, 0.209994, 0.441834, 0.365450, 0.351232, -0.106730, 0.314148, 0.032336, 0.206514, 
    -0.046490, -0.162043, 0.032218, -0.228473, -0.411768, 0.015225, 0.321156, -0.233746, 0.199743, 0.061989, 
    0.043945, -0.040161, -0.551116, 0.296392, 0.368536, -0.327046, 0.144725, 0.233074, -0.079983, -0.255288, 
    -0.077064, 0.233490, -0.151097, 0.147871, -0.044707, 0.215448, -0.104526, -0.092595, -0.103624, -0.265605, 
    0.143673, 0.067017, -0.058680, 0.289319, 0.068594, 0.162402, -0.043907, 0.046533, -0.022317, -0.176620, 
    -0.045068, 0.188634, 0.040788, 0.057317, 0.113077, -0.007513, -0.086685, -0.013679, -0.299589, 0.238016, 
    -0.220431, 0.136380, 0.159759, 0.157112, 0.000558, -0.014626, -0.185474, 0.237593, -0.065599, 0.250253, 
    0.273086, -0.221031, -0.263283, -0.103636, 0.125856, -0.193088, 0.107655, 0.384881, -0.638304, 0.099736, 
    -0.059961, -0.173799, 0.074969, 0.101119, -0.011402, 0.063150, -0.111351, 0.002189, -0.048568, -0.180456, 
    0.118827, 0.260086, -0.323416, -0.146115, -0.341018, -0.051236, -0.050370, -0.221364, 0.198099, -0.177576, 
    -0.268291, -0.171917, -0.190176, -0.219144, -0.200032, -0.104742, -0.065495, -0.048220, 0.225593, 0.096541, 
    0.480181, 0.039315, 0.119523, 0.074973, 0.165882, 0.044805, 0.026858, -0.357376, -0.336913, 0.390879, 
    -0.225961, -0.206686, -0.002329, -0.089073, 0.153864, -0.183445, 0.134972, 0.118754, -0.030196, -0.152218, 
    0.122764, 0.140180, 0.319923, 0.203201, -0.124682, 0.162499, 0.012958, -0.027141, -0.180545, 0.011381, 
    0.076680, -0.204189, 0.356306, -0.187041, -0.223738, -0.270624, 0.121382, -0.284498, 0.214614, -0.180319, 
    0.294957, -0.023118, 0.004927, 0.113127, -0.117920, 0.005112, -0.199557, -0.184989, 0.224354, 0.356394, 
    0.038185, 0.012819, 0.041227, 0.029128, 0.068356, -0.188943, 0.205410, 0.111607, 0.334681, 0.059093, 
    -0.107792, 0.143116, 0.256176, 0.279513, -0.158801, 0.242638, -0.067236, 0.250198, 0.185120, 0.022019, 
    0.120061, 0.175121, 0.215951, -0.049686, 0.115623, 0.320759, 0.077837, 0.035014, -0.115132, -0.178768, 
    0.067687, 0.070904, 0.250510, -0.213466, 0.052542, 0.091607, 0.106304, 0.053268, 0.500186, 0.105291, 
    0.252493, -0.115004, -0.031718, -0.120983, 0.044100, 0.264201, -0.235172, 0.166458, -0.110598, 0.211831, 
    -0.157822, 0.048936, 0.311340, -0.326823, 0.091345, -0.287513, 0.188317, -0.323891, -0.298418, 0.041419, 
    0.015943, 0.109667, 0.134697, 0.492992, 0.316100, 0.231774, 0.124961, -0.012340, -0.550335, 0.096816, 
    0.099328, -0.303986, -0.141993, -0.126639, -0.378591, 0.615108, 0.166708, 0.147057, 0.159259, 0.240355, 
    0.269635, 0.040343, 0.117852, 0.208723, -0.177899, -0.152058, 0.081811, -0.203189, -0.347234, -0.112327, 
    0.096604, 0.027699, -0.014231, 0.145332, -0.142084, -0.067735, -0.159153, 0.092309, -0.261704, -0.044868, 
    -0.090100, -0.082337, 0.068016, -0.110831, 0.155111, -0.171946, -0.161366, -0.220564, -0.326311, 0.329081, 
    0.320005, 0.019786, 0.247369, 0.070182, -0.138894, -0.388381, -0.268256, 0.158438, 0.173172, -0.073965, 
    0.032735, -0.056785, -0.065650, -0.125932, -0.384420, 0.142831, 0.054216, 0.143249, -0.018528, 0.090194, 
    -0.103497, 0.046212, 0.184875, -0.099466, 0.188339, 0.141063, 0.015754, -0.034771, -0.250000, 0.183824, 
    -0.040028, -0.006615, -0.204745, 0.126165, -0.184527, 0.118919, 0.007802, 0.036053, 0.117753, -0.173982, 
    0.031177, -0.142142, 0.223798, -0.338154, -0.060995, 0.133250, -0.079541, 0.245906, -0.342176, 0.158549, 
    -0.062169, 0.006189, -0.420075, -0.096058, -0.120276, -0.190028, -0.007963, -0.240945, 0.128548, -0.159185, 
    -0.057973, -0.218617, 0.025897, 0.187126, 0.001382, -0.030182, -0.242255, 0.094104, -0.283388, -0.453444, 
    0.026974, -0.205892, -0.230574, 0.333145, 0.319140, -0.147276, 0.341117, 0.305250, 0.138678, -0.161140, 
    0.298727, 0.003391, -0.075113, 0.263173, 0.103961, 0.059110, 0.384733, 0.061504, 0.333098, 0.417786, 
    0.171575, -0.012336, 0.265169, -0.068194, 0.197634, 0.572873, 0.252648, -0.112821, 0.184097, -0.399089, 
    -0.124309, 0.040286, -0.259074, -0.234454, -0.160886, 0.070574, -0.149192, -0.192565, 0.104476, -0.220231, 
    -0.008963, 0.118887, 0.136233, 0.150364, 0.382421, -0.026136, 0.290031, -0.315224, -0.032200, 0.240655, 
    0.000661, -0.043113, 0.003638, -0.009809, -0.087690, -0.258234, -0.253640, 0.070440, 0.250226, 0.147342, 
    0.056486, -0.004582, 0.057134, 0.095683, -0.338231, -0.131666, -0.135161, 0.006877, 0.129756, -0.217716, 
    -0.265808, -0.193308, 0.034070, 0.158475, 0.121726, -0.406716, 0.353323, -0.197487, -0.025118, -0.147325, 
    -0.114250, 0.074090, -0.145698, 0.019581, 0.264002, -0.011589, -0.150651, -0.006998, -0.107341, -0.103466, 
    0.001304, -0.017541, 0.077953, -0.059854, -0.088263, -0.148762, -0.004319, -0.185636, 0.073674, 0.061380, 
    0.090435, 0.392517, -0.142555, -0.153074, -0.035775, 0.130872, -0.165358, -0.010239, -0.096354, -0.138664, 
    0.080734, -0.081887, 0.159334, 0.124702, 0.162283, 0.206011, 0.135059, -0.193187, -0.078005, -0.130024, 
    -0.183248, -0.125509, -0.282838, -0.032341, 0.236326, 0.388102, -0.346891, 0.148400, 0.420253, -0.245081, 
    -0.167697, -0.003347, -0.204519, -0.189485, -0.189345, 0.067358, 0.165246, -0.035639, 0.023281, 0.025412, 
    0.348351, 0.112436, 0.236248, 0.500223, -0.033936, -0.238036, 0.300967, -0.004897, -0.216397, -0.054862, 
    0.144320, -0.001395, 0.368342, 0.268068, 0.153560, -0.154433, -0.111915, -0.238160, -0.269772, -0.175982, 
    -0.002553, -0.471995, -0.351804, -0.071540, -0.199646, -0.080968, 0.176312, -0.074192, 0.120526, 0.086084, 
    -0.302304, -0.318182, -0.045886, 0.235742, 0.029367, 0.227164, 0.119568, -0.042007, 0.386829, 0.229979, 
    0.118954, 0.109342, -0.070223, -0.019618, 0.027952, -0.239109, 0.142817, 0.207325, -0.117947, -0.008659, 
    0.115231, 0.017142, -0.063105, -0.180347, 0.327044, 0.110128, -0.285711, 0.299061, 0.154851, 0.198233, 
    -0.150592, 0.319551, 0.133561, -0.173882, -0.096637, -0.006442, -0.021958, 0.170670, 0.028453, 0.141779, 
    0.302156, -0.047396, 0.042983, -0.179437, 0.022935, -0.133419, -0.305994, -0.075891, 0.117595, -0.032239, 
    -0.137214, 0.049670, 0.108639, -0.002756, -0.295747, -0.045534, -0.059335, -0.090634, 0.141536, -0.121936, 
    0.053964, -0.153142, -0.264053, -0.075313, -0.196277, -0.107192, 0.191371, 0.086951, 0.013774, -0.076780, 
    -0.159585, -0.175148, -0.218414, -0.304490, -0.108817, 0.189942, 0.044349, -0.287336, 0.053897, -0.376963, 
    -0.340534, 0.161795, -0.056863, -0.125675, -0.176771, 0.162982, 0.178297, -0.202915, 0.096356, 0.511250, 
    -0.061077, 0.093948, -0.054034, -0.106355, -0.444314, 0.064203, 0.060817, 0.095153, -0.290234, -0.206618, 
    -0.237019, 0.091071, -0.087414, 0.119297, 0.056543, -0.072619, -0.155994, -0.230887, 0.228217, 0.186375, 
    0.006533, -0.134888, -0.109416, -0.276610, 0.185295, 0.056623, 0.352538, 0.217646, 0.133866, 0.402029, 
    -0.045960, 0.132326, 0.181496, -0.073297, 0.199854, -0.060927, 0.133157, 0.251376, -0.060159, 0.036615, 
    0.101959, 0.022473, 0.110669, 0.044261, 0.043095, 0.104896, 0.142843, 0.061976, 0.034031, -0.039888, 
    0.019604, -0.151279, 0.157427, 0.031559, 0.255126, 0.207174, -0.042613, 0.405581, 0.271433, 0.210331, 
    0.047053, -0.129819, 0.169098, 0.089556, -0.139399, 0.333277, -0.289957, -0.139688, 0.223789, 0.096497, 
    -0.104180, 0.185538, 0.288209, 0.276183, 0.253109, 0.238755, 0.141449, 0.217499, 0.406286, 0.029974, 
    -0.055027, 0.148361, -0.047363, -0.189200, 0.062579, 0.163532, 0.015739, 0.226965, 0.288312, -0.049040, 
    -0.288678, -0.021278, 0.222970, -0.228854, -0.100009, 0.072122, -0.012582, 0.013071, -0.015122, -0.224848, 
    -0.048773, -0.108127, -0.130117, 0.674084, 0.384054, 0.453069, -0.139325, -0.059179, -0.146127, -0.321516, 
    0.048065, -0.319154, 0.143142, 0.014559, -0.159095, -0.083864, 0.723166, 0.065357, -0.297766, -0.043634, 
    0.167460, -0.130471, -0.206155, -0.307872, 0.695252, -0.013103, -0.070974, 0.146568, 0.152674, 0.306895, 
    -0.032602, 0.002364, 0.342224, 0.046914, 0.265586, -0.160900, -0.095024, 0.135850, -0.035022, 0.410744, 
    -0.302549, 0.234082, 0.121662, -0.010750, 0.252958, 0.061906, -0.367511, 0.216719, -0.246498, 0.223618, 
    0.020938, -0.256573, 0.239041, 0.023036, -0.213416, -0.228285, -0.094401, -0.225797, -0.079365, 0.132895, 
    -0.220464, 0.231998, -0.251880, 0.058620, -0.042561, -0.258515, 0.036876, 0.076471, -0.182680, 0.151072, 
    -0.203421, -0.043511, -0.193150, 0.252925, -0.286303, -0.262388, 0.357782, -0.117432, 0.275186, 0.177575, 
    0.010354, 0.005592, -0.182955, -0.137852, -0.432568, 0.362337, 0.340568, -0.159881, -0.172173, -0.048713, 
    -0.341514, 0.082735, -0.046988, 0.004721, -0.116507, -0.059613, 0.003101, -0.267700, 0.179045, 0.248023, 
    -0.267494, -0.119760, -0.174661, -0.200385, 0.356141, 0.214962, -0.138606, 0.137738, -0.349394, -0.117835, 
    -0.109529, 0.137187, -0.327556, 0.023304, -0.100556, -0.063630, 0.018925, 0.192605, -0.249294, 0.332648, 
    -0.096278, -0.028118, -0.015129, -0.741401, -1.045004, -0.852531, -0.472968, -0.380197, -0.256935, -0.156961, 
    -0.025185, 0.026349, -0.203753, -0.176737, -0.217010, 0.300415, 0.149634, 0.068380, 0.555991, 0.232913, 
    0.391546, 0.381142, 0.457240, 0.450663, 0.412242, 0.302427, 0.084323, 0.344317, 0.181706, 0.009832, 
    0.246996, -0.165588, -0.089422, 0.332558, 0.308336, 0.055652, 0.085899, 0.145735, -0.035450, 0.646712, 
    -0.018964, -0.098084, 0.035930, 0.276473, -0.256087, -0.089092, 0.001905, -0.107647, 0.107365, 0.019808, 
    0.050729, 0.298044, -0.042509, 0.028213, 0.166507, -0.229247, -0.088908, 0.221527, -0.321894, -0.021434, 
    0.052896, -0.093388, -0.202844, -0.084745, -0.112155, -0.060040, -0.022225, 0.082572, 0.036587, -0.239191, 
    -0.080619, 0.185746, -0.146375, -0.120120, 0.027561, -0.330746, 0.171241, -0.011981, 0.021970, 0.221374, 
    -0.225590, -0.230464, 0.253215, -0.268462, -0.107909, 0.226920, -0.090594, 0.278518, 0.137541, -0.311733, 
    -0.024639, 0.115208, -0.127739, -0.161377, -0.320477, -0.249173, 0.264707, 0.036042, 0.065297, -0.430404, 
    0.015631, 0.149603, -0.069581, -0.052714, 0.200234, 0.093993, 0.085773, -0.002380, 0.168436, 0.005378, 
    0.049819, -0.269419, 0.065907, 0.256941, 0.061715, -0.049649, 0.007618, 0.251397, -0.038662, -0.090886, 
    -0.048767, 0.084017, 0.163022, -0.129190, 0.014797, -0.130517, 0.134509, 0.235027, -0.192514, -0.026365, 
    -0.023495, 0.078337, 0.022781, -0.046734, -0.203620, 0.353004, 0.291617, 0.158105, 0.202503, -0.075934, 
    0.058446, 0.029863, 0.140249, 0.039579, 0.355940, 0.309351, 0.076469, 0.183632, 0.180486, -0.043867, 
    0.202575, 0.198843, -0.297028, 0.281258, 0.199044, 0.472541, 0.015565, -0.041128, 0.336611, 0.017854, 
    -0.175476, 0.318673, 0.159405, -0.169773, 0.209115, 0.340583, -0.005602, 0.249512, -0.144718, 0.270597, 
    -0.256615, -0.140861, 0.239162, -0.214336, 0.022849, 0.226239, 0.048369, 0.299183, 0.152051, 0.110561, 
    0.085931, -0.033960, -0.160639, -0.237158, 0.352907, -0.092778, -0.069566, 0.006156, 0.272182, 0.311899, 
    -0.128489, -0.145699, -0.039389, 0.120518, -0.169530, 0.141441, -0.043254, 0.213877, -0.024255, 0.158466, 
    0.013244, -0.241297, 0.179525, 0.418297, 0.080394, -0.415538, 0.591038, -0.083685, 0.110638, -0.171117, 
    0.035652, 0.118053, -0.020554, 0.152037, -0.113823, 0.304212, -0.182123, 0.204523, 0.210044, 0.305444, 
    -0.256791, 0.180862, -0.027736, 0.083119, 0.152753, 0.154883, -0.161028, -0.288424, 0.033389, -0.137986, 
    -0.168540, 0.248593, 0.182704, 0.214117, 0.271489, 0.035854, -0.300718, -0.435935, -0.073824, 0.040842, 
    0.106809, 0.126958, 0.148105, -0.441579, -0.585378, -1.046069, 0.136669, 0.394006, 0.292860, 0.381693, 
    0.076858, 0.015713, 0.151018, -0.006075, 0.104865, -0.163141, -0.006646, 0.144879, 0.026406, 0.114411, 
    -0.057752, 0.158631, 0.235435, 0.205812, 0.406392, -0.107307, -0.158479, 0.010893, -0.155118, 0.178330, 
    -0.383895, -0.110019, -0.008396, -0.010313, 0.222780, -0.017485, 0.184103, 0.009467, -0.053847, 0.279056, 
    -0.180255, -0.047951, -0.259777, -0.319394, -0.168930, 0.089684, 0.125051, 0.080584, 0.072123, 0.052678, 
    0.261777, 0.158482, -0.170160, -0.047410, -0.263764, 0.045089, -0.225733, -0.179161, 0.214304, -0.031691, 
    -0.119442, 0.259859, 0.166961, -0.061960, -0.108729, -0.071266, 0.226907, 0.237504, 0.116430, 0.104106, 
    0.085451, 0.037146, 0.282809, 0.134756, 0.094684, -0.330554, 0.268467, 0.153809, 0.016435, -0.237994, 
    0.140698, 0.045616, -0.060303, -0.143751, 0.095169, 0.136032, -0.035871, -0.006795, -0.032818, 0.030176, 
    0.100366, -0.221511, -0.001848, -0.331677, -0.066386, -0.094654, 0.228676, 0.109700, 0.261035, -0.163899, 
    0.144803, -0.031792, -0.037310, 0.202323, -0.007558, -0.157561, -0.441239, -0.018535, -0.193757, 0.068478, 
    0.040995, -0.004769, -0.422032, 0.063347, 0.112425, 0.126911, -0.004138, -0.127834, -0.169661, -0.011879, 
    0.072590, 0.117226, 0.123473, 0.186364, 0.171549, 0.061902, -0.103712, -0.365368, -0.301668, -0.192671, 
    -0.404684, -0.027336, -0.099027, 0.109854, 0.118522, -0.141749, 0.103410, 0.623450, 0.350130, 0.112771, 
    -0.142023, -0.319965, 0.019862, -0.426444, 0.283434, 0.080463, 0.501712, -0.099918, 0.077904, 0.226161, 
    -0.082028, 0.163234, -0.085897, -0.297729, 0.404799, -0.215447, -0.149835, -0.080849, 0.028847, 0.009505, 
    -0.139165, 0.291025, -0.028283, 0.165381, -0.240128, 0.254901, 0.309709, 0.115823, -0.124880, -0.372047, 
    -0.101119, 0.005048, -0.004108, -0.186082, -0.095095, 0.186754, 0.044222, -0.012541, 0.011534, 0.265706, 
    -0.155756, 0.354478, 0.003285, -0.063954, -0.095365, 0.036754, 0.106433, 0.018538, 0.017662, -0.045404, 
    0.062704, -0.265899, 0.072635, 0.051419, 0.222312, 0.101103, 0.191000, 0.154388, -0.253069, 0.062794, 
    0.219720, 0.199072, -0.166530, 0.010039, -0.136261, 0.059662, 0.033336, 0.183192, -0.330768, 0.216711, 
    -0.445188, 0.118268, -0.005015, -0.210063, 0.019698, -0.040622, -0.018955, -0.003836, -0.178238, -0.222048, 
    -0.007981, -0.077112, 0.037930, -0.017929, 0.185159, 0.050040, 0.057931, 0.244003, 0.085219, 0.047647, 
    -0.148891, 0.007235, -0.198024, 0.310177, 0.037458, -0.375713, -0.082817, 0.074607, 0.122133, 0.083459, 
    0.138913, 0.076939, 0.070901, -0.172151, -0.405078, -0.472713, -0.170660, -0.142490, -0.157361, -0.282094, 
    -0.367779, 0.019342, -0.489831, -0.261795, 0.031063, -0.432702, -0.276903, 0.296676, 0.112461, 0.217196, 
    0.498888, 0.362006, 0.121629, 0.017991, 0.054327, 0.239545, 0.253536, 0.068225, 0.304849, 0.256814, 
    -0.154633, -0.032446, -0.090320, -0.151072, 0.055241, -0.008980, -0.015201, 0.034064, 0.174696, -0.379553, 
    -0.032663, -0.260340, 0.117313, 0.223071, -0.196614, 0.056972, 0.205235, 0.393857, -0.255970, -0.082305, 
    -0.011458, 0.057311, -0.048854, 0.119054, 0.107995, 0.312275, -0.066363, -0.235961, 0.169683, -0.078815, 
    0.180353, -0.282283, 0.212957, 0.202392, -0.248196, 0.089351, 0.215613, -0.253185, 0.160466, 0.092923, 
    0.075376, 0.080539, 0.082067, 0.014390, -0.255914, -0.028551, -0.006580, 0.007966, -0.213753, 0.028470, 
    -0.008625, -0.082926, 0.347890, 0.080436, 0.137169, -0.061403, -0.265094, -0.040505, 0.244452, 0.038725, 
    0.120269, 0.084375, -0.112333, 0.136767, -0.213689, 0.013385, 0.361403, 0.031640, -0.233721, -0.117016, 
    0.050212, 0.083961, -0.095801, 0.004173, -0.062687, 0.266566, -0.213517, 0.032389, -0.050050, 0.115969, 
    -0.305898, -0.260775, 0.013684, -0.032941, -0.082817, -0.105413, 0.226607, -0.001295, 0.390581, -0.036968
    
};

// PyTorch Layer: conv1.bias (Shape: (16,))
static const data_t conv1_b[16] = {
-0.135904, -0.025300, 0.290042, -0.143868, -0.075673, -0.099858, -0.094165, -0.169897, 0.020785, 0.079003, 
    -0.043988, -0.080550, -0.343986, -0.198976, -0.019104, 0.116365
};

// PyTorch Layer: conv2.weight (Shape: (32, 16, 3))
static const data_t conv2_w[1536] = {
0.121138, -0.101889, 0.017028, -0.253787, -0.124090, -0.319088, -0.093124, 0.027883, 0.196919, 0.182884, 
    -0.224432, -0.346341, 0.301584, -0.047242, -0.173918, 0.040983, -0.055756, -0.038350, -0.234439, -0.121721, 
    -0.283178, 0.110589, 0.145877, 0.020386, 0.166131, 0.042359, -0.099934, 0.089082, 0.024562, -0.165477, 
    -0.104118, 0.165556, 0.135901, 0.505899, 0.383302, 0.033176, 0.021595, -0.249975, -0.390788, -0.042060, 
    -0.379574, -0.216330, -0.248313, -0.091703, -0.053020, 0.079230, 0.152337, 0.009059, 0.401206, 0.297260, 
    0.067403, 0.101875, -0.024346, 0.200191, 0.318303, 0.329659, 0.209935, -0.081697, -0.137006, 0.155551, 
    -0.423228, -0.326154, -0.440147, -0.165831, -0.278489, -0.244313, 0.245269, 0.102292, -0.057319, 0.046215, 
    -0.110765, -0.287824, -0.012366, -0.033488, -0.031555, 0.013286, -0.068544, -0.191915, 0.084783, -0.236974, 
    -0.384652, -0.326247, -0.256504, 0.073649, -0.331854, -0.290115, 0.070468, 0.361501, 0.389915, 0.543162, 
    0.246795, 0.174861, 0.089548, 0.261294, 0.192655, 0.273858, 0.048389, -0.056503, -0.066683, 0.043583, 
    -0.071556, -0.348087, 0.295533, 0.251902, 0.078881, -0.095741, 0.004833, -0.007099, 0.020425, 0.027722, 
    0.111529, 0.148338, 0.113404, 0.155855, 0.230206, 0.233768, 0.220072, -0.139796, -0.065225, 0.092897, 
    -0.003235, 0.035231, -0.054344, -0.159432, 0.002913, 0.033608, 0.212700, 0.113151, 0.332948, -0.381150, 
    -0.192608, -0.206529, 0.066326, 0.251704, 0.280771, -0.234423, -0.383389, -0.324043, 0.200058, 0.161422, 
    0.257758, -0.016057, 0.066832, 0.256572, -0.056833, 0.183725, 0.054923, -0.286164, -0.377860, -0.329729, 
    -0.186831, -0.141750, 0.216223, -0.170719, -0.155978, -0.403999, -0.024228, 0.138120, -0.107929, -0.278702, 
    -0.132177, -0.094021, -0.203915, -0.239970, 0.017409, -0.118385, 0.000221, 0.013725, -0.003477, 0.165696, 
    0.006402, 0.092153, 0.178240, 0.120056, -0.195826, -0.260136, 0.003000, 0.467021, 0.489596, 0.248300, 
    0.037421, -0.066655, -0.274456, 0.156917, -0.243991, -0.249996, -0.032695, -0.118092, -0.272349, 0.076465, 
    0.281351, -0.011125, 0.102648, 0.210402, 0.275869, -0.070464, -0.447714, -0.457624, -0.231424, -0.031307, 
    0.190002, -0.067622, -0.026470, -0.179495, 0.118488, -0.046792, 0.123390, 0.108498, 0.094010, 0.161721, 
    -0.064106, -0.102528, 0.165484, -0.040452, 0.036780, -0.004807, 0.107234, 0.084601, 0.299380, 0.198103, 
    0.262272, 0.233774, -0.313513, -0.194066, -0.024190, 0.444879, 0.423772, 0.130955, 0.090330, -0.252428, 
    -0.606108, 0.291827, -0.013101, -0.084484, -0.212503, -0.245717, -0.210788, 0.120118, 0.222178, 0.015462, 
    0.025905, 0.059488, -0.127735, 0.017338, -0.079275, -0.090675, 0.041599, -0.064485, 0.091542, 0.240033, 
    0.202245, 0.357667, -0.197018, -0.215766, -0.129290, 0.201418, 0.270647, 0.233224, 0.284128, 0.137006, 
    0.161782, -0.137549, -0.172457, 0.010540, -0.061061, -0.262136, -0.269747, -0.150413, -0.216328, -0.133667, 
    0.011113, 0.046115, 0.033974, 0.040739, 0.082679, 0.086245, -0.009572, 0.144213, 0.006171, -0.133191, 
    -0.232818, -0.297140, 0.192154, 0.287916, 0.323625, 0.289063, 0.263466, 0.202666, -0.461129, -0.249714, 
    -0.296618, 0.098011, 0.377748, 0.198792, -0.649362, -0.700058, -0.618122, 0.055076, 0.233324, 0.062172, 
    0.434596, 0.084615, -0.288238, -0.012254, 0.037488, -0.137209, 0.044029, -0.065914, 0.073139, 0.322634, 
    -0.200072, -0.573527, 0.369680, -0.111724, -0.548889, 0.247731, -0.325722, -0.577716, 0.335522, 0.001928, 
    -0.705818, 0.318729, 0.332456, 0.220558, 0.355342, 0.270914, 0.297981, -0.151039, 0.168183, 0.144538, 
    -0.129653, -0.196371, -0.168848, 0.093852, 0.057389, 0.032791, 0.412356, 0.231895, 0.095603, 0.132815, 
    0.060009, 0.206968, 0.354238, 0.189164, -0.047406, -0.149020, 0.038036, 0.359974, -0.290927, -0.274991, 
    -0.185078, -0.185722, -0.225079, -0.106198, 0.199410, -0.107528, -0.261583, 0.143460, 0.155817, -0.194531, 
    0.268009, 0.307562, 0.147894, 0.091810, -0.017138, -0.024023, 0.138273, -0.030499, -0.500582, -0.536392, 
    -0.305856, -0.023894, -0.220186, -0.000398, 0.183917, 0.288937, 0.390841, 0.546429, 0.089564, -0.168248, 
    -0.242481, -0.028410, -0.161196, -0.179225, -0.060404, -0.044620, 0.055701, 0.000991, 0.024863, -0.074951, 
    -0.000438, 0.077874, -0.000581, 0.113357, 0.213578, 0.166557, -0.132524, -0.013013, 0.065640, 0.172141, 
    0.308219, 0.224395, 0.195954, 0.254640, 0.288128, -0.110402, -0.271552, -0.230452, -0.054297, -0.177592, 
    -0.241632, -0.126216, -0.236979, -0.305451, 0.028699, 0.025205, 0.040903, 0.080053, 0.000559, 0.014061, 
    0.135652, 0.134640, 0.099107, -0.241596, -0.175691, -0.314169, 0.179945, 0.166846, 0.291472, 0.306074, 
    0.246707, 0.293807, -0.003636, 0.286743, 0.215893, -0.032638, -0.158408, -0.152568, 0.162244, 0.166238, 
    -0.011505, 0.145506, 0.064982, 0.053540, -0.291746, -0.350294, -0.428681, 0.329454, 0.378432, 0.367156, 
    0.369341, 0.272680, 0.295766, -0.167273, -0.237898, -0.114480, -0.129971, -0.325382, -0.328803, 0.006171, 
    0.159144, 0.088436, -0.440588, -0.453428, -0.477255, -0.040529, 0.005590, 0.158654, -0.163090, -0.155266, 
    0.032871, -0.037267, -0.105648, 0.011302, 0.077070, 0.269309, 0.340229, 0.178387, 0.233125, 0.317166, 
    -0.140835, 0.128361, -0.086431, -0.112954, -0.331459, -0.309025, 0.097623, 0.137905, 0.228006, 0.308593, 
    0.232025, 0.201444, -0.052338, -0.173349, -0.051560, 0.104045, 0.167064, 0.358019, 0.127338, 0.344889, 
    0.161489, -0.139184, -0.158410, -0.205467, -0.067352, -0.143154, -0.101058, -0.258392, -0.139127, -0.256881, 
    -0.068477, -0.060101, -0.071360, 0.096043, 0.061903, 0.144277, -0.057337, -0.065695, -0.122552, -0.227762, 
    -0.102968, -0.124805, 0.219423, 0.092035, 0.293005, 0.233212, 0.349381, 0.305902, 0.044014, 0.107366, 
    0.290102, -0.235675, 0.009142, -0.302525, -0.333880, -0.326131, -0.072825, -0.013114, -0.205829, -0.312377, 
    0.163396, 0.184755, 0.062772, -0.116794, -0.040593, -0.046495, -0.081474, -0.160720, -0.226373, -0.073729, 
    0.091122, 0.292720, 0.270688, 0.220774, 0.120796, 0.309464, 0.243071, 0.082405, -0.165024, -0.055890, 
    0.170579, 0.419073, 0.408717, 0.208966, 0.091551, -0.237512, -0.450040, -0.115680, -0.366506, -0.231666, 
    -0.232745, -0.120850, -0.256281, -0.012965, 0.005437, 0.170943, 0.080532, 0.134555, 0.109381, 0.221059, 
    0.261374, 0.335844, 0.182515, 0.069140, 0.175382, -0.304636, -0.197510, 0.029101, -0.096945, 0.230257, 
    0.140100, -0.166559, -0.005840, -0.058888, 0.011796, -0.178740, -0.199622, -0.064734, 0.376063, 0.241029, 
    0.183991, 0.354107, 0.286532, 0.009351, 0.253507, 0.201504, -0.036827, 0.224730, 0.154648, -0.425801, 
    -0.379271, -0.214397, -0.232045, 0.043849, 0.079250, 0.042342, 0.199978, 0.081511, -0.181709, -0.253869, 
    -0.173788, -0.311539, -0.213280, -0.240875, -0.143855, -0.043695, 0.008419, -0.034065, 0.061476, 0.186684, 
    0.012646, 0.068120, -0.126488, -0.164317, -0.080608, 0.037692, 0.066638, 0.188543, 0.160571, -0.166155, 
    -0.032079, -0.144531, -0.083930, -0.020275, 0.035968, 0.084959, 0.220193, -0.009596, -0.062857, -0.009589, 
    0.002670, 0.030001, 0.145121, -0.009985, 0.130962, 0.216930, 0.264495, -0.144507, 0.001553, 0.105149, 
    0.328215, 0.346109, 0.387252, -0.317549, -0.218437, -0.120995, 0.035263, 0.075020, -0.089588, -0.040531, 
    -0.028377, 0.093209, 0.189063, 0.172314, 0.244720, 0.139242, 0.264675, 0.091685, -0.140017, 0.100493, 
    0.190809, -0.287639, -0.354813, -0.325584, 0.068905, 0.060396, -0.034295, -0.130096, -0.234974, -0.125488, 
    -0.163232, -0.158340, -0.184080, -0.051888, 0.375346, 0.242874, 0.261955, 0.435824, 0.171948, 0.159136, 
    0.354599, 0.196116, 0.123882, 0.300564, 0.033626, -0.066672, 0.054370, 0.067894, -0.178144, -0.032442, 
    -0.145590, -0.141374, 0.034718, -0.043820, -0.151333, -0.116602, -0.237342, -0.249532, -0.198315, -0.234631, 
    0.156411, 0.027118, 0.079926, -0.333912, -0.565733, -0.638577, -0.266637, -0.170536, -0.009681, -0.075670, 
    -0.143734, -0.118693, 0.079798, 0.055455, 0.084423, 0.091578, -0.077082, -0.028280, -0.139594, -0.085675, 
    -0.170005, -0.112448, 0.202893, 0.038101, 0.305197, 0.089740, 0.144895, 0.144125, 0.120996, 0.246500, 
    -0.233776, -0.070398, -0.028415, 0.474025, 0.510707, 0.316321, -0.013928, -0.222580, -0.296852, -0.059278, 
    -0.145958, -0.429167, -0.170630, -0.336795, -0.164756, 0.137743, 0.091916, -0.014671, -0.124353, 0.048042, 
    -0.014182, -0.235400, -0.149439, -0.290947, 0.107949, 0.022364, 0.169815, 0.311344, 0.365972, 0.293986, 
    -0.031466, 0.000554, -0.051218, 0.257840, 0.273178, 0.358801, 0.338253, 0.234238, 0.202304, -0.211016, 
    -0.159659, -0.233482, -0.089562, -0.239566, -0.163920, -0.153120, -0.294172, -0.206628, 0.010077, -0.151074, 
    0.090710, 0.122703, 0.101968, 0.016050, -0.006590, -0.106085, -0.006134, -0.253548, -0.186080, -0.216605, 
    0.001198, 0.307020, 0.130044, 0.326494, 0.347411, 0.229212, 0.274489, 0.304030, 0.142101, 0.007658, 
    0.065159, 0.053426, 0.238863, 0.143456, 0.166448, 0.229353, 0.053405, 0.309143, -0.550883, -0.559326, 
    -0.457144, 0.312969, 0.036293, -0.062831, 0.255274, 0.445311, 0.085624, -0.058137, -0.148372, -0.078366, 
    -0.131251, -0.175198, -0.372913, -0.275963, -0.218824, -0.320204, -0.256687, -0.368436, -0.360147, 0.055123, 
    -0.116468, 0.180247, -0.341057, -0.317358, -0.218620, 0.044154, -0.087234, -0.102970, 0.308658, 0.302461, 
    0.456437, 0.428441, 0.419847, 0.367962, 0.128284, 0.291081, 0.261711, -0.150421, -0.134175, -0.128751, 
    0.190857, 0.160391, 0.175750, 0.163950, 0.181802, 0.150842, -0.395400, -0.304566, -0.415826, 0.282371, 
    0.300505, 0.085382, 0.185891, 0.435867, 0.289728, -0.121683, -0.105187, -0.026101, -0.155881, -0.152169, 
    -0.146984, -0.079226, 0.043913, -0.182736, -0.300516, -0.407371, -0.460324, 0.029477, -0.078033, 0.052039, 
    -0.291446, -0.354002, -0.286663, 0.065429, 0.045891, -0.028419, 0.251798, 0.296800, 0.314803, 0.129602, 
    0.406919, 0.322936, 0.184063, 0.191925, 0.008039, 0.372352, 0.259835, 0.331133, 0.238507, 0.230332, 
    0.174060, -0.404895, -0.220335, -0.038864, 0.124104, 0.157516, 0.404085, -0.069123, -0.132147, 0.023714, 
    0.098472, -0.132560, -0.023388, 0.084926, 0.401304, 0.425771, 0.267068, 0.331249, 0.224147, 0.178252, 
    0.305409, 0.288305, 0.268236, 0.371632, 0.283431, -0.647072, -0.475348, -0.270217, -0.128044, 0.232966, 
    0.149725, -0.148953, -0.162799, -0.084593, -0.072918, -0.098037, -0.127444, -0.301237, -0.204352, -0.016083, 
    0.215272, 0.230058, 0.274899, -0.130070, -0.103246, -0.201535, -0.256627, 0.067404, 0.148709, -0.234964, 
    -0.354503, -0.174810, 0.137273, 0.190010, -0.040549, -0.072020, -0.101138, -0.217688, -0.222403, -0.086627, 
    -0.290584, 0.113119, 0.209925, 0.171280, 0.267085, 0.294733, 0.189162, 0.251442, 0.135457, 0.000455, 
    0.015094, 0.156146, 0.130581, 0.291543, 0.156386, 0.133899, -0.157221, -0.089148, -0.317495, -0.167966, 
    -0.077728, -0.046576, -0.097100, -0.219567, -0.385332, 0.009341, -0.122414, 0.072094, 0.252772, 0.001281, 
    -0.079564, 0.341597, 0.294677, 0.373395, 0.202789, -0.050373, -0.003318, 0.103367, -0.060304, 0.038182, 
    -0.007024, -0.177123, -0.130132, -0.107620, -0.159585, -0.282463, 0.056380, -0.061239, -0.271541, 0.277995, 
    0.027097, -0.395947, 0.272289, 0.220263, 0.202233, 0.092025, -0.023306, -0.194536, -0.072115, -0.117177, 
    0.084802, -0.023836, 0.027978, 0.075446, 0.253156, 0.186813, 0.204663, 0.272675, 0.127272, 0.352430, 
    -0.066483, -0.159946, -0.031814, -0.390443, -0.433251, -0.318934, 0.007458, 0.110809, 0.195026, -0.265142, 
    -0.351705, -0.281683, -0.066021, 0.155809, 0.258061, 0.395693, 0.330540, 0.025954, -0.083532, -0.198613, 
    -0.142659, 0.339053, 0.168126, 0.034497, 0.080015, 0.330037, 0.281923, 0.171245, 0.018426, -0.116934, 
    0.096970, 0.102428, 0.064158, -0.007006, -0.150806, -0.114804, -0.188928, -0.297389, -0.140504, 0.255299, 
    0.076738, -0.115535, -0.189298, -0.337488, -0.233098, 0.047952, -0.122248, -0.270806, 0.143804, 0.085356, 
    0.175075, 0.294252, 0.091335, 0.065168, -0.411197, -0.162011, -0.142620, -0.125342, -0.249381, -0.060836, 
    0.208926, 0.152204, 0.139870, 0.119365, 0.321914, 0.382530, 0.103749, -0.002614, 0.065626, 0.398670, 
    0.304890, 0.293696, -0.231342, 0.158837, 0.214257, 0.041532, -0.183907, 0.006610, -0.125590, -0.150313, 
    0.034998, -0.245350, -0.066155, -0.081048, 0.008171, 0.071708, -0.043662, 0.087296, 0.019798, -0.118348, 
    0.038998, 0.113401, 0.005673, -0.171330, -0.073049, -0.121790, 0.008207, -0.118580, -0.214988, 0.231676, 
    0.257262, 0.233199, -0.325264, -0.217226, -0.157298, -0.166809, 0.250431, 0.324505, -0.428649, -0.590860, 
    -0.643560, 0.123371, 0.042816, 0.158905, 0.299906, 0.064514, -0.174329, 0.015637, 0.063699, -0.089967, 
    0.003306, 0.172131, 0.031130, 0.202282, -0.254615, -0.402218, 0.125486, -0.054090, -0.450307, 0.232737, 
    -0.317586, -0.262527, 0.389362, 0.007616, -0.573122, 0.243910, 0.224881, 0.214573, 0.497578, 0.172868, 
    0.052429, -0.252185, -0.017394, 0.179960, 0.053310, 0.156822, -0.101155, 0.041525, 0.093014, 0.046710, 
    0.241153, 0.107713, 0.186726, 0.184671, 0.077106, 0.211425, -0.138559, 0.025814, 0.124592, -0.383311, 
    -0.287636, -0.334348, 0.125264, 0.134116, 0.176038, -0.161319, -0.312167, -0.164458, -0.069935, -0.010157, 
    -0.184539, 0.233724, 0.453901, 0.228310, 0.231366, 0.435398, 0.164309, 0.333302, 0.214299, 0.317678, 
    0.087678, 0.224263, 0.256754, -0.158391, 0.070542, 0.129043, -0.034411, -0.251963, -0.058635, -0.174610, 
    -0.105612, -0.124646, -0.032135, -0.155862, -0.293748, -0.282893, -0.063630, -0.032855, 0.208461, 0.049488, 
    0.123061, 0.252115, 0.275633, 0.319139, 0.051797, 0.206119, -0.004767, -0.261307, -0.210727, 0.034040, 
    0.180798, 0.090721, 0.309784, -0.073260, -0.137876, 0.038451, 0.092417, 0.025215, -0.192661, 0.224567, 
    0.372355, 0.341920, 0.184799, 0.125511, 0.274234, 0.235600, 0.158986, 0.193383, 0.347604, 0.381781, 
    0.329549, -0.504092, -0.417800, -0.176088, -0.150932, 0.170027, 0.204148, -0.166630, -0.131107, -0.181552, 
    -0.177810, 0.030219, -0.165738, -0.237559, -0.227926, -0.019962, -0.372473, -0.175334, -0.262298, 0.068907, 
    0.402447, 0.439204, -0.666593, -0.654705, -0.694643, 0.116376, 0.132413, 0.123824, 0.417521, 0.104677, 
    -0.261609, 0.021147, 0.145499, -0.027349, 0.038060, -0.012773, 0.083673, 0.423499, -0.217160, -0.462447, 
    0.313476, -0.205197, -0.456760, 0.231618, -0.202131, -0.440041, 0.461811, -0.005544, -0.788460, 0.241929, 
    0.295500, 0.270596, 0.430560, 0.416251, 0.028248, -0.141466, -0.066121, 0.075712, -0.196925, -0.107497, 
    -0.313065, 0.023642, -0.033074, 0.066603, -0.481813, -0.368397, -0.153316, -0.103251, -0.415418, -0.335742, 
    0.138693, 0.248576, 0.379334, 0.271827, 0.222947, 0.226656, 0.085263, 0.125804, 0.173715, 0.384936, 
    0.276083, 0.416865, -0.309586, -0.178202, -0.025694, -0.169342, -0.088130, -0.020831, -0.098950, -0.052810, 
    -0.002417, -0.081230, -0.111986, 0.023676, 0.149070, -0.054456, 0.089125, 0.141428, -0.050198, -0.043881, 
    0.096922, 0.035349, 0.023834, -0.144053, 0.009284, -0.081613, 0.126544, 0.036127, -0.140237, 0.296909, 
    0.162087, 0.072575, 0.341418, 0.024120, -0.014962, 0.108813, -0.030074, 0.221779, 0.412583, 0.259066, 
    -0.110955, -0.140905, -0.016671, 0.331299, -0.717631, -0.281112, -0.203352, -0.237841, -0.324585, -0.127247, 
    0.098221, -0.007561, -0.270409, -0.109422, -0.242452, -0.397627, -0.364429, 0.001316, -0.285464, -0.221187, 
    -0.302353, -0.170654, 0.392378, -0.045175, -0.594001, -0.633222, -0.001965, 0.227366, -0.583112, -0.102507, 
    0.160594, 0.251525, 0.449139, 0.563349, 0.611815, 0.435676, 0.144946, -0.120147, 0.002785, 0.208425, 
    -0.079553, 0.239390, 0.090762, -0.080119, -0.040294, -0.176089, 0.135093, 0.230686, -0.053113, 0.233369, 
    0.278680, 0.242847, -0.256321, -0.326921, -0.166963, 0.292865, 0.281973, 0.164285, 0.225000, 0.324843, 
    0.212955, -0.095464, -0.042044, 0.005504, -0.165405, -0.289243, -0.148508, -0.086445, 0.032035, -0.044087, 
    -0.316597, -0.326325, -0.258241, 0.019627, -0.013732, 0.240215, -0.236695, -0.201347, -0.088432, -0.022424, 
    -0.126991, -0.258171, 0.037994, 0.133936, 0.302609, 0.384521, 0.347608, 0.251249, -0.409258, -0.497088, 
    -0.309555, -0.138398, 0.320240, 0.089875, -0.168006, -0.067538, 0.063902, 0.131138, 0.335803, 0.168051, 
    0.089594, -0.076214, -0.101664, 0.536691, 0.372909, 0.180009, -0.194267, -0.052094, -0.028469, 0.147495, 
    -0.016646, -0.023639, -0.023514, -0.233134, -0.042721, -0.017258, -0.344653, -0.444784, -0.022522, -0.114379, 
    -0.285011, 0.138620, 0.185145, 0.148882, 0.195025, 0.173202, 0.290430, -0.159920, 0.113951, -0.099834, 
    -0.191383, -0.001739, -0.213300, 0.077894, 0.297428, 0.036380
};

// PyTorch Layer: conv2.bias (Shape: (32,))
static const data_t conv2_b[32] = {
-0.105807, -0.027911, 0.172130, 0.240483, 0.045784, 0.058133, -0.274136, 0.065761, 0.116405, 0.020829, 
    0.111189, -0.056180, 0.297713, 0.023837, 0.189162, 0.158819, 0.028195, -0.089790, -0.077565, 0.124276, 
    0.183361, 0.099658, -0.011090, -0.097113, -0.155119, 0.016261, 0.062934, -0.141467, -0.043193, -0.104613, 
    -0.067859, 0.058582
};

// PyTorch Layer: fc.weight (Shape: (3, 32))
static const data_t fc_w[96] = {
-0.397769, 0.131438, 0.179878, -0.423144, 0.080603, 0.459796, -0.507205, -0.449089, 0.245427, 0.702093, 
    0.490570, -0.568721, -0.605648, -0.230653, -0.566519, -0.260519, 0.272045, 0.734974, 0.375721, -0.686834, 
    -0.503608, -0.525518, 0.583106, 0.324007, -0.268662, -0.512825, -0.515195, -0.385507, 0.530512, 0.315386, 
    0.588562, 0.233717, -0.419584, -0.738819, 0.300246, -0.556843, -0.342730, -0.106209, 0.861831, -0.216622, 
    -0.028339, -0.687905, -0.103877, -0.227329, 0.139672, 0.152991, 0.170846, -0.410790, -0.205406, -0.898123, 
    -0.716376, 0.342167, -0.114182, 0.217538, -0.479269, -0.184509, 0.727944, 0.190868, 0.364843, 0.890011, 
    -0.216399, -1.181982, -0.521531, 0.334108, 0.583196, 0.507650, -0.349946, 0.475208, 0.531086, -0.400046, 
    -0.539772, 0.752558, -0.370369, -0.246961, -0.182507, 0.488915, 0.042230, -0.211573, 0.247347, 0.599085, 
    -0.399313, -0.144652, -0.223026, -0.123024, 0.270625, 0.250986, 0.021665, -0.338773, -0.469223, 0.216832, 
    -0.078716, -0.573536, -0.281643, 0.637858, -0.296478, -0.599747
};

// PyTorch Layer: fc.bias (Shape: (3,))
static const data_t fc_b[3] = {
0.107941, -0.072597, 0.089200
};

#endif // VOICE_CNN_WEIGHTS_H
