#ifndef VOICE_CNN_WEIGHTS_H
#define VOICE_CNN_WEIGHTS_H

#include "voice_typedefs.h"

// PyTorch Layer: conv1.weight (Shape: (16, 40, 3))
static const data_t conv1_w[1920] = {
0.151089, 0.013431, -0.087550, 0.311423, 0.241849, 0.129941, -0.425143, 0.089117, 0.068489, -0.328668, 
    0.161460, -0.280181, -0.326614, -0.137108, -0.019945, -0.033346, 0.041697, 0.224521, -0.064748, 0.241144, 
    0.358738, 0.320566, -0.095443, 0.097624, -0.127215, 0.086992, 0.265779, -0.481892, -0.276714, -0.436408, 
    -0.128004, -0.152238, 0.089443, -0.154354, 0.004688, 0.484612, -0.064275, 0.000611, 0.304089, -0.222373, 
    0.124047, -0.141651, -0.082990, -0.175368, 0.028304, -0.353943, -0.308022, 0.037247, 0.032358, 0.097533, 
    -0.282078, -0.035817, -0.183787, 0.264720, -0.122145, -0.106532, 0.059570, 0.000491, 0.146213, 0.228427, 
    -0.037761, 0.042595, 0.067322, 0.214114, -0.044865, 0.113962, 0.185035, 0.105683, -0.101024, -0.007407, 
    -0.132689, 0.047968, 0.083291, 0.055322, -0.360267, 0.236588, 0.264835, 0.126175, -0.212097, -0.210071, 
    -0.237110, 0.201885, 0.149823, -0.146725, -0.145770, -0.102927, 0.332599, 0.217338, -0.086021, 0.076222, 
    -0.032648, 0.031916, 0.318119, 0.443332, -0.259843, 0.092490, 0.250433, -0.044167, 0.098920, -0.312177, 
    -0.033372, -0.319857, 0.187346, 0.329150, 0.014728, -0.275946, 0.048709, 0.267731, 0.096100, -0.001379, 
    -0.019438, 0.091590, -0.130826, -0.021692, 0.453974, 0.095016, -0.130259, -0.110044, 0.090153, -0.358573, 
    0.149808, 0.111108, 0.261990, -0.367710, -0.305669, -0.536507, -0.301469, -0.166738, 0.370522, 0.260982, 
    0.214805, 0.728633, -0.346213, -0.306088, 0.065613, -0.079554, -0.257383, -0.363748, 0.292186, 0.330185, 
    -0.282994, -0.148584, 0.089763, -0.193506, 0.086618, -0.148487, -0.252602, 0.246320, -0.110247, -0.222813, 
    -0.270014, 0.054880, -0.073527, 0.068326, 0.277884, 0.053731, 0.058319, -0.077104, 0.089557, -0.142094, 
    0.276588, 0.068714, 0.014926, -0.366545, -0.035284, -0.036956, -0.287580, -0.007008, -0.028627, 0.150701, 
    0.285426, 0.189550, 0.191376, 0.032400, -0.077528, 0.204281, -0.534377, -0.124025, 0.200303, 0.037440, 
    0.299449, -0.223250, 0.149664, -0.135867, -0.075791, -0.041042, 0.041332, -0.092626, -0.156381, -0.177469, 
    -0.100753, 0.212317, -0.251665, 0.008043, 0.072816, 0.014335, -0.068769, 0.198675, -0.398272, 0.418257, 
    -0.283451, -0.039092, 0.180081, 0.001328, 0.102343, 0.137335, -0.127256, -0.069460, -0.139746, 0.108650, 
    0.233135, -0.308961, 0.054327, -0.039114, -0.191241, 0.187647, 0.315618, 0.227809, -0.121503, 0.118083, 
    -0.330775, 0.223034, -0.053588, 0.120101, -0.227616, 0.206347, 0.158848, -0.048923, -0.075360, 0.069849, 
    0.033520, -0.049863, -0.272475, 0.052564, 0.116817, -0.017994, -0.261691, 0.144406, 0.233224, -0.141364, 
    -0.079019, -0.116016, -0.163768, 0.931057, 0.608867, 0.074999, -0.269777, -0.134665, 0.090485, 0.602148, 
    0.292840, -0.184874, 0.129545, 0.070036, 0.116171, -0.635011, 0.070644, 0.510060, -0.332412, 0.059733, 
    0.173953, -0.353906, -0.043012, 0.228641, 0.510188, 0.038909, 0.007433, 0.072733, 0.048734, -0.197555, 
    0.229868, 0.286806, 0.401723, 0.218851, 0.214829, 0.014886, 0.008646, 0.092347, 0.606002, 0.111280, 
    0.104439, 0.253253, -0.116436, -0.002411, -0.032863, -0.247177, -0.286733, 0.241300, 0.185143, 0.074515, 
    -0.067904, 0.174794, -0.063344, -0.039892, 0.021883, -0.056661, 0.197207, -0.186044, -0.279027, -0.322763, 
    -0.085310, 0.098862, 0.120778, 0.059030, -0.399959, 0.143549, -0.294039, 0.217750, -0.212857, 0.211629, 
    -0.018102, 0.161824, 0.016372, -0.312248, -0.440804, -0.557293, 0.148978, 0.171257, -0.033202, 0.179877, 
    -0.195446, -0.177100, 0.229297, -0.052468, -0.328040, -0.166645, 0.244776, -0.380540, -0.145663, 0.078493, 
    0.038668, 0.320817, 0.098553, -0.125302, -0.130003, -0.015957, -0.380615, 0.072301, -0.001582, 0.308235, 
    0.013043, -0.373562, 0.079226, 0.176304, -0.233436, -0.268204, 0.114592, 0.077216, -0.216561, -0.058517, 
    0.161077, 0.038712, -0.005548, 0.365103, -0.276679, -0.122168, 0.212721, -0.069826, -0.025125, 0.294599, 
    -0.052750, -0.018306, -0.036566, -0.396468, 0.032595, -0.104280, 0.190094, 0.185406, 0.243974, 0.020785, 
    0.512833, 0.433624, 0.030230, 0.299120, -0.493398, 0.007297, 0.666549, -0.270157, 0.106517, -0.310208, 
    0.286296, -0.067739, 0.363838, 0.129281, 0.244707, -0.067182, -0.129777, 0.032603, 0.044066, -0.149748, 
    0.020190, -0.034760, -0.160185, 0.109041, 0.084215, -0.168499, -0.077835, 0.043770, 0.161819, 0.163703, 
    0.098864, 0.214645, 0.480606, -0.108948, -0.457208, 0.162111, -0.097873, 0.190233, 0.007960, 0.049692, 
    -0.029060, 0.152151, -0.070309, 0.227670, -0.030407, -0.199169, 0.206406, 0.209584, -0.338366, 0.078453, 
    -0.100283, 0.127849, -0.107288, -0.091593, -0.015616, -0.073132, -0.104916, 0.031500, -0.188376, -0.171226, 
    -0.173998, -0.054328, 0.215363, -0.134964, -0.209629, -0.180695, 0.131208, -0.349505, -0.237650, 0.123634, 
    -0.050931, 0.318556, -0.244194, 0.087164, -0.089778, -0.243663, 0.156784, -0.034390, 0.242202, -0.062227, 
    0.386643, -0.038359, 0.010004, -0.034346, 0.180041, 0.310245, -0.323898, 0.214924, -0.108688, 0.184611, 
    -0.461534, 0.164550, 0.376764, -0.177780, 0.073101, -0.125916, 0.218182, -0.085625, 0.193245, 0.131753, 
    0.026658, -0.127970, -0.050060, 0.202278, -0.160915, -0.042558, 0.033221, 0.132239, -0.468892, 0.254753, 
    -0.131465, -0.397054, -0.147687, 0.057661, 0.036259, -0.012916, -0.220066, -0.255200, -0.493874, -0.136976, 
    -0.147324, -0.067988, -0.006949, -0.090289, 0.201617, 0.088981, 0.266685, 0.180104, -0.031866, 0.261310, 
    0.176421, -0.018696, 0.217686, 0.491033, 0.440236, 0.354922, -0.171266, 0.359066, 0.033499, 0.303705, 
    -0.023204, -0.174971, 0.002219, -0.283058, -0.413535, 0.023266, 0.273514, -0.211828, 0.258515, 0.031281, 
    0.040172, -0.077990, -0.605429, 0.325140, 0.350016, -0.352551, 0.161625, 0.189574, -0.036718, -0.213421, 
    -0.219207, 0.284163, -0.088293, 0.133220, -0.014050, 0.133625, -0.111715, -0.090986, -0.017078, -0.277121, 
    0.187183, 0.125538, -0.014175, 0.324631, 0.059965, 0.145699, -0.040525, 0.032180, 0.080648, -0.175996, 
    -0.018624, 0.167039, 0.026197, 0.006942, 0.148229, 0.021296, -0.047634, -0.067039, -0.347325, 0.212541, 
    -0.286823, 0.097353, 0.101103, 0.223878, 0.104840, 0.041720, -0.191443, 0.241348, -0.078506, 0.249143, 
    0.205666, -0.174644, -0.280683, -0.148319, 0.135006, -0.105096, 0.112183, 0.383440, -0.700220, 0.057571, 
    -0.059255, -0.104222, 0.089748, 0.072188, -0.110364, 0.139521, -0.121401, -0.067412, 0.138580, -0.233474, 
    0.093210, 0.360052, -0.323648, -0.099133, -0.437307, -0.018038, -0.075349, -0.183619, 0.150335, -0.143349, 
    -0.256932, -0.181876, -0.195330, -0.189166, -0.278816, -0.142372, -0.075031, -0.123047, 0.305067, 0.184618, 
    0.467149, 0.148089, 0.107926, 0.033908, 0.174728, 0.083004, -0.014641, -0.406504, -0.303353, 0.440648, 
    -0.288385, -0.181871, 0.079943, -0.132303, 0.146222, -0.212206, 0.152609, 0.040765, -0.009366, -0.127606, 
    0.034664, 0.176300, 0.302361, 0.168302, -0.218255, 0.243146, 0.005859, -0.015636, -0.190715, 0.004038, 
    0.149224, -0.165709, 0.315503, -0.205718, -0.173648, -0.279548, 0.157325, -0.354552, 0.225605, -0.204960, 
    0.308365, -0.086563, 0.039173, 0.207161, -0.148854, -0.069336, -0.186843, -0.218405, 0.278894, 0.355161, 
    -0.061333, 0.095847, 0.098365, 0.016753, 0.058400, -0.239505, 0.214418, 0.126024, 0.306554, 0.042444, 
    -0.095303, 0.145600, 0.216635, 0.303667, -0.198113, 0.279471, -0.120651, 0.276955, 0.172878, 0.024932, 
    0.159800, 0.143858, 0.267181, -0.037844, 0.209248, 0.265581, 0.137231, 0.035774, -0.101214, -0.152461, 
    0.041873, -0.013944, 0.289533, -0.131802, 0.049586, 0.089432, 0.105230, 0.100482, 0.553928, 0.068144, 
    0.260313, -0.077367, 0.087384, -0.172893, 0.051497, 0.306768, -0.284830, 0.212422, -0.017569, 0.225203, 
    -0.174039, 0.109186, 0.285796, -0.392501, 0.251665, -0.318776, 0.172245, -0.416003, -0.352217, 0.146644, 
    -0.010332, 0.081478, 0.116923, 0.541269, 0.311939, 0.229470, 0.076839, 0.010089, -0.598215, 0.122437, 
    0.036038, -0.288162, -0.115180, -0.123166, -0.411001, 0.695333, 0.228603, 0.042984, 0.115195, 0.271412, 
    0.312562, 0.022439, 0.165024, 0.228901, -0.157404, -0.237770, 0.037587, -0.241586, -0.411823, -0.116780, 
    0.067299, 0.040649, 0.041771, 0.186153, -0.129512, -0.057209, -0.176443, 0.147874, -0.300602, -0.107986, 
    -0.087848, -0.153355, 0.060830, -0.134328, 0.183852, -0.128503, -0.162360, -0.241953, -0.354505, 0.347919, 
    0.313036, -0.001975, 0.287694, 0.037808, -0.140111, -0.417743, -0.279825, 0.184040, 0.161398, -0.047757, 
    0.056925, -0.006873, -0.058869, -0.103411, -0.489313, 0.206211, 0.017758, 0.272685, -0.072374, 0.065819, 
    -0.159867, 0.062554, 0.215560, -0.111772, 0.222052, 0.146155, -0.020339, -0.006547, -0.186066, 0.166564, 
    -0.081258, -0.065922, -0.216347, 0.103378, -0.211307, 0.142915, -0.005320, 0.083064, 0.116467, -0.124690, 
    -0.075564, -0.078072, 0.287000, -0.322951, -0.097368, 0.142011, -0.073154, 0.343704, -0.336989, 0.131898, 
    -0.074627, -0.044539, -0.404980, -0.141635, -0.128571, -0.138391, 0.052115, -0.244112, 0.181375, -0.207202, 
    -0.098992, -0.204233, 0.028784, 0.156113, -0.045885, -0.003085, -0.229734, 0.063968, -0.287417, -0.515066, 
    0.103301, -0.212046, -0.205465, 0.362395, 0.284932, -0.156604, 0.409945, 0.327332, 0.100606, -0.144139, 
    0.420764, -0.183516, -0.104421, 0.235613, 0.169497, 0.087118, 0.453261, 0.006271, 0.390226, 0.395017, 
    0.109694, -0.036314, 0.251400, -0.018919, 0.239097, 0.681581, 0.163060, -0.147480, 0.248446, -0.495539, 
    -0.082792, -0.021475, -0.323954, -0.330531, -0.058002, 0.174440, -0.185095, -0.171447, 0.070510, -0.274965, 
    0.018238, 0.084834, 0.160159, 0.187947, 0.397282, -0.026617, 0.274569, -0.277000, -0.034752, 0.173309, 
    0.003027, -0.002471, -0.003522, 0.034450, -0.068872, -0.251519, -0.273060, 0.057701, 0.219055, 0.196690, 
    -0.005385, -0.125839, 0.085843, 0.044827, -0.341434, -0.128797, -0.192966, -0.102601, 0.202910, -0.174348, 
    -0.290450, -0.199008, 0.053387, 0.088463, 0.112911, -0.455136, 0.428278, -0.276372, -0.101298, -0.119326, 
    -0.133286, 0.081623, -0.153452, 0.054981, 0.388400, -0.083267, -0.105703, -0.082048, -0.182691, -0.082938, 
    0.015853, -0.045153, 0.150116, -0.095103, -0.172145, -0.165074, -0.101600, -0.185683, 0.032547, 0.060027, 
    -0.036505, 0.456794, -0.066817, -0.109657, -0.116026, 0.147030, -0.157882, -0.007918, -0.083061, -0.184000, 
    0.119167, -0.137775, 0.104166, 0.194184, 0.171353, 0.125129, 0.214858, -0.182276, -0.064842, -0.212696, 
    -0.187805, -0.109581, -0.277843, -0.071964, 0.308535, 0.407565, -0.382718, 0.145322, 0.419519, -0.282122, 
    -0.205952, -0.001847, -0.256073, -0.170947, -0.244575, 0.068679, 0.137221, -0.031508, -0.061805, 0.009860, 
    0.359745, 0.064585, 0.386004, 0.489747, -0.133529, -0.268420, 0.317367, -0.017460, -0.225015, 0.003639, 
    0.092458, -0.006100, 0.416689, 0.314276, 0.114671, -0.139135, -0.187693, -0.186862, -0.259483, -0.147045, 
    -0.003989, -0.533851, -0.337115, -0.055954, -0.242247, -0.073081, 0.189164, -0.061941, 0.088475, 0.086710, 
    -0.382955, -0.271097, -0.038003, 0.162529, -0.005418, 0.258784, 0.123592, -0.034996, 0.386516, 0.250689, 
    0.113243, 0.123964, -0.007289, -0.040005, 0.018864, -0.255109, 0.156698, 0.220416, -0.027904, -0.042518, 
    0.100370, 0.047001, -0.098956, -0.202011, 0.305370, 0.135943, -0.325627, 0.337307, 0.163379, 0.253192, 
    -0.141422, 0.264047, 0.090673, -0.217652, -0.088584, -0.072264, -0.078674, 0.162163, 0.032666, 0.182626, 
    0.355081, -0.045126, 0.017708, -0.206818, 0.012178, -0.084543, -0.384658, -0.076174, 0.117838, 0.001175, 
    -0.186116, 0.090800, 0.111860, 0.060516, -0.418745, -0.016242, 0.000469, -0.035772, 0.175582, -0.115792, 
    0.113981, -0.177058, -0.247841, -0.109716, -0.199371, -0.097614, 0.241207, 0.118032, 0.000971, -0.156269, 
    -0.162021, -0.172532, -0.213885, -0.289832, -0.128047, 0.094817, 0.182893, -0.357590, 0.013260, -0.396524, 
    -0.303958, 0.239449, -0.039877, -0.123899, -0.204742, 0.228479, 0.188389, -0.292749, 0.076223, 0.603938, 
    -0.060496, 0.052744, -0.003054, -0.136090, -0.531774, 0.191962, 0.070794, 0.166762, -0.320949, -0.145888, 
    -0.239994, 0.087476, -0.111862, 0.119187, 0.039746, -0.134319, -0.285436, -0.228321, 0.203085, 0.192217, 
    -0.003508, -0.270455, -0.124723, -0.360718, 0.293980, 0.034722, 0.398458, 0.174881, 0.121618, 0.461827, 
    0.023317, 0.177171, 0.179375, -0.103282, 0.151873, -0.029246, 0.143875, 0.336454, -0.067510, -0.038776, 
    0.138975, 0.066270, 0.034742, -0.017267, -0.058255, 0.066690, 0.140945, 0.142280, 0.041724, -0.012936, 
    0.006710, -0.192950, 0.211130, 0.018932, 0.298250, 0.220035, -0.010546, 0.400849, 0.294853, 0.213879, 
    0.060380, -0.115699, 0.261576, 0.083419, -0.146020, 0.431022, -0.251037, -0.162362, 0.240319, 0.062507, 
    -0.125487, 0.217280, 0.366959, 0.315641, 0.276305, 0.176292, 0.189451, 0.221042, 0.395363, 0.122969, 
    -0.080822, 0.121101, -0.094344, -0.256506, 0.122652, 0.214621, -0.027937, 0.266892, 0.225287, -0.055492, 
    -0.373479, -0.041734, 0.259729, -0.265531, -0.060252, 0.039416, -0.080470, 0.008690, -0.029133, -0.210064, 
    -0.038535, -0.112903, -0.157367, 0.660146, 0.433013, 0.430859, -0.179985, -0.067906, -0.145981, -0.312833, 
    0.112168, -0.301955, 0.204930, -0.014157, -0.125202, -0.126917, 0.844257, -0.009584, -0.323060, -0.109446, 
    0.243776, -0.098574, -0.227677, -0.350718, 0.697033, 0.045648, -0.049382, 0.196108, 0.140512, 0.302682, 
    -0.083132, -0.031672, 0.364850, 0.056162, 0.304008, -0.186492, -0.193218, 0.188839, -0.033883, 0.489609, 
    -0.307604, 0.255642, 0.084021, -0.004887, 0.234031, 0.080390, -0.353544, 0.282022, -0.285416, 0.218884, 
    -0.029034, -0.288419, 0.258704, 0.008611, -0.218538, -0.301878, -0.140202, -0.236345, -0.041516, 0.109543, 
    -0.201146, 0.219293, -0.248200, 0.025873, -0.049694, -0.288351, 0.111612, 0.130127, -0.204258, 0.154390, 
    -0.202692, -0.087679, -0.178739, 0.311848, -0.239806, -0.289385, 0.455509, -0.135427, 0.253120, 0.226707, 
    -0.001547, -0.015692, -0.184389, -0.148763, -0.433513, 0.386952, 0.328910, -0.144673, -0.234289, -0.053110, 
    -0.350409, 0.135982, -0.010632, -0.010985, -0.125505, -0.095229, 0.037384, -0.283325, 0.262878, 0.291875, 
    -0.284730, -0.092581, -0.205691, -0.252758, 0.406234, 0.260222, -0.173730, 0.128168, -0.449576, -0.060176, 
    -0.085191, 0.200795, -0.360614, 0.071386, -0.096178, -0.114129, 0.010550, 0.205428, -0.235404, 0.373389, 
    -0.088947, -0.018212, -0.005898, -0.703159, -1.068913, -0.873970, -0.552127, -0.397255, -0.296505, -0.196158, 
    -0.018739, -0.042222, -0.212051, -0.180352, -0.210523, 0.368197, 0.166926, 0.081366, 0.607939, 0.242127, 
    0.468147, 0.451342, 0.537305, 0.478200, 0.455336, 0.309929, 0.157190, 0.352563, 0.180730, 0.079058, 
    0.234212, -0.216741, -0.112820, 0.355201, 0.321237, 0.034075, 0.105029, 0.175883, -0.043201, 0.806632, 
    -0.042159, -0.128123, 0.001339, 0.327835, -0.285244, -0.121893, 0.021591, -0.047326, 0.133371, -0.035180, 
    0.059408, 0.310242, -0.024354, 0.036739, 0.176063, -0.258312, -0.059764, 0.151261, -0.392438, -0.018910, 
    0.033284, -0.024643, -0.234355, -0.103556, -0.130442, -0.080017, -0.060602, 0.139914, 0.009818, -0.339469, 
    -0.042557, 0.196196, -0.198144, -0.113274, 0.018052, -0.343019, 0.180793, -0.007544, 0.024068, 0.294467, 
    -0.284250, -0.254449, 0.311013, -0.317344, -0.120189, 0.260217, -0.040668, 0.337280, 0.154925, -0.354707, 
    0.030729, 0.114160, -0.192808, -0.168588, -0.384571, -0.235348, 0.342330, -0.013299, 0.026562, -0.514428, 
    0.041098, 0.212233, -0.070657, -0.059429, 0.270588, 0.054747, 0.128477, -0.024345, 0.213946, -0.055954, 
    0.066528, -0.333838, 0.090487, 0.293936, 0.105986, -0.030256, -0.006184, 0.322513, -0.025072, -0.083910, 
    -0.047162, 0.078208, 0.171692, -0.096660, 0.078477, -0.132234, 0.121742, 0.367460, -0.215942, 0.013751, 
    -0.071579, 0.036622, 0.115375, -0.043093, -0.203536, 0.365558, 0.327469, 0.199320, 0.189842, -0.092050, 
    0.108158, -0.014342, 0.188365, -0.009840, 0.468663, 0.374775, 0.090582, 0.133647, 0.131848, -0.001982, 
    0.172776, 0.236445, -0.307652, 0.308002, 0.282998, 0.457406, -0.035652, -0.058066, 0.366122, 0.048633, 
    -0.172451, 0.303305, 0.127098, -0.124414, 0.187302, 0.345330, -0.007502, 0.233326, -0.168355, 0.290204, 
    -0.303471, -0.229028, 0.207644, -0.214953, -0.018272, 0.159266, 0.082793, 0.309250, 0.153983, 0.072504, 
    0.025116, 0.040064, -0.235554, -0.254106, 0.369671, -0.051142, -0.132822, 0.111375, 0.261402, 0.420329, 
    -0.099890, -0.175836, -0.030890, 0.068802, -0.111897, 0.183573, -0.019133, 0.235485, -0.017668, 0.197008, 
    0.009357, -0.237757, 0.179463, 0.453104, 0.063163, -0.446567, 0.633513, -0.115547, 0.160891, -0.174759, 
    -0.011473, 0.106936, -0.005931, 0.184174, -0.130581, 0.331237, -0.132177, 0.207789, 0.178544, 0.296908, 
    -0.372584, 0.259503, -0.084889, 0.093624, 0.156162, 0.154585, -0.157597, -0.231518, 0.036529, -0.133760, 
    -0.150262, 0.248460, 0.154400, 0.197442, 0.324854, -0.000406, -0.272761, -0.530837, -0.059357, 0.093410, 
    0.134141, 0.150002, 0.163480, -0.468589, -0.543412, -1.075257, 0.188712, 0.445885, 0.292664, 0.550036, 
    -0.021307, -0.044959, 0.153150, -0.096304, 0.267918, -0.086344, -0.004573, 0.112426, 0.013885, 0.128777, 
    -0.201536, 0.081651, 0.299607, 0.204342, 0.370278, -0.125107, -0.094196, 0.023494, -0.074835, 0.218292, 
    -0.432858, -0.181804, -0.043263, -0.017573, 0.335582, -0.018382, 0.123969, -0.052352, -0.116973, 0.319848, 
    -0.251930, 0.002655, -0.310448, -0.373396, -0.131343, 0.112506, -0.044264, 0.126898, 0.116350, 0.092065, 
    0.350390, 0.091425, -0.228603, 0.046220, -0.217100, 0.055025, -0.269535, -0.270212, 0.359271, -0.071623, 
    -0.145292, 0.431277, 0.024604, -0.215007, -0.099733, 0.063031, 0.186048, 0.393047, 0.118401, 0.070849, 
    0.051786, 0.031205, 0.463078, 0.105391, -0.004743, -0.374675, 0.351404, -0.002377, 0.078412, -0.217115, 
    0.153829, 0.048785, -0.084191, -0.137996, 0.134892, 0.157493, 0.071752, 0.021150, -0.130575, 0.099414, 
    0.177401, -0.197212, -0.018384, -0.286176, -0.019525, -0.115855, 0.143649, 0.105427, 0.345376, -0.128255, 
    0.108807, 0.020442, -0.036299, 0.211303, -0.049308, -0.130596, -0.521040, 0.008240, -0.212620, 0.149933, 
    0.117109, -0.076554, -0.319848, -0.033228, 0.215529, 0.139884, -0.080658, -0.179465, -0.159216, -0.116359, 
    0.068075, 0.125199, 0.116652, 0.232681, 0.107893, 0.086952, -0.054159, -0.433660, -0.342805, -0.233926, 
    -0.472149, -0.038899, -0.136740, 0.070610, 0.107407, -0.148563, 0.146860, 0.654530, 0.416906, 0.210285, 
    -0.155030, -0.324731, 0.078933, -0.457056, 0.294307, 0.094527, 0.558337, -0.066841, 0.083513, 0.268695, 
    -0.074965, 0.173318, -0.119363, -0.349138, 0.414540, -0.246455, -0.166288, -0.106217, 0.045665, 0.043746, 
    -0.142925, 0.297260, -0.054395, 0.143162, -0.240481, 0.230629, 0.319214, 0.112498, -0.096704, -0.404292, 
    -0.124483, -0.006077, 0.057256, -0.163574, -0.088199, 0.181194, 0.101634, 0.018637, 0.080937, 0.255973, 
    -0.216212, 0.339340, -0.006733, -0.126555, -0.099999, -0.015456, 0.156165, -0.026579, -0.010202, -0.076300, 
    0.054708, -0.265367, 0.064189, 0.079120, 0.248800, 0.136423, 0.176693, 0.167112, -0.316381, 0.104888, 
    0.186163, 0.161475, -0.168050, 0.011312, -0.083420, 0.038340, 0.024423, 0.187579, -0.397320, 0.216304, 
    -0.473631, 0.158094, 0.049782, -0.237831, -0.020124, -0.062739, -0.022371, 0.014412, -0.243742, -0.258388, 
    0.010273, -0.062083, 0.015596, -0.081269, 0.210016, 0.011950, 0.076026, 0.284081, 0.083742, 0.029407, 
    -0.220153, -0.017549, -0.183949, 0.343225, 0.031695, -0.430940, -0.085307, 0.017056, 0.126590, 0.109804, 
    0.131927, 0.057580, 0.044112, -0.182776, -0.437623, -0.528587, -0.183681, -0.248664, -0.151113, -0.360934, 
    -0.404815, 0.043678, -0.516197, -0.223295, 0.050118, -0.416573, -0.325096, 0.320984, 0.104618, 0.220861, 
    0.542691, 0.371647, 0.100870, 0.065314, 0.059156, 0.304334, 0.273192, 0.089317, 0.336494, 0.297006, 
    -0.137047, -0.102557, -0.070120, -0.192186, 0.084155, -0.035695, -0.037904, 0.061338, 0.174597, -0.405864, 
    -0.034741, -0.318377, 0.105985, 0.226725, -0.206438, 0.036777, 0.198988, 0.352265, -0.309802, -0.045256, 
    -0.097242, 0.118291, -0.071251, 0.146046, 0.115537, 0.265175, -0.036924, -0.341669, 0.196585, -0.098503, 
    0.210803, -0.258187, 0.158931, 0.172468, -0.279682, 0.148467, 0.295955, -0.212212, 0.236878, 0.060159, 
    0.063730, 0.054191, 0.097404, -0.015124, -0.261648, 0.006296, -0.036282, -0.032013, -0.280298, 0.082765, 
    -0.021682, -0.177033, 0.406100, 0.059972, 0.204710, -0.078971, -0.303219, -0.074382, 0.311498, 0.116961, 
    0.099238, 0.087426, -0.081259, 0.093430, -0.153694, 0.047139, 0.330241, 0.085755, -0.377242, -0.091740, 
    0.038403, 0.127504, -0.131319, 0.073281, -0.156599, 0.266774, -0.198806, 0.040836, -0.019702, 0.116634, 
    -0.282214, -0.309415, 0.068043, 0.006895, -0.090426, -0.110446, 0.225611, -0.037920, 0.370299, -0.037169
    
};

// PyTorch Layer: conv1.bias (Shape: (16,))
static const data_t conv1_b[16] = {
-0.134451, -0.033052, 0.313382, -0.163248, -0.110824, -0.137239, -0.102343, -0.189428, -0.032800, 0.055129, 
    -0.063381, -0.129871, -0.389163, -0.200402, -0.051958, 0.117701
};

// PyTorch Layer: conv2.weight (Shape: (32, 16, 3))
static const data_t conv2_w[1536] = {
0.111815, -0.109960, -0.054402, -0.274037, -0.141831, -0.286704, -0.130239, 0.027603, 0.251689, 0.233167, 
    -0.216200, -0.338378, 0.314930, -0.058110, -0.172079, 0.032208, -0.078721, -0.060058, -0.219291, -0.098329, 
    -0.304737, 0.125298, 0.154101, -0.002301, 0.171880, 0.024283, -0.121173, 0.092643, 0.037786, -0.165081, 
    -0.101958, 0.158522, 0.209776, 0.546276, 0.409897, 0.056454, 0.045644, -0.282090, -0.399664, -0.024595, 
    -0.466552, -0.294264, -0.217406, -0.135741, -0.050850, 0.098748, 0.155083, 0.005692, 0.434228, 0.325412, 
    0.077857, 0.060050, -0.024644, 0.206352, 0.348080, 0.322344, 0.177903, -0.140128, -0.151677, 0.182806, 
    -0.464670, -0.388148, -0.531685, -0.240584, -0.326611, -0.221195, 0.287858, 0.119050, -0.089305, 0.077566, 
    -0.086739, -0.339982, 0.061204, 0.038536, 0.010635, 0.026392, -0.037078, -0.182949, 0.056705, -0.260796, 
    -0.465258, -0.369045, -0.272899, 0.090593, -0.457553, -0.323069, 0.064671, 0.413622, 0.482051, 0.661854, 
    0.320930, 0.180427, 0.060221, 0.237792, 0.169273, 0.260454, 0.070397, -0.064077, -0.074214, 0.118711, 
    -0.080982, -0.344065, 0.337489, 0.279561, 0.099995, -0.071005, 0.022164, -0.030742, 0.000259, 0.019930, 
    0.110473, 0.146623, 0.119547, 0.174837, 0.227053, 0.241790, 0.224409, -0.148226, -0.080185, 0.097206, 
    -0.004169, 0.027896, -0.059674, -0.155636, 0.017369, 0.056120, 0.226344, 0.129077, 0.350964, -0.401793, 
    -0.236087, -0.239089, 0.109088, 0.288312, 0.319485, -0.339317, -0.474822, -0.412751, 0.231508, 0.156416, 
    0.246368, 0.017020, 0.067247, 0.315907, -0.082158, 0.201935, -0.014459, -0.331807, -0.392038, -0.364842, 
    -0.198042, -0.164226, 0.199180, -0.163639, -0.107333, -0.309943, 0.047504, 0.189292, -0.030990, -0.180376, 
    -0.024289, -0.034738, -0.247885, -0.285441, -0.024555, -0.083599, 0.017723, 0.056717, 0.019971, 0.169321, 
    0.066977, 0.153769, 0.175148, 0.105292, -0.136644, -0.188456, 0.036219, 0.458645, 0.480961, 0.236569, 
    0.031114, -0.129150, -0.363477, 0.169507, -0.242566, -0.214523, -0.048996, -0.119143, -0.327494, 0.069031, 
    0.281462, -0.012186, 0.078522, 0.242655, 0.292302, -0.078451, -0.473867, -0.490503, -0.273958, -0.050329, 
    0.200909, -0.080387, -0.002622, -0.168811, 0.104073, -0.052772, 0.126316, 0.090074, 0.077508, 0.152470, 
    -0.094766, -0.103328, 0.137633, -0.079580, 0.037202, 0.013340, 0.119432, 0.087119, 0.289335, 0.189397, 
    0.279187, 0.245271, -0.336826, -0.232833, -0.036437, 0.490283, 0.451586, 0.144947, 0.095355, -0.260200, 
    -0.620618, 0.371457, 0.018039, -0.076857, -0.257635, -0.259207, -0.187048, 0.145150, 0.226235, 0.032767, 
    0.020586, 0.077958, -0.109737, 0.005106, -0.095832, -0.109664, 0.085768, -0.016095, 0.122785, 0.296728, 
    0.236669, 0.370544, -0.213740, -0.212406, -0.110387, 0.242757, 0.310193, 0.261493, 0.287665, 0.155670, 
    0.195245, -0.152393, -0.190177, 0.004102, -0.059922, -0.247018, -0.253417, -0.182216, -0.248795, -0.174222, 
    0.029907, 0.032192, 0.037171, 0.005912, 0.074378, 0.076855, -0.020745, 0.141189, 0.022243, -0.187246, 
    -0.270929, -0.319212, 0.185735, 0.285997, 0.329726, 0.279734, 0.276899, 0.216240, -0.539062, -0.268741, 
    -0.296124, 0.082177, 0.398423, 0.227602, -0.748424, -0.772361, -0.676707, 0.114684, 0.267214, 0.107460, 
    0.426171, 0.129393, -0.276827, -0.013968, 0.035442, -0.178693, 0.097071, -0.063388, 0.092290, 0.401395, 
    -0.126350, -0.609688, 0.417992, -0.074572, -0.503996, 0.272942, -0.333656, -0.628626, 0.411343, 0.069318, 
    -0.764822, 0.308052, 0.337344, 0.205310, 0.365486, 0.301551, 0.315776, -0.111381, 0.177954, 0.148709, 
    -0.136012, -0.139507, -0.119147, 0.050695, 0.057096, 0.024260, 0.360082, 0.219028, 0.120044, 0.247502, 
    0.171577, 0.269276, 0.238940, 0.164961, 0.041891, -0.089359, 0.021256, 0.255899, -0.177185, -0.175146, 
    -0.042205, -0.069128, -0.075635, 0.001141, 0.130347, -0.123847, -0.270057, 0.093970, 0.185244, -0.058572, 
    0.314704, 0.306607, 0.168946, 0.051586, -0.018891, -0.033023, 0.038748, 0.032553, -0.225283, -0.556390, 
    -0.466717, -0.085843, -0.141396, 0.020285, 0.185585, 0.376524, 0.420730, 0.551833, -0.099581, -0.235398, 
    -0.200361, -0.109456, -0.235184, -0.229271, -0.057512, -0.027061, 0.082135, -0.021849, 0.007758, -0.089023, 
    0.011508, 0.094381, 0.034792, 0.133663, 0.229449, 0.188298, -0.137604, -0.012005, 0.071701, 0.196931, 
    0.352795, 0.267781, 0.216490, 0.271598, 0.302050, -0.111226, -0.319391, -0.263021, -0.036731, -0.174486, 
    -0.250515, -0.151407, -0.257093, -0.319262, 0.037531, 0.002420, 0.036209, 0.045824, -0.002233, 0.018867, 
    0.121594, 0.125119, 0.115380, -0.294157, -0.210256, -0.330484, 0.163044, 0.154708, 0.288721, 0.306819, 
    0.271818, 0.304009, -0.012484, 0.325037, 0.229265, -0.048896, -0.183782, -0.173615, 0.198788, 0.188431, 
    0.023963, 0.153435, 0.074261, 0.062981, -0.304961, -0.404678, -0.443229, 0.376734, 0.403453, 0.376434, 
    0.359137, 0.288779, 0.277962, -0.185808, -0.321214, -0.176199, -0.120808, -0.326534, -0.332739, 0.035744, 
    0.192491, 0.113554, -0.487525, -0.497844, -0.500459, -0.021475, 0.014290, 0.173635, -0.165827, -0.149176, 
    0.067231, -0.039715, -0.110588, 0.025710, 0.103087, 0.298258, 0.368998, 0.170924, 0.268702, 0.320674, 
    -0.136440, 0.119169, -0.078132, -0.152724, -0.373973, -0.316546, 0.106024, 0.151972, 0.249486, 0.348717, 
    0.278604, 0.231725, -0.056536, -0.176628, -0.043028, 0.104978, 0.202639, 0.396507, 0.136349, 0.359724, 
    0.163260, -0.156352, -0.204837, -0.236279, -0.075270, -0.141058, -0.094142, -0.305874, -0.206840, -0.303360, 
    -0.072177, -0.072142, -0.080693, 0.102532, 0.082854, 0.152979, -0.069435, -0.057838, -0.089289, -0.234249, 
    -0.114359, -0.117441, 0.221091, 0.112125, 0.316420, 0.226547, 0.384544, 0.320153, 0.045404, 0.123214, 
    0.319492, -0.271532, -0.024210, -0.325760, -0.356572, -0.337015, -0.071513, -0.020103, -0.186174, -0.293022, 
    0.147354, 0.192736, 0.062169, -0.135400, -0.058588, -0.048415, -0.114239, -0.166875, -0.220951, -0.073766, 
    0.137031, 0.315609, 0.267305, 0.217316, 0.107037, 0.307209, 0.258011, 0.073233, -0.168580, -0.077859, 
    0.179033, 0.468367, 0.443690, 0.226645, 0.112464, -0.252814, -0.473634, -0.095288, -0.394750, -0.232731, 
    -0.204388, -0.105586, -0.266079, -0.011082, 0.008950, 0.157174, 0.117685, 0.145551, 0.103308, 0.189135, 
    0.239868, 0.323317, 0.211102, 0.101903, 0.203659, -0.331969, -0.199880, 0.052685, -0.151520, 0.243600, 
    0.130112, -0.181470, -0.010052, -0.054441, -0.011205, -0.174774, -0.202410, -0.103647, 0.428343, 0.295539, 
    0.203640, 0.373902, 0.325405, 0.028008, 0.269595, 0.257252, -0.054789, 0.233846, 0.129173, -0.433100, 
    -0.348320, -0.222548, -0.281196, 0.026378, 0.062705, -0.012095, 0.194792, 0.094034, -0.269777, -0.314715, 
    -0.224960, -0.391173, -0.265846, -0.300364, -0.195225, -0.134003, -0.042389, 0.005941, 0.031953, 0.139668, 
    0.042188, 0.072679, -0.124669, -0.152676, -0.103417, 0.011208, 0.037859, 0.168727, 0.166696, -0.158661, 
    -0.028631, -0.153305, -0.095267, -0.043133, -0.019807, 0.094266, 0.212505, -0.012973, -0.066887, -0.007661, 
    0.002728, 0.038806, 0.161385, 0.009622, 0.142988, 0.222135, 0.271359, -0.199200, -0.043711, 0.095245, 
    0.326445, 0.350038, 0.394578, -0.305966, -0.227755, -0.184503, -0.012631, 0.031923, -0.100995, -0.064989, 
    -0.019786, 0.164105, 0.216782, 0.202624, 0.287463, 0.150769, 0.272083, 0.133221, -0.155681, 0.088751, 
    0.193311, -0.308508, -0.380896, -0.333771, 0.080844, 0.064467, -0.040120, -0.187472, -0.286141, -0.178145, 
    -0.195736, -0.169287, -0.197586, -0.087211, 0.411915, 0.286849, 0.290523, 0.467269, 0.208503, 0.186879, 
    0.361175, 0.196158, 0.109983, 0.309642, 0.034561, -0.064998, 0.048646, 0.068402, -0.185634, -0.003984, 
    -0.137733, -0.138931, 0.030215, -0.009805, -0.167261, -0.129889, -0.243605, -0.262365, -0.202015, -0.242588, 
    0.189029, 0.104717, 0.107520, -0.371196, -0.615400, -0.630932, -0.285316, -0.167531, -0.018751, -0.050491, 
    -0.116962, -0.098714, 0.076904, 0.055413, 0.079365, 0.073072, -0.087802, -0.027105, -0.159960, -0.093722, 
    -0.207992, -0.111613, 0.219989, 0.044673, 0.312844, 0.101166, 0.136562, 0.149985, 0.127398, 0.243301, 
    -0.238894, -0.096551, -0.042203, 0.521642, 0.549493, 0.324310, 0.045531, -0.245330, -0.324144, -0.071170, 
    -0.153678, -0.436582, -0.103564, -0.332795, -0.214898, 0.160902, 0.123275, 0.000320, -0.125440, 0.049719, 
    -0.001766, -0.260112, -0.163940, -0.285666, 0.123179, 0.042321, 0.196680, 0.354612, 0.395756, 0.326485, 
    -0.029386, -0.001293, -0.055573, 0.278125, 0.306094, 0.395601, 0.354639, 0.260039, 0.231089, -0.193041, 
    -0.195588, -0.248771, -0.098711, -0.257067, -0.170263, -0.195317, -0.340092, -0.248981, 0.002296, -0.161686, 
    0.065811, 0.115687, 0.109211, 0.025104, -0.009078, -0.084190, 0.042849, -0.310328, -0.208861, -0.192371, 
    -0.004309, 0.326505, 0.155462, 0.338686, 0.381422, 0.259819, 0.256977, 0.335006, 0.153389, 0.019294, 
    0.060271, 0.078397, 0.281078, 0.163175, 0.178353, 0.244384, 0.111959, 0.340508, -0.581629, -0.618053, 
    -0.512650, 0.310010, 0.032365, -0.116310, 0.299193, 0.469636, 0.070170, -0.077992, -0.145480, -0.071826, 
    -0.138649, -0.197771, -0.363964, -0.321457, -0.242023, -0.350239, -0.314401, -0.371406, -0.409663, 0.033284, 
    -0.087727, 0.193379, -0.448354, -0.407211, -0.215441, 0.039929, -0.084253, -0.076646, 0.317050, 0.323642, 
    0.478239, 0.402061, 0.422608, 0.368059, 0.118470, 0.306495, 0.276748, -0.182894, -0.173425, -0.147556, 
    0.245135, 0.162983, 0.174349, 0.185180, 0.225377, 0.204424, -0.447835, -0.375710, -0.438214, 0.304360, 
    0.283130, 0.077126, 0.174479, 0.449665, 0.270497, -0.093836, -0.112591, -0.035291, -0.139607, -0.145460, 
    -0.161021, -0.092188, 0.034526, -0.177690, -0.341441, -0.423614, -0.501930, 0.016659, -0.087499, 0.061542, 
    -0.345194, -0.396925, -0.294721, 0.062286, 0.026096, -0.013115, 0.256219, 0.310031, 0.335270, 0.104159, 
    0.411575, 0.322913, 0.179116, 0.169491, 0.002278, 0.402523, 0.272204, 0.338478, 0.240737, 0.222924, 
    0.182952, -0.420807, -0.229937, -0.061294, 0.126141, 0.164434, 0.420148, -0.083788, -0.136785, 0.005235, 
    0.098282, -0.122004, -0.006725, 0.072633, 0.433049, 0.445800, 0.283829, 0.348578, 0.241035, 0.206182, 
    0.343833, 0.314540, 0.279691, 0.388508, 0.312681, -0.701551, -0.518276, -0.289397, -0.142204, 0.241687, 
    0.143746, -0.162113, -0.179139, -0.101258, -0.085284, -0.113571, -0.126432, -0.309921, -0.212171, 0.003797, 
    0.214718, 0.277294, 0.322795, -0.164222, -0.116886, -0.241932, -0.280733, 0.088517, 0.186683, -0.225374, 
    -0.381751, -0.200648, 0.132999, 0.188260, -0.049148, -0.054456, -0.129223, -0.260964, -0.266454, -0.094105, 
    -0.297578, 0.078271, 0.228422, 0.192188, 0.258316, 0.307898, 0.183501, 0.261474, 0.146221, -0.005779, 
    0.021380, 0.177511, 0.174733, 0.309648, 0.158844, 0.162870, -0.113174, -0.140584, -0.314236, -0.167714, 
    -0.121227, -0.054925, -0.085517, -0.210490, -0.387142, -0.030584, -0.113877, 0.071523, 0.302821, 0.004766, 
    -0.068785, 0.354850, 0.319198, 0.416912, 0.189575, -0.051191, -0.050867, 0.050350, -0.098148, 0.004015, 
    -0.019213, -0.213706, -0.124094, -0.151511, -0.235083, -0.395794, 0.094127, -0.080468, -0.342151, 0.348957, 
    0.101374, -0.426599, 0.336123, 0.224560, 0.229418, 0.152269, 0.022289, -0.172216, -0.075404, -0.105138, 
    0.052152, -0.023078, 0.004715, 0.119497, 0.269166, 0.191337, 0.216281, 0.295501, 0.151763, 0.402334, 
    -0.031409, -0.134401, -0.008386, -0.389047, -0.406738, -0.256981, -0.003874, 0.126003, 0.224770, -0.292244, 
    -0.377770, -0.311366, -0.088313, 0.161272, 0.242804, 0.448036, 0.386898, 0.073931, -0.111994, -0.221166, 
    -0.167020, 0.324682, 0.147462, 0.021028, 0.096007, 0.346969, 0.300279, 0.142051, 0.005805, -0.109738, 
    0.091499, 0.074887, 0.076576, -0.036246, -0.189099, -0.144820, -0.241709, -0.310405, -0.161302, 0.280353, 
    0.077625, -0.144187, -0.209951, -0.350434, -0.231336, 0.057494, -0.137530, -0.268530, 0.158405, 0.121779, 
    0.236871, 0.314225, 0.100615, 0.085743, -0.441438, -0.131622, -0.116486, -0.146769, -0.245599, -0.035821, 
    0.203326, 0.164145, 0.160309, 0.159322, 0.350683, 0.412051, 0.098804, -0.004838, 0.049882, 0.433556, 
    0.354162, 0.344927, -0.206351, 0.213541, 0.261516, 0.054789, -0.200190, -0.008240, -0.108993, -0.119190, 
    0.067191, -0.240913, -0.101083, -0.122251, 0.002858, 0.047693, -0.064415, 0.080832, 0.035029, -0.100924, 
    0.050141, 0.132536, 0.030301, -0.165313, -0.065167, -0.104551, 0.009041, -0.124356, -0.229458, 0.244600, 
    0.280266, 0.251238, -0.401704, -0.244119, -0.169799, -0.190338, 0.291930, 0.346960, -0.545187, -0.663815, 
    -0.736284, 0.172140, 0.106078, 0.172549, 0.286200, 0.115786, -0.125479, -0.017909, 0.063954, -0.117184, 
    0.046302, 0.151188, 0.024767, 0.242372, -0.289426, -0.439262, 0.138265, -0.056551, -0.414746, 0.241111, 
    -0.344958, -0.264595, 0.451324, 0.023830, -0.632551, 0.226493, 0.241029, 0.213831, 0.508814, 0.163598, 
    0.028494, -0.220690, -0.030811, 0.199102, -0.000741, 0.172332, -0.060777, 0.018135, 0.134445, 0.040541, 
    0.260439, 0.140677, 0.210440, 0.200092, 0.071567, 0.240274, -0.155600, 0.023818, 0.142375, -0.400084, 
    -0.326925, -0.375791, 0.137413, 0.158654, 0.181222, -0.203351, -0.321334, -0.219369, -0.057659, -0.018553, 
    -0.213587, 0.211674, 0.483242, 0.252719, 0.267914, 0.473575, 0.177640, 0.362134, 0.243928, 0.297646, 
    0.073140, 0.239847, 0.257608, -0.174523, 0.044080, 0.113529, -0.045517, -0.239830, -0.063353, -0.170932, 
    -0.093591, -0.115246, -0.038031, -0.180069, -0.320782, -0.286033, -0.081382, -0.050388, 0.221194, 0.030972, 
    0.104426, 0.286556, 0.253060, 0.310851, 0.080555, 0.217861, 0.014950, -0.259863, -0.214332, 0.034537, 
    0.192305, 0.108427, 0.329899, -0.075776, -0.134091, 0.026394, 0.076372, 0.002912, -0.198793, 0.216127, 
    0.403007, 0.355115, 0.206824, 0.162666, 0.302116, 0.263100, 0.213275, 0.235464, 0.363220, 0.400659, 
    0.354095, -0.537785, -0.426334, -0.155459, -0.165855, 0.173438, 0.195209, -0.207789, -0.182020, -0.218209, 
    -0.221990, -0.030182, -0.224198, -0.266173, -0.258407, -0.003354, -0.492624, -0.195445, -0.297110, 0.044694, 
    0.428273, 0.462313, -0.760429, -0.701578, -0.741817, 0.168146, 0.167878, 0.156450, 0.374786, 0.129762, 
    -0.240635, 0.033005, 0.159755, -0.011009, 0.032089, -0.045505, 0.040692, 0.482869, -0.201331, -0.559553, 
    0.359452, -0.166879, -0.471813, 0.234674, -0.233125, -0.465518, 0.503413, 0.001202, -0.843716, 0.240936, 
    0.316225, 0.289513, 0.422321, 0.428407, 0.003782, -0.100079, -0.056846, 0.097832, -0.234233, -0.052015, 
    -0.249080, 0.007319, -0.014044, 0.062365, -0.523847, -0.418105, -0.129656, -0.154652, -0.485095, -0.397164, 
    0.123447, 0.239784, 0.408269, 0.278434, 0.231678, 0.250218, 0.070108, 0.113151, 0.181471, 0.396795, 
    0.333391, 0.448353, -0.349021, -0.205460, -0.041102, -0.135321, -0.083216, -0.004981, -0.064483, -0.025842, 
    0.051290, -0.095144, -0.129457, -0.006376, 0.133761, -0.062947, 0.077199, 0.161069, -0.046907, -0.038708, 
    0.110734, 0.069461, 0.106625, -0.140167, 0.022704, -0.048669, 0.156412, 0.056942, -0.131911, 0.324117, 
    0.175678, 0.090021, 0.389290, 0.061573, 0.017917, 0.161987, -0.002322, 0.224633, 0.456917, 0.275272, 
    -0.056973, -0.161835, -0.035383, 0.362694, -0.778299, -0.315987, -0.224270, -0.287481, -0.392629, -0.092466, 
    0.098809, 0.029836, -0.344625, -0.049777, -0.324337, -0.519599, -0.353933, 0.046459, -0.281502, -0.174469, 
    -0.335896, -0.130114, 0.411458, -0.092589, -0.681534, -0.685632, 0.000116, 0.247086, -0.722575, -0.202995, 
    0.202616, 0.340568, 0.496697, 0.661086, 0.678203, 0.481351, 0.187276, -0.103057, 0.040025, 0.245997, 
    -0.094923, 0.254018, 0.087791, -0.096441, -0.061151, -0.186085, 0.161501, 0.241192, -0.034229, 0.271299, 
    0.309060, 0.258135, -0.264318, -0.366719, -0.163488, 0.329630, 0.317867, 0.180620, 0.229040, 0.337722, 
    0.178954, -0.107683, -0.070984, -0.033891, -0.163729, -0.294432, -0.177556, -0.095076, 0.007565, -0.093302, 
    -0.349651, -0.363362, -0.269803, 0.037348, -0.007688, 0.246597, -0.259011, -0.212921, -0.078405, -0.034133, 
    -0.148006, -0.254288, 0.022862, 0.144281, 0.322250, 0.381491, 0.351810, 0.261754, -0.505410, -0.489800, 
    -0.350877, -0.162496, 0.321124, 0.108109, -0.229810, -0.053682, 0.092425, 0.129902, 0.350364, 0.209100, 
    0.089100, -0.042770, -0.096369, 0.599685, 0.409924, 0.216608, -0.200062, -0.069004, -0.019144, 0.145403, 
    -0.021849, -0.019121, 0.015753, -0.214560, -0.103787, -0.013860, -0.392271, -0.554459, -0.078064, -0.155644, 
    -0.302611, 0.132702, 0.205801, 0.139289, 0.178459, 0.158911, 0.293190, -0.155893, 0.118415, -0.118619, 
    -0.280930, 0.069571, -0.158650, 0.092385, 0.347718, -0.014390
};

// PyTorch Layer: conv2.bias (Shape: (32,))
static const data_t conv2_b[32] = {
-0.078976, -0.057556, 0.195480, 0.190809, 0.053979, 0.073713, -0.309776, 0.198274, 0.131231, 0.030804, 
    0.112134, -0.039274, 0.340043, 0.006798, 0.196491, 0.195371, 0.030966, -0.101483, -0.098457, 0.157909, 
    0.202695, 0.104663, -0.025363, -0.090964, -0.196668, 0.018843, 0.112890, -0.176040, -0.044092, -0.100466, 
    -0.066675, 0.058715
};

// PyTorch Layer: fc.weight (Shape: (3, 32))
static const data_t fc_w[96] = {
-0.440670, 0.094971, 0.195558, -0.401442, 0.096603, 0.482198, -0.574262, -0.651095, 0.273711, 0.774344, 
    0.562278, -0.615326, -0.712505, -0.234302, -0.642886, -0.271391, 0.335871, 0.790650, 0.429825, -0.732524, 
    -0.578214, -0.599694, 0.647160, 0.364511, -0.319726, -0.578620, -0.570085, -0.437184, 0.589399, 0.294868, 
    0.633482, 0.314713, -0.453568, -0.846038, 0.325620, -0.425698, -0.378740, -0.104408, 0.959327, 0.116978, 
    -0.018056, -0.739108, -0.105262, -0.230805, 0.162102, 0.140851, 0.184749, -0.445385, -0.197477, -0.988803, 
    -0.791298, 0.367490, -0.110675, 0.192473, -0.503235, -0.190339, 0.829149, 0.204599, 0.386134, 0.992767, 
    -0.219558, -1.372133, -0.546703, 0.354600, 0.635706, 0.612732, -0.386291, 0.341442, 0.551044, -0.422230, 
    -0.561326, 0.584006, -0.405093, -0.271311, -0.252489, 0.510861, 0.059468, -0.196842, 0.264663, 0.630706, 
    -0.466151, -0.140826, -0.210082, -0.127817, 0.290272, 0.340384, -0.013539, -0.358378, -0.500772, 0.226243, 
    -0.077966, -0.623608, -0.304035, 0.761078, -0.313904, -0.697301
};

// PyTorch Layer: fc.bias (Shape: (3,))
static const data_t fc_b[3] = {
0.111392, -0.076117, 0.088497
};

#endif // VOICE_CNN_WEIGHTS_H
