#ifndef VOICE_CNN_WEIGHTS_H
#define VOICE_CNN_WEIGHTS_H

#include "voice_typedefs.h"

// PyTorch Layer: conv1.weight (Shape: (16, 40, 3))
static const data_t conv1_w[1920] = {
0.208712, 0.158569, -0.024660, -0.139170, -0.196938, -0.026576, 0.088603, 0.117224, 0.117253, 0.309689, 
    0.180710, 0.240699, -0.033071, -0.071091, -0.002443, -0.229999, -0.131714, -0.123129, -0.149161, -0.064102, 
    -0.077073, 0.002120, -0.036710, 0.020316, -0.219027, -0.173124, -0.232712, -0.016247, -0.122238, -0.082868, 
    0.071589, 0.038187, 0.014176, 0.007369, 0.009046, -0.122789, 0.067503, 0.122455, 0.102252, -0.001246, 
    -0.043838, 0.060922, 0.035316, -0.047117, -0.046650, 0.014314, 0.106127, -0.048651, -0.051226, -0.032294, 
    -0.068383, -0.008715, 0.080340, 0.055289, 0.023793, 0.062325, -0.013906, 0.033876, -0.034738, -0.004663, 
    -0.017289, 0.012713, 0.070948, -0.057031, 0.004297, 0.068415, -0.004389, 0.030180, 0.029270, -0.037765, 
    -0.032885, -0.018001, -0.096996, 0.032981, -0.038395, -0.012553, 0.039171, 0.013025, 0.061147, -0.075153, 
    0.018862, 0.036886, -0.032141, -0.046838, -0.069155, -0.037293, -0.049238, 0.074078, -0.034001, 0.052769, 
    -0.038115, -0.048616, -0.054693, 0.035043, -0.072065, 0.003825, -0.050247, -0.058114, 0.017577, 0.046493, 
    0.057520, -0.026414, -0.003794, -0.045277, 0.018162, -0.040449, -0.019134, -0.105485, -0.043581, 0.021331, 
    0.050858, 0.042461, -0.066732, 0.010617, 0.001657, 0.063754, 0.003634, 0.043044, -0.044122, 0.072011, 
    0.068165, 0.136635, 0.269910, -0.163584, -0.029774, -0.115237, -0.002425, -0.015829, -0.052349, 0.109613, 
    -0.024138, 0.045062, 0.098868, 0.083483, -0.007544, -0.005391, -0.149226, -0.214716, -0.052830, -0.150932, 
    -0.173827, 0.058084, 0.016036, 0.017319, 0.163284, 0.078979, 0.018181, 0.075274, -0.113430, -0.026995, 
    -0.011257, -0.032238, -0.113177, 0.121786, 0.105579, 0.152549, -0.253186, -0.264556, -0.238118, 0.061652, 
    0.026784, 0.028281, 0.142652, -0.014781, -0.002584, -0.191836, -0.065192, -0.051998, -0.011406, -0.097843, 
    -0.020667, 0.009799, 0.007761, -0.007343, 0.050922, -0.026249, 0.115205, -0.068145, -0.012758, -0.003091, 
    -0.095844, -0.030283, -0.051832, -0.013425, -0.002939, 0.035317, -0.001479, -0.010669, 0.121343, -0.030016, 
    -0.043192, -0.069800, -0.100276, 0.026768, -0.014279, 0.067176, 0.053462, -0.097214, -0.076353, -0.080035, 
    -0.100052, 0.024952, 0.077613, 0.026480, 0.063246, -0.007773, 0.083807, 0.037638, -0.026508, 0.001830, 
    0.067807, 0.009343, 0.049492, 0.035580, 0.071133, 0.044690, 0.035282, 0.030872, 0.028694, 0.024044, 
    0.081694, 0.046430, -0.009265, -0.080479, -0.005595, 0.012141, 0.066673, 0.053826, 0.030441, 0.001233, 
    -0.051312, 0.044746, -0.050133, 0.099984, 0.090349, 0.026678, -0.056389, -0.030489, 0.043304, 0.041289, 
    -0.252321, -0.202161, -0.228809, 0.145575, 0.155766, 0.226089, 0.158620, 0.061682, 0.063986, -0.008862, 
    0.030262, 0.043977, -0.247989, -0.215929, -0.326538, -0.078421, -0.075902, -0.065097, 0.032340, 0.115876, 
    0.102823, -0.017292, -0.060197, -0.131916, -0.067741, -0.071936, -0.182813, 0.087099, -0.043530, -0.031346, 
    0.063808, 0.023991, 0.081725, 0.066378, 0.017612, 0.001487, -0.004937, -0.026042, -0.013875, -0.031665, 
    -0.049592, -0.001067, 0.005762, -0.104309, 0.028295, 0.005987, 0.016958, 0.006863, -0.047234, 0.021908, 
    -0.070839, -0.041346, 0.089408, 0.090361, -0.103608, 0.056793, 0.021306, 0.033236, 0.068372, -0.053941, 
    -0.019891, -0.004834, -0.074811, -0.068701, -0.061462, 0.076859, 0.055077, -0.047478, -0.014305, -0.004720, 
    -0.025725, 0.035960, -0.095466, 0.005911, -0.026603, -0.007072, 0.073219, 0.027888, -0.069979, -0.167160, 
    -0.093629, 0.029045, -0.008065, 0.030063, -0.041135, -0.119750, 0.053466, -0.029241, -0.045173, -0.039898, 
    0.040130, 0.051083, -0.045807, 0.006857, 0.027162, -0.115008, -0.014970, 0.089233, -0.098261, 0.012727, 
    0.003297, -0.012559, -0.032708, 0.037680, -0.046377, -0.046063, -0.069028, 0.055070, 0.066689, -0.093821, 
    0.021658, 0.126783, -0.044401, -0.065349, 0.126006, -0.063540, 0.041215, 0.106515, -0.020892, 0.034008, 
    -0.189936, -0.016482, 0.135298, 0.088220, 0.117865, 0.219702, 0.151914, 0.135520, -0.020019, -0.061803, 
    -0.129486, -0.076730, 0.005224, -0.195694, -0.131683, -0.088466, 0.032704, -0.013936, 0.068731, 0.066935, 
    0.146416, -0.032017, -0.008495, -0.013251, -0.128735, -0.134875, -0.097936, -0.047246, -0.055113, 0.006057, 
    -0.055240, 0.043822, 0.060809, -0.059180, 0.045014, 0.042352, -0.056291, -0.139835, -0.047439, -0.194590, 
    -0.144999, -0.163141, -0.067997, -0.176571, -0.089807, -0.119176, -0.018755, -0.001101, 0.030293, 0.074998, 
    0.110550, 0.041295, 0.060723, 0.036118, 0.027999, 0.032084, -0.096148, 0.050787, -0.052120, -0.013321, 
    -0.065953, -0.100335, -0.055980, -0.126970, -0.067368, -0.026022, -0.044411, 0.001917, -0.100861, -0.040254, 
    0.060141, 0.062361, -0.065403, 0.056154, 0.020791, 0.113325, -0.083432, -0.062042, -0.048489, -0.058686, 
    -0.039406, -0.031857, 0.073741, 0.016112, 0.027143, -0.042680, 0.049072, -0.058222, 0.034355, 0.056196, 
    0.091523, -0.023232, 0.019368, -0.025876, 0.052686, -0.038248, 0.006331, 0.010876, 0.003505, -0.045530, 
    -0.089884, -0.063006, 0.013619, -0.076362, -0.045603, -0.041010, 0.036616, 0.020380, 0.082245, 0.073330, 
    0.054625, 0.074947, 0.085074, 0.021731, 0.063037, 0.024950, -0.036339, -0.037018, -0.061470, -0.075082, 
    0.065902, 0.064045, 0.051941, -0.121032, 0.006329, -0.105740, -0.060863, -0.087736, 0.039968, 0.136928, 
    0.061745, 0.159211, -0.150883, 0.000596, -0.070419, -0.129780, -0.150294, -0.099412, 0.008709, -0.115395, 
    -0.080852, 0.137933, 0.014405, -0.057029, -0.156424, -0.143552, -0.192050, -0.071460, -0.083485, -0.014664, 
    0.170919, 0.156514, 0.060111, 0.012351, -0.092818, 0.046160, 0.151172, 0.108915, 0.039319, 0.119982, 
    -0.028420, 0.057947, 0.060011, -0.005713, 0.008319, -0.066803, 0.026922, -0.028568, 0.022794, -0.024319, 
    0.057272, 0.037415, 0.059260, 0.062775, 0.073274, 0.052263, 0.169470, 0.014864, -0.157359, -0.060029, 
    -0.066803, 0.062208, 0.054962, 0.021637, 0.018791, -0.026022, 0.066294, -0.050628, 0.028032, 0.027008, 
    -0.068700, -0.003315, -0.004815, -0.015668, -0.059964, -0.030307, 0.051761, -0.035407, 0.141558, 0.031523, 
    0.059653, -0.069293, -0.054743, -0.020586, 0.035781, 0.039498, -0.029517, 0.047705, -0.111012, 0.021244, 
    0.027757, -0.089286, -0.058079, -0.009015, 0.016046, 0.000024, -0.068541, 0.044221, -0.007611, 0.122616, 
    -0.054151, 0.076386, 0.015340, 0.093806, 0.038038, -0.058277, 0.032924, -0.042269, 0.020271, 0.090885, 
    0.057088, 0.076861, -0.035961, -0.000042, 0.049948, 0.025977, -0.074676, 0.066736, -0.062203, 0.127737, 
    -0.157942, -0.090812, -0.188345, -0.012575, 0.041098, 0.031437, 0.156351, 0.231552, 0.169754, 0.214334, 
    0.275903, 0.205276, -0.217527, -0.193183, -0.068523, -0.154302, -0.079995, -0.202627, -0.007784, -0.086403, 
    -0.015204, -0.008618, -0.074400, -0.137009, -0.190095, -0.177770, -0.176053, 0.085153, -0.084578, 0.021308, 
    0.109569, 0.066944, -0.063906, 0.002718, 0.002394, 0.051452, -0.027536, -0.048464, -0.025068, -0.029778, 
    0.041531, -0.046988, 0.028933, 0.020387, -0.008269, -0.050256, -0.103152, -0.038477, 0.050219, -0.061825, 
    -0.010785, -0.006004, -0.057960, -0.039338, 0.037365, -0.014344, 0.143987, 0.037222, -0.064989, -0.045840, 
    -0.118257, -0.070417, -0.067294, -0.051331, 0.076210, -0.040148, -0.023278, -0.070927, 0.041428, 0.013180, 
    -0.046959, 0.073548, -0.038069, 0.059379, 0.046303, -0.093569, 0.082840, -0.088353, -0.030874, -0.035720, 
    -0.003272, 0.152738, -0.013007, 0.084522, -0.018632, -0.151256, -0.153526, -0.005615, 0.006256, -0.011817, 
    0.027486, -0.056872, 0.073073, 0.022884, -0.075761, 0.102437, 0.008078, -0.161320, 0.103290, -0.024934, 
    0.077019, -0.035154, 0.021459, 0.088445, 0.034763, -0.005487, -0.041483, 0.004405, 0.057711, 0.072381, 
    0.026070, -0.000114, -0.067214, -0.068042, 0.044652, 0.055785, -0.067682, 0.012374, -0.023971, -0.110451, 
    -0.051774, -0.020053, 0.060766, -0.102259, 0.020905, -0.033514, 0.058282, 0.065691, -0.050511, -0.283783, 
    -0.298161, -0.180553, -0.074206, -0.199289, -0.121404, 0.073603, -0.068313, 0.010712, -0.076147, -0.039425, 
    -0.009505, 0.002265, -0.051945, 0.027613, -0.022039, -0.014780, -0.019600, 0.042408, 0.061516, -0.076739, 
    -0.033987, -0.137569, -0.098955, -0.002200, 0.040879, -0.042414, 0.053908, 0.107298, 0.115049, 0.030459, 
    0.128401, -0.050915, -0.021864, 0.015002, -0.013183, 0.100241, -0.024793, 0.098043, -0.106805, -0.094808, 
    -0.044359, -0.081596, -0.077759, -0.058421, 0.053315, 0.003002, -0.071791, -0.036719, -0.089278, -0.122367, 
    -0.018849, -0.016163, 0.139313, -0.033817, -0.024278, -0.048422, 0.000771, 0.018137, -0.010929, 0.028377, 
    0.103900, -0.045783, -0.005039, 0.001812, -0.015313, 0.137457, 0.064657, 0.105912, -0.029017, -0.117633, 
    -0.119668, -0.130174, -0.069226, -0.167882, -0.037758, -0.024391, -0.027381, -0.101052, 0.034641, 0.043591, 
    0.049705, -0.081557, -0.057276, -0.005341, 0.005466, -0.073023, 0.025291, -0.013214, 0.062169, 0.128049, 
    0.082891, 0.142166, -0.082256, -0.061815, -0.156716, -0.102800, -0.079674, -0.038940, -0.020314, 0.052686, 
    0.064604, -0.052933, -0.050599, 0.022059, 0.087894, 0.001117, 0.070378, 0.035023, -0.086766, -0.103187, 
    0.143423, 0.076128, 0.113077, 0.164208, 0.216114, 0.261143, -0.128271, -0.157979, -0.241456, -0.070429, 
    -0.001709, -0.141759, 0.071184, 0.149103, 0.087478, -0.100067, -0.058762, -0.066527, -0.085654, -0.177212, 
    -0.074896, -0.020712, 0.020308, 0.002184, 0.063521, -0.032330, -0.090010, -0.029578, 0.006402, 0.012969, 
    0.011521, -0.114737, -0.094450, -0.147165, -0.143086, -0.103527, -0.119135, -0.040750, -0.010078, 0.048817, 
    0.072455, 0.054147, 0.097956, 0.017733, 0.094028, 0.052381, 0.046855, 0.043444, 0.023843, 0.014829, 
    0.105870, 0.024186, 0.055216, -0.034988, -0.141883, -0.044725, -0.057906, 0.116848, -0.019130, -0.000923, 
    -0.078304, -0.003724, -0.113216, -0.038704, 0.028439, 0.004828, 0.097467, 0.045743, -0.015366, -0.069220, 
    -0.081433, -0.111737, 0.033150, 0.076354, 0.041781, 0.079932, -0.000243, 0.027741, -0.079605, 0.007561, 
    -0.109600, 0.201599, 0.040271, 0.125797, -0.096762, -0.023113, -0.112859, -0.021376, -0.068861, -0.078376, 
    0.030212, 0.028950, 0.033527, -0.041886, -0.105155, -0.011658, -0.026637, -0.017099, 0.033322, -0.027952, 
    -0.024575, 0.001858, 0.020116, -0.092695, -0.105895, -0.044273, -0.017983, 0.090389, 0.008835, -0.010503, 
    -0.039561, -0.068553, -0.101571, -0.097385, 0.101002, -0.008648, 0.075014, -0.112867, -0.040783, -0.020305, 
    0.050707, 0.137040, 0.010614, -0.058797, 0.134944, 0.168076, -0.152350, -0.240233, -0.248878, -0.011880, 
    -0.052519, 0.057424, 0.018656, 0.123549, 0.120389, -0.071544, -0.002658, -0.085152, -0.058750, -0.131578, 
    -0.123611, 0.068968, 0.110937, -0.006714, 0.074856, 0.030106, 0.189632, 0.042208, -0.003093, -0.091283, 
    0.017250, -0.136771, -0.014734, 0.031869, -0.086910, 0.007320, -0.057493, -0.133810, -0.011487, 0.037607, 
    0.007779, -0.055437, 0.012087, -0.010570, 0.061224, -0.091705, -0.014602, -0.024465, 0.002261, -0.070695, 
    0.034263, 0.077007, -0.048027, -0.096117, 0.000851, 0.075209, 0.038361, 0.097150, 0.095908, 0.002916, 
    -0.118648, -0.082144, 0.040051, 0.016253, -0.022022, -0.033377, 0.022608, 0.103722, 0.016327, -0.020415, 
    -0.022607, -0.094686, -0.003758, -0.067746, -0.054479, 0.036737, 0.009302, 0.116004, -0.010755, -0.121438, 
    -0.068239, -0.023924, 0.013377, 0.076454, -0.058262, -0.043158, -0.086041, 0.155661, 0.015004, 0.077567, 
    0.010925, 0.070044, 0.001000, 0.011528, -0.023662, 0.081068, -0.005987, 0.012465, 0.031789, -0.049849, 
    -0.080581, -0.006500, 0.106411, -0.001639, 0.065245, -0.071377, -0.060247, -0.007133, 0.074899, 0.015547, 
    0.127432, 0.090389, 0.046707, -0.078464, 0.010896, 0.024115, 0.015682, -0.021126, -0.012705, 0.010668, 
    -0.052831, -0.067628, 0.113523, -0.192014, -0.116151, -0.270317, -0.012878, 0.092129, 0.015044, 0.224386, 
    0.127848, 0.272441, -0.082978, -0.068630, -0.103336, -0.110330, -0.123541, -0.133680, 0.016117, 0.019622, 
    0.089682, 0.090433, 0.153240, 0.042609, -0.111201, -0.049538, -0.244247, 0.063198, 0.167306, 0.043462, 
    0.084653, 0.120824, 0.050963, -0.004545, -0.044230, 0.017947, 0.049994, 0.031210, 0.040565, 0.094050, 
    0.142744, 0.014357, 0.020246, -0.005823, 0.100106, 0.062668, -0.090040, -0.000710, -0.014014, -0.072961, 
    -0.037928, 0.150349, 0.161091, 0.105564, -0.012153, -0.032689, -0.001276, -0.039612, -0.084768, 0.008709, 
    -0.083909, -0.005064, -0.028128, -0.002929, 0.080067, -0.048354, 0.021917, 0.016803, 0.018604, -0.028639, 
    0.043858, 0.016252, -0.015873, -0.039733, 0.010720, 0.008842, 0.007585, -0.030675, 0.136584, 0.042349, 
    0.105694, -0.084333, 0.020726, -0.091374, 0.021600, 0.025939, 0.005093, 0.098334, 0.078034, 0.023728, 
    -0.030801, -0.096487, -0.026669, 0.006427, -0.000874, -0.055330, 0.111331, -0.013050, -0.031432, 0.084230, 
    0.047322, 0.123507, 0.047079, 0.000960, -0.012024, -0.007703, -0.004198, 0.052185, 0.009903, -0.041694, 
    -0.049661, 0.071692, -0.007691, 0.102272, -0.025681, 0.051562, 0.079335, -0.062094, 0.007805, -0.043977, 
    -0.306170, -0.277862, -0.140156, 0.087857, 0.115460, 0.093657, 0.179160, -0.003892, -0.068453, 0.289267, 
    0.276379, 0.183288, 0.200812, 0.222115, 0.210577, 0.007995, -0.044433, 0.014868, -0.158927, -0.225378, 
    -0.071204, 0.005096, 0.045585, -0.044241, -0.124701, -0.159017, -0.182123, 0.038111, 0.108016, 0.021827, 
    0.084809, 0.201073, 0.093639, 0.098235, -0.021404, -0.052062, -0.075019, -0.069121, -0.001287, 0.017585, 
    -0.047310, 0.011453, 0.134728, 0.060204, 0.036657, 0.045915, -0.023338, 0.063898, 0.051290, 0.013656, 
    0.015307, -0.087581, -0.061120, -0.013049, 0.089791, 0.094049, 0.049595, 0.115389, -0.051347, -0.035456, 
    -0.047843, 0.031690, 0.093938, -0.015658, 0.005200, 0.017682, 0.003567, -0.011581, -0.037394, 0.097940, 
    -0.038734, -0.005841, -0.011590, 0.009295, 0.124228, 0.003675, -0.065907, -0.019346, 0.084294, 0.022491, 
    -0.077649, 0.146334, -0.055404, -0.003344, 0.101135, -0.051835, -0.133885, 0.000536, 0.135736, -0.122892, 
    -0.101457, -0.026556, -0.032710, -0.075906, -0.007519, -0.033138, -0.161854, 0.071783, -0.005491, -0.033341, 
    -0.069580, 0.056497, 0.061007, -0.093219, 0.109985, 0.004741, -0.053301, 0.101191, 0.074238, -0.014960, 
    0.025098, -0.118293, -0.012645, -0.119896, 0.080644, 0.108965, -0.086646, -0.032533, 0.156419, -0.024301, 
    0.089816, 0.063887, 0.233905, 0.031510, -0.099853, -0.099288, 0.154309, 0.108087, 0.009647, 0.004127, 
    0.157910, 0.017709, 0.063865, -0.080470, -0.080667, -0.020692, 0.150567, 0.158352, 0.022102, 0.150743, 
    0.003269, -0.113978, 0.025705, 0.070125, 0.173150, 0.100719, 0.172722, -0.054742, 0.090064, 0.015281, 
    -0.033174, 0.037669, -0.078898, -0.008819, -0.030466, 0.072667, -0.055099, 0.013357, 0.007414, 0.042163, 
    0.010233, 0.147336, -0.040496, -0.028666, 0.016000, -0.044007, 0.001014, -0.065176, -0.081432, -0.025960, 
    -0.002001, 0.031552, -0.022209, -0.129240, -0.027867, 0.050832, 0.107746, 0.047272, 0.104908, 0.075689, 
    -0.088303, -0.094600, 0.099962, 0.027788, -0.019651, -0.061217, -0.025581, -0.156719, -0.028398, -0.107860, 
    -0.087165, -0.150778, 0.150846, -0.030421, 0.051902, 0.127098, 0.162900, 0.070514, 0.029402, 0.038824, 
    -0.019139, -0.072127, 0.032545, 0.127508, -0.076474, -0.102358, -0.104538, 0.004582, 0.082400, -0.052503, 
    0.020489, -0.128069, -0.034712, -0.206776, -0.011650, -0.071132, 0.029912, 0.059289, 0.030837, 0.123311, 
    0.039643, 0.060546, -0.127566, 0.072750, 0.028397, 0.079301, 0.100206, 0.175301, 0.141851, 0.091149, 
    -0.075824, 0.166432, 0.065511, -0.000279, 0.089195, 0.131538, 0.006269, -0.089157, 0.012795, 0.093288, 
    -0.144820, 0.019923, -0.056460, -0.002853, -0.041972, -0.079816, 0.169638, 0.013166, -0.034051, 0.190790, 
    0.113314, 0.083095, -0.009304, -0.017478, 0.050735, -0.064286, -0.082465, -0.097641, -0.095570, -0.156998, 
    -0.173645, 0.055736, 0.086609, 0.065063, -0.116229, 0.010478, 0.007725, -0.027634, 0.055331, -0.068132, 
    0.023014, 0.019687, -0.027542, 0.075625, 0.150751, 0.260164, -0.044513, -0.002989, 0.001308, -0.131030, 
    -0.019384, -0.068187, -0.047365, 0.022242, -0.068646, 0.059863, -0.019790, -0.026227, 0.131155, 0.073888, 
    0.102423, 0.028815, -0.079468, 0.102673, 0.101876, -0.010789, 0.023286, 0.092250, -0.049809, -0.024846, 
    -0.089215, -0.070206, -0.239642, -0.059338, -0.036427, -0.099623, 0.201353, 0.077424, 0.074311, -0.039804, 
    -0.131171, -0.130312, -0.072231, -0.025687, -0.095659, 0.082335, 0.144403, -0.084161, -0.081031, 0.063687, 
    -0.093529, 0.004296, 0.096008, -0.022922, -0.112053, 0.004636, -0.010072, 0.042525, -0.033182, 0.097728, 
    -0.026524, -0.043028, 0.061089, 0.025939, -0.096697, -0.027910, -0.043896, -0.050695, 0.071338, -0.003943, 
    0.033379, 0.064689, 0.028777, 0.036416, 0.088479, -0.118444, -0.089439, 0.006542, 0.067993, -0.062917, 
    0.080260, -0.083280, 0.058330, 0.067457, 0.036644, 0.063716, 0.004074, 0.017558, 0.048982, -0.012160, 
    -0.193113, 0.018771, 0.005485, 0.110861, -0.023166, 0.074549, 0.164404, 0.110375, -0.001736, -0.256723, 
    -0.221335, -0.129552, -0.112467, -0.055850, -0.242456, 0.038640, 0.107509, 0.055951, -0.068811, 0.031623, 
    -0.075020, -0.118308, -0.073284, -0.156059, 0.007352, -0.032221, 0.002496, 0.021448, 0.039156, -0.053319, 
    -0.079336, 0.034598, -0.119567, -0.044695, -0.032848, -0.093973, -0.078235, 0.060730, 0.019554, 0.006890, 
    0.062820, 0.069935, 0.067458, 0.041401, 0.007689, 0.149430, 0.140851, 0.055040, 0.002170, -0.068406, 
    -0.092572, 0.096237, -0.066515, -0.022388, -0.053769, -0.038577, 0.039432, 0.028483, -0.069641, -0.002930, 
    -0.026028, 0.074165, 0.118564, -0.024768, -0.053037, 0.095109, -0.043901, -0.021577, -0.082640, 0.045645, 
    -0.009942, -0.084800, -0.045691, -0.036018, -0.095242, -0.115662, -0.064006, 0.007692, 0.035384, -0.032308, 
    0.113563, -0.144177, -0.080170, 0.003672, 0.096817, -0.025797, 0.111756, 0.048455, 0.058786, -0.091301, 
    -0.013076, -0.022625, -0.038731, -0.027829, -0.022905, 0.058783, 0.120421, -0.000451, 0.107977, 0.082151, 
    0.098048, 0.099014, -0.017818, 0.005218, -0.091351, -0.079348, -0.106732, -0.099649, -0.086292, -0.053174, 
    0.030643, 0.065871, -0.107307, 0.026093, 0.104838, -0.062634, 0.045702, 0.131710, -0.068365, 0.060763, 
    0.043184, 0.128857, 0.075300, 0.191389, 0.090795, 0.143937, -0.074306, -0.124406, -0.071407, -0.021716, 
    -0.052195, -0.132049, -0.163038, -0.190455, -0.080046, 0.020426, 0.094816, 0.109481, -0.055839, 0.042344, 
    0.027242, 0.064945, -0.058342, -0.017485, -0.005354, 0.011345, 0.038183, 0.002808, -0.018017, -0.008052, 
    -0.143041, -0.076248, -0.054819, 0.043770, -0.075007, 0.050473, 0.034990, -0.131453, -0.068762, -0.110590, 
    -0.059435, 0.018103, -0.041565, 0.002861, 0.033624, 0.131315, -0.021704, 0.002942, -0.050484, -0.017521, 
    0.024649, 0.089089, 0.096455, 0.003372, -0.110669, -0.042321, 0.006148, 0.127673, 0.104570, 0.100708, 
    -0.032845, 0.065655, 0.069746, -0.050619, -0.160810, -0.040142, -0.009685, -0.029836, -0.023468, 0.080721, 
    -0.033649, 0.022604, 0.059940, 0.117730, 0.013304, 0.004643, 0.023440, 0.016015, -0.027744, -0.061907, 
    0.070972, 0.014380, -0.065646, 0.058230, 0.009783, 0.039137, -0.084017, 0.157775, 0.063468, 0.094630, 
    0.053670, 0.101977, -0.009421, -0.104915, -0.221928, -0.196410, 0.021386, -0.033131, -0.066587, -0.017579, 
    -0.004208, 0.102917, -0.058395, -0.044527, -0.041309, 0.054188, 0.006615, 0.135006, 0.258249, 0.020931, 
    -0.074731, 0.016574, 0.040668, 0.021348, -0.004619, 0.099810, 0.047343, -0.063523, -0.083182, 0.056624, 
    0.143665, 0.059878, 0.034450, 0.118197, 0.176091, 0.158942, 0.069122, -0.114970, -0.105051, 0.087962, 
    -0.063518, -0.051078, 0.006926, 0.017668, 0.103366, 0.007393, -0.108789, -0.100440, -0.089180, -0.098125, 
    -0.134358, -0.028400, 0.106516, 0.051328, 0.124033, 0.030302, -0.059826, -0.064173, 0.009082, -0.040265, 
    0.041657, -0.016605, -0.052133, 0.052493, 0.037556, -0.083441, -0.052682, -0.147097, -0.072107, 0.055082, 
    0.136187, -0.026652, 0.042694, -0.051812, 0.040753, -0.085638, -0.096417, -0.018575, 0.160379, 0.129119, 
    -0.021146, -0.115630, -0.003849, -0.049673, -0.064318, -0.081709, -0.091381, -0.038193, -0.002276, 0.060449, 
    0.014029, -0.038743, -0.045114, -0.050849, 0.072425, 0.041846, 0.147903, 0.066186, 0.123497, 0.095309, 
    0.067008, 0.076799, -0.129544, -0.086855, 0.045667, -0.031817, 0.022625, -0.012531, -0.116801, -0.166267, 
    -0.152002, 0.078952, 0.056295, 0.026589, 0.101092, 0.103491, 0.082245, -0.156111, 0.006516, 0.040652, 
    0.046142, 0.064374, 0.151147, -0.054857, 0.010888, -0.062003, 0.099673, 0.100979, 0.120654, 0.117082, 
    0.003584, 0.035143, -0.050220, -0.032243, 0.006946, -0.026932, -0.026461, -0.008778, -0.166983, -0.077099, 
    0.019389, -0.094847, -0.162362, -0.113202, -0.038910, -0.002789, 0.078867, -0.163156, -0.090854, -0.079697
    
};

// PyTorch Layer: conv1.bias (Shape: (16,))
static const data_t conv1_b[16] = {
-0.051620, 0.056206, 0.113775, 0.052214, 0.078229, 0.106967, 0.034459, 0.011083, 0.004921, 0.023717, 
    0.101303, -0.060196, 0.110529, 0.001702, 0.101070, 0.024376
};

// PyTorch Layer: conv2.weight (Shape: (32, 16, 3))
static const data_t conv2_w[1536] = {
-0.402015, -0.210566, -0.154516, -0.091790, -0.159852, -0.028969, 0.014766, 0.190804, 0.202491, 0.043642, 
    0.065421, 0.027335, -0.113335, -0.028016, -0.102393, 0.167501, 0.076952, 0.085343, 0.194273, 0.130061, 
    0.204333, -0.002598, -0.109468, 0.006608, -0.052565, -0.187405, -0.081539, -0.110396, -0.167153, -0.248289, 
    0.246339, 0.071643, 0.273486, 0.029456, -0.100303, -0.122641, -0.005477, 0.159075, -0.041239, 0.150930, 
    -0.001338, 0.187927, 0.054977, 0.051484, 0.031960, -0.151625, -0.010478, -0.032570, 0.036449, -0.089920, 
    0.089383, 0.002766, 0.106132, 0.011223, -0.241801, -0.289844, -0.288955, -0.036852, -0.114805, -0.004729, 
    0.166005, 0.139822, 0.144804, -0.294898, -0.202577, -0.363411, 0.042575, 0.005837, 0.115902, 0.101050, 
    0.259913, 0.223072, 0.188160, 0.058965, 0.006977, 0.054660, -0.029493, 0.092962, -0.418343, -0.218342, 
    -0.144671, 0.269045, 0.078804, 0.228583, -0.131442, -0.137958, -0.136843, -0.197938, -0.075057, -0.106250, 
    0.014880, 0.166677, 0.038271, 0.052172, 0.177825, 0.145003, -0.264955, -0.201264, -0.128390, -0.239172, 
    -0.039565, -0.146596, 0.130278, 0.111637, 0.067544, 0.063309, 0.020125, 0.144398, -0.187571, -0.087253, 
    0.037389, -0.006570, 0.149668, 0.147340, 0.094841, 0.011481, 0.251718, -0.007976, 0.145918, -0.045107, 
    -0.142357, -0.245389, -0.133933, -0.247043, -0.250508, -0.214610, 0.211644, 0.069067, 0.043088, 0.107508, 
    -0.010484, -0.110432, 0.075945, 0.082627, 0.091185, 0.188489, 0.214693, 0.058448, 0.049018, 0.001279, 
    0.068595, 0.028040, -0.133157, 0.066535, -0.262813, -0.093293, -0.079405, -0.164350, -0.034527, -0.111295, 
    0.172494, 0.001886, 0.142956, 0.040182, -0.028080, 0.200651, -0.154586, -0.097864, -0.044865, 0.022589, 
    0.100572, 0.072593, 0.071624, 0.176380, 0.175021, 0.069460, -0.003158, -0.012803, -0.156702, -0.117502, 
    -0.127194, -0.217848, -0.187521, -0.172937, 0.142646, 0.181754, -0.022092, 0.086230, -0.059251, -0.183125, 
    0.104324, -0.024269, -0.001314, 0.105864, 0.080449, 0.170292, -0.099273, 0.068276, 0.083647, -0.033781, 
    -0.103860, -0.008561, -0.044628, 0.056866, -0.103773, -0.190091, -0.149827, -0.014507, -0.076870, -0.036719, 
    -0.088219, 0.162662, 0.032275, 0.224682, -0.150843, -0.079874, 0.015723, -0.110843, 0.022329, -0.046731, 
    0.056256, 0.197158, 0.055627, 0.086153, 0.009418, 0.154744, 0.035898, 0.067058, -0.097672, -0.161018, 
    -0.130127, -0.050967, 0.004493, 0.023244, -0.001503, 0.180657, -0.037852, -0.015668, -0.031709, 0.096310, 
    -0.077724, 0.152593, 0.047964, 0.102498, 0.194381, 0.191625, 0.205315, 0.028090, 0.006627, 0.137460, 
    0.212066, 0.148139, 0.143115, 0.164807, 0.108063, 0.212592, -0.230229, 0.045536, -0.058098, -0.211811, 
    -0.090553, -0.073954, -0.033958, 0.131425, 0.095212, -0.129777, 0.019239, 0.069514, -0.013084, -0.112466, 
    0.015023, -0.011843, -0.082700, 0.181163, -0.008072, 0.183626, 0.218083, 0.195216, 0.276251, 0.015375, 
    -0.096154, -0.163054, -0.121846, 0.086412, 0.135183, -0.032513, -0.090511, -0.093262, -0.010294, -0.184482, 
    -0.129002, -0.044205, 0.066817, 0.001529, -0.028481, 0.126855, 0.138760, 0.158991, -0.048492, -0.083091, 
    0.047754, 0.000393, 0.035579, 0.019671, 0.146032, 0.297360, 0.194148, 0.151168, 0.144244, 0.110012, 
    0.061711, 0.082233, -0.060812, 0.143877, 0.157240, 0.130282, 0.137055, 0.051619, 0.020634, -0.188068, 
    -0.222892, -0.123816, -0.012740, -0.014409, -0.002107, 0.019675, -0.027028, -0.093675, 0.167260, 0.365625, 
    0.189535, -0.205913, -0.110998, -0.124322, 0.083107, 0.231258, 0.023252, 0.174646, 0.184213, 0.147607, 
    -0.145189, -0.160660, -0.001093, -0.153293, -0.204644, -0.057654, 0.132163, 0.135291, 0.205163, 0.312734, 
    0.129236, 0.200634, -0.049607, -0.047806, 0.013416, -0.182619, -0.080777, -0.194584, 0.218959, 0.244551, 
    0.128425, 0.043049, 0.091591, -0.044053, -0.026258, -0.128981, -0.068473, 0.029135, 0.048744, -0.047695, 
    0.026154, 0.007204, 0.036842, 0.146161, 0.046982, 0.138594, -0.132218, -0.016403, 0.001905, 0.175649, 
    -0.022510, -0.036132, 0.084648, -0.007561, 0.134456, -0.218013, 0.011058, -0.154051, -0.189774, -0.071543, 
    -0.071504, -0.047442, 0.130187, 0.186821, -0.178362, -0.178754, -0.160387, -0.153796, 0.046810, -0.117639, 
    -0.023805, 0.214028, 0.069904, 0.144609, 0.014591, 0.169228, -0.197681, 0.018711, 0.073376, 0.066187, 
    0.175783, 0.108486, 0.026788, 0.210244, 0.086870, -0.037201, -0.124067, -0.031428, -0.117515, -0.131989, 
    -0.167857, -0.214139, -0.249578, -0.268650, 0.103095, 0.127318, 0.151696, 0.050223, -0.154879, -0.171916, 
    -0.047402, 0.178615, 0.026987, 0.077387, 0.193945, 0.064200, -0.039383, 0.106802, 0.082933, -0.163815, 
    -0.094429, -0.019370, -0.055588, -0.117193, 0.022844, -0.087847, -0.154860, -0.027622, -0.101115, 0.007705, 
    -0.133891, 0.137884, 0.124394, 0.039121, -0.069616, -0.005406, -0.070029, -0.033614, 0.013362, -0.032741, 
    0.059066, 0.164492, 0.100487, 0.155393, 0.012897, 0.059135, -0.050146, 0.055232, -0.026003, -0.085165, 
    -0.082250, -0.196946, -0.112578, -0.084434, -0.075376, 0.154254, 0.116425, 0.157089, -0.048114, -0.068677, 
    0.053069, 0.180332, 0.130110, 0.152196, 0.191913, 0.241918, 0.261520, 0.016199, 0.009040, 0.081187, 
    0.126587, 0.115269, 0.023019, -0.059239, -0.049549, 0.078585, -0.149485, -0.189399, -0.312583, 0.029565, 
    0.071899, -0.064431, -0.002588, 0.113444, -0.035332, -0.189535, -0.277418, -0.254676, -0.030092, -0.073522, 
    0.110567, 0.078646, 0.054162, 0.266203, 0.079150, 0.017491, -0.036323, 0.049282, 0.030821, 0.116467, 
    -0.435720, -0.141447, -0.101620, 0.221602, 0.019428, 0.169026, -0.159499, -0.065210, -0.110553, -0.037571, 
    -0.074784, -0.025504, 0.142504, -0.006122, 0.134655, 0.238033, 0.205541, 0.145196, -0.107759, -0.040937, 
    -0.133938, -0.133484, 0.008521, -0.054569, 0.028352, -0.090937, -0.078168, 0.214072, 0.082905, 0.152284, 
    -0.099728, 0.008630, 0.037752, -0.114169, 0.026269, -0.005282, 0.127642, 0.267489, 0.093894, -0.026930, 
    0.116787, 0.059215, -0.110706, -0.162768, -0.040570, 0.019042, -0.164738, -0.133595, -0.088894, -0.130752, 
    -0.038143, 0.081674, 0.202260, 0.022637, -0.023091, 0.026209, -0.010941, 0.057087, 0.207102, -0.011454, 
    0.251620, 0.156828, 0.214040, 0.169443, 0.074356, 0.102295, -0.279821, -0.326535, -0.095601, -0.019216, 
    -0.043757, -0.095702, 0.024506, 0.142329, 0.165003, -0.039751, 0.185827, 0.078992, -0.063804, 0.057711, 
    0.029048, 0.025208, 0.170267, 0.202741, 0.186984, 0.054934, 0.172445, -0.117940, -0.033935, -0.042806, 
    -0.073925, -0.011750, -0.174802, -0.224874, -0.215469, -0.285727, 0.378904, 0.115857, 0.135537, -0.146482, 
    -0.076130, -0.181949, -0.008774, 0.201511, 0.122849, 0.167347, 0.206714, 0.158892, 0.044637, -0.063433, 
    0.090298, -0.182187, -0.084355, -0.087429, -0.035572, 0.006667, 0.063124, 0.082193, 0.080980, 0.115512, 
    -0.243471, 0.006239, -0.080812, -0.195930, -0.112630, -0.049241, 0.144748, 0.242844, 0.115658, -0.159608, 
    -0.222260, -0.166795, -0.055716, -0.104289, 0.037539, 0.098311, 0.180922, 0.037245, 0.080449, 0.149275, 
    0.202963, 0.205403, 0.044484, 0.260203, -0.269872, -0.189991, -0.106101, 0.091392, 0.059654, 0.008393, 
    0.016922, -0.082515, -0.010963, -0.148794, -0.188230, -0.114885, 0.111291, -0.006235, 0.031890, 0.156615, 
    0.039293, 0.162314, -0.341797, -0.178617, -0.180160, -0.177223, -0.150778, -0.052446, 0.054561, 0.171176, 
    0.094868, 0.031187, 0.064704, 0.033555, -0.102672, -0.017229, -0.123552, -0.038712, 0.153894, 0.168362, 
    0.199111, 0.109914, 0.178123, -0.019568, -0.043556, -0.082157, -0.152133, -0.073796, -0.049522, -0.171965, 
    -0.153519, -0.197505, 0.163388, 0.232455, 0.123149, -0.075871, -0.114822, -0.186535, -0.054273, 0.051855, 
    0.111524, 0.132046, 0.140580, 0.100246, -0.014785, 0.003772, 0.106063, -0.100040, -0.121661, -0.030641, 
    0.082765, 0.082197, 0.200980, 0.078296, 0.271922, 0.078467, 0.155875, 0.077013, 0.086099, -0.145239, 
    -0.152218, -0.220278, -0.044586, 0.175553, 0.218752, 0.124907, 0.025385, 0.117043, -0.091149, -0.192682, 
    -0.183418, -0.111615, -0.148419, -0.111386, 0.001427, 0.167044, 0.061247, 0.019339, 0.124768, 0.182146, 
    0.084727, 0.004656, -0.033292, -0.015624, 0.016276, -0.049562, 0.143039, 0.125649, 0.108538, 0.072056, 
    0.039599, -0.089818, -0.222223, -0.223125, -0.140605, 0.003651, -0.021867, -0.063355, 0.045545, 0.204792, 
    0.152049, 0.179647, 0.214961, 0.173577, -0.089763, -0.050846, -0.036981, -0.272249, -0.210571, -0.111374, 
    0.175771, 0.260087, 0.141610, 0.078975, 0.065836, -0.051744, -0.132233, -0.072936, -0.104666, 0.033786, 
    0.073200, -0.030031, 0.109592, 0.020124, 0.304885, 0.246927, 0.090418, 0.260021, -0.154306, 0.019981, 
    -0.118355, 0.099937, 0.150973, 0.116461, 0.059375, 0.013340, 0.048268, -0.040890, -0.132187, -0.082690, 
    -0.022195, -0.054179, -0.017030, 0.080487, 0.186124, 0.164690, 0.088466, 0.262906, 0.141438, 0.214421, 
    0.179614, 0.276933, -0.020704, -0.022189, -0.003234, -0.196588, -0.210461, -0.073169, 0.083628, 0.184895, 
    0.069766, 0.030309, 0.042172, 0.028108, -0.048008, -0.197407, -0.070502, -0.086303, -0.114176, 0.081430, 
    0.178342, 0.130989, 0.091595, 0.254944, 0.107823, 0.056273, 0.043756, -0.128675, -0.046024, 0.001365, 
    0.097895, 0.098271, -0.006751, 0.086916, -0.003829, -0.050453, 0.027752, -0.089708, -0.101995, -0.123160, 
    -0.122903, 0.108185, -0.085878, 0.065530, -0.098511, -0.198764, -0.037339, -0.043178, -0.199910, -0.031124, 
    -0.041090, 0.059499, -0.212046, 0.295186, 0.102436, 0.270065, -0.105201, -0.016694, -0.002147, -0.034010, 
    -0.060487, -0.061490, 0.167848, 0.069972, 0.182455, 0.250238, 0.243506, 0.065469, 0.043913, 0.043111, 
    -0.003716, 0.029938, -0.050769, -0.061676, -0.277814, -0.176364, -0.063316, 0.250075, 0.055389, 0.172406, 
    -0.035799, -0.137546, -0.109787, 0.139916, 0.163976, 0.161594, 0.111465, 0.072466, 0.312560, 0.057997, 
    0.188208, 0.191095, 0.077628, 0.174688, 0.184595, 0.094923, 0.269476, 0.162604, -0.017198, -0.120005, 
    0.084544, -0.260751, -0.034168, -0.181629, 0.082910, 0.127207, 0.252871, 0.003467, -0.021367, 0.141254, 
    -0.150279, -0.141385, -0.027776, -0.182824, -0.009854, -0.107535, 0.162873, 0.203375, 0.098524, 0.068198, 
    0.182582, 0.137951, -0.047051, 0.035240, -0.085853, 0.006407, -0.071662, -0.061944, 0.054668, 0.055716, 
    0.107703, 0.030717, 0.024370, -0.083480, -0.038164, -0.040336, -0.070075, -0.012199, -0.068167, -0.035360, 
    -0.007509, -0.140999, 0.031981, -0.056802, -0.067361, -0.007138, 0.229191, 0.248693, 0.003553, -0.071552, 
    0.048528, -0.001389, -0.092032, 0.047744, -0.083207, 0.160478, 0.192415, 0.266757, -0.022088, 0.168212, 
    0.096202, -0.052407, -0.023598, -0.124004, -0.109277, -0.083898, 0.110746, -0.070730, 0.030044, -0.021038, 
    0.311569, 0.265008, 0.292852, -0.198735, -0.197245, -0.234096, 0.205431, 0.138865, 0.158025, 0.187027, 
    0.116302, 0.172820, -0.124768, 0.017893, -0.136203, -0.260534, -0.122936, -0.042785, 0.083374, 0.246134, 
    0.064854, 0.041150, 0.125114, 0.222353, -0.044017, 0.147776, -0.034617, -0.157342, -0.156432, -0.212379, 
    0.227342, 0.008746, 0.026748, 0.056758, 0.194498, 0.144559, -0.051588, -0.132171, -0.040393, -0.165690, 
    -0.055085, -0.115168, 0.141295, 0.147576, 0.085393, -0.023907, 0.128397, -0.012458, -0.004140, -0.061920, 
    0.068792, -0.136235, -0.155566, -0.014114, 0.198433, 0.066373, 0.132327, 0.057624, -0.022192, -0.062148, 
    -0.108658, -0.048910, -0.167989, 0.002961, -0.052311, -0.069052, 0.021631, -0.111327, 0.033946, -0.068568, 
    -0.133985, -0.047091, -0.271431, -0.266903, -0.225293, -0.008133, 0.074187, 0.067774, 0.020910, 0.053983, 
    -0.055156, -0.065942, -0.080579, -0.108679, -0.030690, 0.179961, 0.124088, -0.012353, 0.245451, 0.118658, 
    0.042679, 0.112014, 0.109022, 0.180093, -0.059203, 0.152183, -0.264064, -0.134192, -0.213629, 0.060822, 
    0.225685, 0.197250, -0.002304, -0.081195, -0.135832, 0.009802, -0.059333, -0.082235, 0.143638, 0.200349, 
    -0.004777, 0.015801, 0.123604, 0.062022, -0.009875, -0.018153, -0.006358, -0.000261, 0.095826, 0.082578, 
    -0.129004, -0.157218, -0.184777, 0.022249, 0.020745, -0.101991, 0.108274, 0.116033, 0.021074, -0.251950, 
    -0.209881, -0.137433, 0.093590, -0.084087, 0.122825, 0.122541, 0.128858, 0.026446, -0.059660, 0.152521, 
    0.094611, 0.112524, 0.046768, 0.157166, -0.309775, -0.094697, -0.230173, 0.145346, 0.116181, 0.031192, 
    -0.110696, -0.092592, -0.228410, -0.138331, -0.068209, 0.030247, 0.077835, -0.048609, 0.051613, 0.206383, 
    0.043046, 0.188328, 0.031465, 0.108266, -0.006749, 0.212184, 0.096766, 0.048847, -0.140183, -0.120783, 
    -0.308407, -0.121696, 0.037779, 0.005739, 0.046297, 0.006779, 0.029228, -0.221333, -0.163148, -0.335730, 
    -0.060265, 0.032060, -0.063715, 0.191057, 0.085665, 0.085865, 0.079322, 0.132866, 0.156110, 0.280612, 
    0.187476, 0.101922, -0.300581, -0.191925, -0.249493, 0.018080, 0.096658, 0.061418, -0.240842, -0.059925, 
    -0.155004, -0.032460, -0.059361, -0.014752, 0.042385, 0.067083, 0.132710, 0.180954, 0.083370, 0.090197, 
    0.097362, -0.029300, 0.027948, 0.092332, 0.089745, -0.072685, -0.134868, -0.185756, -0.276030, -0.122777, 
    -0.016969, 0.061264, -0.022438, 0.100097, 0.200452, -0.274052, -0.147077, -0.258770, 0.022814, 0.073850, 
    -0.025625, 0.091414, 0.214339, 0.116976, -0.058194, 0.051127, 0.127131, 0.188810, 0.084826, 0.071296, 
    -0.359654, -0.109061, -0.253645, 0.053694, 0.160945, 0.027130, -0.101101, -0.114502, -0.169474, -0.068317, 
    -0.144723, -0.123615, -0.000368, 0.070018, 0.167371, 0.212802, 0.093893, 0.001588, 0.015770, -0.029572, 
    0.087069, 0.010062, -0.073678, 0.097708, 0.078695, 0.164937, 0.144101, 0.023665, 0.095047, -0.071019, 
    -0.106367, 0.109291, 0.109624, 0.069014, 0.249380, 0.139935, -0.004095, -0.038629, -0.038513, -0.072354, 
    -0.174140, -0.113799, 0.063669, -0.057843, 0.172868, 0.050707, 0.019609, -0.040337, 0.085339, 0.183481, 
    0.176373, -0.160857, -0.195683, -0.216498, 0.095173, 0.143712, 0.015609, 0.111947, 0.161196, 0.151537, 
    -0.157470, -0.044559, -0.152907, -0.048104, -0.166426, -0.058635, 0.135021, 0.069532, 0.088930, 0.033244, 
    0.020305, 0.218152, 0.063146, -0.018843, 0.077905, -0.189672, -0.177934, -0.066860, 0.003751, 0.011049, 
    0.177410, 0.245692, -0.005853, 0.193554, 0.034311, -0.114627, -0.187577, -0.130789, -0.090977, -0.150796, 
    -0.066358, 0.092084, 0.020509, -0.033106, 0.165218, 0.178630, 0.068581, -0.124870, 0.153030, -0.065613, 
    -0.021229, -0.147942, 0.132627, 0.021240, 0.249461, 0.031972, -0.100343, 0.140364, -0.153438, -0.065281, 
    -0.168312, -0.112483, 0.019055, 0.006074, -0.208983, -0.103648, -0.041908, -0.115948, -0.124605, -0.007262, 
    0.173606, -0.000712, 0.136002, 0.144967, 0.156598, 0.277100, -0.090110, -0.057692, -0.111795, -0.085079, 
    0.117364, -0.066512, 0.081221, 0.179759, 0.144766, 0.084326, 0.086270, 0.246269, -0.218339, -0.152825, 
    -0.038214, -0.236664, -0.231096, -0.124399, 0.048688, -0.034038, 0.034282, 0.096911, 0.027351, 0.132572, 
    -0.033524, 0.057154, -0.123750, 0.073356, 0.127732, 0.176194, 0.046282, 0.202411, 0.006082, 0.008802, 
    0.159625, -0.018611, -0.180049, -0.082873, -0.142449, 0.027150, -0.026752, -0.027934, 0.149780, 0.083259, 
    -0.067336, -0.149946, 0.075771, 0.056209, 0.068420, -0.107503, 0.013189, 0.205816, 0.201899, 0.182565, 
    0.182326, 0.034290, 0.015709, -0.050637, -0.016715, -0.079763, -0.128580, -0.075332, -0.104027, -0.061787, 
    -0.065823, -0.004853, 0.146657, 0.236119, 0.302661, -0.088257, -0.122504, -0.186059, 0.091265, -0.039798, 
    0.175407, 0.181381, 0.103430, 0.214570, -0.021480, 0.002183, 0.056305, -0.228719, -0.139939, -0.050378, 
    0.057696, -0.029035, 0.043578, 0.033057, 0.018170, -0.007920, -0.272888, -0.093117, -0.252292, 0.027355, 
    -0.060183, -0.006750, 0.124626, 0.197519, -0.000700, -0.211693, -0.191925, -0.307002, -0.048496, 0.112064, 
    0.008751, 0.209962, 0.018449, 0.247795, 0.023301, 0.140047, 0.165618, 0.081667, 0.057304, 0.107871, 
    -0.369394, -0.142276, -0.216811, 0.191593, 0.070588, 0.101178, -0.044506, -0.125763, -0.178492, -0.106775, 
    -0.100618, -0.021996, 0.023942, 0.102011, 0.045876, 0.040646, 0.144310, 0.178993, 0.104582, 0.190940, 
    0.086928, 0.115196, 0.089231, -0.015244, 0.073789, 0.113235, 0.030170, -0.188654, 0.003366, -0.097872, 
    0.153144, 0.103604, 0.074275, 0.028306, 0.082389, 0.109185, -0.104866, -0.193993, -0.178399, -0.236490, 
    -0.147612, -0.114132, 0.173565, 0.013195, -0.031084, 0.101762, 0.133745, -0.097570, -0.063888, -0.017246, 
    0.047993, -0.117851, -0.034168, -0.009562, 0.155401, 0.134304, 0.161619, -0.106384, 0.014983, 0.075128, 
    -0.205715, -0.216585, -0.219026, -0.001820, 0.084029, -0.038455
};

// PyTorch Layer: conv2.bias (Shape: (32,))
static const data_t conv2_b[32] = {
0.023222, 0.063774, -0.031763, 0.098597, -0.050824, -0.070400, -0.039757, -0.006596, 0.196527, 0.071919, 
    0.132629, -0.067646, 0.006161, 0.157526, 0.190238, 0.137486, -0.068349, 0.061483, -0.110105, -0.039117, 
    0.066015, 0.066213, -0.001514, -0.083511, -0.092737, -0.009365, 0.143802, 0.069087, 0.120618, -0.043429, 
    -0.027716, 0.117649
};

// PyTorch Layer: fc.weight (Shape: (3, 32))
static const data_t fc_w[96] = {
0.274528, -0.200040, 0.151047, 0.260653, 0.151374, -0.390644, -0.035985, -0.088401, 0.280661, 0.063165, 
    -0.107069, 0.021592, 0.315280, -0.334531, 0.244883, -0.199790, -0.146506, -0.323542, 0.146570, -0.240063, 
    0.082709, -0.143408, -0.040604, -0.209305, -0.221944, -0.195495, 0.107715, -0.030259, 0.032428, 0.196648, 
    -0.122963, -0.066651, -0.165736, 0.110607, -0.164653, -0.125851, 0.131512, 0.016052, -0.309558, 0.135614, 
    -0.189703, 0.071139, 0.219789, 0.042863, -0.109791, 0.064809, -0.207653, -0.191066, 0.131104, -0.087455, 
    0.188022, -0.011441, -0.237978, -0.141190, 0.200832, 0.296218, 0.188510, 0.266734, -0.257648, -0.113358, 
    -0.045135, -0.262162, 0.232875, -0.137683, -0.009672, -0.218019, -0.249415, -0.184306, -0.251402, -0.001900, 
    -0.042268, 0.230982, 0.022852, -0.261093, -0.170163, -0.341252, 0.135062, -0.025627, -0.037335, 0.103020, 
    0.164902, 0.031365, -0.067644, 0.171140, 0.064368, 0.211705, -0.307848, -0.150993, -0.074895, -0.145579, 
    0.142618, 0.222190, -0.309137, 0.134579, -0.134218, 0.207636
};

// PyTorch Layer: fc.bias (Shape: (3,))
static const data_t fc_b[3] = {
0.067721, -0.059484, 0.021063
};

#endif // VOICE_CNN_WEIGHTS_H
