#ifndef WEIGHTS_H
#define WEIGHTS_H

#include "typedefs.h"

// PyTorch Layer: conv1.weight (Shape: (16, 6, 3))
static const data_t conv1_w[288] = {
0.369061, -0.191270, 0.150507, -1.617094, -1.449084, -1.018819, -0.614852, -0.954963, -1.420770, -1.511962, 
    -3.127974, -2.907148, 0.670977, 0.931200, 3.342043, 1.448710, -2.059583, -2.513455, -0.765710, 0.469257, 
    0.449117, -0.688808, -0.017936, -0.971192, -0.004845, 1.006564, 1.550918, 1.190905, 2.073143, 1.912453, 
    6.781188, 5.230047, 2.773458, 4.849940, 4.416020, 6.981298, 1.550893, 2.072757, 1.398270, -0.358906, 
    -0.013922, 0.056901, 1.151419, -0.871634, -1.785442, 3.629713, 3.734112, 3.723228, -0.987098, 0.647136, 
    1.925898, -2.413574, -2.146308, -0.466765, 0.406393, 0.134587, 0.353018, -1.317223, -1.002187, -0.158839, 
    2.200539, 1.295491, 2.503473, 2.091605, 1.988345, -1.418123, 0.651413, 0.006519, -0.354954, 4.183296, 
    -1.853720, -3.684464, 1.109529, 1.165475, -0.437613, 1.116803, 0.657499, 0.641219, -0.440669, -0.887385, 
    -2.013366, 2.296143, -0.816981, -2.174634, 7.537895, 5.271049, 0.292448, 0.479964, 1.394911, -3.110349, 
    1.316851, 1.646659, 1.672954, -0.724514, 1.050976, 1.065991, -1.036785, 0.824663, 1.586693, 0.987292, 
    1.753269, -0.838599, -2.589991, -2.196062, -1.295822, 0.595514, -2.880632, 1.832973, -0.643823, -0.445737, 
    -0.299870, -0.369141, 1.225411, -0.568545, -1.663277, 0.620103, 1.933842, 4.011554, 2.941050, 1.471433, 
    -2.430902, 2.736400, 1.437087, 1.515825, 0.648203, 0.841761, -0.735565, 0.457668, 1.150467, 0.828314, 
    1.096780, 0.779755, -2.022032, -1.211006, -2.317928, -5.122461, -4.321497, -4.141917, -3.761428, -1.310799, 
    -0.923558, -1.416906, -0.675708, 0.637444, 0.239747, 0.016163, -0.027318, 0.260958, 0.093438, 0.485817, 
    -0.483923, 0.479670, 0.177516, -3.758658, -6.133636, -6.084933, 0.959381, 0.134795, 1.294118, 2.168368, 
    -1.561506, -1.838217, -1.213481, 0.055143, 0.819970, -0.187842, -1.160499, -1.418380, -2.005322, -0.377935, 
    -0.808282, -1.359733, -0.882230, -2.231404, -3.966917, -0.495154, -2.508153, 1.446844, 3.326018, 3.790223, 
    -2.393925, -0.989667, -0.530807, -0.681269, -0.666604, 0.059325, 1.512522, -0.817786, -1.853685, 3.757311, 
    4.307532, 4.856190, -0.768353, -0.809949, -1.398161, -2.725909, -1.811265, 0.378848, -0.467593, -0.289039, 
    0.440882, -0.375855, -0.981616, -0.372373, 0.690649, -0.981605, -0.834534, 0.388157, -1.063141, -2.244219, 
    -4.346189, -3.623260, -5.206242, -3.360068, -5.295249, -4.201060, 0.988955, 0.502888, -0.905889, 0.002259, 
    -0.268163, 0.052002, -1.196736, -1.015867, 0.379806, -0.652190, -0.258845, 0.591419, 1.958829, 4.879514, 
    4.680646, 5.174053, 4.813339, 5.329379, -1.527862, 0.337720, 2.096462, -0.235398, -0.622321, -1.422385, 
    -1.922471, -0.369392, 1.815619, -3.595491, -2.051559, 1.988293, -0.515311, -2.733588, -2.856568, -1.994574, 
    -2.580848, -0.066176, 1.004562, 0.724131, 0.790162, -0.014227, -0.073594, 0.647103, -0.149057, -0.245062, 
    -0.230329, -2.958895, -2.083317, -2.271767, 1.887851, 2.007819, 1.801385, -0.870384, -1.114678, -0.270421, 
    -1.213537, -1.387116, -1.501503, 0.131603, 0.795960, -0.022632, -0.479704, -2.076009, -1.493935, -2.663490, 
    -2.583153, -2.104346, 3.476958, 3.604981, -0.955231, 1.460212, -0.192538, -0.631804
};

// PyTorch Layer: conv1.bias (Shape: (16,))
static const data_t conv1_b[16] = {
0.050499, 0.132818, 0.047871, -0.035911, 0.083491, 0.112716, -0.282435, 0.041694, -0.011690, 0.004224, 
    0.043703, 0.072190, -0.031806, 0.015284, -0.433044, -0.011607
};

// PyTorch Layer: conv2.weight (Shape: (32, 16, 3))
static const data_t conv2_w[1536] = {
0.033815, -0.000239, -0.136072, -0.122993, -0.113365, -0.047244, -0.396933, -0.547427, -0.616806, -0.222169, 
    -0.262426, -0.339162, -0.082079, -0.160672, -0.252687, -0.057228, -0.224406, -0.281756, -0.496430, -0.326932, 
    -0.415897, 0.145980, 0.126565, 0.234896, 0.013271, 0.007804, 0.146935, 0.087347, -0.176621, -0.134209, 
    -0.015976, -0.035263, -0.021574, -0.022891, 0.155201, 0.235148, -0.004344, 0.234923, 0.002531, 0.044666, 
    -0.143694, -0.013958, 0.192987, 0.170022, 0.170431, 0.130354, 0.265585, 0.306857, -0.056618, 0.004021, 
    -0.068444, 0.178319, -0.196371, -0.278846, -0.499064, -0.009995, 0.282141, 0.235143, 0.100218, 0.078326, 
    0.179830, -0.108283, -0.156213, -0.159982, -0.116175, -0.148726, 0.275871, -0.032697, 0.060696, 0.082634, 
    -0.093249, 0.046068, 0.249833, 0.228627, 0.065392, 0.082845, -0.017516, -0.059397, -0.006477, 0.193428, 
    0.306694, -0.189728, -0.220361, 0.029128, 0.245442, -0.243356, 0.049328, -0.058823, 0.019600, 0.178259, 
    0.102520, 0.285484, 0.076156, 0.283788, 0.196607, 0.206626, 0.291265, 0.221270, 0.119157, 0.138871, 
    -0.036003, 0.089972, 0.011391, 0.012825, -0.243374, 0.131935, 0.281836, -0.004657, 0.262168, 0.277482, 
    -0.032977, 0.006616, -0.053666, 0.004066, 0.070353, -0.010547, 0.041001, -0.042907, -0.078226, 0.164260, 
    0.265246, 0.372153, 0.450010, 0.364477, 0.113265, 0.356855, 0.024159, -0.007034, 0.079320, -0.148892, 
    0.221445, 0.026503, -0.113940, -0.348520, -0.142069, -0.003959, 0.022111, -0.019663, 0.115548, -0.031932, 
    0.110673, -0.328984, -0.325175, -0.142009, 0.148867, 0.197884, 0.405931, -0.093278, 0.223430, 0.083353, 
    -0.390181, -0.332289, -0.228623, 0.051294, 0.003071, 0.098304, -0.005838, 0.173831, 0.068215, -0.091528, 
    -0.090990, -0.055677, -0.074115, -0.150175, 0.020077, 0.316567, 0.225109, 0.185231, 0.027422, 0.300980, 
    0.445892, 0.228972, 0.200228, 0.162320, -0.005402, -0.115163, -0.445890, 0.049305, -0.142273, 0.006219, 
    -0.164495, 0.038932, -0.013295, -0.001617, -0.024974, -0.115323, 0.254857, 0.002718, 0.054718, 0.104833, 
    0.055676, 0.102501, -0.192971, 0.062500, 0.071638, -0.171666, -0.146008, -0.314514, 0.098951, 0.130614, 
    0.090135, 0.076299, 0.047584, -0.111541, -0.337074, -0.131835, -0.103957, 0.143636, 0.244315, 0.204379, 
    0.362738, 0.160071, -0.046889, 0.082358, 0.220094, 0.247534, -0.407168, -0.282560, -0.165156, -0.057483, 
    0.093737, -0.162690, -0.034167, 0.047121, -0.005463, 0.168181, 0.245567, 0.244851, -0.034286, -0.048241, 
    0.243545, -0.173818, 0.135886, 0.160680, 0.089006, 0.269159, 0.347680, -0.324111, -0.253593, 0.116404, 
    -0.159858, -0.384465, -0.234188, -0.405632, -0.585995, -0.104029, -0.164623, 0.279854, 0.226565, -0.077816, 
    -0.139765, -0.238856, -0.007652, -0.144373, -0.201829, 0.029525, 0.194027, 0.120398, -0.161532, -0.162697, 
    0.125030, 0.155324, -0.095867, 0.029247, 0.038400, -0.025867, -0.084574, 0.107910, 0.125245, 0.304369, 
    -0.173622, 0.145108, 0.170745, -0.056497, 0.206930, 0.133895, -0.017427, -0.295382, 0.286144, 0.351715, 
    0.316366, 0.078590, -0.020319, -0.405416, -0.307192, 0.106371, -0.217709, -0.107627, 0.059362, 0.073311, 
    0.063444, 0.252736, 0.081503, -0.282241, -0.165740, -0.025222, 0.055440, 0.157085, 0.038324, -0.087259, 
    0.132106, -0.097166, 0.086410, -0.041440, 0.119989, 0.004417, 0.277536, 0.185819, -0.072277, -0.296679, 
    -0.067497, 0.029647, -0.571276, -0.694413, -0.480045, -0.230125, -0.311916, -0.270417, 0.069911, 0.083233, 
    0.043012, -0.133055, 0.319141, 0.211843, 0.324915, 0.258305, -0.107023, -0.347704, -0.168875, 0.225508, 
    -0.161634, -0.218752, 0.041911, -0.315781, -0.026604, 0.035346, 0.023972, 0.133703, 0.017175, 0.191698, 
    0.050595, 0.228188, 0.336348, 0.280235, 0.382059, 0.427950, 0.032095, 0.164291, -0.185414, 0.098269, 
    0.046564, -0.041195, -0.010591, -0.105865, -0.066171, 0.029832, 0.131600, -0.288579, -0.131411, -0.359163, 
    -0.190265, -0.091846, -0.258237, -0.200778, -0.036154, -0.057425, 0.252810, 0.213042, -0.020729, -0.235822, 
    -0.259898, -0.329193, -0.246855, -0.096150, 0.065547, 0.031006, 0.017496, 0.186406, -0.323081, -0.014865, 
    0.049249, -0.023159, 0.036978, -0.181251, -0.039130, 0.016517, 0.096379, 0.082481, 0.056326, 0.023514, 
    0.025373, -0.001865, -0.091018, 0.100459, -0.117347, 0.016265, 0.048586, 0.130371, 0.234154, 0.098176, 
    0.109593, 0.210079, -0.309727, -0.329204, -0.201345, -0.000863, 0.074990, 0.151504, 0.021374, -0.216572, 
    -0.173705, -0.033322, -0.026665, -0.080978, -0.016385, -0.036516, -0.011215, -0.090343, 0.219380, 0.125991, 
    0.162429, -0.062483, 0.140070, -0.270630, -0.155448, 0.090526, -0.201494, -0.280510, -0.186423, -0.120802, 
    -0.135069, -0.170566, 0.011272, -0.140136, 0.002051, 0.039804, 0.099919, -0.055125, -0.191165, 0.064507, 
    -0.107910, 0.249781, 0.237188, 0.083893, 0.214675, 0.037607, 0.045749, 0.004212, 0.110604, 0.093184, 
    -0.738115, -0.330764, -0.295751, 0.262208, 0.019714, -0.030400, 0.398028, 0.013787, 0.128479, 0.313602, 
    0.076469, 0.260880, -0.194949, 0.100444, 0.028340, 0.025424, -0.105852, 0.067872, -0.644956, -0.445158, 
    -0.626298, 0.093086, -0.104419, -0.193434, -0.220304, -0.417019, -0.585205, -0.110691, -0.011583, 0.015044, 
    -0.069925, -0.031612, 0.007567, 0.067097, 0.070048, -0.203488, -0.106355, -0.204980, -0.005057, 0.026790, 
    -0.059365, -0.068825, -0.274409, -0.295894, -0.138238, -0.078342, 0.100507, 0.150150, 0.266665, 0.068352, 
    0.438116, -0.049565, -0.206655, 0.158106, -0.126773, -0.032385, -0.139715, -0.038099, -0.015263, -0.093043, 
    0.211198, -0.083280, 0.329012, 0.151725, 0.051617, 0.221257, 0.216639, 0.073252, -0.066102, 0.081098, 
    -0.025829, -0.013470, 0.308535, 0.138136, 0.104262, 0.302177, -0.014204, 0.024064, -0.094320, 0.107774, 
    0.140300, -0.123200, 0.072583, -0.022387, 0.082760, 0.117266, 0.002216, -0.103844, -0.152153, -0.163200, 
    0.138782, 0.325720, -0.028843, 0.289812, 0.034762, -0.195762, 0.116519, 0.032280, -0.275502, -0.096817, 
    -0.096846, 0.281668, -0.245976, -0.125779, -0.034686, -0.662016, -0.489526, 0.108743, -0.138481, 0.074299, 
    0.055766, -0.076130, 0.060221, 0.151197, 0.209401, 0.011504, -0.172558, 0.206864, -0.288519, 0.185499, 
    0.047867, -0.327296, -0.328814, -0.468077, 0.285429, 0.178206, 0.087822, -0.030638, 0.068225, -0.027028, 
    -0.022293, 0.114899, -0.471756, -0.402952, -0.697113, 0.046847, -0.047634, 0.014692, -0.085780, -0.175390, 
    -0.026664, -0.245920, -0.323252, -0.256543, -0.307425, -0.359519, -0.224883, -0.123926, -0.318219, -0.205871, 
    -0.797435, -0.550846, -0.667264, -0.247452, -0.287772, -0.282128, 0.101928, 0.020711, 0.203244, 0.117457, 
    0.131797, 0.147253, -0.030233, 0.123274, 0.002734, 0.128541, -0.077401, -0.042417, 0.079233, -0.016729, 
    -0.147932, 0.323785, 0.523589, 0.453942, -0.183809, -0.258290, -0.212801, -0.458282, -0.237178, -0.119692, 
    0.243840, 0.363603, 0.240865, -0.265915, -0.090796, 0.154830, -0.056906, -0.111417, -0.032241, 0.158523, 
    0.124518, 0.121784, 0.083141, 0.257198, 0.375055, 0.050062, 0.044300, 0.114179, 0.173192, 0.017188, 
    0.185106, -0.147866, -0.232847, 0.043437, -0.074087, 0.108711, 0.276634, -0.192153, -0.177636, -0.158829, 
    -0.130874, 0.042985, 0.200743, 0.105153, 0.029837, -0.233328, 0.227020, 0.237401, 0.307481, -0.029245, 
    -0.438195, -0.390668, -0.143078, 0.211439, -0.034672, 0.006628, -0.151456, 0.008148, 0.468351, 0.075841, 
    -0.492936, -0.057589, -0.357767, -0.025738, 0.127130, 0.141180, -0.168376, 0.358813, -0.224569, -0.339195, 
    0.277074, -0.293629, 0.291750, -0.047731, 0.112352, -0.013293, -0.004157, 0.140924, 0.044170, -0.282934, 
    -0.218187, 0.112208, -0.112876, -0.196942, 0.176439, 0.041217, -0.017038, 0.160627, 0.119945, 0.078352, 
    -0.234443, 0.000125, -0.078403, 0.469347, -0.104920, -0.440951, -0.474973, -0.130526, 0.207298, 0.016293, 
    -0.316287, -0.410773, -0.469739, -0.141224, -0.197738, -0.147440, 0.307866, 0.204533, 0.206388, 0.336512, 
    0.031278, 0.148769, 0.090406, -0.250230, -0.070149, 0.182380, 0.014323, 0.070557, 0.055436, -0.055253, 
    0.062948, -0.345671, -0.252018, -0.192239, 0.139426, -0.370935, -0.364423, -0.514963, -0.302183, -0.239538, 
    0.230074, 0.432103, 0.361392, 0.125546, 0.048664, 0.050523, -0.425930, -0.338872, -0.185329, -0.050340, 
    -0.172523, -0.234190, -0.447263, -0.139480, 0.108642, -0.176482, -0.480755, -0.422235, 0.177775, 0.042202, 
    -0.091587, -0.527323, -0.294617, 0.088635, 0.168132, 0.208398, 0.027623, -0.257249, -0.234440, -0.374079, 
    -0.130471, 0.012357, 0.216094, 0.084681, 0.130684, 0.089645, -0.081004, -0.212490, 0.133704, 0.322663, 
    0.268137, -0.036938, -0.130145, -0.053774, -0.200552, -0.090691, -0.332725, -0.418956, 0.122502, 0.123795, 
    -0.188294, 0.258504, -0.005514, -0.346798, 0.097459, 0.119483, 0.168951, -0.223092, -0.227125, -0.390158, 
    0.342562, 0.195306, 0.236630, 0.315899, 0.284767, 0.064825, 0.113461, 0.022602, 0.290649, 0.157193, 
    0.331720, 0.424387, -0.053888, -0.393009, -0.567890, -0.319052, -0.113206, -0.001474, 0.078859, 0.283696, 
    -0.025121, 0.276854, 0.077987, -0.126115, -0.021402, 0.180524, -0.201592, 0.086679, -0.177692, -0.251523, 
    -0.509399, -0.615159, -0.573683, -0.262381, -0.131322, -0.032977, -0.525761, -0.419419, -0.372247, -0.320586, 
    -0.476797, 0.061496, 0.147204, 0.415824, 0.341190, -0.115668, -0.378650, 0.115789, 0.005661, 0.002184, 
    -0.134925, -0.079709, 0.030818, -0.069537, 0.058631, 0.099701, -0.205730, 0.049610, -0.066099, -0.061382, 
    0.169215, -0.182137, -0.045034, 0.220585, 0.120230, 0.033516, 0.161000, 0.193283, 0.118393, 0.207837, 
    -0.042805, 0.046218, 0.132169, 0.126565, 0.136470, 0.123179, 0.250733, -0.104378, 0.143129, 0.406707, 
    0.133747, 0.236116, 0.290517, -0.055067, 0.086310, 0.014234, 0.418622, -0.159868, -0.056980, -0.175900, 
    -0.196730, -0.309638, -0.110397, -0.328312, 0.047219, -0.257419, -0.073110, -0.124859, -0.320131, -0.077261, 
    -0.028810, -0.133815, 0.138621, 0.193664, 0.369518, 0.349616, 0.306679, -0.334993, -0.406387, -0.119078, 
    0.050734, 0.178860, 0.185094, 0.393645, 0.159657, 0.110706, -0.244220, -0.152142, -0.055287, -0.117684, 
    0.026873, 0.279823, 0.123578, -0.295849, -0.336194, -0.032214, -0.183285, -0.004035, -0.246342, 0.188103, 
    0.076633, 0.070362, -0.254464, -0.041129, 0.102874, -0.187778, 0.067714, 0.429034, 0.266013, -0.071102, 
    -0.424508, -0.085392, -0.131895, -0.077267, -0.259352, -0.500845, -0.194267, -0.030152, -0.310837, -0.115702, 
    0.091440, -0.093885, 0.016364, 0.087055, 0.045911, -0.069643, 0.101854, 0.103501, -0.151491, 0.109169, 
    -0.250293, -0.110484, 0.146828, 0.211412, 0.041196, 0.147281, -0.188010, 0.114089, -0.251395, -0.416217, 
    -0.056877, 0.013825, 0.014906, 0.226148, -0.104761, -0.105284, -0.257428, -0.203638, 0.153376, -0.076248, 
    -0.086906, 0.061405, -0.003120, -0.030894, 0.114505, 0.108417, 0.070860, 0.184170, -0.146660, -0.265744, 
    0.039869, 0.091554, -0.170612, -0.279367, -0.255163, -0.091754, -0.035597, 0.125303, -0.007088, 0.163970, 
    -0.003526, 0.083152, 0.022318, -0.098350, -0.004468, -0.007961, -0.105293, 0.083182, -0.047748, -0.063526, 
    0.203118, 0.288190, 0.198558, -0.074905, 0.202073, 0.137099, -0.451179, -0.042525, -0.029121, -0.138213, 
    -0.205860, -0.170601, -0.059196, -0.021519, 0.004607, 0.121056, 0.106736, -0.197716, -0.103688, -0.020882, 
    0.042092, 0.039807, 0.047651, -0.059747, 0.211855, 0.001615, 0.112506, -0.118966, -0.024711, -0.059664, 
    -0.098133, -0.037833, -0.040307, -0.028258, -0.151755, 0.053155, -0.077600, 0.039873, 0.033036, 0.055934, 
    -0.032743, -0.075189, 0.283869, 0.196716, 0.108160, -0.469865, -0.380081, 0.093522, 0.075243, -0.001757, 
    -0.016167, 0.314604, 0.348518, 0.217555, 0.104323, 0.319834, 0.124714, 0.128230, 0.207410, 0.009861, 
    -0.004536, -0.005294, 0.201286, -0.023862, -0.234147, 0.060997, -0.153509, -0.171338, -0.223006, -0.078037, 
    -0.020500, -0.009510, 0.247926, 0.107810, -0.084684, 0.116418, 0.243409, -0.025545, -0.159555, -0.232540, 
    -0.185357, -0.058139, -0.054900, 0.006113, -0.233601, -0.133112, -0.061104, 0.250404, 0.153122, 0.366935, 
    0.061840, 0.237679, 0.029372, -0.011461, -0.466253, -0.240584, -0.146134, 0.068725, -0.033761, -0.252160, 
    -0.229858, -0.352858, -0.378034, 0.136240, 0.102855, -0.615316, -0.225616, -0.217308, -0.422199, -0.171707, 
    -0.107268, -0.063246, -0.096333, 0.045726, 0.433006, 0.340629, 0.023459, 0.050073, -0.014060, -0.171427, 
    -0.028257, 0.180421, 0.258644, 0.242857, 0.028315, -0.180668, -0.227517, 0.270296, 0.181496, -0.107287, 
    -0.024628, -0.039927, -0.180529, -0.060015, 0.041358, 0.167209, -0.174797, -0.403797, -0.742418, -0.288306, 
    0.169212, 0.046679, -0.091634, 0.300361, -0.137385, -0.237407, -0.243924, 0.009861, -0.076103, 0.282231, 
    -0.278209, -0.275236, 0.266521, -0.303760, 0.154250, 0.005028, -0.198698, -0.353323, -0.112308, -0.283492, 
    -0.270883, -0.328977, 0.026334, 0.227642, -0.180065, -0.050329, 0.139381, 0.213641, -0.209359, 0.003487, 
    -0.103003, -0.406640, 0.310321, 0.285839, 0.125790, -0.222325, 0.013665, 0.133490, -0.109928, -0.452236, 
    -0.254344, -0.066915, 0.012299, 0.103440, 0.104096, 0.252758, 0.352899, 0.130801, 0.366515, -0.204864, 
    -0.205961, -0.167435, -0.029936, -0.084867, 0.057508, -0.023629, -0.143667, 0.107618, 0.018906, 0.115629, 
    0.010158, -0.392060, -0.208799, -0.444547, -0.275679, -0.291266, -0.281279, -0.112239, -0.019767, -0.125775, 
    0.338982, 0.182621, 0.342389, 0.202362, 0.026336, 0.104075, -0.061739, -0.023832, 0.010261, -0.117619, 
    0.090168, 0.069130, -0.115577, 0.161259, 0.114630, -0.188348, -0.036959, -0.256902, -0.114784, -0.303348, 
    -0.039167, -0.040492, 0.013964, -0.267650, -0.025933, -0.231883, 0.276298, -0.273864, -0.861907, -0.696242, 
    0.106938, 0.057966, 0.125900, -0.119389, -0.182880, 0.235192, -0.274706, -0.058753, 0.095186, 0.025121, 
    0.078411, 0.004754, -0.053914, -0.052593, -0.130895, -0.129956, -0.143092, -0.035992, -0.077097, 0.274984, 
    -0.168216, 0.021664, -0.055944, 0.113201, 0.190134, 0.149455, 0.089096, -0.108826, 0.306276, 0.423312, 
    -0.208794, -0.106229, -0.109312, 0.018265, 0.090113, -0.044973, 0.026932, 0.194755, 0.295480, -0.151807, 
    -0.263827, -0.106323, 0.129600, 0.190773, 0.105754, 0.093679, -0.067721, -0.067468, 0.114445, 0.067779, 
    -0.007498, -0.035474, -0.110319, -0.190837, 0.459921, 0.387421, -0.080201, -0.073088, 0.302341, 0.198812, 
    -0.076363, 0.074286, 0.271982, -0.027726, 0.166463, 0.024929, 0.203919, 0.102509, -0.194435, -0.144800, 
    0.072329, -0.048425, -0.257649, -0.051339, 0.103977, -0.085052, 0.113208, -0.117501, 0.164487, 0.080922, 
    0.291121, 0.100712, 0.044993, -0.025476, 0.006774, -0.084528, -0.012337, 0.099129, -0.043283, -0.181624, 
    0.067843, -0.084944, -0.102261, -0.060677, 0.149000, 0.119981, 0.282372, 0.180936, -0.049839, 0.170517, 
    0.186998, 0.082330, -0.362831, -0.330266, -0.303581, 0.094971, -0.018994, -0.049075, -0.182771, -0.030707, 
    -0.237860, -0.118293, -0.122630, 0.160691, 0.063730, 0.065285, -0.122883, 0.128670, 0.001942, 0.055660, 
    -0.103954, -0.137688, -0.037773, 0.020647, 0.067841, -0.059262, -0.212978, -0.131654, -0.170433, 0.084673, 
    -0.041866, 0.078034, -0.243853, 0.208548, 0.263025, 0.276976, 0.012019, 0.165680, -0.162228, -0.504556, 
    -0.569814, 0.258304, 0.365855, 0.430038, -0.084274, 0.105804, 0.279392, -0.088804, -0.076024, 0.232660, 
    -0.060512, 0.186843, 0.059101, 0.035851, -0.026836, -0.003713, 0.080450, 0.211446, 0.393215, -0.007840, 
    0.178835, -0.066465, 0.135117, -0.410965, -0.704509, -0.000042, -0.019440, -0.034271, 0.091617, -0.037992, 
    0.133253, -0.491865, -0.631360, -0.435212, -0.103948, -0.032491, 0.295655, -0.374252, -0.325959, -0.350611, 
    0.003725, -0.023644, -0.235726, -0.008475, -0.005612, 0.154847, 0.031350, 0.084882, 0.066167, -0.162317, 
    0.049429, 0.138192, -0.268964, -0.120714, -0.229094, 0.246926, 0.353442, 0.025901, -0.177616, 0.582853, 
    0.354934, 0.235249, -0.150577, -0.385650, -0.079009, -0.066542, 0.102730, 0.314322, 0.145375, -0.208088, 
    0.071404, -0.284555, -0.177249, 0.232637, -0.050530, -0.466547, -0.214013, -0.075769, 0.071576, 0.440463, 
    0.352735, -0.462799, -0.303918, 0.020346, -0.106698, 0.115206, -0.112749, 0.039286, -0.142503, -0.024988, 
    0.180014, 0.340898, 0.377885, -0.158972, -0.222399, -0.497523, -0.317766, 0.014294, 0.014330, 0.243252, 
    0.198779, 0.026007, -0.171827, -0.060920, 0.021543, -0.069947, -0.079678, -0.096074, -0.015372, -0.198929, 
    -0.273302, -0.121241, -0.438030, -0.346833, -0.789188, -0.554468, -0.297280, -0.072256, -0.620529, -0.238248, 
    0.091269, -0.316258, -0.006955, 0.391916, 0.208971, 0.209681, -0.094673, -0.465582, -0.027940, 0.219850, 
    0.163423, -0.150357, -0.355869, 0.046112, -0.342869, -0.119843
};

// PyTorch Layer: conv2.bias (Shape: (32,))
static const data_t conv2_b[32] = {
0.212424, -0.091151, -0.127339, -0.025535, -0.061089, -0.192365, 0.119590, -0.068269, 0.059597, 0.335601, 
    -0.003755, -0.006608, 0.196144, -0.258221, 0.042418, 0.077404, 0.048589, 0.024781, -0.023007, -0.002317, 
    0.197439, 0.167571, -0.127304, 0.051819, 0.102621, -0.106959, 0.138914, -0.176512, 0.211394, 0.061089, 
    0.012950, 0.074998
};

// PyTorch Layer: fc1.weight (Shape: (32, 480))
static const data_t fc1_w[15360] = {
-0.001184, -0.048377, -0.025346, -0.040693, -0.012809, -0.019329, 0.037031, -0.050473, -0.007086, -0.012451, 
    0.017227, -0.008573, 0.033317, 0.013305, 0.001062, 0.000887, -0.027456, 0.025785, 0.005349, 0.017955, 
    -0.050341, -0.038482, 0.013222, 0.021058, -0.003931, 0.008274, -0.020136, -0.040035, 0.030425, -0.012675, 
    0.012427, -0.004865, -0.013332, 0.008021, -0.026915, -0.050744, 0.032318, 0.024114, -0.011140, -0.044771, 
    -0.031015, -0.009906, -0.019220, -0.031003, 0.016928, 0.002805, -0.024369, -0.022783, -0.031145, -0.010275, 
    0.020750, 0.013407, 0.000412, 0.027978, -0.014602, -0.013519, 0.015030, -0.007975, -0.046581, -0.015049, 
    -0.022028, 0.009006, -0.014009, -0.006791, -0.020665, -0.030482, -0.005733, -0.040565, -0.015116, 0.008176, 
    0.019026, 0.014261, 0.013833, 0.024893, 0.034840, -0.020522, -0.032182, -0.023289, 0.011507, -0.025413, 
    -0.031870, -0.009492, -0.039578, 0.019454, 0.023353, -0.000348, 0.028647, 0.020571, 0.014252, -0.037772, 
    0.014221, -0.013111, -0.002769, -0.032646, -0.052106, -0.011050, 0.012112, -0.031032, 0.040170, -0.034329, 
    -0.026823, 0.001238, -0.029679, 0.013116, -0.043956, -0.017423, -0.047917, -0.000039, 0.021865, 0.024707, 
    -0.038694, 0.033631, 0.039537, -0.045776, -0.037798, 0.026600, -0.014089, 0.009715, 0.034310, 0.013994, 
    -0.029545, 0.035105, 0.026872, -0.002998, -0.014406, -0.035798, -0.035673, -0.037089, -0.015524, -0.003608, 
    0.002575, 0.004197, -0.033906, -0.016451, -0.017730, 0.039906, -0.012715, -0.000870, -0.005456, -0.024327, 
    -0.028134, -0.002826, -0.045799, -0.041062, -0.032610, 0.008981, -0.038808, -0.052778, -0.052759, 0.010890, 
    0.022129, 0.010239, 0.017752, 0.005153, -0.015395, -0.046491, 0.009851, 0.006374, 0.026540, -0.021918, 
    0.021911, 0.044893, 0.018377, 0.019625, -0.034112, -0.045756, 0.009548, -0.032912, 0.022709, -0.005876, 
    0.002700, -0.008934, -0.049690, -0.039753, -0.014964, -0.007728, -0.039956, -0.007109, -0.017694, 0.029842, 
    -0.041913, -0.035094, -0.045414, -0.035650, -0.046936, -0.024182, -0.038751, -0.008289, 0.031028, -0.012084, 
    0.016114, 0.019203, 0.016014, -0.004458, 0.001159, -0.021496, -0.052846, -0.037846, 0.017032, 0.025437, 
    -0.018282, -0.002380, 0.012126, -0.022623, -0.020114, -0.009608, -0.015060, -0.007429, 0.008131, -0.009571, 
    -0.018549, 0.037286, -0.028951, -0.044224, -0.011235, -0.023081, 0.022297, -0.033932, 0.013915, 0.036521, 
    -0.052518, -0.037441, 0.036078, 0.015602, 0.008397, -0.015438, -0.012574, -0.038769, -0.045235, 0.014653, 
    0.008971, 0.013996, 0.033209, 0.032780, 0.026010, -0.001064, 0.022380, 0.014571, -0.015628, -0.036858, 
    -0.044757, 0.028977, -0.020284, 0.007905, -0.052893, 0.009824, -0.051446, 0.015390, 0.036786, 0.011235, 
    0.016342, -0.019229, -0.037791, 0.003692, -0.053074, -0.014964, 0.014669, 0.009212, -0.022766, 0.004913, 
    0.006521, -0.014698, -0.003385, -0.040425, 0.038799, 0.002239, -0.030232, -0.024273, -0.024992, 0.020993, 
    0.026596, -0.027900, 0.015687, -0.026245, -0.048122, 0.015688, 0.027341, -0.008717, 0.000957, 0.002895, 
    0.033602, -0.028207, -0.001326, -0.025701, -0.001599, -0.030927, -0.015545, -0.053488, 0.016144, -0.030957, 
    -0.000980, -0.030941, 0.013280, 0.028131, -0.028448, 0.037143, -0.006191, -0.021894, -0.018096, -0.033281, 
    -0.015510, 0.019686, 0.002175, -0.034517, 0.010702, 0.010286, -0.005685, -0.029728, -0.046871, -0.002310, 
    0.033775, 0.031751, 0.025945, -0.023845, -0.040137, 0.015449, -0.032092, 0.031835, -0.006560, -0.043295, 
    -0.005579, -0.002071, 0.023090, -0.010937, 0.037239, -0.018003, -0.010368, -0.003477, -0.028288, -0.002606, 
    -0.019771, -0.012873, -0.046056, -0.016919, -0.039223, -0.009250, -0.035571, -0.031693, -0.035012, -0.006559, 
    0.024168, -0.007090, -0.040023, 0.007292, 0.027970, -0.024321, -0.030426, -0.019987, 0.010726, -0.058822, 
    -0.023798, 0.007602, -0.073125, -0.040375, 0.039133, -0.035783, 0.010010, 0.030103, -0.052474, -0.064512, 
    -0.013453, 0.018399, 0.006711, -0.014005, 0.005673, -0.008982, -0.013338, -0.040027, -0.039726, -0.016388, 
    -0.021605, -0.045906, 0.035066, 0.021536, -0.005953, -0.041619, 0.017846, -0.007916, 0.001909, 0.006396, 
    0.014440, -0.043820, 0.022093, -0.020680, -0.044859, -0.006159, -0.021375, 0.036178, -0.012994, -0.002426, 
    0.017156, -0.001741, 0.004662, 0.008283, -0.014382, -0.022714, -0.039616, -0.039073, -0.005480, 0.014895, 
    0.019636, -0.010513, 0.011880, -0.007037, -0.015389, 0.012154, 0.008108, -0.052445, 0.026610, -0.023403, 
    -0.012059, -0.052168, -0.047252, 0.009660, -0.006086, 0.023223, -0.015594, -0.041596, -0.034661, 0.006908, 
    -0.053396, -0.051239, 0.037462, 0.033927, 0.012012, 0.001608, -0.037400, -0.049929, -0.033594, -0.007673, 
    0.011240, 0.019501, 0.020566, -0.000399, 0.027774, 0.010724, -0.012295, -0.044993, -0.021488, -0.010560, 
    0.002278, 0.019865, -0.033291, 0.024541, -0.036481, 0.033584, -0.013911, 0.023454, 0.044436, 0.022768, 
    0.024245, 0.027644, 0.026766, 0.018615, 0.000826, -0.013461, 0.024623, 0.018360, 0.032360, -0.047698, 
    -0.002353, 0.024784, 0.019657, 0.030633, -0.000608, -0.025143, -0.043361, 0.006000, -0.013829, 0.019889, 
    -0.012169, -0.045372, -0.040683, -0.049782, -0.037582, -0.005926, -0.036677, 0.005611, -0.027482, 0.016426, 
    0.018768, -0.018225, -0.018145, 0.018804, -0.052810, -0.023250, -0.059341, 0.006434, -0.042339, 0.017498, 
    -0.052666, 0.032373, 0.001182, -0.019928, 0.032128, -0.011336, -0.014002, -0.010018, 0.004550, -0.004915, 
    -0.041388, 0.012631, 0.016862, 0.033680, -0.015873, -0.020353, 0.012369, 0.002693, -0.015911, -0.034965, 
    0.008151, -0.029128, -0.009453, -0.067148, -0.029345, 0.015648, -0.026546, -0.071540, -0.059123, -0.080822, 
    -0.023205, -0.039328, -0.010191, 0.005018, -0.064206, -0.064178, -0.065040, -0.034732, -0.027065, -0.056992, 
    -0.054814, 0.011961, -0.015529, -0.033430, 0.009825, -0.046570, -0.045606, 0.025593, 0.017767, -0.047468, 
    0.018167, -0.032781, 0.010015, 0.035197, -0.019923, -0.037985, -0.007240, 0.012537, 0.019567, 0.041148, 
    0.040249, 0.021060, -0.062668, -0.023828, -0.051418, 0.026536, 0.034656, -0.035666, -0.039646, 0.003224, 
    -0.044704, -0.000695, 0.012654, -0.000609, 0.044214, -0.012295, 0.019568, -0.019689, -0.019197, -0.039865, 
    -0.023384, 0.000207, -0.037547, -0.056848, -0.029628, -0.040471, -0.028298, -0.024786, -0.025006, -0.002714, 
    -0.000475, -0.031534, -0.066620, -0.016538, -0.048725, -0.007575, -0.053838, -0.025136, -0.006462, 0.025722, 
    0.024288, -0.010217, -0.006454, -0.041767, -0.051829, -0.041577, -0.025025, -0.058488, -0.022728, 0.023242, 
    -0.024682, -0.032500, -0.033453, -0.004472, 0.003590, -0.077112, -0.047952, -0.052196, -0.022785, -0.082602, 
    -0.034095, -0.008598, -0.053973, -0.006818, -0.039931, 0.047279, 0.032353, 0.025502, 0.016413, 0.021618, 
    0.014089, -0.019454, -0.032442, -0.049983, 0.010264, -0.076140, -0.058250, -0.055502, -0.022248, -0.054114, 
    -0.037356, -0.070875, 0.019952, -0.073342, -0.007118, -0.003387, -0.020844, 0.039484, -0.043805, -0.014644, 
    -0.007419, -0.037277, -0.057776, -0.007170, -0.070561, -0.011343, -0.056953, 0.007586, -0.015278, -0.001233, 
    0.005277, 0.033857, -0.039887, -0.000523, -0.070956, -0.005991, 0.042493, -0.035228, -0.054186, -0.007482, 
    -0.065076, 0.040430, -0.030326, -0.017118, 0.005316, -0.053884, 0.013162, 0.042340, 0.015410, 0.012681, 
    0.015874, -0.007001, -0.082887, -0.063548, -0.033972, -0.036391, 0.025651, -0.042915, -0.030434, 0.001768, 
    -0.033415, -0.013304, 0.009045, -0.020796, 0.020171, -0.044965, -0.018280, -0.009913, 0.025112, -0.036797, 
    0.007703, -0.015913, -0.026896, 0.008784, 0.025682, -0.028664, 0.021670, 0.037890, 0.033248, -0.010373, 
    0.015669, -0.026334, -0.061903, -0.004922, 0.002777, 0.008939, -0.041801, -0.025771, 0.012021, 0.020257, 
    0.036323, -0.014248, 0.025917, -0.034811, 0.018756, 0.032904, -0.008627, -0.024717, -0.021223, -0.080303, 
    0.003481, 0.029448, 0.014658, -0.021734, 0.032429, 0.035061, 0.017588, -0.055027, -0.031818, -0.059704, 
    0.037701, -0.041438, 0.003011, -0.051861, 0.027259, -0.002984, 0.008976, 0.000255, -0.026672, -0.035615, 
    -0.014450, -0.038044, 0.002184, -0.053993, -0.012397, 0.028672, -0.047004, -0.017669, -0.049574, -0.025643, 
    -0.022218, -0.038049, 0.026909, -0.029393, 0.018047, -0.024945, 0.014425, -0.001668, 0.001881, -0.062820, 
    -0.024354, -0.044746, -0.040971, -0.042925, -0.036162, -0.026403, -0.071942, -0.065790, -0.052607, -0.017070, 
    -0.023352, -0.050443, -0.017379, 0.000851, -0.053234, -0.055693, -0.011967, -0.059104, -0.073928, -0.031444, 
    -0.011425, -0.024578, -0.038295, -0.035408, -0.034242, -0.043672, -0.035763, -0.012853, -0.067554, -0.055210, 
    -0.080891, -0.019529, -0.075153, 0.002809, -0.065647, -0.004733, -0.031021, -0.000422, -0.026400, -0.012211, 
    -0.066396, -0.017484, 0.004517, -0.035069, -0.036486, 0.001510, -0.075739, -0.056640, -0.030840, -0.076653, 
    -0.016459, -0.058244, -0.025183, -0.037126, 0.031740, -0.027113, -0.042116, -0.040373, -0.001819, -0.011264, 
    -0.071257, -0.027170, -0.029203, 0.022064, -0.019708, 0.013740, 0.021993, -0.004069, 0.014444, -0.059866, 
    -0.105721, 0.022513, -0.000404, 0.004933, -0.067221, -0.033479, -0.060998, 0.005345, -0.045250, -0.047006, 
    0.020168, -0.015574, -0.012257, 0.025425, 0.038387, -0.017512, -0.020490, -0.018374, 0.037092, 0.027753, 
    0.012981, -0.001760, -0.034416, 0.013159, -0.015850, -0.076675, 0.001666, -0.044949, -0.014982, 0.007804, 
    -0.010949, -0.008778, -0.024949, -0.029464, 0.027578, -0.019656, -0.023565, -0.041334, -0.060945, -0.058428, 
    -0.071374, -0.018203, -0.001549, -0.033564, 0.003711, -0.076938, -0.050033, 0.021015, 0.005724, 0.018801, 
    0.003046, 0.015306, -0.026866, 0.010078, -0.048657, -0.037019, -0.046466, -0.030431, 0.015626, -0.044513, 
    -0.039458, -0.052438, -0.009727, 0.021000, 0.028536, -0.009267, 0.014905, 0.011481, 0.026187, -0.012056, 
    -0.031533, -0.035603, 0.026370, 0.028334, -0.027580, -0.030898, -0.074215, -0.029334, -0.078850, -0.046367, 
    -0.069427, -0.000317, -0.049193, -0.082458, -0.049930, -0.080054, -0.063554, 0.005635, 0.023285, -0.014186, 
    -0.027817, 0.032125, -0.017638, -0.077433, -0.015047, 0.014109, 0.016761, 0.040571, 0.026991, 0.000690, 
    -0.048604, 0.007008, 0.004602, 0.038967, 0.002206, -0.041220, 0.022525, 0.004443, -0.036761, -0.051772, 
    -0.025292, 0.007195, -0.042875, -0.002905, -0.054939, -0.045381, -0.038324, -0.023334, -0.024789, 0.015700, 
    -0.023133, -0.014955, -0.025987, -0.057493, -0.062389, -0.018671, -0.071894, 0.009452, -0.003838, -0.030423, 
    -0.075085, -0.112714, -0.149756, -0.073509, -0.088047, -0.041966, -0.029217, -0.132821, -0.248144, -0.103299, 
    -0.058819, -0.061355, 0.017842, -0.025210, -0.097921, 0.156495, 0.137670, 0.027861, 0.032542, 0.140507, 
    0.041824, 0.073386, 0.172414, 0.094703, 0.125182, 0.118832, 0.142461, 0.194338, 0.182031, 0.216774, 
    0.030486, -0.046282, 0.015766, 0.039834, 0.040123, 0.040913, 0.000767, -0.005884, 0.051853, 0.159316, 
    0.113478, 0.069735, 0.098576, 0.158124, 0.135345, -0.054038, -0.042983, 0.000135, -0.000869, -0.053469, 
    0.018120, 0.067932, -0.123044, 0.001721, 0.037894, 0.036094, -0.016121, 0.131818, 0.142548, 0.090714, 
    -0.009531, -0.083174, -0.046628, -0.109491, -0.041543, -0.047328, -0.107248, -0.063868, -0.021604, 0.046897, 
    -0.058499, 0.018790, 0.032549, -0.095513, -0.086896, 0.133566, 0.252003, 0.125026, 0.088370, 0.148470, 
    0.081174, -0.003341, 0.108856, 0.098366, 0.137269, 0.139691, 0.085244, 0.047823, 0.028207, 0.068884, 
    -0.025486, 0.032723, 0.055562, 0.158545, 0.051378, -0.114985, -0.107102, 0.000248, 0.039215, 0.130144, 
    -0.054923, -0.012187, 0.059718, -0.073908, -0.113307, 0.085930, 0.153339, 0.096175, 0.046789, 0.176520, 
    0.132039, 0.056328, 0.159166, 0.183756, 0.189899, 0.028185, 0.095388, 0.179892, 0.237388, 0.248186, 
    -0.224750, -0.173717, -0.082800, -0.089394, -0.062790, -0.139762, -0.148811, -0.115847, -0.113299, -0.118182, 
    -0.036977, -0.031877, -0.136463, -0.255350, -0.216918, -0.158391, -0.198944, -0.204181, -0.261756, -0.253990, 
    -0.229151, -0.248654, -0.118341, -0.162241, -0.118327, -0.291875, -0.355328, -0.337529, -0.305230, -0.098649, 
    0.069149, 0.126539, 0.047621, -0.019629, 0.054834, 0.012309, 0.005544, 0.054076, 0.068288, 0.082292, 
    0.040223, 0.125396, 0.130694, 0.137081, 0.130623, -0.024027, 0.141205, 0.132275, 0.094108, 0.030978, 
    0.050590, 0.008478, 0.129608, 0.189800, 0.110837, 0.133836, 0.221435, 0.081743, 0.046621, -0.058276, 
    -0.095043, -0.019396, -0.110229, -0.118979, -0.145884, -0.182206, -0.167844, -0.154886, -0.215547, -0.423486, 
    -0.235289, -0.037231, -0.054963, -0.033769, -0.042308, 0.024423, 0.099924, -0.043259, 0.045071, 0.119573, 
    0.072373, -0.031986, 0.152429, 0.095754, -0.058425, 0.075729, -0.043946, -0.024506, -0.053393, -0.093547, 
    -0.014729, 0.146567, 0.257326, 0.204361, 0.438913, 0.203446, 0.141734, 0.157310, 0.346045, 0.255284, 
    0.257721, 0.451266, 0.328405, 0.297375, 0.030237, -0.076872, -0.029030, -0.119267, -0.172615, -0.061364, 
    -0.143235, -0.251125, -0.023508, 0.061275, 0.016805, 0.014784, -0.091396, -0.081377, -0.141135, -0.066945, 
    0.058887, -0.095408, -0.145397, -0.069369, -0.063138, -0.023172, -0.144855, -0.049226, -0.073013, -0.087552, 
    -0.082560, -0.135338, -0.058589, -0.092466, -0.078522, -0.004216, 0.061756, -0.044559, 0.083699, -0.115720, 
    -0.061934, -0.055268, -0.092688, -0.086249, 0.078220, 0.167498, 0.140234, -0.070091, 0.137757, -0.118598, 
    0.143779, 0.147037, 0.161794, 0.041275, 0.156889, 0.085354, 0.075023, 0.129824, 0.247145, 0.197399, 
    0.082584, 0.109473, 0.140198, 0.100452, 0.191790, -0.087212, -0.140482, -0.107203, -0.036514, 0.038453, 
    0.015198, 0.082201, 0.088149, 0.129721, 0.043969, -0.030484, -0.019768, 0.050612, 0.081480, 0.111648, 
    -0.111780, -0.104242, -0.131755, -0.026469, -0.085247, -0.156374, -0.089371, -0.081701, -0.110187, -0.070998, 
    -0.028278, 0.029188, -0.118648, -0.187049, -0.220413, -0.220172, -0.197137, -0.083187, -0.059771, -0.168875, 
    -0.223065, -0.106261, -0.115360, -0.313365, -0.230432, -0.072610, -0.149329, -0.244731, -0.287596, -0.286533, 
    0.017857, 0.171262, 0.063615, 0.059641, 0.090622, 0.014372, -0.071919, 0.063236, 0.069745, 0.079171, 
    0.109808, 0.076966, 0.099816, 0.062758, 0.013481, 0.065852, 0.244982, 0.169235, 0.257975, 0.002133, 
    -0.010257, 0.093865, 0.144509, 0.255972, 0.167580, 0.248344, 0.340512, 0.241321, 0.219799, 0.113229, 
    -0.057365, 0.006545, -0.050477, 0.004926, 0.007532, -0.032800, -0.066069, 0.027760, -0.044410, 0.098623, 
    -0.008975, -0.029881, 0.056953, -0.043806, -0.060583, 0.072908, 0.164363, 0.198169, 0.091860, 0.061700, 
    0.056628, -0.075698, 0.127311, 0.122759, 0.082753, 0.126325, 0.138985, 0.135135, 0.131303, 0.037016, 
    0.008383, 0.229882, -0.010289, 0.093488, -0.136129, -0.142118, -0.072646, 0.002761, -0.036675, 0.124506, 
    -0.105072, 0.046816, 0.046784, 0.010977, 0.019022, 0.045659, 0.008008, 0.127714, 0.003780, 0.106956, 
    0.162294, 0.023778, -0.017994, 0.122757, 0.195275, 0.019547, 0.076332, 0.124893, 0.064323, 0.144207, 
    -0.322000, -0.275617, -0.284822, -0.220446, -0.093883, -0.183255, -0.244619, -0.177245, -0.249688, -0.165232, 
    -0.188501, -0.152212, -0.222198, -0.327404, -0.257675, -0.019672, -0.202137, -0.007250, -0.058118, -0.050018, 
    0.039938, -0.038631, -0.156726, -0.001651, 0.072115, 0.092177, 0.070053, 0.119200, 0.022482, -0.055668, 
    0.143767, 0.151389, 0.176657, 0.243071, 0.120057, 0.142979, 0.031548, 0.149339, 0.178263, 0.040207, 
    0.187210, 0.060305, 0.270505, 0.229477, 0.189400, -0.062599, 0.016843, -0.022741, 0.064356, 0.134194, 
    -0.012235, 0.033979, -0.058687, -0.032110, -0.020778, 0.025248, 0.002002, 0.147971, 0.079309, -0.039288, 
    -0.058513, 0.044541, 0.018514, -0.088671, 0.036028, -0.023033, -0.026593, -0.049313, 0.065625, 0.043919, 
    -0.079489, -0.055193, -0.048286, -0.025620, -0.089536, 0.059321, 0.028280, 0.111837, 0.023363, 0.083077, 
    0.004551, 0.106614, 0.137871, 0.065115, 0.157093, 0.119956, -0.072596, 0.073487, 0.017470, 0.001630, 
    0.040350, -0.055297, -0.060562, -0.046486, 0.001947, 0.012193, -0.102517, -0.048947, 0.081253, 0.036418, 
    -0.044345, 0.001828, 0.094952, -0.030899, 0.028736, -0.004465, 0.059579, 0.070814, -0.058966, -0.057382, 
    -0.001609, -0.034758, -0.071324, 0.141251, 0.066341, -0.052405, -0.045657, -0.024231, 0.005825, 0.022090, 
    0.100874, -0.052034, -0.081520, 0.026691, 0.002554, 0.021923, -0.017887, 0.006707, 0.063226, -0.082771, 
    0.094661, 0.000155, -0.014980, -0.085290, -0.067304, 0.091314, 0.135246, 0.180736, 0.170827, 0.108518, 
    0.026599, 0.172111, 0.290434, 0.097884, 0.173597, 0.348883, 0.191446, 0.179661, 0.250844, 0.093941, 
    -0.106310, -0.148104, -0.139852, -0.119478, -0.170329, -0.166639, -0.090587, -0.040782, -0.093106, -0.279239, 
    -0.155470, -0.156342, -0.195358, -0.265102, -0.213110, -0.085522, 0.035490, 0.014247, 0.104589, 0.042093, 
    -0.009640, 0.069355, 0.124590, 0.044429, -0.064061, 0.131335, 0.061906, 0.084896, 0.001645, -0.032511, 
    -0.111390, -0.100103, -0.050328, -0.111392, -0.078156, -0.056972, -0.059578, 0.007970, -0.099859, -0.118055, 
    0.065107, -0.067289, -0.068869, -0.091275, -0.099893, 0.074203, 0.040498, -0.063525, -0.233672, -0.076046, 
    -0.102029, -0.028666, -0.100313, -0.052852, 0.074645, 0.111712, 0.029557, -0.064175, 0.169440, -0.020223, 
    -0.056058, -0.142103, 0.051831, 0.042348, 0.088664, -0.017732, 0.034442, 0.092403, 0.085612, 0.122165, 
    0.043272, 0.012071, -0.048737, -0.081392, -0.086094, 0.030635, -0.114966, 0.015495, -0.013010, -0.065814, 
    -0.078740, 0.028816, -0.012380, 0.016439, -0.133606, -0.103600, -0.069873, -0.028343, -0.136031, -0.105406, 
    -0.148501, -0.105686, -0.009478, 0.059577, 0.013136, -0.067182, 0.043096, 0.012862, 0.066211, 0.111301, 
    0.010718, -0.039799, -0.139300, -0.190530, -0.079171, 0.119048, -0.078953, 0.021036, 0.104105, 0.088678, 
    -0.048357, 0.142037, 0.088530, 0.077486, 0.007272, 0.198509, 0.082124, 0.025757, 0.109017, -0.015583, 
    -0.017756, -0.016175, 0.080233, -0.028830, 0.028926, -0.037063, 0.063212, 0.008740, 0.082563, 0.073041, 
    -0.097312, 0.003972, 0.115417, -0.059189, -0.004040, 0.031429, 0.041512, -0.013207, 0.151129, 0.050029, 
    0.096289, 0.082425, 0.144033, -0.021581, -0.029065, -0.013088, 0.064296, 0.054899, -0.028318, -0.006858, 
    -0.016250, 0.022351, -0.110922, 0.023654, -0.023081, -0.069115, -0.001365, -0.118457, -0.065702, -0.076692, 
    0.015443, -0.075628, -0.052317, -0.142936, -0.088980, -0.009638, -0.086099, -0.073292, -0.102491, -0.066324, 
    0.023742, 0.039773, -0.043844, -0.140093, -0.112046, -0.065572, 0.017010, -0.036130, 0.040723, 0.005076, 
    0.059224, 0.037359, 0.052054, 0.014281, 0.016531, -0.066509, -0.038330, 0.017617, 0.080155, 0.125161, 
    0.068454, 0.120015, 0.140442, 0.012169, 0.048873, -0.055141, -0.159946, -0.092835, 0.016171, -0.052504, 
    -0.131827, -0.080623, -0.143516, -0.064548, 0.010031, -0.061787, -0.131690, -0.117310, -0.107849, -0.151806, 
    -0.036846, -0.088228, -0.086555, -0.155247, -0.058680, -0.070983, -0.048195, 0.062147, -0.058812, -0.063157, 
    -0.054878, -0.117700, -0.017073, -0.131546, -0.029126, -0.065522, -0.079522, -0.101860, -0.059066, -0.119842, 
    -0.134853, -0.029236, 0.005854, -0.149397, -0.176865, -0.010877, 0.039236, 0.009118, -0.048610, 0.020846, 
    -0.005711, -0.044159, 0.009727, -0.026920, -0.000868, -0.042481, 0.024297, -0.009207, 0.064386, 0.042502, 
    0.070547, 0.045186, -0.020738, -0.030977, -0.028045, 0.115325, 0.085638, 0.073705, 0.267286, 0.140971, 
    0.082368, 0.179339, 0.227863, 0.131565, 0.051263, 0.241978, 0.230755, 0.193108, 0.157905, -0.013080, 
    -0.104678, -0.073202, 0.020899, 0.147536, 0.004911, -0.037643, -0.003617, 0.165008, -0.020884, 0.031916, 
    0.059147, -0.017556, -0.062494, -0.035441, -0.053804, -0.051019, -0.104023, -0.023830, 0.071123, 0.038452, 
    0.028677, 0.039009, 0.111910, 0.050101, -0.036774, 0.063425, 0.140729, -0.073028, -0.054020, -0.038419, 
    -0.194144, -0.148948, -0.006296, 0.038328, -0.033288, -0.020566, 0.000025, 0.137043, -0.025493, -0.090874, 
    -0.056179, 0.006875, -0.067091, -0.017667, -0.104535, 0.043790, 0.005491, -0.096750, 0.051623, 0.012963, 
    -0.032858, -0.032835, -0.007456, 0.097043, 0.040112, 0.022536, 0.006911, 0.034820, -0.043502, -0.072341, 
    0.022078, -0.022816, -0.027566, -0.021571, -0.040792, -0.110279, -0.138922, -0.069162, -0.008991, -0.056858, 
    -0.003573, 0.073005, -0.071281, -0.174533, -0.106702, 0.145506, -0.003378, 0.090698, 0.225756, 0.153736, 
    0.161193, -0.006701, 0.110358, 0.077730, 0.025617, 0.066183, 0.259120, 0.234325, 0.140516, 0.113044, 
    -0.097961, 0.008686, -0.009526, 0.138209, 0.017090, -0.043215, -0.000338, -0.022426, 0.062995, 0.088355, 
    0.172347, 0.148692, 0.001983, -0.010749, 0.025174, -0.082283, -0.165444, -0.059858, -0.153018, -0.094717, 
    -0.004773, -0.053055, -0.001516, -0.176590, -0.062900, -0.066047, -0.071114, -0.093190, -0.097359, -0.056834, 
    -0.049997, 0.010742, 0.110372, 0.198686, 0.037418, 0.156597, 0.081910, -0.007387, 0.103344, 0.215696, 
    0.106243, 0.086464, 0.037560, -0.041438, 0.115638, 0.185048, 0.049742, 0.045303, 0.004850, -0.071837, 
    -0.032230, -0.035268, 0.013000, 0.043544, 0.079542, -0.041209, 0.046584, 0.070743, 0.004786, 0.049676, 
    0.117344, 0.066654, 0.062063, 0.045364, -0.001847, 0.096820, -0.034147, 0.011094, 0.170472, 0.010822, 
    0.026785, 0.016244, 0.011325, 0.127152, 0.143050, 0.032586, 0.070993, -0.054564, 0.091527, -0.052093, 
    0.078782, 0.099170, 0.044418, 0.045994, 0.013776, 0.059854, 0.080865, 0.089271, 0.037090, 0.222595, 
    -0.069384, -0.021396, 0.153796, 0.068139, 0.047760, 0.049536, -0.019270, 0.004766, 0.003530, -0.034202, 
    0.127023, -0.030811, 0.048159, 0.036775, -0.029918, 0.157017, 0.100113, 0.192801, 0.314012, 0.323810, 
    0.203638, 0.046464, 0.084269, 0.010630, 0.092048, 0.217563, 0.134484, 0.067896, 0.281256, 0.060653, 
    -0.030572, -0.074302, 0.012025, -0.123211, -0.049281, -0.025569, -0.105974, -0.036717, -0.050097, -0.072978, 
    -0.015205, -0.028431, -0.045408, -0.087279, -0.060771, -0.279421, -0.233803, -0.140210, -0.206198, -0.110305, 
    -0.074019, -0.193474, -0.060397, -0.069486, -0.052323, -0.035105, -0.137153, -0.053137, -0.162964, -0.119730, 
    -0.023928, -0.021460, -0.003422, 0.024141, -0.015626, -0.069122, -0.035992, 0.026931, -0.067659, -0.014354, 
    -0.012017, -0.060617, -0.002159, 0.020957, 0.063938, 0.161828, 0.139591, 0.074162, 0.094233, 0.131646, 
    0.070275, 0.071815, 0.036048, 0.044538, 0.037731, 0.136257, 0.155298, 0.079944, 0.219556, 0.076871, 
    0.050351, -0.121291, -0.070874, -0.016379, -0.008057, -0.034502, 0.009270, 0.046775, 0.037720, 0.090161, 
    0.022459, -0.031065, -0.014962, 0.108686, 0.037769, -0.117576, -0.005533, -0.067335, -0.141247, -0.094425, 
    -0.236945, -0.178031, -0.210490, -0.067617, -0.075599, -0.089112, -0.214458, -0.264005, -0.131220, -0.068590, 
    0.125394, 0.045308, 0.056746, -0.012373, 0.129129, 0.015148, -0.085092, -0.026622, 0.039018, 0.053214, 
    -0.087369, -0.016899, 0.045465, -0.072106, -0.155590, 0.288349, 0.320788, 0.350514, 0.131623, 0.103754, 
    0.187138, 0.243360, 0.143683, 0.176896, 0.273980, 0.263272, 0.003149, 0.221588, 0.380052, 0.279557, 
    -0.274098, -0.288569, -0.333455, -0.229851, -0.403671, -0.425383, -0.248404, -0.278340, -0.391340, -0.198725, 
    -0.132953, -0.300451, -0.339268, -0.320396, -0.168839, 0.403314, 0.390735, 0.482811, 0.427473, 0.361903, 
    0.200404, 0.382355, 0.423604, 0.497603, 0.310804, 0.410415, 0.584881, 0.364550, 0.339662, 0.493825, 
    -0.081384, 0.162554, 0.083980, 0.197730, 0.123613, 0.343836, 0.166785, 0.101937, 0.128988, 0.321237, 
    0.179087, 0.123166, 0.219971, 0.223363, 0.049672, -0.149181, 0.007081, -0.092355, -0.027312, -0.058276, 
    -0.033505, 0.115851, -0.044069, -0.006873, 0.223804, -0.026707, 0.008715, 0.038071, -0.045277, 0.003333, 
    -0.024674, 0.075203, -0.124375, 0.045090, -0.097791, -0.051478, -0.046507, -0.065082, -0.059806, -0.064392, 
    0.078812, -0.006147, -0.058037, 0.142873, 0.175766, 0.042866, 0.026251, 0.062749, -0.082659, 0.003170, 
    -0.013209, 0.119928, 0.061661, 0.214383, 0.185575, 0.091767, 0.020147, 0.129712, 0.100110, 0.091650, 
    0.010214, 0.014784, 0.056498, 0.038809, -0.048403, -0.099946, -0.038391, -0.032265, -0.064237, -0.059591, 
    -0.052144, -0.056358, -0.076442, -0.003880, -0.045763, -0.045648, -0.035438, 0.008197, -0.028948, 0.012085, 
    -0.019857, 0.018996, -0.003399, -0.037571, 0.030437, 0.007770, 0.009017, 0.011768, 0.060136, 0.042253, 
    -0.158447, -0.102950, -0.098391, -0.083951, -0.055601, -0.146197, -0.190642, -0.114829, -0.235386, -0.116367, 
    0.041818, -0.121660, -0.171291, -0.160790, 0.005773, -0.124581, -0.156728, -0.160101, -0.182763, 0.064674, 
    -0.057296, -0.137479, -0.162215, -0.178130, 0.199495, -0.154860, -0.060607, 0.185222, -0.054544, -0.253827, 
    -0.165771, -0.122879, -0.027891, -0.239464, -0.300905, -0.203555, -0.119731, -0.096069, -0.052293, 0.098448, 
    -0.195302, -0.256003, -0.142889, -0.378655, -0.292181, -0.054991, -0.072226, -0.105636, -0.092133, 0.029394, 
    0.010285, -0.040123, 0.117058, 0.008339, 0.086667, 0.027440, 0.122702, 0.076570, 0.091716, 0.028373, 
    -0.139282, -0.176755, 0.033811, -0.018604, -0.124512, -0.077381, -0.095791, -0.174208, -0.098094, -0.036631, 
    -0.100709, -0.118527, -0.199996, -0.160407, -0.097205, -0.033595, -0.039789, -0.027042, -0.051974, -0.020167, 
    0.093950, -0.107808, -0.055604, 0.022733, -0.001832, 0.051937, 0.007930, 0.003801, -0.079237, 0.029174, 
    0.111268, 0.073052, 0.056109, 0.042916, 0.053923, 0.037606, -0.019207, 0.001314, -0.031721, 0.007650, 
    -0.006978, -0.035760, 0.015011, -0.054990, 0.013135, 0.188493, 0.232966, 0.264764, 0.360843, 0.294322, 
    0.305164, 0.394556, 0.455113, 0.416594, 0.450391, 0.356311, 0.416087, 0.473600, 0.342890, 0.426024, 
    -0.258848, -0.252428, -0.432998, -0.355172, -0.362939, -0.339123, -0.278371, -0.248223, -0.312306, -0.225680, 
    -0.277892, -0.277302, -0.233310, -0.349588, -0.101862, -0.084139, 0.049173, 0.092388, 0.034654, 0.238584, 
    0.071256, 0.051726, 0.070165, -0.012995, 0.130014, -0.094578, -0.003450, 0.024580, -0.032709, 0.071182, 
    -0.004075, 0.025657, -0.057438, 0.017811, -0.099673, -0.224423, -0.096746, -0.042003, -0.140267, -0.130449, 
    -0.163061, -0.265968, -0.219864, -0.183666, -0.123842, -0.249352, 0.091565, -0.007213, 0.154430, 0.113699, 
    0.078467, 0.011712, 0.035222, 0.054757, 0.018330, 0.163405, 0.147610, 0.092369, 0.004447, 0.065896, 
    -0.255638, -0.006776, -0.136533, 0.031740, -0.036517, -0.057724, -0.091080, -0.111578, -0.083245, -0.022599, 
    -0.167746, -0.041793, 0.019401, -0.053525, -0.076948, 0.020942, -0.180371, -0.134533, -0.077489, -0.031733, 
    -0.067588, -0.169891, -0.147672, 0.024855, -0.183970, -0.128939, -0.129810, -0.151107, -0.208998, -0.293289, 
    0.027746, -0.004861, 0.016093, 0.048388, 0.077715, 0.135616, 0.182152, 0.081009, 0.059074, 0.148391, 
    0.072177, -0.033509, 0.016564, 0.256680, 0.119978, -0.243187, -0.262936, -0.224672, -0.284864, -0.209978, 
    -0.175896, 0.025067, -0.140243, -0.293151, -0.246753, -0.362832, -0.350881, -0.164832, -0.094958, -0.320166, 
    0.142478, 0.408906, 0.422847, 0.277511, 0.272493, 0.348885, 0.371398, 0.365831, 0.215414, 0.259908, 
    0.310330, 0.292651, 0.412250, 0.271258, 0.263067, -0.193008, -0.257384, -0.206054, -0.082588, -0.122257, 
    -0.144183, -0.069064, -0.339238, -0.260838, -0.057716, -0.079316, -0.102995, -0.312639, -0.241180, -0.192032, 
    0.138648, 0.137567, 0.044490, 0.019810, 0.046246, 0.109285, 0.100003, 0.114326, 0.086172, 0.126278, 
    0.073626, 0.146207, 0.054945, 0.048822, 0.020378, -0.143660, -0.056844, -0.070466, -0.032133, -0.089900, 
    -0.067363, -0.112255, -0.080246, -0.012198, 0.034451, -0.064989, -0.048988, 0.026144, 0.005620, -0.108448, 
    0.049403, 0.145224, 0.173149, 0.076871, -0.001896, 0.124292, 0.116499, 0.080887, 0.006867, 0.075575, 
    0.061601, 0.012983, 0.069716, 0.261312, 0.124926, -0.110855, 0.048551, -0.038548, 0.224119, 0.103343, 
    -0.014700, 0.198603, 0.109437, 0.246384, 0.029149, 0.014166, 0.336045, 0.272205, -0.067084, 0.052996, 
    0.107297, 0.218534, 0.187575, 0.136164, -0.010169, -0.072576, 0.054288, 0.062613, 0.008699, 0.057038, 
    0.087224, -0.001749, -0.010108, 0.231191, 0.177730, 0.014466, -0.165923, -0.215955, 0.090282, 0.085235, 
    0.004136, -0.087801, -0.082888, -0.104710, -0.109850, -0.029460, 0.104263, -0.059350, -0.247417, -0.172339, 
    0.248505, 0.097215, -0.169767, 0.039280, -0.045190, -0.034093, 0.192080, -0.171891, 0.116752, -0.170499, 
    -0.198554, 0.066590, 0.147426, 0.147393, 0.038523, 0.017929, -0.021294, -0.046650, -0.153617, -0.098576, 
    0.093657, -0.014195, 0.037557, -0.172901, -0.111236, -0.040039, -0.314940, -0.029713, -0.111812, -0.075454, 
    0.191725, 0.269656, 0.215299, 0.308216, 0.163650, 0.206545, 0.062315, 0.059556, 0.159691, 0.191473, 
    0.333791, 0.218068, 0.027707, 0.219747, 0.135762, 0.292832, 0.259658, 0.154717, 0.158399, 0.249926, 
    0.252411, 0.406583, 0.353238, 0.396121, 0.094504, 0.244634, 0.352041, 0.198509, 0.249597, 0.444685, 
    -0.056662, -0.045850, -0.063132, -0.081550, -0.063907, 0.009051, -0.058681, -0.138674, -0.060241, -0.083437, 
    -0.018287, -0.029605, 0.096824, -0.084966, -0.058191, 0.181944, 0.317951, 0.175284, 0.238972, 0.316979, 
    0.280163, 0.300864, 0.313253, 0.230031, 0.301642, 0.177253, 0.215951, 0.455328, 0.198052, 0.491741, 
    0.097631, 0.104230, 0.086965, 0.086655, 0.057866, 0.121708, 0.056127, 0.118021, 0.122434, 0.087719, 
    0.131217, 0.105427, 0.181609, 0.076478, 0.026654, 0.096402, 0.086149, -0.019063, -0.008067, 0.062641, 
    0.022329, 0.086827, 0.031652, 0.062417, 0.082907, 0.058329, 0.037770, 0.090028, 0.062653, 0.060015, 
    0.013468, -0.064054, -0.151373, -0.084472, -0.022514, 0.038272, 0.082305, -0.068215, 0.126491, -0.011765, 
    -0.001923, 0.156975, -0.031388, 0.057577, 0.029668, -0.203716, -0.333445, -0.258127, -0.208280, -0.420286, 
    -0.387135, -0.061812, -0.307085, -0.231883, -0.255010, -0.248066, -0.351365, -0.617494, -0.260220, 0.018022, 
    0.083509, 0.304434, 0.468448, 0.139294, 0.191566, 0.294341, 0.304141, 0.291744, 0.197038, 0.120968, 
    0.239644, 0.251342, 0.421068, 0.499853, 0.484754, -0.155020, -0.254877, -0.260409, -0.099779, -0.252196, 
    -0.083075, -0.094493, -0.205711, -0.249907, -0.289387, -0.204672, -0.459862, -0.348079, -0.202229, -0.204347, 
    -0.107241, -0.121290, 0.034469, -0.007303, 0.008043, 0.067881, -0.013888, 0.008682, -0.114212, -0.056787, 
    0.054917, -0.074457, 0.085764, 0.061188, 0.035365, -0.057322, -0.037619, 0.060641, -0.037220, 0.061356, 
    0.017427, 0.100318, 0.133937, 0.185077, 0.177270, -0.007998, 0.038246, 0.056425, 0.138210, -0.100426, 
    0.044616, 0.086253, 0.095591, -0.025946, 0.071915, 0.015938, 0.069591, 0.130770, 0.114281, 0.151401, 
    0.080919, 0.131566, 0.170261, 0.130661, 0.004704, -0.126178, -0.319240, -0.339436, -0.298910, -0.280080, 
    -0.222415, -0.121511, -0.074243, -0.339255, -0.303294, -0.184906, -0.247123, -0.320235, -0.292572, -0.027335, 
    0.154876, 0.154685, 0.258660, 0.252671, 0.220943, 0.333063, 0.280130, 0.236424, 0.050892, 0.129712, 
    0.174154, 0.234680, 0.111443, 0.189811, 0.026601, 0.388012, 0.464647, 0.432810, 0.238275, 0.375771, 
    0.294495, 0.321421, 0.476440, 0.406240, 0.363135, 0.414601, 0.531842, 0.319361, 0.320689, 0.465559, 
    -0.164131, -0.181134, -0.155256, -0.022129, 0.081272, 0.102046, 0.007569, -0.120123, -0.049222, -0.084967, 
    -0.067077, -0.079483, -0.041409, -0.027830, -0.096016, 0.063648, -0.002752, -0.005973, 0.007114, -0.027915, 
    -0.063749, -0.098059, -0.008497, -0.023504, 0.129771, -0.000565, 0.135493, 0.129716, 0.220401, 0.179650, 
    0.002640, -0.091404, 0.052502, -0.044188, -0.012499, 0.075703, -0.077669, -0.108106, 0.045255, 0.027203, 
    -0.006514, -0.093240, -0.009961, -0.056073, 0.019211, -0.108876, -0.152956, -0.076239, -0.075890, 0.003801, 
    -0.014166, -0.109277, -0.148146, -0.100801, 0.036087, -0.030692, -0.067695, -0.024698, -0.041050, -0.096640, 
    0.044670, -0.025153, 0.105856, 0.134336, 0.111166, 0.176821, -0.004920, 0.071358, 0.155691, 0.091449, 
    0.076570, 0.002953, -0.001120, -0.109143, -0.060517, 0.168131, 0.155574, 0.197269, 0.266734, 0.348343, 
    0.305645, 0.244222, 0.340681, 0.170259, 0.191281, 0.295266, 0.235721, 0.057946, 0.154815, 0.106185, 
    0.008345, -0.072036, -0.089622, -0.116831, -0.093116, -0.220504, -0.178816, -0.276584, -0.131363, -0.156823, 
    -0.232475, -0.300249, -0.168545, -0.457285, -0.282634, 0.094020, 0.124829, 0.055437, -0.032132, 0.048902, 
    0.109208, 0.015611, 0.074142, 0.099425, 0.196549, 0.025182, 0.044411, 0.166678, 0.097417, 0.075731, 
    -0.063213, 0.012940, 0.078362, 0.041142, 0.066578, -0.001994, 0.057627, 0.026538, -0.008891, -0.034274, 
    -0.035828, -0.096348, -0.110388, -0.100911, -0.091276, -0.181475, -0.196710, -0.100841, -0.099901, -0.034308, 
    0.047577, -0.028303, -0.062994, -0.087967, -0.024361, -0.135644, -0.223799, -0.174748, -0.141896, -0.062279, 
    0.008601, -0.009178, 0.015699, 0.016927, 0.094858, 0.046830, -0.004788, 0.110098, 0.051741, 0.032140, 
    -0.002438, 0.087897, 0.071061, 0.063138, 0.004300, -0.039585, -0.001685, 0.163728, 0.020092, 0.008485, 
    -0.185286, 0.036935, -0.167683, 0.094896, -0.029786, 0.029894, -0.026190, -0.054142, -0.213730, -0.091704, 
    -0.380853, -0.364427, -0.435446, -0.153958, -0.148836, -0.162073, -0.310047, -0.275994, -0.141024, -0.199925, 
    -0.018600, 0.082551, 0.044321, 0.077628, 0.000795, 0.159185, 0.191138, 0.089006, 0.097894, 0.138693, 
    0.152880, 0.068782, 0.207595, 0.212869, 0.101684, 0.093567, -0.051257, 0.011112, 0.135575, 0.013129, 
    -0.091923, -0.010735, 0.176437, 0.098601, 0.222562, -0.035402, 0.148865, 0.023470, 0.198109, 0.144333, 
    0.116940, 0.183450, 0.281612, -0.048336, 0.066588, 0.026275, 0.002679, -0.012669, -0.012787, -0.042864, 
    -0.084625, -0.108900, -0.032443, 0.084254, -0.034557, 0.006311, -0.075473, 0.018592, 0.016563, -0.134894, 
    0.091636, 0.003442, -0.083090, -0.099346, -0.127645, -0.028347, -0.045253, 0.053251, 0.047463, -0.023091, 
    -0.062149, -0.069860, 0.018541, -0.032625, -0.098754, -0.040803, -0.134220, -0.262558, -0.008458, -0.156741, 
    -0.090180, 0.004635, -0.201017, -0.431875, -0.170575, 0.002349, -0.106913, -0.212855, -0.055579, -0.063732, 
    0.095276, 0.059225, 0.053944, -0.004227, 0.075017, -0.000545, -0.059863, -0.005697, 0.084186, 0.069830, 
    0.007298, 0.003296, 0.115711, -0.020027, 0.059022, -0.084098, -0.047386, -0.066741, -0.220976, -0.090505, 
    -0.123366, -0.293236, -0.221072, -0.129400, -0.161578, -0.190970, -0.087491, -0.205231, -0.370935, -0.184187, 
    -0.099789, -0.135621, 0.066606, 0.058499, 0.066970, -0.177496, 0.153580, -0.040061, -0.140063, -0.111037, 
    -0.119382, -0.070038, -0.060803, -0.306286, -0.200641, -0.074217, -0.088301, 0.014758, 0.082705, -0.078468, 
    -0.158397, -0.091644, -0.141072, -0.144376, -0.187950, -0.102432, -0.024444, -0.164031, -0.173587, -0.189967, 
    0.031544, 0.204765, 0.084754, 0.146098, 0.146077, 0.082527, 0.033953, 0.217328, 0.099123, 0.152300, 
    0.122565, 0.077954, 0.110195, 0.011636, 0.023952, 0.079645, 0.161555, -0.066527, 0.126855, 0.036213, 
    -0.071165, 0.079714, 0.044646, -0.039600, 0.162536, 0.107455, 0.332476, 0.203945, 0.262036, 0.032372, 
    -0.050956, -0.028808, 0.111327, 0.106076, 0.152933, -0.000061, -0.001871, 0.067107, -0.005518, 0.097904, 
    0.007304, 0.043755, 0.015640, -0.077665, 0.017087, 0.081878, 0.097233, 0.082126, 0.008780, -0.016662, 
    -0.022680, 0.004617, 0.043737, 0.020051, 0.044358, 0.028164, 0.079492, 0.075367, -0.044047, -0.017006, 
    0.027353, 0.065784, 0.020746, 0.140651, 0.088784, -0.086431, 0.117617, 0.076797, -0.141123, 0.007594, 
    -0.138955, 0.056460, -0.025508, 0.026293, 0.094356, 0.132486, -0.003014, 0.079287, 0.067645, 0.085877, 
    0.099980, -0.083708, -0.069398, 0.056001, 0.133391, 0.043700, -0.019182, 0.088919, 0.029486, 0.046270, 
    -0.208844, -0.072578, -0.084878, 0.020220, 0.036728, 0.049608, -0.054902, 0.016008, 0.020457, -0.072385, 
    0.021198, -0.065318, -0.076238, -0.193795, -0.134343, 0.079166, 0.065988, 0.087309, -0.005997, 0.023820, 
    0.162208, 0.074221, -0.021083, -0.032404, 0.160739, 0.161318, 0.105354, 0.180996, 0.099153, -0.037547, 
    0.144422, 0.089156, 0.061875, 0.069356, 0.062918, 0.214759, -0.048009, 0.123821, 0.062573, 0.004466, 
    0.137879, -0.012629, 0.131943, 0.134434, -0.046842, -0.072886, 0.021002, -0.136151, -0.201432, 0.020168, 
    0.000403, -0.075114, -0.063253, -0.192358, -0.221680, -0.171068, -0.151973, -0.114226, -0.198227, -0.027264, 
    -0.243384, -0.327566, -0.240887, 0.053057, -0.110842, -0.245111, -0.221140, -0.325032, -0.292539, -0.314176, 
    -0.251258, -0.346971, -0.376694, -0.362717, -0.119398, 0.288858, 0.005165, -0.289810, -0.069354, -0.337794, 
    -0.326705, -0.245118, -0.370701, -0.204967, -0.225779, -0.506863, -0.464498, -0.426764, -0.382304, -0.316731, 
    0.174371, 0.286229, 0.362828, 0.195303, 0.136980, 0.396661, 0.278306, 0.299093, 0.238668, 0.395940, 
    0.182619, 0.100003, 0.385790, 0.429793, 0.564722, 0.290737, 0.180479, 0.071819, 0.246253, 0.179343, 
    0.113851, 0.231748, 0.004953, 0.119841, -0.071171, 0.127656, 0.055401, 0.188916, 0.370651, 0.520121, 
    -0.227670, -0.183760, 0.085769, 0.065537, 0.110885, 0.052316, 0.136375, 0.025009, -0.211336, -0.080915, 
    0.015221, -0.191209, -0.265733, -0.351989, -0.349541, 0.201928, 0.332287, 0.297307, 0.281101, 0.326413, 
    -0.003719, -0.450345, -0.273800, -0.466531, -0.157462, -0.188310, -0.442052, -0.370418, -0.306085, -0.322535, 
    -0.197425, -0.065549, 0.090831, 0.186398, 0.004814, 0.104621, -0.109289, -0.019651, -0.053900, -0.132204, 
    -0.153314, -0.048938, -0.079517, -0.075216, -0.010161, -0.133066, -0.143025, -0.068584, -0.150564, -0.027528, 
    -0.107114, -0.328921, -0.220742, -0.005634, -0.121662, -0.161563, -0.192553, -0.163920, -0.291510, -0.269213, 
    0.076613, 0.005878, 0.176290, 0.104095, 0.064409, -0.011776, 0.035459, 0.031626, 0.011188, -0.008507, 
    0.031332, -0.004529, 0.018713, 0.038042, 0.087991, 0.121313, 0.125178, -0.017728, -0.017408, 0.084848, 
    0.104244, 0.003037, -0.028468, -0.001814, -0.043774, 0.089005, 0.106105, 0.054613, 0.036453, 0.017354, 
    0.099649, 0.039400, 0.054186, 0.046338, 0.038668, 0.108158, 0.167937, -0.071482, -0.075575, -0.096680, 
    -0.416011, -0.445553, -0.289238, -0.210032, -0.222165, 0.162874, -0.022431, 0.088036, -0.025426, -0.038965, 
    0.078233, -0.208282, 0.187574, -0.130575, 0.175875, -0.055120, 0.011734, 0.012067, 0.074643, 0.057543, 
    0.013188, -0.124150, -0.200397, -0.340708, -0.169269, -0.485161, -0.409771, -0.403918, -0.442097, -0.257571, 
    -0.534476, -0.467240, -0.347923, -0.398299, -0.468744, -0.413183, -0.471681, -0.191085, -0.498249, -0.352670, 
    -0.367835, -0.548328, -0.539682, -0.628251, -0.530191, -0.563356, -0.390922, -0.322229, -0.188730, -0.485551, 
    -0.035234, -0.391230, -0.053755, 0.074841, -0.274745, -0.220380, -0.404451, 0.298252, -0.247637, 0.096471, 
    0.126823, -0.161327, 0.002949, -0.067802, -0.199387, 0.348005, 0.431277, 0.404022, 0.395425, 0.413443, 
    0.198454, 0.512668, 0.636122, 0.659099, 0.474675, 0.440914, 0.707315, 0.575391, 0.356326, 0.703036, 
    -0.045089, -0.028828, -0.107639, 0.052628, -0.043926, 0.113605, -0.075586, 0.012240, -0.269483, -0.244772, 
    -0.028526, -0.055672, 0.076386, 0.166667, -0.401363, 0.023495, 0.128411, 0.196580, 0.173394, 0.001046, 
    -0.124725, 0.040776, -0.035229, 0.036532, 0.176999, 0.124688, 0.099376, 0.002478, 0.081563, 0.179034, 
    -0.011883, 0.087276, 0.026608, 0.024255, -0.028826, 0.137898, 0.139951, 0.051589, -0.050832, 0.050698, 
    0.229543, -0.060730, 0.215943, 0.535509, 0.544191, -0.015492, 0.219684, 0.160682, 0.256597, 0.246475, 
    0.327467, 0.193190, 0.066199, 0.287268, 0.203401, 0.216821, 0.208308, 0.203731, 0.142436, 0.202845, 
    0.017602, 0.029011, 0.086521, 0.083410, 0.042302, 0.027088, -0.038471, 0.075520, -0.025668, 0.061349, 
    0.056276, -0.001812, 0.063115, 0.122332, 0.018217, -0.009507, 0.128487, 0.147186, 0.101488, 0.081412, 
    0.019812, 0.024327, 0.014021, 0.116289, 0.104131, 0.111087, 0.057998, 0.073699, 0.050901, 0.020841, 
    -0.391524, -0.202065, -0.002058, 0.088584, 0.002709, -0.240363, -0.463245, -0.259216, -0.579259, -0.472595, 
    -0.151470, -0.375899, -0.378515, -0.193692, -0.068005, -0.033317, -0.156896, 0.073282, -0.256787, -0.174917, 
    -0.309866, -0.226915, -0.106391, -0.300689, -0.015260, -0.240303, -0.370437, -0.210527, -0.128283, -0.170552, 
    -0.247834, -0.016699, -0.147355, -0.210703, -0.367162, -0.079581, 0.029587, -0.225378, 0.017193, -0.007926, 
    -0.190910, -0.407281, -0.456673, -0.492246, -0.534003, -0.051406, 0.017939, 0.195921, 0.166256, 0.079168, 
    -0.065338, -0.127311, 0.307275, 0.054612, 0.174582, -0.047554, 0.153727, 0.129185, 0.216625, 0.048769, 
    -0.138438, -0.103268, -0.022614, -0.074791, -0.315841, -0.029098, -0.133532, -0.211403, -0.075837, -0.150832, 
    0.000174, -0.039228, -0.204128, -0.081098, -0.132493, -0.151179, -0.087411, 0.222903, -0.052655, 0.024512, 
    -0.060862, -0.323317, -0.305062, -0.278820, -0.268942, -0.277372, -0.329632, -0.253995, -0.496232, -0.189150, 
    0.110961, 0.088431, 0.023390, 0.099324, 0.067217, 0.087618, 0.013757, 0.071296, -0.003333, -0.017028, 
    0.078616, 0.022674, -0.040200, -0.076289, -0.010667, 0.159154, 0.170286, 0.380506, 0.283884, 0.181403, 
    0.201655, 0.262144, 0.292695, 0.315131, 0.460859, 0.331775, 0.324458, 0.262074, 0.248139, 0.597755, 
    -0.165759, 0.093875, -0.071974, -0.253555, -0.357028, -0.467736, 0.030055, -0.255580, -0.071265, -0.183229, 
    -0.111999, -0.506897, -0.420403, -0.317774, -0.069180, -0.121716, 0.080148, 0.174220, 0.231871, 0.289239, 
    0.238558, -0.080248, 0.019520, 0.007728, 0.062508, -0.039313, 0.069395, 0.107674, 0.050819, 0.159571, 
    0.038685, 0.091108, -0.054969, -0.106503, 0.001713, 0.082637, 0.145934, 0.114948, 0.034502, 0.086531, 
    0.135268, 0.100743, 0.236205, 0.200596, 0.129942, -0.075827, -0.085558, 0.097809, -0.042317, 0.163954, 
    0.245671, 0.091996, 0.066120, 0.066094, -0.050195, 0.088649, -0.008561, -0.015505, 0.030019, -0.220241, 
    0.101412, -0.071818, 0.084148, 0.086508, 0.043531, 0.012489, 0.093020, 0.258206, 0.183845, 0.030920, 
    0.132522, 0.284960, 0.110099, 0.011173, 0.055799, -0.062212, 0.137646, 0.033032, -0.031220, 0.030328, 
    0.037822, 0.149676, 0.267174, 0.063724, 0.245141, 0.095632, 0.130426, 0.099557, 0.028250, -0.041813, 
    0.154577, 0.082460, 0.041215, 0.117973, -0.006643, 0.085294, 0.173630, 0.063872, 0.076205, -0.028116, 
    0.052302, 0.384209, 0.355716, 0.242687, 0.220382, -0.057189, -0.026873, -0.008668, -0.026285, -0.086327, 
    0.199838, 0.265729, 0.266740, 0.360228, 0.222806, 0.433647, 0.375656, 0.312036, 0.428639, 0.567846, 
    0.215767, 0.126396, 0.014637, -0.037902, 0.153416, 0.121671, 0.257071, 0.117676, 0.162673, 0.109625, 
    0.250263, 0.130302, 0.055114, -0.049623, 0.114907, 0.519134, 0.442046, 0.292277, 0.395997, 0.358915, 
    0.309677, 0.384918, 0.436067, 0.446822, 0.117877, 0.347617, 0.400937, 0.440539, 0.516451, 0.286206, 
    -0.084700, -0.087296, -0.088639, -0.078181, -0.036582, -0.090643, -0.030174, -0.059884, 0.074940, -0.009069, 
    -0.003671, 0.023676, 0.021683, -0.023179, -0.106776, -0.114952, -0.196523, -0.028446, 0.009627, -0.047273, 
    -0.119324, -0.135488, -0.110504, -0.241715, -0.169090, -0.161952, -0.119635, -0.124089, -0.189576, -0.159142, 
    0.028695, 0.052460, -0.012565, 0.090017, 0.170490, 0.203009, 0.051576, 0.101084, 0.028961, -0.023786, 
    0.224768, 0.207812, 0.088855, 0.009926, -0.021586, -0.059870, 0.040429, 0.122819, -0.120241, 0.109211, 
    0.250621, 0.079547, -0.110704, -0.018952, 0.207601, 0.193381, -0.052013, 0.133275, 0.211818, -0.018821, 
    -0.008158, 0.013304, -0.104518, 0.054678, 0.088037, 0.184265, 0.138637, -0.004538, -0.031072, -0.101557, 
    0.184165, -0.028980, 0.005537, 0.158632, 0.232922, -0.054936, 0.030976, 0.121327, -0.036543, -0.161278, 
    -0.127201, 0.160729, 0.117844, 0.060025, -0.124143, -0.160125, 0.229618, 0.135105, 0.087153, 0.242201, 
    -0.227629, 0.043957, 0.335695, 0.057060, 0.305874, 0.417367, 0.213346, -0.032920, -0.117503, 0.333312, 
    -0.021663, 0.025475, 0.199177, 0.257137, 0.094794, 0.117930, 0.273701, 0.313309, 0.407715, 0.402565, 
    0.368706, 0.185182, 0.018113, 0.183426, -0.174398, 0.105414, 0.311248, 0.152785, 0.244534, 0.103973, 
    0.073857, -0.004158, -0.049261, -0.214811, -0.245996, -0.295543, -0.062137, 0.020844, -0.078562, -0.166447, 
    -0.373188, -0.238777, -0.144209, -0.297292, -0.050369, -0.046937, 0.027772, 0.035551, 0.026843, 0.112799, 
    0.216735, -0.015970, 0.143806, 0.088776, 0.141321, 0.042351, 0.018017, 0.192216, 0.346240, 0.271665, 
    -0.032414, -0.075505, 0.036399, 0.000512, -0.009744, -0.144333, -0.150611, 0.202379, 0.057896, 0.229274, 
    -0.120816, 0.161540, 0.071675, -0.085386, -0.142534, 0.302755, 0.065804, 0.148101, 0.058712, 0.047007, 
    -0.101910, 0.059900, 0.079660, -0.173854, -0.191619, -0.033299, -0.088867, -0.195147, -0.120335, -0.091695, 
    -0.220638, -0.190297, -0.157701, -0.215091, -0.132352, -0.018022, -0.042973, -0.176567, -0.025800, -0.003652, 
    -0.090937, -0.074412, -0.104819, -0.052584, -0.011793, -0.121493, -0.167889, -0.113158, -0.169713, -0.134969, 
    -0.124888, -0.151531, -0.048581, -0.102672, -0.052342, -0.043652, -0.019168, -0.120754, -0.115896, -0.080816, 
    0.190047, 0.106778, 0.217477, 0.168305, 0.122770, 0.156599, 0.154532, 0.297743, 0.276256, 0.258789, 
    0.172431, 0.373625, 0.639248, 0.161798, 0.258419, 0.108670, 0.114667, 0.042947, 0.361728, 0.416907, 
    0.599972, 0.430899, 0.361863, 0.418849, 0.055947, 0.271917, 0.352602, 0.507668, 0.459609, 0.653607, 
    0.232040, -0.054512, -0.017924, 0.289607, 0.401309, 0.251845, 0.132439, 0.201447, 0.051375, -0.039622, 
    -0.016616, 0.008061, 0.079653, 0.087916, 0.137209, 0.178539, 0.277084, 0.179369, 0.276993, 0.381026, 
    0.456012, 0.520517, 0.527471, 0.631610, 0.332887, 0.463447, 0.484829, 0.532008, 0.386585, 0.608393, 
    0.002926, 0.012415, -0.125088, -0.168230, 0.041472, -0.094666, 0.197930, -0.105395, 0.207254, 0.137023, 
    0.095951, 0.064475, 0.089261, 0.075602, 0.206685, 0.169375, 0.105384, 0.038512, 0.090268, 0.043829, 
    0.112820, 0.270514, 0.176649, 0.007422, -0.102788, 0.113432, 0.138473, 0.217244, 0.177518, 0.142651, 
    -0.122477, -0.140436, -0.082509, -0.096022, -0.132916, -0.062230, -0.113648, -0.136018, -0.128155, -0.056861, 
    -0.177454, -0.120816, -0.082699, -0.123753, -0.054323, 0.082543, 0.129444, 0.007947, 0.116890, 0.151608, 
    0.124552, 0.072267, 0.001609, 0.170961, 0.104995, -0.010395, 0.103694, 0.238906, 0.297249, -0.073405, 
    0.505814, 0.200636, -0.064954, 0.260980, 0.145722, 0.081613, 0.152201, 0.424634, 0.209933, 0.157310, 
    -0.051833, 0.297111, 0.365597, 0.102814, -0.029461, 0.109807, 0.032082, 0.004385, -0.025465, 0.043281, 
    0.115483, 0.282830, -0.042095, 0.038369, 0.044937, 0.090458, 0.017535, 0.006052, 0.126470, 0.176411, 
    0.034420, 0.048496, 0.185242, 0.102596, 0.071715, 0.055689, 0.064086, 0.072278, 0.134877, 0.118072, 
    0.036734, 0.099491, 0.005236, -0.014838, -0.031517, -0.126380, -0.030636, -0.042032, 0.056888, -0.035357, 
    -0.092637, 0.079351, -0.024078, -0.060741, 0.038706, 0.033997, 0.067778, 0.025609, -0.063199, 0.072290, 
    -0.232189, -0.129098, -0.227082, -0.114197, -0.268390, -0.258794, -0.267411, -0.260374, -0.204159, -0.202545, 
    -0.291968, -0.198344, -0.237404, -0.257445, -0.222973, -0.049354, -0.148710, -0.114171, -0.026164, -0.141586, 
    -0.148537, -0.083335, -0.124630, -0.002408, -0.118486, -0.166069, -0.163447, -0.203130, -0.181752, -0.195593, 
    0.046571, 0.039518, 0.083126, 0.080129, 0.022963, 0.085901, 0.037689, -0.010009, 0.061925, 0.074377, 
    0.041723, -0.055713, -0.055138, 0.021781, 0.115761, 0.138997, 0.076924, 0.207647, 0.228406, 0.101657, 
    -0.018730, 0.221520, 0.290457, 0.145402, 0.048986, 0.123655, 0.197274, 0.204229, 0.116424, -0.119146, 
    0.224784, 0.181047, 0.162845, 0.058863, -0.029135, 0.104171, 0.187107, 0.032231, -0.045700, -0.056882, 
    0.002519, 0.031962, 0.086309, -0.025716, 0.085825, -0.193052, -0.136278, -0.052362, -0.113932, -0.099434, 
    -0.078196, -0.071881, -0.166378, -0.004308, -0.076724, 0.042396, -0.093519, -0.143981, -0.326360, -0.182527, 
    0.359737, 0.262098, 0.204780, 0.218184, 0.171220, 0.298044, 0.183008, 0.265368, 0.275371, 0.279910, 
    0.281071, 0.203368, 0.211887, 0.236563, 0.235285, 0.152972, 0.265591, 0.249431, 0.287863, 0.272660, 
    0.204945, 0.218287, 0.251971, 0.329425, 0.339373, 0.323499, 0.329519, 0.235317, 0.298785, 0.216205, 
    0.090668, -0.027832, 0.130594, 0.001557, -0.044396, -0.044185, 0.104007, 0.045441, 0.000543, -0.036713, 
    0.005558, -0.033566, -0.063589, -0.018595, -0.016660, 0.121191, 0.022334, 0.104622, -0.020499, 0.052798, 
    0.022452, 0.098273, -0.019336, 0.067228, 0.039640, -0.069018, 0.109079, 0.142608, -0.045208, 0.072807, 
    0.159518, 0.195350, 0.333831, 0.261910, 0.130335, 0.106955, 0.334253, 0.362575, 0.420827, 0.410832, 
    0.354816, 0.319812, 0.208401, 0.347930, 0.380156, 0.010045, 0.046470, 0.196790, 0.124838, 0.108672, 
    0.148714, 0.143750, 0.121561, 0.119483, 0.355216, 0.306028, 0.293054, 0.096644, 0.102199, 0.172125, 
    0.292090, 0.104822, 0.006971, -0.168063, -0.320676, -0.067679, 0.007326, -0.176516, -0.032621, -0.218458, 
    -0.174026, -0.129114, -0.126214, -0.115521, 0.031298, 0.126517, 0.104678, 0.132775, 0.180341, 0.194808, 
    0.348197, 0.278545, 0.321063, 0.077388, 0.089462, 0.126852, -0.051868, 0.223447, 0.041885, -0.059158, 
    0.164866, 0.233554, 0.245280, 0.307730, 0.111405, 0.193524, 0.277724, 0.097581, 0.224758, 0.351704, 
    0.465094, 0.269552, 0.286706, 0.247164, 0.171017, 0.476165, 0.304158, 0.275047, 0.128741, 0.276473, 
    0.396147, 0.337136, 0.284765, 0.349745, 0.138408, 0.125956, 0.338392, 0.300523, 0.212709, 0.282008, 
    -0.245624, -0.131460, -0.193796, -0.178237, -0.162559, -0.052266, -0.230098, -0.266811, -0.240250, -0.118907, 
    -0.087037, -0.133883, -0.108734, -0.229308, -0.226718, 0.155403, 0.109467, 0.055658, 0.034028, -0.054301, 
    -0.085726, -0.013056, -0.087346, -0.059673, 0.069902, 0.056139, -0.018154, 0.003260, -0.098890, 0.121100, 
    0.349435, 0.315151, 0.351236, 0.210993, 0.171270, 0.315164, 0.214763, 0.191781, 0.334637, 0.276443, 
    0.309332, 0.226077, 0.271525, 0.220891, 0.246548, 0.407117, 0.396469, 0.277155, 0.270253, 0.354233, 
    0.356286, 0.367930, 0.294013, 0.308248, 0.298327, 0.305565, 0.313349, 0.315978, 0.319865, 0.354755, 
    0.102128, -0.005098, -0.067033, -0.110720, -0.043233, -0.030577, 0.087816, -0.142016, -0.000564, 0.001716, 
    -0.037161, -0.114338, -0.183656, -0.067435, -0.094648, 0.121992, -0.043310, 0.038414, -0.150148, -0.164523, 
    0.009714, 0.187579, 0.028464, 0.002370, -0.030719, -0.087745, -0.002425, -0.131240, 0.046118, 0.086015, 
    0.162881, 0.187725, 0.197412, 0.198751, 0.013364, 0.166321, 0.285000, 0.202642, 0.077135, 0.177689, 
    0.196639, 0.229439, 0.277989, 0.184283, 0.314097, -0.051530, -0.169241, -0.237685, -0.121994, -0.101272, 
    -0.118071, -0.127604, -0.237345, -0.203683, -0.294113, -0.231116, -0.325521, -0.322402, -0.261340, -0.184833, 
    0.185588, 0.120803, 0.228479, 0.110329, 0.195568, 0.192783, 0.152962, 0.219624, 0.087386, 0.140463, 
    0.190502, 0.040908, 0.121947, 0.096673, 0.203029, 0.025282, -0.032337, -0.011002, 0.004591, -0.014447, 
    -0.048867, 0.018126, -0.037337, -0.002624, 0.003104, -0.074692, -0.001969, -0.111567, -0.136386, -0.105062, 
    0.251863, 0.263886, 0.324897, 0.242050, 0.251616, 0.174377, 0.215644, 0.274368, 0.361033, 0.295121, 
    0.332958, 0.302652, 0.266104, 0.305486, 0.222159, 0.049202, 0.123042, 0.097917, 0.055763, -0.048187, 
    -0.017771, 0.236348, 0.263252, 0.003455, 0.023288, 0.082145, 0.095025, -0.042470, 0.076481, 0.238902, 
    -0.167320, -0.049142, -0.012881, -0.007317, -0.059248, 0.022135, -0.030745, -0.080822, -0.085466, -0.115933, 
    -0.030583, -0.121790, -0.146008, -0.217216, -0.041882, 0.416522, 0.264995, 0.243560, 0.076117, 0.036978, 
    0.124257, 0.086070, 0.189664, 0.070712, 0.110829, 0.172853, 0.159360, 0.131587, 0.139311, 0.234087, 
    -0.013309, 0.011559, -0.062580, 0.020209, -0.009720, -0.012521, -0.019862, 0.005864, -0.041422, -0.029081, 
    0.013349, 0.009485, -0.017982, 0.018212, 0.026161, -0.051187, -0.004889, -0.049845, 0.013800, 0.022357, 
    -0.016889, -0.022716, -0.031606, -0.012163, -0.020977, -0.008219, -0.046836, 0.021166, 0.021946, -0.011428, 
    -0.002704, -0.029960, -0.044983, -0.008136, 0.001198, -0.030938, -0.038074, -0.047398, -0.040991, -0.044260, 
    -0.006938, -0.050933, 0.019421, -0.016452, 0.010022, -0.057294, -0.030888, -0.034487, -0.031744, -0.015339, 
    -0.013427, -0.005665, -0.021464, -0.051304, -0.043498, -0.043787, 0.036304, -0.017611, 0.030296, -0.008380, 
    -0.041749, -0.064001, -0.023000, 0.018913, -0.006320, 0.013073, -0.031251, -0.020353, 0.006135, -0.046638, 
    0.011265, -0.062894, -0.060326, -0.011986, -0.020859, -0.005851, -0.005285, 0.034379, -0.023602, 0.022883, 
    -0.019732, 0.000545, 0.015438, -0.039432, -0.006136, -0.009007, 0.011983, -0.040476, 0.012433, 0.041639, 
    -0.009927, 0.017061, -0.029343, -0.019559, 0.018769, 0.002749, -0.041901, 0.036875, 0.012152, -0.014298, 
    -0.022606, -0.043781, -0.067941, -0.010546, 0.030204, 0.014574, 0.023333, 0.016290, 0.016824, 0.030757, 
    -0.031887, 0.000894, -0.024741, 0.022723, 0.032346, -0.040752, -0.046055, 0.019728, 0.036344, 0.027983, 
    -0.009486, -0.030500, 0.009834, -0.038466, 0.016366, 0.016246, -0.029621, -0.033659, -0.061229, 0.026299, 
    -0.035797, -0.046706, -0.056104, 0.003375, -0.020976, -0.005006, 0.011475, 0.007010, 0.023872, -0.015252, 
    -0.007030, -0.018308, -0.024829, -0.011380, 0.007591, -0.001243, -0.044527, -0.021002, 0.001262, -0.059736, 
    0.008456, -0.018239, -0.046636, -0.021427, 0.009390, -0.040315, 0.015638, 0.019295, -0.006720, 0.026192, 
    -0.055615, 0.004692, 0.013010, -0.030863, -0.005465, -0.011266, -0.005907, -0.006461, -0.022768, -0.045016, 
    -0.007259, -0.025157, -0.051401, -0.021088, -0.009115, -0.045022, -0.051897, 0.014474, 0.023370, -0.005958, 
    -0.001204, -0.044185, -0.021946, -0.030303, -0.015196, -0.007244, 0.024527, -0.016014, -0.047414, -0.018243, 
    -0.037254, -0.046437, 0.029546, 0.002351, 0.013290, -0.038760, 0.007726, 0.018210, -0.042968, 0.007204, 
    -0.036185, -0.011771, 0.002000, -0.046931, -0.014762, 0.044387, 0.008555, -0.011088, -0.026208, 0.020766, 
    0.001534, -0.024284, -0.037264, 0.013044, -0.005210, 0.019121, -0.036276, -0.039361, -0.018548, -0.016596, 
    0.006538, 0.029043, 0.021907, -0.008578, -0.031277, -0.022233, -0.005000, -0.007721, -0.051275, 0.036996, 
    0.024024, 0.021335, -0.015581, 0.027272, 0.041320, 0.038589, -0.025265, -0.012068, 0.029391, -0.006148, 
    0.005649, 0.018631, -0.013515, -0.024716, 0.002427, -0.034664, -0.042915, -0.018417, 0.025064, -0.040757, 
    0.036697, 0.026051, -0.006275, -0.001033, -0.024817, -0.009596, 0.007459, 0.015104, 0.015958, -0.020029, 
    -0.052721, 0.018941, -0.064758, -0.028040, 0.025572, 0.016284, -0.032831, 0.042861, -0.030525, -0.039894, 
    0.002778, -0.002205, -0.003278, -0.012660, -0.034959, -0.033254, 0.004409, -0.045348, 0.010478, 0.016446, 
    -0.007188, -0.004091, -0.034792, -0.043829, -0.044278, -0.017827, 0.014483, 0.000052, 0.002591, 0.020352, 
    -0.054134, 0.015561, 0.025346, -0.044802, -0.034692, 0.036251, -0.007264, -0.012748, -0.015733, -0.006680, 
    0.016220, -0.051326, -0.048080, -0.005200, 0.012871, 0.017704, -0.067364, -0.023013, -0.027482, 0.004870, 
    0.023126, -0.009902, -0.026033, -0.014303, -0.033320, -0.057567, -0.024592, 0.010110, -0.020368, 0.018418, 
    -0.050020, -0.000641, -0.022282, 0.008779, -0.054583, 0.015998, 0.032154, -0.007954, -0.043529, 0.019099, 
    -0.039921, 0.003939, 0.001089, -0.054329, -0.068040, -0.046974, 0.037014, -0.027515, -0.003210, -0.029169, 
    -0.036475, -0.006067, 0.008754, -0.005543, -0.048909, -0.058479, 0.018216, -0.062949, -0.046910, -0.067399, 
    -0.031050, 0.042848, 0.028244, -0.037391, 0.024215, 0.033411, 0.026820, 0.031306, 0.044411, -0.031547, 
    0.004241, -0.027004, -0.001608, 0.007738, -0.005826, -0.047121, 0.005158, -0.028259, 0.024014, -0.043842, 
    -0.024903, -0.024135, -0.004302, 0.016003, 0.004647, -0.009829, -0.016113, -0.029334, -0.057213, -0.065108, 
    -0.064608, 0.008146, -0.032030, -0.031682, 0.009428, -0.020871, 0.026220, 0.024977, -0.021042, 0.034356, 
    -0.047244, -0.001807, -0.006678, 0.007940, -0.000014, -0.038953, -0.046153, 0.003566, 0.013185, -0.045237, 
    0.000570, 0.034872, -0.047451, -0.018168, -0.003705, 0.029450, 0.016090, -0.035587, -0.043786, 0.022338, 
    0.006291, 0.036394, 0.014006, -0.014527, 0.024546, -0.026030, -0.010271, 0.028659, -0.045479, -0.042415, 
    -0.009978, -0.024488, -0.039421, -0.041173, 0.013715, -0.003472, -0.045189, -0.033124, 0.026126, 0.032222, 
    -0.003324, 0.005914, -0.009444, -0.065303, -0.049846, -0.063319, -0.053742, -0.015430, -0.043585, 0.018567, 
    -0.028872, 0.030913, -0.052418, -0.018806, 0.004537, 0.029586, -0.031108, -0.004083, 0.044566, 0.018141, 
    0.014238, -0.037800, -0.045287, -0.019330, -0.009184, -0.013244, -0.041661, -0.008672, 0.026493, -0.025057, 
    0.002045, -0.049625, -0.036451, 0.014873, -0.034461, -0.033881, 0.021236, 0.010125, -0.043308, -0.004741, 
    -0.053847, 0.012604, 0.033966, -0.046187, -0.015603, -0.031271, -0.031220, -0.029309, -0.001224, 0.017332, 
    -0.094064, 0.000483, -0.033505, 0.040819, -0.139511, -0.171189, -0.067928, -0.090057, -0.104627, -0.009878, 
    -0.002183, -0.111646, -0.214000, -0.145493, -0.009466, -0.015243, -0.065509, 0.078665, 0.024847, -0.052000, 
    -0.005285, -0.066086, -0.037010, 0.047201, 0.062598, -0.068811, -0.049353, 0.039840, -0.037684, 0.068555, 
    0.081405, 0.114033, 0.072507, 0.035576, -0.007971, 0.208054, 0.139503, 0.160347, 0.228458, 0.170522, 
    0.055208, 0.030800, 0.101112, 0.189081, 0.153350, 0.107820, 0.109758, 0.052669, 0.137559, 0.034608, 
    0.071904, 0.149239, 0.092305, 0.182126, 0.006403, 0.055755, 0.091880, 0.116188, 0.204071, 0.229173, 
    -0.054154, 0.020930, -0.004752, -0.033004, 0.041111, -0.042654, 0.026029, 0.098144, -0.017819, 0.054448, 
    0.139356, 0.070987, 0.122642, 0.105964, 0.029984, 0.007088, -0.102756, -0.216547, -0.240359, -0.037782, 
    -0.244264, -0.193050, -0.173990, -0.243290, -0.002406, -0.199018, -0.141591, -0.179931, -0.107853, -0.193409, 
    0.024864, 0.049295, 0.075831, -0.039311, 0.007765, 0.168585, -0.108220, 0.161802, 0.106003, 0.088131, 
    0.151396, 0.197776, 0.039629, 0.105456, 0.147435, -0.341927, -0.376419, -0.299558, -0.365349, -0.287831, 
    -0.178472, -0.257197, -0.198736, -0.126547, -0.107272, -0.076562, -0.233452, -0.269510, -0.387064, -0.265216, 
    0.084488, 0.004537, 0.047074, 0.042988, 0.005450, -0.007678, 0.039431, 0.038973, 0.003678, -0.004923, 
    0.015771, 0.018079, 0.004759, -0.002004, 0.081197, 0.022096, 0.066444, 0.051825, 0.029487, 0.029878, 
    -0.019117, -0.063821, -0.003221, 0.043094, 0.059469, 0.169805, 0.134103, -0.007364, 0.054842, 0.096406, 
    0.124548, -0.064146, -0.068323, -0.190080, -0.090582, -0.083211, 0.051331, -0.011931, 0.062807, 0.090205, 
    -0.003326, -0.077899, -0.009428, 0.179112, 0.082863, -0.058061, 0.086919, -0.086966, -0.069249, 0.013456, 
    -0.200009, -0.050498, 0.005271, -0.024841, 0.133349, -0.148111, -0.030093, -0.079772, -0.037163, 0.075129, 
    0.016295, 0.010060, 0.040477, -0.025465, -0.077355, -0.237497, -0.168407, -0.135442, -0.182380, -0.100307, 
    -0.278324, -0.175922, -0.102010, -0.135445, -0.212851, 0.270038, 0.290725, 0.109005, 0.054170, 0.106454, 
    0.215589, 0.061257, 0.100715, 0.081451, 0.175165, 0.102934, -0.026854, 0.154965, 0.279981, 0.206684, 
    -0.327259, -0.263482, -0.453317, -0.215753, -0.451095, -0.547517, -0.305792, -0.230332, -0.377004, -0.340735, 
    -0.116897, -0.309279, -0.333266, -0.396049, -0.119124, 0.254284, 0.180597, 0.250586, 0.191025, 0.242315, 
    0.201370, 0.256923, 0.368371, 0.312030, 0.155823, 0.250335, 0.443447, 0.226225, 0.182648, 0.400189, 
    0.030684, 0.273310, 0.159172, 0.367530, 0.372948, 0.454597, 0.272508, 0.181531, 0.212685, 0.300070, 
    0.411697, 0.295586, 0.370944, 0.444012, 0.088812, -0.112034, 0.043385, -0.042711, -0.047829, -0.021715, 
    0.037014, 0.217122, 0.019777, 0.130563, 0.212754, -0.052251, 0.008125, 0.035072, 0.057001, 0.154569, 
    0.041562, 0.059685, -0.018464, 0.121693, -0.083538, 0.084401, 0.102846, 0.048118, 0.016556, -0.073656, 
    0.146819, 0.017219, 0.007378, 0.215732, 0.203911, 0.058960, 0.187057, 0.073630, 0.047423, 0.165538, 
    0.374377, 0.275932, 0.241872, 0.400627, 0.449667, 0.247341, 0.138285, 0.235920, 0.270286, 0.266230, 
    -0.014561, 0.069004, 0.056639, 0.064594, -0.031259, -0.094376, -0.016752, 0.024400, -0.138582, -0.048313, 
    0.034706, 0.014013, 0.012132, 0.071277, 0.005038, 0.050848, -0.014635, 0.028582, 0.052820, 0.025108, 
    0.031519, 0.026295, -0.001170, 0.079186, 0.072429, -0.009890, -0.025874, 0.051962, 0.034056, -0.000196, 
    -0.125612, -0.154747, -0.080777, -0.101844, -0.161991, -0.063645, -0.119900, -0.004876, -0.090713, -0.173116, 
    -0.025344, -0.093105, -0.219626, -0.062876, 0.028494, -0.366492, -0.525842, -0.360411, -0.575508, -0.283876, 
    -0.529475, -0.452371, -0.282320, -0.425083, -0.098710, -0.355167, -0.535976, -0.268266, -0.439158, -0.456826, 
    -0.128725, -0.237909, -0.302043, -0.333866, -0.425914, -0.215749, -0.168351, -0.098872, -0.133951, 0.076812, 
    -0.041259, -0.284857, -0.084320, -0.390519, -0.110568, -0.257309, -0.244397, -0.194232, -0.173002, -0.086063, 
    -0.118174, -0.153916, 0.066071, -0.073586, 0.015189, -0.028995, -0.029247, -0.044244, -0.020981, -0.107522, 
    -0.200883, -0.271646, 0.001232, -0.138665, -0.275035, -0.098302, -0.192674, -0.181217, -0.187340, -0.066776, 
    -0.082877, -0.121735, -0.180954, -0.219755, -0.163980, -0.076697, -0.075834, 0.020183, -0.050169, 0.043991, 
    0.094323, -0.105138, 0.035194, 0.156052, 0.031350, 0.017556, 0.040138, 0.089843, 0.005558, 0.045199, 
    0.080638, 0.071235, 0.081708, 0.012625, 0.026938, 0.018896, 0.002316, 0.012363, 0.061825, 0.029250, 
    0.082554, 0.008869, 0.056341, 0.036403, -0.009276, 0.171193, 0.078344, 0.035356, 0.066012, 0.076915, 
    0.183608, 0.234813, 0.254937, 0.150598, 0.246758, 0.038870, 0.020887, -0.060002, 0.091532, 0.374456, 
    -0.429134, -0.328254, -0.319272, -0.360286, -0.329967, -0.352792, -0.310810, -0.312872, -0.327242, -0.333892, 
    -0.263816, -0.357449, -0.303540, -0.329132, -0.047170, -0.138297, 0.193249, 0.219063, 0.099537, 0.421961, 
    0.311724, 0.104425, 0.175725, 0.198831, 0.249142, 0.020296, 0.146338, 0.116498, 0.082633, 0.255418, 
    0.206207, 0.124265, 0.040865, -0.137130, 0.055624, 0.044073, -0.009717, 0.123518, 0.128939, -0.002267, 
    0.033211, 0.217498, 0.218375, 0.225362, -0.020089, -0.320587, -0.120775, -0.150074, -0.077774, 0.064772, 
    0.012300, 0.081556, -0.011397, -0.120124, 0.020998, 0.225805, 0.128431, 0.077025, 0.061436, -0.037700, 
    -0.207267, -0.268975, -0.237041, -0.208123, -0.082154, -0.413206, -0.222759, -0.216295, -0.230834, -0.363309, 
    -0.162908, 0.027942, -0.226907, -0.401473, -0.491385, -0.091262, -0.051452, 0.002947, -0.201353, 0.011418, 
    -0.107960, -0.274600, -0.117226, -0.201798, -0.082106, -0.154858, -0.050887, -0.320544, -0.353459, -0.452256, 
    -0.011413, 0.030008, -0.174557, -0.009218, -0.070781, -0.106317, -0.013624, -0.139600, -0.045836, -0.010110, 
    -0.121987, 0.169181, 0.102715, 0.051926, 0.088721, -0.078754, -0.179290, -0.015689, -0.115072, -0.180748, 
    -0.032144, 0.312023, 0.099254, 0.219307, 0.053494, 0.183851, 0.202458, 0.187867, 0.147714, 0.148593, 
    0.140681, 0.049840, -0.072891, -0.066244, 0.058186, -0.073129, 0.190261, 0.027490, 0.110175, 0.104594, 
    0.066614, 0.080849, 0.093911, 0.152029, 0.002179, 0.157469, 0.236778, 0.111963, 0.227546, 0.171296, 
    0.173015, 0.380694, 0.142322, 0.128174, 0.244019, 0.136027, 0.231682, 0.270562, 0.398507, 0.245126, 
    0.088714, 0.105259, 0.007220, -0.011998, 0.088065, 0.067925, 0.060680, 0.019151, 0.074034, 0.031156, 
    -0.018265, 0.007801, 0.058697, -0.017569, -0.084563, -0.049082, -0.013834, 0.090778, 0.038173, 0.014667, 
    -0.084442, 0.065496, 0.080400, 0.030001, 0.028965, -0.033203, 0.046519, 0.083903, -0.055994, -0.026329, 
    -0.170554, -0.098220, -0.103743, -0.038463, -0.031663, -0.067564, -0.126528, -0.031457, -0.037242, -0.067131, 
    0.050577, 0.077177, -0.029587, -0.104205, -0.005431, -0.115924, -0.143711, 0.050011, 0.099554, 0.092332, 
    0.104122, 0.212268, -0.055973, -0.007264, -0.218756, 0.256867, 0.160658, 0.087571, 0.152955, 0.029171, 
    -0.036552, 0.022284, 0.028337, 0.126563, 0.048619, 0.157129, 0.251943, 0.220839, 0.275906, 0.264116, 
    0.469600, 0.214271, 0.271320, 0.257058, 0.358286, -0.147837, -0.334766, -0.094761, 0.123609, 0.102360, 
    -0.205710, 0.154701, 0.049772, 0.031272, -0.102312, 0.036490, 0.277167, 0.047054, -0.110189, 0.070421, 
    0.169215, 0.284228, 0.400947, 0.248337, 0.533647, 0.533328, 0.492931, 0.066363, 0.339503, 0.124119, 
    0.133019, 0.441755, 0.281145, 0.457552, 0.163569, -0.300033, -0.239686, -0.353365, -0.221012, -0.314748, 
    -0.180335, -0.306866, -0.427451, -0.436400, -0.177749, -0.170610, -0.463875, -0.135027, -0.070417, -0.479963, 
    -0.060170, -0.247160, -0.119159, -0.248514, -0.133352, -0.249172, -0.180235, -0.326821, -0.189253, -0.203628, 
    -0.263084, 0.011748, -0.145469, -0.253205, -0.063002, 0.056989, -0.025480, -0.014719, -0.020942, 0.064179, 
    0.060939, -0.079209, -0.046527, 0.026181, -0.289996, -0.034400, -0.038807, 0.043353, 0.111780, -0.090500, 
    -0.239937, -0.096872, -0.045439, 0.002586, 0.079730, -0.119413, -0.145123, 0.011929, 0.013645, -0.003625, 
    -0.215302, 0.144184, 0.001335, -0.340263, -0.397296, -0.084004, -0.244099, -0.215523, -0.218792, -0.247391, 
    -0.391360, -0.257667, -0.194817, -0.245421, -0.313812, -0.090068, -0.143452, -0.296970, -0.302281, -0.193351, 
    -0.018047, 0.076055, 0.002126, -0.009288, 0.091523, 0.076264, 0.070271, 0.049676, 0.114931, 0.028360, 
    0.104712, 0.045666, 0.057590, 0.063857, 0.061304, 0.087041, 0.042736, 0.041571, -0.037609, 0.013192, 
    0.042354, 0.084405, 0.067363, 0.007306, 0.009651, 0.059361, 0.010790, 0.055697, 0.009908, -0.014209, 
    0.157135, 0.132320, 0.091362, 0.096738, 0.170489, 0.154441, 0.243808, 0.000881, 0.131678, 0.060150, 
    0.012334, 0.350037, 0.302333, 0.240536, 0.098816, 0.139135, 0.134655, 0.112199, 0.422213, 0.192928, 
    0.312531, 0.264534, 0.282023, 0.393541, 0.134375, 0.288614, 0.263303, 0.120754, 0.282012, 0.319675, 
    0.164431, 0.120304, 0.082252, 0.325384, 0.425965, 0.227488, 0.098287, 0.276190, 0.143258, 0.076383, 
    0.227606, 0.466553, 0.302596, 0.538844, 0.242119, 0.021067, 0.045080, -0.052080, -0.026143, 0.027674, 
    0.091313, 0.095081, -0.106923, 0.016301, -0.001096, 0.022416, -0.048367, 0.033333, -0.020441, 0.110265, 
    0.239746, 0.255629, 0.170817, 0.162689, 0.312524, 0.150622, 0.225744, 0.179089, 0.103659, 0.148773, 
    0.136450, 0.225512, 0.339556, 0.229100, 0.221848, -0.004271, -0.083300, -0.238501, 0.022143, 0.003011, 
    -0.059189, 0.139996, 0.042245, -0.072339, -0.126788, -0.020500, 0.140621, 0.004395, 0.054117, -0.145816, 
    -0.064892, -0.042000, -0.007493, -0.056778, 0.037675, 0.024588, 0.058460, 0.068480, 0.018791, 0.039184, 
    -0.005235, 0.062884, 0.084058, 0.084776, 0.036267, -0.105703, -0.048191, -0.173655, -0.176305, -0.112782, 
    -0.186627, -0.253243, -0.258434, -0.219490, -0.376424, -0.265914, -0.338826, -0.391605, -0.153441, -0.501250, 
    0.376554, 0.199431, 0.361761, 0.434751, 0.483820, 0.582991, 0.272746, 0.376023, 0.208454, 0.247407, 
    0.237537, 0.513019, 0.553343, 0.365533, -0.012173, 0.119563, 0.028391, -0.091363, -0.112649, -0.225321, 
    -0.164578, 0.050227, -0.074752, -0.003710, -0.084799, 0.013156, -0.092351, -0.078030, 0.101120, -0.103124, 
    -0.046676, -0.033381, -0.042619, -0.001287, -0.038967, -0.038152, -0.015325, -0.032220, 0.018120, -0.004676, 
    -0.009906, -0.028759, 0.014767, -0.002568, 0.004654, 0.002392, 0.003342, 0.006546, 0.038604, -0.005509, 
    0.007309, -0.001345, -0.021457, -0.003298, 0.030085, 0.014133, 0.024168, 0.032676, -0.032697, 0.034207, 
    -0.001279, 0.010981, 0.008068, 0.027107, -0.046761, -0.025813, -0.002175, 0.009404, 0.001660, 0.010493, 
    -0.040466, -0.023993, -0.041655, -0.011021, 0.026793, 0.012066, 0.021552, -0.015580, 0.015397, -0.009623, 
    0.026431, -0.011451, -0.040414, 0.020482, -0.047760, -0.040176, -0.030485, -0.014763, 0.003238, 0.007142, 
    0.008076, 0.031401, 0.016714, -0.042391, 0.031302, -0.000746, 0.022614, -0.046393, -0.036556, 0.033820, 
    0.024478, 0.004979, 0.023443, 0.005265, -0.040444, 0.037162, -0.034986, 0.034352, -0.012276, -0.046134, 
    -0.047605, -0.040450, -0.004692, -0.047965, 0.041336, 0.047518, 0.026503, 0.014530, -0.034169, 0.034462, 
    0.022704, 0.015053, -0.034494, 0.006378, -0.014206, -0.023268, 0.036796, 0.028235, -0.051338, 0.010726, 
    -0.032408, 0.026680, -0.019587, 0.027746, 0.019763, 0.037641, -0.019893, -0.007200, 0.015216, -0.045477, 
    -0.015646, 0.000149, -0.013304, -0.045772, -0.040732, -0.012662, -0.034639, -0.051746, -0.016774, -0.007409, 
    -0.014310, -0.026145, -0.047686, -0.005945, -0.048370, 0.016412, -0.037515, -0.051079, -0.025076, -0.039451, 
    0.017617, 0.002902, -0.017436, -0.013810, -0.042056, 0.016440, -0.014669, -0.011993, -0.026697, -0.014092, 
    0.011432, -0.003254, -0.047924, 0.035886, 0.024632, 0.032323, 0.021422, 0.003081, -0.027188, -0.050286, 
    -0.026489, -0.011424, -0.009360, 0.002482, -0.040860, -0.013326, 0.026462, 0.014211, 0.016642, -0.044061, 
    -0.016969, -0.033300, 0.017324, 0.017113, -0.040099, -0.037456, 0.025365, -0.020470, 0.017273, -0.027542, 
    -0.012106, -0.043453, 0.025956, -0.045799, 0.002200, -0.006920, -0.021220, -0.021114, -0.050312, 0.030538, 
    0.031994, -0.036505, -0.049314, -0.015830, -0.031952, 0.001777, -0.012052, 0.014283, -0.050548, 0.033381, 
    -0.029824, 0.033294, -0.045788, -0.001670, -0.022472, 0.034004, -0.028029, -0.019887, -0.026009, 0.008681, 
    -0.037098, -0.025400, -0.014147, -0.036643, -0.008411, -0.041614, -0.001227, 0.032974, 0.000939, -0.004128, 
    -0.007807, 0.027024, -0.010525, -0.000290, 0.016821, 0.007426, 0.013988, -0.032746, 0.035873, -0.046489, 
    -0.031364, -0.024471, -0.017292, -0.042125, 0.017237, 0.013081, 0.017641, -0.051090, 0.039486, 0.035111, 
    -0.008642, -0.009382, -0.052671, 0.000201, 0.009003, -0.009847, -0.023303, -0.039500, -0.019120, -0.034733, 
    -0.026814, 0.006026, 0.031356, -0.048370, -0.040969, -0.046841, -0.007375, 0.016309, -0.037746, 0.030361, 
    0.012696, -0.012724, 0.039782, -0.038376, -0.033152, -0.033408, 0.004685, -0.017941, -0.036593, 0.036578, 
    -0.009889, -0.032628, -0.005504, 0.009127, 0.002564, 0.035532, -0.000802, 0.003124, 0.007970, -0.025777, 
    -0.008710, -0.036656, 0.012045, -0.025631, -0.030315, -0.048681, -0.015907, -0.020226, -0.050082, 0.033185, 
    -0.034542, 0.012698, -0.024993, 0.013071, -0.045468, -0.015945, -0.038878, -0.034453, 0.024557, -0.011700, 
    0.020277, -0.017867, 0.020829, -0.038471, 0.003832, 0.026449, 0.016177, -0.034470, -0.010120, -0.023090, 
    -0.009443, -0.023547, -0.029160, 0.008634, 0.004144, 0.028120, -0.043813, 0.013981, 0.026491, -0.037549, 
    -0.019447, -0.048103, -0.023842, 0.030479, -0.049673, -0.012259, 0.016569, 0.005058, 0.015867, -0.051448, 
    -0.052382, -0.040932, -0.016822, 0.018665, -0.002799, 0.021349, 0.034068, -0.014217, 0.026205, 0.034290, 
    -0.041690, -0.000236, 0.040712, 0.019481, 0.017728, -0.023111, -0.023999, -0.033682, 0.031173, -0.012432, 
    0.009305, -0.033381, 0.004230, -0.014924, -0.014109, -0.000985, 0.043541, 0.004984, -0.001290, -0.040409, 
    0.002032, -0.026496, 0.020478, -0.038094, 0.029566, -0.041418, -0.014973, 0.029484, 0.019260, 0.026226, 
    -0.042641, 0.025084, 0.038368, 0.035810, -0.048659, 0.026750, -0.048598, -0.048603, -0.006957, 0.020245, 
    -0.007243, 0.011750, -0.018907, -0.009215, -0.016771, 0.001977, -0.013180, -0.033558, 0.003778, -0.044029, 
    -0.051185, 0.024463, 0.015844, -0.031744, 0.034932, -0.044274, 0.013868, 0.004814, 0.034532, -0.043090, 
    -0.049724, -0.011883, -0.001428, -0.032169, -0.020481, -0.026311, 0.000698, 0.021385, 0.017660, -0.032387, 
    -0.021466, -0.020412, 0.036919, 0.008247, 0.029725, 0.028578, -0.026827, -0.019208, -0.020552, -0.053374, 
    -0.000062, 0.021176, 0.009970, -0.035905, -0.030765, 0.012279, 0.034257, 0.001828, 0.035522, 0.030704, 
    -0.000273, -0.011726, -0.042872, -0.042488, 0.020175, 0.023722, -0.050465, -0.005007, -0.036304, -0.008021, 
    0.032325, -0.022408, 0.004245, 0.016501, -0.020540, -0.062898, -0.080489, -0.090024, -0.005325, 0.004934, 
    -0.055261, -0.013889, -0.038808, -0.040186, 0.028932, 0.009880, -0.004681, 0.030135, -0.026958, 0.035071, 
    -0.003488, 0.028826, -0.053423, -0.014957, -0.035753, -0.009039, 0.014560, 0.032891, -0.035233, 0.018257, 
    -0.033970, -0.006007, 0.011052, -0.000113, 0.036319, -0.030971, -0.005696, 0.031230, -0.015018, 0.005851, 
    0.025446, -0.039461, -0.018879, -0.057670, -0.022891, -0.023629, -0.036743, -0.042598, -0.017037, -0.042299, 
    -0.007662, -0.001324, 0.000275, -0.047128, -0.083127, 0.001147, 0.038212, 0.117266, 0.080837, 0.046150, 
    0.087072, 0.010260, 0.047660, 0.085620, 0.059879, 0.009243, -0.038631, 0.043307, 0.130842, 0.168806, 
    0.170901, 0.246769, 0.063601, 0.150440, 0.147677, 0.147698, 0.255550, 0.233036, 0.180999, 0.100026, 
    -0.036491, 0.069788, 0.004774, 0.084069, -0.021231, 0.027938, 0.055968, 0.081101, 0.139903, 0.002605, 
    -0.007157, 0.046068, -0.013373, -0.069437, -0.107335, 0.042724, -0.032553, 0.028495, -0.011806, -0.023314, 
    -0.010169, -0.061735, 0.043039, 0.144887, -0.042235, -0.023514, 0.027408, -0.077757, -0.125003, -0.161798, 
    0.101325, 0.063176, 0.110106, -0.028434, 0.002915, 0.129104, 0.204052, 0.156438, 0.045261, 0.014680, 
    0.077270, 0.118877, 0.096882, 0.236177, 0.134285, -0.062774, -0.084812, -0.098138, -0.106043, -0.151846, 
    -0.166861, 0.103891, 0.110083, -0.138819, -0.077451, -0.236911, -0.203108, -0.124888, -0.010972, -0.082461, 
    0.193173, 0.238869, 0.264184, 0.111487, 0.210564, 0.210650, 0.230500, 0.207671, 0.164049, 0.131126, 
    0.250123, 0.227121, 0.271667, 0.217076, 0.149218, -0.041534, 0.033025, 0.025258, 0.051001, 0.061208, 
    -0.021362, 0.041382, -0.034832, -0.061737, 0.020102, 0.080499, 0.053365, -0.085488, 0.008891, -0.158622, 
    0.044007, 0.087581, -0.049453, -0.000676, -0.018633, 0.027059, -0.026959, 0.051236, 0.031830, 0.046862, 
    0.066315, -0.005486, 0.009300, -0.062048, -0.073986, -0.106820, -0.008336, 0.009901, -0.037653, -0.001737, 
    -0.023839, -0.055019, -0.012530, 0.073315, 0.034784, -0.032199, -0.045864, 0.003312, 0.029602, -0.028694, 
    -0.036834, -0.019686, -0.045549, -0.045810, 0.033138, 0.055067, 0.100456, 0.051699, 0.063482, 0.035648, 
    0.046582, 0.142121, 0.064406, 0.186492, 0.139951, -0.074257, 0.030814, -0.088725, 0.102589, 0.055320, 
    -0.071037, 0.173054, -0.056533, 0.046642, -0.197195, -0.010404, 0.052948, 0.020144, -0.036773, -0.064299, 
    -0.044415, 0.093218, 0.135926, 0.175966, -0.050814, -0.032111, 0.015921, 0.072814, 0.051709, 0.000344, 
    0.151811, 0.008625, 0.073549, 0.159673, 0.254727, 0.187473, 0.097576, 0.139858, 0.292835, 0.265432, 
    0.201877, 0.343855, 0.116461, 0.065795, 0.151240, 0.213325, 0.390124, 0.347905, 0.338642, 0.156607, 
    0.067328, -0.010090, -0.210691, -0.056276, -0.178651, -0.003743, 0.067258, -0.326248, -0.099450, -0.329651, 
    -0.263248, -0.224056, -0.210613, -0.025858, -0.095698, -0.087170, 0.007220, 0.071312, 0.139569, 0.097674, 
    0.113762, 0.061909, -0.031049, -0.040536, -0.000645, 0.097367, 0.037580, 0.065802, 0.165437, 0.039516, 
    0.073264, 0.224422, 0.175603, 0.212598, 0.136215, 0.220238, 0.163162, 0.109252, 0.177135, 0.304385, 
    0.172583, 0.360822, 0.361277, 0.330439, 0.270770, 0.119205, 0.039000, 0.086625, 0.052697, 0.133828, 
    0.091768, 0.113292, 0.083334, 0.179770, -0.000422, -0.012600, 0.062127, 0.048947, -0.043623, 0.135258, 
    0.025022, 0.060377, 0.021643, 0.157434, 0.119021, 0.005139, 0.041781, 0.054649, 0.023411, 0.114348, 
    0.065572, 0.136033, 0.013338, -0.077644, -0.094997, 0.168416, 0.100443, 0.129840, 0.041716, 0.117242, 
    -0.044359, 0.204234, 0.135717, 0.274369, 0.211192, 0.149056, 0.117846, 0.264227, 0.158699, 0.235317, 
    0.073910, 0.073125, -0.051917, -0.054799, -0.009906, 0.012674, 0.005138, 0.050345, -0.025673, -0.042553, 
    -0.010069, -0.010149, 0.098293, -0.024075, -0.034617, 0.120591, 0.044383, -0.013473, -0.030471, 0.048328, 
    -0.011381, -0.024226, -0.020229, -0.038532, -0.040865, -0.084301, 0.038221, 0.012428, -0.025791, -0.081304, 
    0.145568, 0.101464, 0.035710, -0.010754, 0.041722, 0.137945, 0.153432, 0.005997, 0.094797, 0.035941, 
    0.042437, 0.160227, 0.058865, 0.061818, 0.026639, 0.021262, -0.249284, -0.092265, -0.128611, -0.063677, 
    -0.169854, -0.103093, -0.208392, -0.147437, -0.189626, -0.083558, -0.279093, -0.212344, -0.269558, -0.165124, 
    0.095657, 0.144432, 0.309606, 0.166936, 0.252208, 0.204552, 0.218805, 0.230591, 0.052652, 0.128706, 
    0.148704, 0.254683, 0.404460, 0.472620, 0.335516, -0.015899, 0.018232, -0.057889, -0.014719, -0.035977, 
    0.058332, 0.037396, -0.137837, -0.083498, -0.159092, 0.037809, -0.177505, -0.130392, -0.107773, -0.137833, 
    0.017367, -0.032493, -0.042564, -0.014592, 0.068515, -0.048912, -0.037985, 0.009214, -0.034852, -0.068083, 
    -0.017131, -0.063506, 0.052363, 0.054624, -0.054343, 0.115840, 0.039048, 0.108608, 0.043213, 0.093808, 
    0.124136, 0.179605, 0.240835, 0.173606, 0.142412, 0.023474, 0.186420, 0.100694, 0.131931, 0.014024, 
    -0.026788, -0.014789, -0.001089, -0.001057, -0.004740, -0.003819, 0.003285, -0.027760, -0.007894, 0.059714, 
    0.043278, 0.020995, 0.057956, 0.040696, -0.022729, -0.043792, -0.120181, -0.255880, -0.154741, -0.027104, 
    -0.036422, -0.003567, 0.054414, -0.119505, -0.185949, -0.270497, -0.110800, -0.191440, -0.127515, -0.122595, 
