#ifndef VOICE_CNN_WEIGHTS_H
#define VOICE_CNN_WEIGHTS_H

#include "voice_typedefs.h"

static const data_t conv1_w[1920] = {
0.177699, 0.136808, -0.001394, -0.022246, -0.086592, -0.014973, -0.021951, 0.095754, 0.141801, 0.078338, 
    0.223571, 0.149958, -0.033090, -0.085460, -0.052625, -0.141690, -0.073168, -0.124796, -0.125676, -0.056286, 
    -0.136184, 0.002426, -0.053064, 0.001730, -0.168203, -0.151377, -0.169625, -0.055111, -0.020424, -0.131764, 
    0.132295, -0.049734, 0.075677, 0.040576, -0.011596, 0.057070, 0.037188, 0.081542, 0.009009, -0.016300, 
    0.036121, -0.007496, -0.002026, 0.041310, 0.010008, -0.047749, 0.042928, 0.001401, 0.032034, -0.056000, 
    -0.069086, 0.021092, -0.037664, 0.082559, 0.122177, 0.113905, 0.110453, -0.022226, 0.033594, -0.077204, 
    0.015542, -0.066422, 0.020798, -0.092765, 0.011208, -0.036759, 0.101716, -0.023919, 0.009022, -0.075096, 
    0.053133, 0.009162, 0.093264, -0.070672, -0.124116, -0.054112, -0.040312, 0.025555, 0.057374, 0.101215, 
    -0.015712, -0.105850, 0.018839, -0.077054, 0.063428, -0.058736, -0.008605, 0.023704, 0.025613, 0.061332, 
    -0.021979, -0.054139, 0.017444, 0.109359, -0.058766, 0.012864, 0.070210, -0.071767, -0.054854, -0.038287, 
    -0.019161, 0.022387, 0.042977, 0.001187, 0.054094, -0.054766, -0.089348, -0.092457, -0.055752, -0.024962, 
    0.109821, -0.018978, 0.018077, -0.137372, -0.035905, -0.015408, 0.047113, -0.024432, 0.030733, 0.016514, 
    0.151849, 0.138716, 0.156935, -0.269903, -0.231635, -0.200201, -0.001470, -0.048859, 0.089979, 0.167397, 
    0.243145, 0.185645, -0.067773, 0.044216, -0.025314, -0.215189, -0.250071, -0.270257, 0.004997, -0.048990, 
    -0.003975, -0.068345, 0.041272, -0.086313, -0.083248, -0.112772, -0.118220, 0.078525, 0.068666, -0.072860, 
    0.085252, 0.005903, 0.030800, -0.066051, 0.063770, -0.065705, 0.080495, 0.041720, 0.059337, -0.014457, 
    0.103072, 0.037967, 0.046195, -0.060767, 0.044613, -0.028590, -0.052242, 0.049414, 0.013350, -0.027047, 
    -0.020427, 0.018473, 0.074363, 0.006838, -0.031847, -0.003757, -0.025994, 0.000507, 0.046483, -0.084513, 
    -0.008361, 0.009966, -0.017801, -0.047758, 0.062459, 0.074056, 0.010188, -0.033048, -0.038055, -0.017751, 
    -0.038216, -0.037122, -0.042165, 0.003875, -0.028598, 0.032209, 0.044544, 0.063948, 0.039072, 0.046213, 
    -0.051303, -0.043983, 0.067931, 0.042910, 0.016680, -0.032683, -0.035325, 0.044572, 0.079711, 0.115447, 
    0.024276, -0.011699, -0.114538, -0.078153, 0.013635, 0.066154, 0.021262, -0.002409, 0.004648, -0.043707, 
    -0.023516, 0.052368, 0.003890, 0.020994, -0.027723, 0.067459, 0.064460, 0.052919, -0.011712, -0.063963, 
    -0.052294, 0.053147, 0.020565, 0.056362, 0.082509, 0.051901, 0.055221, -0.030080, -0.039897, -0.054916, 
    0.103230, 0.048228, 0.106678, 0.071155, 0.095658, 0.033509, -0.131647, -0.054949, -0.139379, -0.134737, 
    -0.210694, -0.253053, -0.188235, -0.220055, -0.194200, -0.074514, 0.046085, -0.056384, 0.042641, 0.038552, 
    0.052048, -0.138694, 0.010262, -0.103550, -0.002668, 0.047641, -0.046491, -0.011134, -0.021196, -0.070424, 
    -0.045152, -0.158830, -0.010505, 0.048478, 0.098484, 0.019896, -0.029315, 0.090781, 0.128724, -0.058375, 
    0.017626, -0.013765, 0.020576, -0.016040, 0.011918, 0.037765, -0.021955, 0.151704, 0.001404, -0.076536, 
    -0.086001, -0.031556, -0.081072, -0.097203, -0.055163, -0.145546, -0.146497, -0.025635, -0.052057, -0.015287, 
    0.032767, 0.004766, 0.021425, -0.078496, -0.131683, 0.021608, -0.037570, 0.026326, -0.046482, -0.078679, 
    0.016423, -0.026443, -0.108960, 0.019379, 0.065778, 0.027802, 0.076594, 0.087264, -0.032770, 0.008672, 
    -0.073088, -0.012590, 0.038050, -0.026252, -0.090919, -0.099684, -0.089050, -0.149560, -0.093783, -0.018959, 
    0.104708, 0.071240, -0.045821, -0.096374, 0.032510, -0.115996, -0.006571, 0.041111, -0.081493, 0.038038, 
    -0.005362, -0.024162, -0.115207, -0.171733, -0.155731, -0.100447, 0.075700, -0.025662, 0.029826, 0.154041, 
    0.124087, 0.045455, 0.077131, 0.041561, -0.082500, 0.007860, 0.017946, -0.036545, -0.092861, 0.049092, 
    -0.250798, -0.215312, -0.165422, 0.164837, 0.212428, 0.227120, 0.205847, 0.097929, 0.047907, -0.084732, 
    -0.007887, -0.049749, -0.228073, -0.199315, -0.290258, -0.058178, -0.021818, -0.017696, 0.179327, 0.017380, 
    0.149709, -0.103744, -0.037683, -0.048756, -0.156660, -0.083996, -0.233112, -0.055481, 0.038143, -0.037305, 
    0.015233, -0.009188, 0.066546, 0.076000, 0.054488, -0.030093, -0.101214, -0.035998, -0.007391, -0.108571, 
    -0.098807, 0.025531, -0.024237, -0.040867, -0.063161, -0.102850, -0.101480, -0.055474, -0.032970, 0.040390, 
    -0.009868, -0.039311, 0.090593, 0.032846, 0.073560, 0.000849, 0.013548, 0.048138, -0.070829, -0.091050, 
    -0.009018, -0.017237, -0.055329, 0.014612, 0.040835, 0.008700, -0.042581, -0.116471, -0.054668, 0.024730, 
    0.030383, 0.012818, -0.008034, 0.066120, -0.047484, 0.013819, -0.067456, -0.024658, -0.028270, 0.018824, 
    -0.020488, 0.057889, 0.012710, 0.071992, 0.025169, -0.068080, -0.111400, -0.016387, 0.007194, -0.114212, 
    -0.004654, -0.034734, -0.038780, -0.091631, -0.026921, -0.042944, -0.024115, 0.103863, -0.004699, -0.006335, 
    0.009558, 0.027760, 0.054515, -0.053650, 0.023156, -0.034454, -0.038521, -0.011158, 0.023765, 0.035592, 
    0.050011, -0.016582, 0.000504, -0.044467, -0.027370, 0.042290, -0.038730, -0.126416, -0.075428, -0.056209, 
    0.166791, 0.083396, 0.045904, -0.023613, -0.029885, -0.043284, -0.062284, -0.142049, -0.051049, 0.183969, 
    0.120779, 0.124710, 0.029027, -0.014707, -0.031161, -0.132778, -0.094435, -0.028220, -0.105153, -0.113202, 
    -0.081470, 0.068154, 0.142578, 0.205022, 0.112550, 0.032988, -0.107802, -0.088571, -0.080495, -0.020719, 
    0.011078, -0.080423, 0.032610, -0.061232, -0.044938, -0.080137, 0.066192, -0.116688, 0.048736, 0.031121, 
    -0.002792, 0.065191, 0.027975, 0.068980, 0.095508, -0.118346, -0.022470, -0.024149, 0.068494, 0.041375, 
    0.062823, -0.021542, 0.015047, 0.140632, 0.064738, 0.022841, -0.065750, 0.042805, -0.005187, 0.109025, 
    -0.144775, -0.136880, -0.145475, 0.040766, 0.086963, 0.020748, 0.074179, 0.056726, 0.038564, -0.047619, 
    -0.043114, 0.017809, -0.017699, 0.060646, -0.008642, -0.060786, 0.047992, -0.003941, 0.009454, 0.043991, 
    0.002015, 0.084916, -0.012260, -0.100574, -0.068332, -0.045556, -0.006596, -0.001471, -0.028225, 0.011719, 
    -0.073627, -0.112947, -0.061174, 0.069943, 0.083175, -0.032259, 0.003642, 0.050978, -0.004687, -0.028359, 
    0.096551, -0.054875, 0.034645, 0.111690, 0.038128, 0.027635, -0.030458, 0.014068, 0.019952, 0.077619, 
    0.092197, 0.056239, -0.112832, -0.045456, -0.038887, -0.064330, -0.055662, -0.087856, 0.010408, -0.025947, 
    -0.021326, 0.108414, 0.002617, 0.165630, 0.188998, 0.120028, -0.114240, -0.097007, -0.036260, 0.017987, 
    -0.026412, -0.134382, -0.123656, 0.001715, -0.048698, 0.044759, 0.046615, -0.026436, -0.096727, -0.023090, 
    -0.134195, -0.014985, -0.096937, -0.105463, -0.030019, -0.090140, -0.067055, 0.061083, -0.024737, 0.068436, 
    -0.120961, -0.094947, -0.010115, 0.012029, -0.088221, -0.091494, -0.130417, -0.099726, -0.093641, -0.067082, 
    -0.071903, -0.175156, 0.105936, 0.089051, -0.054623, 0.032025, 0.105147, 0.061321, 0.037106, 0.000111, 
    0.111148, -0.061968, 0.057742, 0.005021, 0.002815, 0.051614, 0.001824, -0.025936, 0.014347, 0.114424, 
    -0.108473, -0.028176, -0.139963, 0.022660, -0.042201, -0.079456, 0.066820, 0.018595, 0.052092, -0.060543, 
    0.007013, 0.036510, 0.047632, 0.039999, -0.019988, -0.002701, -0.072754, -0.041582, -0.146264, -0.079680, 
    0.015888, 0.102105, 0.032960, 0.131707, 0.010546, 0.133951, -0.054143, -0.136359, -0.168534, -0.095765, 
    0.026140, 0.065921, 0.030078, 0.014089, -0.061168, -0.017763, 0.092584, 0.094959, -0.029307, 0.103321, 
    0.088961, -0.020627, -0.096539, -0.135566, -0.041805, -0.023589, 0.104501, 0.089189, -0.009849, 0.112773, 
    0.104378, 0.021677, 0.053665, -0.024636, 0.068084, 0.108544, 0.088774, -0.167215, -0.090769, -0.064525, 
    0.089608, 0.130938, 0.113721, 0.181628, 0.116355, 0.213368, -0.071246, -0.171035, -0.191043, -0.080180, 
    0.025154, -0.131616, -0.070185, 0.063232, 0.078667, 0.154101, 0.016322, 0.007875, -0.008946, 0.026741, 
    -0.001931, 0.033768, 0.014216, 0.022767, -0.001171, -0.016157, 0.039982, -0.085090, -0.059628, 0.011689, 
    -0.079883, -0.070643, -0.140252, -0.007738, 0.058286, -0.092665, -0.088985, -0.038723, -0.137986, 0.093973, 
    -0.038001, -0.011093, 0.029227, 0.003913, -0.022121, 0.054532, 0.028677, -0.056291, 0.050869, 0.185456, 
    0.145023, 0.035042, -0.061647, -0.032333, -0.015056, 0.008124, -0.007118, 0.014463, 0.030942, 0.018726, 
    -0.041437, -0.071978, -0.020656, 0.019252, -0.053573, -0.103185, 0.081502, 0.069986, -0.009829, 0.056813, 
    -0.056141, 0.043795, 0.025957, -0.087210, 0.067682, -0.099736, -0.095101, -0.034797, -0.186555, -0.066740, 
    -0.164532, 0.075532, -0.039406, 0.062365, -0.017616, -0.070012, 0.001294, -0.052600, -0.038351, -0.119131, 
    -0.066932, 0.000929, 0.035455, -0.034861, -0.017096, -0.095621, 0.111959, 0.138387, 0.049381, 0.039578, 
    0.023173, 0.045537, -0.083614, -0.085384, -0.038889, 0.037983, 0.103299, 0.015429, 0.047364, -0.009498, 
    0.152167, -0.064252, -0.088947, -0.049067, -0.002736, 0.115382, -0.005853, -0.004624, -0.021777, -0.042173, 
    0.074347, -0.017364, 0.019051, -0.198761, -0.116745, -0.133683, 0.094509, 0.043527, 0.092184, 0.204034, 
    0.147583, 0.092666, -0.172122, -0.055596, -0.133603, -0.068898, -0.041308, -0.077662, 0.095191, 0.118588, 
    0.036989, -0.010380, 0.145524, 0.026761, -0.187740, -0.092805, -0.103490, 0.107204, 0.064080, -0.019631, 
    0.027228, 0.110394, 0.058024, -0.041452, -0.073670, -0.057850, 0.047625, 0.000840, 0.076474, -0.007142, 
    0.038648, 0.030101, 0.015115, 0.050655, 0.041143, 0.054804, 0.029503, -0.056442, -0.096878, 0.014241, 
    0.002772, 0.046106, 0.054036, 0.048091, 0.093142, 0.068208, 0.028641, -0.090296, -0.056261, -0.066277, 
    0.074460, 0.010136, 0.088476, -0.030735, -0.022949, -0.029317, -0.002977, 0.076797, 0.078613, -0.074907, 
    -0.086941, 0.083875, 0.003769, -0.037034, 0.018503, -0.040366, -0.017374, 0.053032, 0.093435, 0.083180, 
    0.036346, -0.009781, -0.077583, -0.003511, 0.106136, 0.021458, -0.053316, 0.101113, 0.030039, 0.060165, 
    0.088988, -0.047515, -0.059537, -0.037495, -0.035534, -0.059795, 0.022191, 0.092043, 0.001265, 0.012007, 
    0.000851, -0.013496, 0.006943, 0.048213, -0.022207, -0.002086, -0.042054, -0.053592, -0.041376, 0.042628, 
    -0.069144, 0.032217, 0.122870, 0.067968, 0.062183, -0.066978, -0.061787, 0.002813, 0.053830, -0.018909, 
    -0.172343, -0.110126, -0.229399, -0.029836, 0.019037, 0.126056, 0.134024, 0.062614, 0.056584, 0.245202, 
    0.288108, 0.268341, -0.000760, -0.037550, 0.090366, -0.128722, -0.161501, -0.091839, -0.032448, -0.020614, 
    -0.069516, -0.067884, -0.012048, 0.022568, -0.259526, -0.156064, -0.184434, 0.033419, 0.065682, 0.013636, 
    0.014287, 0.078271, 0.030350, -0.054002, 0.085308, -0.021525, -0.011521, -0.016889, -0.027326, -0.047487, 
    0.061513, -0.017171, -0.002138, 0.069203, -0.011857, -0.003677, 0.026962, 0.010964, 0.017972, 0.024162, 
    0.073068, -0.047497, -0.014573, -0.006327, 0.080281, 0.149958, 0.056332, 0.016349, 0.057949, 0.030039, 
    -0.094290, -0.030494, -0.067926, -0.067095, 0.057634, -0.010118, 0.138421, -0.017906, 0.068346, -0.019148, 
    0.078354, -0.011373, -0.025711, -0.058004, 0.001099, 0.061324, 0.024291, -0.066055, 0.067153, 0.025524, 
    -0.043074, 0.080865, -0.045169, 0.022250, -0.022738, -0.074708, -0.030973, 0.073569, 0.013348, 0.017077, 
    0.067609, -0.049118, -0.041092, -0.021532, 0.094167, -0.032601, -0.055785, 0.001714, -0.018069, -0.045961, 
    -0.022526, 0.043882, 0.086386, 0.104237, -0.042209, 0.060764, -0.108952, -0.003257, 0.047010, -0.006254, 
    0.088728, 0.055528, -0.090811, 0.005058, -0.017703, 0.030179, 0.000174, 0.008793, -0.060209, 0.057798, 
    -0.039448, -0.045513, -0.085548, -0.104384, -0.007639, 0.025565, 0.128752, 0.103944, 0.000195, 0.050851, 
    0.167684, 0.175221, -0.067555, 0.038505, 0.082325, -0.134807, -0.186638, -0.054531, -0.083085, -0.047646, 
    -0.149835, 0.080128, -0.062130, 0.089371, -0.074798, 0.034350, 0.027325, 0.056225, 0.021310, 0.075548, 
    -0.033178, -0.078384, -0.010867, 0.029995, -0.016256, 0.051614, -0.059198, 0.005365, -0.021642, 0.038743, 
    -0.012634, -0.046312, -0.043435, -0.081601, 0.049169, -0.129977, -0.010581, 0.033373, 0.062870, 0.047103, 
    -0.044647, 0.111573, -0.004028, -0.026993, 0.111133, -0.052058, 0.045537, 0.052967, -0.119722, -0.076974, 
    -0.035448, -0.061315, -0.039208, -0.096741, -0.033572, -0.112482, 0.095588, 0.039379, 0.166092, -0.010026, 
    -0.100457, 0.053787, 0.009711, 0.005989, -0.039206, -0.032892, 0.048379, 0.033669, -0.026255, 0.138372, 
    0.075175, -0.015656, 0.012585, 0.037265, -0.073109, 0.045039, -0.057386, 0.113340, 0.041269, 0.105530, 
    -0.035211, -0.050837, -0.035188, 0.019808, 0.044171, 0.046907, 0.017382, -0.003091, 0.019971, 0.019933, 
    -0.003096, 0.029082, -0.052643, -0.028155, 0.086302, -0.107389, -0.035863, -0.032724, -0.052104, 0.041830, 
    0.000653, 0.048378, 0.057667, -0.027686, -0.027551, -0.071825, -0.055717, 0.050341, 0.045331, 0.075828, 
    0.105431, 0.127906, 0.128199, 0.041722, -0.028945, -0.009469, -0.044570, -0.112463, -0.059321, 0.053941, 
    0.097682, -0.031167, 0.113864, 0.108244, 0.023930, 0.036932, -0.004576, -0.117796, -0.039428, -0.132860, 
    -0.188945, 0.075208, 0.059080, -0.057487, 0.241227, 0.095133, 0.229180, 0.074794, -0.034794, -0.123622, 
    -0.032240, -0.072269, -0.038269, 0.064297, 0.102889, -0.008702, -0.189903, -0.155204, -0.161271, 0.057870, 
    -0.060393, -0.055383, 0.046763, 0.017364, 0.080582, -0.087657, -0.167441, -0.100319, 0.020835, 0.068738, 
    0.052982, -0.156638, -0.097040, -0.099749, 0.083489, 0.171842, 0.074060, 0.025731, -0.025426, -0.101223, 
    -0.058231, 0.010913, -0.148719, -0.098135, 0.099450, 0.090521, 0.043895, 0.139769, 0.092091, -0.087046, 
    0.039369, 0.085612, -0.119096, -0.022861, -0.112572, 0.021962, 0.034120, 0.047574, -0.067858, -0.062582, 
    -0.190390, 0.072191, 0.085476, 0.035644, -0.022895, 0.052960, 0.048131, -0.077675, -0.011610, -0.005910, 
    0.094108, 0.054665, 0.083554, -0.053464, 0.027168, -0.020379, -0.015750, 0.032325, 0.065962, -0.017864, 
    -0.022198, -0.048486, 0.002623, 0.042577, -0.026014, -0.005660, 0.050889, -0.076202, -0.029043, -0.009899, 
    0.057426, 0.040467, -0.019826, -0.044386, 0.015189, -0.094855, -0.084883, 0.026476, -0.074759, 0.040892, 
    -0.114210, -0.027195, -0.011519, -0.017645, -0.098526, -0.123310, 0.073390, 0.111983, -0.034423, 0.167350, 
    0.075744, 0.140834, 0.057580, 0.044935, -0.077961, -0.100988, -0.133836, -0.165495, -0.000549, -0.140188, 
    -0.128453, -0.021981, -0.002337, 0.002323, -0.064969, -0.128386, -0.110594, 0.073194, -0.078443, -0.021319, 
    -0.000687, -0.023351, 0.049979, 0.051718, 0.128730, 0.064859, -0.090597, 0.003137, -0.027796, -0.046697, 
    -0.082633, -0.005969, -0.071835, 0.031540, 0.036988, -0.053278, -0.002528, -0.049250, 0.087047, 0.089907, 
    0.002761, 0.100775, -0.034014, -0.106906, 0.040211, 0.043390, 0.091361, -0.009921, 0.024853, -0.008792, 
    -0.021708, -0.179382, -0.002197, -0.143260, 0.042777, -0.033154, 0.006259, 0.127898, 0.075159, -0.145717, 
    -0.089422, -0.007910, 0.007363, -0.077653, 0.040535, -0.022415, -0.051873, -0.030649, 0.003868, -0.018445, 
    0.044563, -0.068490, 0.019968, 0.086917, -0.060359, -0.026296, 0.002407, 0.055667, -0.009579, 0.106864, 
    -0.030635, 0.006429, 0.022765, -0.019938, -0.057919, -0.007406, -0.059466, 0.019350, 0.024568, 0.060291, 
    0.062190, 0.107116, 0.023573, -0.083239, 0.028071, -0.075448, 0.000283, -0.006230, -0.100028, -0.047172, 
    0.092817, 0.047602, -0.010988, 0.083638, -0.072520, 0.013644, 0.119028, 0.066370, -0.089266, 0.085598, 
    0.044266, 0.081341, 0.056200, 0.097257, 0.110522, 0.146667, -0.012239, -0.024906, -0.155630, -0.080833, 
    -0.046492, -0.117752, 0.077661, 0.108116, 0.060984, -0.023233, 0.062892, 0.075341, 0.001098, -0.114843, 
    -0.142919, 0.021209, -0.011346, -0.050980, 0.000822, -0.018753, 0.078747, -0.106884, -0.018626, -0.010282, 
    -0.028064, -0.018595, -0.042407, -0.007330, -0.160622, -0.070846, -0.127193, -0.060229, -0.095890, -0.023771, 
    -0.005460, 0.043298, -0.124071, -0.140727, -0.104056, -0.078022, -0.021030, 0.010232, 0.038897, 0.145232, 
    0.027970, -0.095721, -0.073401, -0.078803, -0.025518, -0.037477, -0.016379, 0.087225, 0.115145, 0.164415, 
    0.094941, 0.001076, 0.018398, -0.099926, -0.014040, -0.117246, 0.043401, 0.024431, 0.034941, -0.068798, 
    -0.130297, -0.042955, 0.041299, 0.056726, 0.004031, 0.097741, 0.089028, 0.066997, -0.000416, -0.066714, 
    0.001172, 0.050415, 0.110711, 0.119097, 0.020782, -0.045595, -0.039012, 0.004259, 0.003757, -0.013819, 
    0.091583, 0.094539, 0.050678, -0.117558, -0.100740, -0.111791, 0.024881, -0.065397, -0.071333, -0.019509, 
    -0.046102, 0.056919, 0.058854, 0.131259, 0.055625, 0.022160, 0.021419, 0.026440, 0.049369, -0.001184, 
    -0.035569, 0.044248, 0.093689, 0.052316, 0.055064, 0.007642, -0.028525, -0.139765, -0.146711, -0.075582, 
    -0.241432, -0.206679, -0.178848, 0.100161, 0.145617, 0.132548, 0.209335, 0.190518, 0.126045, 0.126364, 
    0.123248, 0.128322, -0.221985, -0.235713, -0.145398, -0.085447, -0.130092, -0.075272, -0.027824, -0.056341, 
    -0.111590, -0.078143, -0.149495, -0.063924, -0.117820, -0.080339, -0.129660, 0.102894, 0.121466, 0.188706, 
    -0.017934, 0.092324, 0.044547, -0.093803, 0.032219, -0.064037, -0.013818, -0.044977, -0.077083, 0.138428, 
    -0.019645, 0.102404, -0.027100, 0.048351, 0.052400, 0.072937, -0.003915, 0.080787, -0.042745, 0.010368, 
    -0.048436, 0.031754, -0.031218, -0.025813, 0.060286, -0.057604, 0.019643, -0.042514, 0.065582, -0.049525, 
    -0.042807, 0.017146, 0.087935, -0.016150, 0.039753, -0.033035, 0.041102, -0.094937, -0.002453, 0.050073, 
    0.089352, 0.006407, 0.007182, 0.083376, -0.006603, -0.071248, -0.061929, 0.010975, 0.032653, -0.016711, 
    -0.004828, 0.056042, -0.065825, 0.037071, -0.041994, -0.086247, 0.021181, -0.038703, 0.077471, -0.001117, 
    -0.028403, -0.027813, 0.038419, -0.053726, 0.037146, -0.082373, 0.072408, -0.079530, 0.007069, -0.031379, 
    0.022602, -0.027274, 0.048754, 0.028629, -0.034514, -0.016773, -0.138190, 0.026027, 0.060941, 0.005160, 
    0.018508, 0.000387, -0.102013, -0.021439, 0.089804, 0.058120, 0.025940, -0.071430, 0.065120, -0.033022, 
    0.073833, 0.055467, 0.138569, 0.211281, 0.168058, 0.184142, -0.245962, -0.150058, -0.250072, -0.037603, 
    -0.114082, -0.092368, 0.036052, 0.086070, -0.050495, -0.109886, -0.045141, -0.026560, -0.115985, -0.126672, 
    -0.173492, 0.017097, 0.070552, -0.060183, -0.009932, -0.045518, -0.029261, -0.065732, -0.033147, 0.012500, 
    0.009140, 0.044740, -0.064551, 0.025379, 0.041325, -0.072770, -0.011515, -0.050603, 0.042222, -0.038239, 
    0.008550, 0.051423, -0.029622, -0.017926, 0.017053, 0.072129, 0.086228, -0.017585, 0.071708, 0.025174, 
    0.046420, 0.022551, 0.001540, -0.061287, 0.010297, 0.020778, 0.038281, 0.007674, -0.020367, 0.113993, 
    -0.063245, -0.029973, -0.094413, 0.070287, 0.082104, 0.071677, -0.013919, 0.035609, -0.061135, -0.034507, 
    0.018739, 0.003622, -0.037548, 0.053939, 0.038043, 0.056623, 0.125517, 0.027861, 0.021289, 0.043879, 
    -0.072090, 0.008388, -0.036147, 0.032247, -0.115135, -0.043800, -0.009319, 0.031706, 0.049973, 0.025187, 
    0.072299, 0.027045, 0.031016, -0.113346, -0.017113, -0.073403, 0.009910, -0.034147, -0.001085, -0.044216, 
    0.071882, -0.000586, -0.035430, 0.018016, -0.000876, -0.023714, 0.025893, 0.053054, -0.015274, -0.004220, 
    0.039090, -0.093980, -0.082416, 0.060437, 0.042516, 0.020815, -0.015579, -0.061823, 0.045918, -0.045939, 
    -0.154514, -0.130865, 0.062510, 0.021855, 0.036047, 0.038256, 0.079218, 0.123210, 0.151356, -0.238850, 
    -0.174767, -0.256158, -0.139691, -0.032817, -0.142153, 0.170774, 0.051422, 0.011419, -0.088803, 0.036887, 
    -0.113295, -0.030816, -0.060372, -0.099091, 0.039724, -0.072207, -0.045143, -0.096424, -0.073085, -0.000827, 
    -0.088861, -0.102943, -0.112583, -0.087071, 0.025025, -0.019528, -0.001577, 0.015509, 0.071504, -0.067480, 
    -0.057771, 0.045296, 0.059136, -0.041644, -0.070645, 0.119389, 0.136475, 0.132510, 0.081911, -0.061882, 
    0.052356, -0.025937, 0.078119, 0.069861, 0.018398, 0.034422, -0.115339, -0.100073, -0.131570, 0.025996, 
    0.038106, -0.055482, 0.090165, 0.076759, -0.098581, 0.094126, -0.047603, -0.067318, 0.048017, 0.091922, 
    0.035157, 0.071845, 0.028880, 0.032341, -0.078149, -0.031371, -0.128093, -0.038333, 0.016533, 0.016003, 
    -0.045588, -0.066813, 0.075741, 0.056411, 0.074860, 0.019752, 0.016363, -0.077995, 0.009000, -0.106963, 
    0.156199, 0.111043, -0.068132, -0.028367, -0.070656, -0.077887, 0.037281, -0.035968, 0.075935, -0.008173, 
    0.125500, 0.026607, -0.031804, 0.026313, 0.071517, 0.005566, -0.106336, -0.067832, -0.099237, -0.021067, 
    -0.111798, -0.027792, 0.033642, -0.089013, -0.027018, 0.062317, 0.075956, -0.054977, 0.062163, -0.119175
    
};

static const data_t conv1_b[16] = {
-0.005504, -0.086706, 0.077088, 0.049475, 0.079396, 0.017126, 0.032208, -0.056559, 0.177822, 0.081312, 
    -0.069069, 0.023619, -0.113406, 0.152740, -0.114487, 0.080171
};

static const data_t conv2_w[1536] = {
0.228940, -0.045340, 0.210605, 0.099757, 0.198261, 0.031587, -0.038365, -0.061401, -0.058844, 0.053631, 
    -0.118522, -0.093557, 0.185859, -0.028203, -0.030869, -0.127937, -0.112976, -0.067272, -0.202601, -0.038211, 
    -0.184643, 0.073027, 0.138444, 0.083932, 0.063306, 0.067379, 0.021991, 0.036125, -0.003134, -0.025298, 
    0.025798, 0.240161, 0.090556, 0.116950, 0.164428, 0.071638, -0.168879, -0.150632, -0.068380, 0.149154, 
    -0.001635, 0.110949, -0.108377, -0.018038, -0.054571, -0.090748, -0.023178, -0.054948, -0.003477, -0.058115, 
    -0.082556, -0.193234, -0.142317, -0.094874, 0.034008, 0.104220, 0.140629, 0.059786, -0.053301, 0.008986, 
    -0.129086, 0.030328, -0.107292, -0.009197, -0.021433, -0.090171, 0.048833, -0.065620, -0.026793, -0.088090, 
    -0.013890, -0.007083, 0.177502, 0.122992, 0.223879, 0.014753, -0.035233, -0.068765, -0.133660, -0.220912, 
    -0.038956, 0.029278, 0.020296, 0.084415, -0.010115, -0.076307, 0.001516, 0.080437, 0.225442, 0.164991, 
    -0.111905, -0.053601, 0.022160, 0.065013, 0.124552, 0.127604, -0.099413, -0.071229, -0.035863, -0.047630, 
    0.014607, -0.056195, 0.146225, 0.185013, 0.104392, -0.072131, -0.096815, -0.057014, 0.038614, -0.004498, 
    0.021784, 0.227571, 0.158611, 0.123149, 0.030199, 0.120352, 0.107220, -0.123976, -0.092213, -0.028948, 
    -0.049090, -0.005792, -0.159366, -0.206207, -0.060990, -0.069956, -0.030120, -0.109074, 0.040176, -0.067988, 
    0.046328, -0.134254, 0.097359, 0.059401, -0.021896, 0.035550, -0.157556, 0.060726, 0.069152, 0.065599, 
    0.124216, 0.088800, 0.132221, 0.158774, 0.033372, 0.224412, 0.121874, 0.097273, 0.150618, 0.237261, 
    -0.141665, -0.152105, -0.022884, -0.118741, -0.020151, -0.084806, 0.107117, 0.171939, -0.003979, -0.221433, 
    -0.079466, -0.139590, -0.129782, -0.226698, -0.009851, 0.088328, 0.058568, 0.027151, 0.020354, 0.106660, 
    0.048445, 0.206792, 0.066966, 0.065905, 0.200693, 0.121799, 0.104289, 0.146243, 0.199389, 0.136603, 
    -0.030718, -0.027427, -0.066646, 0.129599, 0.117123, 0.097872, -0.031902, -0.005882, -0.087178, -0.160794, 
    -0.036091, -0.249856, 0.203560, 0.160040, 0.184073, 0.045337, -0.061736, 0.142333, -0.159599, -0.059241, 
    -0.034138, -0.060592, 0.074154, 0.017891, 0.123824, -0.072682, 0.096375, -0.032276, -0.027395, 0.026585, 
    -0.134997, -0.261394, -0.065587, 0.040275, 0.013287, -0.119725, 0.053651, 0.016179, 0.238108, 0.160019, 
    0.156657, 0.155999, 0.004745, 0.032288, 0.051227, 0.031700, 0.191440, 0.143114, -0.013783, -0.100117, 
    -0.182716, 0.104103, 0.240013, 0.233315, -0.101187, -0.143143, -0.202549, -0.143641, -0.000699, -0.137265, 
    -0.017875, 0.004546, -0.063533, -0.047992, -0.113433, -0.063812, 0.090941, 0.003956, 0.163209, 0.124128, 
    0.013656, 0.180201, -0.178384, -0.164545, -0.109128, 0.048983, 0.087167, 0.088490, 0.130217, -0.062455, 
    0.093254, -0.121190, -0.065357, 0.025047, 0.038088, -0.088394, -0.107579, -0.085639, -0.088503, 0.031076, 
    -0.118149, -0.005611, -0.049970, -0.055999, 0.008056, 0.043531, 0.007205, 0.140255, -0.059348, 0.090742, 
    -0.025868, -0.037870, 0.006581, 0.099187, 0.145540, 0.169698, 0.124333, 0.134234, -0.009822, 0.022250, 
    0.052498, 0.242730, 0.190429, 0.013629, 0.069901, -0.020448, 0.049912, -0.254360, -0.089030, -0.238202, 
    0.213532, 0.177020, -0.003677, -0.024695, 0.114762, 0.072033, 0.122561, -0.018448, 0.140196, 0.004171, 
    0.024885, 0.003809, -0.161401, -0.180786, -0.291681, -0.126035, -0.111170, -0.173282, 0.057895, 0.072821, 
    0.019356, -0.109178, -0.046131, -0.130805, -0.020534, 0.061814, 0.195560, -0.147658, -0.015299, -0.134561, 
    0.048811, -0.051334, 0.212114, 0.117927, -0.009665, 0.083422, 0.132399, 0.081638, 0.093340, 0.054690, 
    0.027310, 0.030652, 0.111518, -0.040374, -0.010484, -0.239977, -0.258948, -0.166208, 0.137714, 0.018683, 
    0.189307, 0.054623, 0.076652, 0.225071, 0.222401, 0.088565, 0.017166, 0.054978, 0.094453, 0.133778, 
    -0.164035, -0.226076, -0.282882, -0.137948, -0.061263, -0.035924, 0.069405, 0.006751, 0.123201, -0.150093, 
    -0.129054, -0.143405, 0.053708, 0.217782, 0.156778, -0.144555, -0.063534, -0.037979, 0.098292, -0.002155, 
    0.047820, -0.108235, -0.007357, -0.107126, -0.123836, -0.127541, 0.048888, 0.008541, 0.003129, -0.063628, 
    0.105316, 0.182006, 0.065723, 0.039919, 0.071621, 0.073504, -0.173416, -0.004346, 0.038102, 0.054711, 
    0.164416, 0.113285, 0.083743, 0.085980, 0.201109, -0.089744, -0.171733, -0.145324, -0.002099, 0.007514, 
    -0.035258, -0.102639, -0.108701, -0.107736, -0.163393, -0.070063, -0.053294, 0.019451, -0.079020, -0.039387, 
    0.144485, 0.108669, 0.069365, 0.022195, 0.013554, -0.097511, 0.062677, 0.012472, 0.172848, 0.244549, 
    0.146239, 0.245026, -0.108296, 0.074458, 0.074423, -0.126207, -0.182746, -0.078813, -0.046985, -0.015583, 
    -0.196391, 0.077770, -0.016432, 0.047325, -0.147425, -0.030036, -0.111643, -0.062431, 0.044613, 0.164840, 
    0.088262, -0.097645, 0.072941, -0.086895, -0.125494, -0.036563, 0.032116, -0.005711, -0.035088, -0.060635, 
    0.111614, 0.049237, -0.151982, -0.168719, -0.162090, -0.011608, -0.005671, 0.137134, 0.051951, 0.004497, 
    0.143148, 0.045546, 0.038741, 0.180602, -0.091860, 0.038635, 0.129324, -0.070165, -0.075200, 0.121604, 
    -0.239105, 0.034492, -0.113936, -0.186586, -0.298993, -0.245098, 0.091032, 0.120585, 0.177097, 0.249845, 
    0.118854, 0.113559, -0.101819, -0.129991, -0.070868, -0.116581, -0.109059, 0.098103, -0.112694, 0.064549, 
    -0.017523, -0.096191, 0.007615, -0.198923, 0.047126, 0.084650, 0.111963, -0.145157, 0.032471, -0.089684, 
    -0.135768, -0.052186, -0.155713, 0.022187, 0.019970, 0.134025, 0.008002, -0.036438, -0.137358, 0.032830, 
    0.227922, 0.224098, 0.023511, -0.149228, 0.060506, 0.092458, 0.202277, 0.231174, 0.103193, 0.021805, 
    0.223241, 0.007013, 0.169115, -0.042196, -0.065328, -0.105030, -0.064633, 0.059854, -0.071144, -0.087155, 
    0.139448, 0.113313, 0.042899, -0.164686, -0.070489, -0.084684, -0.005983, -0.116804, -0.122012, -0.043133, 
    -0.017996, 0.122439, 0.120565, 0.048849, -0.010614, 0.174869, 0.062794, -0.006467, 0.029538, 0.056802, 
    0.150453, 0.103436, 0.151714, 0.058187, 0.036788, -0.095801, -0.073764, 0.079497, 0.004480, 0.057658, 
    -0.186000, -0.048697, -0.028185, -0.095796, -0.141284, 0.045425, -0.000229, 0.128739, 0.170088, 0.088471, 
    0.159368, 0.266729, 0.051250, -0.080693, 0.024775, -0.288158, -0.243240, -0.062882, 0.086233, 0.243523, 
    0.116423, -0.078922, 0.114879, 0.102824, 0.054014, -0.038782, 0.044081, 0.045459, 0.203805, 0.112753, 
    -0.079562, -0.009903, -0.034986, -0.071978, 0.133166, 0.103539, 0.114786, 0.289896, 0.227787, -0.033494, 
    -0.099218, -0.011993, -0.070410, 0.143131, 0.167037, -0.158819, 0.039228, -0.119837, 0.078240, -0.034509, 
    0.064933, -0.085693, -0.076530, -0.139797, -0.092316, 0.049687, 0.031877, 0.092881, -0.024962, 0.057230, 
    0.029337, 0.145019, 0.053681, -0.162306, -0.142697, -0.090842, 0.018680, 0.121064, 0.079384, -0.027764, 
    0.079318, -0.037180, -0.032625, 0.103303, 0.115069, 0.060521, 0.176104, -0.042050, -0.263032, -0.188071, 
    -0.181337, -0.106149, 0.029862, -0.159986, -0.049553, 0.009528, 0.103553, -0.071098, -0.026087, -0.080988, 
    0.185218, 0.147209, 0.169064, -0.152245, -0.210009, -0.183968, 0.109314, 0.154772, 0.013294, 0.076193, 
    -0.011051, -0.024849, 0.099580, 0.075709, 0.241348, 0.187583, 0.256933, 0.062506, -0.087358, -0.022324, 
    0.047113, -0.085719, -0.097182, -0.224227, 0.102849, 0.011757, -0.009897, -0.032581, -0.115968, 0.093687, 
    -0.077156, 0.055729, 0.092656, 0.027653, 0.191556, 0.105592, 0.026852, 0.095332, -0.077218, -0.020278, 
    0.146961, 0.060781, 0.143984, 0.256438, 0.085518, 0.012037, 0.112606, 0.093061, -0.060894, 0.073893, 
    -0.066981, -0.074352, 0.099417, -0.001463, -0.037388, 0.038391, 0.054495, -0.200182, -0.183484, -0.204968, 
    0.144033, 0.007855, 0.118587, 0.073803, 0.001581, 0.049217, -0.114949, -0.060031, -0.043611, -0.106261, 
    -0.105697, 0.095961, 0.078867, 0.002720, 0.054481, 0.011228, -0.154686, -0.141684, -0.166434, -0.068413, 
    -0.104932, -0.042618, 0.152076, -0.057233, 0.184778, -0.048766, 0.038620, 0.092775, -0.006152, 0.190595, 
    0.012842, 0.098245, 0.004936, 0.120463, 0.189864, 0.208566, -0.082883, -0.142007, 0.056432, 0.133724, 
    0.216977, 0.057433, -0.162724, -0.185405, 0.042036, -0.073917, -0.180932, -0.093311, -0.215312, -0.097559, 
    -0.030038, -0.285484, -0.125173, -0.192431, 0.128986, -0.020677, 0.157514, 0.265097, 0.253187, 0.184176, 
    -0.073795, 0.000801, -0.062677, 0.040915, 0.025955, 0.155062, 0.078245, -0.090543, -0.009331, -0.219482, 
    -0.090684, -0.275621, 0.047733, -0.033479, 0.055264, -0.021439, -0.121827, 0.007850, -0.129697, -0.247792, 
    -0.015652, 0.084231, 0.067967, -0.036910, -0.014316, -0.119656, -0.076168, 0.137668, 0.150487, 0.160271, 
    -0.200941, 0.065732, -0.079198, 0.226222, 0.222547, 0.173446, 0.054181, 0.022257, 0.044160, -0.269515, 
    -0.065370, -0.142734, 0.129461, 0.031583, 0.169130, 0.234216, -0.001877, 0.227680, -0.192498, -0.154685, 
    -0.149357, 0.038512, -0.086159, -0.016870, -0.106965, 0.018833, -0.113324, -0.169118, -0.098262, -0.088805, 
    0.037116, 0.144252, 0.001433, -0.105528, -0.009373, -0.062422, -0.022772, -0.152860, -0.070571, 0.101208, 
    -0.073313, 0.148781, -0.114332, -0.074606, -0.108137, 0.076949, 0.087725, 0.024188, -0.015761, -0.039863, 
    0.114761, 0.153391, 0.187124, 0.125571, -0.035516, 0.045487, 0.068701, -0.353499, -0.223840, -0.289404, 
    0.097995, 0.041114, 0.218385, 0.177965, 0.153314, 0.051814, -0.279660, -0.128384, -0.162419, -0.056151, 
    0.096259, -0.042035, -0.124658, 0.041635, 0.024050, -0.183168, -0.061156, -0.050736, 0.006895, 0.140405, 
    0.143259, -0.005795, 0.126121, -0.093967, -0.112834, -0.210780, -0.213689, 0.161836, 0.001840, 0.068680, 
    -0.010899, -0.175947, -0.160440, 0.219591, 0.302030, 0.176017, 0.008652, -0.031249, -0.008341, 0.014163, 
    0.227874, 0.173846, 0.002603, 0.071482, -0.114224, 0.131301, 0.015300, 0.068428, 0.086697, 0.089280, 
    0.069957, -0.275749, -0.234066, -0.171970, 0.054508, -0.049270, 0.203354, 0.106143, -0.008468, 0.148453, 
    0.138699, 0.004256, 0.151187, 0.024539, 0.112592, 0.173496, -0.137435, -0.111300, -0.208626, -0.043627, 
    -0.016216, -0.037267, 0.050165, 0.074434, 0.016158, -0.140308, -0.172317, -0.161842, -0.004975, 0.217659, 
    0.119361, -0.252829, -0.164354, -0.074106, 0.057646, 0.057488, 0.065089, -0.061770, -0.016102, -0.026016, 
    0.178561, 0.167646, 0.205513, 0.062260, 0.000506, 0.075634, -0.148617, -0.003635, -0.081791, -0.071792, 
    -0.141734, 0.023026, 0.108574, 0.156934, -0.011819, -0.061855, -0.075453, -0.155432, -0.195802, -0.040394, 
    -0.193584, 0.152566, 0.092658, 0.092151, 0.119302, 0.090347, 0.092529, 0.109621, -0.031267, -0.036675, 
    0.043232, 0.144641, 0.174359, 0.155937, 0.001233, 0.043644, -0.189843, 0.007018, -0.139902, 0.033113, 
    0.198661, 0.128358, -0.152231, -0.163285, -0.153085, -0.003903, -0.237089, -0.006884, 0.172963, 0.095024, 
    0.090139, 0.279988, 0.229954, 0.304838, 0.051315, -0.101535, 0.062479, -0.169850, -0.266302, -0.113537, 
    0.026854, 0.023689, 0.113696, -0.020327, -0.008655, -0.036197, 0.094891, 0.171729, 0.027936, 0.042798, 
    0.111677, -0.016083, -0.207067, -0.114290, 0.032567, -0.063834, 0.016634, -0.040901, 0.082584, 0.159788, 
    0.187564, -0.020534, 0.115333, 0.076996, 0.123943, 0.095894, 0.072262, -0.038245, -0.127084, 0.044738, 
    0.105191, 0.002300, 0.079903, -0.221624, -0.199933, -0.090524, 0.055726, 0.005997, 0.107712, -0.157740, 
    -0.144054, 0.014946, -0.104390, 0.038971, 0.120982, 0.227812, 0.169681, -0.000172, -0.015527, -0.068013, 
    -0.056136, 0.081331, -0.050807, -0.095957, -0.175212, 0.017054, -0.046135, 0.092417, -0.023480, -0.190413, 
    0.178672, 0.260504, 0.234374, 0.089494, -0.071743, -0.044234, 0.049711, -0.096508, 0.007383, 0.062238, 
    0.113421, 0.082177, -0.178912, -0.117775, 0.027132, 0.195141, 0.240255, 0.112735, -0.009714, -0.092272, 
    -0.074178, 0.083277, 0.014280, 0.017011, -0.132263, -0.079067, -0.120067, -0.134161, -0.247629, -0.003918, 
    0.217438, 0.123693, 0.093550, -0.013324, 0.166510, 0.218118, 0.028310, -0.047733, 0.012443, 0.180048, 
    0.081116, 0.018235, -0.104229, 0.094495, 0.106080, -0.012951, -0.196355, -0.080070, -0.013514, -0.017988, 
    0.076083, -0.128479, 0.076914, 0.025222, -0.219658, -0.044727, -0.117204, 0.023006, -0.001434, -0.097038, 
    -0.027154, 0.067883, 0.011121, -0.009265, 0.058362, 0.090470, -0.044004, -0.097034, -0.041439, 0.101117, 
    0.167357, 0.247746, 0.004796, 0.020957, 0.042651, 0.056751, 0.030563, 0.141404, 0.163627, 0.091401, 
    -0.036859, -0.094754, -0.278612, -0.110098, 0.089229, 0.099510, -0.072597, 0.053891, 0.161487, 0.211247, 
    0.046155, 0.211884, 0.059161, 0.011569, -0.005996, 0.029641, -0.222938, -0.098391, -0.253728, -0.114276, 
    -0.198635, 0.019778, 0.023043, -0.070229, 0.028223, -0.089620, -0.040261, -0.104608, 0.178676, 0.042750, 
    0.053142, -0.137427, -0.081982, -0.030201, 0.077008, 0.185046, 0.202553, -0.088075, -0.021565, -0.070744, 
    0.128604, 0.037446, 0.144577, 0.233192, 0.123812, 0.127902, -0.077089, -0.040439, 0.049699, -0.182641, 
    -0.071539, -0.249418, 0.100447, -0.021479, 0.106270, 0.033141, -0.126121, 0.109904, 0.013270, 0.172766, 
    0.033265, 0.215207, 0.241244, 0.068680, -0.101600, 0.019895, -0.146964, 0.126556, -0.049615, 0.172224, 
    0.117410, 0.142015, 0.300547, -0.063580, 0.113355, 0.114971, 0.173890, -0.081007, 0.082163, -0.099929, 
    0.008933, -0.083938, 0.091904, 0.043144, 0.003986, -0.256346, -0.065000, -0.166138, 0.081661, 0.026051, 
    0.049518, 0.087215, 0.085758, 0.064772, -0.088695, 0.097362, -0.045805, -0.125088, -0.213433, -0.089899, 
    0.179663, -0.023300, 0.187804, 0.035723, -0.058289, 0.108932, 0.125990, 0.174841, -0.061544, 0.192784, 
    0.163227, 0.193378, -0.117908, -0.225349, -0.051232, 0.074685, -0.098753, -0.071395, 0.195443, 0.187096, 
    0.173868, 0.020633, -0.141431, -0.087693, -0.003874, 0.130891, 0.108625, -0.262810, -0.115102, -0.197510, 
    -0.067535, 0.197095, 0.029842, -0.033036, -0.101060, -0.091201, -0.019111, 0.094077, -0.027618, 0.219113, 
    0.172211, 0.185791, -0.037018, 0.026652, 0.001055, -0.183504, -0.145873, -0.111037, 0.176490, 0.121641, 
    -0.022684, -0.030754, 0.181785, 0.100785, 0.115716, 0.017426, 0.099656, 0.129854, -0.020280, 0.154479, 
    -0.187451, -0.307735, -0.299320, -0.089616, -0.039873, -0.116763, 0.224907, -0.041483, 0.022709, -0.176873, 
    -0.039121, -0.078094, 0.036975, 0.221886, -0.011694, -0.097140, -0.171622, -0.160012, -0.050272, 0.014984, 
    0.047327, 0.029320, -0.052637, 0.075736, -0.163768, -0.083757, -0.006592, -0.136843, -0.230083, -0.083381, 
    0.122405, 0.176914, 0.195320, 0.201571, 0.101031, 0.107294, -0.060107, -0.001662, -0.044770, 0.067401, 
    -0.061621, 0.114529, -0.040706, -0.099713, -0.054065, -0.242695, -0.102235, -0.201411, 0.058533, 0.086223, 
    0.011214, -0.011902, -0.031418, 0.026168, -0.084252, -0.205545, -0.051310, 0.024909, -0.020423, 0.003195, 
    -0.031136, -0.027602, -0.046303, 0.047565, 0.194130, 0.159634, -0.167216, -0.021107, 0.007675, 0.058605, 
    0.048501, 0.032231, 0.207936, -0.069975, 0.196719, -0.109069, -0.058603, -0.085583, -0.078486, 0.032146, 
    0.051678, 0.041558, 0.062717, 0.195350, -0.010456, 0.024932, 0.045671, -0.063874, -0.093330, 0.012015, 
    -0.148125, -0.178154, -0.172456, -0.080100, 0.102406, -0.020274, 0.173806, 0.126729, 0.029328, 0.150315, 
    0.015961, 0.008145, 0.126082, -0.052413, 0.049120, -0.047674, 0.135488, 0.128996, -0.203424, -0.018555, 
    -0.066189, 0.107963, 0.291572, 0.238981, -0.069069, -0.133408, -0.129235, -0.023917, 0.090584, 0.065275, 
    -0.173866, 0.052324, 0.018979, -0.250678, -0.088108, -0.189403, 0.134377, 0.207684, -0.007957, 0.043986, 
    0.097775, 0.133660, -0.220926, -0.168153, -0.077545, -0.002708, 0.049692, 0.066158, 0.016966, 0.004735, 
    0.031575, -0.129060, -0.071879, -0.037508, -0.025134, -0.054977, 0.062159, -0.101253, 0.068035, 0.024451, 
    -0.111461, -0.162489, -0.088269, -0.067002, -0.086528, 0.138543, -0.154487, -0.135500, -0.057980, 0.111078, 
    0.136085, 0.051485, -0.049782, -0.059296, 0.105700, 0.210736, 0.145743, 0.103690, 0.020728, -0.163397, 
    0.020971, -0.092875, 0.099668, -0.091130, 0.184971, 0.017025, 0.231022, 0.046705, 0.130238, -0.089271, 
    0.083517, -0.079624, -0.051976, 0.201931, 0.128490, 0.052437, -0.006523, 0.072031, 0.151704, 0.042027, 
    0.021744, -0.071693, -0.204342, -0.225382, 0.016583, -0.135635, -0.068891, -0.153548, -0.117293, -0.000584, 
    -0.044832, -0.052567, -0.047579, -0.027956, 0.068860, 0.088638, 0.161848, 0.008509, 0.033018, -0.163650, 
    -0.019003, 0.075806, 0.099413, 0.180203, 0.229380, 0.143457
};

static const data_t conv2_b[32] = {
-0.084033, 0.062825, 0.081679, 0.059999, -0.085681, 0.083504, -0.112872, -0.002831, 0.112862, -0.004984, 
    0.164070, -0.088393, 0.097930, 0.041341, 0.085024, 0.068521, 0.085127, 0.025339, 0.038744, -0.084690, 
    0.108074, -0.043754, 0.059415, -0.048015, 0.043133, -0.041373, -0.121965, 0.048860, -0.003759, 0.019954, 
    -0.017606, 0.108738
};

static const data_t fc_w[96] = {
-0.221920, 0.218943, 0.123831, -0.232416, 0.085961, 0.190267, -0.167454, -0.111174, 0.064425, 0.228120, 
    0.285126, -0.204872, -0.254646, -0.181702, -0.184609, -0.069441, 0.051543, 0.221140, 0.015659, -0.212776, 
    -0.173316, -0.266377, 0.233493, 0.100040, -0.062809, -0.206191, -0.250517, -0.225388, 0.256756, 0.138468, 
    0.237353, 0.098452, -0.149442, -0.242803, 0.213673, -0.202112, -0.074048, 0.043272, 0.297118, 0.265739, 
    0.043277, -0.155889, -0.108781, -0.171249, 0.040556, 0.118441, 0.085655, -0.156220, -0.193394, -0.263434, 
    -0.341625, 0.153996, -0.186930, 0.117306, -0.257211, -0.087465, 0.235821, 0.148482, 0.180946, 0.302509, 
    -0.265293, -0.227586, -0.208978, 0.131345, 0.202449, 0.051186, -0.211485, 0.012781, 0.270805, -0.294710, 
    -0.253761, -0.076227, -0.293256, -0.160414, 0.007488, 0.214265, 0.011425, -0.221839, 0.171096, 0.273184, 
    -0.223236, -0.057074, -0.127932, -0.216173, 0.141484, 0.094034, 0.164836, -0.321041, -0.174757, 0.149607, 
    0.026957, -0.068880, -0.198515, 0.245077, -0.214876, -0.282302
};

static const data_t fc_b[3] = {
0.145993, -0.124975, 0.104898
};

#endif // VOICE_CNN_WEIGHTS_H
