#ifndef VOICE_CNN_WEIGHTS_H
#define VOICE_CNN_WEIGHTS_H

#include "voice_typedefs.h"

// PyTorch Layer: conv1.weight (Shape: (16, 40, 3))
static const data_t conv1_w[1920] = {
0.187249, 0.115837, 0.027536, 0.207203, 0.270452, 0.316157, -0.150626, -0.010699, 0.083636, -0.208113, 
    0.013554, -0.091596, -0.156688, -0.072087, 0.078849, 0.031089, 0.076939, 0.084128, 0.063850, 0.051184, 
    -0.005223, 0.200551, 0.025755, 0.062870, 0.075570, 0.126303, 0.330286, -0.191180, -0.148525, -0.135464, 
    0.031919, -0.027101, 0.318510, -0.252662, -0.003326, 0.123049, -0.054550, 0.147508, 0.182426, -0.260551, 
    -0.108752, 0.075406, 0.175375, 0.249766, 0.396230, -0.202472, -0.215740, -0.019925, -0.084459, -0.329108, 
    -0.225291, 0.183273, 0.101505, 0.315937, 0.169387, 0.156800, 0.249177, 0.060973, 0.045037, -0.062057, 
    -0.014031, -0.130074, 0.166570, 0.073292, -0.117622, 0.027075, 0.316970, -0.032255, -0.044866, 0.091271, 
    0.150876, 0.047319, 0.162478, -0.164652, -0.347027, 0.174434, 0.230515, 0.286559, -0.091343, -0.218691, 
    -0.283564, 0.032720, 0.169610, 0.049941, 0.160958, -0.010813, 0.102129, -0.105265, -0.138669, 0.119304, 
    -0.055977, 0.065476, 0.149513, 0.181256, -0.043355, -0.009661, 0.103599, -0.038524, 0.025716, 0.066608, 
    0.033360, -0.075053, 0.098529, 0.084357, -0.084852, 0.131739, 0.159035, 0.158757, 0.021002, -0.016409, 
    0.036555, 0.018729, -0.038289, 0.017835, 0.273554, -0.009888, 0.100810, 0.045139, -0.021821, -0.223164, 
    0.077795, 0.106435, 0.191910, -0.442280, -0.437753, -0.636643, 0.023767, -0.116142, 0.171126, 0.339072, 
    0.358354, 0.579996, -0.055021, -0.049643, 0.056474, 0.078636, -0.269242, -0.216527, 0.259072, -0.013568, 
    -0.157551, 0.022267, 0.165555, 0.089630, 0.046371, -0.100924, -0.099754, 0.145238, 0.028144, -0.247772, 
    -0.238197, -0.004059, -0.130953, -0.112679, 0.260114, -0.034128, 0.032099, -0.140794, 0.065624, -0.125108, 
    0.011653, 0.149833, 0.066172, -0.232009, -0.006845, 0.126567, -0.204683, 0.088719, 0.133799, -0.013973, 
    0.026108, 0.137054, 0.158465, -0.088964, -0.105125, 0.222226, -0.217854, 0.149973, 0.238119, 0.141799, 
    0.199988, -0.103184, 0.138904, -0.115838, 0.030216, -0.000893, -0.045806, 0.122568, 0.027816, -0.180326, 
    0.020470, 0.009319, -0.160596, -0.013117, -0.066988, 0.011286, 0.020777, -0.128361, -0.108139, 0.167300, 
    -0.064774, 0.014740, 0.244643, 0.084430, 0.006381, 0.008986, -0.022740, 0.044697, 0.070691, -0.119129, 
    0.104209, -0.203933, 0.088294, -0.134095, -0.134114, 0.227284, 0.168080, -0.025418, -0.065457, 0.003372, 
    -0.063236, 0.150976, 0.046931, 0.064488, -0.151440, -0.022728, 0.140382, 0.041501, -0.128848, 0.046039, 
    0.268771, 0.028923, -0.236160, 0.119374, -0.011319, -0.080667, -0.265861, -0.242229, 0.111844, -0.095248, 
    -0.064485, -0.145819, -0.142580, 0.545619, 0.472968, 0.091794, -0.272748, -0.070985, -0.069088, 0.325389, 
    0.237624, -0.007422, 0.011918, 0.103834, 0.075692, -0.453807, -0.051677, 0.022565, -0.377974, -0.034467, 
    -0.009560, -0.324405, 0.038410, 0.226794, 0.342801, 0.348319, 0.206355, 0.145082, 0.067742, -0.046522, 
    0.112266, -0.016456, 0.265231, 0.193419, 0.269060, -0.060174, 0.002913, 0.151070, 0.294146, 0.184389, 
    0.301267, 0.279495, -0.155981, 0.014196, -0.048208, -0.287358, -0.183955, 0.132949, 0.220277, 0.221694, 
    0.069232, -0.104748, -0.077694, -0.021025, -0.025362, -0.082476, 0.042380, -0.144862, -0.187152, -0.071267, 
    0.041160, -0.044257, -0.105449, -0.087715, -0.142116, -0.016520, -0.274409, 0.191964, 0.027415, -0.028535, 
    0.200362, 0.163459, -0.122341, -0.012279, 0.094306, -0.187052, -0.120535, -0.139858, 0.066069, 0.122043, 
    0.008556, 0.058995, 0.082194, 0.168571, -0.120072, -0.024657, 0.146439, -0.271604, -0.119671, -0.123528, 
    0.195498, 0.081042, -0.079316, -0.097253, -0.064407, -0.018524, -0.115578, -0.010878, -0.165669, 0.214850, 
    -0.031157, 0.041809, 0.157379, 0.027036, -0.010883, -0.078458, 0.136061, -0.000030, -0.116642, -0.183599, 
    -0.137480, -0.199126, 0.103179, -0.003055, -0.259966, -0.111058, 0.011137, -0.085511, -0.134352, 0.235041, 
    -0.112103, -0.113773, -0.126623, -0.336612, -0.024283, 0.138971, 0.279623, 0.154435, 0.046156, 0.143476, 
    0.372498, 0.330268, 0.026241, 0.127139, -0.294621, 0.100499, 0.339496, -0.117525, 0.036194, -0.117546, 
    0.099223, -0.085837, 0.211593, 0.213506, 0.134958, -0.060031, -0.255317, 0.078541, 0.112958, -0.261854, 
    0.175460, -0.049001, 0.018885, 0.239327, -0.026510, -0.037812, 0.102343, -0.017030, 0.056020, -0.081786, 
    0.101617, 0.316568, 0.171479, -0.159313, -0.151156, 0.153844, -0.055411, 0.029490, -0.013849, -0.004955, 
    -0.018995, 0.049289, -0.144495, 0.002888, 0.171295, -0.225066, 0.014014, 0.177695, -0.219105, 0.030116, 
    -0.095908, 0.110612, -0.020219, 0.025868, 0.197444, -0.084772, -0.110446, -0.028264, -0.194097, -0.003570, 
    -0.113472, 0.083516, -0.008436, -0.210414, -0.133142, -0.163320, 0.090193, -0.107859, -0.071835, 0.142690, 
    -0.063132, 0.240198, -0.207118, 0.077062, -0.169197, -0.173040, -0.019391, 0.071795, 0.161898, -0.073390, 
    0.240921, -0.041465, 0.033458, -0.009490, 0.221765, 0.181536, -0.285675, 0.070625, -0.113561, 0.128232, 
    -0.308422, -0.075041, 0.265900, 0.052825, 0.046446, -0.255563, 0.302108, -0.170280, 0.148238, -0.013557, 
    0.047567, -0.180976, 0.246177, 0.060632, -0.130849, -0.117893, -0.253851, 0.108332, -0.331321, 0.133505, 
    -0.133870, -0.185534, -0.172675, 0.011397, -0.075704, -0.333936, -0.019742, -0.228010, -0.150121, -0.073961, 
    0.043287, 0.036710, 0.385877, 0.113701, -0.073142, 0.239056, 0.249245, 0.079705, 0.171907, 0.282362, 
    0.218969, 0.209540, 0.194073, 0.348878, 0.425056, 0.264182, 0.141595, 0.135598, 0.159940, 0.095803, 
    0.024272, -0.287676, -0.296405, -0.146926, -0.191624, -0.164148, -0.032228, -0.263603, 0.207632, 0.063206, 
    -0.167173, 0.166262, -0.102563, -0.093071, 0.201409, -0.280836, 0.054534, 0.021804, -0.017013, -0.018859, 
    -0.129762, -0.258090, 0.062688, 0.008999, -0.029979, -0.062939, -0.184266, -0.039737, -0.264553, -0.015880, 
    0.145744, 0.164064, -0.080885, 0.222600, 0.080560, 0.023765, 0.048060, 0.014581, -0.016790, -0.213809, 
    -0.112163, 0.020658, -0.175748, 0.048565, -0.087492, -0.021387, 0.099613, -0.167059, 0.017940, 0.042214, 
    -0.020362, 0.149333, 0.103966, -0.072554, -0.095328, -0.015139, -0.061626, -0.094778, 0.121571, -0.011727, 
    -0.016475, 0.001812, -0.157555, 0.203248, -0.137622, -0.149531, 0.080722, -0.091473, -0.247675, 0.052323, 
    0.029223, -0.168277, -0.084707, -0.194666, 0.195819, -0.045413, -0.332412, 0.123120, -0.150845, -0.119887, 
    -0.009753, 0.025104, -0.020103, -0.121817, -0.155752, 0.112566, 0.001483, 0.069272, -0.179893, 0.113434, 
    -0.254424, -0.024995, -0.033687, -0.370481, -0.189420, 0.177465, 0.037010, 0.129175, 0.161499, 0.305860, 
    0.345551, 0.163269, 0.182112, 0.095690, -0.078143, -0.150737, 0.050227, -0.411142, -0.117272, 0.219050, 
    -0.106575, -0.103684, -0.091954, -0.181800, 0.019988, -0.215863, -0.276981, -0.113766, -0.256769, -0.323920, 
    0.065760, 0.223721, 0.129009, 0.036264, 0.038602, -0.100231, -0.199942, -0.048562, -0.212341, 0.162582, 
    0.213763, 0.086278, 0.237672, -0.010190, -0.296394, -0.029481, -0.073220, -0.346064, 0.069856, -0.004940, 
    0.096335, -0.018607, 0.115554, -0.110256, 0.082946, 0.201262, -0.060601, -0.099005, -0.001769, 0.295130, 
    0.023024, 0.117819, 0.140833, 0.003474, -0.045024, -0.141041, 0.028255, 0.146792, 0.163113, -0.078458, 
    0.066012, 0.179779, 0.415107, -0.082668, -0.204540, -0.014167, 0.001033, 0.028448, -0.102904, 0.062001, 
    0.137634, 0.216356, -0.086391, -0.111163, 0.056471, 0.184112, 0.045794, 0.047494, -0.024316, -0.271019, 
    0.016904, -0.114050, 0.131673, 0.023989, -0.187434, 0.063833, 0.132636, 0.064202, 0.085314, 0.141114, 
    -0.010510, 0.063422, -0.070089, -0.134919, 0.145399, 0.089002, -0.107493, 0.056188, 0.026407, 0.069452, 
    -0.056589, 0.078892, -0.095264, -0.140695, 0.164292, -0.054543, 0.145196, -0.184813, -0.104854, -0.022946, 
    0.114462, 0.174396, 0.184956, 0.250688, 0.213845, 0.139833, -0.111340, -0.266353, -0.355301, -0.113767, 
    0.081435, -0.365545, -0.204034, -0.130377, -0.157286, 0.195588, -0.039228, -0.025275, 0.335029, 0.213223, 
    0.304566, 0.207278, 0.097597, 0.116467, 0.169938, 0.251329, 0.326724, -0.054297, -0.174669, -0.031775, 
    0.135712, -0.100462, -0.115476, 0.072522, -0.015431, 0.012780, -0.103871, -0.042805, -0.103478, 0.115833, 
    -0.076924, -0.078542, 0.111590, -0.030165, 0.030234, -0.196153, -0.173758, -0.140356, -0.051675, 0.217864, 
    -0.010663, 0.044866, -0.051412, -0.146048, -0.190571, -0.173542, 0.138143, 0.105048, 0.158709, 0.096781, 
    -0.077576, -0.107503, -0.023414, -0.108380, -0.105014, 0.015134, 0.024195, 0.070926, -0.089657, -0.062698, 
    -0.110754, 0.015730, 0.093147, 0.128536, -0.056979, 0.009754, 0.007548, 0.036548, -0.223173, 0.044440, 
    -0.126522, 0.089716, 0.122853, 0.146474, -0.016313, -0.033464, -0.103860, 0.001570, 0.038009, -0.190375, 
    -0.067318, -0.132350, 0.130763, -0.143985, 0.081527, 0.017699, 0.038071, 0.058549, -0.152689, -0.103736, 
    -0.107572, 0.008483, -0.169191, -0.056547, -0.120683, -0.161926, 0.147846, -0.042688, 0.081050, -0.137372, 
    0.028543, 0.122601, 0.200002, 0.110263, -0.152372, -0.046290, -0.170289, 0.026024, -0.209754, -0.331356, 
    -0.096527, -0.234815, -0.239957, 0.434619, 0.476758, 0.320237, 0.189761, 0.284726, 0.354430, -0.129988, 
    -0.063651, -0.010462, -0.114933, 0.238829, -0.103271, -0.064462, 0.276186, 0.207656, -0.026211, 0.211113, 
    0.309925, -0.249985, 0.159197, -0.121334, -0.129143, 0.371176, 0.054679, 0.141921, 0.206330, -0.014494, 
    -0.221833, 0.155069, 0.079819, -0.218370, -0.210765, -0.102019, -0.170078, -0.305157, -0.237168, 0.020965, 
    0.083177, -0.191445, 0.095495, 0.088344, 0.180698, 0.009471, 0.233395, -0.030895, -0.267297, 0.013333, 
    0.094872, -0.141441, -0.103477, 0.095867, -0.004675, -0.082418, -0.261668, 0.059061, -0.025908, -0.086351, 
    0.128411, -0.174219, 0.105684, 0.193919, -0.193681, 0.099802, 0.051500, 0.001632, 0.111362, -0.036741, 
    0.112858, -0.109505, -0.074871, 0.193718, 0.052405, -0.193795, -0.063183, 0.003617, 0.055487, -0.001769, 
    -0.220526, 0.069386, -0.058231, -0.103050, 0.084901, -0.005554, 0.164969, -0.074417, -0.134095, -0.029138, 
    0.159935, -0.076658, -0.052275, 0.071762, 0.119861, -0.057218, 0.069237, 0.085440, -0.143395, 0.002914, 
    -0.004440, 0.332814, 0.164415, -0.132348, -0.213511, -0.021671, -0.025985, -0.163657, -0.110413, 0.007498, 
    -0.178563, 0.055553, 0.087644, -0.026639, 0.139169, -0.081227, 0.009193, -0.229000, 0.083218, 0.037503, 
    -0.197345, -0.149835, -0.250975, -0.122270, 0.177995, 0.353734, -0.232393, -0.100333, 0.319789, -0.300374, 
    -0.236237, -0.072765, -0.001609, -0.240211, -0.053726, 0.156487, 0.074448, -0.105330, 0.082739, 0.102116, 
    0.223108, 0.180741, 0.136098, 0.222885, -0.178383, -0.131594, -0.034745, -0.151679, -0.166559, -0.151142, 
    0.203287, 0.211840, 0.268427, 0.223043, 0.207614, -0.021825, -0.152657, -0.090022, -0.047994, -0.103056, 
    -0.041756, -0.306680, -0.286303, 0.029965, -0.032143, 0.075915, 0.386946, -0.061759, 0.162953, 0.154167, 
    -0.102168, -0.240401, -0.108063, 0.039558, -0.059534, 0.189502, 0.090556, 0.035872, 0.225586, 0.170472, 
    -0.008020, 0.031049, -0.167830, -0.046383, -0.033606, -0.069584, 0.027082, 0.077924, -0.051769, -0.097940, 
    -0.071697, -0.111559, -0.089692, -0.011365, 0.183651, 0.125486, -0.199746, 0.071446, 0.158419, 0.220019, 
    -0.196286, 0.166755, 0.010850, -0.140623, -0.063452, -0.015287, -0.028310, 0.105638, 0.094881, 0.024442, 
    0.154060, -0.089009, -0.087529, -0.147815, 0.063560, -0.056767, -0.224944, 0.123426, 0.180847, -0.046914, 
    -0.059847, 0.114164, 0.033366, 0.018271, -0.046508, 0.038101, -0.202155, 0.126278, 0.098278, 0.023145, 
    0.115708, -0.172698, -0.148631, 0.102137, 0.046147, -0.047159, 0.148772, 0.095078, 0.051344, -0.064722, 
    -0.206760, -0.218567, -0.256033, -0.190066, -0.032653, 0.150677, -0.088504, -0.122807, 0.099563, -0.384904, 
    -0.310946, -0.102821, -0.120914, -0.104906, -0.042221, 0.282552, 0.119532, 0.081859, 0.107377, 0.278370, 
    0.084291, 0.087106, 0.015201, 0.063471, -0.176210, 0.082591, -0.028841, -0.172335, -0.120249, -0.100109, 
    -0.060127, -0.190507, -0.102742, -0.020674, -0.088933, -0.092968, -0.017751, 0.008099, -0.013390, 0.235853, 
    -0.114256, -0.008516, -0.297527, -0.199341, 0.059225, -0.012871, 0.077378, 0.101528, 0.203311, 0.227240, 
    0.068768, 0.067688, 0.142370, 0.058561, 0.213383, 0.103951, 0.199454, 0.000638, 0.006953, 0.095378, 
    0.245300, 0.096613, 0.051558, -0.009209, -0.030694, -0.086191, 0.041328, -0.051123, -0.026160, -0.021443, 
    -0.033032, -0.078478, 0.199385, -0.050406, 0.123725, 0.130274, -0.082142, 0.114096, 0.102947, 0.200899, 
    -0.025162, -0.000850, 0.110149, 0.193549, 0.016166, 0.073019, -0.048581, 0.010799, 0.091714, 0.242496, 
    -0.068448, 0.090111, 0.334262, 0.042926, 0.029819, 0.227376, 0.019834, 0.051953, 0.222229, 0.024469, 
    -0.134751, -0.011101, -0.083220, 0.024110, -0.160669, 0.193531, 0.235545, -0.069104, 0.258930, -0.072229, 
    -0.075662, -0.070968, -0.099511, -0.147650, -0.157192, -0.078780, -0.024297, -0.090268, 0.151101, -0.093544, 
    -0.224908, -0.227082, -0.227874, 0.441184, 0.503159, 0.401454, 0.348778, 0.182861, 0.236306, 0.020195, 
    0.238228, -0.158590, 0.379216, 0.403887, 0.059756, 0.017849, 0.211919, 0.164754, -0.087737, -0.256354, 
    -0.064825, -0.058837, -0.077253, -0.117280, 0.091357, -0.062825, -0.068033, -0.257378, -0.044402, -0.084424, 
    0.084363, 0.126376, 0.037016, 0.059278, 0.032521, 0.189130, 0.105068, -0.017707, 0.176856, 0.290270, 
    -0.295055, 0.178464, 0.205999, 0.046173, 0.259505, 0.014905, -0.074592, -0.058683, 0.002692, -0.052081, 
    0.143147, -0.087992, 0.251212, -0.168230, -0.003187, 0.242982, -0.074851, 0.058294, -0.092161, 0.042614, 
    -0.006166, 0.212992, -0.017349, -0.097469, 0.268283, -0.144943, -0.134947, 0.277264, 0.296829, 0.000166, 
    0.027564, 0.032321, -0.072132, 0.086837, -0.091251, 0.049807, 0.050637, 0.117014, 0.179633, 0.166925, 
    -0.126520, 0.209747, 0.086848, -0.242454, -0.212635, 0.298587, 0.275189, -0.080768, -0.268240, 0.093917, 
    -0.140771, -0.002760, 0.159061, -0.321469, 0.093610, -0.121245, -0.199644, 0.247726, 0.233884, 0.190357, 
    -0.069589, -0.019224, 0.147579, 0.083089, -0.216031, 0.044172, 0.030070, 0.189902, 0.098798, -0.255785, 
    0.164464, 0.259977, -0.117608, -0.136378, 0.041726, 0.029688, 0.046433, 0.231379, -0.464169, 0.067782, 
    -0.151722, -0.111677, -0.134599, -0.844732, -0.916799, -0.658764, -0.483039, -0.196046, -0.367719, 0.056573, 
    -0.089640, 0.076553, -0.242137, -0.322555, -0.414828, 0.118594, -0.030970, -0.122628, 0.341957, 0.141028, 
    0.282836, 0.290169, 0.271958, 0.317954, 0.237651, 0.169786, 0.186877, 0.275600, 0.240808, 0.039226, 
    0.158063, 0.013665, 0.018587, 0.229397, 0.090508, -0.065961, 0.128150, 0.164224, -0.065608, 0.173193, 
    -0.110746, -0.248862, -0.004282, 0.093490, 0.189004, 0.060274, -0.084363, 0.014543, 0.091853, -0.117680, 
    0.031560, 0.109745, -0.100482, -0.027308, 0.250990, -0.166885, 0.184627, 0.044079, -0.240141, -0.004450, 
    0.171725, -0.274114, -0.013980, 0.018080, -0.003521, 0.073861, -0.052089, 0.020215, 0.114820, -0.043671, 
    0.115880, 0.159594, 0.048222, -0.091983, -0.118017, -0.097381, -0.050460, -0.070460, -0.096528, -0.111100, 
    -0.167571, -0.288767, -0.008858, -0.049892, 0.011575, 0.186623, 0.015379, 0.018856, 0.142013, -0.145366, 
    0.003015, -0.056535, -0.032829, -0.011541, -0.125883, -0.215284, 0.196783, -0.063981, -0.046172, -0.037905, 
    0.017080, 0.228656, -0.256650, -0.113523, 0.004762, 0.172567, 0.066825, -0.018199, -0.060069, -0.007195, 
    0.068442, -0.102154, -0.080200, 0.165585, 0.095371, 0.071766, -0.014875, 0.325323, -0.089409, -0.061771, 
    -0.246212, -0.074348, 0.214839, -0.187160, -0.158410, -0.363747, -0.076703, 0.020668, -0.243848, -0.191656, 
    -0.101278, -0.075286, -0.011456, -0.011870, -0.304006, 0.275543, 0.385834, 0.162618, 0.184254, 0.167286, 
    0.112170, 0.240417, 0.144110, 0.191208, 0.459623, 0.206087, 0.337950, 0.152663, 0.110873, 0.143950, 
    0.348632, 0.149977, -0.141641, 0.232091, 0.080621, 0.309274, -0.039015, 0.045072, 0.251661, 0.030665, 
    -0.033146, 0.530576, 0.303093, -0.059510, 0.180144, 0.007094, 0.178605, -0.038847, -0.142826, 0.179364, 
    -0.298128, 0.058247, 0.254099, -0.299609, 0.301881, 0.023416, -0.230590, 0.131834, -0.076759, -0.132993, 
    0.105390, -0.163943, -0.120647, 0.062414, 0.108745, -0.035493, 0.137445, 0.023097, -0.057978, -0.040958, 
    -0.157318, 0.290270, 0.046969, -0.181144, 0.086533, 0.146058, -0.230395, 0.022794, 0.081919, -0.034620, 
    -0.070585, -0.044700, 0.147108, 0.228257, 0.128882, -0.007682, 0.102706, -0.142883, -0.047623, -0.002722, 
    -0.029439, 0.311949, -0.242382, 0.137698, -0.056763, -0.001176, 0.052833, 0.175072, -0.035176, 0.086072, 
    0.126211, -0.007450, 0.213095, 0.101693, -0.087117, 0.230680, 0.034317, -0.251871, -0.010838, 0.073140, 
    -0.079892, 0.045704, 0.056832, -0.032023, 0.067230, 0.113717, -0.200210, -0.125559, 0.022917, -0.095025, 
    0.120217, 0.166304, 0.272408, -0.356000, -0.430275, -0.622709, 0.062056, 0.054597, 0.100013, 0.109430, 
    0.180102, 0.181065, -0.210163, -0.166085, -0.058206, -0.085625, -0.073836, -0.137201, 0.203264, 0.190169, 
    -0.109838, 0.099163, -0.080474, 0.027645, -0.151038, -0.393408, -0.384174, -0.064510, -0.068007, 0.019262, 
    -0.153492, -0.062611, -0.024671, 0.101181, 0.172230, 0.073437, -0.062902, -0.074942, -0.098998, 0.092290, 
    -0.063568, 0.102176, -0.059394, -0.192877, -0.034426, 0.031984, 0.052171, 0.184805, 0.106137, 0.031505, 
    0.221419, 0.064097, -0.022706, -0.071494, 0.005952, -0.048809, -0.058470, -0.063048, -0.102025, -0.031107, 
    0.082558, 0.184008, 0.248272, 0.009674, 0.108771, 0.134034, 0.000728, -0.034454, 0.104433, 0.080615, 
    0.149388, 0.086491, 0.043959, 0.073996, 0.126138, -0.193525, 0.094510, 0.013690, -0.087457, -0.010279, 
    0.168946, -0.054104, -0.101690, -0.024088, -0.140564, -0.005558, -0.003537, 0.024608, 0.159940, -0.004873, 
    0.084924, -0.112219, 0.007327, 0.025723, 0.007290, -0.114922, 0.341192, -0.116016, 0.000131, -0.103694, 
    0.066927, -0.042993, -0.006260, 0.049171, -0.049322, -0.019999, -0.185363, 0.108272, -0.122865, -0.114813, 
    0.066266, 0.238203, -0.203899, 0.178222, 0.122644, -0.051350, -0.019984, -0.068907, -0.074618, 0.066759, 
    0.125860, 0.149354, 0.165468, 0.234316, 0.129361, -0.008062, -0.192855, -0.119372, -0.065792, -0.120683, 
    -0.195895, -0.088300, -0.041953, 0.100284, 0.062584, -0.029488, 0.360360, 0.529730, 0.143618, -0.151294, 
    -0.258453, -0.215444, -0.196305, -0.303730, 0.218465, 0.065874, 0.142950, -0.087686, 0.024006, 0.019995, 
    -0.037020, 0.124317, 0.034966, -0.138874, 0.076677, -0.177805, -0.009615, -0.113052, -0.017815, -0.219448, 
    -0.172574, 0.024722, -0.272588, -0.151455, -0.053891, 0.217388, 0.316882, 0.249652, 0.044995, -0.127654, 
    0.097224, -0.065108, -0.059141, -0.174688, 0.045359, 0.121299, -0.026903, 0.015625, -0.071170, 0.172003, 
    0.075100, 0.141039, 0.132767, 0.072483, -0.130561, 0.032619, -0.096947, 0.224601, 0.012745, -0.097882, 
    -0.080214, -0.244195, -0.004941, 0.123985, 0.173492, 0.042660, 0.133494, -0.044631, -0.144746, 0.022803, 
    -0.069988, 0.025086, -0.164086, -0.037097, 0.011607, -0.142672, -0.080992, 0.158223, 0.069164, 0.144794, 
    -0.257508, -0.003315, -0.151964, -0.025085, -0.004352, -0.086925, -0.080075, -0.041737, 0.028974, -0.076406, 
    0.162207, -0.072229, -0.002148, -0.012028, 0.035138, 0.015703, 0.092749, -0.094832, 0.132686, -0.252870, 
    -0.299314, -0.158795, -0.238389, 0.122341, 0.001962, -0.126500, 0.077702, 0.014001, 0.279281, 0.264053, 
    -0.084530, -0.159828, -0.113877, -0.171366, -0.141820, -0.007423, -0.205610, -0.058833, 0.199090, -0.174893, 
    0.106822, 0.066099, 0.104977, 0.200341, 0.265566, -0.249436, -0.168225, -0.155471, -0.200944, 0.090869, 
    -0.057850, -0.096367, -0.009205, -0.002503, 0.363186, 0.274650, 0.245975, 0.228864, 0.242267, 0.331538, 
    0.047413, 0.032553, 0.011003, 0.072172, -0.024881, 0.027715, -0.028564, 0.022571, 0.210444, 0.022532, 
    0.104648, 0.004957, 0.133295, 0.082371, -0.215649, -0.016585, 0.148565, 0.093572, 0.048793, -0.218296, 
    0.165466, -0.014956, -0.086061, 0.049083, -0.020764, 0.235134, -0.066767, -0.118205, 0.115229, 0.262823, 
    0.062242, -0.243359, 0.148134, 0.184940, 0.142052, 0.009796, -0.112575, -0.074836, 0.056015, 0.273759, 
    -0.086419, 0.031181, -0.105078, 0.188083, -0.170472, -0.003645, -0.042288, 0.158075, 0.203360, 0.194164, 
    -0.190524, 0.062830, 0.148454, 0.179112, -0.108581, 0.064306, 0.077704, -0.071205, 0.268423, -0.101647, 
    0.162241, 0.077998, 0.057023, 0.025225, 0.098537, 0.014392, 0.200440, 0.006351, 0.161728, -0.022494, 
    0.036102, -0.197779, 0.003821, 0.241902, -0.055233, 0.203129, -0.079613, 0.079900, -0.114551, 0.051931, 
    -0.246321, -0.137927, 0.379732, -0.241128, -0.207289, 0.048504, 0.129697, -0.015282, 0.239550, -0.059348
    
};

// PyTorch Layer: conv1.bias (Shape: (16,))
static const data_t conv1_b[16] = {
-0.045961, -0.069625, 0.150959, -0.102624, 0.009689, -0.170055, -0.049158, -0.008817, 0.139571, 0.124990, 
    -0.005922, 0.095250, -0.215933, 0.135353, -0.073349, 0.009474
};

// PyTorch Layer: conv2.weight (Shape: (32, 16, 3))
static const data_t conv2_w[1536] = {
0.306034, 0.012460, 0.212703, 0.046292, 0.114234, 0.103898, 0.113349, 0.171917, 0.234244, 0.047355, 
    -0.214888, -0.044196, 0.326263, -0.101728, -0.504931, -0.084686, -0.173465, -0.120409, -0.057966, 0.122987, 
    0.003393, 0.257637, 0.224037, 0.027787, 0.232369, 0.066052, -0.176428, 0.100770, -0.124569, -0.541911, 
    -0.001322, 0.127024, -0.087748, 0.363911, 0.061913, -0.426660, -0.085382, -0.399544, -0.590484, 0.037275, 
    -0.115234, 0.129875, 0.052176, 0.142639, 0.081342, 0.076930, 0.025466, -0.174598, 0.340814, 0.197228, 
    -0.059492, 0.094850, 0.112298, 0.290442, 0.277037, 0.262880, 0.171210, -0.086056, -0.040868, 0.145729, 
    -0.156506, -0.097118, -0.296073, -0.207288, -0.206784, -0.210652, 0.364684, 0.179787, 0.140864, 0.079747, 
    -0.111740, -0.341374, -0.001964, -0.141739, -0.160961, -0.290421, -0.370053, -0.322810, -0.062939, -0.284014, 
    -0.267247, -0.137799, -0.091147, 0.197443, -0.300807, -0.193252, -0.004743, 0.123823, 0.232806, 0.278953, 
    0.099568, 0.115031, 0.158920, -0.015372, 0.071715, 0.152387, -0.079939, -0.077440, -0.036863, -0.145018, 
    -0.077170, -0.352341, 0.129552, 0.118606, -0.001886, -0.015625, -0.000100, 0.017775, -0.033285, -0.039527, 
    0.018688, 0.239460, 0.178120, 0.108777, 0.043786, 0.087764, 0.052658, -0.120695, -0.062569, 0.054677, 
    -0.028351, 0.009587, -0.080492, -0.205282, -0.030833, 0.010017, 0.169441, 0.097349, 0.267721, -0.163465, 
    0.025053, -0.098659, -0.091350, -0.000426, 0.006822, 0.020628, -0.203447, -0.135673, 0.162739, 0.135346, 
    0.180710, 0.026016, 0.122835, 0.190486, -0.250436, 0.052681, 0.073722, -0.233849, -0.454820, -0.609038, 
    -0.191587, -0.135915, 0.183696, -0.147140, -0.092091, -0.171808, 0.101808, 0.190284, 0.034288, -0.082373, 
    0.042369, 0.003616, -0.052710, -0.081577, 0.196852, -0.170369, -0.095154, 0.017355, 0.051004, 0.189993, 
    0.147087, 0.193782, 0.118288, 0.112601, -0.170882, -0.159361, -0.038621, 0.322479, 0.313194, 0.084816, 
    0.204826, 0.108585, -0.099133, 0.160217, -0.041809, -0.283513, -0.210503, -0.115954, -0.126598, 0.006074, 
    0.105821, -0.130244, -0.056798, 0.053074, 0.196408, -0.210680, -0.551702, -0.562041, -0.202664, -0.060040, 
    0.100138, -0.174846, -0.071666, -0.140160, 0.144196, 0.001274, 0.177971, 0.058714, 0.055301, 0.121992, 
    0.059607, -0.021925, 0.208542, -0.125835, -0.077298, -0.105428, 0.049103, 0.050451, 0.274099, 0.178275, 
    0.222428, 0.215239, -0.310417, -0.219246, -0.105396, 0.201412, 0.320100, 0.133374, 0.208071, 0.082846, 
    -0.188907, 0.042114, 0.015087, -0.202642, -0.278768, -0.338959, -0.361501, -0.081834, 0.059141, -0.056407, 
    0.050028, 0.027402, -0.066760, 0.065794, -0.047425, -0.051397, -0.027156, -0.108828, 0.014048, 0.230353, 
    0.154134, 0.267597, -0.201572, -0.215387, -0.141529, 0.111593, 0.196569, 0.144948, 0.100901, -0.072198, 
    0.027099, -0.024820, -0.004165, 0.121035, -0.031744, -0.188825, -0.186958, -0.084124, -0.120511, 0.041835, 
    0.194959, 0.303725, 0.255781, 0.113897, 0.151102, 0.202374, 0.047500, 0.170855, -0.026614, -0.096758, 
    -0.223085, -0.290917, 0.133426, 0.200171, 0.175875, 0.256719, 0.217962, 0.195001, -0.179940, -0.333625, 
    -0.407602, 0.221307, 0.318882, 0.142484, -0.488885, -0.583653, -0.408109, 0.063620, 0.115022, -0.083861, 
    0.393492, 0.082369, -0.214290, 0.093767, 0.260701, 0.226598, -0.058310, -0.161081, -0.020665, 0.215889, 
    -0.329881, -0.732827, 0.307196, -0.173570, -0.625200, 0.152852, -0.157311, -0.407915, 0.177800, -0.201422, 
    -0.570320, 0.174505, 0.143611, 0.006899, 0.326947, 0.296292, 0.458065, -0.045757, 0.263658, 0.223065, 
    -0.278865, -0.451479, -0.214844, 0.236589, -0.050873, -0.061247, 0.181839, 0.094846, 0.073251, 0.118968, 
    0.111048, 0.324359, 0.494766, 0.232533, -0.044115, -0.029391, 0.040407, 0.280049, -0.157099, 0.056200, 
    0.274963, -0.076006, -0.089647, 0.128985, 0.183825, -0.059892, -0.181858, 0.035922, -0.126275, -0.171081, 
    -0.001897, 0.239277, 0.259952, -0.268532, 0.093193, 0.227184, -0.228039, -0.410326, -0.434773, -0.396308, 
    -0.056425, 0.210114, -0.485938, 0.010000, 0.176257, 0.108420, 0.162323, 0.311457, 0.103615, -0.084119, 
    -0.105642, -0.302062, -0.201888, -0.012518, -0.048858, -0.064014, 0.083674, 0.085345, 0.086919, -0.029718, 
    -0.085796, 0.005543, -0.131636, 0.098938, 0.171511, 0.138538, -0.243177, -0.085032, -0.033469, 0.047642, 
    0.208763, 0.125413, 0.084446, 0.115560, 0.177470, -0.088290, -0.200656, -0.171995, -0.090393, -0.147864, 
    -0.190207, -0.152627, -0.207417, -0.180813, 0.050860, 0.171517, 0.187030, 0.182551, 0.060874, 0.108046, 
    0.116393, 0.093472, 0.038408, -0.047802, -0.044869, -0.202868, 0.125918, 0.099757, 0.197534, 0.293218, 
    0.212906, 0.273388, 0.151499, 0.333417, 0.284720, 0.003108, -0.079686, 0.009218, -0.078503, -0.088334, 
    -0.280457, 0.238427, 0.040719, 0.052814, -0.311935, -0.310461, -0.331275, 0.041261, -0.203618, -0.282483, 
    0.392731, 0.171226, 0.243761, -0.137354, -0.396396, -0.392712, 0.020410, -0.136201, -0.251205, -0.102678, 
    -0.004320, -0.083915, 0.175426, -0.070641, -0.308322, 0.096966, 0.022739, 0.224204, -0.185481, -0.251725, 
    -0.067348, 0.160126, 0.111030, 0.209212, 0.023181, 0.215245, 0.307573, -0.067948, 0.028107, 0.137063, 
    -0.126199, 0.134282, -0.038871, 0.036774, -0.173149, -0.200630, -0.025303, 0.016049, 0.091174, 0.298036, 
    0.194600, 0.149657, -0.098338, -0.180334, -0.100493, 0.014484, 0.040162, 0.178765, 0.059906, 0.267657, 
    0.158919, -0.092979, -0.033084, -0.179787, -0.107431, -0.106913, -0.046396, -0.189878, -0.057521, -0.144058, 
    0.093553, 0.169862, 0.095927, 0.171951, 0.133697, 0.253215, 0.009332, -0.066696, -0.153187, -0.109266, 
    0.052892, 0.007143, 0.175234, 0.004815, 0.198893, 0.140661, 0.262329, 0.261568, -0.087445, -0.049091, 
    0.224297, -0.179821, -0.145242, -0.554685, -0.186824, -0.169747, -0.020643, -0.034857, -0.195727, -0.232393, 
    0.246064, 0.228198, 0.128724, -0.129091, -0.012740, -0.017466, 0.084280, -0.013092, -0.006809, -0.150788, 
    -0.031250, 0.191733, 0.229715, 0.196146, 0.107660, 0.270494, 0.177713, 0.068193, -0.225681, -0.101308, 
    0.070755, 0.276278, 0.273164, 0.062167, 0.243678, 0.009382, -0.147355, 0.063461, -0.078835, -0.194227, 
    -0.340238, -0.217039, -0.209172, -0.060593, -0.094316, 0.112982, 0.055958, 0.156411, 0.168768, 0.017114, 
    0.141344, 0.266260, 0.241015, 0.072888, 0.162225, -0.314885, -0.252963, 0.009641, 0.037631, 0.263195, 
    0.156259, -0.035422, 0.077643, 0.083638, -0.022827, -0.140529, -0.097756, 0.090212, 0.315335, 0.189502, 
    0.149196, 0.271310, 0.218228, 0.018936, 0.271218, 0.230950, -0.078841, 0.087292, 0.008718, -0.306751, 
    -0.311786, -0.241083, -0.206654, 0.032248, 0.038494, 0.096214, 0.272511, 0.092551, -0.003992, -0.151417, 
    -0.088139, -0.169464, -0.177692, -0.203728, -0.014871, 0.118640, 0.086293, -0.014610, -0.024923, 0.235049, 
    0.027527, 0.116959, -0.077822, -0.060403, -0.044355, 0.054386, 0.008099, 0.134246, 0.079058, -0.176706, 
    -0.110167, -0.211385, -0.113652, -0.016727, -0.002741, 0.076182, 0.244198, -0.013703, -0.045028, -0.005210, 
    0.014792, 0.001217, 0.131615, -0.056603, 0.061098, 0.128431, 0.168373, -0.135150, -0.045715, 0.003046, 
    0.242733, 0.241700, 0.327968, -0.148671, -0.193726, -0.014056, 0.109342, 0.126801, -0.074659, 0.101762, 
    0.016080, 0.018743, 0.088597, 0.064530, 0.168884, 0.121771, 0.231880, 0.066795, 0.022206, 0.143307, 
    0.231093, -0.152182, -0.144719, -0.242614, 0.127681, 0.108956, 0.067619, -0.017146, -0.128108, 0.101178, 
    -0.171151, -0.072670, -0.080538, 0.049378, 0.302105, 0.175241, 0.201202, 0.338454, 0.106158, 0.079973, 
    0.303569, 0.168402, -0.061745, 0.116959, -0.042260, -0.222742, -0.065596, -0.111432, -0.131616, 0.046089, 
    -0.143966, 0.061513, 0.209603, 0.056957, -0.061124, -0.006419, -0.038734, -0.276352, -0.262283, -0.264114, 
    -0.110184, -0.146301, 0.070084, -0.205102, -0.473679, -0.723343, -0.245366, -0.168841, -0.014340, -0.173372, 
    -0.193484, -0.013735, 0.118476, 0.078055, 0.134812, 0.092402, -0.112675, -0.074646, -0.047493, 0.055435, 
    0.083686, -0.176307, 0.092749, -0.014264, 0.271397, 0.073237, 0.146709, 0.174254, 0.108905, 0.282346, 
    -0.294913, -0.132362, -0.124875, 0.283487, 0.326570, 0.203930, 0.154904, 0.035412, 0.053646, 0.115379, 
    0.054613, -0.363859, -0.347393, -0.336987, -0.053837, 0.005876, -0.090735, -0.002917, -0.100937, 0.025572, 
    0.047185, -0.137596, -0.065622, -0.210866, 0.002756, -0.120701, 0.008986, 0.319317, 0.350935, 0.227588, 
    -0.075134, -0.032782, -0.081127, 0.176991, 0.184865, 0.236013, 0.193207, 0.077736, 0.123257, -0.212620, 
    -0.094802, -0.226469, -0.120179, -0.189020, -0.079189, -0.116057, -0.207664, -0.019961, 0.156349, 0.038347, 
    0.275050, 0.239832, 0.204127, 0.120237, 0.009573, -0.105407, -0.066680, -0.082714, -0.093254, -0.130714, 
    -0.021144, 0.235956, 0.028859, 0.291569, 0.291226, 0.204131, 0.187329, 0.144669, 0.130031, -0.016187, 
    0.111423, -0.036337, 0.052136, -0.008080, 0.117045, 0.325912, 0.147666, 0.328027, -0.266135, -0.259050, 
    -0.228626, 0.176427, 0.111296, 0.112593, 0.105246, 0.171676, -0.061890, -0.138561, -0.091214, -0.041281, 
    -0.221233, -0.112023, -0.218279, -0.206520, -0.099847, -0.091408, 0.168481, 0.061116, 0.153982, 0.248468, 
    0.069795, 0.278018, -0.149322, -0.156545, -0.209627, -0.104496, -0.139259, -0.251600, 0.228885, 0.184621, 
    0.271110, 0.272766, 0.310060, 0.213377, 0.244019, 0.325382, 0.273884, -0.081458, -0.065675, 0.006355, 
    0.025535, 0.014563, 0.119297, 0.177147, 0.093305, 0.001739, -0.294954, -0.242559, -0.318449, -0.019612, 
    -0.069057, -0.443654, 0.193440, 0.351952, 0.247645, -0.125971, -0.213747, -0.273898, -0.074977, 0.003384, 
    -0.097256, -0.134432, -0.069727, -0.256026, 0.154762, -0.083931, -0.372833, 0.250675, 0.043671, 0.170144, 
    -0.184675, -0.397828, -0.324514, 0.246059, 0.243258, 0.192274, 0.231443, 0.230742, 0.209789, -0.043855, 
    0.227589, 0.228072, 0.193389, 0.282299, 0.036155, -0.027308, 0.039962, 0.219760, 0.243554, 0.239538, 
    0.141144, -0.336813, -0.233899, -0.053336, 0.065711, 0.077267, 0.301541, -0.109124, -0.252730, -0.071666, 
    0.015994, -0.148836, -0.030577, 0.128801, 0.328437, 0.378917, 0.201641, 0.239104, 0.145346, 0.143275, 
    0.218660, 0.198356, 0.181060, 0.252818, 0.150257, -0.460659, -0.377961, -0.245243, -0.157046, 0.158660, 
    0.071925, -0.182596, -0.208552, -0.030699, 0.052301, 0.018975, -0.083937, -0.114287, -0.004911, 0.023783, 
    0.103960, 0.159902, 0.182593, -0.031607, -0.174798, -0.226476, -0.163755, 0.108761, 0.106518, -0.169122, 
    -0.247843, -0.096429, 0.226780, 0.277308, 0.070328, -0.015863, -0.030901, -0.136719, -0.114501, 0.025039, 
    -0.117243, 0.152128, 0.150869, 0.146240, 0.238293, 0.229474, 0.179751, 0.195775, 0.082388, 0.007992, 
    -0.147012, 0.039648, 0.080194, 0.197672, 0.044089, 0.006135, -0.034856, 0.107966, -0.170852, 0.076559, 
    0.169279, 0.008157, -0.141345, -0.204459, -0.230905, 0.035191, -0.173539, 0.037438, 0.141907, -0.101693, 
    -0.065515, 0.282637, 0.260008, 0.317521, 0.135563, -0.202060, 0.026071, 0.144729, -0.091173, -0.005484, 
    0.180355, 0.008764, 0.014179, 0.199808, 0.149138, 0.111161, 0.003831, -0.002765, -0.160534, 0.130866, 
    -0.091506, -0.327226, 0.019670, -0.031761, 0.089421, -0.051754, -0.100534, -0.216214, -0.230184, -0.369444, 
    -0.394754, -0.050978, 0.059144, -0.040212, 0.243075, 0.164745, 0.116093, 0.218755, 0.117018, 0.298500, 
    0.063786, -0.092503, 0.015637, -0.233454, -0.310310, -0.194678, 0.054747, 0.111499, 0.250303, -0.186223, 
    -0.240944, -0.078424, -0.246115, -0.005664, 0.058383, 0.339972, 0.270473, -0.052737, -0.084220, -0.256272, 
    -0.270573, 0.183495, -0.012105, -0.301269, 0.098402, 0.343887, 0.260921, 0.161355, -0.047699, -0.315863, 
    0.071013, 0.086836, 0.056897, -0.041065, -0.237412, -0.142651, 0.262193, 0.076878, -0.023957, 0.242131, 
    0.192164, 0.078643, -0.256157, -0.372436, -0.113382, 0.068441, 0.120528, -0.000791, 0.105618, 0.016896, 
    0.017390, 0.060472, -0.145787, -0.096384, -0.233210, -0.113598, -0.151975, 0.103602, -0.120889, 0.057043, 
    0.150118, 0.043394, -0.021423, 0.089074, 0.295244, 0.294798, 0.024552, -0.106102, -0.033542, 0.317239, 
    0.239264, 0.114286, -0.278439, 0.110180, 0.207212, 0.027474, -0.152877, 0.007276, -0.196445, -0.156917, 
    0.002883, -0.231066, -0.016516, 0.014501, 0.095834, 0.260922, 0.159718, 0.185326, 0.112722, 0.020238, 
    0.024919, 0.064759, -0.002730, -0.209318, -0.135477, -0.127115, 0.065943, -0.067546, -0.196388, 0.194889, 
    0.256673, 0.292988, -0.057428, -0.137512, -0.212098, -0.011491, 0.114213, 0.261715, -0.263144, -0.306399, 
    -0.439731, 0.173269, -0.062045, 0.095745, 0.164001, -0.007979, -0.232124, 0.046366, 0.216964, 0.282897, 
    -0.146070, 0.087038, -0.092265, 0.210904, -0.100821, -0.393860, 0.168420, -0.068076, -0.456463, 0.156009, 
    -0.259847, -0.164126, 0.280321, -0.100032, -0.341062, 0.176805, 0.120833, 0.058009, 0.429166, 0.191472, 
    0.230207, -0.173550, 0.048917, 0.199677, -0.138482, -0.142808, -0.250549, 0.169005, 0.012804, -0.143971, 
    0.165412, 0.059636, 0.136313, -0.134805, -0.110522, -0.014671, -0.000696, 0.117066, 0.210056, -0.302826, 
    -0.124856, -0.272521, 0.187572, 0.148534, 0.208008, -0.057211, -0.241479, -0.025609, -0.132302, 0.056716, 
    -0.072746, 0.321542, 0.424325, 0.206095, 0.168439, 0.311700, 0.063863, 0.271467, 0.147919, 0.283674, 
    0.028823, 0.121458, 0.197131, -0.252768, 0.010473, 0.022681, 0.110711, -0.097073, 0.002502, -0.015294, 
    0.027361, -0.067407, 0.008398, -0.103008, -0.251504, -0.281166, -0.059656, -0.116994, 0.204683, 0.127611, 
    0.131461, -0.108732, 0.100279, 0.248101, 0.038737, 0.210154, -0.056149, -0.153558, -0.209571, 0.010619, 
    0.128656, 0.023536, 0.216747, -0.152484, -0.282035, -0.094919, 0.009432, 0.029136, -0.214777, 0.245946, 
    0.291757, 0.301238, 0.133154, 0.048355, 0.224936, 0.182592, 0.066810, 0.095197, 0.234849, 0.252078, 
    0.186584, -0.291822, -0.323939, -0.152174, -0.147965, 0.090949, 0.087736, -0.200373, -0.150796, -0.068628, 
    -0.046250, 0.144493, -0.132435, -0.067265, -0.073879, -0.030765, -0.045660, -0.100592, -0.304101, 0.188848, 
    0.272352, 0.347877, -0.498813, -0.487133, -0.503948, 0.100879, 0.016777, 0.064490, 0.336844, 0.014065, 
    -0.229577, 0.079237, 0.311670, 0.269511, -0.036455, -0.093502, -0.032526, 0.384033, -0.157963, -0.440847, 
    0.315974, -0.180270, -0.463488, 0.165887, -0.113263, -0.369471, 0.377152, -0.269664, -0.585679, 0.116450, 
    0.131216, 0.101850, 0.376389, 0.388895, 0.196233, -0.002046, 0.076005, 0.234573, -0.322685, -0.402812, 
    -0.481311, 0.216400, -0.090438, -0.061857, -0.319933, -0.217209, -0.108516, 0.025516, -0.186509, -0.157669, 
    0.115939, 0.159746, 0.163958, 0.284076, 0.223683, 0.194133, 0.012041, 0.020434, -0.000474, 0.311855, 
    0.235412, 0.322369, -0.111474, -0.001649, 0.178666, -0.161054, -0.030995, -0.076867, -0.148375, -0.080024, 
    -0.050164, -0.053980, -0.054125, 0.091395, 0.263663, 0.131349, 0.284443, 0.133354, 0.055203, 0.077339, 
    0.051938, 0.011328, -0.018226, -0.391658, -0.200305, -0.283185, 0.090862, 0.041189, -0.170550, 0.163822, 
    0.135013, 0.051368, -0.018074, -0.181531, 0.105891, -0.213689, -0.399856, -0.630279, -0.141442, 0.008101, 
    0.160053, -0.066255, -0.046626, 0.065789, 0.036162, 0.090834, 0.138134, -0.011410, 0.010505, 0.154340, 
    -0.028582, -0.057588, -0.010307, -0.181653, 0.064962, 0.054995, 0.074359, 0.043230, -0.053053, 0.140758, 
    0.022600, 0.023223, -0.062901, -0.189496, 0.033612, 0.183064, 0.287196, 0.131779, 0.079015, 0.136949, 
    -0.119093, 0.004666, -0.035188, -0.285055, -0.178416, -0.255000, -0.121157, -0.057945, 0.046986, 0.035090, 
    -0.055729, 0.171139, 0.100620, -0.051790, 0.051806, -0.137187, 0.011452, 0.075689, -0.161097, 0.175869, 
    0.251788, 0.227587, -0.248628, -0.257522, -0.162505, 0.121070, 0.195815, 0.142566, 0.205162, 0.189358, 
    0.127620, -0.086877, -0.102107, -0.015231, -0.159458, -0.245663, -0.114495, -0.174811, -0.032248, -0.054971, 
    0.148845, 0.097609, 0.172211, 0.093175, 0.072629, 0.303273, -0.144534, -0.150575, -0.112098, -0.042516, 
    -0.023400, -0.170921, 0.129770, 0.127269, 0.238548, 0.315581, 0.275224, 0.184978, 0.085820, -0.118892, 
    0.028669, -0.084180, 0.192480, -0.055243, 0.082395, -0.092247, 0.068847, 0.075005, 0.191440, -0.047226, 
    0.072407, -0.122618, -0.097517, 0.143638, 0.091705, -0.003956, -0.209119, -0.090817, -0.043968, 0.170164, 
    0.146693, 0.023719, -0.100456, -0.139364, 0.110380, -0.074211, -0.023581, -0.102521, 0.092025, 0.193131, 
    0.113718, -0.018653, 0.006557, 0.041886, 0.088951, 0.135039, 0.231775, -0.085996, 0.044093, -0.185202, 
    -0.052913, -0.036206, -0.101466, 0.185498, 0.247194, 0.127079
};

// PyTorch Layer: conv2.bias (Shape: (32,))
static const data_t conv2_b[32] = {
-0.122263, 0.001190, 0.052418, 0.165535, 0.045545, 0.005570, -0.167689, 0.115565, 0.072228, 0.019445, 
    0.074149, -0.000320, 0.217351, 0.009181, 0.176338, 0.201194, -0.003384, -0.044560, -0.064705, -0.032448, 
    0.206200, 0.050046, -0.065934, -0.157818, -0.081332, -0.017887, -0.094795, -0.043264, -0.102625, 0.155980, 
    -0.111500, 0.045595
};

// PyTorch Layer: fc.weight (Shape: (3, 32))
static const data_t fc_w[96] = {
-0.163465, 0.184158, 0.254181, -0.276627, -0.049658, 0.388302, -0.469145, -0.246572, 0.219353, 0.495232, 
    0.330907, -0.430671, -0.450939, -0.207707, -0.379039, -0.235644, 0.155198, 0.473602, 0.185754, -0.545868, 
    -0.364124, -0.401665, 0.484243, 0.269520, -0.146184, -0.380711, -0.386444, -0.339021, 0.440498, 0.073037, 
    0.436235, 0.086954, -0.521480, -0.662389, 0.140222, -0.418416, -0.249806, -0.059879, 0.729952, -0.381992, 
    -0.075059, -0.618386, -0.060139, -0.243529, 0.128386, 0.128317, 0.192719, -0.380591, -0.196550, -0.362035, 
    -0.643648, 0.293764, -0.096631, 0.211917, -0.622963, -0.162400, 0.494741, 0.216387, 0.313549, 0.709774, 
    -0.228485, -0.298089, -0.299905, 0.132901, 0.508827, 0.411327, -0.232609, 0.240269, 0.540570, -0.325642, 
    -0.430126, 0.656064, -0.295674, -0.167998, -0.031555, 0.440210, 0.037389, -0.202034, 0.198915, 0.577974, 
    -0.245777, -0.203904, -0.143923, -0.099700, 0.200130, 0.123637, 0.166905, -0.316613, -0.332726, 0.170080, 
    -0.065775, -0.419527, -0.261123, 0.366123, -0.300427, -0.223096
};

// PyTorch Layer: fc.bias (Shape: (3,))
static const data_t fc_b[3] = {
0.095910, -0.113832, 0.149246
};

#endif // VOICE_CNN_WEIGHTS_H
