#ifndef VOICE_CNN_WEIGHTS_H
#define VOICE_CNN_WEIGHTS_H

#include "voice_typedefs.h"

// PyTorch Layer: conv1.weight (Shape: (16, 40, 3))
static const data_t conv1_w[1920] = {
0.000972, 0.000833, 0.000837, 0.002675, 0.003641, 0.001991, -0.005105, -0.001784, -0.001864, -0.004653, 
    -0.008085, -0.002763, -0.003225, -0.009932, -0.010756, -0.001220, 0.004047, -0.009242, -0.009281, -0.008579, 
    -0.012770, -0.005328, 0.006954, 0.006812, -0.007625, -0.000458, -0.008435, 0.000116, -0.013442, -0.010630, 
    -0.010221, -0.002488, 0.004978, -0.008060, -0.001401, 0.007340, -0.009897, -0.006727, -0.004482, -0.004968, 
    0.003201, 0.003738, 0.000744, 0.019103, 0.014826, -0.009228, 0.007435, -0.004882, 0.011273, -0.010960, 
    0.016313, 0.016918, -0.012009, -0.014796, -0.019438, -0.023373, -0.010405, 0.012122, 0.003480, 0.016062, 
    -0.006699, -0.011067, -0.019078, 0.016358, -0.009346, 0.009553, 0.013140, 0.001717, 0.023550, 0.012284, 
    0.021174, 0.021264, -0.023223, -0.022136, -0.011910, -0.011198, 0.007363, -0.012744, -0.037679, -0.009703, 
    -0.002108, -0.000081, -0.017295, 0.010975, 0.024386, 0.030362, 0.006410, 0.002723, -0.045687, 0.017447, 
    -0.029951, -0.027700, 0.015419, -0.006079, 0.013714, -0.025115, 0.046069, 0.043572, 0.022343, 0.035776, 
    -0.029251, -0.006287, 0.010549, 0.019085, -0.026256, 0.032399, -0.021698, -0.017029, 0.028029, -0.022113, 
    -0.019075, 0.029993, 0.026018, 0.039478, -0.017454, -0.031622, -0.050605, 0.032806, -0.061190, -0.003023, 
    0.002107, 0.002014, 0.000243, -0.002903, -0.003954, -0.000441, -0.000389, -0.000191, 0.000620, 0.010185, 
    0.009462, 0.009566, 0.006020, -0.001626, -0.001785, -0.010241, -0.003465, -0.002415, -0.002452, -0.009469, 
    -0.002549, -0.001406, 0.001675, 0.000770, 0.002477, -0.006980, 0.012006, 0.007039, 0.015716, 0.020871, 
    -0.003251, 0.002266, 0.000521, 0.005364, -0.000574, 0.004516, -0.002537, -0.004523, 0.006727, 0.005066, 
    -0.000006, -0.010791, 0.009711, 0.012160, 0.002143, -0.004670, -0.003702, -0.027927, 0.003134, -0.002150, 
    -0.005796, 0.012503, 0.018545, 0.006627, 0.010117, -0.012997, 0.003291, -0.001368, -0.009662, 0.003946, 
    -0.004858, -0.010955, -0.002382, -0.004909, 0.006591, -0.009256, 0.005201, 0.007348, 0.011209, -0.015568, 
    -0.005790, -0.024036, -0.034232, -0.034440, -0.000413, -0.004797, 0.005748, 0.006426, 0.023222, 0.008079, 
    -0.027372, 0.026707, -0.042060, -0.011819, 0.013663, 0.009618, -0.025173, 0.013311, 0.048186, 0.059909, 
    -0.015392, -0.001863, -0.014071, 0.006278, -0.004439, 0.013754, 0.013917, -0.014984, 0.015749, -0.035520, 
    -0.010890, 0.016269, -0.032574, -0.000371, -0.039635, -0.015190, -0.012805, -0.003350, -0.034456, 0.000487, 
    0.020211, 0.019594, 0.017734, -0.011164, 0.007835, 0.045965, -0.021199, 0.037304, -0.052173, -0.033995, 
    0.001661, 0.000791, 0.001541, 0.004502, 0.003637, 0.004920, -0.006307, -0.006383, -0.005145, -0.005184, 
    -0.005999, -0.004189, 0.003644, -0.004950, 0.002033, 0.005358, 0.005107, 0.002679, -0.002728, 0.002595, 
    -0.004522, -0.006338, 0.007053, 0.005474, -0.007263, 0.006378, -0.000832, 0.002677, 0.008543, -0.005211, 
    -0.009309, 0.002398, -0.007789, -0.009027, -0.010706, 0.005168, -0.003405, -0.011213, -0.009442, -0.008412, 
    -0.017888, -0.008361, -0.007594, 0.002811, -0.000684, -0.013022, 0.012078, -0.000523, 0.011553, -0.006285, 
    0.004762, 0.014447, 0.018512, 0.001427, -0.010385, -0.019805, 0.003412, 0.026744, 0.023682, 0.023405, 
    0.002436, 0.007963, -0.003305, 0.003277, 0.002617, -0.010911, 0.006268, 0.004819, -0.009335, -0.016012, 
    -0.025854, -0.023633, 0.024842, 0.029484, 0.010465, 0.022183, 0.009583, 0.019683, -0.018607, -0.023045, 
    -0.021098, 0.032222, 0.013256, -0.008081, 0.012281, -0.023886, 0.008444, 0.018916, 0.000745, 0.004289, 
    -0.040646, -0.006638, 0.015254, -0.054191, -0.049932, -0.008782, -0.008225, -0.005283, -0.069778, 0.026088, 
    -0.013888, -0.000282, 0.054790, -0.008590, 0.040655, -0.047723, 0.026781, -0.002016, 0.042124, 0.017244, 
    0.058121, 0.000052, 0.030731, 0.057840, -0.037822, -0.015273, 0.000394, -0.031834, -0.037093, -0.009221, 
    -0.000192, 0.000456, 0.000622, -0.002128, 0.000023, 0.000014, 0.005564, 0.003135, 0.007734, 0.003239, 
    0.007641, 0.007370, 0.006197, -0.002834, 0.003846, -0.010409, -0.002752, -0.003296, -0.009388, -0.003827, 
    -0.001087, 0.002829, 0.007083, 0.002522, 0.002959, 0.007375, -0.008675, 0.016128, 0.007555, 0.012679, 
    0.000098, -0.005266, 0.005553, -0.002980, 0.005880, 0.008910, -0.004299, 0.003755, -0.010825, -0.007918, 
    0.004581, 0.006241, -0.010522, 0.006273, 0.005234, 0.010754, -0.023325, -0.007050, -0.000877, -0.002735, 
    0.003874, -0.011438, 0.017847, 0.000903, 0.009853, -0.005887, 0.006285, -0.023431, 0.003027, 0.003254, 
    0.003021, -0.017579, 0.001065, -0.033998, -0.011928, -0.022153, -0.017793, -0.021119, -0.018831, -0.004023, 
    -0.016126, -0.019256, -0.000817, -0.026838, -0.012952, -0.003322, 0.015287, 0.005649, 0.027487, 0.019084, 
    0.008543, 0.032190, -0.007072, -0.026192, 0.006757, -0.003471, -0.036208, 0.024622, 0.013114, -0.003822, 
    -0.017235, -0.012267, -0.023872, 0.003142, 0.045777, -0.041755, 0.006598, 0.003544, 0.026117, 0.005443, 
    -0.043276, 0.019488, -0.048963, 0.041440, 0.015479, -0.024245, -0.027511, 0.010665, 0.011062, -0.059085, 
    -0.033824, 0.033938, -0.027781, -0.056699, -0.003718, 0.000279, 0.003897, -0.037557, -0.034680, 0.037157, 
    -0.000152, 0.000245, -0.001020, 0.000533, -0.002257, 0.000955, 0.007553, 0.005731, 0.002432, 0.008974, 
    0.000097, 0.004352, 0.000719, -0.004349, -0.001897, -0.009582, -0.003145, -0.005911, 0.003581, -0.002516, 
    0.004821, -0.003802, 0.002261, 0.002552, -0.011044, -0.008356, 0.003664, 0.007534, -0.015541, -0.004024, 
    -0.004394, 0.011051, 0.010543, 0.011669, 0.009917, 0.001354, 0.013802, -0.003965, 0.001318, -0.005374, 
    -0.012138, -0.009750, -0.002004, -0.006688, -0.014091, 0.001912, 0.004747, -0.010462, 0.020140, -0.004707, 
    0.006963, -0.010557, -0.012873, 0.001767, 0.023601, 0.023706, 0.016804, 0.005215, -0.018007, 0.000070, 
    0.012310, -0.016366, -0.011181, -0.006192, -0.010193, -0.023956, -0.021316, 0.013814, -0.000855, -0.001023, 
    -0.021740, 0.020554, -0.022934, 0.010075, 0.001124, -0.007866, 0.009629, -0.010654, 0.005647, 0.045276, 
    -0.007362, 0.014911, -0.006042, -0.007752, 0.010982, -0.008082, -0.038010, 0.020603, -0.024831, 0.020789, 
    -0.018483, 0.032177, 0.005372, -0.010198, 0.020143, 0.004799, -0.014490, 0.037976, 0.041332, 0.001328, 
    0.057053, 0.009245, -0.013508, -0.003653, 0.041950, -0.030715, 0.011363, -0.050487, -0.008664, -0.034749, 
    0.012609, 0.041954, 0.024172, -0.017397, -0.017391, -0.003719, -0.005996, 0.075833, -0.030534, 0.045551, 
    0.000165, -0.000382, -0.001770, 0.002219, 0.001799, 0.004101, -0.000879, -0.000847, 0.003082, -0.002838, 
    -0.001688, -0.005867, 0.002960, -0.000380, -0.002887, 0.005711, -0.001648, 0.003436, 0.007103, -0.003370, 
    -0.000972, 0.003265, -0.002604, -0.004303, 0.001492, -0.004243, 0.006599, -0.010644, -0.014201, -0.004895, 
    -0.004171, 0.003199, 0.005798, 0.000653, 0.010984, -0.006289, -0.007086, -0.008658, 0.007639, 0.005795, 
    -0.012215, 0.005849, -0.001570, 0.010521, 0.005524, 0.000082, 0.023217, 0.005917, -0.004406, 0.001570, 
    0.012423, -0.003979, -0.025132, -0.014550, 0.012208, -0.007480, -0.011935, -0.023141, -0.016229, -0.016900, 
    0.011036, 0.015928, 0.029217, 0.020580, 0.007942, 0.018645, 0.015226, -0.016563, 0.016790, -0.007103, 
    0.021517, -0.004018, 0.011518, 0.005298, 0.018331, -0.007142, -0.032399, -0.004311, 0.018840, -0.017125, 
    -0.022023, -0.016158, -0.012317, 0.005851, 0.001258, -0.007056, -0.019970, 0.004870, -0.014048, -0.041706, 
    -0.018359, -0.031323, -0.030773, -0.041109, 0.003746, -0.035286, 0.017808, 0.038362, -0.041569, -0.025135, 
    -0.036016, 0.013490, 0.018131, -0.014504, 0.035438, 0.008190, -0.052422, -0.008732, -0.018469, -0.005975, 
    0.034964, 0.000721, -0.023902, 0.031693, -0.049908, -0.012680, 0.018515, 0.047430, 0.051595, -0.011924, 
    -0.000189, -0.001561, -0.000650, 0.000436, 0.001821, -0.000328, 0.001143, 0.002207, 0.003233, -0.007340, 
    -0.001977, -0.011224, -0.005644, -0.002048, -0.002636, 0.009822, 0.001295, 0.010432, -0.003198, -0.001521, 
    0.003719, -0.008641, -0.009037, -0.008939, 0.003534, -0.002057, -0.007104, -0.012017, -0.021316, -0.022519, 
    -0.004502, -0.006271, 0.013589, 0.001077, 0.002910, -0.003593, 0.000701, -0.002559, -0.008676, 0.016012, 
    0.018402, -0.002576, -0.002412, -0.011002, -0.008992, 0.016664, 0.007100, 0.021960, 0.003015, -0.014016, 
    -0.014765, -0.017660, 0.003651, -0.014311, -0.009082, -0.003926, -0.009988, -0.018602, 0.008929, 0.002600, 
    0.025021, 0.002006, 0.005028, -0.002741, 0.002495, -0.012585, -0.005585, -0.019739, -0.004078, 0.025609, 
    0.008630, 0.019884, -0.004028, 0.007907, -0.001994, -0.005380, -0.007954, -0.013933, -0.018612, -0.000508, 
    0.014218, -0.013855, -0.028192, 0.012751, 0.031801, 0.003500, 0.019613, 0.009269, -0.039528, -0.036251, 
    -0.002565, -0.024430, -0.003227, -0.004422, 0.008145, 0.025911, -0.030879, -0.038992, -0.060825, 0.027402, 
    0.050058, -0.010172, 0.001291, 0.024740, -0.006294, -0.018046, -0.005442, -0.017150, -0.005651, -0.045607, 
    0.001510, -0.002101, -0.002014, -0.003996, 0.026510, -0.020589, -0.042868, -0.013066, -0.038497, -0.031741, 
    -0.000564, -0.002422, -0.002212, -0.001487, -0.000551, 0.000540, -0.000201, 0.002008, 0.003516, -0.001137, 
    0.001736, 0.000684, 0.008733, 0.003051, 0.008339, 0.006567, 0.003875, 0.004301, -0.005255, -0.005524, 
    0.002915, 0.001212, 0.005536, -0.001971, 0.000459, 0.007809, 0.001210, 0.009780, -0.006497, -0.005807, 
    0.002073, 0.008046, -0.007230, -0.002524, 0.009611, 0.003818, 0.008426, -0.003105, -0.005224, -0.005700, 
    -0.003712, -0.005034, 0.002719, 0.000612, -0.010600, 0.014361, 0.005249, 0.007456, -0.000820, 0.018131, 
    -0.004064, 0.005746, -0.011689, 0.002751, 0.002095, 0.017307, -0.005471, -0.017879, -0.020383, -0.025267, 
    0.000966, 0.005259, 0.013711, 0.003808, -0.018154, 0.004036, -0.008943, -0.016345, -0.007319, -0.006851, 
    0.004264, 0.014425, 0.002861, -0.013494, -0.005974, -0.009762, -0.022955, -0.001096, 0.034377, 0.025731, 
    0.017112, -0.012948, -0.024681, -0.010728, 0.016569, -0.023593, -0.005243, -0.023047, -0.014204, -0.008293, 
    -0.014015, 0.021347, -0.016599, -0.005148, 0.034803, 0.045909, -0.008130, -0.040627, -0.040025, -0.007653, 
    -0.011266, 0.027702, -0.021657, 0.027537, 0.010409, -0.034549, 0.015368, 0.001029, 0.002314, -0.031239, 
    -0.006750, 0.020226, 0.030130, -0.019468, -0.000115, -0.033161, 0.034925, 0.071618, 0.055277, 0.019226, 
    0.002077, 0.000856, 0.002018, 0.001264, -0.002161, 0.000345, -0.002825, -0.006571, -0.000857, -0.000050, 
    0.000439, -0.004377, -0.008359, -0.008558, -0.003376, 0.004162, 0.010692, 0.009735, 0.002053, -0.004590, 
    0.003145, 0.007577, -0.001862, -0.004643, -0.003248, -0.000655, -0.009126, 0.008578, 0.006477, -0.002216, 
    -0.004014, -0.006866, 0.006259, 0.010288, 0.007883, 0.002181, 0.009216, 0.016684, 0.008307, -0.000133, 
    0.012094, 0.000121, 0.005248, -0.002012, 0.003584, 0.005383, -0.006545, 0.013699, 0.017151, -0.014796, 
    0.005047, -0.004898, 0.001308, 0.013184, -0.010468, -0.007062, -0.017605, 0.019928, -0.002082, 0.008998, 
    0.001821, 0.015046, 0.008185, 0.019607, 0.012766, 0.018886, 0.006721, 0.014258, 0.026599, 0.001157, 
    -0.000707, 0.022433, -0.000242, -0.036728, -0.006271, -0.023774, -0.015262, 0.003836, 0.000932, -0.015477, 
    0.010366, 0.031172, 0.024771, -0.032791, 0.014414, 0.027809, 0.049965, -0.000324, 0.014981, 0.017638, 
    -0.014635, -0.010500, 0.039765, 0.001219, 0.023662, -0.029715, -0.028582, 0.025084, -0.005747, -0.004140, 
    -0.040425, 0.029318, -0.025963, -0.018913, -0.045598, -0.027259, -0.036136, -0.062770, -0.010221, -0.043216, 
    0.021023, -0.017205, 0.010437, -0.034558, -0.010508, 0.036906, -0.056455, -0.065915, 0.004777, -0.044923, 
    0.001125, 0.001408, 0.000662, -0.000225, -0.001215, 0.000789, -0.004635, -0.004706, -0.004805, 0.002603, 
    0.003878, -0.003492, -0.005912, -0.006965, 0.002001, 0.003678, -0.008129, -0.000413, -0.001047, -0.005943, 
    -0.000271, 0.009139, 0.010848, 0.005321, 0.003685, -0.001417, 0.002231, 0.009873, 0.008055, 0.018904, 
    -0.008156, 0.002211, -0.002776, -0.001086, 0.010553, -0.003242, -0.004214, -0.005779, -0.013905, -0.010751, 
    0.006118, -0.008940, 0.018262, 0.008316, 0.015486, 0.001858, -0.006548, -0.004143, 0.009278, -0.009733, 
    0.008600, -0.013502, 0.012834, -0.009205, -0.016590, -0.006655, -0.014166, 0.020583, 0.001744, -0.000197, 
    0.000170, -0.025012, -0.000621, 0.021415, 0.018754, -0.002768, 0.003762, -0.009760, -0.006199, -0.004575, 
    -0.020717, 0.002559, 0.011436, -0.008998, -0.003730, 0.022243, -0.001943, 0.022368, 0.015741, -0.019611, 
    -0.041215, 0.044912, 0.001924, 0.043432, -0.011543, 0.008963, 0.015316, -0.013354, 0.016673, -0.038871, 
    -0.013996, -0.001971, 0.027797, 0.009694, 0.017081, 0.001916, 0.044912, -0.001200, 0.007603, -0.033952, 
    -0.000019, -0.034977, 0.011939, 0.008291, 0.000793, 0.032120, 0.008144, 0.016564, 0.013207, -0.023272, 
    0.038466, 0.012564, 0.026453, 0.023194, -0.009546, -0.034988, -0.051676, -0.003859, 0.028049, -0.014325, 
    -0.001525, -0.000488, -0.001731, 0.003241, 0.000507, 0.000382, -0.000776, 0.000846, 0.002560, -0.002820, 
    -0.008619, -0.006550, -0.002302, -0.006174, -0.004753, 0.005445, -0.001112, 0.004947, 0.011098, 0.007230, 
    0.003619, -0.010676, -0.011321, -0.007699, -0.002837, -0.000946, -0.006840, -0.003249, -0.017556, -0.010075, 
    0.002129, 0.010478, 0.017160, 0.009221, 0.005507, 0.000667, -0.012704, -0.010373, -0.012910, 0.016824, 
    0.002249, 0.006004, -0.015559, -0.007844, 0.004994, 0.010878, 0.006910, 0.015355, 0.006003, 0.008011, 
    -0.018215, -0.005457, -0.019254, -0.017964, 0.017985, -0.007374, -0.004020, -0.003711, 0.004580, -0.024669, 
    0.001986, 0.008979, 0.031935, 0.012463, 0.014061, 0.016286, -0.016348, 0.003504, -0.011232, 0.010588, 
    0.002309, 0.016496, 0.018423, 0.003113, 0.026714, -0.019094, -0.006675, 0.003417, 0.021687, -0.009145, 
    -0.009226, 0.019796, 0.007395, 0.009405, 0.023610, 0.016224, -0.015336, -0.045672, 0.011821, -0.019859, 
    -0.019284, -0.029511, 0.029621, 0.014367, -0.020874, -0.026450, 0.013304, -0.001402, -0.022435, -0.018343, 
    0.041748, -0.010417, 0.015981, -0.033904, -0.042209, -0.065545, 0.015181, 0.017415, -0.056482, 0.011776, 
    -0.045312, -0.058933, -0.001742, 0.003981, 0.033588, 0.018652, 0.052431, -0.065796, 0.014527, -0.034233, 
    0.001430, 0.002207, 0.000492, -0.000459, -0.001820, 0.000196, -0.001978, 0.000148, 0.002237, 0.003470, 
    0.000377, 0.009902, -0.005411, -0.000057, 0.002808, -0.005828, 0.000708, 0.000174, -0.001927, 0.001600, 
    -0.000027, 0.012834, 0.009383, -0.003132, 0.007777, 0.010411, 0.013180, 0.015479, 0.015747, 0.008641, 
    0.002866, -0.006115, 0.010133, 0.011571, -0.005037, -0.009202, 0.007085, -0.015672, 0.004059, -0.016438, 
    -0.011878, -0.010201, 0.020005, 0.005310, 0.017632, -0.002345, 0.007603, 0.000958, 0.010785, 0.014260, 
    -0.006227, -0.004626, 0.008003, 0.017193, -0.020258, -0.026071, -0.025339, 0.000265, 0.013240, 0.007300, 
    -0.017854, -0.019441, -0.005470, -0.013592, 0.022037, -0.001765, 0.006093, 0.012175, -0.002721, 0.015194, 
    -0.007346, -0.007023, -0.030201, -0.004088, 0.002237, 0.004588, -0.002423, 0.018671, 0.003469, 0.003401, 
    -0.025725, 0.010476, -0.015249, -0.024882, -0.005296, 0.004990, -0.023170, -0.032450, 0.021138, 0.019869, 
    -0.026264, 0.028208, -0.034741, 0.005518, -0.001084, -0.037871, 0.066994, -0.012539, -0.000536, 0.043503, 
    -0.020525, -0.025310, -0.000793, -0.012456, 0.022558, 0.053195, 0.036302, 0.022313, 0.021886, 0.007443, 
    0.025440, -0.025188, 0.028721, 0.028483, -0.009593, 0.004622, 0.002933, -0.012184, 0.015166, -0.072559, 
    -0.001171, -0.001611, -0.002511, -0.001550, 0.000468, 0.002585, 0.001087, 0.004870, 0.006061, 0.000769, 
    0.006886, 0.006050, -0.005113, 0.000377, -0.005170, 0.002335, -0.000870, -0.002538, 0.003551, 0.004164, 
    0.005775, -0.001563, -0.011831, 0.002334, 0.000464, -0.007859, -0.007402, 0.004380, -0.007247, -0.001014, 
    0.001865, 0.014139, -0.006100, 0.003198, 0.005609, 0.003318, 0.009240, 0.001115, -0.000774, 0.001844, 
    -0.005977, -0.005872, -0.014942, -0.002919, -0.006209, 0.011853, 0.018135, -0.008898, -0.002308, 0.021725, 
    0.001072, 0.012315, 0.014217, -0.005847, -0.002752, 0.019249, 0.015664, 0.004333, -0.006514, -0.000244, 
    -0.007761, 0.008814, 0.009541, -0.000387, -0.021015, -0.014309, -0.013736, -0.016124, 0.004503, 0.011766, 
    0.016240, 0.003379, -0.004681, -0.006897, 0.009258, -0.012834, 0.002647, 0.007500, 0.031627, 0.005429, 
    0.034575, -0.027813, 0.006521, 0.015589, -0.010512, -0.003630, -0.036819, -0.025805, -0.021058, -0.037116, 
    -0.008012, 0.033532, -0.000418, 0.039124, -0.039192, 0.022405, 0.039443, 0.039021, -0.008703, -0.018171, 
    0.002565, 0.040724, 0.031644, 0.059798, -0.010339, -0.026967, 0.020651, 0.013898, -0.023350, 0.028128, 
    -0.022265, -0.002038, 0.015746, -0.016882, -0.014012, -0.020780, -0.000396, 0.035324, 0.057629, -0.000555, 
    0.000569, 0.002016, 0.000208, -0.003008, -0.002382, -0.004090, 0.000936, 0.007363, 0.004431, 0.007703, 
    0.008920, 0.009942, 0.003778, 0.004327, 0.001907, -0.001635, -0.002325, -0.008557, -0.001193, -0.005732, 
    -0.008506, 0.009935, -0.004940, -0.003848, -0.009227, -0.008418, 0.001792, 0.014442, -0.001576, 0.008742, 
    -0.011344, -0.000803, 0.005877, -0.003336, -0.006052, 0.007950, -0.003958, 0.001527, -0.005486, 0.007190, 
    0.001058, -0.005253, 0.010333, 0.012046, 0.005836, -0.017622, -0.009709, 0.006964, 0.013904, -0.006512, 
    0.011268, -0.007031, 0.003434, 0.019881, 0.008511, -0.013011, 0.009207, 0.010420, 0.011612, -0.009323, 
    -0.008866, -0.008930, -0.006604, -0.012298, -0.012344, 0.000507, 0.011906, 0.002574, 0.026985, -0.010462, 
    -0.000556, 0.002491, -0.024343, -0.018750, -0.016659, 0.012221, -0.007382, -0.005543, -0.014977, -0.004563, 
    0.017941, 0.022393, -0.047307, -0.018986, 0.015975, -0.031570, 0.010299, 0.035957, 0.002046, 0.040793, 
    -0.002958, 0.021523, -0.017277, 0.029021, -0.030718, 0.018508, -0.002237, -0.010931, 0.050713, 0.007641, 
    0.005071, -0.033154, -0.018118, -0.023216, 0.013715, 0.002690, 0.029682, 0.050165, -0.047455, 0.013977, 
    0.015265, -0.001635, -0.052806, -0.030696, 0.024568, 0.044705, 0.040725, -0.004497, -0.039855, -0.057597, 
    -0.001752, -0.000949, -0.000763, 0.003924, 0.000388, 0.003437, 0.005087, -0.001578, -0.000498, -0.000678, 
    0.001963, 0.004851, -0.001204, 0.001761, 0.001718, 0.002377, -0.009637, -0.008314, 0.005952, 0.006018, 
    0.006268, 0.003615, 0.004624, -0.005414, -0.008514, -0.003435, -0.004792, -0.003683, -0.006679, -0.007391, 
    0.010057, 0.014713, 0.011865, 0.008266, 0.001328, 0.015624, -0.006459, -0.014085, -0.009032, 0.015725, 
    -0.001607, 0.003711, 0.000477, 0.005300, -0.005458, -0.008509, -0.004943, -0.004494, -0.000306, -0.011952, 
    0.012099, 0.003097, -0.011858, 0.009444, 0.011164, 0.023889, 0.010332, -0.008495, -0.024751, -0.022812, 
    0.007080, 0.023066, -0.004201, -0.000056, -0.014084, -0.016778, -0.024451, -0.027734, -0.032718, 0.005020, 
    0.010501, 0.020780, 0.025187, 0.016133, 0.010452, -0.017749, -0.033992, 0.001869, 0.028122, -0.027069, 
    -0.024791, -0.020957, 0.000413, 0.004813, -0.023073, 0.012930, 0.005855, -0.013752, -0.035026, 0.025062, 
    0.041019, -0.001933, -0.020180, 0.016209, 0.018769, -0.009689, 0.010268, -0.051402, -0.027062, 0.029445, 
    -0.019673, -0.008155, -0.014634, -0.020393, 0.032597, 0.033850, -0.036495, -0.018786, -0.014810, -0.031631, 
    -0.034752, -0.049785, 0.022089, 0.007648, 0.040090, 0.013510, -0.031620, 0.002607, 0.038090, -0.000592, 
    0.001783, 0.001139, 0.000876, 0.003803, 0.004081, 0.001204, -0.002580, -0.007285, -0.004637, -0.008487, 
    -0.002918, -0.011539, -0.004927, -0.012664, -0.004388, 0.006667, 0.002590, 0.007220, 0.010349, 0.007743, 
    -0.003728, -0.006555, 0.002981, -0.004342, -0.006868, -0.007473, -0.012009, -0.013378, -0.010450, -0.002274, 
    -0.005430, -0.004908, -0.002329, -0.002497, 0.012001, 0.012151, -0.005919, -0.014083, -0.002476, 0.016625, 
    0.010575, 0.008726, -0.006097, -0.010644, -0.003898, 0.006545, 0.019795, 0.009748, -0.000534, -0.003106, 
    -0.000819, -0.003524, -0.001284, 0.009435, 0.006020, 0.007167, -0.000295, -0.014330, 0.010343, 0.011515, 
    -0.006256, 0.000389, 0.014189, -0.002099, 0.010392, 0.005617, 0.008877, 0.005310, 0.017084, 0.027454, 
    -0.003592, 0.022169, -0.002949, -0.006860, 0.008177, -0.001260, -0.010485, -0.014766, -0.031572, -0.004852, 
    0.008708, 0.026345, 0.018631, 0.031526, -0.013381, -0.011130, 0.018175, -0.044951, 0.014513, -0.011342, 
    -0.032442, 0.010935, 0.000854, 0.008634, 0.005504, -0.029301, 0.021308, -0.010404, -0.005779, 0.041983, 
    -0.007793, 0.000420, 0.045497, -0.012530, 0.022727, 0.018089, -0.040018, -0.011756, -0.011737, 0.028694, 
    -0.016491, 0.043148, -0.029324, 0.031964, 0.034658, 0.000715, -0.016837, -0.051512, -0.008138, 0.000249
    
};

// PyTorch Layer: conv1.bias (Shape: (16,))
static const data_t conv1_b[16] = {
-0.762157, 0.641450, -0.490290, 0.030925, 0.261462, -0.306996, -0.557339, 0.081297, 0.601935, 0.199651, 
    -0.352227, 0.428806, -0.377977, 0.662914, -0.463858, -0.280559
};

// PyTorch Layer: conv2.weight (Shape: (32, 16, 3))
static const data_t conv2_w[1536] = {
0.011101, -0.153746, 0.078694, 0.148640, -0.000263, -0.013137, -0.110400, 0.060778, -0.128044, 0.119618, 
    -0.059148, 0.122719, 0.175843, 0.129962, 0.080407, 0.065275, 0.180467, 0.122420, 0.021010, -0.062110, 
    0.160684, 0.034951, 0.176405, 0.060937, -0.028505, -0.135059, -0.075684, -0.001632, -0.144202, -0.051615, 
    0.144087, 0.159593, 0.165929, -0.030135, 0.026010, -0.100144, 0.158812, 0.108299, 0.206098, 0.020716, 
    0.173056, 0.110351, 0.202575, 0.070585, -0.027106, -0.115552, -0.129558, 0.016092, -0.119421, -0.069204, 
    0.033568, 0.205106, 0.040059, 0.175189, -0.061742, -0.073983, -0.072148, 0.014350, 0.114054, 0.075311, 
    0.001865, 0.157416, 0.004804, -0.076991, 0.062317, -0.000348, -0.094117, -0.135096, -0.071186, -0.077506, 
    0.105631, 0.013346, 0.075520, 0.069030, 0.004700, -0.002211, -0.055053, 0.038522, -0.121387, -0.072811, 
    0.096082, 0.024348, 0.164639, 0.129403, 0.023575, -0.066335, 0.163844, 0.091880, 0.213462, -0.048151, 
    0.058859, -0.093553, 0.007129, -0.149007, -0.152691, -0.041896, 0.129530, 0.002232, -0.024944, 0.234315, 
    0.115129, 0.024243, 0.067222, 0.078194, 0.095660, 0.176873, 0.195920, 0.014472, 0.067964, -0.003944, 
    0.030332, 0.107680, -0.112952, 0.071153, -0.133214, -0.050612, -0.069739, -0.068045, 0.007888, -0.073746, 
    0.136584, -0.037090, 0.096275, 0.011229, -0.067457, 0.152093, -0.082464, -0.099054, -0.035740, 0.078780, 
    0.119535, 0.044809, -0.019724, 0.094659, 0.084091, 0.223798, 0.112313, 0.061603, -0.043097, -0.041162, 
    -0.056366, -0.100692, -0.089489, -0.015953, 0.010155, 0.068987, -0.160944, 0.210538, 0.071176, -0.033816, 
    0.016652, -0.147861, -0.119599, 0.143073, 0.112584, 0.190380, -0.012590, 0.162180, 0.161139, 0.109862, 
    -0.019484, 0.061724, 0.013850, 0.113458, -0.095818, -0.066820, -0.066825, 0.085319, -0.096898, -0.009993, 
    -0.039867, 0.051004, -0.071640, 0.109297, -0.141177, -0.081672, 0.035326, -0.059502, 0.117204, 0.029142, 
    0.008817, 0.180552, 0.033417, 0.133478, 0.039049, 0.166805, 0.152011, 0.159054, -0.065107, -0.193544, 
    -0.141195, -0.011261, 0.016582, 0.034575, 0.025434, 0.162991, -0.083191, -0.084147, -0.106741, 0.047327, 
    -0.153685, 0.169629, 0.082390, 0.151584, 0.208719, 0.200078, 0.201254, -0.000793, -0.023872, 0.099077, 
    0.147799, 0.029098, -0.002208, 0.038641, 0.010412, 0.130523, -0.169283, 0.090967, -0.033775, -0.108674, 
    -0.072490, -0.108656, -0.069127, 0.066531, 0.025173, -0.051023, -0.010990, -0.009277, 0.136330, -0.043724, 
    0.070510, 0.029135, -0.088078, 0.160051, -0.007185, 0.171662, 0.169109, -0.010060, 0.093014, -0.109031, 
    0.020941, -0.077478, -0.046852, -0.038037, 0.026746, -0.164156, -0.034218, -0.057182, 0.011448, -0.130195, 
    -0.120158, -0.044469, 0.145787, 0.035184, -0.045612, 0.141375, 0.149634, 0.142688, 0.095802, 0.079782, 
    0.188418, 0.112662, 0.143415, 0.137489, -0.018048, 0.143735, 0.052005, 0.105718, 0.106193, 0.086452, 
    0.186855, 0.203041, 0.025135, -0.120067, -0.092521, -0.136575, 0.137008, 0.046599, -0.002028, -0.137872, 
    -0.195581, -0.062815, 0.197932, 0.165171, 0.185767, 0.180094, 0.142562, 0.080219, -0.119056, 0.086682, 
    -0.111661, -0.076028, 0.057942, 0.080575, -0.123620, 0.039834, -0.162105, 0.083825, 0.108938, 0.075453, 
    -0.011571, -0.037172, 0.176444, 0.082227, -0.011760, 0.190496, 0.031592, 0.034691, 0.101761, 0.180607, 
    -0.001656, 0.062985, -0.078754, -0.085509, -0.039989, -0.025741, 0.048710, -0.137325, 0.145321, 0.171976, 
    0.049415, -0.023770, 0.024916, -0.145946, 0.167653, 0.035250, 0.066770, 0.077973, 0.066837, -0.055227, 
    -0.026342, -0.061188, -0.039497, -0.007463, -0.089066, 0.018172, -0.027856, 0.101325, 0.119424, 0.248202, 
    0.031522, 0.030713, 0.129320, 0.041827, 0.172467, -0.058049, 0.194909, -0.028535, -0.073127, 0.014969, 
    -0.034193, -0.035716, 0.105668, 0.141536, 0.030643, -0.039868, -0.077461, -0.101180, 0.113928, -0.106865, 
    -0.094673, 0.129111, 0.000298, 0.182913, 0.038604, 0.190130, -0.101274, 0.059193, 0.081091, 0.084259, 
    0.164229, 0.076431, -0.146060, 0.043156, -0.127621, 0.093374, -0.050478, 0.008777, -0.037392, -0.059826, 
    -0.127662, -0.029148, -0.101398, -0.091916, -0.130385, -0.075888, -0.015219, 0.228575, -0.000773, -0.004560, 
    -0.155920, 0.069880, -0.077093, 0.052920, 0.173425, 0.005302, 0.042466, 0.210908, 0.162585, -0.079686, 
    -0.005486, 0.054384, 0.033982, -0.080754, 0.093293, 0.053771, -0.083864, 0.078199, -0.117886, 0.035190, 
    -0.110765, 0.001268, -0.008380, -0.112686, -0.045239, 0.003270, -0.070100, 0.082571, 0.136553, 0.076323, 
    -0.067056, 0.072021, 0.015666, 0.144441, -0.010293, 0.015223, 0.019297, 0.099684, -0.027689, -0.033798, 
    -0.040959, -0.124780, -0.016521, -0.008449, 0.023562, 0.192598, 0.170779, 0.209916, -0.041115, -0.072555, 
    0.107808, 0.200813, 0.160684, 0.188213, 0.134007, 0.187532, 0.183802, -0.106847, -0.123780, -0.064579, 
    0.037689, 0.057926, -0.057900, -0.103796, -0.068458, 0.063436, 0.151001, 0.055738, -0.054279, 0.204498, 
    0.197613, 0.009170, -0.130185, 0.027207, -0.151684, 0.223835, 0.074174, 0.103364, -0.038339, -0.105658, 
    0.062331, 0.076616, 0.041687, 0.240192, 0.017437, -0.043467, -0.131392, -0.135759, -0.095866, 0.007415, 
    -0.107703, 0.097432, 0.150207, 0.169272, -0.029889, 0.149259, -0.002421, 0.092233, 0.037223, 0.130388, 
    0.042731, 0.079163, 0.088197, -0.077491, 0.042243, 0.133392, 0.098933, 0.015342, -0.072088, 0.011728, 
    -0.159806, -0.058040, 0.103637, -0.002583, 0.028586, -0.086252, -0.045530, 0.098773, -0.038286, 0.024322, 
    -0.101931, 0.009136, -0.007417, -0.032824, 0.137428, 0.081402, -0.064736, 0.100613, -0.096605, -0.015981, 
    0.123541, 0.036533, -0.073956, -0.138604, -0.053892, 0.089846, -0.132146, -0.094883, -0.039714, -0.121406, 
    0.009406, -0.000288, 0.128978, -0.117909, -0.058942, -0.000599, -0.044932, 0.012159, 0.181456, -0.058670, 
    0.199534, 0.099951, 0.133638, 0.147431, 0.064066, 0.066052, 0.035570, -0.064214, 0.127506, 0.170069, 
    0.121628, 0.041438, -0.128586, -0.008413, 0.031841, -0.140599, 0.087535, -0.042963, 0.100488, 0.184211, 
    0.123435, -0.082722, 0.043298, 0.068605, 0.140827, 0.001397, 0.086811, -0.061055, 0.018797, -0.060991, 
    0.156061, 0.212262, -0.060646, -0.053078, -0.048727, -0.084742, 0.209304, -0.026434, 0.013235, -0.208324, 
    -0.095406, -0.190681, -0.061832, 0.175417, 0.100345, 0.062017, 0.102238, 0.029361, 0.077640, -0.049023, 
    0.087599, -0.015757, 0.090473, 0.013287, 0.043664, 0.042436, 0.053809, -0.004299, 0.002386, 0.021996, 
    -0.064907, 0.174621, 0.111875, -0.142279, -0.143762, -0.076647, 0.166403, 0.239318, 0.086040, 0.027002, 
    -0.126354, -0.076266, 0.048303, -0.066719, 0.066478, -0.037243, 0.016224, -0.179715, 0.064106, 0.107930, 
    0.119334, 0.132025, 0.002086, 0.220634, -0.050144, 0.025895, 0.139648, -0.108097, -0.127870, -0.195188, 
    0.127786, 0.028045, 0.100784, 0.025581, -0.087870, -0.036275, 0.129126, -0.032193, -0.022491, 0.146774, 
    0.006826, 0.089378, 0.038173, 0.147997, 0.118342, -0.058594, -0.053177, 0.104618, 0.011496, 0.137576, 
    0.069373, -0.058641, -0.033628, -0.071891, 0.166978, 0.208289, 0.093215, -0.137046, 0.061811, 0.074036, 
    0.139642, 0.041194, 0.077431, -0.052397, -0.104409, -0.195058, 0.067442, 0.143693, 0.165949, 0.132539, 
    0.164290, 0.189333, 0.083098, 0.201782, 0.106486, -0.077383, -0.074254, -0.099075, 0.014756, 0.154697, 
    0.253791, -0.010616, 0.004888, -0.062214, -0.072343, -0.053656, 0.035384, 0.081857, 0.002158, 0.083649, 
    0.059104, 0.074013, 0.183515, -0.048792, 0.138883, -0.062191, 0.213090, 0.134971, 0.137158, 0.045528, 
    0.037367, -0.025523, -0.051232, 0.177264, 0.214744, 0.073602, -0.018484, 0.072593, -0.003750, -0.116948, 
    -0.104917, 0.014569, -0.061583, -0.053246, -0.035592, 0.108866, -0.017815, 0.073853, 0.191735, 0.250942, 
    0.071590, 0.003030, -0.046529, 0.162446, 0.179451, 0.118910, -0.033127, -0.028859, -0.044930, 0.189416, 
    0.131226, -0.034120, -0.004022, -0.052402, 0.046370, -0.007308, -0.073639, -0.128615, -0.133130, 0.026633, 
    -0.037160, 0.024416, 0.064177, 0.022184, -0.122238, -0.107542, -0.090144, -0.126683, -0.130690, -0.056737, 
    0.015122, 0.108644, -0.029855, 0.121636, 0.075510, -0.080730, -0.008514, 0.020721, -0.053202, 0.078426, 
    0.096349, -0.047012, -0.008397, -0.101453, 0.164203, 0.018451, -0.103892, 0.071243, -0.125774, 0.080021, 
    -0.089091, 0.096120, 0.151424, 0.120545, -0.035955, -0.083361, -0.065223, 0.185653, 0.014890, 0.018699, 
    0.080151, -0.009453, 0.009326, 0.019528, 0.118722, 0.061638, -0.105201, 0.066355, -0.065722, 0.076567, 
    0.046831, 0.140884, -0.058141, -0.081620, -0.052648, -0.008399, -0.072156, 0.084330, -0.080419, 0.019975, 
    -0.104938, 0.017486, 0.005232, -0.024753, 0.131528, -0.070678, 0.073509, 0.051125, -0.012709, 0.173572, 
    0.111951, 0.064236, 0.028025, 0.016380, -0.119083, -0.171285, 0.157172, -0.025811, 0.058114, 0.103639, 
    0.219944, 0.243020, -0.029649, 0.068097, -0.044581, 0.138299, 0.184091, -0.002164, 0.042731, -0.005198, 
    -0.008202, 0.105905, -0.130083, -0.015968, -0.050189, -0.169531, 0.008397, 0.068657, -0.134913, 0.029442, 
    0.021639, 0.163626, -0.091983, 0.193912, 0.021054, 0.195903, -0.115932, -0.019271, -0.011156, 0.172439, 
    0.149305, 0.164562, -0.035069, -0.111538, -0.000454, 0.223164, 0.218536, 0.012236, 0.049561, 0.018005, 
    -0.067438, 0.058141, -0.016140, 0.009709, -0.138700, -0.071378, 0.077476, 0.145673, -0.059039, 0.046433, 
    0.009874, -0.135539, -0.095432, 0.135402, 0.179572, 0.191648, -0.040029, -0.075858, 0.162145, -0.002536, 
    0.137907, 0.105760, -0.071800, 0.023694, 0.029328, -0.009748, 0.170883, 0.054803, -0.078382, -0.167054, 
    0.073115, -0.154024, 0.091913, -0.073245, -0.038056, 0.004319, 0.122330, -0.063852, -0.072339, 0.107470, 
    -0.016348, 0.000513, 0.137802, 0.002481, 0.143543, 0.004432, 0.133733, 0.165616, 0.043475, -0.108557, 
    0.015596, -0.028554, -0.039540, 0.080052, -0.052033, 0.137096, 0.044172, 0.062509, -0.072548, -0.058665, 
    -0.011132, 0.184359, 0.162268, 0.017721, 0.191122, 0.157355, 0.117021, 0.017834, -0.078962, -0.077238, 
    -0.039266, -0.148697, 0.007622, -0.097688, -0.096826, -0.030149, 0.081978, 0.112026, -0.110266, -0.078865, 
    0.040867, -0.019890, -0.146161, -0.001167, -0.152636, 0.069376, 0.114219, 0.185334, -0.072396, 0.147613, 
    0.065111, 0.213134, 0.227227, 0.054190, -0.015302, -0.029849, 0.113535, -0.114367, 0.037125, -0.006179, 
    0.234977, 0.200840, 0.217401, -0.158100, -0.117945, -0.143709, 0.184505, 0.142710, 0.169749, 0.011785, 
    -0.032575, 0.012248, -0.101360, 0.065037, -0.145281, -0.084774, 0.090934, 0.178522, 0.028400, 0.214290, 
    0.029160, -0.116828, -0.031578, 0.065080, 0.004743, 0.211003, 0.017765, -0.006254, -0.012587, -0.057548, 
    0.201369, -0.007947, 0.008105, -0.033290, 0.118994, 0.065144, 0.033239, -0.057286, 0.045355, -0.019699, 
    0.067556, -0.014895, 0.131581, 0.123330, 0.052931, -0.016921, 0.148606, 0.014026, 0.108784, 0.067548, 
    0.195842, -0.109496, -0.129759, 0.051774, 0.207074, 0.083657, 0.155140, 0.073885, -0.020020, -0.074940, 
    0.032375, 0.080987, -0.071730, 0.130053, 0.048175, 0.012618, 0.035416, -0.086948, 0.113815, -0.112956, 
    -0.154256, -0.058231, 0.001471, -0.028252, 0.031237, 0.058911, 0.111577, 0.089065, 0.021049, 0.076440, 
    -0.039895, 0.164482, 0.099136, 0.119398, -0.172166, 0.048993, -0.025855, -0.156729, 0.109227, -0.030609, 
    0.027696, 0.113209, 0.086176, 0.218887, -0.040640, 0.232480, 0.093915, 0.061968, -0.047299, -0.033606, 
    0.177521, 0.145106, 0.210354, 0.090748, 0.025475, 0.012775, -0.088935, -0.117363, -0.002428, 0.065325, 
    -0.158703, -0.104941, 0.034834, -0.035449, -0.106989, -0.060001, -0.045417, -0.087536, 0.054219, 0.023874, 
    0.095190, 0.005007, 0.036778, 0.170797, 0.088398, -0.054691, -0.009579, 0.046168, -0.066567, 0.038210, 
    0.041854, 0.154393, 0.061637, -0.161827, 0.036809, 0.080851, 0.070978, -0.060675, -0.140436, 0.082607, 
    -0.028615, 0.006674, 0.008897, 0.130351, 0.024840, 0.152942, 0.026155, 0.098222, 0.101583, -0.010594, 
    0.087322, 0.116125, -0.049126, -0.034067, 0.008265, 0.107165, 0.002399, -0.143419, -0.067424, 0.151482, 
    0.003224, 0.135484, -0.022475, 0.054903, -0.092941, 0.100646, -0.011008, -0.076571, 0.156103, 0.120733, 
    -0.039525, 0.064871, 0.178736, 0.113176, -0.087851, -0.129145, -0.128296, 0.146502, 0.130819, -0.054867, 
    -0.070871, -0.004656, -0.170697, 0.170514, 0.034198, -0.009948, -0.031157, 0.004702, -0.014521, 0.157500, 
    0.105047, 0.023552, -0.005697, 0.008370, -0.076296, -0.119500, -0.018942, -0.055168, -0.158030, 0.016718, 
    -0.089013, 0.178848, 0.090075, 0.103651, 0.099755, 0.107729, 0.145919, 0.150597, 0.042132, 0.014921, 
    0.101114, -0.001681, 0.059665, 0.102521, 0.125844, -0.073610, 0.032461, -0.075712, -0.113371, -0.090655, 
    -0.035853, 0.035044, -0.052389, 0.108661, 0.199590, -0.089805, 0.022288, -0.073680, 0.103677, 0.126837, 
    -0.018784, 0.036783, 0.139480, 0.011971, -0.020531, 0.077605, 0.109406, 0.067359, 0.012170, -0.005032, 
    -0.079350, 0.084166, -0.082504, -0.096625, 0.045475, -0.113462, -0.046711, -0.080792, -0.135849, 0.094595, 
    -0.034231, -0.035298, 0.020564, 0.083478, 0.169273, 0.170498, 0.047100, -0.072192, 0.084144, 0.077834, 
    0.198075, 0.036658, -0.067804, 0.117297, -0.036044, 0.045392, 0.044357, -0.001213, 0.026183, -0.150116, 
    -0.037939, 0.207927, 0.206969, -0.103427, 0.092869, -0.018513, 0.036200, -0.006373, -0.005064, 0.069237, 
    -0.133805, -0.104526, 0.219464, 0.007750, 0.219631, 0.101587, 0.109565, 0.079751, -0.051033, 0.033621, 
    0.001411, -0.002811, -0.022981, -0.032073, -0.069157, -0.020547, -0.140211, 0.095007, 0.146626, 0.153974, 
    0.008299, 0.101632, -0.053311, 0.115133, -0.111889, 0.005121, -0.024522, -0.089932, -0.099898, -0.073704, 
    -0.080730, 0.141903, -0.031643, -0.115460, -0.026108, -0.069395, -0.031977, 0.099628, -0.131188, -0.124427, 
    0.031893, 0.140497, -0.093091, 0.087043, 0.205311, 0.039521, -0.027845, 0.145626, 0.157126, 0.072160, 
    -0.059658, 0.061671, -0.033347, -0.144314, 0.045669, 0.046482, 0.121464, -0.048843, 0.188540, 0.044782, 
    0.064090, -0.066621, 0.053307, -0.049180, 0.186504, -0.041406, -0.170612, 0.101235, -0.046977, 0.054145, 
    -0.053002, 0.015092, 0.162103, 0.152294, 0.006873, 0.082631, 0.173416, 0.019658, -0.015856, 0.134846, 
    0.169336, 0.008419, 0.153465, -0.008071, 0.007560, 0.119451, 0.064985, 0.058373, 0.048124, -0.134567, 
    0.093425, -0.126424, -0.113709, 0.009644, -0.027333, -0.045634, -0.038325, 0.088455, -0.107027, -0.060233, 
    0.052784, -0.030315, -0.015232, 0.210329, 0.072031, -0.023082, 0.058416, 0.126316, 0.087965, 0.221176, 
    0.012039, 0.115371, -0.093152, 0.007840, 0.089743, 0.145535, -0.007948, 0.151202, -0.061831, -0.048405, 
    0.116016, -0.084467, -0.168679, -0.070778, -0.147542, 0.036330, -0.028282, -0.039708, 0.107965, 0.048743, 
    -0.080021, -0.081377, 0.142477, 0.113898, 0.040215, -0.144995, -0.052268, 0.203830, 0.192350, 0.175909, 
    0.147544, -0.024050, -0.081462, 0.178416, 0.189296, 0.057628, -0.016912, -0.011310, -0.121042, -0.081789, 
    -0.058825, 0.026747, 0.013505, 0.109494, 0.166791, 0.095363, 0.089628, 0.044127, 0.038209, -0.083189, 
    0.143386, 0.176955, 0.090733, 0.187949, 0.094312, 0.117932, 0.152437, -0.086658, -0.015290, 0.047278, 
    -0.072909, -0.138128, -0.088501, -0.081147, -0.064213, -0.118082, 0.044096, 0.156120, 0.017015, 0.149840, 
    -0.024640, 0.002913, -0.020545, 0.085279, -0.171701, 0.178257, 0.136535, 0.001836, -0.095605, 0.072848, 
    -0.067213, 0.219254, 0.023962, 0.229923, -0.111323, 0.013620, -0.000767, -0.099544, -0.066727, -0.035487, 
    0.093646, 0.161146, 0.033836, -0.056868, -0.143752, -0.139012, 0.159311, 0.032317, -0.046061, 0.020293, 
    0.005258, 0.055405, -0.014602, 0.059126, -0.011497, -0.000214, 0.114336, 0.128166, 0.145324, 0.251178, 
    0.133001, 0.086170, 0.058167, -0.055062, 0.129922, 0.181235, 0.087875, -0.096196, 0.130441, 0.043123, 
    0.220600, 0.179499, 0.143131, -0.060893, 0.011370, 0.014680, 0.060292, -0.017467, -0.001713, -0.172258, 
    -0.101543, -0.077522, 0.223582, 0.035841, -0.022114, 0.201851, 0.247924, 0.015008, 0.065451, 0.109547, 
    0.158221, 0.031953, 0.118438, 0.157541, 0.178020, 0.163919, 0.182674, -0.123425, 0.028199, 0.096603, 
    -0.149118, -0.148465, -0.143410, 0.067987, 0.154329, 0.016000, -0.071735, -0.006047, -0.131132, -0.009123, 
    -0.129161, -0.135907, -0.045524, 0.015372, 0.145762, 0.116652, 0.185908, -0.048386, -0.129908, 0.068818, 
    0.092908, 0.201251, -0.054768, 0.139855, -0.172082, -0.079652, -0.039986, 0.111190, 0.005009, -0.079939, 
    -0.170016, -0.092402, 0.068923, 0.103087, 0.107259, -0.072806
};

// PyTorch Layer: conv2.bias (Shape: (32,))
static const data_t conv2_b[32] = {
-0.084331, 0.176524, 0.122598, -0.003032, 0.042939, 0.121772, 0.159699, -0.068771, -0.008326, 0.099429, 
    0.144482, 0.054989, 0.051995, 0.050300, 0.165844, -0.089741, 0.096026, -0.069090, 0.032719, -0.094613, 
    0.112456, -0.053279, 0.025545, -0.068414, 0.044999, -0.038765, -0.033470, -0.056239, 0.132087, 0.064573, 
    0.033222, 0.154667
};

// PyTorch Layer: fc.weight (Shape: (3, 32))
static const data_t fc_w[96] = {
0.056665, -0.167160, -0.092902, -0.122448, -0.056350, 0.016152, 0.049576, -0.246411, -0.208041, 0.025341, 
    -0.110069, 0.038963, 0.177508, 0.024448, 0.194440, -0.123584, -0.044367, -0.232252, 0.095892, -0.240977, 
    0.164534, 0.019014, -0.113006, -0.102945, 0.091506, 0.265096, -0.044605, 0.116541, -0.257049, -0.158378, 
    0.013104, -0.173830, -0.054906, -0.036815, 0.091546, -0.128656, -0.228213, -0.139215, -0.237169, 0.168561, 
    -0.210056, 0.162368, 0.090758, -0.177165, -0.081541, -0.187239, 0.162805, -0.086257, -0.069154, 0.062934, 
    0.024652, -0.027764, 0.118261, 0.149804, 0.039089, 0.194049, -0.229421, -0.178153, -0.020426, 0.028999, 
    0.114444, 0.150699, -0.142138, 0.192340, 0.096407, 0.220802, 0.119360, 0.048778, 0.024997, -0.166409, 
    0.096180, 0.011286, 0.156889, 0.201685, 0.106567, 0.058583, -0.171771, -0.269822, -0.154886, 0.209891, 
    0.224843, -0.015027, 0.181268, 0.220569, -0.248349, -0.283334, -0.117711, -0.082983, 0.111216, 0.023835, 
    0.183091, -0.157858, 0.163963, 0.112106, -0.265271, -0.233042
};

// PyTorch Layer: fc.bias (Shape: (3,))
static const data_t fc_b[3] = {
0.063157, 0.159005, -0.113141
};

#endif // VOICE_CNN_WEIGHTS_H
