#ifndef VOICE_CNN_WEIGHTS_H
#define VOICE_CNN_WEIGHTS_H

#include "voice_typedefs.h"

// PyTorch Layer: conv1.weight (Shape: (16, 40, 3))
static const data_t conv1_w[1920] = {
0.001704, 0.000422, 0.000281, 0.002520, 0.004769, 0.000550, -0.006914, -0.006180, -0.008114, -0.006903, 
    -0.000141, 0.000303, -0.005665, -0.001474, -0.006131, 0.006661, -0.002136, -0.001209, -0.003375, -0.000406, 
    0.003018, -0.002571, 0.001696, 0.006554, 0.001659, 0.002626, 0.001403, 0.001822, 0.007434, 0.004138, 
    -0.009134, 0.006621, 0.002934, -0.006831, 0.004220, -0.005402, 0.003974, -0.012923, 0.008707, 0.005206, 
    -0.017642, -0.022194, 0.004756, -0.000256, 0.008845, 0.008749, 0.002471, 0.014065, 0.005317, 0.001481, 
    -0.008350, 0.010979, -0.007865, 0.006470, -0.008559, -0.019334, -0.005200, 0.014601, 0.023076, 0.021940, 
    -0.026240, -0.022179, -0.013231, -0.005768, 0.009215, -0.005358, -0.006738, 0.014991, 0.024736, -0.009265, 
    -0.027388, -0.004396, 0.012578, 0.020985, 0.011205, 0.028209, -0.007059, 0.033996, -0.030296, -0.029756, 
    0.011195, 0.016426, 0.040603, 0.002741, 0.036104, 0.041438, 0.022791, 0.007180, -0.044511, -0.022804, 
    -0.002140, 0.003794, -0.028358, 0.006898, -0.028537, -0.037536, 0.015922, -0.023443, -0.028800, 0.003408, 
    0.005362, 0.003556, 0.014642, -0.006853, -0.016363, 0.038490, -0.043278, 0.003109, 0.081342, 0.072829, 
    0.019207, 0.006535, -0.013647, 0.043111, -0.065184, -0.046436, -0.034200, 0.016334, -0.014687, -0.005066, 
    0.001276, -0.000272, -0.000249, -0.004329, -0.002021, -0.001794, 0.003984, 0.000049, 0.003202, 0.003208, 
    0.004685, 0.004766, 0.001674, -0.003900, 0.006513, -0.007655, -0.002184, -0.000496, 0.001731, 0.004163, 
    0.002501, 0.009152, 0.003897, 0.006655, -0.002449, -0.004700, 0.006553, 0.016331, 0.012449, 0.002222, 
    0.005161, 0.008054, -0.002098, 0.000248, 0.003923, -0.013260, -0.002915, -0.005136, -0.006641, 0.011236, 
    0.015317, 0.006245, 0.011416, -0.003498, 0.007655, -0.005726, -0.014239, -0.001536, 0.008480, 0.004482, 
    0.014404, 0.014170, 0.021902, 0.008202, 0.008892, 0.007843, 0.008852, -0.011427, -0.004503, -0.013051, 
    -0.022315, -0.026701, 0.006587, -0.020961, -0.013611, -0.010431, 0.018212, 0.010272, -0.014696, 0.008367, 
    -0.032092, -0.013141, 0.006824, 0.006040, -0.021864, -0.008433, 0.010748, 0.018573, 0.009732, 0.013761, 
    0.005579, 0.005568, -0.004780, 0.010920, -0.015629, -0.023402, -0.007994, -0.001884, 0.020459, 0.039241, 
    -0.021386, 0.004393, -0.032345, -0.043599, -0.034601, -0.028634, -0.008612, 0.019854, 0.026031, 0.023288, 
    0.001309, -0.010880, -0.025292, 0.010886, -0.039577, 0.039384, -0.035951, -0.024361, -0.001090, -0.032871, 
    -0.002416, 0.028155, 0.028235, 0.041237, -0.023037, -0.025726, -0.015573, -0.013894, -0.030038, -0.023005, 
    -0.000472, -0.002275, -0.000907, 0.001501, 0.002092, 0.001286, 0.001324, 0.003912, 0.000580, -0.003270, 
    0.004925, 0.004744, -0.002257, 0.007642, 0.003583, 0.002815, 0.007861, -0.000702, -0.000969, 0.006526, 
    -0.000396, -0.004204, -0.006035, 0.005726, 0.004769, -0.001287, -0.000338, -0.000821, -0.009975, -0.001761, 
    -0.004741, 0.004387, 0.002320, 0.002091, 0.017250, 0.008539, 0.007616, -0.006877, 0.002902, 0.004317, 
    0.006037, -0.006189, -0.009264, -0.018036, -0.000709, 0.017509, 0.013151, 0.011523, 0.012775, 0.018894, 
    0.008444, 0.000596, 0.000098, -0.016539, 0.007749, 0.007299, -0.011180, -0.021038, -0.028265, -0.027316, 
    0.017371, 0.021112, 0.010167, -0.008366, -0.019887, -0.011945, -0.002653, -0.012268, -0.007804, 0.020730, 
    0.003243, -0.011089, 0.007016, -0.019079, 0.006699, 0.013757, -0.009704, -0.005707, -0.018010, 0.002820, 
    0.032452, -0.025742, -0.013326, 0.016790, -0.007920, 0.002540, -0.047582, 0.008876, -0.031039, -0.012544, 
    0.024025, -0.021345, 0.024491, -0.010738, 0.054174, 0.029348, 0.006613, -0.027200, 0.000419, -0.007413, 
    0.024250, 0.039704, -0.019526, -0.003209, 0.025648, -0.005234, -0.018394, 0.016478, -0.006349, -0.000895, 
    0.014593, -0.003886, 0.019609, 0.023477, 0.026193, -0.020107, 0.036055, 0.012618, 0.054764, 0.051953, 
    0.002164, 0.000463, 0.001690, -0.002149, 0.000669, 0.000114, -0.005074, -0.002256, -0.000922, 0.003125, 
    0.004577, 0.002914, 0.002203, 0.004645, -0.004339, 0.008773, 0.002464, 0.007578, 0.004308, 0.001464, 
    0.007308, -0.002317, 0.004476, 0.006549, -0.003457, 0.002950, -0.010203, 0.003347, 0.014952, 0.014882, 
    -0.015668, -0.001728, -0.005015, 0.014012, -0.009851, -0.000701, -0.011772, -0.011022, -0.006798, -0.018848, 
    0.007060, -0.010596, 0.011110, -0.000814, 0.004970, -0.016685, 0.008093, 0.007664, 0.010534, -0.007543, 
    0.006395, -0.004664, 0.016109, 0.007163, -0.016922, -0.014415, -0.018464, 0.018163, 0.011616, 0.009934, 
    0.005463, -0.016344, -0.002637, 0.001308, 0.012417, 0.006499, 0.017215, 0.008396, 0.004562, 0.002206, 
    -0.018990, -0.030701, 0.006559, 0.001026, -0.006511, 0.004764, 0.000953, -0.001071, -0.030480, -0.022273, 
    -0.029184, -0.004425, 0.018484, -0.023950, -0.009323, -0.016923, 0.003575, 0.025166, -0.001588, 0.041322, 
    -0.027356, 0.034166, 0.005519, -0.023437, -0.026181, -0.004133, 0.020294, -0.031695, -0.022057, 0.008412, 
    -0.042666, -0.068855, 0.001551, 0.014571, -0.003164, -0.022881, -0.014183, 0.016456, 0.040936, 0.054447, 
    0.016880, 0.030355, -0.024487, 0.034728, 0.031755, 0.026864, -0.014133, 0.001836, -0.060701, -0.022101, 
    -0.001235, -0.002193, -0.001604, -0.002071, 0.000377, -0.000378, 0.005970, 0.003073, 0.007190, 0.005877, 
    0.009493, 0.009357, -0.002404, -0.000681, 0.006307, -0.000278, -0.012893, -0.007084, -0.003178, 0.007129, 
    0.004801, -0.000235, -0.001654, -0.007738, 0.006989, -0.007198, -0.003118, 0.001808, -0.002892, -0.001850, 
    -0.000068, -0.004525, -0.012115, -0.001769, 0.001938, -0.008582, 0.004164, -0.015250, -0.003144, -0.008129, 
    -0.009688, 0.001715, 0.005710, 0.009035, 0.003267, 0.008301, -0.010937, 0.008766, 0.013671, -0.008655, 
    -0.004571, 0.005164, 0.001390, -0.009987, -0.006956, 0.016669, 0.007015, -0.008184, -0.027194, 0.004072, 
    -0.016182, 0.001024, -0.007246, -0.016542, -0.005511, -0.020629, -0.011111, 0.010309, -0.022754, 0.009415, 
    -0.006198, -0.006190, 0.010483, -0.002740, -0.028330, 0.019315, -0.015898, 0.009845, 0.016355, 0.055518, 
    0.038770, -0.008454, 0.018766, -0.000020, -0.034173, 0.005905, 0.007648, -0.008885, 0.032832, -0.002239, 
    -0.018742, -0.020603, 0.020024, -0.015762, 0.026230, -0.030894, 0.004068, -0.012517, 0.024596, 0.053203, 
    0.032556, -0.006372, -0.023105, -0.012407, -0.007677, 0.013548, -0.049417, -0.005208, 0.018603, -0.005181, 
    -0.060958, -0.007533, -0.025423, 0.014807, 0.007673, -0.006809, 0.032982, 0.038327, 0.026380, -0.026506, 
    0.002340, 0.001755, 0.001423, -0.001138, -0.003201, -0.000848, 0.001182, -0.003987, -0.002635, 0.008839, 
    0.005718, 0.004953, 0.002798, -0.000391, 0.006856, -0.007453, -0.009518, -0.003376, -0.009103, -0.003860, 
    -0.001367, 0.000899, 0.006770, -0.005344, 0.005304, 0.002744, 0.016716, 0.020202, 0.006094, 0.020648, 
    -0.001994, 0.008095, 0.005630, -0.013545, 0.004802, -0.007516, -0.001155, 0.004248, 0.013756, 0.000342, 
    -0.018039, -0.005626, 0.015736, -0.002332, -0.003226, -0.021410, -0.018505, -0.022044, 0.001210, 0.007594, 
    0.011763, 0.004740, -0.005125, 0.003554, -0.000062, -0.022749, -0.000930, -0.007683, 0.018215, -0.003625, 
    -0.000960, -0.008373, 0.003332, -0.003996, -0.023181, -0.001879, 0.026225, -0.000080, 0.004800, -0.021537, 
    -0.017961, -0.004677, -0.010889, -0.012122, -0.019499, 0.024208, 0.014043, -0.001758, -0.017336, -0.025433, 
    -0.021180, -0.032218, 0.004984, -0.038576, 0.008410, 0.022066, -0.021511, 0.012308, 0.002488, 0.038326, 
    0.005874, -0.009785, 0.027805, 0.012825, -0.045758, -0.004952, 0.013200, 0.003588, 0.052936, -0.010715, 
    -0.044426, 0.033087, -0.030715, -0.003203, 0.030506, 0.044269, 0.048988, -0.023690, 0.029327, -0.032661, 
    -0.000379, -0.047383, 0.004344, -0.043508, -0.007361, 0.026462, 0.049085, -0.036589, 0.038265, -0.080206, 
    -0.001807, -0.000935, -0.001012, 0.002869, 0.000087, 0.003284, -0.001889, -0.000965, 0.001074, -0.008738, 
    -0.008747, -0.008806, 0.001735, -0.002255, -0.006057, 0.003882, -0.002059, -0.003098, 0.001622, -0.000332, 
    0.011659, -0.007578, -0.007140, -0.012739, -0.003576, -0.005947, -0.012483, -0.006379, -0.004439, -0.021819, 
    0.012464, 0.004782, 0.006690, 0.014304, 0.005768, 0.016933, 0.008086, -0.006881, -0.007915, -0.002509, 
    0.015384, 0.000488, -0.016341, -0.013196, -0.017771, -0.003668, 0.023424, 0.015865, 0.008035, -0.010999, 
    -0.009138, -0.009523, -0.004093, -0.015395, 0.008159, -0.007806, 0.007003, 0.002292, -0.011575, -0.000293, 
    0.005970, 0.015256, 0.009156, 0.000955, -0.005740, -0.006164, -0.026644, -0.014517, -0.003025, 0.007285, 
    -0.007415, 0.026178, 0.028919, -0.005570, 0.012177, -0.003235, -0.038911, -0.037762, 0.016826, -0.001416, 
    0.011341, -0.012665, -0.002642, 0.016771, 0.000757, -0.002100, -0.023797, -0.032258, 0.004948, -0.054197, 
    0.012653, 0.042324, 0.006842, 0.001696, -0.004155, -0.001508, -0.011068, -0.048664, 0.002504, 0.018218, 
    0.023649, 0.016926, 0.025523, -0.027859, -0.041260, -0.050806, -0.038087, -0.034048, 0.002603, -0.062105, 
    -0.053236, -0.060871, -0.037625, -0.014355, -0.014980, 0.019597, 0.034651, 0.005740, 0.038806, 0.024546, 
    0.002600, 0.001320, 0.002455, 0.002875, 0.002465, 0.003071, -0.007513, -0.007366, -0.003353, 0.000625, 
    0.002977, -0.002331, -0.003553, 0.001381, -0.002360, 0.009581, -0.001238, -0.000966, -0.002463, 0.000192, 
    -0.010076, -0.001968, 0.005761, 0.000980, 0.011943, 0.000459, -0.003762, -0.005522, -0.005466, -0.008371, 
    -0.001090, -0.002651, -0.012996, 0.008983, 0.001246, 0.002483, -0.010457, 0.004313, -0.013304, 0.002054, 
    -0.013363, -0.001938, 0.004680, 0.016747, -0.002069, -0.002012, -0.002241, -0.007608, -0.004653, -0.001148, 
    0.004698, 0.016457, 0.002977, 0.020118, -0.017466, -0.016938, -0.009135, 0.006161, 0.013663, 0.023236, 
    -0.004373, -0.023979, -0.012517, 0.006752, -0.008789, 0.014890, 0.031099, 0.023764, 0.011345, -0.000843, 
    -0.010978, -0.004634, 0.016107, -0.012584, 0.005628, -0.007109, 0.003872, 0.013725, -0.030711, -0.002441, 
    -0.036391, -0.006737, 0.028060, 0.035918, 0.006228, -0.013927, -0.015296, -0.016737, -0.025588, 0.022809, 
    -0.040651, 0.008570, -0.004350, -0.017036, 0.022482, 0.005462, 0.018052, -0.005683, 0.001208, -0.004352, 
    0.019953, -0.026499, -0.000630, -0.024707, 0.041171, 0.053900, 0.032236, -0.025130, 0.057994, 0.006438, 
    0.054092, 0.050509, -0.022246, 0.039716, 0.005581, -0.023248, 0.035523, -0.002918, 0.017620, -0.039844, 
    0.000014, 0.000244, 0.001412, 0.002698, 0.004916, 0.004970, -0.002352, -0.005486, -0.001443, -0.002751, 
    -0.008418, -0.009971, -0.006689, -0.005024, -0.010643, 0.010614, 0.009769, 0.004168, -0.001958, -0.003235, 
    0.007614, 0.000440, -0.001683, -0.004342, -0.005992, 0.000411, -0.004836, -0.016567, -0.006471, -0.017870, 
    -0.010355, -0.015987, -0.008672, 0.000262, -0.005256, 0.008730, 0.003124, -0.017932, -0.003229, -0.008117, 
    0.001901, 0.008524, -0.008401, -0.002882, -0.010480, 0.015146, -0.005409, 0.005158, 0.004551, 0.013691, 
    0.005933, 0.007646, 0.003825, 0.009759, -0.005484, 0.002814, 0.012731, -0.003179, -0.004260, 0.012063, 
    0.007659, -0.014521, 0.010616, -0.014262, -0.008455, 0.009395, 0.010205, -0.008169, 0.013176, 0.035963, 
    0.032117, -0.001375, -0.002861, 0.006613, 0.024549, -0.002066, 0.004322, 0.009672, -0.025435, -0.030307, 
    0.020532, -0.004108, 0.013755, -0.031521, 0.007990, 0.035246, 0.005195, -0.012231, -0.046998, 0.012251, 
    -0.036030, -0.020486, -0.029018, -0.006974, -0.028288, -0.028179, -0.033372, -0.046845, 0.006960, 0.030675, 
    0.066051, 0.034128, -0.003429, 0.037784, -0.030656, -0.013621, 0.045598, -0.001054, -0.018573, 0.003128, 
    -0.035369, 0.035968, -0.009568, 0.017968, -0.003621, -0.007043, -0.007044, -0.028682, 0.001458, -0.058991, 
    0.000329, 0.000080, 0.001892, -0.000263, -0.004515, -0.001711, 0.001065, -0.001960, 0.001106, 0.009045, 
    0.010199, 0.007569, -0.003999, -0.006393, -0.005552, -0.004612, -0.003748, 0.001703, -0.011843, -0.003907, 
    -0.007486, 0.003287, 0.010711, 0.003973, -0.000682, -0.001963, -0.009817, -0.005521, 0.014010, 0.000977, 
    0.004474, -0.004336, 0.001209, 0.009151, 0.001778, 0.004750, 0.014307, 0.000578, 0.012974, -0.006194, 
    0.016556, 0.002138, 0.009164, 0.016310, 0.010228, 0.007115, -0.012995, -0.013941, 0.015329, -0.007872, 
    0.013845, 0.014497, 0.013012, -0.004829, -0.007286, -0.020167, -0.015052, -0.001106, -0.006824, 0.010266, 
    0.000982, -0.017035, -0.014349, 0.028681, 0.009031, 0.022108, 0.021132, -0.002385, -0.013415, 0.032110, 
    0.000127, 0.036444, -0.027759, -0.008123, -0.004384, 0.001667, 0.023357, -0.013171, -0.009689, -0.012767, 
    0.011081, 0.006358, 0.011641, 0.000076, 0.022737, -0.009066, -0.012089, 0.005425, 0.017850, -0.007300, 
    0.017671, 0.004546, 0.008210, 0.041435, 0.010200, 0.025928, 0.023367, -0.002514, 0.058617, 0.006594, 
    0.014108, 0.010898, 0.001096, -0.034408, -0.042593, 0.006901, 0.037582, -0.007888, -0.023183, 0.020480, 
    -0.029290, 0.010519, -0.041337, -0.038172, -0.005901, 0.025644, 0.037731, -0.016619, -0.052499, -0.017286, 
    -0.000720, -0.001247, -0.001034, 0.000515, -0.001771, 0.000319, 0.006420, 0.004057, 0.002344, 0.000684, 
    0.000322, 0.002769, 0.001778, 0.003345, -0.000436, 0.003335, -0.005757, -0.002592, -0.007120, -0.002314, 
    0.003507, 0.001193, -0.000916, -0.005137, -0.009697, -0.007796, -0.009772, 0.009902, -0.003596, -0.001651, 
    -0.006443, 0.002023, 0.016839, 0.006976, 0.004682, 0.010715, 0.013904, 0.015003, -0.005362, -0.004143, 
    -0.015914, -0.016546, 0.007276, -0.012575, -0.009598, 0.009664, 0.013965, -0.017465, -0.000232, 0.004109, 
    0.023036, 0.009105, 0.012996, 0.013218, 0.003608, 0.020213, 0.007242, -0.007393, -0.012020, -0.000506, 
    0.012116, 0.002695, 0.022466, -0.017702, -0.009387, 0.004162, 0.009476, -0.013621, -0.007450, 0.007045, 
    -0.003946, 0.003675, 0.004791, -0.005996, -0.023678, -0.021143, 0.021614, -0.005649, -0.000007, -0.007282, 
    0.042467, 0.015664, -0.030562, -0.035001, 0.018502, 0.004113, -0.017215, -0.035573, 0.013223, -0.033756, 
    0.020485, -0.026526, -0.021714, -0.037089, 0.044911, 0.041049, -0.024629, 0.042742, -0.016638, -0.024688, 
    0.031610, 0.032530, 0.046089, 0.022282, 0.059500, -0.038322, 0.016164, -0.008852, -0.012132, 0.009621, 
    -0.039587, 0.019767, -0.022644, 0.016157, -0.021134, 0.007471, 0.028291, 0.011903, -0.026450, 0.072513, 
    -0.001720, -0.000612, -0.000183, -0.001366, 0.001067, 0.000748, 0.003695, 0.005659, 0.004958, 0.009657, 
    0.008396, 0.001794, 0.002278, 0.004689, 0.005922, -0.004135, -0.003733, -0.008920, -0.002936, -0.007974, 
    0.002515, 0.004105, -0.006939, -0.009921, 0.003360, -0.013105, 0.004819, -0.007236, -0.003459, -0.002962, 
    0.013592, 0.001055, 0.011266, 0.007493, 0.017165, 0.012748, 0.008536, 0.011680, -0.002748, -0.006032, 
    0.002013, 0.008890, -0.012229, -0.015981, -0.015092, -0.013981, -0.001604, -0.003748, 0.001352, -0.000047, 
    0.010628, -0.015835, 0.015997, -0.004049, 0.017379, 0.016325, 0.005586, 0.002263, -0.012305, -0.011002, 
    -0.018578, 0.001342, 0.003774, -0.015530, -0.021826, -0.002910, 0.005132, 0.004856, -0.011431, 0.004244, 
    -0.015232, -0.019772, -0.009798, -0.007558, -0.021485, -0.022757, 0.006982, 0.006300, -0.007291, 0.035104, 
    -0.005110, 0.023284, 0.007297, -0.011497, 0.019651, -0.035501, -0.023092, 0.023558, -0.021164, -0.015796, 
    0.007104, -0.016257, 0.017840, 0.040816, 0.016004, 0.009144, 0.021631, 0.004793, 0.020802, 0.003474, 
    0.050929, 0.024999, 0.009161, 0.027849, -0.011892, 0.003098, 0.042458, -0.035106, -0.003257, -0.010019, 
    -0.035220, -0.049578, -0.012857, 0.037924, -0.019163, 0.042170, 0.043498, -0.023896, 0.039267, 0.036889, 
    -0.000938, 0.000204, -0.001020, 0.000261, -0.000608, -0.000693, 0.006429, 0.006351, 0.007186, 0.007874, 
    0.002364, 0.010614, 0.000881, -0.003923, -0.003153, -0.000194, -0.005582, -0.002643, -0.001246, 0.004761, 
    -0.007678, 0.001320, 0.000346, -0.001892, 0.007757, -0.000639, -0.002667, 0.016728, 0.007461, 0.007173, 
    -0.013460, -0.003330, -0.008961, 0.006020, 0.009434, -0.011532, -0.012887, 0.007555, -0.010513, 0.016351, 
    0.017746, -0.000732, -0.009755, 0.007580, 0.007010, 0.011256, -0.001577, 0.004223, -0.005021, 0.012158, 
    0.013671, 0.015993, 0.000089, 0.005019, -0.007168, -0.008563, 0.011143, -0.001995, 0.003079, -0.004201, 
    -0.013984, -0.011375, -0.000678, -0.032685, -0.012916, -0.008310, 0.006297, -0.013925, 0.012112, -0.027835, 
    0.003966, 0.005016, -0.013767, -0.001318, -0.034867, -0.001660, -0.001044, -0.017938, 0.011938, 0.034645, 
    0.012481, 0.031775, -0.028600, 0.009501, 0.015464, 0.023188, -0.016047, -0.016619, 0.003264, 0.038882, 
    -0.009025, 0.024216, -0.027673, -0.048102, -0.004004, -0.015797, -0.023954, 0.053641, -0.009147, -0.022804, 
    0.018488, -0.020259, -0.017399, -0.020603, 0.016017, 0.013615, 0.026955, -0.031237, -0.019667, 0.036778, 
    -0.035804, -0.019723, -0.003931, -0.052527, -0.030409, 0.052213, 0.018067, 0.013156, 0.000795, 0.033500, 
    0.000467, 0.000751, 0.000473, 0.004500, 0.004165, 0.002471, -0.002742, -0.005022, -0.005737, -0.001792, 
    -0.010198, -0.009568, -0.008647, -0.008185, -0.002401, 0.008650, -0.001717, 0.004041, -0.001884, 0.005034, 
    0.007988, -0.003832, -0.006638, 0.002068, -0.015044, -0.010454, -0.016046, -0.001399, -0.006622, -0.014200, 
    0.005340, 0.009427, 0.002517, -0.003640, 0.002535, 0.015945, 0.008823, -0.004116, 0.009045, 0.000797, 
    0.013972, 0.020627, 0.002599, -0.008880, 0.003659, 0.015466, 0.017440, -0.003501, -0.001148, 0.000688, 
    -0.003098, -0.007302, -0.008079, 0.002678, -0.000774, -0.010336, 0.003955, -0.006596, -0.004768, -0.006164, 
    0.002311, 0.008273, 0.004142, 0.014191, -0.005038, -0.004004, -0.018594, -0.006339, 0.010532, 0.029270, 
    -0.008556, 0.007566, 0.022615, -0.007761, 0.019631, 0.000886, -0.020810, 0.003090, -0.021570, 0.002445, 
    -0.033127, 0.035962, -0.002334, 0.024210, 0.000663, -0.008885, 0.029658, -0.013265, -0.027254, -0.056432, 
    -0.013780, -0.010968, 0.018361, -0.007557, 0.021544, 0.042713, -0.024489, 0.026520, 0.023623, 0.033393, 
    -0.023159, -0.007234, 0.016127, 0.018403, 0.013505, -0.017382, -0.039123, -0.053952, -0.043000, -0.017521, 
    -0.011030, 0.023899, -0.040837, 0.023715, 0.046321, -0.042821, -0.024434, -0.022313, -0.009600, 0.030682, 
    0.000365, 0.001011, 0.001262, 0.004776, 0.000876, 0.001377, -0.001575, -0.001584, -0.001571, -0.002032, 
    -0.001743, -0.007634, -0.010852, -0.007583, -0.007411, 0.007300, 0.004737, 0.004146, 0.007375, 0.010229, 
    0.009019, -0.006602, -0.012468, -0.000878, -0.007075, -0.012941, -0.007516, -0.007374, -0.020523, -0.017525, 
    0.007089, 0.011720, 0.000279, -0.005080, -0.001640, 0.000558, -0.004802, -0.015014, 0.003859, 0.008715, 
    -0.003950, 0.012631, -0.007221, 0.004752, -0.008310, 0.007899, -0.007662, -0.005686, 0.002682, 0.014776, 
    -0.007947, 0.003448, -0.009448, -0.008694, -0.010163, -0.013542, -0.016085, -0.008818, -0.003279, 0.005560, 
    0.013228, 0.006048, 0.004067, 0.004057, -0.007184, 0.025429, 0.013940, -0.023963, -0.025373, -0.000910, 
    0.015757, 0.013209, -0.007187, 0.021659, 0.006171, -0.025616, -0.033947, 0.005817, 0.015306, -0.005838, 
    -0.022719, 0.029788, 0.030640, 0.008471, 0.050123, 0.003477, 0.021658, 0.015254, -0.030781, -0.019746, 
    -0.027205, -0.031113, 0.018432, 0.009684, -0.049652, -0.040346, -0.025264, -0.039629, -0.050535, -0.017516, 
    0.051593, 0.045761, 0.003498, -0.015973, -0.045023, -0.006133, 0.025082, 0.007672, 0.030337, -0.004093, 
    -0.010189, 0.009186, 0.018746, -0.041436, -0.011201, -0.066133, -0.033173, -0.068523, -0.012847, -0.086425, 
    0.001733, 0.000080, 0.001798, -0.002080, -0.003620, -0.001990, 0.005576, 0.004174, -0.002298, 0.004870, 
    0.010663, 0.006545, -0.002027, -0.002096, -0.005120, -0.008350, -0.005971, -0.001182, -0.003450, -0.001664, 
    0.001476, 0.000292, 0.011059, 0.010322, 0.001559, -0.006397, 0.004494, 0.020437, 0.013221, 0.014865, 
    -0.007595, -0.011708, -0.004365, -0.004262, 0.007661, -0.001025, -0.002490, -0.002836, -0.002649, -0.005603, 
    -0.004387, 0.002906, 0.016513, 0.017911, 0.012046, -0.016066, 0.008471, 0.008651, -0.000736, 0.001896, 
    0.016881, -0.002910, 0.010045, 0.005528, 0.002870, 0.002035, 0.015085, 0.015046, -0.013683, 0.011392, 
    -0.018946, -0.023989, -0.007387, -0.007045, -0.015931, -0.016776, -0.012306, 0.003408, 0.020563, 0.003699, 
    -0.007059, 0.008750, -0.034695, -0.032066, -0.006820, -0.021045, 0.027389, 0.007170, -0.014332, 0.026640, 
    0.009378, 0.021679, 0.016122, -0.011306, 0.020082, -0.005464, -0.001479, 0.035156, -0.008990, 0.000717, 
    0.038505, -0.035162, 0.027485, 0.015157, -0.057721, -0.017025, 0.024712, 0.059601, 0.013426, 0.033591, 
    -0.053215, 0.017953, 0.023365, -0.021279, -0.025691, -0.038701, 0.015927, -0.004153, -0.035306, 0.035440, 
    -0.014354, -0.012581, 0.036630, 0.020981, 0.021599, 0.016113, -0.042192, -0.027762, 0.010309, -0.052232
    
};

// PyTorch Layer: conv1.bias (Shape: (16,))
static const data_t conv1_b[16] = {
-0.331244, 0.625361, -0.125017, 0.327931, -0.453529, 0.646621, -0.414044, -0.147855, -0.867521, 0.308783, 
    0.021191, -0.018781, -0.340548, -0.303274, -0.550093, 0.703290
};

// PyTorch Layer: conv2.weight (Shape: (32, 16, 3))
static const data_t conv2_w[1536] = {
0.111926, 0.073499, 0.023219, 0.007573, 0.119740, 0.053740, 0.051605, -0.030997, 0.181558, -0.058694, 
    0.076115, -0.035372, 0.030016, -0.085108, -0.037235, -0.087971, -0.231822, -0.127787, 0.180346, 0.195805, 
    0.202202, -0.017811, 0.037849, -0.082296, 0.180148, 0.131026, 0.225897, -0.053146, 0.100306, 0.028781, 
    0.179431, 0.050819, -0.055034, -0.052204, -0.076911, 0.071715, -0.091792, -0.032609, 0.073388, 0.222391, 
    0.056506, 0.192368, 0.086435, 0.069465, 0.081743, -0.119185, -0.017509, -0.061803, -0.050200, 0.111478, 
    -0.044780, -0.112495, 0.032647, -0.022507, 0.006409, -0.029725, 0.038308, -0.138268, 0.048831, -0.044322, 
    0.064764, 0.059656, 0.000926, -0.148827, -0.189589, -0.081472, -0.020558, 0.033283, 0.214382, -0.010654, 
    0.129247, 0.099572, 0.087225, -0.000573, 0.228031, -0.043899, 0.085235, -0.169041, 0.080248, -0.071402, 
    0.033671, -0.093994, -0.100555, 0.039428, 0.120498, -0.003868, -0.030346, 0.235301, 0.115728, 0.024657, 
    0.190798, 0.199706, 0.224174, 0.029681, 0.058232, -0.120162, 0.099358, 0.029206, 0.064344, 0.093895, 
    -0.130202, 0.057561, -0.081398, 0.006498, -0.011333, -0.018274, 0.053948, -0.029601, 0.069258, -0.108872, 
    0.030271, -0.086176, -0.162023, 0.056885, 0.042517, 0.023093, 0.094367, 0.074393, 0.114890, 0.043128, 
    0.077362, 0.197507, 0.184134, 0.143442, 0.033804, -0.021309, -0.040286, -0.034705, -0.050280, -0.090491, 
    -0.075530, 0.002195, 0.012077, 0.068643, -0.183827, 0.218862, 0.083099, -0.027650, 0.188062, 0.015218, 
    0.032479, 0.009308, -0.009112, 0.059177, -0.117385, 0.049665, 0.046438, 0.145568, 0.011769, 0.085077, 
    0.073686, 0.167031, -0.053362, -0.121905, -0.121045, 0.024663, -0.019807, 0.060107, 0.021111, 0.119701, 
    -0.010735, 0.180215, -0.156164, -0.081845, 0.033193, -0.162523, 0.015395, -0.069492, -0.137209, 0.039169, 
    -0.109051, 0.043495, -0.043829, 0.077952, 0.180955, 0.185719, -0.027490, -0.063346, -0.022599, 0.122774, 
    0.117677, 0.130824, 0.119677, 0.089243, -0.152710, -0.156488, -0.090624, 0.076795, -0.142569, 0.166131, 
    0.080736, 0.147008, 0.081630, 0.089672, 0.084556, 0.002609, -0.026429, 0.091233, 0.178022, 0.062311, 
    0.028962, -0.062720, -0.089150, 0.027068, -0.063431, 0.202743, 0.077318, -0.014574, 0.008427, -0.028020, 
    -0.124422, 0.022402, -0.018605, -0.111527, -0.064671, -0.060343, 0.007883, -0.151938, -0.033541, 0.014802, 
    -0.100886, 0.139426, -0.001749, 0.173559, 0.173235, 0.085073, 0.180017, -0.031716, 0.059104, -0.049661, 
    -0.020727, -0.006604, 0.061252, -0.122660, -0.120535, -0.123943, -0.046374, -0.051086, -0.047997, 0.026518, 
    0.170814, 0.057323, -0.016389, 0.112220, 0.117793, 0.112322, -0.063443, -0.084279, 0.019572, 0.140544, 
    0.170016, 0.168066, -0.071396, 0.080789, -0.013828, 0.239966, 0.239608, 0.219988, 0.038877, 0.059740, 
    -0.109764, -0.014077, 0.007669, -0.024099, 0.057644, -0.031343, -0.071835, -0.004614, -0.068691, 0.072936, 
    0.075194, 0.044226, 0.061894, 0.049060, 0.011264, -0.054508, -0.107527, 0.092752, -0.110691, -0.115405, 
    0.027258, 0.055645, -0.103603, 0.056804, -0.147561, 0.087574, 0.117034, 0.080853, -0.104929, -0.119179, 
    0.094216, 0.010556, -0.078117, 0.127301, -0.045178, -0.037852, 0.027606, 0.100933, -0.081052, -0.015713, 
    -0.059737, -0.059265, -0.012943, 0.005272, 0.088461, -0.105301, 0.049728, 0.082735, -0.043298, -0.029225, 
    0.017017, -0.151795, 0.060169, -0.066226, -0.035506, 0.030751, 0.025468, -0.089604, -0.130003, -0.158673, 
    -0.138286, -0.044303, -0.121166, -0.025121, -0.085173, 0.073624, 0.099553, 0.076220, -0.132708, -0.134952, 
    0.019735, -0.061532, 0.084053, -0.140263, 0.138645, -0.091171, -0.096415, -0.002417, -0.049042, -0.004571, 
    0.164715, 0.196470, 0.076481, 0.018651, -0.021793, -0.034797, 0.195588, -0.038098, -0.030899, 0.221925, 
    0.085291, 0.210135, 0.054812, 0.225342, -0.127129, 0.043624, 0.077153, 0.019928, 0.119031, 0.027380, 
    -0.177391, -0.005903, -0.176743, 0.073301, -0.058268, 0.003367, 0.020388, -0.012508, -0.090725, 0.023628, 
    -0.042516, -0.022690, -0.025967, 0.034305, 0.086144, 0.083802, -0.140406, -0.136516, -0.116577, 0.110183, 
    -0.030869, 0.052102, 0.182407, 0.022982, 0.054642, 0.216482, 0.164824, -0.096384, -0.029967, 0.019096, 
    0.077374, -0.036904, 0.125053, 0.063517, -0.071082, 0.092108, -0.175975, -0.025100, -0.177475, -0.085308, 
    -0.073679, -0.165951, 0.043153, 0.087787, 0.006716, 0.098814, 0.149268, 0.098329, -0.009255, 0.125319, 
    0.059058, 0.091510, -0.059609, -0.041872, 0.004447, 0.095618, -0.026757, -0.032159, -0.031123, -0.123451, 
    -0.030593, -0.020467, 0.003688, 0.173745, 0.151117, 0.189975, 0.074814, 0.041132, 0.221769, 0.096465, 
    0.061008, 0.085810, 0.151608, 0.206410, 0.205273, -0.086049, -0.117088, -0.065027, 0.055393, 0.072874, 
    -0.034297, -0.021393, 0.005976, 0.146151, 0.063510, -0.041920, -0.157048, 0.147394, 0.135688, -0.044936, 
    -0.078562, 0.083378, -0.087983, 0.198640, 0.050129, 0.077997, 0.014320, -0.051347, 0.122292, 0.023888, 
    -0.005827, 0.184746, -0.022962, -0.078220, -0.164288, -0.150681, -0.111121, -0.003725, -0.145520, 0.058732, 
    0.100014, 0.113090, -0.065079, 0.096688, -0.012106, 0.093585, 0.046501, 0.087641, -0.003403, 0.029797, 
    0.184853, 0.021753, 0.153193, 0.151689, 0.123334, 0.041149, -0.024068, 0.070310, -0.084065, 0.068683, 
    0.228294, 0.128628, -0.071658, -0.176931, -0.146868, 0.027984, -0.090750, -0.018491, 0.018240, 0.134373, 
    0.113285, -0.017934, 0.159620, 0.104676, 0.088858, 0.258570, 0.061110, -0.038228, 0.100736, 0.020111, 
    -0.053366, -0.092283, -0.008916, 0.063370, -0.160714, -0.116132, -0.062829, -0.129154, 0.009380, 0.106376, 
    0.242475, -0.004922, 0.106311, 0.163745, 0.121110, -0.014959, 0.156686, -0.069450, 0.201555, 0.106882, 
    0.140864, 0.124996, 0.036074, 0.034931, -0.074888, -0.176055, 0.013002, 0.188607, 0.138705, 0.057536, 
    -0.182930, -0.050775, -0.017032, -0.036407, 0.187421, 0.065264, 0.006379, 0.097367, 0.036190, -0.008391, 
    0.119034, 0.154632, 0.103173, -0.033185, 0.053378, -0.044137, 0.041035, -0.038044, 0.047366, 0.109261, 
    -0.156508, -0.120573, -0.107972, -0.146246, 0.110612, -0.122492, -0.094280, -0.104809, 0.013823, -0.083901, 
    -0.106240, 0.129415, 0.053654, 0.096291, 0.133909, 0.055517, -0.000928, -0.115823, 0.030326, -0.066576, 
    0.042875, -0.030775, 0.046636, 0.038832, 0.054764, -0.111976, -0.095600, -0.063222, -0.026283, 0.210187, 
    0.143679, -0.137836, -0.140793, -0.090376, 0.138282, 0.213346, 0.069847, 0.071924, -0.074569, -0.020100, 
    0.038556, -0.057754, 0.085428, 0.007758, 0.055559, -0.129758, 0.064157, 0.104965, 0.114643, 0.141616, 
    0.004248, 0.219870, -0.035085, 0.034870, 0.152580, 0.012639, -0.016682, -0.068084, 0.183292, 0.089402, 
    0.170017, 0.042151, -0.077366, -0.029160, 0.073434, -0.094695, -0.090526, 0.086247, -0.050229, 0.032620, 
    0.028214, 0.139907, 0.111387, -0.153705, -0.142660, 0.014893, 0.021443, 0.143141, 0.073935, -0.109519, 
    -0.084251, -0.125089, 0.150069, 0.189607, 0.074529, -0.121641, 0.073836, 0.088956, 0.152358, 0.053022, 
    0.092627, -0.019801, -0.072105, -0.156135, 0.061367, 0.135555, 0.156541, 0.116013, 0.141760, 0.168292, 
    0.026115, 0.143029, 0.050581, 0.010687, 0.007522, -0.015974, -0.034159, 0.106611, 0.206361, 0.003246, 
    0.003628, -0.069807, -0.101280, -0.086726, 0.001876, 0.051307, -0.026952, 0.051888, 0.058864, 0.074816, 
    0.187862, -0.105493, 0.086653, -0.122034, 0.229710, 0.151072, 0.159158, 0.003036, 0.000308, -0.062069, 
    -0.090118, 0.141993, 0.183759, 0.004533, -0.083771, 0.003215, -0.000510, -0.109576, -0.098098, 0.012743, 
    -0.076279, -0.067554, -0.003163, 0.142628, 0.010769, 0.047150, 0.167818, 0.231833, 0.191855, 0.120165, 
    0.071818, 0.079775, 0.096811, 0.039412, 0.074581, 0.067128, 0.048988, 0.122912, 0.068116, -0.092432, 
    -0.022016, -0.063975, 0.026357, 0.026843, -0.029858, -0.096016, 0.005671, 0.157037, 0.083256, -0.017251, 
    0.034777, -0.008789, -0.061585, -0.050860, -0.042439, -0.233668, -0.223981, -0.152221, 0.160482, 0.244470, 
    0.103844, 0.137462, 0.089764, -0.058796, 0.060717, 0.094025, 0.016727, -0.002979, 0.013363, -0.132875, 
    0.035651, -0.063169, 0.194786, 0.128931, -0.001556, 0.169122, -0.065285, 0.139263, -0.034201, 0.150401, 
    0.206382, 0.174989, 0.141096, 0.092164, 0.111334, 0.058231, -0.094950, -0.097442, 0.036434, -0.046127, 
    -0.034607, 0.056253, 0.152278, 0.095429, -0.112660, 0.058426, -0.073485, 0.089429, 0.063540, 0.157799, 
    0.017200, -0.008247, 0.024755, 0.127316, 0.060146, 0.225866, -0.126738, -0.032763, -0.160287, 0.011311, 
    0.001653, -0.027123, 0.009052, -0.179245, -0.047463, 0.073254, 0.011324, 0.193445, 0.084867, 0.040397, 
    0.007136, 0.100272, -0.036850, -0.082394, 0.182895, -0.006140, 0.080095, -0.028372, 0.083557, 0.102439, 
    -0.102055, -0.013851, -0.120784, 0.185489, 0.228216, 0.040712, 0.064414, 0.012175, 0.013993, 0.152393, 
    -0.087608, 0.027355, -0.046664, -0.164098, 0.011333, 0.161716, -0.042439, 0.125736, -0.010893, 0.125158, 
    -0.130218, 0.227147, 0.052672, 0.228148, -0.124554, -0.025709, -0.017208, 0.129969, 0.110963, 0.125128, 
    -0.060032, -0.129702, -0.025303, 0.201709, 0.196069, -0.008882, 0.066149, 0.038554, -0.049416, 0.053992, 
    -0.023946, -0.001683, -0.070774, 0.000868, 0.155113, 0.068038, -0.115161, -0.015334, 0.047541, -0.088463, 
    -0.048701, 0.143830, 0.190994, 0.199828, -0.106327, -0.138885, 0.089333, -0.025080, 0.112951, 0.085067, 
    0.045573, 0.140427, 0.148487, -0.099342, 0.081503, -0.035501, 0.002097, -0.082763, 0.161124, -0.258760, 
    -0.006904, -0.166322, 0.088507, 0.130854, 0.251915, -0.084601, -0.092814, 0.085873, 0.035171, 0.050179, 
    0.184177, -0.127786, 0.015393, -0.122774, 0.190158, 0.218804, 0.098373, 0.025529, 0.149536, 0.110332, 
    0.024429, 0.150118, 0.014466, 0.138690, 0.044657, 0.061938, 0.095019, 0.108344, 0.162157, 0.031246, 
    0.011792, -0.136612, 0.180570, 0.147431, 0.106534, 0.011940, -0.083476, -0.087781, -0.056304, -0.162731, 
    -0.007859, -0.067973, -0.069000, -0.003064, 0.012791, 0.043218, -0.187606, -0.052558, 0.067020, 0.007203, 
    -0.162203, -0.003396, -0.159784, 0.072960, 0.118009, 0.191339, -0.092643, 0.130960, 0.045539, 0.174359, 
    0.189028, 0.011767, -0.078350, -0.085105, 0.059937, -0.127110, 0.031845, -0.006032, 0.092500, 0.059511, 
    0.073870, -0.092057, -0.052998, -0.079524, 0.067360, 0.028747, 0.053509, 0.056861, 0.009041, 0.060733, 
    -0.121633, 0.053577, -0.169768, -0.076637, 0.101468, 0.183721, -0.040820, 0.144915, -0.038185, -0.122047, 
    -0.031814, 0.065282, 0.006014, 0.210688, 0.016989, 0.038789, 0.043378, -0.004411, 0.093677, -0.109162, 
    -0.094651, -0.079180, 0.088216, 0.031588, -0.033773, -0.115768, -0.018650, 0.048471, 0.136520, 0.055397, 
    0.140805, 0.131499, 0.062473, -0.068790, 0.093553, -0.040886, 0.095028, 0.048695, 0.182159, -0.172687, 
    -0.179905, -0.007673, 0.053297, -0.057510, 0.003940, 0.195391, 0.092814, 0.037853, 0.114190, 0.156871, 
    0.008469, 0.132011, 0.040224, 0.001604, -0.052456, -0.180919, 0.014544, -0.022467, -0.070473, 0.034442, 
    -0.034117, -0.069267, -0.013750, 0.102743, 0.161088, 0.136608, -0.072802, -0.019467, -0.137186, 0.152309, 
    0.095232, 0.122142, -0.175342, 0.038911, -0.025122, -0.059907, 0.215614, 0.074131, 0.004456, 0.095466, 
    0.063959, 0.121153, -0.122858, 0.138511, 0.071176, 0.044058, -0.077619, -0.109388, 0.098314, 0.073707, 
    0.059917, -0.060521, -0.121301, 0.118624, 0.015194, -0.009395, 0.141954, 0.204855, -0.007779, -0.107221, 
    0.030075, -0.041757, -0.064341, -0.023029, -0.001294, 0.036386, 0.172139, 0.148477, -0.017926, -0.104999, 
    -0.077623, 0.070043, -0.010759, -0.149050, 0.073992, 0.135852, 0.027569, 0.062380, 0.066035, 0.175794, 
    0.244480, 0.018822, 0.222154, 0.111970, 0.103374, -0.026179, -0.090918, 0.126188, 0.023720, -0.075718, 
    -0.070525, 0.049110, -0.058540, 0.067460, -0.072831, 0.138762, 0.145461, 0.037933, 0.090881, 0.121249, 
    -0.039790, -0.034441, 0.000851, 0.097336, 0.012210, -0.124234, -0.042709, 0.192545, 0.032283, 0.161718, 
    0.024984, 0.100281, -0.047784, 0.152064, 0.052305, -0.005995, 0.180360, 0.138737, -0.021240, 0.092417, 
    0.204657, 0.139720, -0.067718, -0.112672, -0.121604, 0.069106, 0.066435, -0.121475, -0.107998, -0.038256, 
    -0.199955, 0.168499, 0.034009, -0.005432, 0.045087, 0.076705, 0.063291, 0.193398, 0.134422, 0.046337, 
    0.083110, 0.092147, 0.007544, -0.162689, -0.056296, -0.094887, -0.155239, 0.037728, -0.067271, 0.217555, 
    0.130657, 0.142686, 0.122782, 0.136118, 0.176609, 0.128762, 0.019227, -0.007233, -0.021771, -0.117576, 
    -0.058364, 0.140406, 0.164105, -0.032341, -0.018741, -0.117679, -0.156939, -0.007833, 0.043280, 0.115540, 
    -0.129621, 0.035613, 0.120622, 0.012240, 0.119938, 0.033604, 0.091876, 0.119651, -0.017116, 0.109968, 
    0.213868, 0.089420, -0.146106, -0.043571, -0.011795, -0.022407, -0.069552, -0.089715, -0.083734, 0.084798, 
    -0.077721, 0.008649, 0.148442, -0.011234, 0.010293, -0.028550, -0.091792, 0.101189, -0.017225, -0.013579, 
    -0.066709, 0.004419, 0.083580, 0.166313, 0.041947, -0.082011, 0.041500, 0.032972, 0.150359, -0.043405, 
    -0.147315, 0.032682, 0.041403, 0.120323, 0.116591, 0.117167, 0.142573, -0.032865, -0.121096, 0.119826, 
    0.112921, -0.083983, 0.110220, -0.000273, -0.097538, -0.136729, -0.142138, 0.119692, -0.077220, -0.046386, 
    0.182370, -0.031684, 0.179520, 0.126838, 0.131259, 0.095657, 0.028979, 0.115798, 0.097445, -0.116483, 
    -0.156017, -0.159950, -0.044561, 0.012469, -0.121329, 0.080723, 0.135277, 0.135254, -0.021326, 0.064090, 
    -0.073572, 0.183105, -0.024528, 0.098032, -0.041903, -0.121624, -0.120742, -0.015300, -0.012366, 0.197650, 
    0.060442, -0.022125, 0.059316, 0.084755, 0.124840, 0.263195, -0.178053, -0.171817, -0.030205, 0.142112, 
    -0.078077, 0.100459, 0.075583, -0.076186, -0.124440, 0.178862, 0.186345, 0.091216, -0.080327, 0.025272, 
    -0.058515, -0.060883, 0.128266, 0.128892, 0.128747, -0.045582, 0.178648, 0.066330, 0.097893, -0.024761, 
    -0.077434, -0.155192, 0.065547, 0.125193, -0.006594, 0.268162, 0.068858, 0.169480, 0.067910, -0.005257, 
    0.133504, 0.120833, -0.112831, -0.045831, 0.039261, 0.101457, 0.060229, 0.213632, 0.058531, -0.109783, 
    0.029964, 0.014007, 0.018952, 0.119652, -0.014475, -0.006071, -0.023973, -0.023685, 0.199775, -0.017463, 
    -0.045225, 0.083463, 0.051274, 0.077649, 0.074270, 0.199002, -0.171339, -0.121996, -0.020047, -0.180783, 
    -0.169628, 0.040347, 0.029984, -0.079146, -0.005322, 0.088680, 0.049983, 0.182602, 0.020972, 0.126608, 
    -0.079612, -0.039103, 0.026985, 0.073217, -0.024866, 0.129004, -0.068994, 0.023565, 0.180912, -0.018692, 
    -0.123048, -0.035710, -0.112354, 0.116610, 0.052269, 0.042037, 0.152635, 0.075023, -0.048061, 0.007814, 
    0.229008, 0.199579, 0.031392, -0.146403, -0.058182, 0.159743, 0.154552, 0.145974, 0.067924, -0.096542, 
    -0.145424, 0.177284, 0.186060, 0.059342, 0.016731, 0.025768, -0.073246, 0.003266, 0.014278, 0.108110, 
    0.030099, 0.124482, 0.192372, -0.062788, -0.054578, -0.092893, -0.054687, -0.160393, 0.065862, 0.234169, 
    0.149186, 0.247669, 0.184316, 0.201897, 0.248255, -0.074436, -0.005553, 0.056502, -0.014962, -0.058936, 
    -0.016154, 0.015753, 0.028643, -0.017765, -0.102301, 0.017680, -0.121140, 0.032905, -0.126478, -0.105115, 
    0.095531, 0.215143, -0.040034, 0.165153, 0.127587, -0.000480, 0.046231, 0.217175, 0.077702, 0.164112, 
    -0.026617, 0.166690, -0.069642, 0.064529, 0.036011, -0.145657, -0.098930, -0.068145, -0.006991, 0.055241, 
    -0.076340, 0.151268, 0.056742, 0.068510, 0.197288, 0.074326, -0.007456, 0.003462, -0.028853, 0.021779, 
    -0.111902, -0.031175, -0.106234, -0.049664, 0.062614, 0.071814, 0.111264, 0.217973, 0.100934, -0.019526, 
    -0.048751, -0.166704, 0.154479, 0.208086, 0.113976, -0.075823, 0.154790, 0.059649, 0.148672, 0.103175, 
    0.070973, -0.051376, 0.020917, 0.037931, -0.004854, -0.077635, -0.049512, -0.130185, -0.069231, -0.045407, 
    0.199309, 0.003298, -0.053338, 0.173254, 0.215840, -0.014879, 0.071169, 0.113009, 0.160071, -0.033991, 
    0.046638, 0.094202, 0.113566, 0.098248, 0.121471, -0.080900, 0.066117, 0.139604, -0.051222, -0.052157, 
    -0.045950, 0.127551, 0.212009, 0.066987, -0.055767, -0.004247, -0.134758, 0.112247, 0.004861, -0.000252, 
    -0.033731, 0.013511, 0.140488, 0.173526, 0.245724, 0.014302, -0.171093, 0.017632, 0.032621, 0.179613, 
    -0.060427, 0.132128, -0.183743, -0.090602, -0.064483, 0.183643, 0.071406, -0.003469, -0.102020, -0.035143, 
    0.119307, 0.102184, 0.097310, -0.085160, -0.048906, 0.185332, 0.149396, -0.087106, -0.014322, 0.057488, 
    0.085551, -0.132388, -0.106410, 0.187946, 0.236075, 0.150900
};

// PyTorch Layer: conv2.bias (Shape: (32,))
static const data_t conv2_b[32] = {
0.039023, 0.046647, 0.140598, -0.070740, 0.089402, -0.112109, -0.002030, -0.068112, 0.129331, -0.062333, 
    0.070806, -0.070896, 0.084767, -0.025675, -0.027452, 0.005808, 0.112506, 0.030068, 0.010805, 0.113119, 
    0.052365, -0.036152, 0.017438, -0.019359, -0.030197, -0.015942, 0.081736, -0.118889, -0.056928, 0.138369, 
    0.009730, 0.033155
};

// PyTorch Layer: fc.weight (Shape: (3, 32))
static const data_t fc_w[96] = {
0.156431, 0.005076, 0.182134, -0.125746, 0.061340, -0.172767, 0.090510, -0.252278, 0.177103, -0.052639, 
    0.009563, -0.057705, 0.184243, 0.269343, 0.098556, 0.232986, -0.246985, -0.142267, -0.014410, -0.156983, 
    -0.006822, -0.113126, 0.092002, -0.154800, -0.178479, -0.110442, -0.309825, 0.006758, -0.268532, 0.189140, 
    0.137069, -0.218743, -0.057845, -0.170585, 0.129929, -0.106711, -0.103738, 0.020019, 0.086254, -0.057770, 
    0.113052, 0.171216, 0.040809, 0.194426, -0.274317, -0.195598, -0.114997, -0.087958, 0.071178, 0.162104, 
    -0.216178, 0.131608, 0.015258, 0.220343, 0.141009, -0.062138, 0.072782, -0.183863, 0.099066, 0.211808, 
    0.123623, 0.196225, -0.034544, 0.012031, -0.156435, -0.244176, -0.106972, 0.227591, 0.152865, -0.025224, 
    0.121055, 0.234242, -0.260707, -0.270495, -0.241968, -0.117910, 0.036695, 0.055556, 0.155569, -0.203867, 
    0.185495, 0.089842, -0.139629, -0.149425, 0.112026, 0.128970, -0.234692, 0.095449, -0.286011, 0.183310, 
    0.102201, -0.114370, 0.141139, -0.055700, 0.160420, 0.112236
};

// PyTorch Layer: fc.bias (Shape: (3,))
static const data_t fc_b[3] = {
0.024300, 0.056735, 0.061946
};

#endif // VOICE_CNN_WEIGHTS_H
