// Placeholder copied from hls/voice. Re-run the voice notebook export cell with MODEL_VARIANT='experimental' to refresh this file for hls/voice_new.
#ifndef VOICE_CNN_WEIGHTS_H
#define VOICE_CNN_WEIGHTS_H

#include "voice_typedefs.h"

// PyTorch Layer: conv1.weight (Shape: (16, 40, 3))
static const data_t conv1_w[1920] = {
0.139029, 0.225864, 0.118777, -0.075488, -0.093747, 0.022517, 0.105896, 0.123954, 0.073419, 0.042593, 
    0.209540, 0.132740, 0.158664, 0.035817, 0.079508, 0.001400, -0.023524, -0.137606, -0.004989, 0.008633, 
    -0.061143, -0.079435, -0.140228, -0.079414, -0.141369, -0.095328, -0.126776, -0.060898, 0.000718, -0.097418, 
    0.050894, -0.101102, 0.008723, 0.028190, -0.020358, 0.112000, -0.050574, -0.018827, -0.053664, 0.050196, 
    0.045068, 0.005006, 0.023367, 0.032929, 0.045524, -0.001784, 0.079374, 0.052779, 0.020957, -0.078964, 
    -0.080295, -0.002847, -0.094312, 0.043929, 0.051064, 0.029566, 0.019711, -0.066437, -0.005594, -0.112644, 
    0.051082, -0.033523, 0.025611, -0.004739, 0.055010, 0.018754, 0.097101, -0.071236, -0.072121, -0.049879, 
    0.054230, 0.028073, 0.156031, 0.017187, 0.010759, -0.052252, -0.047232, 0.039281, 0.001340, 0.039927, 
    -0.047209, -0.084347, 0.038166, -0.045681, 0.067468, -0.005079, 0.069240, -0.066073, 0.002407, -0.006263, 
    0.027884, 0.026160, 0.040888, 0.047324, -0.038663, -0.005007, 0.128890, 0.005158, 0.059510, -0.082356, 
    -0.003960, -0.021886, -0.013040, -0.031879, -0.004052, 0.034699, 0.025045, 0.009269, -0.029922, -0.001760, 
    0.045113, 0.057480, 0.066994, -0.051283, -0.025180, -0.042194, 0.010136, -0.026402, 0.032109, -0.036710, 
    -0.061946, -0.075667, -0.053079, -0.050119, -0.130178, -0.136093, -0.087090, -0.056654, 0.179389, 0.151242, 
    0.302652, 0.235084, -0.069423, 0.124989, -0.036581, -0.057487, -0.048426, -0.011394, -0.057916, -0.150201, 
    -0.063092, 0.003479, 0.256361, 0.062394, -0.001140, -0.028069, -0.020818, 0.150504, 0.101387, -0.124211, 
    0.082371, -0.038655, 0.031259, -0.150820, 0.099193, -0.064569, 0.092290, 0.005813, 0.061723, -0.020512, 
    0.128730, 0.046598, -0.040941, -0.151976, -0.018202, -0.040509, -0.058884, 0.100230, 0.043744, -0.041890, 
    0.000078, -0.034859, -0.011939, -0.069749, 0.017874, 0.012760, 0.052760, 0.075592, 0.150430, -0.051408, 
    0.070901, 0.024026, 0.013722, -0.143395, 0.003339, 0.005809, 0.069602, -0.013620, 0.040987, 0.031340, 
    -0.040515, -0.014881, -0.070583, -0.043673, -0.053762, -0.016241, 0.139678, 0.106081, -0.040971, -0.061017, 
    -0.096291, -0.109395, 0.038579, -0.063461, 0.029235, -0.010085, -0.086846, -0.125825, -0.011308, 0.080856, 
    0.064655, 0.035558, 0.035598, -0.050585, 0.005815, -0.016015, 0.083670, 0.022931, 0.060171, -0.018353, 
    -0.011914, 0.069875, -0.145834, -0.127598, -0.194717, 0.095512, 0.078838, 0.044323, 0.009482, 0.002247, 
    0.033042, -0.047016, -0.106758, -0.082218, -0.056489, -0.020586, -0.042990, 0.101216, 0.104827, 0.023605, 
    0.174250, 0.029687, 0.099241, -0.064187, 0.030175, -0.000611, 0.039590, 0.171122, 0.081408, 0.031997, 
    -0.056333, -0.112845, -0.017031, -0.078288, -0.094613, -0.207860, -0.025900, -0.207778, 0.198347, 0.173397, 
    0.238338, -0.029883, 0.164620, 0.015871, -0.018801, 0.066432, -0.010520, 0.006019, -0.030240, -0.071241, 
    0.011149, -0.115823, 0.053629, 0.100157, 0.129837, -0.003533, -0.103206, 0.006495, 0.041054, -0.108266, 
    0.000203, -0.049949, -0.065705, -0.156716, -0.136039, -0.062823, -0.161821, 0.037812, 0.094221, -0.057401, 
    -0.019647, -0.073877, -0.077678, -0.095294, 0.098185, -0.012441, 0.012081, 0.027837, -0.010230, 0.042076, 
    0.109297, 0.047828, 0.023033, -0.057615, -0.108178, 0.051059, -0.089875, -0.022785, -0.121511, -0.069408, 
    0.024416, -0.019513, -0.054503, 0.086722, 0.044039, 0.019042, 0.063407, 0.068732, 0.038440, 0.038163, 
    -0.132948, -0.106193, -0.001434, -0.016473, -0.054222, -0.127901, -0.050957, -0.117768, -0.037653, 0.027217, 
    0.166523, 0.166266, 0.062874, -0.036771, 0.054437, -0.091812, -0.079388, -0.062489, -0.109233, -0.090450, 
    -0.071121, 0.011906, -0.004115, -0.071147, 0.040076, 0.042226, 0.070489, -0.009185, -0.070271, 0.019838, 
    0.021783, 0.092926, 0.059350, -0.092135, -0.049957, 0.019891, -0.016893, 0.076149, -0.059020, 0.097504, 
    -0.123746, -0.149535, -0.244617, 0.045306, 0.116562, 0.100843, 0.101038, -0.004907, -0.024559, -0.030055, 
    0.085850, 0.040872, -0.222738, -0.116770, -0.189048, -0.119292, -0.007862, 0.022725, 0.146534, -0.063224, 
    0.137891, -0.108449, 0.029061, 0.113466, -0.151662, -0.050054, -0.186270, -0.007918, 0.096124, -0.019848, 
    0.036889, 0.010830, 0.119294, 0.101652, 0.034233, -0.070806, -0.031740, 0.063541, 0.084678, -0.130714, 
    -0.122171, 0.047979, -0.096897, -0.098437, -0.167366, -0.054785, -0.070848, -0.005743, -0.049347, 0.019800, 
    -0.076296, 0.014583, 0.097009, 0.070780, 0.069521, -0.059050, 0.028166, 0.114526, -0.048974, -0.027111, 
    0.057471, -0.013894, -0.071883, 0.028676, 0.041215, -0.039582, 0.038981, -0.041041, 0.063088, 0.067571, 
    0.112714, 0.058626, -0.008645, 0.073340, -0.046510, -0.014239, -0.079128, -0.096140, -0.000383, 0.009286, 
    -0.069660, 0.020262, -0.041488, 0.022397, 0.231833, 0.034284, 0.009179, -0.032224, -0.111886, -0.223900, 
    -0.029516, -0.014712, -0.087946, -0.091610, -0.072975, -0.029790, -0.014489, 0.061219, 0.021477, 0.038292, 
    0.043288, 0.017668, -0.008839, -0.079618, -0.029146, 0.011293, 0.035113, -0.049412, 0.020424, 0.118757, 
    0.116995, 0.003457, -0.001750, -0.082850, 0.001130, 0.156792, -0.102453, 0.013501, -0.015241, -0.018391, 
    0.045703, -0.049681, -0.074320, -0.021244, -0.022668, 0.017440, 0.010926, -0.113691, 0.006996, 0.296379, 
    0.195886, 0.236331, 0.091274, 0.077433, 0.070000, -0.048202, -0.045957, -0.008032, -0.037128, -0.055008, 
    -0.044935, -0.087889, -0.052085, 0.017415, 0.090431, 0.009988, -0.112318, -0.066586, -0.024885, -0.008065, 
    0.037382, -0.097554, 0.100185, -0.114698, -0.052242, -0.114949, 0.079283, -0.169938, 0.033519, 0.120097, 
    0.068961, 0.133779, 0.032820, 0.098110, 0.106866, -0.058022, -0.000645, 0.038217, 0.042873, -0.019764, 
    -0.003958, -0.084573, -0.069537, 0.034823, 0.161382, 0.050609, -0.060852, -0.090005, -0.096001, 0.030310, 
    0.003674, 0.104437, 0.015595, -0.038764, 0.040457, -0.092809, 0.027552, 0.010256, -0.004974, 0.044056, 
    0.023647, 0.098191, -0.077079, -0.017361, -0.063264, -0.057524, -0.011003, 0.020443, 0.027826, 0.073203, 
    0.071028, 0.125365, 0.036074, -0.006669, 0.046660, -0.012451, -0.042593, 0.002032, 0.002916, -0.049890, 
    0.091760, 0.037413, 0.072645, 0.015178, 0.034473, -0.029310, -0.085690, -0.021010, -0.073295, -0.118893, 
    -0.022316, -0.051010, -0.030325, 0.077592, -0.037697, -0.061966, -0.060895, -0.088871, -0.011726, 0.023565, 
    -0.008080, 0.060820, -0.126856, -0.057550, -0.072731, -0.092835, -0.024403, -0.084375, 0.082807, 0.036519, 
    -0.040818, 0.065287, -0.163897, -0.235345, -0.168417, -0.187329, -0.052149, 0.000387, 0.090415, 0.096029, 
    0.060292, -0.041858, -0.004647, 0.157631, 0.131546, -0.010485, -0.025601, -0.144627, -0.020024, 0.121682, 
    0.046821, -0.072037, -0.162682, -0.151351, -0.022194, -0.111493, -0.063145, 0.070990, -0.064751, 0.053668, 
    0.049574, 0.003595, 0.060370, 0.030618, -0.048500, 0.027287, 0.014836, 0.001979, -0.030119, -0.073886, 
    -0.058034, -0.223761, 0.082048, 0.065971, -0.097385, -0.005162, -0.034528, 0.004036, -0.130808, -0.168080, 
    -0.025118, 0.007922, 0.154565, 0.059636, -0.040367, 0.044879, -0.064824, -0.008326, 0.020648, 0.094610, 
    -0.156694, 0.014649, -0.096098, 0.041588, 0.046873, 0.035670, 0.055347, -0.007607, 0.018092, -0.060848, 
    0.030848, 0.119754, 0.128767, 0.138657, -0.014732, 0.020496, -0.072397, -0.089745, 0.052786, 0.049582, 
    0.058414, -0.047512, -0.144419, -0.076445, -0.014360, 0.044792, -0.166870, 0.043116, -0.125510, -0.059644, 
    0.030834, 0.084654, 0.091123, 0.017012, -0.036586, 0.060894, 0.097874, 0.061863, -0.091484, 0.059552, 
    0.080989, 0.036416, -0.122061, -0.111979, -0.071301, -0.083591, -0.003147, -0.046168, -0.156358, -0.056992, 
    -0.080482, 0.039054, 0.009165, -0.167247, -0.011852, 0.026616, -0.031471, -0.069514, 0.015720, -0.013887, 
    0.094512, 0.128708, 0.130531, 0.088079, 0.031843, 0.207929, -0.021346, -0.204720, -0.245811, -0.134282, 
    0.025869, -0.161939, 0.011952, 0.205292, 0.223219, 0.143395, -0.061856, -0.083915, 0.080284, 0.153996, 
    0.129111, -0.060493, -0.066549, -0.013977, -0.001524, 0.066569, 0.165014, 0.108975, 0.085352, 0.196115, 
    0.068013, 0.110932, 0.011081, -0.088511, 0.033066, -0.092830, -0.012139, 0.091934, -0.057903, -0.008381, 
    -0.119510, -0.039972, 0.102008, 0.055605, 0.005372, 0.027617, -0.071384, -0.107389, -0.140044, -0.036633, 
    -0.033073, 0.062743, -0.032912, 0.033177, 0.002251, 0.031192, -0.031845, 0.002333, -0.039155, -0.033903, 
    0.010532, -0.056904, 0.049413, 0.020185, -0.055316, -0.065081, 0.123465, 0.145723, 0.016966, 0.039360, 
    -0.038190, 0.008553, 0.043717, -0.107196, 0.074274, -0.042136, 0.020659, 0.062963, -0.089311, 0.119061, 
    -0.000311, 0.031766, -0.076507, 0.065892, -0.090165, -0.043636, -0.033571, 0.127927, 0.140480, 0.007254, 
    -0.124234, -0.042600, 0.014358, -0.011378, -0.073774, -0.073548, -0.035866, -0.069344, -0.064415, 0.034674, 
    0.007151, 0.000856, -0.094932, -0.028070, -0.000835, -0.053257, 0.022334, -0.107054, 0.028733, -0.062961, 
    0.044724, -0.013806, -0.107350, -0.094565, -0.060705, 0.010295, -0.087128, -0.080524, 0.003846, -0.055671, 
    0.053712, -0.098307, -0.059304, -0.118002, -0.108514, -0.122897, 0.068234, 0.046061, 0.150378, 0.209065, 
    0.094199, -0.004978, 0.003515, 0.214852, 0.101775, -0.050271, 0.051949, 0.104340, -0.020353, -0.015223, 
    -0.076487, -0.079062, 0.164173, 0.019860, -0.102867, 0.033771, -0.000640, 0.068323, -0.042876, -0.155502, 
    0.029409, 0.150651, 0.106896, 0.068686, 0.010064, -0.005011, 0.015114, -0.094944, -0.021518, 0.019693, 
    0.040321, 0.025756, 0.006679, 0.100026, 0.095380, 0.031123, 0.147064, 0.063502, -0.129675, 0.047561, 
    -0.003660, 0.008680, 0.003256, 0.034246, -0.007460, -0.079571, 0.018402, -0.115834, -0.083485, -0.015147, 
    0.032756, -0.032465, 0.014219, -0.063748, -0.039680, 0.028228, -0.036798, 0.054521, 0.129033, -0.047318, 
    -0.085275, 0.141015, 0.123282, 0.040121, 0.111240, -0.021726, -0.082563, 0.026547, 0.032756, 0.000720, 
    0.070079, -0.014780, -0.134943, 0.050134, -0.024351, -0.121504, -0.062095, 0.144973, 0.031876, 0.065980, 
    0.064118, -0.093262, -0.101571, -0.055085, -0.042588, 0.003815, 0.083052, 0.123629, 0.011333, -0.010085, 
    -0.077649, -0.052022, -0.057655, 0.000116, -0.032427, -0.051464, 0.028254, -0.023961, -0.010152, 0.088512, 
    -0.039024, -0.032197, 0.054447, -0.046676, 0.108381, 0.014452, -0.114591, -0.071733, -0.020428, -0.045133, 
    -0.207147, -0.110473, -0.165188, -0.034915, -0.053832, 0.085690, 0.080525, 0.016273, 0.100944, -0.027216, 
    0.061966, 0.100779, 0.094470, -0.006567, 0.149359, 0.058558, -0.018391, 0.039767, 0.102862, 0.081798, 
    -0.018329, 0.032071, 0.081471, 0.056148, -0.150615, -0.025991, -0.176318, -0.058054, 0.029549, -0.075336, 
    0.041903, 0.057638, -0.010978, -0.099630, 0.075816, -0.037272, -0.109485, -0.036479, -0.019459, -0.038663, 
    0.061737, -0.017411, -0.026498, -0.008534, -0.089223, 0.143233, 0.135243, 0.126481, -0.008978, -0.034743, 
    0.024274, -0.117003, -0.104173, -0.066472, 0.083611, 0.185820, -0.003987, 0.046553, 0.053714, 0.068428, 
    -0.028920, 0.019815, 0.006164, -0.057800, 0.092652, -0.093908, 0.038092, 0.000605, 0.015128, -0.010795, 
    0.109131, 0.033163, -0.026854, -0.076474, 0.037460, 0.085906, -0.025812, -0.020429, -0.003716, 0.033404, 
    -0.078630, 0.044160, -0.101009, -0.027194, 0.094318, -0.027886, 0.106795, -0.007427, 0.002569, 0.008037, 
    0.098086, 0.055162, -0.024997, -0.051096, 0.090130, 0.030474, 0.076011, 0.022082, 0.116359, 0.001075, 
    -0.109600, 0.044317, 0.058737, 0.064898, -0.025354, 0.036193, -0.053549, 0.055819, -0.021418, -0.063465, 
    -0.042839, 0.041865, 0.040161, 0.051975, -0.031015, 0.091293, 0.034058, -0.050343, -0.122191, -0.016861, 
    -0.103432, 0.028240, 0.013484, -0.227751, -0.045412, 0.106010, 0.068940, 0.078934, -0.103014, -0.007175, 
    0.165665, 0.125841, 0.007628, 0.154082, 0.161545, 0.032966, -0.119477, 0.048666, 0.056019, -0.014392, 
    -0.175735, 0.116527, -0.095655, 0.118785, 0.009686, 0.185369, 0.129642, -0.021583, -0.058971, 0.065543, 
    -0.034969, -0.246881, -0.144363, -0.015861, -0.189519, -0.099642, -0.065099, -0.036065, -0.080378, 0.171581, 
    0.016633, -0.053811, 0.058192, -0.112940, 0.107142, -0.077230, 0.076840, 0.088860, 0.212261, 0.093952, 
    -0.112098, 0.128512, -0.032648, -0.047066, 0.106901, -0.087524, -0.010421, 0.167335, -0.090819, -0.079100, 
    0.113065, 0.034188, 0.026135, -0.060461, 0.008617, 0.017380, 0.010724, -0.096076, 0.092500, 0.004607, 
    -0.045550, 0.103800, -0.009256, 0.048004, -0.036642, -0.073765, 0.078912, 0.034759, -0.062334, 0.172926, 
    -0.022695, -0.028785, 0.081731, -0.013642, -0.128823, 0.144297, -0.168930, 0.078571, 0.061134, 0.068677, 
    0.110122, 0.050978, 0.026344, -0.044127, 0.001779, 0.097502, 0.032727, -0.085273, 0.122149, 0.204072, 
    0.052446, 0.193768, 0.047988, -0.057359, 0.155473, -0.192004, -0.044955, -0.072459, 0.008551, 0.095727, 
    0.079174, 0.077339, -0.006244, -0.076857, -0.040835, -0.014792, -0.028489, -0.047347, 0.090698, 0.004152, 
    -0.012952, 0.006754, -0.016508, 0.091314, -0.025229, -0.019656, 0.115378, 0.023017, 0.152423, 0.078725, 
    0.087431, -0.104647, 0.188686, 0.204384, 0.039875, 0.147822, 0.161072, 0.061777, -0.030729, -0.158679, 
    -0.185615, 0.017387, 0.026336, -0.066812, 0.127432, -0.027783, 0.143552, 0.054052, -0.027449, -0.064509, 
    0.033566, -0.063728, -0.005250, 0.045888, 0.004394, -0.038318, 0.032271, -0.030073, -0.016773, 0.267238, 
    0.026889, 0.084608, -0.050385, -0.093520, 0.025835, 0.052626, -0.089211, 0.014300, -0.036231, 0.016113, 
    -0.011436, -0.123943, -0.026864, -0.099487, -0.031033, 0.110011, 0.033805, -0.024289, 0.012984, -0.081913, 
    -0.155058, -0.062520, -0.199831, -0.046283, 0.169220, 0.154881, -0.113629, 0.115408, 0.022720, -0.036914, 
    0.123525, 0.008860, 0.064994, 0.144585, 0.009021, 0.016783, 0.071826, 0.033922, -0.078379, -0.030650, 
    -0.113354, -0.067112, -0.085564, -0.026217, -0.090540, 0.016081, 0.071224, -0.000538, 0.038766, 0.149602, 
    0.002160, -0.009598, 0.023322, -0.059016, 0.026048, -0.006887, 0.062219, -0.048952, -0.005711, 0.000800, 
    -0.158011, -0.020797, -0.007757, 0.023013, -0.052000, -0.073112, -0.016272, -0.130261, 0.041830, 0.006739, 
    0.051753, 0.014058, -0.047238, 0.016885, -0.024984, -0.142439, -0.024161, -0.034102, -0.189562, -0.078098, 
    -0.152065, 0.010039, -0.029319, -0.025777, -0.134614, -0.116584, 0.194499, 0.288317, 0.113728, 0.026652, 
    -0.117800, 0.032019, 0.130614, 0.110194, -0.050339, 0.236269, 0.208858, 0.143140, 0.171007, -0.004513, 
    0.026148, -0.082907, -0.059046, -0.069283, 0.061365, -0.120786, -0.129957, 0.081069, -0.129502, -0.035092, 
    0.003712, -0.121320, -0.046564, -0.133645, 0.005658, -0.078542, -0.271708, -0.014200, -0.066236, -0.053221, 
    -0.081497, 0.003285, 0.063884, 0.093426, 0.069755, -0.166664, -0.079138, -0.058429, -0.012867, 0.034718, 
    -0.113416, 0.253682, 0.020687, -0.020043, -0.026534, -0.086939, 0.020589, -0.030220, 0.043806, 0.000977, 
    0.014929, -0.144164, 0.073643, -0.172453, 0.073240, 0.001120, -0.047408, 0.069469, -0.010901, -0.095676, 
    0.011184, -0.056906, 0.049746, -0.061393, -0.013065, 0.050129, 0.057863, 0.109336, -0.148666, -0.154411, 
    -0.061263, 0.019820, 0.072042, 0.068266, 0.041920, 0.086794, 0.004628, 0.052316, -0.024630, 0.056304, 
    0.021736, 0.032898, -0.002543, -0.025012, -0.009578, -0.020870, 0.004750, 0.120250, 0.037978, -0.039122, 
    0.089430, -0.085578, -0.015847, 0.005453, 0.066478, -0.044506, 0.006160, 0.019728, 0.016176, -0.076099, 
    0.058684, 0.126965, -0.022940, 0.046710, -0.152946, 0.078663, 0.077853, 0.055011, 0.051963, -0.079540, 
    0.035518, 0.078556, 0.062194, -0.118241, -0.046834, 0.011414, 0.177103, 0.118938, -0.115085, 0.159214, 
    0.163995, 0.039049, 0.018158, 0.027917, -0.036414, -0.228489, -0.104351, -0.078864, -0.069515, -0.173040, 
    -0.226286, 0.082207, 0.029672, -0.026272, 0.005822, 0.007612, 0.201146, -0.086604, 0.033533, -0.005870, 
    0.010208, 0.023948, -0.005861, 0.174407, -0.049589, 0.067794, -0.026946, 0.043439, 0.009525, 0.005712, 
    0.006045, 0.077253, -0.128803, -0.173247, -0.098646, 0.035323, 0.069075, 0.036997, -0.002322, 0.132232, 
    -0.038514, -0.104698, -0.059627, -0.048829, 0.048557, -0.020745, 0.010027, 0.074706, 0.103509, 0.142213, 
    0.024210, -0.065800, -0.036575, -0.129434, 0.008015, -0.172930, 0.115120, 0.045832, 0.037257, 0.042555, 
    -0.026246, 0.089727, 0.054702, 0.044004, 0.099855, -0.025657, -0.106907, -0.043382, 0.028166, -0.086368, 
    -0.013132, -0.012135, -0.092036, -0.026083, 0.031683, -0.022348, -0.043775, 0.056457, -0.013265, -0.010112, 
    0.072730, 0.013861, -0.070310, -0.051615, 0.022564, -0.083379, 0.038106, 0.105226, -0.000275, -0.001785, 
    -0.072821, 0.028045, -0.004148, 0.006959, 0.018187, 0.047359, -0.024530, 0.039907, -0.031293, -0.075788, 
    -0.019202, -0.005964, 0.097033, 0.057486, 0.009957, -0.044873, -0.045895, 0.024217, -0.028631, -0.015437, 
    0.176874, 0.128362, 0.220761, 0.004767, 0.055549, 0.024317, 0.040640, 0.049081, -0.039356, -0.117736, 
    -0.107570, -0.106444, -0.009805, -0.035048, 0.066723, 0.033108, -0.018552, 0.059324, 0.059026, 0.014616, 
    -0.095309, -0.039912, -0.094622, 0.010073, -0.034745, 0.113982, 0.026429, -0.042672, -0.033968, -0.001469, 
    -0.051935, 0.029011, 0.030850, -0.095045, 0.017156, -0.126037, -0.037407, -0.018114, -0.055408, 0.111567, 
    -0.085457, 0.040713, -0.087713, 0.000071, -0.027728, 0.232486, 0.125839, 0.169595, 0.048801, 0.093963, 
    0.040981, -0.043211, -0.132088, -0.133809, 0.154925, -0.001174, 0.078495, -0.028231, 0.064633, -0.023512, 
    -0.167957, -0.121741, -0.011041, 0.043925, 0.073719, -0.067588, 0.080442, -0.060730, 0.044350, 0.114670, 
    0.158584, 0.069179, -0.017270, 0.051458, -0.063626, -0.067142, -0.114550, 0.019736, 0.129194, 0.126407, 
    0.147104, 0.017352, -0.020378, 0.032251, 0.017066, 0.007372, 0.082824, -0.030092, 0.078165, -0.064139, 
    0.050118, -0.031488, 0.051343, 0.071532, 0.120072, -0.033646, 0.209520, 0.013142, 0.099207, -0.032753, 
    -0.035631, -0.019845, 0.022222, 0.034194, -0.006926, 0.042248, 0.060947, 0.099292, 0.064168, 0.034626, 
    -0.008442, -0.024624, -0.068901, -0.012703, 0.023290, 0.034780, -0.005872, 0.015520, 0.012458, -0.044863, 
    -0.085710, -0.070588, -0.026008, 0.011457, -0.018417, 0.020353, 0.001186, 0.080894, 0.026815, 0.000744, 
    -0.098133, -0.017120, 0.009123, 0.110496, -0.032881, -0.019878, 0.057254, 0.135755, 0.002616, -0.041750, 
    -0.039140, 0.032242, 0.070179, -0.033802, 0.063980, 0.095260, 0.110273, -0.021840, 0.057120, 0.082009, 
    0.046536, 0.071533, -0.031288, 0.039229, 0.054190, -0.062689, 0.022965, -0.070766, -0.023484, -0.019567, 
    0.032880, 0.119764, -0.101807, -0.087848, -0.066190, 0.000991, -0.021846, -0.119408, 0.088535, 0.052074, 
    0.113359, -0.016392, 0.022940, 0.030113, -0.045449, -0.027689, 0.033520, 0.126178, 0.094140, 0.179057, 
    -0.016674, 0.021352, -0.052467, -0.038905, -0.023875, -0.026449, 0.088874, 0.150692, 0.052856, -0.017683, 
    0.055801, 0.002042, 0.084575, 0.159094, 0.072218, -0.059824, -0.038878, -0.111652, 0.104074, 0.075021, 
    -0.048532, 0.003815, -0.052353, -0.007015, -0.051732, -0.059193, 0.029480, 0.056131, 0.118025, 0.047034, 
    -0.045957, -0.180370, -0.218616, -0.045087, 0.043634, -0.089942, -0.053502, -0.123540, -0.077940, -0.097215, 
    0.004403, -0.091517, -0.078687, 0.028928, -0.046906, -0.029585, -0.072928, 0.001983, -0.102272, 0.008760, 
    -0.009054, -0.122715, -0.101958, 0.000658, -0.027915, -0.020338, -0.064259, -0.105894, 0.026929, -0.121873, 
    -0.000961, 0.014025, 0.236813, -0.010171, -0.070719, -0.101457, 0.011493, 0.095049, 0.191031, 0.071674, 
    0.131749, -0.004749, -0.188395, 0.009003, -0.144105, 0.030794, -0.092552, -0.158337, -0.048529, 0.214922, 
    -0.046098, 0.091359, 0.055863, 0.048102, 0.098629, -0.028406, 0.043729, -0.112234, -0.005277, 0.101879, 
    0.073194, -0.013617, -0.068259, -0.117258, 0.097391, 0.023281, -0.041600, 0.002545, 0.002998, -0.040456, 
    -0.046656, 0.117340, 0.122702, -0.076378, -0.134251, 0.006714, -0.006916, 0.050533, 0.161011, -0.130342, 
    0.087819, -0.044932, -0.012345, 0.042979, 0.022338, 0.041474, -0.098932, -0.047136, -0.026751, 0.149039, 
    0.191171, 0.007235, 0.208459, 0.007448, -0.271999, 0.113051, 0.111177, 0.045306, 0.048259, 0.026495, 
    0.009160, -0.050076, -0.071025, -0.076604, -0.251509, 0.031275, -0.010793, 0.097326, 0.030583, 0.124533, 
    -0.027264, -0.064744, 0.076337, 0.060722, 0.130505, 0.040453, 0.154425, 0.096595, 0.197405, -0.026226, 
    -0.017123, 0.134673, -0.088076, 0.045623, 0.034670, 0.010312, 0.107227, -0.028742, 0.161946, 0.013433, 
    0.083960, -0.044054, -0.023411, 0.000180, 0.119054, 0.108071, -0.087254, -0.014454, -0.081236, 0.042570, 
    0.017258, -0.044759, 0.006331, -0.232148, -0.141107, 0.063757, 0.015227, 0.013381, 0.052136, -0.127732
    
};

// PyTorch Layer: conv1.bias (Shape: (16,))
static const data_t conv1_b[16] = {
-0.332887, -0.250573, -0.098707, -0.140125, -0.140700, -0.165862, -0.233570, -0.172239, -0.082452, -0.076682, 
    -0.144793, -0.161296, -0.097131, -0.284775, -0.019622, -0.058227
};

// PyTorch Layer: conv2.weight (Shape: (32, 16, 3))
static const data_t conv2_w[1536] = {
0.619350, 0.154917, 0.880763, -0.292429, 0.145316, -0.074367, -0.082360, -0.134856, -0.079789, -0.089246, 
    -0.353698, -0.333353, 0.228822, -0.087183, -0.043920, 0.111765, 0.050123, 0.058653, -0.040179, 0.117764, 
    -0.124821, -0.500325, -0.433228, -0.575185, 0.237700, 0.238271, 0.120595, -0.036066, 0.072961, 0.021909, 
    -0.306185, -0.023716, -0.354528, 0.471645, 0.461914, 0.176860, -0.299199, -0.070605, 0.215672, 0.024853, 
    -0.173565, 0.038933, 0.166715, 0.227653, 0.074322, -0.195996, -0.074621, -0.160226, -0.151790, -0.178447, 
    -0.267847, -0.268631, -0.193582, -0.061272, -0.106982, -0.088937, -0.005637, -0.037681, -0.200617, -0.114176, 
    -0.497694, -0.191837, -0.512007, 0.002029, 0.015225, -0.103448, 0.385894, 0.084607, 0.275148, -0.235785, 
    -0.035481, 0.018239, 0.222600, 0.089667, 0.184854, 0.023365, -0.134831, -0.236131, 0.194527, 0.016158, 
    0.322669, 0.015556, -0.003758, 0.115889, 0.345146, 0.146770, 0.514136, 0.082947, 0.461924, 0.278230, 
    -0.636491, -0.472736, -0.431124, 0.090787, 0.271235, 0.296640, -0.228790, -0.123827, -0.097396, -0.130840, 
    -0.119044, -0.330275, 0.461015, 0.484817, 0.321383, -0.028058, -0.040802, -0.000176, 0.143486, 0.160003, 
    0.180921, 0.305570, 0.155837, 0.073862, -0.056373, 0.188147, 0.135874, -0.141006, -0.107952, -0.022312, 
    -0.133628, -0.025744, -0.291286, -0.400019, -0.183902, -0.294099, 0.003807, -0.083842, 0.169442, -0.020093, 
    0.143308, -0.223845, -0.213530, -0.186637, -0.394458, 0.176147, -0.190533, 0.240717, 0.248278, 0.303107, 
    0.426830, 0.250214, 0.250773, 0.212292, 0.471973, 0.856709, 0.697712, -0.002629, 0.068969, 0.174908, 
    -0.084453, -0.106438, -0.028642, -0.189737, 0.076814, 0.003947, -0.044798, 0.161460, -0.125676, -0.092618, 
    0.074601, -0.071115, -0.173175, -0.193665, 0.082176, -0.007398, -0.060110, -0.171386, -0.126192, 0.041669, 
    -0.044143, 0.344743, 0.107011, 0.121149, -0.115633, -0.254798, -0.328403, -0.044175, 0.045088, -0.068111, 
    0.141544, 0.188669, 0.070729, -0.255229, -0.120073, -0.206864, -0.088037, -0.082044, -0.204259, 0.046731, 
    0.188705, -0.134332, 0.142558, 0.068904, 0.065747, -0.380918, -0.601337, -0.285088, -0.152762, -0.131559, 
    -0.140342, -0.191538, 0.100410, -0.047450, -0.003201, -0.290991, -0.061900, 0.354341, 0.256371, 0.320101, 
    -0.000323, -0.163707, 0.159269, -0.083567, -0.107156, -0.418112, 0.034467, -0.033049, 0.415679, 0.487899, 
    0.462709, 0.413413, 0.160778, 0.335024, 0.173262, -0.352343, -0.060932, -0.165495, 0.387209, 0.174425, 
    -0.189782, -0.223531, 0.071971, -0.008197, -0.243011, -0.372948, -0.551962, -0.077092, 0.130778, -0.182473, 
    -0.132929, -0.090102, -0.132039, 0.076936, -0.251927, -0.242681, 0.031609, -0.116505, 0.320372, 0.406678, 
    -0.014156, 0.497113, 0.022505, -0.025002, 0.056486, 0.144208, 0.161344, 0.181591, 0.107641, -0.297436, 
    -0.138929, 0.142176, 0.170647, 0.495702, -0.414058, -0.636258, -0.691047, -0.126282, -0.119556, 0.051023, 
    0.357686, 0.642467, 0.553994, -0.390436, -0.273188, -0.292615, -0.300889, -0.039554, -0.372715, 0.041702, 
    -0.097321, -0.108801, -0.039295, 0.100345, 0.103382, 0.586093, 0.428272, 0.433948, 0.045172, 0.181620, 
    0.276791, 0.455291, 0.338727, -0.132894, 0.108155, -0.017774, 0.068254, -0.418889, -0.149187, -0.327309, 
    0.497452, 0.402813, 0.024935, -0.362873, -0.099114, -0.142080, 0.295871, -0.034395, 0.325092, -0.339972, 
    -0.293073, -0.291725, 0.069290, -0.024944, -0.184058, -0.460825, -0.374188, -0.409283, -0.306986, -0.241289, 
    -0.308701, 0.192933, 0.350276, 0.170242, -0.111464, -0.048057, 0.131025, 0.011242, 0.293781, -0.003180, 
    0.386607, 0.156954, 0.647002, -0.032986, -0.291334, -0.163963, 0.372307, 0.240952, 0.252403, -0.100051, 
    -0.121506, -0.268980, 0.211218, -0.039334, -0.037351, -0.408629, -0.423271, -0.287445, 0.151629, -0.042148, 
    0.248360, -0.078020, -0.031561, 0.170722, 0.517171, 0.260340, 0.203471, -0.494289, -0.348110, -0.411263, 
    0.392461, 0.152872, -0.009493, -0.346384, -0.165212, -0.158867, -0.381831, -0.351285, -0.214322, 0.382690, 
    0.338553, 0.294443, 0.028210, 0.364852, 0.206487, 0.015972, 0.101355, 0.198399, 0.264850, 0.214250, 
    0.257761, -0.193917, -0.091112, -0.281123, 0.019875, -0.047177, 0.499240, 0.398178, 0.266128, 0.179335, 
    -0.280960, 0.005010, -0.263764, 0.084904, 0.222297, 0.269708, -0.107683, 0.239791, 0.325235, -0.098098, 
    0.128244, -0.012364, 0.016113, -0.100319, -0.052532, 0.259611, 0.066993, 0.300050, -0.322130, -0.334861, 
    -0.363709, 0.013732, -0.093799, -0.081723, -0.274882, -0.047283, 0.053621, -0.314746, -0.410288, -0.315434, 
    -0.039710, -0.105201, -0.147536, -0.156028, -0.145411, -0.325301, -0.029357, -0.237638, 0.132909, 0.388075, 
    0.157455, 0.460304, -0.151527, 0.268294, 0.236867, -0.271430, -0.377275, -0.372235, 0.318280, 0.455782, 
    0.180256, 0.360676, 0.174883, 0.206894, 0.065980, 0.076592, -0.151160, 0.155932, 0.264698, 0.336322, 
    -0.089827, -0.359891, -0.215589, 0.004902, -0.067803, -0.013378, -0.119185, -0.274207, -0.463039, -0.197424, 
    0.132603, 0.002524, 0.021152, -0.038071, -0.056400, 0.052683, 0.034067, 0.255261, -0.236810, -0.362358, 
    -0.319467, -0.022348, -0.056545, 0.039729, -0.003536, 0.247604, 0.328144, 0.117268, 0.031102, 0.118549, 
    -0.480458, -0.104482, -0.329894, 0.282075, -0.041052, 0.020019, 0.196214, 0.218267, 0.338950, -0.037321, 
    -0.227407, -0.197318, -0.227256, -0.342767, -0.328931, -0.105301, -0.201893, 0.003562, 0.032612, 0.476275, 
    0.315081, 0.127312, 0.300126, -0.122001, -0.042603, 0.000870, -0.040902, -0.308018, -0.135785, -0.286597, 
    0.205943, 0.204325, -0.016514, 0.254614, 0.089581, 0.209636, 0.096113, 0.104815, 0.077564, 0.182336, 
    0.551002, 0.522177, -0.120810, -0.432347, -0.036533, 0.078510, 0.217845, 0.282372, 0.175431, 0.009255, 
    0.414761, -0.370128, -0.018068, -0.556438, -0.206393, -0.174599, -0.203951, -0.034751, -0.161518, -0.197707, 
    -0.075446, -0.109611, -0.364373, -0.013778, 0.141239, -0.072608, 0.195841, 0.028403, 0.109918, -0.444875, 
    -0.392054, -0.154238, 0.427685, 0.327711, 0.265650, 0.332881, 0.190760, -0.000179, -0.084097, -0.075317, 
    -0.052136, 0.135277, 0.282032, 0.061400, 0.696270, 0.276181, 0.156137, 0.002956, -0.061518, 0.020318, 
    -0.618538, -0.286653, -0.361017, -0.030198, -0.060462, 0.078029, 0.205054, 0.451827, 0.524231, 0.018331, 
    0.068756, 0.191003, -0.030479, -0.169371, -0.077478, -0.242080, -0.171483, 0.107611, -0.089217, 0.201200, 
    -0.057331, -0.050612, 0.117516, 0.019463, -0.024685, -0.046196, 0.082431, -0.052839, 0.117726, -0.107016, 
    0.072600, 0.038635, -0.055746, 0.161747, 0.369286, 0.295709, -0.255065, 0.014896, -0.141150, -0.082116, 
    -0.243516, -0.162026, 0.043735, 0.428623, 0.363499, -0.297195, 0.041193, -0.210712, -0.074778, -0.297739, 
    -0.246278, 0.143812, 0.134754, 0.009375, 0.198010, 0.541271, 0.504830, 0.204649, -0.032032, 0.249556, 
    -0.227442, 0.037373, -0.106369, -0.138533, -0.074947, 0.051947, 0.426873, 0.510117, 0.376547, -0.075634, 
    0.143226, -0.098046, -0.209550, 0.033391, -0.017932, -0.201857, 0.072819, -0.304213, -0.313044, -0.292119, 
    -0.242322, -0.207288, -0.032949, -0.447076, -0.327848, -0.357408, -0.220247, 0.070223, 0.086433, -0.004717, 
    -0.064434, -0.190847, -0.137013, -0.214147, -0.297421, -0.315114, 0.357347, 0.448013, 0.190610, -0.049764, 
    -0.154667, -0.138058, -0.064242, -0.155893, 0.035373, 0.168503, 0.229682, -0.079392, -0.064585, -0.065313, 
    0.009197, -0.312594, -0.163018, -0.357519, -0.045174, -0.144359, -0.191957, -0.098133, -0.350009, -0.172019, 
    0.341306, 0.497942, 0.584178, -0.323287, -0.176025, -0.268754, 0.140666, 0.339919, 0.090730, -0.295215, 
    -0.099644, -0.121730, -0.193650, -0.105295, -0.302608, 0.218889, 0.323999, 0.189397, 0.280434, 0.537576, 
    0.259281, 0.309240, 0.580716, 0.263663, -0.268052, -0.099516, -0.025471, -0.066522, -0.158356, -0.246443, 
    0.426267, 0.250357, 0.411065, -0.197192, -0.131710, -0.173183, -0.102455, -0.056817, -0.039919, -0.352543, 
    -0.265770, -0.065080, 0.010628, -0.024509, -0.040028, 0.256808, -0.122976, -0.113682, 0.033801, 0.063041, 
    0.030267, -0.531879, -0.180380, -0.612997, 0.523376, 0.043862, 0.201226, -0.062246, -0.085437, 0.161139, 
    -0.303195, -0.175490, -0.443929, 0.403958, 0.500302, 0.486737, 0.226299, 0.135205, 0.540110, -0.028868, 
    0.219463, -0.067760, -0.048245, -0.153452, 0.122686, -0.109130, -0.169438, -0.172877, 0.101098, 0.322114, 
    0.497703, -0.371868, -0.088287, -0.250436, -0.065764, -0.233381, 0.015409, 0.264310, 0.288873, 0.199938, 
    0.163071, 0.281639, 0.197038, 0.338786, 0.262475, 0.434337, -0.222199, -0.283280, -0.215338, -0.297943, 
    -0.097789, -0.475952, -0.048017, -0.223686, -0.026041, 0.045206, -0.075364, 0.207251, 0.090811, -0.234030, 
    0.141618, 0.204129, 0.178238, -0.015954, -0.274155, -0.363802, -0.285196, -0.176462, -0.133021, -0.208612, 
    -0.164227, 0.325654, 0.016523, 0.025727, -0.000939, -0.149402, 0.286846, 0.215733, 0.267502, -0.412894, 
    -0.095903, -0.248810, 0.384311, 0.168081, 0.412865, 0.394874, -0.062708, 0.387972, -0.010791, 0.037416, 
    0.011977, 0.275360, 0.070031, 0.175895, -0.323048, -0.169137, -0.385931, -0.088217, 0.017024, -0.042247, 
    -0.298346, -0.120673, -0.446211, -0.150806, 0.110888, -0.057647, 0.062589, -0.151724, -0.020285, 0.195940, 
    -0.094297, 0.251164, -0.385858, -0.307157, -0.421210, 0.045578, 0.060781, -0.051180, 0.128134, 0.066806, 
    0.285759, 0.119959, 0.128723, -0.034850, 0.440600, 0.578828, 0.589770, -0.112282, 0.027730, -0.245262, 
    -0.170069, -0.175511, 0.014346, 0.147042, 0.229053, 0.157889, -0.092330, 0.229097, 0.062409, 0.042258, 
    0.298940, -0.023956, -0.324726, -0.066451, -0.129838, -0.073488, 0.102959, 0.162612, -0.525350, -0.163582, 
    -0.049254, 0.189814, 0.513153, -0.011234, 0.130158, -0.115377, -0.195246, -0.020594, -0.229128, -0.172785, 
    -0.018091, -0.262772, -0.276621, -0.306978, -0.139359, -0.366244, 0.060868, -0.026551, -0.004382, -0.016610, 
    0.199379, -0.026243, 0.120981, 0.410145, -0.018848, 0.750245, 0.383646, 0.567714, -0.173670, -0.108666, 
    -0.078981, -0.139961, -0.109861, -0.059015, 0.242652, -0.027732, 0.549707, -0.177301, -0.370031, -0.134852, 
    0.189163, -0.068060, 0.131435, -0.099554, 0.065638, 0.223579, -0.038068, -0.086792, -0.225116, 0.041522, 
    -0.080065, -0.116272, -0.414841, -0.352616, -0.410029, -0.077224, -0.020097, -0.059747, -0.037886, 0.382423, 
    0.209943, -0.217611, -0.141079, 0.019516, 0.002601, -0.058238, -0.092189, 0.031362, 0.041599, 0.012574, 
    0.184248, 0.208763, 0.252990, -0.418466, -0.593848, -0.530032, -0.203599, -0.012411, -0.238982, -0.131920, 
    -0.218101, 0.250057, 0.032016, 0.173110, -0.291761, 0.307755, 0.224025, -0.018762, -0.140953, 0.100715, 
    -0.060861, 0.041531, -0.093531, -0.090750, 0.244668, 0.210103, 0.283462, 0.488929, 0.239183, 0.244712, 
    0.154045, 0.334060, 0.293963, -0.152778, -0.387024, -0.336008, 0.013365, 0.389809, -0.103435, -0.315162, 
    0.082815, -0.065900, -0.205978, -0.350594, -0.431788, 0.243677, -0.249988, 0.042719, 0.133562, 0.012677, 
    -0.085302, 0.639042, 0.410589, 0.467167, -0.061707, -0.236461, -0.015211, -0.388778, -0.370820, -0.196162, 
    -0.031922, -0.048931, -0.009422, -0.290110, -0.306481, -0.477276, 0.392709, 0.587402, 0.353533, -0.297885, 
    -0.236136, -0.450039, -0.014614, 0.093184, 0.246825, -0.233859, -0.149244, -0.315122, -0.400021, -0.299093, 
    -0.349913, 0.239341, 0.467842, 0.348469, 0.562834, 0.444495, 0.346309, 0.365359, 0.008865, 0.424250, 
    -0.036001, -0.084819, 0.022942, -0.165014, -0.188769, -0.236907, 0.276341, 0.237394, 0.468448, -0.485433, 
    -0.322094, -0.046285, -0.164936, 0.149516, 0.222428, 0.573620, 0.506048, 0.171822, -0.019681, -0.027372, 
    0.089843, 0.361173, 0.127886, 0.042368, -0.533938, -0.213165, -0.270789, 0.369947, 0.113879, -0.382491, 
    -0.161888, 0.094148, 0.010590, 0.278782, 0.006092, 0.101696, 0.034434, -0.278996, -0.057426, -0.048324, 
    0.141563, -0.022818, -0.381374, -0.306971, -0.005409, -0.062161, -0.026958, -0.316884, 0.137469, -0.043825, 
    -0.051638, 0.211431, 0.070858, 0.030688, 0.195772, 0.258810, 0.254395, 0.302821, -0.104000, 0.342436, 
    0.201341, 0.006695, -0.123529, -0.028122, 0.376150, 0.429709, 0.159085, -0.051777, 0.142358, 0.175712, 
    -0.003809, -0.105070, -0.286177, -0.034094, -0.116160, 0.492348, 0.070749, 0.332794, -0.312240, -0.338037, 
    -0.137750, -0.123391, 0.186837, 0.102833, -0.507768, -0.111978, -0.218509, -0.199805, -0.176748, -0.290863, 
    -0.128242, -0.012694, -0.141351, -0.146337, -0.134118, -0.146971, -0.103535, -0.232080, -0.194847, 0.123032, 
    0.203269, 0.323365, 0.030259, 0.193490, 0.249876, 0.362663, 0.259777, 0.330987, 0.180866, 0.125890, 
    -0.070023, -0.362297, -0.479055, -0.209672, 0.213468, 0.277400, -0.047001, -0.478709, -0.286785, -0.225229, 
    0.183873, 0.503067, 0.217867, -0.240612, -0.336660, -0.376607, 0.019496, 0.174303, -0.158466, -0.418231, 
    -0.428889, -0.292893, -0.315181, -0.397435, -0.299388, 0.361334, 0.420848, 0.291255, 0.366737, 0.080807, 
    0.000650, 0.085861, 0.203491, 0.405003, 0.146409, 0.352010, 0.393726, -0.208110, -0.173292, -0.351323, 
    -0.013339, -0.108053, -0.064144, 0.242039, 0.123428, -0.023479, -0.028403, 0.016520, 0.178891, -0.379220, 
    -0.078825, -0.334565, -0.011106, -0.010967, -0.009369, -0.231352, -0.454820, -0.211262, 0.286703, 0.583789, 
    0.366159, -0.265809, -0.161315, -0.373122, 0.051035, 0.291026, 0.004712, -0.213863, -0.334257, -0.175471, 
    -0.409460, -0.317437, -0.181742, 0.207086, 0.516718, 0.356761, 0.669046, 0.166094, 0.441316, 0.251264, 
    0.485319, 0.199982, 0.042141, -0.015320, -0.001183, -0.316392, -0.085674, -0.283816, 0.118847, 0.000840, 
    0.091048, -0.303807, -0.279922, -0.341110, -0.345299, -0.003228, -0.222085, 0.166375, 0.008042, 0.345344, 
    0.418882, -0.037054, 0.431837, 0.208629, -0.050690, 0.357496, 0.044494, 0.087624, -0.440332, -0.009473, 
    -0.034095, 0.120898, -0.196547, -0.473134, -0.025233, 0.436396, 0.156200, 0.150916, 0.448520, 0.400344, 
    0.356205, -0.300847, -0.457507, -0.422651, -0.141273, 0.074848, -0.046271, -0.369072, -0.203625, -0.418579, 
    -0.249071, 0.201166, -0.198519, 0.163604, 0.030264, -0.014201, -0.401553, -0.065329, -0.136773, 0.637566, 
    0.573316, 0.720097, -0.243432, -0.084141, -0.131611, -0.195094, -0.150927, -0.064285, -0.004377, -0.081377, 
    -0.285642, -0.259812, 0.059174, -0.065302, 0.525186, 0.229676, 0.326972, 0.086551, -0.174744, 0.292740, 
    -0.041489, -0.238060, -0.218537, -0.242096, -0.043042, -0.136165, 0.397738, -0.038195, 0.203387, -0.159881, 
    -0.034213, -0.133774, -0.027422, 0.420223, -0.069043, 0.264931, -0.027217, 0.106181, -0.222042, -0.112295, 
    -0.247878, 0.228614, -0.058580, 0.234271, -0.511202, -0.263202, -0.080107, -0.198499, -0.428381, -0.351755, 
    0.183540, 0.365736, 0.393471, 0.493427, 0.184272, 0.220458, 0.208883, 0.323119, 0.092221, 0.518020, 
    0.022147, 0.583927, -0.223663, -0.261561, -0.202207, -0.220591, 0.142973, -0.161170, -0.172064, -0.136130, 
    -0.360740, 0.111753, 0.119842, 0.069743, 0.520680, 0.021682, 0.568204, -0.174483, -0.204351, -0.191131, 
    -0.331044, -0.286090, -0.377657, -0.206492, 0.062784, -0.184650, -0.087612, 0.154343, 0.152447, 0.340213, 
    0.306584, 0.074071, 0.246279, -0.245579, 0.273133, -0.191247, -0.156491, -0.289563, 0.113117, 0.298418, 
    0.334479, -0.204242, -0.132073, 0.048742, -0.181129, 0.002423, -0.046841, -0.229637, -0.288832, -0.156196, 
    0.044800, -0.147146, -0.104239, -0.216736, 0.021940, -0.243884, 0.305815, 0.153991, -0.102652, 0.026385, 
    -0.107325, -0.159342, -0.191023, -0.357114, -0.193545, 0.243457, 0.694981, 0.619043, -0.045005, 0.409009, 
    0.200704, 0.015343, 0.499307, 0.413875, 0.081862, -0.065570, -0.116734, -0.043664, 0.049552, -0.005371, 
    -0.156155, 0.287938, 0.193922, -0.135038, 0.088671, -0.182059, 0.444317, 0.632012, 0.088657, -0.110508, 
    0.071029, 0.088435, 0.005468, -0.026326, 0.099839, -0.108660, -0.021866, -0.057280, -0.185444, -0.164659, 
    -0.187931, 0.202865, 0.258516, 0.279609, -0.286617, -0.376253, -0.299434, -0.251943, 0.027974, -0.062579, 
    0.040680, -0.160706, -0.186025, 0.122038, -0.016240, 0.373984, -0.353719, -0.382795, -0.366612, 0.140122, 
    0.193588, -0.036754, 0.001453, -0.074241, 0.179329, 0.334958, 0.210429, 0.134422, -0.195924, -0.412050, 
    0.010433, 0.011103, 0.454528, -0.051560, 0.089339, -0.144192, 0.368600, -0.126038, 0.130662, -0.215507, 
    -0.040133, -0.367367, -0.274789, 0.066437, -0.009771, -0.128177, 0.012723, 0.190771, 0.248624, 0.530489, 
    0.389424, 0.184745, -0.450951, -0.570201, -0.228217, -0.280425, -0.136843, -0.316856, 0.298726, 0.518053, 
    0.437291, -0.126465, -0.156166, -0.318325, -0.178312, -0.085454, 0.084856, 0.161974, 0.298751, -0.255347, 
    -0.213205, -0.074696, -0.103105, 0.436685, 0.482588, 0.410980
};

// PyTorch Layer: conv2.bias (Shape: (32,))
static const data_t conv2_b[32] = {
0.035106, 0.431014, -0.243951, 0.029354, 0.310602, -0.090504, 0.147544, -0.096124, 0.269409, -0.022841, 
    -0.197366, 0.319424, -0.212770, 0.478618, 0.081234, -0.046152, 0.229015, 0.080180, 0.158336, 0.046751, 
    0.274840, 0.126995, -0.031714, 0.134798, 0.123914, 0.083697, 0.343581, -0.127621, -0.164537, -0.258768, 
    -0.040749, 0.025971
};

// PyTorch Layer: fc.weight (Shape: (6, 32))
static const data_t fc_w[192] = {
-0.258759, 0.127357, 0.302322, -0.567088, -0.139634, 0.274750, -0.193629, -0.141021, -0.056566, 0.268815, 
    0.302882, -0.382312, -0.563129, -0.425200, -0.115268, -0.164652, -0.131860, 0.275682, -0.327780, -0.467251, 
    -0.385978, -0.266647, 0.224854, -0.031255, -0.103788, -0.094741, -0.335824, -0.212385, 0.266021, 0.226733, 
    0.320167, 0.215082, -0.342900, 0.064546, 0.288864, -0.340230, -0.138109, 0.071718, 0.274904, 0.204892, 
    -0.008844, -0.221154, 0.201420, -0.201628, -0.185753, -0.035958, 0.252809, -0.136887, -0.387514, -0.302351, 
    -0.400240, 0.033750, -0.343089, 0.184903, -0.378815, -0.235720, 0.271679, 0.253094, 0.068070, 0.252080, 
    -0.137387, -0.049243, -0.113216, 0.232182, 0.148930, 0.235032, -0.269696, -0.077600, 0.296679, -0.346381, 
    -0.101267, 0.191633, -0.328419, -0.241651, 0.081823, 0.307988, 0.044974, -0.296238, 0.238873, 0.327058, 
    -0.189865, -0.231893, -0.214902, -0.129314, 0.146383, 0.206815, -0.010432, -0.316438, 0.061078, 0.199044, 
    -0.077258, -0.038872, -0.293950, 0.235001, -0.326729, -0.212704, 0.261886, -0.290731, 0.040016, 0.009333, 
    -0.127594, -0.355697, 0.287365, 0.218854, -0.024987, 0.049349, -0.196778, -0.077737, -0.022228, 0.220786, 
    0.009422, 0.239511, 0.092915, 0.087670, -0.004075, 0.180656, -0.193080, 0.142454, 0.135997, 0.045664, 
    0.240465, 0.106538, -0.168048, -0.119389, -0.321842, 0.149524, 0.074166, -0.374490, 0.134014, -0.309497, 
    0.095558, 0.002352, 0.279069, 0.201139, -0.160764, 0.037118, 0.043994, 0.149662, -0.411101, -0.022176, 
    0.033462, 0.120609, -0.440816, 0.066892, 0.254458, 0.122871, 0.202284, -0.118563, 0.210541, -0.504219, 
    0.244868, 0.015969, -0.347914, -0.546686, 0.297932, -0.285175, 0.248054, -0.246979, -0.164702, -0.167043, 
    -0.240521, -0.039647, -0.215396, 0.049304, 0.177071, 0.154498, -0.208202, -0.377696, 0.274512, -0.194135, 
    -0.133190, -0.066323, 0.169155, -0.021762, -0.169618, -0.250693, -0.080463, -0.141130, 0.109124, 0.254119, 
    0.071747, -0.074504, 0.149119, 0.315068, -0.203645, -0.291900, 0.169937, 0.215065, -0.163701, -0.394926, 
    -0.077245, 0.209497
};

// PyTorch Layer: fc.bias (Shape: (6,))
static const data_t fc_b[6] = {
-0.159650, -0.078085, -0.039722, -0.219183, -0.107560, 0.172088
};

#endif // VOICE_CNN_WEIGHTS_H
