#ifndef VOICE_CNN_WEIGHTS_H
#define VOICE_CNN_WEIGHTS_H

#include "voice_typedefs.h"

// PyTorch Layer: conv1.weight (Shape: (20, 40, 3))
static const data_t conv1_w[2400] = {
0.198080, 0.061582, -0.132465, 0.038231, 0.178393, 0.293575, 0.279725, 0.247948, -0.077679, -0.159297, 
    0.267426, 0.086447, -0.020542, -0.110563, -0.179436, 0.147886, 0.007838, -0.229772, 0.066330, 0.008234, 
    -0.096628, -0.170751, -0.054031, 0.054948, -0.153280, -0.152254, 0.051144, -0.056072, -0.180798, -0.013129, 
    -0.016584, -0.168407, 0.118536, 0.182892, -0.003957, 0.032251, 0.022151, 0.033244, 0.038165, 0.060005, 
    -0.003235, -0.043141, 0.031798, 0.034917, -0.118547, 0.081713, 0.039868, -0.145202, -0.119724, -0.036585, 
    0.073845, -0.037541, -0.032007, 0.177180, -0.122001, 0.071521, 0.051797, -0.089926, 0.088134, -0.026900, 
    -0.047170, 0.010847, 0.092420, 0.031087, -0.018555, 0.021382, 0.119149, -0.074358, -0.000195, 0.061485, 
    -0.010471, -0.046348, 0.143509, -0.019337, -0.074475, 0.029438, 0.083062, -0.053627, 0.008953, 0.070215, 
    -0.020058, 0.014365, 0.033139, -0.002413, -0.013118, 0.049814, 0.023323, -0.081303, 0.061946, -0.030412, 
    -0.003244, -0.021425, 0.086925, 0.035103, -0.053581, 0.037976, 0.095090, -0.105447, 0.045042, 0.011156, 
    -0.071689, 0.063553, 0.003655, 0.015247, 0.007945, -0.022794, -0.005454, -0.042061, -0.003696, -0.069320, 
    0.047984, 0.024991, 0.013347, -0.025443, -0.022264, 0.035653, -0.039747, -0.029068, 0.028820, -0.021336, 
    0.108731, 0.256112, 0.131975, -0.152437, -0.254932, -0.301100, -0.128861, -0.154852, 0.158846, -0.194174, 
    0.061389, 0.208900, -0.114457, 0.041644, -0.049361, 0.211561, -0.095079, -0.218298, 0.135009, -0.053964, 
    -0.001603, 0.031126, 0.034605, -0.010971, -0.020284, 0.097241, 0.078095, 0.163321, 0.005911, -0.034131, 
    0.046695, 0.011269, -0.159947, -0.123864, 0.082840, 0.045678, 0.036756, 0.002957, 0.067014, 0.069513, 
    -0.043980, -0.020237, 0.097520, -0.122640, -0.032174, 0.102773, -0.107208, -0.045831, 0.057191, 0.028143, 
    -0.033059, -0.043707, 0.077875, -0.012324, 0.049900, 0.025430, -0.044508, -0.051390, 0.014754, -0.029924, 
    0.020368, -0.012966, -0.056534, -0.006585, 0.059633, 0.051673, -0.024208, 0.000100, 0.007468, -0.019490, 
    0.001128, 0.006162, -0.028467, -0.002535, 0.064020, 0.037302, 0.016216, 0.025299, -0.042526, -0.021459, 
    -0.005141, 0.007531, 0.039200, -0.004160, -0.049217, 0.016532, -0.016453, -0.017753, 0.037337, -0.027784, 
    -0.077950, 0.030255, -0.032178, 0.011349, 0.036371, 0.046320, -0.024016, 0.012886, 0.048032, 0.027936, 
    -0.022956, -0.008366, 0.017185, 0.027498, 0.001985, -0.008228, -0.046927, -0.037760, -0.007783, -0.047805, 
    0.019084, 0.044953, 0.014053, 0.063053, -0.041161, -0.034245, 0.103659, 0.046210, 0.016317, -0.072313, 
    0.142426, 0.093935, 0.170159, -0.135355, -0.032889, 0.066883, 0.142276, -0.021097, -0.251960, 0.329991, 
    0.117437, 0.031415, -0.203395, -0.096135, 0.013938, -0.090729, -0.057590, -0.164316, 0.055798, -0.052760, 
    -0.074094, -0.045345, 0.111246, 0.079297, 0.020337, 0.092923, 0.078549, -0.138697, -0.075337, 0.049221, 
    -0.007378, -0.082894, 0.021223, 0.063344, 0.031525, -0.052374, -0.043767, 0.062498, 0.102628, -0.005193, 
    -0.019913, -0.014257, -0.029808, -0.029735, -0.004118, 0.132155, -0.012211, -0.061801, 0.019619, 0.055968, 
    0.032083, -0.122857, -0.053730, 0.015187, 0.048787, -0.054998, -0.123967, 0.108641, 0.024628, 0.008926, 
    -0.006681, 0.028380, -0.010086, -0.088807, -0.088799, 0.066349, -0.007715, 0.036169, 0.054362, -0.001810, 
    0.069563, 0.050333, -0.019644, 0.013572, -0.012321, 0.050801, -0.008001, -0.093265, -0.029677, 0.017285, 
    0.068614, 0.008337, -0.005093, -0.036059, -0.046614, 0.011936, 0.060456, 0.059876, 0.016980, -0.042236, 
    0.002317, -0.021847, -0.033717, -0.052882, 0.004474, 0.015636, 0.000733, 0.001110, 0.001703, -0.033452, 
    0.045101, 0.008460, 0.069005, -0.003248, 0.018917, 0.007244, -0.029120, -0.016423, -0.034511, -0.008683, 
    -0.003199, -0.031636, -0.074402, 0.030843, -0.033340, -0.014010, 0.006110, 0.007858, -0.025101, -0.026276, 
    -0.083006, 0.035975, -0.076386, -0.024006, 0.069560, 0.216289, -0.161037, -0.192501, -0.117717, -0.022133, 
    -0.031001, 0.118077, -0.004453, -0.110150, -0.143831, 0.151295, 0.020282, -0.230295, 0.274670, -0.183901, 
    -0.065071, -0.129559, -0.009470, 0.273119, 0.335628, 0.249991, -0.257619, 0.079057, -0.047236, -0.266240, 
    -0.169771, -0.050852, 0.154034, -0.038240, 0.122299, 0.105231, -0.123149, 0.049847, -0.017438, 0.037893, 
    -0.104706, 0.022203, 0.209067, 0.058656, 0.015356, -0.046954, -0.010986, 0.020188, 0.025079, 0.023722, 
    -0.093085, -0.021770, 0.133609, 0.130010, 0.170202, -0.010857, -0.118843, 0.047834, -0.028277, -0.086659, 
    -0.023192, 0.109181, 0.231954, 0.104660, 0.041694, -0.072814, 0.078754, -0.066617, 0.017654, -0.022134, 
    -0.018505, -0.010613, 0.123284, -0.038467, -0.212454, 0.173854, 0.046843, 0.038550, -0.053126, 0.100375, 
    0.074855, -0.015561, 0.009636, -0.054817, 0.080496, 0.005490, -0.033979, -0.047412, -0.047835, 0.004413, 
    0.004599, -0.040119, -0.000032, 0.122518, 0.005542, -0.028769, 0.055643, 0.048423, 0.004673, -0.040215, 
    -0.009962, 0.044404, 0.045667, -0.039011, 0.040751, -0.041928, -0.006549, 0.081516, 0.029044, 0.051942, 
    0.071363, -0.007234, 0.009991, 0.057152, -0.042141, 0.003762, 0.024919, 0.103864, -0.057509, -0.006225, 
    0.041295, -0.095349, -0.031563, 0.021238, -0.212028, -0.168877, -0.062005, -0.008963, 0.200487, -0.041844, 
    0.117718, 0.255016, 0.058529, 0.123640, -0.019806, -0.326250, -0.029381, 0.222038, -0.287112, -0.087459, 
    -0.008963, -0.301905, -0.089988, 0.136725, 0.034177, 0.077689, -0.110106, 0.054612, 0.014373, -0.148447, 
    0.062193, -0.032147, 0.138421, 0.207579, -0.017667, -0.046561, 0.196443, -0.125841, 0.153593, -0.011594, 
    0.001192, 0.108316, -0.143761, 0.037864, 0.063128, -0.039138, 0.082086, -0.071270, -0.134274, -0.059970, 
    0.027040, -0.034887, -0.051751, -0.025603, -0.016829, 0.009337, -0.084418, 0.175612, -0.049387, -0.078727, 
    -0.089467, 0.006403, -0.026340, -0.067854, 0.065170, 0.086200, -0.001755, -0.019458, -0.012221, -0.116148, 
    -0.057854, 0.091948, -0.002974, -0.069763, 0.030950, -0.009480, -0.017006, -0.057001, 0.001049, -0.026872, 
    -0.016956, 0.083813, 0.001672, -0.106681, 0.047595, 0.063965, -0.131679, 0.015241, 0.030643, -0.014614, 
    -0.011107, 0.001183, 0.105103, -0.111063, 0.017790, -0.005116, -0.099778, 0.045462, 0.063779, -0.016519, 
    -0.017105, 0.060978, -0.015481, -0.071839, 0.000768, -0.001348, -0.023130, -0.076403, 0.091257, 0.028659, 
    -0.073692, 0.089684, -0.216798, 0.059637, 0.043337, -0.123433, 0.006077, -0.072979, 0.207600, -0.141509, 
    0.048311, 0.147644, 0.136170, -0.075414, -0.072309, -0.128103, 0.031873, 0.013511, -0.115378, 0.068539, 
    0.038237, -0.095429, -0.016594, 0.102120, 0.006914, -0.079259, -0.081104, -0.164518, 0.001657, 0.025706, 
    -0.132779, -0.094768, -0.061509, -0.074031, -0.095324, -0.145063, -0.187007, 0.012499, -0.157318, -0.080254, 
    -0.127083, -0.058537, 0.033785, -0.046276, 0.050001, 0.113286, -0.125715, -0.039529, 0.044731, 0.019635, 
    0.057341, -0.018024, 0.185331, 0.131406, -0.040837, -0.073328, -0.000253, 0.000181, -0.040610, -0.099831, 
    -0.074225, -0.003287, 0.021506, 0.029731, 0.089548, 0.078964, -0.024586, -0.085923, -0.082114, -0.032826, 
    -0.055222, -0.033412, 0.053552, 0.043485, 0.057466, 0.039475, -0.023401, -0.034333, 0.059873, -0.163383, 
    -0.038441, 0.030337, -0.054308, 0.031175, 0.031219, -0.037631, -0.066978, 0.121560, -0.086542, 0.000659, 
    0.019802, -0.030770, -0.098267, 0.071156, -0.004537, 0.067363, -0.034998, 0.035412, -0.037870, 0.008267, 
    -0.000956, 0.055531, 0.052917, -0.006005, 0.025741, 0.007476, 0.022861, 0.009290, 0.092217, 0.090665, 
    0.047717, -0.010876, -0.077987, -0.060832, 0.029820, -0.000868, 0.070212, -0.016922, 0.070239, 0.045150, 
    0.019830, 0.109149, 0.056658, -0.024279, 0.039342, 0.094049, 0.082687, -0.018125, 0.004753, -0.013660, 
    -0.067163, 0.060605, 0.105124, 0.246299, 0.137353, 0.218156, 0.087524, -0.040997, -0.096802, -0.192243, 
    -0.085931, -0.083389, -0.292291, -0.138228, -0.134270, 0.010557, -0.056229, -0.025867, 0.141233, 0.080147, 
    0.078550, -0.015873, 0.029825, 0.041043, 0.047046, 0.026405, 0.015123, -0.057532, -0.077267, 0.022848, 
    -0.025365, 0.088812, -0.069836, 0.033372, 0.167852, -0.010662, 0.009993, 0.064444, -0.014668, 0.061037, 
    -0.000449, 0.008249, -0.076939, 0.001223, 0.020278, -0.004303, -0.014675, -0.028058, 0.006802, 0.027321, 
    0.040378, 0.070735, -0.000024, -0.008853, 0.030784, -0.003186, -0.035818, -0.059269, 0.014816, -0.012652, 
    0.000460, -0.052515, -0.015640, 0.087597, -0.010471, 0.018514, 0.013826, -0.031588, -0.028626, -0.028893, 
    -0.093405, 0.004088, -0.046547, -0.062181, 0.176717, 0.002935, 0.049080, -0.040924, -0.017298, 0.059178, 
    -0.050503, 0.051438, -0.039191, 0.031202, 0.018296, -0.023092, -0.037427, 0.032892, 0.074002, 0.017187, 
    -0.020384, 0.020638, 0.055982, -0.033780, 0.042787, 0.024040, -0.018479, 0.082409, -0.025189, 0.029362, 
    -0.002118, -0.020510, 0.004741, 0.003551, 0.020888, 0.007115, 0.041819, -0.114309, 0.017902, -0.059127, 
    -0.036587, 0.029223, -0.029778, -0.007914, 0.028018, 0.000219, -0.077102, -0.018550, 0.038757, -0.053364, 
    -0.224641, -0.163935, 0.157668, 0.229148, 0.104539, -0.119517, -0.036610, -0.053833, 0.086963, 0.060123, 
    -0.236817, -0.430438, 0.061632, -0.017771, -0.154960, 0.002790, 0.119463, 0.222985, -0.067317, 0.073213, 
    0.286671, -0.208514, -0.025585, 0.209826, 0.034045, 0.048563, 0.016339, -0.112472, 0.056672, 0.058936, 
    -0.091597, 0.128320, 0.076249, 0.019173, 0.078290, 0.032139, -0.033762, 0.038610, 0.043006, -0.023778, 
    0.108345, 0.056364, 0.066250, 0.105795, -0.031032, -0.011107, 0.050563, -0.028429, -0.013927, 0.028424, 
    -0.140502, 0.058469, 0.043149, -0.109478, 0.111354, 0.006067, -0.070596, -0.020179, -0.044151, 0.017791, 
    0.003076, 0.022681, -0.017825, 0.048186, -0.028075, -0.055639, 0.057751, -0.015554, -0.053593, 0.006654, 
    -0.055442, 0.005966, 0.022201, -0.067531, 0.081721, 0.000353, 0.000982, 0.054207, -0.023423, 0.046480, 
    -0.006876, 0.010050, 0.001212, 0.024411, -0.032705, 0.011462, 0.022600, 0.044323, -0.053453, 0.023376, 
    0.024337, -0.084154, 0.035078, -0.035636, 0.006686, -0.020623, 0.049011, -0.010594, 0.022859, -0.036937, 
    0.015621, -0.049160, 0.030009, -0.040398, 0.013251, 0.022343, -0.058696, -0.007665, 0.030502, -0.006480, 
    -0.016114, 0.029962, -0.007244, -0.073403, 0.037696, -0.019567, -0.063920, 0.025217, 0.060502, 0.005271, 
    -0.066385, -0.068709, -0.163412, 0.152415, 0.094137, 0.171901, -0.059944, 0.087804, 0.185418, 0.042074, 
    -0.010776, 0.104093, -0.064585, -0.145618, 0.180858, -0.290068, -0.119468, 0.065086, 0.093978, 0.195810, 
    -0.071378, -0.067221, 0.038381, 0.160076, 0.026974, -0.122977, -0.233242, -0.052968, -0.032544, -0.193971, 
    -0.167272, 0.036469, -0.045544, -0.039142, 0.103352, -0.172383, 0.083489, 0.047241, -0.138607, -0.070589, 
    0.027205, 0.110902, -0.206727, -0.005706, 0.105421, -0.002236, -0.018142, 0.012675, -0.007533, -0.055913, 
    -0.013955, -0.057363, -0.023990, 0.049642, 0.062680, 0.089537, -0.068721, 0.074952, -0.059217, -0.025087, 
    -0.092657, 0.006549, 0.065651, -0.057366, -0.051948, 0.014853, 0.006638, -0.057740, 0.053505, -0.067312, 
    0.102664, -0.006643, 0.033645, -0.017059, 0.064231, 0.068439, -0.066749, -0.050248, 0.045780, 0.004353, 
    -0.072982, 0.017218, -0.048939, 0.012474, -0.004900, 0.023448, 0.020990, 0.044395, 0.046415, 0.011265, 
    0.032150, -0.049440, 0.075970, -0.080346, 0.064846, -0.061691, 0.029954, 0.036886, -0.033450, -0.013826, 
    -0.022514, 0.049813, 0.011154, -0.063442, 0.077775, 0.113350, -0.054274, -0.012097, 0.082370, 0.006937, 
    -0.117207, 0.065201, -0.006715, -0.018742, 0.092808, 0.044001, -0.021237, 0.047022, -0.049842, -0.002221, 
    -0.060059, 0.032985, -0.011148, -0.135287, -0.109342, 0.008529, -0.038375, -0.002908, -0.044572, -0.071536, 
    -0.032643, -0.033473, -0.102532, 0.004330, 0.042928, 0.140255, 0.188156, 0.223447, 0.060102, 0.095028, 
    -0.021681, 0.150308, 0.053049, 0.121585, -0.054034, 0.044610, -0.014776, -0.001260, -0.081199, -0.051667, 
    0.014491, -0.054159, -0.125030, 0.035565, 0.019273, 0.039401, -0.028343, 0.023244, 0.001624, -0.032825, 
    -0.019240, -0.096751, -0.062055, -0.055580, 0.014826, 0.078957, -0.014171, -0.079954, -0.074680, -0.073294, 
    -0.098438, 0.035929, -0.029470, -0.083253, 0.016174, -0.020965, -0.059341, -0.079670, -0.097241, -0.138719, 
    -0.019425, -0.055469, -0.013976, 0.032443, 0.012621, -0.058268, -0.007629, -0.053204, 0.008116, -0.111750, 
    -0.047812, 0.074050, 0.009905, -0.035832, -0.028233, 0.070014, 0.051350, 0.055426, -0.041292, 0.027807, 
    -0.050636, 0.017528, 0.002338, 0.099194, 0.027972, 0.055790, 0.002596, 0.061467, 0.029117, -0.003808, 
    0.043308, 0.000176, -0.023420, 0.018775, 0.051047, -0.021414, 0.051384, 0.003790, 0.052313, -0.001373, 
    0.019392, 0.025089, 0.006408, 0.013711, 0.042567, -0.062740, -0.068522, -0.006661, -0.069865, -0.027231, 
    0.014048, 0.012819, 0.010375, -0.029362, -0.051398, -0.007813, -0.052509, 0.055505, 0.045797, -0.016154, 
    -0.037397, -0.021437, -0.061572, -0.100828, -0.048434, -0.042329, 0.180813, 0.043807, 0.000248, -0.010734, 
    -0.063060, -0.175242, 0.116362, 0.136999, 0.167608, 0.087432, 0.066517, 0.022376, -0.016388, -0.161139, 
    -0.139316, 0.149426, 0.147278, 0.069318, 0.038130, 0.006621, 0.109963, 0.062342, -0.044474, -0.060325, 
    0.043224, 0.005403, 0.022793, 0.016228, 0.041274, 0.030539, 0.045928, 0.037641, 0.033153, 0.145983, 
    -0.050702, -0.001854, -0.025753, -0.029387, 0.031024, -0.089604, -0.059694, -0.041570, -0.024339, -0.005565, 
    -0.129398, 0.025300, 0.044134, -0.096804, 0.004552, 0.087576, 0.069372, 0.104331, -0.064610, -0.129796, 
    -0.049983, -0.001583, -0.029356, -0.105723, -0.049075, 0.022663, -0.027654, 0.109370, 0.004571, -0.092571, 
    -0.034681, -0.140467, -0.103814, 0.072945, -0.069177, 0.036697, -0.012557, 0.015736, 0.046536, -0.011897, 
    -0.022219, 0.034746, -0.015580, 0.061446, -0.072392, 0.108052, 0.096157, -0.078778, -0.013140, 0.019833, 
    -0.064860, -0.009211, -0.037498, -0.027031, 0.044438, -0.022149, 0.032977, -0.055726, 0.074705, 0.015874, 
    -0.085394, 0.004490, -0.040751, 0.050010, 0.100587, 0.017994, -0.037535, 0.050750, 0.041858, 0.005990, 
    0.035848, 0.042556, 0.020258, -0.028682, -0.046916, -0.065055, 0.033801, 0.001147, -0.067589, 0.061838, 
    -0.150253, 0.042536, 0.168391, -0.186847, -0.294420, -0.098665, 0.224358, 0.201438, 0.012412, 0.134619, 
    -0.033511, 0.040464, -0.025730, 0.013023, -0.081764, 0.139247, 0.044836, -0.089396, 0.261722, -0.121380, 
    -0.069238, 0.143732, -0.006827, -0.026584, 0.147042, -0.202959, -0.179817, 0.041449, 0.026885, 0.127075, 
    0.062371, -0.073931, -0.032246, -0.209528, -0.087570, -0.025318, -0.154481, 0.107834, -0.010971, -0.095408, 
    0.023255, 0.017079, 0.021077, 0.005993, -0.079986, -0.046616, 0.017096, 0.054714, -0.024664, -0.011586, 
    -0.156006, 0.076582, -0.087415, -0.093502, 0.127792, -0.012652, -0.073786, 0.079868, 0.080389, 0.023185, 
    0.135304, 0.002013, -0.043144, -0.045008, 0.065152, -0.100877, -0.041049, 0.043488, 0.093137, 0.025656, 
    0.037109, 0.004220, 0.058752, 0.076804, 0.037762, -0.086749, 0.107013, 0.161794, -0.129349, 0.021003, 
    0.030509, -0.039941, 0.009224, 0.013195, 0.022430, 0.007028, 0.045587, -0.101817, -0.048259, 0.075572, 
    0.037849, -0.002762, -0.033018, -0.047519, 0.061433, -0.012763, -0.074443, 0.021403, 0.022471, -0.001050, 
    0.022626, 0.114752, -0.056911, -0.055526, -0.016207, -0.038200, -0.034255, -0.019435, 0.046743, -0.073311, 
    -0.045248, 0.018846, -0.013886, -0.010039, 0.007646, 0.019719, -0.031528, 0.055451, -0.032795, -0.017193, 
    0.245459, -0.001104, -0.181732, -0.156426, -0.176385, -0.213890, -0.066979, 0.020888, 0.025617, 0.044583, 
    0.002513, -0.154999, -0.058722, 0.077208, 0.128350, -0.102548, 0.057477, 0.130573, -0.033049, -0.085885, 
    -0.028165, -0.032468, -0.069126, -0.119599, 0.059281, 0.069835, 0.047044, -0.016988, 0.035269, 0.138756, 
    -0.072030, -0.056091, 0.081366, -0.029393, -0.118230, -0.027030, 0.125319, 0.065899, 0.031530, -0.052156, 
    0.070903, 0.021078, 0.034822, 0.013045, 0.106092, -0.028067, -0.076851, -0.015836, -0.116171, -0.040776, 
    -0.175144, -0.025683, 0.048467, -0.024714, -0.106137, 0.008247, 0.119385, -0.016754, -0.008973, 0.074120, 
    0.024275, 0.009254, 0.015940, 0.058751, 0.041120, -0.005070, 0.010970, 0.037594, 0.013158, 0.066331, 
    0.074850, 0.089535, 0.107460, 0.046972, -0.039368, 0.072080, 0.050220, 0.028078, 0.051722, -0.057106, 
    -0.036091, -0.023149, -0.053383, -0.022093, 0.007576, 0.055361, 0.100550, 0.033028, 0.021488, -0.073177, 
    0.095356, 0.035082, -0.055276, -0.048181, -0.009694, 0.007579, -0.030106, -0.030388, 0.014386, -0.074518, 
    0.010359, 0.005720, -0.007655, -0.025816, 0.016332, 0.004155, -0.027041, -0.039125, -0.051428, -0.013377, 
    0.044013, -0.005703, -0.021336, 0.048031, -0.024001, 0.045191, -0.035046, 0.080584, -0.020704, -0.046726, 
    0.359992, 0.257185, -0.071914, -0.110496, 0.400449, 0.280275, -0.162103, 0.065020, 0.027929, -0.122681, 
    0.026517, 0.191319, 0.051668, -0.154829, -0.010950, -0.008753, -0.150433, 0.116097, -0.002388, -0.100665, 
    -0.090046, 0.172614, -0.154584, 0.013932, -0.033926, -0.150249, 0.111566, -0.206555, -0.063045, 0.217820, 
    -0.260582, -0.061309, 0.086908, -0.299157, -0.085847, 0.064362, -0.041403, -0.103705, 0.016396, 0.038446, 
    -0.077172, -0.068367, 0.021715, -0.100173, 0.010477, 0.137362, -0.143373, 0.012165, 0.223719, -0.068086, 
    -0.117493, 0.157953, 0.015468, -0.107834, 0.066387, -0.114528, -0.052611, 0.121273, -0.014547, -0.041494, 
    0.160472, -0.114459, -0.057563, 0.080462, -0.013479, -0.066769, 0.094547, 0.012846, -0.086194, 0.029123, 
    0.104924, -0.083179, -0.016602, 0.120500, -0.119089, -0.015872, 0.099362, -0.091778, -0.014095, 0.061302, 
    -0.027445, -0.002555, 0.079501, 0.008261, 0.001803, 0.035045, 0.002891, -0.072917, 0.117736, 0.038482, 
    -0.086808, 0.072771, -0.082201, -0.015361, 0.029399, 0.013471, 0.019450, -0.015932, 0.062358, 0.000735, 
    -0.022331, 0.019994, -0.010009, -0.046337, 0.023988, 0.063206, 0.008237, -0.003101, -0.038983, 0.047059, 
    0.011044, 0.032972, -0.009471, 0.003713, 0.085472, -0.090894, 0.063227, -0.019079, 0.002564, 0.033638, 
    0.031413, -0.040576, -0.041244, 0.136843, 0.112119, 0.072950, 0.002269, -0.107026, -0.265187, 0.010730, 
    -0.147013, -0.136717, 0.045703, 0.086843, -0.021797, -0.144807, -0.103012, 0.007868, -0.235773, -0.064192, 
    0.160656, -0.106617, 0.098635, 0.213518, 0.003943, 0.103831, 0.204364, 0.230148, 0.094249, 0.017867, 
    0.091489, 0.028768, -0.182280, 0.030340, -0.042998, -0.185663, -0.020857, -0.135325, -0.003894, -0.032558, 
    -0.005894, 0.059740, -0.086777, -0.054361, 0.074603, 0.020928, 0.038123, -0.057221, -0.156843, -0.056607, 
    0.118490, -0.008837, 0.050499, 0.047648, 0.014517, 0.008205, -0.063162, 0.025471, 0.004284, -0.017442, 
    0.097322, -0.005504, -0.124028, -0.006238, -0.018798, -0.022064, 0.011816, 0.006906, -0.073892, -0.010665, 
    0.023020, 0.033043, -0.028258, -0.022339, -0.057669, 0.001507, -0.004210, -0.027106, 0.126421, 0.043914, 
    -0.045808, -0.017460, -0.027858, 0.005724, -0.031710, -0.012408, -0.003999, -0.006927, 0.016703, 0.045372, 
    0.026472, 0.033212, 0.013967, -0.029254, -0.009373, -0.062535, -0.043416, -0.033558, -0.020355, -0.120355, 
    -0.062834, -0.001891, -0.070123, -0.041962, 0.047251, 0.008519, 0.057657, 0.010152, -0.010135, -0.037870, 
    -0.021532, 0.033504, -0.058211, 0.014670, 0.035033, 0.005922, -0.007864, 0.014168, -0.011424, 0.007459, 
    -0.280043, -0.437181, 0.064029, -0.201855, -0.016732, -0.170356, -0.149084, -0.063408, -0.068694, -0.082488, 
    0.258312, 0.126217, -0.065685, 0.141436, 0.165741, -0.032548, -0.108215, -0.087179, 0.019281, 0.051400, 
    -0.057855, 0.173083, 0.189154, 0.163636, 0.177862, 0.053827, 0.045302, 0.002288, -0.071709, 0.011705, 
    0.094553, -0.094932, -0.112363, 0.111615, -0.020969, -0.078988, 0.036190, -0.057126, -0.042875, -0.040684, 
    -0.061879, 0.045628, 0.016040, -0.004745, 0.000451, 0.088529, -0.064049, -0.038488, 0.148865, -0.077699, 
    0.000833, 0.026045, -0.101700, -0.005399, 0.132182, -0.129907, 0.062687, 0.086483, -0.206123, 0.101122, 
    0.027777, -0.144173, 0.063854, 0.014107, -0.124296, 0.050479, -0.021175, -0.130487, 0.128337, -0.054102, 
    -0.112836, 0.105525, -0.106125, 0.018755, 0.008341, -0.010329, 0.037479, 0.024743, -0.054890, 0.047402, 
    -0.007863, -0.075081, 0.099457, -0.079533, -0.003842, 0.080532, -0.043381, -0.123499, 0.183609, -0.080480, 
    -0.104204, 0.154517, -0.067642, -0.045646, 0.101370, -0.091834, -0.010238, 0.086992, -0.091175, -0.032794, 
    0.078619, -0.114471, 0.052162, -0.012990, -0.025054, -0.010861, 0.028462, -0.046208, 0.014343, 0.007754, 
    0.017068, 0.028719, 0.004444, 0.043210, -0.035686, -0.024806, -0.014321, -0.004839, 0.006344, -0.009341, 
    -0.165816, -0.133967, -0.030762, 0.275343, 0.089610, -0.407508, -0.053689, -0.097298, 0.345091, -0.264907, 
    -0.284725, 0.123642, 0.102804, 0.131283, 0.007699, -0.050510, 0.163563, 0.052826, -0.007539, 0.114916, 
    -0.043626, 0.050831, -0.007987, -0.147832, -0.014285, 0.004880, -0.207674, -0.312786, 0.065664, -0.070685, 
    -0.011543, -0.023303, 0.080521, 0.030064, -0.124425, 0.061277, 0.029195, -0.009005, 0.104865, 0.074459, 
    0.016015, 0.024265, 0.010145, 0.003610, 0.041359, -0.026016, -0.020452, 0.071646, 0.029027, 0.037301, 
    -0.096753, 0.144112, 0.043434, -0.068651, 0.068096, 0.091082, 0.045075, -0.011773, 0.028225, 0.094025, 
    -0.004806, -0.084189, -0.027585, 0.034492, 0.015788, 0.077225, 0.077076, -0.012056, 0.051132, 0.011964, 
    -0.002376, -0.046529, 0.031300, 0.006187, -0.012194, -0.102820, -0.052650, 0.082230, -0.029762, -0.023812, 
    -0.013382, 0.014831, 0.118149, 0.053640, 0.023541, -0.045619, 0.058036, 0.049796, -0.002796, -0.008595, 
    -0.017693, -0.024598, -0.050647, 0.033538, 0.011720, 0.006018, 0.010763, 0.052788, 0.023416, 0.032314, 
    0.035194, -0.036349, 0.078367, -0.011865, -0.010106, 0.044387, -0.000054, -0.052129, -0.070339, -0.012018, 
    0.081940, 0.047655, -0.027607, -0.034044, 0.003274, -0.027963, 0.048609, -0.062481, 0.072191, 0.092954, 
    -0.047871, 0.069410, 0.252106, 0.158180, -0.141728, -0.281036, -0.048849, 0.167321, 0.309088, 0.287342, 
    0.120309, -0.088635, 0.078500, -0.105453, -0.127074, -0.202866, -0.037834, 0.041445, -0.092335, -0.069376, 
    -0.033085, 0.014388, 0.088821, 0.032120, -0.022505, -0.108957, 0.016393, -0.201442, 0.004889, 0.016321, 
    -0.023256, -0.077135, -0.030313, 0.092945, 0.003563, -0.018326, 0.018253, 0.100516, 0.117698, 0.068271, 
    -0.000635, 0.090347, -0.004187, -0.071581, -0.131241, -0.038834, -0.037979, 0.020223, 0.072163, 0.030354, 
    0.041477, -0.016067, 0.025189, 0.032505, 0.007800, -0.021594, -0.028970, 0.026632, -0.013053, -0.071502, 
    -0.002070, -0.015657, -0.014017, 0.008362, -0.030794, -0.035208, 0.044020, 0.027040, -0.010983, -0.080809, 
    -0.014946, 0.019878, 0.034413, 0.029247, 0.000550, -0.029263, 0.018781, 0.011180, -0.048058, 0.017482, 
    0.024237, -0.071233, 0.011172, 0.085259, -0.063972, -0.059657, 0.012519, -0.036454, -0.030238, -0.020903, 
    -0.053010, -0.004098, -0.024674, -0.023465, -0.024261, 0.047282, -0.029086, 0.006842, -0.042785, -0.018996, 
    -0.000232, -0.070842, 0.059087, 0.026668, -0.041586, 0.018190, 0.012720, -0.020250, -0.079812, -0.030458, 
    0.032851, -0.041734, 0.059245, 0.033815, 0.030282, -0.012708, 0.021109, -0.046244, -0.014018, 0.039003, 
    -0.172771, -0.049827, 0.082503, 0.021927, 0.190762, 0.243527, 0.047263, 0.161236, 0.280648, -0.077341, 
    -0.082837, 0.057375, 0.004952, -0.008674, -0.052146, -0.045910, 0.029926, 0.069955, 0.031939, 0.017471, 
    0.004056, 0.090894, 0.040930, 0.005108, -0.058451, -0.027350, -0.084812, 0.081433, -0.055422, -0.114959, 
    0.070217, 0.029147, 0.078620, -0.085635, 0.028504, -0.025942, 0.019897, -0.013282, -0.013691, 0.045210, 
    -0.007353, 0.001678, -0.019207, -0.054564, -0.118852, -0.076362, -0.130510, -0.028753, -0.058801, 0.011628, 
    0.025177, 0.019416, -0.027325, 0.104458, 0.028910, 0.040514, -0.052616, -0.020325, 0.006529, 0.116039, 
    0.094243, 0.022484, 0.028386, -0.023762, 0.003442, 0.049563, 0.016599, 0.027165, 0.026029, 0.034828, 
    0.024033, -0.018300, 0.032229, 0.043960, 0.071012, 0.051750, 0.068444, -0.050227, 0.097465, -0.035670, 
    0.006564, 0.119609, 0.107142, -0.076130, 0.013462, -0.080996, -0.061515, -0.095758, -0.012374, 0.000454, 
    0.018880, 0.001006, 0.058793, -0.078902, -0.027220, -0.025472, 0.053824, -0.006167, -0.049503, 0.000288, 
    -0.050986, -0.002956, -0.014128, -0.083176, -0.025969, -0.024749, -0.041010, -0.021572, 0.034425, 0.043790, 
    0.002322, 0.102001, 0.075633, 0.031890, -0.023204, 0.003782, 0.049383, 0.094184, 0.038296, 0.004128, 
    -0.102085, 0.015751, 0.013703, 0.169404, 0.030849, -0.068930, -0.049703, -0.119310, 0.011423, 0.119865, 
    0.113042, 0.156408, 0.044863, 0.141626, 0.115666, 0.130065, 0.122650, 0.039903, -0.074702, -0.128102, 
    -0.108177, -0.064644, -0.033980, -0.064810, 0.022347, 0.009427, -0.064367, -0.002454, 0.032398, 0.112949, 
    -0.022562, -0.031374, -0.041705, -0.126332, -0.186988, -0.155693, -0.201585, -0.148947, -0.018888, -0.024481, 
    -0.035220, 0.017596, 0.028432, 0.058431, 0.045732, 0.046810, 0.040458, 0.157375, 0.019693, -0.103445, 
    0.011112, 0.016109, 0.009889, -0.002501, 0.057031, -0.071382, -0.066029, 0.026580, 0.009041, 0.003568, 
    0.090239, 0.005572, 0.005897, -0.024457, 0.040030, -0.016286, 0.065580, -0.005223, -0.037839, 0.014784, 
    -0.051588, -0.009517, 0.109581, 0.026212, 0.010758, -0.139322, -0.038716, 0.127366, -0.044212, -0.046094, 
    0.103681, 0.015467, 0.104282, 0.042188, -0.072829, 0.009157, -0.135656, 0.074365, -0.061183, -0.028099, 
    0.029935, 0.018937, -0.107372, 0.017299, -0.073711, 0.080528, -0.118820, 0.002445, -0.007530, 0.051410, 
    0.023010, 0.147551, 0.073322, 0.000301, 0.043825, 0.036290, 0.065427, -0.091807, -0.008037, -0.080402, 
    -0.029604, -0.106716, -0.039599, 0.053683, -0.044617, -0.047852, 0.011348, 0.058344, -0.012190, -0.010865
    
};

// PyTorch Layer: conv1.bias (Shape: (20,))
static const data_t conv1_b[20] = {
-0.369905, -0.171106, -0.344442, -0.304459, -0.444129, -0.501119, -0.240971, -0.222834, -0.303068, -0.530057, 
    -0.521243, -0.396313, -0.448043, -0.609024, -0.565954, -0.368217, -0.378991, -0.681833, -0.426763, -0.382266
    
};

// PyTorch Layer: conv2.weight (Shape: (40, 20, 3))
static const data_t conv2_w[2400] = {
0.032203, -0.026033, -0.529361, 0.276880, 0.066657, 0.388101, 0.483170, 0.345456, 0.310351, -0.259214, 
    -0.246938, -0.332047, -0.539412, -0.312990, -0.366015, -0.295234, -0.123097, -0.142026, 0.389439, 0.139820, 
    0.387512, 0.436893, 0.086821, 0.094993, 0.152502, 0.230532, -0.173122, -0.015675, -0.252525, -0.179609, 
    0.821791, 0.504702, 0.412271, -0.557971, -0.510215, -0.522625, 0.550232, 0.562186, 1.102074, -0.238842, 
    0.305118, 0.007440, -0.399712, -0.364579, -0.507247, 0.079273, 0.068182, -0.329181, -0.189281, -0.588482, 
    -0.762869, 0.004549, 0.144033, 0.218526, 0.256155, 0.316380, 0.289564, 0.195538, 0.322027, 0.223633, 
    0.573545, 0.274978, 0.433518, -0.191868, -0.027441, 0.285325, 0.996406, 0.628719, 0.803170, -0.353858, 
    -0.300455, -0.456075, -0.601430, -0.632576, -0.798165, 0.152236, 0.113736, 0.522568, 0.506999, 0.250711, 
    0.255262, -0.417367, -0.400553, -0.379469, 0.181463, 0.086918, -0.359822, -0.222542, 0.213112, 0.324374, 
    -0.304255, 0.307462, 0.354352, -0.591226, -0.352520, -0.168659, 0.107950, 0.432919, 0.316586, -1.186198, 
    -0.861200, -0.911157, 0.148214, 0.933418, 0.582518, -0.277274, -0.179553, -0.406278, 0.282131, 0.080262, 
    0.123401, -0.504660, -0.449452, -0.338296, 0.725613, 0.346282, 0.435032, 0.704747, 0.675000, 0.428390, 
    -0.452879, -0.487769, -0.154359, -0.077682, 0.240516, 0.467805, -0.209461, -0.115197, -0.011372, 0.820933, 
    0.827280, 0.186749, 0.262316, 0.244026, 0.487169, -0.233354, -0.192046, -0.269343, -0.051883, 0.025554, 
    0.183167, -0.603337, -0.668460, -0.771701, 0.892229, 0.332427, 0.584501, -0.343835, -0.022313, -0.021197, 
    0.324541, 0.637511, 0.618248, -0.569163, -0.138991, 0.410958, -0.302985, -0.017166, 0.083811, -0.194095, 
    -0.360135, -0.603174, 0.307742, 0.120369, -0.572103, -0.839230, -0.708132, -0.640510, 0.148012, -0.108269, 
    -0.078413, -0.053378, 0.339583, 0.557501, 0.209782, -0.125224, 0.163558, 0.081827, -0.183584, -0.037375, 
    -1.055773, -0.214064, -0.340171, 0.219216, -0.057300, 0.307396, -0.480390, 0.008685, -0.293033, 0.178912, 
    0.398839, 0.530007, 0.182374, 0.570869, 0.735868, -0.800055, -0.479787, -0.552694, -0.122142, -0.329702, 
    -0.096771, 0.773833, 0.075549, -0.037119, 0.644970, 0.939667, 0.339331, -0.141237, -0.158183, -0.406110, 
    0.438285, 0.572236, 0.796913, 0.628852, -0.143006, -0.836996, -0.423493, -0.348535, -0.609844, 0.499506, 
    0.628893, 1.116073, -0.459621, -0.067717, 0.198168, -0.378170, -0.810465, -0.854716, -0.219180, -0.410547, 
    -0.519383, -0.409361, 0.046745, -0.213367, -0.461957, -0.311004, 0.141540, -0.350160, -0.179304, -0.122740, 
    -0.357165, -0.215212, -0.190702, 0.343925, 0.437620, 0.305195, 0.038452, 0.228934, -0.235522, 0.458344, 
    0.511584, 0.523294, -0.367555, -0.527646, -0.357024, -0.512946, -0.647314, -0.640893, 0.111879, -0.064761, 
    0.307618, -0.469425, -0.240707, -0.266245, 0.605521, 0.717501, 0.489063, -0.558023, -0.609861, -0.404073, 
    1.168936, 0.834593, 0.877137, -0.398912, -0.286993, -0.169403, 0.292085, 0.138649, 0.507064, -0.091089, 
    0.288346, -0.055099, -0.251352, -0.408878, -0.739288, -0.214101, -0.397272, -0.593809, -0.639015, -0.642145, 
    -0.465598, 0.452551, 0.314211, 0.445873, 0.175211, 0.102296, 0.641732, 0.330723, -0.109017, 0.175325, 
    0.750582, 0.491746, 0.291073, -0.586390, -0.683531, -0.847855, 0.068979, 0.231598, 0.655359, -0.650011, 
    -0.526404, -0.557570, -0.354123, -0.043839, -0.332986, 0.185544, 0.547829, 0.383661, 0.567382, 0.145185, 
    0.730399, -0.033889, -0.468473, -0.223472, -0.976785, -0.331383, -0.534076, 0.068470, -0.443846, 0.379948, 
    -0.304475, -0.245387, -0.053089, -0.084888, 0.003359, -0.482731, 0.619891, 0.322885, 0.298918, 0.362669, 
    0.415212, 0.584966, -0.016339, -0.197407, -0.080009, 0.397532, 0.609778, 1.346591, 0.055364, 0.248225, 
    -0.005441, -0.072378, -0.159372, -0.456106, 0.419924, 0.535376, 0.213806, 0.207693, 0.392174, 0.038045, 
    -0.482963, -0.393873, -0.113200, -0.131721, -0.337980, -1.024747, 0.436496, 0.489428, 0.334501, 0.473864, 
    0.542649, 0.544080, 0.390764, -0.071199, -0.248388, -0.118529, 0.041960, -0.426128, -0.143541, -0.114419, 
    -0.178276, -0.635168, -0.149420, -0.400737, -0.614381, -0.419079, 0.008869, 0.300888, 0.863447, 0.574065, 
    -0.372985, -0.506321, -0.419218, 0.488331, 0.267250, -0.305970, 0.116626, -0.020016, -0.307413, -0.796345, 
    -0.843200, -0.943190, 0.347502, 1.045875, 0.826533, -0.075953, 0.118818, -0.242279, 0.483940, 0.612158, 
    0.415089, 0.930592, 0.481440, 0.594247, 0.377216, 0.432465, 0.375349, -0.530074, -0.083557, -0.242627, 
    0.088767, 0.256890, 0.246296, 0.573616, 0.482442, 0.585296, 0.360235, 0.421099, 0.270217, 0.112621, 
    0.090509, 0.051912, -0.614638, -0.532967, -0.561929, -0.364484, -0.081673, -0.190329, -0.178454, 0.176509, 
    -0.359751, 0.017621, -0.021269, 0.047669, 0.581485, 0.898917, 0.737127, -0.318567, -0.300680, -0.621891, 
    1.013892, 0.734897, 0.528765, -0.644841, -0.662878, -0.585234, 0.081780, 0.291857, 0.477502, -0.234736, 
    0.066726, -0.225074, -0.214196, -0.256518, -0.355024, -0.221445, -0.327630, -0.504856, -0.482477, -0.564736, 
    -0.526981, -0.403689, -0.210555, -0.193389, 0.091901, 0.245446, 0.481411, 0.305457, 0.239641, 0.347811, 
    0.134565, 0.591528, 0.398115, 0.009443, 0.167520, 0.178513, 0.540312, 0.744124, 0.545112, -0.243394, 
    -0.198901, -0.445392, 0.039306, 0.186657, 0.101701, 0.465865, 0.166122, 0.606105, -0.439807, -0.716202, 
    -0.684101, 0.957386, 0.714865, 0.773455, -0.149319, -0.143470, -0.241382, 0.085629, 0.074010, 0.105568, 
    -0.400723, -0.273830, -0.532144, 0.124264, 0.157279, 0.164470, -0.593984, -0.525994, -0.428514, -0.292013, 
    -0.537794, -0.400520, -0.170026, -0.000832, 0.188887, 0.029660, 0.153745, 0.078411, 0.181318, 0.418900, 
    0.188589, -0.149393, 0.103317, -0.011216, -0.374397, 0.033527, -0.226255, -0.303874, -0.330180, -0.489163, 
    -0.557003, 0.145213, -0.271856, 0.581530, 0.017051, 0.261128, -0.160799, -0.192394, -0.218513, 0.007536, 
    0.004134, -0.229232, 0.076027, 0.053863, -0.084031, -0.838749, -0.550139, -0.786801, 0.124151, 0.485931, 
    0.412688, 0.448100, 0.211353, 0.419816, 0.235414, 0.599337, -0.126674, -0.301043, -0.381764, -0.410277, 
    0.653007, 0.444226, 0.565540, -0.306955, -0.300111, -0.323419, 0.130664, 0.400004, 0.587310, 0.385301, 
    1.022045, 1.202822, -0.688949, -0.592463, -0.343421, 0.274783, -0.246430, -0.121524, -0.775608, -0.708977, 
    -0.938715, 0.126042, -0.151893, -0.262670, -0.115570, 0.016959, -0.086680, 0.234459, 0.125689, -0.016297, 
    -0.529871, -0.329493, -0.197855, -0.009290, 0.257544, 0.221039, -0.412388, -0.215477, -0.492706, 0.624684, 
    1.101555, 0.590611, 0.434064, 0.271126, 0.907310, -0.625008, -0.573706, -0.775995, -0.191083, 0.056318, 
    0.011942, -0.234518, -0.346184, -0.518496, 1.000095, 0.503290, 0.642932, -0.342481, -0.273208, -0.151277, 
    0.535027, 0.559356, 0.680686, 0.435750, -0.008655, 0.228138, -0.487926, -0.373333, -0.393818, 0.323709, 
    0.660322, 0.772230, 0.085222, 0.099231, 0.046548, -0.417732, -0.635528, -0.737687, -0.256354, -0.209331, 
    -0.239257, -0.131201, -0.188631, 0.188908, -0.355078, -0.359979, 0.062992, -0.197363, -0.391151, -0.354783, 
    -0.777736, -0.834060, -0.496298, -0.491858, -0.298667, -0.060292, -0.021864, 0.243453, 0.517516, 0.203531, 
    0.319518, 0.182672, -0.227655, -0.121219, 0.057072, 0.395965, 0.131712, 0.366503, 0.282414, 0.460205, 
    0.126624, -0.832490, -0.825545, -0.886940, 0.021319, -0.020686, 0.026747, 0.844369, 0.836760, 0.909387, 
    -0.197019, 0.066856, 0.289192, -0.508818, -0.318041, -0.143798, 0.051303, 0.523785, 0.458255, -0.897618, 
    -1.016509, -1.131501, 0.471862, 0.695952, 0.443519, -0.504681, -0.252823, -0.207538, 0.344629, 0.347298, 
    0.219556, 1.114184, 0.864931, 1.027363, 0.756607, 0.362118, 0.637720, 0.740446, 0.500733, -0.126832, 
    0.048654, 0.124410, 0.085739, -0.439924, -0.475053, -0.550498, -0.370834, -0.280502, -0.088449, -0.259903, 
    -0.132025, -0.211678, -0.344988, -0.228877, -0.235608, 0.259122, 0.124967, -0.117647, 1.045251, 0.779612, 
    1.006297, -0.200298, -0.443872, -0.223120, -0.507816, 0.157124, -0.111486, -0.230044, 0.068249, 0.229956, 
    0.661221, -0.010826, 0.211853, -0.290305, -0.307668, -0.394324, 1.215765, 0.286054, 0.566731, -0.088458, 
    0.069152, -0.050454, -0.378159, -0.586991, -0.736245, 0.723567, 0.817157, 0.872378, 0.117144, -0.102846, 
    -0.463309, 0.235196, -0.130237, 0.167729, 0.065640, 0.231363, -0.039196, -0.001164, 0.635664, 0.180460, 
    0.101195, -0.053994, 0.045898, 0.240225, 0.236916, -0.254016, 0.372024, 0.320488, 0.337256, 0.086339, 
    0.386470, 0.305991, 0.520473, 0.413495, 0.315188, -0.173190, -0.141531, -0.522541, -0.364002, -0.135889, 
    -0.276118, -0.333938, 0.181806, -0.193464, -0.458328, -0.463962, 0.122752, -0.075390, 0.119071, 0.210133, 
    -0.265242, -0.458042, -0.723311, 0.624575, 0.348062, 0.595647, -0.491869, -0.452092, -1.067305, -0.471805, 
    -0.651874, -0.636293, 0.515568, 1.151456, 1.098118, -0.092461, -0.092410, -0.363287, 0.630074, 0.449004, 
    0.497729, -0.043038, -0.101908, -0.433982, -0.157733, -0.094411, -0.279317, -0.757818, -0.276387, -0.228048, 
    0.368682, 0.206664, 0.663335, 0.244411, 0.607327, 0.322791, 0.515655, 0.159601, 0.062099, -0.143665, 
    -0.080913, -0.092167, 0.188409, 0.567460, 0.456635, -0.275025, -0.119037, -0.108722, -0.480258, -0.470681, 
    -0.464082, 0.552439, 0.835583, 0.043666, -0.427867, -0.247558, 0.016410, -0.246730, -0.096469, -0.531502, 
    -0.471314, -0.504368, -0.912517, 0.403802, 0.238624, 0.666679, -0.829844, -0.614240, -1.024726, -0.028701, 
    -0.321104, -0.292288, 0.627064, 0.629608, 0.949369, 0.092444, 0.065520, -0.118564, 0.573596, 0.584679, 
    0.237517, -0.333138, -0.218980, -0.411808, -0.216233, -0.277613, -0.495956, -0.709305, -0.303297, -0.276906, 
    0.281226, 0.367037, 0.361051, 0.254150, 0.092229, -0.219949, 1.084842, 0.465550, 1.023272, -0.517141, 
    -0.422689, -0.579207, -0.613516, -0.541982, -0.470224, 0.710167, 0.554087, 0.713714, -0.634238, -0.480005, 
    -0.228162, 0.577534, 0.165040, -0.120452, -0.609431, -0.416570, -0.650194, 0.457488, 0.356052, 0.452441, 
    -0.032229, -0.015440, -0.278392, -0.384304, -0.235160, -0.238720, 0.362018, 0.365984, 0.206639, -0.450935, 
    -0.424310, -0.389030, 0.462953, 0.385769, 0.431794, -0.089527, 0.023051, -0.012821, 0.058932, 0.198708, 
    0.123142, -0.224935, -0.058215, -0.142719, 0.391389, 0.711440, 0.657139, -0.072104, 0.024631, -0.022798, 
    0.048460, 0.360029, 0.401529, 0.887252, 0.490193, 0.614619, 0.244273, 0.006874, -0.639985, 0.274254, 
    0.428001, 0.078820, 0.054980, 0.197571, -0.114433, -0.468852, -0.388067, -0.741785, -0.294508, -0.078084, 
    -0.412335, -0.009180, 0.078470, -0.174304, 1.165174, 0.487670, 0.881409, -0.797518, -0.577154, -0.500536, 
    0.264401, 0.900788, 0.447548, 0.059327, -0.168509, -0.435737, -0.570203, -0.579875, -0.195537, 0.150327, 
    0.536736, 0.012045, 0.126140, -0.169797, -0.076980, -0.398037, -0.349948, -0.240767, -0.528486, -0.397192, 
    -0.054930, -0.774569, -0.726232, -0.958229, -0.250436, -0.186415, 0.279847, 0.161333, 0.008338, 0.074319, 
    0.927952, 1.238353, 0.554748, 0.651922, 0.065058, 0.517794, 0.313782, 0.205442, -0.056451, -0.308860, 
    -0.333051, -0.674392, -0.432760, -0.192105, -0.227777, 0.097019, 0.226683, 0.264981, -0.704844, -0.447713, 
    -0.663220, 0.812095, 0.247955, 1.199905, 0.398383, 0.420218, -0.402990, -0.317251, -0.480692, -0.707646, 
    0.340758, 0.199648, 0.371519, -0.432743, -0.141023, -0.263242, -0.207508, 0.247347, 0.266199, 0.526398, 
    0.486996, -0.542780, -0.031100, -0.482643, -0.331542, 0.378231, -0.142539, 0.205234, -0.434180, -0.225497, 
    -0.219262, -0.958144, -0.623918, -0.823694, -0.134679, -0.056672, -0.268801, -0.003171, 0.012647, 0.011705, 
    -0.664100, -0.190184, -0.474680, 0.184028, 0.152981, -0.107449, -0.354208, -0.208877, -0.093409, 0.640607, 
    0.214283, 0.644534, 0.421108, 1.015514, 0.715164, -0.382582, -0.206260, -0.221329, -0.108227, -0.072945, 
    0.099561, 0.244603, -0.114614, -0.191653, 0.342716, 0.155327, 0.074947, -0.429343, -0.175856, -0.116683, 
    -0.238628, -0.261049, -0.288382, 1.131991, 0.881433, 0.568615, -0.665086, -0.760089, -0.833010, 0.170033, 
    0.628210, 0.853006, 0.300064, 0.154619, 0.256582, -0.167342, -0.067064, -0.191481, -0.086219, 0.022703, 
    -0.076118, -0.230628, -0.140022, -0.183044, -0.575645, -0.412781, -0.418747, -0.716716, -0.671728, -0.608563, 
    0.936416, 0.452432, 0.458302, -0.481101, -0.555855, -0.351257, 0.460403, 0.559298, 0.536012, -0.453141, 
    -0.394154, -0.404283, -0.041487, -0.244998, -0.424468, 0.518018, 0.133112, 0.235564, 0.258670, -0.189452, 
    0.076870, -0.415715, -0.308217, 0.412081, -0.803159, -0.575315, -0.872911, 0.210983, 0.101645, 0.102772, 
    -0.561675, -0.177361, -0.143711, -0.060635, 0.007341, -0.194868, -0.189793, 0.035089, -0.070745, 0.219083, 
    0.241582, 0.101300, 0.290906, 0.034640, 0.615554, -0.170331, 0.584245, 0.716412, 0.086734, 0.680336, 
    0.422711, -0.232697, -0.270415, -0.617886, 0.049816, 0.313376, -0.036478, 0.087091, -0.068195, -0.456787, 
    0.072417, -0.003033, 0.392797, 0.487252, 0.553753, 0.426089, -0.489158, -0.398361, -0.295547, -0.036574, 
    -0.083897, -0.405153, 0.273115, 0.207712, 0.674201, -0.196938, -0.171059, -0.216953, 0.343253, 0.399097, 
    0.416703, -0.419915, -0.545396, -0.685910, 0.665122, 0.174199, 0.188131, -0.588377, -0.255693, -0.120752, 
    -0.052946, -0.322348, -0.293709, 0.915473, 0.434439, 1.013758, -0.328202, -0.395511, -0.355713, -0.003093, 
    0.680650, 0.478966, -0.307099, 0.166954, -0.446636, 0.187160, -0.230543, 0.045392, 0.206412, 0.136925, 
    0.311233, -0.771887, -0.713754, -0.621312, -0.627210, -0.728135, -0.354807, 0.278921, -0.079916, -0.218229, 
    -0.103182, 0.028603, 0.135051, 0.286677, 0.139307, 0.171917, 0.540556, 0.769330, 0.558465, -0.141366, 
    -0.287093, -0.404976, -0.709348, -0.519173, -0.376225, 0.468980, 0.188681, 0.581549, -0.880730, -0.590597, 
    -0.490827, 0.356796, 0.205672, 0.245895, 0.365484, 0.283214, 0.179997, 0.136904, 0.118481, 0.083483, 
    0.501805, 0.592952, 0.220102, -0.538451, -0.399174, -0.420734, 0.287225, 0.207148, 0.190567, -0.254215, 
    -0.208646, -0.282863, -0.013939, -0.118859, -0.353001, -0.147981, -0.252017, -0.266642, -0.202839, -0.026949, 
    0.057432, -0.406570, -0.392142, -0.259273, 0.195317, 0.777421, 0.675680, -0.021232, 0.215773, 0.074997, 
    0.175456, -0.139574, 0.156304, -0.375073, -0.159191, -0.093448, 0.357703, 0.372340, 0.478042, -0.136049, 
    -0.062940, -0.130382, -0.428128, -0.411914, -0.484830, -0.107124, 0.019218, 0.265601, 0.770863, 0.771380, 
    0.275634, -1.015535, -0.827204, -0.919470, 0.291703, 0.157043, 0.269331, -0.093907, 1.052477, 0.869427, 
    -0.617963, -0.109212, -0.046333, -0.321050, -0.528159, -0.345244, 0.449717, 0.376649, 0.310865, -1.096922, 
    -1.023991, -1.117281, 0.532750, 0.875935, 0.861518, 0.163171, 0.027004, -0.049993, 0.728665, 0.258246, 
    0.232253, 0.303180, -0.003001, -0.196940, 0.388085, -0.214859, 0.150041, 0.587138, 0.658562, 0.649556, 
    -0.709648, -0.698116, -0.678053, -0.653118, 0.063208, -0.527169, 0.039159, 0.445713, 0.682875, 0.190550, 
    0.123956, 0.091990, -0.057508, -0.011370, -0.156682, 0.443611, 0.201665, 0.272762, -0.252280, -0.373320, 
    -0.498037, 0.245818, 0.312472, 0.264974, 0.047081, 0.025297, -0.031518, 0.610803, 0.661617, 0.789621, 
    -0.065300, -0.270265, -0.154206, -0.337814, -0.024757, -0.322360, -0.483881, -0.015208, -0.071752, -0.357166, 
    -0.327944, -0.136236, -0.138014, -0.432350, -0.552123, -0.466599, -0.208687, -0.246528, 0.107288, -0.298753, 
    0.068389, 1.291715, 1.040036, 1.204448, 0.712392, 0.612754, 0.796982, -0.210018, -0.176964, -0.228794, 
    -0.005387, -0.185896, -0.200511, 0.097827, -0.040973, -0.699291, 0.994151, 1.101794, 0.687342, -0.210024, 
    -0.271575, -0.298088, -0.281774, -0.042649, -0.399847, 1.017220, 0.363476, 0.569365, -0.575629, -0.648734, 
    -0.381160, 0.336088, 0.408987, 0.313872, -0.500897, -0.539233, -0.542267, 0.618829, 0.851178, 0.829777, 
    -0.393572, -0.373759, -0.424029, 0.024710, -0.071102, -0.522223, -0.057507, 0.305968, -0.025589, -0.602424, 
    -0.472690, -0.376684, -0.023569, 0.083881, 0.428922, -0.085438, 0.115651, -0.089815, 0.262668, 0.347413, 
    0.356458, 0.475773, 0.526066, 0.018405, 0.674645, 0.563607, 1.056802, -0.338726, -0.296454, -0.235196, 
    -0.392407, -0.307123, -0.379306, -0.255327, -0.389100, -0.372781, 0.094082, 0.197439, 0.295117, -0.506499, 
    -0.399438, -0.337507, -0.000721, -0.058506, -0.230993, 0.637213, 0.485169, 0.483503, -0.319409, -0.266292, 
    -0.195198, 0.646394, 0.192142, 0.257067, -0.496776, -0.003999, -0.170339, 0.567509, 0.003053, 0.480513, 
    0.034106, -0.353751, -0.245800, -0.586294, -0.543188, -0.698360, 0.655949, 0.334128, 0.646539, 0.298869, 
    0.382299, 0.335587, -0.769241, -0.519252, -0.438073, 0.381304, 0.479676, 0.589957, -0.064195, 0.144286, 
    -0.063929, 0.645533, 0.329827, 0.326961, 0.067646, 0.883078, 0.376195, -0.158773, 0.028163, -0.183123, 
    -0.332804, -0.533231, -0.156226, -0.886338, -1.028169, -1.043511, -0.359061, -0.265847, 0.034737, -0.007875, 
    0.010693, 0.019057, -0.140230, -0.134691, 0.191216, 0.613425, 0.513199, 0.414999, 0.937886, 0.370158, 
    0.746425, -0.012715, -0.340754, -0.393061, -0.589028, -0.115265, -0.185807, 0.424330, 0.449924, 0.696879, 
    -0.653528, -0.470183, -0.405103, -0.065587, -0.133270, -0.409249, 0.412180, -0.065279, 0.412290, 0.209811, 
    0.218318, 0.469540, -0.585832, -0.413788, -0.417902, 0.531037, 0.773421, 0.892304, -0.382584, 0.050809, 
    -0.002475, 0.682665, 0.981864, 0.921849, 0.014918, 0.221228, 0.032507, 0.226553, 0.261413, -0.092741, 
    -0.846163, -0.634234, -0.416651, 0.032999, -0.159142, -0.886820, 0.813381, 0.865522, 0.488976, 0.356822, 
    0.277507, 0.223470, -0.224401, -0.304716, -0.478430, 0.390679, 0.063280, -0.073568, -0.240318, -0.336876, 
    -0.355325, -0.180847, 0.106069, -0.125233, -0.369461, -0.493061, -0.224462, 0.967421, 1.039732, 0.801959, 
    -0.390901, -0.281549, -0.165397, 0.136272, 0.046514, -0.550186, 0.221701, 0.249123, -0.004075, -0.761484, 
    -0.754733, -0.796935, 0.231459, 0.531020, 0.519028, -0.136256, 0.008509, -0.481096, 0.167597, 0.369666, 
    0.330433, 1.426111, 0.748540, 0.740051, 0.963699, 1.138593, 1.294161, -0.293023, 0.057022, -0.048738, 
    -0.656821, -0.356022, -0.939127, -0.116769, -0.462893, -0.566227, -0.198346, -0.553215, -0.809471, 0.015256, 
    -0.207138, 0.144725, 0.394358, 0.503474, 0.379277, -0.410238, -0.165423, -0.298203, 0.111980, 0.061262, 
    0.770531, 0.702127, 0.141354, 0.615544, 0.289810, 0.341236, 0.040620, 0.073587, 0.024461, -0.058833, 
    0.690171, -0.021797, 0.042230, -0.134603, 0.125733, 0.081186, 0.358739, -0.047260, 0.157649, 1.059106, 
    1.359519, 1.166771, -0.746635, -0.574468, -0.484105, -0.231689, -0.325427, -0.133788, -0.744943, -0.830982, 
    -0.816504, 1.332333, 0.514797, 0.473581, -0.164413, 0.120530, -0.026959, -0.178728, -0.011333, -0.135153, 
    -0.007193, 0.062314, 0.076438, 0.464850, 0.439551, 0.554199, 0.567586, 0.420409, 0.532892, -0.009896, 
    0.037668, -0.033729, -0.769166, -0.609587, -0.621013, -0.186024, -0.046220, 0.019030, -0.158272, 0.246106, 
    -0.282754, 0.069152, -0.093643, 0.002099, 0.571384, 0.822165, 0.707171, -0.197233, -0.245395, -0.634768, 
    1.095425, 0.724297, 0.466526, -0.657735, -0.613922, -0.583043, 0.190021, 0.435610, 0.434192, -0.342791, 
    -0.234556, -0.452897, -0.136623, -0.194367, -0.336939, -0.286541, -0.320236, -0.518050, -0.444432, -0.540587, 
    -0.523350, -0.488628, -0.197746, -0.093986, 0.361579, 0.402027, 0.574381, 0.269492, 0.317512, 0.438396, 
    0.286717, 0.795671, 0.843127, -0.000588, -0.348980, -0.374072, -0.569979, -0.147412, 0.048075, -0.298994, 
    -0.186721, -0.301960, -0.110729, 0.051833, 0.197340, -0.040353, 0.186723, 0.421567, 0.331344, -0.289516, 
    -0.155333, 0.462868, -0.017090, 0.592883, -0.534677, -0.223516, -0.327245, -0.610735, -0.253533, -0.678051, 
    0.057890, -0.168795, -0.201844, 0.279520, 0.215498, 0.432185, -0.400524, -0.271840, -0.423465, 1.041033, 
    0.693891, 0.821815, -0.243314, -0.347094, -0.722417, 1.455165, 0.059222, 1.159455, -0.341428, 0.005553, 
    -0.307081, -0.621014, -0.351249, -0.316174, -0.571190, -0.087078, -0.147621, 0.026673, 0.150146, -0.202265, 
    -0.027606, -0.072356, 0.103763, 0.230817, 0.505117, 0.706500, 0.297235, 0.388326, 0.198684, 0.329737, 
    0.253688, -0.097189, -0.487876, -0.520526, -0.564941, -0.060837, -0.098753, -0.011740, 0.014015, -0.116162, 
    -0.127624, -0.511838, -0.469765, -0.461882, 0.909505, 0.517123, 0.706765, -0.517339, -0.209062, -0.386845, 
    0.775139, 0.673804, 0.450228, -0.648981, -0.607266, -0.279103, 0.089069, 0.242323, 0.028202, -0.342842, 
    -0.304710, -0.506998, 0.132671, 0.126342, -0.705502, -0.346993, -0.327709, -0.491174, -0.150029, -0.296819, 
    -0.155656, -0.338641, -0.179159, -0.041606, 0.380766, 0.102564, 0.390382, 0.534959, 0.161106, 0.394306, 
    0.297141, 0.908861, 0.314957, 0.135340, 0.029670, 0.382170, 0.442112, 0.872083, 0.693963, -0.396722, 
    -0.419544, -0.608320, -0.155381, -0.075235, -0.199636, 0.364962, 0.479779, 0.680368, -0.960899, -0.788353, 
    -0.718388, 0.987114, 0.525599, 0.995613, 0.049766, -0.002879, -0.371088, 0.026592, -0.086177, 0.044167, 
    0.144511, 0.252502, -0.120317, -0.308352, -0.160687, 0.042832, -0.041287, -0.258814, 0.172275, -0.292311, 
    -0.194541, -0.165637, -0.249346, -0.125909, -0.091265, -0.038050, -0.042915, -0.196701, -0.017131, 0.214852, 
    -0.073021, -0.451551, -0.270538, -0.342181, -0.229498, 0.364152, 0.210425, -0.216079, -0.232752, -0.386597, 
    -0.001819, 0.249010, -0.265778, -0.712250, -0.766936, -0.703898, -0.184664, -0.137160, -0.135571, 0.189846, 
    0.053305, 0.305225, 0.654406, 0.681740, 0.622197, -0.282571, 0.302314, 0.122182, 0.005071, -0.058401, 
    -0.158901, 0.370577, 0.134478, 0.501750, 0.091383, 0.033896, -0.274155, -0.035355, 0.046014, 0.045743, 
    -0.483588, -0.003129, -0.218355, 0.691072, 0.446256, 0.626534, -0.539724, -0.726306, -0.739574, 1.236661, 
    0.496924, 1.166438, -0.330767, -0.410048, 0.041958, 0.333633, 0.535283, 0.396126, -0.765590, -0.367188, 
    -0.613135, 0.418658, 0.140508, 0.272344, -0.462150, -0.191892, -0.353758, -0.249945, -0.272123, -0.526591, 
    0.193526, 0.613286, 0.112150, 0.114841, -0.061156, 0.194733, -0.069022, -0.105741, -0.203342, -0.000322, 
    0.093233, -0.252708, 0.139178, 0.136669, 0.387777, -0.652352, -0.247648, -0.418462, -0.072801, 0.482869, 
    -0.106303, -0.121826, 0.089748, 0.234715, 0.330997, 0.621528, 0.118153, -0.776810, -0.399972, -0.316903, 
    0.120414, 0.107182, 0.161486, 0.215515, 0.408686, 0.639826, -0.173387, -0.272462, -0.080719, 0.878235, 
    0.713695, 1.012665, -0.185074, -0.240922, -0.299533, 0.544632, 0.104310, 0.673103, -1.005387, -0.645023, 
    -0.708210, -0.304665, -0.407210, -0.574294, -0.639480, -0.331197, -0.595493, -0.065344, -0.148021, -0.028483, 
    0.191199, 0.307274, 0.316043, 0.502145, 0.729760, 0.250345, 0.263525, 0.028412, -0.115383, -0.187823, 
    0.060977, 0.083241, 0.058426, 0.639435, 0.574189, -0.283343, -0.065536, -0.256813, -0.373035, -0.215154, 
    -0.331540, 0.557055, 0.592557, -0.239051, -0.244323, -0.233272, 0.196889, -0.302226, -0.358388, -0.572210, 
    -0.235332, -0.468699, -0.673407, 0.502946, 0.319968, 0.977072, -0.775214, -0.747128, -1.101517, -0.108860, 
    -0.086181, 0.177829, 0.873939, 0.532186, 0.756337, -0.082020, -0.171515, -0.183763, 0.634255, 0.125320, 
    0.397023, -0.684177, -0.398808, -0.634184, -0.293894, -0.400499, -0.556087, -0.472760, -0.145791, -0.288339, 
    -0.365231, -0.387389, -0.247726, -0.084206, 0.011196, -0.733930, 0.256607, 0.328908, 0.387930, 0.275613, 
    0.735130, 0.648959, 0.593731, 0.313180, -0.001994, -0.175187, -0.109351, -0.384114, -0.095276, 0.235972, 
    0.156074, -1.047360, -0.424450, -0.381956, -0.340212, -0.329210, 0.045510, 0.041863, 0.704752, 0.489898, 
    0.020622, -0.162725, -0.201164, 0.542197, 0.548423, 0.301592, -0.130383, -0.101773, -0.318099, -0.890470, 
    -0.863048, -0.965491, 0.307666, 1.223796, 0.968758, -0.228451, -0.106840, -0.219336, 0.274405, 0.645274, 
    0.271564, 0.547046, 0.212393, 0.242931, 0.064589, 0.008276, -0.124894, -0.399515, -0.159783, -0.393501, 
    -0.377836, -0.193056, -0.051476, -0.593979, -0.460352, -0.507074, -0.438477, -0.289488, -0.345506, 0.476834, 
    0.286728, 0.039442, 0.165404, 0.121301, 0.351617, -0.067161, -0.137652, -0.450935, 0.169112, 1.053743, 
    0.920052, -0.414431, -0.312549, -0.501487, -0.107234, 0.020646, 0.053087, -0.106541, -0.141233, -0.032912, 
    0.510356, 0.272181, 0.397392, 0.216909, 0.126781, 0.258014, 0.617462, 0.213280, 0.386679, -0.157928, 
    -0.313334, -0.435984, -0.022275, -0.173980, -0.270161, 0.119698, 0.222155, 0.317082, -0.323815, -0.216854, 
    -0.293857, 0.776171, 0.555915, 0.769796, -0.113857, -0.107562, -0.072752, 0.230041, 0.092112, 0.044336, 
    0.990302, 1.240142, 1.002421, 0.259017, -0.186206, -0.140093, -0.445546, 0.058539, 0.278280, -0.441071, 
    -0.423211, -0.412635, -0.195292, 0.157276, -0.152842, -0.299205, 0.288702, 0.025579, 0.114652, 0.326807, 
    -0.176554, 0.387457, -0.190670, 0.501558, -0.808166, 0.163890, -0.028112, -0.387561, -0.480913, -0.460807, 
    0.002805, -0.026478, -0.039987, 0.322750, 0.184699, 0.243860, 0.367867, -0.209195, -0.198059, 0.442955, 
    1.174563, 0.023664, -0.124360, -0.459872, -0.581277, 0.361615, -0.010487, 1.524462, -0.500331, 0.061630, 
    -0.293915, -0.775544, -0.568448, -0.562067, -0.564145, -0.064803, -0.312303, 0.082933, 0.307592, -0.071761, 
    0.163501, -0.022389, 0.461555, 0.542455, 0.639459, 0.167019, 0.825468, 0.468953, 0.655979, -0.127741, 
    -0.114265, -0.362741, -0.300447, -0.382602, -0.392345, 0.454732, 0.236853, 0.187515, -0.487717, -0.290951, 
    -0.432977, -0.133779, 0.068811, -0.297584, 0.015989, -0.223052, 0.117669, 0.105581, 0.609454, 0.067990, 
    -0.099659, -0.010240, 0.003225, 0.011343, 0.009479, 0.051494, -0.176103, -0.065577, -0.582256, -0.817820, 
    -0.813228, -0.893741, 0.548834, 1.015632, 0.658677, -0.458076, -0.433024, -0.368748, 0.070399, 0.324107, 
    0.450942, -0.356461, -0.478194, -0.595863, 0.291565, 0.163105, 0.641483, 0.350102, 0.203138, 0.241045
    
};

// PyTorch Layer: conv2.bias (Shape: (40,))
static const data_t conv2_b[40] = {
-0.251677, 0.004277, 0.425666, 0.648368, 0.298342, -0.148545, 0.338001, -0.059987, -0.100599, 0.203169, 
    0.289876, 0.180105, -0.112865, 0.242548, -0.103993, 0.023261, 0.045795, -0.066396, 0.203304, 0.246657, 
    -0.219142, 0.057483, -0.074519, 0.558090, 0.037052, 0.136322, 0.215484, -0.040990, 0.325424, -0.054558, 
    -0.138781, 0.144777, -0.071333, 0.033076, -0.190957, -0.222843, 0.102174, -0.100043, -0.418820, -0.020314
    
};

// PyTorch Layer: fc.weight (Shape: (6, 40))
static const data_t fc_w[240] = {
0.149050, 0.098241, 0.211902, 0.073005, 0.383235, 0.057603, -0.102437, 0.245705, -0.982848, 0.285075, 
    0.250658, 0.238273, 0.305099, -0.300284, -0.685910, -0.699810, 0.291309, 0.148309, 0.019505, -0.335590, 
    0.339608, -0.330971, 0.355987, -0.633504, -1.007754, -0.284917, 0.005795, -0.442174, 0.132274, 0.075425, 
    0.100616, 0.273398, -0.637178, 0.016064, 0.333386, -0.407412, 0.135880, 0.394180, 0.272629, -0.399312, 
    -0.345919, -0.668510, 0.268600, 0.258395, 0.160557, -0.162848, 0.386293, -0.538835, -0.080638, -0.043741, 
    0.303603, 0.406727, 0.095781, 0.114594, -0.141784, -0.574352, -0.329288, -0.685535, 0.339313, -0.314430, 
    -0.056008, -0.663924, -0.158294, 0.488326, 0.040672, -0.029455, 0.417361, 0.356672, 0.423864, -0.605458, 
    -0.093463, -0.396688, -0.510209, 0.394190, -0.081787, -0.151716, 0.337909, 0.390350, -0.369183, -0.458855, 
    -0.323665, 0.297392, 0.358749, 0.220068, 0.182663, -0.729227, 0.257329, 0.209717, 0.098017, -0.530479, 
    0.115945, 0.169824, -0.792630, 0.363109, 0.160643, 0.177349, 0.423641, -0.192328, -0.028755, -0.320131, 
    -0.050961, 0.237679, 0.070720, 0.217368, 0.219401, -0.517987, -0.810088, 0.370420, -0.572533, 0.175328, 
    -0.890251, 0.524727, 0.110975, -0.699478, -0.630803, 0.362209, 0.230550, -0.473804, -0.905241, 0.354478, 
    -0.264183, 0.344640, -0.586830, -0.750531, -0.840944, 0.378268, 0.438961, -0.558400, 0.202039, -0.684158, 
    -0.680046, 0.164286, 0.136100, 0.316885, 0.192698, 0.321035, -0.671082, 0.041356, -0.212237, 0.331210, 
    0.313570, -0.103528, 0.286312, -0.049240, 0.262878, 0.127476, 0.208119, 0.364925, -0.570496, -0.444847, 
    0.244761, -0.382001, 0.106966, 0.011953, -0.341062, 0.187679, 0.329292, -0.248611, 0.185807, 0.205810, 
    0.420372, 0.226358, -0.391378, -0.178607, 0.135030, 0.296694, -0.253746, 0.230361, 0.081741, 0.165689, 
    -0.533922, 0.036575, 0.293163, -0.577679, -0.421788, 0.331151, -0.267448, 0.290959, -0.752783, -0.019426, 
    -0.653211, 0.354867, -0.046792, 0.224558, 0.182604, 0.410971, 0.136704, 0.128455, 0.210378, 0.196370, 
    0.024187, 0.070580, 0.351911, -0.203593, -0.249135, -0.531008, -0.661346, 0.064025, 0.049939, -0.033252, 
    -0.111520, -0.339841, -0.416252, 0.398306, -0.099633, 0.039160, -0.411147, -0.079685, 0.328731, 0.228097, 
    0.126924, -0.947618, -0.136699, -0.006539, 0.264141, -0.017808, 0.291550, 0.403441, 0.346401, 0.051043, 
    0.156629, -0.086257, -0.753917, -0.391466, -0.125518, -0.120209, -0.272565, -0.565659, 0.280941, -0.222258, 
    0.296698, -0.355753, 0.338937, 0.346940, 0.241661, 0.446056, -0.483476, -0.291894, 0.278584, -0.122435
    
};

// PyTorch Layer: fc.bias (Shape: (6,))
static const data_t fc_b[6] = {
-0.061834, 0.101793, -0.035270, -0.003155, 0.078389, 0.148467
};

#endif // VOICE_CNN_WEIGHTS_H
