#ifndef WEIGHTS_H
#define WEIGHTS_H

#include "typedefs.h"

// PyTorch Layer: conv1.weight (Shape: (16, 6, 3))
static const data_t conv1_w[288] = {
0.008770, 0.164958, -0.278399, 0.157111, 0.334538, 0.277815, 0.287364, 0.332876, -0.000142, 0.237842, 
    -0.067400, -0.219119, -0.152666, -0.343879, -0.078695, 0.151205, 0.257387, 0.049499, -0.185059, -0.217126, 
    -0.151096, 0.202773, -0.094091, 0.183313, -0.196751, -0.256996, 0.279459, -0.284189, 0.060925, 0.297971, 
    0.244690, 0.029465, -0.071029, -0.380878, -0.227723, 0.103229, -0.077580, -0.132051, -0.136567, 0.071647, 
    0.231936, 0.307081, 0.196266, 0.328221, -0.169068, -0.367786, -0.379642, -0.111314, 0.005388, 0.109937, 
    0.198072, 0.031145, 0.156649, 0.057172, 0.057376, 0.285045, 0.264051, 0.188112, -0.298661, -0.069227, 
    -0.276545, -0.206626, 0.073925, 0.297653, -0.106592, -0.186581, -0.176804, -0.095906, -0.048279, 0.296875, 
    0.149105, 0.266248, -0.236509, -0.217482, -0.342731, 0.162387, -0.135525, 0.004705, 0.174688, 0.313995, 
    0.192973, -0.208581, -0.326762, -0.047338, 0.098966, -0.120607, -0.108627, 0.133098, -0.292636, -0.403391, 
    0.236740, 0.348904, 0.020074, -0.314822, -0.206394, 0.207069, 0.301316, -0.012615, 0.301716, 0.217721, 
    0.066926, 0.144515, -0.135364, 0.108060, -0.303623, -0.169060, 0.235289, 0.267659, -0.337280, 0.142004, 
    -0.011699, 0.088372, 0.296970, 0.203168, -0.379801, -0.124171, -0.347867, 0.100158, 0.151408, 0.041320, 
    -0.304508, 0.052614, -0.134316, 0.120395, -0.027048, 0.261784, -0.145554, 0.069029, 0.229571, -0.262905, 
    0.305950, 0.245335, 0.225449, -0.016342, -0.032858, -0.141209, -0.055031, -0.182184, 0.285932, -0.040332, 
    0.065454, -0.072670, -0.216046, -0.382180, 0.141462, -0.068610, 0.004916, 0.161674, 0.072906, 0.008770, 
    0.231452, -0.036838, 0.098723, 0.326419, 0.360296, 0.145093, 0.308469, 0.333271, 0.372498, -0.317034, 
    -0.230011, -0.204756, -0.003209, 0.297100, 0.202324, 0.348131, 0.216549, -0.085099, -0.074091, 0.351380, 
    0.310117, -0.115364, -0.069448, -0.126279, -0.204901, -0.080263, -0.104600, 0.307717, -0.086099, 0.294690, 
    -0.163540, -0.308353, 0.168809, 0.182181, 0.083356, -0.005941, 0.268296, 0.176959, -0.169287, -0.271216, 
    -0.187784, 0.086515, 0.197347, -0.275940, -0.329260, 0.272472, -0.005396, -0.173692, -0.195592, 0.001186, 
    0.131471, -0.220598, -0.065095, -0.295947, -0.081989, 0.310319, -0.339255, 0.146884, -0.276558, 0.084983, 
    0.286543, -0.265654, 0.181256, 0.242994, 0.039652, 0.116608, -0.122876, -0.211729, -0.274959, -0.263217, 
    0.128930, 0.226909, -0.114678, -0.330818, -0.350607, 0.292239, 0.353591, -0.212934, -0.123598, -0.224901, 
    -0.274390, 0.135114, -0.113631, 0.358419, -0.015298, -0.067001, -0.301586, -0.042456, -0.251932, 0.344681, 
    0.312534, 0.004838, -0.037618, 0.206446, 0.099950, 0.281057, 0.154119, -0.099825, -0.271935, 0.162206, 
    0.192260, 0.094128, -0.351512, -0.227607, 0.204068, -0.015977, -0.295098, -0.212975, 0.247621, -0.065636, 
    0.152447, -0.204110, 0.113303, -0.080125, 0.053544, -0.348010, -0.285013, 0.053352, 0.005834, 0.290931, 
    0.055326, -0.248675, -0.075393, 0.196081, 0.054425, 0.162314, 0.116873, 0.219676, 0.289150, -0.339006, 
    -0.318596, -0.119274, 0.142198, 0.021271, -0.246661, 0.296484, 0.080563, -0.341956
};

// PyTorch Layer: conv1.bias (Shape: (16,))
static const data_t conv1_b[16] = {
0.113832, 0.304656, 0.218041, 0.115576, -0.069462, 0.164694, 0.334542, 0.036741, 0.119133, 0.185920, 
    0.144259, -0.039383, -0.051616, -0.122094, -0.041227, -0.017051
};

// PyTorch Layer: conv2.weight (Shape: (32, 16, 3))
static const data_t conv2_w[1536] = {
-0.065979, 0.012980, 0.255934, -0.164255, -0.084059, -0.162349, 0.109381, -0.092670, 0.131267, 0.086750, 
    0.216865, 0.103248, -0.143742, -0.281444, 0.148222, -0.006764, 0.242869, 0.003317, -0.033172, 0.162941, 
    -0.092525, -0.019767, -0.070694, 0.062644, 0.095183, 0.064719, 0.154586, -0.022278, 0.150883, 0.216913, 
    -0.134349, -0.177942, 0.082586, 0.070581, 0.102398, 0.034506, 0.017829, 0.135004, -0.024316, 0.123777, 
    -0.048657, 0.095718, -0.188172, -0.136723, 0.099054, -0.179440, -0.094107, 0.022789, -0.067932, -0.013744, 
    0.085340, 0.008036, 0.065759, -0.009845, -0.133361, 0.193461, 0.244041, 0.185048, -0.034791, -0.065577, 
    -0.197523, -0.030544, 0.107999, 0.049346, 0.045714, -0.127540, 0.198666, 0.053433, 0.116936, -0.182004, 
    0.227865, 0.029263, 0.126210, -0.189837, 0.092990, 0.047008, 0.183322, -0.025726, 0.043868, -0.018456, 
    0.071760, -0.010573, 0.037136, -0.164174, 0.195383, 0.205157, 0.054179, -0.140339, -0.062763, -0.074923, 
    -0.074447, -0.136110, -0.133027, -0.060047, 0.182064, 0.003870, 0.249905, 0.266652, -0.020663, 0.218148, 
    0.121983, 0.232147, 0.033078, -0.094826, -0.106738, 0.053918, 0.056530, 0.097517, 0.119322, 0.029152, 
    0.078650, -0.070948, 0.144682, -0.132340, 0.057138, -0.012055, -0.134633, 0.086767, -0.109850, -0.130526, 
    0.012602, 0.052188, -0.052061, 0.224174, 0.164027, -0.165618, -0.136306, 0.174102, 0.017704, -0.142658, 
    -0.122324, 0.076651, -0.065516, 0.136274, -0.141565, -0.065761, 0.165025, 0.080959, -0.223277, 0.099161, 
    0.146053, 0.074014, 0.000994, 0.136852, 0.216795, 0.115828, -0.024098, 0.108036, 0.101075, 0.078659, 
    0.160359, 0.035674, 0.007854, -0.132869, 0.109006, 0.197393, 0.180134, -0.127193, 0.161373, -0.095377, 
    0.021315, -0.040373, -0.075562, 0.126999, 0.022100, 0.070934, 0.016223, -0.072725, 0.221390, 0.066314, 
    -0.099460, -0.017825, -0.123668, 0.016706, -0.026482, 0.003676, 0.169804, -0.162170, -0.195738, -0.089500, 
    0.178875, 0.273901, 0.044387, -0.027570, -0.106837, 0.046735, -0.204807, -0.016089, -0.116022, 0.174433, 
    0.002930, 0.219476, 0.006491, -0.110629, 0.130879, -0.056194, 0.099596, 0.007238, 0.174956, -0.000701, 
    -0.030823, -0.080855, 0.155826, 0.072858, -0.158048, -0.189112, -0.187831, 0.140268, 0.141190, -0.036956, 
    0.193564, 0.228652, -0.046028, 0.149436, -0.013077, 0.183187, -0.147929, -0.081900, 0.017754, 0.129572, 
    0.133655, 0.147748, 0.097257, -0.087670, -0.028866, -0.196774, 0.164189, 0.117261, 0.021510, 0.026404, 
    0.025465, 0.171532, 0.174433, 0.240286, -0.012734, 0.092313, -0.136566, 0.066720, -0.031129, -0.009774, 
    -0.099348, 0.151318, 0.186036, 0.050161, -0.084774, 0.081257, 0.037620, -0.009145, 0.070288, 0.067600, 
    0.005598, 0.073988, -0.079251, -0.142143, 0.154250, 0.137082, 0.192459, 0.082153, -0.154563, 0.116283, 
    -0.085175, 0.043393, 0.251031, -0.150595, 0.045033, -0.161330, -0.092524, 0.196368, 0.156766, 0.240043, 
    -0.127888, 0.072513, 0.109733, -0.029800, -0.025521, -0.020755, -0.030222, -0.110641, -0.233844, 0.089085, 
    0.153354, -0.010668, -0.088711, -0.092718, 0.129810, -0.098780, 0.103207, 0.214973, 0.053544, 0.109827, 
    0.182738, 0.180776, -0.076866, 0.102853, -0.070697, -0.060200, -0.036761, 0.045272, 0.053711, -0.002159, 
    -0.073944, 0.067817, -0.085958, -0.143779, 0.178216, -0.007216, -0.004135, 0.221952, 0.209670, -0.116118, 
    0.031358, 0.089999, 0.003932, 0.183582, 0.246965, -0.105050, 0.158739, -0.049132, 0.013607, -0.019013, 
    -0.043378, -0.087770, 0.167124, 0.045987, 0.027347, 0.108350, 0.118757, 0.151349, 0.233995, 0.137778, 
    -0.008341, 0.199365, -0.198979, -0.012138, -0.176113, -0.105840, -0.038658, -0.088304, 0.135624, 0.157560, 
    0.167883, 0.014787, 0.017604, -0.150469, 0.205721, -0.133928, -0.030404, 0.114548, -0.024282, -0.103499, 
    -0.226293, 0.113043, 0.169829, 0.148806, 0.095917, -0.018708, 0.060135, 0.109130, -0.128361, 0.088026, 
    0.119742, -0.008482, -0.098782, 0.015436, -0.029156, 0.163017, 0.106498, -0.011445, -0.131618, -0.007505, 
    0.092283, 0.129785, -0.187820, 0.108605, 0.028560, 0.143523, 0.206496, 0.157984, -0.104579, -0.064258, 
    0.032669, 0.073636, -0.080082, -0.074952, -0.027064, 0.069058, 0.054648, 0.018700, 0.054098, -0.199734, 
    0.127782, -0.100197, 0.095907, 0.167608, 0.095335, -0.112315, -0.027809, 0.046582, -0.052990, -0.015842, 
    0.062252, 0.055117, 0.193844, 0.220973, -0.069848, -0.013764, 0.106767, -0.088206, 0.205768, 0.160340, 
    -0.071105, -0.247464, 0.136839, 0.172487, 0.189572, 0.169572, 0.193598, 0.064225, -0.210199, -0.163444, 
    -0.042317, 0.015085, -0.172737, -0.079351, -0.008136, -0.033102, -0.009676, -0.004629, -0.091587, -0.070114, 
    -0.169168, 0.115051, -0.043214, 0.047003, 0.031674, -0.062352, 0.152437, 0.154480, 0.041680, 0.155040, 
    -0.153964, 0.063853, 0.242288, 0.188544, -0.152487, -0.262989, 0.006434, 0.139091, 0.150419, 0.136290, 
    0.068931, 0.006317, -0.004472, -0.066321, -0.213325, -0.120554, 0.174639, -0.125906, -0.001553, -0.009630, 
    0.000699, 0.262489, -0.099226, 0.096708, 0.165983, 0.125306, 0.267601, 0.272365, -0.093706, 0.041036, 
    -0.177418, 0.124562, -0.043274, -0.100881, -0.023571, -0.047796, 0.121125, -0.026586, -0.119137, 0.018314, 
    -0.192842, -0.167199, -0.174676, 0.015218, 0.249732, 0.089224, -0.116685, 0.092057, 0.096828, -0.186035, 
    0.114651, 0.218626, -0.046017, 0.001429, 0.118044, -0.168653, 0.083664, 0.180758, 0.129468, 0.240093, 
    0.073283, 0.192820, 0.105108, 0.010490, 0.279857, 0.108439, 0.019832, -0.285464, -0.105157, 0.158406, 
    -0.156638, 0.019547, 0.027368, -0.062614, 0.235921, 0.185009, 0.065764, 0.028116, 0.131566, -0.136608, 
    -0.060459, 0.060278, -0.084350, 0.035249, 0.161940, -0.169269, -0.040125, 0.065287, 0.205345, -0.132374, 
    0.017960, 0.077024, 0.042640, 0.037545, 0.200101, -0.083289, 0.047273, -0.001883, -0.100189, 0.062844, 
    -0.035705, 0.013830, 0.149799, -0.156373, -0.196918, 0.110642, -0.047702, 0.073198, -0.096839, 0.008754, 
    0.202010, 0.084180, -0.141602, -0.092560, 0.073421, 0.129892, 0.106827, 0.026950, 0.101168, 0.136012, 
    -0.189178, -0.137746, 0.085916, -0.059259, -0.050056, 0.109856, 0.082109, -0.004510, -0.015795, -0.165023, 
    0.028407, 0.018179, -0.011917, 0.215286, 0.139230, -0.017821, 0.137033, 0.274943, -0.068966, 0.019006, 
    -0.209009, 0.042142, -0.050310, 0.214207, 0.038019, 0.158548, -0.101173, -0.097593, -0.107062, 0.204405, 
    0.182667, 0.191505, 0.022593, 0.008868, -0.026829, 0.051698, -0.026315, -0.100931, 0.084466, 0.091906, 
    -0.179063, 0.099776, -0.030219, 0.059196, 0.182624, 0.109001, 0.117884, 0.148295, 0.048846, -0.254273, 
    -0.213733, -0.074249, 0.098103, 0.113531, -0.095381, 0.001292, 0.076077, 0.068138, -0.067444, -0.108746, 
    -0.065875, 0.200183, 0.180101, -0.036054, 0.184936, 0.158198, 0.216575, 0.007948, -0.155404, -0.046570, 
    -0.060399, 0.133367, -0.116068, 0.180435, 0.173642, 0.215254, 0.127042, -0.137138, -0.055401, 0.168612, 
    0.204571, 0.002133, 0.087056, 0.099622, 0.111637, -0.149115, -0.207376, -0.130386, -0.180267, -0.052398, 
    -0.243993, -0.040514, 0.114923, 0.188777, -0.084795, -0.112286, -0.099987, 0.148498, 0.248639, 0.215346, 
    0.189711, 0.197855, 0.213638, 0.231585, 0.127324, 0.237880, -0.025653, 0.198504, 0.236594, 0.110566, 
    -0.180846, -0.069250, 0.006221, 0.008955, -0.054933, -0.092290, -0.111902, -0.190528, 0.036322, 0.050929, 
    0.213735, 0.054172, 0.194957, 0.070226, 0.018256, -0.120666, 0.154634, -0.068255, 0.139875, -0.096878, 
    0.056415, 0.149106, -0.170244, 0.040159, 0.175401, 0.066407, -0.237339, 0.014880, 0.167397, 0.251541, 
    0.273966, 0.074601, 0.237046, 0.230119, 0.145592, 0.093458, -0.069336, 0.180784, 0.004687, 0.073718, 
    -0.120198, 0.145945, 0.171315, 0.064937, 0.210361, 0.046455, 0.052552, 0.215344, 0.166525, 0.157966, 
    0.187507, 0.211071, -0.027677, -0.123452, -0.037367, 0.100725, 0.147449, 0.118677, -0.082568, -0.077589, 
    0.026855, 0.036013, -0.122366, 0.147606, 0.193107, -0.128999, 0.014359, -0.165929, 0.086601, 0.098191, 
    0.163697, -0.125723, 0.015011, -0.020938, 0.016324, 0.001049, -0.131389, -0.007961, -0.020383, 0.184761, 
    0.141112, 0.180307, 0.138067, 0.109399, 0.081571, 0.111884, 0.075404, 0.092562, -0.013650, 0.156191, 
    -0.052557, 0.168535, 0.128396, -0.118051, 0.054627, -0.119842, -0.064938, 0.186296, -0.013551, -0.035224, 
    -0.062366, 0.116191, 0.208038, 0.083065, -0.086206, -0.059398, -0.152260, 0.077900, -0.148828, 0.188659, 
    0.184122, -0.009040, -0.140197, -0.109080, 0.007190, -0.011683, 0.091767, 0.099446, 0.251471, 0.290541, 
    -0.029828, 0.119144, 0.026378, 0.194725, 0.209221, -0.117439, 0.059270, 0.061028, 0.100884, -0.121043, 
    -0.158225, 0.028210, -0.042597, -0.025099, 0.004542, -0.129367, 0.145125, -0.174851, 0.100043, -0.187264, 
    0.018355, -0.108142, 0.013934, 0.112479, -0.034130, -0.065245, -0.110273, -0.114973, -0.172600, -0.041483, 
    0.079440, 0.134405, 0.020529, 0.003566, -0.000754, -0.015216, 0.044581, 0.151869, 0.163359, 0.054455, 
    -0.010023, -0.004981, -0.028950, 0.098635, -0.053571, 0.152647, -0.110545, 0.132471, 0.124498, 0.045139, 
    0.004238, 0.238832, 0.075842, -0.209909, -0.169054, 0.065937, -0.006340, -0.199751, -0.079569, 0.182069, 
    -0.201591, 0.195560, -0.128068, -0.113607, 0.117005, -0.047733, -0.235500, -0.055864, 0.106054, -0.156967, 
    0.116403, 0.114624, -0.095406, 0.042447, 0.138027, 0.140363, -0.072882, 0.132888, -0.032758, 0.017766, 
    0.039367, -0.122998, -0.021774, -0.101881, -0.040170, -0.035368, -0.003935, 0.054077, 0.097478, -0.075034, 
    -0.120515, -0.087245, -0.016701, 0.172028, 0.009377, 0.027198, 0.179360, -0.004217, -0.085085, 0.174539, 
    0.276366, 0.006371, -0.066580, -0.085686, 0.037261, 0.215240, 0.033114, -0.230855, 0.015439, -0.217542, 
    -0.019219, 0.211066, -0.120796, 0.223420, 0.083265, 0.265194, 0.121729, 0.001878, -0.197368, 0.022605, 
    -0.031665, 0.092259, 0.152110, -0.103917, 0.037776, -0.010617, 0.209286, 0.194100, -0.065273, 0.081721, 
    0.155737, 0.184558, -0.146617, 0.131213, 0.091584, 0.143272, -0.050029, 0.173374, -0.030309, -0.028715, 
    -0.228717, -0.106099, 0.114937, 0.089801, -0.109679, -0.046747, -0.089832, 0.076066, -0.049643, 0.106103, 
    -0.258140, -0.012031, -0.098590, -0.070618, -0.097072, -0.043060, -0.094970, 0.038794, 0.015254, 0.217569, 
    0.194093, 0.115221, 0.209818, -0.056557, 0.158747, 0.203804, 0.208428, 0.174241, 0.074055, -0.055974, 
    -0.154774, 0.178754, -0.126836, 0.192099, -0.015967, -0.110129, -0.021881, -0.070139, -0.079120, 0.099172, 
    -0.002738, 0.258213, 0.056319, -0.182679, -0.186396, 0.118475, -0.009274, 0.092695, 0.127492, 0.023121, 
    0.149187, -0.039179, -0.205456, -0.043759, 0.123184, 0.002056, -0.149256, 0.011626, 0.013922, -0.014130, 
    0.126574, 0.010620, -0.019176, 0.090057, 0.120053, 0.211032, 0.100192, -0.088103, 0.048608, 0.166490, 
    0.049941, 0.176486, -0.008686, -0.045165, 0.179441, 0.124621, -0.091663, -0.178687, 0.137276, 0.025776, 
    0.086157, 0.014715, 0.149893, 0.219070, -0.110194, -0.005724, 0.156461, 0.065610, -0.068220, -0.116761, 
    0.057259, 0.051782, 0.058062, 0.124463, 0.008824, 0.140799, -0.175106, -0.170936, -0.148613, 0.066954, 
    0.020578, -0.007791, 0.171196, 0.048456, 0.195010, -0.049738, 0.003500, 0.144869, -0.094952, 0.166225, 
    -0.077373, -0.017570, -0.112130, -0.125380, -0.233456, -0.183223, -0.099769, 0.057464, -0.000841, 0.046398, 
    -0.029952, 0.118613, -0.024164, 0.192147, 0.105222, 0.103262, 0.190895, 0.139447, 0.141947, -0.141730, 
    0.140299, -0.063673, 0.098749, 0.011690, 0.005706, -0.092457, 0.193119, 0.134628, -0.070310, 0.060549, 
    -0.193038, 0.166014, 0.217164, 0.125130, -0.043204, -0.049292, 0.066129, -0.127496, -0.002979, -0.111819, 
    0.214538, -0.066410, 0.177328, 0.009830, 0.123492, 0.175032, -0.115604, -0.030694, 0.022101, -0.010832, 
    -0.166890, -0.036516, 0.031344, 0.049870, 0.006318, 0.257866, 0.142559, 0.019498, -0.149179, 0.003243, 
    0.053068, 0.075118, 0.063407, -0.044715, 0.035646, 0.182454, 0.062153, 0.181328, 0.073924, -0.120989, 
    -0.070353, 0.104558, 0.036691, -0.095212, 0.010729, -0.051412, 0.083343, 0.170969, 0.215579, -0.131687, 
    -0.008432, -0.031889, -0.019975, -0.072319, 0.035477, -0.036983, 0.149380, -0.071643, 0.181150, -0.053097, 
    -0.227876, 0.246915, 0.170456, 0.134610, 0.026158, 0.030904, 0.059078, -0.165917, 0.041641, -0.042138, 
    -0.068843, -0.193306, -0.068729, -0.080917, 0.100662, -0.104641, 0.134429, 0.010912, 0.088052, 0.111631, 
    0.026789, -0.071005, -0.150505, -0.054612, 0.006583, -0.050438, 0.207409, 0.118254, -0.131545, 0.017610, 
    0.012734, 0.074882, -0.051554, -0.032230, -0.082688, 0.125419, -0.095039, 0.148486, -0.026278, -0.027517, 
    -0.069434, 0.022781, -0.133029, 0.257796, 0.242730, 0.157935, 0.243299, 0.224354, 0.181811, -0.190446, 
    -0.163778, 0.122359, -0.054617, 0.047914, 0.136455, 0.003202, 0.022565, 0.043869, -0.046896, -0.070464, 
    0.189482, 0.050661, -0.018016, 0.071141, 0.056614, -0.160631, -0.145390, 0.167118, 0.086232, 0.042494, 
    0.058014, 0.083792, 0.062216, 0.191285, 0.179711, -0.134047, 0.124043, 0.027306, 0.257584, -0.158889, 
    0.035538, 0.158080, -0.065833, -0.026983, 0.189045, -0.097161, -0.214960, -0.097324, 0.181817, 0.191235, 
    -0.060889, -0.028164, -0.036567, 0.040005, -0.016643, 0.069448, -0.021829, -0.038862, 0.117619, 0.000400, 
    0.020778, 0.091150, 0.178817, 0.055232, -0.213476, 0.197478, 0.283750, 0.203106, -0.161235, 0.240190, 
    -0.089252, -0.067785, -0.246959, -0.026319, 0.162399, -0.040034, 0.210264, 0.201889, 0.118603, 0.232544, 
    -0.061437, -0.000182, -0.046920, 0.132611, -0.029631, 0.231740, -0.097058, 0.193194, -0.132281, 0.003493, 
    -0.019015, 0.238095, 0.151007, 0.086278, 0.175189, -0.145215, -0.166909, 0.079134, -0.004245, 0.209504, 
    -0.074000, -0.120902, 0.045069, -0.146446, -0.041747, 0.246026, 0.134681, -0.119846, 0.071275, 0.197140, 
    0.158473, -0.002125, 0.052553, -0.008433, -0.051019, -0.169427, 0.135733, 0.191050, -0.072753, 0.148860, 
    -0.137803, 0.208322, 0.023297, 0.049239, 0.249412, -0.084277, 0.121795, 0.132486, 0.059358, 0.025142, 
    0.053698, 0.176902, -0.107124, 0.096237, 0.245748, -0.070247, 0.151312, -0.219960, 0.005947, 0.077981, 
    0.241307, -0.003017, -0.139094, -0.118007, 0.010827, -0.168009, -0.013172, 0.114397, 0.103205, 0.188799, 
    -0.096569, 0.018155, 0.056689, -0.065530, -0.035248, -0.115877, 0.107726, 0.063210, 0.168810, 0.107886, 
    0.002454, 0.143092, -0.080596, 0.018495, 0.006387, -0.151046, -0.157774, 0.054751, 0.053964, -0.052921, 
    0.192661, -0.032877, 0.101295, 0.166666, 0.031627, 0.226122, 0.110430, -0.079482, -0.135192, -0.042024, 
    0.124761, 0.101697, -0.042261, 0.221128, 0.149918, 0.197513, 0.042263, 0.187214, -0.156674, 0.103958, 
    0.240862, -0.050688, 0.132358, 0.002865, 0.152177, 0.068649, -0.185184, -0.227111, -0.150036, -0.146651, 
    -0.115498, 0.168973, 0.223013, -0.053711, 0.110554, 0.035531, 0.272930, -0.117239, -0.022209, 0.208460, 
    -0.103230, 0.035165, 0.140605, 0.058158, 0.247089, -0.029180, -0.110447, 0.157246, 0.202243, -0.028692, 
    0.011752, 0.127807, 0.103552, -0.025673, 0.097787, 0.121510, 0.043454, 0.182136, 0.011351, 0.230354, 
    -0.159868, -0.149726, 0.037247, -0.127455, 0.008539, 0.060347, 0.012541, 0.175302, -0.025800, 0.136951, 
    -0.039828, -0.001763, -0.043184, 0.065664, 0.035594, 0.203792, -0.141122, 0.194483, 0.229969, 0.019321, 
    0.207369, 0.170158, -0.143210, 0.173191, 0.088012, 0.053439, 0.164603, 0.205033, -0.065893, -0.263774, 
    -0.107046, 0.226721, -0.013614, 0.146091, -0.041469, 0.065730, -0.004384, 0.163478, 0.224064, 0.228215, 
    0.168267, 0.077074, 0.078750, 0.171467, 0.207642, 0.041592, -0.008192, -0.148802, 0.137917, 0.143367, 
    -0.075607, -0.045282, 0.094743, 0.078213, 0.235144, 0.006065, -0.024223, -0.109496, -0.169159, -0.181864, 
    -0.113010, -0.049071, 0.088660, 0.086571, 0.068150, 0.101848, 0.198239, 0.095280, -0.198674, -0.054318, 
    0.029853, 0.008984, 0.188952, 0.173285, -0.179230, -0.043675, -0.124360, 0.090210, -0.004197, 0.093465, 
    -0.100346, -0.042521, -0.078983, 0.222938, 0.103872, -0.086412, -0.049321, 0.099408, -0.114778, 0.054951, 
    -0.102906, 0.104701, -0.120918, -0.040317, 0.154625, 0.097101, 0.074559, -0.060144, 0.225683, -0.043066, 
    -0.126848, 0.130400, 0.169602, 0.150548, -0.197894, -0.047530, 0.226982, 0.205298, -0.114418, 0.186160, 
    0.012402, 0.269199, -0.128414, -0.006180, 0.097883, -0.153592, 0.118860, -0.050982, 0.165787, -0.072687, 
    -0.090487, 0.026617, -0.035165, 0.007828, 0.047787, 0.117961, -0.110917, 0.204793, -0.067050, -0.099792, 
    0.072457, -0.104619, -0.182642, 0.071032, 0.110454, -0.050530
};

// PyTorch Layer: conv2.bias (Shape: (32,))
static const data_t conv2_b[32] = {
0.159335, 0.004563, -0.023135, 0.007704, 0.062289, 0.090488, -0.101088, -0.004037, -0.042650, -0.033704, 
    -0.009173, 0.095682, 0.091838, -0.003610, -0.073712, -0.078273, -0.011079, 0.222341, 0.087425, -0.118047, 
    0.150529, 0.000401, -0.004262, 0.112462, -0.065684, 0.012689, -0.133288, -0.122305, 0.092713, -0.087115, 
    -0.045662, -0.040783
};

// PyTorch Layer: fc1.weight (Shape: (32, 480))
static const data_t fc1_w[15360] = {
-0.020573, 0.021573, -0.101940, -0.020665, 0.025143, 0.098828, -0.011322, -0.032094, -0.094227, 0.103757, 
    0.114302, 0.016447, -0.030589, -0.060516, -0.011725, 0.066967, 0.026507, -0.050902, 0.058400, -0.089618, 
    -0.007656, 0.047393, -0.000885, 0.023017, 0.039016, 0.005063, -0.028534, -0.027398, 0.107335, -0.009627, 
    0.002020, 0.025836, -0.032892, -0.081486, 0.022098, 0.068002, 0.092929, 0.034648, -0.058530, -0.058303, 
    0.007411, 0.028318, -0.007508, -0.003085, 0.062791, 0.098373, 0.046156, -0.021904, 0.051772, -0.003078, 
    0.041134, 0.043185, -0.052284, 0.018387, -0.062538, 0.024420, 0.045193, 0.026531, 0.044922, -0.000049, 
    -0.000796, 0.001558, -0.060632, -0.035802, 0.070668, -0.040964, -0.044144, 0.009979, -0.038415, 0.094687, 
    -0.024694, -0.076630, -0.030461, -0.023877, 0.057963, 0.038375, 0.026066, -0.049996, 0.006043, -0.028091, 
    -0.021632, 0.029398, -0.033919, -0.045867, 0.004821, -0.025036, 0.017763, -0.000933, 0.021658, -0.028010, 
    -0.004722, -0.049882, -0.122831, -0.071575, 0.041048, -0.063043, 0.057179, 0.042402, 0.023972, 0.068627, 
    -0.046882, -0.022141, -0.041005, 0.035347, 0.070318, -0.089156, -0.026872, 0.051610, -0.016822, 0.000244, 
    -0.067620, -0.067911, 0.040810, 0.007939, -0.006165, -0.110634, -0.032496, 0.058704, 0.012979, -0.025915, 
    0.091044, -0.013921, -0.045032, -0.023948, 0.055006, 0.019082, 0.043621, 0.020394, -0.046103, 0.058908, 
    0.028738, 0.026248, -0.015393, 0.053004, -0.026766, -0.094801, -0.037383, 0.006980, 0.013430, -0.022452, 
    0.069057, 0.078520, -0.077337, 0.027340, 0.003458, -0.031519, -0.025988, 0.012332, 0.040075, -0.004541, 
    -0.079844, 0.079201, 0.044409, 0.062862, -0.028261, -0.066118, 0.002307, -0.038922, 0.092864, 0.032794, 
    0.036427, 0.058450, 0.000795, 0.051198, 0.025667, 0.069701, 0.080042, 0.040122, -0.049558, 0.067193, 
    -0.021101, -0.020011, -0.046561, -0.081485, 0.034784, 0.003370, 0.007263, -0.019232, -0.003447, 0.079530, 
    0.070368, 0.073613, -0.084864, -0.000480, 0.037862, 0.049559, -0.008600, 0.063939, -0.058200, -0.020326, 
    0.022671, -0.051779, -0.004885, 0.036674, -0.006616, -0.083630, -0.078758, -0.113536, -0.083953, 0.004528, 
    0.078125, 0.024253, -0.031416, -0.057302, 0.014941, 0.002416, -0.063357, 0.027987, 0.049872, 0.080850, 
    0.062325, 0.034227, -0.050738, 0.020354, 0.059812, -0.043247, 0.055408, 0.065446, -0.079933, 0.059939, 
    0.010914, -0.043441, 0.035776, 0.017741, 0.050017, 0.039010, -0.101095, -0.105024, 0.055253, -0.060075, 
    0.004658, 0.058817, -0.040361, 0.001341, 0.021836, 0.044170, 0.044944, -0.020876, 0.078035, 0.082523, 
    -0.033074, 0.051342, -0.030568, -0.034600, 0.102712, 0.015450, -0.067781, 0.005413, 0.035715, 0.049675, 
    -0.027872, 0.072563, 0.076505, 0.008796, 0.019005, -0.071383, 0.089333, 0.127286, 0.073052, 0.046599, 
    -0.095403, -0.011266, -0.050156, 0.107587, -0.118277, -0.026250, 0.114335, 0.080873, -0.078390, -0.045062, 
    0.117390, -0.050548, -0.039738, -0.085460, -0.025167, -0.011934, 0.033090, 0.053319, -0.086645, 0.082305, 
    0.013338, -0.014175, 0.035164, 0.033032, 0.056104, -0.070479, 0.013221, 0.034932, 0.057991, 0.059734, 
    0.030854, 0.053824, 0.037954, 0.048162, -0.074034, 0.043304, -0.056635, 0.007413, 0.074197, 0.063938, 
    -0.124628, -0.072229, -0.019436, -0.061758, 0.010333, 0.067308, -0.052996, -0.043915, 0.116088, -0.013548, 
    -0.054770, -0.054631, 0.026595, 0.001110, 0.037741, 0.050234, -0.013544, -0.008933, 0.003029, 0.004567, 
    -0.045028, 0.102074, 0.051292, -0.104630, -0.082283, 0.000115, 0.087887, 0.099979, -0.008330, -0.031147, 
    0.042087, -0.067410, -0.014487, -0.029884, 0.043953, -0.007685, 0.039402, -0.001176, -0.010152, -0.021816, 
    -0.013269, 0.002141, 0.013925, -0.002151, 0.008669, 0.041392, 0.049903, -0.025746, 0.008568, 0.046830, 
    0.052332, -0.085261, 0.061828, 0.050492, -0.030166, -0.065875, -0.008419, 0.035438, -0.046257, 0.035347, 
    0.059366, 0.089281, 0.022681, 0.025116, -0.004084, -0.053672, 0.019078, 0.022793, 0.036445, 0.010480, 
    0.069654, 0.047570, 0.062327, 0.002659, -0.008254, 0.047374, 0.005002, 0.046246, -0.006971, 0.042057, 
    0.015756, -0.021529, -0.035307, 0.029218, 0.017120, 0.099497, -0.015421, -0.080349, 0.074280, 0.006516, 
    0.016034, 0.053991, -0.043142, 0.004438, 0.019838, 0.020870, -0.045631, 0.033426, -0.083508, 0.010451, 
    0.028281, 0.003650, 0.011186, -0.011313, -0.036995, 0.023779, 0.073230, 0.060618, 0.082729, 0.030548, 
    0.015422, 0.078807, -0.016795, -0.057748, 0.015753, 0.038345, 0.046424, 0.055806, 0.087079, -0.005280, 
    0.018673, -0.075816, -0.075970, -0.072489, 0.110134, 0.067365, 0.062469, 0.006250, -0.000394, -0.018738, 
    0.032810, 0.039524, 0.000944, -0.012909, 0.026310, 0.044648, -0.006841, 0.014348, 0.002806, 0.031550, 
    -0.094510, 0.085086, 0.084435, 0.001264, -0.042955, -0.005426, -0.003721, -0.028592, 0.016571, 0.031705, 
    0.044652, 0.006335, -0.001734, 0.052656, -0.005779, -0.049345, 0.073054, 0.137697, -0.002717, -0.045494, 
    0.070215, 0.041982, 0.064931, 0.037601, -0.042758, 0.019964, 0.022704, 0.002405, 0.016924, 0.124186, 
    -0.013727, 0.010433, -0.024134, -0.016579, 0.106165, 0.050081, 0.009281, 0.068482, 0.089211, 0.047242, 
    -0.004819, -0.013255, -0.003796, -0.041816, -0.005730, 0.030056, 0.028087, -0.027327, 0.011105, 0.037033, 
    0.014025, -0.025257, -0.020188, 0.024068, -0.016339, 0.026853, -0.045584, -0.041106, -0.027473, -0.008876, 
    -0.034170, -0.042253, 0.031486, 0.008376, -0.018290, -0.006229, -0.006429, 0.010896, -0.026451, 0.018382, 
    -0.018713, 0.034365, -0.035009, -0.024049, 0.033061, 0.002915, -0.033613, 0.012044, -0.015436, -0.054251, 
    -0.039978, -0.026593, -0.019826, 0.015215, 0.030385, -0.008454, -0.016435, -0.038708, -0.008310, 0.029537, 
    0.011166, -0.031904, -0.018780, 0.009229, -0.027290, 0.035663, -0.025481, 0.014305, -0.029206, 0.005238, 
    -0.047085, 0.003587, -0.033282, 0.013919, -0.021202, -0.002075, 0.016423, -0.052697, 0.015997, -0.034134, 
    -0.019760, -0.022892, 0.035393, -0.020690, -0.013426, 0.006321, 0.000440, -0.014836, 0.013788, -0.005105, 
    0.007592, -0.051898, -0.019702, -0.016504, -0.031054, -0.014006, 0.020925, -0.023122, 0.017212, -0.030744, 
    -0.012941, -0.045153, -0.053430, -0.036887, -0.004697, -0.010809, 0.003378, -0.014866, -0.016331, 0.030964, 
    -0.007558, -0.044036, 0.003316, 0.008853, -0.025112, -0.046966, -0.009499, -0.009550, -0.028704, -0.032317, 
    -0.037861, -0.004243, -0.043723, 0.032708, -0.030215, 0.028706, -0.037373, 0.020938, 0.019996, 0.026766, 
    -0.027503, 0.016720, 0.026239, -0.054048, 0.005089, 0.025990, -0.033008, 0.030295, 0.019753, 0.012813, 
    -0.025809, 0.033226, 0.017246, 0.024523, -0.040858, -0.025174, -0.033257, 0.016585, 0.007547, -0.040632, 
    -0.012230, 0.024266, -0.049655, 0.027225, 0.016140, 0.021719, -0.034993, 0.021858, 0.018951, -0.021774, 
    -0.021141, 0.000267, 0.020180, -0.010732, -0.025900, -0.049954, -0.007994, -0.030613, 0.002708, -0.033562, 
    0.014041, 0.024683, 0.032615, 0.020732, 0.028778, -0.046349, -0.041234, -0.028119, -0.043178, -0.000116, 
    0.018604, -0.036533, 0.012826, 0.008717, -0.046063, 0.000622, -0.013872, 0.035972, 0.003615, 0.009461, 
    0.002721, -0.052844, 0.007229, -0.039702, -0.030236, -0.037125, -0.047389, 0.020837, -0.030475, -0.049535, 
    0.000793, 0.001587, 0.022869, 0.017171, 0.009867, -0.003016, -0.033242, -0.000019, 0.010714, 0.025916, 
    -0.045220, 0.029690, 0.010670, -0.003887, -0.037242, -0.035090, -0.011673, -0.008591, 0.008235, 0.014794, 
    -0.017444, -0.050526, -0.024086, -0.035187, 0.028929, 0.014309, 0.025852, -0.047569, 0.013683, -0.001397, 
    0.035719, -0.046002, 0.035900, 0.005119, -0.046474, 0.011417, 0.005928, -0.032116, -0.043348, -0.036893, 
    0.004865, 0.021590, 0.001517, -0.001485, -0.024020, -0.027631, -0.029772, -0.050163, 0.029873, -0.017752, 
    0.026252, 0.032598, -0.000571, 0.014906, -0.008912, 0.026604, 0.017674, -0.021376, 0.023978, -0.008287, 
    -0.013254, -0.028765, -0.032652, -0.033974, -0.053884, 0.011398, 0.018080, 0.008491, 0.012088, -0.001586, 
    -0.029286, -0.017692, 0.008642, -0.031061, 0.021158, 0.023699, -0.049599, -0.040832, -0.048183, 0.030704, 
    -0.045200, 0.012884, -0.010426, -0.004810, -0.023740, 0.001249, 0.017446, 0.023163, -0.044381, 0.008310, 
    0.001627, -0.012734, -0.034065, 0.029209, 0.026329, 0.036288, 0.006838, -0.014604, 0.029769, -0.047209, 
    0.017667, 0.025927, 0.033260, 0.004314, -0.033449, 0.020470, -0.028620, 0.020001, 0.005892, -0.028291, 
    -0.016317, -0.053842, 0.006857, -0.054643, -0.014595, -0.022634, 0.001971, -0.021161, 0.007899, 0.002132, 
    -0.030211, -0.033242, -0.031265, 0.025030, 0.020161, 0.015300, -0.038241, 0.007621, -0.038479, -0.043296, 
    -0.004176, -0.047224, -0.026066, -0.052227, 0.020488, -0.041318, -0.032663, 0.021831, 0.033231, -0.026659, 
    0.022552, 0.035353, -0.012938, -0.048390, 0.001383, -0.015459, -0.013760, 0.014318, -0.013698, 0.017903, 
    -0.038119, -0.041811, -0.035426, -0.051943, -0.023665, -0.054526, -0.006737, 0.026008, -0.045109, -0.017249, 
    -0.028883, -0.002015, -0.028335, 0.035931, -0.040628, 0.003720, -0.043348, -0.003914, 0.011864, -0.042987, 
    -0.052119, 0.019810, -0.013088, -0.012209, -0.028151, 0.015246, -0.020439, -0.042352, -0.005648, -0.013388, 
    0.035441, -0.019691, 0.021613, -0.013200, 0.015024, -0.030424, -0.054277, -0.051108, -0.033277, -0.041277, 
    -0.038951, -0.020572, -0.023416, -0.038900, -0.043900, -0.036036, 0.000362, -0.036080, -0.054666, 0.023494, 
    0.003234, 0.025601, 0.023052, -0.023273, -0.024621, 0.010068, 0.009814, 0.014227, -0.020068, -0.044523, 
    -0.038930, -0.002583, -0.022986, 0.031841, -0.032486, 0.017505, 0.027736, -0.005329, -0.010474, 0.009873, 
    -0.014982, -0.018775, 0.010359, -0.034812, -0.043197, 0.032128, 0.027237, -0.054105, -0.032837, 0.008597, 
    0.005060, -0.001647, -0.030377, -0.006813, 0.026784, 0.006640, -0.035341, 0.034247, -0.034134, 0.015711, 
    -0.000573, -0.031951, -0.030898, -0.034153, -0.043160, 0.001791, -0.037814, -0.029776, 0.027190, 0.020508, 
    -0.009563, 0.001867, 0.007235, -0.051185, -0.007204, -0.029829, -0.050569, 0.024079, 0.024190, 0.004664, 
    0.018102, -0.051205, 0.007771, 0.006909, 0.028323, -0.017423, 0.028007, 0.025692, 0.034024, -0.013103, 
    0.035138, -0.043463, -0.000980, -0.021710, -0.034621, -0.000168, 0.009737, -0.041444, -0.026282, 0.000159, 
    0.007485, 0.002838, -0.034670, -0.048739, 0.015031, -0.044095, -0.030532, -0.037898, 0.004830, 0.001634, 
    -0.005587, -0.004565, 0.106591, -0.059720, -0.020779, 0.053653, 0.107332, 0.017468, 0.107727, 0.050516, 
    -0.072242, -0.096319, -0.086800, -0.066299, 0.096963, 0.008317, 0.036605, 0.085615, -0.003904, -0.095759, 
    -0.030775, 0.115259, 0.115049, -0.109907, -0.021755, -0.011191, -0.066329, 0.000103, -0.013302, 0.030991, 
    0.040663, 0.043838, 0.050700, 0.056065, 0.004430, -0.059306, 0.017159, 0.011472, 0.037515, 0.079022, 
    0.044180, 0.051378, 0.059424, -0.047935, 0.016774, -0.032150, 0.077526, 0.095796, 0.069358, -0.083351, 
    -0.003711, 0.064629, -0.086000, 0.019636, 0.012571, 0.024115, 0.004789, -0.000241, -0.003608, 0.032273, 
    -0.022311, 0.036815, 0.026158, 0.055572, 0.015069, 0.036543, 0.030597, 0.042351, 0.016386, -0.037226, 
    -0.036645, 0.044777, -0.061259, -0.009372, -0.053906, -0.038497, -0.055901, 0.002849, 0.037599, 0.008711, 
    0.029037, 0.074098, -0.040525, 0.020655, -0.042852, 0.038432, -0.081729, -0.044056, 0.010401, 0.005014, 
    0.044449, 0.031341, 0.086372, -0.017116, 0.029728, 0.076552, 0.000607, 0.008662, 0.074414, 0.045074, 
    -0.011267, 0.129401, 0.014722, 0.013497, 0.035453, -0.031746, 0.072034, 0.034040, 0.006880, 0.069431, 
    0.043531, -0.043479, 0.003759, 0.068992, -0.040994, 0.011238, 0.057862, 0.002295, -0.041514, 0.010058, 
    -0.105647, -0.034702, -0.025893, 0.110948, -0.092499, -0.031775, 0.018438, 0.007161, 0.095655, 0.039284, 
    -0.049908, -0.074714, -0.080572, -0.062084, 0.045162, -0.044865, 0.008340, 0.061417, -0.000580, 0.039104, 
    -0.037875, 0.036528, -0.003306, 0.059002, -0.090242, -0.061522, -0.029079, 0.053092, 0.038363, 0.017930, 
    0.001270, 0.132985, 0.131210, 0.035674, 0.010075, 0.061512, 0.107095, -0.021586, 0.046390, -0.109993, 
    -0.011870, 0.009573, -0.005867, 0.047733, 0.065818, -0.006366, -0.037004, -0.036850, 0.041693, -0.051721, 
    -0.029203, -0.017447, -0.064623, -0.021103, -0.019974, 0.051727, 0.019218, -0.072350, -0.053881, 0.059188, 
    0.045018, -0.067199, 0.034040, 0.044581, 0.004847, -0.004177, 0.067559, 0.057344, 0.016775, 0.108301, 
    -0.009457, -0.113665, -0.063696, -0.071210, 0.061607, 0.055928, 0.039422, 0.081637, -0.014667, -0.018297, 
    0.020936, -0.006383, 0.024006, -0.021173, -0.035427, -0.068607, 0.102121, -0.031991, 0.003630, 0.014135, 
    -0.012365, -0.004003, -0.011031, 0.061985, -0.081969, -0.028738, -0.025672, 0.090756, 0.048983, -0.003006, 
    -0.057424, -0.030335, -0.040092, -0.067807, -0.003627, -0.024071, 0.054074, 0.051357, 0.038822, -0.144086, 
    -0.006108, 0.037520, 0.025784, 0.047186, -0.025024, -0.073159, -0.017434, 0.024093, -0.003835, 0.018411, 
    -0.003072, 0.082035, 0.039738, 0.047152, 0.016232, 0.087564, 0.066924, -0.053464, 0.082006, -0.030669, 
    0.073182, 0.067606, 0.039598, 0.020902, -0.089462, -0.021261, 0.066375, -0.000671, -0.044833, 0.020351, 
    0.017066, 0.010632, -0.111200, -0.014520, -0.116109, -0.019887, -0.024790, -0.010587, 0.070546, -0.107558, 
    0.065241, 0.108815, 0.045607, 0.030541, -0.030329, 0.039303, -0.018631, -0.062360, 0.038164, 0.139745, 
    0.044820, 0.046246, 0.066683, -0.050172, -0.050612, 0.064574, -0.003372, 0.001136, -0.062235, 0.043406, 
    0.069583, 0.064597, 0.020931, 0.027799, 0.017647, 0.018241, 0.113993, -0.060202, -0.049176, -0.112210, 
    0.047149, 0.102297, 0.070299, 0.021848, 0.032790, 0.029719, -0.018169, 0.084060, -0.039084, 0.034030, 
    -0.005759, -0.041898, 0.087811, 0.035878, 0.004078, -0.028102, -0.128270, -0.038852, 0.088018, 0.116841, 
    -0.001935, 0.001403, 0.007179, 0.094774, 0.125758, 0.085432, -0.049113, -0.038437, 0.000319, 0.075319, 
    -0.033942, 0.000531, 0.040308, -0.000240, 0.020327, -0.036634, 0.048949, 0.060141, 0.082738, 0.036174, 
    0.024626, 0.044966, 0.029270, -0.034672, 0.092786, 0.043878, -0.132598, 0.036610, 0.090579, 0.038171, 
    -0.079098, -0.079785, 0.076133, 0.056589, -0.011712, 0.027192, 0.056106, -0.026551, -0.009392, 0.023097, 
    -0.061676, 0.080362, 0.063944, 0.021808, 0.045559, 0.069156, 0.006279, -0.045289, -0.023485, 0.014984, 
    0.049933, -0.057195, -0.066912, 0.005081, -0.073682, -0.072117, 0.013396, 0.086886, 0.053122, -0.110097, 
    -0.083385, 0.079589, -0.056050, -0.039830, 0.001531, -0.031796, -0.004440, 0.008288, 0.006699, 0.051351, 
    0.047254, -0.021481, 0.036048, 0.035294, -0.010803, -0.014133, -0.034165, -0.029800, 0.023872, 0.011595, 
    0.021132, -0.082168, -0.019337, -0.107197, 0.068647, -0.011232, -0.020776, 0.082858, 0.030817, -0.082662, 
    0.021609, -0.059886, -0.048087, 0.003493, 0.040881, 0.049171, -0.023188, -0.029897, -0.029216, 0.025959, 
    -0.003306, 0.002804, -0.039315, -0.078440, 0.007117, -0.056049, 0.100179, 0.088388, 0.054142, -0.059378, 
    -0.015041, -0.028967, -0.002750, -0.062544, 0.006333, -0.078353, -0.008786, 0.053060, 0.040352, 0.007808, 
    -0.059444, 0.054732, -0.016923, 0.028156, 0.033655, 0.084349, -0.015870, -0.038080, -0.044956, 0.057179, 
    -0.045562, -0.055173, 0.086054, 0.018362, 0.029449, 0.038265, -0.044557, 0.024914, 0.014363, 0.091412, 
    0.062630, 0.032439, 0.056085, 0.007674, 0.001636, -0.059633, 0.064375, 0.006105, 0.070268, -0.079621, 
    0.006322, 0.010628, 0.107202, -0.042719, 0.014987, 0.006744, -0.021620, 0.038606, -0.083378, -0.067751, 
    0.017418, 0.037603, -0.005438, 0.029160, 0.008545, -0.038108, -0.029778, -0.031102, 0.038186, 0.050578, 
    -0.024707, -0.046856, -0.030092, -0.023185, -0.000336, -0.035866, 0.040187, 0.031072, -0.038882, -0.028451, 
    -0.008446, -0.006799, 0.004690, -0.022695, 0.047326, 0.036723, -0.052912, 0.000877, -0.000413, -0.007928, 
    -0.024335, -0.049671, 0.047215, -0.049697, -0.035070, -0.028705, -0.024965, 0.006077, -0.034707, -0.004844, 
    0.033932, 0.009918, -0.039262, -0.013153, -0.018531, 0.001687, -0.046654, 0.039825, -0.048903, -0.018868, 
    -0.002744, -0.023976, -0.043677, 0.023131, -0.014182, 0.027813, -0.044223, -0.006149, 0.021036, 0.048313, 
    0.016320, -0.035095, 0.004151, 0.000145, 0.028757, -0.021650, 0.019950, 0.020856, -0.012984, -0.005568, 
    0.011558, 0.010885, -0.008927, 0.013989, -0.041324, -0.036626, 0.031776, -0.047418, -0.011869, 0.008533, 
    -0.027653, 0.019065, -0.039915, -0.018065, -0.037978, 0.018722, -0.042505, -0.025110, 0.037011, 0.000611, 
    0.019329, -0.041327, -0.013242, -0.034198, -0.018564, -0.002177, 0.006996, -0.010762, 0.011456, -0.009509, 
    -0.048250, -0.053411, -0.029815, 0.021196, -0.012270, -0.040955, 0.002347, 0.035378, -0.034987, -0.033744, 
    -0.033864, -0.019061, -0.016572, -0.037764, 0.024233, 0.037040, 0.033602, -0.022542, -0.036842, -0.031132, 
    -0.001224, 0.024733, 0.008724, 0.025561, -0.006771, 0.003615, -0.031997, -0.017655, -0.040993, -0.045075, 
    -0.044778, 0.016634, 0.026122, -0.028531, 0.024128, -0.020473, -0.018060, 0.020264, -0.003226, -0.031459, 
    -0.046333, 0.028589, 0.014109, -0.016293, -0.012608, -0.044486, -0.023498, 0.016683, 0.020141, 0.019127, 
    -0.003756, -0.005147, -0.017703, 0.013529, -0.051726, -0.029066, 0.034146, -0.013125, -0.038036, 0.012479, 
    0.022044, 0.038740, 0.016793, 0.039915, 0.023834, -0.032809, -0.041842, 0.015211, -0.020979, 0.038759, 
    0.030043, -0.018468, 0.027168, 0.031086, -0.016595, -0.018854, -0.021016, -0.033556, -0.039022, -0.038738, 
    -0.004453, -0.037845, 0.030563, 0.008164, 0.007644, -0.020653, -0.003105, 0.004315, 0.012554, -0.021522, 
    0.000044, -0.036668, 0.021022, 0.023267, -0.034341, 0.035811, 0.012844, -0.023411, 0.038834, 0.039704, 
    -0.038271, -0.031050, -0.028584, 0.021272, 0.041003, -0.004995, 0.008847, 0.024094, 0.008508, 0.033995, 
    -0.001594, 0.043722, 0.002608, -0.001221, 0.016328, -0.024248, -0.009979, 0.024069, 0.021267, -0.043409, 
    0.019343, -0.015824, -0.018610, 0.001560, -0.021071, 0.037431, 0.020570, -0.004677, 0.008606, 0.000860, 
    0.034476, 0.036205, 0.025474, -0.004113, 0.003539, -0.032619, -0.037325, -0.038698, -0.007164, -0.030340, 
    0.014048, -0.036727, 0.004136, -0.025168, 0.011207, -0.025996, 0.018914, 0.001944, 0.036907, -0.018693, 
    -0.043699, -0.018033, 0.024246, -0.033516, -0.015471, 0.006804, 0.008329, 0.040592, -0.015169, 0.003469, 
    0.040453, 0.027151, -0.003509, -0.015690, -0.029638, 0.017498, -0.029547, -0.037575, -0.019149, -0.049355, 
    -0.054291, 0.000277, -0.000474, -0.000336, 0.036448, 0.013652, -0.015057, 0.023944, -0.046365, -0.022257, 
    0.020492, 0.014427, 0.005891, -0.029868, -0.023616, -0.018499, -0.029828, 0.036136, -0.036637, -0.002664, 
    0.023219, -0.021181, -0.021585, -0.018679, 0.031866, -0.007900, -0.041356, -0.021442, -0.022641, -0.000220, 
    -0.038054, 0.020006, -0.006015, 0.023124, 0.016509, -0.038923, 0.027933, -0.019277, -0.026130, 0.004652, 
    -0.011827, 0.019532, -0.007396, -0.013552, -0.024977, -0.038782, -0.026378, 0.018516, -0.010183, 0.031381, 
    -0.032825, 0.025269, 0.009961, -0.034171, -0.000087, 0.028639, 0.004622, 0.005391, 0.039759, -0.027123, 
    0.008799, 0.015651, -0.016157, -0.001385, -0.000733, -0.002860, -0.033859, 0.044327, 0.043382, -0.027918, 
    -0.011370, -0.011472, -0.021287, -0.003784, -0.048156, -0.029063, -0.000967, 0.008080, 0.015404, 0.034722, 
    -0.013222, 0.006643, -0.048223, -0.045101, 0.012681, 0.013332, -0.032143, -0.033907, 0.010356, 0.038873, 
    -0.010770, 0.018640, -0.008591, 0.015149, 0.040905, 0.017656, -0.036649, -0.022692, 0.026875, -0.009499, 
    0.011817, 0.032089, 0.052027, 0.022472, 0.013136, -0.028915, 0.019910, -0.017113, 0.019054, -0.001101, 
    -0.017517, -0.014271, 0.028758, -0.040481, -0.045108, 0.002278, -0.015005, -0.002899, 0.019779, -0.012206, 
    -0.004515, 0.030811, 0.028111, 0.034769, 0.005577, 0.017872, -0.021664, -0.010888, -0.011000, -0.032979, 
    -0.005671, 0.004410, -0.015238, 0.002412, -0.024986, -0.021115, 0.002460, -0.016774, -0.008097, -0.024088, 
    -0.010608, 0.024824, 0.029424, 0.021688, -0.037753, 0.031713, -0.026662, 0.032694, -0.026970, -0.029706, 
    0.019449, -0.020960, -0.007508, -0.047601, 0.034216, -0.002942, 0.020412, -0.013455, 0.022154, 0.026410, 
    0.012793, 0.007970, -0.002306, 0.039256, 0.004361, -0.014158, -0.011442, 0.021613, 0.041019, 0.011411, 
    0.014979, -0.026427, -0.052010, 0.023357, 0.021376, -0.006577, -0.039454, 0.032883, 0.035572, -0.029310, 
    0.018275, -0.033123, -0.011116, -0.038797, 0.019130, 0.021646, -0.013628, 0.038197, -0.023971, -0.036191, 
    0.044257, 0.010299, 0.035157, 0.009723, 0.032412, -0.020458, 0.037175, -0.038880, -0.010025, 0.001599, 
    -0.039776, -0.015522, -0.005333, -0.045620, 0.043268, 0.027982, -0.032147, -0.017631, 0.001334, -0.022310, 
    -0.050152, 0.059233, 0.014019, 0.040521, 0.003282, -0.105737, 0.037292, 0.014192, 0.029735, 0.028123, 
    -0.031606, 0.018159, 0.022179, 0.040883, 0.108146, 0.010600, 0.022876, -0.008438, -0.009174, 0.026212, 
    0.026285, -0.023523, 0.007916, 0.028185, 0.004590, -0.002527, 0.033748, 0.064833, 0.005267, -0.002734, 
    0.028770, -0.055988, 0.080249, 0.012568, -0.018878, -0.022925, 0.052547, -0.022932, 0.025569, 0.024355, 
    0.027484, -0.101012, -0.049539, 0.030197, 0.064002, 0.022645, 0.041188, 0.013200, -0.012938, 0.013588, 
    -0.050252, 0.088795, 0.049853, 0.005208, 0.021573, -0.003162, -0.035736, 0.047579, 0.031736, 0.077099, 
    -0.016734, -0.039609, -0.000700, 0.050174, 0.020082, -0.063390, 0.015908, -0.010904, 0.007630, 0.052734, 
    -0.022374, -0.013583, -0.005703, 0.062053, 0.078056, -0.047012, -0.019177, 0.083313, -0.039844, -0.020706, 
    -0.065128, 0.034618, 0.047140, -0.005400, 0.094474, 0.061724, -0.080890, -0.021203, 0.092063, -0.019415, 
    0.050303, 0.073833, 0.001133, -0.028419, -0.047665, 0.000108, -0.004431, -0.039688, -0.005212, -0.018982, 
    0.007248, 0.063917, -0.010286, 0.057817, 0.050159, -0.011050, -0.032686, -0.019490, 0.006437, -0.078022, 
    -0.068575, 0.086857, -0.014524, 0.001861, 0.034075, 0.008255, 0.028641, -0.018631, 0.008909, 0.040796, 
    -0.062481, 0.035402, 0.000975, 0.008303, 0.022131, -0.065520, 0.119734, -0.059652, 0.072385, 0.049185, 
    -0.068797, 0.042883, 0.123665, -0.029271, 0.057605, -0.088827, -0.005577, -0.051397, 0.030785, 0.019626, 
    -0.098788, 0.003615, 0.011483, 0.027219, 0.003870, -0.007217, 0.062334, 0.045767, 0.002188, 0.040872, 
    -0.019235, 0.094607, -0.015056, -0.034727, -0.050781, 0.040822, 0.123420, -0.046455, -0.041553, -0.023301, 
    -0.044671, 0.066146, 0.068020, -0.029917, 0.012811, 0.002153, 0.069406, 0.000302, -0.047888, -0.001164, 
    0.001560, 0.000430, 0.002664, 0.082764, -0.023271, -0.028326, -0.006891, 0.037381, 0.009966, 0.024676, 
    -0.045130, 0.031522, 0.012794, 0.066415, 0.012810, -0.047594, 0.030489, 0.018093, 0.032765, 0.077272, 
    0.079108, -0.041400, -0.030346, 0.066095, -0.001111, -0.004599, -0.070481, 0.041357, 0.074616, -0.088295, 
    -0.139243, 0.001622, 0.100002, 0.038964, -0.003691, 0.031903, 0.024633, 0.030354, 0.051844, -0.035660, 
    -0.063179, -0.041959, -0.031497, -0.004250, 0.001273, 0.002295, -0.041539, 0.013168, 0.022198, 0.018198, 
    0.070283, 0.033499, 0.045954, 0.076016, 0.028108, -0.001926, -0.025963, -0.063406, -0.046511, -0.029023, 
    -0.049564, -0.016740, 0.031446, -0.043115, 0.055458, -0.027461, -0.058537, 0.030020, 0.013483, -0.068922, 
    0.031035, 0.031323, 0.095215, -0.011207, -0.078605, 0.065892, 0.069828, -0.048550, -0.066065, -0.056361, 
    -0.025057, -0.039602, 0.072450, 0.077659, 0.068280, 0.038920, 0.098374, -0.067861, -0.050109, 0.090710, 
    0.066149, 0.075815, -0.036772, -0.137562, -0.079922, 0.002920, 0.029906, 0.059293, 0.113974, 0.056558, 
    0.067449, 0.049166, 0.009262, -0.024581, 0.119858, 0.065929, 0.048979, 0.003128, -0.004750, 0.025150, 
    0.011729, 0.003912, -0.032540, -0.016305, -0.050246, 0.125057, -0.014106, 0.012373, -0.028143, -0.037610, 
    0.024123, -0.054870, 0.024363, -0.015076, 0.042641, 0.053793, -0.002594, -0.000916, 0.048652, -0.002623, 
    -0.010029, -0.035894, -0.011509, 0.042070, -0.006306, -0.044358, 0.041769, 0.015988, -0.046504, -0.023555, 
    0.092213, 0.055875, 0.023189, -0.003025, 0.019940, -0.014923, 0.021319, -0.001919, -0.055239, 0.045188, 
    0.112344, -0.021900, -0.028632, -0.022321, 0.005864, 0.015447, 0.008263, 0.043329, -0.000700, 0.088516, 
    -0.065568, -0.002596, 0.061863, 0.032233, 0.006658, -0.002026, 0.082749, 0.019514, -0.017469, 0.063951, 
    0.028697, -0.033773, 0.025949, 0.048187, 0.020826, -0.080343, 0.011246, 0.105551, -0.044058, -0.012711, 
    -0.002751, -0.019156, 0.058954, -0.087518, 0.064950, 0.072058, -0.085705, -0.071843, -0.004440, 0.007679, 
    0.073855, 0.046508, 0.037533, -0.041173, 0.054772, 0.089928, 0.050385, -0.064733, -0.058859, -0.039924, 
    -0.026510, 0.044979, 0.034382, 0.025934, 0.039471, -0.024138, 0.014250, -0.010338, 0.061437, -0.019507, 
    -0.051523, 0.017133, 0.076350, 0.006748, 0.022448, 0.022706, -0.065599, 0.085481, -0.038160, 0.042621, 
    0.033657, -0.079180, 0.010360, -0.009167, -0.002114, 0.025814, -0.054400, 0.030192, -0.007166, 0.002443, 
    0.046283, -0.028450, -0.046398, 0.028508, -0.008898, 0.041162, 0.011911, -0.099295, 0.037612, 0.053943, 
    -0.009390, -0.093334, 0.025472, -0.014264, -0.037199, -0.016752, -0.011673, 0.012638, -0.025515, -0.031455, 
    -0.062792, -0.100546, 0.066234, 0.043295, -0.015097, -0.075026, -0.082735, 0.060154, 0.073521, 0.023826, 
    0.091223, -0.033299, -0.059960, -0.003137, 0.058655, -0.017235, -0.034670, -0.048217, -0.027614, -0.035993, 
    0.090023, -0.023386, -0.052525, -0.091456, 0.068487, 0.016850, -0.031683, 0.078804, 0.052924, 0.053150, 
    0.063175, 0.011857, -0.059995, -0.064750, 0.027386, 0.027489, -0.044972, -0.020359, 0.019566, -0.047328, 
    0.022105, -0.003004, -0.013171, -0.044940, -0.009974, -0.102274, 0.062826, -0.073382, -0.025307, 0.044176, 
    0.062084, -0.071318, 0.029142, -0.054574, 0.005535, -0.069909, 0.034544, 0.108793, 0.050762, -0.029983, 
    -0.008722, 0.044285, -0.030587, 0.108694, 0.081846, -0.100006, 0.048981, -0.054716, -0.077714, -0.031402, 
    0.050699, 0.143401, 0.034384, 0.015345, 0.070342, 0.041329, 0.039583, -0.089871, -0.004079, 0.054066, 
    -0.005835, -0.082157, -0.091937, 0.109548, 0.013968, 0.044498, 0.003962, -0.024090, 0.023846, 0.018341, 
    -0.001516, -0.014037, -0.027426, -0.040619, 0.087579, -0.029491, -0.027731, -0.001576, -0.067164, -0.011757, 
    -0.063593, 0.009744, 0.027152, 0.026874, -0.019944, -0.001915, -0.007995, -0.008490, 0.034429, 0.042586, 
    0.055178, 0.058023, -0.005029, -0.003175, 0.050335, -0.000408, 0.001233, 0.021066, 0.063829, 0.049964, 
    -0.011382, -0.037490, -0.000155, -0.016075, 0.006053, -0.050038, -0.096065, -0.060034, -0.010788, -0.001881, 
    0.033830, -0.057594, -0.021956, 0.040273, 0.036590, 0.037357, 0.058410, 0.002039, 0.004923, 0.013181, 
    -0.109539, -0.005840, 0.038370, 0.018382, -0.032665, 0.004965, 0.019526, 0.064611, 0.019230, 0.000220, 
    -0.060333, -0.018693, 0.012711, 0.013579, 0.012438, 0.026263, -0.001319, 0.012639, -0.070348, -0.009423, 
    -0.003292, -0.088223, -0.031635, 0.040118, 0.029942, -0.021611, -0.055609, -0.031544, -0.024591, -0.012632, 
    -0.043176, 0.015790, -0.085129, 0.004510, 0.078859, -0.061240, -0.044557, 0.026984, 0.002097, 0.058740, 
    0.106848, 0.086209, 0.019565, -0.036003, 0.111043, -0.041706, 0.011984, -0.000288, -0.020587, -0.058790, 
    -0.035671, 0.051884, -0.073353, 0.037839, 0.084983, -0.001132, -0.078550, -0.069022, 0.002029, 0.038779, 
    0.035180, 0.042408, -0.027344, -0.096406, 0.016717, -0.008576, 0.060239, 0.046446, -0.026668, -0.008762, 
    -0.062484, -0.022196, -0.085190, -0.019008, -0.039206, -0.032236, 0.112399, 0.031789, -0.071004, 0.011364, 
    -0.052643, 0.074162, 0.067960, -0.029586, -0.014082, 0.037981, 0.039476, -0.032255, -0.038051, 0.039780, 
    0.015044, -0.078970, 0.033516, -0.026239, 0.041339, 0.011760, -0.088050, 0.064975, -0.032649, -0.044207, 
    0.037273, 0.085335, -0.015496, -0.051284, 0.064869, 0.061613, -0.023390, 0.076632, -0.035832, -0.017133, 
    -0.011909, 0.060080, 0.017394, 0.011432, 0.048613, -0.105097, -0.098394, -0.001380, 0.066433, 0.039642, 
    -0.059575, 0.022145, 0.033070, -0.024621, 0.083340, 0.036542, -0.008030, 0.108034, 0.063387, 0.010189, 
    -0.014317, 0.018142, 0.049046, 0.055333, 0.062395, 0.063716, 0.003448, 0.031971, 0.036630, -0.036358, 
    0.061934, 0.019122, 0.060373, 0.087272, 0.059320, -0.000069, 0.030970, -0.057691, -0.041314, 0.074424, 
    -0.031919, -0.035689, 0.022999, -0.025594, 0.002758, -0.027178, -0.044015, 0.048050, -0.037174, -0.068538, 
    -0.017949, -0.111783, -0.044577, -0.017770, -0.070235, 0.012468, -0.048789, 0.063791, -0.038180, 0.041837, 
    0.000318, -0.078278, -0.044610, 0.032762, 0.051142, 0.057196, 0.054498, -0.006502, -0.026437, -0.044678, 
    0.141193, 0.051105, 0.057935, -0.057719, -0.004980, 0.134936, 0.053824, 0.088315, 0.077988, 0.041919, 
    -0.012627, 0.049797, 0.052963, 0.034617, 0.039674, 0.030559, 0.015517, -0.009690, 0.001915, -0.127766, 
    -0.068143, -0.079461, -0.049689, 0.076648, 0.034673, -0.026727, -0.044520, -0.026420, 0.000426, -0.026285, 
    -0.004468, -0.001322, -0.040809, -0.019829, 0.068891, -0.013121, 0.028482, 0.091570, 0.051885, 0.053691, 
    -0.015809, -0.054823, 0.011547, 0.038709, -0.007072, 0.024370, 0.049183, -0.059429, 0.008834, -0.039181, 
    0.079411, 0.024171, -0.011542, 0.020486, 0.056051, -0.002841, 0.047109, 0.000173, -0.053192, -0.041940, 
    0.093248, 0.090522, 0.053865, -0.080959, -0.048180, -0.038207, 0.035407, 0.035127, 0.061820, 0.091889, 
    0.000556, -0.038922, -0.007692, 0.002438, 0.026413, 0.035508, 0.006006, 0.036114, -0.033687, -0.002566, 
    -0.011833, 0.046877, 0.069914, 0.026401, 0.054582, -0.021132, 0.042543, -0.018832, -0.042181, 0.062272, 
    0.004350, 0.019775, 0.021334, -0.055533, -0.040061, -0.012792, -0.016901, 0.012621, -0.066230, -0.027420, 
    0.122716, 0.008759, -0.054346, -0.013923, 0.007592, 0.065380, -0.009917, 0.023735, -0.036705, -0.025605, 
    -0.036186, 0.091706, -0.053675, 0.044780, 0.107141, 0.065191, -0.016504, -0.044365, -0.016925, 0.076821, 
    -0.050463, -0.059735, 0.036468, 0.036091, -0.015073, -0.068230, -0.017993, 0.037812, 0.012131, -0.043166, 
    0.034399, 0.053462, 0.005530, -0.038371, 0.083780, 0.085593, -0.071233, 0.029744, -0.023259, -0.011611, 
    -0.093441, 0.047398, 0.073855, 0.027187, 0.049913, 0.059003, -0.012350, -0.009218, -0.035237, 0.085070, 
    -0.002434, 0.046514, 0.032323, -0.045091, -0.011089, -0.128015, 0.090455, 0.049315, -0.043302, -0.034046, 
    -0.037372, -0.015790, 0.061213, 0.017534, 0.085000, -0.012631, -0.098272, -0.028006, 0.008263, 0.062935, 
    -0.028672, 0.017220, 0.017542, -0.013382, 0.011044, 0.008855, 0.004474, -0.036111, -0.108655, 0.019790, 
    0.002737, -0.042952, 0.100712, -0.033840, 0.005631, -0.019259, -0.006435, -0.019989, 0.085304, -0.037596, 
    0.108895, 0.059822, -0.051749, -0.056961, 0.083011, 0.046851, 0.075350, -0.026225, -0.057904, -0.083530, 
    -0.065881, -0.039397, 0.084004, 0.028148, -0.049221, 0.035898, -0.000469, 0.040217, -0.026847, 0.135183, 
    0.075345, -0.055012, -0.071692, 0.049346, 0.020965, -0.021689, -0.058617, 0.019692, 0.117960, 0.056041, 
    0.015984, -0.014680, -0.007722, -0.044815, 0.043042, 0.001428, -0.038509, -0.018919, -0.000089, -0.000150, 
    -0.022282, 0.025065, -0.006647, -0.008960, 0.001205, -0.025748, -0.047823, -0.039300, -0.002676, 0.000418, 
    -0.023759, -0.047133, -0.041663, -0.004554, 0.004808, 0.032770, 0.039431, -0.025112, 0.046593, 0.027070, 
    -0.032239, -0.049627, 0.012355, -0.000751, 0.007556, 0.008875, 0.004081, 0.011825, 0.026019, -0.044385, 
    -0.027708, -0.019663, 0.013237, -0.015518, 0.011043, -0.000894, 0.007310, -0.038688, 0.010222, 0.018122, 
    0.003919, 0.025702, -0.046765, -0.044037, 0.035527, -0.005290, 0.006198, -0.003349, -0.030527, 0.032774, 
    -0.021249, 0.014511, -0.010549, -0.041824, -0.024930, 0.017178, -0.042506, 0.031258, -0.007681, -0.027783, 
    -0.044878, 0.001986, -0.046127, 0.003550, 0.000217, -0.020035, -0.014680, 0.034499, -0.046997, -0.003936, 
    -0.028803, -0.022218, -0.016086, -0.024940, -0.003691, 0.030096, -0.041875, -0.023785, -0.040175, 0.033743, 
    0.003658, 0.028233, -0.043269, 0.039437, -0.023977, 0.013865, 0.001688, 0.011912, -0.035613, -0.009657, 
    -0.040326, -0.006385, -0.019357, 0.023987, 0.027092, -0.027238, -0.023085, -0.043564, -0.025860, -0.038580, 
    -0.016005, 0.021058, -0.017675, -0.000035, -0.035933, 0.017662, -0.025431, -0.027162, 0.018018, -0.019353, 
    0.010653, 0.039253, 0.020822, 0.030349, -0.034016, -0.044344, 0.024617, 0.035397, -0.015279, -0.007041, 
    -0.007375, -0.016737, 0.018274, 0.012453, -0.011130, 0.031794, -0.050142, -0.031115, 0.034055, -0.046444, 
    0.036568, -0.019957, -0.037227, 0.014230, 0.010983, 0.022060, 0.001466, -0.001433, 0.034762, 0.015562, 
    -0.007660, 0.001909, -0.033399, 0.027485, -0.021212, -0.028005, 0.015141, -0.029575, 0.009713, 0.003806, 
    0.032813, -0.001851, 0.031837, 0.009253, 0.002204, -0.011386, -0.011906, -0.019420, -0.041463, 0.027795, 
    0.026313, -0.030537, 0.009538, 0.020334, -0.027352, -0.009675, -0.045270, 0.036386, 0.031528, 0.007545, 
    -0.006361, -0.021763, -0.002058, -0.001007, -0.031441, -0.004631, 0.000029, -0.022022, -0.033704, -0.031234, 
    0.027764, -0.031761, -0.000284, -0.008261, -0.021017, -0.023108, 0.010219, -0.037011, -0.041373, -0.006854, 
    -0.026811, -0.029826, 0.029848, -0.004907, 0.012125, -0.000149, 0.003599, 0.013256, -0.017335, -0.048041, 
    -0.001447, 0.038612, 0.023642, 0.020637, -0.010606, 0.013576, 0.016560, -0.003552, -0.042129, -0.013930, 
    -0.038608, 0.003766, -0.045598, -0.039440, -0.039596, 0.006774, -0.038887, -0.026552, 0.035515, 0.000483, 
    0.007326, -0.000132, 0.005776, -0.040259, 0.016997, -0.016825, 0.029468, 0.012200, 0.024653, 0.004527, 
    -0.004027, -0.046579, 0.015359, -0.011056, -0.051084, -0.002623, 0.010334, 0.021357, -0.023234, -0.014485, 
    -0.002866, -0.002737, -0.011237, -0.017213, 0.048068, -0.009056, -0.007516, -0.043383, 0.039304, -0.009893, 
    0.026301, 0.036527, -0.039243, 0.038730, -0.020917, -0.002741, -0.028414, 0.050970, -0.022782, -0.021047, 
    -0.004762, 0.016517, -0.033509, -0.011897, -0.039635, 0.038583, -0.034696, -0.010882, -0.018210, -0.004331, 
    -0.023882, -0.032062, 0.002964, -0.013792, 0.002064, 0.013676, -0.031662, -0.004242, 0.006000, -0.014132, 
    -0.047008, -0.022521, -0.049017, 0.045938, -0.000273, -0.035684, 0.018832, -0.036414, 0.028443, 0.006279, 
    -0.031202, -0.029707, -0.035126, -0.035819, -0.026210, -0.043352, 0.022755, 0.004391, 0.020044, -0.014715, 
    0.036714, -0.032537, -0.046639, 0.006423, -0.037644, -0.000617, -0.009905, -0.008741, -0.049072, 0.023523, 
    0.039063, 0.010649, -0.011263, -0.010736, -0.036167, 0.009913, 0.014974, -0.031976, -0.022371, 0.012428, 
    0.010465, -0.050564, 0.009704, -0.040251, 0.004781, 0.004263, -0.005332, -0.049830, 0.009247, -0.019361, 
    -0.015247, 0.008755, -0.011231, 0.037731, -0.022540, -0.003103, -0.026505, 0.032351, 0.021819, 0.012541, 
    -0.032409, 0.020883, -0.040533, -0.000306, -0.003546, -0.005366, -0.020551, -0.035271, -0.018357, -0.030463, 
    -0.032460, 0.050091, -0.036893, 0.005681, -0.042402, -0.050417, 0.014348, 0.019278, 0.027200, -0.040024, 
    -0.029426, -0.041129, 0.045486, -0.016834, -0.020590, -0.007729, -0.048809, -0.012856, 0.009177, -0.006612, 
    0.019846, -0.030647, -0.012472, -0.033868, -0.046536, -0.028905, -0.010029, -0.029345, 0.036017, -0.016067, 
    0.036825, -0.013558, 0.033263, -0.000172, -0.010205, 0.022044, 0.029706, 0.017685, -0.011073, -0.021797, 
    0.026643, 0.007997, -0.021516, 0.000202, 0.033150, -0.004927, 0.033457, 0.001511, -0.020958, -0.003594, 
    0.027372, 0.011786, 0.019329, 0.016543, 0.007205, 0.012178, -0.046978, 0.011767, 0.022397, 0.024438, 
    0.007284, -0.008833, 0.007010, -0.040728, 0.013731, 0.026513, -0.019755, -0.031412, -0.006474, 0.044317, 
    0.015362, 0.009420, -0.020081, 0.028465, -0.022600, -0.050444, 0.039129, -0.042597, 0.033265, 0.016687, 
    -0.013042, 0.020772, 0.029282, -0.013927, 0.030259, 0.018956, -0.011208, -0.034450, 0.026238, 0.025894, 
    0.015434, 0.001185, 0.023537, -0.042216, -0.041941, -0.020021, 0.039479, -0.008814, -0.021598, -0.027369, 
    0.014807, 0.004895, 0.020400, 0.040188, 0.033434, -0.033485, -0.042071, -0.032508, 0.031461, -0.004300, 
    0.029841, -0.040451, 0.006122, -0.044985, -0.036273, -0.041888, 0.000962, -0.041732, -0.043792, 0.049793, 
    -0.076509, 0.065156, -0.000594, 0.048684, -0.041603, -0.100849, 0.065498, 0.012792, -0.030780, -0.054422, 
    -0.068438, 0.002609, 0.089395, 0.042291, -0.006472, 0.035901, 0.070071, -0.012273, 0.063099, 0.075322, 
    -0.000048, -0.007386, 0.001077, 0.083111, -0.008229, -0.034386, -0.014279, 0.072537, 0.066749, 0.023536, 
    -0.048825, 0.025794, 0.019115, 0.053791, -0.055682, -0.086974, 0.061073, 0.008282, 0.004824, -0.063822, 
    0.015322, -0.117737, -0.079851, 0.040932, 0.011253, 0.009591, -0.004399, 0.084184, 0.032284, 0.034838, 
    0.041755, 0.026971, 0.053311, -0.018196, 0.019365, 0.046759, -0.057317, -0.011046, -0.007550, 0.074006, 
    -0.047577, -0.034153, -0.052631, -0.028992, -0.018916, -0.093212, 0.002997, -0.062648, -0.005701, 0.080343, 
    0.021809, 0.034715, 0.071851, 0.020975, 0.069522, -0.066406, -0.035708, 0.029461, -0.023680, -0.031726, 
    -0.044613, 0.025950, 0.015772, -0.016339, 0.024170, -0.028653, -0.035215, -0.000844, 0.039660, -0.018867, 
    0.057112, 0.024999, -0.011907, 0.011009, 0.030214, 0.044075, 0.057833, -0.059763, -0.048614, -0.010446, 
    0.011953, 0.010462, -0.029808, -0.025011, -0.017604, 0.072481, -0.036164, 0.018906, -0.007145, -0.042542, 
    -0.089291, 0.054288, 0.010919, -0.017312, 0.024751, -0.070408, -0.037082, 0.053827, 0.040126, 0.059296, 
    -0.080808, 0.035229, 0.032960, 0.012365, -0.007971, 0.022823, 0.085893, -0.026247, 0.053390, -0.008060, 
    0.014438, 0.080485, 0.122198, 0.013860, 0.018192, -0.066006, 0.009858, -0.050502, -0.026679, -0.076888, 
    -0.076529, -0.024271, 0.003013, -0.039680, 0.010231, -0.026597, 0.058872, 0.014631, 0.010010, -0.073568, 
    0.037305, 0.024353, 0.018244, 0.009421, -0.045306, 0.065863, 0.103827, 0.000437, -0.008135, -0.041485, 
    -0.033374, 0.039830, 0.018144, -0.085015, -0.035240, -0.087471, 0.060412, 0.031349, 0.014623, 0.086886, 
    0.010125, 0.025156, 0.042426, 0.066834, -0.005563, -0.003169, 0.054842, 0.008510, 0.090995, -0.007141, 
    -0.071149, 0.073429, 0.039620, 0.042488, 0.048841, -0.015900, -0.060127, 0.005597, -0.011443, 0.059652, 
    0.035206, -0.014119, 0.061789, 0.110122, 0.054647, -0.034220, -0.107240, -0.016936, 0.059719, -0.073260, 
    -0.085643, 0.016592, 0.098276, -0.009942, 0.063137, 0.022918, 0.035345, -0.011014, -0.020010, -0.002271, 
    -0.101478, 0.004949, -0.037759, -0.030822, 0.002503, -0.032026, -0.088186, 0.032485, 0.086358, 0.027427, 
    0.041444, 0.059481, 0.076558, 0.012427, 0.031319, -0.051401, 0.055372, -0.072175, -0.080951, 0.020952, 
    -0.105345, -0.078127, 0.075993, -0.072880, 0.019093, 0.052225, -0.004953, -0.010215, 0.043813, -0.054878, 
    0.066118, -0.034086, 0.049603, -0.016703, -0.090197, 0.011900, 0.046505, 0.028611, -0.045916, -0.089719, 
    -0.039391, -0.039933, 0.025184, 0.081762, 0.075274, 0.040416, 0.014045, -0.010232, -0.045857, -0.007021, 
    0.062177, 0.025634, -0.022855, -0.088691, -0.130254, -0.006288, 0.034956, 0.049667, 0.073686, 0.094728, 
    0.067264, 0.069353, 0.099189, 0.081999, 0.114925, 0.105706, 0.082113, -0.005063, 0.019603, -0.084618, 
    0.052303, 0.061073, -0.009588, 0.033497, -0.034244, 0.103866, -0.014346, 0.058848, 0.046130, -0.012499, 
    -0.070645, -0.029067, 0.067236, 0.027007, 0.004671, 0.039771, 0.006469, 0.018559, 0.053255, 0.048294, 
    -0.030875, -0.077813, -0.042595, 0.010725, 0.025000, -0.071152, 0.018152, -0.008761, -0.069303, 0.009567, 
    0.030972, -0.014311, -0.012299, -0.106840, -0.000487, 0.016393, 0.071511, 0.094767, -0.011899, 0.013298, 
    0.049253, 0.004916, -0.032404, -0.059757, -0.036524, -0.112525, 0.034148, 0.000110, 0.077598, 0.070647, 
    -0.069158, 0.033351, 0.047666, -0.007385, -0.027464, -0.025218, 0.065171, 0.016449, -0.013101, 0.031051, 
    -0.004421, -0.017889, 0.032987, 0.062046, 0.081662, -0.071601, 0.051701, 0.049185, -0.093893, -0.063820, 
    0.030901, -0.061727, 0.067583, -0.005331, 0.056567, -0.003976, -0.088642, -0.026591, 0.060787, 0.014376, 
    0.065436, 0.063442, -0.007186, -0.075569, 0.023761, 0.129929, 0.029726, 0.006057, -0.044451, -0.069687, 
    -0.008680, 0.054115, 0.032670, 0.014048, 0.095001, 0.017911, 0.049725, -0.018630, 0.031940, -0.001037, 
    -0.041340, -0.005985, 0.091352, 0.017219, -0.008869, 0.014028, -0.042159, 0.081166, 0.003759, 0.001774, 
    0.011007, -0.045567, 0.015795, 0.026116, 0.023727, 0.010574, -0.074500, 0.070369, 0.055880, 0.093108, 
    -0.026497, 0.001069, -0.032982, 0.034532, 0.023567, 0.007631, 0.011268, -0.012900, -0.044170, 0.010517, 
    0.048551, -0.059848, 0.016644, -0.014314, -0.029606, -0.047453, 0.010836, 0.014873, 0.009990, -0.026969, 
    -0.046110, -0.114998, 0.039455, 0.061415, -0.067745, -0.072336, -0.057463, 0.098031, 0.027278, 0.072420, 
    0.081391, 0.008688, 0.010372, 0.023450, -0.031071, -0.017810, -0.047512, 0.042966, -0.019966, -0.011896, 
    0.007494, -0.107952, -0.066282, 0.004805, 0.025667, -0.008457, 0.040936, 0.052913, 0.102949, 0.023309, 
    0.027503, 0.073661, -0.037134, -0.039773, 0.056240, -0.016936, -0.001728, -0.019414, -0.022838, -0.000699, 
    0.007362, -0.003611, -0.066196, -0.043871, 0.020628, -0.109040, 0.027793, 0.031397, -0.038487, 0.105569, 
    0.118210, -0.097736, -0.061625, 0.038603, 0.036440, -0.004373, 0.069816, 0.128521, 0.001516, 0.054997, 
    -0.095631, 0.054330, 0.027655, 0.047656, 0.001141, -0.035492, 0.097113, 0.043877, -0.019157, 0.089005, 
    0.034953, -0.113214, 0.042804, 0.064699, -0.039093, -0.037568, 0.023999, 0.029772, -0.019503, -0.015437, 
    -0.012774, 0.019732, 0.099994, 0.021485, 0.077680, -0.065379, -0.028576, -0.000559, 0.093875, 0.049915, 
    -0.016073, -0.011478, -0.022941, 0.002274, -0.032872, -0.017355, -0.015219, 0.001175, 0.016983, -0.014623, 
    0.057683, -0.075054, -0.010728, 0.035663, 0.046533, -0.015702, 0.057460, -0.013101, -0.008963, -0.029893, 
    -0.010354, 0.046873, -0.015098, 0.011801, 0.021111, 0.026317, -0.042366, 0.036851, 0.000609, 0.094600, 
    0.005244, -0.030458, 0.017530, -0.036977, 0.034805, -0.007618, 0.078959, 0.115033, -0.013389, 0.108035, 
    0.092300, 0.043694, 0.046430, -0.036986, 0.036570, -0.057649, -0.032034, 0.041518, 0.043300, 0.027239, 
    0.042837, 0.029681, 0.021430, -0.012929, 0.084817, -0.025066, -0.016441, 0.072296, 0.052935, -0.001352, 
    0.004093, -0.013847, 0.019297, -0.027817, -0.032280, 0.007742, -0.009453, 0.019225, 0.022848, 0.078564, 
    0.071125, 0.047994, 0.042154, 0.008681, -0.037527, -0.058777, 0.041133, -0.037764, 0.005729, 0.018072, 
    0.070617, 0.086274, -0.006441, 0.033832, 0.040697, 0.065541, 0.022576, 0.021319, 0.018776, 0.024581, 
    -0.040553, 0.025021, -0.058438, -0.016264, -0.096139, -0.036149, 0.069988, -0.065584, -0.035930, 0.132748, 
    -0.017121, -0.022369, 0.153887, -0.075502, 0.056761, -0.072435, 0.044262, 0.052328, 0.027857, 0.038824, 
    -0.032277, 0.019836, 0.016343, 0.059266, 0.058927, 0.063232, -0.047634, 0.103999, 0.080149, 0.013428, 
    0.013853, 0.098852, 0.075871, -0.107445, 0.020543, 0.026064, -0.064308, -0.038483, 0.006623, 0.012366, 
    0.011678, 0.015388, 0.045428, 0.013632, -0.048030, -0.002245, -0.000314, -0.021262, -0.012134, 0.073490, 
    -0.010408, 0.014090, 0.024245, 0.019515, -0.040024, 0.020374, 0.026749, -0.012254, 0.019162, 0.024637, 
    -0.011736, -0.012860, 0.007555, 0.091071, 0.008126, -0.082903, 0.056186, -0.006863, -0.010244, 0.070402, 
    0.054221, -0.052356, -0.074646, 0.077478, -0.001559, -0.035241, 0.014360, 0.025326, -0.045049, -0.081058, 
    -0.024702, 0.079866, 0.122189, 0.078512, 0.042876, -0.020840, -0.031652, -0.063002, 0.003507, 0.016992, 
    -0.054749, -0.085584, -0.045499, -0.021865, 0.011082, 0.009582, -0.044426, 0.064285, -0.023732, 0.073742, 
    -0.016237, 0.006974, 0.038962, 0.081568, -0.019589, 0.015275, -0.030763, -0.056674, -0.007959, -0.035710, 
    -0.056417, -0.000152, 0.046364, -0.004365, 0.035305, 0.039879, 0.044742, -0.051958, 0.021703, 0.027586, 
    -0.005754, 0.056487, 0.046887, 0.001058, 0.036100, -0.030433, -0.053289, -0.083565, 0.023689, -0.069262, 
    -0.014336, 0.046216, 0.100079, 0.021760, -0.004260, -0.029718, 0.105208, 0.059597, -0.044501, 0.097777, 
    -0.087460, -0.068765, -0.121044, 0.023578, 0.063617, -0.132610, -0.011661, 0.017435, 0.074693, -0.023153, 
    0.033645, -0.047835, -0.077382, -0.051984, 0.020972, 0.004789, -0.001094, -0.009076, 0.000068, 0.097949, 
    0.078328, 0.068507, -0.035943, -0.008869, -0.062567, 0.045288, -0.064113, -0.058573, 0.015399, 0.002227, 
    0.006095, -0.022646, 0.066160, 0.015203, -0.102446, 0.076512, -0.007348, -0.137868, -0.022298, -0.028447, 
    -0.011221, 0.100804, -0.020498, -0.062966, 0.010019, 0.039860, 0.064661, 0.067120, -0.023066, -0.074890, 
    0.013861, 0.014187, 0.006319, -0.078121, 0.009112, 0.039997, -0.022926, 0.030682, 0.003311, 0.070679, 
    0.001052, -0.050385, -0.097338, -0.051390, 0.021578, -0.002937, -0.071043, 0.013832, 0.012171, -0.043595, 
    -0.057826, 0.012693, -0.020253, 0.039717, -0.054799, 0.059977, 0.088046, 0.104995, -0.015759, 0.020551, 
    0.124248, 0.011119, -0.010207, 0.049023, 0.077741, 0.014451, 0.017224, 0.042994, 0.044931, -0.017034, 
    0.022606, -0.027368, -0.005417, -0.044684, -0.038389, 0.064580, -0.080811, 0.006694, 0.073482, 0.050478, 
    -0.027540, -0.028842, -0.007233, -0.009483, 0.044034, 0.054758, -0.016403, -0.041394, -0.007750, 0.040767, 
    -0.014059, 0.036052, 0.053816, -0.011397, -0.006547, -0.028837, 0.019794, -0.050699, 0.014429, -0.055072, 
    -0.000099, 0.018247, 0.076443, -0.026275, 0.023113, 0.010319, -0.028350, 0.063758, -0.056059, 0.058839, 
    -0.038093, -0.016414, -0.025137, 0.037882, -0.051906, -0.040990, 0.001746, 0.002717, -0.016251, -0.033872, 
    0.103822, -0.077203, -0.073756, 0.114642, -0.007649, 0.045145, -0.052320, -0.077711, 0.067638, 0.086348, 
    -0.021231, -0.083578, -0.063274, -0.042074, -0.044231, 0.044866, -0.024907, 0.002577, -0.009789, 0.035722, 
    0.005095, -0.033406, 0.036806, 0.033663, -0.056705, -0.025516, 0.082211, 0.069229, 0.086268, -0.023605, 
    0.038389, -0.089621, -0.077034, 0.131646, -0.006289, 0.039805, -0.038703, 0.007397, -0.023834, 0.027201, 
    0.071194, 0.012609, -0.015356, -0.040035, 0.025234, 0.097483, -0.016761, 0.030489, 0.024176, 0.071476, 
    0.049684, -0.083091, -0.005495, 0.003328, -0.016701, -0.050521, -0.042121, 0.042807, -0.037651, -0.023059, 
    0.030976, -0.071303, -0.026160, 0.017678, -0.036983, -0.047970, 0.040292, -0.086293, 0.060179, 0.026503, 
    0.054270, -0.046881, 0.088483, -0.022891, 0.011795, 0.000774, 0.127020, 0.120446, -0.094532, 0.043173, 
    0.023717, 0.036489, -0.028721, -0.035026, 0.019758, 0.026799, 0.025670, 0.017053, 0.008475, -0.013364, 
    -0.047191, -0.021890, 0.029077, 0.039504, -0.039708, 0.035259, -0.041162, -0.012887, -0.006167, 0.028452, 
    0.032155, 0.036271, -0.040854, -0.030207, 0.010155, -0.043126, 0.001893, -0.036922, 0.028575, 0.009382, 
    -0.002142, 0.022976, -0.030887, -0.021259, -0.044947, -0.006958, -0.028768, 0.002730, -0.032790, -0.010738, 
    0.023664, -0.043209, -0.012003, 0.009234, -0.021010, -0.021690, -0.048418, 0.010149, -0.035202, -0.044137, 
    0.015949, -0.035656, -0.041878, 0.024956, 0.022780, 0.017627, -0.049053, -0.004948, -0.019727, 0.041718, 
    -0.016360, -0.036437, 0.035640, -0.003446, 0.014232, 0.032850, -0.050992, -0.022592, -0.034785, -0.013621, 
    -0.009324, 0.017384, -0.047865, 0.009957, -0.008071, -0.012183, 0.033182, -0.049015, 0.017673, 0.009896, 
    0.014621, 0.026081, 0.001257, 0.026451, 0.003848, 0.011984, -0.021119, 0.034663, -0.027486, 0.026146, 
    -0.026076, 0.027095, 0.014040, -0.048619, -0.033046, 0.031940, -0.041714, -0.031372, -0.045264, 0.007791, 
    0.023727, 0.011431, -0.015771, 0.023789, 0.032145, -0.040121, 0.031503, -0.020069, 0.015308, 0.008421, 
    -0.002813, 0.010956, -0.026423, 0.007553, 0.034738, 0.036845, 0.001262, -0.052730, -0.037859, -0.021870, 
    0.014246, -0.039505, -0.027927, -0.023036, 0.034230, 0.032808, -0.026581, -0.010021, -0.048448, -0.028286, 
    -0.023233, -0.021663, -0.012077, -0.026717, -0.027837, 0.012337, -0.053565, 0.001592, 0.038048, -0.031099, 
    0.020740, -0.035915, -0.050974, -0.046479, -0.045946, -0.024745, -0.001973, 0.032229, 0.032013, -0.020493, 
    0.002719, -0.035023, -0.041976, 0.029924, -0.002883, -0.025460, -0.036731, -0.025575, 0.019170, 0.013296, 
    -0.005695, 0.012479, -0.016640, -0.047888, -0.037900, 0.038275, 0.010180, 0.031825, 0.011850, -0.027372, 
    0.023969, 0.021628, -0.032954, 0.032666, -0.033983, 0.014872, -0.043229, -0.033675, 0.033543, 0.000507, 
    -0.032762, 0.034627, 0.016721, 0.011470, 0.042811, 0.021792, -0.040185, -0.016324, -0.049730, -0.040595, 
    0.017369, -0.000177, -0.032694, 0.026159, -0.030048, 0.025384, 0.001531, -0.000466, 0.023986, -0.006317, 
    0.019002, -0.016408, 0.010794, -0.009789, 0.025537, 0.031444, 0.009853, -0.006257, -0.041857, -0.051037, 
    -0.007990, 0.001489, -0.016728, -0.010967, -0.011878, -0.047716, -0.012588, 0.021171, -0.011588, -0.018089, 
    -0.037515, -0.047810, 0.027426, 0.029795, 0.021629, 0.014928, 0.028879, -0.038943, 0.037943, -0.039845, 
    -0.023986, -0.010809, -0.026503, -0.038602, 0.038771, -0.037589, 0.031690, -0.034917, -0.022159, 0.041966, 
    0.019964, 0.005828, -0.033659, -0.016821, 0.020170, 0.010869, 0.014541, -0.031743, 0.028812, 0.044060, 
    0.002023, 0.015255, 0.021544, -0.037828, -0.024486, 0.013649, 0.043356, 0.020005, 0.009204, 0.007559, 
    -0.021977, -0.016993, -0.015987, 0.000359, -0.025468, -0.044893, -0.020613, -0.031393, 0.032527, -0.008208, 
    -0.038694, -0.031114, 0.029748, -0.024720, -0.048709, -0.008896, -0.022913, 0.026107, -0.028507, 0.021477, 
    -0.000965, -0.012209, 0.013829, -0.049171, 0.008311, -0.007401, -0.017321, -0.021631, -0.020876, 0.014153, 
    -0.009191, 0.029766, 0.022404, -0.047091, 0.021988, 0.009680, -0.049054, -0.021362, -0.030020, 0.029725, 
    0.016750, -0.010126, -0.035864, 0.001916, -0.020923, 0.002832, -0.034705, 0.016527, 0.031789, -0.043211, 
    -0.046923, 0.018846, -0.023150, -0.027375, 0.031884, -0.044488, 0.001051, -0.018861, -0.023867, -0.045402, 
    -0.014442, 0.026330, -0.047731, -0.027303, -0.034304, -0.018910, 0.043100, -0.045509, -0.029950, -0.030421, 
    0.022731, -0.022725, 0.018067, -0.038339, 0.035551, 0.001958, -0.049000, 0.001968, 0.006239, -0.052521, 
    0.019715, 0.017574, 0.012108, -0.032783, 0.000329, 0.042879, 0.029696, 0.016371, -0.049843, 0.024474, 
    0.024668, -0.047199, -0.040040, -0.008305, -0.021536, 0.035415, -0.027670, -0.042137, -0.036406, -0.041263, 
    -0.050617, -0.047715, 0.017946, -0.049591, -0.045493, -0.016370, -0.020788, -0.049614, -0.001475, 0.024140, 
    -0.015314, 0.008311, 0.019810, -0.019253, 0.005872, 0.036953, -0.030183, -0.014867, 0.004991, 0.006888, 
    0.016574, -0.035675, -0.053481, 0.032858, -0.018963, 0.024463, 0.023665, -0.047860, -0.017765, 0.003496, 
    -0.018040, -0.030738, 0.002382, 0.011493, 0.002676, -0.004415, -0.007978, 0.041472, 0.030694, -0.009930, 
    0.013682, -0.011153, -0.015899, -0.005902, -0.039005, 0.007923, -0.008944, -0.040954, 0.023951, -0.010203, 
    -0.030567, 0.009485, 0.012539, -0.048667, 0.019469, -0.021465, 0.027725, -0.016264, -0.028447, 0.011784, 
    0.015844, 0.004265, -0.016320, 0.035027, -0.050573, 0.030324, -0.035583, 0.041240, -0.043043, 0.045504, 
    0.036354, -0.029028, -0.037197, 0.029869, -0.027554, 0.033465, 0.006647, 0.021647, 0.020792, -0.000626, 
    -0.026490, -0.011157, 0.023553, 0.005522, 0.033291, -0.020991, -0.031451, 0.002804, 0.030668, -0.021326, 
    -0.019156, -0.022331, 0.028906, 0.020076, -0.017704, 0.033584, -0.009788, -0.016746, 0.028465, 0.025940, 
    -0.043525, -0.025581, 0.041368, 0.014177, -0.014443, -0.035820, -0.003298, 0.043281, -0.041850, -0.037526, 
    0.016826, 0.004951, 0.031764, 0.048996, 0.033389, 0.021386, 0.002420, 0.036230, -0.010597, 0.044957, 
    0.045926, 0.004722, 0.097682, -0.050641, 0.034399, -0.074010, -0.018705, -0.024308, 0.093217, -0.113974, 
    -0.064429, 0.081460, 0.028374, 0.075978, 0.040351, 0.001673, 0.000305, 0.039989, -0.063575, 0.084458, 
    0.039059, -0.051016, -0.005299, 0.004490, -0.098936, 0.011141, 0.033251, 0.001327, -0.113788, 0.017338, 
    -0.008447, 0.032208, 0.062006, 0.027270, 0.047660, -0.051656, -0.048478, -0.056074, 0.100243, 0.070586, 
    -0.052056, 0.043990, 0.024510, 0.054384, -0.026766, -0.022809, -0.054614, 0.066039, 0.057837, 0.041776, 
    -0.022564, 0.017269, -0.019949, 0.037677, 0.053049, -0.080521, 0.016679, 0.019535, -0.062365, -0.001647, 
    0.034956, 0.055016, 0.050773, 0.030267, -0.017245, -0.039871, -0.061509, -0.025490, -0.045118, -0.076240, 
    -0.014861, 0.064692, -0.039067, 0.047897, -0.040815, -0.004179, 0.012936, 0.008202, -0.037832, 0.044412, 
    -0.004977, -0.030269, 0.051498, 0.068265, -0.086451, 0.035905, 0.100135, -0.065945, -0.043352, -0.001572, 
    0.047355, 0.048361, 0.104754, 0.083001, 0.068711, 0.095952, -0.024918, -0.065547, -0.015521, -0.056868, 
    0.005982, 0.053661, 0.039489, 0.049943, -0.030640, 0.053084, 0.065609, 0.023305, 0.091993, -0.035043, 
    -0.009052, 0.033714, -0.055675, 0.025031, 0.055046, 0.099099, 0.055521, -0.038318, 0.031760, 0.001362, 
    -0.018275, -0.018689, 0.116272, 0.015908, 0.056546, -0.003191, -0.027556, 0.015159, 0.017778, -0.120891, 
    0.006188, -0.024119, -0.004087, 0.041272, -0.005521, 0.062347, 0.044131, -0.005211, 0.002720, 0.050722, 
    -0.109389, -0.014345, 0.058393, 0.009210, -0.006397, 0.059167, 0.114798, 0.036092, -0.005172, 0.065831, 
    0.088908, -0.002367, -0.036082, 0.007065, 0.010666, 0.011102, 0.098889, 0.075304, -0.110262, 0.014698, 
    0.009347, -0.004867, -0.062357, -0.037488, 0.051656, -0.023173, 0.041983, 0.027393, 0.060637, -0.098684, 
    0.053618, -0.022418, 0.046552, 0.056286, 0.037375, -0.026781, -0.081909, 0.019936, -0.039748, -0.030991, 
    -0.046280, 0.049131, 0.076218, 0.007254, -0.006848, 0.028689, -0.051451, -0.063770, 0.065259, -0.024075, 
    -0.032183, 0.005003, 0.041455, -0.103494, 0.013077, 0.134511, 0.106591, 0.084080, 0.067827, 0.072527, 
    -0.063671, -0.016061, 0.001302, 0.016547, -0.025351, 0.011304, 0.080309, 0.086160, 0.014941, -0.031335, 
    -0.048885, 0.027371, 0.084527, -0.004832, -0.046933, 0.048808, -0.052820, -0.025932, 0.128103, -0.068337, 
    -0.028040, 0.039072, 0.012588, -0.000086, -0.070563, -0.064189, 0.087824, 0.092916, 0.043238, 0.085623, 
    0.018236, -0.058663, -0.002060, -0.009474, 0.011041, -0.066115, -0.047696, 0.050991, -0.088118, -0.047616, 
    0.077222, 0.002178, -0.055414, 0.058972, -0.126461, 0.064671, 0.097609, 0.065027, -0.064067, -0.000603, 
    0.022523, -0.090011, -0.052796, 0.025992, 0.026343, 0.096410, -0.047385, -0.099610, -0.030058, -0.035082, 
    0.125869, 0.085691, 0.071843, -0.070540, 0.063464, 0.149798, -0.077785, -0.034903, 0.017071, 0.031309, 
    -0.014930, 0.065101, 0.123884, 0.074393, 0.059340, 0.029203, 0.037128, -0.028294, 0.120396, -0.064561, 
    -0.078273, 0.043338, -0.021455, -0.002160, -0.030045, 0.003712, 0.035635, -0.032767, 0.021893, -0.030350, 
    0.031259, 0.011851, -0.027221, -0.029796, 0.112007, -0.056853, 0.032976, 0.057369, -0.015313, -0.008319, 
    0.132483, -0.027634, -0.041263, 0.104656, -0.000420, -0.048832, 0.070450, 0.015054, -0.056021, 0.079351, 
    0.122136, 0.085235, -0.031713, 0.083099, -0.034951, -0.026258, 0.048773, 0.032763, -0.031722, 0.009108, 
    0.066215, -0.042557, 0.016553, 0.105767, 0.108319, 0.027997, -0.006074, -0.061406, -0.040586, 0.059632, 
    -0.009771, -0.002276, 0.033091, 0.045770, -0.034969, 0.027220, -0.049944, -0.006504, 0.061862, 0.002649, 
    0.013712, 0.015898, 0.067492, -0.020409, 0.018669, -0.023184, -0.057943, 0.048452, -0.005422, -0.033861, 
    -0.074500, 0.098941, -0.013532, -0.052184, 0.061524, 0.001565, 0.036057, -0.033545, 0.032474, -0.004224, 
    0.030018, -0.031782, -0.051229, -0.020067, -0.034754, 0.034734, 0.065171, -0.009977, -0.022460, -0.046157, 
    -0.080181, -0.078658, -0.097283, 0.011168, 0.069130, -0.021271, 0.048083, 0.063867, 0.066354, 0.041241, 
    0.021183, -0.000969, 0.038346, 0.065865, -0.023124, -0.101392, -0.005284, 0.022388, -0.015954, -0.057474, 
    0.012707, 0.029765, 0.070151, 0.024121, 0.002428, 0.007492, 0.030659, -0.022759, 0.060773, 0.018438, 
    -0.061343, 0.041382, 0.085931, -0.066766, 0.034247, 0.012095, -0.020262, 0.030597, -0.048357, -0.030181, 
    0.085988, -0.017524, -0.005955, 0.044420, 0.035483, -0.033463, 0.054452, 0.034026, -0.041361, 0.023572, 
    0.037988, 0.116551, 0.058877, 0.075995, -0.055937, -0.117100, -0.095134, 0.029576, -0.001939, -0.030053, 
    -0.059645, 0.083436, 0.012069, -0.039579, -0.012198, -0.024312, 0.038827, 0.014559, 0.018774, -0.050585, 
    0.094228, -0.010223, -0.032471, 0.009100, 0.094541, 0.019295, 0.008104, -0.021823, 0.050117, 0.007670, 
    -0.084725, 0.018171, 0.014154, -0.065489, 0.072916, 0.109644, -0.078351, -0.136174, 0.005385, 0.061838, 
    -0.027421, 0.003188, 0.037926, 0.020713, 0.022558, -0.040710, -0.024635, 0.082358, -0.042486, -0.061467, 
    0.084526, 0.002236, -0.063552, 0.007772, -0.109438, -0.076525, -0.035741, -0.094223, -0.006331, -0.024956, 
    -0.110275, 0.053532, -0.042994, 0.087606, -0.019909, -0.036460, 0.123050, 0.030444, -0.096448, 0.173745, 
    0.094305, 0.099465, 0.040905, 0.021013, -0.013741, 0.058218, 0.035003, -0.054763, 0.028294, -0.078751, 
    -0.072789, 0.041863, 0.022811, -0.014174, 0.104452, 0.022265, -0.043206, -0.012151, 0.021879, -0.006630, 
    0.040888, 0.008540, -0.021355, -0.073730, 0.079600, -0.001920, 0.048419, 0.034777, -0.101232, -0.099271, 
    0.025045, 0.019096, -0.022162, -0.008924, 0.047234, 0.038574, 0.073456, 0.041118, -0.013290, 0.027191, 
    0.024350, 0.029680, 0.027910, -0.006467, -0.044079, 0.054572, -0.067904, 0.021790, 0.082174, 0.087703, 
    -0.058016, 0.030366, -0.010389, -0.046884, 0.044337, -0.028292, -0.026197, -0.050444, 0.060440, 0.041250, 
    0.052730, 0.010396, -0.046876, -0.030192, 0.089021, -0.013883, 0.012360, -0.021490, 0.077833, 0.077936, 
    -0.074620, 0.036320, 0.022230, -0.067555, 0.043469, 0.036564, -0.030437, 0.001114, 0.072470, -0.000023, 
    0.001300, -0.018480, -0.084627, -0.096877, -0.070290, -0.033760, 0.080566, 0.047373, 0.002529, 0.046012, 
    0.029054, 0.037475, 0.013922, 0.064326, 0.019076, -0.061877, -0.010650, -0.056029, -0.028663, 0.019709, 
    -0.061367, 0.017476, -0.015004, 0.011413, 0.052512, -0.028287, 0.016654, 0.008832, 0.082544, 0.037518, 
    0.085681, 0.059943, -0.088650, -0.053918, -0.009435, -0.040311, 0.092121, -0.068504, -0.005336, 0.113093, 
    0.019026, -0.017576, -0.010330, 0.004665, -0.000085, -0.059833, -0.033848, -0.007938, 0.067742, 0.015673, 
    0.020591, 0.079402, -0.023429, 0.015853, -0.044168, 0.020723, 0.022430, -0.007073, 0.070678, -0.021452, 
    -0.020333, 0.057090, 0.053289, -0.004547, -0.036923, -0.075654, 0.061325, -0.042242, 0.092625, 0.003140, 
    -0.027430, 0.071293, 0.098531, 0.013071, 0.000103, 0.038914, 0.067290, 0.004686, -0.006677, 0.039130, 
    0.022033, -0.026188, -0.032395, -0.010473, 0.036529, 0.060562, 0.022232, 0.018189, -0.013301, 0.033910, 
    0.018024, -0.066969, -0.005800, 0.046080, 0.044763, 0.010549, -0.001654, 0.134406, -0.120170, 0.054610, 
    0.012392, -0.094774, -0.060152, 0.101430, 0.045358, -0.112739, -0.038348, -0.010121, -0.012788, -0.032271, 
    0.007257, 0.064947, 0.046285, 0.018573, 0.033076, -0.024293, -0.009253, 0.006293, 0.060859, 0.091009, 
    0.023804, -0.075167, -0.044539, 0.011988, 0.029155, -0.002605, -0.062732, 0.067331, -0.056598, 0.052720, 
    0.022254, 0.007105, -0.013386, 0.009821, 0.084089, 0.003092, -0.100493, -0.113625, 0.012269, 0.003385, 
    -0.020591, 0.005292, 0.004089, 0.000518, -0.017742, -0.012360, 0.006528, -0.049298, 0.011458, 0.001902, 
    0.002890, 0.021389, 0.049316, -0.054824, 0.042793, 0.100624, -0.009668, -0.030810, -0.020830, 0.039750, 
    -0.079929, 0.072018, 0.024068, 0.047422, -0.005250, -0.029159, 0.151922, 0.117454, 0.017081, 0.147991, 
    0.040162, -0.019670, -0.009200, 0.060531, -0.049218, -0.079218, 0.105052, 0.123784, 0.025359, -0.031318, 
    0.106595, 0.033722, -0.040814, -0.058521, 0.015306, 0.024608, 0.003599, 0.079829, -0.089810, 0.025120, 
    0.022130, -0.036403, -0.038404, -0.001448, -0.007128, 0.015546, -0.064802, -0.017408, 0.022867, 0.000203, 
    0.039006, -0.009473, 0.015315, 0.009027, -0.028604, -0.001995, 0.050962, -0.019197, 0.043953, 0.003969, 
    -0.046519, 0.023486, 0.023869, -0.085424, 0.018686, 0.057167, -0.013607, 0.011382, 0.085242, -0.027550, 
    0.015137, -0.003122, 0.023672, 0.020625, 0.053414, 0.042183, -0.003026, -0.059664, -0.033142, 0.110034, 
    0.074367, 0.125033, -0.004118, -0.123954, -0.056157, -0.033278, -0.034780, 0.034559, 0.031428, 0.019798, 
    0.015172, -0.001767, -0.045363, 0.005684, -0.033183, 0.033519, 0.071402, 0.095925, 0.018950, -0.002493, 
    0.038242, 0.024926, -0.040383, 0.051386, 0.066747, 0.068781, 0.018739, -0.004945, 0.045438, 0.081981, 
    -0.063677, -0.100686, 0.099764, -0.031191, -0.035323, -0.006232, -0.095478, 0.036014, -0.036016, -0.016335, 
    0.006570, 0.090380, 0.042677, -0.017232, -0.004871, -0.044682, 0.017815, -0.058560, 0.009934, 0.015603, 
    0.006293, 0.067843, 0.019546, 0.076208, -0.007522, 0.016485, 0.007613, 0.004927, 0.002638, 0.017117, 
    -0.027908, -0.019335, 0.060327, -0.005979, 0.016880, 0.062699, -0.020860, 0.041512, -0.004125, 0.082611, 
    0.050374, -0.065839, -0.063647, -0.007010, 0.076433, 0.008869, -0.057803, 0.037049, -0.084139, 0.010204, 
    -0.017191, -0.004496, 0.030703, 0.028930, -0.040401, 0.079223, -0.035320, -0.026859, 0.021482, 0.067884, 
    -0.019598, -0.081128, 0.012778, -0.078663, -0.016952, 0.006495, -0.028217, 0.063827, 0.041367, 0.007731, 
    -0.065749, -0.121872, -0.017111, -0.021027, 0.068759, 0.030630, 0.001072, 0.065758, -0.020509, -0.027673, 
    0.003550, -0.025794, 0.008039, 0.058983, 0.056454, 0.032831, -0.041226, 0.018249, -0.027918, 0.103936, 
    -0.028049, 0.011492, 0.024927, -0.064488, -0.020003, 0.040971, -0.007539, 0.026233, -0.000365, 0.079734, 
    0.083076, 0.015702, -0.020154, -0.036993, 0.080241, -0.050003, 0.054378, 0.100747, -0.019720, -0.099538, 
    -0.008314, -0.004719, 0.078117, 0.035461, -0.026974, -0.066431, 0.060661, -0.001657, 0.029730, 0.077071, 
    0.009144, -0.102290, 0.021367, -0.074306, 0.035865, 0.030515, 0.038099, 0.118006, 0.025030, 0.011011, 
    -0.040814, 0.023836, -0.113978, -0.009340, -0.047969, -0.083415, -0.069971, 0.020651, -0.036943, -0.014112, 
    -0.004871, -0.103687, 0.035686, 0.086888, -0.000475, 0.004921, -0.043814, -0.075492, 0.022977, 0.049957, 
    0.080743, -0.082355, 0.044468, 0.063676, 0.042880, -0.067974, 0.050130, 0.062693, 0.032033, 0.076370, 
    0.000613, 0.083010, -0.046019, -0.004643, -0.037934, 0.072145, 0.022823, 0.062298, 0.060366, 0.015947, 
    -0.000664, -0.017788, -0.070727, 0.070845, -0.020257, -0.056818, 0.032585, -0.013869, 0.001068, 0.072473, 
    0.048972, 0.008892, 0.081181, -0.053761, 0.010172, 0.054462, 0.002571, 0.024988, -0.002885, 0.064469, 
    -0.047811, -0.018176, -0.037314, -0.017456, -0.046008, -0.017291, 0.116375, 0.023522, 0.010745, 0.098316, 
    0.045435, 0.068479, 0.067544, 0.066228, 0.016462, 0.003527, 0.030205, 0.032170, -0.007848, -0.024076, 
    0.021250, 0.012481, -0.020342, -0.030304, 0.098467, 0.026985, -0.014706, 0.088936, 0.032418, -0.013689, 
    0.013105, 0.010401, 0.021737, 0.022028, 0.030128, 0.021924, -0.004272, 0.002584, -0.037513, 0.009622, 
    0.063800, 0.020623, 0.022148, -0.020514, -0.065502, 0.071059, 0.030188, 0.023143, -0.031585, 0.050536, 
    0.030614, 0.003618, 0.042275, -0.078653, 0.080866, -0.005153, 0.011656, 0.023850, -0.000302, 0.040320, 
    0.010574, 0.041486, 0.005449, -0.036923, -0.036593, -0.018799, -0.033574, -0.013510, -0.023078, 0.049838, 
    0.000118, 0.051801, 0.077518, -0.040221, 0.016716, 0.079777, 0.041716, 0.002128, 0.002804, -0.005821, 
    0.034295, -0.102629, -0.018887, -0.037359, 0.032129, 0.069648, -0.023827, -0.000478, 0.059614, -0.032456, 
    0.060352, -0.003670, -0.072815, -0.093718, 0.076969, -0.006227, -0.144507, -0.048501, -0.083202, 0.042844, 
    0.018040, 0.068832, -0.018956, -0.077730, -0.024306, -0.056304, 0.040673, 0.050813, -0.044676, 0.037951, 
    0.074364, 0.055159, 0.041714, 0.012641, -0.050505, -0.026595, 0.078894, 0.025581, 0.094853, 0.018697, 
    -0.046675, 0.049154, 0.043848, 0.034541, -0.038041, -0.025873, 0.054845, -0.077125, 0.038975, -0.010097, 
    0.009813, -0.005702, 0.069645, 0.061706, -0.029746, 0.047679, 0.006713, -0.004577, 0.019878, -0.118200, 
    -0.000109, 0.054992, 0.023321, 0.019805, -0.010913, 0.081131, -0.113924, -0.065755, -0.047498, -0.025967, 
    0.004791, -0.029930, -0.070394, -0.027097, 0.057168, 0.056135, 0.051565, -0.056946, -0.018762, 0.033077, 
    -0.008857, 0.065402, 0.065508, 0.097587, 0.044047, -0.074908, -0.047512, -0.084696, -0.052169, 0.081037, 
    -0.001713, 0.005710, 0.045643, 0.000989, -0.014776, 0.066067, 0.001592, 0.019092, 0.063468, 0.030057, 
    -0.056354, -0.123892, 0.006848, 0.029854, 0.020964, -0.099286, 0.012785, -0.023756, -0.026540, -0.057194, 
    0.050800, 0.069923, 0.032186, 0.030518, 0.054360, 0.050578, -0.009837, -0.058598, 0.028171, 0.015359, 
    -0.122471, -0.119306, -0.019531, -0.048581, 0.070285, -0.107757, 0.018710, -0.009287, -0.029190, 0.091273, 
    -0.076456, -0.099850, -0.117308, -0.011846, 0.091612, -0.052204, -0.009153, -0.027335, -0.060481, -0.023759, 
    0.038723, -0.006396, -0.020489, -0.042341, -0.041984, 0.048112, 0.013609, -0.054891, -0.008570, -0.014232, 
    -0.070202, -0.072572, 0.029787, -0.003748, -0.037255, 0.037552, -0.084758, -0.019234, 0.007880, 0.038368, 
    0.034178, 0.039926, -0.003560, -0.060703, 0.001199, -0.035273, 0.085382, 0.019750, -0.045792, -0.025115, 
    0.030779, 0.030318, -0.056445, -0.090620, -0.009016, 0.054809, 0.034699, 0.059449, 0.021078, -0.070789, 
    0.006018, -0.099757, -0.041115, -0.030767, -0.038620, -0.036815, -0.011770, -0.022586, -0.017340, -0.079203, 
    0.024418, 0.043796, 0.034915, 0.020569, -0.000714, 0.028327, -0.041080, 0.020456, -0.011086, 0.063113, 
    0.060361, 0.044183, -0.008481, 0.019572, -0.056570, 0.015517, 0.116277, 0.000401, -0.045098, -0.109875, 
    0.065516, 0.065186, -0.091569, -0.020329, 0.023920, -0.015058, -0.038004, 0.007833, 0.022221, -0.015614, 
    0.042735, -0.106405, 0.045279, -0.004617, -0.007383, -0.012595, -0.027736, 0.009464, -0.018882, 0.019530, 
    -0.008669, 0.006973, 0.045610, 0.000020, 0.014598, 0.000865, -0.034211, -0.075876, -0.015069, 0.071014, 
    0.060027, -0.005941, 0.064234, 0.016700, 0.029145, 0.088696, 0.069921, 0.052848, -0.026637, 0.026482, 
    -0.084576, 0.011188, 0.014736, -0.029818, -0.016472, 0.079535, 0.071300, -0.003181, 0.013489, 0.018428, 
    0.089847, 0.038859, -0.095208, 0.087140, -0.006345, -0.012869, -0.033146, -0.043345, 0.042320, 0.097595, 
    -0.013453, -0.018333, -0.038066, 0.054019, -0.068905, 0.024529, 0.018228, 0.009792, 0.039466, -0.020423, 
    -0.036392, 0.014128, 0.041331, 0.082740, -0.125313, 0.026572, 0.020493, -0.001864, 0.013966, 0.107961, 
    0.065746, -0.055582, -0.025141, 0.080399, -0.008005, 0.082297, 0.036471, -0.053275, -0.032929, 0.012612, 
    0.104954, 0.007543, -0.080790, 0.053922, 0.008245, 0.031525, 0.072575, 0.086186, 0.026449, -0.048133, 
    0.082099, 0.037965, -0.055639, -0.045455, -0.010334, -0.055689, -0.046286, -0.021360, 0.003012, -0.064134, 
    -0.005754, -0.115272, -0.049427, -0.065804, -0.039624, -0.005511, 0.008604, -0.020407, -0.013350, 0.067233, 
    0.025514, 0.006601, 0.016430, -0.035537, 0.033736, -0.014450, 0.069359, 0.068904, -0.037409, 0.011394, 
    0.113803, -0.079669, 0.020569, -0.009246, 0.050353, -0.002012, -0.081720, 0.051969, -0.034669, -0.059724, 
    0.030812, 0.055409, 0.002303, 0.056445, 0.026522, 0.062057, -0.028097, 0.025363, 0.034811, 0.058265, 
    0.044346, -0.015282, -0.032695, 0.098902, -0.018032, 0.091456, 0.064076, 0.050032, -0.100491, 0.052942, 
    0.072832, 0.027481, -0.024672, 0.054966, 0.012103, 0.114780, 0.010045, -0.034853, 0.067665, 0.094867, 
    -0.085182, 0.072029, 0.067612, -0.010026, -0.091960, 0.021915, -0.056285, -0.027938, 0.053192, 0.071440, 
    0.071659, -0.019470, 0.071432, 0.055716, 0.040369, -0.044489, 0.051214, 0.024840, -0.022907, -0.066130, 
    0.124142, 0.039102, 0.050312, 0.067236, 0.030078, 0.062325, 0.007977, 0.057114, -0.023286, -0.005196, 
    0.039186, 0.004878, 0.040901, 0.009203, 0.000962, 0.096235, 0.075320, -0.022614, 0.028405, 0.030459, 
    0.091282, -0.059848, -0.020821, 0.036233, -0.077160, 0.023899, 0.071176, 0.037002, -0.077690, -0.000492, 
    -0.023364, -0.006786, 0.059202, 0.122138, 0.085408, 0.038025, -0.026371, 0.022415, 0.029410, 0.020071, 
    0.023634, -0.005256, -0.021261, -0.017965, -0.000981, 0.073514, 0.003849, 0.040665, 0.044622, 0.078580, 
    0.067335, -0.051413, -0.015454, 0.024223, 0.037454, 0.061203, 0.042992, 0.005494, 0.041990, -0.044436, 
    0.116242, 0.015155, 0.105052, 0.009356, 0.078853, 0.040153, -0.039633, 0.109236, -0.042533, -0.060414, 
    0.077476, 0.110915, -0.006349, 0.101113, 0.044553, 0.091471, 0.100326, -0.022256, 0.020707, 0.076662, 
    0.073017, 0.026043, 0.083364, -0.018955, 0.025546, 0.036380, 0.026121, -0.022660, -0.031210, 0.058251, 
    0.095480, -0.101313, -0.096997, 0.067465, 0.114809, 0.034740, -0.007433, 0.092229, -0.052245, 0.104066, 
    0.111840, -0.034169, -0.037409, 0.003376, 0.037314, 0.090625, 0.045175, 0.040507, 0.022927, -0.024515, 
    0.032495, 0.057080, 0.019813, 0.014327, 0.000777, 0.013426, 0.007012, 0.066884, 0.005690, 0.002806, 
    0.040506, 0.042797, 0.036369, -0.007117, 0.043724, 0.033484, 0.031652, -0.016920, 0.115347, -0.090154, 
    -0.067776, 0.047948, 0.095174, -0.021218, 0.010533, 0.106221, 0.051178, 0.109217, 0.065505, 0.079916, 
    0.078826, -0.006119, -0.054078, 0.039620, 0.044816, 0.102966, 0.063226, -0.016981, 0.037640, 0.008852, 
    0.066593, 0.111283, 0.082188, 0.018754, 0.018873, 0.109747, 0.065769, -0.022266, 0.027983, 0.029917, 
    0.019758, 0.032768, 0.022410, -0.004220, -0.009943, 0.077141, 0.046925, 0.053694, 0.034103, 0.126702, 
    0.127902, 0.040371, 0.030387, 0.019513, 0.006214, 0.056634, 0.017821, 0.115033, -0.008322, 0.012643, 
    0.006337, -0.032973, -0.096207, 0.092204, -0.015935, -0.041727, -0.036929, 0.096247, 0.083604, 0.046471, 
    0.020949, -0.031608, 0.022195, -0.069571, 0.074857, -0.004798, -0.077214, -0.014452, 0.030403, -0.071124, 
    0.040082, -0.040550, 0.116523, 0.047595, 0.153918, 0.150503, -0.069315, -0.034316, -0.056700, 0.087821, 
    -0.077358, -0.053728, 0.030788, 0.117363, -0.024902, -0.087332, -0.041100, 0.043386, 0.040811, -0.024490, 
    -0.055706, -0.028209, 0.079251, 0.108930, 0.109410, -0.027954, 0.032663, 0.016805, 0.047600, 0.026629, 
    0.032261, 0.023766, -0.059992, 0.024766, 0.116928, 0.034841, -0.037970, 0.061392, 0.002447, 0.021142, 
    0.055193, 0.018816, 0.008586, 0.027165, 0.049579, 0.060053, 0.079163, -0.008221, -0.005317, 0.073455, 
    0.019872, 0.007417, -0.022381, 0.046293, 0.002687, 0.016695, 0.059036, 0.029845, -0.000079, -0.084435, 
    -0.047054, -0.000855, 0.029155, 0.100598, -0.023759, 0.007884, 0.012292, 0.084775, -0.053979, 0.012038, 
    0.115213, 0.054364, 0.029000, 0.011610, 0.032063, 0.034666, -0.075929, -0.024621, 0.005242, 0.012436, 
    0.009368, 0.045466, 0.024914, 0.000976, -0.054310, 0.066658, 0.028371, -0.029427, 0.016816, 0.053376, 
    0.022269, 0.061243, -0.099900, 0.026171, 0.022535, 0.005964, 0.075280, 0.067977, -0.003897, -0.009300, 
    0.008761, -0.089735, -0.042026, 0.106834, -0.030849, -0.076941, -0.063755, 0.067770, 0.070512, 0.036298, 
    0.041486, -0.080500, -0.014463, 0.013492, 0.027902, 0.067231, -0.025815, 0.011607, 0.016679, 0.058504, 
    0.055383, 0.028624, 0.033868, 0.052465, 0.064874, 0.034727, 0.103744, -0.010993, -0.017666, -0.020680, 
    0.027095, 0.052629, 0.090779, -0.000902, 0.030696, 0.016711, 0.058549, -0.038381, 0.024141, -0.001119, 
    -0.053200, 0.078800, 0.087693, -0.018187, 0.013850, 0.054736, 0.000191, 0.076498, -0.019648, -0.023564, 
    0.087463, 0.139556, 0.038491, 0.062662, 0.009129, -0.013754, 0.062574, -0.006263, 0.037399, 0.055189, 
    0.101294, 0.140120, 0.066380, 0.022523, 0.076717, 0.055057, 0.002127, -0.041733, -0.048441, 0.011452, 
    0.002593, 0.060121, 0.109102, 0.032441, -0.003773, 0.070145, 0.061078, 0.046007, 0.023788, -0.001047, 
    0.026897, 0.078503, 0.047617, 0.121620, 0.053372, 0.048610, -0.000954, 0.033307, 0.040839, -0.076038, 
    -0.023508, 0.060669, 0.031749, -0.013975, -0.042829, 0.036738, 0.117213, -0.036362, 0.075330, 0.020221, 
    -0.063125, 0.050344, 0.109314, 0.062749, 0.003350, 0.127313, -0.102166, 0.087842, -0.001737, -0.018170, 
    0.004198, 0.132196, -0.043358, 0.064281, 0.029367, -0.025297, -0.036134, -0.108262, 0.047585, 0.021170, 
    0.071382, -0.017594, 0.093575, 0.115931, 0.074770, -0.090190, 0.042644, 0.026068, 0.051458, 0.044013, 
    -0.052345, 0.062071, 0.046075, 0.046729, 0.044566, -0.043434, -0.036776, 0.006790, -0.027281, 0.022845, 
    -0.046372, 0.049703, 0.008659, 0.021559, 0.001834, 0.000658, 0.004009, 0.035892, -0.016664, 0.051454, 
    0.012341, -0.059196, -0.045207, 0.054229, 0.018923, 0.008947, -0.046014, -0.023880, 0.021801, -0.041560, 
    -0.008997, -0.021245, -0.044606, -0.017086, -0.023067, -0.050410, -0.048054, -0.027865, -0.095549, -0.012199, 
    -0.077800, -0.000511, 0.076713, -0.025643, 0.007400, -0.065339, -0.033441, -0.065935, -0.093102, 0.020976, 
    0.016966, 0.038371, 0.079352, 0.047687, -0.021101, 0.033513, -0.018217, -0.018974, 0.009518, 0.018967, 
    0.021822, 0.004530, -0.037584, 0.103813, 0.043016, -0.009373, 0.022481, 0.058288, -0.006041, 0.068255, 
    -0.027185, -0.021710, 0.004090, 0.015957, -0.022108, 0.028359, 0.033373, 0.015513, -0.009679, 0.008020, 
    0.046734, -0.004708, 0.096393, 0.116294, -0.058731, 0.033418, -0.028954, -0.041099, 0.047907, -0.068805, 
    0.026763, 0.061706, 0.023683, 0.113206, 0.039853, 0.005451, 0.070243, -0.063925, 0.027482, -0.006290, 
    0.081463, 0.093203, -0.063213, 0.067517, 0.030463, 0.084254, -0.014533, 0.007441, 0.029371, 0.023578, 
    0.128090, 0.004629, 0.011030, 0.005516, 0.009197, -0.044402, -0.030665, 0.038899, 0.002032, -0.009182, 
    -0.012720, -0.045247, 0.044189, -0.026326, 0.018191, 0.094784, 0.081909, 0.023587, 0.000518, 0.124162, 
    -0.028942, 0.042272, 0.048489, 0.033736, 0.101071, 0.094157, 0.123901, 0.058341, 0.061002, 0.060229, 
    -0.013169, -0.005109, -0.038607, -0.047176, 0.056475, -0.052910, 0.066438, -0.000119, -0.098651, 0.081277, 
    0.054059, 0.000723, 0.021695, 0.019137, 0.080980, -0.007160, 0.030165, -0.060971, 0.018369, -0.082741, 
    -0.008014, -0.045643, 0.004328, 0.003517, -0.033723, 0.052908, -0.093945, 0.027262, -0.027993, -0.067854, 
    -0.057019, -0.103836, 0.051550, -0.024228, -0.029030, 0.013815, -0.001830, 0.018505, 0.093804, -0.048333, 
    -0.053988, 0.000084, -0.032920, -0.052691, 0.049753, 0.038149, 0.096263, 0.134110, 0.051459, 0.017729, 
    -0.040694, 0.057686, 0.075216, 0.057847, -0.003272, 0.091514, 0.076122, 0.084922, 0.033990, -0.006343, 
    -0.011934, 0.004839, 0.043158, 0.003104, -0.033090, 0.101340, -0.012047, 0.023603, 0.077365, 0.006955, 
    0.032232, 0.053627, -0.001187, 0.046941, -0.054233, 0.004203, -0.008268, 0.065780, -0.048539, 0.072077, 
    -0.053160, 0.040118, 0.047424, -0.032438, -0.019205, -0.051131, -0.034117, -0.008512, -0.082123, -0.035380, 
    0.013551, -0.029319, -0.000295, 0.025917, -0.078920, 0.058254, -0.051635, -0.055779, 0.035408, 0.002810, 
    0.049698, -0.019023, -0.026923, 0.079642, 0.018903, 0.094170, -0.001102, -0.144311, -0.036111, 0.026338, 
    0.021124, 0.000271, 0.024828, -0.072091, 0.108140, 0.036550, -0.107493, 0.011126, 0.051425, 0.020967, 
    -0.098332, -0.009947, 0.002127, -0.043082, -0.040100, 0.076286, -0.090850, -0.064207, 0.024236, -0.079425, 
    -0.080120, -0.079159, -0.023796, 0.017261, -0.007027, -0.034591, 0.018269, -0.094680, -0.026629, -0.059277, 
    0.016245, -0.000455, -0.084327, 0.038042, 0.091558, -0.002472, 0.063534, 0.015389, 0.047240, 0.035737, 
    0.098224, 0.060925, 0.065906, 0.111626, -0.041024, 0.029832, 0.085667, 0.043238, 0.027207, 0.044229, 
    0.091063, 0.050837, -0.027298, 0.077890, 0.008864, -0.009110, 0.020079, -0.062145, -0.054975, 0.025452, 
    0.091741, 0.027870, -0.029729, 0.076638, 0.064198, -0.031029, -0.061932, -0.059757, 0.004436, 0.031588, 
    -0.029012, 0.029588, 0.043180, 0.066040, -0.052429, 0.040520, 0.082454, 0.080137, 0.086553, 0.083005, 
    0.082860, 0.057005, -0.002525, 0.028960, 0.061676, -0.014641, 0.058399, -0.052256, 0.037558, 0.030431, 
    -0.025585, 0.069473, -0.048711, -0.118413, -0.031403, 0.079225, -0.003616, 0.001306, 0.016338, 0.014838, 
    -0.048764, -0.038461, -0.065271, -0.021468, 0.079972, 0.030784, -0.078857, -0.077692, -0.027366, 0.047851, 
    -0.007445, -0.055258, -0.051950, 0.021939, 0.031654, 0.004339, -0.067924, -0.082545, -0.000069, 0.060496, 
    0.034596, -0.028918, 0.042864, 0.019785, 0.023253, -0.035904, -0.036218, 0.075118, -0.076214, -0.004913, 
    0.039165, 0.021487, -0.043754, -0.017004, 0.050039, 0.109735, -0.006786, -0.025371, -0.009078, -0.021510, 
    -0.010997, 0.076620, 0.009567, 0.032085, -0.000125, -0.038586, -0.072760, -0.064083, -0.095244, 0.032175, 
    0.049293, -0.040155, 0.016493, -0.062299, 0.000484, -0.145262, -0.051557, -0.006527, -0.033240, -0.083019, 
    0.047461, 0.062375, 0.070843, 0.094039, -0.020374, -0.020718, 0.019851, 0.055983, 0.041889, -0.015946, 
    0.001428, 0.016466, -0.012149, 0.008574, 0.006198, 0.000764, -0.009769, -0.025646, 0.035223, -0.006066, 
    0.055123, -0.088254, 0.010542, -0.006553, 0.089574, 0.034248, -0.028048, 0.065073, 0.022921, 0.066956, 
    -0.007535, -0.054569, -0.088312, -0.125213, 0.025789, 0.025063, -0.058693, -0.064961, 0.038845, -0.015384, 
    -0.125418, -0.072723, 0.054268, 0.054647, 0.075588, 0.026095, -0.035923, 0.003461, 0.027096, -0.094888, 
    0.079313, 0.018748, -0.032720, -0.001148, -0.004075, -0.048040, -0.017417, -0.026613, -0.074949, 0.053183, 
